~o
<STREAMINFO> 1 39
<VECSIZE> 39<NULLD><MFCC_D_A_0><DIAGC>
~v "varFloor1"
<VARIANCE> 39
 6.754285e+00 3.412382e+00 5.608406e+00 4.796288e+00 3.472278e+00 4.011306e+00 4.413544e+00 3.617784e+00 3.683816e+00 3.040248e+00 2.640156e+00 2.509632e+00 1.299030e+01 2.278168e-01 1.545930e-01 2.184475e-01 2.118017e-01 1.813441e-01 2.097645e-01 2.257998e-01 2.166213e-01 2.009591e-01 1.748390e-01 1.664857e-01 1.534652e-01 2.729186e-01 3.005252e-02 2.352007e-02 2.950203e-02 3.333135e-02 2.970526e-02 3.527972e-02 3.796952e-02 3.764049e-02 3.477431e-02 3.067440e-02 2.924915e-02 2.697382e-02 3.680100e-02
~s "silst"
<NUMMIXES> 8
<MIXTURE> 1 7.027621e-02
<MEAN> 39
 -1.801042e+01 1.080639e+01 5.774800e+00 1.102820e+01 5.290198e+00 5.731170e+00 4.642844e+00 6.143781e+00 2.907720e+00 3.437198e+00 1.226592e+00 2.462517e+00 5.170893e+01 1.203249e-01 6.089377e-01 8.056590e-01 9.263803e-01 1.052437e+00 1.130363e+00 9.686478e-01 8.478360e-01 8.808773e-01 8.064168e-01 7.537237e-01 4.293363e-01 -6.500356e-02 7.976525e-03 -1.575186e-01 -1.292622e-01 -1.450773e-01 -1.477010e-01 -1.307311e-01 -9.915380e-02 -1.073496e-01 -7.397852e-02 -3.941349e-02 -8.405305e-02 -3.780483e-02 8.094365e-02
<VARIANCE> 39
 2.362492e+01 3.941029e+01 4.683498e+01 5.707052e+01 7.090094e+01 8.439213e+01 9.386182e+01 1.047929e+02 1.062982e+02 1.052201e+02 1.081651e+02 9.469061e+01 1.299030e+01 1.607144e+00 2.303930e+00 3.481528e+00 4.805191e+00 5.986198e+00 7.295992e+00 9.051227e+00 9.533776e+00 1.008165e+01 9.820328e+00 9.989868e+00 9.130953e+00 7.225606e-01 2.410924e-01 4.097356e-01 6.345139e-01 8.889452e-01 1.153990e+00 1.463161e+00 1.701990e+00 1.861036e+00 1.955469e+00 1.921948e+00 1.954171e+00 1.800576e+00 9.871961e-02
<GCONST> 1.456159e+02
<MIXTURE> 2 1.298216e-01
<MEAN> 39
 -2.613075e+01 4.295495e+00 -1.812654e+00 1.206067e+00 -5.542327e+00 -6.072752e+00 -8.026823e+00 -4.529344e+00 -3.450111e+00 8.467905e-01 1.630139e+00 3.099165e+00 4.747921e+01 3.170391e-01 4.480036e-01 5.809069e-01 7.058106e-01 7.744650e-01 8.575799e-01 8.629460e-01 7.588731e-01 6.880669e-01 6.710078e-01 5.257240e-01 3.596121e-01 1.383850e-01 2.488784e-01 9.622138e-02 1.858076e-01 2.785655e-01 3.742271e-01 4.930307e-01 5.832018e-01 5.008220e-01 2.746146e-01 9.449469e-02 -1.161117e-01 -8.825716e-02 2.222050e-01
<VARIANCE> 39
 2.067953e+01 2.217283e+01 2.953796e+01 3.879557e+01 5.037489e+01 6.425784e+01 7.717114e+01 8.250851e+01 8.360545e+01 8.319250e+01 8.157037e+01 7.386926e+01 1.299030e+01 9.987507e-01 1.625563e+00 2.893218e+00 3.981648e+00 5.082726e+00 6.229807e+00 7.627782e+00 8.378770e+00 8.852522e+00 8.822095e+00 8.487749e+00 7.942533e+00 4.478464e-01 2.455669e-01 3.770755e-01 6.308649e-01 8.744161e-01 1.084012e+00 1.299690e+00 1.578112e+00 1.736001e+00 1.754953e+00 1.790465e+00 1.761445e+00 1.594726e+00 1.282042e-01
<GCONST> 1.386125e+02
<MIXTURE> 3 1.279722e-01
<MEAN> 39
 -2.606693e+01 5.203487e+00 -1.007343e+00 1.664282e+00 -5.142311e+00 -5.319963e+00 -6.999500e+00 -3.426202e+00 -2.466598e+00 1.317692e+00 1.711609e+00 2.876796e+00 4.719665e+01 -1.694395e-01 -1.137930e-01 -1.260726e-01 -1.872981e-01 -2.311057e-01 -2.444424e-01 -2.698238e-01 -1.949169e-01 -6.061764e-02 2.605664e-02 1.230393e-01 1.328135e-01 -8.956517e-02 8.191599e-02 1.217780e-02 5.653563e-02 1.330907e-01 1.676847e-01 1.528322e-01 1.439904e-01 1.387482e-01 9.741087e-02 7.195008e-02 3.999722e-02 2.956668e-02 7.751597e-02
<VARIANCE> 39
 1.351629e+01 1.569101e+01 2.261305e+01 3.159162e+01 4.439431e+01 5.626014e+01 6.583548e+01 7.069305e+01 7.185671e+01 7.108187e+01 6.872570e+01 6.388301e+01 1.299030e+01 6.701363e-01 1.345806e+00 2.476379e+00 3.531439e+00 4.693038e+00 5.741454e+00 6.857676e+00 7.674957e+00 7.876722e+00 7.768753e+00 7.636512e+00 7.097798e+00 2.762330e-01 1.157972e-01 2.458612e-01 4.489410e-01 6.643590e-01 8.778691e-01 1.062625e+00 1.255044e+00 1.408994e+00 1.492650e+00 1.489782e+00 1.457947e+00 1.360520e+00 4.986444e-02
<GCONST> 1.297242e+02
<MIXTURE> 4 1.491971e-01
<MEAN> 39
 -2.506285e+01 3.698609e+00 -1.159972e+00 4.448931e+00 9.964373e-01 2.985378e+00 2.301286e+00 4.864784e+00 2.705672e+00 3.436810e+00 1.288357e+00 2.555527e+00 4.863544e+01 -5.555372e-01 6.207674e-02 1.683250e-01 -9.811389e-03 -8.589379e-02 -1.572689e-01 -3.363077e-01 -3.115602e-01 1.300317e-01 6.500277e-01 7.961814e-01 5.510541e-01 -3.977070e-01 2.765864e-01 -3.211298e-02 1.336596e-01 8.099006e-02 -9.696602e-02 -2.260846e-01 -1.726742e-01 -1.708452e-01 -2.427553e-01 -1.482638e-01 -1.309255e-01 -1.837726e-02 3.454029e-01
<VARIANCE> 39
 4.455841e+01 4.257112e+01 4.951330e+01 5.920163e+01 7.239570e+01 9.158214e+01 1.082348e+02 1.147060e+02 1.163791e+02 1.144757e+02 1.125434e+02 9.857159e+01 2.205822e+01 2.038682e+00 2.624371e+00 3.872503e+00 5.075805e+00 6.337584e+00 7.784713e+00 9.190997e+00 1.026514e+01 1.042103e+01 1.048671e+01 1.029762e+01 9.255364e+00 1.164389e+00 4.381247e-01 6.602715e-01 8.674235e-01 1.121314e+00 1.380791e+00 1.685052e+00 1.980915e+00 2.201303e+00 2.243212e+00 2.296421e+00 2.256149e+00 1.999549e+00 3.660510e-01
<GCONST> 1.530337e+02
<MIXTURE> 5 1.799830e-01
<MEAN> 39
 -2.737546e+01 3.745311e+00 -2.483981e+00 1.966369e-01 -6.911799e+00 -7.651027e+00 -9.907971e+00 -6.099485e+00 -4.206794e+00 4.861082e-01 1.516382e+00 2.744240e+00 4.656293e+01 -7.239503e-02 -5.274909e-03 8.145127e-03 -3.950276e-03 -1.675738e-02 -1.548061e-02 -7.859722e-02 -1.112360e-01 -8.404913e-02 -4.408721e-02 -1.057096e-01 -1.283560e-01 -4.835533e-02 8.504590e-02 -1.345307e-03 5.060010e-02 8.203441e-02 1.602791e-01 2.402156e-01 3.133704e-01 2.817101e-01 1.182084e-01 1.024752e-02 -1.039885e-01 -6.701148e-02 1.105817e-01
<VARIANCE> 39
 1.394201e+01 1.902737e+01 2.633072e+01 3.546650e+01 4.747984e+01 6.010452e+01 7.095974e+01 7.708255e+01 7.814133e+01 7.747700e+01 7.465719e+01 6.806760e+01 1.299030e+01 6.701052e-01 1.350182e+00 2.446328e+00 3.510585e+00 4.634117e+00 5.692600e+00 6.819145e+00 7.601357e+00 7.938260e+00 7.897472e+00 7.755790e+00 7.135833e+00 3.056781e-01 1.688122e-01 3.174758e-01 5.427639e-01 7.874357e-01 1.018793e+00 1.209695e+00 1.441435e+00 1.607477e+00 1.647012e+00 1.647726e+00 1.614878e+00 1.470681e+00 9.017979e-02
<GCONST> 1.334347e+02
<MIXTURE> 6 1.268963e-01
<MEAN> 39
 -2.578717e+01 3.652007e+00 -1.795012e+00 2.952825e+00 -1.155491e+00 3.817488e-01 -7.959266e-01 1.988241e+00 6.305202e-01 2.301729e+00 1.025527e+00 2.503915e+00 4.796478e+01 -9.692503e-01 -3.567597e-01 -4.154892e-01 -8.584965e-01 -1.067597e+00 -1.238297e+00 -1.541960e+00 -1.535556e+00 -9.558854e-01 -3.863398e-01 -1.433914e-01 -1.154090e-01 -6.136159e-01 1.828150e-01 -1.870026e-01 -1.497306e-02 -5.659189e-02 -1.931013e-01 -3.041525e-01 -2.119620e-01 -1.666513e-01 -2.504107e-01 -1.741772e-01 -1.543602e-01 -4.373373e-02 3.449615e-01
<VARIANCE> 39
 3.284614e+01 3.569615e+01 4.472365e+01 5.245025e+01 6.655767e+01 8.530389e+01 1.017484e+02 1.067819e+02 1.089260e+02 1.047629e+02 1.021050e+02 9.140207e+01 1.553381e+01 2.108345e+00 2.857535e+00 4.139335e+00 5.201964e+00 6.581186e+00 8.179537e+00 9.649680e+00 1.069167e+01 1.063864e+01 1.074957e+01 1.032641e+01 9.072146e+00 1.251569e+00 4.094227e-01 6.472910e-01 8.855685e-01 1.125204e+00 1.360653e+00 1.648437e+00 1.959596e+00 2.171449e+00 2.213411e+00 2.252934e+00 2.187236e+00 1.923853e+00 3.607003e-01
<GCONST> 1.516085e+02
<MIXTURE> 7 7.225786e-02
<MEAN> 39
 -2.669194e+01 4.642776e+00 -1.933760e+00 4.315720e-01 -6.574631e+00 -6.736502e+00 -8.531852e+00 -4.842897e+00 -3.669917e+00 5.350053e-01 1.252531e+00 2.453357e+00 4.678305e+01 -4.733740e-01 -5.247321e-01 -6.323140e-01 -8.372911e-01 -9.679769e-01 -1.003097e+00 -1.045977e+00 -9.705231e-01 -8.304726e-01 -8.040448e-01 -7.187097e-01 -4.846941e-01 -2.153718e-01 1.778659e-02 -3.159041e-02 3.045083e-02 8.676323e-02 1.113846e-01 7.138648e-02 5.871671e-02 7.098559e-02 6.507662e-02 4.399933e-02 1.347851e-02 1.746228e-02 4.280371e-02
<VARIANCE> 39
 1.087527e+01 1.496114e+01 2.171669e+01 2.994050e+01 4.205402e+01 5.284604e+01 6.101509e+01 6.635124e+01 6.903436e+01 6.775211e+01 6.664278e+01 6.248507e+01 1.299030e+01 6.798186e-01 1.412620e+00 2.501857e+00 3.614987e+00 4.741265e+00 5.752794e+00 6.867672e+00 7.809627e+00 7.755097e+00 7.604443e+00 7.640398e+00 6.965132e+00 2.776955e-01 1.072891e-01 2.458524e-01 4.522793e-01 6.400533e-01 8.616871e-01 1.070676e+00 1.242033e+00 1.379327e+00 1.450838e+00 1.437331e+00 1.460249e+00 1.350296e+00 4.776581e-02
<GCONST> 1.287831e+02
<MIXTURE> 8 1.434203e-01
<MEAN> 39
 -2.057011e+01 7.775690e+00 2.470244e+00 7.459529e+00 1.680898e+00 2.050925e+00 9.320402e-01 2.918448e+00 6.665981e-02 8.681831e-01 -6.651776e-01 1.158100e+00 5.077816e+01 -3.119880e-01 1.249988e-01 1.700999e-01 8.980125e-02 1.082196e-01 1.086117e-01 -8.535007e-02 -1.921188e-01 -1.258584e-01 -7.042979e-02 -1.364024e-01 -1.980811e-01 -2.585100e-01 -1.691009e-01 -3.323101e-01 -3.456022e-01 -4.047720e-01 -4.263950e-01 -4.194985e-01 -3.802491e-01 -3.233608e-01 -2.109488e-01 -6.140184e-02 -1.582620e-02 2.848137e-02 8.465594e-04
<VARIANCE> 39
 2.817182e+01 3.556433e+01 4.421164e+01 5.450338e+01 6.894667e+01 8.494523e+01 9.747181e+01 1.072435e+02 1.144608e+02 1.110948e+02 1.091074e+02 9.705625e+01 1.419257e+01 1.549494e+00 2.160240e+00 3.374748e+00 4.596821e+00 5.792336e+00 7.190700e+00 8.667051e+00 9.451611e+00 9.849934e+00 9.863113e+00 9.983416e+00 8.926594e+00 7.809698e-01 2.208109e-01 3.847052e-01 6.175964e-01 8.688834e-01 1.135766e+00 1.401681e+00 1.671765e+00 1.867266e+00 1.999003e+00 1.990454e+00 1.975830e+00 1.798505e+00 1.027502e-01
<GCONST> 1.454676e+02
~h "f"
<BEGINHMM>
<NUMSTATES> 5
<STATE> 2
<NUMMIXES> 8
<MIXTURE> 1 7.634930e-02
<MEAN> 39
 -3.182541e+01 -1.148295e+01 6.395676e-01 4.261756e+00 -2.693832e+00 -6.988342e-01 -6.995809e+00 4.262714e-01 -6.012458e+00 1.797578e+00 -5.129868e+00 1.198871e+00 8.749562e+01 -4.014829e-01 -1.156499e-01 4.602554e-01 1.010109e+00 1.566627e+00 2.429677e+00 2.309644e+00 2.050854e+00 1.773281e+00 1.869569e+00 1.332934e+00 7.303428e-01 4.189191e-01 1.362336e+00 2.334832e-01 3.224587e-02 -3.559639e-01 2.526301e-01 1.654860e-01 3.899554e-01 1.195302e-01 3.480517e-01 4.757574e-01 2.925698e-01 1.955800e-01 8.859792e-01
<VARIANCE> 39
 1.239237e+02 1.086746e+02 6.899168e+01 7.448280e+01 8.352258e+01 1.084128e+02 1.179200e+02 1.146669e+02 1.331871e+02 1.252734e+02 1.255486e+02 1.200427e+02 3.601987e+02 1.031149e+01 7.977335e+00 7.139663e+00 7.711048e+00 8.930116e+00 1.052281e+01 1.030737e+01 1.231593e+01 1.239610e+01 1.217865e+01 1.245214e+01 1.082637e+01 2.315660e+01 4.038444e+00 1.857296e+00 1.519682e+00 2.077779e+00 1.829657e+00 2.293180e+00 2.417896e+00 2.474639e+00 2.558674e+00 2.716517e+00 2.749279e+00 2.339526e+00 4.075689e+00
<GCONST> 1.760434e+02
<MIXTURE> 2 9.447540e-02
<MEAN> 39
 -2.956800e+01 -9.024279e+00 3.661366e+00 7.348086e+00 1.851694e+00 3.023713e+00 -2.881840e+00 5.226175e+00 6.884179e-02 7.946275e+00 -1.022878e+00 3.862820e+00 8.521293e+01 -9.671935e-01 -1.685521e+00 -8.042124e-01 -4.315492e-01 -1.033507e-01 4.555434e-01 -2.394987e-01 1.313623e-01 4.536234e-01 8.086439e-01 6.691595e-01 6.074463e-01 1.814224e+00 1.898533e+00 2.717600e-01 -1.643276e-01 -9.566918e-01 -3.491840e-01 -2.473372e-01 -1.260764e-02 -4.908726e-01 -6.039153e-01 -3.130455e-01 -3.241516e-01 -2.336464e-01 1.277235e+00
<VARIANCE> 39
 1.526870e+02 1.291870e+02 1.153288e+02 1.132367e+02 1.436431e+02 1.592947e+02 1.694709e+02 1.615412e+02 1.732280e+02 1.679827e+02 1.473178e+02 1.378157e+02 3.861275e+02 2.667876e+01 1.331451e+01 1.125784e+01 1.241089e+01 1.162854e+01 1.438061e+01 1.383839e+01 1.437061e+01 1.408660e+01 1.489390e+01 1.387969e+01 1.230616e+01 4.425730e+01 6.083707e+00 2.829593e+00 2.959702e+00 3.742301e+00 3.437943e+00 3.557376e+00 4.080835e+00 3.809493e+00 4.054454e+00 4.039537e+00 3.655911e+00 2.929063e+00 5.364336e+00
<GCONST> 1.902988e+02
<MIXTURE> 3 2.471468e-01
<MEAN> 39
 -3.584705e+01 -1.751097e+01 -3.118829e+00 1.515757e+00 -3.961681e+00 -1.306799e+00 -8.059443e+00 -2.904641e-01 -5.737341e+00 4.057220e+00 -3.469458e+00 2.967288e+00 9.334927e+01 -3.451003e-01 -1.834536e-01 -3.237318e-01 -1.859589e-01 1.280312e-01 4.685045e-01 9.890717e-02 -1.489332e-02 -1.031606e-01 1.537141e-01 1.988296e-01 1.321419e-01 7.547030e-01 1.263963e+00 5.888699e-01 5.265776e-01 3.194622e-01 5.207571e-01 3.469910e-01 5.245372e-01 2.667896e-01 2.551819e-01 1.400414e-01 7.568986e-02 3.670365e-02 3.693860e-01
<VARIANCE> 39
 7.211915e+01 6.693810e+01 6.057301e+01 6.483875e+01 7.420359e+01 8.572755e+01 9.498765e+01 9.908958e+01 9.722868e+01 9.479845e+01 9.403084e+01 8.451614e+01 2.525810e+02 4.969946e+00 4.217961e+00 4.835787e+00 5.954156e+00 6.803020e+00 7.834067e+00 9.220005e+00 9.365513e+00 9.611166e+00 9.682373e+00 9.409655e+00 8.873081e+00 9.430212e+00 1.676644e+00 1.057286e+00 1.149987e+00 1.463978e+00 1.599147e+00 1.775537e+00 1.983734e+00 1.961960e+00 1.950890e+00 1.984727e+00 1.929271e+00 1.734514e+00 1.648938e+00
<GCONST> 1.625807e+02
<MIXTURE> 4 8.992358e-02
<MEAN> 39
 -3.319157e+01 -1.638081e+01 1.938373e+00 6.265736e+00 -1.103041e+00 -1.636135e+00 -6.985949e+00 1.738008e+00 -3.269989e+00 4.822243e+00 -3.061593e+00 3.687877e+00 1.001638e+02 -4.629441e+00 -3.425948e+00 -4.360548e+00 -3.542222e+00 -3.069437e+00 -2.241176e+00 -2.764063e+00 -1.149783e+00 -2.696834e-01 4.669718e-02 2.619565e-01 1.076775e-01 -5.534527e-01 2.945475e+00 1.435184e+00 1.237334e+00 1.203134e-03 4.831904e-01 5.999667e-01 9.511744e-01 -1.761936e-01 -5.138280e-01 9.023955e-02 -2.199682e-01 1.238457e-02 3.229184e-01
<VARIANCE> 39
 8.051379e+01 6.731017e+01 9.135609e+01 9.878255e+01 1.128178e+02 1.300258e+02 1.254168e+02 1.411628e+02 1.389931e+02 1.230052e+02 1.141236e+02 1.078219e+02 1.788772e+02 1.807024e+01 8.855414e+00 1.016236e+01 1.046033e+01 1.039646e+01 1.150666e+01 1.229668e+01 1.390000e+01 1.453067e+01 1.332600e+01 1.210843e+01 1.146722e+01 1.215352e+01 1.840574e+00 1.661592e+00 2.735717e+00 4.055830e+00 3.041842e+00 2.906259e+00 3.324249e+00 4.204477e+00 4.290843e+00 3.433766e+00 3.119890e+00 3.094572e+00 1.670989e+00
<GCONST> 1.792851e+02
<MIXTURE> 5 1.960201e-01
<MEAN> 39
 -3.578917e+01 -1.808145e+01 -3.603826e+00 7.779610e-01 -4.784071e+00 -1.912932e+00 -8.719075e+00 -1.548400e+00 -6.660561e+00 3.191899e+00 -3.961452e+00 2.484857e+00 9.012290e+01 -7.462108e-01 -6.744972e-01 -7.838802e-01 -8.063606e-01 -8.795851e-01 -6.784909e-01 -1.258375e+00 -1.241162e+00 -1.443674e+00 -1.191039e+00 -1.056161e+00 -6.149336e-01 1.276133e+00 8.534790e-01 4.112413e-01 2.629923e-01 1.899288e-01 3.167887e-01 1.578717e-01 2.922314e-01 1.575612e-01 1.741285e-01 4.636519e-02 4.078605e-02 -1.144695e-02 3.161315e-01
<VARIANCE> 39
 7.143044e+01 7.122417e+01 5.790281e+01 6.307631e+01 7.252966e+01 8.665757e+01 1.001354e+02 1.037391e+02 1.051581e+02 1.002541e+02 9.785527e+01 9.050781e+01 2.544356e+02 4.818775e+00 4.783686e+00 4.869309e+00 6.110469e+00 7.096143e+00 8.283156e+00 9.767225e+00 9.908804e+00 9.904193e+00 9.951887e+00 9.832184e+00 9.255466e+00 9.926103e+00 1.359078e+00 1.096352e+00 1.037701e+00 1.269577e+00 1.481125e+00 1.769401e+00 2.063463e+00 2.054449e+00 2.012552e+00 2.101318e+00 1.947630e+00 1.809955e+00 1.823270e+00
<GCONST> 1.632589e+02
<MIXTURE> 6 1.379708e-01
<MEAN> 39
 -3.274684e+01 -1.170637e+01 -5.055065e-01 3.922324e+00 -3.255801e+00 -7.329627e-01 -7.919058e+00 -6.956333e-01 -6.901303e+00 1.387972e+00 -5.188521e+00 8.257269e-01 8.207506e+01 -1.134208e+00 -8.869897e-01 -2.531081e-01 1.172487e-02 2.866122e-01 9.896272e-01 6.355355e-01 5.630250e-01 1.620186e-01 3.458939e-01 -3.976160e-03 -9.332554e-02 1.162160e+00 9.080490e-01 2.276609e-02 -1.131561e-01 -3.507508e-01 4.919452e-03 -1.125229e-01 1.788371e-01 3.478859e-02 2.664299e-01 2.823029e-01 1.903203e-01 1.961978e-01 1.052512e+00
<VARIANCE> 39
 1.288789e+02 1.068122e+02 6.857954e+01 6.790676e+01 8.098890e+01 1.008060e+02 1.135414e+02 1.136316e+02 1.208331e+02 1.103820e+02 1.154881e+02 1.010356e+02 3.321741e+02 9.356590e+00 8.656649e+00 6.137888e+00 6.906256e+00 8.313055e+00 9.495515e+00 1.019070e+01 1.098368e+01 1.106850e+01 1.051446e+01 1.076104e+01 9.888835e+00 2.460826e+01 3.305398e+00 1.902828e+00 1.357532e+00 1.589532e+00 1.782446e+00 2.104235e+00 2.283624e+00 2.317911e+00 2.368958e+00 2.356101e+00 2.402519e+00 2.073014e+00 4.577517e+00
<GCONST> 1.730922e+02
<MIXTURE> 7 9.817570e-02
<MEAN> 39
 -2.989268e+01 -1.134601e+01 1.651021e+00 5.217951e+00 6.032612e-01 1.925281e+00 -3.792802e+00 3.744726e+00 -5.512732e-01 7.990487e+00 -8.205303e-01 3.982745e+00 8.478757e+01 -2.529109e+00 -2.933042e+00 -1.662635e+00 -1.488092e+00 -1.456729e+00 -1.120607e+00 -2.161933e+00 -1.438719e+00 -1.212313e+00 -7.517495e-01 -6.655712e-01 -3.085238e-01 2.113313e+00 1.382558e+00 3.932944e-01 -6.882894e-02 -4.582218e-01 -3.170424e-01 -2.747410e-01 -6.904667e-02 -4.236450e-01 -6.693969e-01 -5.484644e-01 -3.518544e-01 -2.349702e-01 8.824235e-01
<VARIANCE> 39
 1.321375e+02 1.194436e+02 1.031377e+02 1.090999e+02 1.269054e+02 1.481180e+02 1.600825e+02 1.524417e+02 1.497744e+02 1.414496e+02 1.362590e+02 1.238820e+02 3.637893e+02 2.440250e+01 1.314299e+01 1.024939e+01 1.147756e+01 1.159345e+01 1.321625e+01 1.321373e+01 1.356024e+01 1.413610e+01 1.467163e+01 1.346566e+01 1.231791e+01 3.869614e+01 4.908988e+00 2.449702e+00 2.629676e+00 3.086404e+00 3.063990e+00 3.261141e+00 3.725328e+00 3.438978e+00 3.362803e+00 3.333787e+00 3.316955e+00 2.802496e+00 4.791071e+00
<GCONST> 1.867140e+02
<MIXTURE> 8 5.989682e-02
<MEAN> 39
 -3.314040e+01 -1.550248e+01 2.424706e+00 6.673661e+00 -5.949618e-01 -4.842380e-01 -5.954538e+00 2.216634e+00 -3.959622e+00 4.317782e+00 -3.445139e+00 2.613907e+00 1.006420e+02 -6.190578e+00 -4.649935e+00 -5.158448e+00 -4.433751e+00 -4.879383e+00 -4.116582e+00 -4.912107e+00 -2.974326e+00 -2.274680e+00 -1.923350e+00 -1.362836e+00 -1.180780e+00 -6.067938e-01 3.166640e+00 1.272418e+00 8.177170e-01 -4.835101e-01 2.306764e-01 1.125169e-01 6.810579e-01 -5.860246e-01 -4.474540e-01 1.636591e-01 -2.251106e-01 3.773115e-01 3.086472e-01
<VARIANCE> 39
 7.532041e+01 7.890098e+01 1.058522e+02 1.088588e+02 1.195886e+02 1.444029e+02 1.445256e+02 1.453653e+02 1.444726e+02 1.367000e+02 1.248134e+02 1.133806e+02 1.532763e+02 1.865118e+01 1.013149e+01 1.177844e+01 1.164466e+01 1.117670e+01 1.222028e+01 1.315765e+01 1.414248e+01 1.504113e+01 1.339458e+01 1.281881e+01 1.268919e+01 1.132552e+01 2.287798e+00 1.981610e+00 3.278237e+00 4.830545e+00 3.267991e+00 3.659771e+00 3.701038e+00 4.634132e+00 4.382167e+00 3.544119e+00 3.373020e+00 3.366263e+00 1.598251e+00
<GCONST> 1.822782e+02
<STATE> 3
<NUMMIXES> 8
<MIXTURE> 1 8.731077e-02
<MEAN> 39
 -1.829174e+01 -1.216786e+01 2.144361e+00 4.146696e+00 4.565759e+00 5.229049e+00 -1.916763e+00 3.041711e+00 -2.719727e-01 7.136036e+00 -1.929661e+00 3.795528e+00 1.005753e+02 1.721107e+01 4.078301e+00 7.358548e-01 -9.365482e+00 1.440126e+00 1.066411e+00 4.037206e+00 -4.529076e-01 8.273990e-01 3.534927e+00 -6.573119e-01 1.555204e+00 7.785658e+00 1.683365e+00 -3.748854e-01 -4.155759e-01 -3.757140e+00 -5.893506e-01 -6.389420e-01 3.321980e-01 -3.648800e-01 -2.636291e-01 7.238668e-01 -4.955705e-01 4.550368e-01 1.702414e+00
<VARIANCE> 39
 1.110810e+02 6.850662e+01 6.255967e+01 7.207059e+01 9.888780e+01 1.101923e+02 1.094679e+02 1.054535e+02 1.276980e+02 1.214068e+02 9.749701e+01 9.400660e+01 1.757876e+02 1.248212e+01 3.121032e+01 1.278779e+01 2.599687e+01 1.711396e+01 1.791671e+01 2.303026e+01 1.928256e+01 3.811198e+01 2.363936e+01 3.114898e+01 2.005347e+01 2.832708e+01 2.748050e+00 3.976288e+00 1.957112e+00 3.208146e+00 3.256246e+00 3.250483e+00 3.502935e+00 2.945831e+00 4.365305e+00 3.273518e+00 3.694120e+00 3.021302e+00 3.641633e+00
<GCONST> 1.870834e+02
<MIXTURE> 2 1.449584e-01
<MEAN> 39
 -3.121020e+01 -1.963989e+01 -4.307340e+00 6.708536e-01 -1.895680e+00 -1.281585e-02 -7.162314e+00 -4.067213e-01 -5.558074e+00 4.655927e+00 -3.190179e+00 3.167602e+00 1.047745e+02 8.962747e+00 3.511738e+00 1.634570e+00 -6.075026e-01 2.013140e+00 2.329513e+00 3.018421e+00 1.408428e+00 1.580933e+00 1.698079e+00 1.004259e+00 7.809424e-01 2.181205e+00 4.521124e+00 2.003898e+00 9.589854e-01 -2.669890e+00 -8.650143e-01 1.072741e-01 6.052058e-01 3.328063e-01 -3.642946e-01 4.114304e-01 -1.125711e-01 -1.289773e-01 6.884738e-01
<VARIANCE> 39
 9.981635e+01 5.418063e+01 5.882694e+01 6.878458e+01 7.843923e+01 9.560528e+01 1.004240e+02 1.004606e+02 1.066597e+02 1.048784e+02 1.041256e+02 9.473048e+01 1.516825e+02 1.892826e+01 1.037434e+01 6.883739e+00 1.046180e+01 9.591895e+00 9.515358e+00 1.035287e+01 1.057308e+01 1.179114e+01 1.162816e+01 1.206918e+01 9.990211e+00 1.666134e+01 1.733849e+00 3.399962e+00 2.433171e+00 3.406080e+00 3.545348e+00 3.268795e+00 3.834308e+00 3.557892e+00 4.029167e+00 3.646516e+00 4.649916e+00 3.337596e+00 3.814797e+00
<GCONST> 1.772738e+02
<MIXTURE> 3 1.076225e-01
<MEAN> 39
 -1.897919e+01 -1.490063e+01 -2.973558e+00 -2.283977e-01 5.593480e-01 2.493469e+00 -3.533276e+00 -1.157065e-01 -3.644385e+00 7.619621e+00 -2.338276e+00 4.127630e+00 1.062732e+02 1.647150e+01 5.768291e+00 3.187513e+00 -6.392104e+00 -3.435843e+00 2.076419e+00 1.275111e+00 2.315973e+00 -1.364091e+00 1.072608e+00 2.306490e+00 -1.112183e+00 5.216009e+00 2.434822e+00 6.659480e-01 8.603677e-01 -2.754116e+00 -2.159408e+00 2.437380e-01 -7.000600e-01 7.919731e-01 -9.737806e-01 4.587413e-02 5.265663e-01 -9.846633e-01 1.051192e+00
<VARIANCE> 39
 1.154568e+02 6.012431e+01 6.147759e+01 7.306791e+01 1.089887e+02 1.298636e+02 1.237690e+02 1.267716e+02 1.131786e+02 1.224914e+02 1.143737e+02 9.844168e+01 1.674717e+02 1.188958e+01 2.387490e+01 1.778735e+01 1.909012e+01 2.291289e+01 2.050397e+01 1.863308e+01 2.117805e+01 2.403496e+01 2.583604e+01 3.299747e+01 1.482082e+01 2.965020e+01 2.432113e+00 4.260348e+00 3.125437e+00 3.475859e+00 4.363237e+00 4.495680e+00 4.383889e+00 3.990859e+00 4.444577e+00 4.728603e+00 5.795437e+00 3.287048e+00 4.503186e+00
<GCONST> 1.898164e+02
<MIXTURE> 4 1.328230e-01
<MEAN> 39
 -3.284978e+01 -1.822819e+01 -3.164796e+00 -1.504697e+00 -6.441316e+00 -3.902473e+00 -1.087673e+01 -3.312884e+00 -9.342313e+00 7.074731e-02 -5.787523e+00 1.759109e+00 9.987899e+01 6.797401e+00 1.684530e-01 -3.136717e-01 -1.339539e+00 6.993354e-01 3.401288e-01 6.793681e-01 -7.255256e-02 1.008809e+00 9.246193e-01 -1.256263e-01 2.513407e-01 7.228033e+00 4.284549e+00 1.578879e+00 5.388097e-01 -1.354804e+00 4.347425e-01 8.802797e-01 1.403276e+00 6.217521e-01 8.919973e-01 1.312467e+00 2.877999e-01 -3.877963e-03 4.788771e-01
<VARIANCE> 39
 1.251076e+02 6.004663e+01 5.308356e+01 6.176989e+01 6.146619e+01 7.006151e+01 6.911188e+01 7.649286e+01 8.392080e+01 7.829435e+01 7.340985e+01 6.888554e+01 2.213427e+02 2.093987e+01 1.068517e+01 6.567456e+00 8.269647e+00 7.972610e+00 9.221955e+00 9.691022e+00 1.059335e+01 1.206663e+01 1.092013e+01 1.108432e+01 9.807326e+00 3.331892e+01 2.431124e+00 3.068995e+00 2.228545e+00 2.922557e+00 2.882663e+00 2.487906e+00 2.531542e+00 2.823359e+00 3.685968e+00 3.165450e+00 3.554871e+00 2.399972e+00 5.849398e+00
<GCONST> 1.739536e+02
<MIXTURE> 5 1.610384e-01
<MEAN> 39
 -3.364413e+01 -2.097217e+01 -6.046364e+00 -4.457506e-02 -2.508808e+00 -3.413251e-01 -8.068071e+00 -1.821642e+00 -6.583632e+00 4.629366e+00 -3.605228e+00 2.726371e+00 1.027196e+02 7.628060e+00 2.568043e+00 7.774713e-01 -1.227906e+00 7.429928e-01 1.139908e+00 1.652422e+00 3.964368e-01 3.493397e-01 2.697681e-01 1.623740e-02 -8.760025e-02 2.474250e+00 4.635924e+00 2.054094e+00 1.260063e+00 -2.228321e+00 -8.654909e-01 1.701569e-01 5.387275e-01 5.208557e-01 -2.599624e-01 2.289100e-01 1.714684e-01 -2.881984e-01 8.186368e-01
<VARIANCE> 39
 8.976559e+01 5.364732e+01 5.865727e+01 7.174302e+01 8.126158e+01 9.444762e+01 1.027640e+02 1.056838e+02 1.068865e+02 9.698357e+01 1.076332e+02 8.996478e+01 1.417559e+02 1.929506e+01 9.174726e+00 6.690978e+00 9.110227e+00 8.863648e+00 8.906426e+00 9.747239e+00 1.008061e+01 1.112337e+01 1.058809e+01 1.097244e+01 9.314400e+00 1.517205e+01 1.564819e+00 2.745303e+00 2.254412e+00 3.153094e+00 3.302619e+00 2.932578e+00 3.271844e+00 3.324514e+00 3.626854e+00 3.365310e+00 4.680478e+00 2.915629e+00 3.248725e+00
<GCONST> 1.748466e+02
<MIXTURE> 6 1.152197e-01
<MEAN> 39
 -1.827451e+01 -1.672803e+01 -6.317363e+00 -3.547433e+00 -3.060522e+00 5.940845e-01 -6.305539e+00 -3.238036e+00 -8.851015e+00 3.400269e+00 -4.567500e+00 4.106005e+00 1.057574e+02 1.610026e+01 6.731959e+00 4.419443e+00 -6.371614e+00 -4.269862e+00 7.649759e-01 9.639546e-01 2.952664e+00 -1.659254e+00 1.707811e-02 1.057775e+00 -2.140532e+00 4.438179e+00 2.545656e+00 1.302740e+00 1.753336e+00 -2.489006e+00 -2.113285e+00 2.067541e-01 -5.750151e-01 1.372853e+00 -7.494750e-01 2.757516e-01 6.118997e-01 -1.310732e+00 9.197536e-01
<VARIANCE> 39
 1.052617e+02 5.593705e+01 5.564418e+01 7.374027e+01 9.300676e+01 1.119435e+02 1.206263e+02 1.181933e+02 1.101132e+02 1.115711e+02 1.005966e+02 9.509788e+01 1.589263e+02 1.033290e+01 1.956478e+01 1.712321e+01 1.733578e+01 2.151011e+01 2.001851e+01 1.639522e+01 2.203741e+01 2.305309e+01 2.101977e+01 2.670415e+01 1.343127e+01 2.812876e+01 2.278834e+00 3.704196e+00 2.984803e+00 3.303128e+00 4.289869e+00 4.288032e+00 4.050986e+00 4.415260e+00 4.845163e+00 4.314314e+00 4.982869e+00 3.242388e+00 3.683372e+00
<GCONST> 1.868471e+02
<MIXTURE> 7 1.343652e-01
<MEAN> 39
 -3.636361e+01 -1.978893e+01 -5.149051e+00 -1.435377e+00 -6.436805e+00 -3.397527e+00 -1.146830e+01 -4.444609e+00 -1.030337e+01 4.823307e-01 -5.904864e+00 1.510044e+00 9.637539e+01 4.114813e+00 -7.082335e-01 -9.724552e-01 -1.793235e+00 -6.467187e-01 -1.062962e+00 -8.199978e-01 -1.450053e+00 -1.043486e+00 -9.247214e-01 -9.923033e-01 -3.409234e-01 5.986423e+00 3.973902e+00 1.850874e+00 9.616535e-01 -6.186053e-01 3.937255e-01 7.681559e-01 1.239793e+00 8.238895e-01 7.833712e-01 9.316419e-01 3.713217e-01 6.078883e-02 5.704123e-01
<VARIANCE> 39
 1.078694e+02 6.844672e+01 6.165998e+01 7.195444e+01 7.104336e+01 8.346105e+01 8.682899e+01 8.834295e+01 9.662151e+01 9.436024e+01 8.938628e+01 7.562568e+01 1.939556e+02 1.087525e+01 8.552811e+00 6.429400e+00 6.877063e+00 7.650238e+00 9.076944e+00 9.793429e+00 1.058980e+01 9.862831e+00 9.822877e+00 9.856825e+00 9.163397e+00 2.574239e+01 2.261835e+00 1.853160e+00 1.824522e+00 2.575599e+00 2.374378e+00 2.237285e+00 2.324924e+00 2.559277e+00 2.726968e+00 2.627845e+00 2.677894e+00 2.076579e+00 4.127072e+00
<GCONST> 1.708845e+02
<MIXTURE> 8 1.166401e-01
<MEAN> 39
 -2.482174e+01 -1.377685e+01 1.606312e-01 1.803859e+00 -1.433174e+00 3.057882e-01 -6.102885e+00 1.258305e+00 -3.880147e+00 2.862029e+00 -4.068684e+00 2.746789e+00 9.944270e+01 1.621338e+01 2.101010e+00 -4.365304e-01 -7.910015e+00 1.446370e+00 2.061799e-01 3.142877e+00 -1.572457e+00 1.779569e+00 3.091917e+00 -1.007134e+00 -4.665686e-01 9.959920e+00 2.710685e+00 -5.528497e-01 -4.432469e-01 -3.382868e+00 3.362162e-01 -9.154393e-02 1.083142e+00 -4.600715e-01 6.048275e-01 1.292409e+00 -1.397369e-01 2.111755e-01 1.984790e+00
<VARIANCE> 39
 1.150104e+02 7.738510e+01 6.286752e+01 7.435553e+01 8.915588e+01 9.838779e+01 1.029431e+02 1.029299e+02 1.101732e+02 1.019673e+02 9.234977e+01 9.029579e+01 2.234770e+02 1.405529e+01 2.705835e+01 1.237575e+01 2.270765e+01 1.497017e+01 1.609835e+01 1.967347e+01 1.600780e+01 2.964036e+01 2.239728e+01 2.730071e+01 1.877755e+01 3.269456e+01 2.962672e+00 3.908492e+00 2.349476e+00 3.830459e+00 3.366532e+00 3.346414e+00 3.588004e+00 3.025173e+00 4.562093e+00 3.349522e+00 4.131681e+00 3.484308e+00 4.504139e+00
<GCONST> 1.867258e+02
<STATE> 4
<NUMMIXES> 8
<MIXTURE> 1 1.113164e-01
<MEAN> 39
 5.230193e+00 -3.037191e+00 9.819222e-01 -6.297757e+00 -1.220337e+00 2.130747e+00 -2.365706e+00 1.980251e-01 4.538611e-01 7.945193e+00 -6.317622e+00 8.138305e-01 1.099690e+02 1.695618e+01 -1.100928e+00 -1.006768e+00 -1.065905e+01 2.438257e+00 1.593975e+00 3.872899e+00 -5.954700e-01 3.005375e+00 5.406017e+00 2.425521e-02 1.264176e-01 1.210352e+01 -1.898752e+00 -2.159681e+00 -6.147860e-01 -1.375254e+00 4.711089e-01 4.126504e-01 3.936938e-01 3.297811e-01 1.021510e-01 3.607012e-01 1.825726e-01 4.295607e-01 2.552159e-01
<VARIANCE> 39
 1.952902e+02 8.811220e+01 6.582676e+01 1.308231e+02 8.647713e+01 1.046122e+02 1.036771e+02 1.006177e+02 1.313138e+02 1.304467e+02 1.177168e+02 9.921687e+01 1.709165e+02 9.573123e+00 2.564903e+01 1.726484e+01 3.332853e+01 2.412304e+01 2.300918e+01 2.988110e+01 2.560758e+01 5.175598e+01 3.088396e+01 4.541293e+01 2.859549e+01 2.111838e+01 2.616460e+00 1.945259e+00 1.614793e+00 2.658297e+00 2.112489e+00 2.430807e+00 2.084873e+00 2.177116e+00 2.358142e+00 2.480450e+00 2.443138e+00 2.262892e+00 3.548591e+00
<GCONST> 1.864987e+02
<MIXTURE> 2 1.206292e-01
<MEAN> 39
 2.551238e+01 -2.043540e+01 -7.984462e+00 -3.087216e+01 8.430155e+00 1.771876e+00 5.361434e+00 -4.071946e+00 1.563770e+01 1.698497e+01 -1.295793e+01 9.663244e-02 1.379770e+02 8.316366e+00 -5.654874e+00 -3.073197e+00 -8.404912e+00 4.808144e+00 2.572910e+00 3.784855e+00 1.845083e-01 4.933827e+00 3.526907e+00 -1.417751e+00 1.282031e+00 1.071946e+01 -5.062370e+00 -8.309495e-01 1.713573e-01 2.130128e+00 -9.252530e-02 5.820449e-01 -9.137934e-01 6.997275e-01 -1.815501e+00 -1.411128e+00 7.460284e-01 8.823447e-01 -2.730233e+00
<VARIANCE> 39
 5.258301e+01 1.667536e+02 1.380859e+02 2.357560e+02 1.460277e+02 2.080850e+02 1.987513e+02 2.040191e+02 2.528072e+02 2.205893e+02 2.312913e+02 2.233462e+02 1.070019e+02 2.810192e+01 1.563411e+01 1.454193e+01 2.774936e+01 1.669924e+01 1.852804e+01 1.946363e+01 1.779385e+01 2.380962e+01 2.300563e+01 1.946429e+01 1.925371e+01 1.797616e+01 1.120465e+00 1.806752e+00 1.386828e+00 2.691443e+00 1.895005e+00 2.562542e+00 2.783379e+00 2.482890e+00 3.577350e+00 2.961083e+00 3.195564e+00 2.931144e+00 1.934947e+00
<GCONST> 1.881149e+02
<MIXTURE> 3 1.221177e-01
<MEAN> 39
 1.464182e+01 7.734881e+00 6.769420e+00 -8.485025e+00 -4.071106e+00 3.783687e+00 2.328722e+00 3.644190e+00 -6.326555e+00 3.988474e+00 -4.437444e+00 4.049722e+00 1.056786e+02 1.732882e+01 9.057690e+00 5.089566e+00 -1.251667e+01 -5.523624e+00 -5.103137e-01 2.112378e+00 2.835425e+00 -1.740720e+00 1.334553e+00 -1.741891e+00 3.846323e-01 4.729934e+00 -1.986102e+00 -1.075568e+00 -9.111316e-02 -1.680055e+00 -1.212597e+00 -7.512581e-01 -1.025639e+00 9.795400e-02 -3.462486e-01 5.680871e-01 -2.450686e-01 -2.192577e-01 4.429734e-01
<VARIANCE> 39
 1.906889e+02 1.193152e+02 5.499372e+01 1.953804e+02 1.366772e+02 1.256957e+02 1.083927e+02 1.014870e+02 1.051464e+02 9.828975e+01 1.026854e+02 7.880129e+01 1.749804e+02 8.904854e+00 2.247842e+01 2.099024e+01 3.007901e+01 3.411502e+01 3.520156e+01 3.732423e+01 3.115828e+01 3.357137e+01 3.049099e+01 3.475391e+01 3.227222e+01 1.609891e+01 2.645895e+00 2.256968e+00 1.705502e+00 3.073873e+00 2.588611e+00 2.524998e+00 2.441542e+00 2.742381e+00 2.880250e+00 3.111550e+00 2.646578e+00 2.649026e+00 2.948313e+00
<GCONST> 1.885288e+02
<MIXTURE> 4 1.475782e-01
<MEAN> 39
 2.830874e+01 -1.875847e+01 2.570222e+00 -3.793532e+01 -1.281972e+01 1.000638e+01 -4.195459e+00 2.686919e+00 -2.090064e+01 1.780889e+01 2.222626e+01 -1.282816e+00 1.380263e+02 6.835698e+00 -4.353331e+00 -5.982435e-01 -9.197165e+00 -1.744708e+00 2.781876e+00 4.197231e-01 1.028094e+00 -1.241611e+00 2.975435e+00 4.874683e+00 -1.909344e+00 9.259713e+00 -4.743912e+00 -5.832632e-01 -7.658647e-01 2.424528e+00 1.138652e+00 -2.779841e-01 1.375090e-01 -1.725343e-01 2.223911e+00 -4.664020e-01 -2.235145e+00 -5.808806e-01 -2.136966e+00
<VARIANCE> 39
 5.072241e+01 1.435744e+02 1.721614e+02 2.996151e+02 3.208525e+02 2.546337e+02 1.947259e+02 3.365501e+02 3.930102e+02 3.949298e+02 2.942921e+02 1.942888e+02 1.192755e+02 3.969580e+01 1.101776e+01 1.486899e+01 2.998178e+01 2.271431e+01 2.143584e+01 1.799478e+01 2.362065e+01 3.531995e+01 2.808136e+01 3.273815e+01 1.595015e+01 1.874061e+01 1.434080e+00 1.789278e+00 1.859618e+00 3.382827e+00 3.019693e+00 2.611298e+00 2.476326e+00 3.519740e+00 3.739891e+00 3.916200e+00 3.456365e+00 2.515284e+00 1.908978e+00
<GCONST> 1.945245e+02
<MIXTURE> 5 1.273550e-01
<MEAN> 39
 2.324349e+01 -2.654684e+01 -8.110640e+00 -3.348663e+01 9.649834e+00 1.509310e+00 7.762875e+00 -2.856793e+00 1.442547e+01 2.402515e+01 -1.098093e+01 -5.332453e-01 1.420427e+02 4.079298e+00 -6.804028e+00 -2.583610e+00 -6.661201e+00 3.772862e+00 2.115763e+00 2.583780e+00 2.768332e-01 2.567300e+00 2.567452e+00 -1.609481e+00 3.457089e-01 9.258344e+00 -4.937166e+00 -5.957373e-02 3.087031e-01 2.728395e+00 -4.280632e-01 5.464832e-01 -1.319307e+00 5.931922e-01 -1.728393e+00 -2.346670e+00 2.815599e-01 7.096043e-01 -3.212138e+00
<VARIANCE> 39
 5.625848e+01 1.515403e+02 1.567360e+02 2.503419e+02 1.697921e+02 2.174474e+02 2.058626e+02 2.242695e+02 2.820524e+02 2.686539e+02 2.654220e+02 2.077031e+02 8.835744e+01 2.406876e+01 1.022849e+01 1.155790e+01 2.045061e+01 1.509893e+01 1.380809e+01 1.763238e+01 1.549231e+01 1.822298e+01 1.826347e+01 1.688095e+01 1.533170e+01 1.402098e+01 1.137772e+00 1.792147e+00 1.628947e+00 2.597470e+00 1.899989e+00 2.848461e+00 2.916194e+00 2.579736e+00 3.979909e+00 3.850631e+00 3.774938e+00 3.057418e+00 1.629648e+00
<GCONST> 1.866474e+02
<MIXTURE> 6 1.253330e-01
<MEAN> 39
 2.146414e+01 1.221301e+01 8.861458e+00 -1.422589e+01 -1.272701e+01 2.011967e+00 1.427226e+00 7.211926e+00 -7.737848e+00 3.597975e+00 -4.999749e+00 2.161265e+00 1.085321e+02 1.630896e+01 8.262162e+00 6.421117e+00 -1.101726e+01 -8.866065e+00 1.200786e-02 -8.178542e-01 4.549582e+00 -3.260640e+00 -3.395448e-01 -6.714727e-01 -3.365228e+00 4.998109e+00 -2.654937e+00 -1.689537e+00 -1.809262e-01 -7.425057e-01 -9.131047e-01 -4.096526e-01 -1.542993e+00 -1.431195e-01 -6.120220e-01 1.295321e-01 5.959817e-02 -7.277542e-01 4.264142e-01
<VARIANCE> 39
 1.837927e+02 1.192090e+02 7.341131e+01 2.064757e+02 1.825845e+02 1.517453e+02 1.231444e+02 1.195872e+02 1.290364e+02 1.068270e+02 1.086029e+02 8.996253e+01 1.541210e+02 9.127986e+00 1.858646e+01 2.353452e+01 3.223452e+01 3.436604e+01 3.538227e+01 3.284800e+01 3.463537e+01 3.676603e+01 3.309409e+01 3.220523e+01 2.817797e+01 1.405329e+01 2.704146e+00 1.902710e+00 1.587532e+00 2.647925e+00 2.889467e+00 2.214325e+00 2.285693e+00 2.630680e+00 2.972795e+00 2.469865e+00 2.213738e+00 2.163679e+00 2.458426e+00
<GCONST> 1.885275e+02
<MIXTURE> 7 1.173018e-01
<MEAN> 39
 2.571874e+01 -2.106417e+01 -4.753228e+00 -2.799075e+01 -1.630003e+01 1.062332e+01 -1.097262e+01 2.173231e+00 -1.191573e+01 1.904952e+01 2.827553e+01 -1.355871e+01 1.450676e+02 5.110991e+00 -5.120145e+00 -2.468219e+00 -6.200609e+00 -2.446094e+00 2.855875e+00 -5.180950e-01 8.498712e-01 9.543134e-01 2.088181e+00 4.302629e+00 -4.876313e+00 9.029263e+00 -5.002763e+00 -3.388258e-01 -2.641893e-01 2.094694e+00 1.400077e+00 -6.030606e-01 8.594345e-01 -6.464801e-02 1.755621e+00 -1.036534e+00 -3.417933e+00 3.346003e-01 -2.782533e+00
<VARIANCE> 39
 6.627555e+01 1.415715e+02 2.172433e+02 3.636284e+02 1.936221e+02 2.940051e+02 2.614480e+02 3.905163e+02 4.614485e+02 4.924649e+02 4.406224e+02 2.277947e+02 1.268519e+02 3.041990e+01 1.013085e+01 1.711136e+01 2.392762e+01 1.348612e+01 2.040034e+01 1.786274e+01 2.421522e+01 2.807655e+01 2.392532e+01 4.071127e+01 1.586991e+01 1.382968e+01 1.325177e+00 1.720558e+00 2.263837e+00 3.233834e+00 2.511770e+00 2.764766e+00 3.245796e+00 3.689834e+00 4.323642e+00 5.820153e+00 4.518007e+00 2.719506e+00 1.541418e+00
<GCONST> 1.957201e+02
<MIXTURE> 8 1.283510e-01
<MEAN> 39
 1.595054e+01 -2.356188e+00 -1.652738e+00 -1.317863e+01 -1.981903e+00 3.859584e+00 1.069997e+00 -3.335256e+00 -2.524246e+00 1.264915e+01 -8.349511e-01 -1.444236e+00 1.151942e+02 1.596406e+01 -1.244426e+00 -1.332916e+00 -1.040476e+01 -2.175653e-01 1.715549e+00 2.838490e+00 -1.295771e+00 5.313188e-01 4.354608e+00 3.610572e+00 -1.237535e+00 1.177965e+01 -3.003202e+00 -2.269951e+00 -5.433822e-01 -5.874441e-01 -5.779317e-02 1.123844e-01 -1.973586e-01 3.877068e-01 1.794885e-01 -2.361714e-01 -4.288243e-02 -3.736568e-02 1.912491e-01
<VARIANCE> 39
 2.040526e+02 1.015455e+02 8.193015e+01 1.888739e+02 1.014419e+02 1.246534e+02 1.422993e+02 1.444102e+02 2.053849e+02 1.645484e+02 2.156070e+02 1.279990e+02 1.728831e+02 1.174799e+01 2.177782e+01 2.049363e+01 3.504196e+01 2.640445e+01 2.427376e+01 3.301902e+01 2.848207e+01 4.907544e+01 3.492282e+01 6.010850e+01 2.998056e+01 1.896794e+01 2.822204e+00 1.428632e+00 1.514721e+00 2.140041e+00 1.889439e+00 2.225963e+00 2.360559e+00 2.332611e+00 2.620452e+00 2.522094e+00 2.813885e+00 2.720103e+00 2.793918e+00
<GCONST> 1.904251e+02
<TRANSP> 5
 0.000000e+00 1.000000e+00 0.000000e+00 0.000000e+00 0.000000e+00
 0.000000e+00 8.491031e-01 1.508969e-01 0.000000e+00 0.000000e+00
 0.000000e+00 0.000000e+00 6.636268e-01 3.363732e-01 0.000000e+00
 0.000000e+00 0.000000e+00 0.000000e+00 5.211261e-01 4.788739e-01
 0.000000e+00 0.000000e+00 0.000000e+00 0.000000e+00 0.000000e+00
<ENDHMM>
~h "k"
<BEGINHMM>
<NUMSTATES> 5
<STATE> 2
<NUMMIXES> 8
<MIXTURE> 1 1.252782e-01
<MEAN> 39
 5.126961e+00 -1.080395e+01 4.767601e+01 2.749422e+01 8.377529e-01 -3.915464e+01 -2.778645e+00 2.452734e+01 -4.624550e+01 1.547032e+00 1.565156e-01 -3.409299e-01 1.163614e+02 -2.883406e+00 8.832382e+00 -4.488273e+00 6.708694e+00 4.467468e+00 5.634896e+00 6.683947e+00 -1.519500e+00 4.535964e+00 -1.522331e+00 1.924351e+00 8.014448e-01 -1.776939e+01 -1.470113e+00 4.481132e-01 -3.242579e+00 -2.735226e+00 -2.636928e-01 3.015356e+00 -2.299955e+00 -2.917200e+00 4.613219e+00 1.940268e-01 -8.808390e-01 4.502143e-01 -1.745417e+00
<VARIANCE> 39
 5.475999e+01 1.266168e+02 3.133372e+02 2.281461e+02 2.766537e+02 3.268136e+02 4.497281e+02 3.742502e+02 4.224362e+02 4.545229e+02 3.059251e+02 2.451969e+02 2.519429e+02 1.129227e+01 1.861153e+01 2.276572e+01 2.344859e+01 2.447717e+01 3.378788e+01 3.270444e+01 3.207054e+01 4.281407e+01 3.402938e+01 2.810585e+01 2.454288e+01 2.322774e+01 1.279997e+00 3.671410e+00 3.670592e+00 3.340787e+00 3.727882e+00 5.134430e+00 5.885276e+00 7.549597e+00 6.809030e+00 7.159662e+00 4.590626e+00 5.292763e+00 5.216036e+00
<GCONST> 2.058599e+02
<MIXTURE> 2 9.767228e-02
<MEAN> 39
 -1.491208e+01 1.312424e+01 1.513769e+01 2.115233e+01 3.330552e+00 -6.701456e+00 -3.847003e+00 -5.038752e-01 -1.051835e+01 -4.703312e+00 1.056547e+00 4.546655e+00 5.626952e+01 -4.660892e+00 5.343902e-01 -8.121038e+00 -4.906127e+00 7.881106e-01 7.229311e+00 -6.256370e-01 -1.643098e+00 7.226724e+00 1.851859e+00 1.863246e-01 2.705917e-01 -7.629009e+00 1.085256e+00 -3.720571e+00 5.660766e-01 -1.681939e+00 -8.352193e-01 -2.491987e+00 -6.153308e-01 8.499957e-01 -1.006001e+00 1.311685e+00 -4.862832e-01 -3.178905e-02 6.558319e+00
<VARIANCE> 39
 7.325200e+01 1.068710e+02 1.141275e+02 1.669295e+02 1.746092e+02 2.120549e+02 2.355190e+02 2.463836e+02 1.861689e+02 1.627028e+02 1.387050e+02 1.088638e+02 4.462025e+01 1.053363e+01 2.656415e+01 2.405718e+01 1.849553e+01 2.385565e+01 3.365362e+01 3.409950e+01 4.407953e+01 3.141019e+01 2.466538e+01 2.023753e+01 1.810473e+01 3.519950e+01 2.414212e+00 5.495403e+00 3.452456e+00 5.663916e+00 5.457572e+00 6.134326e+00 7.851696e+00 8.204758e+00 6.553615e+00 4.631312e+00 4.583887e+00 3.234360e+00 7.848867e+00
<GCONST> 1.989822e+02
<MIXTURE> 3 9.711302e-02
<MEAN> 39
 -9.361519e+00 2.016541e+01 2.073078e+01 2.194784e+01 7.420883e-01 -3.252162e+00 -3.252204e+00 -9.859663e+00 -1.427154e+01 -5.777637e+00 -4.803186e+00 -3.157852e+00 5.830155e+01 -5.784854e+00 -3.378457e+00 -1.226403e+01 -2.517066e+00 4.441754e+00 2.056494e+00 -7.428556e+00 5.401728e+00 1.689799e+00 -3.019467e+00 1.049908e+00 -5.516905e-01 -7.579303e+00 -1.205749e-01 -4.185595e+00 -2.145322e-01 -2.538716e+00 -2.349007e+00 -2.432951e+00 1.244322e+00 -8.365030e-01 1.191797e+00 1.875914e+00 7.237715e-02 1.825839e+00 7.456042e+00
<VARIANCE> 39
 6.872679e+01 1.047144e+02 1.039476e+02 1.233766e+02 1.491771e+02 1.721361e+02 1.875708e+02 1.745762e+02 1.941938e+02 1.732704e+02 1.424562e+02 1.168333e+02 3.459936e+01 8.330933e+00 4.059921e+01 1.679354e+01 2.404218e+01 2.256982e+01 3.363367e+01 3.328884e+01 3.807846e+01 3.696022e+01 2.293624e+01 1.946010e+01 1.927469e+01 6.722613e+01 2.878457e+00 4.943627e+00 3.940662e+00 4.299500e+00 4.164241e+00 5.035206e+00 6.335959e+00 6.946651e+00 7.112619e+00 4.494182e+00 3.956258e+00 3.338210e+00 7.402010e+00
<GCONST> 1.970941e+02
<MIXTURE> 4 1.628857e-01
<MEAN> 39
 -4.443784e+00 9.738894e+00 3.417500e+01 3.019078e+01 -8.715544e+00 -1.522745e+01 1.257243e+01 -3.628613e+00 -1.509560e+01 5.766859e+00 2.480801e+00 2.688230e+00 7.901553e+01 -5.340567e+00 4.491806e+00 -8.442685e+00 1.989311e+00 6.131730e+00 7.546216e+00 -4.232707e+00 3.172606e+00 3.233225e+00 -3.590748e+00 1.294340e+00 -2.054833e+00 -1.576812e+01 -7.603325e-01 -2.777116e+00 -1.952429e+00 -3.897321e+00 -4.628478e-01 -8.662935e-01 -2.047861e+00 -1.437515e-03 9.161953e-01 1.611197e-01 -6.120449e-01 8.597232e-01 3.204714e+00
<VARIANCE> 39
 1.502182e+02 2.446655e+02 2.149930e+02 2.043185e+02 3.597672e+02 3.576361e+02 3.455930e+02 4.050418e+02 2.886649e+02 2.479859e+02 2.100501e+02 1.812537e+02 1.809271e+02 1.268209e+01 2.356560e+01 2.581812e+01 3.187865e+01 2.975369e+01 3.688120e+01 5.644238e+01 6.856699e+01 5.965033e+01 3.258804e+01 2.493972e+01 2.392568e+01 3.436548e+01 3.250004e+00 6.297624e+00 4.234000e+00 3.773359e+00 4.852026e+00 6.174823e+00 6.376838e+00 5.961998e+00 5.193761e+00 4.382301e+00 4.496877e+00 4.029303e+00 6.756310e+00
<GCONST> 2.093537e+02
<MIXTURE> 5 1.466290e-01
<MEAN> 39
 -1.495096e+01 1.371361e+01 1.458921e+01 1.960676e+01 3.942063e+00 -6.867584e+00 -6.288107e+00 -2.819930e+00 -1.168430e+01 -6.104798e+00 -1.139753e+00 3.698357e+00 5.533165e+01 -5.928075e+00 -1.379115e+00 -9.852490e+00 -7.380275e+00 -5.604880e-01 5.077146e+00 -2.941591e+00 -4.242065e+00 5.585890e+00 1.137627e+00 -1.404824e+00 -1.788745e-02 -6.676015e+00 1.084821e+00 -3.970422e+00 6.546093e-01 -1.302313e+00 -9.355144e-01 -2.664026e+00 -4.341860e-01 1.443064e+00 -1.027653e+00 1.301439e+00 -1.796254e-01 -6.532891e-02 7.357747e+00
<VARIANCE> 39
 5.328130e+01 8.604623e+01 8.549470e+01 1.055474e+02 1.328503e+02 1.934558e+02 2.155405e+02 2.055787e+02 1.949100e+02 1.737911e+02 1.284956e+02 8.940413e+01 3.835455e+01 8.277974e+00 3.405689e+01 1.819699e+01 1.517955e+01 2.163389e+01 3.066982e+01 3.109573e+01 3.607936e+01 2.758668e+01 2.288365e+01 1.885909e+01 1.470672e+01 4.433727e+01 2.607691e+00 4.606083e+00 3.236549e+00 3.797928e+00 4.975041e+00 7.138464e+00 6.504107e+00 9.483778e+00 6.583113e+00 4.977455e+00 4.059752e+00 2.822390e+00 8.129831e+00
<GCONST> 1.948534e+02
<MIXTURE> 6 1.479400e-01
<MEAN> 39
 -6.085168e+00 8.062716e+00 3.200513e+01 3.138891e+01 -1.864336e+00 -1.614798e+01 4.061275e+00 -1.647983e+00 -1.901820e+01 -1.053383e+00 -9.185255e-01 2.500038e+00 7.777386e+01 -6.676772e+00 3.438382e+00 -1.047208e+01 -2.350235e-01 3.902285e+00 5.556468e+00 -4.925149e+00 -6.166527e-01 2.524688e+00 -3.554413e+00 -5.524982e-01 -1.589352e+00 -1.581765e+01 -4.963572e-01 -2.897395e+00 -1.720824e+00 -4.009821e+00 -1.220013e+00 -7.541982e-01 -1.511161e+00 7.336377e-02 1.270841e+00 7.668309e-01 -8.175170e-02 5.648727e-01 4.070056e+00
<VARIANCE> 39
 1.403082e+02 2.597877e+02 2.003554e+02 1.955215e+02 3.873818e+02 3.547319e+02 4.234305e+02 4.483591e+02 2.844792e+02 2.532715e+02 2.335444e+02 1.719691e+02 1.620789e+02 9.607244e+00 2.974812e+01 2.313312e+01 3.445778e+01 3.164517e+01 3.597292e+01 6.144627e+01 8.937659e+01 6.674876e+01 3.895530e+01 2.369603e+01 2.561857e+01 3.141878e+01 3.223797e+00 6.378226e+00 3.839931e+00 3.589515e+00 5.160848e+00 6.272932e+00 6.782367e+00 6.371408e+00 5.926874e+00 4.837517e+00 5.045172e+00 4.603699e+00 7.676468e+00
<GCONST> 2.107491e+02
<MIXTURE> 7 1.292842e-01
<MEAN> 39
 4.246418e+00 -6.819047e+00 4.092691e+01 3.191636e+01 2.969612e+00 -3.881297e+01 -2.472649e+00 2.391543e+01 -3.721815e+01 -3.699863e+00 2.865643e+00 4.262754e+00 1.026392e+02 -5.253464e+00 9.124505e+00 -7.595741e+00 2.555130e+00 3.337754e+00 6.344294e+00 3.206555e+00 -6.640300e+00 5.264358e+00 -2.269263e+00 -1.072130e+00 1.028489e+00 -1.938884e+01 -1.531909e+00 -1.015627e+00 -2.763705e+00 -3.845539e+00 -1.135897e+00 2.390546e+00 -2.677931e+00 -2.700193e+00 3.116667e+00 8.037494e-01 -9.706996e-01 -2.295834e-01 4.663681e-01
<VARIANCE> 39
 5.199237e+01 1.373026e+02 2.360602e+02 1.734826e+02 2.627310e+02 3.259132e+02 4.809828e+02 3.608627e+02 3.076219e+02 3.275683e+02 2.546598e+02 2.076837e+02 2.563038e+02 8.845818e+00 2.316736e+01 2.631960e+01 2.451075e+01 2.663487e+01 3.870110e+01 4.696161e+01 4.066877e+01 4.401576e+01 4.078252e+01 2.648742e+01 2.252760e+01 2.441074e+01 1.317255e+00 3.926163e+00 2.953840e+00 2.989303e+00 3.763296e+00 4.612596e+00 5.910557e+00 6.197602e+00 5.190351e+00 5.296831e+00 4.311070e+00 4.292654e+00 7.006992e+00
<GCONST> 2.043551e+02
<MIXTURE> 8 9.317259e-02
<MEAN> 39
 -1.079702e+01 1.824145e+01 1.682040e+01 1.740006e+01 -3.166802e+00 -9.592066e+00 -1.169993e+01 -1.667064e+01 -2.097264e+01 -1.232002e+01 -8.112227e+00 -2.958551e+00 5.673447e+01 -6.456179e+00 -2.163617e+00 -1.240576e+01 -3.916375e+00 3.283759e+00 2.024958e+00 -8.877225e+00 3.423859e+00 9.288650e-01 -3.955000e+00 -6.876972e-02 -1.315325e+00 -9.394910e+00 2.886428e-01 -4.096601e+00 2.720053e-01 -2.114408e+00 -1.670570e+00 -1.680487e+00 2.500011e+00 1.248138e-01 2.189237e+00 2.728957e+00 5.307860e-01 1.765088e+00 7.471776e+00
<VARIANCE> 39
 4.281780e+01 5.887024e+01 6.683101e+01 8.311160e+01 1.247557e+02 1.790691e+02 1.817596e+02 1.816869e+02 2.130967e+02 1.772883e+02 1.415079e+02 1.034809e+02 2.586386e+01 5.503701e+00 3.819352e+01 1.452045e+01 2.071963e+01 2.125168e+01 3.722946e+01 2.720591e+01 4.657020e+01 3.305984e+01 2.067239e+01 1.808064e+01 1.558997e+01 5.342354e+01 1.908813e+00 3.804015e+00 2.957543e+00 3.783410e+00 4.339815e+00 5.096764e+00 5.746485e+00 8.382957e+00 6.535547e+00 4.514328e+00 3.599493e+00 3.053086e+00 7.080323e+00
<GCONST> 1.920621e+02
<STATE> 3
<NUMMIXES> 8
<MIXTURE> 1 7.405668e-02
<MEAN> 39
 -2.073179e+01 9.225613e+00 5.392230e+00 8.473277e+00 -4.027896e+00 -9.029420e+00 -1.122462e+01 -9.633798e+00 -1.114534e+01 -5.625101e+00 -2.773965e+00 1.767177e+00 5.139001e+01 -9.220149e-01 -5.761918e+00 -5.810740e+00 -1.515641e+00 1.602873e+00 2.126600e+00 1.794002e+00 4.954908e+00 5.785689e+00 4.678361e+00 2.553302e+00 1.529053e+00 4.945363e+00 8.936448e-01 -1.468302e+00 1.054854e+00 1.134640e+00 -3.875619e-01 -1.246978e+00 9.421022e-01 5.383787e-01 -2.703433e-01 9.135996e-01 3.143061e-02 4.590327e-01 5.688424e+00
<VARIANCE> 39
 5.371859e+01 7.983206e+01 7.045461e+01 7.742899e+01 8.240337e+01 1.116367e+02 1.333298e+02 1.258228e+02 1.245470e+02 1.116826e+02 8.392255e+01 7.626877e+01 2.935025e+01 1.453199e+01 3.546178e+01 2.463279e+01 1.686320e+01 1.753040e+01 2.219970e+01 2.137124e+01 1.645770e+01 1.778751e+01 1.773164e+01 1.805693e+01 1.179193e+01 7.135247e+01 3.502634e+00 4.224927e+00 5.080809e+00 3.299714e+00 5.444530e+00 4.662973e+00 6.514016e+00 6.039686e+00 4.477223e+00 4.022982e+00 2.598841e+00 2.407600e+00 7.328391e+00
<GCONST> 1.878038e+02
<MIXTURE> 2 1.121031e-01
<MEAN> 39
 -1.249610e+01 -1.870479e+01 -1.443368e+01 7.329948e+00 3.093870e+00 -6.161219e+00 -1.043077e+01 -1.926559e-01 -5.559799e+00 3.953535e+00 -3.386161e+00 1.536332e+00 8.288965e+01 -7.160753e-01 -4.973843e+00 -5.673645e+00 7.283245e-02 1.130235e+00 -6.043723e-01 -1.115562e+00 2.318028e+00 2.724616e+00 3.605831e+00 3.859805e-01 7.603464e-01 1.370800e+01 -2.533625e+00 2.639815e+00 2.892540e+00 1.166099e+00 -8.911008e-01 -1.550048e+00 4.716299e-01 3.641356e-01 -3.787456e-01 -6.191927e-01 -1.141717e-01 4.228799e-01 9.777309e-01
<VARIANCE> 39
 2.074368e+02 2.227029e+02 2.826018e+02 2.261590e+02 2.317594e+02 2.374619e+02 2.402249e+02 1.882881e+02 1.583356e+02 1.329293e+02 1.019725e+02 9.459939e+01 2.582642e+02 2.771789e+01 2.654622e+01 2.510771e+01 2.263420e+01 2.579680e+01 2.602881e+01 2.444820e+01 2.468899e+01 2.353864e+01 1.965964e+01 1.560309e+01 1.173592e+01 5.510823e+01 6.749323e+00 4.318445e+00 5.676893e+00 5.013959e+00 4.585782e+00 5.084744e+00 5.230703e+00 5.264575e+00 3.897885e+00 3.701778e+00 2.539662e+00 2.541465e+00 4.903772e+00
<GCONST> 2.003236e+02
<MIXTURE> 3 2.307991e-01
<MEAN> 39
 -2.618565e+01 4.927620e+00 -7.221584e-02 3.833325e+00 -3.724699e+00 -4.675837e+00 -6.249621e+00 -2.693965e+00 -1.901174e+00 2.339705e+00 3.228093e+00 4.379209e+00 4.745549e+01 1.727866e+00 -4.070907e+00 -4.433849e+00 -3.186743e-01 9.511514e-01 2.176128e-01 -1.045877e+00 1.174561e+00 1.627358e+00 1.350701e+00 -1.555660e-01 3.812681e-01 6.258348e+00 9.777256e-01 -8.096152e-01 4.441046e-01 1.566021e+00 -4.308291e-02 -1.089704e+00 1.853953e-03 5.586605e-02 -6.769464e-01 -8.755489e-02 -5.960459e-01 1.431666e-02 4.811895e+00
<VARIANCE> 39
 2.150877e+01 2.840109e+01 3.407418e+01 4.495027e+01 5.859110e+01 7.668661e+01 8.509379e+01 9.232131e+01 8.618516e+01 8.131705e+01 7.726652e+01 7.043542e+01 1.299030e+01 1.716450e+01 2.307020e+01 1.858120e+01 1.620598e+01 1.327859e+01 1.697748e+01 1.651438e+01 1.350647e+01 1.312411e+01 1.354397e+01 1.157741e+01 9.180345e+00 7.006023e+01 3.565530e+00 2.565375e+00 3.166523e+00 2.270658e+00 3.495066e+00 3.980646e+00 3.481424e+00 3.452194e+00 3.278284e+00 2.672645e+00 2.313848e+00 2.015301e+00 5.104081e+00
<GCONST> 1.740822e+02
<MIXTURE> 4 7.764448e-02
<MEAN> 39
 -2.101271e+01 -1.504791e+01 -8.693500e-01 1.607248e+01 4.929099e+00 -1.034886e+01 -8.071008e+00 5.729603e+00 -5.211548e+00 4.270487e-01 -4.119456e+00 4.609186e+00 7.979516e+01 -4.304182e+00 -7.077035e+00 -9.258121e+00 -4.586203e+00 -1.250865e+00 -2.477499e+00 -4.178409e+00 3.529684e-02 2.962837e+00 1.365721e+00 -9.856198e-01 9.209480e-01 9.804420e+00 -4.867744e-01 1.687599e+00 2.649892e+00 2.967748e-01 -1.224945e+00 -1.794242e+00 8.337095e-01 4.047563e-01 -1.040918e+00 2.911631e-01 1.353886e-01 7.995374e-02 3.833161e+00
<VARIANCE> 39
 1.699888e+02 3.093916e+02 2.312421e+02 2.162436e+02 2.427562e+02 2.872839e+02 2.692435e+02 2.358857e+02 2.047207e+02 1.550960e+02 1.503739e+02 1.121217e+02 3.971435e+02 3.750788e+01 3.127773e+01 2.639936e+01 2.451355e+01 2.378077e+01 3.260997e+01 2.258642e+01 2.864242e+01 3.098745e+01 2.125672e+01 1.873914e+01 1.548351e+01 6.133867e+01 5.641535e+00 6.190454e+00 5.250571e+00 5.138420e+00 5.897333e+00 7.743858e+00 7.098558e+00 6.930075e+00 5.724606e+00 4.845158e+00 3.821360e+00 3.352572e+00 7.553900e+00
<GCONST> 2.070650e+02
<MIXTURE> 5 2.281691e-01
<MEAN> 39
 -2.661791e+01 4.586729e+00 -5.097578e-01 3.268969e+00 -4.517691e+00 -5.712169e+00 -6.715033e+00 -3.136293e+00 -2.679947e+00 1.906282e+00 2.831371e+00 4.014812e+00 4.727143e+01 1.105525e+00 -4.098628e+00 -4.854241e+00 -1.423404e+00 8.155111e-02 -1.024185e+00 -2.823364e+00 -5.000407e-01 -1.049296e-01 -3.801619e-01 -1.321497e+00 -2.404973e-01 5.251784e+00 1.060923e+00 -7.242246e-01 6.003280e-01 1.417969e+00 -1.855160e-01 -9.065857e-01 2.230653e-01 -5.835501e-02 -5.212424e-01 8.535278e-02 -5.424831e-01 -3.386985e-02 4.649983e+00
<VARIANCE> 39
 1.780992e+01 2.624842e+01 3.052657e+01 4.541616e+01 5.951008e+01 7.556333e+01 8.846023e+01 9.385881e+01 8.464680e+01 8.105044e+01 7.585268e+01 6.960033e+01 1.299030e+01 1.736774e+01 2.413316e+01 1.848960e+01 1.720609e+01 1.439654e+01 1.770347e+01 1.681106e+01 1.399811e+01 1.400082e+01 1.310713e+01 1.145409e+01 1.008447e+01 7.268111e+01 3.165147e+00 2.282255e+00 3.275275e+00 2.393686e+00 3.650291e+00 3.805191e+00 3.820301e+00 3.070152e+00 3.048219e+00 2.555014e+00 2.141542e+00 1.922857e+00 4.877721e+00
<GCONST> 1.736963e+02
<MIXTURE> 6 8.853779e-02
<MEAN> 39
 -1.618207e+01 -1.522680e+01 -8.403682e+00 6.100426e+00 5.043258e+00 -4.815212e+00 -8.586995e+00 4.338914e-01 -5.059691e+00 5.490733e+00 -2.302036e+00 1.577577e+00 7.893100e+01 -9.397869e-01 -4.475979e+00 -5.048450e+00 -1.383622e+00 1.079561e+00 -2.273260e+00 -3.484745e+00 -7.743706e-01 1.740612e-01 1.487067e+00 -1.444968e+00 -6.847119e-01 1.140811e+01 -1.975815e+00 1.946433e+00 2.040541e+00 9.739577e-01 -7.602497e-01 -1.767877e+00 4.166545e-02 4.439690e-01 -1.547974e-01 -7.565757e-01 -2.886623e-01 2.552292e-01 1.220290e+00
<VARIANCE> 39
 2.555366e+02 2.624695e+02 3.122597e+02 2.496852e+02 2.322913e+02 2.511844e+02 2.788110e+02 2.344349e+02 1.698961e+02 1.325783e+02 1.171180e+02 9.489440e+01 3.194496e+02 3.012281e+01 2.621324e+01 2.442108e+01 2.556592e+01 2.520877e+01 3.096194e+01 2.197878e+01 2.247530e+01 1.902265e+01 1.786072e+01 1.561534e+01 1.173059e+01 8.026031e+01 9.272190e+00 5.128835e+00 6.350150e+00 5.215757e+00 4.511927e+00 5.302166e+00 5.003175e+00 5.281034e+00 4.431527e+00 3.418359e+00 2.903935e+00 2.436495e+00 5.623939e+00
<GCONST> 2.028289e+02
<MIXTURE> 7 1.128280e-01
<MEAN> 39
 -2.217931e+01 8.334293e+00 4.199470e+00 7.392437e+00 -3.823853e+00 -7.938315e+00 -1.095489e+01 -9.003070e+00 -1.003984e+01 -5.378998e+00 -3.167771e+00 9.931380e-01 5.035366e+01 -1.250986e+00 -6.646299e+00 -7.537044e+00 -3.230968e+00 8.063238e-01 7.437755e-01 -1.016232e+00 2.912254e+00 3.770239e+00 2.766268e+00 7.315958e-01 8.667420e-01 4.754599e+00 1.130178e+00 -1.635947e+00 1.346718e+00 1.135420e+00 -4.202867e-01 -1.613350e+00 1.066123e+00 6.449524e-01 -2.990433e-01 1.086006e+00 1.473181e-02 6.209270e-01 6.306933e+00
<VARIANCE> 39
 3.538680e+01 6.012665e+01 5.603466e+01 6.496037e+01 7.502872e+01 1.022429e+02 1.206124e+02 1.215513e+02 1.183025e+02 1.140998e+02 8.849219e+01 8.213039e+01 2.182198e+01 1.449396e+01 3.579972e+01 2.485422e+01 1.957600e+01 1.872689e+01 2.097181e+01 2.286336e+01 1.846798e+01 1.711739e+01 1.929139e+01 1.462786e+01 1.225727e+01 7.511114e+01 3.267488e+00 3.886696e+00 4.355492e+00 3.189581e+00 5.322438e+00 5.084159e+00 6.345349e+00 6.409403e+00 4.859871e+00 4.242659e+00 2.696860e+00 2.602434e+00 7.697870e+00
<GCONST> 1.865200e+02
<MIXTURE> 8 7.583854e-02
<MEAN> 39
 -2.016299e+01 -9.508382e+00 4.240402e+00 1.720580e+01 8.549523e+00 -5.943088e+00 -4.153613e+00 7.764511e+00 -4.371545e+00 2.747959e+00 -2.139542e+00 4.973819e+00 7.687323e+01 -5.547519e+00 -8.527701e+00 -1.098537e+01 -6.754709e+00 -1.451159e+00 -2.946890e+00 -6.228664e+00 -2.322081e+00 1.957063e+00 2.732819e-02 -2.868893e+00 8.675124e-02 8.977474e+00 -5.693369e-01 6.844365e-01 2.306772e+00 -5.162052e-03 -1.668809e+00 -2.841285e+00 2.270481e-01 3.073947e-01 -1.426600e+00 -1.466053e-01 -8.215014e-02 6.671074e-03 4.896159e+00
<VARIANCE> 39
 1.567619e+02 3.777165e+02 2.475192e+02 2.275161e+02 2.307529e+02 2.903277e+02 2.943010e+02 2.130365e+02 2.002447e+02 1.447987e+02 1.712253e+02 1.142921e+02 4.443444e+02 3.416831e+01 3.218910e+01 2.506865e+01 2.574522e+01 2.198228e+01 3.482108e+01 2.211094e+01 3.085669e+01 3.764027e+01 2.154278e+01 2.013442e+01 1.603841e+01 5.845047e+01 6.066000e+00 7.030509e+00 5.278520e+00 5.562006e+00 6.299495e+00 7.587499e+00 7.686951e+00 7.590407e+00 5.833958e+00 4.975782e+00 4.423472e+00 3.953202e+00 8.497242e+00
<GCONST> 2.086342e+02
<STATE> 4
<NUMMIXES> 8
<MIXTURE> 1 7.366022e-02
<MEAN> 39
 -1.856685e+01 -2.275225e+01 -1.365522e+01 1.904584e+01 -1.425058e+01 -1.875816e+01 -8.944135e+00 6.326871e+00 -3.323457e+00 -3.140719e+00 2.756405e+00 7.112954e+00 1.154319e+02 -7.177415e+00 9.758093e-01 -1.572017e+00 1.651568e+00 -5.437541e+00 -1.348470e+00 2.077788e+00 4.744380e+00 5.393900e-01 4.622130e-01 1.729790e+00 3.549619e+00 1.129480e+01 -1.993405e+00 4.381716e+00 2.368062e+00 -4.978941e-01 1.376817e-01 1.861535e+00 1.311762e+00 -9.521965e-01 -1.117553e+00 1.351799e-01 -2.557737e-01 -5.479578e-02 -4.431807e+00
<VARIANCE> 39
 1.411721e+02 1.661926e+02 1.682221e+02 9.386412e+01 1.609823e+02 1.424789e+02 2.246039e+02 1.572178e+02 1.717226e+02 1.336291e+02 1.591874e+02 1.154437e+02 1.379520e+02 2.270675e+01 3.395597e+01 1.747558e+01 1.595270e+01 1.610156e+01 1.764493e+01 1.979570e+01 1.424895e+01 1.777509e+01 1.431481e+01 1.297133e+01 1.107012e+01 4.560645e+01 3.310669e+00 4.166203e+00 3.770244e+00 3.140238e+00 3.758557e+00 3.369802e+00 5.068571e+00 3.733797e+00 4.395388e+00 3.405470e+00 3.612108e+00 2.399447e+00 6.252190e+00
<GCONST> 1.918758e+02
<MIXTURE> 2 1.050962e-01
<MEAN> 39
 -4.513435e+01 -7.010874e+00 -3.558182e+00 7.751689e+00 8.242983e+00 -3.188615e+01 -1.339900e+01 5.213336e+00 4.034559e-01 1.417709e+00 -1.018830e+01 5.942816e+00 1.196654e+02 -1.431133e+01 6.753605e+00 2.590720e+00 -5.124112e-02 -1.060516e+00 -4.082863e+00 3.450146e+00 3.176725e+00 2.755343e+00 -2.385542e+00 -6.931183e-01 1.582115e+00 3.785964e+00 7.451359e-01 2.141020e+00 1.044200e+00 6.293363e-02 -3.797236e-01 2.569880e+00 1.671260e+00 2.648542e-01 -7.990313e-01 -2.294533e-01 8.451256e-01 -4.714344e-02 -4.804132e+00
<VARIANCE> 39
 1.976525e+02 9.176472e+01 1.708598e+02 1.887698e+02 2.479803e+02 2.298253e+02 1.882718e+02 2.091426e+02 1.719904e+02 1.257485e+02 1.264750e+02 9.979411e+01 1.162841e+02 1.311826e+01 1.617942e+01 1.601290e+01 1.510786e+01 1.701666e+01 1.875604e+01 1.405812e+01 1.803942e+01 1.798316e+01 1.538794e+01 1.391623e+01 1.356101e+01 2.273683e+01 4.565904e+00 2.838976e+00 3.536053e+00 3.421097e+00 2.976604e+00 3.866322e+00 3.420860e+00 3.939720e+00 4.255926e+00 2.995277e+00 2.685142e+00 2.094055e+00 3.491594e+00
<GCONST> 1.893336e+02
<MIXTURE> 3 2.054908e-01
<MEAN> 39
 -7.135911e+00 -2.259733e+01 -2.472025e+01 1.051354e+01 2.078073e+00 -1.000361e+01 -1.912072e+01 -4.237530e-01 -2.488623e+00 5.450418e+00 -5.890533e+00 4.167111e+00 1.105500e+02 -5.970730e+00 -1.588470e+00 -2.220685e+00 2.533362e+00 -1.385726e+00 -3.709237e+00 -1.270721e+00 2.990690e+00 1.895967e+00 8.343425e-01 -1.297248e+00 1.311289e+00 1.483019e+01 -4.053261e+00 4.008650e+00 3.712851e+00 5.059722e-01 -1.156072e+00 -2.189460e-01 2.094196e+00 6.155723e-01 -5.863361e-01 -1.124490e+00 3.745078e-01 2.713795e-01 -3.824152e+00
<VARIANCE> 39
 9.617194e+01 1.527128e+02 1.862891e+02 1.540829e+02 1.673273e+02 2.250349e+02 1.426585e+02 1.527925e+02 1.524561e+02 1.497649e+02 1.119842e+02 9.936047e+01 1.412620e+02 2.915998e+01 1.798539e+01 1.736619e+01 1.963808e+01 2.693304e+01 2.150825e+01 1.654395e+01 1.698219e+01 1.522106e+01 1.480581e+01 1.146881e+01 1.086176e+01 2.335155e+01 2.605420e+00 3.366060e+00 3.407335e+00 3.759255e+00 3.054238e+00 4.039586e+00 3.312220e+00 3.408102e+00 4.196922e+00 3.623696e+00 2.528387e+00 2.392819e+00 3.796742e+00
<GCONST> 1.893677e+02
<MIXTURE> 4 9.683307e-02
<MEAN> 39
 -3.901859e+01 -1.211718e+01 -8.401964e+00 7.919790e+00 1.183478e+01 -1.625635e+01 -2.319068e+01 -1.076315e+00 1.519331e+00 1.240720e+01 -3.538160e+00 -7.896488e-01 1.093827e+02 -1.248386e+01 3.207987e+00 4.072052e+00 5.042855e-01 -6.519927e-01 -4.877491e+00 1.016975e+00 2.536818e+00 3.384175e+00 -7.426081e-01 -1.797055e+00 -3.695081e-01 4.338319e+00 6.062575e-02 1.550462e+00 9.977094e-01 -3.503950e-01 -1.042421e+00 5.286006e-01 1.830349e+00 9.928303e-01 -6.299102e-01 -1.647975e+00 -2.837720e-01 5.467208e-01 -3.202117e+00
<VARIANCE> 39
 1.926720e+02 1.207850e+02 1.764537e+02 2.498551e+02 2.793310e+02 2.665601e+02 1.983557e+02 1.956289e+02 1.741891e+02 1.311401e+02 1.250395e+02 1.023905e+02 1.801184e+02 1.516376e+01 9.876644e+00 1.350609e+01 1.879639e+01 2.062523e+01 1.881002e+01 1.393626e+01 1.763025e+01 1.496835e+01 1.335898e+01 1.288614e+01 1.202595e+01 2.030189e+01 5.366791e+00 1.977122e+00 2.914371e+00 3.026886e+00 2.914142e+00 3.903406e+00 3.097310e+00 3.444718e+00 3.495030e+00 2.491605e+00 2.529856e+00 2.189883e+00 3.245867e+00
<GCONST> 1.886524e+02
<MIXTURE> 5 1.874576e-01
<MEAN> 39
 -7.229740e+00 -2.085797e+01 -2.159987e+01 6.816211e+00 7.135116e+00 -1.078649e+01 -1.971924e+01 -3.380481e+00 -5.919363e+00 7.352890e+00 -6.698387e+00 2.920522e+00 1.081627e+02 -6.917971e+00 -1.653366e+00 -1.351889e+00 1.306103e+00 -2.130617e-01 -5.842423e+00 -2.657685e+00 1.007508e+00 6.125841e-01 -3.251746e-01 -2.452438e+00 2.116299e-01 1.422690e+01 -4.425217e+00 3.585011e+00 3.165152e+00 4.295875e-01 -1.379997e+00 -4.461125e-01 1.987347e+00 1.043180e+00 2.465412e-01 -1.266154e+00 3.287695e-01 3.280499e-01 -3.783377e+00
<VARIANCE> 39
 1.076320e+02 1.629516e+02 1.898754e+02 1.688702e+02 1.954156e+02 2.420715e+02 1.556427e+02 1.681219e+02 1.597543e+02 1.492447e+02 1.324474e+02 1.030738e+02 1.569008e+02 2.747430e+01 1.733150e+01 1.753887e+01 1.912195e+01 2.896731e+01 2.533261e+01 1.691244e+01 1.786002e+01 1.632767e+01 1.502320e+01 1.298514e+01 1.138358e+01 2.521249e+01 2.568512e+00 3.561704e+00 3.130693e+00 3.638928e+00 3.303582e+00 4.348398e+00 3.392408e+00 3.600640e+00 4.231522e+00 3.494352e+00 2.767825e+00 2.553880e+00 3.319822e+00
<GCONST> 1.910969e+02
<MIXTURE> 6 1.285124e-01
<MEAN> 39
 -4.913442e+01 -9.103560e+00 -2.943112e+00 1.046768e+01 6.858718e+00 -3.142697e+01 -1.600014e+01 7.662164e+00 3.509923e+00 2.488187e+00 -1.220794e+01 4.161713e+00 1.153312e+02 -1.323637e+01 5.093564e+00 2.858598e+00 -8.532182e-01 -2.346794e+00 -4.199450e+00 2.798563e+00 3.157101e+00 1.539215e+00 -3.127337e+00 -1.682736e+00 8.565802e-01 1.980823e+00 1.403217e+00 1.451375e+00 1.144105e-01 -8.567406e-01 -6.179910e-01 2.501024e+00 1.328272e+00 -3.522906e-01 -1.265282e+00 -3.283832e-01 9.140739e-01 1.127436e-01 -4.103148e+00
<VARIANCE> 39
 1.655825e+02 8.723034e+01 1.510521e+02 1.857966e+02 2.834434e+02 2.494567e+02 1.896381e+02 2.009976e+02 1.694068e+02 1.346199e+02 1.334467e+02 1.044959e+02 1.288706e+02 1.127131e+01 1.160459e+01 1.281914e+01 1.423812e+01 1.913914e+01 1.732791e+01 1.439545e+01 1.641491e+01 1.728457e+01 1.366927e+01 1.165435e+01 1.235898e+01 1.530619e+01 4.198725e+00 2.030181e+00 2.607467e+00 2.321019e+00 2.923996e+00 3.431475e+00 2.916567e+00 3.247173e+00 3.435308e+00 2.624727e+00 2.604216e+00 2.184434e+00 2.559694e+00
<GCONST> 1.855365e+02
<MIXTURE> 7 1.311475e-01
<MEAN> 39
 -2.357349e+01 -1.597420e+01 -1.425704e+01 2.091315e+01 -1.551691e+01 -1.881404e+01 -1.275582e+01 7.067764e+00 -1.780925e+00 -1.556742e+00 8.084073e-01 1.103735e+01 1.131732e+02 -9.694480e+00 3.377898e+00 1.698510e-01 5.908431e-01 -6.332778e+00 -1.001170e+00 1.792501e+00 3.259763e+00 -1.923184e+00 -1.138382e+00 3.418360e-01 2.962588e+00 6.748197e+00 -1.756376e+00 3.324294e+00 1.688959e+00 -1.268815e+00 4.284831e-01 1.843146e+00 1.374746e+00 -1.036871e+00 -1.133717e+00 -5.509372e-02 7.576925e-02 -5.419033e-01 -5.125484e+00
<VARIANCE> 39
 1.697545e+02 1.315086e+02 1.299637e+02 9.121387e+01 1.581868e+02 1.572545e+02 1.935019e+02 1.508698e+02 1.688835e+02 1.362678e+02 1.494930e+02 1.145672e+02 1.127626e+02 1.713910e+01 2.540504e+01 1.620358e+01 1.723262e+01 1.687507e+01 2.162979e+01 1.958761e+01 1.331305e+01 1.714398e+01 1.357310e+01 1.259452e+01 1.225317e+01 3.982349e+01 3.610294e+00 3.442764e+00 2.751120e+00 2.609845e+00 3.274679e+00 3.408698e+00 4.053705e+00 3.259269e+00 3.902440e+00 3.183087e+00 3.075595e+00 2.542491e+00 3.876767e+00
<GCONST> 1.887533e+02
<MIXTURE> 8 7.178607e-02
<MEAN> 39
 -4.393758e+01 -1.309251e+01 -6.533808e+00 9.531437e+00 1.340948e+01 -2.021827e+01 -2.360494e+01 -2.154864e+00 5.889966e+00 1.285156e+01 -5.610569e+00 -1.415646e+00 1.079360e+02 -1.211602e+01 2.294390e+00 3.025955e+00 -3.864988e-01 -1.805499e+00 -5.487552e+00 2.865668e-01 2.324602e+00 2.605158e+00 -1.676995e+00 -2.914903e+00 -1.182737e+00 3.003564e+00 8.628144e-01 1.198751e+00 1.235859e-01 -1.024017e+00 -1.469678e+00 9.201433e-01 1.618868e+00 7.704011e-01 -1.002829e+00 -1.635847e+00 -2.354120e-01 5.746195e-01 -3.006959e+00
<VARIANCE> 39
 1.607494e+02 1.264768e+02 1.711818e+02 2.210880e+02 3.054817e+02 2.295353e+02 2.110941e+02 1.923237e+02 2.210851e+02 1.259199e+02 1.466375e+02 9.209209e+01 1.527218e+02 1.402356e+01 9.786653e+00 1.047346e+01 1.539722e+01 2.034325e+01 1.925758e+01 1.395200e+01 1.689536e+01 1.520990e+01 1.572986e+01 1.201669e+01 1.059157e+01 1.601877e+01 4.756201e+00 1.538908e+00 2.187932e+00 2.631265e+00 3.074092e+00 3.332268e+00 3.011808e+00 2.881608e+00 3.165766e+00 2.244946e+00 2.434789e+00 1.941309e+00 2.337164e+00
<GCONST> 1.858089e+02
<TRANSP> 5
 0.000000e+00 1.000000e+00 0.000000e+00 0.000000e+00 0.000000e+00
 0.000000e+00 7.087004e-01 2.912996e-01 0.000000e+00 0.000000e+00
 0.000000e+00 0.000000e+00 7.070125e-01 2.929875e-01 0.000000e+00
 0.000000e+00 0.000000e+00 0.000000e+00 6.251674e-01 3.748326e-01
 0.000000e+00 0.000000e+00 0.000000e+00 0.000000e+00 0.000000e+00
<ENDHMM>
~h "n"
<BEGINHMM>
<NUMSTATES> 5
<STATE> 2
<NUMMIXES> 8
<MIXTURE> 1 5.312590e-02
<MEAN> 39
 1.658772e+00 1.249531e+01 2.561406e+01 1.479457e+01 3.753828e-01 1.055480e+01 1.641249e+01 -7.187736e+00 3.824143e-01 3.609564e+00 -2.913307e+00 9.441455e+00 8.395309e+01 7.668883e+00 3.881133e+00 3.514566e+00 5.049254e+00 -8.490611e-01 2.570587e+00 3.380456e+00 -4.939234e+00 1.222745e+00 -8.348031e-02 2.136217e-01 2.977323e+00 2.121697e+00 2.465933e-01 -1.227109e+00 -8.807745e-02 -1.014700e+00 -5.966294e-01 -8.006141e-01 -4.772136e-01 1.025107e-01 6.058266e-02 4.999092e-03 2.243057e-01 2.665379e-01 1.649121e+00
<VARIANCE> 39
 3.222559e+02 1.998556e+02 2.294545e+02 2.917052e+02 2.241460e+02 3.157187e+02 3.201223e+02 4.015095e+02 2.805103e+02 2.938642e+02 2.510767e+02 2.519359e+02 5.098726e+02 3.582140e+01 2.060693e+01 5.276299e+01 4.224702e+01 2.659418e+01 3.462646e+01 3.799802e+01 4.255487e+01 3.393176e+01 2.985141e+01 2.665108e+01 2.719447e+01 6.798808e+01 4.050059e+00 3.354337e+00 3.786822e+00 4.317413e+00 4.009192e+00 4.865715e+00 4.742771e+00 6.721508e+00 4.480056e+00 4.297893e+00 3.816917e+00 4.401221e+00 2.822269e+00
<GCONST> 2.103069e+02
<MIXTURE> 2 1.685796e-01
<MEAN> 39
 2.194969e+01 4.496057e+00 3.300594e+01 1.437643e+01 -6.867962e+00 4.037945e+00 2.321744e+01 -1.516740e+01 5.459214e-01 9.161566e+00 -8.111560e+00 1.801580e+01 1.087054e+02 8.705969e-01 3.326684e+00 -1.215495e+00 4.846838e+00 -4.767101e-01 2.774904e+00 1.984382e+00 -4.207970e+00 1.467326e+00 1.916742e-01 -1.245065e+00 9.058381e-01 -3.755659e+00 -9.831994e-01 -8.465450e-01 1.127372e-01 -1.644393e+00 6.594032e-01 -1.868612e-01 -9.590470e-01 2.244153e+00 -2.179818e-01 -2.456113e-01 5.426958e-01 -7.875127e-01 7.612532e-01
<VARIANCE> 39
 4.872096e+01 2.039364e+02 1.688406e+02 2.716604e+02 2.565815e+02 4.224615e+02 5.260289e+02 4.914388e+02 5.592737e+02 4.115725e+02 3.855654e+02 4.098253e+02 1.369321e+02 4.286869e+00 1.006309e+01 1.562807e+01 2.686975e+01 1.687492e+01 2.470379e+01 3.365291e+01 4.236193e+01 2.756460e+01 2.174039e+01 2.201458e+01 2.121011e+01 4.998239e+00 8.648079e-01 1.667327e+00 2.986794e+00 4.016593e+00 3.162159e+00 4.889597e+00 5.209474e+00 5.803043e+00 4.625212e+00 4.063718e+00 3.607963e+00 3.850877e+00 8.970250e-01
<GCONST> 1.966122e+02
<MIXTURE> 3 1.261139e-01
<MEAN> 39
 2.179662e+01 9.714324e-01 3.225000e+01 2.310532e+01 -4.661140e+00 3.446317e+00 1.557329e+01 -4.739308e+00 -1.141946e+01 1.405646e+01 -1.160374e+01 2.135103e+00 1.090186e+02 -9.190037e-01 3.258000e+00 -5.874051e-01 2.220574e+00 1.298692e+00 8.526414e-01 2.428091e+00 -4.232263e-01 1.835082e-01 3.823233e-01 -1.102344e+00 -7.018445e-01 -3.414452e+00 -1.492917e+00 -9.416709e-01 -5.896482e-01 -2.047512e+00 7.569045e-01 -2.392092e-01 -1.674236e+00 1.835519e+00 8.173759e-01 -5.540264e-01 8.870291e-01 2.278817e-01 8.269985e-01
<VARIANCE> 39
 5.887118e+01 1.878933e+02 1.693179e+02 2.767009e+02 3.532584e+02 4.628898e+02 5.204979e+02 4.219966e+02 6.601214e+02 5.797503e+02 5.527978e+02 5.898535e+02 1.595016e+02 5.059474e+00 1.228607e+01 1.452721e+01 1.738386e+01 1.716668e+01 2.120860e+01 2.934412e+01 2.448375e+01 2.604205e+01 2.290660e+01 1.969689e+01 2.057834e+01 8.370502e+00 2.311597e+00 2.972873e+00 4.287507e+00 5.306875e+00 5.973764e+00 6.361338e+00 8.678548e+00 6.651528e+00 8.027143e+00 6.374449e+00 5.974516e+00 6.613850e+00 2.058850e+00
<GCONST> 2.044053e+02
<MIXTURE> 4 1.701351e-01
<MEAN> 39
 1.092717e+01 -1.266356e+01 4.503332e+01 -2.170405e+01 -4.427774e+00 -1.921757e+00 1.809087e+01 7.902874e+00 -6.310360e+00 1.176035e+01 -2.947974e-01 9.767534e+00 1.288663e+02 2.237083e+00 5.619121e+00 -4.649068e-02 5.582973e+00 1.515461e-01 1.359892e+00 2.114184e+00 -6.090560e+00 -5.676643e-01 1.135626e+00 -2.336711e+00 1.874280e+00 -5.609698e+00 5.984419e-01 1.850509e-01 -1.837424e+00 2.692053e+00 3.518853e-01 1.641767e-01 1.209493e-01 -7.244436e-01 6.483634e-01 -7.164193e-01 -2.371403e-01 3.969835e-01 -7.480795e-01
<VARIANCE> 39
 6.787873e+01 2.296444e+02 2.314246e+02 4.542834e+02 2.821490e+02 3.565432e+02 4.797412e+02 5.054900e+02 3.879919e+02 3.417680e+02 2.890633e+02 2.314933e+02 1.707123e+02 5.691427e+00 1.027465e+01 2.795303e+01 4.804319e+01 2.511973e+01 3.217805e+01 3.663815e+01 3.988711e+01 3.375281e+01 3.282906e+01 2.753915e+01 2.619269e+01 5.015670e+00 7.403228e-01 1.632474e+00 2.617842e+00 5.252189e+00 3.761063e+00 5.221050e+00 5.272745e+00 5.800309e+00 4.594371e+00 4.768393e+00 3.773298e+00 3.580986e+00 7.328434e-01
<GCONST> 1.999036e+02
<MIXTURE> 5 1.327050e-01
<MEAN> 39
 2.011516e+01 2.231167e+00 3.320554e+01 1.630594e+01 -5.555649e+00 4.537546e+00 1.834608e+01 -1.159211e+01 -3.511715e+00 9.460407e+00 -1.040414e+01 1.181935e+01 1.087516e+02 9.682461e-03 2.641352e+00 -9.740757e-01 3.254492e+00 2.653943e-01 1.759446e+00 1.552582e+00 -1.480464e+00 5.423020e-01 6.589824e-02 -1.479503e+00 -6.953661e-01 -3.316961e+00 -9.767880e-01 -6.998804e-01 -2.121821e-01 -1.165954e+00 5.959009e-01 -3.460358e-01 -9.747537e-01 2.034692e+00 -3.907344e-02 -3.028337e-01 5.264551e-01 -5.172994e-01 4.275994e-01
<VARIANCE> 39
 5.802441e+01 2.175156e+02 1.665710e+02 3.232453e+02 2.790822e+02 4.285755e+02 4.994496e+02 4.857886e+02 5.410402e+02 4.283443e+02 3.949314e+02 4.237357e+02 1.720165e+02 4.195119e+00 8.936858e+00 1.179061e+01 1.974370e+01 1.417605e+01 2.019610e+01 2.638535e+01 3.195799e+01 2.208030e+01 1.867491e+01 1.758651e+01 1.716799e+01 5.468482e+00 1.193391e+00 1.742460e+00 2.987554e+00 4.207419e+00 3.078654e+00 4.683106e+00 5.538992e+00 5.862649e+00 4.225514e+00 3.500464e+00 3.453513e+00 3.589725e+00 1.178913e+00
<GCONST> 1.953222e+02
<MIXTURE> 6 1.236813e-01
<MEAN> 39
 1.932296e+01 8.358276e-01 3.361280e+01 2.128633e+01 -4.167272e+00 3.853513e+00 1.560241e+01 -7.804605e+00 -1.555264e+01 1.755613e+01 -2.080004e+01 -2.330579e-02 1.084455e+02 -1.840557e+00 3.637075e+00 -1.446461e+00 1.815513e+00 1.592599e+00 4.279058e-01 1.750090e+00 1.597536e-01 1.039872e+00 -1.256124e+00 -1.113246e+00 -1.080984e+00 -3.965936e+00 -1.817813e+00 -8.082344e-01 -1.055062e+00 -1.789199e+00 7.480431e-01 -4.019837e-01 -1.828544e+00 2.027967e+00 1.107002e+00 -9.367721e-01 1.711914e+00 3.092414e-01 4.957100e-01
<VARIANCE> 39
 6.484327e+01 1.611531e+02 1.460494e+02 2.679823e+02 3.337947e+02 4.203621e+02 4.458104e+02 4.093743e+02 5.862866e+02 7.513162e+02 6.532262e+02 5.203530e+02 1.756344e+02 6.594167e+00 1.308844e+01 1.521248e+01 1.563790e+01 1.708302e+01 2.000848e+01 2.710531e+01 2.193521e+01 2.766037e+01 2.966351e+01 2.697196e+01 2.513907e+01 9.677567e+00 2.924736e+00 3.103073e+00 4.092777e+00 5.172956e+00 5.408399e+00 5.716815e+00 7.814086e+00 6.463300e+00 7.767345e+00 7.075308e+00 6.955937e+00 6.775740e+00 2.395579e+00
<GCONST> 2.053686e+02
<MIXTURE> 7 1.548904e-01
<MEAN> 39
 1.234118e+01 -1.863639e+01 4.153382e+01 -9.378093e+00 -9.603964e+00 -4.698904e+00 -2.268394e-01 1.872872e+01 -1.284071e+01 8.320441e+00 -5.308477e-01 5.789760e+00 1.320825e+02 1.509121e+00 4.598781e+00 4.042162e-01 4.493407e+00 1.222506e+00 1.032332e+00 3.657523e+00 -4.712142e+00 -2.667461e+00 2.243570e+00 -2.779904e+00 -5.495203e-01 -5.231655e+00 4.854377e-01 4.126968e-01 -1.563226e+00 1.942358e+00 5.319373e-01 4.206593e-01 9.631938e-01 -1.359603e+00 8.962722e-01 3.987545e-03 -7.483034e-01 -2.785999e-01 -8.876028e-01
<VARIANCE> 39
 8.069630e+01 2.209487e+02 3.081640e+02 4.292690e+02 3.381495e+02 3.048113e+02 5.687907e+02 4.529978e+02 4.492652e+02 3.415576e+02 3.172550e+02 2.638367e+02 2.089479e+02 4.915200e+00 9.224916e+00 2.369758e+01 3.501509e+01 2.324190e+01 2.454321e+01 3.633065e+01 3.504713e+01 2.899636e+01 2.566132e+01 2.162889e+01 2.378940e+01 4.968026e+00 7.987452e-01 1.542226e+00 2.844458e+00 4.035078e+00 3.574207e+00 4.245870e+00 5.842322e+00 5.405424e+00 4.110934e+00 3.995865e+00 3.229698e+00 3.685350e+00 8.666087e-01
<GCONST> 1.983226e+02
<MIXTURE> 8 7.075151e-02
<MEAN> 39
 2.584783e+00 1.225243e+01 2.467174e+01 1.733536e+01 1.391328e+00 7.886817e+00 1.554130e+01 -4.342254e+00 -1.838671e+00 9.795509e+00 -5.641568e+00 5.229942e+00 8.416068e+01 7.697511e+00 1.105556e+00 3.734812e+00 3.460254e+00 -1.810306e+00 1.338775e+00 2.204664e+00 -4.022580e+00 -1.210838e+00 6.153684e-01 -1.882415e+00 6.996717e-01 4.048597e+00 -1.905271e-01 -1.531369e+00 -1.569029e-01 -1.127891e+00 -6.041963e-01 -7.701955e-01 -1.166731e+00 3.568362e-02 -1.193888e-01 -4.679451e-01 -2.111570e-02 -9.490300e-03 1.551511e+00
<VARIANCE> 39
 2.987990e+02 2.479574e+02 2.268744e+02 3.532745e+02 2.525722e+02 3.119888e+02 2.914131e+02 3.961945e+02 2.988562e+02 2.621151e+02 2.458946e+02 2.151331e+02 4.578185e+02 4.103694e+01 2.128654e+01 4.247650e+01 4.382154e+01 2.584347e+01 3.032848e+01 4.022556e+01 3.648118e+01 3.339919e+01 2.808259e+01 2.653187e+01 2.589059e+01 6.543851e+01 4.298950e+00 4.046352e+00 3.960003e+00 5.185409e+00 4.169234e+00 5.052709e+00 5.368452e+00 5.923613e+00 4.655863e+00 3.891544e+00 3.551938e+00 3.681963e+00 3.933155e+00
<GCONST> 2.104214e+02
<STATE> 3
<NUMMIXES> 8
<MIXTURE> 1 1.762969e-01
<MEAN> 39
 2.174999e+01 1.175316e+01 3.319049e+01 1.643794e+01 -7.286083e+00 1.531179e+01 2.131319e+01 -1.655083e+01 4.206170e+00 5.443291e+00 -2.039299e+00 1.721490e+01 1.009986e+02 -7.737281e-01 4.822521e-02 6.124848e-01 9.165556e-01 6.759952e-01 7.107964e-01 4.582010e-01 1.661178e+00 2.316694e-01 -8.175822e-01 6.180748e-01 2.616278e-01 -9.385990e-01 -7.343012e-01 -8.677240e-01 -1.905173e-01 -6.420302e-01 7.236611e-01 -9.976022e-01 -4.088586e-01 1.754045e+00 -3.344859e-01 -4.946789e-02 -8.113964e-02 -4.406492e-01 3.978867e-01
<VARIANCE> 39
 5.167537e+01 2.066694e+02 1.532504e+02 2.137010e+02 2.250917e+02 3.597678e+02 4.421904e+02 4.116793e+02 4.519535e+02 4.237036e+02 4.677122e+02 3.622603e+02 1.552788e+02 2.629402e+00 6.219037e+00 4.610249e+00 7.107640e+00 8.787098e+00 1.236096e+01 1.118961e+01 1.473014e+01 1.169760e+01 1.151797e+01 1.088443e+01 1.069557e+01 5.834128e+00 7.039858e-01 1.359636e+00 1.734888e+00 2.361277e+00 2.047389e+00 3.048497e+00 3.605146e+00 3.943826e+00 3.079114e+00 2.680042e+00 3.010314e+00 2.578205e+00 8.869191e-01
<GCONST> 1.814044e+02
<MIXTURE> 2 8.762008e-02
<MEAN> 39
 2.016570e+01 1.004197e+01 3.010635e+01 2.402945e+01 -2.504048e+00 3.520551e+00 1.866787e+01 -3.835025e+00 -1.089535e+01 1.119901e+01 -1.218362e+01 2.994345e-02 1.006678e+02 -1.139421e+00 -1.220629e-01 8.251351e-03 -1.860852e+00 1.616063e+00 -1.115386e-01 -2.346168e+00 1.106509e+00 2.376446e+00 -7.516775e-01 1.573519e+00 1.255377e+00 2.197349e+00 -2.511346e+00 -1.626912e+00 -1.220885e+00 -1.920099e+00 3.375225e-01 -1.937475e-01 -1.726959e+00 1.108731e+00 1.051286e+00 -1.631178e-01 9.324632e-01 4.916546e-01 6.270857e-01
<VARIANCE> 39
 7.672067e+01 2.174015e+02 1.565342e+02 2.329009e+02 3.224806e+02 3.403481e+02 4.386710e+02 3.766729e+02 5.176664e+02 4.342031e+02 4.291080e+02 4.140138e+02 1.718575e+02 5.203734e+01 3.363639e+01 3.375805e+01 3.920194e+01 4.015985e+01 3.827641e+01 5.591828e+01 4.270065e+01 4.823622e+01 3.635995e+01 3.339643e+01 3.695385e+01 5.058391e+01 4.011414e+00 3.016873e+00 3.138493e+00 3.660121e+00 4.260792e+00 4.105062e+00 5.884607e+00 4.218374e+00 5.605089e+00 4.010087e+00 4.309731e+00 4.162229e+00 2.432416e+00
<GCONST> 2.112603e+02
<MIXTURE> 3 1.261588e-01
<MEAN> 39
 2.245115e+01 2.343889e+00 3.882290e+01 1.643217e+01 -1.047662e+01 6.357001e+00 1.839901e+01 -1.549294e+01 1.273111e+00 5.443709e+00 -7.538986e+00 1.761612e+01 1.105193e+02 -1.205459e+00 -3.949250e+00 -8.168381e-01 -4.047169e+00 2.851967e+00 -4.171879e+00 -3.202600e+00 5.472405e+00 6.499571e-01 7.371750e-02 4.338168e-01 3.982782e-01 4.813262e+00 -1.364005e+00 -1.691007e+00 -1.820186e+00 -2.418875e+00 1.656004e+00 -9.864112e-01 -1.850839e+00 3.263265e+00 1.239356e-01 1.796869e-01 4.338264e-01 -1.102999e+00 1.160996e+00
<VARIANCE> 39
 4.735529e+01 2.127926e+02 1.365184e+02 2.489526e+02 2.468276e+02 4.667693e+02 5.479710e+02 4.293704e+02 5.551540e+02 4.679254e+02 5.207518e+02 5.597798e+02 1.171386e+02 7.439134e+00 1.453601e+01 1.505304e+01 2.555727e+01 2.399996e+01 3.659569e+01 4.421721e+01 4.411840e+01 2.736323e+01 2.166892e+01 2.326243e+01 2.662126e+01 1.560601e+01 2.509861e+00 2.487006e+00 2.943653e+00 4.560791e+00 4.279229e+00 6.452736e+00 7.673698e+00 6.426951e+00 7.662367e+00 4.768378e+00 5.913202e+00 5.689658e+00 2.673980e+00
<GCONST> 2.054596e+02
<MIXTURE> 4 1.410748e-01
<MEAN> 39
 1.506329e+01 1.811382e+01 3.377969e+01 2.488088e+01 4.100764e+00 1.351258e+01 2.210102e+01 -4.278889e+00 1.178587e+00 1.542512e+00 -9.254670e+00 1.246688e+01 9.021291e+01 -6.179460e+00 -2.159221e-01 -2.934507e+00 1.415901e+00 4.128116e+00 1.684845e+00 -3.402210e-01 5.664060e+00 6.757552e-02 4.149923e-01 8.917495e-01 -3.328357e+00 -4.041413e+00 -1.898242e+00 -2.148999e+00 -1.720688e+00 -1.600668e+00 -8.246067e-01 -1.184904e+00 -1.057269e+00 2.396360e-01 -2.573558e-01 2.955184e-01 4.520607e-01 -2.660879e-01 6.050485e-01
<VARIANCE> 39
 7.755257e+01 1.183169e+02 1.166898e+02 1.737008e+02 2.095535e+02 2.946061e+02 3.179500e+02 3.887511e+02 3.343889e+02 3.710622e+02 3.517053e+02 3.479764e+02 1.134345e+02 1.151379e+01 1.700090e+01 1.667893e+01 1.825324e+01 1.934177e+01 2.892238e+01 3.279891e+01 2.869585e+01 3.330608e+01 3.258432e+01 3.148416e+01 3.005075e+01 1.219928e+01 2.731176e+00 1.980275e+00 2.414378e+00 2.546183e+00 2.773098e+00 3.569293e+00 3.705317e+00 4.510201e+00 3.448162e+00 3.572860e+00 3.504013e+00 3.452919e+00 1.499571e+00
<GCONST> 1.961833e+02
<MIXTURE> 5 1.518155e-01
<MEAN> 39
 1.974315e+01 7.447406e+00 3.358409e+01 1.956641e+01 -8.041941e+00 1.287883e+01 1.982185e+01 -1.415047e+01 -8.148530e-01 6.393477e+00 -8.502845e+00 1.336805e+01 1.023033e+02 -1.049245e+00 -6.423160e-01 8.327789e-02 5.554918e-01 7.349363e-01 2.582637e-02 -1.611270e-01 1.918512e+00 2.450004e-01 -9.195445e-01 -6.381261e-02 -3.337650e-01 -4.646386e-01 -8.722941e-01 -9.309102e-01 -6.522498e-01 -9.563485e-01 7.912290e-01 -1.116240e+00 -9.660097e-01 1.813997e+00 -5.824387e-02 8.309844e-02 1.674559e-01 -5.862460e-01 3.247816e-01
<VARIANCE> 39
 6.458138e+01 2.128077e+02 1.584163e+02 2.547126e+02 2.345407e+02 3.645990e+02 4.362244e+02 4.145469e+02 4.651197e+02 4.048047e+02 4.596001e+02 3.737946e+02 2.112010e+02 4.541023e+00 7.249618e+00 5.880925e+00 8.116718e+00 9.906828e+00 1.368982e+01 1.213495e+01 1.537454e+01 1.205466e+01 1.215741e+01 1.170766e+01 1.151012e+01 9.967226e+00 1.151725e+00 1.761088e+00 2.027884e+00 2.577924e+00 2.427582e+00 3.442564e+00 4.308956e+00 4.410312e+00 3.612714e+00 2.896846e+00 3.233574e+00 2.723077e+00 1.502642e+00
<GCONST> 1.868734e+02
<MIXTURE> 6 1.220711e-01
<MEAN> 39
 2.020491e+01 2.249297e+00 3.931198e+01 1.648438e+01 -8.715256e+00 3.271835e+00 1.901290e+01 -1.911386e+01 7.543830e-01 5.416928e+00 -8.012723e+00 2.062195e+01 1.114452e+02 -1.697706e+00 -4.985475e+00 -1.755415e+00 -5.580268e+00 3.595012e+00 -5.030072e+00 -4.332372e+00 8.527170e+00 -2.955572e-02 -5.141523e-01 -2.846293e-01 -1.658709e+00 5.657568e+00 -1.290901e+00 -1.767223e+00 -2.083477e+00 -2.491923e+00 1.284176e+00 -5.314229e-01 -1.642411e+00 3.540504e+00 1.686930e-01 -1.300911e-01 3.987541e-01 -1.512395e+00 1.069578e+00
<VARIANCE> 39
 5.029218e+01 1.879029e+02 1.314235e+02 2.778473e+02 2.304879e+02 4.574140e+02 5.009121e+02 4.219752e+02 5.602518e+02 4.765582e+02 5.405549e+02 5.408042e+02 1.276648e+02 8.691155e+00 1.792954e+01 1.824922e+01 3.064231e+01 2.685588e+01 4.494855e+01 4.587967e+01 4.971175e+01 3.470529e+01 2.671097e+01 2.764450e+01 3.304492e+01 2.334842e+01 2.664097e+00 2.278995e+00 3.124793e+00 4.348076e+00 4.287485e+00 6.706228e+00 6.391098e+00 6.769132e+00 7.761281e+00 4.480835e+00 5.567586e+00 6.136267e+00 2.583435e+00
<GCONST> 2.076649e+02
<MIXTURE> 7 9.820556e-02
<MEAN> 39
 1.741575e+01 7.918141e+00 3.153384e+01 2.395074e+01 -1.146852e+00 4.144786e+00 1.377540e+01 -4.672904e+00 -1.190495e+01 1.606805e+01 -1.494915e+01 -1.897223e+00 1.014890e+02 -1.679804e+00 -9.409767e-01 -1.260601e+00 -3.259585e+00 1.531674e+00 -1.261060e+00 -3.382449e+00 1.776920e+00 2.117071e+00 -1.666235e+00 1.471550e+00 6.707164e-01 2.898108e+00 -2.383245e+00 -1.542868e+00 -1.608199e+00 -2.122647e+00 2.985625e-02 -3.627548e-01 -1.599842e+00 1.043660e+00 1.110933e+00 -6.198140e-01 1.094511e+00 4.808889e-01 4.710922e-01
<VARIANCE> 39
 8.707285e+01 2.194276e+02 1.496227e+02 2.616726e+02 3.061054e+02 3.329828e+02 3.756038e+02 3.398237e+02 4.489310e+02 4.484887e+02 4.504708e+02 3.415876e+02 2.022007e+02 5.724779e+01 3.453799e+01 3.676213e+01 3.881266e+01 4.198040e+01 3.533792e+01 4.884414e+01 4.173857e+01 5.358844e+01 3.819469e+01 4.105397e+01 3.481686e+01 6.040530e+01 4.037228e+00 3.006356e+00 2.942790e+00 3.774486e+00 4.291061e+00 4.309426e+00 5.363680e+00 4.282743e+00 5.914745e+00 4.532799e+00 4.573486e+00 3.939562e+00 2.958057e+00
<GCONST> 2.118502e+02
<MIXTURE> 8 9.673745e-02
<MEAN> 39
 9.228297e+00 1.856966e+01 3.109562e+01 2.478115e+01 1.028200e+01 1.598774e+01 2.087137e+01 -2.415713e+00 -1.250489e+00 5.193127e+00 -9.644110e+00 6.632760e+00 8.953399e+01 -9.657533e+00 -2.729687e+00 -6.444725e+00 -1.355228e+00 2.440972e+00 -3.113092e-01 -3.426298e+00 5.209008e+00 -1.253540e+00 3.795255e-01 1.427929e+00 -4.185756e+00 -3.404037e+00 -1.785612e+00 -2.262230e+00 -1.923411e+00 -2.309158e+00 -2.292987e+00 -1.951484e+00 -1.552032e+00 -6.776083e-01 -1.392270e-01 -2.885945e-01 4.948272e-01 6.100898e-01 1.247462e+00
<VARIANCE> 39
 8.660432e+01 1.274992e+02 1.057379e+02 1.451322e+02 1.826126e+02 2.212370e+02 2.679121e+02 3.526886e+02 2.802057e+02 2.802696e+02 2.672574e+02 2.722788e+02 1.493796e+02 1.617901e+01 1.992923e+01 2.021710e+01 2.099235e+01 2.240442e+01 3.312287e+01 4.013731e+01 3.624250e+01 4.266462e+01 4.028691e+01 4.430706e+01 3.857698e+01 2.010978e+01 2.641311e+00 2.361380e+00 2.472832e+00 2.524479e+00 3.475635e+00 3.589784e+00 4.507770e+00 5.320344e+00 3.961506e+00 4.380457e+00 3.849801e+00 4.133248e+00 2.781305e+00
<GCONST> 1.997809e+02
<STATE> 4
<NUMMIXES> 8
<MIXTURE> 1 8.930405e-02
<MEAN> 39
 1.673487e+01 -2.527007e+01 2.461707e+01 -1.459665e+01 7.520985e+00 -8.408352e+00 -8.870922e+00 2.300747e+01 4.533291e+00 1.155373e+01 -5.651456e+00 9.664673e+00 1.383376e+02 -5.821143e-01 -6.926432e+00 -6.328364e+00 -7.453639e+00 2.688421e+00 6.009943e-01 -4.559160e+00 6.397056e+00 2.416916e+00 -4.040136e-01 1.776512e+00 -1.303421e+00 6.361662e+00 3.669699e-01 1.325981e+00 -2.424949e-01 2.223438e+00 -6.215414e-01 1.841041e+00 1.777801e+00 -2.668062e+00 -1.829622e-01 -4.467439e-01 2.703524e-01 -3.044784e-01 -1.740767e+00
<VARIANCE> 39
 5.717359e+01 1.764631e+02 2.016086e+02 2.664757e+02 2.804565e+02 3.390693e+02 7.590012e+02 3.563701e+02 2.866068e+02 4.080404e+02 3.027106e+02 3.245366e+02 1.211230e+02 4.445701e+00 1.455196e+01 1.413226e+01 2.520793e+01 3.005865e+01 2.939537e+01 4.123882e+01 3.964729e+01 4.725133e+01 2.632559e+01 3.061297e+01 2.547018e+01 7.604643e+00 5.790112e-01 1.880623e+00 2.415606e+00 4.089159e+00 3.667737e+00 5.565590e+00 8.517405e+00 5.904575e+00 4.917702e+00 3.643652e+00 3.655726e+00 3.201531e+00 1.188028e+00
<GCONST> 1.985900e+02
<MIXTURE> 2 2.166324e-01
<MEAN> 39
 4.080383e+00 3.591111e+00 2.318381e+01 2.483881e+01 5.330874e+00 5.302390e+00 1.843701e+01 7.709392e+00 1.692769e+00 3.124377e+00 -9.947636e+00 5.454481e+00 8.450966e+01 -1.860568e+00 -3.261927e-01 -1.378125e+00 8.365580e-02 7.325063e-01 9.671081e-01 -1.844500e-01 1.813416e+00 1.044694e+00 -2.922712e-01 6.756642e-01 -4.142047e-01 -2.263033e+00 -9.508185e-02 -2.575297e-01 -2.883694e-01 -6.995056e-01 -2.277744e-01 -4.484400e-01 -3.594645e-01 -1.865770e-01 -1.440276e-01 2.536322e-01 9.870946e-02 3.810923e-02 2.222762e-01
<VARIANCE> 39
 1.438590e+02 1.371753e+02 2.314324e+02 2.780304e+02 2.465449e+02 2.998234e+02 3.500313e+02 3.706462e+02 4.177300e+02 3.939274e+02 3.323828e+02 2.826666e+02 2.497201e+02 5.847661e+00 7.254435e+00 8.258755e+00 1.192884e+01 1.107813e+01 1.332005e+01 1.414016e+01 1.658570e+01 1.702954e+01 1.436786e+01 1.422328e+01 1.261915e+01 4.858036e+00 7.266680e-01 1.242159e+00 1.724434e+00 2.264754e+00 2.318033e+00 2.792640e+00 2.970277e+00 3.290534e+00 3.174554e+00 2.574073e+00 2.651865e+00 2.287246e+00 6.377984e-01
<GCONST> 1.845264e+02
<MIXTURE> 3 1.152596e-01
<MEAN> 39
 -8.434684e+00 7.092772e+00 1.374199e+01 1.440775e+01 6.314372e+00 6.618913e+00 1.023229e+01 4.941494e+00 -2.288975e+00 6.510637e+00 -5.087581e+00 5.664148e-01 8.665786e+01 -8.738654e+00 -1.254403e+00 -5.689677e+00 -3.366632e+00 3.433280e-01 -2.097363e+00 -3.723554e+00 2.102312e+00 1.338773e+00 -1.052045e+00 2.803440e+00 3.993546e-01 -1.695709e+00 2.342293e-01 -5.504452e-01 3.140272e-01 -4.274649e-01 -1.127349e+00 -4.517629e-01 -3.124534e-01 -9.159058e-01 -2.731543e-01 -4.214283e-02 -3.735389e-01 5.709319e-01 1.279189e+00
<VARIANCE> 39
 1.418647e+02 2.061120e+02 1.488277e+02 1.974672e+02 2.115291e+02 2.168475e+02 2.524310e+02 2.717876e+02 2.348797e+02 2.446392e+02 1.946655e+02 1.724708e+02 4.771548e+02 4.121434e+01 2.821877e+01 2.522555e+01 2.745638e+01 3.097131e+01 2.866997e+01 3.151982e+01 3.532502e+01 3.784201e+01 3.262762e+01 3.216207e+01 2.808060e+01 2.822177e+01 3.479677e+00 4.570058e+00 3.273438e+00 4.082103e+00 4.689623e+00 4.426323e+00 5.307633e+00 5.575323e+00 5.153773e+00 4.815034e+00 4.720260e+00 4.385915e+00 4.999744e+00
<GCONST> 2.059651e+02
<MIXTURE> 4 6.916412e-02
<MEAN> 39
 9.764002e+00 -7.750906e+00 2.833717e+01 -1.889236e+00 3.406034e+00 -1.151909e+01 5.945492e+00 1.434342e+01 -8.073273e-01 2.475646e+00 -3.488473e+00 1.021458e+01 1.168457e+02 -1.938277e+00 -4.313361e+00 -3.996416e+00 -5.045876e+00 1.961097e+00 -3.111147e+00 -2.313261e+00 6.835153e+00 1.300453e+00 -7.316884e-01 1.246464e+00 -1.143812e+00 3.536866e+00 2.116049e-01 1.220320e-01 -7.639831e-01 9.661239e-01 -3.229700e-01 1.747843e+00 3.877846e-01 -1.104673e+00 2.554320e-01 2.666646e-01 -1.893385e-01 -3.883462e-01 -8.119298e-01
<VARIANCE> 39
 1.329274e+02 1.753424e+02 3.004878e+02 2.661579e+02 2.478121e+02 3.398493e+02 5.092445e+02 3.626635e+02 3.558845e+02 3.859567e+02 3.563750e+02 3.304238e+02 3.292883e+02 9.930622e+00 2.790138e+01 2.320988e+01 3.993788e+01 3.231914e+01 4.807513e+01 4.794392e+01 5.357526e+01 4.237328e+01 3.551651e+01 3.451281e+01 3.270993e+01 3.182761e+01 1.648277e+00 2.322747e+00 3.911389e+00 4.045258e+00 3.858803e+00 5.461026e+00 6.006779e+00 5.728730e+00 5.205648e+00 4.302538e+00 4.469368e+00 4.242914e+00 1.829919e+00
<GCONST> 2.086021e+02
<MIXTURE> 5 2.592250e-01
<MEAN> 39
 -4.629167e+00 -6.942028e-01 1.860167e+01 2.384655e+01 4.732303e+00 6.422112e+00 1.902235e+01 1.390035e+01 4.976953e+00 -1.125145e-01 -8.511236e+00 5.794437e+00 7.463902e+01 -3.155766e+00 -2.180622e+00 -4.334843e+00 -3.224895e+00 -1.806409e+00 -2.191945e+00 -2.746934e+00 -7.145457e-01 -8.215556e-01 -1.081649e+00 -5.512322e-01 -1.523462e+00 -2.645547e+00 4.359949e-01 3.318831e-01 4.969792e-02 -6.715829e-01 -3.966843e-01 -5.731620e-01 -7.033801e-01 -1.018210e+00 -6.915989e-01 3.672476e-02 -9.846578e-03 2.482558e-02 4.239803e-01
<VARIANCE> 39
 6.500504e+01 1.103461e+02 2.167149e+02 2.344301e+02 2.155923e+02 2.636927e+02 3.164861e+02 3.320589e+02 3.260460e+02 3.497239e+02 2.738858e+02 2.376474e+02 9.307921e+01 4.955450e+00 8.870505e+00 1.058760e+01 1.232306e+01 1.086275e+01 1.571431e+01 1.565452e+01 1.796820e+01 1.783019e+01 1.548898e+01 1.613448e+01 1.423595e+01 3.793110e+00 7.218671e-01 1.464608e+00 2.231009e+00 2.667813e+00 2.332022e+00 3.208941e+00 3.205700e+00 3.351610e+00 3.276632e+00 3.013619e+00 2.854846e+00 2.618050e+00 5.361795e-01
<GCONST> 1.828921e+02
<MIXTURE> 6 8.552393e-02
<MEAN> 39
 -1.065490e+01 5.368270e+00 1.513634e+01 1.636918e+01 7.751884e+00 1.257835e+01 1.382196e+01 5.420239e+00 -2.355275e+00 6.466541e+00 -5.497361e+00 9.133624e-01 8.492458e+01 -9.290267e+00 -4.797368e+00 -7.673864e+00 -5.079487e+00 -3.187807e+00 -3.762219e+00 -6.164598e+00 6.221215e-01 -1.604997e+00 -1.287415e+00 1.192899e+00 -1.683206e+00 -1.671238e+00 7.789114e-01 -2.565675e-01 1.093108e-01 -8.196175e-01 -1.750104e+00 -1.191723e+00 -6.653904e-01 -1.614541e+00 -2.771859e-02 -4.299992e-01 -1.020919e-01 1.217077e+00 1.442079e+00
<VARIANCE> 39
 1.220034e+02 1.418139e+02 1.277980e+02 1.584777e+02 1.803160e+02 1.780468e+02 2.402905e+02 2.869808e+02 2.090904e+02 2.434123e+02 1.892751e+02 1.666435e+02 3.169605e+02 2.498851e+01 1.468374e+01 1.788886e+01 1.704788e+01 1.859264e+01 2.308745e+01 2.699204e+01 3.166171e+01 2.973101e+01 2.498035e+01 2.836087e+01 2.613665e+01 2.362546e+01 2.612097e+00 3.505007e+00 2.828520e+00 3.582151e+00 4.373229e+00 4.314962e+00 5.268264e+00 5.549122e+00 5.179517e+00 5.254148e+00 5.444226e+00 4.909095e+00 5.542173e+00
<GCONST> 1.997890e+02
<MIXTURE> 7 9.833375e-02
<MEAN> 39
 1.571152e+01 -2.285635e+01 2.787440e+01 -1.098825e+01 6.838896e+00 -1.029927e+01 -1.078100e+01 1.934104e+01 1.544315e+00 1.304271e+01 -8.986417e+00 7.276980e+00 1.376643e+02 -1.231976e+00 -7.212824e+00 -6.175032e+00 -8.777472e+00 3.026460e+00 -1.294278e+00 -5.753047e+00 8.614985e+00 3.515439e+00 -8.856717e-01 1.441695e+00 -1.567518e+00 7.569912e+00 2.938879e-01 9.558189e-01 -7.786099e-01 1.678979e+00 -7.066115e-01 2.116184e+00 1.777456e+00 -2.190296e+00 8.050068e-03 -5.307915e-01 5.071685e-01 -5.162023e-01 -1.379002e+00
<VARIANCE> 39
 5.034515e+01 1.487743e+02 2.118446e+02 2.914484e+02 2.754048e+02 3.412772e+02 6.395555e+02 3.283582e+02 2.937820e+02 4.610085e+02 3.214695e+02 3.491872e+02 1.288486e+02 4.297534e+00 1.408312e+01 1.520107e+01 2.531273e+01 3.337131e+01 3.568087e+01 4.775709e+01 4.415198e+01 5.177421e+01 2.889463e+01 3.075959e+01 2.953901e+01 8.399324e+00 6.061767e-01 1.818429e+00 2.389342e+00 4.023169e+00 3.506344e+00 5.633431e+00 7.482393e+00 5.771892e+00 4.522793e+00 3.685081e+00 3.405266e+00 3.130830e+00 1.436676e+00
<GCONST> 1.993326e+02
<MIXTURE> 8 6.653319e-02
<MEAN> 39
 1.621371e+00 -1.114737e+01 2.298979e+01 -4.517613e+00 -2.800553e+00 -1.531639e+01 2.897120e+00 1.469975e+01 -1.886472e+00 -2.433747e+00 -4.507250e+00 9.852051e+00 1.053253e+02 -3.229143e+00 -2.619535e+00 -4.895554e+00 -4.372083e+00 -9.404662e-01 -3.220927e+00 -3.539006e+00 4.433826e+00 1.101377e+00 -1.278254e+00 5.013649e-01 -2.802059e+00 -9.693279e-01 9.438231e-02 1.114574e+00 -6.415176e-01 1.877824e+00 1.316752e-01 2.023772e+00 9.702271e-01 -1.553306e+00 4.373696e-01 3.395313e-01 -4.252160e-01 -4.331503e-01 -1.489486e+00
<VARIANCE> 39
 1.573300e+02 1.441420e+02 3.399908e+02 2.850054e+02 3.103997e+02 3.395493e+02 5.012483e+02 4.201732e+02 3.821928e+02 4.185625e+02 3.485089e+02 3.109648e+02 4.363910e+02 1.180021e+01 2.562815e+01 2.191132e+01 3.366795e+01 3.095876e+01 4.360005e+01 3.725067e+01 5.335180e+01 4.601572e+01 3.515805e+01 3.671685e+01 4.450499e+01 4.240346e+01 2.253232e+00 2.974290e+00 4.983690e+00 4.517985e+00 5.212031e+00 6.037531e+00 6.886876e+00 7.392035e+00 6.189639e+00 5.743694e+00 5.436559e+00 5.517383e+00 3.580096e+00
<GCONST> 2.129613e+02
<TRANSP> 5
 0.000000e+00 1.000000e+00 0.000000e+00 0.000000e+00 0.000000e+00
 0.000000e+00 6.480612e-01 3.519388e-01 0.000000e+00 0.000000e+00
 0.000000e+00 0.000000e+00 6.267435e-01 3.732565e-01 0.000000e+00
 0.000000e+00 0.000000e+00 0.000000e+00 6.836016e-01 3.163984e-01
 0.000000e+00 0.000000e+00 0.000000e+00 0.000000e+00 0.000000e+00
<ENDHMM>
~h "r"
<BEGINHMM>
<NUMSTATES> 5
<STATE> 2
<NUMMIXES> 8
<MIXTURE> 1 1.385793e-01
<MEAN> 39
 3.903689e+01 -1.626940e+01 -1.212865e+01 8.279607e-01 3.039093e+01 -2.921238e+01 -3.005330e+01 1.633190e+00 -5.469181e+00 1.005000e+01 4.136537e-01 9.636097e+00 1.266618e+02 3.962355e-01 -3.748248e-01 -1.826862e+00 -1.390150e+00 -3.344721e-01 -1.547931e-01 3.281809e-01 7.748625e-01 5.925098e-01 7.904506e-01 8.326983e-01 8.032613e-01 2.783620e-01 -6.990858e-01 -4.461353e-01 1.515807e+00 1.029115e-01 -1.415776e+00 -5.544360e-01 1.198755e+00 9.240847e-01 -4.418294e-01 -4.174360e-01 3.404626e-01 1.064934e-01 3.766615e-01
<VARIANCE> 39
 5.003747e+01 1.490185e+02 3.421226e+02 2.505111e+02 3.615807e+02 7.335093e+02 1.039815e+03 3.950587e+02 3.412278e+02 2.879144e+02 2.242194e+02 1.761648e+02 1.482274e+02 1.523905e+00 3.544291e+00 6.517262e+00 7.621601e+00 8.164449e+00 1.203819e+01 9.479166e+00 1.038244e+01 1.099788e+01 7.746622e+00 9.047807e+00 8.903910e+00 2.159364e+00 2.301187e-01 4.454462e-01 7.135038e-01 7.781947e-01 1.074319e+00 1.743015e+00 1.569801e+00 1.547610e+00 1.608539e+00 1.428889e+00 1.479099e+00 1.348546e+00 2.491347e-01
<GCONST> 1.675995e+02
<MIXTURE> 2 1.108001e-01
<MEAN> 39
 3.991074e+01 -5.768741e+00 -1.963054e+01 -4.767372e+00 2.793365e+01 -7.732617e+00 -2.719068e+01 -5.024967e+00 -1.327620e+01 5.640724e+00 3.692021e+00 1.066189e+01 1.201212e+02 3.535599e-01 -1.978348e-01 -2.122638e+00 9.177838e-01 2.330727e+00 -3.844979e-01 -9.836357e-01 -1.164280e+00 1.729726e+00 1.739131e+00 3.927339e-01 -1.753795e-01 -7.970777e-01 -1.333891e+00 -5.784476e-01 2.210663e+00 7.449559e-01 -1.845712e+00 -1.162630e+00 1.035127e+00 1.364148e+00 6.006759e-01 -2.766499e-01 -4.150273e-01 -1.391278e-01 2.300466e-01
<VARIANCE> 39
 6.555616e+01 1.519150e+02 4.499009e+02 3.953062e+02 4.152045e+02 7.554049e+02 7.200447e+02 4.333168e+02 3.417466e+02 3.743574e+02 2.819856e+02 2.560852e+02 1.505548e+02 5.698852e+00 1.053230e+01 1.685934e+01 2.100630e+01 1.954689e+01 3.566441e+01 2.574437e+01 2.513946e+01 2.417556e+01 2.046711e+01 1.938021e+01 1.741027e+01 9.324706e+00 1.172337e+00 1.806089e+00 2.302916e+00 2.847851e+00 3.419860e+00 6.290555e+00 5.342841e+00 4.062910e+00 4.277656e+00 3.659945e+00 3.349289e+00 3.270108e+00 1.679443e+00
<GCONST> 1.979222e+02
<MIXTURE> 3 1.304621e-01
<MEAN> 39
 3.315768e+01 -2.454501e+01 7.744935e+00 9.274593e+00 2.119700e+01 -3.340755e+01 -3.415145e+01 7.814073e+00 -6.625362e+00 2.654084e+00 4.997819e-01 5.985362e+00 1.322173e+02 2.355832e+00 8.882480e-01 -6.294118e+00 -2.406171e+00 3.173849e+00 2.354802e+00 -2.078518e+00 -1.977660e+00 1.101485e+00 2.245237e+00 9.854669e-01 2.066806e-01 -8.383989e-01 -7.481202e-01 8.281203e-02 1.487391e+00 -6.952175e-01 -1.604240e+00 4.614370e-01 1.481475e+00 -1.392282e-01 -8.928828e-01 1.946852e-01 2.917092e-01 1.789521e-01 3.486080e-01
<VARIANCE> 39
 5.650587e+01 1.386808e+02 3.258044e+02 2.159391e+02 3.742704e+02 8.160498e+02 1.169956e+03 3.460732e+02 3.116809e+02 3.994765e+02 2.434307e+02 1.634354e+02 1.555856e+02 2.251154e+00 3.711279e+00 9.679030e+00 8.141154e+00 1.189678e+01 1.247101e+01 1.264755e+01 1.473228e+01 1.254905e+01 1.116111e+01 1.065775e+01 1.071383e+01 1.970353e+00 2.628969e-01 4.844154e-01 8.265836e-01 9.819678e-01 1.303455e+00 2.125803e+00 1.696720e+00 2.054981e+00 1.818174e+00 1.700191e+00 1.671045e+00 1.534198e+00 2.399850e-01
<GCONST> 1.724329e+02
<MIXTURE> 4 1.118347e-01
<MEAN> 39
 3.935958e+01 -1.862127e+01 -7.639199e+00 3.494363e+00 3.002292e+01 -1.380765e+01 -3.510431e+01 -5.063735e+00 -7.174154e+00 7.553137e+00 7.903193e-01 4.609885e+00 1.267902e+02 -1.048530e+00 -3.887838e+00 3.555324e+00 3.663673e+00 -2.213587e-01 -7.562113e+00 -2.884107e+00 4.758409e+00 2.741750e+00 -7.039092e-01 -1.264746e+00 -6.494092e-01 2.317298e+00 -2.007671e+00 2.637520e-01 2.959742e+00 4.096668e-01 -3.036621e+00 -7.005160e-01 2.769647e+00 1.668723e+00 -6.941453e-01 -1.089699e+00 -2.762862e-01 3.887779e-01 -1.042099e-01
<VARIANCE> 39
 5.615730e+01 1.433028e+02 3.417969e+02 3.460632e+02 4.383376e+02 7.848505e+02 9.725736e+02 4.140925e+02 3.042891e+02 4.491921e+02 2.822903e+02 2.367246e+02 1.229098e+02 5.588135e+00 6.028224e+00 1.429082e+01 2.032180e+01 1.853446e+01 2.687074e+01 2.857847e+01 2.487062e+01 2.607735e+01 2.253814e+01 1.749605e+01 1.780816e+01 5.917554e+00 2.465531e+00 1.832002e+00 3.077538e+00 2.853101e+00 4.243807e+00 5.491624e+00 5.230239e+00 4.238686e+00 4.128521e+00 4.220985e+00 3.931908e+00 3.634865e+00 8.088740e-01
<GCONST> 1.968469e+02
<MIXTURE> 5 1.258807e-01
<MEAN> 39
 3.159947e+01 -2.599794e+01 1.258527e+01 9.246850e+00 2.001748e+01 -3.145652e+01 -3.587156e+01 9.968744e+00 -8.730582e+00 -4.711437e-01 1.771655e+00 3.956054e+00 1.325043e+02 2.305100e+00 5.865819e-01 -5.951514e+00 -2.440716e+00 3.175921e+00 1.819776e+00 -2.444641e+00 -1.777684e+00 1.142060e+00 2.134821e+00 7.515576e-01 1.747217e-01 -6.275287e-01 -7.143059e-01 1.173932e-01 1.302487e+00 -6.561447e-01 -1.547991e+00 5.293857e-01 1.237479e+00 -1.438112e-01 -8.280838e-01 3.837599e-01 1.711766e-01 1.138306e-01 3.502043e-01
<VARIANCE> 39
 5.517979e+01 1.272952e+02 3.274689e+02 2.410813e+02 3.567218e+02 8.332885e+02 1.178051e+03 3.215816e+02 2.882125e+02 4.323924e+02 2.655489e+02 1.752755e+02 1.551980e+02 2.319718e+00 3.681564e+00 9.660876e+00 8.211066e+00 1.171516e+01 1.199409e+01 1.225484e+01 1.453595e+01 1.176816e+01 1.104294e+01 9.944781e+00 1.024648e+01 2.063415e+00 2.794679e-01 5.040948e-01 8.027382e-01 1.033969e+00 1.310743e+00 2.175920e+00 1.813470e+00 2.114361e+00 1.757769e+00 1.655446e+00 1.706437e+00 1.452866e+00 2.657866e-01
<GCONST> 1.725425e+02
<MIXTURE> 6 1.416930e-01
<MEAN> 39
 3.794108e+01 -1.741627e+01 -8.928723e+00 -1.148379e-01 2.737220e+01 -2.652927e+01 -2.875307e+01 1.417435e+00 -6.825336e+00 9.277007e+00 2.236068e+00 7.951440e+00 1.267187e+02 3.252401e-01 -5.422762e-01 -1.576913e+00 -1.199762e+00 -1.738310e-01 -5.080730e-01 2.970532e-04 8.604410e-01 6.903197e-01 7.566138e-01 5.686980e-01 4.375243e-01 3.655307e-01 -6.512946e-01 -4.058951e-01 1.397466e+00 1.122981e-01 -1.311924e+00 -4.668727e-01 9.443508e-01 8.848331e-01 -2.550005e-01 -3.461457e-01 1.265836e-01 8.274792e-02 3.371786e-01
<VARIANCE> 39
 5.446510e+01 1.683706e+02 3.812706e+02 3.055531e+02 3.778882e+02 7.981964e+02 1.076932e+03 4.191304e+02 3.246022e+02 3.236066e+02 2.300248e+02 1.786594e+02 1.488090e+02 1.496526e+00 3.523738e+00 6.245365e+00 7.770301e+00 7.662689e+00 1.151756e+01 9.452172e+00 1.025178e+01 1.067609e+01 7.678185e+00 8.978857e+00 8.674715e+00 2.294776e+00 2.442729e-01 4.681341e-01 7.001095e-01 8.549798e-01 1.022282e+00 1.736118e+00 1.610202e+00 1.550746e+00 1.533655e+00 1.455991e+00 1.456955e+00 1.310180e+00 2.691114e-01
<GCONST> 1.684275e+02
<MIXTURE> 7 1.243559e-01
<MEAN> 39
 3.863665e+01 -5.622142e+00 -1.577328e+01 -5.366808e+00 2.693903e+01 9.250372e-01 -3.211819e+01 -7.417342e+00 -1.473260e+01 2.089931e+00 4.128782e+00 7.359534e+00 1.199416e+02 4.904280e-01 -2.949807e-02 -2.379938e+00 2.401628e-01 1.746539e+00 8.754065e-02 -1.164958e+00 -1.221017e+00 9.052015e-01 1.700457e+00 3.144327e-01 -1.204290e-01 -6.069081e-01 -1.161153e+00 -7.980580e-01 1.951921e+00 9.056990e-01 -1.674337e+00 -1.597566e+00 5.074718e-01 1.539270e+00 8.138046e-01 -3.269020e-01 -3.834246e-01 -4.845964e-02 3.998962e-01
<VARIANCE> 39
 7.191846e+01 1.742473e+02 5.197955e+02 4.677008e+02 4.107508e+02 6.684854e+02 6.730307e+02 4.111497e+02 3.262776e+02 4.254536e+02 2.764385e+02 2.618440e+02 1.771239e+02 5.844666e+00 1.053983e+01 1.749024e+01 2.153947e+01 1.828647e+01 2.874446e+01 2.547238e+01 2.297724e+01 2.304258e+01 1.938181e+01 1.899486e+01 1.721995e+01 8.810188e+00 1.209740e+00 1.764858e+00 2.037337e+00 2.999117e+00 3.166274e+00 5.034906e+00 6.246754e+00 3.811682e+00 4.164505e+00 3.672648e+00 3.328693e+00 3.272007e+00 1.722712e+00
<GCONST> 1.976994e+02
<MIXTURE> 8 1.163686e-01
<MEAN> 39
 3.699260e+01 -2.197216e+01 -9.767976e-01 4.868658e+00 2.770864e+01 -1.230906e+01 -3.810644e+01 -2.825629e+00 -8.384569e+00 6.590817e+00 5.337439e-01 1.473206e+00 1.280585e+02 -9.694566e-01 -4.093684e+00 4.345128e+00 3.480987e+00 -6.991286e-01 -7.584651e+00 -3.267541e+00 5.454054e+00 2.014329e+00 -1.254140e+00 -1.395731e+00 -1.100250e+00 2.665644e+00 -2.105906e+00 4.722516e-01 2.639972e+00 2.132415e-01 -2.959205e+00 -6.216829e-01 3.008721e+00 1.514387e+00 -7.414370e-01 -1.013342e+00 -2.964045e-01 5.968680e-01 -2.807123e-01
<VARIANCE> 39
 6.047557e+01 1.325905e+02 3.626816e+02 3.782873e+02 4.203517e+02 7.037631e+02 1.029706e+03 4.285113e+02 3.313820e+02 5.263848e+02 2.756340e+02 2.349015e+02 1.270990e+02 7.495209e+00 6.234749e+00 1.535789e+01 2.264887e+01 1.778540e+01 2.418866e+01 2.693838e+01 2.520505e+01 3.194728e+01 2.360491e+01 1.827342e+01 1.867865e+01 7.247275e+00 3.166004e+00 1.845364e+00 2.775750e+00 3.017065e+00 4.076471e+00 5.437650e+00 5.784682e+00 4.209262e+00 4.233965e+00 4.996406e+00 3.883300e+00 3.735553e+00 8.742535e-01
<GCONST> 1.985768e+02
<STATE> 3
<NUMMIXES> 8
<MIXTURE> 1 2.190474e-01
<MEAN> 39
 3.699025e+01 -2.224214e+01 -7.877707e+00 -2.133473e+00 1.757770e+01 -2.687854e+01 -3.044204e+01 1.182890e+01 -7.184714e+00 6.792385e+00 6.584469e+00 1.395660e+01 1.306964e+02 -1.122293e+00 -1.047439e+00 1.410864e+00 -1.269045e+00 -3.812002e+00 -9.044779e-01 3.908765e+00 2.755337e+00 -1.097203e+00 3.172278e-02 2.444715e+00 8.594276e-01 8.111134e-01 -4.213669e-01 3.878329e-01 8.860549e-01 -3.057508e-01 -6.379126e-01 8.720378e-01 1.307862e+00 -6.339117e-01 -7.893133e-01 2.973653e-01 2.761483e-01 -7.835097e-01 -1.960266e-01
<VARIANCE> 39
