~o
<STREAMINFO> 1 39
<VECSIZE> 39<NULLD><MFCC_D_A_0><DIAGC>
~v "varFloor1"
<VARIANCE> 39
 6.754285e+00 3.412382e+00 5.608406e+00 4.796288e+00 3.472278e+00 4.011306e+00 4.413544e+00 3.617784e+00 3.683816e+00 3.040248e+00 2.640156e+00 2.509632e+00 1.299030e+01 2.278168e-01 1.545930e-01 2.184475e-01 2.118017e-01 1.813441e-01 2.097645e-01 2.257998e-01 2.166213e-01 2.009591e-01 1.748390e-01 1.664857e-01 1.534652e-01 2.729186e-01 3.005252e-02 2.352007e-02 2.950203e-02 3.333135e-02 2.970526e-02 3.527972e-02 3.796952e-02 3.764049e-02 3.477431e-02 3.067440e-02 2.924915e-02 2.697382e-02 3.680100e-02
~h "f"
<BEGINHMM>
<NUMSTATES> 5
<STATE> 2
<MEAN> 39
 -2.988631e+01 -1.199337e+01 2.516980e-01 3.851219e+00 -1.239992e+00 2.355544e-01 -5.518292e+00 1.000117e+00 -4.335853e+00 3.907840e+00 -3.173545e+00 2.754770e+00 8.779679e+01 -2.346800e+00 -1.579520e+00 -1.249412e+00 -4.943042e-01 -6.925690e-01 -3.517540e-01 -8.980740e-01 -3.936586e-01 -2.524390e-01 -1.895053e-01 -5.639620e-02 -1.244234e-01 3.800748e-01 1.269795e+00 3.124292e-01 2.487413e-01 -2.511540e-01 7.749923e-02 3.205466e-04 2.139071e-01 -7.191756e-02 -8.807737e-02 8.592476e-02 -4.145472e-02 2.864288e-02 6.576085e-01
<VARIANCE> 39
 1.912542e+02 1.465760e+02 1.022204e+02 1.087843e+02 1.220658e+02 1.315872e+02 1.463013e+02 1.435021e+02 1.402555e+02 1.266612e+02 1.209358e+02 1.096413e+02 4.062512e+02 2.564968e+01 1.316025e+01 1.181026e+01 1.679428e+01 1.417151e+01 1.428188e+01 1.573096e+01 1.515373e+01 1.526915e+01 1.373248e+01 1.315181e+01 1.224780e+01 2.082396e+01 3.942554e+00 2.617944e+00 2.294925e+00 3.183459e+00 2.751204e+00 3.017413e+00 3.286069e+00 3.235800e+00 3.251255e+00 2.912311e+00 2.752686e+00 2.500398e+00 3.277189e+00
<GCONST> 1.856823e+02
<STATE> 3
<MEAN> 39
 -2.883258e+01 -1.660833e+01 -2.946852e+00 -3.008832e-02 -3.227061e+00 -1.012816e+00 -7.690651e+00 -1.152060e+00 -5.688072e+00 3.850595e+00 -4.372524e+00 2.337906e+00 1.009316e+02 9.574447e+00 1.264670e+00 1.845569e-01 -3.363012e+00 5.389205e-01 1.021777e+00 1.537388e+00 3.628880e-02 5.475085e-01 1.525160e+00 5.547633e-01 -1.981094e-01 6.199641e+00 3.355831e+00 8.065972e-01 4.600759e-01 -2.002282e+00 -2.322144e-01 4.177628e-01 6.973663e-01 3.646413e-01 9.274950e-02 6.557487e-01 2.784572e-01 -1.337018e-01 1.073491e+00
<VARIANCE> 39
 1.742295e+02 8.475341e+01 6.677778e+01 7.599387e+01 8.430621e+01 9.356667e+01 1.022967e+02 1.037054e+02 1.172739e+02 1.116679e+02 1.034911e+02 8.988053e+01 2.164350e+02 4.365490e+01 1.690125e+01 1.019546e+01 2.239466e+01 1.388840e+01 1.352089e+01 1.522412e+01 1.497677e+01 2.150065e+01 1.923828e+01 2.174137e+01 1.324183e+01 3.625547e+01 4.514173e+00 4.638288e+00 2.626109e+00 4.096620e+00 3.500989e+00 2.968887e+00 3.260527e+00 3.254882e+00 4.105088e+00 3.587992e+00 4.256512e+00 2.904160e+00 4.658477e+00
<GCONST> 1.868882e+02
<STATE> 4
<MEAN> 39
 1.550875e+01 -1.668577e+01 -3.289601e+00 -2.326836e+01 -1.112821e+00 6.152587e+00 1.238627e-01 -3.499067e-01 -2.397156e+00 1.522570e+01 2.888094e+00 -7.455951e-01 1.287902e+02 8.890141e+00 -1.332272e+00 -3.496875e-01 -7.523798e+00 -2.681831e-02 1.972432e+00 2.003194e+00 9.352589e-01 8.669893e-01 2.059577e+00 7.707829e-01 -6.600158e-01 7.596494e+00 -2.901347e+00 -1.528827e-01 1.762299e-01 7.781932e-01 -2.164856e-01 -1.582496e-01 -4.234490e-01 3.646902e-01 -5.974819e-02 -7.903427e-01 -7.936543e-01 5.218152e-02 -1.565697e+00
<VARIANCE> 39
 3.301405e+02 2.196025e+02 1.689938e+02 4.690115e+02 2.672639e+02 2.104460e+02 2.212144e+02 2.295629e+02 4.284850e+02 3.074505e+02 4.585076e+02 2.179803e+02 4.140455e+02 6.382919e+01 4.382463e+01 2.137074e+01 3.593077e+01 2.916705e+01 2.058432e+01 2.254467e+01 2.238296e+01 3.295867e+01 2.604527e+01 3.592188e+01 2.254369e+01 2.837313e+01 8.410671e+00 3.519749e+00 2.520581e+00 8.331279e+00 4.189103e+00 3.091400e+00 3.490562e+00 3.209187e+00 5.774483e+00 4.518988e+00 5.252816e+00 3.419411e+00 4.800198e+00
<GCONST> 2.083757e+02
<TRANSP> 5
 0.000000e+00 1.000000e+00 0.000000e+00 0.000000e+00 0.000000e+00
 0.000000e+00 8.656672e-01 1.343329e-01 0.000000e+00 0.000000e+00
 0.000000e+00 0.000000e+00 6.606048e-01 3.393952e-01 0.000000e+00
 0.000000e+00 0.000000e+00 0.000000e+00 5.536689e-01 4.463311e-01
 0.000000e+00 0.000000e+00 0.000000e+00 0.000000e+00 0.000000e+00
<ENDHMM>
~h "k"
<BEGINHMM>
<NUMSTATES> 5
<STATE> 2
<MEAN> 39
 -8.364022e+00 8.443981e+00 2.401952e+01 2.458429e+01 1.563542e-01 -1.393394e+01 -1.935413e+00 1.888452e-02 -1.835740e+01 -3.444975e+00 -6.545807e-01 1.712160e+00 7.247937e+01 -5.304232e+00 1.137982e+00 -9.671087e+00 -1.791391e+00 2.991650e+00 4.840672e+00 -3.160043e+00 -2.477513e-01 4.130492e+00 -1.366198e+00 -1.188013e-01 -3.148318e-01 -1.020332e+01 -2.363105e-01 -2.774628e+00 -6.373922e-01 -2.559122e+00 -1.169849e+00 -1.167473e+00 -6.078566e-01 -1.743844e-01 8.714409e-01 1.129533e+00 -3.187204e-01 5.768691e-01 4.869551e+00
<VARIANCE> 39
 1.552846e+02 2.671846e+02 3.191211e+02 2.208441e+02 2.626093e+02 3.679572e+02 3.734992e+02 4.744675e+02 3.339149e+02 2.547338e+02 1.974532e+02 1.486689e+02 4.453536e+02 1.437092e+01 5.885849e+01 2.788083e+01 3.952777e+01 3.109218e+01 4.372853e+01 5.723479e+01 6.977901e+01 4.901996e+01 3.648833e+01 2.466779e+01 2.212833e+01 1.070227e+02 3.815267e+00 7.888637e+00 6.337028e+00 6.572576e+00 5.239491e+00 8.996160e+00 9.337269e+00 9.747602e+00 8.585679e+00 5.686256e+00 4.696588e+00 4.330898e+00 1.475542e+01
<GCONST> 2.175819e+02
<STATE> 3
<MEAN> 39
 -2.032756e+01 -7.765864e+00 -6.543214e+00 8.777269e+00 -6.385648e-02 -1.028323e+01 -1.173368e+01 -9.468601e-01 -3.992733e+00 1.907257e+00 -2.111234e+00 3.945769e+00 7.913311e+01 -3.216259e+00 -3.294590e+00 -4.309902e+00 -1.037376e+00 -4.854778e-01 -1.900603e+00 -1.605474e+00 1.413355e+00 1.779609e+00 8.959447e-01 -7.169273e-01 6.677294e-01 8.444518e+00 -7.639536e-01 1.245085e+00 1.916859e+00 7.596831e-01 -6.593291e-01 -7.393142e-01 9.790058e-01 2.863595e-01 -6.068305e-01 -2.415274e-01 -9.437892e-02 1.642771e-01 1.434912e+00
<VARIANCE> 39
 2.016328e+02 3.088985e+02 2.552830e+02 1.533327e+02 2.116043e+02 2.275367e+02 2.065565e+02 1.839411e+02 1.556608e+02 1.453014e+02 1.354337e+02 1.057711e+02 9.183806e+02 4.280321e+01 3.669403e+01 2.957359e+01 2.482215e+01 2.606684e+01 3.137361e+01 2.529608e+01 2.354324e+01 2.174107e+01 1.985548e+01 1.664302e+01 1.319569e+01 8.644061e+01 8.856786e+00 9.492587e+00 5.326948e+00 4.218633e+00 4.804674e+00 6.638947e+00 5.531472e+00 5.132314e+00 4.608508e+00 4.261575e+00 3.189461e+00 2.659501e+00 2.343520e+01
<GCONST> 2.066331e+02
<STATE> 4
<MEAN> 39
 -3.974976e+01 -4.671256e+00 -7.436115e+00 9.077963e+00 -3.548941e+00 -1.841554e+01 -1.003829e+01 5.302455e+00 -1.017066e+00 1.323368e+00 -5.188764e+00 6.544545e+00 9.796358e+01 -4.697549e+00 2.159179e+00 5.532502e-01 -4.450550e-01 -1.009954e+00 -2.171737e-01 1.353865e+00 1.218051e+00 1.500005e-01 -3.778433e-01 -3.485993e-01 4.767487e-01 1.991704e+00 8.435701e-01 5.208732e-01 4.638124e-01 -1.418756e-01 1.707766e-01 9.032038e-01 4.605814e-01 -3.888674e-01 -4.864543e-01 -2.859311e-03 2.231297e-01 -1.845552e-01 -1.634969e+00
<VARIANCE> 39
 3.618026e+02 1.417087e+02 1.604377e+02 1.833794e+02 3.562841e+02 3.167101e+02 2.116830e+02 1.948048e+02 1.696487e+02 1.609844e+02 1.671277e+02 1.334657e+02 7.590860e+02 6.053885e+01 2.228241e+01 1.687290e+01 1.423331e+01 2.165680e+01 2.710001e+01 2.122168e+01 1.833148e+01 1.797701e+01 1.684776e+01 1.411982e+01 1.364899e+01 4.687816e+01 8.303902e+00 3.631896e+00 3.102741e+00 2.922120e+00 4.149030e+00 5.312743e+00 4.053877e+00 3.727052e+00 3.458816e+00 3.541146e+00 2.866899e+00 2.630617e+00 1.124061e+01
<GCONST> 2.001458e+02
<TRANSP> 5
 0.000000e+00 1.000000e+00 0.000000e+00 0.000000e+00 0.000000e+00
 0.000000e+00 6.861123e-01 3.138877e-01 0.000000e+00 0.000000e+00
 0.000000e+00 0.000000e+00 7.560050e-01 2.439950e-01 0.000000e+00
 0.000000e+00 0.000000e+00 0.000000e+00 6.796851e-01 3.203149e-01
 0.000000e+00 0.000000e+00 0.000000e+00 0.000000e+00 0.000000e+00
<ENDHMM>
~h "n"
<BEGINHMM>
<NUMSTATES> 5
<STATE> 2
<MEAN> 39
 1.592495e+01 -1.052312e+00 3.604494e+01 6.437629e+00 -5.688550e+00 3.858527e+00 1.576918e+01 -3.725452e+00 -5.734756e+00 9.117378e+00 -5.590159e+00 9.702716e+00 1.122631e+02 1.138500e+00 2.985987e+00 3.908942e-01 3.332706e+00 1.802201e-01 1.294669e+00 2.193858e+00 -2.847199e+00 -1.083618e-01 7.322233e-01 -1.370994e+00 3.377476e-01 -2.573463e+00 -5.493849e-01 -6.222003e-01 -9.452743e-01 -3.459779e-01 4.974789e-01 -3.395649e-01 -7.275017e-01 8.525494e-01 4.098878e-01 -2.533911e-01 1.362173e-01 -2.205209e-01 2.655233e-01
<VARIANCE> 39
 1.276128e+02 3.242919e+02 2.370051e+02 6.099306e+02 3.042600e+02 4.058756e+02 5.421611e+02 6.186982e+02 5.389443e+02 4.429359e+02 4.381768e+02 4.140072e+02 4.318429e+02 1.668843e+01 1.739226e+01 2.495906e+01 3.735424e+01 2.337165e+01 2.776013e+01 3.681774e+01 4.530892e+01 3.314859e+01 2.901144e+01 2.649560e+01 2.742689e+01 2.623104e+01 2.547143e+00 2.847399e+00 3.732749e+00 7.897368e+00 4.327951e+00 5.176320e+00 7.078911e+00 8.574906e+00 5.786672e+00 4.936951e+00 4.883326e+00 4.882250e+00 2.235908e+00
<GCONST> 2.122317e+02
<STATE> 3
<MEAN> 39
 1.695710e+01 4.263334e+00 3.323910e+01 1.648045e+01 -1.390950e+00 5.945383e+00 1.594397e+01 -4.618667e+00 -2.155141e+00 7.862503e+00 -9.008428e+00 1.029077e+01 1.052924e+02 -2.476442e+00 -2.484979e+00 -2.468735e+00 -2.455898e+00 2.343248e+00 -1.308197e+00 -2.595189e+00 4.917283e+00 1.030122e+00 -4.915620e-01 5.334240e-01 -1.193278e+00 1.328452e+00 -1.051156e+00 -1.073434e+00 -1.214664e+00 -1.257604e+00 1.063806e-01 -3.346198e-01 -9.121450e-01 8.718113e-01 2.300347e-01 -1.645023e-01 4.799426e-01 -2.925040e-01 4.074848e-01
<VARIANCE> 39
 1.014874e+02 2.884888e+02 1.611300e+02 3.733549e+02 2.962948e+02 4.557642e+02 5.212180e+02 5.023011e+02 4.533721e+02 4.397903e+02 4.278646e+02 4.258915e+02 3.433951e+02 1.751170e+01 2.670006e+01 2.045907e+01 3.763781e+01 2.535547e+01 3.657693e+01 4.228125e+01 4.463020e+01 3.554840e+01 2.621371e+01 2.761715e+01 2.778761e+01 3.815751e+01 2.792625e+00 2.948978e+00 3.158652e+00 5.012226e+00 4.619187e+00 6.372859e+00 6.496102e+00 7.857922e+00 5.218695e+00 4.010494e+00 4.379333e+00 4.206612e+00 2.439662e+00
<GCONST> 2.107332e+02
<STATE> 4
<MEAN> 39
 2.553453e+00 -2.719092e+00 1.946660e+01 1.363862e+01 3.998307e+00 3.368199e+00 1.103667e+01 1.057516e+01 1.604594e+00 3.827993e+00 -7.060354e+00 4.786184e+00 9.274915e+01 -3.005631e+00 -1.883859e+00 -3.867093e+00 -2.397913e+00 1.362135e-01 -8.321561e-01 -2.227084e+00 1.533689e+00 5.812193e-01 -6.490500e-01 6.932617e-01 -1.082694e+00 -8.916819e-01 7.786702e-02 2.310541e-01 1.589004e-02 -1.638349e-02 -4.107950e-01 1.913411e-02 -3.398705e-02 -9.573641e-01 -2.221438e-01 2.995472e-02 4.490583e-02 1.395376e-01 2.394010e-02
<VARIANCE> 39
 2.178689e+02 2.910071e+02 2.369794e+02 4.203182e+02 2.575373e+02 3.424622e+02 4.652185e+02 4.118738e+02 3.487775e+02 3.783511e+02 2.866553e+02 2.644388e+02 7.391272e+02 1.833515e+01 1.725802e+01 1.884905e+01 2.193352e+01 2.042589e+01 2.252698e+01 2.446893e+01 2.839268e+01 2.613442e+01 2.074273e+01 2.182039e+01 1.967871e+01 1.843348e+01 1.856355e+00 2.667594e+00 2.677707e+00 4.331923e+00 3.362401e+00 4.619507e+00 4.997039e+00 5.194979e+00 4.038862e+00 3.522397e+00 3.383276e+00 3.193654e+00 2.304276e+00
<GCONST> 2.030743e+02
<TRANSP> 5
 0.000000e+00 1.000000e+00 0.000000e+00 0.000000e+00 0.000000e+00
 0.000000e+00 6.646395e-01 3.353605e-01 0.000000e+00 0.000000e+00
 0.000000e+00 0.000000e+00 6.161599e-01 3.838402e-01 0.000000e+00
 0.000000e+00 0.000000e+00 0.000000e+00 6.645347e-01 3.354653e-01
 0.000000e+00 0.000000e+00 0.000000e+00 0.000000e+00 0.000000e+00
<ENDHMM>
~h "r"
<BEGINHMM>
<NUMSTATES> 5
<STATE> 2
<MEAN> 39
 3.610930e+01 -1.824185e+01 -4.466990e+00 4.592592e+00 2.722412e+01 -2.163514e+01 -3.310454e+01 2.539785e+00 -8.495162e+00 4.766037e+00 1.371318e+00 6.845842e+00 1.268919e+02 2.936765e-01 -1.007501e+00 -9.167516e-01 3.761361e-01 7.814698e-01 -1.560304e+00 -1.137592e+00 1.238493e+00 1.310508e+00 3.432184e-01 -4.201272e-02 1.263004e-01 1.965290e-01 -1.254441e+00 1.199617e-01 1.778100e+00 -1.167186e-01 -1.899831e+00 3.411357e-03 1.661822e+00 5.137409e-01 -4.529483e-01 -1.827732e-01 7.587111e-03 6.131804e-02 7.922982e-02
<VARIANCE> 39
 7.256808e+01 1.711152e+02 4.486056e+02 3.133821e+02 3.683710e+02 9.199618e+02 1.018749e+03 4.324294e+02 3.251952e+02 4.055954e+02 2.652983e+02 2.151271e+02 1.681073e+02 9.819203e+00 9.029217e+00 3.669744e+01 2.201815e+01 2.659427e+01 3.343590e+01 2.822968e+01 2.868075e+01 2.289787e+01 2.009116e+01 1.686030e+01 1.529052e+01 7.204283e+00 1.400811e+00 1.747600e+00 2.061392e+00 2.386708e+00 2.810853e+00 5.730862e+00 4.560338e+00 4.245227e+00 3.571101e+00 3.417666e+00 3.078935e+00 2.764012e+00 9.378505e-01
<GCONST> 1.976879e+02
<STATE> 3
<MEAN> 39
 2.988105e+01 -2.358360e+01 5.849202e+00 8.942259e+00 1.650457e+01 -3.344530e+01 -2.159394e+01 1.540489e+01 -6.993494e+00 3.555866e+00 1.122615e+00 8.734895e+00 1.275635e+02 -3.819209e+00 -3.122301e-01 5.746226e+00 5.116130e-01 -5.195683e+00 -2.302622e-01 5.637386e+00 1.757869e+00 -1.825858e+00 -4.115785e-01 7.902094e-01 -2.680047e-01 -1.776060e-01 -8.804871e-01 9.127958e-01 5.385517e-01 -1.099291e+00 -6.666441e-01 2.001755e+00 1.058855e+00 -1.513938e+00 -6.550692e-01 6.196721e-01 1.215353e-01 -3.733210e-01 -4.385886e-01
<VARIANCE> 39
 9.431200e+01 1.968672e+02 6.110262e+02 3.447938e+02 3.857839e+02 8.485594e+02 1.086882e+03 4.135289e+02 4.459160e+02 4.468709e+02 2.611024e+02 2.299473e+02 2.657879e+02 1.295426e+01 1.118579e+01 3.200816e+01 2.338189e+01 2.820817e+01 3.309593e+01 3.174683e+01 3.136079e+01 3.311119e+01 2.510297e+01 2.106328e+01 1.758639e+01 1.322000e+01 1.714667e+00 2.260309e+00 2.305453e+00 2.501195e+00 3.211323e+00 6.161346e+00 4.896423e+00 4.807157e+00 4.032939e+00 3.488949e+00 2.883175e+00 2.718304e+00 1.046174e+00
<GCONST> 2.028211e+02
<STATE> 4
<MEAN> 39
 1.672160e+01 -2.139657e+01 1.492433e+01 7.473119e+00 4.179401e+00 -2.332666e+01 -3.000142e+00 1.442240e+01 -8.931734e+00 5.834457e+00 1.621676e+00 4.393132e+00 1.183208e+02 -3.828111e+00 1.360136e+00 3.582525e+00 -1.913110e+00 -3.470055e+00 3.106781e+00 3.509596e+00 -2.183905e+00 -1.121745e+00 1.052435e+00 -2.920398e-01 -1.121794e+00 -1.400818e+00 7.596394e-02 6.542993e-01 -5.936248e-01 -5.691893e-01 6.407765e-01 7.104223e-01 -7.954831e-01 -8.292804e-01 4.002809e-01 1.925785e-01 -3.455384e-01 6.437965e-03 -2.746733e-01
<VARIANCE> 39
 2.262753e+02 2.232448e+02 9.178359e+02 3.635630e+02 4.219427e+02 7.100223e+02 8.267679e+02 4.490977e+02 5.900784e+02 4.235219e+02 2.744085e+02 2.661342e+02 6.533392e+02 1.544504e+01 1.427253e+01 2.206454e+01 1.812764e+01 1.902614e+01 2.582249e+01 2.824783e+01 2.668000e+01 2.192620e+01 2.047646e+01 1.778198e+01 1.518988e+01 9.984844e+00 1.233111e+00 1.765607e+00 2.633137e+00 2.769917e+00 3.199544e+00 4.225622e+00 3.985601e+00 3.644290e+00 4.123274e+00 2.986960e+00 2.827446e+00 2.609377e+00 8.865682e-01
<GCONST> 2.014196e+02
<TRANSP> 5
 0.000000e+00 1.000000e+00 0.000000e+00 0.000000e+00 0.000000e+00
 0.000000e+00 7.357762e-01 2.642237e-01 0.000000e+00 0.000000e+00
 0.000000e+00 0.000000e+00 5.128473e-01 4.871527e-01 0.000000e+00
 0.000000e+00 0.000000e+00 0.000000e+00 6.113608e-01 3.886391e-01
 0.000000e+00 0.000000e+00 0.000000e+00 0.000000e+00 0.000000e+00
<ENDHMM>
~h "s"
<BEGINHMM>
<NUMSTATES> 5
<STATE> 2
<MEAN> 39
 -2.914775e+01 4.835483e+00 5.286191e+00 6.926215e+00 1.232596e+00 -6.025134e+00 -1.005783e+00 3.356156e+00 -3.396878e+00 2.124026e+00 -3.725560e+00 5.264249e+00 9.898921e+01 -8.018290e+00 1.478392e+00 -3.953538e+00 -1.018616e+00 -7.298081e-01 -3.328061e-01 4.287665e-01 9.833812e-01 -1.158734e-01 -4.035486e-01 5.203270e-01 1.452712e-01 1.180132e+00 3.964638e-01 -4.018180e-01 -6.163297e-01 -6.273189e-01 -3.482535e-01 -1.033248e-01 -4.274830e-01 -3.489379e-01 -2.958467e-01 2.061980e-01 8.723800e-03 -1.148229e-02 -7.254770e-02
<VARIANCE> 39
 5.305826e+02 2.312578e+02 3.639452e+02 2.897779e+02 3.684527e+02 3.438925e+02 2.989721e+02 2.618899e+02 2.460854e+02 2.057940e+02 2.003068e+02 1.917509e+02 5.604774e+02 5.730496e+01 2.444463e+01 4.280795e+01 3.737635e+01 2.959600e+01 3.490670e+01 3.045873e+01 2.847378e+01 3.018683e+01 2.446764e+01 2.292147e+01 2.164757e+01 3.293371e+01 8.976929e+00 4.749864e+00 5.624152e+00 5.448229e+00 5.374472e+00 5.598681e+00 5.175741e+00 5.258757e+00 4.820738e+00 4.390895e+00 4.188710e+00 3.791833e+00 3.922658e+00
<GCONST> 2.113983e+02
<STATE> 3
<MEAN> 39
 -5.025372e+01 7.629050e+00 -1.027754e+01 2.853844e+00 -4.765970e+00 -8.245458e+00 -2.187064e+00 4.038958e+00 -5.572102e+00 1.879497e+00 -3.114331e+00 5.960052e+00 1.040699e+02 -2.898585e+00 6.085899e-01 -2.923449e+00 -1.198374e+00 -7.325110e-01 2.340260e-01 -6.234662e-01 -4.544009e-01 -5.150695e-01 1.040725e-01 -1.217913e-01 4.667510e-02 6.036533e-01 2.151154e+00 -4.368228e-01 9.837445e-01 4.416637e-01 2.732045e-01 2.122448e-01 -1.011845e-01 -2.777398e-01 1.246118e-01 1.341742e-01 -1.724489e-01 -3.721133e-02 -3.614865e-01
<VARIANCE> 39
 1.799943e+02 1.561325e+02 1.955195e+02 2.665255e+02 3.487955e+02 2.929466e+02 1.942146e+02 1.754988e+02 1.669536e+02 1.520691e+02 1.584914e+02 1.262813e+02 2.347827e+02 2.835545e+01 1.427270e+01 1.984431e+01 1.558237e+01 1.694869e+01 1.869362e+01 1.811423e+01 1.628665e+01 1.494188e+01 1.454176e+01 1.338033e+01 1.247202e+01 1.490052e+01 3.445624e+00 2.374762e+00 3.521846e+00 3.016268e+00 3.277720e+00 3.622936e+00 3.517045e+00 3.465867e+00 3.299214e+00 3.050560e+00 2.914527e+00 2.728904e+00 2.217081e+00
<GCONST> 1.912593e+02
<STATE> 4
<MEAN> 39
 -4.819178e+01 4.845024e+00 -1.218528e+01 1.674642e+00 -5.479029e+00 -6.583278e+00 -4.045494e+00 3.733589e+00 -5.488420e+00 2.803617e+00 -4.116491e+00 5.403302e+00 1.022481e+02 9.834255e-01 -2.204158e-01 3.015989e-01 -1.351313e-01 -3.754740e-02 2.595150e-01 7.542758e-02 -1.485982e-01 9.123652e-02 5.307384e-02 -1.063917e-01 -4.567689e-02 -1.795257e-01 8.033593e-01 -4.720196e-02 6.679622e-01 1.512125e-01 5.155545e-02 -1.331323e-01 5.358395e-02 -3.496560e-02 1.136974e-01 -2.887399e-02 -6.533853e-03 5.547379e-02 3.587120e-02
<VARIANCE> 39
 2.886355e+02 1.439444e+02 1.964443e+02 2.423367e+02 3.083430e+02 2.757484e+02 1.764754e+02 1.581901e+02 1.589753e+02 1.449799e+02 1.526901e+02 1.346133e+02 3.340246e+02 1.100980e+01 6.735413e+00 8.988503e+00 8.537631e+00 1.019245e+01 1.213809e+01 1.228607e+01 1.208498e+01 1.178397e+01 1.179873e+01 1.128889e+01 1.068658e+01 8.839565e+00 2.441506e+00 1.340958e+00 2.114053e+00 1.701826e+00 1.921304e+00 2.416178e+00 2.458869e+00 2.381136e+00 2.349658e+00 2.373983e+00 2.234845e+00 2.197291e+00 1.243384e+00
<GCONST> 1.801262e+02
<TRANSP> 5
 0.000000e+00 1.000000e+00 0.000000e+00 0.000000e+00 0.000000e+00
 0.000000e+00 5.938769e-01 4.061231e-01 0.000000e+00 0.000000e+00
 0.000000e+00 0.000000e+00 5.327733e-01 4.672267e-01 0.000000e+00
 0.000000e+00 0.000000e+00 0.000000e+00 8.596380e-01 1.403620e-01
 0.000000e+00 0.000000e+00 0.000000e+00 0.000000e+00 0.000000e+00
<ENDHMM>
~h "t"
<BEGINHMM>
<NUMSTATES> 5
<STATE> 2
<MEAN> 39
 -1.693728e+01 8.229025e+00 1.385505e+01 1.025465e+01 2.127988e+00 6.389627e-01 -2.472395e+00 -1.401583e+00 -3.902702e+00 1.544870e+00 -1.111902e+00 2.112706e+00 6.406249e+01 -3.334194e+00 -1.219235e+00 -4.441336e+00 -2.082285e+00 -2.187667e-01 -6.901282e-01 -4.341396e-01 3.458559e-01 5.840113e-01 -2.256041e-02 9.791459e-01 1.368724e-01 -3.970646e-01 -1.586879e-01 -5.499949e-01 9.448981e-01 -1.178767e+00 -5.952482e-01 -5.155335e-01 6.885345e-02 -4.134554e-01 -5.647449e-01 1.121316e-01 -3.183664e-01 2.213344e-01 3.223709e+00
<VARIANCE> 39
 2.364887e+02 2.065522e+02 3.529928e+02 2.493467e+02 1.801201e+02 1.947953e+02 2.211973e+02 2.067731e+02 1.891281e+02 1.594378e+02 1.443436e+02 1.278762e+02 5.282936e+02 2.049666e+01 3.137331e+01 4.736411e+01 3.704037e+01 2.526797e+01 2.699047e+01 2.749264e+01 2.911819e+01 3.208469e+01 2.203526e+01 2.085754e+01 1.824900e+01 1.404358e+02 3.378701e+00 6.225611e+00 6.789540e+00 6.685844e+00 4.783642e+00 4.804327e+00 5.132676e+00 5.094840e+00 5.556645e+00 4.088119e+00 3.781008e+00 3.439327e+00 1.524059e+01
<GCONST> 2.077286e+02
<STATE> 3
<MEAN> 39
 -3.399808e+01 9.748797e-01 6.410478e+00 -9.376800e+00 -4.878766e+00 -8.756485e+00 -2.094904e+00 -4.519087e+00 -1.021149e+01 2.063070e+00 -6.342673e-01 4.359061e+00 1.039877e+02 -3.192550e+00 1.573596e-01 1.212918e+00 -1.385297e+00 -2.148866e+00 -2.269456e+00 1.657963e+00 3.617115e-01 -1.340897e+00 1.802588e-02 -3.444250e-01 1.528149e+00 8.899338e+00 1.315422e+00 2.855171e-01 1.246367e+00 1.721280e+00 -6.270432e-02 3.577654e-01 4.894889e-01 4.236944e-01 5.069939e-01 4.573796e-02 -2.573504e-01 1.417762e-01 -2.680941e+00
<VARIANCE> 39
 2.489889e+02 2.162102e+02 2.181449e+02 2.188547e+02 1.935681e+02 2.005215e+02 2.133561e+02 2.074718e+02 1.903219e+02 1.667071e+02 1.529270e+02 1.354436e+02 9.986107e+02 2.704067e+01 2.220497e+01 2.615319e+01 2.486465e+01 2.044281e+01 2.491043e+01 2.566335e+01 2.362319e+01 2.278413e+01 1.975334e+01 2.015045e+01 1.670262e+01 1.086319e+02 5.622249e+00 5.127304e+00 4.397050e+00 5.166303e+00 4.352911e+00 4.364618e+00 4.398807e+00 4.099404e+00 4.449257e+00 3.835011e+00 3.645225e+00 3.406813e+00 2.148487e+01
<GCONST> 2.046946e+02
<STATE> 4
<MEAN> 39
 -3.080567e+01 -1.547430e+00 1.389170e+01 -3.142514e+00 -1.122058e+01 -1.136973e+01 6.787837e+00 1.667537e-02 -8.779518e+00 9.572691e-01 -1.753968e+00 8.917417e+00 1.019639e+02 3.753171e+00 -1.050538e+00 2.698612e+00 2.089951e+00 -1.346915e-01 9.690978e-02 8.588558e-01 1.246370e+00 8.951760e-01 -9.968156e-02 -8.367817e-01 2.245776e-01 -1.087276e+00 1.540960e+00 7.773627e-02 4.273285e-01 3.242672e-01 7.227051e-01 2.578909e-01 -5.711322e-01 -1.561779e-01 1.045372e-01 1.371881e-01 -1.036910e-01 -4.172282e-01 -3.712013e-01
<VARIANCE> 39
 3.377220e+02 1.403756e+02 2.260470e+02 1.954594e+02 1.915258e+02 2.623493e+02 2.636385e+02 3.055330e+02 2.208418e+02 1.978518e+02 2.253025e+02 1.788765e+02 6.423710e+02 3.142219e+01 1.310767e+01 2.948249e+01 1.997660e+01 1.669787e+01 1.846115e+01 1.799531e+01 1.898091e+01 1.772474e+01 1.666637e+01 1.635767e+01 1.494111e+01 2.657667e+01 6.210314e+00 2.819896e+00 3.537913e+00 3.203609e+00 3.234383e+00 4.330005e+00 3.691013e+00 3.722495e+00 3.744951e+00 3.480457e+00 3.522397e+00 3.021275e+00 6.645271e+00
<GCONST> 1.988229e+02
<TRANSP> 5
 0.000000e+00 1.000000e+00 0.000000e+00 0.000000e+00 0.000000e+00
 0.000000e+00 8.081614e-01 1.918386e-01 0.000000e+00 0.000000e+00
 0.000000e+00 0.000000e+00 6.252591e-01 3.747408e-01 0.000000e+00
 0.000000e+00 0.000000e+00 0.000000e+00 6.782272e-01 3.217728e-01
 0.000000e+00 0.000000e+00 0.000000e+00 0.000000e+00 0.000000e+00
<ENDHMM>
~h "v"
<BEGINHMM>
<NUMSTATES> 5
<STATE> 2
<MEAN> 39
 1.313741e+01 -2.659125e+01 1.697667e+01 -1.816585e+01 -1.120568e+01 -2.118840e+01 -1.692937e+00 1.215168e+01 1.360085e+01 1.361183e+01 -1.965421e+00 7.005366e+00 1.458968e+02 7.920014e-01 6.430715e-01 1.278966e-01 1.410529e+00 1.217091e+00 4.460834e-01 -6.665184e-01 -9.766700e-01 -7.285180e-01 5.972466e-01 2.204251e-01 -7.716786e-01 -2.013711e+00 -3.010176e-01 1.155115e+00 -6.854662e-02 1.399682e+00 1.081013e+00 1.054187e+00 -4.027723e-01 -8.720707e-01 -8.172351e-01 -2.890964e-01 -1.415843e-01 -1.189911e-01 -1.597342e+00
<VARIANCE> 39
 7.613206e+01 1.524229e+02 2.299238e+02 2.301662e+02 2.576174e+02 2.568510e+02 8.463549e+02 2.775291e+02 2.962350e+02 4.299622e+02 3.203344e+02 3.810955e+02 1.932619e+02 2.684706e+00 1.223179e+01 8.710449e+00 1.524300e+01 1.152794e+01 1.209875e+01 1.706485e+01 1.608499e+01 1.515551e+01 1.113761e+01 1.504688e+01 1.229756e+01 1.142060e+01 1.366602e+00 1.030361e+00 1.493711e+00 1.771358e+00 2.243014e+00 3.189835e+00 3.704105e+00 2.205408e+00 2.648702e+00 2.196944e+00 2.131009e+00 2.118393e+00 1.110743e+00
<GCONST> 1.845856e+02
<STATE> 3
<MEAN> 39
 1.746073e+01 -1.595723e+01 1.912048e+01 -1.484855e+00 -1.842248e+00 -1.719678e+01 -9.189003e+00 2.789001e+00 3.812548e+00 1.535302e+01 -1.508895e+00 2.660157e+00 1.266861e+02 -1.935682e+00 5.597599e+00 6.257135e-01 6.936075e+00 5.345432e+00 5.663421e+00 -3.878860e-01 -2.734118e+00 -3.223020e+00 -9.843913e-01 2.581319e-01 -4.914798e-01 -8.695100e+00 -1.826835e+00 6.163551e-02 -5.141059e-01 -1.503533e-01 1.640899e-01 1.383028e+00 1.260735e+00 8.327942e-01 1.305885e-01 -6.034806e-01 6.911297e-03 8.257589e-02 -5.052768e-01
<VARIANCE> 39
 7.913676e+01 2.028088e+02 2.391643e+02 3.223121e+02 2.770793e+02 3.240465e+02 5.315266e+02 2.994966e+02 4.101214e+02 3.543399e+02 3.537329e+02 3.287600e+02 3.422451e+02 1.927859e+01 1.738222e+01 1.692932e+01 2.329442e+01 2.232503e+01 2.480331e+01 3.395491e+01 2.279422e+01 2.560440e+01 2.285578e+01 2.371457e+01 1.971715e+01 1.605862e+01 2.790828e+00 3.102018e+00 2.494555e+00 4.414619e+00 4.139497e+00 4.925271e+00 4.099004e+00 3.816553e+00 4.955040e+00 3.348509e+00 3.744221e+00 2.993260e+00 3.262295e+00
<GCONST> 2.021686e+02
<STATE> 4
<MEAN> 39
 -4.654762e+00 -7.541377e+00 1.164898e+01 7.482096e+00 3.737229e+00 -2.794455e+00 -1.412213e+00 5.024838e+00 1.514461e+00 7.132457e+00 -3.192867e+00 3.533838e+00 9.838451e+01 -1.763007e+00 3.839158e-01 -9.141252e-01 -6.398623e-02 1.594173e-01 9.043330e-01 4.514031e-01 2.930299e-01 -5.407917e-01 -9.150047e-01 9.093568e-02 8.715627e-03 -2.152560e+00 4.302221e-01 -6.255701e-01 -7.413259e-02 -9.617459e-01 -7.420663e-01 -8.331288e-01 1.611981e-02 2.636891e-01 2.835600e-01 1.659062e-02 -5.614952e-03 1.196208e-01 1.025237e+00
<VARIANCE> 39
 4.221039e+02 1.867750e+02 1.999637e+02 2.432395e+02 2.172374e+02 2.534853e+02 2.850834e+02 2.552156e+02 2.607418e+02 2.568422e+02 2.318835e+02 2.128200e+02 4.796953e+02 3.502911e+01 2.134978e+01 1.515492e+01 2.780210e+01 2.478180e+01 3.406043e+01 2.503317e+01 2.230872e+01 2.440250e+01 1.887868e+01 1.920544e+01 1.575206e+01 2.967581e+01 4.684008e+00 4.347354e+00 3.028377e+00 6.028644e+00 5.101912e+00 6.051816e+00 4.699131e+00 4.389514e+00 4.410198e+00 3.565652e+00 3.504424e+00 3.032689e+00 5.346570e+00
<GCONST> 2.040769e+02
<TRANSP> 5
 0.000000e+00 1.000000e+00 0.000000e+00 0.000000e+00 0.000000e+00
 0.000000e+00 7.657896e-01 2.342103e-01 0.000000e+00 0.000000e+00
 0.000000e+00 0.000000e+00 4.225047e-01 5.774953e-01 0.000000e+00
 0.000000e+00 0.000000e+00 0.000000e+00 7.793267e-01 2.206733e-01
 0.000000e+00 0.000000e+00 0.000000e+00 0.000000e+00 0.000000e+00
<ENDHMM>
~h "w"
<BEGINHMM>
<NUMSTATES> 5
<STATE> 2
<MEAN> 39
 3.335081e+01 1.092639e+01 1.927673e+01 -3.456465e+01 -2.192168e+01 -2.085265e+00 -2.075407e+00 1.449814e+01 -5.713008e+00 1.389975e+01 1.004971e+00 3.024041e-02 1.195873e+02 -3.509105e-01 -3.965834e+00 -3.240815e+00 -6.124313e+00 1.599949e+00 2.250201e+00 1.427039e+00 4.391152e+00 4.143650e-01 -1.389502e+00 1.104895e+00 1.943514e-01 4.209552e+00 -5.863428e-01 -6.815836e-01 -7.759446e-01 8.845651e-01 1.924449e+00 1.462811e+00 4.289651e-01 -4.402080e-01 -4.182215e-01 -8.261871e-01 3.022003e-01 2.216014e-01 -1.603565e-01
<VARIANCE> 39
 4.489314e+01 1.789904e+02 2.470609e+02 3.214340e+02 4.055267e+02 2.781526e+02 5.876815e+02 3.849530e+02 4.428196e+02 3.939248e+02 3.352620e+02 2.960195e+02 1.088999e+02 2.359385e+00 1.150494e+01 9.706569e+00 1.596453e+01 2.089396e+01 1.995365e+01 2.186299e+01 2.154619e+01 2.093973e+01 2.049425e+01 1.677556e+01 1.752210e+01 5.901764e+00 6.807296e-01 1.301657e+00 1.467655e+00 3.505739e+00 2.649252e+00 2.754178e+00 4.155156e+00 4.521512e+00 3.757863e+00 3.564946e+00 3.327694e+00 2.996521e+00 7.339337e-01
<GCONST> 1.892547e+02
<STATE> 3
<MEAN> 39
 2.938269e+01 -6.261597e+00 2.953791e+00 -4.791657e+01 -2.546308e+00 1.554296e+01 4.236041e+00 2.211566e+01 -1.029795e+01 3.260803e+00 8.713720e+00 4.659285e+00 1.328006e+02 -1.519929e+00 -4.680908e+00 -2.885946e+00 4.971192e-01 6.596530e+00 3.740215e+00 -1.538076e+00 -1.797345e+00 -9.810522e-01 -5.225629e-01 3.365349e+00 5.132864e-01 2.817749e+00 -1.748935e-01 2.738660e-01 8.514090e-01 2.073979e+00 -5.934421e-02 -1.152808e+00 -1.468937e+00 -1.088411e+00 8.646967e-01 1.142284e+00 -2.032192e-01 -6.632965e-01 -5.343612e-01
<VARIANCE> 39
 4.922216e+01 1.719972e+02 2.432599e+02 2.895799e+02 6.431477e+02 3.175679e+02 5.672675e+02 4.290127e+02 4.127935e+02 4.346938e+02 3.363984e+02 2.931598e+02 1.266635e+02 1.964249e+00 6.877635e+00 6.258281e+00 1.592109e+01 1.254444e+01 1.472556e+01 2.445108e+01 2.170472e+01 2.192028e+01 2.365015e+01 1.709495e+01 2.011568e+01 3.181565e+00 2.700364e-01 7.640231e-01 1.086839e+00 2.045892e+00 3.093567e+00 3.047851e+00 2.905771e+00 4.033710e+00 4.117318e+00 3.743410e+00 4.182726e+00 3.267293e+00 3.079224e-01
<GCONST> 1.849957e+02
<STATE> 4
<MEAN> 39
 2.013644e+01 -2.407559e+01 1.316972e+00 -2.668086e+01 1.977986e+01 9.004716e+00 -1.077794e+01 1.725365e+01 1.951274e+00 9.149721e+00 9.982986e+00 -1.517383e+00 1.396259e+02 -1.269741e+00 -1.292752e+00 2.128295e+00 4.382738e+00 -2.873155e-01 -3.460242e+00 -1.525276e+00 8.703766e-01 2.288947e+00 4.408232e-01 -2.346788e+00 -2.537916e-01 1.578306e-01 1.709746e-01 9.452336e-01 8.323662e-01 1.846504e-01 -1.088887e+00 -5.471431e-01 1.087571e+00 2.132601e-01 -4.828150e-01 -3.302160e-01 -7.467979e-01 5.798703e-01 -7.324721e-01
<VARIANCE> 39
 7.006454e+01 1.512767e+02 2.130970e+02 3.441540e+02 4.419968e+02 4.320678e+02 4.955360e+02 4.630704e+02 4.487970e+02 3.888204e+02 3.908732e+02 3.316813e+02 1.519888e+02 1.749544e+00 6.677609e+00 7.562552e+00 1.074047e+01 1.854052e+01 1.342198e+01 2.184784e+01 1.922436e+01 2.019781e+01 2.376689e+01 1.964335e+01 2.181294e+01 2.791420e+00 2.599136e-01 8.010859e-01 9.748569e-01 1.558391e+00 2.355649e+00 2.805744e+00 3.374921e+00 3.855433e+00 3.872667e+00 3.118812e+00 4.231761e+00 3.441963e+00 4.439004e-01
<GCONST> 1.848524e+02
<TRANSP> 5
 0.000000e+00 1.000000e+00 0.000000e+00 0.000000e+00 0.000000e+00
 0.000000e+00 6.909332e-01 3.090668e-01 0.000000e+00 0.000000e+00
 0.000000e+00 0.000000e+00 7.527260e-01 2.472740e-01 0.000000e+00
 0.000000e+00 0.000000e+00 0.000000e+00 8.482352e-01 1.517648e-01
 0.000000e+00 0.000000e+00 0.000000e+00 0.000000e+00 0.000000e+00
<ENDHMM>
~h "z"
<BEGINHMM>
<NUMSTATES> 5
<STATE> 2
<MEAN> 39
 -1.187632e+01 1.201170e+01 1.599474e+01 1.569784e+01 5.141345e+00 -3.240772e+00 -1.613581e+00 2.847922e+00 -1.146795e+00 2.157786e+00 -6.434848e+00 5.512947e+00 8.712717e+01 -2.409119e+00 4.145699e+00 -3.101421e-01 2.252405e+00 1.922475e+00 7.774239e-01 5.499920e-01 9.083796e-01 4.618475e-01 5.971291e-02 2.122758e-02 2.628664e-01 2.275892e+00 -5.581619e-01 1.816248e-01 -3.537215e-01 -2.226022e-01 -1.488632e-03 1.244402e-01 6.403325e-02 3.448092e-02 -1.354704e-01 2.091361e-01 1.872948e-01 -7.841098e-02 3.768485e-01
<VARIANCE> 39
 3.444530e+02 2.320024e+02 3.508716e+02 2.955615e+02 3.101949e+02 2.876539e+02 2.822625e+02 2.603572e+02 2.363229e+02 2.483873e+02 2.519567e+02 3.044760e+02 7.285535e+02 4.143839e+01 2.480119e+01 3.256248e+01 2.821302e+01 2.373753e+01 2.794895e+01 2.425862e+01 2.420345e+01 2.215477e+01 2.288861e+01 2.142665e+01 1.919839e+01 3.169031e+01 4.376170e+00 3.432135e+00 4.545273e+00 3.622296e+00 3.722032e+00 4.242089e+00 4.173623e+00 4.313269e+00 3.713923e+00 4.146028e+00 3.738028e+00 3.662863e+00 3.522066e+00
<GCONST> 2.060435e+02
<STATE> 3
<MEAN> 39
 -2.945707e+01 3.262908e+01 1.121770e+01 2.592750e+01 1.413252e+01 3.221383e+00 2.603750e+00 6.733752e+00 -5.411940e-01 5.353851e+00 -4.950618e+00 6.720034e+00 1.074730e+02 -3.921531e+00 1.162671e+00 -1.613997e+00 4.743036e-02 3.446920e-01 8.629255e-01 6.568023e-01 4.171503e-01 -2.240815e-01 2.920813e-01 4.609976e-01 -7.123221e-02 1.570446e+00 1.276106e+00 -1.312326e+00 8.537036e-01 -6.458347e-01 -8.456308e-01 -6.187287e-01 -2.768869e-01 -6.132605e-01 -3.375792e-01 -2.343223e-01 -1.780637e-01 7.714447e-02 2.191177e-01
<VARIANCE> 39
 2.936889e+02 1.785222e+02 2.641177e+02 3.880723e+02 4.042628e+02 3.547423e+02 2.449717e+02 2.331875e+02 1.642190e+02 1.746300e+02 2.597991e+02 2.059996e+02 1.875784e+02 2.550021e+01 2.205217e+01 2.124131e+01 1.769387e+01 1.767564e+01 2.055417e+01 1.772362e+01 1.859703e+01 1.444206e+01 1.565389e+01 1.380333e+01 1.409611e+01 1.610747e+01 4.058023e+00 3.520189e+00 3.827311e+00 3.269594e+00 3.425476e+00 4.205622e+00 3.747577e+00 3.884498e+00 2.961843e+00 3.170141e+00 2.792355e+00 2.764212e+00 2.078335e+00
<GCONST> 1.962663e+02
<STATE> 4
<MEAN> 39
 -2.905490e+01 2.460501e+01 1.814399e+01 1.747216e+01 8.909780e+00 -4.329737e+00 -2.034832e+00 -4.872008e-02 -6.015125e+00 2.344931e+00 -7.592131e+00 5.079852e+00 1.211355e+02 6.484317e+00 -4.601981e+00 6.596011e+00 -1.618605e+00 -3.117030e+00 -3.186394e+00 -2.316859e+00 -2.540854e+00 -1.740239e+00 -1.299206e+00 -9.280123e-01 4.956727e-01 4.150515e+00 1.530149e+00 -1.543858e+00 1.522865e+00 -6.601658e-01 -2.977949e-01 -3.343598e-01 -4.232170e-01 3.394271e-02 -1.687107e-01 9.122946e-02 -7.304545e-04 1.778123e-01 1.737342e-01
<VARIANCE> 39
 2.975691e+02 1.920847e+02 3.506408e+02 3.235105e+02 4.840431e+02 3.285200e+02 2.906804e+02 2.024996e+02 1.487054e+02 1.692248e+02 2.942659e+02 2.260268e+02 1.656008e+02 3.305382e+01 2.769879e+01 4.036447e+01 2.655085e+01 1.943547e+01 2.524891e+01 2.279223e+01 2.866028e+01 1.767058e+01 1.578471e+01 1.558384e+01 1.780170e+01 6.475634e+00 5.036692e+00 3.310030e+00 5.120302e+00 4.471414e+00 3.933677e+00 4.307189e+00 4.102362e+00 4.433229e+00 3.279133e+00 3.417649e+00 3.224349e+00 2.957435e+00 1.065504e+00
<GCONST> 1.995865e+02
<TRANSP> 5
 0.000000e+00 1.000000e+00 0.000000e+00 0.000000e+00 0.000000e+00
 0.000000e+00 7.273201e-01 2.726799e-01 0.000000e+00 0.000000e+00
 0.000000e+00 0.000000e+00 7.950752e-01 2.049248e-01 0.000000e+00
 0.000000e+00 0.000000e+00 0.000000e+00 7.814569e-01 2.185431e-01
 0.000000e+00 0.000000e+00 0.000000e+00 0.000000e+00 0.000000e+00
<ENDHMM>
~h "ah"
<BEGINHMM>
<NUMSTATES> 5
<STATE> 2
<MEAN> 39
 1.768166e+01 -1.740519e+01 1.862779e+01 -6.067081e+00 8.619124e+00 -6.161221e+00 -1.352961e+01 7.095026e+00 -2.494004e+00 1.426763e+01 2.352184e+00 9.545572e-01 1.301361e+02 5.131804e-02 1.499747e+00 2.469166e+00 2.075329e+00 -8.042525e-01 -8.046846e-01 2.350158e+00 3.044995e-01 -7.347993e-01 -7.277542e-01 -1.756425e+00 1.188663e+00 -1.557112e+00 3.705426e-02 5.857721e-01 3.200178e-01 5.271762e-01 -5.128155e-01 5.910606e-01 1.005216e+00 -8.698727e-01 -4.586832e-03 -5.024955e-02 -4.177134e-01 3.196856e-01 -5.131319e-01
<VARIANCE> 39
 7.021200e+01 1.616516e+02 1.716026e+02 2.805302e+02 2.485449e+02 4.115405e+02 5.489843e+02 4.791284e+02 5.541312e+02 4.454626e+02 4.093079e+02 3.388511e+02 2.313325e+02 4.725855e+00 1.699425e+01 1.301304e+01 4.056582e+01 2.353100e+01 3.411869e+01 3.446334e+01 3.457280e+01 3.655663e+01 2.897472e+01 3.010762e+01 2.227936e+01 3.048743e+01 1.029373e+00 3.509296e+00 1.887663e+00 6.944685e+00 4.212242e+00 8.237601e+00 7.703060e+00 7.817654e+00 7.125801e+00 5.086522e+00 4.531392e+00 3.694516e+00 6.281195e+00
<GCONST> 2.065771e+02
<STATE> 3
<MEAN> 39
 1.795193e+01 -9.219928e+00 2.874879e+01 4.912992e+00 2.903766e+00 -9.622055e+00 4.498942e+00 7.021062e+00 -2.241209e+00 9.025607e+00 -9.160382e+00 1.013947e+01 1.219263e+02 5.694973e-01 4.463253e+00 3.685803e+00 5.577531e+00 -2.840909e+00 3.103317e+00 6.082634e+00 -6.166949e+00 -1.244788e+00 -8.638107e-01 -1.975587e+00 2.341506e+00 -5.012776e+00 -1.082112e-03 1.082596e-01 -5.906684e-01 -3.624620e-01 -5.450994e-02 1.220365e+00 -2.879136e-01 -7.642540e-01 5.378959e-01 -4.585412e-02 7.096220e-01 -2.466110e-01 -1.139348e-01
<VARIANCE> 39
 5.515820e+01 1.477788e+02 2.038725e+02 3.190514e+02 2.609850e+02 4.560673e+02 5.691622e+02 5.229459e+02 4.725072e+02 5.380105e+02 4.147163e+02 4.278972e+02 1.579327e+02 5.093688e+00 1.094646e+01 1.652042e+01 2.830269e+01 2.157401e+01 4.291312e+01 4.812473e+01 5.270526e+01 3.587932e+01 2.859104e+01 3.343584e+01 2.673658e+01 1.059192e+01 6.987795e-01 1.788581e+00 2.598773e+00 5.229324e+00 3.179681e+00 5.891504e+00 6.001863e+00 7.959762e+00 5.128786e+00 4.170236e+00 4.065143e+00 3.799680e+00 2.241356e+00
<GCONST> 2.028144e+02
<STATE> 4
<MEAN> 39
 1.944128e+01 2.611968e+00 3.542731e+01 1.549974e+01 -5.210160e+00 5.181354e+00 1.717809e+01 -1.027843e+01 -1.325047e+00 4.158052e+00 -8.777287e+00 1.584556e+01 1.094688e+02 -1.504962e-01 2.632679e+00 8.133603e-01 2.049287e+00 -6.854749e-01 2.680382e+00 1.867375e+00 -2.051885e+00 6.382503e-02 -5.583093e-01 -1.617057e-01 1.117206e-01 -3.079347e+00 -5.093854e-01 -5.527690e-01 -8.979929e-01 -8.530370e-01 8.685483e-01 -5.935789e-01 -1.024899e+00 1.761648e+00 1.367996e-01 1.363023e-01 3.353583e-01 -7.105351e-01 3.906586e-01
<VARIANCE> 39
 5.072794e+01 1.648007e+02 1.401887e+02 2.549405e+02 2.585537e+02 4.400199e+02 5.058413e+02 4.327087e+02 5.420955e+02 6.218585e+02 5.821990e+02 5.164553e+02 1.497409e+02 3.690655e+00 7.594250e+00 1.032283e+01 1.327918e+01 1.387836e+01 2.350222e+01 2.515244e+01 3.059332e+01 1.852456e+01 1.640316e+01 1.854732e+01 1.744971e+01 5.269186e+00 8.493258e-01 1.558480e+00 1.940418e+00 3.206552e+00 2.765244e+00 4.327129e+00 5.073383e+00 5.013124e+00 4.335910e+00 3.644985e+00 4.253541e+00 3.825662e+00 1.247475e+00
<GCONST> 1.929240e+02
<TRANSP> 5
 0.000000e+00 1.000000e+00 0.000000e+00 0.000000e+00 0.000000e+00
 0.000000e+00 7.411531e-01 2.588469e-01 0.000000e+00 0.000000e+00
 0.000000e+00 0.000000e+00 5.063133e-01 4.936868e-01 0.000000e+00
 0.000000e+00 0.000000e+00 0.000000e+00 7.243372e-01 2.756627e-01
 0.000000e+00 0.000000e+00 0.000000e+00 0.000000e+00 0.000000e+00
<ENDHMM>
~h "ao"
<BEGINHMM>
<NUMSTATES> 5
<STATE> 2
<MEAN> 39
 2.855482e+01 1.136425e+01 1.089618e+01 -3.282273e+01 -1.440186e+01 1.346649e+00 1.460981e+00 5.396441e+00 -1.093181e+01 4.722393e+00 -8.487468e+00 4.369302e+00 1.166927e+02 1.091878e+01 5.892565e+00 4.524317e+00 -1.053138e+01 -6.109019e+00 -1.292082e+00 -1.525806e-01 2.751739e+00 -1.570535e+00 1.001661e+00 -1.848644e+00 -1.045394e+00 3.995931e+00 -3.602864e+00 -1.760606e+00 -6.615349e-01 1.407240e+00 6.178573e-02 -3.676205e-01 -1.105314e+00 -1.917454e-01 7.534767e-02 2.648214e-01 3.130763e-01 -3.670593e-01 -6.604474e-01
<VARIANCE> 39
 1.940981e+02 1.593405e+02 1.695574e+02 5.524072e+02 3.863790e+02 2.331273e+02 2.672582e+02 2.546138e+02 2.363826e+02 2.034736e+02 1.944791e+02 2.669966e+02 1.767951e+02 4.020416e+01 2.407863e+01 2.335509e+01 3.691008e+01 3.637785e+01 2.595453e+01 3.648645e+01 3.122572e+01 3.078030e+01 2.909844e+01 2.490543e+01 3.424677e+01 1.253560e+01 4.093989e+00 2.826116e+00 2.474634e+00 7.626729e+00 4.395399e+00 2.553020e+00 3.043803e+00 3.269554e+00 3.226703e+00 2.656523e+00 2.675691e+00 3.254639e+00 2.557999e+00
<GCONST> 2.017657e+02
<STATE> 3
<MEAN> 39
 3.562030e+01 1.691342e+01 1.742582e+01 -4.679112e+01 -2.744340e+01 -2.508134e+00 -3.164827e+00 9.458898e+00 -1.200750e+01 1.089210e+01 -1.040671e+01 -4.780523e-01 1.210817e+02 3.390276e-01 -3.985626e-01 -5.203458e-01 8.142105e-02 -6.689374e-01 -5.604423e-01 5.317338e-01 5.229662e-01 -9.097258e-01 2.217632e-01 4.286113e-01 -5.891126e-04 2.667498e-01 -6.264687e-01 -8.564923e-01 -8.538474e-01 1.071077e+00 9.014890e-01 1.078679e-01 3.307762e-01 -2.169641e-01 -2.867746e-01 -2.814998e-01 4.613523e-01 4.446196e-01 -1.024870e-01
<VARIANCE> 39
 5.263874e+01 1.581601e+02 2.430453e+02 3.016823e+02 4.642997e+02 3.344700e+02 4.709187e+02 3.319559e+02 3.602333e+02 3.440376e+02 2.899227e+02 3.675300e+02 1.348272e+02 1.972860e+00 8.295985e+00 8.072072e+00 8.850487e+00 8.274575e+00 8.110854e+00 1.347977e+01 1.162868e+01 1.325962e+01 1.104068e+01 1.002119e+01 9.787957e+00 3.586447e+00 1.912039e+00 1.059008e+00 1.184478e+00 2.597677e+00 1.899986e+00 1.580678e+00 2.148227e+00 2.216095e+00 2.437053e+00 2.229947e+00 2.251581e+00 2.338959e+00 7.968647e-01
<GCONST> 1.788186e+02
<STATE> 4
<MEAN> 39
 3.745681e+01 -2.248284e+00 -8.089171e+00 -2.930100e+01 -5.672836e+00 -8.334232e+00 -4.909376e+00 1.440878e+01 -2.166813e+01 5.857179e+00 3.016196e+00 1.000259e+01 1.262897e+02 1.595577e-02 -2.908873e+00 -3.551028e+00 3.429040e+00 5.303959e+00 -1.172940e+00 -2.054625e+00 -4.926156e-01 7.124791e-01 4.227204e-01 1.526347e+00 1.306682e+00 3.504498e-01 -1.954551e-01 2.216398e-01 4.945617e-01 4.201367e-01 1.853718e-01 -2.369867e-01 -5.703027e-01 -6.139692e-02 9.753042e-01 2.243391e-01 -4.007538e-01 -4.736103e-01 -3.587098e-01
<VARIANCE> 39
 5.995326e+01 2.720571e+02 3.746917e+02 3.490174e+02 7.577952e+02 4.886124e+02 8.808392e+02 6.337735e+02 5.314494e+02 6.887873e+02 3.915666e+02 4.016295e+02 1.782831e+02 1.864434e+00 8.628898e+00 1.252662e+01 1.387009e+01 1.920075e+01 2.047646e+01 2.222512e+01 2.459239e+01 2.614314e+01 3.163319e+01 2.607907e+01 3.180568e+01 3.755858e+00 3.498340e-01 9.901220e-01 1.697152e+00 1.520053e+00 2.840023e+00 2.776601e+00 3.492642e+00 4.123050e+00 3.920980e+00 5.080088e+00 4.181775e+00 4.714656e+00 3.710614e-01
<GCONST> 1.937491e+02
<TRANSP> 5
 0.000000e+00 1.000000e+00 0.000000e+00 0.000000e+00 0.000000e+00
 0.000000e+00 6.011080e-01 3.988920e-01 0.000000e+00 0.000000e+00
 0.000000e+00 0.000000e+00 8.650113e-01 1.349887e-01 0.000000e+00
 0.000000e+00 0.000000e+00 0.000000e+00 8.722774e-01 1.277226e-01
 0.000000e+00 0.000000e+00 0.000000e+00 0.000000e+00 0.000000e+00
<ENDHMM>
~h "ay"
<BEGINHMM>
<NUMSTATES> 5
<STATE> 2
<MEAN> 39
 1.784887e+01 -3.221146e+01 -8.912206e-01 -2.439323e+01 9.747806e+00 6.953165e+00 -4.945767e+00 1.327601e+01 7.795039e+00 1.197902e+01 1.099975e+00 -1.619488e+00 1.461248e+02 -4.519935e-01 -1.822974e+00 -2.143714e+00 -1.268679e-01 2.285119e+00 2.399848e+00 -8.507006e-01 -1.811044e-01 9.464893e-01 -6.841479e-01 3.253557e-01 -1.440441e+00 9.007445e-01 -1.408229e-01 1.080284e+00 9.271398e-01 1.137123e+00 -3.120520e-01 -3.348418e-01 5.205544e-02 -5.362690e-01 -5.367729e-01 -9.276050e-02 -1.566261e-01 1.827445e-01 -1.281446e+00
<VARIANCE> 39
 7.847488e+01 1.558836e+02 2.790348e+02 3.713237e+02 4.242119e+02 3.644372e+02 4.266876e+02 4.358668e+02 3.985258e+02 4.185743e+02 4.652869e+02 3.591519e+02 1.171235e+02 2.585292e+00 4.849233e+00 7.515211e+00 9.902228e+00 1.002437e+01 1.100046e+01 1.615356e+01 1.179635e+01 1.323926e+01 1.324114e+01 1.501445e+01 1.316977e+01 2.450320e+00 9.493763e-01 1.043460e+00 1.117702e+00 2.207622e+00 1.909834e+00 2.147666e+00 3.103568e+00 3.120902e+00 2.634139e+00 2.286266e+00 2.499181e+00 1.832554e+00 1.107075e+00
<GCONST> 1.816694e+02
<STATE> 3
<MEAN> 39
 1.643762e+01 -3.603056e+01 -2.595150e+00 -2.177701e+01 1.387468e+01 9.908407e+00 -7.307213e+00 1.330357e+01 9.213397e+00 1.028835e+01 -8.053035e-01 -4.512198e+00 1.460050e+02 -2.180445e-01 -3.215242e-01 6.174248e-01 9.524198e-01 -2.369354e-01 -9.562901e-01 -9.922173e-02 7.150365e-01 3.367780e-01 -4.617671e-01 -4.438063e-01 5.851087e-02 -1.431627e-01 -9.462848e-03 1.739305e-01 3.806532e-01 1.035112e-01 -4.288726e-01 -4.572001e-01 2.167640e-01 1.613618e-01 -9.271848e-02 -4.233461e-02 -3.354046e-02 2.493073e-01 -9.092235e-02
<VARIANCE> 39
 7.315697e+01 1.605926e+02 2.250456e+02 3.674760e+02 4.732162e+02 3.463597e+02 3.642260e+02 4.299425e+02 3.629222e+02 3.620093e+02 4.096625e+02 3.936796e+02 1.425816e+02 8.285103e-01 1.618533e+00 3.057628e+00 3.528038e+00 4.933323e+00 6.603697e+00 5.897608e+00 4.866320e+00 4.791940e+00 5.000168e+00 5.368560e+00 5.292231e+00 7.211002e-01 1.341586e-01 2.677804e-01 3.620979e-01 4.646278e-01 6.037543e-01 6.602738e-01 8.595651e-01 7.352937e-01 7.952791e-01 7.917178e-01 8.091119e-01 8.055474e-01 1.128031e-01
<GCONST> 1.512254e+02
<STATE> 4
<MEAN> 39
 1.284062e+01 -3.171642e+01 1.542147e+01 -1.197274e+01 -1.874036e+00 -8.245834e+00 1.782056e+00 2.246872e+01 7.151872e+00 4.234188e+00 -2.409688e+00 3.979467e+00 1.411905e+02 -4.481016e-01 2.217935e+00 3.968066e+00 3.152459e-01 -3.437465e+00 -2.254932e+00 2.077843e+00 -2.476341e-01 -1.875892e+00 3.564194e-01 7.805192e-01 1.420756e+00 -1.366746e+00 1.854864e-01 6.504116e-01 1.136839e-01 6.041655e-02 3.233868e-01 4.118837e-01 -1.363191e-01 -8.827209e-01 -3.701149e-01 4.359658e-01 8.979563e-02 -1.499041e-01 -5.691710e-01
<VARIANCE> 39
 7.353866e+01 1.950336e+02 3.906551e+02 2.606408e+02 4.178504e+02 2.732434e+02 5.265665e+02 3.365007e+02 3.841090e+02 3.673372e+02 3.301629e+02 3.362338e+02 1.976674e+02 1.807045e+00 4.310526e+00 6.588236e+00 9.726113e+00 1.205826e+01 1.353563e+01 1.785197e+01 1.524189e+01 1.391908e+01 1.308762e+01 1.170428e+01 1.211487e+01 2.057789e+00 2.963875e-01 5.689903e-01 1.010945e+00 1.585440e+00 1.839406e+00 1.493577e+00 2.201466e+00 1.930536e+00 2.067251e+00 1.965068e+00 1.953726e+00 1.825586e+00 3.974507e-01
<GCONST> 1.759659e+02
<TRANSP> 5
 0.000000e+00 1.000000e+00 0.000000e+00 0.000000e+00 0.000000e+00
 0.000000e+00 6.135851e-01 3.864149e-01 0.000000e+00 0.000000e+00
 0.000000e+00 0.000000e+00 9.043403e-01 9.565967e-02 0.000000e+00
 0.000000e+00 0.000000e+00 0.000000e+00 8.026378e-01 1.973623e-01
 0.000000e+00 0.000000e+00 0.000000e+00 0.000000e+00 0.000000e+00
<ENDHMM>
~h "eh"
<BEGINHMM>
<NUMSTATES> 5
<STATE> 2
<MEAN> 39
 -5.137415e+01 8.238443e+00 -1.220984e+01 -1.792503e+00 -5.850533e+00 -7.733383e+00 -3.121892e+00 2.119729e+00 -5.714006e+00 1.371500e+00 -5.003649e+00 7.509713e+00 1.120965e+02 8.457230e+00 -5.459079e-01 5.776036e+00 3.612345e-01 -3.459530e-01 -2.278404e+00 -4.816413e-01 -6.092697e-01 1.742388e+00 1.619795e-02 -7.576748e-01 1.379889e+00 2.327684e+00 4.034723e+00 -1.090238e+00 2.252165e+00 -1.764320e-01 1.487844e-01 -1.047778e+00 -7.247722e-01 -2.203986e-01 8.871778e-01 6.998222e-01 -1.486725e-01 2.961337e-01 1.553499e+00
<VARIANCE> 39
 1.593537e+02 1.068867e+02 1.322667e+02 2.143843e+02 2.768615e+02 2.596062e+02 1.344287e+02 1.376413e+02 1.455303e+02 1.245462e+02 1.673426e+02 1.213467e+02 1.078242e+02 3.662932e+01 1.148657e+01 2.134497e+01 1.196722e+01 1.073328e+01 1.672325e+01 1.342082e+01 1.258463e+01 1.451706e+01 1.806759e+01 1.480803e+01 1.610502e+01 1.068909e+01 2.462655e+00 1.900494e+00 2.415066e+00 2.614473e+00 2.601879e+00 4.224735e+00 4.668169e+00 2.694310e+00 4.217906e+00 3.910209e+00 3.068886e+00 3.611927e+00 1.597614e+00
<GCONST> 1.863950e+02
<STATE> 3
<MEAN> 39
 -1.697816e+01 8.490963e+00 1.044136e+01 4.907900e+00 -4.232817e+00 -1.368906e+01 -5.811322e+00 -6.744780e-01 9.117234e-01 3.864433e+00 -8.583219e+00 1.014145e+01 1.166154e+02 1.748891e+01 -5.219706e+00 9.631054e+00 -1.659833e+00 -9.657310e-02 -4.416001e+00 -3.787905e+00 -1.109893e+00 3.131084e+00 2.914870e+00 -5.206380e-01 1.250500e+00 8.196665e+00 -7.363880e-01 -2.150903e+00 -1.173058e+00 -1.953844e+00 -4.958462e-01 -1.151429e-01 -3.569361e-01 8.648127e-01 3.225203e-01 8.375443e-01 6.572392e-01 -4.131055e-01 1.765842e+00
<VARIANCE> 39
 4.982798e+02 1.030472e+02 1.833376e+02 1.862133e+02 2.976500e+02 2.120298e+02 1.738223e+02 1.706776e+02 1.725778e+02 2.251439e+02 2.330064e+02 2.343005e+02 1.715036e+02 1.384342e+01 1.586771e+01 1.888213e+01 2.862543e+01 2.279953e+01 4.621434e+01 5.713800e+01 2.160124e+01 4.368373e+01 4.047319e+01 2.703304e+01 4.098386e+01 1.145590e+01 7.652788e+00 2.029639e+00 4.203579e+00 2.325511e+00 2.984224e+00 3.548328e+00 6.743674e+00 2.789145e+00 3.691736e+00 3.287751e+00 3.228033e+00 3.089135e+00 1.919295e+00
<GCONST> 1.993863e+02
<STATE> 4
<MEAN> 39
 1.213138e+01 -1.470264e+01 2.335083e+01 -1.062080e+01 -8.458710e+00 -2.521101e+01 -1.797773e+01 -6.808250e-01 6.846282e+00 1.343608e+01 -6.279081e+00 1.242985e+01 1.439939e+02 5.805216e+00 -7.387753e+00 1.634716e+00 -5.850757e+00 -1.846318e+00 -2.387889e+00 -5.027840e-01 2.914279e+00 3.499470e+00 2.883994e+00 1.606245e+00 -1.620242e-01 7.410658e+00 -4.431881e+00 6.188768e-01 -2.891061e+00 -7.858575e-02 7.380234e-03 1.532274e+00 1.783205e+00 1.077005e+00 -3.432828e-01 -4.835574e-01 2.924311e-01 -8.568184e-01 -1.857335e+00
<VARIANCE> 39
 5.474142e+01 1.397254e+02 1.753433e+02 2.348465e+02 3.112148e+02 2.520525e+02 6.816752e+02 2.772265e+02 3.564103e+02 4.773356e+02 4.051110e+02 5.343397e+02 1.282671e+02 3.828942e+01 1.089704e+01 2.285898e+01 1.833144e+01 2.023831e+01 2.549087e+01 6.559816e+01 1.845359e+01 2.586978e+01 2.260235e+01 2.014456e+01 2.073109e+01 1.210671e+01 1.866326e+00 2.375038e+00 2.238888e+00 3.276741e+00 2.706358e+00 4.872114e+00 5.098999e+00 2.816366e+00 5.038723e+00 3.975877e+00 3.642122e+00 4.944813e+00 1.322825e+00
<GCONST> 1.990576e+02
<TRANSP> 5
 0.000000e+00 1.000000e+00 0.000000e+00 0.000000e+00 0.000000e+00
 0.000000e+00 6.058059e-01 3.941941e-01 0.000000e+00 0.000000e+00
 0.000000e+00 0.000000e+00 3.970857e-01 6.029143e-01 0.000000e+00
 0.000000e+00 0.000000e+00 0.000000e+00 5.972517e-01 4.027483e-01
 0.000000e+00 0.000000e+00 0.000000e+00 0.000000e+00 0.000000e+00
<ENDHMM>
~h "ey"
<BEGINHMM>
<NUMSTATES> 5
<STATE> 2
<MEAN> 39
 -6.597675e+00 -1.000450e+01 2.056848e+01 -8.720421e+00 -1.627669e+01 -1.661726e+01 -2.188044e+00 2.938527e+00 -1.427099e+00 7.770812e+00 7.403290e-01 7.488407e+00 1.015748e+02 -1.690216e-01 -7.899503e-01 2.340194e+00 -1.108471e+00 -1.736497e+00 -3.001786e-01 9.317272e-01 2.804634e-01 3.016519e-02 3.698781e-01 3.747156e-01 2.068485e-01 2.462076e+00 4.960131e-01 -5.485742e-02 7.598163e-01 -2.195018e-01 1.522203e-01 2.291796e-01 2.616557e-01 -1.857785e-01 -2.696938e-01 8.910578e-02 -1.844205e-01 -2.830440e-02 1.140292e+00
<VARIANCE> 39
 3.319232e+02 2.466994e+02 5.270912e+02 3.277439e+02 2.927401e+02 3.519836e+02 5.237814e+02 3.663510e+02 3.547669e+02 2.704740e+02 2.199491e+02 2.134634e+02 1.720450e+03 1.522293e+01 1.427316e+01 1.909629e+01 1.842940e+01 2.153144e+01 2.513495e+01 2.695810e+01 2.644514e+01 2.267356e+01 1.866330e+01 1.742789e+01 1.679658e+01 5.302554e+01 2.646128e+00 2.533839e+00 3.213780e+00 3.442486e+00 4.086152e+00 4.411287e+00 5.088084e+00 4.427148e+00 4.077287e+00 3.403268e+00 3.293136e+00 3.146933e+00 1.082064e+01
<GCONST> 2.059046e+02
<STATE> 3
<MEAN> 39
 3.127666e-01 -1.413924e+01 5.019965e+01 -2.289442e+01 -2.340083e+01 -1.574040e+01 3.838513e-01 -2.182343e+00 -6.147456e+00 1.290933e+01 -7.074025e-01 9.127972e+00 1.358676e+02 7.577590e-01 4.753736e-01 3.901838e+00 -9.167336e-01 1.478736e-01 7.553210e-01 -4.900514e-01 -1.546458e+00 -1.096914e+00 -1.682520e-01 -7.022886e-01 -5.035150e-02 3.407118e+00 -3.085196e-01 4.574735e-01 -3.398202e-01 4.498859e-01 4.871462e-01 2.845722e-01 -2.071971e-01 -2.094310e-01 -7.437458e-02 -2.859329e-01 -1.944710e-01 -1.170138e-01 -1.169888e+00
<VARIANCE> 39
 1.044877e+02 1.991186e+02 4.278710e+02 4.539780e+02 2.106958e+02 2.815757e+02 5.180841e+02 3.557402e+02 6.507434e+02 2.637183e+02 1.875476e+02 1.944212e+02 4.890959e+02 1.162378e+01 1.257638e+01 1.565044e+01 1.562234e+01 1.256647e+01 1.334317e+01 1.973116e+01 1.526210e+01 1.662864e+01 1.370459e+01 1.086753e+01 1.239736e+01 6.906150e+01 1.497504e+00 1.442727e+00 2.059961e+00 2.047464e+00 1.745620e+00 2.043924e+00 2.804278e+00 2.160997e+00 2.314114e+00 2.068795e+00 1.819338e+00 1.779096e+00 5.989461e+00
<GCONST> 1.913565e+02
<STATE> 4
<MEAN> 39
 -3.066955e+00 5.032823e+00 6.685949e+01 -1.265768e+01 -9.670665e+00 -2.440096e+00 -4.646211e+00 -1.904337e+01 -1.227597e+01 1.981120e+00 -1.123642e+01 5.875033e+00 1.199974e+02 -4.967600e-01 2.345712e+00 -2.293618e+00 4.172598e+00 1.789491e+00 1.271598e+00 6.684573e-01 4.704882e-01 1.837393e-01 -1.026670e+00 -3.390793e-01 -8.059735e-01 -6.491834e+00 -2.007090e-01 -4.587803e-02 -1.837983e+00 4.011925e-01 6.255649e-02 -1.934724e-01 1.017688e-01 7.746792e-01 5.198279e-01 1.728304e-01 6.119071e-01 5.420270e-02 -1.081904e+00
<VARIANCE> 39
 7.673377e+01 2.575122e+02 3.913014e+02 6.222552e+02 2.818316e+02 3.294406e+02 3.314371e+02 5.370958e+02 7.034738e+02 3.859519e+02 3.352176e+02 4.040233e+02 5.131879e+02 6.906545e+00 1.261923e+01 5.097225e+01 2.692197e+01 1.866279e+01 1.771819e+01 2.342943e+01 3.076335e+01 3.113092e+01 2.157739e+01 2.192188e+01 2.132976e+01 4.229007e+01 1.445464e+00 2.095967e+00 5.180856e+00 4.813763e+00 3.106134e+00 3.032151e+00 3.930161e+00 5.029981e+00 4.827749e+00 3.778296e+00 3.754667e+00 3.683956e+00 4.512930e+00
<GCONST> 2.051329e+02
<TRANSP> 5
 0.000000e+00 1.000000e+00 0.000000e+00 0.000000e+00 0.000000e+00
 0.000000e+00 7.843134e-01 2.156866e-01 0.000000e+00 0.000000e+00
 0.000000e+00 0.000000e+00 8.861926e-01 1.138075e-01 0.000000e+00
 0.000000e+00 0.000000e+00 0.000000e+00 8.788764e-01 1.211236e-01
 0.000000e+00 0.000000e+00 0.000000e+00 0.000000e+00 0.000000e+00
<ENDHMM>
~h "hh"
<BEGINHMM>
<NUMSTATES> 5
<STATE> 2
<MEAN> 39
 -3.680634e+00 4.239383e+00 3.380681e+00 -1.887002e+00 1.102052e+00 5.940040e+00 1.953324e+00 2.110828e-01 -5.086590e+00 4.340290e+00 -1.769981e+00 2.470372e+00 7.623648e+01 2.235803e+00 2.671964e+00 1.169292e+00 2.265685e-01 -7.522517e-01 1.007051e+00 1.528596e+00 6.349378e-01 2.879933e-01 4.619147e-01 7.185354e-02 -1.801152e-01 -4.206845e-01 7.997745e-01 3.774306e-01 6.172383e-01 -2.391705e-01 -6.201356e-01 -6.004001e-01 -1.167560e-01 1.182591e-01 1.150663e-01 2.293423e-01 -1.103373e-01 -3.654050e-02 8.571358e-01
<VARIANCE> 39
 5.603527e+02 2.669962e+02 2.204126e+02 2.386184e+02 2.707080e+02 2.600685e+02 2.953983e+02 2.694088e+02 3.020199e+02 2.245058e+02 1.978958e+02 1.895235e+02 6.285140e+02 2.653516e+01 2.288519e+01 2.164709e+01 2.348792e+01 2.354478e+01 2.872362e+01 2.686760e+01 2.430195e+01 2.306084e+01 2.013726e+01 1.883907e+01 1.513175e+01 2.159756e+01 3.762628e+00 4.121229e+00 3.519060e+00 4.470690e+00 4.987808e+00 5.245708e+00 5.164952e+00 5.036831e+00 4.780458e+00 4.084141e+00 3.794744e+00 3.189271e+00 3.705447e+00
<GCONST> 2.043093e+02
<STATE> 3
<MEAN> 39
 2.004230e+01 2.228017e+01 1.681981e+01 6.297017e-01 -2.257585e+00 7.660004e+00 8.004228e+00 2.502001e+00 -4.172267e+00 7.803908e+00 -3.271296e+00 2.396090e+00 8.840167e+01 6.162501e+00 2.674598e+00 2.365819e+00 -2.692605e+00 -3.675177e+00 -1.580827e+00 -3.074460e-01 2.453192e-01 -4.205860e-02 1.371205e+00 -2.775290e-01 -4.339916e-01 4.515527e+00 -3.678819e-01 -1.433077e+00 -4.029657e-01 -1.591055e+00 -6.987382e-01 -1.014783e+00 -9.411779e-01 -8.733150e-02 -2.207975e-01 1.699228e-01 9.827784e-02 8.102741e-02 1.060820e+00
<VARIANCE> 39
 2.674342e+02 2.226339e+02 1.350899e+02 2.966931e+02 2.752397e+02 2.482136e+02 2.401445e+02 2.328424e+02 3.332686e+02 2.182066e+02 1.908442e+02 2.039117e+02 3.993588e+02 4.069600e+01 2.139248e+01 1.818450e+01 2.923248e+01 2.196832e+01 2.161242e+01 2.530091e+01 2.466487e+01 2.649450e+01 2.070400e+01 1.810843e+01 1.715844e+01 3.865445e+01 4.111690e+00 3.676500e+00 2.971456e+00 5.694077e+00 3.952079e+00 4.017562e+00 4.273471e+00 4.325137e+00 4.244914e+00 3.557050e+00 3.192541e+00 3.049142e+00 2.996959e+00
<GCONST> 2.017460e+02
<STATE> 4
<MEAN> 39
 3.243626e+01 2.207584e+01 2.203600e+01 -1.355780e+01 -1.635998e+01 -3.210149e-01 9.411064e-01 1.767412e+00 -7.018168e+00 1.225557e+01 -3.735795e+00 6.606629e-01 1.042497e+02 1.662565e+00 -1.238505e+00 3.877942e-01 -4.785947e+00 -2.706290e+00 -1.973229e+00 -1.600972e+00 1.186771e+00 1.834965e-01 1.164010e+00 8.153819e-01 8.687840e-02 3.879251e+00 -1.035403e+00 -1.175538e+00 -9.072365e-01 -6.685926e-01 8.922908e-01 6.207296e-01 3.164343e-01 8.342899e-01 9.056626e-02 -3.496576e-01 3.285892e-01 9.696613e-02 1.247309e-01
<VARIANCE> 39
 5.536408e+01 1.987732e+02 1.788646e+02 2.518838e+02 2.894798e+02 2.839766e+02 3.608601e+02 3.024784e+02 4.002751e+02 3.033654e+02 2.642183e+02 2.878328e+02 1.445465e+02 9.929703e+00 1.432905e+01 1.235469e+01 2.956936e+01 1.805298e+01 1.677971e+01 2.265610e+01 2.174341e+01 2.071482e+01 1.820742e+01 1.679914e+01 1.580650e+01 1.770344e+01 2.449170e+00 2.610243e+00 2.165683e+00 3.345757e+00 3.399311e+00 3.464039e+00 3.877984e+00 4.228809e+00 3.760795e+00 3.347624e+00 3.004999e+00 2.983378e+00 2.112385e+00
<GCONST> 1.942692e+02
<TRANSP> 5
 0.000000e+00 1.000000e+00 0.000000e+00 0.000000e+00 0.000000e+00
 0.000000e+00 6.708685e-01 3.291315e-01 0.000000e+00 0.000000e+00
 0.000000e+00 0.000000e+00 5.370510e-01 4.629490e-01 0.000000e+00
 0.000000e+00 0.000000e+00 0.000000e+00 6.935515e-01 3.064485e-01
 0.000000e+00 0.000000e+00 0.000000e+00 0.000000e+00 0.000000e+00
<ENDHMM>
~h "ih"
<BEGINHMM>
<NUMSTATES> 5
<STATE> 2
<MEAN> 39
 -3.670877e+01 7.927118e+00 7.033491e-01 -1.042525e-01 -1.201563e+01 -8.804975e+00 -6.057417e-01 -6.564221e-02 -4.836718e+00 1.165270e+00 -2.044524e+00 9.855826e+00 1.160461e+02 1.029341e+01 -5.672880e-01 8.926353e+00 1.188923e+00 6.194818e-02 -2.801521e+00 -6.553087e-01 -1.555195e+00 8.675166e-01 1.757063e-01 -8.717387e-01 1.096093e+00 3.396676e+00 2.387353e+00 -1.286980e+00 1.977810e+00 -9.554150e-02 6.239353e-02 -1.012842e+00 -8.294381e-01 -4.870957e-01 -1.617451e-01 4.191747e-01 -2.048362e-01 6.685705e-02 1.285649e+00
<VARIANCE> 39
 5.664098e+02 1.131778e+02 4.306396e+02 2.265075e+02 2.984197e+02 2.736164e+02 1.555336e+02 1.694434e+02 1.660292e+02 1.393811e+02 2.141456e+02 1.686277e+02 1.488940e+02 4.181720e+01 1.457656e+01 3.132421e+01 1.707385e+01 1.219580e+01 2.230499e+01 1.935878e+01 1.352802e+01 1.429647e+01 1.648855e+01 1.485380e+01 2.097972e+01 1.418911e+01 6.984125e+00 2.412388e+00 5.636871e+00 3.339262e+00 2.709860e+00 4.726836e+00 5.036407e+00 3.140540e+00 3.914901e+00 3.009847e+00 2.814273e+00 3.913232e+00 1.995622e+00
<GCONST> 1.956228e+02
<STATE> 3
<MEAN> 39
 2.244427e+00 -6.850876e+00 3.423120e+01 -3.025414e+00 -1.126904e+01 -2.617353e+01 -7.823345e+00 -6.451560e+00 -2.943583e+00 6.460777e+00 -6.018961e+00 1.418607e+01 1.365069e+02 5.664329e+00 -4.081623e+00 5.612833e+00 -1.454370e+00 -1.451815e+00 -3.113313e+00 -6.905460e-01 -9.168835e-01 -8.443557e-01 1.379172e+00 1.067594e-01 2.462153e-01 3.688124e+00 -2.115568e+00 1.529517e-01 -1.383963e+00 8.039504e-02 -2.857418e-01 4.744732e-01 6.569932e-01 3.476642e-01 -6.562753e-01 -5.914687e-02 3.318529e-01 -3.896871e-01 -1.123663e+00
<VARIANCE> 39
 1.910050e+02 2.172341e+02 2.383316e+02 2.859919e+02 3.670349e+02 2.380423e+02 5.492802e+02 2.397415e+02 2.460966e+02 2.352488e+02 3.219656e+02 4.250122e+02 2.007683e+02 5.843156e+01 1.740866e+01 3.858768e+01 2.496274e+01 1.538184e+01 2.967162e+01 4.844275e+01 2.248627e+01 2.657576e+01 1.809382e+01 1.842230e+01 2.465226e+01 2.125524e+01 5.627399e+00 2.947738e+00 3.474882e+00 3.538148e+00 2.261190e+00 3.792219e+00 4.543003e+00 2.866765e+00 3.006357e+00 3.106422e+00 3.102831e+00 3.900907e+00 2.527785e+00
<GCONST> 2.026522e+02
<STATE> 4
<MEAN> 39
 5.042517e+00 -1.511079e+01 4.484917e+01 2.843638e+00 -1.712078e+01 -3.166869e+01 -3.684656e+00 -4.418966e+00 -1.715076e+01 8.531694e+00 -3.251893e+00 7.870483e+00 1.332356e+02 -8.540706e-01 2.379035e+00 -1.725327e-01 4.876441e+00 1.081567e+00 8.663641e-01 2.312481e+00 9.863796e-01 -3.032284e+00 -1.193187e+00 9.750889e-01 -1.493112e+00 -7.901206e+00 -1.396834e+00 1.645873e+00 -2.192317e+00 7.222986e-01 1.254585e+00 1.406694e+00 -3.846712e-01 4.129245e-01 7.607432e-01 -7.595955e-01 3.457677e-02 -1.346999e-01 -3.235113e+00
<VARIANCE> 39
 7.964741e+01 2.085633e+02 2.313925e+02 4.136931e+02 3.235139e+02 3.776483e+02 1.055258e+03 8.767379e+02 6.503761e+02 3.434885e+02 2.742721e+02 3.096663e+02 3.832877e+02 1.083538e+01 2.628711e+01 2.307127e+01 2.792727e+01 2.297246e+01 3.041078e+01 4.432648e+01 4.081286e+01 3.394022e+01 2.550200e+01 2.242527e+01 2.232516e+01 6.246806e+01 2.779245e+00 3.876535e+00 3.945518e+00 6.535509e+00 3.425597e+00 5.744380e+00 1.103987e+01 9.319878e+00 8.476877e+00 4.918891e+00 4.138161e+00 3.954429e+00 4.960393e+00
<GCONST> 2.125811e+02
<TRANSP> 5
 0.000000e+00 1.000000e+00 0.000000e+00 0.000000e+00 0.000000e+00
 0.000000e+00 6.319203e-01 3.680797e-01 0.000000e+00 0.000000e+00
 0.000000e+00 0.000000e+00 7.889117e-01 2.110883e-01 0.000000e+00
 0.000000e+00 0.000000e+00 0.000000e+00 7.988235e-01 2.011766e-01
 0.000000e+00 0.000000e+00 0.000000e+00 0.000000e+00 0.000000e+00
<ENDHMM>
~h "iy"
<BEGINHMM>
<NUMSTATES> 5
<STATE> 2
<MEAN> 39
 2.773356e+00 -6.674698e+00 6.122744e+01 -2.981423e-01 -7.994475e+00 -1.756860e+01 -3.428054e-01 -1.094898e+01 -1.732322e+01 5.108683e+00 -8.188620e+00 1.019256e+01 1.344374e+02 9.434565e-01 -1.755354e+00 4.395254e+00 -3.484568e+00 -1.010913e+00 1.112879e+00 -6.966724e-02 -1.294458e+00 -2.306646e-01 9.329206e-01 -5.982383e-01 1.933088e-01 4.358024e-01 -4.634498e-01 6.003342e-01 -2.584913e+00 1.213273e+00 1.034109e+00 -2.303216e-01 -2.662704e-01 1.223689e+00 4.287477e-01 -2.442666e-01 4.803081e-01 -2.195780e-01 -8.845534e-01
<VARIANCE> 39
 8.806660e+01 2.394951e+02 2.484196e+02 3.402325e+02 2.212816e+02 3.247703e+02 6.165249e+02 5.968604e+02 4.107431e+02 3.693746e+02 2.517628e+02 3.764734e+02 1.229289e+02 2.405072e+01 4.052304e+01 2.756774e+01 3.386622e+01 2.137147e+01 4.626597e+01 2.986681e+01 3.503384e+01 2.765070e+01 2.357244e+01 1.926949e+01 1.493148e+01 7.685423e+00 2.805843e+00 2.284011e+00 2.828330e+00 4.091122e+00 4.083203e+00 3.820576e+00 4.418813e+00 4.165129e+00 4.099036e+00 3.483323e+00 2.682009e+00 2.957835e+00 5.498161e-01
<GCONST> 2.010269e+02
<STATE> 3
<MEAN> 39
 4.343444e+00 -9.722253e+00 6.462711e+01 1.484144e+00 -8.481962e+00 -1.605740e+01 -6.426811e-01 -3.428035e+00 -2.243451e+01 5.342681e+00 -6.077435e+00 5.683320e+00 1.304950e+02 8.185129e-01 -1.832706e-02 -3.957544e+00 1.947005e+00 1.449905e+00 -9.403011e-01 -2.693048e-01 1.397080e+00 1.058554e+00 -2.982022e-01 7.513368e-01 -2.902624e-01 -1.969481e+00 9.014241e-02 2.227804e-01 -2.191991e+00 4.829923e-01 9.692124e-01 -3.064005e-01 -6.185855e-01 2.320285e-01 7.720988e-01 -2.191472e-01 7.579011e-02 8.656018e-02 -4.643387e-01
<VARIANCE> 39
 1.233008e+02 2.775472e+02 3.050645e+02 4.342152e+02 2.391124e+02 5.197368e+02 6.899608e+02 6.984345e+02 4.763277e+02 4.590627e+02 2.540422e+02 3.345188e+02 2.325547e+02 1.637525e+01 1.769135e+01 3.399762e+01 2.293652e+01 1.873810e+01 3.561774e+01 2.646588e+01 2.795460e+01 2.420304e+01 1.820087e+01 1.501649e+01 1.415268e+01 6.257719e+00 1.591669e+00 2.295204e+00 2.543503e+00 4.600502e+00 3.582393e+00 4.279066e+00 3.995776e+00 4.344994e+00 3.922292e+00 3.069923e+00 2.512552e+00 2.267613e+00 6.302540e-01
<GCONST> 1.996469e+02
<STATE> 4
<MEAN> 39
 2.659858e+00 -1.186736e+00 4.863326e+01 -3.339075e+00 -3.052953e+00 -6.275505e+00 -1.223524e+00 -4.819360e+00 -7.762143e+00 3.273505e+00 -6.485396e+00 7.107841e+00 1.144155e+02 2.060595e-01 1.430373e-01 -4.662536e+00 5.894070e-01 1.643863e+00 3.604240e-01 -9.328547e-01 7.109160e-01 1.546088e+00 -1.734135e-01 3.359486e-01 -2.287674e-01 -2.330067e+00 -5.070945e-02 2.269720e-04 -2.192463e-01 -2.355314e-01 -5.088498e-02 1.084144e-01 -3.884652e-02 -1.716404e-01 -9.703759e-02 1.952331e-01 1.484561e-02 -2.570455e-02 1.478295e-03
<VARIANCE> 39
 2.780662e+02 4.762328e+02 5.733448e+02 4.906502e+02 3.068589e+02 9.821202e+02 6.514841e+02 5.122297e+02 4.497123e+02 3.851724e+02 2.660721e+02 2.708811e+02 6.185153e+02 1.171591e+01 1.328942e+01 2.675021e+01 1.632787e+01 1.929621e+01 2.615567e+01 2.164027e+01 2.117568e+01 1.967153e+01 1.629685e+01 1.363477e+01 1.371505e+01 5.794453e+00 8.971149e-01 1.824503e+00 2.493225e+00 3.039256e+00 2.558473e+00 4.175203e+00 3.057377e+00 3.344775e+00 3.159389e+00 2.676069e+00 2.317279e+00 2.100073e+00 6.725415e-01
<GCONST> 1.977962e+02
<TRANSP> 5
 0.000000e+00 1.000000e+00 0.000000e+00 0.000000e+00 0.000000e+00
 0.000000e+00 6.838551e-01 3.161449e-01 0.000000e+00 0.000000e+00
 0.000000e+00 0.000000e+00 6.801973e-01 3.198027e-01 0.000000e+00
 0.000000e+00 0.000000e+00 0.000000e+00 8.004669e-01 1.995331e-01
 0.000000e+00 0.000000e+00 0.000000e+00 0.000000e+00 0.000000e+00
<ENDHMM>
~h "ow"
<BEGINHMM>
<NUMSTATES> 5
<STATE> 2
<MEAN> 39
 3.747398e+00 -1.169088e+01 -2.526509e+00 -1.517503e+01 -1.674500e+00 -1.027474e+01 -8.014592e+00 -1.816219e+00 -9.987850e-01 1.404607e+01 2.094540e+00 2.002553e+00 9.994533e+01 1.803747e+00 -1.464997e+00 -3.573518e-01 -2.968891e+00 3.441230e-01 1.686951e+00 1.661643e+00 -9.078915e-02 7.114385e-01 2.062155e+00 1.054963e-01 -9.539796e-01 4.642020e+00 4.205278e-01 1.158488e-01 4.414004e-01 -1.433666e-01 2.156354e-01 2.997528e-01 -1.249187e-02 2.284918e-02 -7.734293e-02 -9.654573e-02 -2.099636e-01 2.901208e-01 8.846000e-01
<VARIANCE> 39
 5.424161e+02 3.153975e+02 2.387998e+02 3.482987e+02 3.519722e+02 4.957022e+02 5.219329e+02 4.990583e+02 6.226729e+02 5.732354e+02 5.370786e+02 3.417360e+02 1.303188e+03 3.989051e+01 2.073118e+01 1.884325e+01 3.150638e+01 3.048629e+01 2.916282e+01 3.385046e+01 3.569747e+01 4.113884e+01 3.821661e+01 3.822976e+01 2.969014e+01 1.100119e+02 5.003818e+00 3.410733e+00 2.893878e+00 4.543185e+00 4.774663e+00 4.403957e+00 5.920682e+00 6.037539e+00 6.507802e+00 6.830658e+00 6.678960e+00 5.359171e+00 1.349320e+01
<GCONST> 2.197702e+02
<STATE> 3
<MEAN> 39
 2.122411e+01 -2.124812e+01 1.663926e+00 -2.802509e+01 3.398249e+00 -7.269293e+00 -3.003024e+00 -1.341782e-01 -1.693467e+00 2.509186e+01 3.725046e+00 8.688420e-01 1.358369e+02 9.994386e-01 8.065739e-01 8.462494e-01 -2.426104e+00 -5.015320e-01 2.764707e+00 3.145554e-01 -1.076549e+00 -4.642722e-01 6.855184e-01 9.816442e-02 9.116346e-01 2.383171e+00 -6.610125e-01 7.439637e-01 -3.590515e-02 9.676468e-01 -1.347768e-01 -1.385777e-01 -4.032145e-01 4.134413e-02 -9.005079e-02 -8.521986e-01 -1.898446e-01 4.125559e-01 -1.703962e+00
<VARIANCE> 39
 1.207995e+02 2.064214e+02 2.342601e+02 3.227655e+02 3.632962e+02 5.701066e+02 5.549871e+02 3.789969e+02 8.253311e+02 5.224802e+02 5.593756e+02 2.648897e+02 2.909846e+02 1.215494e+01 1.124474e+01 8.281386e+00 1.470547e+01 1.231663e+01 1.494070e+01 1.720754e+01 1.628586e+01 2.037801e+01 1.946252e+01 1.816022e+01 1.566868e+01 3.484176e+01 2.158476e+00 1.360503e+00 1.354073e+00 2.293593e+00 2.139232e+00 2.184151e+00 2.642785e+00 2.645388e+00 3.211528e+00 3.028016e+00 3.192900e+00 2.461343e+00 4.446425e+00
<GCONST> 1.953664e+02
<STATE> 4
<MEAN> 39
 2.385484e+01 -3.636513e+00 5.911973e+00 -2.995423e+01 -2.465505e+00 6.242908e+00 -8.669983e-01 -1.510961e+00 -6.537915e+00 1.333017e+01 -1.377274e+00 6.943495e+00 1.237204e+02 -6.222330e-01 1.363058e+00 3.745274e-01 1.114006e+00 1.450850e-01 5.479759e-01 2.340360e-01 -1.683479e-01 -1.107834e-01 -8.883677e-01 -5.881547e-01 5.002031e-02 -2.103471e+00 -2.706437e-01 -7.641114e-02 -5.022110e-02 3.856897e-01 8.463395e-02 -2.020045e-01 -8.183458e-02 6.550258e-02 1.133769e-01 -3.935100e-02 3.613763e-02 -7.141939e-02 -2.174424e-01
<VARIANCE> 39
 1.362706e+02 3.630037e+02 2.555837e+02 5.126335e+02 5.492560e+02 4.779139e+02 4.730219e+02 4.158645e+02 8.003344e+02 4.687108e+02 4.266515e+02 3.343480e+02 5.483876e+02 6.575807e+00 9.870166e+00 7.824203e+00 1.609727e+01 1.159426e+01 1.371859e+01 1.432211e+01 1.597007e+01 1.828587e+01 1.626640e+01 1.610485e+01 1.407074e+01 5.500945e+00 9.698457e-01 1.332255e+00 1.162199e+00 2.147100e+00 1.773498e+00 2.108658e+00 2.205416e+00 2.534200e+00 2.752380e+00 2.439579e+00 2.415407e+00 2.192412e+00 5.947289e-01
<GCONST> 1.895429e+02
<TRANSP> 5
 0.000000e+00 1.000000e+00 0.000000e+00 0.000000e+00 0.000000e+00
 0.000000e+00 7.031569e-01 2.968431e-01 0.000000e+00 0.000000e+00
 0.000000e+00 0.000000e+00 6.271201e-01 3.728799e-01 0.000000e+00
 0.000000e+00 0.000000e+00 0.000000e+00 9.319564e-01 6.804358e-02
 0.000000e+00 0.000000e+00 0.000000e+00 0.000000e+00 0.000000e+00
<ENDHMM>
~h "th"
<BEGINHMM>
<NUMSTATES> 5
<STATE> 2
<MEAN> 39
 -2.482077e+01 2.198138e+00 2.744728e+00 8.060980e+00 -3.519017e+00 1.408879e+00 -2.886269e+00 6.343830e-01 -4.263470e+00 2.281582e+00 -2.184895e+00 4.220279e+00 7.973830e+01 -2.254914e+00 -1.013205e+00 -1.680347e+00 -1.293761e+00 -1.359785e+00 -2.599237e-01 -8.192397e-01 5.069600e-04 4.053030e-02 -4.802752e-01 5.011100e-02 2.591556e-01 1.538143e+00 9.486269e-01 -2.576406e-01 7.705656e-01 -3.515533e-01 -1.121627e-01 -3.690942e-01 1.053899e-01 -1.773913e-01 -5.060819e-02 1.807103e-01 -1.026901e-01 1.013359e-01 1.679025e+00
<VARIANCE> 39
 2.097770e+02 1.547993e+02 1.593301e+02 1.591374e+02 1.670461e+02 1.681833e+02 1.768275e+02 1.713247e+02 1.767739e+02 1.480251e+02 1.406409e+02 1.320004e+02 5.899357e+02 2.607311e+01 1.747729e+01 2.068288e+01 2.180077e+01 1.842483e+01 2.141359e+01 2.239846e+01 2.140511e+01 2.324712e+01 1.860826e+01 1.788635e+01 1.725555e+01 8.613412e+01 3.312875e+00 3.630983e+00 3.861238e+00 4.018084e+00 3.706549e+00 4.191744e+00 4.212416e+00 4.030226e+00 4.322442e+00 3.739123e+00 3.603396e+00 3.514805e+00 9.985868e+00
<GCONST> 1.982177e+02
<STATE> 3
<MEAN> 39
 -2.265974e+01 -5.783584e+00 1.004812e+01 5.618998e-02 -1.011080e+01 -3.900023e+00 -3.257870e+00 -8.044200e-01 -2.411815e+00 3.463005e+00 -3.565158e+00 6.345860e+00 1.127507e+02 5.810965e+00 -1.744162e+00 4.985757e+00 2.339118e+00 1.786034e+00 -1.901360e+00 2.542057e-02 4.728058e-02 1.359098e-01 1.297055e+00 4.531094e-01 -2.860338e-01 4.194439e+00 2.246658e+00 -2.218743e-01 -1.950521e-01 1.505386e+00 1.791684e+00 -3.280067e-01 -8.289950e-01 1.330475e-01 -4.269242e-01 -1.745331e-02 2.749644e-01 -2.931808e-01 -1.970487e+00
<VARIANCE> 39
 2.221382e+02 1.604506e+02 2.578692e+02 1.952221e+02 1.836470e+02 1.851635e+02 2.023423e+02 1.889331e+02 1.835523e+02 1.787890e+02 1.799779e+02 1.992889e+02 1.881928e+02 3.677642e+01 1.987225e+01 3.260395e+01 3.332738e+01 2.711773e+01 2.804776e+01 2.896110e+01 2.433879e+01 2.304417e+01 2.142838e+01 2.194463e+01 2.422299e+01 5.118816e+01 4.291923e+00 4.373443e+00 9.371317e+00 6.110138e+00 4.987138e+00 6.021033e+00 6.923985e+00 5.251644e+00 4.922574e+00 5.451705e+00 4.952576e+00 5.136668e+00 7.706740e+00
<GCONST> 2.058288e+02
<STATE> 4
<MEAN> 39
 1.814903e+01 -1.277818e+01 1.407819e+01 1.610701e+01 1.443511e+01 -1.093844e+01 -1.768390e+01 -3.021337e+00 -6.807055e+00 3.617343e+00 -1.718442e+00 3.661554e+00 1.163898e+02 9.974511e+00 -2.133263e+00 -2.491359e+00 1.530339e+00 6.893695e+00 -2.618055e+00 -6.017113e+00 -1.043902e-01 -1.509326e+00 -1.369896e+00 -1.683622e-01 2.566200e-03 1.987675e+00 -1.923420e+00 -1.070862e-01 -5.177506e-01 -1.107188e+00 -9.004387e-01 -1.973557e-01 2.066383e-01 4.864669e-01 -1.576269e-01 -2.996660e-01 -1.639479e-01 1.529725e-01 3.240788e-02
<VARIANCE> 39
 4.656073e+02 1.461012e+02 3.624691e+02 2.129412e+02 4.182357e+02 5.353893e+02 4.996700e+02 3.152516e+02 2.163496e+02 2.102920e+02 1.750706e+02 1.797707e+02 1.548541e+02 3.797818e+01 2.247044e+01 4.327242e+01 3.452660e+01 4.087683e+01 7.100466e+01 5.210987e+01 4.059106e+01 2.888789e+01 3.044364e+01 2.496177e+01 2.066980e+01 1.257820e+01 8.484844e+00 3.872587e+00 1.392841e+01 6.562334e+00 1.000072e+01 9.832660e+00 1.152488e+01 7.775080e+00 5.559533e+00 4.781678e+00 4.598658e+00 4.115709e+00 3.113709e+00
<GCONST> 2.141638e+02
<TRANSP> 5
 0.000000e+00 1.000000e+00 0.000000e+00 0.000000e+00 0.000000e+00
 0.000000e+00 8.480551e-01 1.519449e-01 0.000000e+00 0.000000e+00
 0.000000e+00 0.000000e+00 7.475191e-01 2.524809e-01 0.000000e+00
 0.000000e+00 0.000000e+00 0.000000e+00 7.208462e-01 2.791538e-01
 0.000000e+00 0.000000e+00 0.000000e+00 0.000000e+00 0.000000e+00
<ENDHMM>
~h "uw"
<BEGINHMM>
<NUMSTATES> 5
<STATE> 2
<MEAN> 39
 -6.480704e+00 -3.697787e+00 4.326896e+01 8.681680e+00 -5.589165e+00 -1.556821e+01 1.509682e+00 3.764611e+00 -1.202057e+01 2.074861e+00 -8.171470e+00 8.789581e+00 1.242858e+02 9.992857e+00 -2.369103e+00 6.802957e+00 2.467417e+00 1.300040e+00 -1.095267e+00 -3.906234e+00 -3.094607e-03 -1.875314e+00 5.274221e-01 -9.250634e-01 -9.561995e-01 4.133776e+00 -1.478778e+00 -3.911132e-01 -1.309037e+00 -1.339941e+00 -1.745653e-01 1.918628e-02 -9.859890e-01 -3.252569e-01 -7.285290e-01 -3.938537e-02 4.180171e-01 -2.513141e-01 6.827776e-01
<VARIANCE> 39
 3.379171e+02 1.667731e+02 2.597102e+02 2.485555e+02 1.479365e+02 2.363431e+02 4.977474e+02 4.270773e+02 2.678860e+02 2.027545e+02 2.037735e+02 2.496432e+02 2.023817e+02 2.444847e+01 1.315567e+01 2.233719e+01 2.808460e+01 1.976592e+01 3.912432e+01 3.652988e+01 2.406196e+01 3.103099e+01 2.834358e+01 2.574011e+01 3.059173e+01 1.329257e+01 7.430799e+00 1.900600e+00 3.987701e+00 2.762826e+00 2.515817e+00 4.850171e+00 4.807968e+00 3.127974e+00 3.999828e+00 3.854787e+00 3.072479e+00 3.162269e+00 3.398332e+00
<GCONST> 2.016426e+02
<STATE> 3
<MEAN> 39
 8.947945e+00 -1.470591e+01 5.608129e+01 8.294177e+00 -3.684748e+00 -1.986502e+01 -1.305076e+01 4.042997e+00 -2.164993e+01 2.143367e+00 -8.526309e+00 4.504264e+00 1.362772e+02 8.884419e-01 -2.602700e-01 -6.244401e-01 3.797504e-01 1.474713e+00 9.277115e-02 -1.304031e+00 -2.470030e-01 -2.068719e-01 2.035152e-01 -3.678848e-01 -7.497878e-01 -4.097728e-01 -8.005125e-01 7.162170e-01 -1.116681e+00 -2.034409e-02 1.903046e-01 5.458712e-01 6.401780e-01 -2.073806e-01 5.441257e-01 8.983278e-02 7.179794e-02 2.804374e-02 -9.602924e-01
<VARIANCE> 39
 7.647121e+01 1.510136e+02 1.902345e+02 3.805925e+02 2.127547e+02 3.906962e+02 1.009008e+03 6.459247e+02 3.876559e+02 4.104128e+02 2.957418e+02 6.324682e+02 1.358142e+02 5.464033e+00 6.544518e+00 1.024986e+01 8.172181e+00 9.360033e+00 1.346484e+01 1.548737e+01 1.230787e+01 1.390796e+01 1.416426e+01 1.155791e+01 1.301331e+01 6.306186e+00 2.103664e+00 1.048403e+00 1.590414e+00 1.721598e+00 1.652861e+00 2.455693e+00 3.032702e+00 2.319612e+00 2.523135e+00 2.596310e+00 2.162005e+00 2.381179e+00 9.427205e-01
<GCONST> 1.848035e+02
<STATE> 4
<MEAN> 39
 1.406524e+01 -6.771184e-02 3.077855e+01 7.261981e+00 7.787536e+00 -4.504016e+00 -5.367701e+00 -6.186018e+00 -1.488625e+01 6.296507e+00 -7.364521e+00 2.974000e+00 1.130753e+02 -6.773962e-01 8.927986e-01 -2.284750e+00 -4.993371e-02 3.414636e-01 1.453051e+00 1.140763e+00 -2.723942e-01 7.947240e-01 -2.437286e-02 2.488855e-01 7.432590e-02 -2.523171e+00 -3.746790e-01 -4.060977e-02 -4.428241e-02 -1.383489e-02 -3.029038e-01 -1.514861e-01 5.762160e-02 1.764850e-01 6.078561e-02 -1.173891e-01 6.608450e-02 8.460809e-02 -8.676931e-02
<VARIANCE> 39
 1.381165e+02 2.245686e+02 4.448422e+02 3.366935e+02 3.239791e+02 7.541431e+02 7.408799e+02 4.972868e+02 5.996793e+02 4.222964e+02 3.993467e+02 5.505970e+02 5.033119e+02 9.816375e+00 1.191056e+01 1.079215e+01 1.390554e+01 1.507079e+01 2.326572e+01 2.335492e+01 2.238648e+01 2.315740e+01 1.826062e+01 1.809211e+01 1.672771e+01 5.077133e+00 1.196536e+00 1.799421e+00 1.540133e+00 2.106325e+00 2.275110e+00 3.207916e+00 3.354715e+00 3.449757e+00 3.572196e+00 3.016964e+00 3.069215e+00 2.693813e+00 6.714471e-01
<GCONST> 1.958712e+02
<TRANSP> 5
 0.000000e+00 1.000000e+00 0.000000e+00 0.000000e+00 0.000000e+00
 0.000000e+00 6.924003e-01 3.075997e-01 0.000000e+00 0.000000e+00
 0.000000e+00 0.000000e+00 8.219312e-01 1.780688e-01 0.000000e+00
 0.000000e+00 0.000000e+00 0.000000e+00 9.144626e-01 8.553733e-02
 0.000000e+00 0.000000e+00 0.000000e+00 0.000000e+00 0.000000e+00
<ENDHMM>
~h "sil"
<BEGINHMM>
<NUMSTATES> 5
<STATE> 2
<MEAN> 39
 -1.128890e+01 -1.301846e+00 1.275389e+00 7.459053e+00 1.241103e+00 9.600528e-01 4.863735e+00 6.620177e+00 -5.445049e-01 4.203559e-01 -4.234189e+00 7.290059e-01 6.457145e+01 -5.106961e-01 9.072943e-01 -1.317355e-01 2.266250e-02 1.179304e-02 4.915620e-02 -3.365357e-01 -2.098473e-01 6.203612e-02 2.538886e-02 2.909413e-01 -1.221540e-02 -1.232425e+00 -1.347976e-02 8.257129e-02 1.289251e-01 7.144206e-03 2.224565e-02 3.034702e-02 4.723123e-03 -5.039449e-02 9.226475e-03 7.488117e-02 6.372774e-02 7.283413e-02 5.080833e-02
<VARIANCE> 39
 7.571331e+01 1.614525e+02 1.474251e+02 1.326708e+02 1.524424e+02 1.867629e+02 1.968756e+02 2.146119e+02 2.011624e+02 2.010533e+02 1.630187e+02 1.444727e+02 9.885992e+01 2.494600e+00 4.595265e+00 5.721831e+00 7.111290e+00 8.573868e+00 1.059109e+01 1.203062e+01 1.307087e+01 1.282339e+01 1.274348e+01 1.202162e+01 1.101150e+01 1.967747e+00 3.873574e-01 7.157815e-01 9.990218e-01 1.263309e+00 1.539564e+00 1.870088e+00 2.156851e+00 2.335391e+00 2.350880e+00 2.317222e+00 2.195401e+00 2.035530e+00 2.065000e-01
<GCONST> 1.667556e+02
<STATE> 3
<MEAN> 39
 -2.397216e+01 4.942840e+00 -5.989558e-01 3.371535e+00 -2.623247e+00 -2.331094e+00 -3.629808e+00 -8.143071e-01 -1.549297e+00 1.318324e+00 8.211731e-01 2.355321e+00 4.914131e+01 -2.502141e-01 6.010379e-02 7.772823e-02 -3.189895e-02 -4.767791e-02 -5.833112e-02 -1.755873e-01 -1.943180e-01 -4.048107e-02 1.093694e-01 1.182500e-01 6.397103e-02 -1.813082e-01 7.528578e-02 -7.582614e-02 1.433907e-03 1.569747e-02 1.609865e-02 2.428399e-02 6.613763e-02 5.994210e-02 -2.667236e-04 -1.315011e-02 -5.753490e-02 -2.028665e-02 1.363214e-01
<VARIANCE> 39
 4.110686e+01 3.646921e+01 4.341382e+01 5.672328e+01 7.444524e+01 9.530522e+01 1.122043e+02 1.123028e+02 1.038923e+02 9.699783e+01 9.346326e+01 8.351372e+01 2.376990e+01 1.622593e+00 2.345602e+00 3.477373e+00 4.726799e+00 6.075819e+00 7.445731e+00 8.851468e+00 9.603334e+00 9.649458e+00 9.582874e+00 9.373594e+00 8.397504e+00 1.008690e+00 2.950387e-01 4.772905e-01 6.932160e-01 9.450726e-01 1.213817e+00 1.478591e+00 1.738172e+00 1.890452e+00 1.912375e+00 1.898050e+00 1.861576e+00 1.678021e+00 2.112115e-01
<GCONST> 1.480133e+02
<STATE> 4
<MEAN> 39
 -2.344871e+01 -7.740877e-01 3.913908e-01 2.377886e+00 -2.977623e+00 -3.023485e+00 -3.406891e+00 1.699942e-01 -3.242951e+00 1.483973e+00 -8.562737e-01 2.221805e+00 5.992286e+01 3.002345e-02 -1.552821e-01 1.606580e-01 7.013494e-02 -5.022704e-03 1.476340e-01 1.718018e-01 1.009468e-01 -1.041583e-02 1.919314e-01 -1.333235e-01 5.627909e-02 9.176849e-01 9.037632e-02 -1.189813e-02 8.901797e-02 -3.189195e-02 1.039952e-02 -6.104911e-04 2.559210e-02 4.973332e-03 -2.214738e-03 2.204428e-02 -3.438726e-02 2.032135e-02 4.394006e-01
<VARIANCE> 39
 1.147716e+02 1.425943e+02 1.163523e+02 1.157165e+02 1.339162e+02 1.517530e+02 1.677057e+02 1.700446e+02 1.584963e+02 1.430581e+02 1.311923e+02 1.117432e+02 2.787410e+02 9.167287e+00 1.157239e+01 1.030308e+01 1.089150e+01 1.258282e+01 1.414520e+01 1.523417e+01 1.515840e+01 1.446735e+01 1.372613e+01 1.309676e+01 1.121574e+01 1.692111e+01 1.977177e+00 2.261427e+00 2.036007e+00 2.159943e+00 2.452829e+00 2.693841e+00 2.902169e+00 2.883394e+00 2.752546e+00 2.613962e+00 2.479341e+00 2.141104e+00 3.793278e+00
<GCONST> 1.814030e+02
<TRANSP> 5
 0.000000e+00 1.000000e+00 0.000000e+00 0.000000e+00 0.000000e+00
 0.000000e+00 8.678214e-01 1.321786e-01 0.000000e+00 0.000000e+00
 0.000000e+00 0.000000e+00 9.070821e-01 9.291793e-02 0.000000e+00
 0.000000e+00 0.000000e+00 0.000000e+00 8.364996e-01 1.635004e-01
 0.000000e+00 0.000000e+00 0.000000e+00 0.000000e+00 0.000000e+00
<ENDHMM>
~h "sp"
<BEGINHMM>
<NUMSTATES> 3
<STATE> 2
<MEAN> 39
 -2.397216e+01 4.942840e+00 -5.989558e-01 3.371535e+00 -2.623247e+00 -2.331094e+00 -3.629808e+00 -8.143071e-01 -1.549297e+00 1.318324e+00 8.211731e-01 2.355321e+00 4.914131e+01 -2.502141e-01 6.010379e-02 7.772823e-02 -3.189895e-02 -4.767791e-02 -5.833112e-02 -1.755873e-01 -1.943180e-01 -4.048107e-02 1.093694e-01 1.182500e-01 6.397103e-02 -1.813082e-01 7.528578e-02 -7.582614e-02 1.433907e-03 1.569747e-02 1.609865e-02 2.428399e-02 6.613763e-02 5.994210e-02 -2.667236e-04 -1.315011e-02 -5.753490e-02 -2.028665e-02 1.363214e-01
<VARIANCE> 39
 4.110686e+01 3.646921e+01 4.341382e+01 5.672328e+01 7.444524e+01 9.530522e+01 1.122043e+02 1.123028e+02 1.038923e+02 9.699783e+01 9.346326e+01 8.351372e+01 2.376990e+01 1.622593e+00 2.345602e+00 3.477373e+00 4.726799e+00 6.075819e+00 7.445731e+00 8.851468e+00 9.603334e+00 9.649458e+00 9.582874e+00 9.373594e+00 8.397504e+00 1.008690e+00 2.950387e-01 4.772905e-01 6.932160e-01 9.450726e-01 1.213817e+00 1.478591e+00 1.738172e+00 1.890452e+00 1.912375e+00 1.898050e+00 1.861576e+00 1.678021e+00 2.112115e-01
<GCONST> 1.480133e+02
<TRANSP> 3
 0.000000e+00 5.000000e-01 5.000000e-01
 0.000000e+00 5.000000e-01 5.000000e-01
 0.000000e+00 0.000000e+00 0.000000e+00
<ENDHMM>
