~o
<STREAMINFO> 1 39
<VECSIZE> 39<NULLD><MFCC_D_A_0><DIAGC>
~v "varFloor1"
<VARIANCE> 39
 6.754285e+00 3.412382e+00 5.608406e+00 4.796288e+00 3.472278e+00 4.011306e+00 4.413544e+00 3.617784e+00 3.683816e+00 3.040248e+00 2.640156e+00 2.509632e+00 1.299030e+01 2.278168e-01 1.545930e-01 2.184475e-01 2.118017e-01 1.813441e-01 2.097645e-01 2.257998e-01 2.166213e-01 2.009591e-01 1.748390e-01 1.664857e-01 1.534652e-01 2.729186e-01 3.005252e-02 2.352007e-02 2.950203e-02 3.333135e-02 2.970526e-02 3.527972e-02 3.796952e-02 3.764049e-02 3.477431e-02 3.067440e-02 2.924915e-02 2.697382e-02 3.680100e-02
~s "silst"
<NUMMIXES> 4
<MIXTURE> 1 1.905364e-01
<MEAN> 39
 -2.210862e+01 6.679737e+00 1.514780e+00 6.437427e+00 1.048385e+00 1.738471e+00 7.037935e-01 2.972431e+00 1.102493e+00 2.781446e+00 1.294429e+00 2.663960e+00 4.998742e+01 1.360053e-01 4.852716e-01 6.887227e-01 7.434469e-01 7.974541e-01 8.608865e-01 7.938327e-01 6.783944e-01 7.687377e-01 8.940981e-01 8.030405e-01 5.505261e-01 3.010447e-02 1.747029e-01 -5.486783e-02 5.603178e-02 3.829979e-02 1.798459e-02 3.998270e-02 1.079725e-01 8.141144e-02 1.075618e-02 2.524750e-02 -5.434275e-02 1.399916e-02 2.516257e-01
<VARIANCE> 39
 3.920354e+01 4.130512e+01 4.891553e+01 6.173308e+01 7.659418e+01 9.635575e+01 1.100854e+02 1.162601e+02 1.122796e+02 1.063526e+02 1.054795e+02 9.193889e+01 1.836190e+01 1.772764e+00 2.240917e+00 3.508211e+00 4.804245e+00 5.992551e+00 7.348114e+00 8.943359e+00 9.615475e+00 9.862024e+00 9.827188e+00 9.754170e+00 8.913554e+00 9.248647e-01 3.860101e-01 5.164607e-01 7.664363e-01 1.018278e+00 1.268445e+00 1.589919e+00 1.851908e+00 2.022370e+00 2.033783e+00 2.049271e+00 2.027174e+00 1.834136e+00 2.768629e-01
<GCONST> 1.499433e+02
<MIXTURE> 2 3.136424e-01
<MEAN> 39
 -2.612102e+01 4.714710e+00 -1.366642e+00 1.659583e+00 -4.863513e+00 -4.996262e+00 -6.802417e+00 -3.333861e+00 -2.377337e+00 1.541506e+00 2.055352e+00 3.256702e+00 4.732638e+01 -7.518422e-02 4.502231e-02 9.068836e-02 5.241857e-02 4.592264e-02 4.889829e-02 1.509000e-02 4.668302e-02 1.570238e-01 2.729730e-01 3.125214e-01 2.861524e-01 -4.416853e-02 1.664843e-01 4.843692e-02 1.399270e-01 2.105162e-01 2.604106e-01 2.902975e-01 3.426659e-01 3.223976e-01 1.951716e-01 1.166992e-01 8.773930e-03 1.926546e-02 1.681033e-01
<VARIANCE> 39
 1.747278e+01 1.970339e+01 2.670060e+01 3.629333e+01 5.117651e+01 6.771117e+01 8.106296e+01 8.390295e+01 8.060264e+01 7.752720e+01 7.449294e+01 6.866129e+01 1.299030e+01 9.387862e-01 1.599151e+00 2.747675e+00 3.894196e+00 5.072242e+00 6.245381e+00 7.477581e+00 8.258662e+00 8.389761e+00 8.293809e+00 8.064479e+00 7.436345e+00 4.280669e-01 1.899023e-01 3.301076e-01 5.519493e-01 7.768803e-01 1.003979e+00 1.218925e+00 1.457907e+00 1.608387e+00 1.638884e+00 1.638493e+00 1.609715e+00 1.476055e+00 1.100256e-01
<GCONST> 1.361419e+02
<MIXTURE> 3 2.165110e-01
<MEAN> 39
 -2.707917e+01 3.974582e+00 -2.371730e+00 3.639055e-01 -6.340665e+00 -6.501108e+00 -8.418057e+00 -4.852493e+00 -3.711186e+00 4.104826e-01 1.083749e+00 2.396968e+00 4.665808e+01 -3.970199e-01 -3.690180e-01 -4.487486e-01 -6.180248e-01 -7.319599e-01 -7.802824e-01 -8.666021e-01 -8.386635e-01 -6.928829e-01 -6.027292e-01 -5.489394e-01 -4.226007e-01 -2.028864e-01 5.193041e-02 -5.708839e-02 8.069494e-03 3.977503e-02 6.555180e-02 6.211941e-02 9.264987e-02 9.372084e-02 1.053316e-02 -3.465488e-02 -1.005616e-01 -6.960394e-02 1.019727e-01
<VARIANCE> 39
 1.454606e+01 1.899069e+01 2.569478e+01 3.450653e+01 4.882969e+01 6.414382e+01 7.614846e+01 8.010105e+01 7.812285e+01 7.534486e+01 7.257246e+01 6.707290e+01 1.299030e+01 9.104566e-01 1.611952e+00 2.733039e+00 3.851051e+00 5.100263e+00 6.246610e+00 7.458670e+00 8.291666e+00 8.251123e+00 8.136284e+00 7.997111e+00 7.261979e+00 4.161237e-01 1.661111e-01 3.204273e-01 5.344281e-01 7.509450e-01 9.857521e-01 1.203215e+00 1.420203e+00 1.577345e+00 1.612999e+00 1.611760e+00 1.590673e+00 1.451828e+00 9.685715e-02
<GCONST> 1.348902e+02
<MIXTURE> 4 2.791921e-01
<MEAN> 39
 -2.454279e+01 4.544027e+00 -7.703855e-01 3.839791e+00 -1.382028e+00 -7.105275e-01 -2.045872e+00 5.949930e-01 -7.944732e-01 1.163881e+00 1.147261e-01 1.758602e+00 4.881792e+01 -3.801084e-01 -3.548650e-02 2.719326e-02 -9.149297e-02 -1.374488e-01 -1.705138e-01 -3.289755e-01 -3.936472e-01 -2.450858e-01 -3.981724e-02 -8.139447e-02 -1.563037e-01 -2.457862e-01 2.454438e-02 -2.183186e-01 -1.389644e-01 -2.012825e-01 -2.483068e-01 -2.711775e-01 -2.131400e-01 -1.962136e-01 -2.342037e-01 -1.716745e-01 -1.751412e-01 -8.383877e-02 1.906118e-01
<VARIANCE> 39
 3.807558e+01 3.853174e+01 4.660646e+01 5.746111e+01 7.379538e+01 9.485104e+01 1.113202e+02 1.148903e+02 1.133711e+02 1.067891e+02 1.037873e+02 9.240804e+01 1.827330e+01 1.702665e+00 2.270536e+00 3.455422e+00 4.689284e+00 5.957495e+00 7.364454e+00 8.860058e+00 9.702963e+00 9.799744e+00 9.824059e+00 9.717073e+00 8.735157e+00 9.426434e-01 3.735485e-01 5.484961e-01 7.910196e-01 1.039430e+00 1.295270e+00 1.580300e+00 1.873288e+00 2.050110e+00 2.082982e+00 2.091691e+00 2.073049e+00 1.847900e+00 3.056035e-01
<GCONST> 1.498789e+02
~h "f"
<BEGINHMM>
<NUMSTATES> 5
<STATE> 2
<NUMMIXES> 4
<MIXTURE> 1 2.562726e-01
<MEAN> 39
 -3.311198e+01 -1.387051e+01 -1.077246e+00 3.178821e+00 -2.527816e+00 -2.489239e-01 -6.565372e+00 9.912099e-01 -4.687087e+00 4.089714e+00 -3.314326e+00 2.790942e+00 8.998698e+01 5.300247e-02 -2.137485e-01 7.586265e-02 3.004619e-01 8.348468e-01 1.360903e+00 1.138433e+00 9.564712e-01 8.643474e-01 1.086122e+00 8.723514e-01 6.052548e-01 1.145385e+00 1.557256e+00 4.869800e-01 3.405801e-01 -7.672085e-02 3.630003e-01 2.689748e-01 4.908474e-01 1.971755e-01 2.644713e-01 2.820912e-01 1.312831e-01 9.500451e-02 7.661293e-01
<VARIANCE> 39
 1.165159e+02 1.048487e+02 7.128882e+01 7.169407e+01 8.442963e+01 1.006025e+02 1.130173e+02 1.139348e+02 1.193440e+02 1.117525e+02 1.079525e+02 9.892589e+01 3.416123e+02 8.972565e+00 6.626452e+00 6.098787e+00 7.068194e+00 7.970792e+00 9.571943e+00 1.019777e+01 1.090460e+01 1.087243e+01 1.084563e+01 1.058883e+01 9.582945e+00 2.055723e+01 3.442324e+00 1.688004e+00 1.465979e+00 1.920028e+00 1.829214e+00 2.083358e+00 2.329608e+00 2.322117e+00 2.393841e+00 2.423984e+00 2.368749e+00 2.005381e+00 3.404280e+00
<GCONST> 1.724152e+02
<MIXTURE> 2 2.184525e-01
<MEAN> 39
 -3.200083e+01 -1.408405e+01 1.402879e+00 5.530879e+00 -8.961495e-02 1.012260e+00 -4.931955e+00 2.666622e+00 -2.593137e+00 5.929621e+00 -2.408186e+00 3.673247e+00 9.431625e+01 -2.033442e+00 -2.059458e+00 -1.921716e+00 -1.440314e+00 -1.270388e+00 -9.983265e-01 -1.682064e+00 -1.001427e+00 -5.172455e-01 -2.030561e-01 -4.186518e-02 5.931111e-02 9.285972e-01 2.224525e+00 9.521508e-01 5.879736e-01 -2.134898e-01 2.363943e-01 2.852494e-01 5.707304e-01 -8.259309e-03 -1.823589e-01 9.296520e-02 -3.191030e-02 7.279620e-02 5.781859e-01
<VARIANCE> 39
 1.140901e+02 9.849538e+01 9.847439e+01 1.060821e+02 1.221497e+02 1.367673e+02 1.416293e+02 1.406030e+02 1.420163e+02 1.332333e+02 1.224826e+02 1.127188e+02 2.838585e+02 2.383521e+01 1.141052e+01 1.162020e+01 1.262502e+01 1.232329e+01 1.266232e+01 1.297875e+01 1.285038e+01 1.326795e+01 1.285506e+01 1.223238e+01 1.137645e+01 2.292091e+01 3.663707e+00 2.040585e+00 2.626957e+00 3.798913e+00 3.045833e+00 3.049497e+00 3.442133e+00 3.499766e+00 3.660166e+00 3.240602e+00 3.016991e+00 2.693507e+00 2.820878e+00
<GCONST> 1.835132e+02
<MIXTURE> 3 3.613742e-01
<MEAN> 39
 -3.507319e+01 -1.590264e+01 -2.913901e+00 1.605566e+00 -4.333428e+00 -1.841205e+00 -8.663267e+00 -1.058188e+00 -6.454813e+00 2.670366e+00 -4.350784e+00 1.923865e+00 8.730796e+01 -7.242150e-01 -7.376375e-01 -5.444788e-01 -4.289368e-01 -1.912802e-01 2.486789e-01 -2.065646e-01 -2.813095e-01 -4.731210e-01 -2.030444e-01 -3.100576e-01 -2.535953e-01 1.030551e+00 9.639275e-01 2.753125e-01 1.369758e-01 -6.581566e-02 1.571416e-01 3.830063e-02 2.210891e-01 2.878727e-02 9.440689e-02 3.332278e-02 -1.226176e-02 -2.289898e-02 5.926508e-01
<VARIANCE> 39
 1.029234e+02 9.747215e+01 6.646320e+01 6.802331e+01 7.911379e+01 9.413494e+01 1.085489e+02 1.104729e+02 1.153845e+02 1.073486e+02 1.065492e+02 9.581020e+01 3.130955e+02 7.394900e+00 6.321528e+00 5.548654e+00 6.547952e+00 7.558331e+00 8.980945e+00 9.794939e+00 1.026067e+01 1.036197e+01 1.034083e+01 1.014482e+01 9.313687e+00 1.723285e+01 2.514810e+00 1.512441e+00 1.275134e+00 1.536393e+00 1.700763e+00 1.954089e+00 2.205211e+00 2.188552e+00 2.244203e+00 2.260980e+00 2.187323e+00 1.909361e+00 3.108803e+00
<GCONST> 1.693229e+02
<MIXTURE> 4 1.638582e-01
<MEAN> 39
 -3.316467e+01 -1.555925e+01 2.042834e-01 4.234558e+00 -1.545236e+00 -7.139889e-01 -6.636764e+00 7.770008e-01 -4.385116e+00 4.287371e+00 -3.560614e+00 2.691707e+00 9.454854e+01 -3.772403e+00 -3.221049e+00 -3.043578e+00 -2.598163e+00 -2.874899e+00 -2.487607e+00 -3.374050e+00 -2.373758e+00 -1.981146e+00 -1.584203e+00 -1.312995e+00 -1.005363e+00 3.218381e-01 2.023213e+00 8.454083e-01 4.014495e-01 -3.351241e-01 4.284115e-02 1.289750e-02 3.248610e-01 -2.673402e-01 -3.753319e-01 -8.719994e-02 -1.719826e-01 3.925899e-02 3.318943e-01
<VARIANCE> 39
 9.782655e+01 9.282161e+01 9.733112e+01 1.069463e+02 1.194089e+02 1.373885e+02 1.425871e+02 1.424274e+02 1.409277e+02 1.309261e+02 1.236640e+02 1.139270e+02 2.599052e+02 2.455257e+01 1.223304e+01 1.297798e+01 1.336551e+01 1.319088e+01 1.320875e+01 1.335814e+01 1.330993e+01 1.399943e+01 1.301979e+01 1.245770e+01 1.187922e+01 1.979673e+01 3.775720e+00 2.040988e+00 2.721454e+00 3.879026e+00 2.994503e+00 3.209159e+00 3.451854e+00 3.714098e+00 3.599066e+00 3.235458e+00 3.053098e+00 2.893925e+00 2.468537e+00
<GCONST> 1.837419e+02
<STATE> 3
<NUMMIXES> 4
<MIXTURE> 1 2.285210e-01
<MEAN> 39
 -2.195807e+01 -1.389465e+01 -1.944922e-01 2.520185e+00 1.646455e+00 3.195239e+00 -3.447852e+00 2.183525e+00 -1.922858e+00 6.535155e+00 -2.216567e+00 4.071529e+00 1.028605e+02 1.550965e+01 4.196902e+00 1.509947e+00 -6.530727e+00 4.693852e-01 1.767361e+00 3.195316e+00 7.689180e-01 9.261504e-01 2.823556e+00 6.779694e-01 4.777368e-01 6.463990e+00 2.607126e+00 1.915305e-01 1.368378e-01 -3.323854e+00 -8.376439e-01 -1.468278e-01 2.348873e-01 4.156079e-02 -3.218457e-01 6.619989e-01 -6.102697e-02 -6.445010e-02 1.496953e+00
<VARIANCE> 39
 1.230520e+02 7.007288e+01 6.618979e+01 7.397676e+01 1.007796e+02 1.113346e+02 1.100263e+02 1.109326e+02 1.140892e+02 1.157138e+02 1.023237e+02 9.551910e+01 1.900124e+02 2.072740e+01 2.657210e+01 1.542554e+01 2.756777e+01 2.115972e+01 1.717186e+01 1.968846e+01 2.005053e+01 2.965427e+01 2.294324e+01 2.929287e+01 1.742232e+01 3.467494e+01 3.305491e+00 4.665332e+00 2.933222e+00 3.499491e+00 4.517530e+00 3.748839e+00 4.219464e+00 3.660323e+00 4.733033e+00 3.982607e+00 4.759079e+00 3.578511e+00 4.074295e+00
<GCONST> 1.902422e+02
<MIXTURE> 2 2.812180e-01
<MEAN> 39
 -3.067274e+01 -1.900473e+01 -4.802684e+00 -1.176623e+00 -4.184088e+00 -1.828095e+00 -9.080286e+00 -2.631365e+00 -8.070742e+00 2.593411e+00 -4.319667e+00 3.050981e+00 1.037120e+02 9.191953e+00 2.659393e+00 1.196391e+00 -1.373590e+00 6.918796e-01 1.245789e+00 1.805687e+00 9.551322e-01 1.081743e+00 1.077201e+00 4.766723e-01 2.301276e-01 4.726560e+00 4.417175e+00 1.951438e+00 1.095831e+00 -1.964974e+00 -5.666844e-01 6.096490e-01 8.884556e-01 8.263905e-01 2.528825e-01 8.024970e-01 2.697359e-01 -2.653390e-01 5.506033e-01
<VARIANCE> 39
 1.239372e+02 5.774307e+01 5.656030e+01 6.563194e+01 7.120451e+01 8.451749e+01 8.760860e+01 9.079057e+01 9.575823e+01 9.462178e+01 9.361031e+01 8.483768e+01 1.877292e+02 2.328467e+01 1.495633e+01 9.201511e+00 1.078274e+01 1.209749e+01 1.068950e+01 1.103022e+01 1.240266e+01 1.266950e+01 1.195592e+01 1.250608e+01 1.022855e+01 3.138949e+01 2.193369e+00 3.442229e+00 2.683048e+00 3.235668e+00 4.174954e+00 3.121310e+00 3.643109e+00 3.503822e+00 4.196446e+00 3.832445e+00 4.470709e+00 3.081433e+00 4.775427e+00
<GCONST> 1.795932e+02
<MIXTURE> 3 2.554438e-01
<MEAN> 39
 -2.305700e+01 -1.527613e+01 -2.145681e+00 7.180457e-01 -7.709944e-01 1.256757e+00 -5.368991e+00 -8.927199e-02 -4.702814e+00 4.617810e+00 -3.703611e+00 2.938998e+00 1.016796e+02 1.517538e+01 4.016377e+00 1.481068e+00 -6.812246e+00 -1.046991e+00 8.147137e-01 2.059912e+00 3.661624e-01 -3.936350e-01 1.415250e+00 2.899238e-01 -9.919377e-01 6.593766e+00 2.791505e+00 3.619464e-01 3.982853e-01 -3.221323e+00 -1.029282e+00 -1.272109e-01 1.456433e-01 1.535874e-01 -4.429027e-01 5.391459e-01 9.730594e-02 -4.492550e-01 1.564803e+00
<VARIANCE> 39
 1.272694e+02 7.183471e+01 6.602859e+01 7.781343e+01 9.717866e+01 1.132480e+02 1.124816e+02 1.116757e+02 1.109269e+02 1.124947e+02 1.048727e+02 9.688138e+01 2.001439e+02 2.159615e+01 2.657182e+01 1.784608e+01 2.466304e+01 2.367182e+01 1.775738e+01 1.886045e+01 2.142896e+01 2.789491e+01 2.363840e+01 2.998456e+01 1.672263e+01 3.580450e+01 3.128530e+00 4.574478e+00 3.248345e+00 3.566949e+00 4.870098e+00 3.918329e+00 4.468952e+00 3.989050e+00 4.990617e+00 4.195079e+00 5.136272e+00 3.860134e+00 4.200818e+00
<GCONST> 1.912172e+02
<MIXTURE> 4 2.347953e-01
<MEAN> 39
 -3.203431e+01 -2.006767e+01 -6.277309e+00 -2.452898e+00 -5.748841e+00 -3.163837e+00 -1.105626e+01 -4.752705e+00 -1.045606e+01 6.556678e-01 -5.836797e+00 1.764655e+00 1.010489e+02 7.830000e+00 1.658296e+00 4.405858e-01 -2.140300e+00 -5.267780e-01 3.926620e-03 4.783473e-01 -1.571622e-01 -2.947943e-01 -3.050505e-01 -5.833284e-01 -6.596520e-01 4.874477e+00 4.221016e+00 1.909812e+00 1.183572e+00 -1.655655e+00 -5.206428e-01 5.261520e-01 8.280600e-01 8.707195e-01 3.143412e-01 7.111281e-01 3.551024e-01 -3.520680e-01 5.802792e-01
<VARIANCE> 39
 1.274855e+02 6.169566e+01 5.758735e+01 6.894515e+01 7.389434e+01 8.555634e+01 9.164701e+01 9.478954e+01 1.003486e+02 9.720225e+01 9.484128e+01 8.217657e+01 1.913570e+02 2.554491e+01 1.588867e+01 1.002984e+01 1.017488e+01 1.221038e+01 1.097285e+01 1.117528e+01 1.318921e+01 1.253915e+01 1.175012e+01 1.232111e+01 1.022135e+01 3.130247e+01 2.233184e+00 2.939520e+00 2.568552e+00 3.205635e+00 4.033377e+00 2.938288e+00 3.270165e+00 3.387991e+00 4.002561e+00 3.576921e+00 4.005693e+00 2.914776e+00 4.496692e+00
<GCONST> 1.794404e+02
<STATE> 4
<NUMMIXES> 4
<MIXTURE> 1 2.474983e-01
<MEAN> 39
 1.272510e+01 -6.099837e-01 1.917438e+00 -1.058958e+01 -5.520626e-01 3.354075e+00 1.483179e+00 4.136397e-01 -9.403430e-01 8.707651e+00 -5.364667e+00 2.052831e+00 1.112572e+02 1.631431e+01 2.240525e+00 1.330362e+00 -1.117007e+01 -4.741594e-01 1.231697e+00 3.211356e+00 1.078637e+00 1.236415e+00 3.809546e+00 1.284439e-01 4.336563e-01 9.351754e+00 -2.384927e+00 -1.611126e+00 -2.450667e-01 -1.049128e+00 -3.201469e-01 1.257222e-02 -4.026846e-01 4.098463e-01 -2.139385e-01 1.903530e-01 1.656569e-01 1.871871e-01 1.185615e-01
<VARIANCE> 39
 2.166315e+02 1.605943e+02 8.601597e+01 2.293088e+02 1.269737e+02 1.287236e+02 1.252614e+02 1.317752e+02 1.865533e+02 1.444313e+02 1.480956e+02 1.108543e+02 2.371645e+02 1.313338e+01 5.065895e+01 2.982939e+01 3.266973e+01 4.477620e+01 2.779949e+01 3.394851e+01 3.237069e+01 5.071226e+01 3.424907e+01 4.439125e+01 3.002568e+01 3.130100e+01 3.483783e+00 2.309339e+00 1.685824e+00 3.494478e+00 2.709559e+00 2.745815e+00 2.643446e+00 2.518529e+00 3.004352e+00 2.905826e+00 2.696391e+00 2.646620e+00 3.899311e+00
<GCONST> 1.956768e+02
<MIXTURE> 2 2.552039e-01
<MEAN> 39
 2.602639e+01 -2.139625e+01 -3.138510e+00 -3.379125e+01 -2.410062e+00 5.985379e+00 6.815005e-01 2.699661e-01 -1.965258e+00 1.930219e+01 6.880408e+00 -2.130181e+00 1.398805e+02 6.309642e+00 -5.214650e+00 -1.690179e+00 -7.648732e+00 9.276733e-01 3.009132e+00 1.690137e+00 1.055768e+00 1.523067e+00 3.021779e+00 2.288882e+00 -6.835962e-01 9.440881e+00 -4.824461e+00 -3.692659e-01 -1.322655e-01 2.451339e+00 4.986067e-01 1.897862e-01 -3.409148e-01 3.417880e-01 2.562240e-01 -1.164693e+00 -9.885833e-01 2.395888e-01 -2.639077e+00
<VARIANCE> 39
 6.377261e+01 1.834531e+02 1.939088e+02 3.116793e+02 3.459854e+02 2.639687e+02 2.665166e+02 2.923307e+02 6.078353e+02 3.495389e+02 5.890931e+02 2.499229e+02 1.433532e+02 3.529421e+01 1.493675e+01 1.619323e+01 2.746720e+01 2.843306e+01 1.924645e+01 2.011952e+01 2.159917e+01 3.106378e+01 2.457125e+01 3.686940e+01 2.176950e+01 1.813348e+01 1.641680e+00 1.945521e+00 1.981960e+00 3.321482e+00 2.964616e+00 2.931975e+00 3.442401e+00 3.352591e+00 7.498440e+00 4.570531e+00 6.115490e+00 3.455088e+00 2.408902e+00
<GCONST> 1.999568e+02
<MIXTURE> 3 2.718554e-01
<MEAN> 39
 1.467732e+01 1.865385e+00 2.743605e+00 -1.206031e+01 -2.811161e+00 2.300649e+00 1.736074e+00 8.462819e-01 -2.674926e+00 7.879730e+00 -5.436924e+00 1.810534e+00 1.114031e+02 1.608644e+01 3.773668e+00 2.328699e+00 -1.138160e+01 -3.415483e+00 1.919946e-01 1.825263e+00 1.314624e+00 -8.478276e-01 2.038875e+00 -3.863996e-01 -1.432490e+00 8.101651e+00 -2.429068e+00 -1.624300e+00 -2.400619e-01 -1.021097e+00 -8.457434e-01 -2.720599e-01 -9.188576e-01 1.780599e-01 -5.605814e-01 -9.267478e-02 -1.865859e-02 -3.344148e-01 2.140981e-01
<VARIANCE> 39
 2.202504e+02 1.787299e+02 9.729642e+01 2.423551e+02 1.455707e+02 1.316571e+02 1.269821e+02 1.422371e+02 1.877512e+02 1.443944e+02 1.436033e+02 1.121457e+02 2.335479e+02 1.463689e+01 4.875966e+01 3.539387e+01 3.349143e+01 5.098224e+01 3.060959e+01 3.599700e+01 3.652896e+01 4.803705e+01 3.611193e+01 4.377963e+01 3.091136e+01 2.947645e+01 3.753923e+00 2.292566e+00 1.738696e+00 3.451092e+00 2.907889e+00 2.682488e+00 2.821834e+00 2.608321e+00 3.134018e+00 2.943804e+00 2.578579e+00 2.833778e+00 3.528771e+00
<GCONST> 1.970378e+02
<MIXTURE> 4 2.254245e-01
<MEAN> 39
 2.525338e+01 -2.090896e+01 -3.761490e+00 -3.305967e+01 -6.465306e+00 6.982117e+00 -2.559147e+00 -5.649076e-02 -6.456026e+00 2.043518e+01 1.247701e+01 -5.739857e+00 1.413169e+02 5.712197e+00 -5.213248e+00 -2.060153e+00 -7.679055e+00 -4.988600e-01 2.363247e+00 5.463962e-01 5.156562e-01 3.405513e-01 2.240076e+00 2.349272e+00 -2.619105e+00 9.266786e+00 -4.947253e+00 -4.903448e-01 -2.875730e-01 2.359364e+00 5.934851e-01 -2.020119e-01 -1.841553e-01 1.078727e-01 7.247760e-01 -1.406642e+00 -1.818960e+00 9.567071e-02 -2.664777e+00
<VARIANCE> 39
 6.637857e+01 1.768004e+02 1.988289e+02 3.393830e+02 3.338743e+02 2.624302e+02 2.786696e+02 3.248308e+02 5.884496e+02 4.018339e+02 6.140334e+02 2.525678e+02 1.353924e+02 3.268322e+01 1.336254e+01 1.618851e+01 2.606861e+01 2.539944e+01 1.872702e+01 1.948393e+01 2.198208e+01 3.002201e+01 2.345378e+01 4.022671e+01 2.059655e+01 1.438409e+01 1.409376e+00 1.882628e+00 2.068321e+00 3.242802e+00 3.070719e+00 2.863049e+00 3.719831e+00 3.426911e+00 6.942284e+00 5.186793e+00 6.263302e+00 3.072684e+00 2.053348e+00
<GCONST> 1.993449e+02
<TRANSP> 5
 0.000000e+00 1.000000e+00 0.000000e+00 0.000000e+00 0.000000e+00
 0.000000e+00 8.569705e-01 1.430295e-01 0.000000e+00 0.000000e+00
 0.000000e+00 0.000000e+00 6.189978e-01 3.810022e-01 0.000000e+00
 0.000000e+00 0.000000e+00 0.000000e+00 5.202717e-01 4.797283e-01
 0.000000e+00 0.000000e+00 0.000000e+00 0.000000e+00 0.000000e+00
<ENDHMM>
~h "k"
<BEGINHMM>
<NUMSTATES> 5
<STATE> 2
<NUMMIXES> 4
<MIXTURE> 1 2.206047e-01
<MEAN> 39
 4.165413e-01 3.236092e+00 3.954168e+01 3.118762e+01 -5.131459e+00 -2.513935e+01 9.234460e+00 6.368191e+00 -2.459269e+01 3.242774e+00 2.688295e+00 3.553713e+00 9.177480e+01 -4.402824e+00 7.278327e+00 -7.041104e+00 3.881681e+00 5.575412e+00 8.339857e+00 2.013262e-01 8.572805e-01 4.823891e+00 -1.998523e+00 1.273174e+00 -7.172815e-01 -1.733063e+01 -1.193448e+00 -1.913905e+00 -2.534959e+00 -3.734576e+00 -2.951435e-01 7.033626e-01 -2.460719e+00 -7.421476e-01 2.099774e+00 3.378549e-01 -6.246046e-01 4.969867e-01 1.643954e+00
<VARIANCE> 39
 1.102141e+02 2.146743e+02 2.553566e+02 2.098490e+02 4.014920e+02 4.180449e+02 4.754811e+02 7.306827e+02 4.952250e+02 3.538831e+02 2.510365e+02 2.165038e+02 2.964695e+02 1.274836e+01 2.612731e+01 2.582104e+01 3.302774e+01 2.904720e+01 3.517476e+01 6.656638e+01 7.331887e+01 5.929176e+01 3.740226e+01 2.709036e+01 2.801658e+01 3.102184e+01 2.394200e+00 4.854788e+00 3.999097e+00 3.395287e+00 5.002864e+00 7.370271e+00 6.126291e+00 9.093287e+00 7.244111e+00 5.451266e+00 4.948976e+00 4.675767e+00 6.696432e+00
<GCONST> 2.132543e+02
<MIXTURE> 2 2.781704e-01
<MEAN> 39
 -1.191564e+01 1.548059e+01 1.888416e+01 2.248510e+01 1.512334e+00 -6.747026e+00 -4.237148e+00 -5.802368e+00 -1.410409e+01 -5.925890e+00 -2.137766e+00 1.409382e+00 5.914889e+01 -5.514431e+00 -6.264876e-01 -1.013126e+01 -3.836640e+00 2.700941e+00 5.307333e+00 -3.654645e+00 1.042250e+00 5.122655e+00 -3.217212e-01 4.523807e-01 -6.247653e-02 -8.463780e+00 5.437826e-01 -3.834299e+00 1.593856e-01 -2.160197e+00 -1.338826e+00 -2.180361e+00 2.763026e-01 5.200465e-01 2.721787e-01 1.713790e+00 -3.015652e-02 7.687849e-01 6.868472e+00
<VARIANCE> 39
 8.400578e+01 1.321991e+02 1.412190e+02 1.603316e+02 1.852148e+02 2.093040e+02 2.462831e+02 2.613515e+02 1.994910e+02 1.858003e+02 1.544561e+02 1.193518e+02 8.065459e+01 9.009565e+00 3.532665e+01 2.097104e+01 2.598293e+01 2.831029e+01 3.680790e+01 4.225218e+01 6.092366e+01 4.122332e+01 3.030813e+01 2.120508e+01 1.862341e+01 5.223186e+01 3.018200e+00 5.440036e+00 4.168230e+00 5.060102e+00 5.053708e+00 6.059532e+00 8.457623e+00 8.525020e+00 7.976843e+00 4.977025e+00 4.409179e+00 3.940477e+00 7.654201e+00
<GCONST> 2.034395e+02
<MIXTURE> 3 2.438523e-01
<MEAN> 39
 -1.169634e+01 1.568767e+01 1.882595e+01 2.168320e+01 8.163055e-01 -7.829604e+00 -6.358736e+00 -8.466499e+00 -1.640089e+01 -7.960727e+00 -4.353279e+00 -2.385423e-01 5.929571e+01 -6.571390e+00 -1.678004e+00 -1.176407e+01 -4.910346e+00 1.959876e+00 3.396865e+00 -6.505224e+00 -3.049135e-02 2.778317e+00 -2.319928e+00 -7.908459e-01 -9.945753e-01 -8.988446e+00 3.083923e-01 -4.020854e+00 1.443440e-02 -2.372000e+00 -1.600758e+00 -2.243055e+00 5.518395e-01 3.777190e-01 5.707338e-01 1.768652e+00 2.195227e-02 9.183367e-01 7.051583e+00
<VARIANCE> 39
 7.718382e+01 1.306350e+02 1.219262e+02 1.351850e+02 1.799248e+02 2.110757e+02 2.458455e+02 2.562393e+02 2.249320e+02 1.934213e+02 1.567830e+02 1.173211e+02 7.851317e+01 7.673699e+00 3.760011e+01 1.829149e+01 2.583115e+01 2.662435e+01 3.636290e+01 3.959475e+01 6.450989e+01 4.129932e+01 2.945073e+01 2.062068e+01 1.771974e+01 5.389013e+01 2.912689e+00 5.064884e+00 3.721807e+00 4.281867e+00 4.914539e+00 6.291891e+00 8.007480e+00 9.231653e+00 8.524161e+00 5.127746e+00 4.127076e+00 4.042303e+00 7.677828e+00
<GCONST> 2.024251e+02
<MIXTURE> 4 2.573508e-01
<MEAN> 39
 -1.989501e+00 2.908386e+00 3.663398e+01 2.956957e+01 -5.095913e+00 -2.384424e+01 6.195454e+00 3.042179e+00 -2.306732e+01 1.504205e+00 8.971518e-01 3.822136e+00 8.831465e+01 -5.989502e+00 5.828289e+00 -9.139066e+00 1.809271e+00 4.166372e+00 6.153173e+00 -2.916581e+00 -1.637923e+00 2.491931e+00 -3.591650e+00 -5.069042e-01 -1.478212e+00 -1.777796e+01 -1.041111e+00 -2.132892e+00 -2.368894e+00 -3.917201e+00 -7.232597e-01 2.628902e-01 -2.294162e+00 -5.721620e-01 1.723397e+00 2.961978e-01 -4.238715e-01 3.217667e-01 2.199564e+00
<VARIANCE> 39
 1.232424e+02 2.276164e+02 2.412743e+02 2.058680e+02 4.197080e+02 4.429351e+02 4.877307e+02 6.725375e+02 4.238359e+02 3.034389e+02 2.418983e+02 1.967350e+02 2.591776e+02 1.082490e+01 2.856237e+01 2.504094e+01 3.471887e+01 2.976811e+01 3.478946e+01 6.948778e+01 8.476495e+01 6.294811e+01 3.886306e+01 2.486349e+01 2.766893e+01 2.976086e+01 2.625038e+00 4.994011e+00 3.899840e+00 3.469744e+00 5.266182e+00 7.260116e+00 6.263031e+00 8.430823e+00 6.344144e+00 5.118083e+00 4.987782e+00 4.446414e+00 7.353837e+00
<GCONST> 2.128764e+02
<STATE> 3
<NUMMIXES> 4
<MIXTURE> 1 2.417538e-01
<MEAN> 39
 -1.949272e+01 -1.628541e+00 -4.471530e+00 6.434242e+00 -3.292830e+00 -6.883622e+00 -9.624670e+00 -4.327317e+00 -5.693907e+00 1.872540e-01 -2.160389e-01 3.135371e+00 6.189742e+01 1.390077e-01 -4.043651e+00 -4.554440e+00 2.846538e-01 1.024364e+00 8.281168e-01 3.015502e-01 3.061563e+00 3.495268e+00 3.063899e+00 1.074875e+00 1.118060e+00 8.151198e+00 -2.269138e-01 2.175644e-01 1.479372e+00 1.374484e+00 -2.752005e-01 -9.161932e-01 6.521981e-01 4.379411e-01 -3.305503e-01 1.498324e-01 -1.607547e-01 3.046903e-01 3.378514e+00
<VARIANCE> 39
 1.342775e+02 2.404110e+02 2.178923e+02 9.348180e+01 9.853364e+01 1.251096e+02 1.307664e+02 1.205595e+02 1.141601e+02 1.106560e+02 8.703713e+01 7.378609e+01 4.980575e+02 2.047855e+01 2.475025e+01 1.986329e+01 1.876744e+01 1.739259e+01 2.037688e+01 1.891872e+01 1.769907e+01 1.812717e+01 1.751176e+01 1.468642e+01 1.067562e+01 8.163395e+01 8.099445e+00 7.005506e+00 5.620769e+00 2.985737e+00 3.915331e+00 4.085791e+00 4.584410e+00 4.329042e+00 3.452412e+00 3.504341e+00 2.370206e+00 2.187320e+00 1.274811e+01
<GCONST> 1.938427e+02
<MIXTURE> 2 2.504653e-01
<MEAN> 39
 -2.014025e+01 -5.653234e+00 -2.973397e+00 8.912367e+00 3.373847e+00 -4.544586e+00 -6.916537e+00 1.639609e+00 -2.650828e+00 4.082100e+00 -5.429494e-02 3.987405e+00 6.706093e+01 -8.573256e-01 -5.573277e+00 -6.280976e+00 -2.225579e+00 4.796717e-01 -1.668378e+00 -3.246791e+00 2.469605e-01 1.523264e+00 1.450786e+00 -1.067133e+00 4.665852e-01 9.784481e+00 -4.844337e-01 7.022700e-01 1.924315e+00 1.114781e+00 -6.573634e-01 -1.740964e+00 5.296652e-01 3.833041e-01 -6.686029e-01 -1.777524e-01 -2.548117e-01 2.127563e-01 3.647181e+00
<VARIANCE> 39
 1.361981e+02 3.168899e+02 1.942070e+02 1.642400e+02 1.750462e+02 1.946413e+02 2.093918e+02 1.772564e+02 1.502930e+02 1.334242e+02 1.280536e+02 9.705526e+01 5.717672e+02 3.061998e+01 3.138968e+01 2.707190e+01 2.479855e+01 2.276655e+01 2.784114e+01 1.967647e+01 2.047291e+01 2.124225e+01 1.787498e+01 1.431491e+01 1.206571e+01 7.861154e+01 7.652648e+00 8.142773e+00 5.285110e+00 4.057559e+00 5.163751e+00 5.934316e+00 5.570208e+00 5.363055e+00 4.742075e+00 3.942508e+00 2.978225e+00 2.675834e+00 1.363904e+01
<GCONST> 2.022779e+02
<MIXTURE> 3 2.871811e-01
<MEAN> 39
 -2.049927e+01 -2.204359e+00 -5.165801e+00 4.662254e+00 -3.996833e+00 -7.585961e+00 -1.058019e+01 -5.403588e+00 -5.986698e+00 -8.238236e-02 -7.848358e-01 2.360207e+00 6.111061e+01 -3.102928e-01 -4.256641e+00 -4.905554e+00 -5.332061e-01 3.123812e-01 -4.899056e-01 -1.359975e+00 1.404416e+00 1.775105e+00 1.411204e+00 -2.191190e-01 2.141063e-01 7.275540e+00 -2.550212e-01 1.037085e-01 1.225641e+00 1.184716e+00 -4.182133e-01 -1.020777e+00 4.192794e-01 2.530230e-01 -4.405081e-01 -3.964081e-02 -3.347144e-01 1.378147e-01 3.110884e+00
<VARIANCE> 39
 1.349085e+02 2.267019e+02 2.035247e+02 8.713874e+01 9.577061e+01 1.128405e+02 1.225891e+02 1.151189e+02 1.060440e+02 1.053411e+02 8.816150e+01 7.409852e+01 4.942924e+02 2.025051e+01 2.219641e+01 1.898348e+01 1.899147e+01 1.740393e+01 1.937208e+01 1.761675e+01 1.647467e+01 1.646414e+01 1.627371e+01 1.291200e+01 1.039372e+01 8.024358e+01 8.347630e+00 6.447240e+00 5.428877e+00 2.767719e+00 3.658650e+00 3.860439e+00 4.321242e+00 4.016573e+00 3.383312e+00 3.456687e+00 2.353535e+00 2.131836e+00 1.237548e+01
<GCONST> 1.920872e+02
<MIXTURE> 4 2.205754e-01
<MEAN> 39
 -2.040553e+01 -6.984403e+00 -2.247838e+00 8.379552e+00 3.182441e+00 -5.837811e+00 -7.661022e+00 1.196988e+00 -4.192266e+00 2.870854e+00 -1.043632e+00 3.356615e+00 6.870908e+01 -2.399937e+00 -6.519798e+00 -7.543797e+00 -3.796693e+00 -5.789915e-01 -3.016739e+00 -4.993769e+00 -1.449526e+00 2.279419e-01 -4.428178e-02 -2.326153e+00 -4.158626e-01 8.873859e+00 -5.063171e-01 6.204739e-01 1.894132e+00 8.136118e-01 -1.011803e+00 -2.029777e+00 4.192524e-01 2.199112e-01 -8.162505e-01 -2.279530e-01 -3.481933e-01 8.740946e-02 3.696582e+00
<VARIANCE> 39
 1.359882e+02 3.425261e+02 1.990971e+02 1.644583e+02 1.699240e+02 1.942986e+02 2.133286e+02 1.867521e+02 1.507539e+02 1.213029e+02 1.317653e+02 9.481516e+01 5.832329e+02 3.381581e+01 3.128114e+01 2.840059e+01 2.719530e+01 2.286783e+01 2.892893e+01 1.966753e+01 2.194768e+01 2.321812e+01 1.765797e+01 1.508604e+01 1.225422e+01 7.852295e+01 7.625214e+00 8.037867e+00 5.218404e+00 4.129220e+00 5.161715e+00 5.945680e+00 5.841896e+00 5.634507e+00 4.956942e+00 3.970522e+00 3.191107e+00 2.819737e+00 1.363165e+01
<GCONST> 2.031031e+02
<STATE> 4
<NUMMIXES> 4
<MIXTURE> 1 2.360921e-01
<MEAN> 39
 -2.249045e+01 -1.629186e+01 -1.555112e+01 1.595278e+01 -6.958551e+00 -1.836836e+01 -1.325825e+01 5.356617e+00 -2.100412e+00 6.711565e-01 -3.185143e+00 8.331667e+00 1.164719e+02 -9.344877e+00 3.318799e+00 3.094753e-01 1.807647e+00 -3.564483e+00 -1.975535e+00 2.219436e+00 3.908804e+00 7.971522e-01 -3.288878e-01 3.705552e-01 2.831716e+00 9.104092e+00 -1.851073e+00 3.557063e+00 2.420364e+00 -2.250668e-01 6.542906e-02 1.611971e+00 1.850717e+00 -2.093952e-01 -7.319971e-01 -2.363892e-01 4.413506e-01 -1.231196e-01 -4.904942e+00
<VARIANCE> 39
 3.166898e+02 1.773304e+02 2.142950e+02 1.626985e+02 2.776984e+02 2.254508e+02 1.939473e+02 1.802957e+02 1.704218e+02 1.517704e+02 1.565932e+02 1.165482e+02 1.127796e+02 2.356176e+01 2.763338e+01 1.665700e+01 1.702706e+01 2.248039e+01 2.304296e+01 1.985491e+01 1.563908e+01 1.882558e+01 1.462481e+01 1.316155e+01 1.214610e+01 5.190233e+01 6.496491e+00 4.405634e+00 4.468372e+00 3.875349e+00 4.077953e+00 4.246395e+00 4.009198e+00 4.185058e+00 4.379978e+00 3.592666e+00 3.129233e+00 2.508186e+00 3.506540e+00
<GCONST> 1.959819e+02
<MIXTURE> 2 2.525848e-01
<MEAN> 39
 -4.000722e+01 -1.100514e+01 -6.530057e+00 8.926107e+00 1.038163e+01 -2.320718e+01 -1.928117e+01 3.487791e+00 2.826302e+00 8.177831e+00 -8.260639e+00 2.283565e+00 1.137118e+02 -1.200466e+01 4.029870e+00 3.134829e+00 1.078609e-01 -6.893615e-01 -4.173454e+00 1.904416e+00 3.034503e+00 2.830594e+00 -1.370180e+00 -1.617824e+00 5.171478e-01 4.758286e+00 2.336095e-01 1.794254e+00 9.974676e-01 -3.276684e-01 -7.902502e-01 1.466709e+00 1.813208e+00 5.383254e-01 -8.868215e-01 -1.005479e+00 4.675624e-01 3.942793e-01 -3.679890e+00
<VARIANCE> 39
 3.353764e+02 1.055264e+02 1.917600e+02 2.053526e+02 2.710240e+02 3.129275e+02 1.972800e+02 2.087014e+02 1.731333e+02 1.531177e+02 1.464302e+02 1.086308e+02 1.644968e+02 1.690633e+01 1.335326e+01 1.456110e+01 1.641085e+01 2.061068e+01 2.067677e+01 1.659558e+01 1.700900e+01 1.648792e+01 1.466164e+01 1.274988e+01 1.237899e+01 2.870782e+01 7.893215e+00 2.518452e+00 3.671537e+00 2.883935e+00 3.170555e+00 4.923621e+00 2.996859e+00 3.794456e+00 3.779176e+00 3.188344e+00 2.789773e+00 2.176187e+00 3.423609e+00
<GCONST> 1.922205e+02
<MIXTURE> 3 3.037463e-01
<MEAN> 39
 -2.145834e+01 -1.689228e+01 -1.676689e+01 1.508261e+01 -6.451627e+00 -1.887251e+01 -1.593258e+01 3.279526e+00 -2.987187e+00 5.471835e-01 -4.152170e+00 7.810241e+00 1.137199e+02 -9.991924e+00 2.185193e+00 -1.146511e-01 1.014417e+00 -4.270189e+00 -3.114236e+00 8.749765e-01 2.812477e+00 -5.565984e-01 -1.390354e+00 -7.692447e-01 1.882966e+00 8.511419e+00 -2.268872e+00 3.342175e+00 2.088882e+00 -6.771311e-01 -3.146368e-01 1.307585e+00 1.621524e+00 -3.536831e-01 -7.896536e-01 -4.929312e-01 3.475348e-01 -2.453193e-01 -4.997101e+00
<VARIANCE> 39
 3.144214e+02 1.581434e+02 2.053439e+02 1.648827e+02 2.738051e+02 2.320791e+02 1.920511e+02 1.834207e+02 1.767786e+02 1.533669e+02 1.566930e+02 1.200631e+02 1.137765e+02 2.018498e+01 2.499335e+01 1.548798e+01 1.781372e+01 2.401935e+01 2.608486e+01 1.994384e+01 1.531826e+01 1.878064e+01 1.420518e+01 1.315180e+01 1.243619e+01 4.903292e+01 6.653344e+00 4.048248e+00 4.162478e+00 3.510517e+00 3.979043e+00 4.272464e+00 4.035378e+00 4.094315e+00 4.521065e+00 3.525679e+00 2.976533e+00 2.634510e+00 2.970699e+00
<GCONST> 1.953469e+02
<MIXTURE> 4 2.075661e-01
<MEAN> 39
 -4.013990e+01 -1.241058e+01 -7.254670e+00 8.506743e+00 1.072825e+01 -2.324591e+01 -2.099427e+01 7.900965e-01 2.903626e+00 8.720638e+00 -8.469188e+00 1.155869e+00 1.100886e+02 -1.227052e+01 2.903480e+00 2.574918e+00 -6.546399e-01 -1.628381e+00 -5.347749e+00 6.332409e-01 2.145084e+00 1.952135e+00 -2.233250e+00 -2.593244e+00 -3.935087e-01 3.940997e+00 1.260408e-01 1.559921e+00 5.365699e-01 -8.013008e-01 -1.264479e+00 1.184221e+00 1.520072e+00 3.399020e-01 -9.594249e-01 -1.260922e+00 2.318370e-01 3.203973e-01 -3.610810e+00
<VARIANCE> 39
 3.189453e+02 1.084715e+02 1.865422e+02 2.035765e+02 2.925948e+02 2.948624e+02 1.989593e+02 2.152696e+02 1.963162e+02 1.531897e+02 1.506994e+02 1.050903e+02 1.569956e+02 1.441971e+01 1.311233e+01 1.311339e+01 1.581612e+01 2.164193e+01 2.086880e+01 1.612367e+01 1.684972e+01 1.664943e+01 1.540936e+01 1.241392e+01 1.187358e+01 2.609852e+01 7.833215e+00 2.137677e+00 3.141338e+00 2.644564e+00 3.286566e+00 4.650509e+00 3.006720e+00 3.539908e+00 3.577758e+00 3.022508e+00 2.773663e+00 2.136288e+00 2.881354e+00
<GCONST> 1.910835e+02
<TRANSP> 5
 0.000000e+00 1.000000e+00 0.000000e+00 0.000000e+00 0.000000e+00
 0.000000e+00 6.905261e-01 3.094740e-01 0.000000e+00 0.000000e+00
 0.000000e+00 0.000000e+00 7.446823e-01 2.553177e-01 0.000000e+00
 0.000000e+00 0.000000e+00 0.000000e+00 5.677581e-01 4.322419e-01
 0.000000e+00 0.000000e+00 0.000000e+00 0.000000e+00 0.000000e+00
<ENDHMM>
~h "n"
<BEGINHMM>
<NUMSTATES> 5
<STATE> 2
<NUMMIXES> 4
<MIXTURE> 1 1.988552e-01
<MEAN> 39
 1.057320e+01 -1.608159e+00 3.612456e+01 -1.835360e+00 -1.840213e+00 1.906911e+00 1.924845e+01 2.501607e-01 -2.222481e+00 8.815176e+00 -2.038710e+00 1.229644e+01 1.112339e+02 3.850346e+00 4.913090e+00 9.687566e-01 6.316689e+00 -3.056447e-01 2.261915e+00 3.169702e+00 -5.998022e+00 4.087386e-01 7.862068e-01 -1.341309e+00 2.288454e+00 -3.197703e+00 1.302115e-01 -3.937081e-01 -8.317964e-01 4.748248e-01 5.947074e-02 5.967679e-02 -2.384002e-01 -8.248245e-02 3.645590e-01 -2.093605e-01 9.682251e-02 8.871726e-02 3.453718e-01
<VARIANCE> 39
 1.929906e+02 3.382857e+02 3.114734e+02 6.953885e+02 2.682772e+02 3.724224e+02 4.580525e+02 5.584536e+02 4.017760e+02 3.392986e+02 2.911508e+02 2.790639e+02 6.566541e+02 2.459535e+01 1.625817e+01 4.139536e+01 4.329914e+01 2.716464e+01 3.394546e+01 4.205877e+01 4.562022e+01 3.813571e+01 3.376982e+01 2.949352e+01 2.885549e+01 3.908926e+01 1.994325e+00 2.611112e+00 3.939518e+00 8.394618e+00 3.940227e+00 4.944084e+00 5.359507e+00 7.010506e+00 4.708542e+00 4.580755e+00 3.753880e+00 4.046938e+00 2.564311e+00
<GCONST> 2.125486e+02
<MIXTURE> 2 3.112313e-01
<MEAN> 39
 1.933089e+01 -1.850723e+00 3.542023e+01 1.219742e+01 -5.931618e+00 4.653720e+00 1.526608e+01 -2.784745e+00 -7.707229e+00 1.324171e+01 -7.355638e+00 7.809306e+00 1.136298e+02 2.551785e-02 3.176717e+00 -4.139939e-01 2.931576e+00 1.017485e+00 1.396008e+00 2.295232e+00 -1.645384e+00 2.643147e-01 8.605978e-01 -1.300855e+00 -1.713465e-01 -3.468682e+00 -7.393003e-01 -4.098851e-01 -6.110187e-01 -6.592678e-01 7.043731e-01 -2.480438e-01 -6.673822e-01 1.206269e+00 5.111310e-01 -4.523798e-01 4.349225e-01 -1.479237e-02 2.720867e-01
<VARIANCE> 39
 7.343181e+01 2.480686e+02 2.085100e+02 5.138828e+02 3.199448e+02 4.228864e+02 5.862158e+02 5.518153e+02 5.950383e+02 4.841161e+02 4.713597e+02 4.569400e+02 2.467487e+02 4.651421e+00 1.056923e+01 1.334141e+01 2.182822e+01 1.608916e+01 2.013703e+01 2.768264e+01 2.919514e+01 2.561911e+01 2.181817e+01 1.952653e+01 1.797262e+01 6.201062e+00 1.824914e+00 2.210320e+00 3.718695e+00 7.313116e+00 4.013148e+00 5.124891e+00 7.298163e+00 7.153280e+00 5.767665e+00 4.989708e+00 4.933974e+00 4.613275e+00 1.635584e+00
<GCONST> 2.026404e+02
<MIXTURE> 3 2.809794e-01
<MEAN> 39
 1.758712e+01 -3.293114e+00 3.494119e+01 1.357973e+01 -6.950951e+00 3.263853e+00 1.202546e+01 -3.264388e+00 -1.153377e+01 1.212055e+01 -1.121861e+01 4.016391e+00 1.126247e+02 -5.296715e-01 2.853124e+00 -8.938027e-01 2.422617e+00 9.209819e-01 7.662185e-01 1.848722e+00 -1.345884e+00 -1.568659e-01 1.996157e-01 -1.889265e+00 -1.093444e+00 -3.649975e+00 -8.965365e-01 -5.300020e-01 -8.757868e-01 -8.177087e-01 5.738425e-01 -4.321764e-01 -9.093289e-01 1.254436e+00 6.059462e-01 -5.902734e-01 5.009734e-01 -8.152724e-02 1.587054e-01
<VARIANCE> 39
 7.566529e+01 2.401012e+02 1.996414e+02 4.879111e+02 3.235473e+02 4.064902e+02 5.363622e+02 5.470770e+02 5.702513e+02 5.425408e+02 5.340404e+02 4.624821e+02 2.820858e+02 5.748436e+00 1.141289e+01 1.312725e+01 1.997113e+01 1.567239e+01 1.947396e+01 2.627550e+01 2.689522e+01 2.563386e+01 2.296893e+01 2.007775e+01 1.919583e+01 6.799622e+00 2.167009e+00 2.377665e+00 3.726252e+00 6.995310e+00 4.104507e+00 5.137843e+00 7.416733e+00 7.203040e+00 6.062521e+00 5.013262e+00 5.434313e+00 5.041098e+00 1.856076e+00
<GCONST> 2.036027e+02
<MIXTURE> 4 2.089105e-01
<MEAN> 39
 1.050597e+01 -4.822778e+00 3.566450e+01 -2.068006e+00 -3.917976e+00 -9.155158e-01 1.445877e+01 1.087560e+00 -6.153032e+00 7.915156e+00 -5.196666e+00 8.296903e+00 1.144169e+02 2.694557e+00 3.928645e+00 2.141015e-01 5.334880e+00 -5.330237e-01 1.624166e+00 2.716555e+00 -5.452833e+00 -7.471540e-01 7.742622e-01 -2.652516e+00 6.563935e-01 -3.685871e+00 -6.477820e-03 -4.277017e-01 -9.728348e-01 5.393650e-01 1.603260e-02 7.114062e-02 -3.705466e-01 -4.998194e-02 3.478020e-01 -3.412062e-01 -1.269159e-01 -2.105292e-01 8.633757e-02
<VARIANCE> 39
 1.763631e+02 3.517567e+02 3.298907e+02 7.102238e+02 2.831386e+02 3.648676e+02 4.919275e+02 5.911990e+02 4.346221e+02 3.474335e+02 3.163516e+02 2.874076e+02 6.183201e+02 2.137995e+01 1.693005e+01 3.552336e+01 4.554297e+01 2.618296e+01 3.223205e+01 4.140538e+01 4.496098e+01 3.629021e+01 3.205135e+01 2.654820e+01 2.758442e+01 3.034724e+01 2.091072e+00 2.607250e+00 3.883914e+00 8.219448e+00 3.765345e+00 4.921240e+00 5.715038e+00 7.013140e+00 4.654770e+00 4.220845e+00 3.604755e+00 3.827508e+00 2.371940e+00
<GCONST> 2.118240e+02
<STATE> 3
<NUMMIXES> 4
<MIXTURE> 1 2.842133e-01
<MEAN> 39
 2.253917e+01 8.996381e+00 3.507865e+01 1.756149e+01 -8.204821e+00 1.266939e+01 2.176052e+01 -1.626542e+01 2.554391e+00 6.550386e+00 -5.282148e+00 1.703047e+01 1.040168e+02 -7.707160e-01 -1.040364e+00 1.869445e-01 -5.056903e-01 1.428978e+00 -7.491749e-01 -6.447567e-01 2.840385e+00 6.473019e-01 -4.551912e-01 7.773917e-01 5.185626e-01 1.102008e+00 -1.220312e+00 -1.233628e+00 -7.946783e-01 -1.418662e+00 1.131315e+00 -1.053511e+00 -1.138714e+00 2.432377e+00 -9.404462e-02 1.047721e-01 3.070307e-01 -6.835557e-01 7.029947e-01
<VARIANCE> 39
 5.279711e+01 2.179894e+02 1.516811e+02 2.272314e+02 2.392334e+02 4.154151e+02 4.771829e+02 4.324604e+02 5.081582e+02 4.296321e+02 4.858802e+02 4.663336e+02 1.624335e+02 8.055984e+00 1.403177e+01 9.904061e+00 1.839436e+01 1.731205e+01 2.747145e+01 2.573269e+01 3.171581e+01 1.937143e+01 1.638881e+01 1.632655e+01 1.847312e+01 1.934388e+01 1.925585e+00 2.160743e+00 2.807715e+00 3.714022e+00 3.358367e+00 4.450589e+00 5.857734e+00 5.693189e+00 5.186501e+00 3.676900e+00 4.443930e+00 4.153758e+00 1.871253e+00
<GCONST> 1.986405e+02
<MIXTURE> 2 2.353273e-01
<MEAN> 39
 1.595063e+01 1.271972e+01 3.372252e+01 2.494892e+01 2.665035e+00 7.389307e+00 2.058323e+01 -4.052917e+00 -3.341741e+00 7.745166e+00 -1.135584e+01 7.876809e+00 9.706236e+01 -3.162676e+00 -8.100707e-01 -1.890028e+00 -1.435999e+00 3.436555e+00 -1.342279e-01 -1.967363e+00 4.710874e+00 1.318628e+00 7.573918e-02 1.447543e+00 -1.152996e+00 6.746946e-01 -1.840091e+00 -1.810543e+00 -1.632824e+00 -1.953158e+00 -2.795176e-01 -5.312036e-01 -1.360778e+00 9.179437e-01 4.033468e-01 -3.220034e-02 8.627477e-01 5.835443e-02 9.129380e-01
<VARIANCE> 39
 9.137398e+01 1.980365e+02 1.376918e+02 2.222913e+02 2.761471e+02 3.668688e+02 3.734521e+02 3.826344e+02 4.749838e+02 4.612082e+02 4.223036e+02 4.566713e+02 2.402095e+02 4.194862e+01 3.092696e+01 3.034365e+01 3.828310e+01 3.164538e+01 4.183282e+01 4.809239e+01 4.854021e+01 4.401357e+01 3.740852e+01 3.495804e+01 3.832769e+01 4.765531e+01 3.851818e+00 2.699588e+00 2.823462e+00 3.323794e+00 4.428516e+00 4.682329e+00 4.825789e+00 5.718155e+00 5.391908e+00 4.368644e+00 4.343346e+00 4.594196e+00 2.123307e+00
<GCONST> 2.106299e+02
<MIXTURE> 3 2.787032e-01
<MEAN> 39
 2.051065e+01 5.946198e+00 3.462267e+01 1.744751e+01 -9.440219e+00 1.002691e+01 1.907333e+01 -1.673260e+01 -1.326109e+00 6.180233e+00 -9.216711e+00 1.438570e+01 1.042182e+02 -1.401894e+00 -2.248824e+00 -6.454748e-01 -1.753312e+00 1.462983e+00 -2.175903e+00 -1.946697e+00 3.631417e+00 8.994070e-02 -1.016340e+00 -1.019932e-01 -5.798212e-01 1.821735e+00 -1.469471e+00 -1.474812e+00 -1.307137e+00 -1.807967e+00 9.992765e-01 -1.214457e+00 -1.525871e+00 2.517823e+00 2.121932e-02 -7.552496e-02 3.005238e-01 -8.986754e-01 6.362118e-01
<VARIANCE> 39
 6.256997e+01 2.110130e+02 1.518899e+02 2.593528e+02 2.318180e+02 4.089999e+02 4.591528e+02 4.360862e+02 5.023790e+02 4.403118e+02 4.961101e+02 4.750695e+02 1.957108e+02 1.143938e+01 1.605445e+01 1.248987e+01 2.214169e+01 2.058837e+01 3.298841e+01 3.034901e+01 3.798585e+01 2.301218e+01 1.864361e+01 1.879233e+01 2.157179e+01 2.745038e+01 2.447161e+00 2.305794e+00 3.090649e+00 3.881226e+00 3.793914e+00 4.937023e+00 6.034845e+00 6.669571e+00 5.951007e+00 3.902339e+00 4.755964e+00 4.873505e+00 2.375018e+00
<GCONST> 2.031459e+02
<MIXTURE> 4 2.017351e-01
<MEAN> 39
 1.291961e+01 1.360342e+01 3.273372e+01 2.396162e+01 3.148855e+00 8.683964e+00 1.843459e+01 -5.765579e+00 -4.047627e+00 6.761849e+00 -1.235178e+01 6.780697e+00 9.463333e+01 -5.986515e+00 -2.002286e+00 -4.323997e+00 -2.142602e+00 2.540665e+00 -9.274534e-01 -3.302622e+00 4.490723e+00 -1.835314e-01 -7.255610e-01 7.843789e-01 -2.847106e+00 -8.822682e-01 -2.014986e+00 -2.070267e+00 -1.981094e+00 -2.290507e+00 -1.004162e+00 -1.113303e+00 -1.612976e+00 4.317765e-01 1.456500e-01 -3.022521e-01 7.046708e-01 6.609105e-02 8.915236e-01
<VARIANCE> 39
 9.622522e+01 1.914818e+02 1.296491e+02 2.176595e+02 2.531279e+02 3.376163e+02 3.321149e+02 3.824037e+02 4.032153e+02 4.373946e+02 3.957040e+02 3.891115e+02 2.215614e+02 4.204216e+01 2.796804e+01 2.953579e+01 3.364135e+01 3.034797e+01 3.903983e+01 4.435537e+01 4.512013e+01 4.680103e+01 4.062223e+01 4.313324e+01 4.286165e+01 4.697369e+01 3.499518e+00 2.704749e+00 2.766640e+00 3.129470e+00 4.917488e+00 4.862856e+00 4.852827e+00 6.519068e+00 5.347874e+00 4.704067e+00 4.552409e+00 4.916056e+00 2.665289e+00
<GCONST> 2.102003e+02
<STATE> 4
<NUMMIXES> 4
<MIXTURE> 1 2.026450e-01
<MEAN> 39
 1.321393e+01 -1.669091e+01 2.540042e+01 -6.327633e+00 5.444022e+00 -8.310220e+00 -3.437396e-01 1.821879e+01 2.168161e+00 7.707603e+00 -5.275431e+00 9.479020e+00 1.257866e+02 -9.258469e-01 -5.099252e+00 -4.794182e+00 -5.711920e+00 2.332286e+00 -4.567603e-01 -3.642859e+00 5.937252e+00 2.129336e+00 -2.668678e-01 1.576462e+00 -9.676695e-01 4.516095e+00 3.163703e-01 8.480246e-01 -3.393045e-01 1.462923e+00 -3.519809e-01 1.593475e+00 1.048730e+00 -1.744209e+00 1.151552e-01 -3.290058e-02 1.836210e-01 -1.985690e-01 -1.131017e+00
<VARIANCE> 39
 1.317151e+02 2.345165e+02 2.647206e+02 3.517044e+02 2.840477e+02 3.650707e+02 6.863458e+02 4.335917e+02 3.517293e+02 4.297796e+02 3.320435e+02 3.412991e+02 4.401034e+02 6.467326e+00 2.339964e+01 1.883474e+01 3.636524e+01 2.929143e+01 3.377186e+01 4.400665e+01 4.551567e+01 4.317985e+01 2.752205e+01 2.964982e+01 2.648967e+01 2.227970e+01 9.392692e-01 2.245389e+00 2.990520e+00 4.730725e+00 3.774019e+00 5.778807e+00 7.511430e+00 6.761566e+00 4.889267e+00 4.021220e+00 3.906901e+00 3.542381e+00 1.884881e+00
<GCONST> 2.068049e+02
<MIXTURE> 2 3.291045e-01
<MEAN> 39
 -4.064043e+00 3.475643e+00 1.773576e+01 2.207382e+01 7.365733e+00 7.670634e+00 1.732569e+01 1.052190e+01 2.329878e+00 3.706569e+00 -7.385168e+00 3.418477e+00 7.976707e+01 -4.363722e+00 -1.226463e+00 -3.728702e+00 -2.191533e+00 -3.587531e-01 -9.801488e-01 -2.085388e+00 1.232552e+00 6.983524e-01 -3.538694e-01 1.226812e+00 -4.214436e-01 -2.219019e+00 3.451488e-01 -5.213722e-02 1.729228e-01 -5.964760e-01 -6.081015e-01 -5.167686e-01 -4.480114e-01 -7.860354e-01 -3.605164e-01 1.589606e-01 5.621334e-03 3.610240e-01 7.393116e-01
<VARIANCE> 39
 1.201174e+02 1.494070e+02 1.864300e+02 2.362144e+02 2.192075e+02 2.490719e+02 3.145253e+02 3.252742e+02 3.113372e+02 3.202644e+02 2.420809e+02 2.256297e+02 2.581147e+02 2.313753e+01 1.507083e+01 1.626338e+01 1.788398e+01 1.778987e+01 2.061904e+01 2.181312e+01 2.493188e+01 2.432253e+01 2.052373e+01 2.200498e+01 1.903324e+01 1.172736e+01 1.774801e+00 2.611301e+00 2.543747e+00 3.132859e+00 3.437903e+00 3.613221e+00 3.854375e+00 4.155836e+00 4.055331e+00 3.541499e+00 3.461045e+00 3.257479e+00 2.001051e+00
<GCONST> 1.957063e+02
<MIXTURE> 3 2.557178e-01
<MEAN> 39
 -8.287154e+00 2.545321e+00 1.562564e+01 1.844967e+01 5.392909e+00 8.058299e+00 1.497067e+01 8.951036e+00 3.302332e-01 2.342936e+00 -6.813047e+00 2.737672e+00 7.970186e+01 -6.648520e+00 -3.171093e+00 -6.094123e+00 -4.108230e+00 -2.259730e+00 -3.035375e+00 -4.380541e+00 -2.172556e-01 -1.100919e+00 -1.442548e+00 2.702365e-01 -1.642473e+00 -2.525213e+00 4.903963e-01 -1.326544e-01 5.744395e-02 -7.672641e-01 -1.083701e+00 -8.260180e-01 -7.653754e-01 -1.330340e+00 -4.607570e-01 -1.740294e-01 -1.661448e-01 5.003686e-01 8.733225e-01
<VARIANCE> 39
 1.117211e+02 1.529116e+02 1.789059e+02 2.120481e+02 2.098372e+02 2.335517e+02 2.878164e+02 3.152070e+02 2.779363e+02 3.028716e+02 2.293124e+02 2.016525e+02 2.708588e+02 2.751645e+01 1.539956e+01 1.777381e+01 1.680539e+01 1.758377e+01 2.092863e+01 2.418863e+01 2.676806e+01 2.553306e+01 2.211044e+01 2.530260e+01 2.175049e+01 1.508416e+01 1.904025e+00 2.932807e+00 2.629411e+00 3.218011e+00 3.955695e+00 3.906110e+00 4.219201e+00 4.467584e+00 4.358891e+00 4.184342e+00 4.120848e+00 3.964958e+00 2.795095e+00
<GCONST> 1.976106e+02
<MIXTURE> 4 2.124967e-01
<MEAN> 39
 8.727741e+00 -1.676121e+01 2.349856e+01 -5.063551e+00 2.200077e+00 -1.135123e+01 -3.286038e+00 1.644318e+01 1.072708e-01 4.937356e+00 -7.225572e+00 7.323031e+00 1.195435e+02 -1.820534e+00 -4.865628e+00 -5.305439e+00 -6.025187e+00 1.249851e+00 -1.997115e+00 -4.176854e+00 5.918709e+00 2.053637e+00 -1.197173e+00 8.045416e-01 -1.900483e+00 3.518161e+00 1.769077e-01 8.553113e-01 -5.490309e-01 1.404014e+00 -3.703008e-01 1.741776e+00 1.109708e+00 -1.703754e+00 8.661382e-02 -1.218131e-01 2.232094e-02 -5.017202e-01 -1.203277e+00
<VARIANCE> 39
 1.654429e+02 1.901196e+02 2.910187e+02 3.303825e+02 2.840003e+02 3.495410e+02 6.039111e+02 4.012812e+02 3.600628e+02 4.762672e+02 3.317461e+02 3.303460e+02 6.067280e+02 8.054644e+00 2.359411e+01 1.922097e+01 3.531083e+01 3.177510e+01 3.806443e+01 4.248320e+01 5.251551e+01 4.693444e+01 2.931384e+01 2.965668e+01 3.123890e+01 3.478477e+01 1.170761e+00 2.257455e+00 3.378984e+00 4.429420e+00 3.920759e+00 5.868784e+00 7.273835e+00 6.557756e+00 5.049932e+00 4.290891e+00 4.136756e+00 3.759685e+00 2.076921e+00
<GCONST> 2.088882e+02
<TRANSP> 5
 0.000000e+00 1.000000e+00 0.000000e+00 0.000000e+00 0.000000e+00
 0.000000e+00 6.348388e-01 3.651612e-01 0.000000e+00 0.000000e+00
 0.000000e+00 0.000000e+00 6.154670e-01 3.845330e-01 0.000000e+00
 0.000000e+00 0.000000e+00 0.000000e+00 6.538041e-01 3.461959e-01
 0.000000e+00 0.000000e+00 0.000000e+00 0.000000e+00 0.000000e+00
<ENDHMM>
~h "r"
<BEGINHMM>
<NUMSTATES> 5
<STATE> 2
<NUMMIXES> 4
<MIXTURE> 1 3.023041e-01
<MEAN> 39
 3.700965e+01 -1.869953e+01 -5.699015e+00 3.486613e+00 2.538220e+01 -2.970473e+01 -2.813190e+01 5.428009e+00 -6.070046e+00 7.287316e+00 2.230016e+00 9.580281e+00 1.278965e+02 9.663511e-01 3.649572e-02 -3.102298e+00 -1.111475e+00 1.054570e+00 3.998722e-01 -5.143707e-01 2.034756e-01 1.163261e+00 1.132078e+00 7.790238e-01 5.608584e-01 -2.667966e-01 -7.059124e-01 -1.277250e-01 1.441058e+00 -2.079149e-01 -1.356712e+00 4.359175e-02 1.245106e+00 3.363079e-01 -5.328550e-01 -3.526813e-02 2.429808e-01 4.270055e-02 2.758862e-01
<VARIANCE> 39
 6.052670e+01 1.728352e+02 4.526803e+02 2.677397e+02 3.730924e+02 7.830041e+02 1.086547e+03 3.827289e+02 3.192090e+02 3.377982e+02 2.436727e+02 1.848280e+02 1.690477e+02 3.475044e+00 4.699638e+00 1.553828e+01 1.041658e+01 1.557598e+01 1.514560e+01 1.521251e+01 1.525173e+01 1.407816e+01 1.104294e+01 1.128815e+01 1.044335e+01 3.240228e+00 3.059869e-01 6.767562e-01 8.897083e-01 1.196375e+00 1.357507e+00 2.697915e+00 1.847061e+00 2.281711e+00 1.858969e+00 1.736685e+00 1.731265e+00 1.552171e+00 3.678121e-01
<GCONST> 1.777612e+02
<MIXTURE> 2 1.952436e-01
<MEAN> 39
 3.831876e+01 -1.385750e+01 -9.178991e+00 1.474672e+00 2.706524e+01 -1.106029e+01 -3.196856e+01 -1.807049e+00 -9.727439e+00 4.938015e+00 2.895457e+00 7.277713e+00 1.247027e+02 3.268792e-01 -1.625741e+00 -3.706493e-01 1.712451e+00 1.672705e+00 -3.099566e+00 -2.074007e+00 1.570311e+00 2.249519e+00 7.452680e-01 -2.707535e-01 -3.459131e-02 5.126046e-01 -1.635667e+00 6.474978e-03 2.339586e+00 4.251841e-01 -2.236313e+00 -6.622733e-01 1.955814e+00 1.216087e+00 -7.414860e-02 -4.238777e-01 -3.005193e-01 1.802574e-01 6.410471e-02
<VARIANCE> 39
 6.844145e+01 1.838608e+02 4.716616e+02 4.036576e+02 4.284995e+02 7.815716e+02 8.623875e+02 4.392170e+02 3.314215e+02 4.524176e+02 2.872667e+02 2.524438e+02 1.628961e+02 7.765190e+00 1.181131e+01 2.914953e+01 2.418263e+01 2.222317e+01 4.335364e+01 2.758619e+01 3.332363e+01 2.553582e+01 2.320921e+01 1.821414e+01 1.808286e+01 1.035609e+01 1.996961e+00 1.998164e+00 2.887454e+00 3.098633e+00 4.131982e+00 6.040449e+00 5.820497e+00 4.461359e+00 4.397330e+00 4.297455e+00 3.641048e+00 3.498276e+00 1.225357e+00
<GCONST> 2.020695e+02
<MIXTURE> 3 3.101951e-01
<MEAN> 39
 3.548255e+01 -2.009103e+01 -3.091347e+00 3.223974e+00 2.402751e+01 -2.783807e+01 -3.068168e+01 4.978819e+00 -7.951856e+00 5.158903e+00 1.721606e+00 7.268405e+00 1.280027e+02 1.008524e+00 -4.739248e-02 -3.170111e+00 -1.265707e+00 1.218227e+00 2.812569e-01 -1.003602e+00 -1.501223e-01 9.286532e-01 1.019242e+00 4.394829e-01 1.413395e-01 -2.459255e-01 -6.901039e-01 -1.283767e-01 1.366995e+00 -2.415782e-01 -1.384130e+00 5.462154e-02 1.058691e+00 3.234783e-01 -5.103918e-01 -3.267733e-02 1.287178e-01 -6.967953e-02 2.673704e-01
<VARIANCE> 39
 6.361144e+01 1.789034e+02 4.963495e+02 2.997025e+02 3.728777e+02 8.361246e+02 1.097460e+03 3.952140e+02 3.144544e+02 3.693420e+02 2.535128e+02 1.895535e+02 1.643276e+02 3.612044e+00 4.704423e+00 1.562922e+01 1.009474e+01 1.543810e+01 1.513861e+01 1.526001e+01 1.576187e+01 1.379546e+01 1.123435e+01 1.108153e+01 1.028584e+01 3.162534e+00 3.214744e-01 6.782433e-01 8.803158e-01 1.232247e+00 1.311662e+00 2.643709e+00 1.907387e+00 2.330401e+00 1.868391e+00 1.804493e+00 1.731215e+00 1.536891e+00 3.770801e-01
<GCONST> 1.783754e+02
<MIXTURE> 4 1.922196e-01
<MEAN> 39
 3.669118e+01 -1.622621e+01 -6.200101e+00 1.024488e+00 2.650130e+01 -9.331472e+00 -3.548076e+01 -2.924573e+00 -1.073225e+01 3.662024e+00 2.200788e+00 4.766973e+00 1.246618e+02 8.366787e-02 -2.075287e+00 2.124706e-01 1.675703e+00 1.263628e+00 -3.622586e+00 -2.905301e+00 1.711425e+00 1.884584e+00 2.729134e-01 -8.916619e-01 -8.218827e-01 8.063266e-01 -1.662833e+00 2.007080e-03 2.160671e+00 3.406898e-01 -2.362154e+00 -7.487112e-01 1.860256e+00 1.244480e+00 -1.631275e-01 -5.570444e-01 -3.592609e-01 1.065457e-01 -5.193578e-02
<VARIANCE> 39
 6.977946e+01 1.922194e+02 4.907651e+02 4.333537e+02 4.226585e+02 7.654646e+02 8.993151e+02 4.466336e+02 3.382273e+02 4.917616e+02 2.903586e+02 2.607050e+02 1.691409e+02 8.234735e+00 1.161025e+01 3.008752e+01 2.476839e+01 2.167892e+01 3.996469e+01 2.638416e+01 3.345158e+01 2.664647e+01 2.365186e+01 1.850986e+01 1.819031e+01 1.053949e+01 2.437694e+00 2.017236e+00 2.713630e+00 3.160421e+00 3.905926e+00 5.710258e+00 6.156838e+00 4.387652e+00 4.323485e+00 4.496614e+00 3.686274e+00 3.607609e+00 1.248404e+00
<GCONST> 2.026874e+02
<STATE> 3
<NUMMIXES> 4
<MIXTURE> 1 3.112181e-01
<MEAN> 39
 3.409298e+01 -2.523139e+01 3.601455e+00 6.248011e+00 1.869972e+01 -3.602167e+01 -2.644681e+01 1.526915e+01 -6.488184e+00 4.801721e+00 1.735616e+00 1.128172e+01 1.313635e+02 -2.343706e+00 -1.363723e+00 4.808474e+00 -2.416229e-01 -5.361354e+00 -2.558811e+00 5.338461e+00 3.510633e+00 -2.335690e+00 -7.307745e-01 1.762987e+00 8.689951e-01 1.416261e+00 -7.286844e-01 8.507238e-01 1.167695e+00 -7.405047e-01 -1.033490e+00 1.879118e+00 1.742600e+00 -1.495852e+00 -1.029461e+00 6.442472e-01 4.076003e-01 -5.507883e-01 -3.188440e-01
<VARIANCE> 39
 5.721277e+01 1.478901e+02 4.682999e+02 3.130222e+02 3.866148e+02 7.264258e+02 1.059702e+03 3.503779e+02 3.295820e+02 4.092632e+02 2.867733e+02 2.349891e+02 1.491945e+02 3.659467e+00 5.694571e+00 2.251539e+01 1.475740e+01 1.553242e+01 2.406387e+01 2.144496e+01 1.975437e+01 2.042067e+01 1.971469e+01 1.802327e+01 1.270141e+01 4.352098e+00 6.261377e-01 7.708393e-01 1.610140e+00 1.351605e+00 2.683486e+00 3.269241e+00 2.999266e+00 2.801366e+00 2.312313e+00 2.196845e+00 2.198047e+00 2.350359e+00 2.508321e-01
<GCONST> 1.858728e+02
<MIXTURE> 2 1.990154e-01
<MEAN> 39
 3.254078e+01 -2.068757e+01 2.612931e+00 1.036689e+01 2.047814e+01 -2.709974e+01 -2.748136e+01 1.301331e+01 -4.744785e+00 3.581995e+00 -2.331855e+00 6.241139e+00 1.282285e+02 -4.493949e+00 1.119296e-01 8.439175e+00 4.702149e+00 -4.626733e+00 -2.346876e+00 4.899324e+00 3.642488e+00 2.577950e-02 -2.400144e+00 -5.197611e-01 -2.956029e-02 -9.071344e-01 -1.987081e+00 1.697289e+00 1.337800e+00 -1.065637e+00 -1.561613e+00 2.888313e+00 2.837633e+00 -1.260349e+00 -1.159276e+00 2.493526e-01 4.233395e-01 2.435140e-01 -1.017930e+00
<VARIANCE> 39
 7.540982e+01 2.204301e+02 5.773539e+02 4.493897e+02 4.618905e+02 8.352238e+02 1.007246e+03 4.818349e+02 4.308990e+02 5.743970e+02 2.664454e+02 2.632131e+02 1.876359e+02 9.477336e+00 1.638053e+01 2.869121e+01 2.808748e+01 4.118254e+01 5.382071e+01 5.038172e+01 4.819095e+01 5.694009e+01 4.038271e+01 2.799821e+01 2.520482e+01 1.889672e+01 3.141305e+00 3.502236e+00 4.044343e+00 4.064403e+00 6.134021e+00 8.805139e+00 7.212679e+00 8.264538e+00 6.268729e+00 6.990173e+00 4.114181e+00 4.511021e+00 1.552506e+00
<GCONST> 2.135190e+02
<MIXTURE> 3 3.171043e-01
<MEAN> 39
 3.205877e+01 -2.817938e+01 7.866107e+00 7.573993e+00 1.695103e+01 -3.701602e+01 -2.869564e+01 1.447863e+01 -7.544768e+00 2.566479e+00 4.728547e-01 8.171252e+00 1.315653e+02 -2.779335e+00 -1.694150e+00 5.711205e+00 -1.545499e-01 -5.788985e+00 -3.095713e+00 5.223585e+00 3.690894e+00 -2.767417e+00 -1.100823e+00 1.128388e+00 1.220132e-01 1.617815e+00 -6.885106e-01 9.439616e-01 1.048162e+00 -8.653241e-01 -9.888236e-01 1.991179e+00 1.669178e+00 -1.562837e+00 -1.070932e+00 6.142445e-01 2.486462e-01 -5.666963e-01 -4.041826e-01
<VARIANCE> 39
 5.943863e+01 1.399482e+02 4.757541e+02 3.219770e+02 3.617443e+02 7.175664e+02 1.111876e+03 3.637472e+02 3.367206e+02 4.481619e+02 2.813249e+02 2.205951e+02 1.320611e+02 3.895767e+00 5.262873e+00 2.456576e+01 1.358874e+01 1.637292e+01 2.396315e+01 2.191730e+01 2.036288e+01 2.054156e+01 1.858396e+01 1.642549e+01 1.223737e+01 3.904667e+00 6.317112e-01 7.435508e-01 1.496027e+00 1.359327e+00 2.523054e+00 3.361190e+00 2.969009e+00 2.897731e+00 2.372787e+00 2.248226e+00 2.108672e+00 2.145514e+00 2.705801e-01
<GCONST> 1.854985e+02
<MIXTURE> 4 1.726475e-01
<MEAN> 39
 3.037328e+01 -2.206904e+01 2.461998e+00 9.051143e+00 1.975617e+01 -2.621385e+01 -3.182354e+01 9.654946e+00 -7.335342e+00 2.420593e+00 -2.916608e+00 5.501578e+00 1.279142e+02 -5.515596e+00 -5.625771e-01 8.194549e+00 4.233007e+00 -5.197676e+00 -3.267552e+00 4.715909e+00 2.928705e+00 1.399441e-01 -1.696876e+00 -9.170239e-01 -1.536813e+00 -1.233581e+00 -2.131644e+00 1.685706e+00 1.074905e+00 -1.281585e+00 -1.935222e+00 2.536745e+00 2.669346e+00 -9.664534e-01 -1.086267e+00 5.505759e-02 2.732926e-01 -9.599739e-02 -1.304620e+00
<VARIANCE> 39
 7.712721e+01 2.278786e+02 6.088734e+02 4.713842e+02 4.738725e+02 8.578777e+02 1.037738e+03 4.864550e+02 4.587881e+02 5.634267e+02 2.769275e+02 2.796461e+02 2.044835e+02 1.313562e+01 1.629249e+01 3.310427e+01 3.058671e+01 4.253319e+01 5.020283e+01 5.279196e+01 5.197233e+01 6.087800e+01 3.711848e+01 3.081472e+01 2.745779e+01 2.622088e+01 3.493886e+00 3.541637e+00 3.856835e+00 4.132934e+00 5.987046e+00 8.794334e+00 7.728130e+00 8.257370e+00 6.799849e+00 7.226334e+00 4.530148e+00 4.586198e+00 2.404655e+00
<GCONST> 2.159164e+02
<STATE> 4
<NUMMIXES> 4
<MIXTURE> 1 2.668836e-01
<MEAN> 39
 2.361422e+01 -2.548180e+01 2.658654e+01 4.936185e+00 -7.366537e-01 -3.641959e+01 -5.840056e+00 1.503977e+01 -2.164550e+01 7.062461e+00 7.073454e+00 7.551476e+00 1.346943e+02 -3.376115e+00 1.759878e+00 5.905143e+00 -3.748742e+00 -5.064115e+00 4.194629e+00 6.234726e+00 -3.545365e+00 -2.320209e+00 3.227114e+00 3.139235e-01 -1.423148e+00 5.319993e-01 5.699006e-02 1.079906e+00 -6.269209e-01 -6.827454e-01 1.301752e+00 1.911779e+00 -1.241125e+00 -1.572237e+00 1.388062e+00 4.180947e-01 -1.027746e+00 -5.208987e-02 -5.761743e-01
<VARIANCE> 39
 1.231816e+02 1.645295e+02 8.415678e+02 3.647911e+02 3.218394e+02 6.202924e+02 9.717465e+02 4.080199e+02 4.807924e+02 5.373686e+02 2.824123e+02 2.518657e+02 1.567363e+02 5.194653e+00 6.764796e+00 2.364760e+01 1.054771e+01 1.642908e+01 1.804871e+01 2.131276e+01 2.727654e+01 2.077814e+01 1.657957e+01 1.706748e+01 1.288756e+01 2.742345e+00 4.435531e-01 8.845963e-01 1.761050e+00 1.644112e+00 2.230701e+00 3.499475e+00 3.626159e+00 2.972703e+00 3.219104e+00 2.586409e+00 1.992093e+00 2.110357e+00 2.755945e-01
<GCONST> 1.882192e+02
<MIXTURE> 2 2.417063e-01
<MEAN> 39
 1.387541e+01 -1.176695e+01 -5.767285e+00 1.471455e+01 1.795985e+01 -7.550420e+00 -5.930146e-01 1.738187e+01 7.302770e+00 5.341253e+00 -1.718068e+00 4.864359e+00 9.662899e+01 -5.420643e+00 1.072380e+00 3.269380e+00 2.521856e+00 -1.201542e+00 3.289176e+00 3.141197e+00 4.502605e-01 8.687667e-01 -8.055310e-01 -2.497859e-01 -2.457173e-01 -4.086689e+00 -3.517955e-01 6.434880e-02 -5.140908e-01 -1.041408e+00 -9.587032e-02 1.201170e-01 -2.594202e-01 -3.723924e-01 -6.114364e-01 3.171368e-01 3.088328e-01 1.451401e-01 1.458698e-01
<VARIANCE> 39
 2.439677e+02 1.863123e+02 4.035923e+02 2.940956e+02 3.763416e+02 4.627700e+02 4.938988e+02 4.307469e+02 3.361544e+02 2.790970e+02 2.492352e+02 2.613840e+02 3.686542e+02 2.312846e+01 2.399092e+01 1.990891e+01 2.684304e+01 2.662658e+01 3.570272e+01 3.440254e+01 2.959275e+01 2.799206e+01 2.439763e+01 2.108910e+01 2.070960e+01 1.024086e+01 3.161896e+00 3.369546e+00 3.709872e+00 4.221247e+00 4.034991e+00 5.071500e+00 4.396686e+00 4.429216e+00 4.535615e+00 4.213056e+00 3.677148e+00 3.534528e+00 1.683669e+00
<GCONST> 2.053204e+02
<MIXTURE> 3 2.824974e-01
<MEAN> 39
 2.178440e+01 -2.758584e+01 2.886916e+01 4.924755e+00 -3.232973e+00 -3.786449e+01 -6.123100e+00 1.431940e+01 -2.332022e+01 4.528428e+00 6.670917e+00 5.082965e+00 1.348545e+02 -3.513318e+00 1.656425e+00 6.248331e+00 -3.856029e+00 -5.390043e+00 4.066179e+00 6.113187e+00 -3.752874e+00 -2.863172e+00 3.007396e+00 -9.050082e-02 -2.130149e+00 4.816531e-01 8.184551e-02 1.100750e+00 -6.797594e-01 -6.799666e-01 1.354796e+00 1.884186e+00 -1.372633e+00 -1.603187e+00 1.422354e+00 3.618194e-01 -1.179296e+00 -1.631885e-01 -6.293677e-01
<VARIANCE> 39
 1.228115e+02 1.558678e+02 7.932465e+02 3.616469e+02 3.151827e+02 6.353500e+02 9.689396e+02 4.009450e+02 4.814910e+02 5.199514e+02 2.778656e+02 2.420057e+02 1.692948e+02 4.769669e+00 6.046003e+00 2.251168e+01 9.948759e+00 1.686067e+01 1.777971e+01 2.009094e+01 2.683051e+01 2.057837e+01 1.584992e+01 1.652449e+01 1.235543e+01 2.944337e+00 4.426734e-01 8.152069e-01 1.585275e+00 1.569140e+00 2.181358e+00 3.438655e+00 3.431022e+00 2.870003e+00 3.056248e+00 2.563829e+00 1.988384e+00 2.011810e+00 2.858310e-01
<GCONST> 1.871986e+02
<MIXTURE> 4 2.088943e-01
<MEAN> 39
 4.745326e+00 -1.431943e+01 -5.182466e+00 1.576619e+01 1.768739e+01 -3.402869e+00 1.821878e+00 1.789189e+01 5.655607e+00 4.188106e+00 -2.748041e+00 2.957922e+00 9.147439e+01 -7.354381e+00 -6.660756e-01 1.346131e+00 -2.961040e-01 -3.523538e+00 1.076869e+00 8.109835e-01 -1.581992e+00 -6.180885e-01 -1.401308e+00 -1.305290e+00 -1.673599e+00 -4.505800e+00 2.162311e-01 1.660364e-01 -8.451113e-01 -1.428694e+00 -6.289762e-01 -6.573520e-01 -9.405282e-01 -7.860574e-01 -7.977543e-01 1.040606e-02 6.898773e-02 -2.076020e-02 1.989728e-01
<VARIANCE> 39
 2.207632e+02 2.017586e+02 3.516311e+02 2.732605e+02 3.439894e+02 4.252416e+02 4.928253e+02 4.341721e+02 3.344564e+02 2.750108e+02 2.337872e+02 2.588671e+02 3.322658e+02 3.170521e+01 2.458777e+01 2.371899e+01 2.977360e+01 2.744791e+01 3.604795e+01 3.703246e+01 2.821523e+01 2.835985e+01 2.267967e+01 2.163498e+01 1.989813e+01 1.521199e+01 3.199275e+00 3.512609e+00 3.840706e+00 4.639268e+00 4.205085e+00 5.691893e+00 4.765395e+00 4.765851e+00 4.715172e+00 4.182797e+00 3.740249e+00 3.820409e+00 1.889388e+00
<GCONST> 2.064633e+02
<TRANSP> 5
 0.000000e+00 1.000000e+00 0.000000e+00 0.000000e+00 0.000000e+00
 0.000000e+00 7.474500e-01 2.525500e-01 0.000000e+00 0.000000e+00
 0.000000e+00 0.000000e+00 5.108759e-01 4.891241e-01 0.000000e+00
 0.000000e+00 0.000000e+00 0.000000e+00 6.405744e-01 3.594256e-01
 0.000000e+00 0.000000e+00 0.000000e+00 0.000000e+00 0.000000e+00
<ENDHMM>
~h "s"
<BEGINHMM>
<NUMSTATES> 5
<STATE> 2
<NUMMIXES> 4
<MIXTURE> 1 1.618384e-01
<MEAN> 39
 -6.567872e+00 4.414065e+00 2.285664e+01 6.640559e+00 9.688452e+00 -1.128027e+01 -4.902843e+00 -1.706394e+00 -1.245676e+00 2.755374e+00 -8.811650e+00 7.266141e+00 1.117057e+02 -1.010949e+01 4.960058e+00 -2.310709e+00 3.045119e+00 1.070679e+00 1.054145e+00 3.268175e+00 3.028949e+00 1.940957e+00 -1.543704e+00 1.188849e+00 1.230157e+00 -8.415371e-01 -2.145326e+00 -3.152863e-01 -2.263972e+00 -9.745510e-01 -7.763626e-01 3.069153e-01 2.669469e-01 7.157040e-01 -6.533601e-01 4.827926e-01 8.917829e-01 -1.814316e-01 1.248776e-01
<VARIANCE> 39
 5.494700e+02 2.047027e+02 4.305352e+02 3.713982e+02 3.243150e+02 3.866988e+02 3.856816e+02 3.711015e+02 4.288939e+02 3.186075e+02 2.479539e+02 3.652719e+02 4.983945e+02 5.883224e+01 2.748233e+01 4.190686e+01 5.756150e+01 3.513383e+01 5.860038e+01 3.535105e+01 3.670695e+01 4.506313e+01 3.738305e+01 3.314761e+01 2.931102e+01 2.652795e+01 6.892314e+00 4.381557e+00 5.700069e+00 6.466138e+00 5.279724e+00 5.958164e+00 5.956719e+00 5.724147e+00 5.600838e+00 5.756201e+00 4.599466e+00 5.101315e+00 2.228439e+00
<GCONST> 2.173351e+02
<MIXTURE> 2 3.553189e-01
<MEAN> 39
 -4.257744e+01 4.483488e+00 6.876831e-02 6.920356e+00 -1.702018e+00 -9.868648e+00 5.060116e-01 8.370354e+00 -2.692185e+00 1.713701e+00 -3.046547e+00 6.436728e+00 1.029584e+02 -7.859739e+00 2.142396e+00 -3.495734e+00 -1.846762e+00 -1.083425e+00 2.890327e-01 1.096726e+00 1.295877e+00 -2.590018e-01 1.699288e-01 1.047136e+00 9.351754e-01 1.894185e+00 1.795835e+00 -1.938280e-01 -1.348142e-01 -2.569787e-01 1.877363e-01 5.943369e-01 -4.589875e-01 -8.059790e-01 -2.917821e-01 3.245132e-01 -1.172431e-01 -1.207685e-01 -8.770828e-01
<VARIANCE> 39
 2.441680e+02 2.407814e+02 2.431912e+02 2.823991e+02 4.050154e+02 3.539823e+02 2.781277e+02 2.082094e+02 1.942688e+02 1.776675e+02 1.839704e+02 1.447791e+02 3.821384e+02 3.797363e+01 1.755169e+01 3.914239e+01 2.091121e+01 2.084025e+01 2.221922e+01 2.275622e+01 1.976266e+01 1.964339e+01 1.727593e+01 1.617838e+01 1.626376e+01 2.649413e+01 4.945810e+00 4.235770e+00 3.640199e+00 4.322140e+00 4.811743e+00 5.333426e+00 4.547038e+00 4.224613e+00 4.218774e+00 3.665120e+00 3.651505e+00 3.142886e+00 3.529832e+00
<GCONST> 2.017917e+02
<MIXTURE> 3 3.100277e-01
<MEAN> 39
 -4.258305e+01 4.213214e+00 -1.491577e-01 7.201804e+00 -1.938593e+00 -9.453525e+00 -3.077428e-01 7.004246e+00 -3.412395e+00 1.316604e+00 -3.399347e+00 5.713711e+00 1.032743e+02 -8.916392e+00 8.306869e-01 -4.873658e+00 -3.037701e+00 -2.604898e+00 -9.209104e-01 -4.250976e-01 1.284648e-01 -1.595847e+00 -8.513175e-01 -2.402175e-02 -1.674724e-01 1.464784e+00 1.949723e+00 -3.774090e-01 -2.656540e-01 -5.840809e-01 -1.362581e-01 2.818564e-01 -6.882671e-01 -1.065107e+00 -4.034362e-01 1.424807e-01 -2.837375e-01 -1.152615e-01 -9.083390e-01
<VARIANCE> 39
 2.240175e+02 2.470947e+02 2.398205e+02 2.924395e+02 3.953914e+02 3.792300e+02 2.914565e+02 2.154458e+02 1.962319e+02 1.739945e+02 1.868603e+02 1.475822e+02 3.334942e+02 3.563490e+01 1.947560e+01 4.461834e+01 2.115689e+01 2.147295e+01 2.302308e+01 2.478073e+01 2.098977e+01 1.992023e+01 1.781228e+01 1.673346e+01 1.808513e+01 2.624013e+01 5.099572e+00 4.397000e+00 3.706450e+00 4.595545e+00 5.007885e+00 5.874997e+00 4.776126e+00 4.292888e+00 4.253435e+00 3.741598e+00 3.854452e+00 3.305430e+00 3.333517e+00
<GCONST> 2.027602e+02
<MIXTURE> 4 1.728007e-01
<MEAN> 39
 -1.780764e+01 4.694594e+00 1.874525e+01 7.148342e+00 9.017854e+00 -9.513109e+00 -6.206066e+00 3.388490e-01 -3.260439e+00 1.955214e+00 -9.072150e+00 3.673848e+00 1.056252e+02 -1.111758e+01 3.153315e+00 -3.844634e+00 7.138427e-02 -1.412395e-01 -4.162188e-01 1.701924e+00 1.749278e+00 1.238483e+00 -1.444609e+00 2.025778e-01 2.564500e-01 -5.224115e-01 -1.041224e+00 -6.120414e-01 -2.152049e+00 -1.437011e+00 -9.131900e-01 -1.032959e-01 -2.946261e-01 1.716678e-01 -7.859599e-01 2.640547e-01 6.246799e-01 -5.621316e-02 3.761271e-02
<VARIANCE> 39
 5.007176e+02 2.314593e+02 4.088934e+02 3.716061e+02 3.561735e+02 3.402188e+02 3.853171e+02 3.639035e+02 3.715312e+02 3.088954e+02 2.465428e+02 3.239469e+02 5.092776e+02 7.562374e+01 2.647497e+01 4.497624e+01 5.293913e+01 3.681020e+01 5.682830e+01 3.612511e+01 3.991864e+01 4.663244e+01 3.296436e+01 3.118278e+01 2.936786e+01 3.244721e+01 8.321721e+00 5.057814e+00 5.997434e+00 6.844071e+00 5.857981e+00 6.408866e+00 6.266700e+00 6.533786e+00 6.167185e+00 6.221670e+00 4.798917e+00 5.181050e+00 2.621438e+00
<GCONST> 2.185473e+02
<STATE> 3
<NUMMIXES> 4
<MIXTURE> 1 2.508515e-01
<MEAN> 39
 -5.550793e+01 7.265871e+00 -7.695324e+00 -2.031153e+00 -2.029880e+00 -1.549836e+01 -2.701413e+00 6.419925e+00 -5.255330e+00 3.420998e-02 -5.560579e+00 7.945228e+00 1.095414e+02 -1.937930e+00 2.585871e+00 -1.909665e+00 -1.662240e-01 8.539021e-01 2.451674e+00 1.381651e+00 2.699552e-01 2.428042e-01 1.091927e+00 7.687553e-01 4.427595e-01 1.693371e-01 2.291318e+00 -6.590514e-01 5.842866e-01 8.038580e-01 6.720843e-01 7.260545e-01 -7.979884e-02 -1.700763e-01 3.585954e-01 5.592696e-01 1.283212e-01 -3.038595e-01 -7.359627e-01
<VARIANCE> 39
 1.329245e+02 1.388647e+02 1.780184e+02 2.904895e+02 3.919986e+02 2.786061e+02 1.995832e+02 2.013970e+02 1.645027e+02 1.582059e+02 1.727280e+02 1.390325e+02 1.931038e+02 1.333161e+01 1.004111e+01 1.031690e+01 1.316668e+01 1.284214e+01 1.656763e+01 1.513233e+01 1.525705e+01 1.411706e+01 1.333223e+01 1.273532e+01 1.151030e+01 1.115340e+01 2.294704e+00 1.955820e+00 2.623244e+00 2.616498e+00 3.196055e+00 2.999258e+00 3.284039e+00 3.479917e+00 2.866602e+00 2.885517e+00 2.596148e+00 2.473598e+00 1.731238e+00
<GCONST> 1.859656e+02
<MIXTURE> 2 2.322309e-01
<MEAN> 39
 -5.307147e+01 1.099152e+01 -1.096628e+01 3.011722e+00 -3.784639e+00 -6.896357e+00 1.137830e+00 4.125330e+00 -5.094431e+00 3.113964e+00 -1.030254e+00 6.003966e+00 1.087353e+02 -3.630720e+00 -2.710299e-01 -4.912456e+00 -1.583060e+00 -2.007771e+00 -4.173254e-01 -1.679558e+00 -6.663083e-01 -7.027113e-01 6.240033e-02 -2.230321e-02 3.533437e-01 8.449644e-02 3.074316e+00 -2.400504e-01 1.982669e+00 8.574242e-01 5.881108e-01 4.356103e-01 4.736320e-02 -1.756589e-01 1.389060e-01 7.790729e-02 -4.529948e-01 1.163992e-01 -1.530230e-01
<VARIANCE> 39
 1.254235e+02 1.429260e+02 1.839715e+02 2.654468e+02 3.273774e+02 2.754397e+02 1.907696e+02 1.699964e+02 1.653669e+02 1.506385e+02 1.623978e+02 1.292460e+02 1.608491e+02 1.611567e+01 1.633448e+01 1.747996e+01 1.620218e+01 1.644596e+01 1.898829e+01 1.800477e+01 1.554996e+01 1.441645e+01 1.394293e+01 1.320457e+01 1.284785e+01 1.009193e+01 2.508149e+00 2.387307e+00 3.752601e+00 3.220575e+00 3.166765e+00 3.294148e+00 3.620644e+00 3.557860e+00 3.421005e+00 3.108852e+00 3.025958e+00 3.087053e+00 1.546450e+00
<GCONST> 1.887827e+02
<MIXTURE> 3 3.313435e-01
<MEAN> 39
 -5.581656e+01 5.591155e+00 -8.107717e+00 -3.516503e+00 -2.582377e+00 -1.656107e+01 -4.323742e+00 4.456064e+00 -5.750834e+00 -7.251729e-01 -6.473169e+00 7.224582e+00 1.068183e+02 -2.594614e+00 2.178379e+00 -2.508695e+00 -1.099695e+00 -6.526661e-02 1.551239e+00 3.043562e-01 -7.927808e-01 -8.326941e-01 -3.718002e-02 -2.175481e-01 -3.526052e-01 3.712431e-01 2.159551e+00 -8.231323e-01 2.172240e-01 5.601036e-01 4.147956e-01 4.766102e-01 -3.698524e-01 -3.641294e-01 1.412008e-01 3.795496e-01 5.511355e-03 -4.475761e-01 -8.932677e-01
<VARIANCE> 39
 1.250308e+02 1.327806e+02 1.756865e+02 2.890299e+02 3.941590e+02 2.672884e+02 2.034406e+02 2.042121e+02 1.731324e+02 1.584441e+02 1.730599e+02 1.394958e+02 1.912430e+02 1.209548e+01 9.387634e+00 9.270041e+00 1.207476e+01 1.215041e+01 1.582062e+01 1.485161e+01 1.452128e+01 1.345839e+01 1.317533e+01 1.264828e+01 1.150350e+01 1.170640e+01 2.159262e+00 1.724185e+00 2.222286e+00 2.421958e+00 3.127579e+00 2.933346e+00 3.141254e+00 3.321423e+00 2.806195e+00 2.806308e+00 2.585046e+00 2.439515e+00 1.648485e+00
<GCONST> 1.846589e+02
<MIXTURE> 4 1.855704e-01
<MEAN> 39
 -5.288072e+01 1.009584e+01 -1.085279e+01 2.251162e+00 -3.280783e+00 -7.281803e+00 5.752653e-01 3.065078e+00 -5.298383e+00 2.266175e+00 -1.954976e+00 5.477539e+00 1.075280e+02 -4.858690e+00 -1.541049e+00 -6.261485e+00 -3.125155e+00 -3.307291e+00 -1.661060e+00 -3.109144e+00 -1.872910e+00 -1.894309e+00 -9.852394e-01 -9.690831e-01 -6.331591e-01 -4.653427e-02 3.089061e+00 -4.739789e-01 1.753943e+00 4.872698e-01 2.125155e-01 7.871828e-04 -3.543454e-01 -5.505604e-01 -7.828236e-02 -7.505029e-02 -6.312667e-01 7.436173e-03 -2.466091e-01
<VARIANCE> 39
 1.121415e+02 1.400436e+02 1.762213e+02 2.628615e+02 3.257700e+02 2.776886e+02 1.982537e+02 1.734171e+02 1.689660e+02 1.482535e+02 1.614917e+02 1.294285e+02 1.598685e+02 1.525250e+01 1.735534e+01 1.893799e+01 1.524372e+01 1.611629e+01 1.882763e+01 1.847341e+01 1.578567e+01 1.389749e+01 1.477886e+01 1.342713e+01 1.346479e+01 1.080112e+01 2.755180e+00 2.263184e+00 3.813239e+00 3.173675e+00 3.135544e+00 3.510105e+00 3.534932e+00 3.519053e+00 3.558728e+00 3.126574e+00 3.151650e+00 3.240153e+00 1.531478e+00
<GCONST> 1.890294e+02
<STATE> 4
<NUMMIXES> 4
<MIXTURE> 1 1.796422e-01
<MEAN> 39
 -5.088107e+01 5.229655e+00 -1.614805e+01 4.012226e+00 -1.030935e+01 -4.137871e+00 -3.757622e+00 3.362891e+00 -7.207354e+00 2.618816e+00 -2.482855e+00 6.558237e+00 1.074875e+02 1.999383e+00 2.055596e-01 1.708209e+00 3.031651e-01 4.634876e-01 7.197303e-01 1.067806e+00 7.403989e-01 9.712393e-01 7.295403e-01 5.130036e-01 6.382941e-01 4.362532e-01 2.273226e+00 1.752279e-01 1.973772e+00 6.040754e-01 4.929817e-01 -2.806173e-01 1.542146e-01 -4.671737e-02 4.265166e-01 7.349531e-02 -9.015501e-02 2.509133e-01 3.575185e-01
<VARIANCE> 39
 1.225522e+02 1.317634e+02 1.346105e+02 2.060280e+02 2.708393e+02 2.707663e+02 1.463051e+02 1.355425e+02 1.373675e+02 1.301333e+02 1.398756e+02 1.199848e+02 1.586028e+02 1.029444e+01 7.694198e+00 9.170437e+00 9.154284e+00 1.109681e+01 1.214407e+01 1.190843e+01 1.199689e+01 1.175390e+01 1.205947e+01 1.170633e+01 1.079260e+01 6.746729e+00 3.081230e+00 1.710024e+00 2.612477e+00 1.887822e+00 2.143197e+00 2.824416e+00 2.701390e+00 2.517287e+00 2.426526e+00 2.634214e+00 2.339129e+00 2.405459e+00 1.480570e+00
<GCONST> 1.786005e+02
<MIXTURE> 2 3.410622e-01
<MEAN> 39
 -5.375390e+01 7.773768e+00 -1.485996e+01 3.861496e+00 -5.874771e+00 -5.060553e+00 -3.796241e+00 4.078910e+00 -6.091532e+00 3.157685e+00 -3.595552e+00 6.322721e+00 1.070790e+02 2.004022e-01 6.009881e-02 4.336503e-02 7.157411e-02 2.294996e-01 5.611423e-01 2.223258e-01 1.342285e-01 2.598704e-01 3.745556e-01 2.241355e-01 2.304497e-01 3.976151e-01 5.841588e-01 -9.031434e-02 5.599466e-01 2.750975e-02 6.053051e-02 -9.714118e-02 1.762459e-01 1.185046e-01 1.764423e-01 3.054277e-02 1.070849e-01 1.056050e-01 1.059093e-01
<VARIANCE> 39
 1.176353e+02 1.256083e+02 1.432219e+02 2.521332e+02 2.938043e+02 2.706566e+02 1.452423e+02 1.309502e+02 1.347175e+02 1.185545e+02 1.305376e+02 1.113360e+02 1.740427e+02 2.172741e+00 3.813521e+00 4.280798e+00 5.704840e+00 6.759622e+00 8.435704e+00 9.005108e+00 9.556344e+00 9.496245e+00 9.703754e+00 9.239586e+00 8.916238e+00 2.570328e+00 6.945459e-01 8.626205e-01 9.846982e-01 1.187776e+00 1.416560e+00 1.730932e+00 1.921826e+00 1.988311e+00 1.994942e+00 1.999210e+00 1.936573e+00 1.833824e+00 4.542812e-01
<GCONST> 1.647621e+02
<MIXTURE> 3 2.521519e-01
<MEAN> 39
 -5.398856e+01 6.153241e+00 -1.517195e+01 2.242449e+00 -6.008443e+00 -6.012024e+00 -5.214097e+00 2.802311e+00 -6.372272e+00 2.680321e+00 -4.333837e+00 5.582672e+00 1.041820e+02 -1.569855e-01 -4.129935e-01 -5.205422e-01 -6.345419e-01 -4.526350e-01 -2.177561e-01 -7.680650e-01 -8.324767e-01 -6.905488e-01 -4.676817e-01 -6.164481e-01 -4.934111e-01 1.112924e-01 3.844773e-01 -2.922920e-01 2.896259e-01 -1.770319e-01 -2.051525e-01 -3.663909e-01 -9.243087e-02 -7.599983e-02 -2.516767e-02 -1.465636e-01 -6.524888e-02 -2.232152e-02 8.784362e-03
<VARIANCE> 39
 1.117745e+02 1.270651e+02 1.481834e+02 2.512904e+02 2.949094e+02 2.734570e+02 1.496074e+02 1.343808e+02 1.421029e+02 1.228909e+02 1.345776e+02 1.135176e+02 1.673625e+02 2.181214e+00 3.939524e+00 4.339102e+00 5.878684e+00 6.960104e+00 8.591100e+00 9.292357e+00 9.899404e+00 9.735043e+00 9.778522e+00 9.532450e+00 9.171335e+00 2.538315e+00 5.748340e-01 8.109254e-01 9.091437e-01 1.182209e+00 1.418812e+00 1.713608e+00 1.940689e+00 2.017075e+00 2.023416e+00 2.022922e+00 1.948026e+00 1.859824e+00 4.324426e-01
<GCONST> 1.648731e+02
<MIXTURE> 4 2.270958e-01
<MEAN> 39
 -5.174507e+01 4.738682e+00 -1.702118e+01 2.866240e+00 -9.742432e+00 -5.547322e+00 -4.864431e+00 2.410547e+00 -7.500717e+00 1.709185e+00 -3.445506e+00 5.859270e+00 1.042199e+02 9.935316e-01 -6.781854e-01 4.141522e-01 -5.169379e-01 -2.150051e-01 -1.455486e-01 -2.468382e-01 -3.339234e-01 -5.812667e-02 -1.610822e-01 -4.698126e-01 -2.972802e-01 -2.168121e-01 1.450982e+00 -1.461558e-01 1.221179e+00 2.200920e-01 2.194429e-01 -3.881615e-01 -9.114416e-02 -1.634130e-01 1.823602e-01 -5.418067e-02 -1.896704e-01 -1.701579e-02 -7.389759e-02
<VARIANCE> 39
 1.276168e+02 1.364745e+02 1.492259e+02 2.277436e+02 2.843736e+02 2.715090e+02 1.507001e+02 1.407686e+02 1.465025e+02 1.340255e+02 1.422840e+02 1.233507e+02 1.706825e+02 8.192100e+00 7.080649e+00 8.007689e+00 8.668990e+00 1.093975e+01 1.269655e+01 1.159139e+01 1.177355e+01 1.156642e+01 1.196201e+01 1.152227e+01 1.080910e+01 8.254206e+00 2.467883e+00 1.611517e+00 2.289462e+00 1.883828e+00 2.089987e+00 2.654591e+00 2.585476e+00 2.480096e+00 2.410634e+00 2.534441e+00 2.339823e+00 2.274046e+00 1.591626e+00
<GCONST> 1.782663e+02
<TRANSP> 5
 0.000000e+00 1.000000e+00 0.000000e+00 0.000000e+00 0.000000e+00
 0.000000e+00 5.348341e-01 4.651659e-01 0.000000e+00 0.000000e+00
 0.000000e+00 0.000000e+00 5.260484e-01 4.739516e-01 0.000000e+00
 0.000000e+00 0.000000e+00 0.000000e+00 8.387737e-01 1.612263e-01
 0.000000e+00 0.000000e+00 0.000000e+00 0.000000e+00 0.000000e+00
<ENDHMM>
~h "t"
<BEGINHMM>
<NUMSTATES> 5
<STATE> 2
<NUMMIXES> 4
<MIXTURE> 1 1.846841e-01
<MEAN> 39
 -1.009840e+00 1.192808e+01 3.757634e+01 2.263442e+01 3.604314e+00 1.969188e+00 1.544926e+00 1.459803e+00 -7.528000e+00 2.386773e+00 -3.381208e+00 1.508680e+00 8.424727e+01 -2.494880e+00 4.030868e+00 -8.207359e+00 3.633281e+00 3.470080e+00 2.394218e+00 2.117427e+00 3.025680e+00 4.870779e+00 6.413047e-01 2.501837e+00 8.639005e-01 -1.066039e+01 -1.005829e+00 -1.177740e+00 -4.327363e-01 -2.707513e+00 -5.696683e-01 -2.592184e-01 -4.556395e-01 -6.476775e-01 -2.826020e-01 2.531430e-01 -9.251399e-02 2.748986e-01 1.356614e+00
<VARIANCE> 39
 2.699294e+02 3.395741e+02 4.055310e+02 3.359163e+02 2.923132e+02 2.937666e+02 3.542407e+02 3.395988e+02 3.313091e+02 2.461594e+02 2.189310e+02 2.196618e+02 5.225798e+02 2.371544e+01 3.606593e+01 6.358230e+01 4.550544e+01 3.388344e+01 3.766403e+01 3.486534e+01 4.323612e+01 5.127559e+01 3.239880e+01 2.961097e+01 3.019519e+01 5.651825e+01 3.435637e+00 7.533922e+00 7.646632e+00 7.269254e+00 6.400500e+00 5.766142e+00 6.595949e+00 5.911644e+00 7.257656e+00 5.042074e+00 4.536801e+00 4.392776e+00 1.293470e+01
<GCONST> 2.174646e+02
<MIXTURE> 2 3.104359e-01
<MEAN> 39
 -2.187460e+01 9.717274e+00 6.706347e+00 9.447756e+00 2.034285e+00 1.418165e+00 -1.978334e+00 -7.763646e-01 -1.681729e+00 2.075855e+00 1.186062e+00 3.040200e+00 5.109955e+01 -2.490756e+00 -3.049370e+00 -3.473325e+00 -3.529718e+00 -5.889752e-01 -8.067946e-01 -2.686477e-01 7.854614e-01 9.439757e-01 1.008387e+00 1.504719e+00 8.618556e-01 2.190145e+00 3.366894e-01 -4.417461e-01 2.035498e+00 -6.326256e-01 -3.651302e-01 -3.791683e-01 2.913967e-01 -3.073606e-01 -8.108787e-01 2.948751e-02 -6.238190e-01 8.305590e-02 5.004646e+00
<VARIANCE> 39
 7.587424e+01 7.897023e+01 1.025708e+02 1.053073e+02 1.102176e+02 1.285399e+02 1.521052e+02 1.439700e+02 1.278856e+02 1.202396e+02 1.064047e+02 9.155164e+01 5.008675e+01 1.752122e+01 1.685286e+01 3.366363e+01 2.111364e+01 1.696950e+01 1.715505e+01 2.006126e+01 2.115436e+01 2.022408e+01 1.630412e+01 1.641088e+01 1.358488e+01 8.917017e+01 2.750510e+00 3.633671e+00 4.907905e+00 3.726190e+00 3.636177e+00 3.847896e+00 4.072263e+00 4.400830e+00 4.433283e+00 3.419589e+00 3.155684e+00 2.976801e+00 8.147270e+00
<GCONST> 1.894177e+02
<MIXTURE> 3 2.730860e-01
<MEAN> 39
 -2.270258e+01 9.052382e+00 5.486493e+00 8.156576e+00 1.047901e+00 5.117134e-01 -2.960620e+00 -1.617115e+00 -2.262001e+00 1.464951e+00 4.475892e-01 2.078886e+00 5.061661e+01 -3.199170e+00 -4.211526e+00 -3.994010e+00 -5.003002e+00 -1.854927e+00 -2.336523e+00 -2.180537e+00 -1.148003e+00 -9.524176e-01 -6.238418e-01 5.235075e-02 -2.655931e-01 3.016537e+00 8.341411e-03 -5.915617e-01 1.725868e+00 -9.654207e-01 -6.586463e-01 -7.841105e-01 5.147927e-02 -5.116722e-01 -1.016941e+00 -1.148716e-01 -6.576733e-01 1.189152e-01 5.244453e+00
<VARIANCE> 39
 7.128880e+01 7.499522e+01 9.616012e+01 9.778757e+01 1.083892e+02 1.244568e+02 1.425416e+02 1.364674e+02 1.229342e+02 1.165242e+02 1.053085e+02 8.923444e+01 4.962651e+01 1.890727e+01 1.787268e+01 3.480043e+01 2.048760e+01 1.756401e+01 1.760026e+01 1.935932e+01 1.906441e+01 1.830254e+01 1.530385e+01 1.472731e+01 1.246959e+01 9.922728e+01 2.692723e+00 3.607540e+00 4.714919e+00 3.537953e+00 3.742569e+00 3.790671e+00 3.852534e+00 4.243474e+00 4.333978e+00 3.331811e+00 3.101424e+00 2.820652e+00 8.160153e+00
<GCONST> 1.883730e+02
<MIXTURE> 4 2.317573e-01
<MEAN> 39
 -6.149484e+00 1.431128e+01 3.111141e+01 2.043275e+01 3.618194e+00 1.709371e+00 -6.457674e-01 -2.907914e+00 -8.895070e+00 -9.986106e-01 -6.469295e+00 -2.502643e-01 7.647372e+01 -4.627709e+00 1.170289e+00 -9.383614e+00 6.091344e-01 1.256277e+00 3.457039e-01 -6.523968e-01 1.167668e+00 1.538070e+00 -1.113562e+00 1.448572e+00 -7.519705e-01 -1.030112e+01 -8.760889e-01 -1.906457e+00 -2.489048e-01 -3.180669e+00 -1.009796e+00 -7.991783e-01 -7.430192e-01 -7.564741e-01 -2.694058e-01 3.939512e-01 1.232947e-01 5.051133e-01 2.333187e+00
<VARIANCE> 39
 2.867748e+02 3.177058e+02 3.500748e+02 2.985342e+02 2.972360e+02 2.798745e+02 3.407399e+02 3.473743e+02 3.179381e+02 2.654568e+02 2.236622e+02 2.092881e+02 3.861548e+02 2.745217e+01 3.612776e+01 6.563559e+01 4.575093e+01 3.145770e+01 3.425708e+01 3.421345e+01 4.227915e+01 4.670490e+01 3.077803e+01 2.746144e+01 2.793999e+01 6.147161e+01 4.152095e+00 7.693700e+00 7.759655e+00 7.042166e+00 6.485090e+00 6.326384e+00 6.759901e+00 6.838265e+00 8.429634e+00 6.021190e+00 5.099438e+00 4.875638e+00 1.286920e+01
<GCONST> 2.176241e+02
<STATE> 3
<NUMMIXES> 4
<MIXTURE> 1 2.160633e-01
<MEAN> 39
 -3.786292e+01 7.473671e+00 4.916051e+00 -1.053366e+01 -4.758899e+00 -1.054245e+01 -5.794323e-01 -5.783325e+00 -1.305229e+01 3.061965e+00 -1.294381e-01 4.930308e+00 1.166786e+02 -3.843493e+00 2.437818e+00 1.923839e+00 7.594663e-01 -2.144577e+00 -1.483458e+00 3.864943e+00 1.343037e+00 -2.367534e-01 1.154268e+00 9.465404e-01 2.767791e+00 6.536365e+00 2.156327e+00 -3.963608e-01 1.756894e+00 2.215819e+00 -1.043710e-03 9.338827e-01 7.292370e-01 6.539520e-01 1.111956e+00 5.133544e-02 -1.646826e-01 2.749327e-01 -4.647998e+00
<VARIANCE> 39
 2.891231e+02 1.640493e+02 2.379304e+02 1.992440e+02 1.741909e+02 1.785195e+02 2.110527e+02 2.302826e+02 1.931215e+02 1.806682e+02 1.542877e+02 1.444975e+02 6.636122e+02 2.007256e+01 1.863520e+01 1.893848e+01 1.948476e+01 1.762069e+01 2.296930e+01 2.092844e+01 2.515203e+01 2.005412e+01 1.797150e+01 2.054874e+01 1.606671e+01 6.992541e+01 4.384301e+00 4.026816e+00 4.665984e+00 4.888247e+00 3.925779e+00 3.690361e+00 4.148924e+00 4.193552e+00 4.372834e+00 3.941586e+00 3.463390e+00 3.243736e+00 1.661498e+01
<GCONST> 2.009596e+02
<MIXTURE> 2 2.904592e-01
<MEAN> 39
 -2.731044e+01 -6.900946e+00 5.841916e+00 -8.562478e+00 -9.668899e-01 -3.866137e+00 -5.457988e+00 -2.084358e+00 -5.874662e+00 1.574135e+00 -4.816554e-01 2.072648e+00 8.835918e+01 -3.622479e+00 -7.388479e-01 6.454778e-01 -3.858494e+00 -9.178360e-01 -2.555224e+00 7.843200e-01 3.642371e-02 -2.363354e+00 1.399822e-03 -5.867033e-01 1.026043e+00 1.748965e+01 -2.503730e-01 2.018496e+00 1.110467e+00 1.886717e+00 -2.175641e-01 -6.826776e-02 1.203113e+00 4.291948e-01 6.618044e-02 2.850739e-01 -5.309711e-02 5.287282e-01 -4.564382e-01
<VARIANCE> 39
 8.544072e+01 1.641702e+02 1.568216e+02 1.885414e+02 1.486804e+02 1.411174e+02 1.412900e+02 1.337065e+02 1.160959e+02 1.024061e+02 9.293567e+01 8.818367e+01 1.160470e+03 1.775218e+01 1.790347e+01 2.239638e+01 1.521137e+01 1.820618e+01 2.068349e+01 2.172994e+01 2.121522e+01 1.789187e+01 1.799167e+01 1.626801e+01 1.321937e+01 7.045949e+01 2.914576e+00 2.769312e+00 3.417847e+00 3.891313e+00 3.718850e+00 3.615379e+00 3.374041e+00 3.338481e+00 3.089380e+00 2.684352e+00 2.749543e+00 2.622327e+00 2.017931e+01
<GCONST> 1.926185e+02
<MIXTURE> 3 2.338193e-01
<MEAN> 39
 -2.753625e+01 -8.466116e+00 5.741553e+00 -9.538459e+00 -2.007466e+00 -5.034529e+00 -6.412365e+00 -3.478218e+00 -7.663946e+00 3.738936e-01 -1.991847e+00 1.395182e+00 9.013706e+01 -4.663450e+00 -1.680239e+00 -5.346100e-01 -5.177114e+00 -2.257505e+00 -4.007551e+00 -1.087030e+00 -1.474446e+00 -3.718951e+00 -1.364186e+00 -1.653664e+00 9.866141e-02 1.635408e+01 -4.186553e-01 1.877841e+00 8.886139e-01 1.647686e+00 -4.544556e-01 -3.673888e-01 7.931315e-01 2.057670e-01 -1.366773e-01 1.232543e-01 -1.314613e-01 4.609405e-01 -6.727809e-01
<VARIANCE> 39
 9.177711e+01 1.717765e+02 1.675823e+02 1.786379e+02 1.447232e+02 1.468560e+02 1.376689e+02 1.382884e+02 1.157890e+02 1.122140e+02 9.546571e+01 8.905984e+01 9.850757e+02 1.834133e+01 2.060444e+01 2.553361e+01 1.555353e+01 1.983516e+01 2.198731e+01 2.324698e+01 2.017703e+01 1.792536e+01 1.904746e+01 1.597380e+01 1.306965e+01 6.922686e+01 2.947412e+00 2.857009e+00 3.679795e+00 3.809619e+00 3.586761e+00 3.629717e+00 3.418576e+00 3.473801e+00 3.141825e+00 2.798261e+00 2.828149e+00 2.623567e+00 1.754810e+01
<GCONST> 1.932953e+02
<MIXTURE> 4 2.596448e-01
<MEAN> 39
 -3.968744e+01 6.259891e+00 2.797621e+00 -1.241121e+01 -5.342045e+00 -1.237506e+01 -2.081453e+00 -7.505545e+00 -1.405933e+01 2.272533e+00 -1.187860e+00 3.833268e+00 1.163319e+02 -4.891197e+00 1.668310e+00 8.992266e-01 -7.832081e-01 -3.335574e+00 -2.697863e+00 2.167072e+00 -1.190491e-01 -1.821338e+00 5.322718e-02 1.008074e-01 1.782129e+00 7.003562e+00 1.760597e+00 -5.479574e-01 1.386097e+00 1.908705e+00 -3.919949e-01 6.249433e-01 3.354448e-01 5.165872e-01 8.333070e-01 -1.144179e-01 -1.595817e-01 1.688524e-01 -4.833273e+00
<VARIANCE> 39
 2.367847e+02 1.596989e+02 2.391374e+02 1.736760e+02 1.798365e+02 1.758663e+02 2.035303e+02 2.212020e+02 1.909693e+02 1.811085e+02 1.586202e+02 1.440862e+02 5.370994e+02 1.700330e+01 1.849469e+01 1.913898e+01 1.818087e+01 1.694226e+01 2.272754e+01 2.095525e+01 2.269998e+01 1.887134e+01 1.784152e+01 1.963405e+01 1.548735e+01 6.932610e+01 3.812915e+00 3.840984e+00 4.105343e+00 4.643245e+00 3.973232e+00 3.565593e+00 4.024388e+00 3.992784e+00 4.307165e+00 3.820474e+00 3.519716e+00 3.345531e+00 1.361147e+01
<GCONST> 1.991364e+02
<STATE> 4
<NUMMIXES> 4
<MIXTURE> 1 2.136316e-01
<MEAN> 39
 -3.959943e+01 -9.687722e-01 1.956813e+01 -4.375653e+00 -1.325750e+01 -1.266944e+01 8.275702e+00 -2.411552e-01 -1.157992e+01 3.006814e+00 -1.218608e+00 1.058556e+01 1.180803e+02 8.526845e+00 -5.326922e-01 7.565526e+00 5.784214e+00 1.119443e+00 1.070927e+00 1.975212e+00 1.882812e+00 1.539741e+00 3.060008e-01 -7.873513e-01 6.755717e-01 -1.351786e+00 3.300893e+00 3.036056e-02 1.200071e+00 3.722737e-01 1.252037e+00 1.337490e-01 -1.216827e+00 -3.117142e-01 -3.966967e-02 1.836686e-01 -2.074349e-01 -4.094934e-01 4.555582e-01
<VARIANCE> 39
 1.395981e+02 1.072971e+02 1.421683e+02 1.601325e+02 1.750507e+02 2.269244e+02 2.458734e+02 3.111776e+02 1.922648e+02 1.809939e+02 2.119014e+02 1.623202e+02 1.516350e+02 2.974483e+01 1.118300e+01 1.765861e+01 1.656536e+01 1.476253e+01 1.659201e+01 1.905718e+01 1.627948e+01 1.619593e+01 1.529475e+01 1.558411e+01 1.482828e+01 8.808202e+00 3.576568e+00 3.088912e+00 2.789972e+00 3.436700e+00 3.503148e+00 6.289234e+00 4.153025e+00 3.685671e+00 4.526137e+00 4.215844e+00 4.300992e+00 3.460291e+00 6.882981e+00
<GCONST> 1.930002e+02
<MIXTURE> 2 2.770285e-01
<MEAN> 39
 -2.722337e+01 -1.849717e+00 1.133988e+01 -5.696454e-01 -9.084871e+00 -1.176571e+01 5.749756e+00 2.392704e+00 -7.210577e+00 -7.394497e-02 -2.043149e+00 8.658260e+00 9.602393e+01 1.917607e+00 -6.834321e-01 6.689851e-01 1.516342e+00 -2.706755e-01 5.612217e-01 1.034653e+00 1.912554e+00 1.450487e+00 5.430173e-01 -3.971971e-02 5.747481e-01 -1.475894e+00 1.081390e+00 3.159934e-01 4.232623e-01 5.162573e-01 6.445526e-01 6.817519e-01 -4.842940e-02 7.370607e-02 3.433233e-01 2.399538e-01 1.393703e-03 -3.682209e-01 -6.161803e-01
<VARIANCE> 39
 3.564215e+02 1.629948e+02 2.223250e+02 1.934405e+02 1.921213e+02 2.640528e+02 2.705297e+02 3.041339e+02 2.183938e+02 1.964379e+02 2.342734e+02 1.789520e+02 6.853570e+02 1.980931e+01 1.313671e+01 1.704076e+01 1.636213e+01 1.824490e+01 1.844870e+01 1.719113e+01 2.023238e+01 1.805697e+01 1.619164e+01 1.666131e+01 1.559178e+01 2.427731e+01 5.082415e+00 2.908206e+00 3.624298e+00 2.950491e+00 2.923806e+00 3.448472e+00 3.536667e+00 3.752022e+00 3.717815e+00 3.388021e+00 3.266747e+00 2.848648e+00 7.085432e+00
<GCONST> 1.972799e+02
<MIXTURE> 3 2.371974e-01
<MEAN> 39
 -2.852110e+01 -4.647720e+00 9.785538e+00 -2.761448e+00 -1.080937e+01 -1.375184e+01 5.244138e+00 2.123863e+00 -8.749978e+00 -1.562681e+00 -2.122588e+00 8.132920e+00 9.259853e+01 1.214719e+00 -1.497664e+00 -6.902193e-01 2.750740e-01 -1.349112e+00 -5.879106e-01 -9.137461e-01 7.658637e-01 1.046138e-01 -8.728962e-01 -9.667704e-01 -3.293332e-01 -2.809583e+00 6.968591e-01 2.418489e-01 -1.269242e-01 2.456183e-01 4.089831e-01 4.744830e-01 -3.919207e-01 -2.149754e-01 1.615493e-01 4.552365e-02 -7.470480e-02 -5.230041e-01 -8.167381e-01
<VARIANCE> 39
 2.868669e+02 1.384218e+02 2.137591e+02 1.762998e+02 1.892949e+02 2.632110e+02 2.770120e+02 3.160622e+02 2.288125e+02 1.991850e+02 2.523773e+02 1.894413e+02 5.824888e+02 1.795973e+01 1.148937e+01 1.584122e+01 1.445985e+01 1.907466e+01 1.816059e+01 1.757944e+01 2.014445e+01 1.848032e+01 1.614933e+01 1.643830e+01 1.607703e+01 2.008644e+01 4.314175e+00 2.576182e+00 3.402763e+00 2.866343e+00 2.891137e+00 3.324558e+00 3.471110e+00 3.858856e+00 3.734416e+00 3.383116e+00 3.481703e+00 3.023579e+00 6.279654e+00
<GCONST> 1.958971e+02
<MIXTURE> 4 2.721156e-01
<MEAN> 39
 -4.236114e+01 -4.475863e-01 1.684178e+01 -6.221039e+00 -1.214722e+01 -1.494562e+01 6.055327e+00 7.547674e-01 -1.223376e+01 1.286174e+00 -2.859118e+00 9.523433e+00 1.177595e+02 5.913869e+00 -2.124042e+00 5.431079e+00 4.218920e+00 -6.993601e-01 -1.424946e-01 6.538272e-01 1.089283e+00 2.101534e-01 -7.241770e-01 -1.513255e+00 -2.856458e-01 -1.778867e+00 3.340982e+00 -5.373470e-01 9.271750e-01 4.901188e-01 9.248158e-01 5.607158e-01 -1.418877e+00 -2.933724e-01 -1.339708e-01 -9.928517e-02 -2.422906e-01 -8.562213e-01 -4.524059e-01
<VARIANCE> 39
 1.499493e+02 1.151842e+02 1.532097e+02 1.556387e+02 1.689532e+02 2.292809e+02 2.604817e+02 3.066215e+02 1.970203e+02 1.944086e+02 2.250155e+02 1.621058e+02 1.363698e+02 3.320224e+01 1.072150e+01 1.661879e+01 1.701972e+01 1.573428e+01 1.666287e+01 1.880674e+01 1.595092e+01 1.595846e+01 1.567490e+01 1.641711e+01 1.507101e+01 8.533772e+00 3.351053e+00 2.941376e+00 2.743885e+00 3.238388e+00 3.450286e+00 5.187007e+00 4.040468e+00 3.688336e+00 4.584232e+00 4.062681e+00 4.159342e+00 3.103118e+00 8.187075e+00
<GCONST> 1.929524e+02
<TRANSP> 5
 0.000000e+00 1.000000e+00 0.000000e+00 0.000000e+00 0.000000e+00
 0.000000e+00 7.798830e-01 2.201170e-01 0.000000e+00 0.000000e+00
 0.000000e+00 0.000000e+00 6.347275e-01 3.652724e-01 0.000000e+00
 0.000000e+00 0.000000e+00 0.000000e+00 7.031045e-01 2.968955e-01
 0.000000e+00 0.000000e+00 0.000000e+00 0.000000e+00 0.000000e+00
<ENDHMM>
~h "v"
<BEGINHMM>
<NUMSTATES> 5
<STATE> 2
<NUMMIXES> 4
<MIXTURE> 1 2.285035e-01
<MEAN> 39
 1.417816e+01 -2.582924e+01 1.323788e+01 -1.753317e+01 -1.102816e+01 -1.900260e+01 7.382589e+00 1.357124e+01 1.659492e+01 9.696449e+00 -2.151473e+00 8.339303e+00 1.436782e+02 1.823366e+00 2.641606e+00 1.859536e+00 3.059440e+00 1.072587e+00 -1.350262e+00 -3.216012e+00 -2.986718e+00 -1.072395e+00 1.648863e+00 3.200808e-01 2.701000e-01 -3.848075e+00 -1.583818e-01 1.265597e+00 1.555726e-01 2.036948e+00 1.828101e+00 1.641532e+00 -6.906770e-01 -9.426367e-01 -1.080236e+00 -1.599264e-01 -1.298902e-01 -1.200270e-01 -2.144871e+00
<VARIANCE> 39
 6.704749e+01 1.638636e+02 2.434285e+02 2.036958e+02 2.445685e+02 2.670095e+02 6.469261e+02 2.740670e+02 2.737021e+02 3.683244e+02 3.304917e+02 3.640926e+02 1.740476e+02 1.873590e+00 6.344227e+00 8.032221e+00 8.853366e+00 1.510858e+01 1.465038e+01 1.366523e+01 1.318646e+01 1.772930e+01 1.429728e+01 1.918200e+01 1.469966e+01 4.749886e+00 7.105469e-01 1.173446e+00 1.648005e+00 1.938273e+00 2.291181e+00 2.801212e+00 3.543886e+00 2.442133e+00 2.323365e+00 2.710018e+00 2.697810e+00 2.451146e+00 1.049872e+00
<GCONST> 1.821869e+02
<MIXTURE> 2 2.835382e-01
<MEAN> 39
 1.207608e+01 -2.733934e+01 1.627847e+01 -2.083107e+01 -1.104524e+01 -1.884142e+01 -5.188810e+00 1.345403e+01 1.393658e+01 1.599620e+01 -2.023340e+00 5.818958e+00 1.504282e+02 6.142523e-01 -1.239427e+00 -9.579254e-01 -5.526586e-01 7.173812e-01 1.047082e+00 8.926094e-01 4.460392e-01 1.005710e-02 5.921929e-01 4.982377e-01 -9.795967e-01 -4.271534e-02 2.093277e-01 1.079870e+00 2.224467e-01 1.085483e+00 5.630871e-01 1.578958e-01 -6.687346e-01 -1.151685e+00 -8.456304e-01 -2.352502e-01 7.672764e-02 2.382213e-01 -1.180317e+00
<VARIANCE> 39
 6.922029e+01 1.333504e+02 2.076689e+02 2.029952e+02 2.624627e+02 2.487588e+02 9.518897e+02 2.849111e+02 2.872837e+02 5.139880e+02 3.266285e+02 4.163998e+02 1.370818e+02 1.394062e+00 3.635232e+00 3.438228e+00 4.643994e+00 5.218567e+00 6.529077e+00 8.610486e+00 9.579184e+00 1.035873e+01 7.275188e+00 1.176950e+01 8.298267e+00 2.053940e+00 4.949897e-01 6.133757e-01 7.464997e-01 1.077770e+00 1.170097e+00 1.756411e+00 2.479402e+00 1.366339e+00 2.316272e+00 1.795415e+00 1.457177e+00 1.496608e+00 5.986861e-01
<GCONST> 1.678786e+02
<MIXTURE> 3 2.658793e-01
<MEAN> 39
 1.066769e+01 -2.846717e+01 1.690662e+01 -2.134612e+01 -1.055327e+01 -2.172449e+01 -6.310318e+00 1.220174e+01 1.382065e+01 1.751691e+01 -3.526620e+00 6.054026e+00 1.501825e+02 3.737199e-01 -1.467095e+00 -1.120461e+00 -7.840910e-01 6.247038e-01 1.178033e+00 1.222157e+00 7.120651e-01 -1.256678e-01 3.617741e-01 3.387059e-01 -1.878867e+00 2.035329e-01 1.133485e-01 1.115639e+00 1.139578e-01 1.150632e+00 5.380685e-01 3.552513e-01 -7.021604e-01 -1.240954e+00 -1.033329e+00 -3.359290e-01 1.221599e-02 -1.942879e-02 -1.287221e+00
<VARIANCE> 39
 7.062426e+01 1.344588e+02 2.199923e+02 2.088999e+02 2.651327e+02 2.542267e+02 9.280723e+02 2.867878e+02 2.936400e+02 5.226614e+02 3.244096e+02 4.049343e+02 1.302083e+02 1.587620e+00 4.107870e+00 3.622878e+00 4.887075e+00 5.426202e+00 6.683303e+00 9.479540e+00 1.018470e+01 1.010601e+01 7.320780e+00 1.260246e+01 8.632924e+00 2.298491e+00 6.510885e-01 6.487383e-01 8.261351e-01 1.188619e+00 1.171619e+00 1.757909e+00 2.510143e+00 1.379590e+00 2.197774e+00 1.757263e+00 1.589607e+00 1.616157e+00 7.200400e-01
<GCONST> 1.695641e+02
<MIXTURE> 4 2.220403e-01
<MEAN> 39
 1.358538e+01 -2.719506e+01 1.467570e+01 -1.740013e+01 -1.178767e+01 -2.233632e+01 1.770627e+00 1.234403e+01 1.402087e+01 1.340466e+01 -2.192065e+00 5.466786e+00 1.438145e+02 1.546004e+00 2.314213e+00 1.805950e+00 2.831132e+00 1.078349e+00 -1.369817e+00 -3.059452e+00 -3.338214e+00 -2.087790e+00 8.577296e-01 5.335849e-01 1.665466e-03 -3.407207e+00 -6.354488e-02 1.085219e+00 -7.734267e-02 1.727400e+00 1.673824e+00 1.581620e+00 -5.425713e-01 -1.022293e+00 -1.114036e+00 -3.450218e-01 -2.307394e-01 -3.834567e-01 -1.925170e+00
<VARIANCE> 39
 7.208521e+01 1.674588e+02 2.518838e+02 2.349056e+02 2.598996e+02 2.762273e+02 7.140133e+02 2.824839e+02 3.126946e+02 3.963795e+02 3.554494e+02 3.996187e+02 1.914426e+02 1.888830e+00 5.864855e+00 8.654550e+00 8.102915e+00 1.379306e+01 1.406899e+01 1.269927e+01 1.268328e+01 1.889113e+01 1.467972e+01 1.894481e+01 1.510199e+01 4.079139e+00 6.808698e-01 1.136415e+00 1.631817e+00 1.821969e+00 2.217256e+00 2.572838e+00 3.400752e+00 2.346505e+00 2.384681e+00 2.605094e+00 2.709199e+00 2.620422e+00 1.011746e+00
<GCONST> 1.824482e+02
<STATE> 3
<NUMMIXES> 4
<MIXTURE> 1 2.161484e-01
<MEAN> 39
 1.875388e+01 -1.628093e+01 1.773800e+01 -3.177014e+00 -3.503040e-02 -2.025932e+01 5.380778e-01 1.518600e+00 1.556590e+01 1.290961e+01 -9.453424e+00 1.093029e+01 1.268985e+02 -6.840040e-01 7.150451e+00 2.146580e+00 9.624252e+00 6.785439e+00 6.608817e+00 -3.650254e+00 -3.737385e+00 -3.696795e+00 1.557607e+00 3.651886e-01 -1.468435e+00 -1.052913e+01 -1.807160e+00 5.767453e-01 -7.794715e-02 4.542513e-01 4.362363e-01 2.089453e+00 1.581352e+00 1.341657e+00 -5.580563e-01 -8.927185e-01 7.629120e-01 1.480197e-01 -5.853457e-01
<VARIANCE> 39
 4.974462e+01 1.406541e+02 1.812156e+02 2.382144e+02 2.683274e+02 2.847834e+02 3.406299e+02 2.637566e+02 2.563525e+02 2.799321e+02 2.139092e+02 2.396496e+02 2.179633e+02 8.452922e+00 1.332525e+01 1.520486e+01 1.826614e+01 1.937792e+01 2.559780e+01 2.815509e+01 2.239479e+01 2.079910e+01 2.078692e+01 2.341786e+01 1.940804e+01 1.015278e+01 1.461602e+00 2.165729e+00 1.869859e+00 4.214224e+00 4.598949e+00 5.188125e+00 3.613043e+00 3.363891e+00 3.462744e+00 3.105498e+00 3.119458e+00 3.178901e+00 3.545868e+00
<GCONST> 1.935951e+02
<MIXTURE> 2 2.923602e-01
<MEAN> 39
 2.123741e+01 -1.894844e+01 1.994036e+01 -3.176342e+00 -9.447889e-01 -1.069887e+01 -2.254900e+01 -6.314685e-01 -1.160303e+01 1.881294e+01 1.085174e+01 -6.200874e+00 1.305170e+02 -6.768173e-01 4.927442e+00 3.031462e-01 5.665671e+00 4.876757e+00 5.147320e+00 3.077410e+00 -2.613010e+00 -4.110651e+00 -3.464834e+00 1.064395e+00 1.347727e+00 -7.848112e+00 -1.544413e+00 4.376666e-01 -6.025124e-01 1.390532e-01 1.876617e-01 8.034512e-01 1.521062e+00 1.124310e+00 1.547441e+00 -1.313133e-01 -1.111569e+00 2.517044e-01 -4.919768e-01
<VARIANCE> 39
 6.946916e+01 1.864418e+02 2.720129e+02 2.868689e+02 2.981412e+02 3.448644e+02 4.197283e+02 3.769460e+02 3.943879e+02 4.013487e+02 3.700358e+02 2.708732e+02 2.509171e+02 1.060516e+01 1.085836e+01 1.370707e+01 1.359041e+01 1.800739e+01 2.176617e+01 2.540097e+01 2.202192e+01 2.971994e+01 2.178255e+01 2.357642e+01 1.829687e+01 9.090598e+00 1.939437e+00 2.063496e+00 2.068844e+00 2.699643e+00 3.306411e+00 4.492270e+00 3.798744e+00 3.317133e+00 3.900102e+00 3.709996e+00 3.110187e+00 2.848793e+00 2.640725e+00
<GCONST> 1.961183e+02
<MIXTURE> 3 2.659855e-01
<MEAN> 39
 1.921389e+01 -2.041609e+01 2.059913e+01 -4.919538e+00 -2.109682e+00 -1.453518e+01 -2.231292e+01 1.795181e+00 -1.169336e+01 2.024070e+01 9.333820e+00 -6.150436e+00 1.299726e+02 -1.222361e+00 4.762944e+00 -1.814495e-01 5.321760e+00 4.075707e+00 4.331875e+00 2.230229e+00 -2.986011e+00 -4.152130e+00 -3.811477e+00 5.547574e-01 6.158640e-01 -7.444359e+00 -1.702587e+00 2.547059e-01 -8.452761e-01 -3.999683e-02 8.465901e-02 9.051613e-01 1.315283e+00 8.016393e-01 1.419721e+00 -3.975959e-01 -1.067494e+00 -2.372256e-02 -5.363952e-01
<VARIANCE> 39
 6.956213e+01 1.912967e+02 2.655187e+02 3.179053e+02 3.151037e+02 3.612728e+02 4.126608e+02 3.705482e+02 4.133481e+02 4.059323e+02 3.967044e+02 2.762541e+02 2.783740e+02 1.677288e+01 1.134818e+01 1.474425e+01 1.445421e+01 1.866026e+01 2.068646e+01 2.342775e+01 1.996437e+01 3.066373e+01 1.944585e+01 2.515562e+01 1.857092e+01 9.063816e+00 2.520132e+00 2.397623e+00 2.331929e+00 2.813763e+00 3.331100e+00 4.150875e+00 3.540189e+00 3.093677e+00 3.964757e+00 3.593349e+00 3.214940e+00 2.963581e+00 2.486592e+00
<GCONST> 1.973387e+02
<MIXTURE> 4 2.254815e-01
<MEAN> 39
 1.743842e+01 -1.688367e+01 1.864853e+01 -4.118182e+00 -2.860688e+00 -2.296595e+01 5.070210e-01 4.684597e-01 1.270401e+01 1.341040e+01 -9.782577e+00 9.883944e+00 1.277145e+02 -1.024628e+00 6.273723e+00 1.621949e+00 8.732192e+00 5.908682e+00 5.833502e+00 -3.299735e+00 -3.744635e+00 -4.049472e+00 5.344940e-01 -1.266498e-01 -2.092185e+00 -9.982642e+00 -2.031844e+00 2.217414e-01 -5.456248e-01 2.283525e-01 4.775042e-01 2.051711e+00 1.028514e+00 1.110160e+00 -6.238938e-01 -9.945637e-01 4.622544e-01 -2.075050e-01 -7.583925e-01
<VARIANCE> 39
 5.266106e+01 1.433712e+02 1.981798e+02 2.448579e+02 2.868180e+02 2.797237e+02 3.939592e+02 2.770594e+02 2.726929e+02 2.918455e+02 2.388677e+02 2.689247e+02 2.398147e+02 1.162295e+01 1.322567e+01 1.461147e+01 1.810366e+01 2.053468e+01 2.426133e+01 2.588061e+01 2.367779e+01 2.106728e+01 2.127081e+01 2.254844e+01 1.943801e+01 1.105904e+01 2.139795e+00 2.349608e+00 2.042694e+00 4.082345e+00 4.358249e+00 4.787615e+00 3.561136e+00 3.291348e+00 3.613833e+00 3.038235e+00 3.137509e+00 3.107080e+00 3.070233e+00
<GCONST> 1.949879e+02
<STATE> 4
<NUMMIXES> 4
<MIXTURE> 1 2.524519e-01
<MEAN> 39
 1.233350e+01 -2.677304e-01 1.992914e+01 1.594516e+01 1.568190e+01 4.953188e+00 -4.168375e+00 -3.486541e+00 -3.313454e+00 1.259869e+01 5.950499e-01 3.952275e+00 1.054108e+02 -2.971287e+00 2.894208e+00 8.051199e-01 2.614836e+00 1.521160e+00 2.997541e+00 2.266901e+00 1.975996e+00 -9.866802e-02 -8.840342e-01 3.154508e-01 6.801035e-01 -3.472824e+00 3.637680e-02 -2.229167e+00 -4.062897e-01 -3.116606e+00 -2.356241e+00 -2.617047e+00 2.427237e-02 1.435251e+00 1.518341e+00 6.659420e-02 -2.414140e-01 4.137436e-01 3.351266e+00
<VARIANCE> 39
 1.111669e+02 1.579513e+02 1.238731e+02 1.944144e+02 1.520132e+02 2.455232e+02 2.285025e+02 2.354552e+02 3.652050e+02 2.183879e+02 2.733662e+02 2.240660e+02 2.151842e+02 2.165165e+01 2.150102e+01 1.074548e+01 3.025178e+01 2.484127e+01 4.060785e+01 2.618420e+01 1.902030e+01 2.311442e+01 1.802703e+01 1.821115e+01 1.481469e+01 3.341273e+01 3.261798e+00 2.695117e+00 2.922011e+00 4.158924e+00 3.918350e+00 4.878868e+00 6.715681e+00 4.411411e+00 4.313912e+00 5.055906e+00 4.497825e+00 4.068033e+00 2.919593e+00
<GCONST> 1.989055e+02
<MIXTURE> 2 2.440102e-01
<MEAN> 39
 -1.443759e+01 -6.346569e+00 1.079670e+01 9.179487e+00 1.932701e+00 -2.581952e-01 4.690480e+00 1.044388e+01 3.203150e+00 4.559089e+00 -4.256450e+00 5.668426e+00 9.393910e+01 -1.633240e-01 -1.324343e+00 -1.269665e+00 -2.167211e+00 -1.470061e+00 -1.211721e+00 -1.166945e-01 6.801376e-01 7.847697e-01 -1.501215e-02 4.107604e-01 4.250526e-01 5.969033e-01 1.620105e+00 -7.798288e-03 2.661117e-01 -4.109100e-01 -9.269682e-02 -5.398407e-01 -2.950129e-01 -3.070258e-01 3.455169e-02 2.509538e-01 2.118070e-01 1.898633e-02 6.605921e-01
<VARIANCE> 39
 3.242961e+02 1.610796e+02 1.879848e+02 1.753220e+02 1.878797e+02 2.166383e+02 2.013970e+02 1.891019e+02 1.984106e+02 1.819436e+02 1.696469e+02 1.694558e+02 2.950082e+02 4.053844e+01 1.579046e+01 1.547747e+01 2.146394e+01 2.076584e+01 2.737207e+01 2.158303e+01 2.077402e+01 1.986433e+01 1.705294e+01 1.750894e+01 1.502221e+01 2.593312e+01 5.046618e+00 3.691255e+00 3.137529e+00 4.897962e+00 4.500487e+00 5.406621e+00 4.803222e+00 3.989802e+00 4.173338e+00 3.441826e+00 3.374816e+00 2.885230e+00 3.974875e+00
<GCONST> 1.980440e+02
<MIXTURE> 3 2.853639e-01
<MEAN> 39
 9.137612e+00 -6.685407e-01 1.866921e+01 1.497054e+01 1.298331e+01 4.558480e+00 -4.872328e+00 -3.104443e+00 -6.315203e+00 1.056830e+01 1.564729e+00 2.393413e-01 1.036477e+02 -4.767004e+00 1.292095e+00 -7.617366e-01 9.148237e-01 1.980132e-01 1.845774e+00 1.238394e+00 1.275041e+00 2.386335e-01 -1.567549e+00 -8.550985e-01 -9.947722e-02 -3.016480e+00 -2.529551e-01 -2.541521e+00 -6.585229e-01 -3.062970e+00 -2.378042e+00 -2.567270e+00 -7.607575e-01 9.058743e-01 1.090453e+00 3.691585e-01 -3.368264e-01 7.860045e-02 3.044934e+00
<VARIANCE> 39
 1.542339e+02 1.596434e+02 1.348054e+02 1.939693e+02 1.503896e+02 2.502833e+02 2.652799e+02 2.520159e+02 3.458970e+02 2.237402e+02 2.890559e+02 2.249150e+02 2.709485e+02 3.888606e+01 2.014910e+01 1.232013e+01 2.506285e+01 2.383316e+01 3.899227e+01 2.834724e+01 1.892770e+01 2.371109e+01 1.914570e+01 1.982843e+01 1.672181e+01 3.592454e+01 3.491352e+00 2.845294e+00 3.761559e+00 3.817956e+00 3.805650e+00 4.708256e+00 5.836782e+00 4.282606e+00 4.861321e+00 4.679909e+00 4.139882e+00 3.800328e+00 3.067314e+00
<GCONST> 2.006326e+02
<MIXTURE> 4 2.181353e-01
<MEAN> 39
