~o
<STREAMINFO> 1 39
<VECSIZE> 39<NULLD><MFCC_D_A_0><DIAGC>
~v "varFloor1"
<VARIANCE> 39
 6.754285e+00 3.412382e+00 5.608406e+00 4.796288e+00 3.472278e+00 4.011306e+00 4.413544e+00 3.617784e+00 3.683816e+00 3.040248e+00 2.640156e+00 2.509632e+00 1.299030e+01 2.278168e-01 1.545930e-01 2.184475e-01 2.118017e-01 1.813441e-01 2.097645e-01 2.257998e-01 2.166213e-01 2.009591e-01 1.748390e-01 1.664857e-01 1.534652e-01 2.729186e-01 3.005252e-02 2.352007e-02 2.950203e-02 3.333135e-02 2.970526e-02 3.527972e-02 3.796952e-02 3.764049e-02 3.477431e-02 3.067440e-02 2.924915e-02 2.697382e-02 3.680100e-02
~s "silst"
<NUMMIXES> 2
<MIXTURE> 1 4.670404e-01
<MEAN> 39
 -2.398013e+01 5.442401e+00 -1.499663e-03 4.326383e+00 -1.309062e+00 -8.664969e-01 -2.224736e+00 4.829669e-01 -4.699782e-01 1.895774e+00 1.077363e+00 2.489347e+00 4.890847e+01 -2.720235e-02 2.631020e-01 3.992448e-01 4.048878e-01 4.294595e-01 4.564213e-01 3.807069e-01 3.184131e-01 4.203941e-01 5.595425e-01 5.086758e-01 3.289005e-01 -5.289489e-02 1.339607e-01 -6.540916e-02 2.362019e-02 2.405416e-02 1.796374e-02 3.622991e-02 9.824681e-02 8.013299e-02 -4.271694e-03 -1.421928e-02 -8.763408e-02 -2.915146e-02 2.033110e-01
<VARIANCE> 39
 3.528965e+01 3.497435e+01 4.307625e+01 5.630909e+01 7.347040e+01 9.442803e+01 1.105098e+02 1.126654e+02 1.063103e+02 9.985090e+01 9.808470e+01 8.698003e+01 1.711946e+01 1.503189e+00 2.045316e+00 3.271258e+00 4.519177e+00 5.711152e+00 7.045651e+00 8.503007e+00 9.278502e+00 9.482355e+00 9.474098e+00 9.339513e+00 8.562920e+00 7.697348e-01 3.272961e-01 4.749935e-01 7.216948e-01 9.835625e-01 1.239810e+00 1.532632e+00 1.797711e+00 1.960020e+00 1.964590e+00 1.964438e+00 1.934070e+00 1.746441e+00 2.286803e-01
<GCONST> 1.473124e+02
<MIXTURE> 2 5.328687e-01
<MEAN> 39
 -2.644443e+01 4.258640e+00 -1.837414e+00 1.329845e+00 -4.998539e+00 -4.952713e+00 -6.738729e+00 -3.362090e+00 -2.708866e+00 9.516937e-01 1.299609e+00 2.616404e+00 4.716209e+01 -3.371401e-01 -2.220145e-01 -2.467339e-01 -3.911872e-01 -4.684046e-01 -5.071589e-01 -5.995559e-01 -5.801094e-01 -4.332112e-01 -3.008002e-01 -2.573760e-01 -1.863670e-01 -1.793709e-01 7.585493e-02 -6.095568e-02 1.807977e-02 4.035024e-02 5.637280e-02 5.282804e-02 9.455887e-02 9.888402e-02 1.640332e-02 -9.642424e-03 -6.927369e-02 -3.273159e-02 1.398851e-01
<VARIANCE> 39
 1.905316e+01 2.220350e+01 2.933814e+01 3.918688e+01 5.569786e+01 7.385767e+01 8.771918e+01 9.010445e+01 8.580416e+01 8.158495e+01 7.861261e+01 7.190963e+01 1.299030e+01 1.074356e+00 1.742177e+00 2.881994e+00 4.029164e+00 5.270178e+00 6.482864e+00 7.758625e+00 8.599214e+00 8.618214e+00 8.534724e+00 8.367665e+00 7.597313e+00 5.240355e-01 2.080998e-01 3.735447e-01 5.950624e-01 8.285408e-01 1.076667e+00 1.308171e+00 1.542967e+00 1.702189e+00 1.733539e+00 1.721887e+00 1.691111e+00 1.531339e+00 1.367399e-01
<GCONST> 1.388436e+02
~h "f"
<BEGINHMM>
<NUMSTATES> 5
<STATE> 2
<NUMMIXES> 2
<MIXTURE> 1 5.375409e-01
<MEAN> 39
 -3.326037e+01 -1.415528e+01 -1.233781e+00 3.070429e+00 -2.602175e+00 -4.888519e-01 -6.845301e+00 7.913587e-01 -4.873984e+00 3.815442e+00 -3.537355e+00 2.595304e+00 8.934555e+01 -6.327844e-01 -6.780652e-01 -3.866483e-01 -8.379393e-02 3.020743e-01 7.499542e-01 3.923827e-01 3.863783e-01 3.997937e-01 6.357505e-01 5.006382e-01 3.308417e-01 9.011464e-01 1.406451e+00 4.392300e-01 2.806975e-01 -1.268531e-01 2.324132e-01 1.636039e-01 3.698927e-01 8.002547e-02 1.008742e-01 1.495585e-01 3.433891e-02 2.733446e-02 6.870336e-01
<VARIANCE> 39
 1.277194e+02 1.099588e+02 8.007491e+01 8.005424e+01 9.519237e+01 1.094077e+02 1.232447e+02 1.229498e+02 1.262607e+02 1.177604e+02 1.126838e+02 1.025015e+02 3.380427e+02 1.242852e+01 7.801459e+00 7.181602e+00 8.601956e+00 9.063048e+00 1.036418e+01 1.109558e+01 1.153448e+01 1.152258e+01 1.129124e+01 1.097725e+01 1.000978e+01 2.059273e+01 3.414310e+00 1.830294e+00 1.670779e+00 2.137106e+00 2.076027e+00 2.262482e+00 2.568948e+00 2.502588e+00 2.632672e+00 2.535161e+00 2.428882e+00 2.081720e+00 3.350242e+00
<GCONST> 1.755802e+02
<MIXTURE> 2 4.624182e-01
<MEAN> 39
 -3.285380e+01 -1.510319e+01 -2.846124e-01 3.884960e+00 -1.759893e+00 -2.982235e-01 -6.598442e+00 6.472349e-01 -4.676937e+00 4.158645e+00 -3.468240e+00 2.751897e+00 9.261448e+01 -2.651083e+00 -2.235656e+00 -1.972366e+00 -1.451402e+00 -1.670635e+00 -1.369584e+00 -2.111510e+00 -1.486957e+00 -1.240965e+00 -9.849001e-01 -8.147346e-01 -6.233201e-01 6.808131e-01 1.687610e+00 6.470388e-01 3.380058e-01 -2.709474e-01 1.045615e-01 5.181865e-02 3.215083e-01 -9.376013e-02 -1.652040e-01 2.357959e-02 -6.826288e-02 5.276871e-02 4.704088e-01
<VARIANCE> 39
 1.137959e+02 1.010943e+02 9.517103e+01 1.024088e+02 1.151933e+02 1.270533e+02 1.364221e+02 1.351597e+02 1.359302e+02 1.240704e+02 1.182094e+02 1.078700e+02 2.869577e+02 2.421068e+01 1.197339e+01 1.139726e+01 1.316061e+01 1.254664e+01 1.273637e+01 1.348284e+01 1.281252e+01 1.309625e+01 1.238405e+01 1.197805e+01 1.135901e+01 1.910731e+01 3.444527e+00 1.998771e+00 2.334463e+00 3.476279e+00 2.649834e+00 2.879942e+00 3.125672e+00 3.244057e+00 3.252257e+00 2.929684e+00 2.769269e+00 2.553848e+00 2.657115e+00
<GCONST> 1.818886e+02
<STATE> 3
<NUMMIXES> 2
<MIXTURE> 1 5.120781e-01
<MEAN> 39
 -2.470898e+01 -1.558389e+01 -1.665471e+00 1.366386e+00 -2.713645e-01 1.459664e+00 -5.184842e+00 6.594797e-01 -3.757637e+00 5.248088e+00 -3.068148e+00 3.477923e+00 1.027553e+02 1.373181e+01 3.642082e+00 1.321067e+00 -5.302608e+00 4.547527e-01 1.549679e+00 2.753745e+00 6.575941e-01 7.535143e-01 2.204225e+00 5.538663e-01 1.397193e-01 5.934432e+00 3.127228e+00 6.139784e-01 3.601464e-01 -3.082933e+00 -7.927626e-01 -3.406263e-03 3.684800e-01 1.536410e-01 -2.786714e-01 6.321886e-01 -2.176925e-02 -1.797102e-01 1.313700e+00
<VARIANCE> 39
 1.299013e+02 7.110767e+01 6.522774e+01 7.403950e+01 9.502104e+01 1.063461e+02 1.071448e+02 1.063045e+02 1.118701e+02 1.110462e+02 1.012559e+02 9.329462e+01 1.919442e+02 2.912177e+01 2.309905e+01 1.384447e+01 2.855964e+01 1.883335e+01 1.547067e+01 1.726965e+01 1.796992e+01 2.549144e+01 2.062766e+01 2.487865e+01 1.547488e+01 3.474948e+01 3.490420e+00 4.977416e+00 2.977955e+00 3.631112e+00 4.434822e+00 3.664980e+00 4.175953e+00 3.670702e+00 4.676752e+00 3.965889e+00 4.720969e+00 3.548832e+00 4.444087e+00
<GCONST> 1.893439e+02
<MIXTURE> 2 4.879051e-01
<MEAN> 39
 -3.006367e+01 -1.870922e+01 -5.148873e+00 -1.592261e+00 -4.594151e+00 -2.060175e+00 -9.488984e+00 -3.392240e+00 -8.853923e+00 1.890787e+00 -5.104653e+00 2.371777e+00 1.016815e+02 9.514363e+00 2.342694e+00 9.123666e-01 -2.633024e+00 -5.085032e-01 4.190708e-01 9.592733e-01 3.261562e-01 1.592720e-02 2.785961e-01 -3.962798e-02 -5.915982e-01 5.399304e+00 4.079703e+00 1.663536e+00 1.072151e+00 -1.912150e+00 -6.270492e-01 5.097880e-01 7.365036e-01 8.177467e-01 2.076981e-01 7.375934e-01 4.002974e-01 -3.828859e-01 7.865506e-01
<VARIANCE> 39
 1.363606e+02 6.475172e+01 5.956557e+01 6.991631e+01 7.715324e+01 9.077376e+01 9.640776e+01 9.901020e+01 1.029277e+02 9.920305e+01 9.586247e+01 8.559107e+01 2.004480e+02 3.153832e+01 1.863458e+01 1.197138e+01 1.477746e+01 1.528211e+01 1.223846e+01 1.248606e+01 1.512153e+01 1.518962e+01 1.411610e+01 1.574166e+01 1.152896e+01 3.341468e+01 2.610495e+00 3.576285e+00 2.816247e+00 3.396705e+00 4.335756e+00 3.182776e+00 3.661022e+00 3.618728e+00 4.310719e+00 3.814781e+00 4.397824e+00 3.117941e+00 4.733627e+00
<GCONST> 1.834351e+02
<STATE> 4
<NUMMIXES> 2
<MIXTURE> 1 5.294176e-01
<MEAN> 39
 1.502022e+01 -5.135008e+00 5.423613e-01 -1.529691e+01 9.183868e-01 2.983757e+00 2.167082e+00 -3.565666e-01 8.601291e-01 1.058762e+01 -5.733503e+00 1.694728e+00 1.168311e+02 1.430381e+01 9.062641e-01 7.269011e-01 -1.080412e+01 -1.618007e-01 1.083678e+00 3.007750e+00 8.384612e-01 9.600583e-01 3.373076e+00 -2.811742e-01 2.471412e-01 9.204489e+00 -2.858469e+00 -1.346806e+00 -1.964024e-01 -4.475987e-01 -4.257182e-01 -1.788908e-02 -5.942428e-01 3.817867e-01 -5.389705e-01 -2.045700e-01 7.283688e-02 1.526569e-01 -4.409247e-01
<VARIANCE> 39
 2.136619e+02 2.432362e+02 1.102769e+02 3.369991e+02 1.517402e+02 1.485635e+02 1.433586e+02 1.515767e+02 2.635400e+02 1.836642e+02 1.902195e+02 1.356795e+02 3.514767e+02 3.230984e+01 5.577147e+01 2.920883e+01 3.381742e+01 4.315765e+01 2.698056e+01 3.081426e+01 3.005732e+01 4.739582e+01 3.209523e+01 4.006096e+01 2.814266e+01 2.907609e+01 4.414865e+00 2.545496e+00 1.693079e+00 5.783728e+00 2.711498e+00 2.883075e+00 2.750773e+00 2.598421e+00 3.786688e+00 3.466078e+00 3.001989e+00 2.952094e+00 4.992162e+00
<GCONST> 2.009725e+02
<MIXTURE> 2 4.705620e-01
<MEAN> 39
 2.334827e+01 -1.636846e+01 -1.905286e+00 -2.903084e+01 -6.263463e+00 6.772344e+00 -1.245633e+00 9.209907e-01 -6.383170e+00 1.761401e+01 1.039619e+01 -3.580536e+00 1.352267e+02 7.697957e+00 -3.155271e+00 -7.151904e-01 -7.851195e+00 -1.606064e+00 2.421373e+00 5.839823e-01 1.188289e+00 7.726015e-02 2.002156e+00 2.609001e+00 -2.406426e+00 8.696236e+00 -4.310705e+00 -5.748858e-01 -2.063662e-01 1.783760e+00 3.025186e-01 -1.448114e-01 -3.684088e-01 1.642042e-01 5.809349e-01 -1.055577e+00 -1.429843e+00 -8.707918e-02 -2.055972e+00
<VARIANCE> 39
 1.168358e+02 2.612098e+02 1.928224e+02 4.050038e+02 3.114006e+02 2.421748e+02 2.523905e+02 2.922809e+02 4.997181e+02 3.767780e+02 5.396516e+02 2.353574e+02 2.895862e+02 4.929712e+01 3.367687e+01 2.562307e+01 2.809559e+01 3.547114e+01 2.168714e+01 2.205764e+01 2.629056e+01 3.297684e+01 2.695835e+01 4.094472e+01 2.224046e+01 1.837737e+01 3.163605e+00 2.140104e+00 2.144640e+00 5.097376e+00 3.792788e+00 2.831867e+00 3.718244e+00 3.420708e+00 6.421967e+00 4.921153e+00 6.006926e+00 3.257339e+00 3.786312e+00
<GCONST> 2.057719e+02
<TRANSP> 5
 0.000000e+00 1.000000e+00 0.000000e+00 0.000000e+00 0.000000e+00
 0.000000e+00 8.594877e-01 1.405124e-01 0.000000e+00 0.000000e+00
 0.000000e+00 0.000000e+00 6.207300e-01 3.792700e-01 0.000000e+00
 0.000000e+00 0.000000e+00 0.000000e+00 5.228605e-01 4.771396e-01
 0.000000e+00 0.000000e+00 0.000000e+00 0.000000e+00 0.000000e+00
<ENDHMM>
~h "k"
<BEGINHMM>
<NUMSTATES> 5
<STATE> 2
<NUMMIXES> 2
<MIXTURE> 1 4.852940e-01
<MEAN> 39
 -2.545980e+00 5.179998e+00 3.554160e+01 2.929207e+01 -5.361078e+00 -2.211868e+01 7.937070e+00 2.257402e+00 -2.142519e+01 2.293288e+00 1.732474e+00 3.906508e+00 8.532388e+01 -5.060278e+00 5.916545e+00 -8.125257e+00 2.187917e+00 4.707604e+00 7.666968e+00 -1.606618e+00 1.000647e-01 4.138136e+00 -2.394757e+00 6.075569e-01 -1.149872e+00 -1.656600e+01 -8.931373e-01 -2.296715e+00 -2.135604e+00 -3.665647e+00 -4.888624e-01 8.875899e-02 -2.241733e+00 -3.789231e-01 1.542840e+00 3.718968e-01 -5.044748e-01 4.170246e-01 2.507615e+00
<VARIANCE> 39
 1.340078e+02 2.069361e+02 2.806031e+02 2.276106e+02 3.924758e+02 4.213232e+02 4.471752e+02 6.729341e+02 4.319385e+02 3.152056e+02 2.314131e+02 1.965429e+02 3.238483e+02 1.252285e+01 2.966294e+01 2.538008e+01 3.893313e+01 3.067847e+01 3.564826e+01 6.367091e+01 7.885973e+01 6.067500e+01 3.842365e+01 2.602162e+01 2.727796e+01 3.864009e+01 2.961984e+00 4.952379e+00 4.793208e+00 4.041236e+00 5.168288e+00 7.412945e+00 6.803970e+00 8.682388e+00 6.849587e+00 5.334134e+00 4.962476e+00 4.384022e+00 8.143783e+00
<GCONST> 2.143844e+02
<MIXTURE> 2 5.146859e-01
<MEAN> 39
 -1.045230e+01 1.454130e+01 2.138449e+01 2.360114e+01 8.286495e-01 -8.424139e+00 -3.896203e+00 -6.664740e+00 -1.603481e+01 -6.223009e+00 -3.287361e+00 7.365393e-01 6.283334e+01 -6.355460e+00 -4.812386e-01 -1.126607e+01 -3.765568e+00 2.576770e+00 4.252278e+00 -5.612756e+00 1.867764e-01 3.321661e+00 -1.994215e+00 -4.470045e-01 -8.047879e-01 -1.008181e+01 1.958706e-01 -3.820824e+00 -2.478213e-01 -2.613024e+00 -1.476679e+00 -2.016710e+00 1.329744e-01 4.057261e-01 6.081752e-01 1.600016e+00 3.001854e-02 8.258156e-01 6.510161e+00
<VARIANCE> 39
 9.131481e+01 1.737047e+02 1.601395e+02 1.503165e+02 2.264864e+02 2.537757e+02 2.879378e+02 3.005525e+02 2.327607e+02 2.086270e+02 1.705002e+02 1.279142e+02 1.503590e+02 8.364490e+00 3.827414e+01 1.949417e+01 3.067289e+01 2.795868e+01 3.639708e+01 4.441312e+01 6.958842e+01 4.762512e+01 3.185602e+01 2.147492e+01 1.944217e+01 5.597161e+01 3.077356e+00 5.783608e+00 4.234509e+00 4.347192e+00 5.112569e+00 6.735701e+00 8.364514e+00 8.667232e+00 8.306919e+00 5.317085e+00 4.383431e+00 4.178191e+00 9.276039e+00
<GCONST> 2.066039e+02
<STATE> 3
<NUMMIXES> 2
<MIXTURE> 1 5.040829e-01
<MEAN> 39
 -1.885030e+01 -4.117325e+00 -5.837364e+00 6.694345e+00 -2.253523e+00 -7.085269e+00 -1.023373e+01 -3.689657e+00 -5.403207e+00 6.974464e-01 -8.474858e-01 3.023794e+00 6.637621e+01 -7.190025e-01 -4.235635e+00 -4.836814e+00 -2.012959e-01 5.639261e-01 -1.343330e-01 -6.504453e-01 2.371270e+00 2.810477e+00 2.413372e+00 4.111459e-01 8.922315e-01 8.610475e+00 -5.634962e-01 5.187688e-01 1.655563e+00 1.184353e+00 -4.538991e-01 -1.065265e+00 6.503940e-01 3.782249e-01 -4.663817e-01 -2.314137e-02 -2.113620e-01 2.410908e-01 2.839185e+00
<VARIANCE> 39
 1.423514e+02 2.855960e+02 2.370212e+02 1.126989e+02 1.259139e+02 1.445360e+02 1.514271e+02 1.401242e+02 1.266891e+02 1.247882e+02 9.984054e+01 8.206002e+01 6.526962e+02 2.447786e+01 2.476510e+01 2.100585e+01 2.100779e+01 1.992917e+01 2.302564e+01 1.997108e+01 1.855462e+01 1.881971e+01 1.771724e+01 1.459412e+01 1.115588e+01 8.169527e+01 8.635937e+00 8.344234e+00 5.694600e+00 3.227995e+00 4.130345e+00 4.544333e+00 4.841695e+00 4.615472e+00 3.813988e+00 3.858833e+00 2.547671e+00 2.314210e+00 1.601240e+01
<GCONST> 1.977254e+02
<MIXTURE> 2 4.958929e-01
<MEAN> 39
 -1.983516e+01 -5.133266e+00 -3.121678e+00 7.803582e+00 1.688712e+00 -5.923646e+00 -8.523129e+00 -5.576462e-01 -4.338624e+00 2.420750e+00 -8.362239e-01 3.285567e+00 6.736105e+01 -1.825913e+00 -5.507801e+00 -6.408815e+00 -2.594229e+00 -1.547792e-01 -2.225630e+00 -3.764267e+00 -3.477164e-01 8.463259e-01 4.513771e-01 -1.593128e+00 -4.667845e-02 8.616702e+00 -4.909721e-01 5.029355e-01 1.767463e+00 9.485007e-01 -8.002120e-01 -1.652842e+00 6.187636e-01 3.299537e-01 -6.013822e-01 -9.870316e-02 -2.689055e-01 1.823682e-01 3.444281e+00
<VARIANCE> 39
 1.343943e+02 3.205776e+02 2.050789e+02 1.417156e+02 1.582372e+02 1.734649e+02 1.888706e+02 1.726824e+02 1.404980e+02 1.240442e+02 1.202918e+02 8.991999e+01 6.262192e+02 3.123824e+01 2.993203e+01 2.790955e+01 2.661244e+01 2.170324e+01 2.798800e+01 2.006705e+01 2.061127e+01 2.090482e+01 1.696043e+01 1.450226e+01 1.178254e+01 8.083156e+01 8.082191e+00 8.613918e+00 5.265446e+00 3.684066e+00 4.786516e+00 5.647406e+00 5.420521e+00 5.194833e+00 4.654938e+00 3.951896e+00 2.931371e+00 2.624200e+00 1.598247e+01
<GCONST> 2.015884e+02
<STATE> 4
<NUMMIXES> 2
<MIXTURE> 1 5.085247e-01
<MEAN> 39
 -3.049637e+01 -1.303099e+01 -1.239221e+01 1.393238e+01 -3.718379e+00 -2.184609e+01 -1.466377e+01 5.310455e+00 -1.191145e+00 1.212424e+00 -5.210368e+00 7.326300e+00 1.160544e+02 -1.092348e+01 4.289357e+00 1.317930e+00 9.023809e-01 -3.214592e+00 -2.363820e+00 2.458677e+00 3.414679e+00 7.240087e-01 -1.132591e+00 -2.281599e-01 2.158669e+00 6.337416e+00 -9.329290e-01 2.797768e+00 1.723264e+00 -4.402959e-01 -1.038407e-02 1.811508e+00 1.670327e+00 -2.358098e-01 -8.232824e-01 -3.214767e-01 4.967462e-01 -1.475183e-01 -4.837848e+00
<VARIANCE> 39
 3.765040e+02 1.445528e+02 2.151826e+02 1.841850e+02 3.431414e+02 2.468269e+02 1.980373e+02 1.903270e+02 1.730752e+02 1.564202e+02 1.605627e+02 1.203342e+02 1.241657e+02 2.023075e+01 2.064414e+01 1.620012e+01 1.694780e+01 2.329815e+01 2.403447e+01 1.801644e+01 1.589075e+01 2.027917e+01 1.463778e+01 1.334428e+01 1.299287e+01 4.273615e+01 7.784668e+00 4.248509e+00 4.304956e+00 3.494010e+00 3.883857e+00 4.119975e+00 3.821316e+00 4.132760e+00 4.160393e+00 3.528240e+00 3.009129e+00 2.474337e+00 3.656423e+00
<GCONST> 1.959208e+02
<MIXTURE> 2 4.914659e-01
<MEAN> 39
 -3.770371e+01 -1.249042e+01 -8.470072e+00 1.128134e+01 5.627704e+00 -2.284894e+01 -1.909367e+01 3.262310e+00 2.345679e+00 6.562138e+00 -7.367871e+00 3.578789e+00 1.116700e+02 -1.159079e+01 3.274446e+00 2.264636e+00 -2.223082e-01 -2.277993e+00 -4.156552e+00 1.247453e+00 2.580001e+00 1.371473e+00 -1.988199e+00 -1.920338e+00 4.562001e-01 4.473739e+00 -9.364154e-02 1.856655e+00 7.931722e-01 -8.306667e-01 -8.084242e-01 1.452375e+00 1.583955e+00 9.594829e-02 -9.805546e-01 -9.468144e-01 3.652061e-01 1.759916e-01 -3.881832e+00
<VARIANCE> 39
 3.526065e+02 1.090869e+02 1.930943e+02 2.039209e+02 3.519643e+02 2.775022e+02 2.043364e+02 2.081346e+02 1.874018e+02 1.663111e+02 1.565725e+02 1.206118e+02 1.422194e+02 1.591315e+01 1.415908e+01 1.409759e+01 1.621658e+01 2.315113e+01 2.368288e+01 1.685050e+01 1.602124e+01 1.917870e+01 1.451741e+01 1.310652e+01 1.301457e+01 3.019499e+01 8.225963e+00 2.817156e+00 3.404511e+00 2.654548e+00 3.622748e+00 4.282348e+00 3.243049e+00 3.760964e+00 3.682841e+00 3.267745e+00 2.791415e+00 2.341795e+00 3.191903e+00
<GCONST> 1.931573e+02
<TRANSP> 5
 0.000000e+00 1.000000e+00 0.000000e+00 0.000000e+00 0.000000e+00
 0.000000e+00 6.700928e-01 3.299073e-01 0.000000e+00 0.000000e+00
 0.000000e+00 0.000000e+00 7.673053e-01 2.326947e-01 0.000000e+00
 0.000000e+00 0.000000e+00 0.000000e+00 5.332903e-01 4.667097e-01
 0.000000e+00 0.000000e+00 0.000000e+00 0.000000e+00 0.000000e+00
<ENDHMM>
~h "n"
<BEGINHMM>
<NUMSTATES> 5
<STATE> 2
<NUMMIXES> 2
<MIXTURE> 1 4.680182e-01
<MEAN> 39
 1.372676e+01 -9.398866e-01 3.483519e+01 3.365007e+00 -3.518573e+00 2.768817e+00 1.782639e+01 -2.301523e+00 -3.704864e+00 9.246078e+00 -4.295158e+00 1.101976e+01 1.108298e+02 2.272470e+00 3.965072e+00 3.721272e-01 4.975632e+00 -3.938487e-02 1.903484e+00 2.619085e+00 -4.483548e+00 2.295943e-01 6.257812e-01 -1.518521e+00 1.181442e+00 -3.289812e+00 -2.504396e-01 -4.948986e-01 -6.910579e-01 -1.679328e-02 2.106176e-01 -1.035351e-01 -4.522567e-01 4.396817e-01 2.602091e-01 -2.937366e-01 1.023220e-01 -1.179466e-01 3.171812e-01
<VARIANCE> 39
 1.674394e+02 3.117355e+02 2.789200e+02 6.552884e+02 2.893492e+02 3.973208e+02 5.078542e+02 5.788847e+02 4.747844e+02 3.821056e+02 3.494905e+02 3.376052e+02 5.105107e+02 2.136496e+01 1.557544e+01 3.139199e+01 3.867059e+01 2.357923e+01 2.907892e+01 3.740156e+01 4.476167e+01 3.399357e+01 2.973573e+01 2.597709e+01 2.618213e+01 2.717033e+01 2.049294e+00 2.465863e+00 3.842173e+00 8.018379e+00 3.950288e+00 4.986681e+00 5.891021e+00 7.508175e+00 4.995875e+00 4.588134e+00 4.035577e+00 4.191998e+00 2.142576e+00
<GCONST> 2.110677e+02
<MIXTURE> 2 5.319570e-01
<MEAN> 39
 1.742873e+01 -3.222718e+00 3.544431e+01 1.052471e+01 -6.313436e+00 3.528515e+00 1.327964e+01 -2.291501e+00 -9.718122e+00 1.202622e+01 -8.817502e+00 5.763961e+00 1.140162e+02 -6.065259e-03 3.020637e+00 -5.618889e-01 3.024448e+00 8.605917e-01 1.004402e+00 2.140019e+00 -1.871261e+00 -1.107013e-01 6.252677e-01 -1.823140e+00 -5.754436e-01 -3.629011e+00 -6.822867e-01 -4.434681e-01 -8.095705e-01 -5.201764e-01 5.566923e-01 -3.115086e-01 -7.163199e-01 1.047947e+00 5.869231e-01 -4.798093e-01 3.764756e-01 -5.730540e-02 1.731099e-01
<VARIANCE> 39
 9.306124e+01 2.646452e+02 2.307886e+02 5.769706e+02 3.202796e+02 4.079719e+02 5.490037e+02 5.721051e+02 5.711695e+02 4.953564e+02 4.937690e+02 4.376814e+02 3.188361e+02 7.029561e+00 1.264034e+01 1.615921e+01 2.639062e+01 1.795617e+01 2.207659e+01 2.964115e+01 3.220802e+01 2.757000e+01 2.449144e+01 2.127089e+01 2.033430e+01 8.645632e+00 2.143382e+00 2.406095e+00 3.853011e+00 7.705366e+00 4.071719e+00 5.115719e+00 7.262858e+00 7.462906e+00 5.896665e+00 4.902628e+00 5.146157e+00 4.766652e+00 1.870393e+00
<GCONST> 2.060058e+02
<STATE> 3
<NUMMIXES> 2
<MIXTURE> 1 5.456922e-01
<MEAN> 39
 2.087146e+01 7.852245e+00 3.479572e+01 1.860082e+01 -6.725212e+00 1.024230e+01 1.999963e+01 -1.365948e+01 -1.227223e-01 6.744838e+00 -7.914936e+00 1.414425e+01 1.033555e+02 -1.219697e+00 -1.716728e+00 -3.569830e-01 -1.417284e+00 1.824329e+00 -1.329835e+00 -1.487624e+00 3.576888e+00 6.196858e-01 -5.446067e-01 6.287243e-01 -7.615184e-03 1.690510e+00 -1.398620e+00 -1.401297e+00 -1.155057e+00 -1.627918e+00 8.797682e-01 -9.707739e-01 -1.328949e+00 2.160584e+00 7.030027e-02 2.309789e-02 3.949617e-01 -6.214977e-01 6.796213e-01
<VARIANCE> 39
 6.433760e+01 2.259306e+02 1.469755e+02 2.472007e+02 2.617945e+02 4.240728e+02 4.665593e+02 4.373619e+02 5.122775e+02 4.444150e+02 4.845191e+02 4.841030e+02 1.999366e+02 1.429736e+01 1.793386e+01 1.444981e+01 2.469132e+01 2.170467e+01 3.251533e+01 3.381410e+01 3.731391e+01 2.529266e+01 2.020360e+01 2.018555e+01 2.271839e+01 2.737086e+01 2.479089e+00 2.333605e+00 2.833591e+00 3.631147e+00 3.816398e+00 4.844550e+00 5.855913e+00 6.101468e+00 5.551204e+00 3.826657e+00 4.620281e+00 4.488130e+00 2.030072e+00
<GCONST> 2.037776e+02
<MIXTURE> 2 4.542877e-01
<MEAN> 39
 1.492294e+01 1.126073e+01 3.397434e+01 2.286341e+01 1.081772e+00 8.355176e+00 1.915647e+01 -6.998713e+00 -3.221514e+00 7.091768e+00 -1.140427e+01 8.983130e+00 9.762979e+01 -4.207376e+00 -1.961768e+00 -3.027528e+00 -2.160285e+00 2.752902e+00 -1.173263e+00 -2.802962e+00 4.910745e+00 3.864735e-01 -5.174168e-01 7.372207e-01 -2.053673e+00 3.979483e-01 -1.807127e+00 -1.835853e+00 -1.843126e+00 -2.091067e+00 -3.965634e-01 -8.934507e-01 -1.504917e+00 9.986393e-01 2.296000e-01 -1.964289e-01 6.932098e-01 -1.698194e-01 8.470131e-01
<VARIANCE> 39
 9.387785e+01 2.111467e+02 1.339902e+02 2.436753e+02 2.744104e+02 3.695392e+02 3.703472e+02 4.110204e+02 4.381072e+02 4.518328e+02 4.292396e+02 4.379326e+02 2.596963e+02 3.783178e+01 2.768844e+01 2.779453e+01 3.447176e+01 2.985880e+01 4.119379e+01 4.402036e+01 4.679350e+01 4.289509e+01 3.604601e+01 3.703504e+01 3.888915e+01 4.647684e+01 3.558988e+00 2.709604e+00 2.843603e+00 3.416172e+00 5.111396e+00 5.184128e+00 5.076243e+00 7.140045e+00 5.542807e+00 4.517408e+00 4.665631e+00 5.124192e+00 2.533030e+00
<GCONST> 2.110754e+02
<STATE> 4
<NUMMIXES> 2
<MIXTURE> 1 4.852556e-01
<MEAN> 39
 8.174796e+00 -1.270649e+01 2.213465e+01 1.769818e-01 4.373205e+00 -6.823708e+00 1.881260e+00 1.630660e+01 1.467558e+00 5.328968e+00 -6.943559e+00 7.023599e+00 1.130844e+02 -1.528561e+00 -3.881867e+00 -4.388788e+00 -4.636999e+00 1.549919e+00 -7.168320e-01 -3.166097e+00 4.872174e+00 1.923092e+00 -5.122342e-01 1.239084e+00 -1.058848e+00 2.721228e+00 2.279460e-01 6.931486e-01 -2.562605e-01 1.025283e+00 -3.391753e-01 1.261996e+00 8.032665e-01 -1.476532e+00 2.634060e-02 1.911311e-02 1.182603e-01 -2.143579e-01 -8.114759e-01
<VARIANCE> 39
 1.870152e+02 2.522889e+02 2.720390e+02 4.475008e+02 2.761121e+02 3.721089e+02 6.384946e+02 4.214379e+02 3.568362e+02 4.334323e+02 3.172053e+02 3.235768e+02 7.969575e+02 9.071941e+00 2.602454e+01 1.943882e+01 3.598670e+01 2.701124e+01 3.044029e+01 3.792815e+01 4.579934e+01 3.921960e+01 2.605505e+01 2.652380e+01 2.531169e+01 3.060167e+01 1.182643e+00 2.220429e+00 2.964366e+00 4.804221e+00 3.633068e+00 6.036586e+00 6.998455e+00 6.463621e+00 4.608317e+00 3.885037e+00 3.700388e+00 3.466666e+00 2.182857e+00
<GCONST> 2.081452e+02
<MIXTURE> 2 5.147046e-01
<MEAN> 39
 -6.418293e+00 2.345232e+00 1.665019e+01 1.860513e+01 6.008447e+00 7.002454e+00 1.498010e+01 1.002376e+01 1.069977e+00 2.911995e+00 -6.752398e+00 3.125839e+00 8.113573e+01 -5.903417e+00 -2.518157e+00 -5.392256e+00 -3.559710e+00 -1.468182e+00 -2.436768e+00 -3.658695e+00 6.100945e-01 -3.691558e-01 -1.075342e+00 6.923194e-01 -1.300358e+00 -2.259406e+00 4.227485e-01 -5.407836e-02 7.828161e-02 -5.819737e-01 -9.130914e-01 -5.842951e-01 -5.495013e-01 -1.182101e+00 -3.916541e-01 -3.636187e-02 -1.114460e-01 4.517331e-01 7.527149e-01
<VARIANCE> 39
 1.192978e+02 1.636580e+02 1.860609e+02 2.429211e+02 2.233333e+02 2.653563e+02 3.193974e+02 3.228220e+02 2.921920e+02 3.152772e+02 2.352168e+02 2.135918e+02 3.023363e+02 2.806366e+01 1.666088e+01 1.850797e+01 1.864873e+01 1.976472e+01 2.306053e+01 2.550827e+01 2.966400e+01 2.818798e+01 2.328400e+01 2.608052e+01 2.310885e+01 1.613384e+01 2.004684e+00 3.053126e+00 2.801463e+00 3.624080e+00 4.020810e+00 4.291235e+00 4.521452e+00 4.569153e+00 4.461906e+00 4.150867e+00 4.017462e+00 3.908427e+00 2.729955e+00
<GCONST> 1.998697e+02
<TRANSP> 5
 0.000000e+00 1.000000e+00 0.000000e+00 0.000000e+00 0.000000e+00
 0.000000e+00 6.471398e-01 3.528601e-01 0.000000e+00 0.000000e+00
 0.000000e+00 0.000000e+00 6.030889e-01 3.969111e-01 0.000000e+00
 0.000000e+00 0.000000e+00 0.000000e+00 6.332610e-01 3.667390e-01
 0.000000e+00 0.000000e+00 0.000000e+00 0.000000e+00 0.000000e+00
<ENDHMM>
~h "r"
<BEGINHMM>
<NUMSTATES> 5
<STATE> 2
<NUMMIXES> 2
<MIXTURE> 1 5.260413e-01
<MEAN> 39
 3.709353e+01 -1.759139e+01 -7.206912e+00 2.897021e+00 2.575546e+01 -2.616760e+01 -2.883687e+01 3.725600e+00 -7.018126e+00 6.471776e+00 1.967751e+00 9.013340e+00 1.265336e+02 7.861298e-01 -2.235564e-01 -2.604153e+00 -5.839708e-01 1.176968e+00 -2.412301e-01 -7.875044e-01 3.541448e-01 1.284994e+00 8.950818e-01 4.309519e-01 3.634363e-01 -2.326297e-01 -8.501445e-01 -1.345837e-01 1.576130e+00 -1.064847e-01 -1.502111e+00 -6.370377e-02 1.273451e+00 4.660807e-01 -4.630202e-01 -1.097967e-01 1.277048e-01 -8.868708e-03 2.346621e-01
<VARIANCE> 39
 6.260902e+01 1.803173e+02 4.672873e+02 2.920199e+02 3.802123e+02 8.566978e+02 1.025532e+03 3.992944e+02 3.198386e+02 3.471044e+02 2.537843e+02 1.989741e+02 1.694419e+02 4.531199e+00 6.212391e+00 1.924646e+01 1.385391e+01 1.790339e+01 2.151354e+01 1.840064e+01 1.881952e+01 1.634994e+01 1.329042e+01 1.285049e+01 1.170649e+01 4.691632e+00 5.864487e-01 9.285188e-01 1.324353e+00 1.582854e+00 1.899968e+00 3.471717e+00 2.513161e+00 2.796143e+00 2.331943e+00 2.155593e+00 2.101364e+00 1.877701e+00 5.374144e-01
<GCONST> 1.850286e+02
<MIXTURE> 2 4.739228e-01
<MEAN> 39
 3.631451e+01 -1.763017e+01 -4.370466e+00 2.306351e+00 2.524464e+01 -1.580491e+01 -3.392316e+01 1.222654e+00 -9.341427e+00 3.756093e+00 2.228217e+00 6.121866e+00 1.263616e+02 4.966802e-01 -1.244273e+00 -1.120467e+00 6.664299e-01 1.393739e+00 -2.026926e+00 -2.071153e+00 1.186285e+00 1.662814e+00 6.151985e-01 -2.357221e-01 -2.375334e-01 3.555363e-01 -1.297927e+00 2.247205e-03 1.864317e+00 1.354386e-01 -1.925897e+00 -3.628258e-01 1.615626e+00 8.356371e-01 -2.903175e-01 -2.649074e-01 -1.118273e-01 7.037662e-02 6.062921e-02
<VARIANCE> 39
 7.030152e+01 1.941248e+02 5.001086e+02 3.805569e+02 4.074610e+02 8.597014e+02 9.683595e+02 4.481266e+02 3.303419e+02 4.464627e+02 2.800520e+02 2.349834e+02 1.762037e+02 7.034942e+00 9.714281e+00 2.806528e+01 2.144013e+01 2.041903e+01 3.387592e+01 2.425978e+01 2.779153e+01 2.216684e+01 1.943047e+01 1.600530e+01 1.532802e+01 8.103765e+00 1.904475e+00 1.530667e+00 2.295223e+00 2.555354e+00 3.237639e+00 4.901812e+00 4.705047e+00 3.942615e+00 3.388080e+00 3.590050e+00 2.956985e+00 2.829816e+00 9.024405e-01
<GCONST> 1.976512e+02
<STATE> 3
<NUMMIXES> 2
<MIXTURE> 1 5.575935e-01
<MEAN> 39
 3.297521e+01 -2.521356e+01 5.243424e+00 7.926072e+00 1.830419e+01 -3.636410e+01 -2.612140e+01 1.533704e+01 -7.199872e+00 3.558273e+00 4.549254e-01 9.734146e+00 1.304809e+02 -2.872598e+00 -1.192163e+00 5.984639e+00 5.423341e-01 -5.642831e+00 -2.666837e+00 5.459027e+00 3.444386e+00 -2.455407e+00 -1.225016e+00 1.233596e+00 5.368276e-01 1.095391e+00 -9.102863e-01 1.020990e+00 1.190879e+00 -9.128743e-01 -1.117638e+00 2.225793e+00 1.813473e+00 -1.657714e+00 -1.044385e+00 6.453946e-01 3.490992e-01 -4.726154e-01 -4.441136e-01
<VARIANCE> 39
 6.191490e+01 1.625367e+02 5.005578e+02 3.373932e+02 3.934009e+02 7.462950e+02 1.049494e+03 3.752140e+02 3.574946e+02 4.450516e+02 2.851673e+02 2.434624e+02 1.555347e+02 4.685072e+00 7.478487e+00 2.587562e+01 1.955449e+01 2.018664e+01 3.025261e+01 2.679927e+01 2.531556e+01 2.643851e+01 2.400722e+01 1.970442e+01 1.438344e+01 6.978510e+00 1.148199e+00 1.218640e+00 2.123254e+00 1.739507e+00 3.418145e+00 4.358377e+00 3.996593e+00 3.632875e+00 3.092766e+00 2.964358e+00 2.550328e+00 2.851949e+00 3.930073e-01
<GCONST> 1.936220e+02
<MIXTURE> 2 4.423949e-01
<MEAN> 39
 3.073885e+01 -2.393742e+01 6.777357e+00 1.026329e+01 1.837786e+01 -2.887931e+01 -3.036655e+01 1.305686e+01 -7.333818e+00 1.016097e+00 -1.290199e+00 6.672461e+00 1.294410e+02 -4.569856e+00 -8.027062e-01 7.715787e+00 2.792691e+00 -5.348222e+00 -2.599453e+00 5.335737e+00 3.288805e+00 -1.197359e+00 -1.359646e+00 1.187230e-01 -7.704240e-01 -1.486826e-01 -1.564285e+00 1.399337e+00 1.011280e+00 -1.170011e+00 -1.390570e+00 2.418823e+00 2.271792e+00 -1.334621e+00 -1.006312e+00 4.523837e-01 2.391355e-01 -2.162954e-01 -8.771603e-01
<VARIANCE> 39
 7.385886e+01 2.138557e+02 6.144584e+02 4.095860e+02 4.326503e+02 8.424515e+02 1.056472e+03 4.635186e+02 4.355500e+02 5.342983e+02 2.719832e+02 2.487793e+02 2.038088e+02 1.103277e+01 1.211987e+01 3.156678e+01 3.005881e+01 3.506321e+01 4.169205e+01 4.246889e+01 4.036441e+01 5.003566e+01 3.046258e+01 2.560996e+01 2.129353e+01 1.790432e+01 2.984740e+00 2.783452e+00 2.936358e+00 3.154757e+00 4.926007e+00 7.259994e+00 6.524081e+00 6.589793e+00 5.149580e+00 5.432857e+00 3.537730e+00 3.588079e+00 1.610920e+00
<GCONST> 2.095167e+02
<STATE> 4
<NUMMIXES> 2
<MIXTURE> 1 5.721236e-01
<MEAN> 39
 2.210322e+01 -2.452545e+01 2.424241e+01 6.203839e+00 -1.140065e+00 -3.460302e+01 -4.809980e+00 1.511773e+01 -2.001938e+01 5.188090e+00 6.264960e+00 6.076276e+00 1.304550e+02 -3.401037e+00 1.845512e+00 5.754808e+00 -3.137111e+00 -4.750909e+00 4.158385e+00 5.815408e+00 -3.404138e+00 -2.198569e+00 2.747118e+00 7.214262e-02 -1.540761e+00 -2.462528e-02 5.064072e-03 9.905089e-01 -6.320370e-01 -6.609883e-01 1.297526e+00 1.787580e+00 -1.180946e+00 -1.436429e+00 1.307041e+00 4.335404e-01 -9.922968e-01 -8.686031e-02 -5.466064e-01
<VARIANCE> 39
 1.448860e+02 1.850132e+02 8.904935e+02 3.508666e+02 3.432057e+02 6.601470e+02 9.004535e+02 4.045272e+02 5.463708e+02 4.872133e+02 2.808017e+02 2.563593e+02 2.980711e+02 5.502844e+00 8.004951e+00 2.297038e+01 1.533868e+01 1.850536e+01 1.890640e+01 2.206918e+01 2.910429e+01 2.082489e+01 1.953893e+01 1.722452e+01 1.451343e+01 4.893592e+00 6.449632e-01 1.208782e+00 1.951173e+00 1.731203e+00 2.415347e+00 3.477262e+00 3.848379e+00 3.061832e+00 3.677330e+00 2.619728e+00 2.380091e+00 2.169471e+00 4.125013e-01
<GCONST> 1.927106e+02
<MIXTURE> 2 4.278550e-01
<MEAN> 39
 9.661005e+00 -1.484453e+01 -3.018222e+00 1.512410e+01 1.682460e+01 -7.178799e+00 6.982877e-01 1.808343e+01 4.241778e+00 4.767220e+00 -1.443932e+00 3.654668e+00 9.678465e+01 -6.446198e+00 6.584967e-02 2.512846e+00 4.588428e-01 -2.893497e+00 2.152789e+00 2.167470e+00 -9.409490e-01 -6.353472e-02 -7.236431e-01 -8.311948e-01 -1.258039e+00 -3.915707e+00 -4.208962e-02 3.042915e-01 -7.555623e-01 -1.309615e+00 -3.347394e-01 -2.024878e-01 -7.504612e-01 -7.404043e-01 -5.413053e-01 1.471383e-01 5.961153e-02 4.748477e-02 1.066969e-01
<VARIANCE> 39
 2.267704e+02 1.930979e+02 4.527204e+02 3.146724e+02 3.996749e+02 5.413079e+02 5.530736e+02 4.371144e+02 4.148521e+02 3.001228e+02 2.519974e+02 2.582977e+02 4.667581e+02 2.814665e+01 2.446228e+01 2.493322e+01 3.027850e+01 2.863823e+01 3.782219e+01 3.918046e+01 2.985588e+01 2.925468e+01 2.477227e+01 2.188499e+01 2.041625e+01 1.355351e+01 3.135971e+00 3.329217e+00 3.644220e+00 4.466413e+00 4.452783e+00 6.069743e+00 4.823360e+00 4.706648e+00 5.061886e+00 4.180097e+00 3.774048e+00 3.644680e+00 1.938026e+00
<GCONST> 2.082707e+02
<TRANSP> 5
 0.000000e+00 1.000000e+00 0.000000e+00 0.000000e+00 0.000000e+00
 0.000000e+00 7.574432e-01 2.425568e-01 0.000000e+00 0.000000e+00
 0.000000e+00 0.000000e+00 5.057866e-01 4.942134e-01 0.000000e+00
 0.000000e+00 0.000000e+00 0.000000e+00 5.933323e-01 4.066677e-01
 0.000000e+00 0.000000e+00 0.000000e+00 0.000000e+00 0.000000e+00
<ENDHMM>
~h "s"
<BEGINHMM>
<NUMSTATES> 5
<STATE> 2
<NUMMIXES> 2
<MIXTURE> 1 4.277216e-01
<MEAN> 39
 -1.905879e+01 3.986652e+00 1.426360e+01 5.060037e+00 5.819472e+00 -9.996454e+00 -4.511932e+00 9.630109e-01 -3.276711e+00 1.791703e+00 -7.377964e+00 5.783059e+00 1.064399e+02 -9.166226e+00 3.664227e+00 -2.645171e+00 1.319844e+00 4.823330e-01 5.160791e-01 2.327945e+00 2.132767e+00 1.312730e+00 -8.570268e-01 8.173326e-01 8.331677e-01 -7.088560e-02 -9.131315e-01 -3.686312e-01 -1.601705e+00 -7.963601e-01 -4.582081e-01 2.137703e-01 -5.063384e-02 2.248726e-01 -4.803162e-01 3.916239e-01 5.255125e-01 -1.723805e-01 -1.909947e-01
<VARIANCE> 39
 7.358621e+02 2.119484e+02 4.590662e+02 3.455461e+02 3.863769e+02 3.901621e+02 3.503618e+02 3.463551e+02 3.715953e+02 2.849628e+02 2.379627e+02 2.878847e+02 5.069513e+02 5.929030e+01 2.565553e+01 4.006550e+01 4.969910e+01 3.216139e+01 4.805247e+01 3.188157e+01 3.339590e+01 3.964598e+01 3.175729e+01 2.878903e+01 2.545259e+01 2.953297e+01 9.303695e+00 4.310240e+00 5.739514e+00 5.913819e+00 5.368535e+00 5.894539e+00 5.481477e+00 5.836335e+00 5.463654e+00 5.330195e+00 4.411602e+00 4.466987e+00 2.925934e+00
<GCONST> 2.160919e+02
<MIXTURE> 2 5.722491e-01
<MEAN> 39
 -3.997953e+01 4.933712e+00 2.195511e+00 7.949807e+00 -3.294355e-01 -8.213360e+00 2.944332e-01 7.262937e+00 -2.983296e+00 1.755153e+00 -3.461562e+00 5.508830e+00 1.029246e+02 -8.781152e+00 1.125088e+00 -4.634742e+00 -2.506980e+00 -2.008081e+00 -5.205306e-01 9.671766e-02 6.398923e-01 -9.426721e-01 -4.398224e-01 4.354535e-01 1.283672e-01 1.384414e+00 1.686044e+00 -4.026380e-01 -3.655291e-01 -6.435415e-01 -1.531517e-01 2.240737e-01 -6.471002e-01 -9.135620e-01 -4.046611e-01 2.025988e-01 -1.715413e-01 -3.749077e-02 -6.762599e-01
<VARIANCE> 39
 2.787013e+02 2.583852e+02 2.867912e+02 3.015300e+02 4.060197e+02 3.674204e+02 3.017652e+02 2.308724e+02 2.074856e+02 1.894837e+02 1.941807e+02 1.608185e+02 3.782292e+02 4.405436e+01 1.951285e+01 4.617062e+01 2.381037e+01 2.353400e+01 2.629936e+01 2.594886e+01 2.336654e+01 2.309146e+01 1.919757e+01 1.830484e+01 1.939561e+01 2.734281e+01 5.678255e+00 4.678295e+00 4.253220e+00 5.072551e+00 5.314506e+00 5.927479e+00 4.955151e+00 4.675680e+00 4.561072e+00 4.059384e+00 4.008817e+00 3.508411e+00 3.351345e+00
<GCONST> 2.057426e+02
<STATE> 3
<NUMMIXES> 2
<MIXTURE> 1 5.220510e-01
<MEAN> 39
 -5.459138e+01 7.551811e+00 -9.448864e+00 -8.629985e-01 -3.877112e+00 -1.351986e+01 -2.322261e+00 4.945703e+00 -5.811904e+00 3.553467e-01 -4.332080e+00 7.264867e+00 1.079681e+02 -2.482968e+00 1.886743e+00 -2.727758e+00 -5.907686e-01 3.668121e-02 1.639898e+00 4.633405e-01 -1.202497e-01 -1.385223e-01 6.666579e-01 3.769574e-01 2.482530e-01 1.802910e-01 2.378404e+00 -6.248392e-01 8.227381e-01 7.402785e-01 6.340138e-01 5.900658e-01 -1.284926e-01 -2.093506e-01 2.684445e-01 3.765764e-01 -9.475785e-02 -2.682835e-01 -6.719660e-01
<VARIANCE> 39
 1.363931e+02 1.447959e+02 1.823569e+02 2.850679e+02 3.812596e+02 2.868788e+02 1.975607e+02 1.914778e+02 1.644625e+02 1.567389e+02 1.723546e+02 1.368676e+02 1.903883e+02 1.483365e+01 1.208635e+01 1.238653e+01 1.392060e+01 1.448338e+01 1.788279e+01 1.659888e+01 1.530741e+01 1.430136e+01 1.342169e+01 1.286025e+01 1.188795e+01 1.177396e+01 2.441726e+00 2.150496e+00 3.240291e+00 2.757684e+00 3.256811e+00 3.123137e+00 3.449091e+00 3.474872e+00 2.991568e+00 2.931854e+00 2.709806e+00 2.622250e+00 1.832136e+00
<GCONST> 1.876208e+02
<MIXTURE> 2 4.779457e-01
<MEAN> 39
 -5.311476e+01 8.929018e+00 -9.611836e+00 9.792327e-01 -2.987621e+00 -9.558866e+00 -3.443498e-01 3.956587e+00 -5.044300e+00 1.791565e+00 -2.894856e+00 6.281816e+00 1.072198e+02 -4.130795e+00 -6.341060e-02 -4.869704e+00 -2.305165e+00 -2.058550e+00 -5.131633e-01 -1.796091e+00 -1.310033e+00 -1.402420e+00 -5.283657e-01 -5.291795e-01 -3.255525e-01 3.830514e-01 2.801207e+00 -4.829523e-01 1.282827e+00 5.824379e-01 3.330089e-01 2.465095e-01 -2.946794e-01 -4.280443e-01 2.445285e-02 1.034072e-01 -3.931618e-01 -1.008229e-01 -4.388118e-01
<VARIANCE> 39
 1.226303e+02 1.434386e+02 1.781340e+02 2.768139e+02 3.475143e+02 2.921178e+02 2.042807e+02 1.799914e+02 1.682421e+02 1.515175e+02 1.679201e+02 1.310889e+02 1.749681e+02 1.623493e+01 1.736057e+01 1.833061e+01 1.477906e+01 1.668686e+01 1.926929e+01 1.880700e+01 1.537186e+01 1.387213e+01 1.419455e+01 1.325484e+01 1.286248e+01 1.203536e+01 2.714369e+00 2.193660e+00 3.873053e+00 2.969540e+00 3.165061e+00 3.391015e+00 3.452783e+00 3.466927e+00 3.305714e+00 3.030024e+00 3.028480e+00 2.991085e+00 1.728423e+00
<GCONST> 1.893384e+02
<STATE> 4
<NUMMIXES> 2
<MIXTURE> 1 4.636503e-01
<MEAN> 39
 -5.240765e+01 5.831092e+00 -1.598052e+01 3.045377e+00 -8.481416e+00 -5.413325e+00 -4.240026e+00 3.248552e+00 -7.083248e+00 2.389032e+00 -3.430888e+00 6.139039e+00 1.067999e+02 1.050047e+00 -2.588604e-02 7.917159e-01 7.117840e-02 2.412619e-01 5.306496e-01 5.865634e-01 3.843850e-01 5.823713e-01 4.817140e-01 2.528643e-01 3.122182e-01 2.592579e-01 1.500625e+00 3.245112e-02 1.313860e+00 3.514636e-01 3.033570e-01 -2.014106e-01 1.191870e-01 -2.428258e-02 2.896466e-01 4.210573e-02 -3.801700e-02 1.166601e-01 1.453923e-01
<VARIANCE> 39
 1.271764e+02 1.323516e+02 1.432179e+02 2.316595e+02 2.882303e+02 2.763201e+02 1.474630e+02 1.358019e+02 1.376818e+02 1.267302e+02 1.383736e+02 1.174793e+02 1.699132e+02 7.335984e+00 6.118891e+00 7.305670e+00 7.852060e+00 9.528338e+00 1.097712e+01 1.090669e+01 1.113368e+01 1.094152e+01 1.130691e+01 1.084069e+01 1.013816e+01 5.431169e+00 2.590961e+00 1.412050e+00 2.241864e+00 1.706046e+00 1.895608e+00 2.401708e+00 2.396904e+00 2.333424e+00 2.260248e+00 2.388290e+00 2.204431e+00 2.151703e+00 1.140629e+00
<GCONST> 1.753694e+02
<MIXTURE> 2 5.363020e-01
<MEAN> 39
 -5.318619e+01 6.476540e+00 -1.487615e+01 2.920863e+00 -6.175532e+00 -5.539896e+00 -4.577695e+00 3.377522e+00 -6.238131e+00 2.864115e+00 -3.922106e+00 5.934729e+00 1.047834e+02 1.195585e-01 -3.303227e-01 -2.807716e-01 -4.267979e-01 -2.176639e-01 1.240342e-02 -4.743422e-01 -5.397396e-01 -3.771859e-01 -2.141494e-01 -4.001270e-01 -2.953347e-01 1.317967e-01 5.664286e-01 -2.280528e-01 4.606535e-01 -7.146742e-02 -7.750162e-02 -2.797587e-01 -1.356910e-02 -2.412523e-02 6.321130e-02 -7.456131e-02 -1.428524e-02 1.555246e-02 1.310937e-02
<VARIANCE> 39
 1.251184e+02 1.305535e+02 1.506800e+02 2.517073e+02 2.984522e+02 2.735241e+02 1.509493e+02 1.372325e+02 1.425000e+02 1.254151e+02 1.365832e+02 1.156921e+02 1.795454e+02 3.226542e+00 4.575450e+00 4.852230e+00 6.303012e+00 7.563997e+00 9.340116e+00 9.701800e+00 1.023604e+01 1.004977e+01 1.019485e+01 9.895575e+00 9.468632e+00 3.773184e+00 8.614950e-01 9.486293e-01 1.122275e+00 1.293516e+00 1.531286e+00 1.863934e+00 2.050887e+00 2.091398e+00 2.093092e+00 2.098521e+00 2.021965e+00 1.925019e+00 6.244532e-01
<GCONST> 1.683293e+02
<TRANSP> 5
 0.000000e+00 1.000000e+00 0.000000e+00 0.000000e+00 0.000000e+00
 0.000000e+00 5.449215e-01 4.550786e-01 0.000000e+00 0.000000e+00
 0.000000e+00 0.000000e+00 5.241888e-01 4.758112e-01 0.000000e+00
 0.000000e+00 0.000000e+00 0.000000e+00 8.389067e-01 1.610933e-01
 0.000000e+00 0.000000e+00 0.000000e+00 0.000000e+00 0.000000e+00
<ENDHMM>
~h "t"
<BEGINHMM>
<NUMSTATES> 5
<STATE> 2
<NUMMIXES> 2
<MIXTURE> 1 4.333408e-01
<MEAN> 39
 -6.165967e+00 1.229267e+01 2.899005e+01 1.945052e+01 3.821316e+00 1.674570e+00 -2.725840e-01 -2.301138e-01 -6.346403e+00 1.506034e+00 -3.430244e+00 1.698762e+00 7.695712e+01 -3.188476e+00 2.155366e+00 -7.527996e+00 1.810162e+00 2.178150e+00 1.460549e+00 1.079499e+00 2.200839e+00 3.369292e+00 3.102403e-01 2.052707e+00 3.257529e-01 -9.016221e+00 -7.185813e-01 -1.335706e+00 4.925891e-02 -2.545977e+00 -7.547626e-01 -4.607091e-01 -4.673189e-01 -7.155800e-01 -4.805207e-01 1.765260e-01 -1.808881e-01 2.159538e-01 1.989772e+00
<VARIANCE> 39
 3.374435e+02 2.970733e+02 4.295556e+02 3.240731e+02 2.663801e+02 2.640078e+02 3.237713e+02 3.105159e+02 2.894783e+02 2.251922e+02 2.026124e+02 1.863083e+02 5.264865e+02 2.593182e+01 3.728801e+01 6.670367e+01 4.544288e+01 3.145251e+01 3.438990e+01 3.348347e+01 4.126245e+01 4.712350e+01 3.093430e+01 2.809586e+01 2.747552e+01 7.178292e+01 4.029066e+00 7.156926e+00 8.089838e+00 7.736766e+00 6.008549e+00 5.702677e+00 6.359384e+00 6.003850e+00 7.133079e+00 5.077491e+00 4.610699e+00 4.256411e+00 1.321079e+01
<GCONST> 2.167428e+02
<MIXTURE> 2 5.666323e-01
<MEAN> 39
 -2.022998e+01 1.061227e+01 8.829148e+00 1.065741e+01 2.769862e+00 2.160091e+00 -1.633079e+00 -1.249474e+00 -2.508016e+00 1.143748e+00 -4.984473e-01 1.889415e+00 5.356919e+01 -3.573437e+00 -3.742352e+00 -4.714736e+00 -4.499868e+00 -1.308825e+00 -1.780591e+00 -1.711704e+00 -3.484485e-01 -3.401623e-01 -1.754215e-01 7.748541e-01 2.206843e-02 1.600621e+00 3.835413e-02 -7.699141e-01 1.739078e+00 -1.168565e+00 -7.185866e-01 -7.819719e-01 3.120618e-02 -4.770263e-01 -8.638749e-01 8.064560e-02 -5.045790e-01 2.526709e-01 5.113883e+00
<VARIANCE> 39
 1.095670e+02 1.128565e+02 1.476154e+02 1.268501e+02 1.292283e+02 1.433642e+02 1.698864e+02 1.685995e+02 1.501226e+02 1.445822e+02 1.292717e+02 1.040258e+02 1.042835e+02 2.078638e+01 1.951431e+01 4.039679e+01 2.340656e+01 1.928832e+01 1.912912e+01 2.152671e+01 2.262206e+01 2.122910e+01 1.786026e+01 1.695989e+01 1.466734e+01 1.078295e+02 3.026467e+00 4.673759e+00 5.343581e+00 4.434759e+00 4.138563e+00 4.239190e+00 4.400518e+00 4.793840e+00 5.177742e+00 3.910935e+00 3.564352e+00 3.291583e+00 8.761877e+00
<GCONST> 1.956266e+02
<STATE> 3
<NUMMIXES> 2
<MIXTURE> 1 4.722207e-01
<MEAN> 39
 -3.503719e+01 3.616456e+00 4.088932e+00 -1.014395e+01 -4.208069e+00 -9.425120e+00 -3.204424e+00 -5.400970e+00 -1.141399e+01 2.254913e+00 -3.155055e-01 3.743761e+00 1.056823e+02 -3.873873e+00 1.399922e+00 1.167230e+00 -7.485856e-01 -1.993549e+00 -1.868654e+00 2.706268e+00 7.538307e-01 -9.484019e-01 7.259601e-01 4.004984e-01 2.025650e+00 8.778914e+00 1.373006e+00 1.441339e-01 1.492939e+00 1.972447e+00 -1.421996e-01 6.052660e-01 7.959538e-01 5.118114e-01 7.252950e-01 3.171930e-02 -2.067435e-01 2.605521e-01 -3.278162e+00
<VARIANCE> 39
 2.399211e+02 1.900683e+02 2.102057e+02 1.944516e+02 1.654517e+02 1.709013e+02 1.921363e+02 2.044096e+02 1.839203e+02 1.580630e+02 1.375181e+02 1.279348e+02 1.089604e+03 1.915419e+01 1.984673e+01 1.914174e+01 1.998886e+01 1.805817e+01 2.188340e+01 2.148666e+01 2.360272e+01 1.925763e+01 1.766259e+01 1.939126e+01 1.560191e+01 9.022314e+01 4.559124e+00 4.530181e+00 4.344064e+00 4.656862e+00 3.893598e+00 3.656281e+00 3.984459e+00 3.953406e+00 4.216558e+00 3.579858e+00 3.271475e+00 3.080602e+00 2.316473e+01
<GCONST> 2.006523e+02
<MIXTURE> 2 5.277637e-01
<MEAN> 39
 -2.923740e+01 -4.718259e+00 4.897939e+00 -8.911521e+00 -2.145025e+00 -5.844233e+00 -5.301958e+00 -3.625640e+00 -7.745444e+00 1.156173e+00 -1.130614e+00 2.213540e+00 9.115181e+01 -4.222139e+00 -8.788780e-01 -3.745236e-02 -4.069571e+00 -2.139666e+00 -3.427571e+00 -1.732351e-01 -9.169790e-01 -2.980801e+00 -7.432517e-01 -9.886109e-01 6.099075e-01 1.468463e+01 4.238040e-02 1.477804e+00 1.101406e+00 1.720135e+00 -3.113442e-01 -4.954889e-02 8.494224e-01 3.628436e-01 8.844543e-02 1.381780e-01 -9.497365e-02 4.187248e-01 -9.967346e-01
<VARIANCE> 39
 1.157907e+02 1.868530e+02 1.728304e+02 1.769949e+02 1.447353e+02 1.510543e+02 1.439726e+02 1.492711e+02 1.317631e+02 1.173879e+02 1.050573e+02 9.719711e+01 1.147597e+03 1.739546e+01 2.010147e+01 2.268201e+01 1.693105e+01 1.886701e+01 2.114940e+01 2.251338e+01 2.018661e+01 1.774533e+01 1.810730e+01 1.646665e+01 1.334430e+01 8.740470e+01 3.375637e+00 3.632084e+00 3.561065e+00 3.928884e+00 3.615936e+00 3.592417e+00 3.489687e+00 3.450616e+00 3.371487e+00 2.894284e+00 2.915861e+00 2.772608e+00 2.156988e+01
<GCONST> 1.950668e+02
<STATE> 4
<NUMMIXES> 2
<MIXTURE> 1 4.841521e-01
<MEAN> 39
 -3.804095e+01 -5.813599e-01 1.745321e+01 -4.005621e+00 -1.232343e+01 -1.275554e+01 6.916237e+00 -6.080901e-02 -1.102047e+01 1.948574e+00 -2.132845e+00 9.658580e+00 1.139534e+02 6.781864e+00 -8.346928e-01 5.985951e+00 4.685302e+00 4.683648e-01 6.951019e-01 1.635257e+00 1.640620e+00 1.202968e+00 2.053738e-01 -8.973159e-01 4.035035e-01 -1.166537e+00 2.929180e+00 -1.368427e-01 1.059043e+00 3.918690e-01 1.045151e+00 2.861457e-01 -1.093771e+00 -2.434949e-01 -5.940581e-02 8.944201e-02 -1.997508e-01 -5.193226e-01 7.307559e-02
<VARIANCE> 39
 2.144772e+02 1.252458e+02 1.752355e+02 1.709131e+02 1.803995e+02 2.404217e+02 2.549249e+02 3.080542e+02 1.981877e+02 1.871043e+02 2.169341e+02 1.650225e+02 3.152394e+02 3.774235e+01 1.250027e+01 2.271604e+01 1.905703e+01 1.610609e+01 1.756705e+01 1.966250e+01 1.768316e+01 1.706616e+01 1.600893e+01 1.672886e+01 1.569036e+01 1.327276e+01 4.404130e+00 3.193108e+00 3.037115e+00 3.407216e+00 3.490507e+00 5.739883e+00 4.353501e+00 3.809757e+00 4.563089e+00 4.090747e+00 4.089200e+00 3.329208e+00 8.157940e+00
<GCONST> 1.968046e+02
<MIXTURE> 2 5.158255e-01
<MEAN> 39
 -3.217411e+01 -2.171606e+00 1.120933e+01 -3.497783e+00 -1.025908e+01 -1.361964e+01 5.980670e+00 1.754246e+00 -9.181252e+00 -2.927470e-01 -1.769358e+00 8.893249e+00 9.967903e+01 1.845412e+00 -1.550185e+00 7.379546e-01 1.198102e+00 -1.252527e+00 -3.428627e-01 -3.247136e-02 1.132576e+00 4.203603e-01 -5.184722e-01 -6.982943e-01 7.648323e-02 -2.396770e+00 1.423814e+00 1.974336e-02 2.448117e-01 4.853414e-01 5.678262e-01 6.466334e-01 -4.498987e-01 -7.960305e-02 2.505324e-01 6.210988e-02 -9.784444e-02 -5.648354e-01 -9.483937e-01
<VARIANCE> 39
 3.234289e+02 1.469489e+02 2.087500e+02 1.762033e+02 1.819609e+02 2.528161e+02 2.696223e+02 3.061876e+02 2.234064e+02 2.005957e+02 2.416002e+02 1.799213e+02 6.304414e+02 2.031006e+01 1.169422e+01 1.856315e+01 1.586391e+01 1.791263e+01 1.754465e+01 1.762744e+01 1.895025e+01 1.760346e+01 1.607739e+01 1.651279e+01 1.576228e+01 1.694551e+01 5.412762e+00 2.921773e+00 3.457623e+00 2.918632e+00 2.942751e+00 3.450271e+00 3.681962e+00 3.738716e+00 3.827511e+00 3.494157e+00 3.489257e+00 2.939074e+00 6.956534e+00
<GCONST> 1.964809e+02
<TRANSP> 5
 0.000000e+00 1.000000e+00 0.000000e+00 0.000000e+00 0.000000e+00
 0.000000e+00 7.648331e-01 2.351669e-01 0.000000e+00 0.000000e+00
 0.000000e+00 0.000000e+00 6.469925e-01 3.530075e-01 0.000000e+00
 0.000000e+00 0.000000e+00 0.000000e+00 7.080482e-01 2.919518e-01
 0.000000e+00 0.000000e+00 0.000000e+00 0.000000e+00 0.000000e+00
<ENDHMM>
~h "v"
<BEGINHMM>
<NUMSTATES> 5
<STATE> 2
<NUMMIXES> 2
<MIXTURE> 1 4.816557e-01
<MEAN> 39
 1.349475e+01 -2.679378e+01 1.324985e+01 -1.848815e+01 -1.150922e+01 -1.903615e+01 4.122985e+00 1.346541e+01 1.569392e+01 1.084342e+01 -1.757373e+00 7.015017e+00 1.452111e+02 1.494790e+00 1.553071e+00 1.058523e+00 2.078538e+00 1.005877e+00 -8.214944e-01 -2.265753e+00 -2.264168e+00 -1.004668e+00 1.171862e+00 2.071408e-01 -7.296845e-02 -2.768501e+00 -2.731105e-02 1.174342e+00 1.728616e-01 1.686925e+00 1.418057e+00 1.128780e+00 -7.428657e-01 -1.040302e+00 -9.925995e-01 -1.582458e-01 -1.090817e-01 -5.969406e-02 -1.836061e+00
<VARIANCE> 39
 7.014330e+01 1.562419e+02 2.313431e+02 2.053590e+02 2.454812e+02 2.677627e+02 7.524574e+02 2.725867e+02 2.827872e+02 4.113238e+02 3.386415e+02 3.967243e+02 1.692200e+02 1.884440e+00 7.775634e+00 8.014066e+00 9.078628e+00 1.185010e+01 1.332467e+01 1.456995e+01 1.375873e+01 1.609538e+01 1.282874e+01 1.729893e+01 1.297292e+01 5.891078e+00 6.407317e-01 1.005348e+00 1.375360e+00 1.901157e+00 2.328949e+00 2.986133e+00 3.221972e+00 2.086185e+00 2.397153e+00 2.460801e+00 2.359809e+00 2.247709e+00 1.109827e+00
<GCONST> 1.814409e+02
<MIXTURE> 2 5.183173e-01
<MEAN> 39
 1.169247e+01 -2.786244e+01 1.717454e+01 -2.049831e+01 -1.023061e+01 -2.149882e+01 -7.127306e+00 1.228040e+01 1.313638e+01 1.841739e+01 -2.856876e+00 5.047181e+00 1.495202e+02 5.671690e-01 -9.192030e-01 -6.694379e-01 -2.467621e-01 7.133911e-01 8.629186e-01 7.006509e-01 1.445347e-01 -4.775936e-01 3.992426e-01 6.415568e-01 -1.346696e+00 -3.284612e-01 1.101785e-01 1.096065e+00 5.482475e-02 1.205361e+00 6.991997e-01 5.518040e-01 -5.449727e-01 -1.159964e+00 -1.020094e+00 -3.844227e-01 1.854793e-02 -2.447402e-02 -1.338701e+00
<VARIANCE> 39
 7.273164e+01 1.392237e+02 2.292827e+02 2.248650e+02 2.706818e+02 2.547219e+02 8.918146e+02 2.941493e+02 3.146688e+02 5.027676e+02 3.336420e+02 4.141106e+02 1.520826e+02 1.795732e+00 5.707987e+00 5.318439e+00 6.915786e+00 6.302131e+00 8.516244e+00 1.140927e+01 1.250402e+01 1.299780e+01 8.442044e+00 1.306071e+01 1.016364e+01 3.831210e+00 6.351967e-01 7.150666e-01 9.658666e-01 1.235492e+00 1.355121e+00 1.959890e+00 2.646915e+00 1.517220e+00 2.237426e+00 1.867275e+00 1.711553e+00 1.803476e+00 7.478910e-01
<GCONST> 1.740275e+02
<STATE> 3
<NUMMIXES> 2
<MIXTURE> 1 4.814606e-01
<MEAN> 39
 1.921779e+01 -1.711702e+01 1.747525e+01 -2.866190e+00 -9.084308e-02 -1.693240e+01 -6.403532e+00 -5.791534e-01 7.477058e+00 1.448762e+01 -3.470959e+00 5.267144e+00 1.275932e+02 -6.988372e-01 6.402890e+00 1.552114e+00 8.244557e+00 6.098523e+00 6.126074e+00 -1.588050e+00 -3.541588e+00 -4.096242e+00 -4.850107e-02 4.630627e-01 -8.165361e-01 -9.822612e+00 -1.713807e+00 4.241964e-01 -2.359698e-01 2.351689e-01 2.433255e-01 1.507421e+00 1.413157e+00 1.293985e+00 2.603209e-02 -7.002165e-01 8.610910e-02 1.477410e-01 -4.820068e-01
<VARIANCE> 39
 5.749322e+01 1.519125e+02 2.010776e+02 2.570697e+02 2.857576e+02 3.431295e+02 4.707375e+02 3.067190e+02 4.436031e+02 3.186011e+02 3.523809e+02 3.180907e+02 2.349371e+02 8.850247e+00 1.347615e+01 1.517846e+01 2.000754e+01 1.999480e+01 2.581684e+01 3.840935e+01 2.297670e+01 2.332789e+01 2.669661e+01 2.337354e+01 2.145636e+01 1.132459e+01 1.623037e+00 2.201343e+00 1.862837e+00 4.087791e+00 4.569801e+00 5.765210e+00 3.836810e+00 3.476832e+00 4.698595e+00 3.471381e+00 3.994133e+00 3.123082e+00 3.724978e+00
<GCONST> 1.983254e+02
<MIXTURE> 2 5.185145e-01
<MEAN> 39
 1.903736e+01 -1.852974e+01 2.073895e+01 -3.836554e+00 -2.020217e+00 -1.539463e+01 -1.630483e+01 1.450277e+00 -7.043327e+00 1.812823e+01 5.830246e+00 -2.244044e+00 1.291725e+02 -1.269381e+00 5.100492e+00 3.381835e-01 6.122326e+00 4.509925e+00 4.684836e+00 1.412860e+00 -2.759903e+00 -3.694274e+00 -2.872642e+00 4.143681e-01 3.774524e-01 -7.903968e+00 -1.757893e+00 1.998336e-01 -8.009257e-01 7.699175e-03 2.079098e-01 1.136333e+00 1.207132e+00 9.606881e-01 1.101436e+00 -3.903289e-01 -7.632660e-01 -3.120796e-02 -4.972567e-01
<VARIANCE> 39
 6.791323e+01 1.887383e+02 2.540853e+02 2.999805e+02 3.141030e+02 3.598212e+02 5.131187e+02 3.476874e+02 4.679949e+02 3.803007e+02 4.138792e+02 3.188382e+02 2.741470e+02 1.621539e+01 1.162181e+01 1.498579e+01 1.592288e+01 1.938700e+01 2.244857e+01 2.954040e+01 2.136089e+01 2.893872e+01 2.217165e+01 2.450542e+01 1.983343e+01 9.714969e+00 2.485382e+00 2.523907e+00 2.312631e+00 3.345613e+00 3.836965e+00 4.804410e+00 3.712807e+00 3.234896e+00 4.597488e+00 3.572878e+00 3.520519e+00 3.069534e+00 2.875082e+00
<GCONST> 1.992758e+02
<STATE> 4
<NUMMIXES> 2
<MIXTURE> 1 5.446460e-01
<MEAN> 39
 9.986391e+00 -7.934182e-01 1.889024e+01 1.469590e+01 1.343948e+01 4.344457e+00 -4.093735e+00 -2.569266e+00 -4.018802e+00 1.152520e+01 7.051103e-01 2.439077e+00 1.045748e+02 -2.808347e+00 1.648838e+00 2.414881e-01 1.140555e+00 4.588703e-01 1.587292e+00 1.610804e+00 1.889431e+00 4.480177e-01 -9.521402e-01 -1.662463e-01 4.110163e-01 -2.244686e+00 6.245887e-02 -2.174885e+00 -4.114069e-01 -2.860620e+00 -2.111552e+00 -2.433313e+00 -3.159814e-01 1.076915e+00 1.233094e+00 1.712648e-01 -2.715628e-01 2.610414e-01 2.973063e+00
<VARIANCE> 39
 1.623736e+02 1.605632e+02 1.361260e+02 2.009297e+02 1.691315e+02 2.508261e+02 2.495861e+02 2.525816e+02 3.576639e+02 2.199587e+02 2.773676e+02 2.253283e+02 2.433178e+02 3.125585e+01 2.115693e+01 1.095470e+01 2.946430e+01 2.405837e+01 4.105591e+01 2.581132e+01 1.858716e+01 2.233916e+01 1.801767e+01 1.861971e+01 1.510895e+01 3.592227e+01 3.551998e+00 3.109691e+00 3.199800e+00 4.637187e+00 4.402206e+00 5.287885e+00 6.360119e+00 4.407497e+00 4.600173e+00 4.841854e+00 4.248209e+00 3.911647e+00 3.781059e+00
<GCONST> 2.009619e+02
<MIXTURE> 2 4.553212e-01
<MEAN> 39
 -1.564495e+01 -6.250685e+00 1.091582e+01 1.033472e+01 2.529871e+00 5.144061e-01 3.684801e+00 9.121728e+00 1.409744e+00 4.152998e+00 -3.797585e+00 4.766409e+00 9.162244e+01 -3.498039e+00 -2.141396e+00 -2.898389e+00 -2.730050e+00 -2.176974e+00 -1.096318e+00 -1.100505e+00 -2.525965e-01 -3.812273e-01 -9.361424e-01 -3.358420e-01 -2.219491e-01 -6.642002e-01 1.553637e+00 -4.683874e-01 -1.867845e-02 -9.210023e-01 -6.746591e-01 -1.115977e+00 -6.446326e-01 -4.353029e-01 -4.751690e-02 2.975176e-01 1.002660e-01 -1.023348e-01 1.172297e+00
<VARIANCE> 39
 3.151216e+02 1.633541e+02 1.853532e+02 1.791786e+02 1.863404e+02 2.162525e+02 2.149813e+02 2.011183e+02 2.118297e+02 1.833237e+02 1.818988e+02 1.704032e+02 3.049831e+02 4.805134e+01 1.748989e+01 1.762900e+01 2.031330e+01 2.099529e+01 2.765144e+01 2.395514e+01 2.082873e+01 2.217871e+01 1.849460e+01 1.842270e+01 1.604413e+01 2.521935e+01 4.986558e+00 4.486940e+00 3.645905e+00 5.413064e+00 5.107172e+00 5.623160e+00 4.834758e+00 4.104092e+00 4.359240e+00 3.554734e+00 3.502716e+00 2.991589e+00 4.231732e+00
<GCONST> 1.999367e+02
<TRANSP> 5
 0.000000e+00 1.000000e+00 0.000000e+00 0.000000e+00 0.000000e+00
 0.000000e+00 7.546307e-01 2.453694e-01 0.000000e+00 0.000000e+00
 0.000000e+00 0.000000e+00 6.491116e-01 3.508884e-01 0.000000e+00
 0.000000e+00 0.000000e+00 0.000000e+00 7.624100e-01 2.375900e-01
 0.000000e+00 0.000000e+00 0.000000e+00 0.000000e+00 0.000000e+00
<ENDHMM>
~h "w"
<BEGINHMM>
<NUMSTATES> 5
<STATE> 2
<NUMMIXES> 2
<MIXTURE> 1 5.076698e-01
<MEAN> 39
 3.423667e+01 8.675008e+00 1.170558e+01 -4.027419e+01 -1.868690e+01 6.264813e-03 5.267297e+00 1.909610e+01 -6.856557e-01 1.143407e+01 -6.124961e-01 2.387398e+00 1.215053e+02 -6.809070e-01 -5.108791e+00 -4.342143e+00 -5.994092e+00 4.190537e+00 4.378766e+00 2.842363e+00 3.880971e+00 -1.075832e+00 -2.700944e+00 1.180965e+00 7.684376e-01 4.417639e+00 -6.244101e-01 -7.148848e-01 -2.632457e-01 1.737555e+00 2.239383e+00 1.337692e+00 -4.842866e-01 -1.527452e+00 -7.906150e-01 -3.998952e-01 8.847949e-01 3.612685e-01 -2.316378e-01
<VARIANCE> 39
 4.739468e+01 1.922400e+02 2.008120e+02 3.035097e+02 4.485780e+02 2.958303e+02 6.052097e+02 3.763608e+02 4.108255e+02 3.726421e+02 2.945245e+02 2.534355e+02 1.161737e+02 2.347311e+00 1.014010e+01 7.218840e+00 1.527528e+01 1.937745e+01 1.772385e+01 1.795315e+01 2.191691e+01 2.265121e+01 2.052250e+01 1.836250e+01 1.904497e+01 5.338948e+00 5.311999e-01 1.351833e+00 1.303198e+00 3.085547e+00 2.217152e+00 2.847932e+00 4.639866e+00 3.983105e+00 3.622621e+00 3.640864e+00 3.144845e+00 2.875015e+00 5.120823e-01
<GCONST> 1.871512e+02
<MIXTURE> 2 4.923125e-01
<MEAN> 39
 3.119401e+01 6.265993e+00 1.972823e+01 -4.166265e+01 -2.381258e+01 -9.360478e-01 -6.535060e+00 2.305465e+01 -6.674879e+00 1.357329e+01 3.184419e+00 -3.874389e+00 1.256462e+02 -6.865021e-01 -3.842461e+00 -3.951390e+00 -5.572038e+00 2.441310e+00 3.489399e+00 2.416101e+00 4.789141e+00 3.419631e-01 -2.986929e+00 3.003503e-01 1.145432e-01 3.865117e+00 -3.931319e-01 -3.976333e-01 -6.198327e-01 1.224910e+00 1.883443e+00 1.385657e+00 4.463699e-01 -1.173432e+00 -9.233320e-01 -9.526600e-01 2.870868e-01 6.381081e-01 -3.460213e-01
<VARIANCE> 39
 4.460007e+01 1.677295e+02 2.118288e+02 2.966426e+02 4.090485e+02 2.648340e+02 5.587540e+02 3.850339e+02 4.163568e+02 4.401653e+02 3.626358e+02 2.707580e+02 1.212304e+02 1.969051e+00 7.626497e+00 6.358325e+00 1.261621e+01 1.521311e+01 1.435139e+01 1.518848e+01 1.800557e+01 1.934757e+01 1.754443e+01 1.442043e+01 1.744299e+01 4.519938e+00 5.021259e-01 1.005961e+00 1.214250e+00 2.382943e+00 1.915193e+00 2.036988e+00 3.391059e+00 3.596669e+00 2.659908e+00 3.147302e+00 2.847142e+00 2.370202e+00 5.813296e-01
<GCONST> 1.826168e+02
<STATE> 3
<NUMMIXES> 2
<MIXTURE> 1 4.918519e-01
<MEAN> 39
 2.960420e+01 -8.390540e+00 1.631815e+00 -4.618968e+01 -2.892213e+00 2.097669e+01 3.093818e+00 2.320842e+01 -1.017909e+01 -2.144011e+00 1.072938e+01 7.916991e+00 1.328530e+02 -1.222402e+00 -4.310044e+00 -2.472075e+00 1.110685e+00 6.588829e+00 3.754337e+00 -2.293704e+00 -3.130894e+00 -1.584112e+00 1.256994e-01 4.241172e+00 1.269429e+00 2.246434e+00 -1.566447e-01 2.333195e-01 9.023920e-01 1.909792e+00 -1.568460e-01 -1.453459e+00 -1.624218e+00 -1.105017e+00 1.076552e+00 1.824569e+00 -1.197225e-01 -1.025604e+00 -4.414680e-01
<VARIANCE> 39
 5.473654e+01 1.750265e+02 2.080212e+02 3.078154e+02 5.217997e+02 3.137248e+02 5.673168e+02 3.876387e+02 3.931691e+02 4.244626e+02 3.374207e+02 2.822413e+02 1.369087e+02 1.491569e+00 6.200408e+00 5.682565e+00 9.515479e+00 1.152194e+01 1.333601e+01 1.861511e+01 1.491449e+01 1.678042e+01 1.986650e+01 1.331620e+01 1.699712e+01 2.882156e+00 2.651016e-01 6.116653e-01 8.372625e-01 1.925432e+00 1.903342e+00 2.164599e+00 2.553258e+00 3.211648e+00 2.949302e+00 2.867941e+00 3.508966e+00 2.467284e+00 2.516475e-01
<GCONST> 1.788849e+02
<MIXTURE> 2 5.081279e-01
<MEAN> 39
 2.666201e+01 -1.157425e+01 -5.303240e-01 -4.903598e+01 8.773276e+00 1.899547e+01 3.392776e+00 1.535425e+01 -1.440664e+01 4.799980e+00 1.318849e+01 6.571191e+00 1.369787e+02 -1.738900e+00 -4.572182e+00 -2.000083e+00 3.076302e+00 6.416884e+00 1.813842e+00 -3.403327e+00 -3.419017e+00 6.366219e-01 2.254008e+00 3.390197e+00 -1.344138e+00 2.427924e+00 -7.179157e-02 5.102682e-01 1.055934e+00 1.924797e+00 -9.611437e-01 -1.785075e+00 -1.349856e+00 7.263671e-02 1.676705e+00 1.007331e+00 -1.229756e+00 -1.265586e+00 -6.109925e-01
<VARIANCE> 39
 5.040857e+01 1.606386e+02 2.113247e+02 2.821935e+02 5.002764e+02 3.083653e+02 5.741808e+02 4.228578e+02 3.855079e+02 3.941236e+02 3.368554e+02 2.921200e+02 1.385532e+02 2.256158e+00 7.307148e+00 5.585346e+00 1.111565e+01 1.201384e+01 1.315974e+01 1.885232e+01 1.525792e+01 2.197793e+01 1.989382e+01 1.381723e+01 1.830937e+01 3.825163e+00 2.737155e-01 7.268627e-01 9.861602e-01 2.165720e+00 2.281603e+00 2.408659e+00 2.379382e+00 3.486224e+00 2.754884e+00 2.976939e+00 3.877153e+00 2.616800e+00 3.281583e-01
<GCONST> 1.812604e+02
<STATE> 4
<NUMMIXES> 2
<MIXTURE> 1 4.692257e-01
<MEAN> 39
 2.030525e+01 -2.482036e+01 -2.530404e+00 -2.515862e+01 2.745366e+01 6.940077e+00 -1.102729e+01 1.532811e+01 7.496864e+00 1.297068e+01 8.752396e+00 -4.164243e+00 1.396506e+02 -1.681623e+00 -1.961694e+00 2.737028e+00 5.143996e+00 -1.172449e+00 -4.369158e+00 -2.242662e+00 2.762030e+00 3.641526e+00 -1.081310e+00 -3.878125e+00 2.713478e-01 6.683012e-01 1.741956e-01 1.093687e+00 1.033395e+00 -1.032984e-01 -1.684412e+00 -6.271390e-01 1.807016e+00 6.265414e-01 -1.160446e+00 -8.131381e-01 -6.086556e-01 1.341115e+00 -7.488531e-01
<VARIANCE> 39
 6.729494e+01 1.568600e+02 1.946270e+02 2.602978e+02 4.220958e+02 3.325972e+02 3.944234e+02 4.644819e+02 4.008272e+02 3.187834e+02 3.869697e+02 2.674283e+02 1.459354e+02 1.724867e+00 5.145648e+00 5.405187e+00 8.431650e+00 1.750205e+01 1.143120e+01 2.067142e+01 1.740079e+01 1.789102e+01 2.705709e+01 1.486335e+01 2.301765e+01 1.892725e+00 2.440432e-01 7.945768e-01 1.100902e+00 1.589498e+00 2.575675e+00 2.410869e+00 2.857119e+00 3.037094e+00 3.743348e+00 2.607130e+00 5.316511e+00 3.021206e+00 4.276149e-01
<GCONST> 1.809866e+02
<MIXTURE> 2 5.307528e-01
<MEAN> 39
 2.184851e+01 -2.426965e+01 -1.833897e+00 -3.030932e+01 2.188206e+01 1.558580e+01 -1.434899e+01 1.044464e+01 -8.186212e-01 1.426745e+01 1.420332e+01 -7.362477e+00 1.400961e+02 -1.387474e+00 -2.034378e+00 1.344049e+00 5.217570e+00 9.021884e-01 -4.062066e+00 -3.401941e+00 9.596553e-01 4.320000e+00 1.429494e+00 -3.476309e+00 -2.369936e+00 5.931680e-01 5.854168e-02 8.197857e-01 9.258285e-01 1.727190e-01 -1.408443e+00 -1.049642e+00 1.056092e+00 1.110223e+00 -1.639605e-01 -1.012469e+00 -1.385944e+00 9.924819e-01 -5.516817e-01
<VARIANCE> 39
 5.704998e+01 1.353250e+02 2.028657e+02 2.763421e+02 4.461374e+02 3.201780e+02 4.650022e+02 3.539183e+02 4.269285e+02 3.303619e+02 3.709072e+02 2.967013e+02 1.562416e+02 1.630633e+00 4.435108e+00 4.312595e+00 7.690365e+00 1.037020e+01 1.040512e+01 1.259374e+01 1.337789e+01 1.330781e+01 1.958601e+01 1.264510e+01 1.489429e+01 1.923424e+00 2.096835e-01 6.679887e-01 8.047162e-01 9.846033e-01 1.724238e+00 1.984277e+00 1.985189e+00 2.145185e+00 2.872651e+00 2.165021e+00 3.198323e+00 2.538343e+00 3.173206e-01
<GCONST> 1.739586e+02
<TRANSP> 5
 0.000000e+00 1.000000e+00 0.000000e+00 0.000000e+00 0.000000e+00
 0.000000e+00 6.890728e-01 3.109272e-01 0.000000e+00 0.000000e+00
 0.000000e+00 0.000000e+00 7.496418e-01 2.503582e-01 0.000000e+00
 0.000000e+00 0.000000e+00 0.000000e+00 7.596574e-01 2.403426e-01
 0.000000e+00 0.000000e+00 0.000000e+00 0.000000e+00 0.000000e+00
<ENDHMM>
~h "z"
<BEGINHMM>
<NUMSTATES> 5
<STATE> 2
<NUMMIXES> 2
<MIXTURE> 1 4.836021e-01
<MEAN> 39
 -7.957067e+00 2.006693e+01 2.050590e+01 2.320853e+01 4.521454e+00 -4.913515e+00 7.368881e-01 2.528209e+00 1.373113e+00 -1.890489e+00 -4.645580e+00 1.419878e+01 9.714170e+01 -3.603425e+00 6.415648e+00 -1.780666e+00 4.619882e+00 1.431840e+00 3.374989e+00 1.213578e+00 2.674627e+00 4.362315e-01 5.273570e-01 1.442768e+00 2.541162e-01 1.734773e+00 -7.758682e-01 -4.653108e-01 -6.958841e-01 -6.478850e-01 1.094426e-02 3.290322e-01 9.280951e-02 1.546928e-01 -3.358942e-01 7.808414e-01 1.194158e-01 -6.292217e-01 1.440246e-01
<VARIANCE> 39
 2.916539e+02 2.780829e+02 2.878875e+02 3.239422e+02 3.027363e+02 3.294555e+02 2.872743e+02 2.719036e+02 2.396591e+02 2.535623e+02 2.662988e+02 3.169136e+02 6.265955e+02 4.733119e+01 2.205207e+01 4.272997e+01 2.839875e+01 2.626080e+01 3.178314e+01 2.607737e+01 2.553727e+01 2.336127e+01 2.688437e+01 2.123458e+01 2.347536e+01 3.594867e+01 3.839462e+00 5.070450e+00 5.334956e+00 4.504439e+00 4.370870e+00 4.960051e+00 4.780096e+00 4.836879e+00 3.735884e+00 4.686764e+00 3.926170e+00 4.076519e+00 3.442981e+00
<GCONST> 2.087519e+02
<MIXTURE> 2 5.163835e-01
<MEAN> 39
 -1.228353e+01 1.810896e+01 2.138016e+01 1.450169e+01 1.684522e+01 -5.935824e+00 -6.080184e+00 1.166072e+00 -2.340865e+00 6.243041e+00 -1.341954e+01 -1.125980e+00 9.856864e+01 -3.858856e+00 4.565615e+00 -5.475939e-01 5.360307e-01 2.439647e+00 -1.023285e+00 -1.549881e-01 -1.008223e+00 3.703569e-01 -7.981998e-01 -1.249427e+00 8.265004e-02 3.868986e+00 -7.865964e-01 -4.305616e-01 -7.404597e-01 -2.603792e-01 -5.950667e-01 2.168516e-01 4.368792e-02 2.072410e-01 -1.816366e-01 -1.116271e-01 5.276698e-01 2.812845e-01 -3.717900e-01
<VARIANCE> 39
 3.547957e+02 3.059751e+02 3.032669e+02 3.485279e+02 3.854582e+02 3.102070e+02 3.236361e+02 2.774330e+02 2.429392e+02 2.507096e+02 2.746715e+02 2.734908e+02 6.080676e+02 4.466860e+01 2.316219e+01 2.695782e+01 2.400776e+01 2.297635e+01 2.171747e+01 2.654396e+01 2.122993e+01 2.263836e+01 2.081972e+01 2.125004e+01 1.842180e+01 3.644864e+01 5.078062e+00 4.203735e+00 4.080989e+00 3.794971e+00 4.059872e+00 4.189076e+00 4.279401e+00 4.319802e+00 3.762331e+00 3.669235e+00 4.010296e+00 3.363661e+00 3.475548e+00
<GCONST> 2.062985e+02
<STATE> 3
<NUMMIXES> 2
<MIXTURE> 1 4.967464e-01
<MEAN> 39
 -2.934421e+01 3.415217e+01 9.343719e+00 3.154040e+01 8.588745e+00 7.306880e+00 4.213443e+00 9.278056e+00 -1.116286e+00 5.006049e+00 -9.191582e-01 9.671860e+00 1.088294e+02 -3.043939e+00 7.158236e-02 -5.586802e-01 5.936041e-02 6.172653e-01 1.590885e+00 1.156460e+00 5.762389e-01 -1.959017e-01 7.974776e-01 9.252816e-01 -1.627643e-01 8.485982e-01 1.485155e+00 -1.140689e+00 1.245340e+00 -7.331272e-01 -5.688888e-01 -8.898689e-01 -1.687723e-01 -9.291306e-01 -2.167740e-01 -3.906339e-01 -3.549555e-01 1.961713e-01 4.329647e-01
<VARIANCE> 39
 2.032808e+02 1.800139e+02 1.975891e+02 3.006898e+02 3.351332e+02 3.318621e+02 2.109501e+02 2.091918e+02 1.546336e+02 1.595001e+02 2.346578e+02 1.739350e+02 1.292000e+02 1.517908e+01 1.054290e+01 1.266399e+01 1.017802e+01 1.257195e+01 1.641246e+01 1.317521e+01 1.561909e+01 1.254657e+01 1.357557e+01 1.027268e+01 1.182337e+01 6.936963e+00 2.267768e+00 2.925736e+00 2.742216e+00 2.454683e+00 2.887223e+00 3.516252e+00 3.133016e+00 3.289485e+00 2.750890e+00 2.686553e+00 2.186558e+00 2.484763e+00 1.259213e+00
<GCONST> 1.859200e+02
<MIXTURE> 2 5.032313e-01
<MEAN> 39
 -4.088521e+01 2.753869e+01 6.470891e+00 1.616853e+01 1.616045e+01 1.811243e+00 7.485142e-01 4.965937e+00 -2.190900e+00 6.418881e+00 -7.015620e+00 3.078251e+00 1.093116e+02 -2.167649e+00 -1.313648e+00 -1.326691e+00 -1.749580e+00 -1.762101e+00 -1.066807e+00 -4.372150e-01 -5.678159e-01 -8.832269e-01 -3.414192e-01 -2.229266e-01 1.321457e-01 1.669074e+00 2.369447e+00 -7.955000e-01 1.620456e+00 2.310461e-02 -8.237112e-01 -6.982355e-01 -5.498731e-01 -6.155283e-01 -3.575173e-01 -3.448970e-01 -2.126696e-01 -5.552312e-02 5.861686e-01
<VARIANCE> 39
 1.760911e+02 2.019884e+02 3.707541e+02 3.825230e+02 4.873020e+02 3.379635e+02 2.758991e+02 2.093849e+02 1.583425e+02 1.560552e+02 2.277063e+02 1.503881e+02 2.226063e+02 1.831760e+01 1.426789e+01 1.866541e+01 1.461012e+01 1.477150e+01 1.386559e+01 1.539416e+01 1.539784e+01 1.248846e+01 1.163561e+01 1.084846e+01 1.092544e+01 6.845571e+00 2.691098e+00 3.827524e+00 3.336017e+00 3.231733e+00 3.211995e+00 3.762803e+00 3.738353e+00 3.509800e+00 2.840170e+00 2.750843e+00 2.555390e+00 2.476807e+00 1.358469e+00
<GCONST> 1.905821e+02
<STATE> 4
<NUMMIXES> 2
<MIXTURE> 1 4.754095e-01
<MEAN> 39
 -2.483205e+01 2.378443e+01 1.556361e+01 2.264187e+01 -1.038900e+01 2.643357e+00 4.372197e+00 -2.162178e+00 -6.953274e+00 3.590002e-01 4.579349e+00 1.346387e+01 1.169702e+02 8.585896e+00 -2.832064e+00 1.090030e+01 -3.734652e+00 -1.743331e+00 -6.442552e+00 -1.172678e-01 -6.309764e+00 -5.142494e-01 -1.488857e+00 -1.050039e+00 2.829170e+00 5.705812e+00 1.030388e+00 -1.718768e+00 1.666692e+00 -1.732072e+00 8.630232e-01 -1.111223e+00 2.373821e-01 -3.824841e-01 1.586411e-01 9.276065e-01 -6.530210e-01 2.655323e-01 1.753982e-01
<VARIANCE> 39
 3.669222e+02 1.717856e+02 3.868070e+02 2.594944e+02 2.434546e+02 2.440027e+02 1.640265e+02 2.180230e+02 1.451464e+02 1.663382e+02 1.640024e+02 2.041840e+02 1.444074e+02 1.929459e+01 3.344799e+01 2.953527e+01 3.690308e+01 2.266398e+01 2.724448e+01 2.110135e+01 2.309111e+01 1.976555e+01 2.032208e+01 1.696614e+01 1.893041e+01 6.272386e+00 7.360600e+00 3.135788e+00 7.622944e+00 4.638819e+00 3.927893e+00 4.121461e+00 4.075732e+00 4.504222e+00 3.778102e+00 3.897422e+00 3.054054e+00 3.551997e+00 1.436376e+00
<GCONST> 1.987219e+02
<MIXTURE> 2 5.245696e-01
<MEAN> 39
 -2.200945e+01 1.940552e+01 2.925340e+01 1.312228e+01 1.836021e+01 -1.482742e+01 -9.593024e+00 -2.818674e+00 -7.347919e+00 1.278967e+00 -1.843787e+01 -6.423212e-01 1.298064e+02 9.060417e+00 -8.195419e+00 7.412286e+00 7.267158e-02 -4.587543e+00 -1.298616e+00 -4.924347e+00 1.136629e-01 -2.909889e+00 -1.401126e+00 -1.142872e+00 -1.147046e+00 4.043636e+00 7.245465e-01 -1.661876e+00 5.906172e-01 -2.864978e-01 -9.326756e-01 7.505172e-01 -7.575101e-01 1.080044e+00 -3.956022e-01 -2.302932e-01 8.470233e-01 1.477168e-01 -2.992450e-01
<VARIANCE> 39
 2.636275e+02 1.992533e+02 2.090582e+02 2.549387e+02 2.646450e+02 2.160468e+02 3.246655e+02 1.899160e+02 1.553854e+02 1.789814e+02 1.773905e+02 2.224167e+02 1.198652e+02 1.870939e+01 1.813647e+01 2.473352e+01 2.679151e+01 1.993773e+01 2.296436e+01 2.192684e+01 2.662411e+01 2.088434e+01 1.722778e+01 1.921165e+01 1.621536e+01 4.716493e+00 4.868639e+00 2.562852e+00 4.230179e+00 3.217662e+00 2.985093e+00 3.160541e+00 3.982215e+00 3.725026e+00 3.177451e+00 3.099103e+00 2.921584e+00 2.894978e+00 7.517226e-01
<GCONST> 1.932261e+02
<TRANSP> 5
 0.000000e+00 1.000000e+00 0.000000e+00 0.000000e+00 0.000000e+00
 0.000000e+00 7.375166e-01 2.624834e-01 0.000000e+00 0.000000e+00
 0.000000e+00 0.000000e+00 8.094480e-01 1.905520e-01 0.000000e+00
 0.000000e+00 0.000000e+00 0.000000e+00 7.350165e-01 2.649835e-01
 0.000000e+00 0.000000e+00 0.000000e+00 0.000000e+00 0.000000e+00
<ENDHMM>
~h "ah"
<BEGINHMM>
<NUMSTATES> 5
<STATE> 2
<NUMMIXES> 2
<MIXTURE> 1 5.195283e-01
<MEAN> 39
 1.525092e+01 -2.105820e+01 1.754221e+01 -1.213401e+01 6.947021e+00 -1.286385e+01 -4.739765e+00 2.176392e+01 8.462454e+00 4.960891e+00 -9.863820e-01 7.875039e+00 1.364790e+02 -1.783773e-01 1.757545e+00 3.439941e+00 1.842824e+00 -1.711500e+00 -1.899256e+00 3.417183e+00 9.893943e-01 -1.954951e+00 -1.184555e+00 -1.260192e+00 2.322396e+00 -1.539142e+00 3.172919e-01 1.617251e+00 5.306088e-01 1.689172e+00 1.219693e-01 1.717196e+00 1.248793e+00 -2.481169e+00 -1.063866e+00 2.690795e-01 -5.389316e-03 1.346345e-01 -2.087780e+00
<VARIANCE> 39
 7.178651e+01 1.617795e+02 1.961344e+02 2.031816e+02 2.869258e+02 3.627780e+02 6.717947e+02 4.044740e+02 3.408375e+02 4.139375e+02 3.180527e+02 3.404764e+02 1.643569e+02 3.708855e+00 8.663820e+00 1.138888e+01 2.592789e+01 1.906796e+01 2.011786e+01 1.979804e+01 2.370653e+01 2.244423e+01 2.278723e+01 2.933918e+01 2.108070e+01 1.178153e+01 9.749808e-01 1.431086e+00 1.898877e+00 4.227086e+00 3.401199e+00 5.041749e+00 7.514298e+00 5.240237e+00 5.373321e+00 4.244329e+00 4.429024e+00 3.788245e+00 1.277048e+00
<GCONST> 1.957598e+02
<MIXTURE> 2 4.804457e-01
<MEAN> 39
 1.868397e+01 -1.975636e+01 1.634004e+01 -8.348336e+00 6.564715e+00 -7.394941e+00 -1.569788e+01 9.956654e+00 3.998075e-01 1.383621e+01 2.096229e+00 -5.118127e-01 1.318099e+02 -2.918031e-01 -4.231463e-01 2.087739e+00 -4.573557e-01 -1.800688e+00 -3.012853e+00 1.025684e+00 2.750806e+00 1.181125e+00 -2.319818e-01 -2.415280e+00 1.198143e+00 1.437499e+00 -1.310239e-01 1.030451e+00 4.830095e-01 8.662129e-01 1.899903e-01 8.979531e-01 1.442672e+00 -7.495422e-01 -8.455335e-01 -1.892062e-01 -3.257971e-01 3.852632e-01 -1.256528e+00
<VARIANCE> 39
 7.522931e+01 1.353805e+02 1.710807e+02 2.023279e+02 2.266211e+02 3.299680e+02 5.203416e+02 4.421508e+02 4.673044e+02 4.480716e+02 3.815325e+02 3.253718e+02 1.761991e+02 3.970238e+00 1.095456e+01 9.836222e+00 2.930867e+01 1.602848e+01 1.793204e+01 2.589644e+01 2.006479e+01 2.613140e+01 2.540464e+01 2.560748e+01 1.986733e+01 1.728261e+01 8.553039e-01 1.401976e+00 1.356013e+00 2.878018e+00 2.549487e+00 3.298509e+00 4.772053e+00 3.978068e+00 4.091808e+00 3.505842e+00 3.425311e+00 2.817872e+00 1.727143e+00
<GCONST> 1.931025e+02
<STATE> 3
<NUMMIXES> 2
<MIXTURE> 1 4.868691e-01
<MEAN> 39
 1.675686e+01 -8.922358e+00 2.918521e+01 -4.751845e-01 4.628983e+00 -1.572938e+01 1.134109e+01 1.383063e+01 1.847112e+00 -5.070196e-01 -5.138880e+00 1.759270e+01 1.238065e+02 1.451655e+00 5.836632e+00 4.685902e+00 7.025471e+00 -3.282589e+00 4.310705e+00 4.606968e+00 -9.372734e+00 -6.432983e-01 -8.588655e-01 -6.800494e-01 3.513464e+00 -6.530822e+00 9.342206e-02 1.544651e-01 -5.353653e-01 1.630649e-01 -2.204910e-01 1.912622e+00 -3.032754e-01 -1.532415e+00 7.988849e-01 3.267631e-01 5.174752e-01 -4.211708e-01 -2.887545e-01
<VARIANCE> 39
 5.388958e+01 1.959838e+02 2.033783e+02 3.132111e+02 2.599759e+02 3.468178e+02 5.499650e+02 5.604307e+02 3.935164e+02 4.218600e+02 3.653039e+02 3.400723e+02 1.879864e+02 4.614192e+00 8.559398e+00 1.531383e+01 1.815899e+01 2.030510e+01 4.263817e+01 4.637362e+01 3.787524e+01 3.873884e+01 3.268118e+01 3.369545e+01 2.755602e+01 3.465565e+00 5.920247e-01 1.706184e+00 2.602544e+00 4.256026e+00 3.045589e+00 4.894835e+00 5.173060e+00 8.098633e+00 4.495917e+00 3.891089e+00 3.559928e+00 3.493270e+00 1.532700e+00
<GCONST> 1.984584e+02
<MIXTURE> 2 5.131180e-01
<MEAN> 39
 1.918211e+01 -1.097120e+01 2.748358e+01 7.670063e+00 4.051474e+00 -3.871545e+00 -3.923334e+00 4.485009e+00 -6.245066e+00 1.736883e+01 -1.147711e+01 2.532996e+00 1.217660e+02 7.516669e-02 4.593877e+00 4.373851e+00 7.760632e+00 -2.748566e+00 3.008575e+00 8.504044e+00 -6.319245e+00 -2.329468e+00 -4.937436e-01 -3.835225e+00 1.278420e+00 -6.007420e+00 -4.115672e-02 6.873024e-02 -5.951341e-01 -7.189372e-01 -3.442568e-01 1.057289e+00 1.331026e-01 -5.065726e-01 4.406712e-01 -5.317702e-01 1.007962e+00 -1.066111e-01 9.529021e-02
<VARIANCE> 39
 5.733672e+01 1.854377e+02 2.223901e+02 3.632016e+02 3.006292e+02 4.186534e+02 6.266866e+02 4.397966e+02 4.424214e+02 5.184874e+02 4.168770e+02 3.705212e+02 2.045411e+02 5.221061e+00 8.646311e+00 1.645599e+01 2.304930e+01 2.618640e+01 4.634011e+01 4.678534e+01 3.718853e+01 3.973157e+01 2.878318e+01 3.279907e+01 2.457086e+01 4.211110e+00 5.557003e-01 1.532766e+00 2.479397e+00 4.072514e+00 3.066559e+00 4.716089e+00 6.423219e+00 5.757551e+00 4.627407e+00 3.780139e+00 3.649559e+00 2.937838e+00 1.378465e+00
<GCONST> 1.996010e+02
<STATE> 4
<NUMMIXES> 2
<MIXTURE> 1 4.979950e-01
<MEAN> 39
 1.985807e+01 5.662194e+00 3.640869e+01 1.558091e+01 -6.230481e+00 6.599784e+00 1.932137e+01 -9.618060e+00 3.908355e+00 -7.695867e-01 -2.294837e+00 2.061856e+01 1.063624e+02 2.121346e-02 2.375092e+00 7.934657e-01 1.876564e+00 -5.622769e-01 3.095608e+00 1.190951e+00 -2.105387e+00 4.273181e-01 -8.256923e-02 4.601825e-01 1.888125e-01 -2.756373e+00 -4.544939e-01 -5.882561e-01 -8.015644e-01 -6.618103e-01 9.437238e-01 -7.199531e-01 -7.093297e-01 1.773015e+00 -1.740186e-01 2.665037e-01 -9.565192e-02 -7.827733e-01 4.342671e-01
<VARIANCE> 39
 4.818934e+01 1.870602e+02 1.331988e+02 2.334380e+02 2.350355e+02 4.086092e+02 4.888208e+02 4.381356e+02 4.668260e+02 4.866218e+02 4.891783e+02 4.303893e+02 1.639045e+02 2.499470e+00 6.773983e+00 8.118867e+00 1.037940e+01 1.198297e+01 1.977485e+01 1.888306e+01 3.017420e+01 1.486638e+01 1.293504e+01 1.443414e+01 1.347252e+01 3.529088e+00 4.929401e-01 1.310533e+00 1.644610e+00 2.703732e+00 2.161333e+00 3.503102e+00 3.985116e+00 4.442687e+00 3.403866e+00 2.935811e+00 3.201580e+00 3.089628e+00 9.063389e-01
<GCONST> 1.858810e+02
<MIXTURE> 2 5.019780e-01
<MEAN> 39
 1.804376e+01 -2.499023e-01 3.484600e+01 1.926066e+01 -3.142657e+00 8.763178e+00 1.303536e+01 -7.724864e+00 -7.808258e+00 1.113954e+01 -1.195648e+01 6.703616e+00 1.087498e+02 -4.832261e-01 1.862256e+00 3.536322e-01 1.579242e+00 -2.098891e-01 1.223442e+00 1.958799e+00 -5.470430e-01 -1.263190e-02 -5.551100e-01 -1.051482e+00 -1.432424e-01 -2.490757e+00 -3.456477e-01 -3.205387e-01 -8.426953e-01 -8.181036e-01 6.499453e-01 -5.758121e-01 -1.018927e+00 1.271923e+00 4.609966e-01 -1.343062e-01 3.988873e-01 -2.668134e-01 2.333556e-01
<VARIANCE> 39
 5.552364e+01 1.799009e+02 1.428093e+02 2.922074e+02 2.788875e+02 3.890079e+02 4.655156e+02 3.825719e+02 4.950069e+02 5.769708e+02 5.235906e+02 4.275271e+02 2.246149e+02 2.820586e+00 6.343004e+00 7.338060e+00 9.724103e+00 1.030835e+01 1.399631e+01 1.854518e+01 1.616641e+01 1.414009e+01 1.206568e+01 1.355728e+01 1.184133e+01 3.908951e+00 6.424968e-01 1.349584e+00 1.748228e+00 2.927386e+00 2.461028e+00 3.569316e+00 4.724099e+00 3.915927e+00 3.626933e+00 2.905301e+00 3.596721e+00 2.842042e+00 1.014546e+00
<GCONST> 1.861881e+02
<TRANSP> 5
 0.000000e+00 1.000000e+00 0.000000e+00 0.000000e+00 0.000000e+00
 0.000000e+00 7.234692e-01 2.765308e-01 0.000000e+00 0.000000e+00
 0.000000e+00 0.000000e+00 5.707659e-01 4.292342e-01 0.000000e+00
 0.000000e+00 0.000000e+00 0.000000e+00 7.499213e-01 2.500786e-01
 0.000000e+00 0.000000e+00 0.000000e+00 0.000000e+00 0.000000e+00
<ENDHMM>
~h "ao"
<BEGINHMM>
<NUMSTATES> 5
<STATE> 2
<NUMMIXES> 2
<MIXTURE> 1 5.332268e-01
<MEAN> 39
 3.613952e+01 1.491618e+01 1.166736e+01 -4.392882e+01 -1.841574e+01 -2.759580e+00 2.719335e+00 3.955213e+00 -9.715774e+00 7.604748e+00 -1.077811e+01 6.819695e+00 1.203148e+02 4.567345e+00 2.754972e+00 1.881081e+00 -6.738462e+00 -3.176417e+00 -1.936141e+00 1.556140e-01 9.165140e-01 3.259440e-01 1.874603e+00 -1.226561e+00 7.405515e-01 2.375412e+00 -3.907654e+00 -1.976522e+00 -9.864762e-01 3.131647e+00 1.056497e+00 1.032207e-01 -6.913687e-01 -1.734020e-01 2.098872e-01 -2.991469e-02 6.232197e-01 -2.423754e-01 -1.154930e+00
<VARIANCE> 39
 4.884518e+01 1.760026e+02 2.119088e+02 3.606940e+02 5.186907e+02 3.269056e+02 4.378065e+02 3.571286e+02 3.025576e+02 3.206017e+02 2.855297e+02 3.745244e+02 1.277103e+02 3.242200e+01 2.015139e+01 1.432881e+01 4.165272e+01 2.227879e+01 1.613344e+01 2.600064e+01 1.963232e+01 1.777421e+01 2.217480e+01 1.830516e+01 2.187442e+01 9.498304e+00 1.884716e+00 2.892675e+00 2.274357e+00 4.060718e+00 4.191018e+00 3.130473e+00 4.547999e+00 3.708329e+00 3.479182e+00 3.300235e+00 3.525602e+00 4.113236e+00 1.649308e+00
<GCONST> 1.980414e+02
<MIXTURE> 2 4.667559e-01
<MEAN> 39
 3.483662e+01 1.228447e+01 1.746280e+01 -3.919001e+01 -2.639075e+01 2.808235e+00 -6.308682e+00 1.462348e+01 -2.084782e+01 4.643598e+00 -7.155471e+00 -5.246552e+00 1.220754e+02 7.429236e+00 3.173001e+00 4.027012e+00 -8.872392e+00 -6.412661e+00 -8.208154e-01 -2.382928e+00 3.140057e+00 -3.024151e+00 6.996027e-01 -8.723606e-01 -2.598983e+00 4.267109e+00 -4.438691e+00 -2.080930e+00 -1.462262e+00 2.602407e+00 1.442987e+00 -4.100493e-01 -4.373648e-01 -1.055567e+00 1.027001e+00 1.594005e-01 3.254627e-01 5.780224e-01 -1.155307e+00
<VARIANCE> 39
 4.608781e+01 1.296557e+02 1.944784e+02 2.772891e+02 4.113864e+02 3.296484e+02 3.459935e+02 3.897773e+02 3.801733e+02 3.206386e+02 2.697393e+02 3.297776e+02 1.336170e+02 3.179597e+01 1.692927e+01 1.892010e+01 3.357858e+01 3.309227e+01 2.361647e+01 2.753209e+01 2.928577e+01 3.129048e+01 2.762402e+01 2.499668e+01 2.538623e+01 9.779943e+00 1.229099e+00 1.904114e+00 2.227425e+00 3.362406e+00 3.695728e+00 2.806123e+00 3.498898e+00 3.543480e+00 4.008322e+00 3.118474e+00 2.960384e+00 3.724989e+00 1.542035e+00
<GCONST> 1.975704e+02
<STATE> 3
<NUMMIXES> 2
<MIXTURE> 1 5.254279e-01
<MEAN> 39
 3.644265e+01 1.708818e+01 1.330505e+01 -4.721544e+01 -2.488582e+01 -3.261326e+00 4.251267e-01 8.647776e+00 -9.315436e+00 1.001018e+01 -1.085888e+01 2.869436e+00 1.197924e+02 2.018466e-01 -8.983041e-01 -1.203243e+00 8.846988e-01 -6.474832e-02 -7.672944e-02 1.081195e+00 1.448555e-02 -1.143396e+00 9.400366e-02 5.586556e-01 4.918434e-01 8.768587e-02 -7.602166e-02 -7.335103e-01 -6.347613e-01 5.856220e-01 7.059597e-01 9.690563e-02 2.723097e-01 -2.188882e-01 -5.743067e-01 -8.432475e-02 5.360219e-01 3.800724e-01 1.903627e-01
<VARIANCE> 39
 4.961515e+01 1.777731e+02 2.492258e+02 3.085359e+02 4.829616e+02 3.357067e+02 4.981011e+02 3.202832e+02 3.162647e+02 3.521982e+02 2.848209e+02 3.384960e+02 1.330788e+02 8.837801e-01 8.468092e+00 6.915235e+00 5.573066e+00 6.350914e+00 8.340855e+00 1.241024e+01 1.025427e+01 1.179533e+01 9.695573e+00 9.859377e+00 9.413990e+00 3.136539e+00 2.201232e-01 6.384561e-01 7.352116e-01 1.240133e+00 1.177094e+00 1.197432e+00 1.521613e+00 1.573032e+00 1.538531e+00 1.841518e+00 1.952868e+00 1.773118e+00 3.122299e-01
<GCONST> 1.691508e+02
<MIXTURE> 2 4.745432e-01
<MEAN> 39
 3.450643e+01 1.618471e+01 1.999696e+01 -4.510230e+01 -2.906246e+01 -3.832389e+00 -8.601532e+00 1.254590e+01 -1.455266e+01 1.017076e+01 -6.640980e+00 -3.316638e+00 1.226400e+02 1.002257e-01 1.791169e-02 -4.834103e-01 1.480280e-01 -4.105004e-01 -7.765514e-01 2.635707e-01 8.866443e-01 -4.811507e-02 -2.922725e-01 -5.988391e-02 -8.143529e-02 -8.377057e-02 -2.162259e-01 -5.884576e-01 -8.210809e-01 7.156937e-01 6.112415e-01 2.294642e-01 4.416283e-01 5.928845e-02 -2.825732e-01 -4.954897e-01 9.091201e-02 3.319588e-01 -6.602116e-02
<VARIANCE> 39
 5.789257e+01 1.709022e+02 2.532039e+02 3.680506e+02 5.113568e+02 3.810934e+02 5.235369e+02 4.456119e+02 4.391913e+02 3.960063e+02 3.165479e+02 3.748046e+02 1.475833e+02 8.635547e-01 5.279615e+00 6.339000e+00 4.879622e+00 5.885094e+00 6.307117e+00 9.269774e+00 8.712056e+00 8.668495e+00 8.596137e+00 8.346643e+00 7.592984e+00 2.235000e+00 5.658033e-01 7.792540e-01 1.093976e+00 2.041975e+00 1.370412e+00 1.178669e+00 1.700700e+00 1.890967e+00 1.886248e+00 1.854746e+00 1.749721e+00 1.934216e+00 6.966988e-01
<GCONST> 1.715655e+02
<STATE> 4
<NUMMIXES> 2
<MIXTURE> 1 5.127084e-01
<MEAN> 39
 3.759099e+01 -3.091269e+00 -5.615556e+00 -3.347046e+01 -1.076597e+01 -5.079029e+00 5.996468e+00 9.944947e+00 -2.715740e+01 8.748075e+00 2.435377e+00 1.251744e+01 1.278041e+02 1.902732e-01 -4.572544e+00 -4.553779e+00 4.633101e+00 6.256192e+00 -1.929201e+00 -1.752007e+00 -6.044345e-01 -9.180773e-01 3.053712e-01 3.935092e+00 2.386208e+00 1.186553e+00 -1.238246e-01 2.570954e-01 4.608719e-01 6.479105e-01 6.833902e-01 -7.785188e-01 -1.485594e+00 6.928354e-02 1.775522e+00 3.626370e-01 -4.706941e-01 -6.255085e-01 -3.719999e-01
<VARIANCE> 39
 5.243724e+01 2.027137e+02 2.856431e+02 2.860758e+02 5.681157e+02 4.416451e+02 7.380787e+02 5.593056e+02 4.414684e+02 6.719863e+02 3.742037e+02 3.331065e+02 1.441779e+02 1.439458e+00 5.947416e+00 8.976745e+00 1.130665e+01 1.521232e+01 2.000014e+01 2.754922e+01 2.324002e+01 3.007150e+01 3.498617e+01 2.494492e+01 3.847301e+01 2.287183e+00 2.378454e-01 9.150884e-01 1.558506e+00 1.530438e+00 2.718805e+00 2.742972e+00 3.072342e+00 4.002828e+00 3.558312e+00 5.121278e+00 4.780416e+00 5.271764e+00 2.604303e-01
<GCONST> 1.891746e+02
<MIXTURE> 2 4.872718e-01
<MEAN> 39
 3.752258e+01 -2.505783e+00 -9.621271e+00 -2.900378e+01 -4.901776e+00 -9.592179e+00 -8.166762e+00 1.686376e+01 -2.184636e+01 1.989454e+00 1.805099e+00 1.082575e+01 1.275431e+02 1.038874e-01 -3.202216e+00 -4.514475e+00 3.162084e+00 6.765463e+00 -7.456997e-01 -3.109050e+00 -9.156696e-01 1.181801e+00 7.259626e-01 6.856524e-01 1.331970e+00 5.899674e-01 -1.859802e-01 3.704447e-01 6.819243e-01 3.432533e-01 1.067644e-01 -8.322181e-02 -5.837352e-01 -3.952725e-01 9.086969e-01 5.584266e-01 -3.608912e-01 -7.215382e-01 -4.276943e-01
<VARIANCE> 39
 6.795927e+01 2.684119e+02 3.277410e+02 3.073227e+02 6.439857e+02 4.771080e+02 8.149436e+02 6.970606e+02 5.239218e+02 7.883583e+02 4.620080e+02 4.168733e+02 1.818869e+02 1.971288e+00 7.249535e+00 1.300819e+01 1.691313e+01 1.815205e+01 2.706823e+01 2.416982e+01 3.279308e+01 2.914607e+01 3.920006e+01 2.723631e+01 3.587021e+01 3.230109e+00 3.219916e-01 1.041230e+00 1.983733e+00 1.717564e+00 3.159530e+00 3.199986e+00 3.146778e+00 5.465144e+00 4.005107e+00 6.620762e+00 5.447290e+00 5.664564e+00 3.704461e-01
<GCONST> 1.962264e+02
<TRANSP> 5
 0.000000e+00 1.000000e+00 0.000000e+00 0.000000e+00 0.000000e+00
 0.000000e+00 6.358988e-01 3.641012e-01 0.000000e+00 0.000000e+00
 0.000000e+00 0.000000e+00 8.626680e-01 1.373319e-01 0.000000e+00
 0.000000e+00 0.000000e+00 0.000000e+00 8.281173e-01 1.718827e-01
 0.000000e+00 0.000000e+00 0.000000e+00 0.000000e+00 0.000000e+00
<ENDHMM>
~h "ay"
<BEGINHMM>
<NUMSTATES> 5
<STATE> 2
<NUMMIXES> 2
<MIXTURE> 1 5.165125e-01
<MEAN> 39
 1.649647e+01 -3.268450e+01 4.158529e+00 -1.787568e+01 1.394757e+01 1.755290e+00 -7.953235e+00 2.094427e+01 9.321896e+00 6.489877e+00 -9.844689e-01 2.770560e+00 1.448305e+02 1.376359e-01 -1.842494e+00 -3.309031e+00 -3.783351e-01 2.461379e+00 2.726635e+00 -1.658290e+00 -3.447430e-01 1.025879e+00 -5.738710e-01 1.196327e+00 -1.961089e+00 8.424711e-01 1.756255e-01 1.208515e+00 1.132657e+00 9.637951e-01 -4.076538e-01 -4.958645e-02 5.183259e-01 -1.112800e+00 -5.397622e-01 1.836348e-01 -6.773695e-02 1.131525e-01 -1.202909e+00
<VARIANCE> 39
 7.636608e+01 1.501512e+02 2.537933e+02 2.751303e+02 3.962430e+02 3.658538e+02 4.843201e+02 3.982646e+02 3.586557e+02 4.096482e+02 3.594330e+02 3.448460e+02 1.128868e+02 2.060207e+00 6.316694e+00 9.501686e+00 1.186933e+01 1.387767e+01 1.254072e+01 1.998071e+01 1.452694e+01 1.539248e+01 1.547589e+01 1.508994e+01 1.416125e+01 3.051473e+00 4.510703e-01 1.222488e+00 1.124539e+00 2.559710e+00 2.130747e+00 2.845974e+00 3.975283e+00 4.348872e+00 3.182242e+00 2.462956e+00 2.506578e+00 2.078937e+00 9.303907e-01
<GCONST> 1.834107e+02
<MIXTURE> 2 4.834657e-01
<MEAN> 39
 1.937934e+01 -3.120902e+01 -5.984750e+00 -3.015620e+01 4.876065e+00 1.055794e+01 -5.902224e-01 6.108422e+00 5.639949e+00 1.749409e+01 2.349021e+00 -5.117157e+00 1.469593e+02 -1.198109e+00 -2.205733e+00 -1.337356e+00 2.484994e-02 1.996002e+00 2.030547e+00 1.748809e-01 3.022895e-01 1.150732e+00 -7.682596e-01 -7.563570e-01 -6.860521e-01 1.358086e+00 -7.777655e-01 9.965855e-01 6.486522e-01 1.550555e+00 -1.338993e-01 -4.538445e-01 -3.566562e-01 -1.730876e-01 -4.209677e-01 -5.011916e-01 -2.730641e-01 2.467687e-01 -1.598588e+00
<VARIANCE> 39
 8.008943e+01 1.679946e+02 2.678606e+02 3.987304e+02 4.240129e+02 3.315721e+02 3.438544e+02 3.814067e+02 4.485425e+02 3.900879e+02 5.693122e+02 3.557045e+02 1.197112e+02 2.455527e+00 4.804900e+00 5.714200e+00 8.080302e+00 8.065418e+00 1.053524e+01 1.203986e+01 1.023424e+01 1.317910e+01 1.169608e+01 1.409297e+01 1.277684e+01 2.829498e+00 2.212862e+00 1.014378e+00 1.240544e+00 2.493514e+00 2.114046e+00 1.979784e+00 2.660350e+00 2.384895e+00 2.887132e+00 2.575593e+00 3.108762e+00 1.942903e+00 1.711468e+00
<GCONST> 1.818638e+02
<STATE> 3
<NUMMIXES> 2
<MIXTURE> 1 4.967961e-01
<MEAN> 39
 1.719744e+01 -3.552369e+01 -1.545766e+00 -1.925827e+01 1.521487e+01 9.010675e+00 -8.394375e+00 1.555876e+01 1.026009e+01 8.244123e+00 -3.364859e-01 -2.547558e+00 1.439667e+02 -2.077522e-01 -2.801520e-01 7.380614e-01 8.691778e-01 -4.078385e-01 -9.860936e-01 3.530203e-02 7.591562e-01 2.439881e-01 -5.181926e-01 -3.437508e-01 2.956146e-01 -1.599516e-01 -6.258040e-02 1.483850e-01 4.243250e-01 7.037524e-02 -4.684856e-01 -4.592884e-01 3.016016e-01 1.818362e-01 -1.208789e-01 -7.080770e-02 -5.083386e-02 3.071907e-01 -3.597178e-02
<VARIANCE> 39
 7.485800e+01 1.665431e+02 2.175851e+02 3.510173e+02 4.717515e+02 3.542433e+02 3.786997e+02 4.224113e+02 3.491909e+02 3.267813e+02 3.973804e+02 3.891656e+02 1.506796e+02 7.722158e-01 1.574499e+00 2.987271e+00 3.552165e+00 4.948788e+00 6.446255e+00 5.966125e+00 4.962027e+00 4.796340e+00 5.157332e+00 5.387226e+00 5.265567e+00 6.535910e-01 1.226811e-01 2.492875e-01 3.685876e-01 4.628922e-01 6.314703e-01 6.665301e-01 9.079177e-01 7.498304e-01 8.002656e-01 8.320338e-01 8.431049e-01 8.198357e-01 9.059386e-02
<GCONST> 1.508229e+02
<MIXTURE> 2 5.031597e-01
<MEAN> 39
 1.561808e+01 -3.589280e+01 -4.208022e+00 -2.417994e+01 1.243022e+01 1.158999e+01 -5.665514e+00 1.030397e+01 7.947242e+00 1.237858e+01 -1.024178e+00 -6.290020e+00 1.476137e+02 -1.887951e-01 -3.439173e-01 3.797382e-01 9.814395e-01 1.367444e-02 -7.788423e-01 -2.479184e-01 5.650378e-01 4.550092e-01 -3.406281e-01 -5.290065e-01 -2.590893e-01 -1.533950e-01 3.202955e-02 1.194560e-01 2.824755e-01 1.535664e-01 -3.468445e-01 -4.449191e-01 9.598304e-02 1.884324e-01 7.337405e-03 -2.905125e-02 -6.867401e-02 1.534819e-01 -9.248951e-02
<VARIANCE> 39
 7.035150e+01 1.618289e+02 2.290869e+02 3.962371e+02 4.780842e+02 3.406750e+02 3.508648e+02 4.254558e+02 3.794081e+02 3.781105e+02 4.256051e+02 3.826729e+02 1.372527e+02 7.829872e-01 1.496474e+00 2.026224e+00 3.066913e+00 3.558012e+00 5.051491e+00 4.269574e+00 3.946624e+00 4.165606e+00 4.167724e+00 4.463471e+00 4.302712e+00 7.375621e-01 1.251411e-01 2.207394e-01 2.938469e-01 3.959270e-01 4.740769e-01 5.779588e-01 6.563843e-01 5.924252e-01 6.230069e-01 6.579657e-01 6.564317e-01 6.365244e-01 9.575485e-02
<GCONST> 1.462576e+02
<STATE> 4
<NUMMIXES> 2
<MIXTURE> 1 5.035424e-01
<MEAN> 39
 1.225220e+01 -3.347269e+01 1.696232e+01 -1.256824e+01 2.171673e-03 -5.386870e+00 4.164387e+00 2.575232e+01 5.836955e+00 4.763629e-02 -1.552315e+00 7.602733e+00 1.419478e+02 -6.786878e-01 2.340338e+00 4.604143e+00 -6.758662e-01 -4.270194e+00 -1.939824e+00 3.439355e+00 -5.316144e-01 -2.157449e+00 9.137690e-01 1.084127e+00 1.122275e+00 -1.122580e+00 2.148413e-01 7.771883e-01 1.507022e-01 -1.056665e-01 3.064138e-01 3.873238e-01 -1.895551e-01 -1.103177e+00 -1.765282e-01 7.640473e-01 -1.799838e-03 -2.802701e-01 -5.758448e-01
<VARIANCE> 39
 7.243921e+01 1.797479e+02 3.379875e+02 2.403352e+02 4.170571e+02 2.480020e+02 5.272463e+02 3.116481e+02 3.270351e+02 2.824115e+02 3.194910e+02 2.733103e+02 1.736075e+02 1.531671e+00 4.723851e+00 5.548234e+00 9.248609e+00 1.115040e+01 1.375206e+01 1.564546e+01 1.673476e+01 1.428025e+01 1.503873e+01 1.211805e+01 1.256583e+01 1.581208e+00 2.746285e-01 5.102493e-01 9.671915e-01 1.644583e+00 1.908258e+00 1.509200e+00 2.575954e+00 2.064220e+00 2.132300e+00 2.009002e+00 2.169182e+00 1.806811e+00 3.095634e-01
<GCONST> 1.742268e+02
<MIXTURE> 2 4.964308e-01
<MEAN> 39
 1.329595e+01 -3.295510e+01 1.320657e+01 -1.293515e+01 -7.781510e-01 -8.101898e+00 -1.802750e+00 2.080196e+01 8.544666e+00 6.707384e+00 -3.423915e+00 -3.696802e-01 1.427840e+02 -5.452751e-01 1.840340e+00 3.879874e+00 9.589733e-01 -3.243505e+00 -2.844441e+00 1.401043e+00 5.142230e-01 -1.473888e+00 -2.299399e-01 3.179803e-01 1.740380e+00 -1.207297e+00 1.586042e-01 5.967210e-01 2.051450e-01 6.655609e-03 1.418532e-01 3.134050e-01 -1.614454e-02 -7.056248e-01 -5.592240e-01 2.446009e-01 2.297799e-01 4.843394e-02 -4.824045e-01
<VARIANCE> 39
 7.838722e+01 2.002115e+02 4.024492e+02 2.752596e+02 4.533326e+02 2.904066e+02 5.089426e+02 3.304173e+02 4.232126e+02 4.208711e+02 3.486870e+02 3.859350e+02 2.051441e+02 1.691845e+00 4.653880e+00 6.348351e+00 9.555393e+00 1.061530e+01 1.478643e+01 1.775825e+01 1.583778e+01 1.484449e+01 1.250905e+01 1.217680e+01 1.262979e+01 1.981795e+00 2.869047e-01 5.496615e-01 1.073823e+00 1.259726e+00 1.923365e+00 1.565146e+00 2.095613e+00 1.924696e+00 2.096908e+00 1.812854e+00 1.865342e+00 2.051854e+00 3.283525e-01
<GCONST> 1.763213e+02
<TRANSP> 5
 0.000000e+00 1.000000e+00 0.000000e+00 0.000000e+00 0.000000e+00
 0.000000e+00 7.093171e-01 2.906829e-01 0.000000e+00 0.000000e+00
 0.000000e+00 0.000000e+00 8.978491e-01 1.021509e-01 0.000000e+00
 0.000000e+00 0.000000e+00 0.000000e+00 8.033527e-01 1.966473e-01
 0.000000e+00 0.000000e+00 0.000000e+00 0.000000e+00 0.000000e+00
<ENDHMM>
~h "eh"
<BEGINHMM>
<NUMSTATES> 5
<STATE> 2
<NUMMIXES> 2
<MIXTURE> 1 4.713391e-01
<MEAN> 39
 -4.432577e+01 2.634331e+00 -1.496235e+01 3.872434e+00 -1.608389e+01 5.373734e-01 -5.338425e+00 2.984354e+00 -9.231802e+00 1.961031e+00 4.233568e-01 8.404044e+00 1.090945e+02 1.048734e+01 8.094317e-01 8.222961e+00 2.663707e-02 2.489678e-01 -3.169297e+00 2.971445e-02 6.299838e-02 2.363439e+00 -1.075662e+00 -9.733146e-02 2.518479e+00 3.451924e+00 3.990525e+00 -8.762660e-01 2.452055e+00 -6.750475e-01 2.539568e-01 -2.132387e+00 2.387970e-02 -9.162633e-02 1.724830e+00 5.748970e-02 -2.141144e-01 1.023033e+00 2.061965e+00
<VARIANCE> 39
 9.309624e+01 8.860138e+01 9.402575e+01 1.273786e+02 1.534829e+02 1.916917e+02 1.310446e+02 1.230589e+02 1.381496e+02 1.206888e+02 1.460235e+02 1.270901e+02 9.997303e+01 2.679116e+01 1.323464e+01 1.531114e+01 1.194926e+01 1.017700e+01 1.721864e+01 1.350646e+01 1.219216e+01 1.447460e+01 1.834413e+01 1.633160e+01 1.545582e+01 1.032301e+01 1.681848e+00 2.056956e+00 2.194545e+00 2.407634e+00 2.622457e+00 3.697273e+00 4.705498e+00 2.659039e+00 3.929502e+00 3.974340e+00 3.363888e+00 3.778566e+00 1.168537e+00
<GCONST> 1.821667e+02
<MIXTURE> 2 5.286481e-01
<MEAN> 39
 -5.692318e+01 1.069648e+01 -1.014052e+01 -6.910350e+00 1.686063e+00 -1.530219e+01 -1.622615e+00 9.488479e-01 -1.871392e+00 1.442215e+00 -1.021163e+01 6.472775e+00 1.138669e+02 8.388618e+00 -1.847652e+00 4.597147e+00 1.140551e+00 -7.215671e-01 -1.063659e+00 -1.531002e+00 -1.362802e+00 8.216174e-01 1.606967e+00 -1.499251e+00 -1.790832e-01 1.284493e+00 4.768576e+00 -1.251453e+00 2.419842e+00 2.799944e-01 7.592776e-02 -1.027137e-01 -1.852989e+00 -4.117577e-01 -6.013077e-02 1.329757e+00 -5.168562e-03 -3.781199e-01 1.560867e+00
<VARIANCE> 39
 9.534480e+01 9.229790e+01 1.574181e+02 2.272547e+02 2.165678e+02 2.347137e+02 1.465078e+02 1.609024e+02 1.467391e+02 1.374669e+02 1.460143e+02 1.236333e+02 1.234993e+02 3.578200e+01 9.271972e+00 1.455444e+01 1.346559e+01 1.203042e+01 1.211472e+01 1.417130e+01 1.260990e+01 1.328802e+01 1.703049e+01 1.302524e+01 1.286251e+01 7.971450e+00 1.402268e+00 1.948125e+00 2.206747e+00 2.465838e+00 3.001327e+00 3.559334e+00 3.879069e+00 3.023887e+00 3.726331e+00 3.834100e+00 3.188647e+00 3.182934e+00 1.478898e+00
<GCONST> 1.834450e+02
<STATE> 3
<NUMMIXES> 2
<MIXTURE> 1 4.822412e-01
<MEAN> 39
 -1.330611e+01 9.349640e+00 9.672474e+00 1.030502e+01 -1.588645e+01 -6.142265e+00 -5.065282e+00 3.228994e+00 -2.869033e+00 -3.173572e+00 -1.856196e-01 1.467574e+01 1.133934e+02 1.610243e+01 -3.246958e+00 1.072958e+01 -3.881470e+00 3.487706e-01 -9.170366e+00 1.342088e+00 -2.014113e-01 7.016074e+00 -1.102112e+00 5.015931e-03 5.542297e+00 9.002631e+00 -1.014756e+00 -2.501466e+00 -1.483318e+00 -2.209799e+00 8.982314e-02 -6.421674e-01 1.230323e+00 7.921258e-01 1.173839e+00 9.450638e-01 1.545889e-01 -1.226944e-01 1.585971e+00
<VARIANCE> 39
 3.537661e+02 8.769378e+01 1.685312e+02 1.119076e+02 1.375190e+02 1.868982e+02 1.338260e+02 1.215095e+02 1.629324e+02 1.418815e+02 1.941586e+02 1.906750e+02 1.308488e+02 8.035013e+00 1.608490e+01 1.432130e+01 1.896125e+01 1.846243e+01 2.478885e+01 3.111105e+01 1.699501e+01 2.535870e+01 2.880576e+01 2.711177e+01 2.434902e+01 8.921295e+00 4.981180e+00 1.770035e+00 3.469559e+00 1.756182e+00 2.089944e+00 3.749784e+00 3.923577e+00 2.295164e+00 3.195539e+00 2.817007e+00 2.922101e+00 3.201844e+00 1.515782e+00
<GCONST> 1.883839e+02
<MIXTURE> 2 5.177444e-01
<MEAN> 39
 -1.527995e+01 6.301846e+00 1.262258e+01 1.313817e+00 6.772386e+00 -1.757818e+01 -9.389998e+00 -5.093663e+00 2.294983e+00 1.361523e+01 -1.589170e+01 3.086538e+00 1.204659e+02 1.904168e+01 -7.036610e+00 8.596970e+00 1.102151e-01 -9.781005e-01 -6.907243e-02 -9.317503e+00 -1.961833e+00 -8.041804e-01 6.446037e+00 -5.003139e-01 -2.781925e+00 8.148278e+00 -1.220053e+00 -1.637410e+00 -1.216649e+00 -1.899658e+00 -1.195856e+00 -6.020675e-02 -1.277602e+00 1.046530e+00 -3.065139e-02 2.678849e-01 1.212387e+00 -2.524447e-01 1.783255e+00
<VARIANCE> 39
 5.075930e+02 1.271236e+02 1.802309e+02 1.847942e+02 2.077175e+02 1.680266e+02 2.397908e+02 1.969787e+02 1.791530e+02 1.986554e+02 1.570395e+02 2.093077e+02 2.093991e+02 1.196738e+01 1.271065e+01 2.339280e+01 2.568633e+01 2.879794e+01 2.695051e+01 3.047283e+01 2.559887e+01 3.196527e+01 2.797792e+01 2.811619e+01 2.517338e+01 9.114579e+00 7.816991e+00 2.139679e+00 3.423796e+00 2.274296e+00 2.700381e+00 2.669898e+00 4.735253e+00 3.064503e+00 3.256554e+00 3.492950e+00 2.647654e+00 2.812428e+00 2.048081e+00
<GCONST> 1.955936e+02
<STATE> 4
<NUMMIXES> 2
<MIXTURE> 1 4.986318e-01
<MEAN> 39
 1.340319e+01 -1.286068e+01 2.060738e+01 -8.587187e+00 -1.596294e+01 -2.469290e+01 -1.211279e+01 1.897351e+00 1.123467e+01 6.178765e+00 -1.272586e-01 1.671880e+01 1.428053e+02 4.552946e+00 -6.330958e+00 8.495738e-01 -5.925869e+00 -1.388913e+00 -3.014517e+00 2.764524e+00 3.251653e+00 5.168510e+00 1.368154e+00 1.878750e+00 1.029217e+00 6.708838e+00 -4.131720e+00 3.266091e-01 -2.600025e+00 -5.583144e-03 6.312135e-01 1.864857e+00 1.594026e+00 8.483136e-01 -8.831075e-01 1.087285e-01 -2.058285e-01 -1.189055e+00 -1.830484e+00
<VARIANCE> 39
 5.423431e+01 1.630631e+02 1.762136e+02 1.892303e+02 2.275893e+02 2.333186e+02 6.401949e+02 2.738985e+02 2.928994e+02 4.652374e+02 3.680806e+02 4.836588e+02 1.248229e+02 3.069370e+01 1.031082e+01 2.300541e+01 1.502645e+01 1.645081e+01 2.953486e+01 4.110214e+01 1.445026e+01 2.103703e+01 1.962907e+01 1.785300e+01 2.054691e+01 1.492076e+01 1.809596e+00 3.068243e+00 2.734880e+00 2.880593e+00 2.363284e+00 4.252250e+00 4.777039e+00 2.863175e+00 3.941438e+00 3.997330e+00 3.339839e+00 4.100516e+00 1.085760e+00
<GCONST> 1.958372e+02
<MIXTURE> 2 5.013497e-01
<MEAN> 39
 1.151971e+01 -1.840956e+01 2.552956e+01 -1.436283e+01 -3.973706e+00 -2.593745e+01 -2.187064e+01 -7.716118e-01 4.563472e+00 1.875247e+01 -9.677411e+00 9.409223e+00 1.464690e+02 4.953268e+00 -7.772948e+00 1.423962e+00 -5.872854e+00 -2.054136e+00 -1.596720e+00 -1.923842e+00 3.104346e+00 2.302529e+00 3.591644e+00 1.332742e+00 -9.767112e-01 7.157742e+00 -4.489481e+00 1.130782e+00 -2.977151e+00 2.511176e-01 -3.057152e-01 1.396968e+00 1.965050e+00 1.020159e+00 -6.819227e-02 -9.801596e-01 5.096703e-01 -5.899598e-01 -2.187920e+00
<VARIANCE> 39
 5.203379e+01 1.073178e+02 1.689053e+02 2.612450e+02 2.994043e+02 2.657623e+02 7.533864e+02 2.766350e+02 3.841624e+02 4.201432e+02 3.895931e+02 5.432206e+02 1.106636e+02 3.352953e+01 1.067214e+01 1.951420e+01 1.782741e+01 2.062571e+01 2.037899e+01 6.284477e+01 1.780175e+01 2.122495e+01 1.919736e+01 2.058159e+01 1.695755e+01 1.097063e+01 1.942685e+00 1.578192e+00 1.993012e+00 3.540406e+00 2.568047e+00 4.968817e+00 5.750972e+00 2.860873e+00 5.627881e+00 3.368225e+00 3.621188e+00 5.247393e+00 9.469798e-01
<GCONST> 1.967987e+02
<TRANSP> 5
 0.000000e+00 1.000000e+00 0.000000e+00 0.000000e+00 0.000000e+00
 0.000000e+00 5.646325e-01 4.353675e-01 0.000000e+00 0.000000e+00
 0.000000e+00 0.000000e+00 4.284617e-01 5.715383e-01 0.000000e+00
 0.000000e+00 0.000000e+00 0.000000e+00 6.179994e-01 3.820006e-01
 0.000000e+00 0.000000e+00 0.000000e+00 0.000000e+00 0.000000e+00
<ENDHMM>
~h "ey"
<BEGINHMM>
<NUMSTATES> 5
<STATE> 2
<NUMMIXES> 2
<MIXTURE> 1 5.686250e-01
<MEAN> 39
 -9.233411e+00 -1.174907e+01 2.504522e+01 -1.520372e+01 -1.774074e+01 -1.588753e+01 3.717983e+00 7.250445e-01 6.326227e-01 9.375466e+00 -2.007492e+00 6.596078e+00 1.043772e+02 3.400129e+00 -2.844921e+00 5.604264e+00 -3.936886e+00 -1.834319e+00 -6.908364e-01 2.534156e+00 1.264995e+00 8.188975e-01 1.717855e+00 2.239840e-01 1.039570e+00 1.165858e+01 2.200923e-01 4.651914e-01 1.330469e-02 2.687729e-01 1.308400e-01 1.570488e-01 -7.036950e-01 -3.475118e-01 -2.711296e-01 5.297919e-02 2.526373e-01 1.044617e-01 -8.622216e-02
<VARIANCE> 39
 2.821411e+02 2.228954e+02 4.770604e+02 4.616700e+02 2.493583e+02 3.216975e+02 4.619436e+02 3.102529e+02 3.161035e+02 2.381911e+02 1.814128e+02 1.927965e+02 1.381029e+03 2.325282e+01 1.833244e+01 3.231278e+01 2.789584e+01 2.187147e+01 2.545972e+01 3.511559e+01 2.548861e+01 2.749598e+01 2.246556e+01 1.930431e+01 1.825632e+01 8.836592e+01 4.613113e+00 3.566710e+00 5.781509e+00 5.537751e+00 3.930109e+00 4.637502e+00 5.777462e+00 4.127212e+00 4.241530e+00 3.809676e+00 3.337618e+00 3.292091e+00 2.195998e+01
<GCONST> 2.104765e+02
<MIXTURE> 2 4.313512e-01
<MEAN> 39
 -2.473676e+00 -5.944295e+00 1.844506e+01 -8.308151e+00 -1.763411e+01 -2.089932e+01 -1.352260e+01 -5.449880e+00 -5.512885e+00 1.095038e+01 -1.734014e-01 7.971377e+00 9.923904e+01 -3.602054e-01 -1.489275e+00 2.144397e+00 -3.570774e-02 -2.687109e+00 -1.765952e+00 -1.115847e+00 8.512124e-01 4.485817e-01 3.522580e-02 6.464534e-01 -8.330374e-02 1.512024e+00 -1.987333e-01 -9.643633e-02 2.727408e-01 -1.566835e-01 4.243638e-01 9.220053e-01 1.106626e+00 4.168718e-01 -1.503811e-01 -3.078845e-01 -1.510793e-01 -1.043732e-01 6.018806e-01
<VARIANCE> 39
 3.588112e+02 2.814428e+02 6.200879e+02 4.544309e+02 4.537082e+02 4.498862e+02 5.410949e+02 6.718567e+02 6.672079e+02 5.284411e+02 4.206794e+02 3.895650e+02 1.188259e+03 3.823463e+01 2.162205e+01 4.102034e+01 3.592048e+01 3.991658e+01 4.943749e+01 5.414677e+01 5.626432e+01 5.739454e+01 4.283321e+01 3.956157e+01 3.739845e+01 1.108035e+02 5.115226e+00 4.084988e+00 6.499464e+00 5.849040e+00 7.720936e+00 7.993964e+00 9.658679e+00 1.093811e+01 1.023819e+01 8.492311e+00 7.888330e+00 7.463491e+00 1.774706e+01
<GCONST> 2.289529e+02
<STATE> 3
<NUMMIXES> 2
<MIXTURE> 1 5.335815e-01
<MEAN> 39
 1.696634e+00 -1.049957e+01 5.734800e+01 -2.192732e+01 -1.885524e+01 -1.095795e+01 -2.646510e+00 -4.813906e+00 -9.035337e+00 8.395792e+00 -3.322934e+00 8.158364e+00 1.400626e+02 -6.011700e-01 1.824844e+00 2.363119e+00 4.890538e-01 1.177900e+00 1.531718e+00 -4.269749e-01 -1.539286e+00 -7.592825e-01 -6.766872e-01 -8.413102e-01 -3.267812e-01 -1.163072e+00 -1.952637e-02 1.549968e-01 -1.423096e-01 2.861282e-01 2.026607e-01 1.063815e-02 1.270862e-01 3.215032e-02 1.442541e-01 6.566139e-02 -5.085458e-02 1.183982e-02 -6.345032e-01
<VARIANCE> 39
 7.192623e+01 2.743033e+02 4.593304e+02 4.304184e+02 2.268940e+02 3.123565e+02 5.077685e+02 4.260991e+02 7.178018e+02 3.084156e+02 2.235708e+02 2.438936e+02 1.507285e+02 2.037999e+00 4.043540e+00 5.090988e+00 4.785850e+00 8.300553e+00 8.365150e+00 1.113235e+01 9.565052e+00 9.401348e+00 9.335329e+00 8.077201e+00 9.992390e+00 4.454986e+00 3.554005e-01 6.129018e-01 8.061149e-01 9.037006e-01 1.022757e+00 1.226971e+00 1.469284e+00 1.540688e+00 1.497136e+00 1.295001e+00 1.170646e+00 1.209793e+00 5.369983e-01
<GCONST> 1.696062e+02
<MIXTURE> 2 4.663845e-01
<MEAN> 39
 2.186249e+00 -1.270677e+01 5.278402e+01 -2.379948e+01 -2.254714e+01 -1.601723e+01 -8.263612e-02 -3.861199e+00 -4.023761e+00 1.222880e+01 -1.935045e-02 1.085735e+01 1.414044e+02 -5.801920e-01 1.502300e+00 2.770690e+00 2.716056e-01 7.186256e-01 1.194412e+00 -1.027913e+00 -2.323311e+00 -1.505409e+00 -1.067063e+00 -9.785744e-01 -2.873170e-01 -2.940805e-01 -1.731976e-01 2.948878e-01 -6.161774e-02 4.085751e-01 4.365757e-01 2.335233e-01 -1.913562e-02 -2.639103e-01 -2.304705e-01 -3.254747e-01 -4.606924e-01 -2.457511e-01 -8.869215e-01
<VARIANCE> 39
 6.661513e+01 2.379566e+02 3.202320e+02 4.276378e+02 2.373752e+02 2.987390e+02 4.950685e+02 4.359769e+02 6.130527e+02 2.920058e+02 2.205967e+02 1.940763e+02 1.553304e+02 2.216145e+00 4.810243e+00 5.593856e+00 5.088049e+00 7.815862e+00 7.514025e+00 1.027973e+01 1.010304e+01 9.982840e+00 9.043534e+00 8.329203e+00 9.006805e+00 6.304883e+00 5.864784e-01 7.724416e-01 9.336315e-01 1.003241e+00 1.176058e+00 1.308225e+00 1.543168e+00 1.527352e+00 1.469368e+00 1.524916e+00 1.294472e+00 1.271088e+00 1.385006e+00
<GCONST> 1.715868e+02
<STATE> 4
<NUMMIXES> 2
<MIXTURE> 1 5.242624e-01
<MEAN> 39
