~o
<STREAMINFO> 1 39
<VECSIZE> 39<NULLD><MFCC_D_A_0><DIAGC>
~v "varFloor1"
<VARIANCE> 39
 6.754285e+00 3.412382e+00 5.608406e+00 4.796288e+00 3.472278e+00 4.011306e+00 4.413544e+00 3.617784e+00 3.683816e+00 3.040248e+00 2.640156e+00 2.509632e+00 1.299030e+01 2.278168e-01 1.545930e-01 2.184475e-01 2.118017e-01 1.813441e-01 2.097645e-01 2.257998e-01 2.166213e-01 2.009591e-01 1.748390e-01 1.664857e-01 1.534652e-01 2.729186e-01 3.005252e-02 2.352007e-02 2.950203e-02 3.333135e-02 2.970526e-02 3.527972e-02 3.796952e-02 3.764049e-02 3.477431e-02 3.067440e-02 2.924915e-02 2.697382e-02 3.680100e-02
~h "f"
<BEGINHMM>
<NUMSTATES> 5
<STATE> 2
<MEAN> 39
 -2.695663e+01 -1.108435e+01 4.224365e-01 2.514253e+00 -1.305202e+00 1.587042e-01 -5.179331e+00 9.229710e-01 -4.407876e+00 3.950469e+00 -3.025224e+00 2.611300e+00 8.717257e+01 -1.558998e+00 -1.271170e+00 -1.035305e+00 -4.826609e-01 -4.573670e-01 -1.856354e-01 -5.532396e-01 -2.113398e-01 -5.461181e-02 9.725160e-03 3.611428e-02 -1.412142e-01 8.565328e-01 1.178175e+00 2.135819e-01 2.170486e-01 -2.604415e-01 1.020950e-01 5.917847e-02 2.043895e-01 -2.905361e-02 -1.264563e-02 1.454416e-01 -2.012851e-04 1.329920e-02 6.476705e-01
<VARIANCE> 39
 3.046532e+02 1.668911e+02 1.134985e+02 1.472641e+02 1.356225e+02 1.405184e+02 1.557538e+02 1.559869e+02 1.559262e+02 1.384526e+02 1.326400e+02 1.200809e+02 4.533402e+02 3.526773e+01 1.514653e+01 1.191290e+01 2.031600e+01 1.488540e+01 1.493407e+01 1.646525e+01 1.571121e+01 1.659223e+01 1.514661e+01 1.424750e+01 1.247640e+01 2.645605e+01 5.446581e+00 3.045468e+00 2.317285e+00 3.650550e+00 2.891014e+00 3.034172e+00 3.314978e+00 3.185516e+00 3.336457e+00 3.068599e+00 2.956444e+00 2.534248e+00 3.617708e+00
<GCONST> 1.897738e+02
<STATE> 3
<MEAN> 39
 -2.489242e+01 -1.483855e+01 -1.950321e+00 -1.665984e+00 -2.685494e+00 4.128399e-01 -5.955785e+00 -3.012840e-01 -5.130309e+00 5.394484e+00 -3.275362e+00 2.062549e+00 1.002801e+02 5.138101e+00 -3.098185e-01 -4.983294e-01 -2.740668e+00 6.041063e-02 5.596583e-01 6.127516e-01 -1.081086e-01 2.784071e-01 1.010067e+00 3.483197e-01 -2.892554e-01 4.678161e+00 1.850419e+00 3.126098e-01 2.354884e-01 -9.348571e-01 3.068496e-02 2.609430e-01 3.736500e-01 1.494681e-01 8.396586e-02 2.957223e-01 1.008867e-01 -4.271270e-02 7.347432e-01
<VARIANCE> 39
 4.634713e+02 1.291485e+02 9.093374e+01 1.897272e+02 1.163052e+02 1.221753e+02 1.337231e+02 1.284211e+02 1.537501e+02 1.455656e+02 1.414930e+02 1.101045e+02 3.614960e+02 6.528940e+01 1.702280e+01 1.088981e+01 2.766970e+01 1.518816e+01 1.463320e+01 1.640609e+01 1.482932e+01 2.052499e+01 1.886626e+01 2.029554e+01 1.331755e+01 3.760809e+01 8.719106e+00 3.709336e+00 2.148130e+00 4.683112e+00 2.957100e+00 2.772042e+00 3.117409e+00 2.932270e+00 3.645587e+00 3.353450e+00 3.590261e+00 2.588522e+00 4.532816e+00
<GCONST> 1.924563e+02
<STATE> 4
<MEAN> 39
 7.778863e+00 -1.484464e+01 -2.686558e+00 -2.473781e+01 -2.935832e+00 6.160359e+00 -9.013833e-01 3.719642e-01 -4.039201e+00 1.261741e+01 1.081571e-01 3.355531e-01 1.247304e+02 5.764179e+00 -5.688280e-01 -1.756695e-01 -3.966198e+00 3.114673e-01 1.248573e+00 1.041335e+00 4.976377e-01 6.779107e-01 1.188240e+00 3.055077e-01 -4.914571e-01 4.544920e+00 -7.411026e-01 1.916844e-01 2.246814e-01 2.986994e-01 -9.297887e-02 -9.857966e-02 -7.890867e-02 2.087252e-01 -2.093916e-02 -2.914374e-01 -3.047130e-01 7.003698e-03 -7.808762e-01
<VARIANCE> 39
 7.091972e+02 2.843533e+02 1.618470e+02 6.226407e+02 2.848045e+02 2.590092e+02 2.017779e+02 1.832485e+02 3.212909e+02 2.881055e+02 3.491241e+02 1.940714e+02 4.849079e+02 5.896010e+01 2.476645e+01 1.257957e+01 3.686668e+01 1.955005e+01 1.578674e+01 1.641149e+01 1.498250e+01 2.215548e+01 1.945671e+01 2.431353e+01 1.534439e+01 3.150766e+01 1.136308e+01 3.377254e+00 1.970616e+00 6.845734e+00 3.090380e+00 2.553449e+00 2.849649e+00 2.537194e+00 3.893535e+00 3.489102e+00 3.892647e+00 2.531677e+00 4.220956e+00
<GCONST> 2.026135e+02
<TRANSP> 5
 0.000000e+00 1.000000e+00 0.000000e+00 0.000000e+00 0.000000e+00
 0.000000e+00 8.148128e-01 1.851872e-01 0.000000e+00 0.000000e+00
 0.000000e+00 0.000000e+00 6.696709e-01 3.303291e-01 0.000000e+00
 0.000000e+00 0.000000e+00 0.000000e+00 7.281461e-01 2.718539e-01
 0.000000e+00 0.000000e+00 0.000000e+00 0.000000e+00 0.000000e+00
<ENDHMM>
~h "k"
<BEGINHMM>
<NUMSTATES> 5
<STATE> 2
<MEAN> 39
 -1.482785e+01 -1.960152e+00 1.406106e+01 1.471386e+01 -3.589745e+00 -1.738196e+01 -6.296293e+00 1.087254e+00 -1.307962e+01 4.600148e-01 -2.375704e+00 4.170814e+00 9.046112e+01 -3.385806e+00 2.691427e-01 -4.889507e+00 -3.498079e-02 1.161674e+00 1.366940e+00 -7.992196e-01 5.962716e-01 1.606726e+00 -5.139967e-01 -7.109148e-02 -2.568303e-02 -2.776599e+00 -3.559023e-01 -3.678708e-01 -3.875795e-02 -6.190197e-01 -2.982789e-01 -2.486095e-01 -4.136798e-02 -6.017512e-02 3.412086e-01 2.464644e-01 -1.401888e-01 2.044114e-01 1.526376e+00
<VARIANCE> 39
 4.341681e+02 3.385231e+02 6.767772e+02 2.888318e+02 3.140775e+02 3.848249e+02 4.331185e+02 4.601388e+02 4.153280e+02 2.500068e+02 1.990562e+02 1.723840e+02 1.096884e+03 3.496924e+01 5.313192e+01 4.412074e+01 3.880800e+01 2.990312e+01 4.572554e+01 4.737837e+01 4.644125e+01 4.328413e+01 2.911665e+01 2.182582e+01 2.015753e+01 1.590199e+02 6.710698e+00 1.155988e+01 7.963224e+00 7.527813e+00 5.768505e+00 8.965580e+00 8.760337e+00 8.613344e+00 8.300631e+00 5.710093e+00 4.194703e+00 3.811518e+00 2.620314e+01
<GCONST> 2.234524e+02
<STATE> 3
<MEAN> 39
 -2.843460e+01 -3.695761e+00 -2.361843e+00 1.065202e+01 -1.959440e+00 -1.493021e+01 -9.229692e+00 2.207072e+00 -5.717958e+00 7.946565e-01 -3.432370e+00 5.134659e+00 9.112374e+01 -3.563110e+00 -3.750918e-01 -2.589302e+00 -1.073954e+00 -1.011972e-01 -1.685400e-02 -2.383198e-01 7.304881e-01 1.257777e+00 2.779721e-01 -3.986227e-01 3.424686e-01 2.659188e+00 1.404951e-01 3.065645e-01 8.661793e-01 -6.802020e-02 -2.465143e-01 -6.740924e-02 3.769571e-01 1.338052e-02 -2.778403e-01 5.850402e-02 9.280037e-03 1.489602e-02 4.575122e-01
<VARIANCE> 39
 4.881912e+02 2.775346e+02 3.712043e+02 2.351631e+02 3.225826e+02 3.153122e+02 2.740464e+02 2.667477e+02 2.384927e+02 1.910323e+02 1.738460e+02 1.409342e+02 8.708031e+02 5.171284e+01 4.098710e+01 3.621088e+01 2.505399e+01 2.800052e+01 3.767975e+01 3.173346e+01 3.089021e+01 2.806941e+01 2.304733e+01 1.849050e+01 1.599764e+01 1.115797e+02 9.174164e+00 8.991448e+00 5.660302e+00 5.140695e+00 5.294755e+00 7.513391e+00 6.210338e+00 6.001592e+00 5.354322e+00 4.720686e+00 3.628075e+00 3.227219e+00 2.182521e+01
<GCONST> 2.142565e+02
<STATE> 4
<MEAN> 39
 -3.994125e+01 -1.741679e+00 -7.168218e+00 6.571025e+00 -3.517622e+00 -1.354154e+01 -7.594814e+00 4.110247e+00 -3.308865e+00 1.750417e+00 -4.201517e+00 5.928301e+00 9.743724e+01 -1.164938e+00 6.252806e-01 1.080117e-01 -8.610744e-01 -1.765644e-01 5.285192e-01 6.461016e-01 2.846378e-01 1.117859e-01 2.378909e-01 -1.728241e-01 6.063405e-02 1.271777e+00 7.539487e-01 8.071458e-02 4.093991e-01 1.018325e-02 2.528355e-02 1.816268e-01 1.005830e-01 -1.967641e-01 -1.657976e-01 3.357698e-02 7.047893e-02 -6.430046e-02 -4.152396e-01
<VARIANCE> 39
 4.139585e+02 1.933660e+02 2.233120e+02 2.236169e+02 3.555086e+02 3.102769e+02 2.295731e+02 2.050490e+02 1.862292e+02 1.703286e+02 1.725809e+02 1.419172e+02 6.704603e+02 5.264591e+01 2.269589e+01 2.065853e+01 1.709055e+01 2.163474e+01 2.694106e+01 2.252460e+01 2.052859e+01 1.919941e+01 1.777918e+01 1.541684e+01 1.440275e+01 7.015824e+01 7.847812e+00 4.487394e+00 3.642370e+00 3.375256e+00 4.176431e+00 5.147597e+00 4.375242e+00 4.036229e+00 3.769917e+00 3.668877e+00 3.017470e+00 2.844422e+00 1.294553e+01
<GCONST> 2.034260e+02
<TRANSP> 5
 0.000000e+00 1.000000e+00 0.000000e+00 0.000000e+00 0.000000e+00
 0.000000e+00 7.732657e-01 2.267343e-01 0.000000e+00 0.000000e+00
 0.000000e+00 0.000000e+00 7.181083e-01 2.818918e-01 0.000000e+00
 0.000000e+00 0.000000e+00 0.000000e+00 7.695019e-01 2.304980e-01
 0.000000e+00 0.000000e+00 0.000000e+00 0.000000e+00 0.000000e+00
<ENDHMM>
~h "n"
<BEGINHMM>
<NUMSTATES> 5
<STATE> 2
<MEAN> 39
 1.381161e+01 -2.194361e+00 3.235231e+01 7.753583e+00 -2.961137e+00 2.725683e+00 1.329892e+01 -7.861590e-01 -3.080244e+00 7.191857e+00 -5.915297e+00 9.895092e+00 1.098754e+02 2.683526e-01 1.376843e+00 2.358564e-01 1.600845e+00 2.008958e-01 7.279215e-01 1.193902e+00 -1.002923e+00 4.509836e-02 2.698416e-01 -6.534545e-01 1.383592e-01 -1.219939e+00 -2.671767e-01 -4.388663e-01 -6.660357e-01 -3.625749e-01 2.767950e-01 -2.027182e-01 -5.368149e-01 4.890192e-01 2.013571e-01 -8.357016e-02 1.084283e-01 -2.220938e-01 2.225277e-01
<VARIANCE> 39
 1.874147e+02 3.164648e+02 2.706939e+02 5.398585e+02 3.061713e+02 4.089117e+02 5.851808e+02 6.216896e+02 4.891939e+02 4.377455e+02 4.192729e+02 4.003669e+02 5.380443e+02 1.639404e+01 2.228599e+01 2.337319e+01 3.825849e+01 2.273994e+01 2.846629e+01 3.949389e+01 5.245210e+01 3.082048e+01 2.555610e+01 2.548447e+01 2.469995e+01 2.769846e+01 2.192316e+00 2.775708e+00 3.293132e+00 6.318138e+00 3.983796e+00 4.979468e+00 6.518144e+00 8.379525e+00 5.118872e+00 4.267632e+00 4.371621e+00 4.263387e+00 2.259370e+00
<GCONST> 2.115896e+02
<STATE> 3
<MEAN> 39
 1.285959e+01 9.676608e-02 2.992216e+01 1.279764e+01 -1.122287e+00 4.408494e+00 1.387590e+01 -1.189964e-01 -1.714499e+00 6.699646e+00 -7.363055e+00 8.932507e+00 1.051479e+02 -1.229441e+00 -6.604859e-01 -1.769527e+00 -5.186886e-01 8.248593e-01 -5.954326e-02 -9.144851e-01 1.588668e+00 5.444523e-01 -2.180884e-01 1.098840e-01 -6.974578e-01 -3.619805e-01 -4.659679e-01 -4.719336e-01 -6.339043e-01 -6.193494e-01 9.284271e-02 -2.214347e-01 -5.639982e-01 3.752620e-01 8.592542e-02 -8.976319e-02 2.306621e-01 -1.745768e-01 1.787538e-01
<VARIANCE> 39
 1.928291e+02 3.029333e+02 2.513311e+02 4.531452e+02 2.968490e+02 4.059729e+02 5.350834e+02 5.563370e+02 4.534138e+02 4.314063e+02 3.926088e+02 3.889534e+02 5.051898e+02 1.713440e+01 2.395727e+01 2.181697e+01 3.473469e+01 2.204698e+01 2.878015e+01 3.697889e+01 4.577441e+01 2.822845e+01 2.245761e+01 2.371746e+01 2.264501e+01 2.913359e+01 2.318556e+00 2.863971e+00 3.211612e+00 5.133219e+00 3.853266e+00 5.037933e+00 5.886173e+00 7.618906e+00 4.755854e+00 3.864761e+00 4.001014e+00 3.848212e+00 2.148275e+00
<GCONST> 2.094635e+02
<STATE> 4
<MEAN> 39
 6.242535e+00 -2.666521e+00 2.228196e+01 1.099361e+01 1.032946e+00 3.806183e+00 1.083378e+01 6.569178e+00 3.719957e-01 4.779672e+00 -6.152599e+00 6.121474e+00 9.887502e+01 -1.966566e+00 -1.043494e+00 -2.610285e+00 -1.495411e+00 4.085996e-01 -5.123445e-01 -1.623312e+00 1.174076e+00 3.645495e-01 -2.966159e-01 4.013568e-01 -8.388325e-01 -6.707534e-01 -1.468668e-01 1.142713e-02 -1.417759e-01 -2.211911e-01 -7.774043e-02 -8.216929e-02 -1.836661e-01 -3.156468e-01 -9.389255e-02 2.358561e-03 9.687794e-02 2.385021e-02 7.541653e-02
<VARIANCE> 39
 2.574709e+02 3.220969e+02 3.072766e+02 4.470544e+02 2.898842e+02 3.643192e+02 4.880674e+02 4.920367e+02 3.934887e+02 3.935047e+02 3.222196e+02 3.088690e+02 7.550259e+02 1.448389e+01 1.834508e+01 1.828526e+01 2.408610e+01 1.911167e+01 2.244715e+01 2.611324e+01 3.067973e+01 2.353059e+01 1.938038e+01 1.975570e+01 1.842564e+01 1.995829e+01 2.059659e+00 2.492471e+00 2.891737e+00 3.939437e+00 3.167674e+00 4.142459e+00 4.589008e+00 5.455131e+00 3.854202e+00 3.316164e+00 3.302254e+00 3.070247e+00 1.972781e+00
<GCONST> 2.037130e+02
<TRANSP> 5
 0.000000e+00 1.000000e+00 0.000000e+00 0.000000e+00 0.000000e+00
 0.000000e+00 6.883937e-01 3.116063e-01 0.000000e+00 0.000000e+00
 0.000000e+00 0.000000e+00 6.139562e-01 3.860438e-01 0.000000e+00
 0.000000e+00 0.000000e+00 0.000000e+00 6.949410e-01 3.050589e-01
 0.000000e+00 0.000000e+00 0.000000e+00 0.000000e+00 0.000000e+00
<ENDHMM>
~h "r"
<BEGINHMM>
<NUMSTATES> 5
<STATE> 2
<MEAN> 39
 3.109055e+01 -1.765855e+01 1.846508e+00 3.985211e+00 1.973996e+01 -2.232673e+01 -2.398313e+01 5.420873e+00 -9.826224e+00 5.569374e+00 7.529290e-01 6.876543e+00 1.257533e+02 -4.550574e-01 -7.985188e-01 2.588389e-01 5.140064e-01 4.252108e-01 -6.514573e-01 -4.626638e-01 5.935722e-01 8.571374e-01 2.501732e-01 -1.028056e-01 -1.595864e-01 -1.720124e-01 -9.926763e-01 3.551804e-01 1.014797e+00 -3.265130e-01 -1.230161e+00 3.314864e-01 9.885954e-01 1.026957e-01 -1.871653e-01 -8.175001e-02 -8.902431e-02 -3.330144e-04 -1.362287e-01
<VARIANCE> 39
 1.890401e+02 2.177080e+02 7.270352e+02 3.857231e+02 5.313682e+02 8.628016e+02 1.187388e+03 5.102238e+02 3.994605e+02 4.344856e+02 2.777484e+02 2.482269e+02 2.485772e+02 2.000722e+01 1.315440e+01 4.181970e+01 2.626836e+01 3.619966e+01 3.742324e+01 3.815047e+01 3.345640e+01 2.782129e+01 2.461736e+01 1.998925e+01 1.808403e+01 9.781655e+00 2.112583e+00 2.193950e+00 3.824509e+00 3.175109e+00 4.539846e+00 6.219064e+00 5.984324e+00 5.245983e+00 4.363301e+00 4.077643e+00 3.584635e+00 3.262394e+00 1.256944e+00
<GCONST> 2.079392e+02
<STATE> 3
<MEAN> 39
 2.644113e+01 -1.918986e+01 7.608201e+00 5.147216e+00 1.486506e+01 -2.424493e+01 -1.914826e+01 8.175237e+00 -8.644433e+00 5.932393e+00 4.581099e-01 6.945187e+00 1.249544e+02 -2.578017e+00 1.510904e-01 2.620937e+00 -2.496595e-01 -2.340479e+00 6.241735e-01 2.153299e+00 3.641227e-01 1.656286e-02 1.241680e-01 -4.133728e-02 -2.397669e-01 -5.690793e-01 -6.085067e-01 4.391303e-01 3.857446e-01 -4.360092e-01 -5.920215e-01 5.939614e-01 6.083684e-01 -3.120558e-01 -2.696421e-01 4.297442e-02 4.311454e-02 -5.403347e-02 -1.881350e-01
<VARIANCE> 39
 2.547679e+02 2.361442e+02 8.726160e+02 3.728359e+02 5.284477e+02 8.622595e+02 1.193482e+03 5.377631e+02 4.664619e+02 4.262765e+02 2.749520e+02 2.514477e+02 3.413677e+02 1.938578e+01 1.538593e+01 3.448230e+01 2.420106e+01 2.923730e+01 3.862424e+01 3.723200e+01 3.289942e+01 2.813177e+01 2.388721e+01 1.975007e+01 1.764317e+01 1.257073e+01 2.128551e+00 2.294878e+00 3.937015e+00 3.185417e+00 4.496140e+00 6.131874e+00 5.953661e+00 5.233015e+00 4.350379e+00 3.730888e+00 3.193075e+00 2.946872e+00 1.295259e+00
<GCONST> 2.085714e+02
<STATE> 4
<MEAN> 39
 1.676435e+01 -1.677114e+01 1.609950e+01 2.770324e+00 5.868402e+00 -1.911496e+01 -7.756086e+00 7.359406e+00 -7.859015e+00 7.002136e+00 -4.262595e-01 5.769130e+00 1.199309e+02 -2.948143e+00 1.181016e+00 2.208329e+00 -1.268126e+00 -2.294796e+00 2.042003e+00 2.169486e+00 -8.625153e-01 -2.106183e-01 2.783720e-01 -1.240349e-01 -4.550879e-01 -1.243726e+00 -1.904832e-02 3.065673e-01 -2.693144e-01 -1.737508e-01 1.602010e-01 2.282199e-01 -1.237868e-01 -2.747891e-01 -2.548263e-02 4.722460e-02 -3.757684e-03 -5.179685e-03 -1.590544e-01
<VARIANCE> 39
 3.628735e+02 2.845766e+02 1.108203e+03 4.266490e+02 4.832974e+02 7.352703e+02 9.517646e+02 5.701586e+02 5.385194e+02 4.186290e+02 2.913740e+02 2.714213e+02 5.737773e+02 1.694454e+01 1.536127e+01 2.318487e+01 1.891668e+01 2.135506e+01 3.018520e+01 3.070014e+01 2.681599e+01 2.391693e+01 2.067830e+01 1.802617e+01 1.565922e+01 1.167001e+01 1.732382e+00 1.993196e+00 3.363523e+00 3.126302e+00 3.431845e+00 4.554017e+00 4.513771e+00 4.299623e+00 3.911582e+00 3.270257e+00 2.892788e+00 2.759890e+00 1.108573e+00
<GCONST> 2.053971e+02
<TRANSP> 5
 0.000000e+00 1.000000e+00 0.000000e+00 0.000000e+00 0.000000e+00
 0.000000e+00 5.950273e-01 4.049727e-01 0.000000e+00 0.000000e+00
 0.000000e+00 0.000000e+00 5.675805e-01 4.324196e-01 0.000000e+00
 0.000000e+00 0.000000e+00 0.000000e+00 6.251590e-01 3.748410e-01
 0.000000e+00 0.000000e+00 0.000000e+00 0.000000e+00 0.000000e+00
<ENDHMM>
~h "s"
<BEGINHMM>
<NUMSTATES> 5
<STATE> 2
<MEAN> 39
 -3.274616e+01 3.563921e+00 -2.995588e-01 4.953946e+00 -2.787391e+00 -5.929914e+00 -2.482881e+00 2.501437e+00 -4.733442e+00 2.442675e+00 -3.401711e+00 5.176116e+00 9.622775e+01 -3.876004e+00 6.582051e-01 -2.173633e+00 -7.227878e-01 -2.288505e-01 -1.486640e-01 -2.698324e-02 3.667335e-01 -4.202212e-02 -1.658462e-01 1.664986e-01 5.712490e-02 8.906943e-01 2.961029e-01 -1.871732e-01 -3.977704e-03 -1.831444e-01 -9.972948e-02 -1.657845e-01 -1.343054e-01 -1.042355e-01 -6.812651e-02 6.760432e-02 -2.017408e-03 4.819627e-02 2.138758e-01
<VARIANCE> 39
 5.805637e+02 1.930665e+02 3.699114e+02 2.509728e+02 3.145746e+02 3.041679e+02 2.477050e+02 2.124678e+02 2.125400e+02 1.779603e+02 1.775853e+02 1.651540e+02 6.015422e+02 5.385734e+01 1.957984e+01 3.280572e+01 2.452890e+01 2.117092e+01 2.480678e+01 2.349228e+01 2.172014e+01 2.226307e+01 1.925949e+01 1.794270e+01 1.697473e+01 2.870344e+01 6.795612e+00 3.402113e+00 4.759740e+00 4.017474e+00 3.819295e+00 4.151392e+00 3.999154e+00 3.986549e+00 3.754467e+00 3.432008e+00 3.294858e+00 3.054003e+00 3.931078e+00
<GCONST> 2.034539e+02
<STATE> 3
<MEAN> 39
 -4.175115e+01 5.231460e+00 -5.763614e+00 2.661887e+00 -3.373788e+00 -6.819704e+00 -2.924289e+00 3.004807e+00 -5.066928e+00 2.652015e+00 -3.463896e+00 5.407347e+00 1.010886e+02 -1.824186e+00 2.363858e-01 -1.341257e+00 -7.009478e-01 -3.858923e-01 -2.150882e-01 -1.470876e-01 3.696990e-02 -6.482338e-02 1.007681e-02 -1.889091e-02 1.244913e-01 9.759490e-01 9.341630e-01 -1.995898e-01 4.673049e-01 4.554294e-02 -3.841706e-02 -3.626310e-02 -2.845796e-02 -1.153328e-01 1.307762e-02 5.299219e-02 -4.743907e-02 3.435900e-02 5.576034e-02
<VARIANCE> 39
 4.453174e+02 1.841719e+02 3.123784e+02 2.642438e+02 3.274842e+02 2.922365e+02 2.195554e+02 1.914312e+02 1.850098e+02 1.639147e+02 1.671089e+02 1.509278e+02 4.332320e+02 4.901379e+01 1.460610e+01 2.776041e+01 1.816800e+01 1.743957e+01 1.997698e+01 1.890578e+01 1.778029e+01 1.754466e+01 1.593318e+01 1.488621e+01 1.423819e+01 2.184796e+01 5.306702e+00 2.720682e+00 3.811505e+00 3.320606e+00 3.213187e+00 3.696664e+00 3.557107e+00 3.481423e+00 3.348470e+00 3.076773e+00 2.943877e+00 2.791730e+00 3.112886e+00
<GCONST> 1.972693e+02
<STATE> 4
<MEAN> 39
 -3.919583e+01 3.671225e+00 -4.552636e+00 1.178725e-01 -5.227153e+00 -8.337278e+00 -3.147733e+00 2.548929e+00 -4.274924e+00 3.569929e+00 -3.648150e+00 6.095442e+00 1.056795e+02 1.274507e+00 -3.146679e-01 5.956070e-01 -2.779965e-01 -3.230138e-01 -2.142011e-01 1.240689e-01 -1.627564e-01 1.566960e-01 7.499224e-02 -8.970536e-02 1.430531e-01 6.435729e-01 6.899766e-01 -9.001125e-02 4.986159e-01 7.187124e-02 6.776815e-03 -1.167787e-01 6.983324e-03 -5.912257e-02 5.934150e-02 8.054026e-03 -7.341182e-03 5.137592e-02 8.798979e-02
<VARIANCE> 39
 6.248987e+02 1.941532e+02 4.251419e+02 2.688766e+02 3.387050e+02 2.996653e+02 2.370371e+02 1.916544e+02 1.903669e+02 1.762651e+02 1.799930e+02 1.831737e+02 4.607522e+02 3.017150e+01 1.071503e+01 1.970618e+01 1.336693e+01 1.299198e+01 1.670217e+01 1.602722e+01 1.444504e+01 1.447167e+01 1.400178e+01 1.317205e+01 1.327249e+01 1.829260e+01 4.654184e+00 1.993690e+00 3.161564e+00 2.436418e+00 2.413471e+00 3.115207e+00 3.063886e+00 2.807304e+00 2.823956e+00 2.708881e+00 2.545531e+00 2.577032e+00 2.461725e+00
<GCONST> 1.930526e+02
<TRANSP> 5
 0.000000e+00 1.000000e+00 0.000000e+00 0.000000e+00 0.000000e+00
 0.000000e+00 6.712182e-01 3.287818e-01 0.000000e+00 0.000000e+00
 0.000000e+00 0.000000e+00 6.664189e-01 3.335811e-01 0.000000e+00
 0.000000e+00 0.000000e+00 0.000000e+00 8.099918e-01 1.900082e-01
 0.000000e+00 0.000000e+00 0.000000e+00 0.000000e+00 0.000000e+00
<ENDHMM>
~h "t"
<BEGINHMM>
<NUMSTATES> 5
<STATE> 2
<MEAN> 39
 -1.948425e+01 4.400256e+00 1.545856e+01 3.939762e+00 -1.614239e+00 -2.897487e+00 -2.261206e+00 -3.126973e+00 -6.299140e+00 2.022060e+00 -1.552049e+00 3.224713e+00 7.816347e+01 -2.489141e+00 -4.544374e-01 -1.994794e+00 -1.263687e+00 -3.653091e-01 -7.270630e-01 1.730040e-01 2.685981e-01 1.670428e-03 -1.207908e-01 3.958575e-01 2.552000e-01 1.477081e+00 1.192052e-01 -1.629530e-01 5.143636e-01 -3.680611e-01 -2.208661e-01 -2.051625e-01 1.444691e-01 -9.163336e-02 -1.866013e-01 7.342580e-02 -1.591543e-01 1.574341e-01 1.470672e+00
<VARIANCE> 39
 3.197362e+02 2.162121e+02 5.123186e+02 3.021783e+02 2.001128e+02 2.337503e+02 2.444371e+02 2.400099e+02 2.254791e+02 1.710801e+02 1.630841e+02 1.548179e+02 1.083681e+03 2.425194e+01 2.777083e+01 4.149753e+01 3.453072e+01 2.246751e+01 2.554839e+01 2.674289e+01 2.539645e+01 2.746311e+01 2.014062e+01 1.938579e+01 1.716553e+01 1.452683e+02 4.022892e+00 5.450594e+00 6.048346e+00 6.533079e+00 4.236555e+00 4.559976e+00 4.702523e+00 4.585227e+00 4.851817e+00 3.694704e+00 3.589564e+00 3.212384e+00 2.133846e+01
<GCONST> 2.091320e+02
<STATE> 3
<MEAN> 39
 -2.532391e+01 2.213500e+00 1.487454e+01 -1.205997e+00 -4.862103e+00 -6.696594e+00 3.484220e-01 -2.981692e+00 -8.242702e+00 2.051556e+00 -1.519514e+00 5.101628e+00 9.409254e+01 -8.545261e-01 -8.191843e-01 3.721159e-01 -7.305589e-01 -7.591296e-01 -1.145577e+00 6.900445e-01 4.805191e-01 -2.732922e-01 8.860575e-03 -1.803694e-01 6.953906e-01 3.913432e+00 7.138492e-01 -5.842580e-02 6.442970e-01 3.635274e-01 1.041088e-02 2.870798e-02 2.795563e-02 5.964721e-02 3.769642e-02 7.279146e-02 -1.559903e-01 1.411433e-02 -1.438150e-01
<VARIANCE> 39
 3.745495e+02 2.166408e+02 4.386684e+02 3.043872e+02 2.119440e+02 2.569046e+02 2.648093e+02 2.611446e+02 2.292681e+02 1.822028e+02 1.781214e+02 1.679131e+02 1.145568e+03 3.870718e+01 2.296917e+01 4.083788e+01 3.073977e+01 2.084191e+01 2.469986e+01 2.532443e+01 2.338678e+01 2.489442e+01 1.940915e+01 1.913637e+01 1.711519e+01 1.135874e+02 5.929988e+00 4.753036e+00 5.048962e+00 6.171494e+00 4.129427e+00 4.600450e+00 4.615982e+00 4.267593e+00 4.715506e+00 3.740056e+00 3.560812e+00 3.279261e+00 2.118040e+01
<GCONST> 2.091629e+02
<STATE> 4
<MEAN> 39
 -2.024280e+01 -1.103721e+00 2.112584e+01 -2.984602e-01 -7.684841e+00 -1.040755e+01 4.073596e+00 -1.559038e+00 -8.274686e+00 1.923765e+00 -2.885815e+00 7.658176e+00 1.020511e+02 2.052495e+00 -8.038798e-01 1.299610e+00 8.738304e-01 1.367895e-01 -3.719259e-01 1.509215e-01 7.105295e-01 2.121408e-01 1.601621e-01 -5.030525e-01 1.986480e-01 7.954400e-01 5.001559e-01 1.726097e-02 9.459984e-02 1.413437e-01 2.287830e-01 1.530162e-01 -2.995591e-01 -6.012595e-02 -1.959661e-02 6.026682e-02 -1.523456e-02 -1.800317e-01 -2.843106e-01
<VARIANCE> 39
 4.533673e+02 1.937074e+02 5.612523e+02 2.693864e+02 2.084713e+02 3.010516e+02 3.173908e+02 3.608467e+02 2.662174e+02 2.155476e+02 2.199423e+02 2.105808e+02 9.311255e+02 3.660133e+01 1.504999e+01 3.283746e+01 2.222826e+01 1.738928e+01 2.133711e+01 2.157054e+01 2.075637e+01 2.088667e+01 1.799742e+01 1.738385e+01 1.685754e+01 4.614750e+01 6.070750e+00 2.899571e+00 4.130690e+00 3.920732e+00 3.310163e+00 3.968496e+00 3.958428e+00 3.743583e+00 4.018541e+00 3.459422e+00 3.264610e+00 2.999766e+00 8.856955e+00
<GCONST> 2.046047e+02
<TRANSP> 5
 0.000000e+00 1.000000e+00 0.000000e+00 0.000000e+00 0.000000e+00
 0.000000e+00 7.621363e-01 2.378637e-01 0.000000e+00 0.000000e+00
 0.000000e+00 0.000000e+00 6.985655e-01 3.014345e-01 0.000000e+00
 0.000000e+00 0.000000e+00 0.000000e+00 7.074161e-01 2.925839e-01
 0.000000e+00 0.000000e+00 0.000000e+00 0.000000e+00 0.000000e+00
<ENDHMM>
~h "v"
<BEGINHMM>
<NUMSTATES> 5
<STATE> 2
<MEAN> 39
 1.015545e+01 -2.204025e+01 1.604624e+01 -1.139179e+01 -8.429824e+00 -1.847643e+01 -3.086274e+00 9.895519e+00 9.862944e+00 1.324062e+01 -2.146823e+00 5.274054e+00 1.371778e+02 -7.876436e-01 5.414540e-01 -1.339230e-01 1.170331e+00 9.950256e-01 9.022452e-01 1.654266e-01 -1.322045e-01 -4.932756e-01 1.170168e-01 2.096315e-01 -3.872867e-01 -2.188306e+00 -6.905106e-01 6.895351e-01 -3.067157e-01 7.276961e-01 6.195175e-01 8.358756e-01 -5.049096e-02 -4.317767e-01 -4.805508e-01 -3.441753e-01 -1.681273e-01 -8.890296e-02 -1.087897e+00
<VARIANCE> 39
 2.053186e+02 2.148808e+02 2.463940e+02 3.469592e+02 2.846191e+02 3.010878e+02 7.205115e+02 2.609802e+02 3.169821e+02 3.846134e+02 3.106989e+02 3.615883e+02 5.047415e+02 1.744533e+01 2.140058e+01 1.344348e+01 2.490939e+01 1.837737e+01 2.008619e+01 2.043606e+01 1.787979e+01 1.831284e+01 1.404123e+01 1.610831e+01 1.399742e+01 2.196789e+01 3.775257e+00 2.643584e+00 2.206221e+00 3.618978e+00 3.515100e+00 4.435875e+00 4.499247e+00 2.923434e+00 3.425812e+00 2.575835e+00 2.514934e+00 2.429449e+00 2.681563e+00
<GCONST> 1.990765e+02
<STATE> 3
<MEAN> 39
 6.644432e+00 -1.774219e+01 1.544549e+01 -5.116377e+00 -3.590792e+00 -1.387265e+01 -3.570866e+00 7.533997e+00 6.606927e+00 1.254813e+01 -2.366624e+00 4.392334e+00 1.264339e+02 -1.474412e+00 1.475161e+00 -2.638073e-01 1.959727e+00 1.686248e+00 1.930954e+00 -2.108810e-01 -9.304388e-01 -1.150038e+00 -4.270270e-01 3.817285e-02 -2.936764e-01 -3.722602e+00 -2.209859e-01 1.601681e-01 -1.316803e-01 4.430355e-02 1.097585e-01 3.112729e-01 -1.964166e-02 -1.728559e-01 -2.034374e-01 -1.886757e-01 -2.868168e-02 -2.958448e-03 -3.329763e-01
<VARIANCE> 39
 3.276855e+02 2.544156e+02 2.282764e+02 4.112612e+02 2.869142e+02 3.592557e+02 5.893981e+02 2.719897e+02 3.453350e+02 3.664358e+02 2.994485e+02 3.153404e+02 7.149726e+02 2.753097e+01 2.240806e+01 1.438622e+01 2.846459e+01 2.290347e+01 2.780369e+01 2.467669e+01 1.920535e+01 2.226556e+01 1.726878e+01 1.868520e+01 1.549545e+01 2.732086e+01 4.432801e+00 3.726432e+00 2.409176e+00 5.123047e+00 4.537195e+00 5.967340e+00 4.625142e+00 3.801706e+00 4.352636e+00 3.047217e+00 2.947315e+00 2.645684e+00 4.530757e+00
<GCONST> 2.053801e+02
<STATE> 4
<MEAN> 39
 3.419409e-01 -1.306835e+01 1.264046e+01 1.385465e-01 1.465689e-01 -8.377024e+00 -2.690555e+00 5.811139e+00 3.772148e+00 9.138753e+00 -3.399557e+00 3.877951e+00 1.104584e+02 -7.032779e-01 9.716549e-01 -3.979210e-01 6.946902e-01 7.787980e-01 1.082723e+00 -1.824817e-01 -5.235476e-01 -8.463662e-01 -5.180116e-01 5.500731e-02 -1.627431e-01 -2.647122e+00 1.510995e-01 1.365568e-02 1.520780e-02 -2.055239e-01 -1.740773e-01 -1.216925e-01 4.276522e-02 -8.939474e-03 -4.789334e-02 -1.987262e-02 3.922231e-02 6.407294e-02 1.967299e-01
<VARIANCE> 39
 4.173746e+02 2.267623e+02 2.199247e+02 3.368087e+02 2.474923e+02 3.210592e+02 4.152383e+02 2.792643e+02 3.221422e+02 3.314430e+02 2.743768e+02 2.647166e+02 8.282392e+02 2.564494e+01 1.861390e+01 1.357574e+01 2.623026e+01 2.292598e+01 2.804863e+01 2.364956e+01 2.169909e+01 2.307439e+01 1.826251e+01 1.878797e+01 1.567541e+01 2.839165e+01 3.749089e+00 3.490679e+00 2.438910e+00 5.137319e+00 4.309207e+00 5.548963e+00 4.389229e+00 4.160243e+00 4.305821e+00 3.311033e+00 3.265192e+00 2.831482e+00 5.158145e+00
<GCONST> 2.043088e+02
<TRANSP> 5
 0.000000e+00 1.000000e+00 0.000000e+00 0.000000e+00 0.000000e+00
 0.000000e+00 6.033708e-01 3.966292e-01 0.000000e+00 0.000000e+00
 0.000000e+00 0.000000e+00 6.165918e-01 3.834082e-01 0.000000e+00
 0.000000e+00 0.000000e+00 0.000000e+00 7.477188e-01 2.522812e-01
 0.000000e+00 0.000000e+00 0.000000e+00 0.000000e+00 0.000000e+00
<ENDHMM>
~h "w"
<BEGINHMM>
<NUMSTATES> 5
<STATE> 2
<MEAN> 39
 3.193648e+01 9.296810e+00 1.457844e+01 -3.216986e+01 -1.388129e+01 3.303371e+00 4.316297e-01 1.278105e+01 -7.435169e+00 1.067836e+01 1.869866e+00 8.379585e-01 1.189137e+02 -2.212128e-01 -3.441099e+00 -2.178048e+00 -4.137060e+00 1.792846e+00 1.601915e+00 -2.160224e-02 2.186812e+00 1.038841e-02 -5.957148e-01 1.468691e+00 1.925242e-01 3.742099e+00 -5.622997e-01 -5.258058e-01 -3.331955e-01 8.191372e-01 1.144401e+00 5.244086e-01 -8.457631e-02 -3.005582e-01 3.004627e-02 -2.034728e-01 1.779981e-01 3.621957e-02 -1.845030e-01
<VARIANCE> 39
 6.177494e+01 2.872440e+02 3.125121e+02 4.392403e+02 5.670281e+02 3.392896e+02 5.147559e+02 4.311415e+02 4.434588e+02 3.892354e+02 3.461874e+02 3.139171e+02 2.204075e+02 5.532101e+00 1.619854e+01 1.323603e+01 3.083485e+01 3.160003e+01 2.524797e+01 2.666693e+01 2.797964e+01 2.388675e+01 2.314813e+01 2.008446e+01 1.888460e+01 1.113967e+01 1.097591e+00 1.934892e+00 2.250030e+00 4.654355e+00 4.160429e+00 4.424702e+00 4.838531e+00 5.256626e+00 4.398532e+00 4.327647e+00 3.780175e+00 3.408348e+00 1.175411e+00
<GCONST> 2.002012e+02
<STATE> 3
<MEAN> 39
 2.889471e+01 -3.888047e+00 6.783399e+00 -4.026281e+01 -2.275480e+00 1.048646e+01 -6.593667e-01 1.729616e+01 -7.452765e+00 8.253944e+00 7.389447e+00 1.434832e+00 1.299563e+02 -1.243328e+00 -4.025028e+00 -1.938629e+00 -2.970368e-01 4.100527e+00 1.758694e+00 -1.168754e+00 4.130028e-01 4.759379e-01 -4.271790e-01 1.414173e+00 -2.961772e-02 2.820460e+00 -2.063547e-01 1.723778e-01 4.712688e-01 1.377731e+00 5.153122e-02 -5.237089e-01 -4.181180e-01 -4.725230e-01 3.313027e-01 2.169651e-01 -3.512979e-01 -1.198966e-01 -4.517539e-01
<VARIANCE> 39
 6.532669e+01 3.205833e+02 3.281944e+02 3.974831e+02 8.046995e+02 3.723708e+02 5.656372e+02 4.602690e+02 4.628544e+02 4.361758e+02 3.849508e+02 3.275048e+02 1.969241e+02 2.922301e+00 1.095502e+01 1.228032e+01 3.213837e+01 2.638380e+01 2.547638e+01 2.782481e+01 2.927862e+01 2.651423e+01 2.545918e+01 2.392302e+01 2.157762e+01 6.376562e+00 4.753218e-01 1.466152e+00 1.918611e+00 3.546328e+00 4.880715e+00 4.523550e+00 4.939946e+00 5.273145e+00 4.701449e+00 4.729212e+00 4.671412e+00 3.871290e+00 6.419527e-01
<GCONST> 1.984643e+02
<STATE> 4
<MEAN> 39
 2.193681e+01 -1.853890e+01 5.551902e+00 -2.964517e+01 1.255024e+01 9.855683e+00 -7.750781e+00 1.835739e+01 -1.208907e+00 7.502793e+00 8.207053e+00 6.494634e-01 1.370473e+02 -1.064363e+00 -1.332568e+00 1.267798e+00 3.432923e+00 6.390746e-01 -1.702275e+00 -8.002164e-01 -1.858039e-01 1.207544e+00 2.117858e-01 -1.103184e+00 2.048254e-01 2.074932e-01 9.877949e-02 7.133902e-01 6.331360e-01 4.794745e-01 -7.113746e-01 -4.349353e-01 5.561627e-01 -2.058268e-01 -1.660036e-01 1.051913e-02 -4.712842e-01 2.374147e-01 -6.167604e-01
<VARIANCE> 39
 8.116972e+01 2.773033e+02 2.852807e+02 4.847628e+02 6.223435e+02 4.466836e+02 5.967239e+02 5.122547e+02 4.799210e+02 4.538750e+02 4.200905e+02 3.689567e+02 1.855878e+02 2.334180e+00 1.173163e+01 1.364224e+01 1.970154e+01 2.621065e+01 2.383569e+01 2.712604e+01 2.780912e+01 2.433214e+01 2.525960e+01 2.645603e+01 2.340455e+01 6.764971e+00 3.541737e-01 1.184466e+00 1.359784e+00 2.535999e+00 2.982347e+00 3.752734e+00 4.780612e+00 5.061430e+00 4.466187e+00 3.954105e+00 4.441302e+00 3.890562e+00 6.491753e-01
<GCONST> 1.961553e+02
<TRANSP> 5
 0.000000e+00 1.000000e+00 0.000000e+00 0.000000e+00 0.000000e+00
 0.000000e+00 6.476655e-01 3.523345e-01 0.000000e+00 0.000000e+00
 0.000000e+00 0.000000e+00 7.057378e-01 2.942622e-01 0.000000e+00
 0.000000e+00 0.000000e+00 0.000000e+00 8.723676e-01 1.276323e-01
 0.000000e+00 0.000000e+00 0.000000e+00 0.000000e+00 0.000000e+00
<ENDHMM>
~h "z"
<BEGINHMM>
<NUMSTATES> 5
<STATE> 2
<MEAN> 39
 -1.716869e+01 1.377073e+01 1.418935e+01 1.552838e+01 5.190790e+00 -2.192890e+00 -7.545512e-01 3.028871e+00 -2.478882e+00 2.829548e+00 -5.501094e+00 5.002419e+00 9.179635e+01 -2.319730e+00 2.741371e+00 -5.267248e-01 1.485935e+00 1.310099e+00 3.394383e-01 3.189117e-01 5.650284e-01 2.515346e-01 1.908962e-05 -8.524022e-02 2.051064e-01 1.620757e+00 2.615922e-02 -1.182036e-01 3.801506e-02 -1.817479e-01 -1.141507e-01 -4.674975e-02 -1.197450e-02 -6.688484e-02 -1.011069e-01 6.629413e-02 5.670612e-02 1.215643e-02 3.292530e-01
<VARIANCE> 39
 4.178671e+02 3.406224e+02 3.874920e+02 3.297410e+02 3.408518e+02 3.055077e+02 2.782148e+02 2.544219e+02 2.215462e+02 2.184034e+02 2.319276e+02 2.549030e+02 7.487034e+02 3.393140e+01 2.368745e+01 2.810345e+01 2.325801e+01 2.075074e+01 2.272713e+01 2.091906e+01 2.166553e+01 1.914745e+01 1.910721e+01 1.772446e+01 1.651221e+01 2.312131e+01 4.197219e+00 3.908985e+00 4.121218e+00 3.426236e+00 3.561199e+00 3.916050e+00 3.744820e+00 3.887896e+00 3.341974e+00 3.392199e+00 3.090745e+00 2.995892e+00 2.793763e+00
<GCONST> 2.030208e+02
<STATE> 3
<MEAN> 39
 -2.392473e+01 2.551077e+01 1.469597e+01 2.121710e+01 1.132715e+01 -8.474479e-01 3.021229e-01 3.886224e+00 -1.982189e+00 4.069204e+00 -6.671216e+00 6.057364e+00 1.053279e+02 -2.070482e+00 1.619868e+00 -1.487952e-01 6.469929e-01 4.886755e-01 9.802547e-02 1.508559e-01 1.150366e-01 -2.122535e-01 -8.032369e-02 4.209135e-02 1.362071e-01 2.584817e+00 7.422782e-01 -8.997152e-01 5.347934e-01 -4.561568e-01 -5.229990e-01 -2.793140e-01 -1.939392e-01 -2.822253e-01 -2.246245e-01 -5.031433e-02 -1.784384e-02 -3.881918e-03 2.109129e-01
<VARIANCE> 39
 4.402101e+02 2.725612e+02 3.454077e+02 3.738380e+02 4.139539e+02 3.409974e+02 2.754371e+02 2.429478e+02 1.897314e+02 1.995240e+02 2.611507e+02 2.457553e+02 3.896077e+02 4.133701e+01 2.915316e+01 3.268723e+01 2.281794e+01 2.210310e+01 2.428319e+01 2.082749e+01 2.192517e+01 1.690992e+01 1.789220e+01 1.657386e+01 1.621712e+01 2.109258e+01 5.826188e+00 4.210852e+00 5.068334e+00 3.559689e+00 3.705266e+00 4.172260e+00 3.894209e+00 4.029187e+00 3.143543e+00 3.413689e+00 3.117000e+00 3.088295e+00 2.345511e+00
<GCONST> 2.032333e+02
<STATE> 4
<MEAN> 39
 -2.393119e+01 2.320819e+01 2.086918e+01 1.932748e+01 9.930171e+00 -3.995974e+00 -2.120590e+00 1.667005e+00 -4.853246e+00 2.786961e+00 -7.410172e+00 6.494302e+00 1.190724e+02 2.975434e+00 -3.329217e+00 3.761392e+00 -1.378815e+00 -1.866896e+00 -1.577643e+00 -1.293307e+00 -9.786155e-01 -1.269529e+00 -5.825666e-01 -2.001887e-01 3.163708e-01 3.025559e+00 9.823509e-01 -1.015076e+00 7.910154e-01 -4.885654e-01 -3.039733e-01 -3.280227e-01 -2.812099e-01 -5.444294e-02 -1.930675e-01 1.097785e-05 4.051711e-02 6.480087e-02 3.712556e-02
<VARIANCE> 39
 4.169875e+02 3.716327e+02 4.381378e+02 3.744151e+02 4.502833e+02 3.795024e+02 3.634159e+02 2.484206e+02 1.804141e+02 1.997838e+02 2.954473e+02 2.530887e+02 2.505122e+02 4.957354e+01 3.619803e+01 4.775297e+01 2.742273e+01 2.306453e+01 2.793569e+01 2.419188e+01 2.743233e+01 1.759444e+01 1.818720e+01 1.642268e+01 1.660541e+01 1.040032e+01 5.593263e+00 4.273975e+00 6.126181e+00 4.075983e+00 4.004656e+00 4.317192e+00 3.923018e+00 4.385891e+00 3.077107e+00 3.428077e+00 3.104874e+00 3.019240e+00 1.498765e+00
<GCONST> 2.047738e+02
<TRANSP> 5
 0.000000e+00 1.000000e+00 0.000000e+00 0.000000e+00 0.000000e+00
 0.000000e+00 7.338049e-01 2.661951e-01 0.000000e+00 0.000000e+00
 0.000000e+00 0.000000e+00 7.208380e-01 2.791620e-01 0.000000e+00
 0.000000e+00 0.000000e+00 0.000000e+00 8.402255e-01 1.597745e-01
 0.000000e+00 0.000000e+00 0.000000e+00 0.000000e+00 0.000000e+00
<ENDHMM>
~h "ah"
<BEGINHMM>
<NUMSTATES> 5
<STATE> 2
<MEAN> 39
 1.703195e+01 -1.501917e+01 1.948085e+01 -3.679192e+00 6.415429e+00 -6.160598e+00 -8.193965e+00 4.420909e+00 1.701781e-01 1.320145e+01 -3.446859e-01 4.159554e+00 1.271179e+02 3.110309e-02 2.176923e+00 2.001210e+00 2.944370e+00 -1.712200e-01 4.413988e-01 1.848138e+00 -1.198407e+00 -1.141121e+00 -5.994498e-01 -1.087976e+00 8.164414e-01 -2.730997e+00 -2.880458e-02 2.144958e-01 5.167072e-02 -9.082969e-02 -3.601152e-01 3.132705e-01 5.784367e-01 -2.022472e-01 1.006945e-01 -1.188959e-01 -1.342025e-01 1.549634e-01 -3.203594e-02
<VARIANCE> 39
 9.564384e+01 2.241366e+02 2.110037e+02 3.653532e+02 2.920825e+02 4.456121e+02 6.235782e+02 4.707933e+02 5.651658e+02 4.800099e+02 4.480621e+02 3.814629e+02 3.175132e+02 8.091610e+00 2.040137e+01 1.471171e+01 4.196208e+01 3.026090e+01 4.457792e+01 4.223592e+01 4.308929e+01 3.697808e+01 2.936012e+01 3.212316e+01 2.552030e+01 3.399764e+01 1.601344e+00 4.035852e+00 2.259806e+00 7.409779e+00 4.768377e+00 8.613853e+00 7.638143e+00 7.884837e+00 6.882243e+00 5.029255e+00 4.877043e+00 4.139948e+00 6.574781e+00
<GCONST> 2.119906e+02
<STATE> 3
<MEAN> 39
 1.736520e+01 -8.171389e+00 2.613582e+01 3.983083e+00 2.690310e+00 -5.092756e+00 1.964077e+00 1.626668e+00 -5.179787e-01 9.862445e+00 -6.034003e+00 8.776164e+00 1.203103e+02 -1.989162e-02 2.437461e+00 1.907689e+00 2.667492e+00 -1.362403e+00 1.310147e+00 3.150170e+00 -2.112252e+00 -4.578528e-01 -7.059419e-01 -1.323662e+00 1.072413e+00 -2.709682e+00 -1.335442e-01 -8.339537e-02 -3.681218e-01 -3.289172e-01 1.146410e-02 4.117132e-01 -9.948640e-02 6.659471e-02 1.711482e-01 -4.449412e-02 2.870009e-01 -1.915545e-01 3.382900e-02
<VARIANCE> 39
 8.768143e+01 2.161680e+02 2.302954e+02 3.777681e+02 2.944301e+02 4.671954e+02 7.114126e+02 5.096421e+02 5.220900e+02 5.440471e+02 4.920206e+02 4.643100e+02 2.653526e+02 8.115439e+00 1.722317e+01 1.709740e+01 3.772884e+01 2.380394e+01 4.146144e+01 4.609376e+01 5.243237e+01 3.418900e+01 2.723764e+01 3.087762e+01 2.622649e+01 2.372493e+01 1.487994e+00 3.128153e+00 2.767168e+00 6.783351e+00 4.394902e+00 7.462308e+00 8.153824e+00 9.374866e+00 6.181714e+00 4.687653e+00 5.042633e+00 4.610144e+00 4.422776e+00
<GCONST> 2.111009e+02
<STATE> 4
<MEAN> 39
 1.638418e+01 -3.022543e-01 3.040457e+01 1.186693e+01 -1.173493e+00 7.193527e-01 1.187044e+01 -3.529572e+00 -4.587454e-01 6.163475e+00 -8.853899e+00 1.184393e+01 1.105094e+02 -9.282895e-01 1.668765e+00 4.171117e-01 1.560936e+00 -4.026504e-01 1.721465e+00 1.588152e+00 -6.719095e-01 -8.177680e-03 -6.318680e-01 -2.423386e-01 -5.123284e-02 -2.658389e+00 -4.214312e-01 -4.594190e-01 -6.433999e-01 -6.226154e-01 3.190735e-01 -1.793661e-01 -6.845064e-01 7.788274e-01 1.465692e-01 4.979679e-02 3.588618e-01 -3.842540e-01 2.159198e-01
<VARIANCE> 39
 1.155130e+02 2.233772e+02 2.178460e+02 3.829260e+02 2.858928e+02 4.696924e+02 6.201638e+02 5.103711e+02 4.975966e+02 5.720709e+02 5.138148e+02 4.810196e+02 2.872648e+02 1.162023e+01 1.489956e+01 1.797653e+01 2.706988e+01 2.116745e+01 3.205408e+01 3.776671e+01 4.384383e+01 2.764396e+01 2.309603e+01 2.597246e+01 2.492267e+01 1.569009e+01 1.757148e+00 2.454278e+00 2.677630e+00 4.682148e+00 3.949143e+00 5.641661e+00 6.361877e+00 7.576793e+00 5.056019e+00 4.096900e+00 4.613765e+00 4.259158e+00 2.593892e+00
<GCONST> 2.071669e+02
<TRANSP> 5
 0.000000e+00 1.000000e+00 0.000000e+00 0.000000e+00 0.000000e+00
 0.000000e+00 7.333633e-01 2.666366e-01 0.000000e+00 0.000000e+00
 0.000000e+00 0.000000e+00 6.630660e-01 3.369340e-01 0.000000e+00
 0.000000e+00 0.000000e+00 0.000000e+00 6.844780e-01 3.155220e-01
 0.000000e+00 0.000000e+00 0.000000e+00 0.000000e+00 0.000000e+00
<ENDHMM>
~h "ao"
<BEGINHMM>
<NUMSTATES> 5
<STATE> 2
<MEAN> 39
 2.423917e+01 8.735295e+00 1.062741e+01 -3.319758e+01 -1.666503e+01 3.178381e-01 -1.130418e+00 5.292928e+00 -1.098658e+01 6.754094e+00 -8.210414e+00 3.072047e+00 1.159155e+02 6.742751e+00 3.526378e+00 2.291502e+00 -5.196567e+00 -3.017921e+00 -7.656507e-01 4.128231e-01 1.543606e+00 -9.148306e-01 7.867187e-01 -7.566122e-01 -3.513646e-01 2.008774e+00 -1.432977e+00 -7.314469e-01 -3.368164e-01 6.113099e-01 7.464764e-02 -1.732400e-01 -3.166028e-01 -3.909908e-02 -5.809939e-02 8.601660e-02 2.120664e-01 -9.881008e-02 -3.015312e-01
<VARIANCE> 39
 5.043463e+02 2.575545e+02 2.279518e+02 6.510217e+02 4.455149e+02 2.232459e+02 2.784573e+02 2.513683e+02 2.343238e+02 2.351279e+02 2.149828e+02 2.618681e+02 1.894780e+02 6.104883e+01 2.673626e+01 1.936638e+01 5.117550e+01 2.821020e+01 1.648451e+01 2.359563e+01 2.152651e+01 2.094071e+01 1.900562e+01 1.851826e+01 2.194343e+01 1.309912e+01 7.326273e+00 3.555462e+00 2.600142e+00 7.545897e+00 4.227999e+00 2.422676e+00 3.345541e+00 3.171698e+00 3.178740e+00 2.811537e+00 2.773499e+00 3.219451e+00 2.061038e+00
<GCONST> 2.023855e+02
<STATE> 3
<MEAN> 39
 3.474389e+01 1.288906e+01 1.339659e+01 -4.105863e+01 -2.421936e+01 -2.933670e+00 -1.606085e+00 9.985690e+00 -1.453206e+01 9.504917e+00 -7.922087e+00 1.418935e+00 1.207348e+02 1.660192e+00 -2.335786e-01 -4.258912e-01 -6.116602e-01 -5.371736e-01 -8.088707e-01 8.813657e-02 8.454512e-01 -1.220540e+00 4.437915e-01 7.185673e-01 1.256742e-01 1.013095e+00 -1.015895e+00 -9.046205e-01 -7.455441e-01 1.136699e+00 8.985757e-01 -3.686158e-02 -7.663874e-02 -2.266121e-01 2.772225e-02 -1.612461e-01 3.543735e-01 2.453449e-01 -2.099553e-01
<VARIANCE> 39
 1.257403e+02 2.223916e+02 2.878805e+02 4.219905e+02 5.158891e+02 3.377144e+02 4.640593e+02 3.857955e+02 3.674432e+02 3.714001e+02 3.169875e+02 3.704713e+02 1.450013e+02 1.936571e+01 1.770867e+01 1.685405e+01 2.865497e+01 2.482411e+01 1.344025e+01 2.005557e+01 1.941499e+01 1.980283e+01 1.901373e+01 1.776370e+01 1.902344e+01 6.378877e+00 3.474766e+00 1.871539e+00 1.765394e+00 3.445791e+00 2.763705e+00 2.238448e+00 3.125714e+00 3.010584e+00 3.360351e+00 2.889906e+00 2.942686e+00 3.200508e+00 1.020541e+00
<GCONST> 1.959382e+02
<STATE> 4
<MEAN> 39
 3.577613e+01 1.175823e+00 -2.965228e+00 -2.947255e+01 -7.563104e+00 -8.066333e+00 -6.718108e+00 1.482629e+01 -1.756426e+01 8.244449e+00 -1.614243e-01 7.043316e+00 1.233360e+02 -3.761353e-01 -2.137018e+00 -2.357032e+00 2.969556e+00 3.549741e+00 -8.181524e-01 -9.102920e-01 -2.914902e-02 6.437641e-01 8.355579e-04 8.806508e-01 7.898965e-01 -1.620444e-01 -3.367842e-01 -2.903615e-02 2.073159e-01 3.830283e-01 1.641590e-01 -5.245885e-02 -1.488287e-01 -7.576650e-02 4.545781e-01 -7.276182e-03 -1.739808e-01 -1.631448e-01 -2.510930e-01
<VARIANCE> 39
 8.984892e+01 3.378979e+02 4.937638e+02 5.154744e+02 9.582819e+02 4.653729e+02 7.614355e+02 5.466745e+02 5.606022e+02 5.999709e+02 3.979050e+02 4.321736e+02 2.096099e+02 5.904229e+00 1.086819e+01 1.603760e+01 1.694134e+01 2.508754e+01 1.910885e+01 2.455813e+01 2.313177e+01 2.671375e+01 2.783037e+01 2.353770e+01 2.815612e+01 6.541229e+00 9.882214e-01 1.487330e+00 2.071032e+00 2.059418e+00 3.237828e+00 2.730636e+00 3.780495e+00 3.785701e+00 4.244035e+00 4.687929e+00 3.950310e+00 4.587574e+00 6.546214e-01
<GCONST> 1.999253e+02
<TRANSP> 5
 0.000000e+00 1.000000e+00 0.000000e+00 0.000000e+00 0.000000e+00
 0.000000e+00 7.777608e-01 2.222392e-01 0.000000e+00 0.000000e+00
 0.000000e+00 0.000000e+00 7.345884e-01 2.654116e-01 0.000000e+00
 0.000000e+00 0.000000e+00 0.000000e+00 8.982337e-01 1.017663e-01
 0.000000e+00 0.000000e+00 0.000000e+00 0.000000e+00 0.000000e+00
<ENDHMM>
~h "ay"
<BEGINHMM>
<NUMSTATES> 5
<STATE> 2
<MEAN> 39
 1.722885e+01 -3.364261e+01 -1.833512e+00 -2.381015e+01 1.166679e+01 9.727281e+00 -6.321194e+00 1.147633e+01 8.641291e+00 1.166087e+01 1.230120e+00 -3.738828e+00 1.460912e+02 -2.450545e-01 -1.503242e+00 -1.018529e+00 -1.733336e-01 1.305188e+00 8.617595e-01 -6.758453e-01 4.186844e-01 7.140853e-01 -4.255424e-01 5.975059e-02 -7.387459e-01 8.831000e-01 -1.391286e-01 5.653915e-01 5.213990e-01 6.229593e-01 -3.444977e-01 -3.007033e-01 1.325667e-01 -1.775585e-01 -2.899439e-01 -8.863959e-02 -1.335724e-01 1.761209e-01 -6.993295e-01
<VARIANCE> 39
 7.919472e+01 1.692948e+02 2.779688e+02 3.766890e+02 4.567107e+02 3.674346e+02 3.883706e+02 4.303623e+02 3.683208e+02 3.740848e+02 4.592774e+02 3.777557e+02 1.532928e+02 2.621532e+00 6.806158e+00 7.421811e+00 1.153697e+01 9.032309e+00 1.093398e+01 1.190149e+01 1.096401e+01 1.067224e+01 9.479344e+00 1.086504e+01 9.724153e+00 6.448169e+00 1.063978e+00 9.646268e-01 9.269098e-01 1.868907e+00 1.319365e+00 1.798939e+00 2.264405e+00 2.261828e+00 1.918440e+00 1.705541e+00 1.902213e+00 1.409125e+00 1.224040e+00
<GCONST> 1.791097e+02
<STATE> 3
<MEAN> 39
 1.643671e+01 -3.652108e+01 -8.941683e-01 -2.129366e+01 1.374444e+01 8.353419e+00 -7.886430e+00 1.455885e+01 9.724977e+00 1.002411e+01 -2.828269e-01 -4.556573e+00 1.460396e+02 -2.499562e-01 -3.248905e-01 7.021140e-01 8.451600e-01 -3.335789e-01 -9.289701e-01 -1.322407e-02 7.310711e-01 2.012543e-01 -4.735352e-01 -3.336092e-01 9.497806e-02 -9.151053e-02 -1.960882e-02 2.917582e-01 4.263590e-01 1.628211e-01 -4.246397e-01 -3.900056e-01 2.138463e-01 3.850007e-02 -1.532720e-01 -1.590746e-02 -2.963114e-02 2.368171e-01 -1.979633e-01
<VARIANCE> 39
 7.742462e+01 1.686213e+02 2.540865e+02 3.413009e+02 4.728670e+02 3.554535e+02 3.806896e+02 4.314454e+02 3.635208e+02 3.695652e+02 4.121559e+02 4.093327e+02 1.505059e+02 1.243582e+00 2.930731e+00 5.588020e+00 5.438179e+00 7.795497e+00 9.058403e+00 8.933297e+00 6.886194e+00 6.861219e+00 6.520843e+00 7.160604e+00 7.090004e+00 1.613808e+00 2.282119e-01 4.848868e-01 5.290214e-01 8.334485e-01 8.735541e-01 9.964408e-01 1.243584e+00 1.206668e+00 1.151136e+00 1.085736e+00 1.102641e+00 1.050832e+00 3.336022e-01
<GCONST> 1.632340e+02
<STATE> 4
<MEAN> 39
 1.386244e+01 -3.253268e+01 9.812992e+00 -1.410841e+01 3.718522e+00 -2.362204e+00 -8.335606e-01 1.864074e+01 8.033248e+00 6.708214e+00 -2.745726e+00 1.476048e+00 1.413366e+02 -2.462953e-01 1.447467e+00 2.461008e+00 9.016443e-01 -1.980728e+00 -1.722436e+00 1.093126e+00 -4.110329e-02 -8.507046e-01 -6.116834e-03 8.860724e-02 8.873025e-01 -1.213658e+00 5.545225e-02 4.252190e-01 1.150003e-01 2.084876e-01 7.728658e-02 1.321566e-01 3.888406e-02 -3.938705e-01 -2.123718e-01 1.272390e-01 7.198506e-03 4.496137e-02 -4.102211e-01
<VARIANCE> 39
 7.842297e+01 2.064875e+02 4.132624e+02 3.129812e+02 4.912935e+02 3.524403e+02 5.093786e+02 3.987145e+02 3.708936e+02 3.624839e+02 3.520208e+02 3.720908e+02 2.110521e+02 2.081760e+00 5.867024e+00 7.764506e+00 9.598248e+00 1.190804e+01 1.140283e+01 1.383889e+01 1.297742e+01 1.161823e+01 1.056590e+01 1.002959e+01 9.616743e+00 3.778956e+00 4.179883e-01 6.297027e-01 1.000812e+00 1.606292e+00 1.728368e+00 1.585896e+00 1.900962e+00 1.891741e+00 1.671105e+00 1.656607e+00 1.577922e+00 1.520954e+00 5.312355e-01
<GCONST> 1.766805e+02
<TRANSP> 5
 0.000000e+00 1.000000e+00 0.000000e+00 0.000000e+00 0.000000e+00
 0.000000e+00 7.763594e-01 2.236407e-01 0.000000e+00 0.000000e+00
 0.000000e+00 0.000000e+00 7.882934e-01 2.117067e-01 0.000000e+00
 0.000000e+00 0.000000e+00 0.000000e+00 8.875360e-01 1.124641e-01
 0.000000e+00 0.000000e+00 0.000000e+00 0.000000e+00 0.000000e+00
<ENDHMM>
~h "eh"
<BEGINHMM>
<NUMSTATES> 5
<STATE> 2
<MEAN> 39
 -4.735616e+01 8.115656e+00 -6.460930e+00 -2.992420e+00 -2.707222e+00 -9.657450e+00 -3.897424e+00 2.375287e+00 -3.837773e+00 2.248913e+00 -5.709063e+00 7.729173e+00 1.138160e+02 6.366935e+00 -1.147770e+00 4.119668e+00 -5.214927e-01 -3.981282e-01 -2.180104e+00 -5.457922e-01 -4.118087e-01 1.613354e+00 2.939886e-01 -5.139350e-01 1.161641e+00 2.886440e+00 2.391734e+00 -8.842643e-01 1.151569e+00 -2.291958e-01 7.854464e-03 -4.979204e-01 -3.166429e-01 2.113162e-02 5.141638e-01 4.939780e-01 -5.940524e-02 4.773552e-02 9.148192e-01
<VARIANCE> 39
 4.813602e+02 1.376301e+02 2.443064e+02 2.555553e+02 3.095331e+02 2.599596e+02 1.727683e+02 1.590229e+02 1.666054e+02 1.525976e+02 1.776517e+02 1.558156e+02 1.472110e+02 6.222923e+01 1.401204e+01 3.119338e+01 1.516701e+01 1.239400e+01 2.205621e+01 1.976864e+01 1.397616e+01 1.954526e+01 1.931404e+01 1.611823e+01 1.867344e+01 1.642028e+01 7.073452e+00 2.402188e+00 4.392278e+00 3.021102e+00 2.542099e+00 3.810128e+00 4.410550e+00 2.814602e+00 3.725702e+00 3.532594e+00 2.972969e+00 3.267215e+00 2.125780e+00
<GCONST> 1.951147e+02
<STATE> 3
<MEAN> 39
 -2.292893e+01 3.528118e+00 6.886539e+00 -2.281780e+00 -4.503450e+00 -1.556903e+01 -6.739368e+00 4.043879e-01 8.287725e-01 4.242136e+00 -7.311687e+00 1.051541e+01 1.220883e+02 1.219480e+01 -4.242673e+00 6.426551e+00 -1.694863e+00 -4.537319e-01 -3.175124e+00 -1.971451e+00 -2.032815e-01 2.764584e+00 2.108926e+00 -3.680765e-01 8.508512e-01 5.950855e+00 -2.556374e-02 -1.249516e+00 -5.704628e-01 -9.192163e-01 -1.744504e-01 1.508082e-01 -1.665476e-01 5.446334e-01 1.939626e-01 6.449794e-01 2.974189e-01 -4.437919e-01 8.250352e-01
<VARIANCE> 39
 9.097639e+02 1.779621e+02 3.131933e+02 2.393960e+02 3.144848e+02 2.643507e+02 2.683203e+02 1.910400e+02 2.176771e+02 2.367262e+02 2.529836e+02 2.726093e+02 2.541686e+02 5.260695e+01 2.171114e+01 3.009271e+01 2.791486e+01 1.867347e+01 3.302911e+01 4.834686e+01 1.981572e+01 3.141825e+01 3.057313e+01 2.208245e+01 2.848294e+01 2.111353e+01 1.506498e+01 2.754385e+00 6.961524e+00 3.351880e+00 2.948641e+00 4.811688e+00 6.352618e+00 3.230240e+00 4.212851e+00 3.746213e+00 3.398857e+00 3.781588e+00 3.502888e+00
<GCONST> 2.071394e+02
<STATE> 4
<MEAN> 39
 5.818397e+00 -1.175737e+01 1.919047e+01 -9.298636e+00 -7.409647e+00 -2.189560e+01 -1.275755e+01 1.697400e+00 7.428116e+00 1.187053e+01 -6.326500e+00 1.119714e+01 1.390780e+02 6.137018e+00 -5.876119e+00 1.990757e+00 -4.097084e+00 -1.097342e+00 -1.532663e+00 -6.573163e-01 2.040205e+00 2.571342e+00 2.566747e+00 8.512447e-01 -5.573393e-01 5.816591e+00 -2.940610e+00 3.741888e-01 -1.942462e+00 -6.729197e-02 2.671177e-02 1.044030e+00 9.521911e-01 6.090955e-01 -3.722218e-01 -2.991228e-01 2.283538e-01 -6.064243e-01 -1.153585e+00
<VARIANCE> 39
 3.283821e+02 2.295030e+02 2.236498e+02 2.731959e+02 3.184677e+02 2.873771e+02 7.159238e+02 2.754933e+02 3.543091e+02 4.340071e+02 3.604924e+02 4.456869e+02 2.851187e+02 5.948283e+01 1.756486e+01 2.952439e+01 2.586633e+01 2.142500e+01 2.997780e+01 6.009499e+01 2.170685e+01 2.813849e+01 2.499702e+01 2.154017e+01 2.263695e+01 2.040965e+01 7.419479e+00 3.322349e+00 4.041219e+00 4.147992e+00 2.970070e+00 5.082827e+00 6.882327e+00 3.480920e+00 4.831724e+00 3.912375e+00 3.555588e+00 4.327638e+00 3.703111e+00
<GCONST> 2.090137e+02
<TRANSP> 5
 0.000000e+00 1.000000e+00 0.000000e+00 0.000000e+00 0.000000e+00
 0.000000e+00 5.751310e-01 4.248690e-01 0.000000e+00 0.000000e+00
 0.000000e+00 0.000000e+00 5.251455e-01 4.748546e-01 0.000000e+00
 0.000000e+00 0.000000e+00 0.000000e+00 6.363539e-01 3.636462e-01
 0.000000e+00 0.000000e+00 0.000000e+00 0.000000e+00 0.000000e+00
<ENDHMM>
~h "ey"
<BEGINHMM>
<NUMSTATES> 5
<STATE> 2
<MEAN> 39
 -6.562688e+00 -9.939455e+00 2.917634e+01 -1.171188e+01 -1.766862e+01 -1.512158e+01 -1.270715e+00 3.891468e-01 -4.213542e+00 8.554106e+00 1.827547e-02 7.580260e+00 1.076868e+02 9.117793e-03 -1.434198e-01 2.414022e+00 -8.871686e-01 -9.853414e-01 8.056831e-02 2.040062e-01 -5.280569e-01 -4.308354e-01 1.452976e-01 2.583928e-02 -3.717583e-03 2.068470e+00 2.527481e-01 2.982453e-02 3.417841e-01 6.290239e-04 1.830590e-01 1.265616e-01 8.080745e-02 -1.065463e-01 -1.164398e-01 2.271262e-03 -1.557730e-01 -4.691173e-02 4.293753e-01
<VARIANCE> 39
 2.912096e+02 2.384831e+02 7.344515e+02 3.817375e+02 2.676641e+02 3.163513e+02 4.630431e+02 3.453393e+02 4.305774e+02 2.618091e+02 1.987530e+02 2.010257e+02 1.673927e+03 1.262373e+01 1.400637e+01 1.753752e+01 1.624341e+01 1.780975e+01 1.983243e+01 2.335724e+01 2.246227e+01 1.989463e+01 1.643487e+01 1.473659e+01 1.475899e+01 5.082281e+01 2.019001e+00 2.302072e+00 2.896173e+00 2.936642e+00 3.159176e+00 3.394447e+00 3.987905e+00 3.614094e+00 3.343365e+00 2.839264e+00 2.711068e+00 2.560265e+00 8.765748e+00
<GCONST> 2.014833e+02
<STATE> 3
<MEAN> 39
 -3.699574e+00 -1.039956e+01 4.160299e+01 -1.646004e+01 -2.052232e+01 -1.496944e+01 -8.293672e-01 -2.756625e+00 -6.279010e+00 1.015719e+01 -1.099242e+00 7.927626e+00 1.206477e+02 7.659303e-01 3.543988e-02 3.691243e+00 -8.958323e-01 -3.156337e-01 4.215999e-01 1.380915e-01 -9.653448e-01 -7.728206e-01 2.681766e-02 -4.916731e-01 -5.943409e-02 3.536895e+00 1.491356e-02 2.099736e-01 -7.787393e-02 2.157667e-01 3.153421e-01 1.829518e-01 -3.580663e-02 -8.158544e-02 -3.134611e-02 -9.716947e-02 -1.074038e-01 -5.474441e-02 -3.154905e-01
<VARIANCE> 39
 1.992536e+02 2.420024e+02 7.154867e+02 4.470360e+02 2.591078e+02 3.036131e+02 4.859816e+02 3.924499e+02 5.721307e+02 2.778652e+02 2.129099e+02 2.202175e+02 1.217927e+03 1.531619e+01 1.618064e+01 2.214053e+01 2.074504e+01 1.840770e+01 1.898735e+01 2.552407e+01 2.198977e+01 2.188225e+01 1.743205e+01 1.471200e+01 1.550918e+01 8.831189e+01 2.271871e+00 2.262738e+00 3.479597e+00 3.148665e+00 2.943260e+00 3.155316e+00 4.006669e+00 3.430887e+00 3.468615e+00 2.886154e+00 2.591891e+00 2.556794e+00 1.093159e+01
<GCONST> 2.035559e+02
<STATE> 4
<MEAN> 39
 -4.359661e+00 1.173810e-01 5.506194e+01 -1.410694e+01 -1.282617e+01 -6.033676e+00 -2.879447e+00 -1.279313e+01 -8.621598e+00 5.184715e+00 -6.495640e+00 6.620159e+00 1.172812e+02 -4.896443e-01 1.181509e+00 -1.194359e+00 1.837648e+00 1.036045e+00 7.719092e-01 7.997990e-02 5.942645e-02 -7.657514e-03 -6.120868e-01 -1.917418e-01 -3.527014e-01 -3.023741e+00 -1.627645e-01 -5.781926e-02 -7.638656e-01 1.274636e-01 6.746357e-02 -6.106895e-02 1.637655e-02 2.663322e-01 1.711287e-01 2.342359e-02 1.657395e-01 1.215283e-02 -4.818041e-01
<VARIANCE> 39
 1.209242e+02 3.211470e+02 7.119180e+02 6.357845e+02 3.189431e+02 3.100181e+02 3.623708e+02 4.854050e+02 6.398796e+02 3.484584e+02 2.921143e+02 2.999242e+02 1.044848e+03 1.022756e+01 1.708144e+01 5.846335e+01 3.207562e+01 1.951685e+01 1.788969e+01 2.289127e+01 2.806258e+01 2.888192e+01 2.052238e+01 2.017829e+01 1.963393e+01 7.759088e+01 1.741529e+00 2.848310e+00 7.102204e+00 5.401431e+00 3.382802e+00 3.048607e+00 3.863722e+00 4.746090e+00 4.709323e+00 3.585899e+00 3.546729e+00 3.298703e+00 9.905246e+00
<GCONST> 2.093019e+02
<TRANSP> 5
 0.000000e+00 1.000000e+00 0.000000e+00 0.000000e+00 0.000000e+00
 0.000000e+00 7.704965e-01 2.295035e-01 0.000000e+00 0.000000e+00
 0.000000e+00 0.000000e+00 7.705300e-01 2.294700e-01 0.000000e+00
 0.000000e+00 0.000000e+00 0.000000e+00 9.257273e-01 7.427274e-02
 0.000000e+00 0.000000e+00 0.000000e+00 0.000000e+00 0.000000e+00
<ENDHMM>
~h "hh"
<BEGINHMM>
<NUMSTATES> 5
<STATE> 2
<MEAN> 39
 3.274594e+00 6.674881e+00 7.197431e+00 -4.183521e+00 -2.233613e+00 3.538376e+00 1.012527e+00 7.292828e-01 -6.004764e+00 5.191590e+00 -1.658588e+00 2.118187e+00 8.221024e+01 2.145171e+00 2.081172e+00 8.724107e-01 -6.189144e-01 -8.510085e-01 5.310408e-01 6.974801e-01 5.146771e-01 1.526678e-01 5.435345e-01 1.913107e-01 -2.191228e-01 5.454001e-01 3.545036e-01 -5.208304e-02 2.265807e-01 -2.974735e-01 -3.033339e-01 -2.942707e-01 -7.132866e-02 1.260907e-01 3.708651e-02 7.674273e-02 -9.672247e-03 1.963968e-02 5.691472e-01
<VARIANCE> 39
 6.778786e+02 3.055624e+02 2.785627e+02 3.073755e+02 2.974373e+02 2.852602e+02 3.118061e+02 2.936564e+02 3.405250e+02 2.632436e+02 2.194217e+02 2.141165e+02 7.820476e+02 2.083459e+01 1.938195e+01 1.964101e+01 2.320234e+01 2.291540e+01 2.493295e+01 2.330476e+01 2.231997e+01 2.205133e+01 1.897417e+01 1.744210e+01 1.483875e+01 2.243108e+01 3.348305e+00 3.390825e+00 3.093302e+00 4.044109e+00 4.355063e+00 4.499022e+00 4.421535e+00 4.395594e+00 4.315583e+00 3.682782e+00 3.432772e+00 2.950212e+00 3.271037e+00
<GCONST> 2.034650e+02
<STATE> 3
<MEAN> 39
 1.863837e+01 1.621368e+01 1.483958e+01 -6.433722e+00 -6.326646e+00 4.506532e+00 3.794477e+00 2.177238e+00 -6.456656e+00 8.276235e+00 -2.161165e+00 1.787903e+00 9.201843e+01 3.736504e+00 1.629088e+00 1.271374e+00 -2.255518e+00 -2.003833e+00 -4.170611e-01 2.234537e-02 7.772385e-01 3.281355e-02 8.180515e-01 1.820155e-01 -2.526439e-01 2.948578e+00 -1.596109e-01 -7.877664e-01 -2.239388e-01 -8.020023e-01 -1.977015e-01 -3.443682e-01 -3.023481e-01 1.833539e-01 -4.445666e-02 -3.096062e-02 6.334142e-02 3.612066e-02 6.684726e-01
<VARIANCE> 39
 4.436178e+02 2.949435e+02 2.253846e+02 3.835920e+02 3.473474e+02 2.854268e+02 3.139979e+02 2.937416e+02 3.770678e+02 2.752327e+02 2.356706e+02 2.384136e+02 6.037202e+02 2.954123e+01 2.138387e+01 1.998490e+01 2.810913e+01 2.309009e+01 2.330478e+01 2.490527e+01 2.335871e+01 2.363579e+01 2.027040e+01 1.844335e+01 1.584637e+01 3.139482e+01 3.613423e+00 3.508605e+00 2.907021e+00 5.056950e+00 4.638266e+00 4.429976e+00 4.481014e+00 4.577064e+00 4.332651e+00 3.727843e+00 3.418077e+00 3.002029e+00 3.046755e+00
<GCONST> 2.048780e+02
<STATE> 4
<MEAN> 39
 2.968393e+01 1.813767e+01 1.825469e+01 -1.692017e+01 -1.311067e+01 2.112137e+00 1.458151e+00 5.087527e+00 -7.048982e+00 1.040604e+01 -1.744777e+00 1.048827e+00 1.050953e+02 1.815681e+00 -1.009418e+00 -2.160198e-01 -4.151818e+00 -1.498724e+00 -5.183955e-01 -5.442560e-01 1.600844e+00 1.230610e-01 4.285660e-01 6.635523e-01 -7.693232e-02 3.635191e+00 -7.370564e-01 -9.355905e-01 -6.008180e-01 -3.557957e-01 6.626846e-01 3.307148e-01 2.195146e-02 3.088041e-01 1.067519e-02 -2.548756e-01 2.235105e-01 9.314626e-02 1.563422e-01
<VARIANCE> 39
 1.487108e+02 2.671364e+02 2.383804e+02 4.359628e+02 4.135501e+02 3.023604e+02 3.909115e+02 3.391219e+02 4.029327e+02 3.215177e+02 2.816858e+02 2.783577e+02 3.379112e+02 1.722031e+01 2.027448e+01 1.706602e+01 3.157419e+01 2.586217e+01 2.294521e+01 2.554212e+01 2.499388e+01 2.308642e+01 2.119540e+01 1.903168e+01 1.698584e+01 2.413974e+01 2.397690e+00 2.857315e+00 2.505117e+00 4.867635e+00 4.312719e+00 4.304744e+00 4.392760e+00 4.592352e+00 4.090312e+00 3.739286e+00 3.344549e+00 3.037849e+00 2.191281e+00
<GCONST> 2.025405e+02
<TRANSP> 5
 0.000000e+00 1.000000e+00 0.000000e+00 0.000000e+00 0.000000e+00
 0.000000e+00 6.495724e-01 3.504275e-01 0.000000e+00 0.000000e+00
 0.000000e+00 0.000000e+00 5.765345e-01 4.234655e-01 0.000000e+00
 0.000000e+00 0.000000e+00 0.000000e+00 6.970480e-01 3.029520e-01
 0.000000e+00 0.000000e+00 0.000000e+00 0.000000e+00 0.000000e+00
<ENDHMM>
~h "ih"
<BEGINHMM>
<NUMSTATES> 5
<STATE> 2
<MEAN> 39
 -3.294442e+01 4.955250e+00 4.208702e+00 1.267711e+00 -9.312768e+00 -1.345496e+01 -2.415709e+00 -1.326705e+00 -5.624711e+00 2.697277e+00 -4.137719e+00 9.424429e+00 1.175610e+02 4.758869e+00 -9.395511e-01 4.314622e+00 4.131337e-01 -6.617606e-01 -1.903643e+00 -4.079346e-01 -1.000727e+00 -1.746200e-01 1.997619e-01 -3.488303e-01 5.817240e-01 1.917908e+00 1.165735e+00 -4.720577e-01 9.797657e-01 8.322112e-02 4.858654e-02 -3.047982e-01 -3.087846e-01 -1.471355e-01 -1.198667e-01 1.617428e-01 -3.672841e-02 -6.542939e-02 2.435182e-01
<VARIANCE> 39
 8.067064e+02 2.077712e+02 7.040655e+02 2.584366e+02 3.263085e+02 3.444771e+02 2.832531e+02 2.209267e+02 1.916701e+02 1.746609e+02 2.047702e+02 2.094079e+02 3.313227e+02 6.482291e+01 1.703580e+01 4.813029e+01 2.096726e+01 1.505164e+01 2.437255e+01 2.499269e+01 1.768461e+01 1.799606e+01 1.638674e+01 1.549315e+01 1.910944e+01 2.541297e+01 9.344769e+00 3.081525e+00 7.050174e+00 3.579733e+00 2.842219e+00 4.426967e+00 4.679608e+00 3.286608e+00 3.412149e+00 3.109415e+00 2.847637e+00 3.388632e+00 3.639825e+00
<GCONST> 2.036871e+02
<STATE> 3
<MEAN> 39
 -1.438331e+01 -1.382655e+00 2.146234e+01 1.187923e+00 -1.058006e+01 -2.065545e+01 -5.613086e+00 -4.065641e+00 -6.481426e+00 4.478881e+00 -5.577895e+00 1.055340e+01 1.254310e+02 5.954694e+00 -2.401237e+00 5.615416e+00 3.790009e-01 -6.588353e-01 -2.307399e+00 -8.523745e-01 -8.853468e-01 -9.079789e-01 5.949113e-01 -1.385655e-01 1.138276e-01 1.929688e+00 -5.793321e-01 -1.346739e-01 -3.851045e-01 7.973403e-02 4.417454e-02 1.725545e-01 9.800421e-02 2.204579e-01 -3.451622e-01 -1.752498e-02 1.699665e-01 -2.479223e-01 -6.163363e-01
<VARIANCE> 39
 7.276158e+02 2.639109e+02 6.934612e+02 2.752538e+02 3.390479e+02 3.570311e+02 4.973328e+02 3.152778e+02 2.696486e+02 2.164341e+02 2.606815e+02 3.012318e+02 4.663365e+02 6.881664e+01 2.436928e+01 5.265019e+01 2.936457e+01 1.889655e+01 3.233301e+01 4.434734e+01 2.560151e+01 2.748556e+01 2.084896e+01 1.925270e+01 2.416398e+01 4.448692e+01 1.035372e+01 4.341345e+00 7.511831e+00 4.559874e+00 3.311969e+00 5.430774e+00 6.769389e+00 4.284762e+00 4.414824e+00 3.751988e+00 3.405221e+00 4.064811e+00 5.884141e+00
<GCONST> 2.133694e+02
<STATE> 4
<MEAN> 39
 -4.248841e+00 -7.380992e+00 3.179867e+01 5.904705e+00 -1.155915e+01 -2.476253e+01 -4.549420e+00 -4.470263e+00 -1.261914e+01 4.741379e+00 -3.524833e+00 8.174392e+00 1.176370e+02 -2.192624e-02 1.230423e-01 -4.695551e-01 1.714542e+00 5.590185e-01 3.311442e-01 1.610190e-01 5.548646e-01 -1.088942e+00 -4.704717e-01 4.538994e-01 -7.600395e-01 -3.928406e+00 -1.028121e+00 4.720806e-01 -1.250321e+00 9.673099e-02 3.143652e-01 5.169126e-01 -4.701809e-03 2.637575e-01 2.535543e-01 -2.165826e-01 3.821154e-02 -3.735314e-02 -9.063790e-01
<VARIANCE> 39
 3.525004e+02 3.054200e+02 6.051648e+02 3.883988e+02 3.289255e+02 4.072656e+02 7.359189e+02 5.640224e+02 4.594345e+02 2.769154e+02 2.523184e+02 2.871864e+02 1.115567e+03 4.264852e+01 3.811190e+01 5.740599e+01 3.756302e+01 2.494605e+01 3.924920e+01 5.209490e+01 3.905988e+01 3.935725e+01 2.603013e+01 2.140607e+01 2.243775e+01 9.963392e+01 5.752765e+00 7.157313e+00 6.470384e+00 7.328560e+00 4.495722e+00 6.917773e+00 9.353778e+00 7.135871e+00 7.053112e+00 4.894478e+00 3.964173e+00 4.079832e+00 1.603646e+01
<GCONST> 2.219318e+02
<TRANSP> 5
 0.000000e+00 1.000000e+00 0.000000e+00 0.000000e+00 0.000000e+00
 0.000000e+00 6.509175e-01 3.490825e-01 0.000000e+00 0.000000e+00
 0.000000e+00 0.000000e+00 6.727045e-01 3.272955e-01 0.000000e+00
 0.000000e+00 0.000000e+00 0.000000e+00 8.466806e-01 1.533194e-01
 0.000000e+00 0.000000e+00 0.000000e+00 0.000000e+00 0.000000e+00
<ENDHMM>
~h "iy"
<BEGINHMM>
<NUMSTATES> 5
<STATE> 2
<MEAN> 39
 2.713644e+00 -5.330299e+00 5.664426e+01 3.907753e+00 -4.990902e+00 -1.424284e+01 -4.297338e+00 -5.719156e+00 -1.626760e+01 2.068113e+00 -7.108675e+00 8.354777e+00 1.292808e+02 9.046313e-01 -1.244055e+00 2.219184e+00 -1.311780e+00 -7.751881e-01 -1.209607e-01 2.674846e-01 -3.021596e-01 -4.033205e-01 2.497503e-01 1.575118e-01 4.523369e-02 -1.454936e-01 -3.442052e-01 2.907588e-01 -1.821462e+00 4.469060e-01 6.462771e-01 -1.630687e-02 -1.008809e-01 4.598377e-01 3.276525e-01 9.658867e-02 2.354578e-01 -1.554692e-01 -5.678067e-01
<VARIANCE> 39
 2.239731e+02 3.996592e+02 5.039351e+02 4.144886e+02 2.861425e+02 5.358265e+02 6.816417e+02 6.308126e+02 4.383455e+02 3.740549e+02 2.567510e+02 3.355131e+02 2.465086e+02 2.779752e+01 3.090364e+01 5.704490e+01 3.470195e+01 2.714694e+01 4.205114e+01 3.377454e+01 3.635520e+01 2.788640e+01 2.203668e+01 1.743199e+01 1.527322e+01 1.213723e+01 2.676043e+00 2.981318e+00 5.001683e+00 5.121767e+00 4.187614e+00 5.160555e+00 4.469637e+00 5.272069e+00 4.258087e+00 3.421931e+00 2.767586e+00 2.710415e+00 9.346577e-01
<GCONST> 2.082999e+02
<STATE> 3
<MEAN> 39
 4.894305e+00 -8.097830e+00 5.474984e+01 2.891076e+00 -4.266977e+00 -1.534084e+01 -4.172122e+00 -3.444848e+00 -1.624584e+01 3.032750e+00 -5.958952e+00 7.261061e+00 1.269260e+02 5.097485e-01 -5.547534e-01 -3.325164e+00 2.839434e-01 1.011664e+00 -3.227372e-01 -3.326032e-01 8.252275e-01 6.737113e-01 2.913630e-01 6.271864e-01 -3.140435e-01 -1.472730e+00 -7.864150e-02 2.541012e-01 -1.487044e+00 2.052235e-01 5.034637e-01 1.386257e-02 -2.743596e-01 1.163725e-01 3.370466e-01 9.180062e-03 6.110717e-02 -3.976437e-02 -3.149109e-01
<VARIANCE> 39
 2.471395e+02 3.834975e+02 5.507479e+02 4.195825e+02 3.099533e+02 6.766910e+02 7.873533e+02 6.131340e+02 4.577270e+02 4.184602e+02 2.556068e+02 3.073261e+02 3.599955e+02 2.033449e+01 1.991035e+01 5.016953e+01 2.743058e+01 2.431701e+01 3.541321e+01 2.961463e+01 2.985391e+01 2.558836e+01 1.949921e+01 1.584065e+01 1.463415e+01 8.229621e+00 1.797173e+00 2.503412e+00 4.554552e+00 5.042935e+00 4.064094e+00 4.902513e+00 4.264274e+00 4.781308e+00 4.161482e+00 3.200687e+00 2.633846e+00 2.386115e+00 8.986112e-01
<GCONST> 2.056534e+02
<STATE> 4
<MEAN> 39
 5.928903e+00 -6.268601e+00 4.288820e+01 -4.338286e-01 -9.524557e-01 -1.166909e+01 -4.240481e+00 -1.783173e+00 -1.055829e+01 4.101109e+00 -4.633881e+00 6.403849e+00 1.180984e+02 4.298634e-01 -1.462690e-01 -4.566995e+00 2.183096e-01 1.311681e+00 1.310283e-01 -5.823796e-01 5.762156e-01 1.069196e+00 2.695101e-01 4.327859e-01 -2.362001e-01 -1.881070e+00 -4.038224e-02 7.974461e-02 -1.456485e-01 -1.292561e-01 -2.791641e-02 7.474346e-02 -2.700065e-02 -7.358520e-02 6.795286e-03 4.980562e-02 -3.530058e-04 3.323705e-02 8.816164e-03
<VARIANCE> 39
 3.729492e+02 4.511331e+02 7.988868e+02 4.269948e+02 3.875593e+02 1.033923e+03 8.484221e+02 4.999754e+02 4.586914e+02 4.031286e+02 2.696507e+02 2.684480e+02 6.065312e+02 1.248576e+01 1.342388e+01 2.799131e+01 1.932998e+01 1.935682e+01 2.742215e+01 2.261161e+01 2.294422e+01 2.035059e+01 1.670037e+01 1.415393e+01 1.362938e+01 6.482386e+00 1.128345e+00 1.726762e+00 3.563668e+00 3.146767e+00 3.028993e+00 4.045226e+00 3.556522e+00 3.569090e+00 3.428386e+00 2.742199e+00 2.366961e+00 2.152299e+00 7.605490e-01
<GCONST> 2.006618e+02
<TRANSP> 5
 0.000000e+00 1.000000e+00 0.000000e+00 0.000000e+00 0.000000e+00
 0.000000e+00 6.899247e-01 3.100753e-01 0.000000e+00 0.000000e+00
 0.000000e+00 0.000000e+00 6.534472e-01 3.465528e-01 0.000000e+00
 0.000000e+00 0.000000e+00 0.000000e+00 8.093278e-01 1.906722e-01
 0.000000e+00 0.000000e+00 0.000000e+00 0.000000e+00 0.000000e+00
<ENDHMM>
~h "ow"
<BEGINHMM>
<NUMSTATES> 5
<STATE> 2
<MEAN> 39
 1.405350e+01 -1.718744e+01 4.585975e-01 -1.609422e+01 2.936798e+00 -1.187791e+01 -9.684776e+00 1.147880e+00 -4.037030e+00 1.668662e+01 4.546219e+00 2.958444e+00 1.164814e+02 7.857872e-01 -2.554754e-01 -1.918367e-02 -2.360144e+00 -3.921552e-01 1.739241e+00 1.334665e+00 -6.321651e-01 -2.973648e-02 1.317334e+00 1.670756e-01 -3.639008e-01 2.302783e+00 1.296948e-01 2.159535e-01 2.449716e-01 1.034064e-01 8.224255e-02 1.066069e-01 -9.163100e-02 -5.967323e-02 -2.925719e-02 -2.371596e-01 -2.246553e-01 1.674546e-01 1.201252e-01
<VARIANCE> 39
 5.383978e+02 2.896709e+02 2.551246e+02 3.744414e+02 3.730583e+02 6.030463e+02 6.727667e+02 4.303820e+02 6.798096e+02 5.602408e+02 5.031228e+02 2.961161e+02 1.159752e+03 1.923635e+01 1.467826e+01 1.231289e+01 1.938449e+01 1.869984e+01 2.028078e+01 2.284510e+01 2.245752e+01 2.594197e+01 2.471586e+01 2.493946e+01 1.937383e+01 5.421996e+01 2.602427e+00 2.172073e+00 1.918323e+00 2.985810e+00 2.830533e+00 2.937220e+00 3.484401e+00 3.592221e+00 3.886743e+00 4.182134e+00 4.090249e+00 3.264513e+00 7.418660e+00
<GCONST> 2.072594e+02
<STATE> 3
<MEAN> 39
 1.791600e+01 -1.611935e+01 1.614141e+00 -2.297288e+01 1.874621e+00 -4.748822e+00 -4.632341e+00 -6.099097e-01 -3.729085e+00 1.912650e+01 3.295373e+00 3.023036e+00 1.244869e+02 8.604090e-01 7.167898e-01 5.771220e-01 -1.579249e+00 -2.771116e-01 1.864902e+00 7.489838e-01 -6.593155e-01 -1.644324e-01 2.454693e-01 -3.383708e-01 3.645524e-01 1.785362e+00 -2.302377e-01 3.123929e-01 1.001028e-01 4.556162e-01 -5.776614e-04 -1.264193e-01 -2.168393e-01 4.018810e-02 -8.066888e-03 -3.646127e-01 -1.243856e-01 1.569998e-01 -5.748873e-01
<VARIANCE> 39
 3.339694e+02 2.572469e+02 2.479417e+02 4.029788e+02 3.856373e+02 5.533661e+02 5.407079e+02 3.962570e+02 8.106260e+02 5.333695e+02 5.104037e+02 2.872981e+02 8.032769e+02 1.746965e+01 1.324030e+01 9.747309e+00 1.936678e+01 1.513411e+01 1.619953e+01 1.900257e+01 1.837300e+01 2.299234e+01 2.235245e+01 2.043277e+01 1.675323e+01 5.131591e+01 2.276558e+00 1.772291e+00 1.537435e+00 2.786618e+00 2.297564e+00 2.430338e+00 2.756547e+00 2.903005e+00 3.472891e+00 3.469206e+00 3.292475e+00 2.719468e+00 5.669537e+00
<GCONST> 2.017808e+02
<STATE> 4
<MEAN> 39
 2.139115e+01 -2.489667e+00 4.851731e+00 -2.862515e+01 -2.236312e+00 6.962326e+00 -8.666948e-02 -1.845318e+00 -6.349756e+00 1.279843e+01 -1.753608e+00 6.594140e+00 1.196944e+02 -7.145542e-01 1.060325e+00 3.335387e-01 1.050260e+00 9.389922e-02 3.777149e-01 1.815125e-01 -9.339437e-02 -9.710533e-02 -7.790333e-01 -4.648470e-01 3.395770e-02 -1.913266e+00 -2.384726e-01 -3.722554e-02 -3.062439e-02 3.089586e-01 3.846404e-02 -1.656821e-01 -7.669039e-02 5.794191e-02 8.833215e-02 -4.411842e-02 3.054237e-02 -5.383833e-02 -2.181687e-01
<VARIANCE> 39
 2.120793e+02 3.406874e+02 2.567620e+02 5.648894e+02 5.332946e+02 4.528244e+02 4.491978e+02 4.048286e+02 7.673057e+02 4.685478e+02 4.112189e+02 3.287153e+02 7.048486e+02 8.117963e+00 1.089991e+01 8.401640e+00 1.679431e+01 1.231772e+01 1.462501e+01 1.514406e+01 1.665593e+01 1.975959e+01 1.739231e+01 1.703878e+01 1.475434e+01 9.451469e+00 1.109526e+00 1.438063e+00 1.279911e+00 2.302042e+00 1.897791e+00 2.236519e+00 2.384461e+00 2.697223e+00 2.994503e+00 2.699773e+00 2.637425e+00 2.343814e+00 1.100730e+00
<GCONST> 1.930517e+02
<TRANSP> 5
 0.000000e+00 1.000000e+00 0.000000e+00 0.000000e+00 0.000000e+00
 0.000000e+00 7.446263e-01 2.553737e-01 0.000000e+00 0.000000e+00
 0.000000e+00 0.000000e+00 6.968040e-01 3.031959e-01 0.000000e+00
 0.000000e+00 0.000000e+00 0.000000e+00 9.268036e-01 7.319645e-02
 0.000000e+00 0.000000e+00 0.000000e+00 0.000000e+00 0.000000e+00
<ENDHMM>
~h "th"
<BEGINHMM>
<NUMSTATES> 5
<STATE> 2
<MEAN> 39
 -2.227971e+01 1.059316e+00 4.858176e+00 7.023540e+00 -3.988802e+00 2.349687e-01 -3.085732e+00 -4.077933e-01 -4.498546e+00 2.848622e+00 -2.479359e+00 4.581917e+00 8.537652e+01 -1.500363e+00 -9.512507e-01 -8.206664e-01 -6.252165e-01 -7.557209e-01 -3.307258e-01 -6.722969e-01 1.048494e-01 8.913911e-02 -2.759203e-01 1.431659e-01 1.279004e-01 1.566919e+00 9.319095e-01 -2.713293e-01 5.321276e-01 -1.252503e-01 8.723930e-02 -2.812660e-01 -1.842736e-03 -7.471657e-02 -4.435299e-02 1.441583e-01 -1.893450e-02 4.886681e-02 1.014530e+00
<VARIANCE> 39
 2.847079e+02 1.654642e+02 2.204144e+02 1.857712e+02 1.919107e+02 2.014754e+02 2.085449e+02 1.932378e+02 1.968275e+02 1.633258e+02 1.511964e+02 1.465204e+02 6.867850e+02 3.468767e+01 1.872232e+01 2.707207e+01 2.426232e+01 2.170660e+01 2.408846e+01 2.495753e+01 2.254144e+01 2.418619e+01 1.997039e+01 1.907057e+01 1.860102e+01 8.202617e+01 4.032548e+00 3.746808e+00 4.732903e+00 4.745279e+00 4.500312e+00 4.618030e+00 4.716329e+00 4.325921e+00 4.520757e+00 3.993743e+00 3.891241e+00 3.802131e+00 1.158128e+01
<GCONST> 2.030678e+02
<STATE> 3
<MEAN> 39
 -1.891365e+01 -3.862897e+00 8.286501e+00 4.678091e+00 -5.862192e+00 -2.775021e+00 -4.389361e+00 -9.053069e-01 -4.118039e+00 3.246996e+00 -2.718676e+00 5.380714e+00 1.044813e+02 3.836103e+00 -1.629754e+00 1.994707e+00 7.220389e-01 1.162545e+00 -1.422047e+00 -9.069017e-01 -2.114985e-01 8.279301e-03 3.097700e-01 2.144328e-01 9.637642e-02 4.302870e+00 1.534361e+00 -1.909669e-01 2.303393e-01 5.926915e-01 9.568179e-01 -3.275772e-01 -4.100043e-01 1.335462e-02 -2.003939e-01 6.293571e-02 6.230575e-02 -9.789385e-02 -5.679402e-01
<VARIANCE> 39
 3.951508e+02 1.767854e+02 2.660103e+02 2.195537e+02 2.289687e+02 2.256386e+02 2.315108e+02 2.017761e+02 1.945290e+02 1.720555e+02 1.677876e+02 1.710097e+02 4.780682e+02 5.204750e+01 2.000388e+01 4.227921e+01 3.318509e+01 3.294434e+01 3.098932e+01 3.315227e+01 2.558876e+01 2.474943e+01 2.303786e+01 2.129516e+01 2.150559e+01 6.433398e+01 5.532977e+00 4.139266e+00 8.799117e+00 6.573070e+00 5.837327e+00 6.004770e+00 6.823278e+00 5.312127e+00 4.990820e+00 4.977132e+00 4.652473e+00 4.545930e+00 1.201054e+01
<GCONST> 2.098524e+02
<STATE> 4
<MEAN> 39
 1.146605e+01 -1.235863e+01 1.615520e+01 1.181839e+01 1.003735e+01 -1.616702e+01 -1.337518e+01 -2.152718e+00 -8.087159e+00 2.948661e+00 -2.394317e+00 5.429108e+00 1.179323e+02 4.906955e+00 -1.516331e+00 1.557528e+00 9.687091e-01 2.362309e+00 -2.293249e+00 -1.774230e+00 1.548951e-01 -1.269514e+00 -2.910242e-01 -9.617682e-02 -1.365878e-01 1.986260e+00 -8.133636e-01 1.498628e-01 4.456430e-02 -4.715061e-01 -4.364193e-01 2.773479e-01 2.054726e-01 1.959650e-02 -1.251715e-01 -2.461097e-02 -7.959442e-02 -5.966150e-03 -2.786892e-01
<VARIANCE> 39
 6.961412e+02 1.951311e+02 5.522170e+02 2.851907e+02 5.610396e+02 7.665205e+02 7.077884e+02 4.054008e+02 2.880376e+02 2.601141e+02 1.827841e+02 2.029030e+02 2.400163e+02 6.507577e+01 2.061714e+01 6.787685e+01 3.655622e+01 6.860825e+01 6.647686e+01 7.226918e+01 4.599152e+01 3.257129e+01 2.796674e+01 2.201368e+01 1.924480e+01 1.982131e+01 8.906029e+00 3.922215e+00 1.197772e+01 7.030303e+00 1.102417e+01 1.167588e+01 1.209715e+01 8.602829e+00 6.268037e+00 5.093760e+00 4.402361e+00 3.865117e+00 4.325975e+00
<GCONST> 2.208822e+02
<TRANSP> 5
 0.000000e+00 1.000000e+00 0.000000e+00 0.000000e+00 0.000000e+00
 0.000000e+00 8.018517e-01 1.981484e-01 0.000000e+00 0.000000e+00
 0.000000e+00 0.000000e+00 6.910162e-01 3.089838e-01 0.000000e+00
 0.000000e+00 0.000000e+00 0.000000e+00 8.434912e-01 1.565088e-01
 0.000000e+00 0.000000e+00 0.000000e+00 0.000000e+00 0.000000e+00
<ENDHMM>
~h "uw"
<BEGINHMM>
<NUMSTATES> 5
<STATE> 2
<MEAN> 39
 -5.427085e+00 -6.734271e+00 4.245466e+01 6.175848e+00 -4.137572e+00 -1.780849e+01 -3.492924e+00 2.088747e+00 -1.544690e+01 2.788756e+00 -8.179968e+00 8.174147e+00 1.266333e+02 5.768376e+00 -1.263144e+00 3.147793e+00 1.986458e+00 1.073334e+00 -2.088230e-01 -2.361075e+00 3.359443e-01 -1.057771e+00 1.944431e-01 -6.929160e-01 -9.182515e-01 1.449074e+00 -4.320431e-01 6.939766e-02 -7.647423e-01 -5.193380e-01 6.382771e-02 2.812080e-01 -3.188303e-01 -2.322172e-01 -3.418379e-02 -1.264857e-02 1.984890e-01 -1.884948e-01 -9.100186e-02
<VARIANCE> 39
 5.059524e+02 1.812736e+02 3.912622e+02 2.921585e+02 1.943988e+02 3.438070e+02 7.245693e+02 5.198365e+02 3.555576e+02 2.790286e+02 2.514313e+02 3.894095e+02 2.700335e+02 3.964019e+01 1.197453e+01 2.820276e+01 2.056678e+01 1.652294e+01 2.795498e+01 3.250465e+01 2.007076e+01 2.524664e+01 2.169415e+01 2.022217e+01 2.272002e+01 1.998955e+01 7.734312e+00 2.111922e+00 3.244413e+00 3.176505e+00 2.632631e+00 4.464812e+00 5.144825e+00 3.181959e+00 4.154460e+00 3.627929e+00 3.170849e+00 3.111886e+00 4.285684e+00
<GCONST> 2.047105e+02
<STATE> 3
<MEAN> 39
 8.419804e+00 -9.145866e+00 4.689505e+01 9.395237e+00 -3.336347e-01 -1.625319e+01 -1.125972e+01 1.239913e+00 -1.900618e+01 3.207280e+00 -8.875018e+00 4.200815e+00 1.293647e+02 1.838441e+00 -1.303934e-01 -4.551278e-01 4.515676e-01 1.119256e+00 6.060160e-01 -1.326361e+00 -2.947440e-01 -1.873736e-01 1.989264e-01 -4.841509e-02 -7.372659e-01 -2.230272e-01 -9.655707e-01 3.084323e-01 -8.268893e-01 -2.919121e-01 -5.457881e-02 2.464388e-01 4.458228e-01 -1.073676e-01 2.999370e-01 3.879650e-02 1.633288e-01 9.159825e-02 -5.448661e-01
<VARIANCE> 39
 1.800023e+02 2.034608e+02 3.420193e+02 3.470997e+02 2.566959e+02 4.925403e+02 9.229535e+02 6.117063e+02 4.601446e+02 3.883721e+02 3.202407e+02 5.936719e+02 2.947608e+02 2.198997e+01 1.090387e+01 1.944012e+01 1.396492e+01 1.380092e+01 2.344353e+01 2.587626e+01 1.942955e+01 2.140528e+01 1.960904e+01 1.754006e+01 1.932776e+01 1.473519e+01 3.070252e+00 1.788193e+00 2.209252e+00 2.465719e+00 2.270793e+00 3.463316e+00 3.963572e+00 3.163929e+00 3.503365e+00 3.258539e+00 2.860708e+00 2.979887e+00 1.987453e+00
<GCONST> 1.996897e+02
<STATE> 4
<MEAN> 39
 1.139795e+01 -2.161860e+00 3.146450e+01 8.741388e+00 6.334121e+00 -5.706520e+00 -6.760788e+00 -2.854394e+00 -1.525032e+01 5.513725e+00 -7.724079e+00 2.268602e+00 1.128399e+02 -7.762452e-01 5.292355e-01 -2.026369e+00 -2.135109e-02 4.060529e-01 1.130625e+00 7.682394e-01 -1.046398e-01 8.245546e-01 6.808604e-02 1.989238e-01 -9.395660e-02 -2.281207e+00 -3.075117e-01 3.318921e-02 -1.174237e-01 -7.302022e-02 -1.711676e-01 -5.946681e-02 7.358085e-02 4.154345e-02 6.753201e-02 -5.273878e-02 5.623294e-02 6.540552e-02 -1.014504e-01
<VARIANCE> 39
 1.872826e+02 2.464914e+02 5.206484e+02 3.271913e+02 3.045742e+02 6.937895e+02 7.718939e+02 5.152358e+02 5.533793e+02 4.112138e+02 3.612147e+02 5.376290e+02 6.358477e+02 1.162690e+01 1.156224e+01 1.148924e+01 1.272486e+01 1.484719e+01 2.161575e+01 2.248854e+01 2.068901e+01 2.153153e+01 1.781005e+01 1.735229e+01 1.672267e+01 7.115994e+00 1.443237e+00 1.815530e+00 1.673824e+00 2.113461e+00 2.192511e+00 3.158830e+00 3.290743e+00 3.241475e+00 3.382139e+00 2.919570e+00 2.916098e+00 2.686927e+00 9.504732e-01
<GCONST> 1.967930e+02
<TRANSP> 5
 0.000000e+00 1.000000e+00 0.000000e+00 0.000000e+00 0.000000e+00
 0.000000e+00 7.198291e-01 2.801709e-01 0.000000e+00 0.000000e+00
 0.000000e+00 0.000000e+00 6.883303e-01 3.116697e-01 0.000000e+00
 0.000000e+00 0.000000e+00 0.000000e+00 9.150443e-01 8.495567e-02
 0.000000e+00 0.000000e+00 0.000000e+00 0.000000e+00 0.000000e+00
<ENDHMM>
~h "sil"
<BEGINHMM>
<NUMSTATES> 5
<STATE> 2
<MEAN> 39
 -1.319500e+01 -1.332583e+00 8.785414e-01 6.648678e+00 1.686127e-01 9.056403e-02 3.648780e+00 5.643675e+00 -9.528943e-01 4.023885e-01 -3.740560e+00 1.149377e+00 6.386417e+01 -4.169493e-01 7.361991e-01 -1.538485e-01 3.064021e-02 2.549280e-02 2.848633e-02 -3.135911e-01 -1.687084e-01 6.134107e-02 1.651228e-02 2.506042e-01 -2.370870e-02 -1.124660e+00 6.438606e-03 6.808871e-02 1.031177e-01 1.292747e-02 3.485500e-02 4.115616e-02 3.157426e-02 -1.593512e-02 2.255244e-02 5.975854e-02 3.322984e-02 4.621594e-02 5.962075e-02
<VARIANCE> 39
 1.060792e+02 1.475189e+02 1.403647e+02 1.285710e+02 1.488268e+02 1.812113e+02 1.990629e+02 2.096638e+02 1.906559e+02 1.880742e+02 1.572709e+02 1.394404e+02 1.436101e+02 2.456476e+00 4.284078e+00 5.437245e+00 6.870536e+00 8.223078e+00 1.020530e+01 1.159543e+01 1.261690e+01 1.242683e+01 1.234153e+01 1.170342e+01 1.073035e+01 1.941098e+00 3.621792e-01 6.421683e-01 9.191160e-01 1.190415e+00 1.444953e+00 1.769423e+00 2.037108e+00 2.216338e+00 2.228893e+00 2.192242e+00 2.090092e+00 1.935102e+00 1.996984e-01
<GCONST> 1.657968e+02
<STATE> 3
<MEAN> 39
 -2.279837e+01 4.621119e+00 -3.330938e-01 3.930414e+00 -2.149162e+00 -1.855419e+00 -2.817786e+00 -1.219570e-01 -1.438873e+00 1.351124e+00 3.738220e-01 2.169815e+00 5.053881e+01 -2.743507e-01 1.480459e-01 7.701670e-02 -3.508535e-02 -3.543781e-02 -2.481831e-02 -1.616970e-01 -1.906736e-01 -2.278108e-02 1.126162e-01 1.268627e-01 5.818647e-02 -2.551247e-01 5.172536e-02 -6.472085e-02 1.289294e-02 7.236970e-03 8.179327e-03 1.125532e-02 4.105743e-02 3.549927e-02 -4.853491e-03 -3.314642e-03 -3.619596e-02 -5.162904e-03 1.211794e-01
<VARIANCE> 39
 5.549660e+01 4.971885e+01 5.251476e+01 6.502599e+01 8.334224e+01 1.038716e+02 1.239607e+02 1.236948e+02 1.121771e+02 1.050827e+02 1.010760e+02 8.878925e+01 4.096947e+01 1.928352e+00 2.962384e+00 3.833994e+00 5.028492e+00 6.449769e+00 7.846102e+00 9.288877e+00 1.002995e+01 1.002454e+01 9.894787e+00 9.664536e+00 8.614874e+00 1.550804e+00 3.444478e-01 5.634769e-01 7.675174e-01 1.014992e+00 1.303228e+00 1.574882e+00 1.849777e+00 1.996181e+00 2.017083e+00 1.990497e+00 1.947867e+00 1.745025e+00 2.722964e-01
<GCONST> 1.526963e+02
<STATE> 4
<MEAN> 39
 -2.244168e+01 -7.556767e-01 8.123626e-01 2.263665e+00 -3.249844e+00 -2.636960e+00 -3.629495e+00 4.524304e-01 -3.561661e+00 1.949811e+00 -9.429331e-01 2.375872e+00 6.534016e+01 -1.235580e-01 -1.512547e-01 5.054208e-02 5.265267e-02 -2.853551e-02 1.331501e-01 8.365608e-02 7.325084e-02 -4.468465e-02 1.421828e-01 -1.052562e-01 4.772894e-02 8.859648e-01 9.288131e-02 -2.121354e-02 7.224700e-02 -2.357384e-02 1.373847e-02 -4.701690e-03 2.259584e-02 1.054621e-02 -2.887869e-03 8.453168e-03 -2.971180e-02 1.438275e-02 3.329743e-01
<VARIANCE> 39
 2.223864e+02 1.614706e+02 1.835389e+02 1.522789e+02 1.508878e+02 1.688611e+02 1.876115e+02 1.794872e+02 1.749140e+02 1.540588e+02 1.416730e+02 1.223547e+02 5.750941e+02 9.721881e+00 1.053310e+01 1.035624e+01 1.091449e+01 1.195765e+01 1.356300e+01 1.501313e+01 1.480983e+01 1.418805e+01 1.344656e+01 1.300572e+01 1.120807e+01 1.668340e+01 1.849069e+00 1.978648e+00 1.881835e+00 2.053138e+00 2.242448e+00 2.525655e+00 2.766953e+00 2.740213e+00 2.618033e+00 2.506169e+00 2.397612e+00 2.092655e+00 3.226751e+00
<GCONST> 1.832620e+02
<TRANSP> 5
 0.000000e+00 1.000000e+00 0.000000e+00 0.000000e+00 0.000000e+00
 0.000000e+00 8.655897e-01 1.344104e-01 0.000000e+00 0.000000e+00
 0.000000e+00 0.000000e+00 9.111697e-01 8.883028e-02 0.000000e+00
 0.000000e+00 0.000000e+00 0.000000e+00 8.366151e-01 1.633849e-01
 0.000000e+00 0.000000e+00 0.000000e+00 0.000000e+00 0.000000e+00
<ENDHMM>
