~o
<STREAMINFO> 1 39
<VECSIZE> 39<NULLD><MFCC_D_A_0><DIAGC>
~v "varFloor1"
<VARIANCE> 39
 6.754285e+00 3.412382e+00 5.608406e+00 4.796288e+00 3.472278e+00 4.011306e+00 4.413544e+00 3.617784e+00 3.683816e+00 3.040248e+00 2.640156e+00 2.509632e+00 1.299030e+01 2.278168e-01 1.545930e-01 2.184475e-01 2.118017e-01 1.813441e-01 2.097645e-01 2.257998e-01 2.166213e-01 2.009591e-01 1.748390e-01 1.664857e-01 1.534652e-01 2.729186e-01 3.005252e-02 2.352007e-02 2.950203e-02 3.333135e-02 2.970526e-02 3.527972e-02 3.796952e-02 3.764049e-02 3.477431e-02 3.067440e-02 2.924915e-02 2.697382e-02 3.680100e-02
~s "silst"
<NUMMIXES> 8
<MIXTURE> 1 6.744980e-02
<MEAN> 39
 -1.883468e+01 9.546320e+00 4.566592e+00 9.909835e+00 4.266955e+00 4.899366e+00 4.051762e+00 5.693676e+00 2.662406e+00 3.450721e+00 1.268339e+00 2.596736e+00 5.153612e+01 2.382565e-01 7.039205e-01 9.459192e-01 1.066698e+00 1.172188e+00 1.269022e+00 1.159616e+00 1.004917e+00 1.043507e+00 1.020867e+00 9.171491e-01 5.800951e-01 1.960248e-02 7.219591e-02 -9.754297e-02 -3.624380e-02 -5.255523e-02 -5.926964e-02 -4.214667e-02 -9.082066e-03 -2.854817e-02 -1.704253e-02 1.824148e-02 -3.471923e-02 5.500227e-03 1.332218e-01
<VARIANCE> 39
 3.120433e+01 4.504353e+01 5.159021e+01 6.184557e+01 7.475677e+01 8.934098e+01 9.915995e+01 1.106050e+02 1.104376e+02 1.085236e+02 1.102029e+02 9.529505e+01 1.555710e+01 1.821783e+00 2.362033e+00 3.614831e+00 4.926960e+00 6.058027e+00 7.385936e+00 9.163101e+00 9.712769e+00 1.008156e+01 9.919419e+00 1.009244e+01 9.192072e+00 8.909209e-01 3.060833e-01 4.593318e-01 6.900780e-01 9.415718e-01 1.196056e+00 1.508848e+00 1.750177e+00 1.933323e+00 1.999458e+00 1.984027e+00 1.999270e+00 1.824679e+00 1.466981e-01
<GCONST> 1.483156e+02
<MIXTURE> 2 1.335763e-01
<MEAN> 39
 -2.590382e+01 4.709404e+00 -1.340120e+00 1.673352e+00 -5.051959e+00 -5.497605e+00 -7.379698e+00 -3.859602e+00 -2.792245e+00 1.362628e+00 2.018038e+00 3.342568e+00 4.753199e+01 2.486019e-01 3.919816e-01 5.243663e-01 6.300437e-01 6.946452e-01 7.570201e-01 7.626466e-01 7.121150e-01 7.168404e-01 7.562603e-01 6.871939e-01 5.184696e-01 1.066677e-01 2.359508e-01 1.078052e-01 1.916654e-01 2.849913e-01 3.711214e-01 4.683599e-01 5.441382e-01 4.760784e-01 2.813462e-01 1.303834e-01 -4.412909e-02 -2.900766e-02 2.004160e-01
<VARIANCE> 39
 1.932462e+01 2.064298e+01 2.772535e+01 3.715876e+01 4.950202e+01 6.375179e+01 7.661889e+01 8.111467e+01 8.076181e+01 7.945472e+01 7.757613e+01 7.084362e+01 1.299030e+01 9.022705e-01 1.534217e+00 2.746777e+00 3.845632e+00 4.952096e+00 6.089973e+00 7.398294e+00 8.129717e+00 8.501241e+00 8.460746e+00 8.153165e+00 7.642347e+00 3.946195e-01 2.147688e-01 3.406219e-01 5.830206e-01 8.209507e-01 1.033110e+00 1.245709e+00 1.517411e+00 1.659616e+00 1.675018e+00 1.696747e+00 1.665848e+00 1.522510e+00 1.097606e-01
<GCONST> 1.365912e+02
<MIXTURE> 3 1.236911e-01
<MEAN> 39
 -2.620428e+01 4.968354e+00 -1.248231e+00 1.476728e+00 -5.263200e+00 -5.441617e+00 -7.212665e+00 -3.627775e+00 -2.497082e+00 1.530484e+00 2.098040e+00 3.210562e+00 4.717731e+01 -1.723042e-01 -1.210247e-01 -1.300131e-01 -2.080965e-01 -2.499080e-01 -2.550709e-01 -2.776417e-01 -2.087670e-01 -8.373734e-02 -2.132643e-02 4.920886e-02 1.085973e-01 -7.953966e-02 1.116594e-01 4.473533e-02 1.176617e-01 1.961726e-01 2.409044e-01 2.414383e-01 2.604551e-01 2.580829e-01 1.872882e-01 1.375704e-01 7.884186e-02 7.040302e-02 1.040209e-01
<VARIANCE> 39
 1.347933e+01 1.684090e+01 2.385844e+01 3.242746e+01 4.500433e+01 5.743884e+01 6.760320e+01 7.287957e+01 7.344448e+01 7.231261e+01 7.002551e+01 6.490879e+01 1.299030e+01 7.349926e-01 1.432355e+00 2.557689e+00 3.637987e+00 4.825315e+00 5.893579e+00 7.035233e+00 7.838484e+00 7.964440e+00 7.813994e+00 7.687737e+00 7.098102e+00 3.105366e-01 1.303734e-01 2.691683e-01 4.785618e-01 6.947079e-01 9.127419e-01 1.105444e+00 1.306378e+00 1.461282e+00 1.532405e+00 1.525617e+00 1.502226e+00 1.393167e+00 6.128656e-02
<GCONST> 1.312775e+02
<MIXTURE> 4 1.651772e-01
<MEAN> 39
 -2.377993e+01 5.059211e+00 2.747383e-02 5.365253e+00 1.191792e+00 2.686126e+00 1.787187e+00 4.218608e+00 2.180555e+00 3.234052e+00 1.408751e+00 2.749385e+00 4.919775e+01 -4.541184e-01 6.863663e-02 1.618185e-01 -2.386883e-02 -9.268569e-02 -1.428822e-01 -2.994374e-01 -2.805367e-01 7.768769e-02 5.109744e-01 6.245242e-01 4.785925e-01 -3.046065e-01 2.203548e-01 -1.059991e-01 6.814340e-02 1.422118e-02 -9.666189e-02 -1.718121e-01 -8.422393e-02 -6.393623e-02 -1.237714e-01 -1.796783e-02 -2.257066e-02 6.257161e-02 3.519887e-01
<VARIANCE> 39
 4.234342e+01 4.179686e+01 4.867389e+01 5.807174e+01 7.172117e+01 9.067250e+01 1.080240e+02 1.138352e+02 1.147644e+02 1.114498e+02 1.084644e+02 9.564600e+01 1.988238e+01 1.980855e+00 2.556939e+00 3.752221e+00 4.946988e+00 6.233747e+00 7.706070e+00 9.172000e+00 1.014101e+01 1.022031e+01 1.028404e+01 1.012092e+01 9.038352e+00 1.141877e+00 4.378994e-01 6.298038e-01 8.563922e-01 1.088475e+00 1.337216e+00 1.623652e+00 1.933807e+00 2.140016e+00 2.190569e+00 2.225446e+00 2.183222e+00 1.946200e+00 3.878189e-01
<GCONST> 1.521659e+02
<MIXTURE> 5 1.803050e-01
<MEAN> 39
 -2.724694e+01 3.798817e+00 -2.479410e+00 1.781074e-01 -6.862309e+00 -7.462121e+00 -9.581677e+00 -5.848400e+00 -4.256594e+00 2.081666e-01 1.146126e+00 2.484584e+00 4.664413e+01 -1.041341e-01 -2.915018e-02 -2.477828e-02 -5.048522e-02 -7.338915e-02 -7.840127e-02 -1.458912e-01 -1.741353e-01 -1.315825e-01 -7.330117e-02 -1.065390e-01 -1.487345e-01 -7.327205e-02 7.984562e-02 -1.971296e-02 2.649401e-02 6.717055e-02 1.324216e-01 1.917398e-01 2.431483e-01 2.081970e-01 6.268975e-02 -3.517521e-02 -1.481996e-01 -1.126649e-01 1.071505e-01
<VARIANCE> 39
 1.512271e+01 1.912305e+01 2.612407e+01 3.515196e+01 4.735359e+01 6.077599e+01 7.224640e+01 7.756932e+01 7.789512e+01 7.668397e+01 7.403902e+01 6.796384e+01 1.299030e+01 7.446288e-01 1.415747e+00 2.543342e+00 3.621207e+00 4.748929e+00 5.845800e+00 7.020353e+00 7.782517e+00 8.069849e+00 8.004903e+00 7.838716e+00 7.239229e+00 3.364471e-01 1.753711e-01 3.133534e-01 5.375856e-01 7.765968e-01 1.000046e+00 1.203121e+00 1.444253e+00 1.598464e+00 1.625853e+00 1.628733e+00 1.603903e+00 1.466664e+00 9.284789e-02
<GCONST> 1.339599e+02
<MIXTURE> 6 1.324733e-01
<MEAN> 39
 -2.541944e+01 3.848314e+00 -1.513894e+00 3.314553e+00 -1.055387e+00 2.279607e-01 -1.017281e+00 1.687832e+00 1.174659e-01 1.676688e+00 3.428555e-01 1.970933e+00 4.828257e+01 -8.729171e-01 -3.733608e-01 -4.204605e-01 -7.768672e-01 -9.494606e-01 -1.079366e+00 -1.337882e+00 -1.356508e+00 -9.251962e-01 -4.771464e-01 -3.309992e-01 -2.860393e-01 -5.399221e-01 8.236575e-02 -2.538318e-01 -1.180103e-01 -1.999420e-01 -3.167669e-01 -4.084210e-01 -3.318164e-01 -2.810176e-01 -3.170937e-01 -2.007670e-01 -1.582373e-01 -5.093920e-02 2.828003e-01
<VARIANCE> 39
 3.615605e+01 3.820088e+01 4.631506e+01 5.413043e+01 6.862939e+01 8.758051e+01 1.049777e+02 1.097078e+02 1.119349e+02 1.074482e+02 1.041851e+02 9.303721e+01 1.732367e+01 1.991889e+00 2.652511e+00 3.856258e+00 4.987245e+00 6.354009e+00 7.882174e+00 9.398833e+00 1.036522e+01 1.033465e+01 1.039801e+01 1.011201e+01 8.921260e+00 1.177731e+00 4.202608e-01 6.387373e-01 8.740006e-01 1.108255e+00 1.347450e+00 1.613860e+00 1.940798e+00 2.145917e+00 2.197136e+00 2.234730e+00 2.178998e+00 1.921451e+00 3.792732e-01
<GCONST> 1.515808e+02
<MIXTURE> 7 7.193562e-02
<MEAN> 39
 -2.708176e+01 4.203786e+00 -2.320046e+00 1.152986e-01 -6.850494e+00 -7.069239e+00 -8.975244e+00 -5.285765e+00 -3.993006e+00 3.055338e-01 1.074073e+00 2.310982e+00 4.656349e+01 -4.637082e-01 -5.124177e-01 -6.288421e-01 -8.330857e-01 -9.695542e-01 -1.012322e+00 -1.076590e+00 -1.024121e+00 -8.876886e-01 -8.557810e-01 -7.970982e-01 -5.786229e-01 -2.193840e-01 1.666317e-02 -4.714984e-02 8.144038e-03 5.182764e-02 7.705324e-02 5.307953e-02 5.870328e-02 6.613779e-02 3.010303e-02 -4.580053e-03 -4.696526e-02 -3.002106e-02 5.041349e-02
<VARIANCE> 39
 1.152568e+01 1.641626e+01 2.303607e+01 3.117631e+01 4.340026e+01 5.496482e+01 6.401577e+01 6.965675e+01 7.144308e+01 7.012038e+01 6.837292e+01 6.375302e+01 1.299030e+01 7.179266e-01 1.453143e+00 2.541346e+00 3.644842e+00 4.820618e+00 5.864679e+00 6.983337e+00 7.880445e+00 7.828117e+00 7.677934e+00 7.679500e+00 6.970886e+00 3.027564e-01 1.199236e-01 2.640581e-01 4.738260e-01 6.712276e-01 8.948769e-01 1.103464e+00 1.286754e+00 1.435601e+00 1.499672e+00 1.489979e+00 1.497834e+00 1.378706e+00 5.706328e-02
<GCONST> 1.303082e+02
<MIXTURE> 8 1.252178e-01
<MEAN> 39
 -2.144698e+01 6.802750e+00 1.613977e+00 6.637096e+00 1.036823e+00 1.558272e+00 5.434735e-01 2.646134e+00 -1.419797e-04 1.032033e+00 -5.405927e-01 1.182918e+00 5.045021e+01 -2.516640e-01 1.894548e-01 2.789862e-01 2.363497e-01 2.549583e-01 2.644764e-01 7.340138e-02 -6.746752e-02 -9.397475e-03 5.889280e-02 -5.272543e-02 -1.948308e-01 -2.290535e-01 -1.069759e-01 -2.908787e-01 -2.805791e-01 -3.359335e-01 -3.766264e-01 -3.838442e-01 -3.605054e-01 -3.358763e-01 -2.882979e-01 -1.927864e-01 -1.778145e-01 -9.533929e-02 4.924084e-02
<VARIANCE> 39
 3.476197e+01 4.181153e+01 4.996673e+01 6.011666e+01 7.330286e+01 8.984927e+01 1.020914e+02 1.116330e+02 1.146819e+02 1.110993e+02 1.097468e+02 9.676746e+01 1.687888e+01 1.765726e+00 2.284456e+00 3.537470e+00 4.777546e+00 5.974277e+00 7.348424e+00 8.954445e+00 9.690888e+00 9.946870e+00 9.992918e+00 1.011337e+01 9.080436e+00 9.254072e-01 2.885056e-01 4.513010e-01 6.906304e-01 9.472405e-01 1.198111e+00 1.480938e+00 1.744803e+00 1.936895e+00 2.009013e+00 2.016358e+00 2.012426e+00 1.816872e+00 1.531951e-01
<GCONST> 1.483059e+02
~h "f"
<BEGINHMM>
<NUMSTATES> 5
<STATE> 2
<NUMMIXES> 8
<MIXTURE> 1 8.506212e-02
<MEAN> 39
 -3.218589e+01 -1.223282e+01 1.820990e-01 4.014361e+00 -2.340605e+00 -1.499105e-01 -6.342553e+00 1.173352e+00 -4.938926e+00 3.257836e+00 -3.920527e+00 2.244512e+00 8.903128e+01 6.310523e-02 -4.322048e-02 4.502645e-01 8.734885e-01 1.466601e+00 2.211867e+00 2.103049e+00 1.832131e+00 1.652647e+00 1.795229e+00 1.351268e+00 8.076876e-01 8.465707e-01 1.607838e+00 3.739347e-01 1.965944e-01 -2.665951e-01 3.339060e-01 2.317657e-01 4.586638e-01 1.492739e-01 3.196917e-01 4.145276e-01 2.170884e-01 1.372206e-01 9.284868e-01
<VARIANCE> 39
 1.219837e+02 1.119459e+02 7.098822e+01 7.446024e+01 8.403889e+01 1.053092e+02 1.146961e+02 1.136077e+02 1.245966e+02 1.176221e+02 1.154343e+02 1.075971e+02 3.640642e+02 9.674401e+00 7.460339e+00 6.643909e+00 7.422405e+00 8.449383e+00 1.012443e+01 1.025995e+01 1.172341e+01 1.162631e+01 1.148561e+01 1.156778e+01 1.019299e+01 2.399800e+01 3.990928e+00 1.864689e+00 1.544371e+00 2.099147e+00 1.840492e+00 2.227690e+00 2.370791e+00 2.403069e+00 2.455594e+00 2.612319e+00 2.600703e+00 2.170603e+00 4.161480e+00
<GCONST> 1.748600e+02
<MIXTURE> 2 9.214818e-02
<MEAN> 39
 -3.050376e+01 -1.100645e+01 3.188795e+00 6.883105e+00 1.407474e+00 2.272479e+00 -3.552594e+00 4.765562e+00 -1.988121e-01 7.840735e+00 -1.237591e+00 4.110880e+00 8.962160e+01 -1.041293e+00 -1.791943e+00 -1.187347e+00 -7.799009e-01 -2.841180e-01 2.285391e-01 -4.826871e-01 4.588978e-02 5.021756e-01 9.410087e-01 8.183267e-01 7.495198e-01 1.695843e+00 2.206867e+00 6.888061e-01 2.379462e-01 -6.396755e-01 -8.793529e-02 6.339144e-02 3.218896e-01 -2.884418e-01 -4.840660e-01 -1.646691e-01 -2.172357e-01 -1.421610e-01 9.991640e-01
<VARIANCE> 39
 1.395169e+02 1.231166e+02 1.103942e+02 1.122554e+02 1.397057e+02 1.553321e+02 1.651702e+02 1.578089e+02 1.667181e+02 1.602171e+02 1.425804e+02 1.309907e+02 3.593554e+02 2.489671e+01 1.234352e+01 1.160533e+01 1.247558e+01 1.182952e+01 1.380505e+01 1.340220e+01 1.406010e+01 1.386051e+01 1.436078e+01 1.343220e+01 1.207034e+01 4.045977e+01 5.253932e+00 2.601590e+00 3.056395e+00 3.951436e+00 3.474793e+00 3.436774e+00 4.019018e+00 3.740085e+00 4.038930e+00 3.844198e+00 3.544974e+00 2.871300e+00 4.577283e+00
<GCONST> 1.889193e+02
<MIXTURE> 3 2.427342e-01
<MEAN> 39
 -3.485080e+01 -1.614202e+01 -2.228173e+00 2.140140e+00 -3.390549e+00 -6.518479e-01 -7.472343e+00 -1.447108e-02 -5.548687e+00 4.137155e+00 -3.287766e+00 3.048072e+00 9.173085e+01 -2.438150e-01 -2.293316e-01 -2.551733e-01 -1.742930e-01 8.906668e-02 3.930441e-01 4.593674e-03 -1.119890e-01 -2.384366e-01 -1.028941e-02 5.868011e-02 1.067893e-01 1.185338e+00 1.255953e+00 5.212253e-01 4.566153e-01 2.779120e-01 5.023643e-01 3.307473e-01 5.373198e-01 3.225241e-01 3.437704e-01 2.413310e-01 1.610368e-01 1.153055e-01 5.276908e-01
<VARIANCE> 39
 7.889375e+01 7.638309e+01 5.963575e+01 6.259708e+01 7.195094e+01 8.486231e+01 9.487587e+01 9.923473e+01 9.986425e+01 9.672664e+01 9.569428e+01 8.575674e+01 2.803635e+02 5.382533e+00 4.795043e+00 4.816977e+00 5.916654e+00 6.795250e+00 7.931684e+00 9.280339e+00 9.448923e+00 9.636723e+00 9.739493e+00 9.463371e+00 8.883831e+00 1.177989e+01 1.808226e+00 1.170406e+00 1.122684e+00 1.397353e+00 1.555184e+00 1.773010e+00 2.001686e+00 1.983459e+00 1.977357e+00 2.025519e+00 1.961257e+00 1.759224e+00 2.116546e+00
<GCONST> 1.637679e+02
<MIXTURE> 4 8.384104e-02
<MEAN> 39
 -3.222625e+01 -1.510091e+01 2.761083e+00 6.747501e+00 -1.970915e-01 6.251567e-02 -5.268583e+00 2.849149e+00 -2.701659e+00 5.460032e+00 -2.557632e+00 3.770876e+00 9.931673e+01 -4.335382e+00 -3.411232e+00 -3.960407e+00 -3.307724e+00 -3.119950e+00 -2.535028e+00 -3.193481e+00 -1.605955e+00 -7.637122e-01 -4.741051e-01 -1.535577e-01 -1.351888e-01 2.823885e-02 2.913080e+00 1.334501e+00 1.027899e+00 -7.807619e-02 4.622196e-01 4.850912e-01 8.873485e-01 -2.043669e-01 -3.162125e-01 2.077082e-01 -1.065628e-01 2.024544e-01 4.177273e-01
<VARIANCE> 39
 8.613702e+01 7.630099e+01 9.518974e+01 1.025756e+02 1.161751e+02 1.373193e+02 1.329222e+02 1.422131e+02 1.380118e+02 1.278030e+02 1.178460e+02 1.105804e+02 1.973759e+02 2.173527e+01 1.017383e+01 1.156245e+01 1.146974e+01 1.140336e+01 1.211129e+01 1.284629e+01 1.395204e+01 1.455966e+01 1.354413e+01 1.248008e+01 1.176397e+01 1.560822e+01 2.438444e+00 1.889263e+00 2.913119e+00 4.252167e+00 3.090308e+00 3.220213e+00 3.563622e+00 4.270638e+00 4.161213e+00 3.397819e+00 3.193988e+00 3.168096e+00 1.963735e+00
<GCONST> 1.818437e+02
<MIXTURE> 5 1.973333e-01
<MEAN> 39
 -3.602075e+01 -1.776465e+01 -3.702958e+00 6.923350e-01 -5.047941e+00 -2.178470e+00 -9.157728e+00 -1.923669e+00 -7.104370e+00 2.654681e+00 -4.405309e+00 2.041795e+00 8.892815e+01 -8.243910e-01 -7.582427e-01 -8.022754e-01 -7.982212e-01 -8.230110e-01 -5.697516e-01 -1.136038e+00 -1.143261e+00 -1.362753e+00 -1.114860e+00 -1.034608e+00 -6.761315e-01 1.200854e+00 8.215550e-01 3.257845e-01 1.942349e-01 1.019286e-01 2.366091e-01 8.000735e-02 2.295365e-01 9.906065e-02 1.354914e-01 1.631308e-02 5.529654e-03 -3.020503e-02 3.873335e-01
<VARIANCE> 39
 7.654646e+01 7.744601e+01 5.828650e+01 6.287673e+01 7.156074e+01 8.531786e+01 9.841924e+01 1.014561e+02 1.037232e+02 9.845915e+01 9.771019e+01 8.895518e+01 2.675695e+02 5.126575e+00 5.094127e+00 4.813675e+00 5.989963e+00 6.972430e+00 8.151890e+00 9.534943e+00 9.718843e+00 9.790407e+00 9.849818e+00 9.676983e+00 9.095674e+00 1.118432e+01 1.546327e+00 1.183669e+00 1.056125e+00 1.272758e+00 1.487684e+00 1.759580e+00 2.022188e+00 2.015602e+00 1.992676e+00 2.075481e+00 1.949225e+00 1.788591e+00 2.144287e+00
<GCONST> 1.637412e+02
<MIXTURE> 6 1.372315e-01
<MEAN> 39
 -3.435470e+01 -1.393930e+01 -1.729604e+00 2.838634e+00 -3.957015e+00 -1.652123e+00 -8.485493e+00 -6.847553e-01 -6.675642e+00 1.751867e+00 -5.030643e+00 1.228730e+00 8.549158e+01 -9.167691e-01 -7.313664e-01 -3.094854e-01 1.639699e-02 3.677970e-01 1.080713e+00 7.583378e-01 6.199584e-01 3.537636e-01 5.662653e-01 2.014935e-01 -3.203767e-02 6.593737e-01 1.028991e+00 1.638736e-01 -2.511891e-02 -3.199201e-01 4.938404e-02 -7.039128e-02 1.665785e-01 -5.478685e-02 1.157230e-01 1.233493e-01 4.541400e-02 4.469098e-02 8.127057e-01
<VARIANCE> 39
 1.211825e+02 1.077867e+02 7.178569e+01 7.277670e+01 8.361545e+01 1.028376e+02 1.150557e+02 1.150145e+02 1.215572e+02 1.134294e+02 1.149863e+02 1.021027e+02 3.340486e+02 9.078860e+00 7.547706e+00 6.241372e+00 7.111822e+00 8.317583e+00 9.793722e+00 1.026519e+01 1.124092e+01 1.118519e+01 1.073411e+01 1.088771e+01 9.982189e+00 2.276397e+01 3.396647e+00 1.842021e+00 1.449350e+00 1.788758e+00 1.839447e+00 2.171207e+00 2.314456e+00 2.341241e+00 2.409433e+00 2.434123e+00 2.446804e+00 2.094111e+00 4.093501e+00
<GCONST> 1.734226e+02
<MIXTURE> 7 1.006997e-01
<MEAN> 39
 -3.189087e+01 -1.308121e+01 1.103203e+00 5.001119e+00 -1.030911e-01 3.601245e-01 -5.435561e+00 2.723667e+00 -1.755605e+00 6.469879e+00 -2.185323e+00 3.352052e+00 8.841192e+01 -2.738836e+00 -2.929598e+00 -2.099532e+00 -1.726882e+00 -1.546546e+00 -1.041436e+00 -2.000812e+00 -1.241697e+00 -8.820786e-01 -3.425359e-01 -3.622284e-01 -2.281986e-01 1.047132e+00 1.628974e+00 5.740047e-01 6.447918e-02 -5.023814e-01 -2.933332e-01 -1.602252e-01 5.641166e-02 -4.029960e-01 -6.906397e-01 -4.734534e-01 -3.274721e-01 -2.430252e-01 6.731536e-01
<VARIANCE> 39
 1.268500e+02 1.163550e+02 1.058411e+02 1.134392e+02 1.332045e+02 1.536768e+02 1.636093e+02 1.570485e+02 1.612265e+02 1.513356e+02 1.404088e+02 1.260802e+02 3.466224e+02 2.504004e+01 1.231731e+01 1.149818e+01 1.222252e+01 1.203743e+01 1.349454e+01 1.299735e+01 1.364362e+01 1.407654e+01 1.428168e+01 1.349991e+01 1.218241e+01 3.583815e+01 4.802436e+00 2.454613e+00 2.943877e+00 3.535092e+00 3.340594e+00 3.414379e+00 3.870166e+00 3.655610e+00 3.757580e+00 3.601034e+00 3.434867e+00 2.905097e+00 4.186257e+00
<GCONST> 1.876438e+02
<MIXTURE> 8 6.090818e-02
<MEAN> 39
 -3.328030e+01 -1.582699e+01 1.596014e+00 5.558968e+00 -1.404603e+00 -1.203929e+00 -6.743150e+00 1.450448e+00 -4.363698e+00 4.109725e+00 -3.667963e+00 2.523765e+00 9.906590e+01 -5.798297e+00 -4.462873e+00 -4.893256e+00 -4.279526e+00 -4.614334e+00 -3.913044e+00 -4.768797e+00 -3.026047e+00 -2.362583e+00 -1.997599e+00 -1.484085e+00 -1.231619e+00 -3.959419e-01 2.871995e+00 1.171716e+00 7.535018e-01 -4.055728e-01 2.017475e-01 1.019788e-01 5.973672e-01 -5.232618e-01 -4.980681e-01 5.771871e-02 -2.581381e-01 2.286531e-01 2.910703e-01
<VARIANCE> 39
 7.872511e+01 8.076279e+01 1.017919e+02 1.085453e+02 1.178940e+02 1.418924e+02 1.424699e+02 1.460135e+02 1.406638e+02 1.323559e+02 1.236292e+02 1.126115e+02 1.820755e+02 2.009161e+01 1.066538e+01 1.230448e+01 1.206959e+01 1.169130e+01 1.246284e+01 1.318207e+01 1.416643e+01 1.529578e+01 1.361623e+01 1.281227e+01 1.260027e+01 1.384842e+01 2.826292e+00 2.004723e+00 3.184904e+00 4.523332e+00 3.200458e+00 3.542298e+00 3.631916e+00 4.468726e+00 4.165710e+00 3.459946e+00 3.291193e+00 3.272909e+00 1.801903e+00
<GCONST> 1.828714e+02
<STATE> 3
<NUMMIXES> 8
<MIXTURE> 1 9.424052e-02
<MEAN> 39
 -1.989037e+01 -1.244620e+01 1.890292e+00 4.022960e+00 3.675478e+00 4.551515e+00 -2.332341e+00 3.295927e+00 -3.631949e-01 6.872755e+00 -1.870111e+00 4.108788e+00 1.011822e+02 1.682925e+01 3.838347e+00 7.299274e-01 -8.377078e+00 1.537942e+00 1.335146e+00 4.016347e+00 -2.463014e-01 1.429299e+00 3.644841e+00 -4.337644e-01 1.370162e+00 7.852624e+00 2.042270e+00 -3.173568e-01 -3.621085e-01 -3.625086e+00 -4.499412e-01 -4.657902e-01 4.696216e-01 -3.221555e-01 -8.833408e-02 8.258478e-01 -4.053620e-01 3.830131e-01 1.690923e+00
<VARIANCE> 39
 1.178622e+02 6.975452e+01 6.295983e+01 7.238129e+01 1.014256e+02 1.113334e+02 1.090283e+02 1.052489e+02 1.214196e+02 1.187363e+02 9.657481e+01 9.312080e+01 1.876715e+02 1.435617e+01 3.050402e+01 1.281558e+01 2.638227e+01 1.719763e+01 1.750498e+01 2.123249e+01 1.874162e+01 3.502777e+01 2.254455e+01 2.986050e+01 1.925645e+01 3.224503e+01 3.007336e+00 4.134543e+00 2.140853e+00 3.352288e+00 3.718960e+00 3.418707e+00 3.662282e+00 3.015022e+00 4.647876e+00 3.425107e+00 3.877261e+00 3.149569e+00 3.984014e+00
<GCONST> 1.878972e+02
<MIXTURE> 2 1.495453e-01
<MEAN> 39
 -3.125148e+01 -1.933290e+01 -4.107837e+00 4.362744e-01 -2.377575e+00 -2.955033e-01 -7.408511e+00 -5.899959e-01 -5.768075e+00 4.432753e+00 -3.141914e+00 3.443909e+00 1.047424e+02 9.100657e+00 3.331137e+00 1.545390e+00 -5.956445e-01 1.912347e+00 2.211905e+00 2.878061e+00 1.424697e+00 1.752174e+00 1.765146e+00 9.825416e-01 8.125236e-01 2.945873e+00 4.578443e+00 1.997365e+00 9.579304e-01 -2.500118e+00 -7.164526e-01 2.864034e-01 7.257745e-01 4.388283e-01 -1.563307e-01 5.429349e-01 -5.634483e-02 -1.298689e-01 6.637027e-01
<VARIANCE> 39
 1.043033e+02 5.362645e+01 5.773781e+01 6.643746e+01 7.474572e+01 8.968362e+01 9.371720e+01 9.435055e+01 1.007599e+02 1.007198e+02 1.013907e+02 9.105312e+01 1.606156e+02 1.898728e+01 1.093761e+01 7.107563e+00 1.003192e+01 9.692452e+00 9.498712e+00 1.015443e+01 1.054396e+01 1.181830e+01 1.138301e+01 1.168199e+01 9.687286e+00 2.054807e+01 1.791192e+00 3.480875e+00 2.529443e+00 3.260159e+00 3.710279e+00 3.195066e+00 3.736613e+00 3.490446e+00 4.056818e+00 3.698727e+00 4.618555e+00 3.216308e+00 4.169799e+00
<GCONST> 1.771587e+02
<MIXTURE> 3 1.203016e-01
<MEAN> 39
 -1.998734e+01 -1.492107e+01 -3.278193e+00 -5.976516e-01 -5.708348e-01 1.777084e+00 -4.406222e+00 -3.320675e-01 -4.519641e+00 6.183623e+00 -2.799558e+00 4.448725e+00 1.053822e+02 1.645570e+01 5.530640e+00 3.092156e+00 -6.258631e+00 -2.682184e+00 1.722977e+00 1.567423e+00 2.204121e+00 -5.808015e-01 1.452392e+00 1.859400e+00 -1.186731e+00 5.809790e+00 2.550783e+00 6.115919e-01 9.285358e-01 -2.701644e+00 -1.698243e+00 3.214871e-01 -3.727201e-01 8.559073e-01 -5.908285e-01 4.100196e-01 5.646692e-01 -8.829218e-01 1.175419e+00
<VARIANCE> 39
 1.193829e+02 6.158547e+01 6.201461e+01 7.311161e+01 1.009838e+02 1.209849e+02 1.209017e+02 1.233239e+02 1.149876e+02 1.197694e+02 1.093111e+02 9.899493e+01 1.835241e+02 1.180796e+01 2.588254e+01 1.988256e+01 1.858338e+01 2.471758e+01 1.949585e+01 1.825569e+01 2.274011e+01 2.553481e+01 2.532171e+01 3.149612e+01 1.490913e+01 3.363826e+01 2.472271e+00 4.342389e+00 3.446992e+00 3.558741e+00 5.165237e+00 4.251478e+00 4.656140e+00 4.248613e+00 4.927367e+00 4.780730e+00 5.454551e+00 3.497352e+00 4.319902e+00
<GCONST> 1.905573e+02
<MIXTURE> 4 1.262936e-01
<MEAN> 39
 -3.313250e+01 -1.881564e+01 -4.342096e+00 -1.282239e+00 -5.475749e+00 -2.741179e+00 -1.025007e+01 -3.433897e+00 -9.213645e+00 1.238233e+00 -5.223709e+00 2.216587e+00 1.005359e+02 6.928640e+00 7.261382e-01 4.189654e-02 -1.290368e+00 4.637470e-01 2.320784e-01 6.540824e-01 -1.513059e-01 4.787617e-01 4.452977e-01 -1.556970e-01 2.355784e-01 6.456247e+00 4.397927e+00 1.903837e+00 9.494594e-01 -1.258916e+00 1.862291e-01 8.318267e-01 1.345697e+00 8.750080e-01 8.064299e-01 1.146872e+00 4.026025e-01 1.019314e-02 5.119376e-01
<VARIANCE> 39
 1.215016e+02 6.189396e+01 5.742781e+01 6.675127e+01 7.031050e+01 7.895040e+01 7.956850e+01 8.548375e+01 9.178510e+01 8.709432e+01 8.181716e+01 7.385532e+01 1.997994e+02 1.966541e+01 1.172264e+01 7.148356e+00 8.146079e+00 8.385618e+00 9.541825e+00 1.010394e+01 1.091876e+01 1.162649e+01 1.068412e+01 1.071422e+01 9.591851e+00 3.264317e+01 2.215376e+00 2.706301e+00 2.309798e+00 3.091821e+00 3.193031e+00 2.622770e+00 2.747930e+00 3.012363e+00 3.671922e+00 3.258038e+00 3.538216e+00 2.480458e+00 4.947661e+00
<GCONST> 1.750702e+02
<MIXTURE> 5 1.642596e-01
<MEAN> 39
 -3.287972e+01 -2.071008e+01 -5.559590e+00 -7.044990e-01 -3.655064e+00 -1.593038e+00 -9.129941e+00 -2.486097e+00 -7.558964e+00 3.238934e+00 -4.299838e+00 2.276357e+00 1.027083e+02 7.873379e+00 2.464358e+00 7.054057e-01 -1.358544e+00 8.010707e-01 1.181532e+00 1.737735e+00 4.901515e-01 6.225945e-01 5.075149e-01 -2.652522e-02 -6.613143e-02 2.812707e+00 4.512806e+00 1.950501e+00 1.061149e+00 -2.316324e+00 -7.769541e-01 1.966216e-01 6.064820e-01 4.429856e-01 -2.080188e-01 3.538337e-01 4.960273e-02 -3.100736e-01 7.039837e-01
<VARIANCE> 39
 1.003361e+02 5.429263e+01 5.740779e+01 6.867837e+01 7.708048e+01 9.035091e+01 9.689249e+01 9.722283e+01 1.010216e+02 9.749701e+01 1.029277e+02 8.773354e+01 1.572546e+02 2.036137e+01 1.061203e+01 7.090298e+00 9.360471e+00 9.337561e+00 9.165859e+00 9.903586e+00 1.023726e+01 1.147229e+01 1.082106e+01 1.117642e+01 9.456726e+00 1.935753e+01 1.747266e+00 3.110440e+00 2.416169e+00 3.159497e+00 3.570272e+00 3.004923e+00 3.362696e+00 3.310578e+00 3.827507e+00 3.555787e+00 4.581614e+00 2.994436e+00 3.953506e+00
<GCONST> 1.761169e+02
<MIXTURE> 6 1.196336e-01
<MEAN> 39
 -2.006341e+01 -1.640971e+01 -5.300080e+00 -2.613763e+00 -2.953341e+00 1.733204e-02 -6.502329e+00 -2.734807e+00 -7.820194e+00 3.569637e+00 -4.785565e+00 3.377644e+00 1.044099e+02 1.611320e+01 5.537310e+00 3.381460e+00 -6.822642e+00 -3.709629e+00 7.717210e-01 8.871619e-01 1.983683e+00 -1.602750e+00 3.363694e-01 1.155254e+00 -2.269219e+00 5.738096e+00 2.589406e+00 8.096876e-01 1.282638e+00 -2.652139e+00 -1.801693e+00 2.339778e-01 -3.991810e-01 1.008845e+00 -6.734470e-01 3.306822e-01 6.541897e-01 -1.184925e+00 1.219062e+00
<VARIANCE> 39
 1.143551e+02 6.003582e+01 6.081884e+01 7.563387e+01 9.652144e+01 1.170788e+02 1.225805e+02 1.203760e+02 1.143620e+02 1.172096e+02 1.056147e+02 9.894398e+01 1.781091e+02 1.128984e+01 2.455639e+01 2.017434e+01 1.772287e+01 2.439765e+01 1.997372e+01 1.707717e+01 2.342441e+01 2.517142e+01 2.376407e+01 3.047130e+01 1.422924e+01 3.356242e+01 2.421514e+00 4.073780e+00 3.417268e+00 3.448200e+00 5.092501e+00 4.270873e+00 4.432018e+00 4.399735e+00 5.188055e+00 4.622576e+00 5.298580e+00 3.562243e+00 4.013505e+00
<GCONST> 1.897917e+02
<MIXTURE> 7 1.185983e-01
<MEAN> 39
 -3.545906e+01 -2.031667e+01 -5.944931e+00 -2.174410e+00 -6.603198e+00 -3.774830e+00 -1.195164e+01 -5.133046e+00 -1.098564e+01 -5.615906e-02 -6.267484e+00 1.257487e+00 9.769408e+01 5.031262e+00 -1.970608e-01 -7.489157e-01 -1.917902e+00 -6.208933e-01 -8.958640e-01 -5.623230e-01 -1.276883e+00 -9.385381e-01 -9.279867e-01 -1.136169e+00 -5.515836e-01 5.716040e+00 4.067698e+00 1.865423e+00 9.977039e-01 -9.362696e-01 1.524495e-01 6.712142e-01 1.148210e+00 8.278413e-01 7.183048e-01 8.967348e-01 3.458632e-01 -5.207365e-02 5.115819e-01
<VARIANCE> 39
 1.147445e+02 6.581791e+01 6.116537e+01 7.200407e+01 7.308052e+01 8.387536e+01 8.674249e+01 8.985365e+01 9.748949e+01 9.448646e+01 8.978169e+01 7.683312e+01 1.913384e+02 1.548460e+01 1.042348e+01 7.047069e+00 7.480736e+00 8.156475e+00 9.384265e+00 9.963988e+00 1.100962e+01 1.055960e+01 1.018138e+01 1.020548e+01 9.227349e+00 2.873265e+01 2.203699e+00 2.179371e+00 2.088753e+00 2.838930e+00 2.829856e+00 2.426347e+00 2.526794e+00 2.799525e+00 3.135747e+00 2.884936e+00 2.958299e+00 2.283830e+00 4.333733e+00
<GCONST> 1.733770e+02
<MIXTURE> 8 1.071070e-01
<MEAN> 39
 -2.229041e+01 -1.361733e+01 3.627638e-01 2.526850e+00 1.030290e+00 2.349629e+00 -4.473166e+00 1.500606e+00 -2.961100e+00 4.614135e+00 -3.359808e+00 2.659006e+00 9.978297e+01 1.619099e+01 3.212428e+00 1.487853e-01 -8.526652e+00 7.950884e-01 3.214344e-01 3.243501e+00 -1.189266e+00 6.343955e-01 2.594631e+00 -9.685643e-01 1.255571e-02 8.324708e+00 2.386626e+00 -2.817245e-01 -3.285651e-01 -3.638975e+00 -3.295662e-01 -4.552853e-01 6.167737e-01 -4.595757e-01 -1.771699e-02 8.711559e-01 -3.507351e-01 1.879091e-01 1.847998e+00
<VARIANCE> 39
 1.216748e+02 7.489703e+01 6.381629e+01 7.548209e+01 9.794507e+01 1.093786e+02 1.064915e+02 1.037601e+02 1.141574e+02 1.109034e+02 9.594963e+01 9.084017e+01 2.060705e+02 1.573089e+01 2.954887e+01 1.327916e+01 2.559634e+01 1.624375e+01 1.757170e+01 2.068923e+01 1.774319e+01 3.138544e+01 2.297745e+01 2.892126e+01 1.895243e+01 3.403183e+01 3.042652e+00 4.234945e+00 2.353811e+00 3.600525e+00 3.754742e+00 3.463033e+00 3.857991e+00 3.112096e+00 4.716528e+00 3.477122e+00 4.129546e+00 3.404683e+00 4.269252e+00
<GCONST> 1.882918e+02
<STATE> 4
<NUMMIXES> 8
<MIXTURE> 1 1.123362e-01
<MEAN> 39
 9.162504e+00 -2.058062e+00 8.065847e-01 -8.387425e+00 -6.862749e-01 3.310968e+00 -6.767511e-01 -6.815163e-01 -3.560504e-01 9.196793e+00 -4.703991e+00 9.439896e-01 1.111467e+02 1.687557e+01 -4.936482e-01 -7.298113e-01 -1.084619e+01 2.014359e+00 1.646752e+00 4.164076e+00 -6.191173e-01 2.755218e+00 5.278845e+00 7.373095e-01 6.038308e-01 1.159324e+01 -2.266151e+00 -2.085441e+00 -5.287011e-01 -1.134114e+00 3.374819e-01 2.855369e-01 2.711033e-01 4.268299e-01 2.274821e-01 3.010200e-01 1.360004e-01 4.527091e-01 1.993107e-01
<VARIANCE> 39
 2.124891e+02 9.710789e+01 6.970499e+01 1.685904e+02 9.250005e+01 1.099760e+02 1.162691e+02 1.123910e+02 1.566460e+02 1.416638e+02 1.458815e+02 1.064649e+02 1.761861e+02 9.895939e+00 2.985166e+01 1.791397e+01 3.414175e+01 2.536001e+01 2.391689e+01 3.026018e+01 2.574622e+01 5.037527e+01 3.166130e+01 5.010072e+01 2.987210e+01 2.255187e+01 2.760226e+00 1.858574e+00 1.539219e+00 2.770160e+00 2.039998e+00 2.444340e+00 2.124004e+00 2.199047e+00 2.432328e+00 2.599782e+00 2.554805e+00 2.327536e+00 3.313241e+00
<GCONST> 1.885487e+02
<MIXTURE> 2 1.323534e-01
<MEAN> 39
 2.537239e+01 -2.191026e+01 -6.439607e+00 -3.309791e+01 8.181929e+00 1.753855e+00 6.282112e+00 -3.452834e+00 1.234480e+01 1.962803e+01 -1.022437e+01 1.117318e+00 1.395388e+02 7.065050e+00 -5.790326e+00 -2.471763e+00 -8.074754e+00 4.371979e+00 2.637178e+00 3.595309e+00 6.158339e-01 4.054445e+00 3.662880e+00 -7.742901e-01 1.489569e+00 1.012969e+01 -4.938860e+00 -4.917159e-01 1.698961e-01 2.438575e+00 -1.130179e-01 6.739483e-01 -9.685979e-01 7.519609e-01 -1.429140e+00 -1.547878e+00 5.164853e-01 7.127408e-01 -2.853469e+00
<VARIANCE> 39
 5.516992e+01 1.720394e+02 1.532723e+02 2.587485e+02 1.663306e+02 2.091828e+02 2.062916e+02 2.167926e+02 3.591246e+02 2.514246e+02 2.900038e+02 2.288641e+02 1.126310e+02 3.282647e+01 1.436678e+01 1.449471e+01 2.823604e+01 1.718890e+01 1.702166e+01 1.864755e+01 1.725531e+01 2.568596e+01 2.246301e+01 1.975369e+01 1.837217e+01 1.760848e+01 1.191793e+00 1.976489e+00 1.561468e+00 2.910677e+00 2.020325e+00 2.619352e+00 2.851418e+00 2.576828e+00 4.801758e+00 3.349073e+00 3.795003e+00 3.275011e+00 1.992156e+00
<GCONST> 1.905886e+02
<MIXTURE> 3 1.246641e-01
<MEAN> 39
 1.605530e+01 8.197751e+00 6.987255e+00 -1.037920e+01 -6.415357e+00 3.659727e+00 2.467548e+00 5.102100e+00 -6.465262e+00 5.211902e+00 -3.214378e+00 3.693407e+00 1.072116e+02 1.710344e+01 8.072197e+00 5.439096e+00 -1.146612e+01 -6.360681e+00 4.342582e-01 8.604238e-01 3.702288e+00 -2.074045e+00 1.167370e+00 8.014208e-03 -7.658396e-01 5.329418e+00 -2.142864e+00 -1.308536e+00 -1.039766e-01 -1.218860e+00 -1.042895e+00 -4.351220e-01 -1.166289e+00 1.045466e-01 -3.176519e-01 4.085732e-01 -3.412593e-03 -4.093020e-01 5.105965e-01
<VARIANCE> 39
 2.036343e+02 1.355109e+02 6.880866e+01 2.043229e+02 1.630635e+02 1.351474e+02 1.165182e+02 1.146039e+02 1.246585e+02 1.129608e+02 1.206743e+02 8.401170e+01 1.737641e+02 9.072675e+00 2.873954e+01 2.452687e+01 3.029597e+01 3.593280e+01 3.546614e+01 3.597073e+01 3.389153e+01 3.523113e+01 3.305577e+01 4.236768e+01 3.143329e+01 1.871598e+01 2.827101e+00 2.187960e+00 1.781319e+00 2.973885e+00 2.702758e+00 2.508170e+00 2.369962e+00 2.850307e+00 3.021547e+00 2.894824e+00 2.629901e+00 2.389054e+00 2.834421e+00
<GCONST> 1.908642e+02
<MIXTURE> 4 1.291955e-01
<MEAN> 39
 2.744590e+01 -1.951350e+01 -3.713675e-01 -3.354551e+01 -1.396076e+01 1.076721e+01 -6.895497e+00 3.623118e+00 -1.687438e+01 1.769203e+01 2.439271e+01 -5.762675e+00 1.406642e+02 6.148073e+00 -4.419073e+00 -1.281258e+00 -7.647243e+00 -1.750140e+00 3.115583e+00 2.569107e-01 1.221542e+00 5.795063e-02 2.785872e+00 4.944807e+00 -2.821881e+00 9.155770e+00 -4.715090e+00 -4.116021e-01 -5.062976e-01 2.301480e+00 1.321777e+00 -3.446137e-01 5.142318e-01 -1.329721e-01 2.052093e+00 -5.636661e-01 -2.549174e+00 -1.646542e-01 -2.353571e+00
<VARIANCE> 39
 5.665491e+01 1.463002e+02 2.043130e+02 3.465200e+02 2.798349e+02 2.628315e+02 2.188778e+02 3.528090e+02 4.612698e+02 4.296640e+02 3.916385e+02 2.312841e+02 1.312761e+02 3.987569e+01 1.036418e+01 1.594500e+01 2.839925e+01 1.886226e+01 2.089631e+01 1.787944e+01 2.430295e+01 3.457571e+01 2.668797e+01 3.771379e+01 1.663788e+01 1.800847e+01 1.383196e+00 1.808626e+00 2.084670e+00 3.433576e+00 2.787099e+00 2.684308e+00 2.749921e+00 3.614242e+00 4.218506e+00 4.638456e+00 4.310405e+00 2.864315e+00 1.832327e+00
<GCONST> 1.964532e+02
<MIXTURE> 5 1.364224e-01
<MEAN> 39
 2.400237e+01 -2.445694e+01 -7.153745e+00 -3.384501e+01 8.209493e+00 1.433499e+00 6.792062e+00 -4.103105e+00 1.197832e+01 2.212130e+01 -9.225924e+00 -1.285686e-01 1.401557e+02 5.328216e+00 -6.359176e+00 -2.607944e+00 -7.607419e+00 3.521967e+00 1.844462e+00 2.641909e+00 -1.448884e-01 2.550828e+00 2.689662e+00 -1.504318e+00 9.391619e-02 9.649137e+00 -5.001790e+00 -3.700574e-01 1.218778e-01 2.522196e+00 -3.382026e-01 4.570161e-01 -1.221328e+00 5.923464e-01 -1.507479e+00 -2.069932e+00 1.152117e-01 5.264724e-01 -2.985258e+00
<VARIANCE> 39
 5.617857e+01 1.646504e+02 1.602927e+02 2.575146e+02 1.782770e+02 2.147174e+02 1.986099e+02 2.228964e+02 3.553297e+02 2.670732e+02 3.128340e+02 2.112797e+02 9.462429e+01 2.830299e+01 1.216190e+01 1.312201e+01 2.504854e+01 1.696410e+01 1.539271e+01 1.858046e+01 1.662564e+01 2.244921e+01 2.018003e+01 1.980532e+01 1.642149e+01 1.556246e+01 1.146971e+00 1.941468e+00 1.617999e+00 2.684503e+00 1.962198e+00 2.674015e+00 2.864797e+00 2.567240e+00 4.672417e+00 3.709529e+00 4.028392e+00 3.143618e+00 1.819336e+00
<GCONST> 1.892895e+02
<MIXTURE> 6 1.278953e-01
<MEAN> 39
 1.868687e+01 9.358478e+00 7.312613e+00 -1.283434e+01 -9.611691e+00 2.669390e+00 1.864028e+00 5.593666e+00 -7.978429e+00 4.496223e+00 -4.125019e+00 2.601111e+00 1.079718e+02 1.641821e+01 7.740069e+00 5.656238e+00 -1.151096e+01 -8.010262e+00 -1.465917e-01 -2.548076e-01 3.932790e+00 -3.587248e+00 -7.428820e-02 -6.616174e-01 -2.868734e+00 5.294662e+00 -2.427800e+00 -1.550027e+00 -1.671774e-01 -1.053126e+00 -1.156249e+00 -5.626801e-01 -1.523156e+00 -7.403953e-02 -6.060975e-01 7.873871e-02 -1.249534e-01 -7.966686e-01 4.761019e-01
<VARIANCE> 39
 2.095486e+02 1.367028e+02 7.540502e+01 2.201291e+02 1.732985e+02 1.444281e+02 1.212160e+02 1.191131e+02 1.316048e+02 1.141295e+02 1.207330e+02 9.039139e+01 1.643799e+02 9.597791e+00 2.396104e+01 2.460057e+01 3.178252e+01 3.431999e+01 3.609912e+01 3.416242e+01 3.410631e+01 3.660058e+01 3.366090e+01 3.850917e+01 2.954419e+01 1.674367e+01 3.040652e+00 2.136883e+00 1.713330e+00 2.911553e+00 2.871575e+00 2.301117e+00 2.347588e+00 2.723360e+00 3.078194e+00 2.658730e+00 2.418299e+00 2.271707e+00 2.637684e+00
<GCONST> 1.906307e+02
<MIXTURE> 7 1.172991e-01
<MEAN> 39
 2.623846e+01 -2.068559e+01 -2.506267e+00 -3.109369e+01 -1.559980e+01 1.037592e+01 -9.438310e+00 2.659090e+00 -1.535029e+01 1.950149e+01 2.546015e+01 -1.021459e+01 1.427928e+02 5.641984e+00 -5.116296e+00 -2.080926e+00 -7.271880e+00 -2.529954e+00 2.739453e+00 -5.620421e-01 7.851353e-01 -1.978043e-01 2.114073e+00 4.267159e+00 -4.297334e+00 9.144428e+00 -5.050123e+00 -4.959148e-01 -5.027086e-01 2.195033e+00 1.272894e+00 -5.869755e-01 6.036121e-01 -2.365907e-01 1.909505e+00 -1.018343e+00 -3.045275e+00 2.315592e-02 -2.605412e+00
<VARIANCE> 39
 6.456274e+01 1.453851e+02 2.131307e+02 3.701327e+02 2.296187e+02 2.790079e+02 2.414499e+02 3.788450e+02 4.634680e+02 4.700404e+02 4.086479e+02 2.375540e+02 1.325173e+02 3.296068e+01 1.010203e+01 1.681074e+01 2.676722e+01 1.609361e+01 2.057208e+01 1.747288e+01 2.374962e+01 3.139062e+01 2.457495e+01 3.842080e+01 1.631839e+01 1.373818e+01 1.291022e+00 1.794551e+00 2.173139e+00 3.305922e+00 2.769040e+00 2.669034e+00 3.040617e+00 3.583945e+00 4.278704e+00 5.528481e+00 4.518880e+00 2.823297e+00 1.682799e+00
<GCONST> 1.961411e+02
<MIXTURE> 8 1.198142e-01
<MEAN> 39
 1.275792e+01 -2.040005e+00 -6.200818e-01 -1.125244e+01 -1.790380e+00 2.673606e+00 -5.282515e-01 -2.717692e+00 -1.764094e+00 9.827648e+00 -4.247818e+00 -1.018699e+00 1.129151e+02 1.620739e+01 -7.424909e-01 -1.331471e+00 -1.115380e+01 6.007860e-01 9.354901e-01 3.468018e+00 -1.551838e+00 1.255053e+00 4.514381e+00 1.317943e+00 -7.111061e-01 1.168978e+01 -2.664224e+00 -2.215747e+00 -6.143688e-01 -9.909928e-01 4.832965e-02 4.080699e-02 3.834419e-03 2.623821e-01 4.566777e-02 4.399028e-03 -3.410745e-02 1.665974e-01 1.824225e-01
<VARIANCE> 39
 2.248413e+02 1.038415e+02 7.858551e+01 1.867910e+02 9.260606e+01 1.132126e+02 1.238597e+02 1.263803e+02 1.793329e+02 1.582262e+02 1.819783e+02 1.170448e+02 1.826290e+02 1.117025e+01 3.026075e+01 1.947805e+01 3.547190e+01 2.588934e+01 2.502299e+01 3.154712e+01 2.576040e+01 4.824526e+01 3.154696e+01 5.645503e+01 3.080529e+01 2.325051e+01 3.001059e+00 1.737939e+00 1.502737e+00 2.606759e+00 2.039191e+00 2.357226e+00 2.295050e+00 2.202886e+00 2.492841e+00 2.626705e+00 2.600518e+00 2.588036e+00 3.027010e+00
<GCONST> 1.902442e+02
<TRANSP> 5
 0.000000e+00 1.000000e+00 0.000000e+00 0.000000e+00 0.000000e+00
 0.000000e+00 8.502392e-01 1.497608e-01 0.000000e+00 0.000000e+00
 0.000000e+00 0.000000e+00 6.476952e-01 3.523048e-01 0.000000e+00
 0.000000e+00 0.000000e+00 0.000000e+00 5.247701e-01 4.752298e-01
 0.000000e+00 0.000000e+00 0.000000e+00 0.000000e+00 0.000000e+00
<ENDHMM>
~h "k"
<BEGINHMM>
<NUMSTATES> 5
<STATE> 2
<NUMMIXES> 8
<MIXTURE> 1 1.116617e-01
<MEAN> 39
 4.836075e+00 -6.005330e+00 4.584922e+01 3.162678e+01 3.210043e-01 -3.621051e+01 2.692791e+00 2.165545e+01 -4.073778e+01 9.325122e-01 2.613575e+00 8.267481e-01 1.079318e+02 -3.222669e+00 9.282723e+00 -5.166208e+00 5.707816e+00 4.916994e+00 7.620364e+00 5.129992e+00 -1.252119e+00 6.130086e+00 -1.216584e+00 1.935310e+00 8.299704e-01 -1.809188e+01 -1.498423e+00 -4.220221e-01 -3.052932e+00 -3.323829e+00 -3.018024e-01 2.511484e+00 -2.553191e+00 -2.380778e+00 3.938235e+00 4.661277e-01 -1.015468e+00 4.505133e-01 -4.928915e-01
<VARIANCE> 39
 5.551266e+01 1.562295e+02 2.570015e+02 1.959542e+02 2.905907e+02 3.277027e+02 5.032277e+02 4.959175e+02 4.297369e+02 4.273036e+02 2.936567e+02 2.421736e+02 2.933876e+02 1.147965e+01 1.967305e+01 2.492838e+01 2.534119e+01 2.609851e+01 3.764211e+01 4.789314e+01 4.388508e+01 4.559170e+01 3.619591e+01 2.910487e+01 2.507791e+01 2.426515e+01 1.380258e+00 4.418302e+00 3.278793e+00 3.252993e+00 3.838011e+00 5.812270e+00 5.703338e+00 8.305078e+00 7.086729e+00 6.414275e+00 4.565130e+00 5.239875e+00 6.506766e+00
<GCONST> 2.080394e+02
<MIXTURE> 2 1.227976e-01
<MEAN> 39
 -1.462611e+01 1.359653e+01 1.553260e+01 2.102457e+01 2.710805e+00 -6.623070e+00 -4.010670e+00 -2.034869e+00 -1.114253e+01 -4.591852e+00 5.918331e-01 3.876583e+00 5.657218e+01 -4.649630e+00 1.861694e-02 -8.288788e+00 -4.627628e+00 1.410666e+00 6.727050e+00 -8.477393e-01 -6.525900e-01 7.105361e+00 1.840675e+00 4.641423e-01 4.939450e-01 -7.066898e+00 1.064787e+00 -3.637666e+00 6.073318e-01 -1.558007e+00 -8.630108e-01 -2.365402e+00 -3.026197e-01 9.083821e-01 -7.247818e-01 1.397629e+00 -3.362118e-01 1.612303e-01 6.715184e+00
<VARIANCE> 39
 7.476683e+01 1.028811e+02 1.244903e+02 1.743900e+02 1.751893e+02 1.995477e+02 2.360413e+02 2.479006e+02 1.801378e+02 1.645881e+02 1.364928e+02 1.097493e+02 5.525837e+01 1.037370e+01 3.046311e+01 2.225688e+01 2.025708e+01 2.588814e+01 3.341622e+01 3.398622e+01 4.742048e+01 3.159754e+01 2.617591e+01 2.061414e+01 1.791744e+01 4.206166e+01 2.577869e+00 5.273273e+00 3.683417e+00 5.862309e+00 5.434794e+00 6.077151e+00 8.065237e+00 8.547327e+00 6.717543e+00 4.667259e+00 4.471330e+00 3.271024e+00 7.609690e+00
<GCONST> 1.999270e+02
<MIXTURE> 3 1.122377e-01
<MEAN> 39
 -9.720579e+00 1.940509e+01 1.983127e+01 2.114234e+01 1.436470e-01 -5.674213e+00 -5.923058e+00 -1.129030e+01 -1.640311e+01 -8.021784e+00 -5.487976e+00 -2.102946e+00 5.819426e+01 -5.750329e+00 -2.808322e+00 -1.187900e+01 -3.092001e+00 3.859650e+00 2.747168e+00 -6.824309e+00 4.253698e+00 2.606991e+00 -2.280120e+00 8.085572e-01 -3.396734e-01 -7.636946e+00 9.421494e-02 -4.142283e+00 -1.099078e-02 -2.208810e+00 -1.913213e+00 -2.113135e+00 1.518259e+00 -1.181547e-01 1.368062e+00 2.232437e+00 3.211471e-01 1.660282e+00 7.602487e+00
<VARIANCE> 39
 6.394321e+01 9.629990e+01 1.063468e+02 1.214182e+02 1.455184e+02 1.851168e+02 2.095662e+02 1.918767e+02 2.069844e+02 1.873594e+02 1.437856e+02 1.123550e+02 3.930206e+01 7.301421e+00 4.236391e+01 1.615215e+01 2.415746e+01 2.420280e+01 3.486607e+01 3.364622e+01 4.891299e+01 3.727965e+01 2.568522e+01 2.003354e+01 1.775666e+01 7.008594e+01 2.803712e+00 4.694280e+00 3.888842e+00 4.621747e+00 4.537696e+00 5.467692e+00 7.062301e+00 8.454335e+00 7.618160e+00 4.834129e+00 3.973421e+00 3.512165e+00 7.224207e+00
<GCONST> 1.984183e+02
<MIXTURE> 4 1.459883e-01
<MEAN> 39
 -3.954380e+00 8.258015e+00 3.380277e+01 3.019131e+01 -6.189135e+00 -1.657589e+01 8.890684e+00 -2.046785e+00 -1.566781e+01 3.431857e+00 1.327752e+00 4.004392e+00 8.093726e+01 -5.648702e+00 4.689943e+00 -8.540504e+00 2.081916e+00 5.768793e+00 7.272969e+00 -3.189547e+00 2.242815e+00 3.112568e+00 -2.856837e+00 8.074850e-01 -1.631462e+00 -1.593314e+01 -7.062823e-01 -2.643099e+00 -1.892678e+00 -3.804099e+00 -6.328226e-01 -5.501879e-01 -1.787751e+00 6.069462e-02 1.126371e+00 4.054856e-01 -2.581778e-01 6.138991e-01 3.125989e+00
<VARIANCE> 39
 1.446319e+02 2.534268e+02 2.183381e+02 2.067075e+02 4.201167e+02 3.809183e+02 4.291718e+02 4.942383e+02 2.923610e+02 2.639505e+02 2.170839e+02 1.755022e+02 1.931078e+02 1.150939e+01 2.520031e+01 2.548570e+01 3.461254e+01 3.136679e+01 3.574019e+01 6.098138e+01 8.076992e+01 6.086977e+01 3.463762e+01 2.530047e+01 2.503045e+01 3.271083e+01 3.180802e+00 6.142599e+00 4.125082e+00 3.745173e+00 5.436117e+00 6.541416e+00 6.617141e+00 6.322540e+00 5.243940e+00 4.578035e+00 4.660054e+00 4.221487e+00 6.997515e+00
<GCONST> 2.109036e+02
<MIXTURE> 5 1.455863e-01
<MEAN> 39
 -1.536913e+01 1.265833e+01 1.465021e+01 1.963250e+01 2.259070e+00 -7.905526e+00 -5.857795e+00 -3.202382e+00 -1.234747e+01 -5.729491e+00 -9.938588e-01 3.008593e+00 5.609457e+01 -5.903590e+00 -9.997766e-01 -9.750557e+00 -6.513340e+00 1.691748e-01 5.148972e+00 -3.065007e+00 -3.113971e+00 5.264122e+00 4.830191e-01 -9.963172e-01 -2.845162e-01 -7.468675e+00 1.014039e+00 -3.722242e+00 5.580607e-01 -1.595970e+00 -1.046672e+00 -2.473064e+00 -3.828747e-01 9.432979e-01 -7.451661e-01 1.255783e+00 -3.115700e-01 7.801571e-02 6.883189e+00
<VARIANCE> 39
 6.529208e+01 9.893393e+01 1.102396e+02 1.442295e+02 1.619256e+02 1.921678e+02 2.329147e+02 2.228631e+02 1.846717e+02 1.696449e+02 1.331948e+02 1.007850e+02 5.354168e+01 9.436897e+00 3.176380e+01 1.985878e+01 1.961760e+01 2.626590e+01 3.218539e+01 3.401027e+01 4.539432e+01 3.042017e+01 2.539647e+01 1.992654e+01 1.616373e+01 4.266086e+01 2.685075e+00 5.012507e+00 3.523895e+00 4.663871e+00 5.063090e+00 6.695104e+00 7.265221e+00 9.242945e+00 6.770977e+00 4.737928e+00 4.143317e+00 3.091438e+00 7.970961e+00
<GCONST> 1.983161e+02
<MIXTURE> 6 1.335531e-01
<MEAN> 39
 -5.374311e+00 7.102126e+00 3.285207e+01 2.976462e+01 -4.497597e+00 -1.681333e+01 5.481173e+00 -2.782600e+00 -1.787905e+01 7.013254e-01 -6.713908e-01 3.124439e+00 8.018002e+01 -6.677666e+00 3.825695e+00 -1.026492e+01 4.749330e-01 4.170707e+00 5.322896e+00 -5.295261e+00 -1.908426e-01 1.398641e+00 -4.016546e+00 -5.921731e-01 -2.137000e+00 -1.664295e+01 -6.649566e-01 -2.713253e+00 -1.899096e+00 -3.996752e+00 -1.021055e+00 -6.684608e-01 -1.679057e+00 1.895163e-02 1.177655e+00 4.714026e-01 -1.290880e-01 4.944062e-01 3.461019e+00
<VARIANCE> 39
 1.403615e+02 2.612407e+02 2.056542e+02 2.036034e+02 4.075275e+02 3.800122e+02 4.553161e+02 4.844890e+02 2.890159e+02 2.629573e+02 2.319730e+02 1.747565e+02 1.773527e+02 1.003704e+01 2.751845e+01 2.339261e+01 3.606799e+01 3.123801e+01 3.490316e+01 6.326733e+01 9.239820e+01 6.436974e+01 3.858422e+01 2.411016e+01 2.567756e+01 2.954813e+01 3.100766e+00 6.081673e+00 3.881036e+00 3.581031e+00 5.394311e+00 6.527006e+00 6.603839e+00 6.423622e+00 5.457124e+00 4.792550e+00 4.886146e+00 4.533931e+00 7.421082e+00
<GCONST> 2.110126e+02
<MIXTURE> 7 1.285925e-01
<MEAN> 39
 3.955565e+00 -6.612986e+00 4.333978e+01 3.063233e+01 -6.275002e-01 -3.773507e+01 1.008290e+00 1.985960e+01 -3.896642e+01 -7.204812e-01 2.216438e+00 2.321300e+00 1.043460e+02 -4.845324e+00 8.853403e+00 -7.480871e+00 3.361163e+00 3.667337e+00 6.164303e+00 2.113088e+00 -5.023681e+00 4.757726e+00 -3.245271e+00 -3.222297e-01 3.615499e-01 -1.935289e+01 -1.618678e+00 -8.785673e-01 -3.090505e+00 -3.780578e+00 -7.581318e-01 2.166491e+00 -2.935937e+00 -2.496051e+00 3.353553e+00 4.054655e-01 -1.092313e+00 2.036652e-01 1.153797e-01
<VARIANCE> 39
 5.291996e+01 1.547596e+02 2.409406e+02 1.748940e+02 2.937898e+02 3.474930e+02 4.997355e+02 4.884178e+02 3.747124e+02 3.617233e+02 2.698302e+02 2.287644e+02 2.799454e+02 9.792905e+00 2.131048e+01 2.594802e+01 2.543239e+01 2.578895e+01 3.603630e+01 5.543268e+01 4.807636e+01 4.338306e+01 3.794589e+01 2.709391e+01 2.490571e+01 2.447099e+01 1.303169e+00 4.180037e+00 3.062391e+00 2.979595e+00 3.787403e+00 5.426488e+00 5.565975e+00 7.849471e+00 5.998223e+00 5.884245e+00 4.433556e+00 4.759788e+00 7.088437e+00
<GCONST> 2.067089e+02
<MIXTURE> 8 9.955739e-02
<MEAN> 39
 -1.056222e+01 1.839983e+01 1.812583e+01 1.934821e+01 -1.374268e+00 -7.804812e+00 -9.124416e+00 -1.393795e+01 -1.886024e+01 -1.050856e+01 -7.096863e+00 -2.808180e+00 5.739477e+01 -6.565008e+00 -2.863029e+00 -1.278215e+01 -4.304047e+00 2.839102e+00 1.748243e+00 -8.779742e+00 2.489126e+00 9.240953e-01 -3.880684e+00 -4.481623e-01 -1.328051e+00 -8.680490e+00 1.147937e-01 -4.244989e+00 5.207151e-02 -2.275390e+00 -1.857533e+00 -2.095886e+00 1.790485e+00 1.008117e-02 1.521621e+00 2.347033e+00 2.930945e-01 1.605120e+00 7.536928e+00
<VARIANCE> 39
 5.512015e+01 8.112015e+01 8.432742e+01 1.001507e+02 1.405145e+02 1.958208e+02 2.051109e+02 1.992868e+02 2.299223e+02 1.911490e+02 1.457297e+02 1.087355e+02 3.610800e+01 6.080753e+00 4.181965e+01 1.460807e+01 2.278311e+01 2.205556e+01 3.539063e+01 2.887777e+01 5.408177e+01 3.476179e+01 2.321142e+01 1.911258e+01 1.649334e+01 6.168882e+01 2.352963e+00 4.170511e+00 3.322063e+00 4.013911e+00 4.649108e+00 5.634818e+00 6.473882e+00 9.223344e+00 7.655533e+00 4.740323e+00 3.700402e+00 3.397531e+00 7.081807e+00
<GCONST> 1.961509e+02
<STATE> 3
<NUMMIXES> 8
<MIXTURE> 1 7.645041e-02
<MEAN> 39
 -2.152719e+01 6.472784e+00 3.154662e+00 7.667053e+00 -4.038257e+00 -8.148592e+00 -9.642053e+00 -7.029423e+00 -8.619419e+00 -3.538590e+00 -1.253103e+00 2.590248e+00 5.209219e+01 -1.013915e-01 -5.540901e+00 -5.461199e+00 -8.348214e-01 1.538379e+00 1.983628e+00 1.691906e+00 4.693332e+00 5.381807e+00 4.529976e+00 2.360218e+00 1.608405e+00 6.372760e+00 7.598186e-01 -9.180284e-01 1.202981e+00 1.387544e+00 -2.585148e-01 -1.174098e+00 7.910080e-01 4.520277e-01 -4.233911e-01 6.604957e-01 -8.078226e-02 4.155923e-01 5.336258e+00
<VARIANCE> 39
 6.477319e+01 1.090058e+02 8.944621e+01 7.573409e+01 7.815847e+01 1.102306e+02 1.249101e+02 1.205031e+02 1.193902e+02 1.072472e+02 8.151217e+01 7.556496e+01 6.802151e+01 1.570413e+01 3.383164e+01 2.411824e+01 1.791643e+01 1.708473e+01 2.240602e+01 2.104789e+01 1.704375e+01 1.745613e+01 1.719437e+01 1.725027e+01 1.143740e+01 7.603599e+01 4.298164e+00 4.545780e+00 4.585281e+00 3.043919e+00 5.095672e+00 4.481934e+00 5.779446e+00 5.228460e+00 4.056351e+00 3.712272e+00 2.515858e+00 2.398237e+00 7.475471e+00
<GCONST> 1.886045e+02
<MIXTURE> 2 1.074961e-01
<MEAN> 39
 -1.465099e+01 -1.555256e+01 -1.138239e+01 8.760888e+00 4.883939e+00 -4.993511e+00 -8.738809e+00 1.235199e+00 -3.995475e+00 5.400305e+00 -2.350636e+00 2.440352e+00 7.991389e+01 -6.217495e-01 -5.002070e+00 -5.745116e+00 -5.678439e-01 1.417202e+00 -6.369397e-01 -1.446729e+00 1.916142e+00 2.559560e+00 3.526601e+00 2.108621e-01 8.185407e-01 1.297343e+01 -2.004501e+00 2.210206e+00 2.692920e+00 1.062083e+00 -8.665214e-01 -1.715335e+00 3.637709e-01 3.390267e-01 -5.156797e-01 -6.462455e-01 -1.899993e-01 3.665303e-01 1.617867e+00
<VARIANCE> 39
 2.204929e+02 2.771338e+02 3.043243e+02 2.359450e+02 2.333161e+02 2.607672e+02 2.659995e+02 2.000717e+02 1.760926e+02 1.472019e+02 1.226510e+02 1.047070e+02 3.570870e+02 2.838030e+01 2.844019e+01 2.557275e+01 2.391394e+01 2.641927e+01 2.734814e+01 2.326845e+01 2.455101e+01 2.319357e+01 1.972462e+01 1.552943e+01 1.214278e+01 6.405280e+01 8.155917e+00 5.688977e+00 6.044986e+00 5.207461e+00 4.835150e+00 5.814831e+00 5.744538e+00 5.581934e+00 4.529938e+00 3.903105e+00 2.828163e+00 2.669888e+00 8.112745e+00
<GCONST> 2.039220e+02
<MIXTURE> 3 2.280197e-01
<MEAN> 39
 -2.551521e+01 5.023855e+00 2.456409e-01 4.252008e+00 -3.840673e+00 -5.015597e+00 -6.383441e+00 -2.949514e+00 -2.395231e+00 2.086455e+00 3.076026e+00 4.319038e+00 4.820268e+01 1.717359e+00 -3.676404e+00 -4.250774e+00 -2.996094e-01 8.919812e-01 1.764338e-01 -1.222475e+00 9.850416e-01 1.474009e+00 1.082173e+00 -2.523837e-01 4.119961e-01 5.923515e+00 9.934025e-01 -7.805370e-01 5.020501e-01 1.596184e+00 1.607911e-02 -8.322599e-01 2.594623e-01 2.162863e-01 -3.957731e-01 1.489479e-01 -4.214418e-01 1.137501e-01 4.797779e+00
<VARIANCE> 39
 3.133220e+01 3.732927e+01 4.356168e+01 4.769730e+01 5.712008e+01 7.410156e+01 8.354081e+01 8.782047e+01 8.334837e+01 8.104066e+01 7.638812e+01 6.925822e+01 2.352394e+01 1.698840e+01 2.236567e+01 1.825615e+01 1.632808e+01 1.312181e+01 1.631443e+01 1.576189e+01 1.308619e+01 1.316578e+01 1.315709e+01 1.106655e+01 9.222825e+00 7.001050e+01 3.773032e+00 2.669683e+00 3.353332e+00 2.326008e+00 3.456486e+00 3.688478e+00 3.502642e+00 3.333642e+00 3.049343e+00 2.616482e+00 2.228443e+00 1.964799e+00 5.474597e+00
<GCONST> 1.751640e+02
<MIXTURE> 4 9.482750e-02
<MEAN> 39
 -1.864905e+01 -1.244613e+01 -1.861557e+00 1.367071e+01 6.580001e+00 -6.344907e+00 -6.635734e+00 5.370199e+00 -4.027973e+00 3.034570e+00 -2.610880e+00 4.440128e+00 7.756835e+01 -3.351459e+00 -7.242918e+00 -8.691796e+00 -4.180532e+00 -6.539098e-01 -2.681979e+00 -4.498368e+00 -4.013301e-01 2.301151e+00 1.312473e+00 -1.475531e+00 6.645483e-01 1.118209e+01 -9.347441e-01 1.544946e+00 2.728278e+00 6.953921e-01 -1.137212e+00 -2.135697e+00 7.616044e-01 5.943951e-01 -9.164522e-01 -2.771296e-02 3.464636e-02 2.062827e-01 3.766589e+00
<VARIANCE> 39
 1.672687e+02 3.513381e+02 2.602895e+02 2.168641e+02 2.066052e+02 2.659366e+02 2.609940e+02 2.214607e+02 1.840575e+02 1.388879e+02 1.464952e+02 1.038359e+02 4.868493e+02 3.683354e+01 3.182996e+01 2.876982e+01 2.751326e+01 2.395854e+01 3.196557e+01 2.160274e+01 2.728001e+01 3.053232e+01 1.998288e+01 1.843005e+01 1.455097e+01 6.243803e+01 6.383687e+00 7.317392e+00 5.017286e+00 5.024082e+00 5.616027e+00 7.103692e+00 6.707958e+00 6.489844e+00 5.666945e+00 4.459228e+00 3.641989e+00 3.156576e+00 1.071860e+01
<GCONST> 2.069199e+02
<MIXTURE> 5 2.125931e-01
<MEAN> 39
 -2.622655e+01 4.482679e+00 -4.498276e-01 3.081862e+00 -5.067393e+00 -6.358166e+00 -7.511700e+00 -4.209826e+00 -3.641470e+00 1.105942e+00 2.062418e+00 3.412964e+00 4.790242e+01 9.139446e-01 -4.051559e+00 -4.870407e+00 -1.372688e+00 1.030624e-01 -9.172792e-01 -2.627105e+00 -3.292994e-01 1.089549e-01 -2.687845e-01 -1.249427e+00 -3.372903e-01 4.970322e+00 9.820152e-01 -8.314583e-01 4.274067e-01 1.336889e+00 -2.146095e-01 -9.559373e-01 1.283555e-01 -5.147934e-02 -5.310320e-01 4.542621e-02 -5.603738e-01 -3.114950e-02 4.512014e+00
<VARIANCE> 39
 2.660631e+01 3.539853e+01 3.974755e+01 4.786017e+01 5.777401e+01 7.285119e+01 8.452600e+01 8.989017e+01 8.126277e+01 8.120334e+01 7.634059e+01 6.957035e+01 1.997813e+01 1.692198e+01 2.216834e+01 1.815555e+01 1.687267e+01 1.341039e+01 1.635852e+01 1.587082e+01 1.325247e+01 1.355409e+01 1.295049e+01 1.084082e+01 9.613114e+00 7.019765e+01 3.555779e+00 2.482740e+00 3.362383e+00 2.298114e+00 3.434528e+00 3.593333e+00 3.770367e+00 3.078044e+00 2.977266e+00 2.599499e+00 2.183104e+00 1.938859e+00 5.245603e+00
<GCONST> 1.745139e+02
<MIXTURE> 6 1.010231e-01
<MEAN> 39
 -1.643241e+01 -1.462167e+01 -9.274713e+00 7.164926e+00 5.284603e+00 -5.044031e+00 -9.057864e+00 8.016819e-01 -4.077093e+00 4.885794e+00 -2.377717e+00 1.952253e+00 7.757014e+01 -1.402210e+00 -5.669830e+00 -6.250877e+00 -1.989594e+00 6.832805e-01 -2.300734e+00 -3.483647e+00 -2.471541e-01 7.079064e-01 1.888554e+00 -1.231581e+00 -3.375101e-01 1.140422e+01 -1.821372e+00 1.751880e+00 2.276729e+00 8.394194e-01 -1.003182e+00 -2.048596e+00 -2.114416e-03 2.306000e-01 -6.550446e-01 -7.966097e-01 -3.899162e-01 1.290879e-01 1.757258e+00
<VARIANCE> 39
 2.268683e+02 2.857696e+02 2.990817e+02 2.386410e+02 2.185116e+02 2.553710e+02 2.716428e+02 2.193539e+02 1.744641e+02 1.362275e+02 1.264250e+02 1.003517e+02 3.894705e+02 2.958451e+01 2.771591e+01 2.610661e+01 2.581153e+01 2.723239e+01 2.893433e+01 2.228434e+01 2.373881e+01 2.090443e+01 1.887123e+01 1.561447e+01 1.204341e+01 7.132027e+01 9.221140e+00 5.985844e+00 5.760653e+00 5.097398e+00 4.792977e+00 5.883967e+00 5.512004e+00 5.766817e+00 4.956434e+00 3.868438e+00 3.056118e+00 2.679936e+00 9.400720e+00
<GCONST> 2.044769e+02
<MIXTURE> 7 9.757259e-02
<MEAN> 39
 -2.304028e+01 5.485021e+00 2.118485e+00 6.041192e+00 -4.925156e+00 -8.433150e+00 -1.071169e+01 -8.015920e+00 -8.928552e+00 -4.330183e+00 -2.291956e+00 1.455441e+00 5.124513e+01 -4.929949e-01 -6.089356e+00 -6.476377e+00 -2.003923e+00 8.409688e-01 8.479732e-01 -1.590997e-01 3.053308e+00 3.688110e+00 2.938969e+00 9.267641e-01 7.945867e-01 5.728958e+00 8.175762e-01 -1.050440e+00 1.087929e+00 1.178251e+00 -3.904214e-01 -1.420644e+00 5.367738e-01 2.811900e-01 -5.709382e-01 5.355262e-01 -2.112748e-01 3.405280e-01 5.261634e+00
<VARIANCE> 39
 5.283371e+01 9.537974e+01 8.175908e+01 7.169714e+01 7.408270e+01 1.069706e+02 1.193350e+02 1.201451e+02 1.200429e+02 1.104148e+02 8.898957e+01 7.861491e+01 5.828007e+01 1.596393e+01 3.254182e+01 2.353076e+01 1.977563e+01 1.687257e+01 2.075160e+01 2.184534e+01 1.839892e+01 1.722828e+01 1.794397e+01 1.500724e+01 1.169942e+01 7.785213e+01 4.139561e+00 4.291339e+00 4.414016e+00 2.954594e+00 4.860067e+00 4.583017e+00 5.810252e+00 5.259303e+00 4.254265e+00 3.868377e+00 2.569317e+00 2.459717e+00 7.682418e+00
<GCONST> 1.879959e+02
<MIXTURE> 8 8.199579e-02
<MEAN> 39
 -1.928887e+01 -1.205931e+01 2.728379e-02 1.311799e+01 6.629985e+00 -7.042200e+00 -6.565593e+00 5.149827e+00 -5.311574e+00 2.440610e+00 -2.888483e+00 3.997260e+00 7.769953e+01 -4.919503e+00 -8.297749e+00 -1.000432e+01 -5.926529e+00 -1.481389e+00 -3.792253e+00 -6.250542e+00 -2.267879e+00 9.891540e-01 -1.492190e-01 -3.001764e+00 -3.053931e-01 9.985771e+00 -8.792546e-01 1.134398e+00 2.544783e+00 4.128178e-01 -1.479785e+00 -2.583956e+00 4.900307e-01 4.041789e-01 -1.138374e+00 -1.786129e-01 -9.810352e-02 7.299498e-02 4.077814e+00
<VARIANCE> 39
 1.564977e+02 3.729924e+02 2.606966e+02 2.205515e+02 2.074696e+02 2.563668e+02 2.725029e+02 2.182804e+02 1.860539e+02 1.293126e+02 1.542890e+02 1.051518e+02 4.846844e+02 3.642825e+01 3.163112e+01 2.771070e+01 2.877411e+01 2.357356e+01 3.311897e+01 2.095789e+01 2.845427e+01 3.342022e+01 1.959593e+01 1.916302e+01 1.482428e+01 6.183545e+01 6.515234e+00 7.427832e+00 5.042279e+00 5.319083e+00 5.840977e+00 6.818740e+00 6.961971e+00 7.082112e+00 5.770675e+00 4.544350e+00 3.978508e+00 3.463975e+00 1.088213e+01
<GCONST> 2.075206e+02
<STATE> 4
<NUMMIXES> 8
<MIXTURE> 1 8.271695e-02
<MEAN> 39
 -1.951927e+01 -2.010417e+01 -1.478840e+01 1.871488e+01 -1.277393e+01 -1.771699e+01 -1.018913e+01 6.538450e+00 -2.500587e+00 -1.633960e+00 1.259411e+00 8.052365e+00 1.156965e+02 -7.621982e+00 1.973319e+00 -9.841598e-01 1.842667e+00 -4.793644e+00 -1.035965e+00 2.323905e+00 4.666695e+00 7.925947e-01 6.296347e-01 1.510404e+00 3.482315e+00 1.051963e+01 -1.915837e+00 4.085156e+00 2.523137e+00 -3.297814e-01 2.497296e-01 1.703187e+00 1.509012e+00 -7.354008e-01 -1.026561e+00 5.044642e-02 -3.844200e-02 -1.346625e-01 -4.514805e+00
<VARIANCE> 39
 1.755169e+02 1.769852e+02 1.805915e+02 1.153038e+02 1.856563e+02 1.641779e+02 2.087263e+02 1.604664e+02 1.679375e+02 1.358006e+02 1.610560e+02 1.153494e+02 1.263041e+02 2.609408e+01 3.565640e+01 1.944926e+01 1.643588e+01 1.811145e+01 1.842639e+01 2.007866e+01 1.475957e+01 1.920140e+01 1.514520e+01 1.298560e+01 1.168844e+01 5.135873e+01 3.695305e+00 4.118491e+00 4.040827e+00 3.584540e+00 3.865374e+00 3.871072e+00 4.535115e+00 3.804976e+00 4.214764e+00 3.404708e+00 3.470713e+00 2.390450e+00 5.729399e+00
<GCONST> 1.936253e+02
<MIXTURE> 2 1.105681e-01
<MEAN> 39
 -4.488710e+01 -7.834452e+00 -3.658658e+00 7.794576e+00 9.738251e+00 -2.921967e+01 -1.522618e+01 5.291935e+00 1.811621e+00 3.674181e+00 -9.788634e+00 4.558877e+00 1.186422e+02 -1.369450e+01 6.139507e+00 3.160417e+00 1.085554e-01 -7.051170e-01 -3.969352e+00 3.320920e+00 3.395166e+00 3.115668e+00 -1.969005e+00 -7.910013e-01 1.363248e+00 3.886971e+00 8.342200e-01 1.973916e+00 1.053374e+00 6.460819e-02 -4.207184e-01 2.296264e+00 1.796541e+00 4.404551e-01 -8.703684e-01 -4.142378e-01 7.835348e-01 1.477813e-01 -4.387496e+00
<VARIANCE> 39
 2.132292e+02 9.594205e+01 1.748603e+02 1.953456e+02 2.459634e+02 2.741865e+02 1.957960e+02 2.083825e+02 1.650323e+02 1.367612e+02 1.332717e+02 1.055512e+02 1.383290e+02 1.516559e+01 1.561731e+01 1.604095e+01 1.570207e+01 1.724510e+01 1.798032e+01 1.431129e+01 1.815296e+01 1.706943e+01 1.518420e+01 1.363849e+01 1.349787e+01 2.233075e+01 4.955292e+00 2.628156e+00 3.672284e+00 3.439692e+00 2.825088e+00 4.587084e+00 3.146202e+00 3.977791e+00 3.964868e+00 3.069308e+00 2.793125e+00 2.150238e+00 4.006966e+00
<GCONST> 1.903264e+02
<MIXTURE> 3 2.114787e-01
<MEAN> 39
 -8.510102e+00 -2.131464e+01 -2.273614e+01 1.171131e+01 1.745796e+00 -1.073260e+01 -1.849013e+01 3.690216e-01 -3.063658e+00 5.717405e+00 -5.375316e+00 5.001213e+00 1.113016e+02 -6.554825e+00 -6.389707e-01 -1.311777e+00 2.411248e+00 -1.447388e+00 -3.742733e+00 -9.511946e-01 2.892112e+00 1.445949e+00 4.904102e-01 -1.249348e+00 1.460811e+00 1.411952e+01 -3.911238e+00 3.938225e+00 3.430438e+00 3.029539e-01 -9.746748e-01 8.506268e-02 2.179606e+00 6.553882e-01 -3.189469e-01 -1.003773e+00 4.572242e-01 2.527857e-01 -4.049937e+00
<VARIANCE> 39
 1.226695e+02 1.513015e+02 1.930868e+02 1.662850e+02 1.962158e+02 2.314486e+02 1.522522e+02 1.658711e+02 1.612303e+02 1.561507e+02 1.212694e+02 1.071926e+02 1.307966e+02 2.624164e+01 1.899275e+01 1.606600e+01 1.917996e+01 2.920346e+01 2.386288e+01 1.715715e+01 1.667088e+01 1.586884e+01 1.469185e+01 1.186515e+01 1.148586e+01 2.831377e+01 3.237312e+00 3.431108e+00 3.544155e+00 3.860932e+00 3.304779e+00 4.350103e+00 3.359999e+00 3.630331e+00 4.401020e+00 3.657544e+00 2.612153e+00 2.521945e+00 3.457798e+00
<GCONST> 1.911726e+02
<MIXTURE> 4 9.549606e-02
<MEAN> 39
 -4.130266e+01 -1.186344e+01 -6.254848e+00 9.141198e+00 1.251259e+01 -1.962376e+01 -2.189523e+01 8.629870e-01 3.397019e+00 1.147922e+01 -5.509715e+00 6.536169e-02 1.103522e+02 -1.199895e+01 3.439637e+00 3.833116e+00 1.487251e-01 -7.694604e-01 -4.624975e+00 1.386688e+00 2.791766e+00 3.221899e+00 -1.099675e+00 -1.912207e+00 -1.407329e-01 4.059474e+00 4.568351e-01 1.493713e+00 6.608865e-01 -5.804328e-01 -1.052288e+00 1.058720e+00 1.800919e+00 8.382842e-01 -7.705559e-01 -1.380447e+00 3.978211e-02 5.644468e-01 -3.182699e+00
<VARIANCE> 39
 2.213341e+02 1.137562e+02 1.633023e+02 2.299614e+02 2.846595e+02 2.747976e+02 2.032286e+02 2.000164e+02 1.880145e+02 1.384299e+02 1.364607e+02 1.032368e+02 1.786039e+02 1.420230e+01 9.912097e+00 1.197735e+01 1.598215e+01 2.064873e+01 1.864707e+01 1.480415e+01 1.713620e+01 1.520839e+01 1.464927e+01 1.257617e+01 1.186178e+01 1.989874e+01 5.966555e+00 1.848233e+00 2.767966e+00 2.684871e+00 3.007715e+00 4.108750e+00 2.920319e+00 3.358113e+00 3.533288e+00 2.564950e+00 2.638328e+00 2.089693e+00 2.820851e+00
<GCONST> 1.883746e+02
<MIXTURE> 5 1.848558e-01
<MEAN> 39
 -8.594753e+00 -2.089675e+01 -2.238952e+01 9.894959e+00 2.649940e+00 -1.174780e+01 -2.016093e+01 -2.391792e+00 -4.668461e+00 5.615186e+00 -6.015440e+00 3.979907e+00 1.088102e+02 -7.355084e+00 -1.311864e+00 -1.467328e+00 1.548259e+00 -1.838391e+00 -5.152791e+00 -2.187536e+00 1.536943e+00 1.603362e-01 -6.887380e-01 -2.189059e+00 5.587190e-01 1.314828e+01 -4.184410e+00 3.608710e+00 3.015312e+00 -1.764610e-02 -1.274005e+00 -1.319381e-01 1.964472e+00 6.268989e-01 -2.101210e-01 -1.185361e+00 3.013141e-01 1.853385e-01 -4.166607e+00
<VARIANCE> 39
 1.327037e+02 1.530533e+02 1.895912e+02 1.706268e+02 2.064543e+02 2.324603e+02 1.552289e+02 1.668371e+02 1.666345e+02 1.534690e+02 1.307323e+02 1.093289e+02 1.357782e+02 2.419175e+01 1.827687e+01 1.636555e+01 1.840865e+01 2.990046e+01 2.546957e+01 1.726512e+01 1.718191e+01 1.659440e+01 1.469607e+01 1.260908e+01 1.190164e+01 2.843467e+01 3.090370e+00 3.418352e+00 3.333384e+00 3.757949e+00 3.340979e+00 4.469810e+00 3.431856e+00 3.659466e+00 4.429497e+00 3.597547e+00 2.645735e+00 2.624972e+00 3.112155e+00
<GCONST> 1.914932e+02
<MIXTURE> 6 1.257851e-01
<MEAN> 39
 -4.602216e+01 -9.530825e+00 -4.423380e+00 7.452359e+00 8.913456e+00 -2.979487e+01 -1.756273e+01 4.113543e+00 1.784689e+00 3.828147e+00 -1.072044e+01 3.225399e+00 1.150566e+02 -1.366249e+01 4.852304e+00 2.790615e+00 -8.392735e-01 -1.789489e+00 -4.820168e+00 2.251126e+00 2.720479e+00 2.030380e+00 -2.793910e+00 -1.836430e+00 4.040335e-01 2.806888e+00 8.584252e-01 1.587104e+00 4.772008e-01 -5.036082e-01 -8.280975e-01 2.085176e+00 1.410900e+00 1.778783e-02 -1.082000e+00 -6.400545e-01 6.224011e-01 9.800293e-02 -4.153609e+00
<VARIANCE> 39
 2.033682e+02 9.529755e+01 1.669037e+02 1.954191e+02 2.625474e+02 2.752589e+02 1.962650e+02 2.186645e+02 1.728359e+02 1.451043e+02 1.379264e+02 1.060458e+02 1.410764e+02 1.285839e+01 1.353722e+01 1.436634e+01 1.574199e+01 1.883265e+01 1.753394e+01 1.467220e+01 1.734006e+01 1.686703e+01 1.458209e+01 1.223011e+01 1.247580e+01 1.957819e+01 5.076019e+00 2.220978e+00 3.165562e+00 2.834008e+00 2.928539e+00 4.367160e+00 3.098783e+00 3.742939e+00 3.783654e+00 2.974061e+00 2.784702e+00 2.208256e+00 3.346649e+00
<GCONST> 1.889542e+02
<MIXTURE> 7 1.137205e-01
<MEAN> 39
 -2.111181e+01 -1.887829e+01 -1.515610e+01 1.802450e+01 -1.347899e+01 -1.883169e+01 -1.225995e+01 5.180122e+00 -2.870255e+00 -2.206862e+00 3.937639e-01 8.761209e+00 1.134641e+02 -8.943287e+00 1.824876e+00 -9.534926e-01 8.869177e-01 -5.772586e+00 -1.764527e+00 1.235549e+00 3.394525e+00 -9.671806e-01 -7.651926e-01 3.226040e-01 2.684444e+00 8.721868e+00 -2.062397e+00 3.650378e+00 1.954397e+00 -8.265547e-01 1.254553e-01 1.529559e+00 1.146989e+00 -9.048439e-01 -1.158844e+00 -1.688740e-01 -1.074100e-01 -3.777827e-01 -4.824737e+00
<VARIANCE> 39
 1.881819e+02 1.690352e+02 1.727998e+02 1.194152e+02 1.857700e+02 1.749026e+02 2.032985e+02 1.588220e+02 1.698779e+02 1.401529e+02 1.581098e+02 1.173679e+02 1.252099e+02 2.452323e+01 3.246936e+01 1.843276e+01 1.799415e+01 1.930701e+01 2.098715e+01 2.114605e+01 1.414659e+01 1.959719e+01 1.442692e+01 1.308494e+01 1.214526e+01 4.882534e+01 3.868815e+00 4.035403e+00 3.569566e+00 3.326699e+00 3.650647e+00 3.949843e+00 4.325631e+00 3.629416e+00 4.135604e+00 3.471056e+00 3.254153e+00 2.496644e+00 4.760161e+00
<GCONST> 1.932415e+02
<MIXTURE> 8 7.536627e-02
<MEAN> 39
 -4.281347e+01 -1.288974e+01 -6.640292e+00 8.764418e+00 1.290087e+01 -2.132310e+01 -2.281886e+01 -1.514580e+00 4.661912e+00 1.150145e+01 -6.719816e+00 -8.399575e-01 1.078329e+02 -1.241766e+01 2.528944e+00 3.008473e+00 -6.361054e-01 -1.837013e+00 -5.738028e+00 2.827757e-01 2.060575e+00 2.254306e+00 -2.004350e+00 -2.920271e+00 -1.046475e+00 2.985509e+00 5.883222e-01 1.261400e+00 1.762393e-01 -1.014091e+00 -1.484377e+00 9.538961e-01 1.504189e+00 5.980732e-01 -9.446518e-01 -1.540425e+00 -1.120102e-01 4.740242e-01 -3.199178e+00
<VARIANCE> 39
 1.940607e+02 1.199091e+02 1.659217e+02 2.177427e+02 3.027930e+02 2.500870e+02 2.094399e+02 2.045644e+02 2.157593e+02 1.343676e+02 1.490790e+02 9.583929e+01 1.562966e+02 1.290934e+01 1.000393e+01 1.069584e+01 1.485864e+01 2.129184e+01 1.915170e+01 1.437912e+01 1.701275e+01 1.526878e+01 1.627602e+01 1.182542e+01 1.116012e+01 1.745536e+01 5.466413e+00 1.600470e+00 2.317510e+00 2.571855e+00 3.121303e+00 3.785275e+00 2.987481e+00 3.129269e+00 3.274201e+00 2.493526e+00 2.623309e+00 1.962269e+00 2.476688e+00
<GCONST> 1.870222e+02
<TRANSP> 5
 0.000000e+00 1.000000e+00 0.000000e+00 0.000000e+00 0.000000e+00
 0.000000e+00 7.129073e-01 2.870928e-01 0.000000e+00 0.000000e+00
 0.000000e+00 0.000000e+00 7.056969e-01 2.943032e-01 0.000000e+00
 0.000000e+00 0.000000e+00 0.000000e+00 6.098079e-01 3.901921e-01
 0.000000e+00 0.000000e+00 0.000000e+00 0.000000e+00 0.000000e+00
<ENDHMM>
~h "n"
<BEGINHMM>
<NUMSTATES> 5
<STATE> 2
<NUMMIXES> 8
<MIXTURE> 1 6.005368e-02
<MEAN> 39
 3.595217e+00 8.923783e+00 2.852063e+01 9.533957e+00 2.705052e-01 8.486647e+00 1.946709e+01 -6.233782e+00 7.523921e-01 6.419937e+00 -2.624637e+00 1.054363e+01 9.168284e+01 7.260480e+00 4.289466e+00 3.189194e+00 6.079567e+00 -8.416837e-01 2.633536e+00 3.245839e+00 -5.362317e+00 1.252823e+00 2.309850e-01 -1.732397e-01 3.179540e+00 8.860698e-01 2.778750e-01 -9.832168e-01 -2.111054e-01 -5.807114e-01 -3.848132e-01 -4.994528e-01 -5.006585e-01 1.702217e-01 1.400384e-01 -1.286344e-01 3.370979e-01 2.595071e-01 1.379431e+00
<VARIANCE> 39
 2.968061e+02 2.260397e+02 2.672892e+02 4.853650e+02 2.392815e+02 3.442224e+02 3.468414e+02 4.261524e+02 3.107162e+02 3.126958e+02 2.619071e+02 2.673697e+02 6.732197e+02 3.579913e+01 2.063728e+01 5.309869e+01 4.416482e+01 2.714154e+01 3.565047e+01 4.032180e+01 4.445664e+01 3.693120e+01 3.184639e+01 2.943904e+01 2.882347e+01 6.921494e+01 3.040901e+00 3.134351e+00 3.761957e+00 6.306437e+00 4.202519e+00 5.038594e+00 4.775730e+00 6.494835e+00 4.656059e+00 4.551829e+00 3.874658e+00 4.268016e+00 3.126752e+00
<GCONST> 2.126294e+02
<MIXTURE> 2 1.494117e-01
<MEAN> 39
 2.158620e+01 3.109860e+00 3.347139e+01 1.504703e+01 -6.087631e+00 5.117564e+00 2.070653e+01 -1.088932e+01 -8.798548e-01 1.099261e+01 -6.855049e+00 1.419976e+01 1.099451e+02 4.719070e-01 3.092382e+00 -7.379451e-01 3.810014e+00 1.311561e-01 2.338753e+00 1.970814e+00 -2.789577e+00 1.057520e+00 5.609776e-01 -1.024089e+00 5.258200e-01 -3.355480e+00 -8.830786e-01 -6.673033e-01 -5.444436e-02 -1.328569e+00 6.813695e-01 -1.996305e-01 -8.405190e-01 1.897275e+00 -3.459914e-02 -3.059307e-01 4.916414e-01 -3.997509e-01 6.015925e-01
<VARIANCE> 39
 5.572832e+01 2.128447e+02 1.792094e+02 3.340563e+02 2.880059e+02 4.380198e+02 5.719417e+02 5.062576e+02 5.881129e+02 4.334678e+02 3.963077e+02 4.503368e+02 1.585961e+02 3.857413e+00 9.500615e+00 1.322576e+01 2.300932e+01 1.541977e+01 2.138084e+01 2.909825e+01 3.590128e+01 2.507681e+01 1.955077e+01 1.924501e+01 1.821185e+01 5.000154e+00 1.077631e+00 1.767908e+00 3.167478e+00 4.872055e+00 3.428331e+00 5.000434e+00 5.858257e+00 5.972243e+00 4.846601e+00 4.204142e+00 3.830429e+00 3.968365e+00 1.084916e+00
<GCONST> 1.973143e+02
<MIXTURE> 3 1.372271e-01
<MEAN> 39
 2.066259e+01 1.357222e+00 3.367717e+01 2.178194e+01 -4.127028e+00 5.232389e+00 1.604385e+01 -4.959831e+00 -1.055408e+01 1.482822e+01 -1.249282e+01 4.124543e+00 1.091375e+02 -7.888499e-01 3.169966e+00 -5.985305e-01 2.457885e+00 1.359928e+00 1.170267e+00 2.320395e+00 -2.294160e-01 7.765431e-01 2.328012e-01 -9.907005e-01 -4.576212e-01 -3.346335e+00 -1.299895e+00 -7.059409e-01 -6.266547e-01 -1.618219e+00 7.682341e-01 -2.592396e-01 -1.320061e+00 1.762725e+00 8.130889e-01 -5.691866e-01 9.976429e-01 1.804728e-01 6.182114e-01
<VARIANCE> 39
 6.232976e+01 1.884012e+02 1.634642e+02 2.937644e+02 3.387597e+02 4.417370e+02 4.932240e+02 4.192018e+02 6.224098e+02 6.000527e+02 5.696073e+02 5.564535e+02 1.890669e+02 5.279655e+00 1.189987e+01 1.347832e+01 1.671327e+01 1.577764e+01 1.964935e+01 2.589350e+01 2.419759e+01 2.486156e+01 2.281243e+01 2.009251e+01 2.018084e+01 7.542325e+00 2.189936e+00 2.701663e+00 3.745319e+00 5.303208e+00 5.082743e+00 5.560878e+00 7.642817e+00 6.145311e+00 6.963913e+00 6.082184e+00 5.873028e+00 5.854999e+00 1.895401e+00
<GCONST> 2.027038e+02
<MIXTURE> 4 1.639380e-01
<MEAN> 39
 1.213493e+01 -1.418685e+01 4.393525e+01 -1.634074e+01 -4.887390e+00 -2.834804e+00 1.325148e+01 1.246369e+01 -7.831029e+00 1.168038e+01 6.441116e-01 9.758240e+00 1.293810e+02 2.068004e+00 5.459550e+00 2.060334e-02 5.642451e+00 5.464362e-01 1.359494e+00 3.127129e+00 -5.910227e+00 -1.099774e+00 1.716739e+00 -2.368409e+00 1.207028e+00 -5.632251e+00 5.074006e-01 3.110909e-01 -1.692356e+00 2.281279e+00 4.112207e-01 3.453593e-01 4.390886e-01 -1.032837e+00 7.887668e-01 -4.149688e-01 -3.577257e-01 2.393810e-01 -7.327008e-01
<VARIANCE> 39
 7.499747e+01 2.375711e+02 2.647446e+02 5.173797e+02 2.966710e+02 3.256053e+02 5.797426e+02 4.903109e+02 4.121394e+02 3.295249e+02 2.906910e+02 2.371421e+02 2.003779e+02 5.767899e+00 1.055263e+01 2.853177e+01 4.441567e+01 2.621487e+01 3.100002e+01 4.043391e+01 3.925600e+01 3.465496e+01 3.204509e+01 2.611767e+01 2.672216e+01 5.188570e+00 8.238856e-01 1.652697e+00 2.939508e+00 5.550299e+00 3.704316e+00 4.716056e+00 5.864541e+00 5.705268e+00 4.503452e+00 4.617801e+00 3.609359e+00 3.655784e+00 9.098411e-01
<GCONST> 2.011109e+02
<MIXTURE> 5 1.451608e-01
<MEAN> 39
 1.977361e+01 8.418443e-01 3.269249e+01 1.509459e+01 -6.603251e+00 3.782154e+00 1.710920e+01 -1.075173e+01 -5.466451e+00 9.741599e+00 -1.043313e+01 9.738467e+00 1.095482e+02 -3.297769e-02 2.681567e+00 -1.058290e+00 3.110934e+00 1.151736e-01 1.584868e+00 1.601804e+00 -2.130403e+00 3.922752e-01 4.969693e-02 -1.661669e+00 -6.151497e-01 -3.418222e+00 -9.911096e-01 -7.256611e-01 -2.810211e-01 -1.226513e+00 5.686222e-01 -4.110906e-01 -1.058930e+00 1.880857e+00 3.189560e-02 -4.267177e-01 4.429076e-01 -4.541252e-01 4.135858e-01
<VARIANCE> 39
 6.043328e+01 2.187539e+02 1.747651e+02 3.575152e+02 2.936629e+02 4.284783e+02 5.326191e+02 5.112471e+02 5.732300e+02 4.475040e+02 4.197065e+02 4.505274e+02 1.768420e+02 4.290770e+00 9.476167e+00 1.223799e+01 2.068174e+01 1.478092e+01 2.039445e+01 2.696698e+01 3.265054e+01 2.382206e+01 1.955381e+01 1.808587e+01 1.752666e+01 5.462585e+00 1.347076e+00 1.887461e+00 3.326212e+00 4.940610e+00 3.454144e+00 5.007429e+00 6.129183e+00 6.224385e+00 4.922380e+00 4.013763e+00 3.894216e+00 4.103130e+00 1.310814e+00
<GCONST> 1.978255e+02
<MIXTURE> 6 1.250546e-01
<MEAN> 39
 1.848742e+01 1.441574e-01 3.354348e+01 2.055750e+01 -4.791777e+00 3.906790e+00 1.421282e+01 -6.928367e+00 -1.426584e+01 1.454538e+01 -1.767738e+01 8.229040e-01 1.081651e+02 -1.506142e+00 3.013910e+00 -1.352284e+00 1.878947e+00 1.180147e+00 4.853526e-01 1.593075e+00 -2.833635e-01 5.576708e-01 -8.780268e-01 -1.572162e+00 -1.272067e+00 -3.783757e+00 -1.514241e+00 -8.173311e-01 -9.570454e-01 -1.673832e+00 6.014012e-01 -4.750751e-01 -1.605623e+00 1.787912e+00 9.055751e-01 -7.969823e-01 1.255136e+00 1.845634e-01 4.131050e-01
<VARIANCE> 39
 6.639197e+01 1.783667e+02 1.530924e+02 2.957692e+02 3.277636e+02 4.153122e+02 4.508057e+02 4.197520e+02 5.838710e+02 7.115003e+02 6.332291e+02 5.249851e+02 2.060312e+02 6.137712e+00 1.233270e+01 1.342835e+01 1.565991e+01 1.550824e+01 1.883309e+01 2.505419e+01 2.182998e+01 2.546616e+01 2.597543e+01 2.306859e+01 2.272530e+01 8.316911e+00 2.535752e+00 2.780949e+00 3.878126e+00 5.239970e+00 4.961202e+00 5.406847e+00 7.466597e+00 6.225196e+00 7.207581e+00 6.214670e+00 6.449293e+00 6.320379e+00 2.186821e+00
<GCONST> 2.036454e+02
<MIXTURE> 7 1.492409e-01
<MEAN> 39
 1.151186e+01 -1.695765e+01 4.260685e+01 -1.325374e+01 -8.210774e+00 -5.215643e+00 5.208076e+00 1.367042e+01 -1.247106e+01 8.987096e+00 -2.070832e+00 5.664308e+00 1.305927e+02 1.763357e+00 4.853373e+00 -1.914879e-02 5.065624e+00 7.384429e-01 1.114063e+00 3.322266e+00 -5.383442e+00 -2.188772e+00 1.940498e+00 -3.216709e+00 -1.622962e-01 -5.421146e+00 4.738722e-01 2.690309e-01 -1.653692e+00 2.070552e+00 3.531616e-01 3.831303e-01 5.634128e-01 -1.011941e+00 8.424645e-01 -2.915632e-01 -6.085941e-01 -1.372599e-01 -7.753085e-01
<VARIANCE> 39
 8.391284e+01 2.327708e+02 2.960722e+02 5.034054e+02 3.187086e+02 3.138592e+02 6.001089e+02 5.097936e+02 4.388886e+02 3.372867e+02 3.174648e+02 2.533102e+02 2.255863e+02 5.831201e+00 1.013763e+01 2.690895e+01 4.159432e+01 2.472584e+01 2.879407e+01 3.861689e+01 3.855658e+01 3.152700e+01 2.853070e+01 2.298312e+01 2.610387e+01 5.360443e+00 9.240851e-01 1.610545e+00 2.950239e+00 5.116028e+00 3.628151e+00 4.587417e+00 5.826403e+00 5.712120e+00 4.261438e+00 4.186171e+00 3.344583e+00 3.672248e+00 9.573429e-01
<GCONST> 2.008586e+02
<MIXTURE> 8 6.989503e-02
<MEAN> 39
 3.746443e+00 7.737480e+00 2.731223e+01 9.676868e+00 -6.252757e-01 5.754014e+00 1.706491e+01 -5.406135e+00 -1.907004e+00 7.754046e+00 -5.781136e+00 6.820938e+00 9.289538e+01 6.480671e+00 2.457022e+00 2.403303e+00 4.800488e+00 -1.777983e+00 1.711212e+00 2.083554e+00 -5.228117e+00 -4.870515e-01 -4.095297e-02 -1.981954e+00 1.362767e+00 1.147342e+00 -3.179924e-02 -1.234640e+00 -3.481396e-01 -6.157947e-01 -4.832734e-01 -6.002359e-01 -1.017682e+00 1.029975e-01 -8.921945e-02 -4.951831e-01 1.457243e-02 -1.196640e-01 1.197734e+00
<VARIANCE> 39
 2.823777e+02 2.637258e+02 2.753499e+02 5.571355e+02 2.602440e+02 3.447586e+02 3.231448e+02 4.499865e+02 3.267946e+02 3.065636e+02 2.633744e+02 2.556433e+02 6.697470e+02 3.874219e+01 2.187158e+01 4.734542e+01 4.868443e+01 2.655487e+01 3.286590e+01 4.127306e+01 4.187986e+01 3.633926e+01 3.100058e+01 2.799691e+01 2.820976e+01 6.831908e+01 3.134029e+00 3.350497e+00 3.785256e+00 6.842177e+00 4.163323e+00 5.171495e+00 5.034128e+00 6.357161e+00 4.733369e+00 4.358459e+00 3.663677e+00 3.981351e+00 3.575139e+00
<GCONST> 2.130232e+02
<STATE> 3
<NUMMIXES> 8
<MIXTURE> 1 1.587069e-01
<MEAN> 39
 2.241657e+01 1.172485e+01 3.373125e+01 1.671784e+01 -7.487284e+00 1.594633e+01 2.220851e+01 -1.699197e+01 5.030707e+00 6.045470e+00 -2.364863e+00 1.791850e+01 1.017677e+02 -6.835310e-01 -5.987722e-02 5.475837e-01 8.584919e-01 7.855638e-01 6.143023e-01 4.316362e-01 1.836815e+00 4.620483e-01 -6.706181e-01 7.567670e-01 4.908410e-01 -6.280155e-01 -8.634136e-01 -9.220376e-01 -2.530479e-01 -8.272720e-01 8.707662e-01 -1.078927e+00 -5.657999e-01 2.005442e+00 -3.223248e-01 5.452015e-02 7.912210e-02 -5.109490e-01 4.897275e-01
<VARIANCE> 39
 5.181648e+01 2.060595e+02 1.534615e+02 2.127699e+02 2.227397e+02 3.637523e+02 4.501208e+02 4.235974e+02 4.481714e+02 4.179929e+02 4.604494e+02 3.786542e+02 1.543242e+02 3.390482e+00 7.657285e+00 5.421066e+00 8.598557e+00 1.025983e+01 1.468455e+01 1.286077e+01 1.801327e+01 1.302293e+01 1.238830e+01 1.174666e+01 1.222880e+01 7.796745e+00 9.929842e-01 1.635796e+00 2.036784e+00 2.719005e+00 2.376402e+00 3.373896e+00 4.167596e+00 4.473757e+00 3.501450e+00 2.959144e+00 3.360739e+00 2.913255e+00 1.155113e+00
<GCONST> 1.856871e+02
<MIXTURE> 2 1.048629e-01
<MEAN> 39
 1.889655e+01 1.138755e+01 3.163907e+01 2.468510e+01 -3.618891e-01 3.881569e+00 1.935756e+01 -3.560749e+00 -7.892554e+00 1.036207e+01 -1.202311e+01 3.452255e+00 9.935529e+01 -8.059117e-01 7.246950e-02 -2.042860e-02 -1.417334e+00 2.339000e+00 2.689371e-01 -1.868479e+00 2.030734e+00 2.285305e+00 -2.975770e-01 1.702978e+00 7.676319e-01 2.043353e+00 -2.171313e+00 -1.691671e+00 -1.279440e+00 -1.869155e+00 2.006430e-01 -8.049742e-02 -1.470612e+00 1.107202e+00 8.570875e-01 -7.767911e-02 9.981325e-01 3.353255e-01 7.661799e-01
<VARIANCE> 39
 8.345432e+01 2.108837e+02 1.483289e+02 2.265813e+02 3.036751e+02 3.567397e+02 4.156471e+02 3.637861e+02 5.276957e+02 4.599505e+02 4.315332e+02 4.403091e+02 2.023826e+02 5.133646e+01 3.423111e+01 3.496462e+01 4.339848e+01 3.847968e+01 3.944647e+01 5.741783e+01 4.867453e+01 4.745387e+01 3.663300e+01 3.319469e+01 3.770884e+01 5.317029e+01 4.014554e+00 2.827959e+00 2.976800e+00 3.495187e+00 4.016684e+00 4.302462e+00 5.328139e+00 4.242565e+00 5.638121e+00 4.158719e+00 4.306668e+00 4.229752e+00 2.151553e+00
<GCONST> 2.114455e+02
<MIXTURE> 3 1.299302e-01
<MEAN> 39
 2.236884e+01 3.240557e+00 3.893879e+01 1.741221e+01 -9.587146e+00 7.090550e+00 1.993518e+01 -1.651504e+01 7.252924e-01 6.522684e+00 -7.600907e+00 1.841998e+01 1.102576e+02 -1.086379e+00 -3.455997e+00 -6.761692e-01 -3.610000e+00 2.932272e+00 -3.856470e+00 -2.764684e+00 5.737211e+00 7.078968e-01 5.002886e-02 4.367754e-01 2.068826e-01 4.516556e+00 -1.434223e+00 -1.628127e+00 -1.779969e+00 -2.351177e+00 1.626184e+00 -8.857063e-01 -1.804602e+00 3.354873e+00 2.247048e-01 1.373228e-01 5.202984e-01 -1.118095e+00 1.101306e+00
<VARIANCE> 39
 4.923687e+01 2.049925e+02 1.413612e+02 2.564362e+02 2.433143e+02 4.640308e+02 5.341183e+02 4.261265e+02 5.676321e+02 4.671002e+02 5.212629e+02 5.758859e+02 1.255701e+02 9.318724e+00 1.819814e+01 1.565151e+01 2.821075e+01 2.521899e+01 4.037989e+01 4.216110e+01 5.102582e+01 2.765379e+01 2.185362e+01 2.314635e+01 2.779164e+01 2.096121e+01 2.675075e+00 2.577184e+00 3.127341e+00 4.706088e+00 4.251597e+00 6.212902e+00 7.361046e+00 6.562488e+00 7.622087e+00 4.697484e+00 5.827724e+00 5.868093e+00 2.768010e+00
<GCONST> 2.069341e+02
<MIXTURE> 4 1.171217e-01
<MEAN> 39
 1.364011e+01 1.815540e+01 3.313988e+01 2.579317e+01 6.933469e+00 1.363356e+01 2.188726e+01 -2.501588e+00 -3.613640e-02 4.545842e+00 -9.689190e+00 9.229628e+00 9.130772e+01 -6.588335e+00 -4.280801e-01 -3.597485e+00 5.740799e-01 4.023379e+00 1.239065e+00 -9.741170e-01 5.743999e+00 3.277148e-01 4.628546e-01 1.594691e+00 -2.836355e+00 -3.103156e+00 -1.845555e+00 -2.063298e+00 -1.661717e+00 -1.745447e+00 -1.131789e+00 -1.211200e+00 -1.110087e+00 1.240358e-01 -2.888109e-02 1.279428e-01 6.262805e-01 1.550426e-01 8.713885e-01
<VARIANCE> 39
 8.486423e+01 1.340172e+02 1.216129e+02 1.742891e+02 2.135959e+02 2.805104e+02 3.040183e+02 3.614273e+02 3.402062e+02 3.748224e+02 3.500444e+02 3.504564e+02 1.458582e+02 1.957650e+01 2.072595e+01 2.026870e+01 2.268943e+01 2.194284e+01 3.189310e+01 3.694069e+01 3.239220e+01 3.878463e+01 3.765274e+01 3.632005e+01 3.357746e+01 1.922053e+01 2.998271e+00 2.329746e+00 2.546689e+00 2.741160e+00 3.414777e+00 3.770228e+00 4.057625e+00 4.926695e+00 3.748437e+00 3.964742e+00 3.712502e+00 3.741386e+00 2.083094e+00
<GCONST> 2.006663e+02
<MIXTURE> 5 1.583673e-01
<MEAN> 39
 2.064786e+01 8.815835e+00 3.264960e+01 1.699328e+01 -9.005190e+00 1.359362e+01 2.022686e+01 -1.706306e+01 8.098137e-01 5.041749e+00 -7.555123e+00 1.463673e+01 1.014510e+02 -1.134257e+00 -6.737715e-01 -6.705552e-02 4.386228e-01 5.591807e-01 -1.207093e-01 -2.719047e-01 1.828122e+00 3.297604e-02 -1.162101e+00 -2.475280e-03 -3.385216e-01 -5.525008e-01 -1.019647e+00 -1.086468e+00 -5.804324e-01 -1.039345e+00 7.582418e-01 -1.310866e+00 -9.657747e-01 1.964681e+00 -3.044924e-01 1.241683e-02 3.867511e-02 -7.089764e-01 4.128305e-01
<VARIANCE> 39
 6.016454e+01 2.078230e+02 1.542822e+02 2.393487e+02 2.225475e+02 3.658990e+02 4.308294e+02 4.314381e+02 4.499111e+02 4.071016e+02 4.622912e+02 3.749593e+02 1.841110e+02 4.872283e+00 8.098410e+00 6.186624e+00 8.970149e+00 1.065838e+01 1.533722e+01 1.341285e+01 1.781068e+01 1.322263e+01 1.275274e+01 1.230601e+01 1.271715e+01 1.027715e+01 1.271227e+00 1.833603e+00 2.244768e+00 2.726729e+00 2.572162e+00 3.599339e+00 4.490557e+00 4.862324e+00 3.776518e+00 3.102458e+00 3.475836e+00 3.027987e+00 1.474305e+00
<GCONST> 1.884093e+02
<MIXTURE> 6 1.219724e-01
<MEAN> 39
 2.063873e+01 2.260936e+00 3.806883e+01 1.636091e+01 -1.073124e+01 5.299737e+00 1.789035e+01 -1.964910e+01 -1.588434e+00 5.739407e+00 -8.972339e+00 1.788319e+01 1.100887e+02 -1.602278e+00 -4.222671e+00 -1.327635e+00 -4.518209e+00 2.822544e+00 -4.642442e+00 -3.896472e+00 6.777202e+00 -1.389303e-01 -7.959875e-01 -4.903648e-01 -1.346616e+00 4.738077e+00 -1.577785e+00 -1.766137e+00 -2.006474e+00 -2.490297e+00 1.363702e+00 -9.153515e-01 -1.838081e+00 3.486514e+00 2.635545e-01 -1.502586e-01 3.987193e-01 -1.383012e+00 9.633558e-01
<VARIANCE> 39
 5.192538e+01 1.945141e+02 1.394756e+02 2.837243e+02 2.237841e+02 4.415962e+02 4.998841e+02 4.209894e+02 5.536116e+02 4.743318e+02 5.355977e+02 5.565049e+02 1.384603e+02 1.051756e+01 1.850356e+01 1.675922e+01 2.877402e+01 2.670014e+01 4.317877e+01 4.145974e+01 5.149958e+01 3.109782e+01 2.396205e+01 2.491321e+01 3.065127e+01 2.712862e+01 2.954509e+00 2.522254e+00 3.396919e+00 4.613695e+00 4.466240e+00 6.530556e+00 7.001542e+00 6.896531e+00 7.978088e+00 4.619014e+00 5.742195e+00 6.550510e+00 3.041575e+00
<GCONST> 2.083307e+02
<MIXTURE> 7 1.113168e-01
<MEAN> 39
 1.675788e+01 9.885607e+00 3.105143e+01 2.340574e+01 -1.326289e+00 3.404323e+00 1.570051e+01 -4.786244e+00 -9.278738e+00 1.144822e+01 -1.423194e+01 1.511892e+00 9.856468e+01 -1.996742e+00 -9.689374e-01 -1.447759e+00 -2.601144e+00 1.550537e+00 -9.045167e-01 -3.109821e+00 1.949551e+00 1.399187e+00 -1.365559e+00 8.408459e-01 -2.314555e-01 1.884861e+00 -2.311716e+00 -1.850900e+00 -1.603511e+00 -2.127937e+00 -1.162436e-01 -3.753049e-01 -1.682499e+00 8.614400e-01 7.183837e-01 -3.885519e-01 9.241425e-01 1.779431e-01 5.340772e-01
<VARIANCE> 39
 9.229498e+01 2.115414e+02 1.457232e+02 2.431054e+02 2.887285e+02 3.470479e+02 3.814451e+02 3.465396e+02 4.667722e+02 4.760252e+02 4.302606e+02 3.913565e+02 2.139651e+02 5.872062e+01 3.350040e+01 3.535950e+01 4.120908e+01 4.017889e+01 3.746112e+01 5.126362e+01 4.803510e+01 5.010871e+01 3.717037e+01 3.827448e+01 3.865164e+01 6.395819e+01 3.971923e+00 2.826719e+00 2.896582e+00 3.488442e+00 4.065658e+00 4.469946e+00 5.248196e+00 4.479805e+00 5.951209e+00 4.532928e+00 4.450609e+00 4.253458e+00 2.456460e+00
<GCONST> 2.119546e+02
<MIXTURE> 8 9.770153e-02
<MEAN> 39
 1.010980e+01 1.785210e+01 3.138042e+01 2.402395e+01 7.848006e+00 1.396894e+01 1.944569e+01 -4.071527e+00 -1.812865e+00 4.603640e+00 -1.057348e+01 7.113358e+00 9.035837e+01 -9.253766e+00 -2.235869e+00 -6.213392e+00 -1.205697e+00 2.566489e+00 -3.355589e-01 -3.193364e+00 4.873666e+00 -1.169706e+00 -2.013212e-01 1.185127e+00 -4.103016e+00 -3.545891e+00 -1.919843e+00 -2.294643e+00 -1.968556e+00 -2.265169e+00 -1.983965e+00 -1.794298e+00 -1.528995e+00 -4.293878e-01 -1.709325e-01 -2.398389e-01 5.032327e-01 3.877950e-01 1.111036e+00
<VARIANCE> 39
 9.233359e+01 1.397272e+02 1.162692e+02 1.646166e+02 1.986372e+02 2.508652e+02 2.828364e+02 3.591963e+02 2.999150e+02 3.285292e+02 3.063899e+02 2.962595e+02 1.527076e+02 1.922555e+01 2.150899e+01 2.126283e+01 2.342731e+01 2.322625e+01 3.328896e+01 3.990472e+01 3.555490e+01 4.345762e+01 4.226818e+01 4.605476e+01 4.027776e+01 2.090256e+01 2.777337e+00 2.422864e+00 2.561167e+00 2.641808e+00 3.835355e+00 3.854021e+00 4.471862e+00 5.423626e+00 4.058634e+00 4.507793e+00 4.075217e+00 4.277946e+00 2.785146e+00
<GCONST> 2.020044e+02
<STATE> 4
<NUMMIXES> 8
<MIXTURE> 1 9.947564e-02
<MEAN> 39
 1.667447e+01 -2.298634e+01 2.610622e+01 -1.226719e+01 8.017050e+00 -7.829791e+00 -6.668965e+00 2.166158e+01 4.018748e+00 1.186862e+01 -5.564657e+00 9.826253e+00 1.368292e+02 -6.161259e-01 -6.707929e+00 -5.930329e+00 -7.518421e+00 2.855041e+00 2.258882e-01 -4.819286e+00 6.635488e+00 2.429715e+00 -2.326704e-01 1.832767e+00 -1.096702e+00 6.302406e+00 3.704365e-01 1.122881e+00 -3.470367e-01 1.895804e+00 -6.186761e-01 1.766624e+00 1.543910e+00 -2.362974e+00 -7.909805e-02 -3.731987e-01 3.343083e-01 -2.329348e-01 -1.523389e+00
<VARIANCE> 39
 5.852401e+01 1.984570e+02 2.090535e+02 2.914203e+02 2.748785e+02 3.435136e+02 7.484534e+02 3.824963e+02 2.984724e+02 4.050780e+02 3.097599e+02 3.267230e+02 1.476415e+02 4.456157e+00 1.525641e+01 1.495389e+01 2.794317e+01 3.030992e+01 3.143215e+01 4.511475e+01 4.193195e+01 4.811544e+01 2.683702e+01 3.115176e+01 2.582936e+01 9.174797e+00 5.797933e-01 2.080967e+00 2.506317e+00 4.520329e+00 3.557389e+00 5.456115e+00 8.111411e+00 6.344385e+00 4.828873e+00 3.667917e+00 3.668699e+00 3.209669e+00 1.433642e+00
<GCONST> 2.002487e+02
<MIXTURE> 2 2.126049e-01
<MEAN> 39
 2.125672e+00 3.116937e+00 2.154307e+01 2.485587e+01 6.266513e+00 6.311401e+00 1.890269e+01 9.684263e+00 3.331081e+00 3.108298e+00 -8.898680e+00 5.359181e+00 8.247164e+01 -2.102106e+00 -3.795648e-01 -1.827186e+00 -4.459591e-01 4.793329e-01 5.497660e-01 -5.229775e-01 1.677792e+00 1.018898e+00 -9.764775e-02 9.060462e-01 -2.954890e-01 -2.227239e+00 8.856951e-02 -4.602915e-02 -2.366993e-02 -5.875967e-01 -1.914798e-01 -3.989691e-01 -3.354636e-01 -3.553196e-01 -2.501890e-01 3.083836e-01 1.310979e-01 1.248622e-01 3.639024e-01
<VARIANCE> 39
 1.401974e+02 1.385650e+02 2.265676e+02 2.639683e+02 2.361846e+02 2.870367e+02 3.476872e+02 3.754030e+02 3.797759e+02 3.720470e+02 2.969658e+02 2.728211e+02 2.434583e+02 7.545364e+00 9.089529e+00 1.019720e+01 1.419695e+01 1.259893e+01 1.552761e+01 1.581108e+01 1.880257e+01 1.846848e+01 1.542257e+01 1.549872e+01 1.383744e+01 5.488804e+00 1.000518e+00 1.596104e+00 2.047131e+00 2.582913e+00 2.481802e+00 3.043971e+00 3.205674e+00 3.534380e+00 3.374403e+00 2.737593e+00 2.780837e+00 2.459647e+00 7.274275e-01
<GCONST> 1.874177e+02
<MIXTURE> 3 1.170237e-01
<MEAN> 39
 -8.832026e+00 6.026811e+00 1.540911e+01 1.649894e+01 7.592441e+00 9.750321e+00 1.397109e+01 7.038629e+00 -9.361105e-01 6.003897e+00 -4.445670e+00 1.828449e+00 8.406812e+01 -7.803817e+00 -2.384567e+00 -5.919409e+00 -3.870876e+00 -8.630114e-01 -2.552765e+00 -4.030363e+00 1.625676e+00 5.203971e-01 -6.823026e-01 2.152383e+00 -2.266814e-01 -1.422978e+00 6.340853e-01 -2.269964e-01 3.531393e-01 -4.262923e-01 -1.151380e+00 -5.899599e-01 -3.724928e-01 -1.068696e+00 -1.590707e-01 -6.649197e-02 -2.396839e-01 7.708305e-01 1.308699e+00
<VARIANCE> 39
 1.209543e+02 1.882665e+02 1.455603e+02 1.868730e+02 2.059296e+02 2.182014e+02 2.633323e+02 2.881021e+02 2.420279e+02 2.699002e+02 1.986713e+02 1.804671e+02 4.005949e+02 3.762051e+01 2.234104e+01 2.125146e+01 2.194502e+01 2.607589e+01 2.505266e+01 2.786471e+01 3.294563e+01 3.363490e+01 2.766251e+01 3.011843e+01 2.667511e+01 2.427127e+01 2.828591e+00 4.253421e+00 3.106889e+00 3.903712e+00 4.621557e+00 4.446899e+00 5.065086e+00 5.355870e+00 4.975766e+00 4.801096e+00 4.670270e+00 4.367449e+00 4.855555e+00
<GCONST> 2.034109e+02
<MIXTURE> 4 6.838081e-02
<MEAN> 39
 9.100756e+00 -1.081279e+01 2.637942e+01 -3.031367e+00 2.589411e+00 -1.185935e+01 3.284619e+00 1.612377e+01 7.454387e-02 3.058042e+00 -4.329947e+00 9.971593e+00 1.186218e+02 -1.828195e+00 -4.082890e+00 -4.291146e+00 -4.669130e+00 1.735674e+00 -2.591534e+00 -2.530095e+00 6.510224e+00 2.136672e+00 -6.565847e-01 1.259757e+00 -1.134692e+00 3.436769e+00 2.848048e-01 5.815197e-01 -6.285673e-01 1.388610e+00 -8.458747e-02 1.987494e+00 7.743359e-01 -1.348490e+00 3.026067e-01 2.768790e-01 -4.560646e-02 -3.618533e-01 -1.050442e+00
<VARIANCE> 39
 1.514666e+02 1.817569e+02 3.297594e+02 2.723174e+02 2.682014e+02 3.426912e+02 5.365204e+02 3.692669e+02 3.700134e+02 4.204291e+02 3.563256e+02 3.411785e+02 4.335510e+02 1.020468e+01 2.825715e+01 2.231698e+01 3.849780e+01 3.379871e+01 4.490170e+01 4.503560e+01 5.509288e+01 4.291933e+01 3.389116e+01 3.364364e+01 3.382806e+01 3.350063e+01 1.717268e+00 2.589985e+00 4.119158e+00 4.295202e+00 4.167414e+00 5.673746e+00 6.732626e+00 6.358745e+00 5.537500e+00 4.814960e+00 4.690406e+00 4.425788e+00 2.159468e+00
<GCONST> 2.104301e+02
<MIXTURE> 5 2.352918e-01
<MEAN> 39
 -3.875352e+00 -2.491993e-01 1.800140e+01 2.233169e+01 3.990827e+00 5.026180e+00 1.684165e+01 1.225292e+01 3.515443e+00 7.317895e-02 -9.063071e+00 4.687413e+00 7.625887e+01 -3.257290e+00 -1.825075e+00 -3.836985e+00 -2.499335e+00 -1.281097e+00 -1.534630e+00 -2.241883e+00 -3.045124e-01 -4.186407e-01 -1.105971e+00 -3.708196e-01 -1.376598e+00 -2.814757e+00 2.071041e-01 6.455227e-02 -1.200072e-01 -7.704778e-01 -4.782486e-01 -6.198932e-01 -7.210960e-01 -9.559387e-01 -6.610754e-01 2.585190e-03 -7.291836e-02 -4.220123e-02 3.465920e-01
<VARIANCE> 39
 9.202407e+01 1.277719e+02 2.362294e+02 2.619615e+02 2.210374e+02 2.712556e+02 3.341841e+02 3.451961e+02 3.489987e+02 3.479362e+02 2.829167e+02 2.462019e+02 1.431046e+02 7.339588e+00 1.013117e+01 1.158180e+01 1.380782e+01 1.188883e+01 1.619044e+01 1.632017e+01 1.908972e+01 1.876476e+01 1.589191e+01 1.651122e+01 1.459278e+01 5.362194e+00 8.962348e-01 1.639058e+00 2.237921e+00 2.673195e+00 2.427235e+00 3.219961e+00 3.284501e+00 3.576425e+00 3.443685e+00 2.977032e+00 2.930214e+00 2.662606e+00 7.099294e-01
<GCONST> 1.865409e+02
<MIXTURE> 6 9.838212e-02
<MEAN> 39
 -1.073213e+01 4.864415e+00 1.461486e+01 1.580314e+01 6.397547e+00 1.038631e+01 1.346706e+01 5.925438e+00 -2.175743e+00 4.687050e+00 -5.332717e+00 1.574170e+00 8.379287e+01 -9.087303e+00 -4.254004e+00 -7.659458e+00 -5.150105e+00 -2.898427e+00 -4.015524e+00 -5.970300e+00 1.408654e-01 -1.528172e+00 -1.689739e+00 9.059460e-01 -1.672804e+00 -2.031873e+00 6.803936e-01 -2.874476e-01 1.335904e-01 -7.404681e-01 -1.534792e+00 -1.000889e+00 -7.101544e-01 -1.543668e+00 -2.400834e-01 -3.154536e-01 -2.314877e-01 9.009822e-01 1.289870e+00
<VARIANCE> 39
 1.179128e+02 1.650776e+02 1.405479e+02 1.759869e+02 1.957822e+02 2.017639e+02 2.557829e+02 2.991669e+02 2.223849e+02 2.628582e+02 1.966654e+02 1.736007e+02 3.397101e+02 2.982398e+01 1.706490e+01 1.836182e+01 1.831753e+01 2.135799e+01 2.307100e+01 2.630860e+01 3.151414e+01 3.020685e+01 2.568357e+01 3.028250e+01 2.626647e+01 2.254851e+01 2.479727e+00 3.774177e+00 2.872291e+00 3.634279e+00 4.514062e+00 4.398921e+00 5.050030e+00 5.266720e+00 5.022178e+00 5.094864e+00 5.144133e+00 4.755872e+00 4.859727e+00
<GCONST> 2.010321e+02
<MIXTURE> 7 1.034541e-01
<MEAN> 39
 1.556415e+01 -2.342538e+01 2.648771e+01 -1.177773e+01 6.356595e+00 -9.762416e+00 -9.365612e+00 1.897572e+01 1.858104e+00 1.152044e+01 -7.926461e+00 7.142416e+00 1.365806e+02 -1.067136e+00 -6.809443e+00 -6.226506e+00 -7.991605e+00 2.815723e+00 -5.467446e-01 -5.054151e+00 7.535206e+00 2.892615e+00 -1.012510e+00 1.460238e+00 -1.770663e+00 6.760830e+00 2.846560e-01 1.051057e+00 -5.857394e-01 1.779511e+00 -7.032517e-01 1.905031e+00 1.644640e+00 -2.236515e+00 -6.191465e-02 -4.689168e-01 3.074455e-01 -4.861622e-01 -1.451413e+00
<VARIANCE> 39
 5.672622e+01 1.748289e+02 2.147505e+02 3.048154e+02 2.751247e+02 3.452728e+02 6.834471e+02 3.611577e+02 3.015084e+02 4.574639e+02 3.241148e+02 3.442272e+02 1.554120e+02 4.454783e+00 1.477874e+01 1.522599e+01 2.735191e+01 3.168038e+01 3.467173e+01 4.628194e+01 4.346093e+01 5.036323e+01 2.797874e+01 2.981334e+01 2.804717e+01 1.039177e+01 6.204827e-01 2.028839e+00 2.508586e+00 4.407341e+00 3.542886e+00 5.694815e+00 7.994828e+00 6.235486e+00 4.717152e+00 3.668640e+00 3.610788e+00 3.187273e+00 1.541903e+00
<GCONST> 2.007711e+02
<MIXTURE> 8 6.536127e-02
<MEAN> 39
 4.399937e+00 -1.233159e+01 2.435654e+01 -4.490497e+00 -1.034350e+00 -1.554940e+01 1.117956e+00 1.450806e+01 -1.660558e+00 -5.315121e-01 -5.975933e+00 9.626499e+00 1.114792e+02 -3.090935e+00 -3.953648e+00 -5.236650e+00 -5.535689e+00 -1.415824e-01 -3.973459e+00 -3.929278e+00 5.716603e+00 1.513898e+00 -1.584890e+00 3.764222e-01 -2.744340e+00 1.146646e+00 4.794916e-02 8.714415e-01 -8.196422e-01 1.562591e+00 -1.469035e-01 2.025583e+00 8.632358e-01 -1.593682e+00 3.271126e-01 1.432013e-01 -2.950751e-01 -6.013932e-01 -1.461435e+00
<VARIANCE> 39
 1.542735e+02 1.479339e+02 3.276600e+02 2.770851e+02 2.855365e+02 3.320988e+02 5.072847e+02 3.827168e+02 3.712261e+02 4.403981e+02 3.539260e+02 3.196441e+02 4.748737e+02 1.099684e+01 2.742520e+01 2.241010e+01 3.473524e+01 3.538527e+01 4.535895e+01 4.151901e+01 5.862461e+01 4.879446e+01 3.548090e+01 3.522504e+01 4.307498e+01 4.731490e+01 1.964028e+00 2.810399e+00 4.598787e+00 4.402346e+00 4.612634e+00 5.980587e+00 6.820175e+00 6.829311e+00 5.757302e+00 5.275067e+00 5.075933e+00 4.899636e+00 2.960971e+00
<GCONST> 2.123390e+02
<TRANSP> 5
 0.000000e+00 1.000000e+00 0.000000e+00 0.000000e+00 0.000000e+00
 0.000000e+00 6.352175e-01 3.647825e-01 0.000000e+00 0.000000e+00
 0.000000e+00 0.000000e+00 6.271927e-01 3.728072e-01 0.000000e+00
 0.000000e+00 0.000000e+00 0.000000e+00 6.806632e-01 3.193369e-01
 0.000000e+00 0.000000e+00 0.000000e+00 0.000000e+00 0.000000e+00
<ENDHMM>
~h "r"
<BEGINHMM>
<NUMSTATES> 5
<STATE> 2
<NUMMIXES> 8
<MIXTURE> 1 1.386012e-01
<MEAN> 39
 3.846838e+01 -1.706734e+01 -1.036415e+01 1.725546e+00 2.854198e+01 -3.106115e+01 -2.700201e+01 3.322407e+00 -4.794949e+00 1.023555e+01 1.282462e+00 1.024175e+01 1.271416e+02 5.977286e-01 -1.749032e-01 -2.286481e+00 -1.294561e+00 1.192676e-01 2.290027e-01 1.737895e-01 6.220874e-01 8.245161e-01 9.691629e-01 8.758528e-01 6.639683e-01 5.269196e-02 -6.854566e-01 -3.067613e-01 1.492669e+00 -1.972370e-02 -1.386278e+00 -2.856708e-01 1.252038e+00 6.677320e-01 -5.030812e-01 -2.834044e-01 3.414549e-01 9.080835e-02 3.324280e-01
<VARIANCE> 39
 5.294083e+01 1.576638e+02 3.692392e+02 2.434169e+02 3.666529e+02 7.379301e+02 1.066361e+03 3.908822e+02 3.316775e+02 2.950032e+02 2.296638e+02 1.743161e+02 1.542369e+02 2.116095e+00 3.985250e+00 9.412079e+00 8.522465e+00 1.032421e+01 1.304695e+01 1.125937e+01 1.189149e+01 1.212890e+01 8.869230e+00 9.956156e+00 9.584331e+00 2.505447e+00 2.429775e-01 5.178557e-01 7.544748e-01 8.736949e-01 1.158373e+00 2.016170e+00 1.617653e+00 1.777346e+00 1.651677e+00 1.478058e+00 1.536774e+00 1.406783e+00 2.793336e-01
<GCONST> 1.709637e+02
<MIXTURE> 2 1.080211e-01
<MEAN> 39
 3.990172e+01 -7.535432e+00 -1.692707e+01 -2.019830e+00 2.891959e+01 -9.828577e+00 -2.701141e+01 -4.654073e+00 -1.190012e+01 6.448114e+00 3.691062e+00 1.028217e+01 1.211307e+02 3.948126e-01 -5.679721e-01 -1.667920e+00 1.163612e+00 2.109000e+00 -1.403748e+00 -8.164985e-01 -2.470250e-01 1.956105e+00 1.495933e+00 2.025549e-01 1.421520e-01 -3.708750e-01 -1.453368e+00 -4.842044e-01 2.403337e+00 6.844819e-01 -2.044680e+00 -1.032525e+00 1.305575e+00 1.387087e+00 4.278282e-01 -3.662725e-01 -3.737585e-01 -5.001872e-03 2.745394e-01
<VARIANCE> 39
 6.459591e+01 1.636920e+02 4.622596e+02 3.948903e+02 4.051204e+02 8.170555e+02 7.384352e+02 4.179336e+02 3.257540e+02 3.767016e+02 2.778087e+02 2.461169e+02 1.469909e+02 6.220569e+00 1.182336e+01 2.167081e+01 2.215860e+01 2.011996e+01 4.399832e+01 2.718358e+01 2.780882e+01 2.410411e+01 2.036082e+01 1.880459e+01 1.779674e+01 1.024460e+01 1.375715e+00 1.932430e+00 2.591076e+00 3.019867e+00 3.896375e+00 6.513450e+00 5.830572e+00 4.215342e+00 4.532372e+00 3.648309e+00 3.470599e+00 3.213182e+00 1.538802e+00
<GCONST> 1.995893e+02
<MIXTURE> 3 1.488129e-01
<MEAN> 39
 3.396486e+01 -2.334541e+01 5.611624e+00 7.016468e+00 2.097567e+01 -2.951462e+01 -3.408593e+01 7.850605e+00 -7.371925e+00 2.514817e+00 2.500517e+00 6.660563e+00 1.316828e+02 1.868023e+00 5.024234e-01 -5.134429e+00 -2.004208e+00 2.378793e+00 1.510782e+00 -1.602790e+00 -1.156241e+00 1.176296e+00 1.991524e+00 9.394554e-01 4.216215e-01 -5.309925e-01 -6.626121e-01 2.870108e-02 1.330759e+00 -5.163738e-01 -1.384693e+00 3.219917e-01 1.260780e+00 -9.398316e-03 -6.655642e-01 2.230896e-01 1.944364e-01 1.734557e-01 3.060527e-01
<VARIANCE> 39
 6.220386e+01 1.647745e+02 3.946799e+02 2.743279e+02 3.782092e+02 8.161296e+02 1.150443e+03 3.698940e+02 3.105598e+02 4.218296e+02 2.521835e+02 1.744522e+02 1.708278e+02 3.098294e+00 3.865427e+00 1.389390e+01 8.331199e+00 1.419058e+01 1.276239e+01 1.371015e+01 1.504453e+01 1.241843e+01 1.098126e+01 1.026998e+01 1.029394e+01 2.375230e+00 2.692787e-01 5.677918e-01 8.032188e-01 1.160966e+00 1.255012e+00 2.389602e+00 1.790456e+00 2.205873e+00 1.839155e+00 1.759783e+00 1.670548e+00 1.486889e+00 2.757136e-01
<GCONST> 1.752449e+02
<MIXTURE> 4 1.044430e-01
<MEAN> 39
 3.866770e+01 -1.793810e+01 -6.099478e+00 1.869240e+00 2.818279e+01 -9.733674e+00 -3.487823e+01 -4.050513e+00 -8.453814e+00 7.086780e+00 1.924127e+00 4.406457e+00 1.272698e+02 -6.463836e-01 -3.534105e+00 2.923956e+00 3.450434e+00 2.339069e-01 -6.331563e+00 -3.131537e+00 4.324071e+00 2.633234e+00 -3.250036e-01 -8.022959e-01 -7.593018e-01 2.004121e+00 -1.941731e+00 3.019711e-01 2.680837e+00 5.025586e-01 -2.736479e+00 -8.663915e-01 2.592032e+00 1.726186e+00 -4.058920e-01 -9.660403e-01 -3.649665e-01 4.524155e-01 -1.347104e-01
<VARIANCE> 39
 6.028970e+01 1.536573e+02 3.788784e+02 4.036019e+02 4.351131e+02 7.188518e+02 9.726983e+02 4.232517e+02 3.284838e+02 5.013425e+02 2.883346e+02 2.476121e+02 1.350082e+02 6.981132e+00 7.848689e+00 1.811639e+01 2.298028e+01 1.887759e+01 3.081944e+01 2.648112e+01 2.912719e+01 2.835445e+01 2.444592e+01 1.847435e+01 1.877283e+01 7.899564e+00 2.642547e+00 1.984517e+00 2.938656e+00 2.983384e+00 4.175375e+00 5.392475e+00 6.262570e+00 4.198710e+00 4.560279e+00 4.832778e+00 3.980103e+00 3.890376e+00 1.004237e+00
<GCONST> 1.999778e+02
<MIXTURE> 5 1.465656e-01
<MEAN> 39
 3.249191e+01 -2.436757e+01 8.183544e+00 6.786208e+00 2.043888e+01 -2.836125e+01 -3.535001e+01 8.094779e+00 -9.157427e+00 4.039010e-01 2.102659e+00 4.266447e+00 1.311759e+02 1.867217e+00 3.668635e-01 -4.947235e+00 -2.145628e+00 2.469784e+00 1.288925e+00 -2.005102e+00 -1.379877e+00 9.507223e-01 1.776553e+00 5.951670e-01 6.840881e-02 -4.725718e-01 -6.649283e-01 3.108102e-02 1.241563e+00 -5.008070e-01 -1.416409e+00 3.461879e-01 1.071956e+00 1.270729e-02 -6.770920e-01 2.646117e-01 1.055889e-01 2.445362e-02 3.116377e-01
<VARIANCE> 39
 6.238686e+01 1.563716e+02 4.177344e+02 2.984543e+02 3.695027e+02 8.559579e+02 1.147848e+03 3.671394e+02 3.017108e+02 4.451464e+02 2.651709e+02 1.788521e+02 1.629427e+02 3.123293e+00 3.940398e+00 1.380672e+01 8.527145e+00 1.390355e+01 1.280246e+01 1.358295e+01 1.518389e+01 1.210229e+01 1.113370e+01 1.005263e+01 9.992452e+00 2.410545e+00 2.779277e-01 5.677566e-01 7.877007e-01 1.184260e+00 1.256289e+00 2.387367e+00 1.870491e+00 2.249997e+00 1.814812e+00 1.743536e+00 1.682075e+00 1.446865e+00 2.934754e-01
<GCONST> 1.754974e+02
<MIXTURE> 6 1.410684e-01
<MEAN> 39
 3.721346e+01 -1.840698e+01 -8.787372e+00 1.042516e+00 2.701909e+01 -3.005711e+01 -2.740108e+01 2.746754e+00 -6.348511e+00 9.234751e+00 1.089859e+00 8.139291e+00 1.269592e+02 5.345597e-01 -2.853492e-01 -2.115873e+00 -1.316912e+00 1.732912e-01 3.826382e-02 -1.451061e-01 3.955500e-01 6.148273e-01 7.541124e-01 5.236219e-01 2.255781e-01 6.525329e-02 -6.839029e-01 -3.125318e-01 1.433893e+00 -3.728069e-02 -1.387858e+00 -2.625504e-01 1.063297e+00 6.584831e-01 -4.570262e-01 -3.021602e-01 1.951389e-01 -2.394981e-02 3.183327e-01
<VARIANCE> 39
 5.550055e+01 1.652926e+02 4.017290e+02 2.725138e+02 3.701440e+02 8.042397e+02 1.071802e+03 4.050468e+02 3.273076e+02 3.093296e+02 2.321171e+02 1.766737e+02 1.474763e+02 2.163182e+00 4.021703e+00 9.317336e+00 8.490417e+00 1.003879e+01 1.326135e+01 1.145738e+01 1.214944e+01 1.202364e+01 8.862116e+00 9.946201e+00 9.433278e+00 2.551068e+00 2.534942e-01 5.216308e-01 7.522948e-01 9.163705e-01 1.127792e+00 1.959859e+00 1.660728e+00 1.812790e+00 1.621367e+00 1.494970e+00 1.517408e+00 1.387305e+00 2.861117e-01
<GCONST> 1.715166e+02
<MIXTURE> 7 1.088805e-01
<MEAN> 39
 3.858066e+01 -8.520617e+00 -1.540783e+01 -2.867861e+00 2.849447e+01 -6.474310e+00 -3.079356e+01 -6.495549e+00 -1.334902e+01 4.468826e+00 3.026363e+00 7.938764e+00 1.202004e+02 2.375550e-01 -6.019323e-01 -1.733370e+00 7.389877e-01 1.668876e+00 -1.272338e+00 -1.360420e+00 -5.787176e-01 1.416872e+00 1.258431e+00 -2.779215e-01 -3.201599e-01 -3.454151e-01 -1.432049e+00 -5.956842e-01 2.215747e+00 6.686021e-01 -2.088197e+00 -1.132021e+00 9.933233e-01 1.392128e+00 4.737155e-01 -4.967518e-01 -3.818994e-01 -9.904423e-02 2.551226e-01
<VARIANCE> 39
 6.660676e+01 1.808561e+02 4.885301e+02 4.345445e+02 4.134570e+02 7.974125e+02 7.432781e+02 4.146140e+02 3.243873e+02 4.003289e+02 2.751232e+02 2.531324e+02 1.577115e+02 6.688523e+00 1.186595e+01 2.264755e+01 2.296309e+01 1.977682e+01 3.902885e+01 2.638572e+01 2.691564e+01 2.381295e+01 2.021649e+01 1.893763e+01 1.754499e+01 1.053396e+01 1.509198e+00 1.930629e+00 2.454891e+00 3.087201e+00 3.710489e+00 5.942558e+00 6.225171e+00 4.138270e+00 4.461669e+00 3.681757e+00 3.455618e+00 3.283304e+00 1.620174e+00
<GCONST> 1.999967e+02
<MIXTURE> 8 1.035810e-01
<MEAN> 39
 3.696959e+01 -2.008547e+01 -3.580163e+00 2.069918e+00 2.732819e+01 -9.541285e+00 -3.771292e+01 -4.737187e+00 -9.735163e+00 6.398541e+00 1.202689e+00 2.075260e+00 1.268639e+02 -7.949226e-01 -3.796469e+00 3.287523e+00 3.342375e+00 -1.214363e-01 -6.660797e+00 -3.672405e+00 4.371352e+00 2.209836e+00 -7.653937e-01 -1.356091e+00 -1.395303e+00 2.199041e+00 -1.984686e+00 2.798974e-01 2.494051e+00 3.572323e-01 -2.813838e+00 -9.167925e-01 2.576718e+00 1.663616e+00 -4.540466e-01 -1.021384e+00 -4.209845e-01 4.305066e-01 -2.483339e-01
<VARIANCE> 39
 6.314855e+01 1.513102e+02 3.921790e+02 4.213394e+02 4.251289e+02 7.034808e+02 1.010412e+03 4.368270e+02 3.451265e+02 5.293681e+02 2.871790e+02 2.502324e+02 1.391731e+02 7.392494e+00 7.655366e+00 1.837905e+01 2.318154e+01 1.852989e+01 2.907641e+01 2.560102e+01 2.846411e+01 3.036942e+01 2.425811e+01 1.865505e+01 1.912056e+01 8.353374e+00 3.142003e+00 1.958016e+00 2.767294e+00 3.081031e+00 4.029011e+00 5.330412e+00 6.339654e+00 4.079290e+00 4.461642e+00 4.934901e+00 3.991606e+00 3.917554e+00 1.049464e+00
<GCONST> 2.004393e+02
<STATE> 3
<NUMMIXES> 8
<MIXTURE> 1 2.042181e-01
<MEAN> 39
 3.638490e+01 -2.294281e+01 -5.889686e+00 -1.063588e+00 1.772030e+01 -3.086495e+01 -2.562014e+01 1.277705e+01 -6.061834e+00 8.845712e+00 6.182430e+00 1.343186e+01 1.311622e+02 -1.272754e+00 -1.146243e+00 1.788074e+00 -1.304906e+00 -3.889669e+00 -8.278542e-01 4.162087e+00 2.709620e+00 -1.004419e+00 2.916143e-01 2.281481e+00 5.591140e-01 9.945019e-01 -4.640300e-01 4.661896e-01 9.305136e-01 -3.415608e-01 -6.408237e-01 1.057674e+00 1.281186e+00 -8.168190e-01 -7.360287e-01 3.645207e-01 2.010461e-01 -7.066101e-01 -1.981121e-01
<VARIANCE> 39
