~o
<STREAMINFO> 1 39
<VECSIZE> 39<NULLD><MFCC_D_A_0><DIAGC>
~v "varFloor1"
<VARIANCE> 39
 6.754285e+00 3.412382e+00 5.608406e+00 4.796288e+00 3.472278e+00 4.011306e+00 4.413544e+00 3.617784e+00 3.683816e+00 3.040248e+00 2.640156e+00 2.509632e+00 1.299030e+01 2.278168e-01 1.545930e-01 2.184475e-01 2.118017e-01 1.813441e-01 2.097645e-01 2.257998e-01 2.166213e-01 2.009591e-01 1.748390e-01 1.664857e-01 1.534652e-01 2.729186e-01 3.005252e-02 2.352007e-02 2.950203e-02 3.333135e-02 2.970526e-02 3.527972e-02 3.796952e-02 3.764049e-02 3.477431e-02 3.067440e-02 2.924915e-02 2.697382e-02 3.680100e-02
~s "silst"
<NUMMIXES> 16
<MIXTURE> 1 2.675929e-02
<MEAN> 39
 -1.562110e+01 1.438972e+01 9.419150e+00 1.436017e+01 8.560912e+00 8.764550e+00 7.092239e+00 8.040994e+00 4.846638e+00 5.665825e+00 3.208719e+00 3.950417e+00 5.233638e+01 1.069555e-01 5.910683e-01 7.416535e-01 8.897468e-01 1.059266e+00 1.146052e+00 1.025628e+00 9.484990e-01 9.005409e-01 6.992179e-01 7.254518e-01 4.227257e-01 -9.272140e-02 8.456282e-02 -1.059725e-01 -9.814765e-02 -9.693530e-02 -1.261953e-01 -1.434937e-01 -9.495896e-02 -9.752095e-02 -1.329532e-01 -2.042208e-01 -2.777794e-01 -1.668973e-01 1.081264e-01
<VARIANCE> 39
 1.904149e+01 3.467728e+01 3.910158e+01 4.959412e+01 6.066586e+01 7.309820e+01 8.671928e+01 9.517706e+01 9.261431e+01 9.628513e+01 9.344646e+01 8.860579e+01 1.299030e+01 1.345977e+00 2.332311e+00 3.327463e+00 4.631601e+00 6.062033e+00 7.426377e+00 9.080803e+00 9.385729e+00 9.967189e+00 9.908077e+00 9.672736e+00 9.064158e+00 5.081403e-01 2.117439e-01 3.733444e-01 5.778974e-01 8.269050e-01 1.084807e+00 1.383081e+00 1.733137e+00 1.766736e+00 1.803132e+00 1.815222e+00 1.803617e+00 1.790544e+00 7.807124e-02
<GCONST> 1.424146e+02
<MIXTURE> 2 4.457422e-02
<MEAN> 39
 -2.487884e+01 4.651063e+00 -1.733462e+00 1.320754e+00 -5.501516e+00 -5.896553e+00 -7.525424e+00 -4.447243e+00 -4.011847e+00 1.514759e-01 7.925453e-01 2.697118e+00 4.836491e+01 6.781138e-01 8.107710e-01 1.038341e+00 1.235767e+00 1.326407e+00 1.491039e+00 1.544227e+00 1.218138e+00 9.442181e-01 7.527326e-01 3.694441e-01 2.457530e-01 3.278814e-01 3.495388e-01 1.628039e-01 3.116047e-01 4.505169e-01 5.610110e-01 7.086275e-01 8.017821e-01 6.954103e-01 4.405110e-01 1.991400e-01 -9.293437e-02 -7.200775e-02 2.946762e-01
<VARIANCE> 39
 2.438271e+01 2.464034e+01 3.406380e+01 4.410903e+01 5.406239e+01 6.669836e+01 7.585182e+01 8.463411e+01 8.868952e+01 9.007117e+01 9.080641e+01 8.154732e+01 1.299030e+01 1.411094e+00 2.020185e+00 3.498430e+00 4.504305e+00 5.629051e+00 6.717145e+00 8.427392e+00 9.240791e+00 1.000649e+01 9.879251e+00 9.475325e+00 8.850416e+00 6.678908e-01 3.204501e-01 4.643423e-01 7.323625e-01 9.599548e-01 1.163211e+00 1.405185e+00 1.642402e+00 1.861419e+00 1.887984e+00 1.971641e+00 1.938627e+00 1.770458e+00 1.606082e-01
<GCONST> 1.432896e+02
<MIXTURE> 3 6.774151e-02
<MEAN> 39
 -2.525506e+01 6.100689e+00 1.856528e-01 3.038281e+00 -3.579747e+00 -3.531981e+00 -4.754944e+00 -1.184634e+00 -9.708560e-01 2.022864e+00 1.963001e+00 3.094692e+00 4.759277e+01 3.302006e-02 1.666691e-01 2.387716e-01 2.760926e-01 2.888543e-01 2.945532e-01 2.529244e-01 3.149846e-01 4.541929e-01 5.875921e-01 6.908893e-01 4.796467e-01 -1.428824e-02 7.297888e-02 -2.882337e-02 -2.906361e-02 5.702574e-02 8.636795e-02 6.270782e-02 -1.016966e-02 -5.097861e-02 -4.291564e-02 -2.888964e-02 -3.249735e-02 -2.928594e-02 6.984734e-02
<VARIANCE> 39
 1.507435e+01 1.461592e+01 2.067574e+01 3.026770e+01 4.380825e+01 5.621834e+01 6.526173e+01 6.760052e+01 7.006463e+01 7.005578e+01 6.774111e+01 6.416552e+01 1.299030e+01 6.326083e-01 1.270567e+00 2.444479e+00 3.508375e+00 4.589068e+00 5.727303e+00 6.867605e+00 7.687310e+00 7.912299e+00 7.950771e+00 7.793714e+00 7.302904e+00 2.729186e-01 1.036989e-01 2.205221e-01 4.095587e-01 6.253546e-01 8.190624e-01 1.007302e+00 1.204153e+00 1.328372e+00 1.435700e+00 1.458953e+00 1.410286e+00 1.335755e+00 4.040065e-02
<GCONST> 1.285041e+02
<MIXTURE> 4 5.485647e-02
<MEAN> 39
 -2.600991e+01 1.467902e+00 -2.750450e+00 4.052534e+00 1.889629e+00 5.100897e+00 5.739029e+00 8.544066e+00 5.537659e+00 5.349117e+00 1.958486e+00 2.862052e+00 4.856284e+01 -2.748761e-01 3.209725e-01 5.622280e-01 6.247683e-01 6.626657e-01 6.495321e-01 4.904137e-01 4.370911e-01 7.366955e-01 1.033822e+00 1.032478e+00 6.702536e-01 -2.550291e-01 3.522583e-01 2.234027e-01 3.328283e-01 2.155065e-01 -8.074228e-02 -3.355008e-01 -4.514852e-01 -5.205407e-01 -5.262701e-01 -4.016791e-01 -2.721861e-01 -9.982393e-02 2.842541e-01
<VARIANCE> 39
 5.157215e+01 4.017601e+01 4.983181e+01 6.485478e+01 7.875834e+01 9.440873e+01 1.021240e+02 1.109669e+02 1.174605e+02 1.229531e+02 1.255705e+02 1.064746e+02 3.039806e+01 1.949525e+00 2.573096e+00 3.912335e+00 5.183656e+00 6.472606e+00 7.663778e+00 9.045067e+00 1.018782e+01 1.054408e+01 1.060818e+01 1.031950e+01 9.618161e+00 1.058616e+00 4.215692e-01 5.899489e-01 8.376020e-01 1.150710e+00 1.453825e+00 1.720995e+00 1.851499e+00 2.096688e+00 2.239714e+00 2.338376e+00 2.323035e+00 2.060963e+00 2.973645e-01
<GCONST> 1.534126e+02
<MIXTURE> 5 9.267297e-02
<MEAN> 39
 -2.749207e+01 3.855146e+00 -1.971030e+00 1.132952e+00 -5.899054e+00 -7.162439e+00 -1.003336e+01 -6.232466e+00 -3.724999e+00 1.370912e+00 2.315532e+00 3.173926e+00 4.647008e+01 1.237684e-01 1.949504e-01 2.483412e-01 3.450900e-01 4.058258e-01 4.144312e-01 3.744915e-01 3.516792e-01 3.622495e-01 4.114557e-01 3.422384e-01 2.637292e-01 4.986003e-02 1.696913e-01 7.773947e-02 9.494516e-02 9.831321e-02 1.873015e-01 3.600644e-01 5.269808e-01 4.910552e-01 2.206721e-01 2.450647e-02 -9.941294e-02 -3.892645e-02 1.417092e-01
<VARIANCE> 39
 1.277333e+01 1.740490e+01 2.541311e+01 3.576505e+01 4.868878e+01 6.067621e+01 6.989632e+01 7.538604e+01 7.732304e+01 7.777553e+01 7.483250e+01 6.748190e+01 1.299030e+01 5.618238e-01 1.208457e+00 2.266067e+00 3.368190e+00 4.443638e+00 5.433269e+00 6.489745e+00 7.311740e+00 7.696253e+00 7.661989e+00 7.399665e+00 6.913866e+00 2.729186e-01 1.578123e-01 3.025148e-01 5.445669e-01 7.965608e-01 1.027219e+00 1.181135e+00 1.374446e+00 1.545842e+00 1.638049e+00 1.666186e+00 1.619371e+00 1.441780e+00 7.758129e-02
<GCONST> 1.320150e+02
<MIXTURE> 6 6.498411e-02
<MEAN> 39
 -2.463679e+01 5.024670e+00 -6.479167e-01 3.552289e+00 -1.158729e+00 -1.375373e-02 -1.165127e+00 1.663560e+00 8.365510e-01 2.956313e+00 1.941977e+00 3.292561e+00 4.837297e+01 -1.166228e+00 1.035309e-02 1.207743e-01 -3.854347e-01 -6.426595e-01 -9.160405e-01 -1.361652e+00 -1.338198e+00 -4.223312e-01 5.454980e-01 9.738978e-01 6.623681e-01 -8.477694e-01 4.093036e-01 -1.975378e-01 6.531216e-02 2.006854e-01 1.377596e-01 9.016286e-02 2.563571e-01 2.645732e-01 -2.934480e-02 -1.566589e-01 -2.812992e-01 -1.417696e-01 5.135451e-01
<VARIANCE> 39
 2.658411e+01 2.781247e+01 4.020719e+01 5.146130e+01 6.407398e+01 8.020054e+01 9.228456e+01 9.777025e+01 1.009058e+02 1.007397e+02 9.988110e+01 9.116883e+01 1.328412e+01 2.464274e+00 3.481865e+00 5.037516e+00 5.957272e+00 7.149562e+00 8.900414e+00 1.023693e+01 1.123569e+01 1.127868e+01 1.167419e+01 1.121158e+01 9.781427e+00 1.457991e+00 3.935600e-01 6.858149e-01 9.411144e-01 1.142771e+00 1.362370e+00 1.686350e+00 1.911915e+00 2.098549e+00 2.124749e+00 2.178604e+00 2.161578e+00 1.937260e+00 3.397560e-01
<GCONST> 1.517731e+02
<MIXTURE> 7 4.513048e-02
<MEAN> 39
 -2.545991e+01 5.690707e+00 -1.095408e+00 1.017983e+00 -6.026928e+00 -5.934954e+00 -7.317342e+00 -3.776040e+00 -3.088083e+00 7.202691e-01 1.284615e+00 2.616200e+00 4.755530e+01 -3.665375e-01 -3.241503e-01 -3.602389e-01 -4.826179e-01 -5.685282e-01 -5.938551e-01 -6.165034e-01 -5.048673e-01 -3.084841e-01 -2.129449e-01 -5.227862e-02 3.206030e-02 -1.750495e-01 6.720894e-02 2.511296e-02 1.193897e-01 2.440396e-01 2.719882e-01 1.870716e-01 1.265189e-01 1.415694e-01 1.638643e-01 1.600875e-01 1.244672e-01 8.163635e-02 6.212059e-02
<VARIANCE> 39
 1.122233e+01 1.247252e+01 1.962505e+01 2.868740e+01 4.108340e+01 5.116817e+01 5.889342e+01 6.271814e+01 6.582294e+01 6.543365e+01 6.448422e+01 6.069233e+01 1.299030e+01 6.820555e-01 1.396730e+00 2.579106e+00 3.616624e+00 4.738630e+00 5.713039e+00 6.868277e+00 7.715538e+00 7.849319e+00 7.695377e+00 7.606744e+00 7.123515e+00 2.729186e-01 1.018736e-01 2.244974e-01 4.117141e-01 6.062192e-01 8.266995e-01 1.017236e+00 1.176716e+00 1.284792e+00 1.383232e+00 1.385081e+00 1.386285e+00 1.312335e+00 4.251369e-02
<GCONST> 1.274344e+02
<MIXTURE> 8 8.133481e-02
<MEAN> 39
 -1.866521e+01 9.529138e+00 3.957463e+00 8.872640e+00 2.958472e+00 3.339625e+00 2.015091e+00 3.270244e+00 -5.419672e-01 -6.772618e-01 -2.682858e+00 -2.359535e-01 5.164697e+01 -2.138747e-01 2.702493e-01 2.937151e-01 2.256504e-01 2.897495e-01 2.957926e-01 1.364016e-01 1.825530e-01 3.643648e-01 4.931052e-01 5.861433e-01 3.418145e-01 -2.393712e-01 -9.893336e-02 -2.542520e-01 -2.125774e-01 -2.159926e-01 -2.055607e-01 -1.635182e-01 -6.260031e-02 1.534416e-02 1.756286e-01 3.632275e-01 3.762625e-01 2.934090e-01 2.666892e-02
<VARIANCE> 39
 2.205317e+01 2.913262e+01 3.715522e+01 4.833829e+01 6.202362e+01 7.931084e+01 9.363537e+01 1.058735e+02 1.133544e+02 1.081204e+02 1.092348e+02 9.699492e+01 1.299030e+01 1.364349e+00 2.029502e+00 3.215343e+00 4.521479e+00 5.717062e+00 7.146328e+00 8.529852e+00 9.296712e+00 9.855004e+00 9.903811e+00 9.837437e+00 8.914166e+00 6.174721e-01 1.838208e-01 3.328265e-01 5.450945e-01 7.988478e-01 1.075574e+00 1.367305e+00 1.632504e+00 1.842207e+00 1.976985e+00 1.907346e+00 1.875194e+00 1.762611e+00 7.822606e-02
<GCONST> 1.427718e+02
<MIXTURE> 9 7.084495e-02
<MEAN> 39
 -2.807816e+01 3.203083e+00 -2.979342e+00 -1.970191e-01 -7.454114e+00 -8.660145e+00 -1.157168e+01 -7.717004e+00 -4.941596e+00 4.614985e-01 1.608449e+00 2.573130e+00 4.608205e+01 -1.637164e-01 -1.938995e-01 -2.385558e-01 -2.854100e-01 -3.389518e-01 -3.535795e-01 -4.024974e-01 -4.087400e-01 -3.600378e-01 -3.594215e-01 -4.326765e-01 -3.352979e-01 -7.492734e-02 1.108125e-01 6.606159e-02 1.019813e-01 9.844176e-02 1.847321e-01 3.249928e-01 4.833997e-01 4.666738e-01 2.219608e-01 3.562574e-02 -7.238081e-02 -1.547349e-02 1.011492e-01
<VARIANCE> 39
 1.043661e+01 1.712994e+01 2.526784e+01 3.538522e+01 4.854349e+01 5.851963e+01 6.620282e+01 7.256363e+01 7.596735e+01 7.640736e+01 7.379665e+01 6.699653e+01 1.299030e+01 5.244256e-01 1.224118e+00 2.252695e+00 3.271424e+00 4.444916e+00 5.386311e+00 6.347169e+00 7.180534e+00 7.441762e+00 7.455822e+00 7.401130e+00 6.715398e+00 2.729186e-01 1.372084e-01 3.013064e-01 5.342926e-01 7.825604e-01 1.036393e+00 1.180053e+00 1.340516e+00 1.508095e+00 1.623482e+00 1.633148e+00 1.594369e+00 1.447823e+00 6.967314e-02
<GCONST> 1.309924e+02
<MIXTURE> 10 8.772337e-02
<MEAN> 39
 -2.856399e+01 -4.321175e-01 -4.966852e+00 1.629426e+00 2.361035e-01 3.651571e+00 3.448204e+00 6.361649e+00 3.771818e+00 3.796444e+00 1.339046e+00 2.516481e+00 4.710956e+01 -4.632302e-01 -1.297221e-01 -9.691110e-02 -2.192668e-01 -3.008530e-01 -3.368260e-01 -4.604467e-01 -4.701764e-01 -2.382701e-01 4.544670e-02 5.628346e-02 -1.534444e-02 -2.966172e-01 2.218027e-01 1.806030e-01 2.615201e-01 9.395266e-02 -2.510376e-01 -5.243672e-01 -5.963601e-01 -6.049695e-01 -5.251296e-01 -3.158772e-01 -1.596528e-01 -4.694644e-02 1.987178e-01
<VARIANCE> 39
 3.913541e+01 3.150555e+01 4.334626e+01 5.697145e+01 7.246388e+01 8.483595e+01 9.618477e+01 1.015361e+02 1.105562e+02 1.104194e+02 1.136734e+02 1.006525e+02 2.315616e+01 1.585463e+00 2.266307e+00 3.473723e+00 4.758276e+00 6.041210e+00 7.384858e+00 8.603691e+00 9.844763e+00 1.021346e+01 1.017908e+01 9.870214e+00 9.008785e+00 8.764830e-01 3.425058e-01 5.296364e-01 7.872547e-01 1.118852e+00 1.394658e+00 1.590771e+00 1.825864e+00 2.027566e+00 2.158791e+00 2.261671e+00 2.280569e+00 2.030736e+00 2.653830e-01
<GCONST> 1.497987e+02
<MIXTURE> 11 7.826703e-02
<MEAN> 39
 -2.113049e+01 8.021837e+00 2.320060e+00 6.782197e+00 6.418052e-01 6.530818e-01 -9.814286e-01 8.189215e-01 -1.701226e+00 -6.942241e-01 -1.726422e+00 5.121451e-01 5.021417e+01 -5.889963e-01 -2.193600e-01 -2.890816e-01 -5.312993e-01 -6.135933e-01 -6.775239e-01 -8.329800e-01 -8.363431e-01 -6.782260e-01 -4.505653e-01 -3.841544e-01 -3.026526e-01 -3.793824e-01 -2.687508e-01 -4.242521e-01 -4.378985e-01 -4.896647e-01 -4.802988e-01 -4.444968e-01 -3.647771e-01 -2.332026e-01 -4.754040e-02 1.529384e-01 2.213571e-01 1.931079e-01 -5.721622e-02
<VARIANCE> 39
 2.042529e+01 2.222993e+01 3.167498e+01 4.279713e+01 5.870472e+01 7.479359e+01 8.901366e+01 9.796323e+01 1.059014e+02 1.064213e+02 1.000012e+02 9.332298e+01 1.299030e+01 1.343208e+00 2.007054e+00 3.208557e+00 4.437897e+00 5.708057e+00 7.180861e+00 8.587477e+00 9.284463e+00 9.669785e+00 9.630454e+00 9.679126e+00 8.706008e+00 6.249767e-01 1.889184e-01 3.221440e-01 5.515258e-01 7.805846e-01 1.064133e+00 1.313729e+00 1.610558e+00 1.822692e+00 1.995246e+00 1.992575e+00 1.900497e+00 1.789653e+00 8.535792e-02
<GCONST> 1.416544e+02
<MIXTURE> 12 8.282393e-02
<MEAN> 39
 -2.709100e+01 3.106087e+00 -3.273608e+00 -5.960906e-01 -7.439387e+00 -7.915112e+00 -1.001770e+01 -6.570785e+00 -5.346859e+00 -5.367728e-01 9.144194e-01 2.730516e+00 4.709439e+01 4.457857e-02 1.604092e-01 2.061473e-01 1.904725e-01 2.178562e-01 2.921977e-01 2.400578e-01 1.186343e-01 1.090668e-02 -8.190225e-02 -2.768166e-01 -2.216115e-01 3.959317e-03 1.840150e-01 1.537391e-02 1.585012e-01 2.626469e-01 3.802223e-01 4.679209e-01 5.699015e-01 5.316091e-01 3.118720e-01 1.324030e-01 -1.371250e-01 -1.195204e-01 2.338955e-01
<VARIANCE> 39
 1.946636e+01 2.398623e+01 3.205659e+01 4.119677e+01 5.138720e+01 6.304045e+01 7.392502e+01 8.132993e+01 8.859626e+01 8.986105e+01 8.880457e+01 7.966203e+01 1.299030e+01 1.164944e+00 1.876374e+00 3.126065e+00 4.249035e+00 5.409061e+00 6.621631e+00 8.015225e+00 8.812102e+00 9.429142e+00 9.280965e+00 8.980737e+00 8.165069e+00 5.858419e-01 2.967274e-01 4.572620e-01 7.075856e-01 9.613785e-01 1.173822e+00 1.379070e+00 1.628465e+00 1.823466e+00 1.913873e+00 1.933500e+00 1.951646e+00 1.751078e+00 1.774921e-01
<GCONST> 1.416370e+02
<MIXTURE> 13 8.525813e-02
<MEAN> 39
 -2.648371e+01 5.269857e+00 -9.855456e-01 1.379381e+00 -5.807186e+00 -6.007265e+00 -7.457973e+00 -3.519446e+00 -2.446905e+00 1.150303e+00 1.484023e+00 2.718264e+00 4.682623e+01 -1.917974e-01 -1.645481e-01 -1.878513e-01 -2.573596e-01 -3.393663e-01 -3.576442e-01 -3.927622e-01 -3.406966e-01 -2.640728e-01 -2.056754e-01 -1.429497e-01 -1.472165e-01 -9.595036e-02 -2.997115e-02 -1.042663e-01 -1.036241e-01 -6.440804e-02 -4.121594e-02 -9.516814e-02 -1.729756e-01 -1.908241e-01 -1.460958e-01 -6.776083e-02 -2.813744e-02 -3.232609e-02 1.353482e-02
<VARIANCE> 39
 1.002094e+01 1.250307e+01 1.881851e+01 2.781582e+01 4.092384e+01 5.245176e+01 5.920988e+01 6.390771e+01 6.582301e+01 6.542146e+01 6.354926e+01 5.925548e+01 1.299030e+01 5.389102e-01 1.178793e+00 2.265742e+00 3.298417e+00 4.392145e+00 5.354183e+00 6.480408e+00 7.280793e+00 7.403021e+00 7.395890e+00 7.248400e+00 6.804004e+00 2.729186e-01 9.115303e-02 2.074334e-01 3.909784e-01 5.758402e-01 7.798817e-01 9.714910e-01 1.119700e+00 1.274071e+00 1.362216e+00 1.395625e+00 1.374682e+00 1.277733e+00 3.781730e-02
<GCONST> 1.255653e+02
<MIXTURE> 14 4.066051e-02
<MEAN> 39
 -2.594355e+01 4.293627e+00 -1.562080e+00 2.111382e+00 -2.961452e+00 -1.955445e+00 -3.321411e+00 -3.880379e-01 -7.910404e-01 2.230825e+00 1.785348e+00 3.098939e+00 4.751566e+01 -1.422078e+00 -4.369017e-01 -5.597491e-01 -1.258341e+00 -1.601340e+00 -1.942227e+00 -2.423095e+00 -2.383223e+00 -1.350340e+00 -5.648741e-01 -9.225658e-02 -8.391578e-02 -9.632379e-01 3.206408e-01 -2.370747e-01 -3.179106e-02 7.493422e-02 1.609226e-02 -4.822680e-02 9.829944e-02 1.662618e-01 -6.887840e-02 -1.963185e-01 -2.834711e-01 -1.360563e-01 4.586188e-01
<VARIANCE> 39
 2.168010e+01 2.646554e+01 3.777948e+01 4.643202e+01 6.088715e+01 7.677676e+01 8.782473e+01 9.341041e+01 9.768451e+01 9.472455e+01 9.188544e+01 8.422890e+01 1.299030e+01 2.332402e+00 3.684237e+00 5.150856e+00 5.884645e+00 7.423138e+00 8.998662e+00 1.016233e+01 1.132729e+01 1.153045e+01 1.168897e+01 1.096147e+01 9.390905e+00 1.446650e+00 3.648527e-01 6.306844e-01 8.864339e-01 1.104048e+00 1.326668e+00 1.647495e+00 1.852688e+00 2.065748e+00 2.143500e+00 2.161338e+00 2.064345e+00 1.832512e+00 3.141153e-01
<GCONST> 1.503685e+02
<MIXTURE> 15 2.239453e-02
<MEAN> 39
 -2.621278e+01 4.943096e+00 -2.098954e+00 2.517893e-02 -7.075490e+00 -7.104633e+00 -8.715762e+00 -5.066624e+00 -4.214496e+00 1.355700e-01 1.073260e+00 2.276648e+00 4.705762e+01 -6.904870e-01 -7.539204e-01 -8.710859e-01 -1.160410e+00 -1.286424e+00 -1.339918e+00 -1.393220e+00 -1.288938e+00 -1.112758e+00 -1.058879e+00 -9.033705e-01 -5.622111e-01 -3.061327e-01 -6.715391e-03 -2.343959e-02 8.632508e-02 1.568611e-01 1.733495e-01 9.969497e-02 5.442443e-02 7.698988e-02 1.373846e-01 1.039379e-01 4.770287e-02 4.510047e-02 2.416810e-02
<VARIANCE> 39
 9.637845e+00 1.232999e+01 1.931796e+01 2.756306e+01 3.862151e+01 4.842501e+01 5.576197e+01 6.017661e+01 6.387011e+01 6.296151e+01 6.357976e+01 6.116508e+01 1.299030e+01 6.979821e-01 1.456206e+00 2.578443e+00 3.773898e+00 4.727352e+00 5.761372e+00 6.855957e+00 7.994077e+00 7.782668e+00 7.596150e+00 7.705117e+00 7.067206e+00 2.729186e-01 9.895883e-02 2.296567e-01 4.282830e-01 5.957631e-01 8.069873e-01 1.031371e+00 1.176641e+00 1.284558e+00 1.357813e+00 1.323494e+00 1.427875e+00 1.334034e+00 4.343061e-02
<GCONST> 1.270657e+02
<MIXTURE> 16 5.378743e-02
<MEAN> 39
 -1.841948e+01 1.116904e+01 6.457117e+00 1.148415e+01 5.626452e+00 5.859794e+00 4.450838e+00 6.265551e+00 3.985920e+00 5.109118e+00 3.157532e+00 3.643664e+00 5.138493e+01 -4.339571e-01 1.879517e-02 2.413614e-02 -3.847398e-02 2.978021e-02 3.308531e-02 -2.032593e-01 -2.469445e-01 -1.182666e-01 -6.769197e-02 2.230521e-02 -6.288686e-02 -3.484104e-01 -1.140256e-01 -3.744627e-01 -4.384860e-01 -4.911797e-01 -5.268608e-01 -5.085726e-01 -4.325428e-01 -4.529749e-01 -5.116638e-01 -5.078814e-01 -5.201290e-01 -3.139521e-01 3.431185e-02
<VARIANCE> 39
 1.981118e+01 2.882261e+01 3.823758e+01 5.220663e+01 6.823835e+01 8.554394e+01 9.768976e+01 1.004859e+02 9.906012e+01 9.466209e+01 9.834025e+01 9.027016e+01 1.299030e+01 1.348356e+00 2.240125e+00 3.432240e+00 4.780896e+00 5.991223e+00 7.351728e+00 8.703507e+00 9.349760e+00 9.867536e+00 9.539896e+00 9.813332e+00 8.875013e+00 5.649018e-01 2.089907e-01 3.857131e-01 6.168699e-01 8.718013e-01 1.143794e+00 1.474419e+00 1.720841e+00 1.797451e+00 1.823294e+00 1.716696e+00 1.772434e+00 1.677057e+00 8.336970e-02
<GCONST> 1.430765e+02
~h "f"
<BEGINHMM>
<NUMSTATES> 5
<STATE> 2
<NUMMIXES> 16
<MIXTURE> 1 2.390179e-02
<MEAN> 39
 -3.000322e+01 -1.072160e+01 1.105359e+00 3.723958e+00 -4.443899e+00 -3.039281e+00 -9.973412e+00 -2.483825e+00 -9.623346e+00 -2.156735e+00 -1.003891e+01 -2.967139e+00 9.141551e+01 -7.782797e-01 -3.082095e-02 7.582741e-01 1.624220e+00 2.349116e+00 3.310384e+00 3.209991e+00 3.019245e+00 2.685336e+00 2.601881e+00 2.069781e+00 1.201506e+00 -9.644268e-02 1.270764e+00 2.575940e-01 1.053233e-01 -2.542053e-01 4.978622e-01 5.367150e-01 7.568858e-01 5.281985e-01 7.846250e-01 1.046259e+00 9.675246e-01 6.772130e-01 5.818138e-01
<VARIANCE> 39
 1.170780e+02 9.784325e+01 6.767869e+01 8.612398e+01 1.019668e+02 1.240598e+02 1.381616e+02 1.316607e+02 1.813752e+02 1.709661e+02 1.736205e+02 1.928109e+02 3.058403e+02 1.194324e+01 9.059868e+00 8.765276e+00 9.136806e+00 1.054496e+01 1.197124e+01 1.135182e+01 1.440802e+01 1.493468e+01 1.614826e+01 1.688275e+01 1.534987e+01 2.013726e+01 4.458966e+00 1.757462e+00 1.624236e+00 2.666679e+00 2.285395e+00 2.799781e+00 2.783662e+00 3.039159e+00 3.299900e+00 3.740860e+00 3.800257e+00 3.422943e+00 3.358152e+00
<GCONST> 1.822859e+02
<MIXTURE> 2 3.516811e-02
<MEAN> 39
 -2.630322e+01 -5.835583e+00 5.932452e+00 1.038750e+01 4.591864e+00 6.555312e+00 5.046030e-01 6.842992e+00 5.838149e-01 8.350867e+00 -2.858673e-01 3.950130e+00 8.359897e+01 -8.754135e-01 -4.782993e-01 2.497676e-01 5.306587e-01 7.364568e-01 1.411317e+00 1.068113e+00 1.003302e+00 1.095642e+00 1.291563e+00 9.282959e-01 7.615666e-01 1.144536e+00 1.431302e+00 -2.765216e-01 -6.113142e-01 -1.485690e+00 -7.364058e-01 -7.775002e-01 -5.621037e-01 -7.476406e-01 -6.560874e-01 -3.923210e-01 -3.949411e-01 -2.901665e-01 1.288522e+00
<VARIANCE> 39
 1.881886e+02 1.243273e+02 1.211835e+02 1.043916e+02 1.406845e+02 1.530401e+02 1.514754e+02 1.560768e+02 1.659914e+02 1.666358e+02 1.331336e+02 1.294705e+02 3.521141e+02 2.889348e+01 1.317991e+01 1.124634e+01 1.192577e+01 1.159417e+01 1.378264e+01 1.417112e+01 1.508363e+01 1.424107e+01 1.475012e+01 1.379158e+01 1.248280e+01 3.600159e+01 7.185714e+00 2.767167e+00 2.706352e+00 3.424837e+00 3.195530e+00 3.519536e+00 3.834800e+00 3.975716e+00 3.830365e+00 3.990016e+00 3.324063e+00 2.826195e+00 5.409134e+00
<GCONST> 1.894526e+02
<MIXTURE> 3 1.073297e-01
<MEAN> 39
 -3.657537e+01 -1.930035e+01 -4.238808e+00 8.825925e-01 -4.492943e+00 -1.927525e+00 -7.987618e+00 3.353714e-01 -4.883591e+00 4.912220e+00 -2.964482e+00 3.607651e+00 9.746896e+01 -2.310243e-01 5.022879e-02 -8.786716e-02 2.786806e-01 7.809133e-01 1.294433e+00 1.052366e+00 8.273580e-01 7.456786e-01 9.986963e-01 8.597745e-01 4.207657e-01 2.277775e-01 1.489089e+00 8.209908e-01 7.391924e-01 4.083994e-01 6.415709e-01 4.555959e-01 5.526109e-01 2.134981e-01 1.358552e-01 2.841743e-02 -2.862881e-03 -5.128472e-02 2.118849e-01
<VARIANCE> 39
 6.503247e+01 5.460767e+01 6.098859e+01 7.084090e+01 7.911578e+01 9.011214e+01 9.855104e+01 1.019641e+02 9.389401e+01 9.291653e+01 9.394529e+01 8.343695e+01 2.075349e+02 4.698332e+00 3.711458e+00 4.940124e+00 6.102686e+00 7.068440e+00 8.071625e+00 9.211026e+00 9.623913e+00 9.749292e+00 9.766147e+00 9.733488e+00 9.029400e+00 7.225289e+00 1.673685e+00 9.783517e-01 1.200045e+00 1.660015e+00 1.699702e+00 1.844915e+00 2.014970e+00 1.963492e+00 1.933053e+00 1.977333e+00 1.965950e+00 1.735124e+00 1.293419e+00
<GCONST> 1.620154e+02
<MIXTURE> 4 5.065138e-02
<MEAN> 39
 -3.462414e+01 -1.799767e+01 4.456226e-01 5.217731e+00 -2.336389e+00 -3.600945e+00 -9.330597e+00 5.497549e-01 -3.026923e+00 5.264539e+00 -2.253924e+00 5.024514e+00 1.005159e+02 -3.675461e+00 -2.671819e+00 -3.890729e+00 -2.979515e+00 -1.932254e+00 -7.989865e-01 -1.173769e+00 8.004111e-02 7.206486e-01 1.142014e+00 1.052687e+00 7.328420e-01 -7.902128e-01 2.846943e+00 1.660843e+00 1.564564e+00 3.285398e-01 6.446258e-01 9.141912e-01 1.217448e+00 8.215886e-02 -5.879353e-01 -1.034879e-01 -3.761767e-01 -3.004175e-01 2.258522e-01
<VARIANCE> 39
 7.828686e+01 6.055953e+01 8.669724e+01 9.431998e+01 1.139802e+02 1.218110e+02 1.227726e+02 1.494516e+02 1.525638e+02 1.313506e+02 1.227361e+02 1.087877e+02 1.813982e+02 1.285166e+01 7.496210e+00 8.549644e+00 9.342453e+00 1.050443e+01 1.219897e+01 1.236292e+01 1.452357e+01 1.415950e+01 1.333011e+01 1.200851e+01 1.119080e+01 1.052857e+01 1.610957e+00 1.372833e+00 2.257116e+00 3.330189e+00 2.997285e+00 2.587450e+00 3.116616e+00 4.046365e+00 4.332428e+00 3.501945e+00 3.121313e+00 2.811106e+00 1.626588e+00
<GCONST> 1.773704e+02
<MIXTURE> 5 1.013408e-01
<MEAN> 39
 -3.477169e+01 -1.658054e+01 -2.009453e+00 2.126348e+00 -3.124551e+00 -4.062734e-01 -7.085763e+00 2.452967e-01 -5.430633e+00 4.292738e+00 -3.224589e+00 3.199371e+00 9.138981e+01 -4.274885e-01 -2.722506e-01 -4.765666e-01 -5.211170e-01 -4.614409e-01 -2.886208e-01 -8.961281e-01 -9.783933e-01 -1.108492e+00 -7.905244e-01 -4.997051e-01 -1.474570e-01 1.039684e+00 1.029985e+00 4.882753e-01 3.825469e-01 3.142832e-01 4.510246e-01 2.644643e-01 4.312360e-01 2.348058e-01 2.613642e-01 1.245890e-01 8.768470e-02 2.224517e-02 3.407766e-01
<VARIANCE> 39
 6.927570e+01 6.191249e+01 5.447949e+01 5.836074e+01 7.007477e+01 8.591109e+01 9.694764e+01 1.019947e+02 1.036944e+02 1.024010e+02 9.495881e+01 8.960359e+01 2.607500e+02 4.727540e+00 4.419153e+00 4.964558e+00 6.020419e+00 6.958919e+00 8.255377e+00 9.628513e+00 9.559323e+00 9.760454e+00 9.733482e+00 9.556777e+00 9.221794e+00 9.359660e+00 1.326820e+00 9.898087e-01 1.015756e+00 1.289697e+00 1.459161e+00 1.821120e+00 2.125318e+00 2.107714e+00 2.055404e+00 2.112064e+00 1.933450e+00 1.831993e+00 1.660543e+00
<GCONST> 1.624288e+02
<MIXTURE> 6 8.019993e-02
<MEAN> 39
 -3.091682e+01 -7.003443e+00 1.977414e+00 5.821893e+00 -1.401744e+00 1.213513e+00 -5.796813e+00 3.645046e-02 -6.310157e+00 1.773120e+00 -4.088882e+00 1.274173e+00 7.626231e+01 -7.172276e-01 -7.733504e-01 4.404952e-02 1.053660e-01 4.467013e-01 9.433243e-01 7.330041e-01 7.986903e-01 4.111173e-01 5.644569e-01 2.729650e-01 2.561292e-01 1.781549e+00 1.085424e+00 -2.688602e-01 -2.126994e-01 -4.755822e-01 -2.096239e-02 -1.189288e-01 2.130432e-01 1.203256e-01 4.095442e-01 4.721557e-01 1.876951e-01 2.028626e-01 1.604231e+00
<VARIANCE> 39
 1.220010e+02 8.952894e+01 5.675500e+01 5.773300e+01 6.770219e+01 8.469327e+01 9.522845e+01 9.524695e+01 9.446130e+01 8.796200e+01 9.234628e+01 7.867855e+01 3.218466e+02 8.961396e+00 9.925500e+00 5.777153e+00 6.358344e+00 7.413121e+00 8.234023e+00 9.540269e+00 9.547520e+00 1.007653e+01 1.003931e+01 9.844245e+00 8.759989e+00 2.929177e+01 3.392934e+00 1.640505e+00 1.200167e+00 1.469659e+00 1.537110e+00 1.888486e+00 2.096337e+00 2.110902e+00 1.994315e+00 2.052524e+00 1.977074e+00 1.727867e+00 4.722779e+00
<GCONST> 1.687210e+02
<MIXTURE> 7 5.772407e-02
<MEAN> 39
 -2.925570e+01 -9.268525e+00 1.652032e+00 5.275406e+00 5.283940e-01 3.473045e+00 -1.067831e+00 6.790829e+00 2.542140e+00 1.102994e+01 2.212552e+00 5.808793e+00 7.982683e+01 -1.310370e+00 -2.059959e+00 -9.107175e-01 -1.058018e+00 -8.890852e-01 -7.463812e-01 -1.533768e+00 -9.031208e-01 -7.951104e-01 -3.632741e-01 -1.372723e-01 2.792849e-01 3.027199e+00 1.459909e+00 2.871369e-01 1.061820e-01 -3.153939e-01 -1.209628e-01 -2.315861e-01 -1.912049e-01 -7.072525e-01 -8.110251e-01 -7.529797e-01 -7.215805e-01 -4.453872e-01 1.287319e+00
<VARIANCE> 39
 1.389761e+02 1.058832e+02 8.820190e+01 8.493163e+01 9.793131e+01 1.090665e+02 1.209201e+02 1.192049e+02 1.071089e+02 1.012257e+02 9.897884e+01 1.022425e+02 3.570233e+02 1.642369e+01 1.285494e+01 8.739058e+00 9.546161e+00 9.835592e+00 1.085654e+01 1.178147e+01 1.176095e+01 1.224898e+01 1.266009e+01 1.154306e+01 1.081524e+01 3.877395e+01 4.442553e+00 2.080394e+00 2.008610e+00 2.339369e+00 2.279673e+00 2.473802e+00 2.913924e+00 2.590838e+00 2.514031e+00 2.465355e+00 2.531550e+00 2.255297e+00 5.316793e+00
<GCONST> 1.791055e+02
<MIXTURE> 8 3.649925e-02
<MEAN> 39
 -3.104997e+01 -1.340529e+01 6.376367e+00 1.119547e+01 4.599748e+00 4.328311e+00 -1.158145e+00 5.402346e+00 -1.969378e+00 5.623736e+00 -2.831912e+00 2.936456e+00 1.012647e+02 -7.741745e+00 -5.021435e+00 -4.799269e+00 -3.442095e+00 -4.111511e+00 -3.599377e+00 -4.184069e+00 -1.677487e+00 -6.333424e-01 -5.762319e-01 -2.264908e-01 -5.815120e-01 -9.805537e-01 3.453170e+00 1.076252e+00 2.403641e-01 -1.384432e+00 -4.131788e-01 -3.908542e-01 1.901104e-01 -1.037035e+00 -7.187060e-01 2.320927e-01 -2.310479e-01 4.589630e-01 4.298447e-01
<VARIANCE> 39
 7.210546e+01 6.618441e+01 9.008544e+01 9.388729e+01 1.085446e+02 1.197275e+02 1.174718e+02 1.311355e+02 1.346257e+02 1.268077e+02 1.100995e+02 1.077897e+02 1.512811e+02 2.039289e+01 9.991851e+00 1.191287e+01 1.318365e+01 1.121045e+01 1.144719e+01 1.292681e+01 1.350468e+01 1.405835e+01 1.298626e+01 1.220631e+01 1.184673e+01 1.103687e+01 1.725259e+00 1.998481e+00 3.186060e+00 5.009146e+00 3.232997e+00 3.299094e+00 3.819239e+00 4.676331e+00 4.692874e+00 3.647402e+00 3.517278e+00 3.563404e+00 1.641796e+00
<GCONST> 1.805459e+02
<MIXTURE> 9 1.453012e-01
<MEAN> 39
 -3.787320e+01 -2.043658e+01 -5.464612e+00 -1.950720e-01 -5.426180e+00 -2.838671e+00 -9.853947e+00 -1.408192e+00 -6.179762e+00 3.955040e+00 -3.383896e+00 2.961873e+00 9.442850e+01 -7.164055e-01 -3.344035e-01 -5.882177e-01 -3.792571e-01 -2.143133e-01 2.489893e-01 -8.575383e-02 -1.490749e-01 -2.725377e-01 -3.332865e-02 -1.428366e-01 -1.618901e-01 4.532712e-01 1.020044e+00 5.274113e-01 4.857822e-01 3.018928e-01 4.081316e-01 2.468720e-01 3.921118e-01 1.107676e-01 5.446966e-02 -7.678569e-02 -8.480523e-02 -8.575409e-02 2.052285e-01
<VARIANCE> 39
 6.058208e+01 5.429427e+01 6.010841e+01 7.003805e+01 7.942619e+01 8.909545e+01 9.823988e+01 1.047970e+02 1.020613e+02 9.284921e+01 9.660292e+01 8.943049e+01 2.009925e+02 4.117136e+00 3.740352e+00 4.854627e+00 6.060317e+00 7.067330e+00 7.892910e+00 9.223538e+00 9.610356e+00 9.658439e+00 9.653211e+00 9.570257e+00 9.236168e+00 6.545662e+00 1.245569e+00 9.356365e-01 1.120105e+00 1.433607e+00 1.683174e+00 1.841654e+00 2.038880e+00 2.035734e+00 1.999290e+00 1.940634e+00 1.950155e+00 1.778285e+00 1.227259e+00
<GCONST> 1.612519e+02
<MIXTURE> 10 6.606816e-02
<MEAN> 39
 -3.503821e+01 -1.842814e+01 -3.229215e+00 7.041082e-01 -4.832553e+00 -1.877175e+00 -8.188350e+00 -1.534348e+00 -6.617616e+00 3.052584e+00 -4.076681e+00 2.532779e+00 9.004816e+01 -9.183517e-01 -8.098196e-01 -9.489915e-01 -1.102020e+00 -1.421841e+00 -1.390201e+00 -2.123546e+00 -2.033503e+00 -2.269363e+00 -1.995614e+00 -1.728276e+00 -9.094104e-01 1.545452e+00 7.372563e-01 4.857301e-01 2.056289e-01 2.312046e-01 3.405522e-01 1.866417e-01 2.499570e-01 1.651958e-01 2.026439e-01 7.458316e-02 9.106319e-02 -1.587036e-02 1.221635e-01
<VARIANCE> 39
 6.522081e+01 6.321480e+01 5.183906e+01 5.722307e+01 7.124647e+01 8.720138e+01 1.051444e+02 1.108910e+02 1.092865e+02 1.088826e+02 1.004444e+02 9.532007e+01 2.411425e+02 4.827593e+00 4.798391e+00 5.062716e+00 6.590497e+00 7.369369e+00 8.575044e+00 1.014262e+01 1.029405e+01 9.951447e+00 1.005719e+01 1.009381e+01 9.593375e+00 9.703153e+00 1.088772e+00 1.084375e+00 9.548437e-01 1.196896e+00 1.431961e+00 1.779503e+00 2.183602e+00 2.169518e+00 2.065253e+00 2.274789e+00 1.985659e+00 1.909860e+00 1.715435e+00
<GCONST> 1.632377e+02
<MIXTURE> 11 8.506567e-02
<MEAN> 39
 -3.021587e+01 -8.471380e+00 5.969882e-01 4.526715e+00 -3.034578e+00 -3.262681e-01 -7.743466e+00 -2.243881e+00 -8.013129e+00 4.570771e-01 -5.501441e+00 1.626032e-01 7.476511e+01 -1.252785e+00 -1.785708e+00 -4.822054e-01 -5.795583e-01 -3.834004e-01 -3.911763e-02 -7.568534e-01 -4.024461e-01 -9.092023e-01 -6.805522e-01 -8.553115e-01 -4.969850e-01 2.851737e+00 5.531448e-01 -2.291102e-01 -2.673023e-01 -4.132256e-01 -6.541359e-02 -1.494425e-01 1.702051e-01 1.856838e-01 4.450566e-01 4.329889e-01 2.960918e-01 2.930486e-01 1.331636e+00
<VARIANCE> 39
 1.174612e+02 9.630569e+01 5.523305e+01 5.664249e+01 7.010850e+01 8.393672e+01 9.387005e+01 9.113976e+01 9.487910e+01 8.513928e+01 9.299201e+01 8.125460e+01 2.869896e+02 9.255322e+00 1.091346e+01 5.620837e+00 6.177444e+00 7.584185e+00 8.398229e+00 9.782087e+00 9.430837e+00 9.850596e+00 9.553926e+00 9.682538e+00 8.900992e+00 2.789129e+01 3.062310e+00 1.893123e+00 1.107668e+00 1.302436e+00 1.581830e+00 1.847002e+00 2.057921e+00 1.971618e+00 1.975332e+00 1.966801e+00 1.973919e+00 1.751103e+00 5.139257e+00
<GCONST> 1.683814e+02
<MIXTURE> 12 4.383027e-02
<MEAN> 39
 -2.891328e+01 -1.044311e+01 1.513835e+00 4.290622e+00 -2.640846e-01 2.640045e+00 -1.870977e+00 4.781089e+00 5.214601e-01 9.039320e+00 7.835173e-01 4.402540e+00 7.919952e+01 -2.276272e+00 -3.465699e+00 -1.861305e+00 -2.181736e+00 -2.141994e+00 -2.176829e+00 -3.298916e+00 -2.303899e+00 -2.257354e+00 -1.926816e+00 -1.600168e+00 -7.014550e-01 3.906985e+00 9.858037e-01 2.731702e-01 -1.208719e-01 -1.658535e-01 -1.696945e-01 -3.299579e-01 -2.619538e-01 -6.673097e-01 -7.260408e-01 -7.012876e-01 -5.409873e-01 -3.160007e-01 9.919487e-01
<VARIANCE> 39
 1.242894e+02 1.204878e+02 8.346981e+01 9.060166e+01 9.958025e+01 1.115836e+02 1.237939e+02 1.182442e+02 1.019374e+02 1.080112e+02 1.094219e+02 1.015330e+02 3.162622e+02 1.707341e+01 1.294052e+01 8.527164e+00 1.000880e+01 1.022543e+01 1.121776e+01 1.293604e+01 1.264097e+01 1.317768e+01 1.374500e+01 1.235146e+01 1.138969e+01 3.506503e+01 4.169497e+00 2.331903e+00 1.865868e+00 2.162824e+00 2.195923e+00 2.467820e+00 3.007591e+00 2.550950e+00 2.275941e+00 2.456081e+00 2.676059e+00 2.298421e+00 5.415744e+00
<GCONST> 1.795190e+02
<MIXTURE> 13 4.583278e-02
<MEAN> 39
 -2.840314e+01 -6.751785e+00 6.072416e+00 1.021166e+01 4.384122e+00 6.418467e+00 -3.374121e-01 5.425952e+00 -7.666717e-01 7.842908e+00 -1.229188e+00 3.433517e+00 8.425925e+01 -3.548013e+00 -2.134001e+00 -9.769980e-01 -5.500424e-01 -8.936965e-01 -4.645014e-01 -1.068093e+00 -4.006639e-01 -1.313967e-01 -6.422448e-02 -9.138095e-02 3.298722e-02 6.408967e-01 1.685480e+00 -3.529250e-01 -8.140519e-01 -1.459493e+00 -8.653355e-01 -9.230629e-01 -6.669514e-01 -6.526539e-01 -7.296904e-01 -4.579433e-01 -2.886227e-01 -1.915889e-01 1.334273e+00
<VARIANCE> 39
 1.480879e+02 1.184886e+02 1.194518e+02 1.114889e+02 1.396314e+02 1.487260e+02 1.614080e+02 1.631462e+02 1.781147e+02 1.743313e+02 1.493583e+02 1.299414e+02 3.683574e+02 3.583181e+01 1.330507e+01 1.125025e+01 1.239066e+01 1.204930e+01 1.367425e+01 1.389166e+01 1.443762e+01 1.453716e+01 1.509960e+01 1.433750e+01 1.205981e+01 3.112485e+01 5.691333e+00 2.733196e+00 3.005195e+00 3.304717e+00 3.477699e+00 3.750306e+00 4.256744e+00 3.987448e+00 4.267513e+00 4.285242e+00 3.605156e+00 3.020826e+00 4.874193e+00
<GCONST> 1.900023e+02
<MIXTURE> 14 5.119933e-02
<MEAN> 39
 -3.410336e+01 -1.821525e+01 -6.463085e-01 3.637768e+00 -3.922834e+00 -5.184689e+00 -1.086470e+01 -1.436802e+00 -4.637802e+00 4.343884e+00 -3.743029e+00 3.241650e+00 1.014268e+02 -4.472109e+00 -3.503312e+00 -4.877761e+00 -4.261813e+00 -3.598953e+00 -2.484754e+00 -3.029546e+00 -1.864676e+00 -1.101631e+00 -6.434572e-01 -3.722663e-01 -2.369706e-01 -6.741992e-01 2.843451e+00 1.554815e+00 1.583966e+00 4.223200e-01 7.592143e-01 9.075155e-01 1.243374e+00 1.844146e-01 -4.701553e-01 -4.151066e-02 -2.127270e-01 -6.084094e-02 1.575285e-01
<VARIANCE> 39
 7.695119e+01 6.164611e+01 8.779202e+01 9.768956e+01 1.057993e+02 1.185053e+02 1.165014e+02 1.371010e+02 1.474834e+02 1.225228e+02 1.179926e+02 1.079878e+02 1.649692e+02 1.261906e+01 7.526844e+00 9.953566e+00 1.021768e+01 1.017931e+01 1.107063e+01 1.162265e+01 1.314869e+01 1.495233e+01 1.303386e+01 1.176974e+01 1.140107e+01 1.053907e+01 1.759055e+00 1.541581e+00 2.386509e+00 3.168488e+00 2.881021e+00 2.639672e+00 3.004962e+00 3.839530e+00 4.353068e+00 3.451702e+00 3.032105e+00 2.966662e+00 1.513251e+00
<GCONST> 1.769463e+02
<MIXTURE> 15 4.752411e-02
<MEAN> 39
 -3.216319e+01 -1.312269e+01 8.719023e-02 3.767061e+00 -4.615812e+00 -3.021941e+00 -1.102521e+01 -3.564169e+00 -1.095200e+01 -3.551792e+00 -1.118702e+01 -3.247847e+00 8.836523e+01 -1.837739e+00 -4.559758e-01 -6.089827e-02 7.343327e-01 9.274436e-01 1.918267e+00 1.416570e+00 1.213423e+00 6.323952e-01 8.285871e-01 4.349764e-01 7.286385e-02 -3.335806e-01 6.682637e-01 1.881665e-01 -1.522557e-01 -2.557811e-01 2.056766e-01 1.700747e-01 5.724995e-01 4.838572e-01 7.771776e-01 9.154305e-01 9.790005e-01 7.293877e-01 3.294258e-01
<VARIANCE> 39
 1.295287e+02 8.391642e+01 7.195409e+01 7.568608e+01 8.971057e+01 1.192849e+02 1.334037e+02 1.369081e+02 1.594314e+02 1.462052e+02 1.572941e+02 1.522067e+02 2.552608e+02 1.144767e+01 7.580759e+00 7.461211e+00 7.842107e+00 9.675139e+00 1.096358e+01 1.099675e+01 1.323881e+01 1.322953e+01 1.242986e+01 1.401604e+01 1.340715e+01 1.695046e+01 2.943875e+00 1.566484e+00 1.443058e+00 1.767791e+00 1.916377e+00 2.338659e+00 2.707556e+00 2.826313e+00 2.969789e+00 2.974541e+00 3.083354e+00 2.857216e+00 3.036737e+00
<GCONST> 1.771583e+02
<MIXTURE> 16 2.231226e-02
<MEAN> 39
 -3.335373e+01 -1.444726e+01 4.067419e+00 8.368604e+00 8.338276e-01 1.528670e+00 -3.750049e+00 4.126751e+00 -3.772358e+00 4.038900e+00 -3.641478e+00 1.952370e+00 1.013040e+02 -7.349264e+00 -5.365102e+00 -5.532103e+00 -4.811788e+00 -5.846563e+00 -5.063243e+00 -5.937124e+00 -3.688573e+00 -3.035564e+00 -2.527670e+00 -1.889831e+00 -1.679712e+00 -8.380516e-01 3.550139e+00 1.237262e+00 5.040588e-01 -9.169158e-01 1.416321e-02 -2.798567e-01 4.167864e-01 -1.013531e+00 -4.545450e-01 2.313173e-01 -2.068852e-01 7.134034e-01 3.097074e-01
<VARIANCE> 39
 7.044093e+01 8.947140e+01 1.097864e+02 1.023573e+02 1.163512e+02 1.442111e+02 1.484165e+02 1.388811e+02 1.466211e+02 1.487695e+02 1.333788e+02 1.177988e+02 1.238187e+02 1.702332e+01 9.711362e+00 1.234563e+01 1.177764e+01 1.133796e+01 1.221614e+01 1.248862e+01 1.410668e+01 1.372680e+01 1.230531e+01 1.406424e+01 1.373449e+01 1.085522e+01 2.082711e+00 2.258672e+00 3.581925e+00 4.836669e+00 3.380954e+00 3.988662e+00 3.856271e+00 4.658160e+00 4.734976e+00 3.679707e+00 3.700380e+00 3.422575e+00 1.495928e+00
<GCONST> 1.825429e+02
<STATE> 3
<NUMMIXES> 16
<MIXTURE> 1 3.135616e-02
<MEAN> 39
 -1.537038e+01 -1.113723e+01 2.699044e+00 5.228559e+00 8.589325e+00 8.750199e+00 3.308185e-01 2.659763e+00 1.176008e+00 1.071794e+01 -2.730531e-02 3.711965e+00 9.862519e+01 1.765076e+01 4.653802e+00 1.649421e+00 -1.073612e+01 1.152939e+00 1.265768e+00 3.877090e+00 -1.249021e-01 -1.719199e+00 3.683766e+00 5.553563e-01 2.324827e+00 7.112889e+00 1.259113e+00 -3.792833e-01 -2.907599e-01 -4.114935e+00 -1.177609e+00 -1.061969e+00 -8.890757e-02 -2.014850e-01 -9.166090e-01 4.908948e-01 -4.943099e-01 5.085496e-01 1.917026e+00
<VARIANCE> 39
 7.973719e+01 6.337218e+01 6.010133e+01 7.199255e+01 7.602662e+01 9.426859e+01 1.101588e+02 1.110615e+02 1.404071e+02 1.285514e+02 1.024463e+02 9.257114e+01 1.656542e+02 1.050438e+01 2.733932e+01 1.238941e+01 2.174846e+01 1.720767e+01 1.688221e+01 2.406468e+01 2.264419e+01 3.780346e+01 2.457636e+01 3.399464e+01 1.769016e+01 2.107640e+01 1.946180e+00 3.826145e+00 1.758702e+00 2.599411e+00 2.136510e+00 2.446646e+00 3.394280e+00 2.952180e+00 3.613434e+00 2.954878e+00 3.634613e+00 2.723038e+00 3.218513e+00
<GCONST> 1.837606e+02
<MIXTURE> 2 5.382748e-02
<MEAN> 39
 -2.904716e+01 -1.906465e+01 -3.762981e+00 1.239083e+00 -6.558469e-01 3.534465e-01 -7.143447e+00 -2.309773e-01 -5.001117e+00 4.658293e+00 -3.447995e+00 2.536158e+00 1.057624e+02 9.697448e+00 4.260232e+00 2.067238e+00 -6.797159e-01 2.580034e+00 3.040705e+00 3.910641e+00 1.718788e+00 1.520961e+00 2.084406e+00 1.420978e+00 1.205501e+00 1.356315e+00 4.298070e+00 2.095027e+00 8.871264e-01 -3.079479e+00 -1.046325e+00 -8.219294e-02 6.370699e-01 2.294537e-01 -6.487179e-01 4.581024e-01 -1.790759e-01 1.644640e-01 5.945102e-01
<VARIANCE> 39
 9.417780e+01 5.371899e+01 5.968715e+01 6.917664e+01 7.934909e+01 9.741713e+01 1.056578e+02 1.015294e+02 1.117817e+02 1.046964e+02 9.832608e+01 9.566478e+01 1.536489e+02 1.926373e+01 1.088631e+01 6.714530e+00 1.240165e+01 9.558105e+00 9.912768e+00 1.089766e+01 1.064148e+01 1.177523e+01 1.239905e+01 1.267404e+01 1.047448e+01 1.429696e+01 1.672822e+00 3.397600e+00 2.284686e+00 3.571009e+00 3.231374e+00 3.406462e+00 4.119852e+00 3.670871e+00 3.965256e+00 3.377468e+00 4.603765e+00 3.679310e+00 3.771974e+00
<GCONST> 1.776247e+02
<MIXTURE> 3 3.963840e-02
<MEAN> 39
 -1.855400e+01 -1.261085e+01 3.615625e-01 2.675864e+00 4.338741e+00 5.388090e+00 -1.045223e+00 1.742389e+00 -4.703045e-01 1.128917e+01 -3.905351e-01 3.692441e+00 1.059649e+02 1.694500e+01 5.280178e+00 2.981699e+00 -7.116013e+00 -4.168072e+00 3.268697e+00 7.264634e-01 2.469503e+00 -2.355303e+00 6.447696e-01 3.615643e+00 -1.033768e+00 5.610329e+00 2.218825e+00 1.376900e-02 2.607154e-01 -3.064476e+00 -2.668554e+00 2.757124e-01 -1.118348e+00 5.754156e-01 -1.460510e+00 -5.710428e-01 6.517286e-01 -1.012533e+00 1.424123e+00
<VARIANCE> 39
 1.238350e+02 6.822071e+01 6.239561e+01 7.592215e+01 1.149066e+02 1.323893e+02 1.247884e+02 1.387706e+02 1.068325e+02 1.241024e+02 1.181958e+02 9.594662e+01 1.617310e+02 1.323996e+01 2.286447e+01 1.762491e+01 1.949811e+01 2.571905e+01 2.086441e+01 1.937689e+01 2.249457e+01 2.546434e+01 2.774844e+01 3.175147e+01 1.469182e+01 2.375078e+01 2.729233e+00 3.462341e+00 2.850030e+00 3.212104e+00 3.637319e+00 4.211877e+00 4.098655e+00 3.891171e+00 4.057414e+00 4.246164e+00 5.313100e+00 2.998557e+00 4.160739e+00
<GCONST> 1.892735e+02
<MIXTURE> 4 7.077377e-02
<MEAN> 39
 -3.020538e+01 -1.769417e+01 -1.694560e+00 -2.111861e+00 -7.511069e+00 -5.101804e+00 -1.107991e+01 -2.853160e+00 -8.631945e+00 -9.773805e-01 -5.959748e+00 2.088379e+00 1.026995e+02 7.744907e+00 7.063913e-01 -4.076663e-02 -9.762059e-01 1.602924e+00 1.347113e+00 1.629405e+00 8.189417e-01 2.186569e+00 1.913835e+00 5.405189e-02 3.673210e-01 7.112254e+00 4.167074e+00 1.278362e+00 1.766132e-01 -1.596427e+00 7.031939e-01 1.004994e+00 1.481227e+00 4.359469e-01 8.801944e-01 1.612727e+00 1.676767e-01 -3.643702e-02 3.163816e-01
<VARIANCE> 39
 1.285401e+02 5.187326e+01 4.467934e+01 5.340521e+01 5.034842e+01 5.589337e+01 5.592831e+01 6.133502e+01 7.015108e+01 6.368850e+01 6.520260e+01 6.562082e+01 2.316682e+02 2.185251e+01 1.157516e+01 6.494417e+00 8.762026e+00 7.992023e+00 9.440427e+00 9.209512e+00 1.044995e+01 1.250523e+01 1.177700e+01 1.232153e+01 9.897560e+00 3.101093e+01 2.757977e+00 3.726195e+00 1.948541e+00 2.948424e+00 2.648666e+00 2.528955e+00 2.672746e+00 2.615069e+00 3.842042e+00 3.077670e+00 4.019939e+00 2.705708e+00 7.052307e+00
<GCONST> 1.729836e+02
<MIXTURE> 5 8.228992e-02
<MEAN> 39
 -3.576296e+01 -2.063708e+01 -5.625550e+00 1.230945e+00 -1.491006e+00 1.183447e+00 -5.942211e+00 2.991860e-01 -4.556376e+00 6.933615e+00 -2.249712e+00 3.505796e+00 1.018409e+02 7.707995e+00 2.765522e+00 1.276861e+00 -7.522042e-01 1.120205e+00 1.289845e+00 1.761164e+00 5.417270e-01 6.975428e-01 8.899986e-01 8.288433e-01 3.752490e-01 2.755002e+00 4.982608e+00 1.980112e+00 1.208881e+00 -2.422864e+00 -9.504789e-01 2.025227e-01 3.605620e-01 3.436059e-01 -5.024638e-01 -2.085383e-03 1.223515e-01 -3.310428e-01 1.096681e+00
<VARIANCE> 39
 7.248205e+01 5.286522e+01 5.781721e+01 7.077682e+01 7.794094e+01 8.932484e+01 9.794637e+01 1.124514e+02 1.134270e+02 9.537721e+01 1.054121e+02 9.087504e+01 1.357533e+02 1.760372e+01 8.140521e+00 6.284351e+00 9.124593e+00 8.431652e+00 8.568459e+00 9.406713e+00 9.984226e+00 1.035681e+01 9.714101e+00 1.028451e+01 8.722236e+00 1.454759e+01 1.348778e+00 2.485744e+00 2.148484e+00 3.198099e+00 3.146876e+00 2.840737e+00 3.212980e+00 3.537508e+00 3.811919e+00 3.178552e+00 4.805574e+00 2.756225e+00 2.644355e+00
<GCONST> 1.731979e+02
<MIXTURE> 6 6.615719e-02
<MEAN> 39
 -1.563270e+01 -1.659180e+01 -6.072617e+00 -2.973759e+00 -1.308777e+00 3.280700e+00 -4.588925e+00 -1.783310e+00 -8.931108e+00 3.396032e+00 -2.550829e+00 5.892069e+00 1.078013e+02 1.578308e+01 8.814598e+00 5.101303e+00 -5.549129e+00 -3.775130e+00 3.197978e-01 2.214618e+00 3.346028e+00 -8.405618e-02 2.003241e-01 -8.572580e-01 -6.296097e-01 2.137159e+00 2.528221e+00 2.404007e+00 2.037701e+00 -2.688880e+00 -2.448643e+00 -5.061276e-01 -5.706012e-01 1.108810e+00 -5.044267e-01 3.330062e-01 -5.347456e-01 -1.001053e+00 -5.946944e-02
<VARIANCE> 39
 8.542937e+01 5.403233e+01 4.780010e+01 6.435571e+01 8.438722e+01 9.645875e+01 1.118459e+02 1.074590e+02 9.123846e+01 9.141092e+01 9.315207e+01 8.278759e+01 1.620624e+02 1.103780e+01 9.834210e+00 1.178545e+01 1.761893e+01 1.901555e+01 1.709686e+01 1.615808e+01 1.652672e+01 1.653973e+01 1.401564e+01 1.395169e+01 1.230326e+01 1.725956e+01 1.895997e+00 2.523297e+00 2.073360e+00 3.440078e+00 3.794174e+00 3.894579e+00 4.424868e+00 4.046509e+00 4.060716e+00 3.835172e+00 3.681638e+00 3.337964e+00 4.123626e+00
<GCONST> 1.802255e+02
<MIXTURE> 7 8.158873e-02
<MEAN> 39
 -3.745078e+01 -1.951272e+01 -4.340895e+00 -1.050614e-01 -5.440748e+00 -2.147607e+00 -9.787038e+00 -2.745864e+00 -8.337756e+00 2.694762e+00 -4.544924e+00 1.882158e+00 9.585517e+01 3.843323e+00 -6.829686e-01 -6.813256e-01 -1.162391e+00 -1.106779e-02 -5.551863e-01 -3.664769e-01 -9.024456e-01 -3.815140e-01 -1.506849e-02 2.446474e-02 4.663140e-01 5.649924e+00 4.114166e+00 1.951891e+00 9.604819e-01 -6.928605e-01 3.786811e-01 7.178727e-01 1.180166e+00 6.790308e-01 5.255647e-01 6.299747e-01 2.314879e-01 1.210201e-01 5.471864e-01
<VARIANCE> 39
 9.292764e+01 6.588239e+01 5.662339e+01 6.675239e+01 6.864512e+01 8.052660e+01 8.507290e+01 9.048674e+01 9.292915e+01 8.661517e+01 8.257842e+01 7.454156e+01 1.799112e+02 6.980073e+00 6.455812e+00 5.593218e+00 6.495588e+00 7.253386e+00 8.531244e+00 9.127282e+00 9.397033e+00 8.990460e+00 8.872848e+00 8.865260e+00 8.913679e+00 2.009249e+01 2.143967e+00 1.475912e+00 1.478435e+00 2.281216e+00 2.085194e+00 2.067727e+00 2.177669e+00 2.476914e+00 2.349713e+00 2.277762e+00 2.528303e+00 1.918494e+00 3.593137e+00
<GCONST> 1.668881e+02
<MIXTURE> 8 6.554846e-02
<MEAN> 39
 -2.661700e+01 -1.485704e+01 -3.219170e-01 1.286553e-01 -4.336709e+00 -2.206171e+00 -6.286082e+00 2.510144e+00 -2.718552e+00 2.440802e+00 -4.302663e+00 4.736811e+00 1.023997e+02 1.616618e+01 6.590703e-01 -8.506526e-01 -6.345811e+00 2.631911e+00 8.981407e-01 2.675321e+00 -8.800603e-01 3.943704e+00 4.537407e+00 -1.409185e+00 -9.093212e-01 1.097874e+01 2.755231e+00 -1.092352e+00 -6.014313e-01 -2.716953e+00 1.002077e+00 4.945366e-01 1.024769e+00 -3.047815e-01 9.167234e-01 1.484263e+00 -2.865660e-01 -1.278550e-01 1.884964e+00
<VARIANCE> 39
 9.086341e+01 6.787539e+01 6.118759e+01 7.040074e+01 7.367174e+01 8.558102e+01 9.691146e+01 1.045074e+02 1.085649e+02 9.321780e+01 9.035182e+01 8.881873e+01 2.079989e+02 1.155196e+01 1.635315e+01 1.056732e+01 1.851161e+01 1.383009e+01 1.492252e+01 1.781171e+01 1.590462e+01 2.762304e+01 2.087232e+01 2.426175e+01 1.732080e+01 2.544126e+01 2.808481e+00 2.588984e+00 2.242852e+00 3.600904e+00 2.574216e+00 2.909908e+00 3.177060e+00 3.175404e+00 4.194099e+00 3.320009e+00 3.773715e+00 3.080321e+00 4.185331e+00
<GCONST> 1.823388e+02
<MIXTURE> 9 8.846986e-02
<MEAN> 39
 -3.567260e+01 -2.192372e+01 -7.577523e+00 1.728319e-01 -9.858863e-01 1.563281e+00 -6.756099e+00 -1.300735e+00 -5.730088e+00 6.035254e+00 -3.208035e+00 2.943283e+00 1.018687e+02 5.558285e+00 1.495317e+00 2.323267e-01 -1.078786e+00 2.685420e-01 5.477498e-01 7.483438e-01 -3.268363e-01 -5.821278e-01 -5.829162e-01 -4.506499e-01 -3.017981e-01 2.072735e+00 4.558424e+00 2.211782e+00 1.537349e+00 -1.681829e+00 -1.016255e+00 -1.416701e-02 2.591406e-01 5.642063e-01 -3.246563e-01 -1.166705e-01 2.292278e-01 -3.664290e-01 6.995481e-01
<VARIANCE> 39
 7.684560e+01 5.353282e+01 6.117567e+01 7.643813e+01 8.661785e+01 9.470517e+01 1.081568e+02 1.212742e+02 1.193665e+02 9.626798e+01 1.111488e+02 9.153638e+01 1.236163e+02 1.286891e+01 6.537204e+00 6.322557e+00 8.126380e+00 8.490449e+00 8.840134e+00 9.644323e+00 1.019009e+01 1.077744e+01 1.007310e+01 1.012144e+01 9.160604e+00 1.185003e+01 1.455199e+00 1.812210e+00 1.846790e+00 2.665565e+00 2.779534e+00 2.600955e+00 2.820873e+00 3.295291e+00 3.226362e+00 2.759615e+00 4.113144e+00 2.536309e+00 2.349232e+00
<GCONST> 1.714610e+02
<MIXTURE> 10 6.854479e-02
<MEAN> 39
 -3.003204e+01 -2.082659e+01 -5.326003e+00 7.343768e-02 -2.035096e+00 -9.407602e-01 -9.046814e+00 -2.635553e+00 -7.424821e+00 3.957705e+00 -3.841842e+00 2.128498e+00 1.050467e+02 9.109118e+00 3.655041e+00 1.397285e+00 -1.283893e+00 1.393340e+00 2.051384e+00 2.855087e+00 9.917426e-01 5.705456e-01 7.082685e-01 4.678494e-01 3.964511e-01 1.383064e+00 4.351562e+00 2.289220e+00 1.193651e+00 -2.732910e+00 -9.911613e-01 1.417410e-02 8.221502e-01 5.837384e-01 -3.262893e-01 3.608190e-01 -5.788226e-02 1.273237e-02 5.369881e-01
<VARIANCE> 39
 9.669706e+01 5.503865e+01 5.857594e+01 8.026357e+01 8.762381e+01 1.085878e+02 1.185662e+02 1.100399e+02 1.147366e+02 1.071185e+02 1.118449e+02 9.798586e+01 1.440033e+02 2.061148e+01 1.043708e+01 6.815003e+00 1.183936e+01 9.216498e+00 9.400657e+00 1.030803e+01 1.060875e+01 1.169416e+01 1.133072e+01 1.274847e+01 1.034314e+01 1.278172e+01 1.718015e+00 3.098200e+00 2.228999e+00 3.921767e+00 3.204591e+00 3.466210e+00 4.021227e+00 3.618114e+00 4.001269e+00 3.499660e+00 4.698670e+00 3.477690e+00 3.607477e+00
<GCONST> 1.779135e+02
<MIXTURE> 11 7.218319e-02
<MEAN> 39
 -3.863054e+01 -1.922926e+01 -4.296058e+00 -4.175126e-01 -6.246614e+00 -2.700167e+00 -1.084506e+01 -3.562390e+00 -9.808568e+00 1.017321e+00 -5.395967e+00 1.898400e+00 9.302184e+01 2.981633e+00 -1.261184e+00 -1.359681e+00 -2.058267e+00 -1.280247e+00 -1.815519e+00 -1.581002e+00 -2.115190e+00 -1.774913e+00 -1.529054e+00 -1.307903e+00 -6.095402e-01 5.978987e+00 3.673133e+00 1.641885e+00 8.255281e-01 -2.845759e-01 5.101714e-01 6.783412e-01 1.059940e+00 6.805591e-01 7.157134e-01 8.011122e-01 3.049651e-01 6.968679e-02 8.698794e-01
<VARIANCE> 39
 9.101923e+01 6.973317e+01 6.090846e+01 7.582176e+01 7.070199e+01 8.244093e+01 9.318044e+01 8.878761e+01 9.645312e+01 9.652888e+01 9.632999e+01 7.769527e+01 1.834418e+02 7.737567e+00 7.183702e+00 6.141979e+00 6.009789e+00 7.246303e+00 8.721087e+00 9.538743e+00 1.020765e+01 8.902506e+00 8.892366e+00 9.131374e+00 8.468250e+00 2.040679e+01 2.205424e+00 1.427828e+00 1.469091e+00 2.169450e+00 1.940566e+00 1.951134e+00 2.137738e+00 2.203283e+00 2.207245e+00 2.336320e+00 2.336289e+00 1.881745e+00 3.361625e+00
<GCONST> 1.674408e+02
<MIXTURE> 12 7.122202e-02
<MEAN> 39
 -3.226297e+01 -1.617733e+01 -1.656860e+00 -1.058061e+00 -7.242876e+00 -5.160060e+00 -1.179288e+01 -3.307372e+00 -1.006461e+01 -1.646473e+00 -6.410284e+00 9.888359e-01 9.552383e+01 5.894310e+00 -7.560557e-01 -8.412780e-01 -1.891254e+00 1.199753e-01 -1.615146e-01 1.135812e-01 -2.703191e-01 7.506767e-01 5.459679e-01 -6.466134e-01 -2.481028e-01 8.467209e+00 4.145599e+00 1.163622e+00 1.595984e-01 -1.437139e+00 5.580018e-01 9.145247e-01 1.396132e+00 4.235834e-01 1.017785e+00 1.538340e+00 3.662902e-01 -7.601106e-03 8.975747e-01
<VARIANCE> 39
 1.254313e+02 6.546078e+01 4.629745e+01 5.791185e+01 5.394897e+01 6.162226e+01 5.985872e+01 7.174950e+01 8.045450e+01 6.685487e+01 6.533286e+01 6.089159e+01 2.958613e+02 2.052449e+01 1.272198e+01 6.105649e+00 7.522837e+00 7.838688e+00 9.013516e+00 9.616572e+00 1.035562e+01 1.031177e+01 1.058275e+01 1.074681e+01 9.020187e+00 3.451754e+01 3.031744e+00 3.326499e+00 1.897717e+00 2.961349e+00 2.645680e+00 2.364920e+00 2.310543e+00 2.659941e+00 3.610119e+00 2.842818e+00 3.400820e+00 2.247866e+00 7.348937e+00
<GCONST> 1.727302e+02
<MIXTURE> 13 6.531392e-02
<MEAN> 39
 -2.853733e+01 -1.449966e+01 -9.096994e-01 1.603151e-01 -5.038458e+00 -3.250065e+00 -8.585846e+00 1.809561e-01 -5.136570e+00 9.898067e-01 -5.961128e+00 2.645391e+00 9.964845e+01 1.537319e+01 7.279994e-01 -1.228762e+00 -6.395522e+00 1.048377e+00 3.440557e-01 2.006503e+00 -1.900972e+00 2.079665e+00 3.282803e+00 -1.993834e-01 -1.852712e+00 1.117200e+01 3.286498e+00 -8.205595e-01 -5.602708e-01 -2.717720e+00 7.274001e-01 6.286350e-01 1.309628e+00 -3.653868e-01 9.514809e-01 1.633425e+00 4.956954e-01 -3.425710e-01 2.134916e+00
<VARIANCE> 39
 9.836656e+01 7.579586e+01 6.818578e+01 7.507166e+01 7.572224e+01 9.691782e+01 1.043343e+02 1.074266e+02 1.079801e+02 9.516536e+01 9.134287e+01 9.474551e+01 2.416445e+02 1.370788e+01 1.803154e+01 1.112789e+01 1.734387e+01 1.464936e+01 1.456581e+01 1.665582e+01 1.557946e+01 2.489796e+01 2.151530e+01 2.774978e+01 1.553583e+01 2.819879e+01 2.772830e+00 2.823785e+00 2.579536e+00 3.822489e+00 2.825455e+00 3.233350e+00 3.380527e+00 3.201437e+00 4.563021e+00 3.526621e+00 4.840414e+00 3.637077e+00 4.520544e+00
<GCONST> 1.846300e+02
<MIXTURE> 14 5.162107e-02
<MEAN> 39
 -1.654687e+01 -1.738430e+01 -7.934409e+00 -5.409214e+00 -4.254695e+00 1.240423e+00 -6.325871e+00 -3.843910e+00 -1.219763e+01 1.117947e+00 -4.635427e+00 5.407188e+00 1.055290e+02 1.553581e+01 8.259710e+00 5.836224e+00 -5.684929e+00 -5.100133e+00 -1.173683e-01 8.459556e-01 3.987768e+00 -1.358829e+00 -8.460916e-01 -4.558248e-01 -2.464154e+00 2.452905e+00 2.579964e+00 2.066644e+00 2.526105e+00 -2.254529e+00 -2.480616e+00 -9.286364e-02 -8.209658e-01 1.720541e+00 -6.325465e-01 2.479660e-01 1.727047e-01 -1.670471e+00 6.638570e-01
<VARIANCE> 39
 8.937428e+01 5.283678e+01 4.715470e+01 7.086716e+01 8.603496e+01 1.016050e+02 1.189566e+02 1.173191e+02 9.683397e+01 1.012154e+02 8.934200e+01 8.772306e+01 1.502078e+02 1.037691e+01 9.614884e+00 1.317128e+01 1.739715e+01 1.901017e+01 1.742821e+01 1.514732e+01 1.866238e+01 2.071869e+01 1.533929e+01 1.487666e+01 1.244022e+01 1.740359e+01 2.127192e+00 2.315347e+00 2.132710e+00 3.202610e+00 3.685416e+00 3.721855e+00 3.673223e+00 4.604901e+00 4.710160e+00 3.829975e+00 3.327013e+00 2.777244e+00 2.737889e+00
<GCONST> 1.804492e+02
<MIXTURE> 15 5.044873e-02
<MEAN> 39
 -2.123802e+01 -1.450762e+01 -2.470545e+00 1.386467e-03 -2.676122e-01 3.798434e-01 -4.457697e+00 -1.238871e+00 -2.008700e+00 9.649333e+00 -3.686544e+00 1.021621e+00 1.050752e+02 1.663998e+01 3.366772e+00 2.139145e+00 -7.034298e+00 -4.392330e+00 3.014615e+00 1.840511e-02 1.849829e+00 -3.361269e+00 2.585662e-01 5.642119e+00 -2.243481e+00 7.832755e+00 2.482487e+00 -2.949217e-01 3.891649e-01 -2.573122e+00 -2.141161e+00 9.166677e-01 -7.827783e-01 8.866147e-01 -1.350573e+00 -4.005934e-01 1.946326e+00 -1.083538e+00 1.859828e+00
<VARIANCE> 39
 1.169348e+02 6.378284e+01 6.328502e+01 7.139437e+01 1.034850e+02 1.258212e+02 1.256189e+02 1.313657e+02 1.009756e+02 1.183831e+02 1.286856e+02 1.001723e+02 1.608641e+02 1.181156e+01 1.934919e+01 1.673511e+01 1.700283e+01 2.383311e+01 2.142261e+01 1.802065e+01 2.464050e+01 2.552505e+01 2.829310e+01 3.320637e+01 1.513677e+01 2.740466e+01 2.951171e+00 2.730081e+00 2.564470e+00 3.066998e+00 3.401860e+00 4.076379e+00 3.850932e+00 4.133757e+00 4.572626e+00 4.049301e+00 5.613745e+00 3.011532e+00 3.604935e+00
<GCONST> 1.882309e+02
<MIXTURE> 16 4.098798e-02
<MEAN> 39
 -1.776251e+01 -1.418659e+01 -1.905504e-01 3.845411e+00 5.537634e+00 6.258103e+00 -3.108487e+00 -3.518469e-02 -3.594446e+00 7.020818e+00 -1.099085e+00 2.144016e+00 9.902222e+01 1.779179e+01 6.494960e+00 1.756802e+00 -1.110891e+01 2.304758e-01 7.673569e-02 4.757090e+00 -9.948233e-01 -1.556086e+00 1.579755e+00 -4.667001e-01 2.180065e+00 6.038103e+00 1.904554e+00 6.220123e-01 1.509505e-01 -4.475133e+00 -1.046505e+00 -1.220987e+00 6.010717e-01 -3.131143e-01 -4.080752e-01 6.206582e-01 -5.768026e-01 9.862782e-01 1.596712e+00
<VARIANCE> 39
 9.504646e+01 7.138425e+01 6.342654e+01 7.963733e+01 8.249818e+01 9.863934e+01 1.100316e+02 1.043791e+02 1.229422e+02 1.173187e+02 1.027092e+02 9.160928e+01 1.612149e+02 1.086990e+01 2.363228e+01 1.098790e+01 2.123560e+01 1.334204e+01 1.729587e+01 2.270941e+01 1.832275e+01 2.416573e+01 2.171132e+01 2.988597e+01 1.560711e+01 1.945409e+01 2.209467e+00 3.996364e+00 1.766757e+00 2.926900e+00 2.023561e+00 2.737481e+00 3.943345e+00 3.150672e+00 3.738123e+00 3.269363e+00 3.934560e+00 3.007409e+00 3.321981e+00
<GCONST> 1.832656e+02
<STATE> 4
<NUMMIXES> 16
<MIXTURE> 1 5.348079e-02
<MEAN> 39
 -1.974804e+00 -4.356057e+00 2.267758e+00 -2.068772e+00 -1.055075e+00 7.926214e-01 -3.615372e+00 2.366981e+00 2.492459e+00 6.045974e+00 -7.050889e+00 2.364009e+00 1.088284e+02 1.717449e+01 -1.594067e+00 -1.265421e+00 -9.994412e+00 3.590757e+00 1.699211e+00 3.836426e+00 -3.719563e-01 4.657243e+00 5.855631e+00 -1.204245e+00 2.896286e-02 1.270605e+01 -1.226848e+00 -2.224730e+00 -7.932791e-01 -1.775557e+00 7.430325e-01 6.573919e-01 5.818361e-01 2.263732e-01 1.024056e-01 5.313682e-01 1.272152e-01 4.417144e-01 4.053159e-01
<VARIANCE> 39
 1.318138e+02 7.957803e+01 6.255185e+01 8.306984e+01 7.762534e+01 9.112309e+01 8.903006e+01 8.302312e+01 1.016657e+02 1.063126e+02 8.660692e+01 9.367465e+01 1.666851e+02 8.675802e+00 1.805997e+01 1.555942e+01 3.058253e+01 2.172402e+01 2.089106e+01 2.633886e+01 2.459705e+01 5.101700e+01 2.845032e+01 3.639081e+01 2.569880e+01 1.803139e+01 1.969870e+00 2.132574e+00 1.661712e+00 2.421486e+00 1.958757e+00 2.228657e+00 1.930929e+00 2.063665e+00 2.262775e+00 2.520432e+00 2.264839e+00 2.073749e+00 3.907319e+00
<GCONST> 1.818270e+02
<MIXTURE> 2 6.072478e-02
<MEAN> 39
 2.659355e+01 -1.672051e+01 -7.547184e+00 -2.650875e+01 7.072365e+00 1.123955e+00 9.785739e-01 -4.848718e+00 1.549664e+01 1.365761e+01 -1.462002e+01 -3.780741e+00 1.329443e+02 1.193111e+01 -5.320443e+00 -3.420225e+00 -9.493893e+00 5.540697e+00 2.466390e+00 4.328575e+00 -5.195919e-02 7.264122e+00 4.238456e+00 -2.010546e+00 4.233894e-01 1.249495e+01 -4.957581e+00 -1.368314e+00 2.097828e-02 1.436855e+00 2.337171e-01 6.700891e-01 -2.917781e-01 6.875924e-01 -1.589230e+00 -1.000861e+00 8.855243e-01 1.299602e+00 -2.292093e+00
<VARIANCE> 39
 3.939477e+01 1.274465e+02 9.847472e+01 1.700846e+02 1.135381e+02 1.826123e+02 1.589201e+02 1.470577e+02 1.656520e+02 1.609928e+02 1.868012e+02 1.715088e+02 1.030709e+02 1.380310e+01 1.758204e+01 1.418052e+01 2.352950e+01 1.727359e+01 2.148117e+01 2.031187e+01 1.777847e+01 1.920679e+01 2.118376e+01 2.281248e+01 2.091665e+01 1.726467e+01 1.138921e+00 1.239092e+00 1.049443e+00 1.895156e+00 1.667241e+00 2.151687e+00 2.124659e+00 2.033040e+00 2.506829e+00 2.373990e+00 2.369314e+00 1.979524e+00 1.984233e+00
<GCONST> 1.810440e+02
<MIXTURE> 3 7.094729e-02
<MEAN> 39
 1.102028e+01 5.216880e+00 6.158579e+00 -4.188079e+00 5.141494e-01 4.679746e+00 1.899363e+00 1.571658e+00 -6.480934e+00 2.285437e+00 -4.439622e+00 3.915863e+00 1.040616e+02 1.810201e+01 1.029804e+01 3.341716e+00 -1.434759e+01 -1.969968e+00 -1.801277e+00 5.612188e+00 5.746815e-01 -2.892856e-01 2.305729e+00 -3.801387e+00 3.587365e+00 4.565582e+00 -1.677157e+00 -5.709065e-01 -2.334765e-01 -2.561897e+00 -1.002871e+00 -1.300349e+00 -3.456361e-01 3.090191e-02 6.122399e-02 1.035164e+00 -7.074896e-01 5.458013e-01 2.996793e-01
<VARIANCE> 39
 1.566891e+02 1.073729e+02 5.105405e+01 1.454954e+02 8.849200e+01 9.832840e+01 9.447396e+01 9.556854e+01 8.776929e+01 8.119477e+01 8.095612e+01 7.957770e+01 1.782271e+02 7.771304e+00 1.472768e+01 1.627594e+01 2.419931e+01 2.191128e+01 2.538942e+01 3.264283e+01 2.797690e+01 2.559213e+01 2.473138e+01 2.357441e+01 2.466471e+01 1.393260e+01 2.176350e+00 2.218785e+00 1.485108e+00 2.524822e+00 1.982634e+00 2.046230e+00 2.646904e+00 2.527719e+00 2.567258e+00 3.040900e+00 2.561443e+00 2.751288e+00 2.865943e+00
<GCONST> 1.818880e+02
<MIXTURE> 4 7.096250e-02
<MEAN> 39
 2.916866e+01 -1.739805e+01 6.811978e+00 -4.262209e+01 -8.057314e+00 6.335130e+00 -1.833826e+00 2.353465e+00 -2.479836e+01 1.965631e+01 1.641337e+01 5.515322e+00 1.356877e+02 7.931556e+00 -4.185031e+00 5.684880e-01 -1.119036e+01 -1.233962e+00 2.060766e+00 8.276980e-01 1.561281e+00 -2.476342e+00 3.730707e+00 4.447043e+00 -1.384718e-01 9.537019e+00 -4.790955e+00 -7.430996e-01 -1.039100e+00 2.559896e+00 7.394145e-01 7.325031e-02 -1.040937e-01 4.339778e-04 2.459095e+00 -4.955455e-01 -1.644251e+00 -1.032109e+00 -1.890880e+00
<VARIANCE> 39
 4.541282e+01 1.393495e+02 1.214502e+02 2.510740e+02 3.349209e+02 2.207377e+02 1.790473e+02 3.040807e+02 2.841263e+02 3.309510e+02 2.110707e+02 1.740062e+02 1.161646e+02 3.619712e+01 1.143106e+01 1.398222e+01 2.973485e+01 2.701193e+01 2.128541e+01 1.661375e+01 2.261349e+01 3.107364e+01 2.880154e+01 2.748045e+01 1.631339e+01 1.667047e+01 1.185957e+00 1.574195e+00 1.522598e+00 3.387407e+00 2.837011e+00 2.302070e+00 2.425603e+00 3.607182e+00 3.266347e+00 3.259577e+00 2.394041e+00 2.418911e+00 1.947845e+00
<GCONST> 1.907418e+02
<MIXTURE> 5 6.839810e-02
<MEAN> 39
 2.070391e+01 -3.042449e+01 -1.007448e+01 -3.674540e+01 1.509096e+01 2.233407e+00 1.087025e+01 -7.871854e-01 2.292346e+01 1.735617e+01 -1.314191e+01 3.212190e+00 1.459714e+02 1.806478e+00 -7.443785e+00 -2.434695e+00 -5.719886e+00 5.477373e+00 2.678431e+00 3.115616e+00 1.016235e+00 3.087672e+00 1.300635e+00 -5.725540e-01 2.723695e+00 8.319824e+00 -4.765516e+00 4.878663e-01 6.636397e-01 3.326967e+00 -7.475721e-01 5.639002e-01 -1.717475e+00 5.132666e-01 -2.841114e+00 -1.725568e+00 8.878914e-01 7.568106e-01 -3.775471e+00
<VARIANCE> 39
 5.552125e+01 1.413164e+02 1.502041e+02 2.095751e+02 1.702531e+02 2.376723e+02 2.023598e+02 1.973899e+02 1.972775e+02 2.205013e+02 2.375200e+02 2.424298e+02 8.242972e+01 1.528506e+01 8.696089e+00 1.015707e+01 1.861417e+01 1.181968e+01 1.265401e+01 1.449290e+01 1.271245e+01 1.355140e+01 1.540661e+01 1.176016e+01 1.265160e+01 1.266600e+01 1.183575e+00 1.468991e+00 1.511029e+00 2.245918e+00 2.129407e+00 3.258179e+00 2.795714e+00 2.683897e+00 3.083912e+00 3.430766e+00 3.761513e+00 3.267271e+00 1.391370e+00
<GCONST> 1.824229e+02
<MIXTURE> 6 5.462783e-02
<MEAN> 39
 2.299035e+01 1.528687e+01 1.074302e+01 -1.319405e+01 -1.586624e+01 -1.637632e+00 -1.744153e+00 8.257163e+00 -5.352535e+00 3.219823e+00 -6.215818e+00 2.285973e-01 1.083354e+02 1.660166e+01 9.328520e+00 7.597884e+00 -9.937809e+00 -9.694833e+00 -1.784465e-01 -1.957497e+00 4.656408e+00 -1.590655e+00 -3.612723e-01 1.735164e-01 -3.591425e+00 4.112567e+00 -2.705980e+00 -1.688754e+00 -1.660187e-01 -5.516475e-01 -6.820526e-01 5.405620e-02 -1.233332e+00 -3.160354e-01 -6.151306e-01 1.199919e-01 4.677795e-01 -4.020117e-01 2.527935e-01
<VARIANCE> 39
 1.135117e+02 7.412554e+01 6.264017e+01 1.449718e+02 1.091791e+02 1.310979e+02 1.061941e+02 1.073382e+02 1.076803e+02 8.970739e+01 8.871621e+01 7.182043e+01 1.483550e+02 8.530850e+00 1.576388e+01 2.336538e+01 3.031441e+01 3.355968e+01 3.140081e+01 2.971105e+01 3.628133e+01 3.128075e+01 3.279732e+01 2.908844e+01 2.469315e+01 1.309352e+01 1.734441e+00 1.417035e+00 1.496147e+00 1.937104e+00 2.369202e+00 2.098866e+00 2.136976e+00 2.506517e+00 2.598594e+00 2.473517e+00 1.989435e+00 2.018586e+00 2.603103e+00
<GCONST> 1.826167e+02
<MIXTURE> 7 7.146911e-02
<MEAN> 39
 2.593336e+01 -1.984749e+01 -1.035083e+01 -2.595759e+01 -1.961531e+01 1.324008e+01 -4.992481e+00 -6.468332e+00 -1.626576e+00 8.096880e+00 3.721970e+01 -1.415646e+01 1.457597e+02 2.585985e+00 -4.033227e+00 -3.120588e+00 -3.962246e+00 -1.327805e+00 2.305812e+00 1.343511e+00 -1.286073e+00 4.167250e+00 6.181712e-01 3.717269e+00 -4.146349e+00 6.741963e+00 -4.328367e+00 1.494964e-02 3.195972e-01 2.055963e+00 1.829691e+00 -8.835326e-01 5.545381e-01 4.766191e-01 1.007006e+00 1.011674e-01 -4.030450e+00 4.011759e-01 -2.865441e+00
<VARIANCE> 39
 7.407839e+01 1.174886e+02 1.988266e+02 2.385871e+02 1.805416e+02 2.921977e+02 2.899042e+02 4.157809e+02 3.988886e+02 4.177465e+02 3.831639e+02 1.997371e+02 1.149428e+02 2.838065e+01 8.647118e+00 1.323158e+01 1.668696e+01 1.355310e+01 1.723953e+01 1.998676e+01 1.741974e+01 1.482142e+01 1.714998e+01 4.735562e+01 1.275301e+01 1.802608e+01 2.000695e+00 1.561355e+00 2.297590e+00 2.741248e+00 2.272453e+00 2.864845e+00 3.538775e+00 4.227504e+00 3.957492e+00 4.372841e+00 3.792701e+00 2.709522e+00 1.381204e+00
<GCONST> 1.922043e+02
<MIXTURE> 8 5.966102e-02
<MEAN> 39
 1.893429e+01 -1.632134e+00 -1.049832e+00 -1.688979e+01 -1.814918e+00 6.395114e+00 2.922537e+00 -3.730733e+00 -5.220628e+00 1.397694e+01 5.125120e-01 -2.170962e-01 1.146338e+02 1.604549e+01 -1.101771e+00 -2.713533e-01 -1.130550e+01 -5.231053e-01 2.698595e+00 2.710420e+00 -6.384636e-01 -6.256258e-01 4.322702e+00 4.273435e+00 -3.969055e-01 1.122697e+01 -3.248068e+00 -2.240618e+00 -4.209922e-01 -3.333633e-01 -9.252603e-02 1.076319e-01 -4.481018e-01 5.888604e-01 3.466700e-01 -2.992288e-01 -1.099805e-02 -5.667455e-02 1.744113e-01
<VARIANCE> 39
 1.308207e+02 9.497076e+01 6.802400e+01 1.639867e+02 1.408485e+02 1.178997e+02 1.432961e+02 1.514462e+02 2.041536e+02 1.433533e+02 1.776245e+02 1.208907e+02 1.504423e+02 1.113838e+01 1.696102e+01 1.916580e+01 3.209307e+01 3.014571e+01 2.438682e+01 3.160001e+01 3.038221e+01 4.778247e+01 3.794913e+01 5.008384e+01 2.676800e+01 1.599426e+01 1.880556e+00 1.346010e+00 1.388240e+00 1.692774e+00 1.820142e+00 2.136344e+00 2.266972e+00 2.520100e+00 2.583702e+00 2.119979e+00 2.739828e+00 2.357919e+00 2.671270e+00
<GCONST> 1.874382e+02
<MIXTURE> 9 8.184097e-02
<MEAN> 39
 2.834586e+01 -2.099837e+01 5.780149e+00 -4.278152e+01 -1.140145e+01 1.108811e+01 -5.843577e+00 4.824394e+00 -2.388706e+01 2.385758e+01 1.647167e+01 -1.380634e+00 1.397042e+02 7.541232e+00 -5.463427e+00 1.197613e-01 -1.095296e+01 -2.165958e+00 3.522151e+00 -5.294601e-01 1.858417e+00 -2.811542e+00 3.811371e+00 3.952109e+00 -2.351531e+00 1.055982e+01 -5.173743e+00 -6.588479e-01 -1.082759e+00 2.812394e+00 9.721729e-01 -2.652208e-01 4.154513e-02 -2.933256e-01 2.329426e+00 -1.205214e+00 -1.918146e+00 -5.279151e-01 -2.327588e+00
<VARIANCE> 39
 5.032900e+01 1.465266e+02 1.236993e+02 2.390861e+02 3.338371e+02 2.403260e+02 1.549469e+02 2.249646e+02 3.077699e+02 3.992718e+02 2.697459e+02 1.402080e+02 1.088918e+02 2.852904e+01 1.202721e+01 1.236010e+01 2.046461e+01 2.316350e+01 2.138651e+01 1.483507e+01 1.801937e+01 2.628888e+01 2.766037e+01 2.764346e+01 1.405167e+01 1.250529e+01 1.120503e+00 1.631251e+00 1.394055e+00 3.091626e+00 3.217528e+00 2.519946e+00 2.058404e+00 2.759141e+00 3.431100e+00 4.487405e+00 2.835546e+00 2.009000e+00 1.644788e+00
<GCONST> 1.886872e+02
<MIXTURE> 10 6.550377e-02
<MEAN> 39
 2.113981e+01 -3.049411e+00 -2.777352e+00 -1.436720e+01 -4.656658e+00 6.214738e+00 1.601918e+00 -2.973629e+00 -6.980365e+00 1.510808e+01 7.328363e+00 -3.129555e+00 1.189258e+02 1.549757e+01 -1.503008e+00 -1.213216e+00 -9.635246e+00 -2.473387e+00 2.582306e+00 1.057207e+00 -5.713569e-01 -1.592538e+00 3.439836e+00 6.614233e+00 -2.341546e+00 1.140970e+01 -3.604322e+00 -2.306163e+00 -5.068726e-01 -3.325910e-01 -2.542091e-01 -1.047485e-01 -5.771748e-01 3.862962e-01 5.339664e-01 -5.563556e-01 -5.784835e-01 -3.840993e-01 1.695699e-01
<VARIANCE> 39
 1.319258e+02 1.005574e+02 8.727604e+01 1.703911e+02 1.234130e+02 1.373290e+02 1.587797e+02 1.963185e+02 2.379330e+02 1.900219e+02 2.374344e+02 1.363271e+02 1.700464e+02 1.215829e+01 1.458391e+01 2.113031e+01 3.141447e+01 2.214860e+01 2.394394e+01 3.061090e+01 3.367745e+01 4.496778e+01 4.057112e+01 5.416377e+01 2.576594e+01 1.449425e+01 1.989545e+00 1.259976e+00 1.478958e+00 1.616268e+00 1.721631e+00 2.125330e+00 2.358299e+00 2.499628e+00 2.598018e+00 2.510568e+00 3.027208e+00 2.693046e+00 2.402069e+00
<GCONST> 1.891257e+02
<MIXTURE> 11 5.210458e-02
<MEAN> 39
 2.258080e+01 -3.135329e+01 -4.990304e+00 -3.497497e+01 9.137453e+00 1.596873e+00 3.855250e+00 1.643364e+00 1.081704e+01 3.067736e+01 -1.326035e+01 -5.620390e-01 1.432094e+02 2.266746e+00 -7.749598e+00 -1.887926e+00 -6.203579e+00 3.120610e+00 2.236223e+00 1.243587e+00 1.396269e+00 1.249306e+00 2.492720e+00 -2.521699e+00 -2.040255e-02 8.904133e+00 -4.836122e+00 5.004508e-01 6.370969e-02 2.987154e+00 -4.913473e-01 5.976223e-01 -1.020097e+00 3.020746e-01 -1.305289e+00 -3.136703e+00 3.025325e-01 5.879350e-01 -3.468594e+00
<VARIANCE> 39
 4.682331e+01 1.158453e+02 1.462343e+02 2.292010e+02 1.449636e+02 2.007337e+02 2.387591e+02 2.626190e+02 2.648026e+02 2.852063e+02 2.576334e+02 2.022819e+02 6.529400e+01 1.434966e+01 7.094440e+00 9.307095e+00 1.542295e+01 1.260132e+01 1.113643e+01 1.664896e+01 1.565422e+01 1.378474e+01 1.591120e+01 1.331636e+01 1.345555e+01 1.200089e+01 1.022622e+00 1.232201e+00 1.572315e+00 2.140097e+00 1.589049e+00 2.679736e+00 3.102308e+00 2.610914e+00 3.840350e+00 4.145285e+00 3.854509e+00 2.737178e+00 1.238226e+00
<GCONST> 1.817760e+02
<MIXTURE> 12 5.530075e-02
<MEAN> 39
 2.754965e+01 1.502744e+01 1.107638e+01 -1.880707e+01 -2.119098e+01 3.318446e+00 -1.307194e-01 1.007816e+01 -1.051929e+01 1.040900e+00 -4.866304e+00 -9.528190e-01 1.121774e+02 1.605335e+01 7.548319e+00 6.700047e+00 -1.057855e+01 -1.094165e+01 1.008604e+00 -2.220334e+00 5.063171e+00 -3.722762e+00 -1.393040e+00 -4.624675e-01 -4.769410e+00 5.336147e+00 -3.351319e+00 -2.025630e+00 -4.184594e-01 -1.247750e-01 -4.033885e-01 -4.087142e-01 -1.638704e+00 -4.853102e-01 -3.155788e-01 1.929942e-01 1.184179e-01 -5.740156e-01 1.306283e-01
<VARIANCE> 39
 8.419238e+01 7.671889e+01 8.367584e+01 1.545834e+02 1.649422e+02 1.614859e+02 1.246054e+02 1.401052e+02 1.532620e+02 1.069927e+02 1.096374e+02 9.151509e+01 1.518126e+02 7.788207e+00 1.610889e+01 2.384150e+01 3.161784e+01 2.908965e+01 3.222490e+01 2.843790e+01 3.286891e+01 3.900958e+01 3.301566e+01 3.078521e+01 2.255322e+01 1.278637e+01 1.464450e+00 1.343195e+00 1.289657e+00 1.687635e+00 2.253016e+00 1.969074e+00 2.094740e+00 2.170552e+00 2.474180e+00 2.177793e+00 1.863955e+00 1.735583e+00 2.272326e+00
<GCONST> 1.833470e+02
<MIXTURE> 13 6.327184e-02
<MEAN> 39
 8.694428e+00 3.978469e+00 5.411687e+00 -4.165697e+00 -5.087127e-01 5.658613e+00 2.511696e+00 3.001749e+00 -5.941961e+00 4.653716e+00 -3.858868e+00 5.511538e+00 1.039787e+02 1.717132e+01 8.937729e+00 5.768716e+00 -1.226776e+01 -6.002693e+00 -6.277335e-01 1.867703e+00 3.743479e+00 -3.434896e+00 8.535352e-01 -2.315038e+00 -1.414238e+00 4.787218e+00 -1.281831e+00 -7.065831e-01 3.124876e-01 -2.241470e+00 -1.819630e+00 -9.944504e-01 -1.236066e+00 4.089723e-01 -8.924444e-01 4.076596e-01 -5.062433e-01 -8.000574e-01 7.571682e-01
<VARIANCE> 39
 1.587133e+02 9.756128e+01 4.920014e+01 1.546721e+02 8.174968e+01 1.087657e+02 1.082364e+02 9.268350e+01 9.457473e+01 9.255061e+01 8.444544e+01 7.772726e+01 1.859701e+02 9.322102e+00 1.429270e+01 2.147042e+01 3.009061e+01 3.379764e+01 3.510109e+01 3.581594e+01 3.599747e+01 3.677513e+01 2.873096e+01 2.672490e+01 3.378321e+01 1.403600e+01 2.238082e+00 1.942759e+00 1.693799e+00 2.736962e+00 2.955899e+00 2.463044e+00 2.678439e+00 2.882925e+00 3.497922e+00 3.000906e+00 2.409457e+00 2.940320e+00 2.859799e+00
<GCONST> 1.860664e+02
<MIXTURE> 14 6.127166e-02
<MEAN> 39
 2.636549e+01 -1.701751e+01 -1.132549e+01 -2.493466e+01 5.098653e+00 1.520044e+00 7.694347e+00 -6.150814e+00 1.583306e+01 1.940704e+01 -1.299304e+01 -3.193683e+00 1.358830e+02 9.206846e+00 -4.786500e+00 -4.267702e+00 -7.331599e+00 3.501545e+00 2.090979e+00 4.032375e+00 -1.188800e+00 4.727386e+00 3.692670e+00 -2.197152e+00 -5.367188e-01 1.062508e+01 -5.318820e+00 -1.389354e+00 2.632373e-01 1.612874e+00 6.817497e-02 4.530742e-01 -1.096066e+00 6.575248e-01 -1.770619e+00 -1.776925e+00 5.064864e-01 1.081220e+00 -2.258933e+00
<VARIANCE> 39
 4.692097e+01 1.055266e+02 1.169109e+02 2.099444e+02 1.404867e+02 2.166405e+02 1.728039e+02 1.838713e+02 1.912454e+02 2.126871e+02 2.055634e+02 1.876789e+02 7.380038e+01 1.643140e+01 1.130023e+01 1.284493e+01 2.179175e+01 1.751968e+01 2.001065e+01 2.033497e+01 1.725247e+01 2.206136e+01 2.176927e+01 2.260350e+01 1.655469e+01 1.590310e+01 1.085094e+00 1.074071e+00 1.246681e+00 2.321852e+00 1.666226e+00 2.625732e+00 2.920264e+00 2.338744e+00 2.704642e+00 2.941814e+00 2.727340e+00 2.655971e+00 1.311276e+00
<GCONST> 1.828402e+02
<MIXTURE> 15 5.107038e-02
<MEAN> 39
 2.365033e+01 -2.139191e+01 -8.295378e+00 -2.082150e+01 -1.665538e+01 7.677995e+00 -1.550569e+01 4.928295e+00 -1.061533e+01 2.250213e+01 3.023808e+01 -2.032693e+01 1.479136e+02 4.402663e+00 -5.056303e+00 -3.366723e+00 -4.466241e+00 -2.624370e+00 2.325745e+00 -8.124662e-01 1.494476e+00 1.496424e+00 2.186092e+00 3.832989e+00 -6.272128e+00 8.732191e+00 -4.957782e+00 -2.431958e-01 -1.702035e-03 1.707649e+00 1.375417e+00 -5.254744e-01 1.403459e+00 -1.838585e-01 1.788137e+00 -1.502826e+00 -3.934966e+00 8.388036e-01 -3.011508e+00
<VARIANCE> 39
 6.545813e+01 1.361309e+02 1.926842e+02 3.362671e+02 1.256760e+02 3.277078e+02 2.916369e+02 4.255430e+02 4.718080e+02 4.443399e+02 3.977521e+02 2.042349e+02 1.301350e+02 2.658450e+01 9.407519e+00 1.606883e+01 1.750824e+01 1.044411e+01 2.132634e+01 1.887386e+01 2.616789e+01 2.305564e+01 2.357594e+01 4.562443e+01 1.521524e+01 1.259912e+01 1.277108e+00 1.585533e+00 2.169923e+00 2.938757e+00 2.049450e+00 2.764065e+00 3.382246e+00 3.749032e+00 4.820769e+00 5.478706e+00 3.581327e+00 2.576061e+00 1.360002e+00
<GCONST> 1.934127e+02
<MIXTURE> 16 5.934164e-02
<MEAN> 39
 -5.294551e-01 -4.412127e+00 1.276771e+00 -3.426397e+00 -1.968616e+00 -1.978093e-01 -4.282441e+00 1.667333e+00 2.693400e+00 7.937932e+00 -8.350603e+00 -6.022061e-01 1.080755e+02 1.684890e+01 -2.374815e+00 -1.787592e+00 -9.306322e+00 1.503060e+00 1.676168e+00 2.677112e+00 -5.749717e-01 2.694923e+00 5.909698e+00 1.019231e+00 -2.246261e+00 1.348776e+01 -1.283270e+00 -2.313253e+00 -8.191866e-01 -1.436010e+00 4.287946e-01 7.108670e-01 4.509669e-01 1.014166e-01 -1.530721e-01 4.103560e-01 4.831881e-01 3.485258e-02 6.277834e-01
<VARIANCE> 39
 1.509139e+02 7.298690e+01 7.225258e+01 8.698228e+01 6.880413e+01 9.650278e+01 8.621146e+01 9.771617e+01 9.860442e+01 1.141369e+02 9.290334e+01 9.202299e+01 1.825958e+02 1.091453e+01 1.869871e+01 1.935344e+01 3.095782e+01 2.639605e+01 2.391832e+01 2.863936e+01 2.511180e+01 5.064964e+01 2.862713e+01 4.824697e+01 2.172722e+01 2.092632e+01 2.300084e+00 1.948093e+00 1.830404e+00 2.305345e+00 2.163134e+00 2.089930e+00 2.206061e+00 2.262905e+00 2.296558e+00 2.469938e+00 2.427039e+00 2.559310e+00 3.580900e+00
<GCONST> 1.840681e+02
<TRANSP> 5
 0.000000e+00 1.000000e+00 0.000000e+00 0.000000e+00 0.000000e+00
 0.000000e+00 8.482482e-01 1.517518e-01 0.000000e+00 0.000000e+00
 0.000000e+00 0.000000e+00 6.792285e-01 3.207715e-01 0.000000e+00
 0.000000e+00 0.000000e+00 0.000000e+00 5.278724e-01 4.721276e-01
 0.000000e+00 0.000000e+00 0.000000e+00 0.000000e+00 0.000000e+00
<ENDHMM>
~h "k"
<BEGINHMM>
<NUMSTATES> 5
<STATE> 2
<NUMMIXES> 16
<MIXTURE> 1 7.150289e-02
<MEAN> 39
 4.835699e+00 -1.431532e+01 5.182719e+01 2.255207e+01 2.455554e-01 -4.141405e+01 -7.434309e+00 2.755486e+01 -5.381699e+01 3.821223e+00 -1.755746e+00 -2.447407e+00 1.261517e+02 -1.559896e+00 8.200139e+00 -2.763828e+00 8.274335e+00 4.244854e+00 3.731150e+00 9.072583e+00 3.954238e-01 2.436630e+00 -1.225302e+00 3.025736e+00 6.577437e-01 -1.675984e+01 -1.197457e+00 1.637013e+00 -3.388433e+00 -1.650062e+00 1.154967e-01 3.653992e+00 -1.609667e+00 -3.354794e+00 5.705694e+00 -9.175362e-02 -6.965960e-01 5.551050e-01 -3.294207e+00
<VARIANCE> 39
 5.375942e+01 9.894264e+01 2.850499e+02 2.429781e+02 2.625982e+02 2.982270e+02 3.228227e+02 3.060344e+02 3.662669e+02 4.389685e+02 2.822559e+02 2.239135e+02 1.801170e+02 9.006926e+00 1.383268e+01 1.791704e+01 1.796965e+01 2.135115e+01 2.672252e+01 2.195498e+01 2.523341e+01 3.881306e+01 2.758817e+01 2.560746e+01 2.513772e+01 1.792494e+01 1.232007e+00 2.860374e+00 3.421515e+00 3.332504e+00 3.517864e+00 4.607185e+00 4.620137e+00 6.484865e+00 6.176099e+00 7.634080e+00 4.031653e+00 4.972193e+00 3.284502e+00
<GCONST> 1.999188e+02
<MIXTURE> 2 2.875885e-02
<MEAN> 39
 -1.378331e+01 1.294009e+01 1.752780e+01 2.467630e+01 5.534563e+00 -5.237340e+00 2.485527e+00 6.819948e+00 -7.272040e+00 -6.913325e-01 5.782400e+00 7.690646e+00 5.776523e+01 -4.247960e+00 2.374959e+00 -8.021851e+00 -3.543008e+00 7.652536e-01 9.291744e+00 -1.267690e-01 -1.844759e+00 8.450044e+00 1.622675e+00 4.739365e-01 1.696275e-01 -9.126918e+00 9.412960e-01 -3.803779e+00 3.945927e-01 -2.540743e+00 -7.909136e-01 -2.752560e+00 -1.594879e+00 4.695563e-02 -1.610802e+00 8.171664e-01 -1.318024e+00 -4.517717e-01 6.021182e+00
<VARIANCE> 39
 9.634408e+01 1.431124e+02 1.427954e+02 1.630872e+02 1.863597e+02 2.385855e+02 2.358745e+02 2.101189e+02 1.763361e+02 1.579781e+02 1.561250e+02 1.115506e+02 3.586441e+01 1.071390e+01 1.808584e+01 3.053925e+01 1.714850e+01 2.390712e+01 3.309967e+01 2.955480e+01 4.329862e+01 3.901237e+01 2.528298e+01 2.057640e+01 2.057139e+01 2.582803e+01 2.267664e+00 6.693984e+00 3.174340e+00 5.739389e+00 5.249274e+00 5.138981e+00 6.682362e+00 5.916726e+00 5.992558e+00 4.418571e+00 4.175604e+00 3.437218e+00 7.184422e+00
<GCONST> 1.984135e+02
<MIXTURE> 3 5.121103e-02
<MEAN> 39
 -3.143547e+00 2.670270e+01 2.908706e+01 2.922396e+01 4.563887e+00 3.583749e+00 6.919290e+00 -3.463561e+00 -7.985372e+00 9.722773e-01 -1.761405e+00 -3.145054e+00 6.166937e+01 -6.050932e+00 -1.325599e+00 -1.187910e+01 -1.286404e+00 6.372188e+00 3.730127e+00 -8.427989e+00 6.642467e+00 1.436270e+00 -4.153101e+00 9.436991e-01 -1.330368e+00 -1.065871e+01 -1.004252e+00 -5.173275e+00 -1.511379e+00 -3.644671e+00 -2.717143e+00 -3.439119e+00 -3.892533e-01 -1.626216e+00 8.509331e-02 9.077631e-01 -4.697543e-01 1.752007e+00 6.787651e+00
<VARIANCE> 39
 6.412975e+01 9.824998e+01 7.569831e+01 8.843342e+01 1.371011e+02 1.199915e+02 1.182126e+02 1.447483e+02 1.473637e+02 1.482031e+02 1.362239e+02 1.201319e+02 2.644835e+01 9.190822e+00 2.995225e+01 1.660686e+01 2.380153e+01 1.982360e+01 3.317105e+01 3.636562e+01 3.296466e+01 4.179638e+01 1.933466e+01 1.952576e+01 2.059532e+01 4.953881e+01 2.279428e+00 4.942018e+00 3.086395e+00 3.142995e+00 3.365742e+00 3.786842e+00 4.240240e+00 5.941621e+00 6.639894e+00 3.963787e+00 3.776312e+00 3.234797e+00 6.599336e+00
<GCONST> 1.915547e+02
<MIXTURE> 4 6.866502e-02
<MEAN> 39
 -7.631416e-01 1.167113e+01 4.051207e+01 3.285495e+01 -1.397061e+01 -1.599058e+01 2.260205e+01 -7.223970e+00 -1.823909e+01 1.160141e+01 2.333883e+00 8.777071e-03 8.292270e+01 -3.961753e+00 5.940852e+00 -7.762985e+00 3.190665e+00 7.547064e+00 8.723857e+00 -5.103475e+00 5.384277e+00 4.422346e+00 -4.589006e+00 2.549001e+00 -2.335341e+00 -1.656763e+01 -1.357062e+00 -2.874603e+00 -2.674323e+00 -4.062557e+00 1.041559e-01 -7.886668e-01 -3.031819e+00 1.680436e-01 1.190648e+00 -4.985157e-01 -8.533249e-01 1.452508e+00 2.629580e+00
<VARIANCE> 39
 1.166890e+02 1.760763e+02 1.499408e+02 1.669901e+02 2.068022e+02 3.161489e+02 2.159750e+02 2.652462e+02 3.340596e+02 1.991916e+02 2.235963e+02 2.083238e+02 1.797585e+02 1.317920e+01 2.030907e+01 2.225011e+01 2.469111e+01 2.407967e+01 3.374846e+01 5.245522e+01 5.014131e+01 5.432047e+01 2.698111e+01 2.480669e+01 2.404178e+01 3.357782e+01 2.520997e+00 5.072418e+00 3.497226e+00 3.141281e+00 3.438704e+00 5.450176e+00 5.169938e+00 4.761062e+00 5.251935e+00 3.621742e+00 4.317830e+00 3.478303e+00 5.448140e+00
<GCONST> 2.029234e+02
<MIXTURE> 5 5.976185e-02
<MEAN> 39
 -1.407308e+01 1.693190e+01 1.540619e+01 1.961439e+01 5.775343e+00 -2.179640e+00 -4.406708e+00 -2.863078e+00 -9.494685e+00 -4.624472e+00 2.054266e-01 4.050291e+00 5.354671e+01 -5.492900e+00 -1.136535e+00 -9.518171e+00 -7.022233e+00 -6.151806e-01 5.960677e+00 -1.728480e+00 -3.978552e+00 7.316943e+00 2.475195e+00 -1.253941e+00 6.310797e-01 -6.570980e+00 1.092323e+00 -4.680340e+00 7.364742e-01 -1.109403e+00 -7.814276e-01 -3.432105e+00 -8.649176e-01 2.043608e+00 -1.736003e+00 1.011266e+00 -2.577364e-01 -2.234615e-01 7.816873e+00
<VARIANCE> 39
 3.004971e+01 4.252340e+01 5.435583e+01 6.322125e+01 8.719888e+01 1.387208e+02 1.582520e+02 1.480022e+02 1.605750e+02 1.391805e+02 1.052213e+02 8.661835e+01 1.497629e+01 6.687061e+00 2.964476e+01 1.673928e+01 1.136858e+01 1.592086e+01 2.958654e+01 3.077677e+01 2.663729e+01 2.398267e+01 2.083505e+01 1.809797e+01 1.493185e+01 3.591636e+01 1.887754e+00 3.393249e+00 2.934741e+00 2.958640e+00 4.171061e+00 5.933652e+00 5.609251e+00 7.098928e+00 5.550666e+00 4.464396e+00 4.448469e+00 2.674029e+00 7.522516e+00
<GCONST> 1.856853e+02
<MIXTURE> 6 8.054610e-02
<MEAN> 39
 -7.523471e+00 5.052623e+00 2.905487e+01 3.459554e+01 5.863729e+00 -2.206280e+01 1.103741e+00 1.000013e+01 -2.160932e+01 -4.842506e+00 1.277979e+00 4.035075e+00 7.787182e+01 -6.603935e+00 3.742093e+00 -8.922453e+00 -2.153504e+00 2.324954e+00 8.081399e+00 -4.599624e-01 -4.505087e+00 7.383206e+00 -9.781896e-01 -3.993157e-01 2.921868e-01 -1.387987e+01 -1.850513e-01 -2.757573e+00 -1.213343e+00 -3.904410e+00 -1.592590e+00 -2.662956e-01 -2.083277e+00 -3.733194e-01 8.583208e-01 1.268752e+00 -4.676591e-01 1.388142e-02 4.313223e+00
<VARIANCE> 39
 1.482484e+02 2.397538e+02 2.356212e+02 2.049529e+02 3.638918e+02 2.541680e+02 3.178150e+02 3.528325e+02 2.961364e+02 2.279164e+02 2.259276e+02 1.675693e+02 1.818430e+02 1.183854e+01 3.042999e+01 3.253536e+01 2.921650e+01 2.841437e+01 3.815691e+01 4.488129e+01 5.462489e+01 4.980091e+01 3.474819e+01 2.516684e+01 2.400690e+01 3.893274e+01 3.684765e+00 6.984041e+00 4.056403e+00 4.251612e+00 5.550670e+00 5.269498e+00 7.300523e+00 6.409832e+00 6.354746e+00 4.450288e+00 4.957589e+00 4.162910e+00 8.956988e+00
<GCONST> 2.098052e+02
<MIXTURE> 7 7.601711e-02
<MEAN> 39
 5.322337e+00 -4.583801e+00 3.729048e+01 3.729953e+01 7.334614e+00 -3.688253e+01 -5.027473e+00 3.063996e+01 -3.184932e+01 -8.447269e+00 5.378335e+00 6.633357e+00 1.002078e+02 -5.207325e+00 8.649016e+00 -5.820620e+00 2.603519e+00 4.067894e+00 8.173976e+00 5.579988e+00 -4.351953e+00 6.438525e+00 6.170643e-01 -5.782626e-01 1.591454e+00 -1.813829e+01 -1.543707e+00 -1.392394e+00 -2.497120e+00 -4.323037e+00 -1.310588e+00 2.266728e+00 -2.265033e+00 -3.283811e+00 2.639750e+00 1.563415e+00 -1.103780e+00 -7.345459e-01 9.365315e-01
<VARIANCE> 39
 5.523439e+01 1.165688e+02 2.701970e+02 1.620560e+02 1.998998e+02 2.758380e+02 4.637188e+02 2.515409e+02 3.327899e+02 3.186431e+02 2.525775e+02 2.166010e+02 2.211222e+02 1.096445e+01 2.742382e+01 3.049664e+01 2.335825e+01 2.867231e+01 4.018218e+01 3.170851e+01 4.372355e+01 5.131014e+01 4.076210e+01 2.951417e+01 2.331606e+01 2.664055e+01 1.444936e+00 3.300747e+00 2.972809e+00 2.954101e+00 3.323915e+00 4.439516e+00 6.074235e+00 5.177036e+00 5.195957e+00 4.665922e+00 4.721809e+00 4.501553e+00 5.397426e+00
<GCONST> 2.034251e+02
<MIXTURE> 8 5.801063e-02
<MEAN> 39
 -1.323310e+01 1.505975e+01 1.356134e+01 1.320109e+01 -7.540654e+00 -1.358168e+01 -1.531755e+01 -2.026146e+01 -2.337394e+01 -1.393853e+01 -9.114647e+00 -2.698236e+00 5.594395e+01 -5.396806e+00 -9.769441e-01 -1.042638e+01 -1.926137e+00 4.428775e+00 3.341645e+00 -5.551358e+00 5.792306e+00 2.244959e+00 -1.653637e+00 1.234725e+00 -1.131998e+00 -9.220734e+00 6.932872e-01 -3.183262e+00 9.938719e-01 -1.762245e+00 -1.148289e+00 -8.272384e-01 3.161793e+00 4.728241e-01 3.054082e+00 2.847839e+00 1.059194e+00 1.622344e+00 6.840096e+00
<VARIANCE> 39
 2.754202e+01 4.638340e+01 5.523192e+01 7.429823e+01 1.078853e+02 1.264171e+02 1.287906e+02 1.230435e+02 1.322694e+02 1.453060e+02 1.491220e+02 1.197794e+02 1.849335e+01 6.966028e+00 3.275997e+01 1.664360e+01 2.779397e+01 2.494682e+01 3.829451e+01 3.403277e+01 3.616645e+01 3.655173e+01 2.291434e+01 1.925348e+01 1.793535e+01 4.467753e+01 1.608376e+00 3.396168e+00 2.689127e+00 4.101064e+00 3.281764e+00 3.934620e+00 4.342239e+00 6.099944e+00 4.510448e+00 3.945367e+00 3.646813e+00 3.288823e+00 7.012943e+00
<GCONST> 1.880757e+02
<MIXTURE> 9 1.019241e-01
<MEAN> 39
 -5.975872e+00 1.098091e+01 3.600663e+01 2.799068e+01 -1.444938e+01 -7.950880e+00 1.709278e+01 -1.294207e+01 -1.305092e+01 8.745319e+00 1.971110e+00 3.612764e-01 7.803999e+01 -6.002983e+00 3.331753e+00 -1.056562e+01 3.208210e+00 6.980983e+00 4.867213e+00 -8.656562e+00 6.471905e+00 -1.150804e+00 -6.032907e+00 1.333888e+00 -3.449408e+00 -1.744186e+01 -6.742381e-01 -2.751003e+00 -2.284883e+00 -4.199306e+00 -2.339838e-01 -1.619330e+00 -1.677879e+00 4.088275e-01 1.357425e+00 -1.850020e-01 -3.945664e-01 1.501437e+00 3.145528e+00
<VARIANCE> 39
 1.513103e+02 2.334714e+02 1.539978e+02 1.515085e+02 1.781135e+02 3.230827e+02 1.864739e+02 2.258066e+02 2.456833e+02 1.627166e+02 1.898328e+02 1.618344e+02 1.651637e+02 9.078861e+00 2.114979e+01 1.737255e+01 2.401667e+01 1.937087e+01 3.071770e+01 3.660183e+01 3.820327e+01 4.362117e+01 2.612440e+01 2.006762e+01 1.988311e+01 2.144205e+01 3.050510e+00 5.907771e+00 3.491241e+00 2.947569e+00 3.081994e+00 5.576816e+00 4.448463e+00 4.821850e+00 4.905980e+00 3.481074e+00 4.207281e+00 3.337893e+00 6.061554e+00
<GCONST> 1.992814e+02
<MIXTURE> 10 6.598459e-02
<MEAN> 39
 -7.308821e+00 7.711361e+00 2.836920e+01 3.303105e+01 4.099279e+00 -2.277571e+01 -6.522350e+00 7.161430e-01 -2.594655e+01 -1.128934e+01 -4.095939e+00 3.262117e+00 7.407161e+01 -6.908250e+00 3.331753e+00 -1.062250e+01 -3.504060e+00 1.399822e+00 6.115741e+00 -3.274040e+00 -5.986923e+00 5.192447e+00 -2.329113e+00 -1.672938e+00 -5.248356e-01 -1.422759e+01 -2.795221e-01 -3.273987e+00 -1.233968e+00 -3.667010e+00 -1.579713e+00 -1.501672e-01 -1.072466e+00 6.170321e-01 1.433973e+00 1.893967e+00 1.926191e-01 1.059962e-01 5.359650e+00
<VARIANCE> 39
 1.256810e+02 2.299903e+02 1.836114e+02 1.650281e+02 3.069662e+02 2.464534e+02 3.918970e+02 3.898931e+02 2.576804e+02 2.288102e+02 2.367643e+02 1.550878e+02 1.248981e+02 8.806043e+00 3.597528e+01 2.488113e+01 2.780897e+01 2.987797e+01 3.365453e+01 5.853978e+01 6.737477e+01 5.240642e+01 3.921722e+01 2.290012e+01 2.314934e+01 3.856230e+01 3.403141e+00 6.065518e+00 3.614260e+00 3.615111e+00 4.834168e+00 5.192487e+00 7.915745e+00 7.424303e+00 6.862984e+00 5.358685e+00 5.106678e+00 4.346050e+00 7.908292e+00
<GCONST> 2.084729e+02
<MIXTURE> 11 5.590426e-02
<MEAN> 39
 -1.279011e+01 1.768980e+01 1.516689e+01 1.856430e+01 4.263634e+00 -5.857507e+00 -8.808484e+00 -7.386573e+00 -1.358743e+01 -8.579224e+00 -3.552274e+00 2.381610e+00 5.428985e+01 -6.099383e+00 -3.411070e+00 -1.081573e+01 -8.968488e+00 -1.321252e+00 4.873262e+00 -3.288220e+00 -5.944912e+00 5.814514e+00 1.764612e+00 -2.234118e+00 -8.014952e-02 -4.158066e+00 6.409496e-01 -4.881565e+00 5.843836e-01 -9.609321e-01 -4.425304e-01 -3.300954e+00 -5.067741e-01 2.801268e+00 -1.512336e+00 1.655990e+00 4.610780e-02 -9.086084e-02 8.652971e+00
<VARIANCE> 39
 3.606424e+01 4.671386e+01 5.534930e+01 6.512106e+01 8.514831e+01 1.512159e+02 1.702418e+02 1.770631e+02 1.867691e+02 1.627171e+02 1.153254e+02 7.766150e+01 1.883477e+01 7.072947e+00 3.608321e+01 1.684857e+01 1.183047e+01 1.793681e+01 2.652498e+01 2.587327e+01 2.624405e+01 2.528137e+01 2.035130e+01 1.891115e+01 1.354657e+01 5.155251e+01 2.998521e+00 3.394741e+00 3.359120e+00 3.101251e+00 4.578448e+00 6.955441e+00 5.983645e+00 8.996091e+00 6.343907e+00 5.451362e+00 3.793632e+00 2.762176e+00 7.191691e+00
<GCONST> 1.886615e+02
<MIXTURE> 12 6.273172e-02
<MEAN> 39
 2.750530e+00 -3.917624e+00 3.785695e+01 3.305723e+01 6.519711e+00 -3.711254e+01 -5.496318e+00 2.333360e+01 -3.430228e+01 -5.467226e+00 1.830820e+00 5.494979e+00 9.542667e+01 -5.916110e+00 9.319437e+00 -8.784083e+00 5.589681e-01 2.546714e+00 6.342904e+00 2.586962e+00 -9.581858e+00 5.934195e+00 -2.062541e+00 -2.147736e+00 1.159433e+00 -1.996939e+01 -1.288342e+00 -1.705637e+00 -2.375180e+00 -3.976589e+00 -1.752664e+00 2.173506e+00 -2.503346e+00 -2.323436e+00 2.493061e+00 1.004584e+00 -5.904644e-01 -5.530893e-01 1.569375e+00
<VARIANCE> 39
 6.049297e+01 1.282906e+02 2.159197e+02 1.481718e+02 2.535150e+02 3.052389e+02 5.213936e+02 2.698075e+02 3.099698e+02 2.847305e+02 2.454395e+02 1.885412e+02 1.838564e+02 7.692594e+00 2.440263e+01 2.544174e+01 2.207213e+01 2.696557e+01 3.563938e+01 4.082250e+01 3.637180e+01 3.718053e+01 4.004271e+01 2.440914e+01 1.982305e+01 2.173975e+01 1.513749e+00 3.267070e+00 2.955315e+00 2.792961e+00 4.261253e+00 4.074478e+00 6.691709e+00 4.739054e+00 5.890317e+00 4.719812e+00 4.588172e+00 3.666832e+00 5.429493e+00
<GCONST> 2.016259e+02
<MIXTURE> 13 8.535907e-02
<MEAN> 39
 5.644266e+00 -1.587658e+01 4.977865e+01 2.140936e+01 -1.899630e+00 -3.962754e+01 -4.467102e+00 2.292117e+01 -4.649675e+01 3.641369e+00 -5.768262e-01 -6.877868e-01 1.212531e+02 -3.632025e+00 9.002149e+00 -5.805463e+00 6.895733e+00 3.851482e+00 3.609910e+00 5.339445e+00 -3.518705e+00 2.557151e+00 -3.460752e+00 8.196853e-01 4.580392e-01 -1.832546e+01 -1.694264e+00 9.748758e-01 -3.525476e+00 -2.394518e+00 -2.853782e-01 2.877140e+00 -2.545121e+00 -3.054245e+00 4.492009e+00 -3.260475e-01 -9.774817e-01 6.288890e-01 -2.520639e+00
<VARIANCE> 39
 4.756334e+01 1.069009e+02 2.675857e+02 1.648475e+02 2.614393e+02 3.641913e+02 4.172213e+02 3.242052e+02 3.085156e+02 3.664652e+02 2.823019e+02 2.095080e+02 1.632680e+02 9.192930e+00 1.687144e+01 1.982028e+01 2.015555e+01 2.422129e+01 2.726538e+01 3.344308e+01 2.652029e+01 3.892443e+01 2.952497e+01 2.573022e+01 2.302525e+01 2.326190e+01 1.058552e+00 2.650562e+00 3.391748e+00 2.394091e+00 3.043411e+00 4.979568e+00 6.075364e+00 6.705310e+00 4.646988e+00 5.884014e+00 4.237283e+00 4.067747e+00 3.377660e+00
<GCONST> 1.997202e+02
<MIXTURE> 14 3.938142e-02
<MEAN> 39
 -1.524222e+01 8.735359e+00 1.530056e+01 2.427946e+01 4.447670e+00 -1.190715e+01 -4.245879e+00 5.181306e+00 -1.058812e+01 -5.922640e+00 1.532978e+00 6.323111e+00 5.846685e+01 -6.050903e+00 2.503674e+00 -8.372203e+00 -5.969839e+00 -8.035958e-01 8.204052e+00 -1.277085e+00 -5.056535e+00 6.055004e+00 9.559437e-01 -3.273787e-01 -7.446778e-01 -1.089405e+01 1.230980e+00 -3.084197e+00 2.509303e-01 -2.301935e+00 -1.045077e+00 -1.682029e+00 -1.012246e+00 2.228118e-01 -6.577781e-01 1.291494e+00 -4.296463e-01 -1.592303e-01 5.611252e+00
<VARIANCE> 39
 8.405225e+01 1.409550e+02 1.149757e+02 1.151949e+02 1.735291e+02 2.331298e+02 2.580900e+02 2.011688e+02 1.827304e+02 1.632404e+02 1.471299e+02 1.136618e+02 3.505921e+01 9.977458e+00 1.821944e+01 2.426140e+01 1.588542e+01 2.479223e+01 3.367618e+01 3.931520e+01 3.680010e+01 3.145221e+01 2.313867e+01 1.894736e+01 1.542841e+01 2.286324e+01 2.263697e+00 5.469385e+00 3.066269e+00 3.620763e+00 4.495608e+00 5.654506e+00 5.752873e+00 6.773372e+00 5.450270e+00 4.297914e+00 3.881455e+00 3.297248e+00 7.166076e+00
<GCONST> 1.956516e+02
<MIXTURE> 15 5.557474e-02
<MEAN> 39
 -1.077985e+01 2.009128e+01 2.003347e+01 2.275585e+01 4.189048e+00 2.006652e+00 1.479674e+00 -4.859134e+00 -8.036103e+00 -9.713467e-01 -1.185380e+00 -2.235893e+00 5.655112e+01 -6.732467e+00 -4.924656e+00 -1.347812e+01 -3.392740e+00 3.928742e+00 3.138376e-01 -9.720287e+00 5.491373e+00 -2.395442e-01 -4.747126e+00 4.043843e-01 -9.407347e-01 -7.591150e+00 1.575307e-01 -4.402739e+00 -3.274956e-01 -2.734035e+00 -3.207810e+00 -3.216061e+00 9.287173e-01 -1.995235e+00 5.455270e-01 1.298563e+00 -5.650008e-01 1.916601e+00 7.834272e+00
<VARIANCE> 39
 5.245583e+01 7.840405e+01 6.554190e+01 7.154854e+01 1.086518e+02 1.039904e+02 1.076624e+02 1.192829e+02 1.361175e+02 1.274448e+02 1.246353e+02 1.133286e+02 2.470698e+01 7.513681e+00 3.629733e+01 1.295651e+01 1.832759e+01 1.782092e+01 3.219562e+01 2.338380e+01 2.203557e+01 2.696516e+01 1.580644e+01 1.588027e+01 1.761682e+01 5.828174e+01 2.314206e+00 4.327538e+00 2.687491e+00 3.336671e+00 3.460501e+00 3.326136e+00 3.921561e+00 4.389917e+00 5.144154e+00 3.657960e+00 3.365076e+00 3.345690e+00 7.226061e+00
<GCONST> 1.863188e+02
<MIXTURE> 16 3.864243e-02
<MEAN> 39
 -1.002307e+01 1.793512e+01 1.537239e+01 1.428566e+01 -8.016905e+00 -1.574829e+01 -1.845539e+01 -2.324007e+01 -2.735090e+01 -1.724296e+01 -1.112549e+01 -2.895449e+00 5.703284e+01 -6.510928e+00 2.500006e-01 -1.186704e+01 -4.084209e+00 3.222647e+00 3.423818e+00 -9.159941e+00 2.056144e+00 1.229210e+00 -4.579140e+00 -5.826362e-01 -1.789473e+00 -1.183818e+01 2.676784e-01 -4.102623e+00 5.465032e-01 -1.942487e+00 -7.203364e-01 -8.679111e-01 3.161751e+00 1.395010e+00 2.931254e+00 3.334172e+00 9.573114e-01 1.596374e+00 6.943984e+00
<VARIANCE> 39
 3.342810e+01 4.271251e+01 5.477280e+01 6.053814e+01 9.540073e+01 1.351247e+02 1.349874e+02 1.452673e+02 1.580681e+02 1.457637e+02 1.227403e+02 8.894955e+01 1.875527e+01 4.126169e+00 2.581289e+01 1.384835e+01 1.950187e+01 2.287135e+01 4.129024e+01 2.911576e+01 5.120656e+01 3.590579e+01 1.938441e+01 1.744635e+01 1.508814e+01 2.979201e+01 1.515960e+00 3.413354e+00 2.361504e+00 3.602720e+00 3.614789e+00 3.876873e+00 5.201868e+00 8.107005e+00 5.054011e+00 4.033865e+00 2.991502e+00 2.409207e+00 6.297737e+00
<GCONST> 1.856041e+02
<STATE> 3
<NUMMIXES> 16
<MIXTURE> 1 2.721560e-02
<MEAN> 39
 -1.695788e+01 1.349665e+01 1.000583e+01 1.182896e+01 -3.448152e+00 -7.771721e+00 -9.168956e+00 -9.754631e+00 -1.122283e+01 -4.736085e+00 -3.584067e+00 6.131585e-01 5.328448e+01 -6.664065e-01 -4.100568e+00 -4.302630e+00 -5.565813e-01 2.031602e+00 3.102478e+00 3.011977e+00 5.183239e+00 5.575665e+00 4.491805e+00 2.785103e+00 1.193991e+00 3.558194e+00 3.895114e-01 -2.022218e+00 5.846680e-03 3.170871e-01 -6.768565e-01 -1.153223e+00 4.312731e-01 7.982349e-02 -2.152445e-01 7.723774e-01 1.692126e-01 5.977722e-01 4.753257e+00
<VARIANCE> 39
 6.246701e+01 8.243187e+01 8.124452e+01 7.993609e+01 9.231436e+01 1.200777e+02 1.540246e+02 1.341187e+02 1.362770e+02 1.148089e+02 8.449320e+01 7.495069e+01 2.450086e+01 1.466196e+01 3.456019e+01 2.354003e+01 1.567455e+01 1.500980e+01 2.087620e+01 2.037304e+01 1.726229e+01 2.140591e+01 1.936905e+01 1.861011e+01 1.137064e+01 5.972966e+01 3.274128e+00 4.007055e+00 7.047103e+00 3.636206e+00 4.897756e+00 4.180974e+00 7.603206e+00 5.287858e+00 4.643991e+00 3.839026e+00 2.705711e+00 2.225883e+00 7.070253e+00
<GCONST> 1.882457e+02
<MIXTURE> 2 4.208186e-02
<MEAN> 39
 -9.938821e+00 -2.122526e+01 -1.829402e+01 6.768539e+00 1.593336e+00 -6.859507e+00 -1.093554e+01 8.149326e-01 -4.679814e+00 2.626173e+00 -3.418971e+00 2.278563e+00 8.505370e+01 -1.135543e+00 -6.663239e+00 -6.921083e+00 5.449617e-01 6.135745e-01 -8.483546e-01 -6.891987e-01 3.675571e+00 4.073469e+00 4.314742e+00 7.367638e-01 1.465165e+00 1.657496e+01 -2.966876e+00 3.124719e+00 3.633122e+00 1.630078e+00 -9.578218e-01 -1.602390e+00 8.388746e-01 3.320684e-01 -6.369108e-01 -5.464523e-01 -9.274577e-02 4.402731e-01 1.072441e+00
<VARIANCE> 39
 1.363976e+02 1.711568e+02 2.070596e+02 1.532191e+02 1.660223e+02 1.812525e+02 1.597086e+02 1.597749e+02 1.060776e+02 9.573114e+01 7.431807e+01 7.702225e+01 2.494952e+02 2.808980e+01 2.047972e+01 2.091167e+01 1.993783e+01 2.452890e+01 2.288783e+01 2.241707e+01 2.207417e+01 2.269464e+01 2.038736e+01 1.484226e+01 1.127977e+01 1.782111e+01 3.649046e+00 3.087362e+00 3.798484e+00 3.705117e+00 3.795162e+00 4.397250e+00 4.771329e+00 5.087903e+00 3.084508e+00 3.255783e+00 2.177866e+00 2.511906e+00 4.435720e+00
<GCONST> 1.915835e+02
<MIXTURE> 3 9.681321e-02
<MEAN> 39
 -2.503564e+01 6.125734e+00 8.902561e-01 4.529369e+00 -3.049494e+00 -3.871536e+00 -5.896193e+00 -2.450368e+00 -1.229829e+00 3.070623e+00 4.022512e+00 4.949594e+00 4.801522e+01 1.332097e+00 -4.610014e+00 -4.558125e+00 -2.709928e-01 1.301297e+00 6.532499e-01 6.411213e-02 2.187993e+00 2.726705e+00 2.579803e+00 4.586266e-01 5.516416e-01 6.698516e+00 8.934407e-01 -9.379863e-01 4.549864e-01 1.615897e+00 4.612147e-02 -1.583722e+00 -2.953332e-01 -4.774316e-03 -1.177074e+00 -5.174891e-01 -8.623447e-01 -1.252396e-01 5.010170e+00
<VARIANCE> 39
 1.893283e+01 2.432658e+01 3.098141e+01 4.395943e+01 5.828630e+01 7.763668e+01 8.725651e+01 9.758897e+01 8.711672e+01 8.296233e+01 7.914608e+01 7.088084e+01 1.299030e+01 1.537341e+01 2.330575e+01 1.859238e+01 1.627071e+01 1.337173e+01 1.746014e+01 1.679928e+01 1.416406e+01 1.269700e+01 1.443791e+01 1.304938e+01 8.965996e+00 7.080240e+01 3.798707e+00 2.705395e+00 3.195577e+00 2.168052e+00 3.546992e+00 4.216245e+00 3.455786e+00 3.792236e+00 3.508954e+00 2.854717e+00 2.532393e+00 2.186285e+00 5.038594e+00
<GCONST> 1.745037e+02
<MIXTURE> 4 4.724535e-02
<MEAN> 39
 -2.696628e+01 -1.748158e+01 -5.801623e-01 1.950502e+01 -4.262087e-01 -1.873992e+01 -9.894466e+00 2.895839e+00 -1.007625e+01 -5.726140e+00 -3.848598e+00 4.905892e+00 7.918215e+01 -3.364599e+00 -5.226273e+00 -8.159775e+00 -2.786223e+00 -5.475955e-01 -4.901115e-01 -2.061937e+00 2.957006e+00 4.469187e+00 2.089881e+00 5.505528e-01 1.519461e+00 6.732683e+00 7.833617e-01 2.048296e+00 2.365658e+00 -1.960033e-01 -1.188330e+00 -1.569643e-01 1.197742e+00 -1.508864e-01 -2.841734e-01 1.183374e+00 1.656964e-01 1.663344e-01 3.503997e+00
<VARIANCE> 39
 1.752670e+02 1.757067e+02 2.225509e+02 2.142311e+02 3.505531e+02 2.568616e+02 2.755419e+02 2.901326e+02 2.518859e+02 1.562768e+02 1.591655e+02 1.272912e+02 2.707527e+02 3.050872e+01 2.823636e+01 2.469967e+01 1.950661e+01 2.469777e+01 2.874641e+01 2.690046e+01 2.987711e+01 2.441900e+01 2.112782e+01 1.833133e+01 1.516700e+01 6.955962e+01 5.310202e+00 3.857317e+00 4.989800e+00 5.644461e+00 6.918357e+00 6.568192e+00 6.747963e+00 6.902988e+00 6.337864e+00 4.727350e+00 3.810228e+00 3.373478e+00 6.118010e+00
<GCONST> 2.056665e+02
<MIXTURE> 5 1.145536e-01
<MEAN> 39
 -2.577680e+01 5.374184e+00 2.791822e-01 4.239131e+00 -4.143794e+00 -5.996422e+00 -7.051294e+00 -3.181827e+00 -2.738571e+00 1.982668e+00 3.269620e+00 4.509522e+00 4.771831e+01 1.271171e+00 -4.398929e+00 -4.857342e+00 -9.880711e-01 4.012793e-02 -9.099852e-01 -2.424969e+00 1.420262e-01 4.351655e-01 -8.010932e-02 -8.799517e-01 3.251054e-01 5.993865e+00 9.960874e-01 -6.290947e-01 7.818305e-01 1.618908e+00 -2.552854e-01 -7.106304e-01 6.073029e-01 1.664229e-01 -3.341702e-01 2.408662e-01 -3.994733e-01 2.170453e-02 4.824106e+00
<VARIANCE> 39
 1.362010e+01 2.060339e+01 2.681545e+01 4.245315e+01 5.696047e+01 7.311848e+01 8.687588e+01 8.463451e+01 8.043700e+01 7.574527e+01 7.163775e+01 6.522742e+01 1.299030e+01 1.632538e+01 2.935704e+01 1.990637e+01 1.830735e+01 1.626008e+01 1.964135e+01 1.730174e+01 1.369621e+01 1.368880e+01 1.349631e+01 1.218589e+01 1.051931e+01 7.790407e+01 3.017206e+00 2.281166e+00 3.346284e+00 2.572671e+00 3.857328e+00 3.657797e+00 3.184578e+00 3.086022e+00 2.769655e+00 2.335136e+00 1.963324e+00 1.899882e+00 4.816345e+00
<GCONST> 1.728193e+02
<MIXTURE> 6 4.799560e-02
<MEAN> 39
 -2.022425e+01 -7.121081e+00 2.587659e+00 9.815611e+00 -1.192973e+00 -4.780703e+00 -2.921155e+00 -1.603713e+00 -5.563035e+00 6.583116e+00 -1.348907e+00 7.944627e-01 7.128766e+01 1.593296e-01 -1.182698e+00 -2.801190e+00 7.416221e-02 1.624212e+00 2.254105e-01 -1.385843e+00 -2.304207e-01 6.029565e-01 1.143480e+00 -2.367453e-01 -1.744162e-01 5.247290e+00 -6.079125e-01 7.738549e-01 3.114552e-01 1.886422e-01 -3.659246e-01 -1.171542e+00 -6.588542e-01 2.127624e-01 -4.246918e-02 -7.034549e-01 -1.206547e-01 4.396419e-01 1.354686e+00
<VARIANCE> 39
 2.552505e+02 3.416478e+02 3.417762e+02 2.626219e+02 3.310110e+02 2.636254e+02 3.469871e+02 2.342471e+02 1.965072e+02 1.679849e+02 1.460348e+02 1.186014e+02 2.529386e+02 2.492187e+01 3.060814e+01 2.427304e+01 2.314535e+01 1.936455e+01 2.781946e+01 2.547597e+01 1.906445e+01 1.722699e+01 1.729308e+01 1.401805e+01 1.213303e+01 9.897169e+01 7.934748e+00 6.276707e+00 6.891693e+00 5.491801e+00 4.971268e+00 5.027610e+00 5.401721e+00 4.685390e+00 3.931732e+00 3.436366e+00 3.044890e+00 2.449714e+00 5.197613e+00
<GCONST> 2.039612e+02
<MIXTURE> 7 6.988924e-02
<MEAN> 39
 -2.041468e+01 1.138161e+01 5.945423e+00 8.269854e+00 -1.838032e+00 -6.198708e+00 -1.084569e+01 -9.138090e+00 -9.555277e+00 -5.071987e+00 -2.376004e+00 1.537140e+00 4.993093e+01 -1.840767e+00 -7.297707e+00 -8.247501e+00 -4.083052e+00 7.239480e-01 1.079387e+00 -8.502058e-01 3.158071e+00 5.198508e+00 3.781052e+00 1.300854e+00 1.461249e+00 4.378623e+00 1.271387e+00 -2.357818e+00 1.462400e+00 1.396971e+00 -4.752874e-01 -2.200694e+00 1.338432e+00 1.070234e+00 -5.413061e-01 1.191407e+00 -1.665263e-02 5.835832e-01 7.487759e+00
<VARIANCE> 39
 1.870991e+01 2.577953e+01 3.182227e+01 4.794801e+01 6.168103e+01 8.291209e+01 9.959398e+01 1.073887e+02 1.147695e+02 1.072367e+02 7.620513e+01 7.908453e+01 1.299030e+01 1.267824e+01 3.572761e+01 2.132822e+01 1.537352e+01 1.949663e+01 2.302843e+01 2.075148e+01 1.945783e+01 1.971665e+01 1.985966e+01 1.583758e+01 1.277809e+01 7.045794e+01 2.570071e+00 3.635885e+00 2.969382e+00 2.837721e+00 5.921448e+00 5.135729e+00 5.473598e+00 7.275551e+00 4.961151e+00 4.047250e+00 2.859101e+00 2.647255e+00 5.758767e+00
<GCONST> 1.814810e+02
<MIXTURE> 8 4.099739e-02
<MEAN> 39
 -1.985576e+01 1.028840e+00 8.941169e+00 2.245771e+01 1.224756e+01 2.269396e+00 1.080831e+00 1.052826e+01 3.947038e-01 5.903375e+00 6.391332e-01 4.649592e+00 6.552066e+01 -3.272515e+00 -8.023116e+00 -1.040254e+01 -6.106210e+00 -3.518948e-01 -9.874501e-01 -4.528983e+00 -1.701499e+00 2.209254e+00 1.800182e+00 -1.814794e+00 3.345166e-01 7.152733e+00 -1.750147e-01 -8.386710e-01 1.111689e+00 -6.860350e-01 -1.653701e+00 -3.621528e+00 -1.055788e+00 -3.269251e-01 -1.906402e+00 -6.642889e-01 -4.943443e-01 -1.657722e-01 5.951503e+00
<VARIANCE> 39
 1.443990e+02 2.511957e+02 2.150059e+02 2.225033e+02 1.682232e+02 2.524581e+02 2.838478e+02 2.086854e+02 1.954161e+02 1.660553e+02 1.624902e+02 1.216373e+02 2.765722e+02 3.408957e+01 2.701241e+01 2.291675e+01 2.338633e+01 1.881324e+01 3.098321e+01 2.391425e+01 2.601649e+01 3.179303e+01 2.064605e+01 1.796107e+01 1.552098e+01 6.640777e+01 6.405877e+00 4.575085e+00 5.740227e+00 5.968848e+00 6.185062e+00 6.830689e+00 7.138666e+00 6.604710e+00 5.372490e+00 4.188682e+00 4.082211e+00 3.712016e+00 6.298701e+00
<GCONST> 2.049035e+02
<MIXTURE> 9 1.266707e-01
<MEAN> 39
 -2.815308e+01 2.905282e+00 -2.081754e+00 1.950091e+00 -4.861530e+00 -5.099281e+00 -6.352413e+00 -2.955601e+00 -1.716841e+00 2.057383e+00 2.445395e+00 3.750796e+00 4.637271e+01 2.473676e+00 -4.126204e+00 -4.291288e+00 2.867562e-02 1.169123e+00 1.131355e-01 -1.209436e+00 8.741016e-01 1.117309e+00 1.227869e+00 -4.871971e-01 -6.405971e-02 7.263459e+00 8.890876e-01 -5.452881e-01 2.330850e-01 1.498761e+00 8.908232e-02 -1.009526e+00 -4.805792e-01 -1.163922e-01 -8.083597e-01 -2.232392e-01 -6.567315e-01 -2.005467e-02 4.394804e+00
<VARIANCE> 39
 1.742433e+01 2.635386e+01 3.011405e+01 4.413587e+01 5.918610e+01 7.835624e+01 9.038286e+01 1.009929e+02 9.287086e+01 8.723941e+01 8.267785e+01 7.556602e+01 1.299030e+01 1.613961e+01 2.023328e+01 1.803551e+01 1.384838e+01 1.259535e+01 1.548890e+01 1.484498e+01 1.404709e+01 1.313925e+01 1.253179e+01 1.101425e+01 9.151690e+00 6.497595e+01 3.681807e+00 2.290958e+00 2.867915e+00 1.995393e+00 3.259616e+00 3.671497e+00 3.227311e+00 3.289171e+00 3.270067e+00 2.496638e+00 2.366149e+00 2.002240e+00 4.046991e+00
<GCONST> 1.724523e+02
<MIXTURE> 10 8.825144e-02
<MEAN> 39
