~o
<STREAMINFO> 1 39
<VECSIZE> 39<NULLD><MFCC_D_A_0><DIAGC>
~v "varFloor1"
<VARIANCE> 39
 6.754285e+00 3.412382e+00 5.608406e+00 4.796288e+00 3.472278e+00 4.011306e+00 4.413544e+00 3.617784e+00 3.683816e+00 3.040248e+00 2.640156e+00 2.509632e+00 1.299030e+01 2.278168e-01 1.545930e-01 2.184475e-01 2.118017e-01 1.813441e-01 2.097645e-01 2.257998e-01 2.166213e-01 2.009591e-01 1.748390e-01 1.664857e-01 1.534652e-01 2.729186e-01 3.005252e-02 2.352007e-02 2.950203e-02 3.333135e-02 2.970526e-02 3.527972e-02 3.796952e-02 3.764049e-02 3.477431e-02 3.067440e-02 2.924915e-02 2.697382e-02 3.680100e-02
~s "silst"
<MEAN> 39
 -2.510116e+01 4.789794e+00 -9.949827e-01 2.774443e+00 -3.225930e+00 -2.978088e+00 -4.497442e+00 -1.455218e+00 -1.667936e+00 1.335924e+00 1.108858e+00 2.519273e+00 4.814431e+01 -2.220593e-01 6.972037e-03 4.604523e-02 -4.311148e-02 -7.193843e-02 -8.630361e-02 -1.794932e-01 -1.938122e-01 -5.343828e-02 8.935065e-02 9.649661e-02 4.869875e-02 -1.459990e-01 9.534631e-02 -6.801775e-02 1.601807e-02 2.861232e-02 3.306186e-02 3.829139e-02 8.636850e-02 8.184422e-02 3.641726e-03 -1.269109e-02 -7.565290e-02 -3.041191e-02 1.619205e-01
<VARIANCE> 39
 2.944582e+01 2.898810e+01 3.713860e+01 4.994416e+01 6.793251e+01 8.836574e+01 1.045646e+02 1.054156e+02 9.781473e+01 9.145190e+01 8.874209e+01 7.975590e+01 1.515562e+01 1.335113e+00 1.979310e+00 3.190096e+00 4.442043e+00 5.716872e+00 7.031100e+00 8.416074e+00 9.199746e+00 9.264077e+00 9.215682e+00 9.012882e+00 8.154982e+00 6.772116e-01 2.600670e-01 4.218320e-01 6.525860e-01 9.019740e-01 1.155977e+00 1.416634e+00 1.666819e+00 1.826836e+00 1.847766e+00 1.841311e+00 1.810177e+00 1.637072e+00 1.736836e-01
<GCONST> 1.440895e+02
~h "f"
<BEGINHMM>
<NUMSTATES> 5
<STATE> 2
<MEAN> 39
 -3.177906e+01 -1.380324e+01 -1.694487e-01 3.735936e+00 -1.751861e+00 6.983805e-02 -6.218507e+00 9.379146e-01 -4.696907e+00 4.028184e+00 -3.446734e+00 2.752586e+00 9.102224e+01 -2.164253e+00 -1.578987e+00 -1.242426e+00 -5.531661e-01 -6.769187e-01 -2.945175e-01 -9.028901e-01 -4.676806e-01 -3.232497e-01 -1.857134e-01 -1.099701e-01 -1.639039e-01 5.662035e-01 1.404178e+00 4.292433e-01 2.710399e-01 -2.342706e-01 1.293185e-01 3.415699e-02 2.738232e-01 -4.792360e-02 -7.411794e-02 8.358262e-02 -2.913878e-02 3.870273e-02 5.976390e-01
<VARIANCE> 39
 1.622970e+02 1.221520e+02 9.640250e+01 9.981802e+01 1.139078e+02 1.261973e+02 1.379371e+02 1.349293e+02 1.341955e+02 1.238741e+02 1.181722e+02 1.071666e+02 3.192661e+02 2.350569e+01 1.154303e+01 1.114440e+01 1.488783e+01 1.277851e+01 1.330846e+01 1.450273e+01 1.410097e+01 1.414064e+01 1.314233e+01 1.250940e+01 1.163323e+01 2.024347e+01 3.549065e+00 2.198402e+00 2.159332e+00 2.995812e+00 2.494836e+00 2.815379e+00 3.037203e+00 3.049299e+00 3.102348e+00 2.805748e+00 2.651954e+00 2.385577e+00 3.064242e+00
<GCONST> 1.826892e+02
<STATE> 3
<MEAN> 39
 -2.877577e+01 -1.730541e+01 -3.409872e+00 -1.684147e-02 -2.872755e+00 -7.603505e-01 -7.686639e+00 -1.399194e+00 -6.280068e+00 3.462666e+00 -4.247152e+00 2.739025e+00 1.015815e+02 1.060096e+01 2.400394e+00 8.024064e-01 -3.447868e+00 2.990595e-01 1.023587e+00 1.796023e+00 3.736517e-01 5.260360e-01 1.299497e+00 3.509500e-01 -1.381453e-01 5.656979e+00 3.702371e+00 1.127477e+00 6.662072e-01 -2.341137e+00 -5.398304e-01 3.255166e-01 6.406507e-01 4.538599e-01 2.923407e-02 6.998708e-01 2.185960e-01 -2.274514e-01 1.058546e+00
<VARIANCE> 39
 1.320626e+02 7.052181e+01 6.354693e+01 7.150951e+01 8.547894e+01 9.597512e+01 1.021660e+02 1.040347e+02 1.122544e+02 1.063673e+02 9.856374e+01 8.878874e+01 2.045977e+02 3.755923e+01 1.932573e+01 1.133781e+01 2.147337e+01 1.480951e+01 1.325570e+01 1.467177e+01 1.526771e+01 1.934025e+01 1.749420e+01 1.954077e+01 1.290229e+01 3.423693e+01 3.076076e+00 4.415163e+00 2.867761e+00 3.887394e+00 4.114413e+00 3.272040e+00 3.668133e+00 3.588715e+00 4.370270e+00 3.758294e+00 4.468374e+00 3.177751e+00 4.636107e+00
<GCONST> 1.861515e+02
<STATE> 4
<MEAN> 39
 1.695121e+01 -1.300106e+01 -1.609558e+00 -2.124848e+01 -1.410060e+00 5.374704e+00 5.322205e-01 4.701366e-02 -1.954017e+00 1.450538e+01 2.163937e+00 -8.576167e-01 1.261921e+02 1.054118e+01 -1.168984e+00 -9.487956e-02 -8.779901e+00 -5.394366e-01 1.835435e+00 1.923780e+00 9.913409e-01 6.822430e-01 2.554239e+00 1.025567e+00 -9.099531e-01 8.586123e+00 -3.275784e+00 -7.076819e-01 -7.820109e-02 5.743553e-01 -1.564164e-01 -1.002500e-01 -4.695697e-01 3.080321e-01 -6.328390e-02 -6.737889e-01 -6.697302e-01 4.541680e-02 -1.266532e+00
<VARIANCE> 39
 2.243792e+02 2.503740e+02 1.539544e+02 4.438198e+02 2.424800e+02 1.990270e+02 2.010274e+02 2.199062e+02 3.939239e+02 2.893362e+02 4.311094e+02 1.973860e+02 4.279206e+02 5.911877e+01 4.802792e+01 2.613602e+01 3.405196e+01 3.666474e+01 2.350410e+01 2.621480e+01 2.653392e+01 3.866074e+01 2.912676e+01 4.080343e+01 2.563072e+01 2.545354e+01 5.444313e+00 2.811939e+00 2.139399e+00 7.530549e+00 3.750739e+00 3.003233e+00 3.350008e+00 3.094089e+00 5.519548e+00 4.444214e+00 5.143633e+00 3.279108e+00 5.259607e+00
<GCONST> 2.074963e+02
<TRANSP> 5
 0.000000e+00 1.000000e+00 0.000000e+00 0.000000e+00 0.000000e+00
 0.000000e+00 8.591188e-01 1.408812e-01 0.000000e+00 0.000000e+00
 0.000000e+00 0.000000e+00 6.399106e-01 3.600894e-01 0.000000e+00
 0.000000e+00 0.000000e+00 0.000000e+00 5.457536e-01 4.542465e-01
 0.000000e+00 0.000000e+00 0.000000e+00 0.000000e+00 0.000000e+00
<ENDHMM>
~h "k"
<BEGINHMM>
<NUMSTATES> 5
<STATE> 2
<MEAN> 39
 -7.438720e+00 1.024803e+01 2.697474e+01 2.570699e+01 -1.804458e+00 -1.424323e+01 1.281326e+00 -2.563787e+00 -1.796318e+01 -2.384216e+00 -9.158641e-01 2.254679e+00 7.212762e+01 -5.706351e+00 2.162754e+00 -9.788019e+00 -1.262729e+00 3.409011e+00 5.705929e+00 -3.727054e+00 1.389582e-01 3.731414e+00 -1.987471e+00 3.108949e-02 -9.092966e-01 -1.254517e+01 -2.273376e-01 -3.100325e+00 -1.008521e+00 -2.979981e+00 -1.040891e+00 -1.120899e+00 -9.033012e-01 4.861847e-02 9.420315e-01 1.043058e+00 -2.227062e-01 6.203910e-01 4.776354e+00
<VARIANCE> 39
 1.306895e+02 2.061479e+02 2.691155e+02 1.981250e+02 3.049696e+02 3.707750e+02 3.867518e+02 4.779363e+02 3.226117e+02 2.673015e+02 2.009877e+02 1.583530e+02 3.446250e+02 1.082702e+01 4.588508e+01 2.449309e+01 4.211138e+01 3.026036e+01 3.898246e+01 5.603381e+01 7.207886e+01 5.292013e+01 3.535633e+01 2.362159e+01 2.275687e+01 6.414970e+01 3.429953e+00 5.885226e+00 5.479419e+00 4.839775e+00 5.374348e+00 8.098608e+00 9.035601e+00 8.794705e+00 7.791912e+00 5.613351e+00 4.681993e+00 4.270968e+00 1.242689e+01
<GCONST> 2.143323e+02
<STATE> 3
<MEAN> 39
 -1.870423e+01 -6.461402e+00 -6.319796e+00 7.308283e+00 -1.497520e-01 -7.174954e+00 -1.031359e+01 -1.913378e+00 -4.499810e+00 2.023711e+00 -1.097790e+00 3.326703e+00 7.100633e+01 -1.767560e+00 -4.511801e+00 -5.111872e+00 -9.956830e-01 -2.620536e-02 -1.600577e+00 -2.055113e+00 1.190625e+00 1.712278e+00 1.274079e+00 -6.768488e-01 5.221606e-01 9.333148e+00 -8.360776e-01 9.091727e-01 1.854185e+00 1.030504e+00 -6.437102e-01 -1.170432e+00 7.675450e-01 3.691183e-01 -5.408156e-01 -1.854904e-01 -1.986491e-01 2.035521e-01 2.389672e+00
<VARIANCE> 39
 1.443646e+02 3.074802e+02 2.374482e+02 1.303716e+02 1.547094e+02 1.654397e+02 1.762707e+02 1.576469e+02 1.350071e+02 1.278619e+02 1.139256e+02 8.773708e+01 7.725871e+02 3.168228e+01 2.791226e+01 2.553414e+01 2.504318e+01 2.209175e+01 2.656390e+01 2.168832e+01 2.110215e+01 2.013219e+01 1.797706e+01 1.533423e+01 1.164455e+01 7.529160e+01 8.752032e+00 8.793978e+00 5.503304e+00 3.511099e+00 4.374898e+00 5.219030e+00 5.116764e+00 4.690849e+00 4.213122e+00 3.875475e+00 2.748326e+00 2.429809e+00 1.931009e+01
<GCONST> 2.011241e+02
<STATE> 4
<MEAN> 39
 -4.177661e+01 -9.816108e+00 -7.771308e+00 1.159563e+01 6.037902e-01 -2.458756e+01 -1.501370e+01 6.291731e+00 1.009221e+00 2.875063e+00 -7.502506e+00 5.802539e+00 1.136158e+02 -1.035110e+01 4.342502e+00 2.030211e+00 -2.626676e-01 -2.449894e+00 -2.203786e+00 2.371300e+00 2.716405e+00 7.061911e-01 -1.606660e+00 -8.578056e-01 1.155046e+00 3.102813e+00 5.335944e-01 1.613371e+00 7.107988e-01 -6.693819e-01 -1.208643e-01 1.820171e+00 1.247438e+00 -3.001836e-01 -8.859783e-01 -3.361726e-01 4.972181e-01 -8.993056e-02 -3.827607e+00
<VARIANCE> 39
 3.163310e+02 1.138287e+02 1.796495e+02 2.119087e+02 3.934709e+02 2.674359e+02 2.169778e+02 2.032092e+02 1.858323e+02 1.694968e+02 1.686880e+02 1.317147e+02 1.454460e+02 2.983121e+01 1.522562e+01 1.380201e+01 1.541118e+01 2.176017e+01 2.606313e+01 1.702711e+01 1.641061e+01 2.033516e+01 1.499929e+01 1.378006e+01 1.414790e+01 2.630294e+01 6.914239e+00 3.374849e+00 3.236978e+00 2.806094e+00 3.852327e+00 4.040258e+00 3.613597e+00 3.775485e+00 3.696801e+00 3.502770e+00 2.860189e+00 2.457364e+00 4.547530e+00
<GCONST> 1.947747e+02
<TRANSP> 5
 0.000000e+00 1.000000e+00 0.000000e+00 0.000000e+00 0.000000e+00
 0.000000e+00 6.802009e-01 3.197991e-01 0.000000e+00 0.000000e+00
 0.000000e+00 0.000000e+00 7.771807e-01 2.228193e-01 0.000000e+00
 0.000000e+00 0.000000e+00 0.000000e+00 5.361067e-01 4.638933e-01
 0.000000e+00 0.000000e+00 0.000000e+00 0.000000e+00 0.000000e+00
<ENDHMM>
~h "n"
<BEGINHMM>
<NUMSTATES> 5
<STATE> 2
<MEAN> 39
 1.613650e+01 -8.938239e-01 3.514397e+01 7.533404e+00 -5.338167e+00 4.165842e+00 1.581474e+01 -3.669783e+00 -6.390543e+00 1.039006e+01 -6.412522e+00 8.751482e+00 1.116172e+02 1.130424e+00 3.283413e+00 7.161154e-03 3.869367e+00 4.197190e-01 1.426583e+00 2.305825e+00 -2.980565e+00 5.815230e-02 6.041502e-01 -1.573987e+00 2.743732e-01 -3.160716e+00 -5.505983e-01 -5.552735e-01 -7.603295e-01 -3.507049e-01 4.212639e-01 -2.930431e-01 -6.267856e-01 8.672817e-01 3.999620e-01 -3.719645e-01 2.434574e-01 -1.186905e-01 2.884620e-01
<VARIANCE> 39
 1.313798e+02 3.032212e+02 2.467305e+02 6.127899e+02 3.045613e+02 4.059866e+02 5.309821e+02 5.882327e+02 5.437249e+02 4.445581e+02 4.307537e+02 4.049153e+02 4.141662e+02 1.608208e+01 1.497984e+01 2.376873e+01 3.306762e+01 2.126085e+01 2.553060e+01 3.332026e+01 4.020153e+01 3.055746e+01 2.710805e+01 2.391108e+01 2.427511e+01 1.984746e+01 2.302917e+00 2.563768e+00 3.856768e+00 7.802299e+00 4.082385e+00 5.053738e+00 6.668576e+00 7.734143e+00 5.607935e+00 4.791765e+00 4.679827e+00 4.609019e+00 2.064643e+00
<GCONST> 2.100207e+02
<STATE> 3
<MEAN> 39
 1.795756e+01 6.994565e+00 3.453266e+01 1.871172e+01 -2.116120e+00 7.163847e+00 1.762228e+01 -8.222208e+00 -2.018235e+00 7.295461e+00 -9.766378e+00 1.138761e+01 1.034571e+02 -2.704665e+00 -2.553840e+00 -1.976603e+00 -2.593523e+00 2.588014e+00 -1.673656e+00 -2.693231e+00 5.115851e+00 7.409028e-01 -5.292000e-01 7.208920e-01 -1.074617e+00 1.778609e+00 -1.443070e+00 -1.465530e+00 -1.527005e+00 -1.693437e+00 2.143207e-01 -6.411567e-01 -1.272864e+00 1.415676e+00 2.375567e-01 -1.098980e-01 5.572604e-01 -4.225118e-01 6.393604e-01
<VARIANCE> 39
 8.069639e+01 2.514713e+02 1.424159e+02 2.966900e+02 2.856462e+02 4.394026e+02 4.716291e+02 4.543072e+02 4.633262e+02 4.493203e+02 4.578174e+02 4.617229e+02 2.776942e+02 2.309955e+01 2.474974e+01 2.191480e+01 3.445160e+01 2.640630e+01 3.874847e+01 4.309961e+01 4.401301e+01 3.678079e+01 2.842572e+01 2.911807e+01 3.194785e+01 3.897274e+01 3.097233e+00 2.663344e+00 2.874009e+00 4.013753e+00 4.788226e+00 5.946188e+00 5.997934e+00 7.201668e+00 5.491574e+00 4.141418e+00 4.629867e+00 4.680301e+00 2.363070e+00
<GCONST> 2.100308e+02
<STATE> 4
<MEAN> 39
 2.173265e-01 -3.608368e+00 1.872174e+01 1.201773e+01 5.241698e+00 1.681547e+00 1.035327e+01 1.262878e+01 1.459454e+00 3.694066e+00 -7.142129e+00 4.563434e+00 9.331596e+01 -3.789987e+00 -2.627088e+00 -4.681592e+00 -3.402013e+00 -2.039860e-01 -1.318881e+00 -2.992492e+00 2.100467e+00 5.979924e-01 -8.313227e-01 8.908612e-01 -1.184614e+00 -6.044471e-01 2.553690e-01 2.793144e-01 -2.890963e-02 7.899074e-02 -6.238590e-01 1.240916e-01 -3.185645e-03 -1.258752e+00 -2.291410e-01 1.304334e-02 -6.970658e-03 1.792630e-01 3.374759e-02
<VARIANCE> 39
 1.903183e+02 2.615171e+02 2.239523e+02 4.256059e+02 2.505355e+02 3.512181e+02 4.950459e+02 3.891996e+02 3.322832e+02 3.739748e+02 2.762457e+02 2.638000e+02 7.268151e+02 2.330221e+01 1.986570e+01 1.925475e+01 2.463271e+01 2.300140e+01 2.515795e+01 2.792071e+01 3.560284e+01 3.185963e+01 2.356218e+01 2.518049e+01 2.295287e+01 2.426351e+01 1.683465e+00 2.819205e+00 2.776008e+00 4.893603e+00 3.818174e+00 5.572637e+00 5.933757e+00 5.486143e+00 4.481264e+00 3.946894e+00 3.782716e+00 3.668766e+00 2.810842e+00
<GCONST> 2.060012e+02
<TRANSP> 5
 0.000000e+00 1.000000e+00 0.000000e+00 0.000000e+00 0.000000e+00
 0.000000e+00 6.619231e-01 3.380769e-01 0.000000e+00 0.000000e+00
 0.000000e+00 0.000000e+00 5.907113e-01 4.092887e-01 0.000000e+00
 0.000000e+00 0.000000e+00 0.000000e+00 6.201746e-01 3.798254e-01
 0.000000e+00 0.000000e+00 0.000000e+00 0.000000e+00 0.000000e+00
<ENDHMM>
~h "r"
<BEGINHMM>
<NUMSTATES> 5
<STATE> 2
<MEAN> 39
 3.661302e+01 -1.807509e+01 -5.330772e+00 3.076117e+00 2.583102e+01 -2.170992e+01 -3.170932e+01 2.530041e+00 -7.850674e+00 5.184186e+00 1.949908e+00 7.521118e+00 1.266192e+02 5.145990e-01 -7.701880e-01 -1.618045e+00 6.331475e-02 1.035511e+00 -1.185741e+00 -1.206228e+00 9.505382e-01 1.424966e+00 6.280341e-01 8.395507e-02 1.047237e-01 8.418393e-02 -1.095217e+00 -5.124732e-02 1.734629e+00 -1.264487e-03 -1.732724e+00 -1.538461e-01 1.493637e+00 6.124659e-01 -4.291366e-01 -1.931156e-01 4.016579e-02 4.093192e-02 1.401826e-01
<VARIANCE> 39
 6.585424e+01 1.845809e+02 4.759120e+02 3.192653e+02 3.868462e+02 8.975979e+02 1.004542e+03 4.270882e+02 3.246701e+02 3.920790e+02 2.649073e+02 2.135397e+02 1.731761e+02 6.269268e+00 8.283953e+00 2.615325e+01 1.851350e+01 1.964600e+01 2.913793e+01 2.230817e+01 2.396898e+01 1.920119e+01 1.642371e+01 1.468550e+01 1.359313e+01 6.670190e+00 1.272741e+00 1.260897e+00 1.832563e+00 2.050829e+00 2.642710e+00 4.325750e+00 3.763503e+00 3.410305e+00 2.919220e+00 2.862874e+00 2.531821e+00 2.332995e+00 7.379329e-01
<GCONST> 1.926854e+02
<STATE> 3
<MEAN> 39
 3.103951e+01 -2.466310e+01 7.123408e+00 9.330609e+00 1.679070e+01 -3.370713e+01 -2.564194e+01 1.587963e+01 -7.692232e+00 1.953592e+00 3.137083e-01 8.752439e+00 1.296834e+02 -3.859436e+00 -7.080119e-01 6.867486e+00 1.241910e+00 -5.756424e+00 -1.717901e+00 5.986623e+00 2.830583e+00 -2.272172e+00 -1.082104e+00 9.524187e-01 -1.196114e-01 3.082328e-01 -1.087643e+00 1.175026e+00 8.595359e-01 -1.132977e+00 -9.551942e-01 2.397481e+00 1.664416e+00 -1.743494e+00 -8.858052e-01 7.210135e-01 2.094057e-01 -4.386944e-01 -6.220363e-01
<VARIANCE> 39
 7.058279e+01 1.914040e+02 5.728309e+02 3.719768e+02 3.939648e+02 7.990948e+02 1.054523e+03 4.011986e+02 4.163391e+02 4.806999e+02 2.814086e+02 2.457812e+02 2.005239e+02 9.293461e+00 9.750277e+00 2.922933e+01 2.563476e+01 2.704997e+01 3.532901e+01 3.199967e+01 3.238946e+01 3.640265e+01 2.700909e+01 2.203702e+01 1.748423e+01 1.259303e+01 2.000344e+00 2.068283e+00 2.303267e+00 2.341607e+00 3.788143e+00 5.685892e+00 5.219314e+00 4.621499e+00 4.091315e+00 3.782079e+00 2.952673e+00 3.062499e+00 9.666203e-01
<GCONST> 2.022997e+02
<STATE> 4
<MEAN> 39
 1.709782e+01 -2.114269e+01 1.376569e+01 8.660842e+00 4.506126e+00 -2.264415e+01 -2.311311e+00 1.602655e+01 -1.065726e+01 5.233261e+00 3.343781e+00 4.252322e+00 1.175656e+02 -4.144883e+00 1.254820e+00 4.032586e+00 -1.866897e+00 -3.693240e+00 3.327295e+00 3.994128e+00 -2.506676e+00 -1.226683e+00 1.368901e+00 -4.852133e-01 -1.461795e+00 -1.564307e+00 4.033638e-02 7.206159e-01 -6.783891e-01 -7.591481e-01 6.872769e-01 8.305601e-01 -1.002323e+00 -1.007795e+00 6.125581e-01 2.424665e-01 -5.628664e-01 2.192148e-02 -2.995842e-01
<VARIANCE> 39
 2.062816e+02 2.026645e+02 9.192108e+02 3.687062e+02 4.568727e+02 7.465933e+02 7.670541e+02 4.159179e+02 6.448765e+02 4.179055e+02 2.949646e+02 2.643924e+02 6.403900e+02 1.512952e+01 1.454144e+01 2.394114e+01 2.111029e+01 2.089707e+01 2.632836e+01 2.977730e+01 2.845835e+01 2.279111e+01 2.262063e+01 1.843023e+01 1.613775e+01 1.039015e+01 1.445860e+00 1.892551e+00 2.478509e+00 2.862874e+00 3.661989e+00 4.756073e+00 4.077228e+00 3.550456e+00 4.717534e+00 3.054570e+00 3.084706e+00 2.597115e+00 1.035410e+00
<GCONST> 2.029274e+02
<TRANSP> 5
 0.000000e+00 1.000000e+00 0.000000e+00 0.000000e+00 0.000000e+00
 0.000000e+00 7.662787e-01 2.337212e-01 0.000000e+00 0.000000e+00
 0.000000e+00 0.000000e+00 5.110236e-01 4.889764e-01 0.000000e+00
 0.000000e+00 0.000000e+00 0.000000e+00 5.942874e-01 4.057126e-01
 0.000000e+00 0.000000e+00 0.000000e+00 0.000000e+00 0.000000e+00
<ENDHMM>
~h "s"
<BEGINHMM>
<NUMSTATES> 5
<STATE> 2
<MEAN> 39
 -2.901692e+01 4.926617e+00 8.419781e+00 6.532223e+00 2.718709e+00 -7.425775e+00 -1.351743e+00 3.894938e+00 -3.303293e+00 2.048144e+00 -4.931372e+00 5.548162e+00 1.036174e+02 -8.728241e+00 2.026484e+00 -3.939831e+00 -6.842966e-01 -8.736507e-01 -5.363830e-02 9.719893e-01 1.235129e+00 2.848463e-02 -5.215675e-01 6.644464e-01 3.122288e-01 7.211027e-01 3.733508e-01 -4.299105e-01 -9.473206e-01 -7.210783e-01 -3.358855e-01 6.771737e-02 -4.233805e-01 -3.846467e-01 -4.064376e-01 2.728180e-01 1.070591e-01 -8.933054e-02 -3.410728e-01
<VARIANCE> 39
 6.030625e+02 2.431198e+02 4.114994e+02 3.320733e+02 4.043390e+02 3.813358e+02 3.360685e+02 3.050837e+02 2.877643e+02 2.352502e+02 2.184056e+02 2.200027e+02 4.635265e+02 5.274912e+01 2.420303e+01 4.544563e+01 4.024633e+01 2.982416e+01 3.707131e+01 3.059647e+01 2.938495e+01 3.250254e+01 2.545550e+01 2.386907e+01 2.292775e+01 3.067637e+01 9.097203e+00 4.707653e+00 5.261519e+00 5.597445e+00 5.475083e+00 5.946093e+00 5.357940e+00 5.633795e+00 5.079659e+00 4.703454e+00 4.339538e+00 4.009124e+00 3.265221e+00
<GCONST> 2.130866e+02
<STATE> 3
<MEAN> 39
 -5.313004e+01 8.473842e+00 -1.001919e+01 6.157975e-01 -4.172861e+00 -1.079941e+01 -1.113247e+00 4.031667e+00 -5.605120e+00 1.122249e+00 -3.086526e+00 6.718379e+00 1.069003e+02 -3.370192e+00 8.493032e-01 -3.822854e+00 -1.422521e+00 -1.000323e+00 4.987455e-01 -7.607646e-01 -7.124355e-01 -7.534055e-01 1.067547e-01 -8.996794e-02 -4.377186e-02 3.775601e-01 2.550322e+00 -5.387395e-01 1.098016e+00 6.571152e-01 4.992502e-01 3.829819e-01 -1.990025e-01 -2.918680e-01 1.727273e-01 2.146543e-01 -2.828889e-01 -1.637064e-01 -5.626681e-01
<VARIANCE> 39
 1.350304e+02 1.460210e+02 1.792681e+02 2.793039e+02 3.616744e+02 2.914173e+02 1.969996e+02 1.806044e+02 1.647761e+02 1.532930e+02 1.660087e+02 1.312633e+02 1.851234e+02 1.783953e+01 1.572997e+01 1.690806e+01 1.515965e+01 1.701677e+01 1.973915e+01 1.878028e+01 1.580347e+01 1.454141e+01 1.423414e+01 1.328961e+01 1.246209e+01 1.288989e+01 2.697153e+00 2.278337e+00 3.642821e+00 2.903223e+00 3.292063e+00 3.364662e+00 3.536318e+00 3.516050e+00 3.174318e+00 3.025237e+00 2.880502e+00 2.801148e+00 1.892786e+00
<GCONST> 1.895595e+02
<STATE> 4
<MEAN> 39
 -5.175566e+01 5.709176e+00 -1.466873e+01 2.695053e+00 -6.776377e+00 -5.787439e+00 -4.332849e+00 3.554715e+00 -6.450585e+00 2.674862e+00 -3.912915e+00 5.876106e+00 1.048855e+02 6.760717e-01 -2.560985e-01 1.881020e-01 -1.621757e-01 2.808525e-02 2.642518e-01 2.167547e-02 -9.863221e-02 8.146662e-02 9.076807e-02 -1.340546e-01 -5.828239e-02 4.957541e-03 9.053016e-01 -9.642623e-02 7.687932e-01 1.231027e-01 8.249070e-02 -2.004093e-01 5.254863e-02 -2.019935e-02 1.569974e-01 -2.248638e-02 -1.140426e-02 5.254613e-02 4.036037e-02
<VARIANCE> 39
 1.602467e+02 1.365551e+02 1.557361e+02 2.442243e+02 2.992806e+02 2.759201e+02 1.562577e+02 1.424935e+02 1.440125e+02 1.312632e+02 1.409947e+02 1.207039e+02 1.994581e+02 6.558965e+00 5.589088e+00 6.480993e+00 7.343117e+00 8.997660e+00 1.065329e+01 1.086977e+01 1.119190e+01 1.092985e+01 1.112685e+01 1.067729e+01 1.002250e+01 5.791950e+00 1.850242e+00 1.206831e+00 1.783692e+00 1.559053e+00 1.764735e+00 2.161654e+00 2.248054e+00 2.240087e+00 2.207929e+00 2.266077e+00 2.140952e+00 2.049922e+00 9.180951e-01
<GCONST> 1.742778e+02
<TRANSP> 5
 0.000000e+00 1.000000e+00 0.000000e+00 0.000000e+00 0.000000e+00
 0.000000e+00 5.609609e-01 4.390391e-01 0.000000e+00 0.000000e+00
 0.000000e+00 0.000000e+00 5.229108e-01 4.770892e-01 0.000000e+00
 0.000000e+00 0.000000e+00 0.000000e+00 8.447418e-01 1.552583e-01
 0.000000e+00 0.000000e+00 0.000000e+00 0.000000e+00 0.000000e+00
<ENDHMM>
~h "t"
<BEGINHMM>
<NUMSTATES> 5
<STATE> 2
<MEAN> 39
 -1.486723e+01 1.077050e+01 1.615082e+01 1.336046e+01 2.888324e+00 1.709349e+00 -1.519641e+00 -1.105108e+00 -3.954721e+00 1.378277e+00 -1.570836e+00 1.941628e+00 6.259604e+01 -3.373211e+00 -1.367168e+00 -5.522148e+00 -1.918645e+00 7.198590e-02 -5.277733e-01 -5.267210e-01 6.685371e-01 9.990575e-01 1.474115e-02 1.200512e+00 8.527619e-02 -1.905395e+00 -2.950431e-01 -8.789976e-01 1.024204e+00 -1.614440e+00 -6.815207e-01 -6.231678e-01 -9.753902e-02 -5.336548e-01 -6.892409e-01 1.132543e-01 -3.600640e-01 2.328936e-01 3.819996e+00
<VARIANCE> 39
 2.485326e+02 1.904105e+02 3.600660e+02 2.306375e+02 1.833029e+02 1.912153e+02 2.318876e+02 2.217638e+02 2.031223e+02 1.727977e+02 1.583652e+02 1.346613e+02 4.081258e+02 2.213362e+01 3.398574e+01 5.293145e+01 4.151825e+01 2.661087e+01 2.745936e+01 2.794125e+01 3.135350e+01 3.458580e+01 2.296102e+01 2.173382e+01 1.965269e+01 1.315625e+02 3.510676e+00 5.867683e+00 6.950105e+00 6.313824e+00 4.844933e+00 4.789576e+00 5.248291e+00 5.235040e+00 5.846741e+00 4.298769e+00 3.958352e+00 3.614993e+00 1.267631e+01
<GCONST> 2.085174e+02
<STATE> 3
<MEAN> 39
 -3.346006e+01 -7.412456e-01 5.403399e+00 -1.099756e+01 -3.286298e+00 -8.364272e+00 -3.538281e+00 -4.620017e+00 -1.062742e+01 1.731305e+00 -1.095672e+00 3.214492e+00 1.055095e+02 -4.329069e+00 5.350614e-01 7.793459e-01 -2.114102e+00 -2.370748e+00 -2.838843e+00 1.395153e+00 -4.083539e-02 -2.063609e+00 -6.162214e-02 -3.010802e-01 1.508626e+00 1.144541e+01 9.430866e-01 7.332848e-01 1.287105e+00 2.058080e+00 -2.501901e-01 3.487313e-01 7.499657e-01 4.817392e-01 5.516213e-01 8.904397e-02 -1.206091e-01 3.327689e-01 -3.078480e+00
<VARIANCE> 39
 2.097000e+02 2.226543e+02 2.070989e+02 1.847018e+02 1.687556e+02 1.775687e+02 1.821288e+02 1.908563e+02 1.672841e+02 1.486163e+02 1.297645e+02 1.214633e+02 9.300822e+02 1.810931e+01 2.087148e+01 2.219766e+01 2.251465e+01 1.841475e+01 2.293657e+01 2.489491e+01 2.326112e+01 1.997732e+01 1.893201e+01 1.926666e+01 1.539066e+01 9.827868e+01 4.756528e+00 4.982916e+00 4.119846e+00 4.163853e+00 3.885484e+00 3.849409e+00 3.906698e+00 3.764481e+00 3.995820e+00 3.403256e+00 3.215623e+00 3.072227e+00 1.882691e+01
<GCONST> 2.003748e+02
<STATE> 4
<MEAN> 39
 -3.454253e+01 -1.657920e+00 1.386616e+01 -3.756926e+00 -1.163843e+01 -1.285420e+01 6.561130e+00 6.161598e-01 -9.899369e+00 7.542667e-01 -1.652784e+00 9.277250e+00 1.052653e+02 4.126003e+00 -1.235031e+00 3.054914e+00 2.774158e+00 -3.602666e-01 2.306340e-01 8.820459e-01 1.402503e+00 9.615625e-01 -1.618585e-01 -8.086598e-01 2.375509e-01 -1.972982e+00 2.095968e+00 2.880312e-02 6.256452e-01 4.379687e-01 8.488917e-01 4.448286e-01 -6.927204e-01 -1.579230e-01 1.271462e-01 9.928786e-02 -1.729457e-01 -5.335153e-01 -3.699017e-01
<VARIANCE> 39
 2.834921e+02 1.346393e+02 1.993129e+02 1.698079e+02 1.824070e+02 2.504443e+02 2.609729e+02 3.057751e+02 2.102709e+02 1.939694e+02 2.289969e+02 1.727523e+02 5.647485e+02 3.139834e+01 1.214165e+01 2.749943e+01 2.011537e+01 1.714643e+01 1.705505e+01 1.838409e+01 1.823863e+01 1.711045e+01 1.587489e+01 1.620875e+01 1.511619e+01 1.608619e+01 5.662430e+00 2.992047e+00 3.472118e+00 2.976233e+00 3.232616e+00 4.535711e+00 3.997202e+00 3.769592e+00 3.990667e+00 3.694680e+00 3.761691e+00 3.110701e+00 6.909532e+00
<GCONST> 1.974939e+02
<TRANSP> 5
 0.000000e+00 1.000000e+00 0.000000e+00 0.000000e+00 0.000000e+00
 0.000000e+00 7.807872e-01 2.192128e-01 0.000000e+00 0.000000e+00
 0.000000e+00 0.000000e+00 6.164431e-01 3.835569e-01 0.000000e+00
 0.000000e+00 0.000000e+00 0.000000e+00 6.892220e-01 3.107780e-01
 0.000000e+00 0.000000e+00 0.000000e+00 0.000000e+00 0.000000e+00
<ENDHMM>
~h "v"
<BEGINHMM>
<NUMSTATES> 5
<STATE> 2
<MEAN> 39
 1.268460e+01 -2.720506e+01 1.556626e+01 -1.942086e+01 -1.077627e+01 -2.051001e+01 -2.203777e+00 1.253435e+01 1.412496e+01 1.487950e+01 -2.144084e+00 6.036897e+00 1.473356e+02 1.012433e+00 2.725129e-01 1.167879e-01 9.290259e-01 9.373993e-01 1.618624e-01 -6.925195e-01 -1.027510e+00 -7.835692e-01 7.261358e-01 4.362996e-01 -7.628319e-01 -1.570016e+00 -1.675145e-02 1.154368e+00 7.867224e-02 1.450352e+00 1.052303e+00 8.840863e-01 -5.731854e-01 -1.059568e+00 -9.960644e-01 -2.951181e-01 -5.983875e-02 -5.918020e-02 -1.608483e+00
<VARIANCE> 39
 7.302629e+01 1.478633e+02 2.332942e+02 2.175334e+02 2.588120e+02 2.637079e+02 8.588472e+02 2.862118e+02 3.065656e+02 4.731410e+02 3.384778e+02 4.063866e+02 1.653329e+02 2.128677e+00 8.644604e+00 7.367376e+00 1.018352e+01 9.165146e+00 1.148093e+01 1.556913e+01 1.515720e+01 1.524919e+01 1.098196e+01 1.539977e+01 1.199399e+01 6.985883e+00 7.385665e-01 8.770405e-01 1.230182e+00 1.640363e+00 1.986030e+00 2.631951e+00 3.086191e+00 1.858822e+00 2.370832e+00 2.204928e+00 2.058705e+00 2.052210e+00 1.003168e+00
<GCONST> 1.805670e+02
<STATE> 3
<MEAN> 39
 1.913317e+01 -1.702637e+01 1.912496e+01 -2.260671e+00 -1.837600e-01 -1.536720e+01 -1.147006e+01 -1.552452e-01 -2.789766e-01 1.630215e+01 1.156352e+00 1.462852e+00 1.272503e+02 -1.245788e+00 5.924925e+00 9.119350e-01 7.308147e+00 5.436151e+00 5.743464e+00 1.531263e-01 -3.001315e+00 -3.848622e+00 -1.530111e+00 4.266407e-01 -2.046299e-01 -9.076969e+00 -1.786615e+00 2.047558e-01 -5.373451e-01 -4.298570e-02 7.713097e-02 1.193747e+00 1.344616e+00 1.219599e+00 6.561289e-01 -5.452371e-01 -3.413642e-01 9.276143e-02 -3.325733e-01
<VARIANCE> 39
 6.181246e+01 1.740278e+02 2.252940e+02 2.830077e+02 3.020499e+02 3.540166e+02 5.018209e+02 3.247091e+02 5.023415e+02 3.452813e+02 4.034776e+02 3.290560e+02 2.620321e+02 1.362831e+01 1.306254e+01 1.572536e+01 1.917700e+01 2.025528e+01 2.431243e+01 3.713858e+01 2.297636e+01 2.666104e+01 2.663684e+01 2.417606e+01 2.123974e+01 1.102432e+01 2.095102e+00 2.519486e+00 2.205810e+00 3.933707e+00 4.357654e+00 5.535838e+00 3.805809e+00 3.401128e+00 4.954261e+00 3.577145e+00 4.041430e+00 3.144936e+00 3.539486e+00
<GCONST> 2.003286e+02
<STATE> 4
<MEAN> 39
 -3.096320e+00 -3.562697e+00 1.463553e+01 1.248185e+01 7.908847e+00 2.304841e+00 -1.704215e-02 3.413516e+00 -9.501442e-01 7.613234e+00 -1.832495e+00 3.670114e+00 9.773620e+01 -2.884389e+00 -1.206065e-01 -1.207112e+00 -6.557314e-01 -7.194542e-01 3.088017e-01 4.057824e-01 8.606691e-01 5.652639e-02 -9.597064e-01 -1.989592e-01 1.147356e-01 -1.532985e+00 7.653787e-01 -1.320945e+00 -2.270263e-01 -1.872962e+00 -1.377668e+00 -1.748428e+00 -4.551319e-01 3.303378e-01 5.944865e-01 2.207651e-01 -6.938141e-02 7.551005e-02 2.014665e+00
<VARIANCE> 39
 3.952096e+02 1.731143e+02 1.821616e+02 1.969678e+02 2.099897e+02 2.404299e+02 2.415026e+02 2.607673e+02 2.822854e+02 2.166050e+02 2.301733e+02 1.968783e+02 3.067616e+02 3.992223e+01 2.187452e+01 1.603901e+01 2.723400e+01 2.352498e+01 3.489333e+01 2.616391e+01 2.070808e+01 2.187935e+01 1.794194e+01 1.827774e+01 1.535433e+01 2.999225e+01 4.695692e+00 4.618181e+00 3.455636e+00 6.152683e+00 5.363697e+00 6.123960e+00 5.627983e+00 4.752899e+00 4.849805e+00 4.165980e+00 3.851172e+00 3.470815e+00 5.194589e+00
<GCONST> 2.036729e+02
<TRANSP> 5
 0.000000e+00 1.000000e+00 0.000000e+00 0.000000e+00 0.000000e+00
 0.000000e+00 7.614179e-01 2.385821e-01 0.000000e+00 0.000000e+00
 0.000000e+00 0.000000e+00 6.402922e-01 3.597078e-01 0.000000e+00
 0.000000e+00 0.000000e+00 0.000000e+00 7.597632e-01 2.402368e-01
 0.000000e+00 0.000000e+00 0.000000e+00 0.000000e+00 0.000000e+00
<ENDHMM>
~h "w"
<BEGINHMM>
<NUMSTATES> 5
<STATE> 2
<MEAN> 39
 3.295304e+01 8.969694e+00 1.766921e+01 -3.803892e+01 -2.231352e+01 -1.851927e+00 -2.203321e+00 1.860308e+01 -4.143911e+00 1.378380e+01 1.565266e+00 -4.712340e-01 1.219760e+02 -5.150024e-01 -4.196716e+00 -3.852704e+00 -6.161235e+00 2.376560e+00 3.189564e+00 2.318221e+00 4.783628e+00 2.094841e-01 -2.263543e+00 6.480973e-01 1.764624e-01 4.170510e+00 -5.265923e-01 -6.331437e-01 -6.497763e-01 1.158461e+00 2.068603e+00 1.531582e+00 3.303164e-01 -9.194646e-01 -7.651764e-01 -8.974594e-01 3.974247e-01 4.147430e-01 -2.209764e-01
<VARIANCE> 39
 4.783710e+01 1.832403e+02 2.250371e+02 3.083962e+02 4.155732e+02 2.729995e+02 5.966899e+02 3.918414e+02 4.389110e+02 3.976324e+02 3.348578e+02 2.786005e+02 1.197186e+02 2.170167e+00 9.678162e+00 7.534671e+00 1.376952e+01 1.829993e+01 1.768225e+01 1.829288e+01 1.887673e+01 2.078645e+01 1.985086e+01 1.623686e+01 1.780736e+01 5.123713e+00 5.728986e-01 1.250529e+00 1.316009e+00 2.969754e+00 2.216621e+00 2.360372e+00 3.967957e+00 4.187222e+00 3.303139e+00 3.224476e+00 3.186875e+00 2.729408e+00 6.078207e-01
<GCONST> 1.863627e+02
<STATE> 3
<MEAN> 39
 2.849335e+01 -8.697501e+00 1.156024e+00 -4.812636e+01 1.203911e+00 1.881707e+01 4.035818e+00 2.042311e+01 -1.178539e+01 1.457920e+00 1.055671e+01 6.552692e+00 1.343270e+02 -1.479051e+00 -4.551804e+00 -2.497171e+00 1.572128e+00 6.638825e+00 3.203013e+00 -2.345857e+00 -2.951041e+00 -8.413676e-01 6.224846e-01 3.787970e+00 2.704460e-01 2.494673e+00 -1.380906e-01 3.193041e-01 9.381659e-01 2.000715e+00 -3.676698e-01 -1.472086e+00 -1.564806e+00 -7.559801e-01 1.230199e+00 1.411804e+00 -4.492987e-01 -1.014795e+00 -5.227832e-01
<VARIANCE> 39
 5.447149e+01 1.725188e+02 2.133855e+02 2.917926e+02 5.598884e+02 3.152784e+02 5.728239e+02 4.198404e+02 3.977948e+02 4.199732e+02 3.424342e+02 2.911820e+02 1.410130e+02 1.934650e+00 6.908380e+00 5.889967e+00 1.261204e+01 1.163498e+01 1.414684e+01 2.056017e+01 1.628111e+01 2.052615e+01 2.240825e+01 1.400252e+01 1.924025e+01 3.475575e+00 2.792953e-01 6.972228e-01 9.187167e-01 2.067861e+00 2.473582e+00 2.443192e+00 2.480349e+00 3.827343e+00 3.251728e+00 3.041328e+00 4.071540e+00 2.778083e+00 2.969753e-01
<GCONST> 1.821701e+02
<STATE> 4
<MEAN> 39
 2.064644e+01 -2.480284e+01 -1.256841e+00 -2.700728e+01 2.355895e+01 1.020612e+01 -1.207802e+01 1.444414e+01 3.221669e+00 1.217783e+01 1.079033e+01 -4.391612e+00 1.398729e+02 -1.473123e+00 -1.777857e+00 2.080050e+00 4.897477e+00 -3.105834e-01 -4.066078e+00 -2.339340e+00 1.670007e+00 3.458986e+00 1.512252e-01 -3.230295e+00 -7.465481e-01 5.229656e-01 1.331600e-01 9.488628e-01 9.231540e-01 2.384550e-02 -1.394284e+00 -7.498400e-01 1.313510e+00 6.906418e-01 -6.271930e-01 -7.201606e-01 -8.755725e-01 9.678331e-01 -6.574519e-01
<VARIANCE> 39
 6.700109e+01 1.461901e+02 2.003765e+02 2.891270e+02 4.333851e+02 3.716229e+02 4.382059e+02 4.485055e+02 4.317309e+02 3.429631e+02 3.953332e+02 2.999742e+02 1.513966e+02 1.690864e+00 5.254556e+00 5.609365e+00 8.675544e+00 1.634288e+01 1.115520e+01 1.953086e+01 1.639741e+01 1.736866e+01 2.464338e+01 1.504775e+01 2.186524e+01 1.989826e+00 2.356160e-01 7.266512e-01 9.454383e-01 1.329267e+00 2.208930e+00 2.361032e+00 2.571314e+00 2.950516e+00 3.588586e+00 2.611898e+00 4.512460e+00 3.000408e+00 3.737365e-01
<GCONST> 1.802091e+02
<TRANSP> 5
 0.000000e+00 1.000000e+00 0.000000e+00 0.000000e+00 0.000000e+00
 0.000000e+00 6.965536e-01 3.034464e-01 0.000000e+00 0.000000e+00
 0.000000e+00 0.000000e+00 7.595915e-01 2.404085e-01 0.000000e+00
 0.000000e+00 0.000000e+00 0.000000e+00 7.919231e-01 2.080769e-01
 0.000000e+00 0.000000e+00 0.000000e+00 0.000000e+00 0.000000e+00
<ENDHMM>
~h "z"
<BEGINHMM>
<NUMSTATES> 5
<STATE> 2
<MEAN> 39
 -9.321568e+00 1.565450e+01 2.020649e+01 1.721020e+01 9.324000e+00 -5.110982e+00 -2.614480e+00 1.879920e+00 -6.878945e-01 2.346375e+00 -8.746575e+00 6.213274e+00 9.437959e+01 -3.057966e+00 5.367118e+00 -6.246383e-01 2.656430e+00 2.034525e+00 9.708622e-01 5.314853e-01 7.113717e-01 4.695291e-01 -1.882603e-01 -4.837059e-02 2.215989e-01 3.044329e+00 -8.727934e-01 -7.486487e-02 -7.671976e-01 -3.218272e-01 -1.940791e-01 2.253944e-01 4.591350e-02 1.620826e-01 -2.235981e-01 2.759599e-01 3.380978e-01 -1.533493e-01 5.192463e-02
<VARIANCE> 39
 3.362067e+02 2.710429e+02 3.193876e+02 3.409947e+02 3.661599e+02 3.219507e+02 3.198039e+02 2.842794e+02 2.559651e+02 2.767998e+02 2.859539e+02 3.488850e+02 6.848071e+02 4.759130e+01 2.452508e+01 3.633289e+01 3.111395e+01 2.562023e+01 3.171428e+01 2.733025e+01 2.709794e+01 2.341306e+01 2.463311e+01 2.359090e+01 2.104902e+01 3.827015e+01 4.547816e+00 4.133136e+00 4.759840e+00 4.152104e+00 4.259658e+00 4.626530e+00 4.586894e+00 4.629038e+00 3.824600e+00 4.460316e+00 4.079093e+00 4.044900e+00 3.785312e+00
<GCONST> 2.095340e+02
<STATE> 3
<MEAN> 39
 -3.329628e+01 3.193224e+01 8.968377e+00 2.491241e+01 1.288303e+01 4.432825e+00 2.362074e+00 7.016243e+00 -1.338472e+00 5.571625e+00 -4.076735e+00 6.433287e+00 1.089169e+02 -3.323735e+00 -8.751589e-02 -1.374146e+00 -6.236919e-01 -2.533674e-01 5.719000e-01 5.508602e-01 2.793242e-01 -3.976911e-01 3.255913e-01 4.675796e-01 9.399969e-03 1.084200e+00 1.727159e+00 -1.122891e+00 1.264640e+00 -4.936706e-01 -7.301066e-01 -7.484730e-01 -2.967853e-01 -7.293935e-01 -3.028225e-01 -3.149656e-01 -2.675283e-01 8.958226e-02 3.995223e-01
<VARIANCE> 39
 2.288742e+02 1.926755e+02 2.763369e+02 3.897946e+02 4.213320e+02 3.458504e+02 2.504375e+02 2.220517e+02 1.584831e+02 1.616165e+02 2.462867e+02 1.839582e+02 1.722487e+02 1.740834e+01 1.517926e+01 1.600895e+01 1.412111e+01 1.532444e+01 1.744282e+01 1.518902e+01 1.631277e+01 1.315438e+01 1.356717e+01 1.124435e+01 1.203241e+01 8.228498e+00 2.652161e+00 3.480704e+00 2.954868e+00 2.972239e+00 3.127084e+00 3.823427e+00 3.473917e+00 3.561490e+00 2.839109e+00 2.829273e+00 2.426033e+00 2.492044e+00 1.529457e+00
<GCONST> 1.907931e+02
<STATE> 4
<MEAN> 39
 -2.683184e+01 2.318286e+01 1.992822e+01 1.724324e+01 6.258734e+00 -5.708132e+00 -2.111418e+00 -1.553873e+00 -6.707101e+00 1.382443e+00 -7.291117e+00 5.720491e+00 1.222301e+02 8.249351e+00 -5.035432e+00 8.366869e+00 -1.520560e+00 -3.156015e+00 -3.705960e+00 -2.515818e+00 -3.041231e+00 -1.748223e+00 -1.454919e+00 -1.160887e+00 5.767440e-01 4.731061e+00 1.308529e+00 -1.741255e+00 1.439689e+00 -8.346440e-01 -1.703778e-01 -2.123338e-01 -3.936984e-01 2.233413e-01 -1.386262e-01 2.451847e-01 4.035334e-02 1.915303e-01 7.444244e-02
<VARIANCE> 39
 3.143485e+02 1.724138e+02 3.418825e+02 3.030981e+02 4.799289e+02 3.066324e+02 2.818434e+02 1.991798e+02 1.494007e+02 1.701827e+02 2.945843e+02 2.420451e+02 1.710526e+02 2.194023e+01 3.080750e+01 3.290938e+01 3.161993e+01 2.140792e+01 2.852241e+01 2.487616e+01 3.178447e+01 2.002221e+01 1.719479e+01 1.690640e+01 2.022704e+01 6.078617e+00 5.724930e+00 2.920848e+00 5.684883e+00 4.710282e+00 4.207047e+00 4.406976e+00 4.312153e+00 4.536325e+00 3.518816e+00 3.676390e+00 3.423323e+00 3.118544e+00 1.100898e+00
<GCONST> 2.004749e+02
<TRANSP> 5
 0.000000e+00 1.000000e+00 0.000000e+00 0.000000e+00 0.000000e+00
 0.000000e+00 7.264500e-01 2.735500e-01 0.000000e+00 0.000000e+00
 0.000000e+00 0.000000e+00 8.100865e-01 1.899134e-01 0.000000e+00
 0.000000e+00 0.000000e+00 0.000000e+00 7.412693e-01 2.587307e-01
 0.000000e+00 0.000000e+00 0.000000e+00 0.000000e+00 0.000000e+00
<ENDHMM>
~h "ah"
<BEGINHMM>
<NUMSTATES> 5
<STATE> 2
<MEAN> 39
 1.735096e+01 -1.971608e+01 1.771130e+01 -9.726050e+00 6.110873e+00 -9.496678e+00 -1.130061e+01 1.393019e+01 3.100399e+00 1.069246e+01 1.004262e+00 3.018187e+00 1.335048e+02 -1.971062e-01 6.353019e-01 2.674302e+00 6.583583e-01 -1.549193e+00 -2.356491e+00 2.184415e+00 1.836720e+00 -2.833603e-01 -5.169206e-01 -1.978892e+00 1.499561e+00 -2.319968e-02 6.462074e-02 1.272129e+00 5.073030e-01 1.303906e+00 1.181059e-01 1.249335e+00 1.377062e+00 -1.548018e+00 -8.699986e-01 -6.750480e-03 -2.723272e-01 2.875625e-01 -1.614264e+00
<VARIANCE> 39
 7.613467e+01 1.455378e+02 1.780909e+02 2.135685e+02 2.464239e+02 3.675600e+02 6.325917e+02 4.439385e+02 4.573771e+02 4.523430e+02 3.583279e+02 3.526898e+02 1.763389e+02 3.893273e+00 1.153431e+01 1.154406e+01 3.140867e+01 1.758020e+01 1.972766e+01 2.627873e+01 2.343077e+01 2.830284e+01 2.488811e+01 2.863290e+01 2.097096e+01 1.801842e+01 9.805232e-01 1.742068e+00 1.710359e+00 3.920497e+00 3.172823e+00 4.694540e+00 6.541288e+00 5.689412e+00 5.069966e+00 4.145068e+00 3.976810e+00 3.348974e+00 2.092734e+00
<GCONST> 1.976000e+02
<STATE> 3
<MEAN> 39
 1.766977e+01 -1.022214e+01 2.817338e+01 3.184595e+00 4.585115e+00 -1.083149e+01 4.418676e+00 1.027015e+01 -1.991988e+00 7.932774e+00 -8.490262e+00 1.048838e+01 1.231493e+02 7.970781e-01 5.215303e+00 4.539023e+00 7.232512e+00 -3.048087e+00 3.565208e+00 6.475762e+00 -7.774808e+00 -1.541680e+00 -7.183539e-01 -2.159677e+00 2.514525e+00 -6.211142e+00 6.293099e-02 1.584620e-01 -5.436052e-01 -2.077392e-01 -2.796187e-01 1.585741e+00 -1.494303e-01 -1.166255e+00 6.405584e-01 -6.811629e-02 7.736594e-01 -2.660915e-01 -1.631370e-01
<VARIANCE> 39
 5.726997e+01 1.834043e+02 2.118963e+02 3.485169e+02 2.738363e+02 4.088800e+02 6.079600e+02 5.181771e+02 4.252082e+02 5.412326e+02 3.963622e+02 4.013922e+02 1.911029e+02 5.278053e+00 8.878464e+00 1.575346e+01 2.082462e+01 2.303646e+01 4.404281e+01 4.995770e+01 3.959245e+01 3.923096e+01 3.038484e+01 3.510981e+01 2.689270e+01 4.092805e+00 5.817140e-01 1.565219e+00 2.526169e+00 4.371989e+00 2.976186e+00 4.863053e+00 5.412103e+00 7.056092e+00 4.476211e+00 3.962000e+00 3.641617e+00 3.237804e+00 1.504198e+00
<GCONST> 1.998789e+02
<STATE> 4
<MEAN> 39
 1.932072e+01 2.736026e+00 3.569699e+01 1.697468e+01 -5.151723e+00 7.765704e+00 1.628161e+01 -9.345696e+00 -1.819631e+00 5.078444e+00 -7.108791e+00 1.399513e+01 1.080312e+02 -1.663295e-01 2.249480e+00 6.091719e-01 1.802341e+00 -4.486954e-01 2.253272e+00 1.640314e+00 -1.492841e+00 1.741968e-01 -3.295849e-01 -2.982024e-01 4.086477e-02 -2.692997e+00 -4.295615e-01 -4.717245e-01 -8.301318e-01 -7.470129e-01 8.418336e-01 -6.672961e-01 -8.846461e-01 1.592643e+00 1.313796e-01 7.979838e-02 1.625457e-01 -5.551164e-01 3.525625e-01
<VARIANCE> 39
 5.038754e+01 1.914482e+02 1.386806e+02 2.603688e+02 2.554516e+02 4.021759e+02 4.879415e+02 4.092273e+02 5.173109e+02 5.704747e+02 5.347722e+02 4.866362e+02 1.823283e+02 2.676978e+00 6.663460e+00 7.999387e+00 1.052656e+01 1.147098e+01 1.863257e+01 1.961437e+01 2.460650e+01 1.493068e+01 1.282688e+01 1.491475e+01 1.301194e+01 3.946983e+00 6.030548e-01 1.363529e+00 1.712624e+00 2.847267e+00 2.343557e+00 3.576246e+00 4.420283e+00 4.245334e+00 3.683293e+00 3.033447e+00 3.539818e+00 3.132905e+00 9.890966e-01
<GCONST> 1.873705e+02
<TRANSP> 5
 0.000000e+00 1.000000e+00 0.000000e+00 0.000000e+00 0.000000e+00
 0.000000e+00 7.139478e-01 2.860522e-01 0.000000e+00 0.000000e+00
 0.000000e+00 0.000000e+00 5.602484e-01 4.397516e-01 0.000000e+00
 0.000000e+00 0.000000e+00 0.000000e+00 7.532592e-01 2.467408e-01
 0.000000e+00 0.000000e+00 0.000000e+00 0.000000e+00 0.000000e+00
<ENDHMM>
~h "ao"
<BEGINHMM>
<NUMSTATES> 5
<STATE> 2
<MEAN> 39
 3.442360e+01 1.372223e+01 1.344428e+01 -3.915562e+01 -2.030810e+01 1.444617e-01 -5.320311e-01 8.229762e+00 -1.429031e+01 5.633403e+00 -8.872416e+00 1.688031e+00 1.198355e+02 7.819972e+00 3.890583e+00 3.509807e+00 -9.281636e+00 -5.386797e+00 -1.389907e+00 -8.614656e-01 2.289892e+00 -1.624966e+00 1.292824e+00 -1.339369e+00 -9.394753e-01 3.871945e+00 -4.303569e+00 -2.140809e+00 -1.108955e+00 2.495759e+00 9.541737e-01 -2.249801e-01 -7.922411e-01 -5.296358e-01 5.048780e-01 1.485662e-01 4.293562e-01 3.810290e-02 -1.009598e+00
<VARIANCE> 39
 5.624579e+01 1.452830e+02 1.957722e+02 3.609556e+02 4.436202e+02 3.085249e+02 3.707626e+02 3.671847e+02 3.420320e+02 2.894472e+02 2.559000e+02 3.546537e+02 1.479418e+02 3.784023e+01 2.225089e+01 2.018180e+01 3.671846e+01 3.354751e+01 2.331011e+01 3.301694e+01 2.887490e+01 2.993860e+01 2.829234e+01 2.378726e+01 3.048483e+01 1.093059e+01 1.503895e+00 2.211989e+00 2.263794e+00 4.769714e+00 4.070065e+00 2.929472e+00 3.709598e+00 3.732189e+00 3.806613e+00 3.010000e+00 3.119152e+00 3.816074e+00 1.939794e+00
<GCONST> 2.002663e+02
<STATE> 3
<MEAN> 39
 3.554293e+01 1.668125e+01 1.674495e+01 -4.620314e+01 -2.704752e+01 -3.348125e+00 -3.972883e+00 1.045160e+01 -1.190527e+01 1.007435e+01 -8.976677e+00 -1.839375e-01 1.212049e+02 1.519469e-01 -3.905669e-01 -7.554774e-01 4.457996e-01 -3.432252e-01 -4.676197e-01 6.326839e-01 4.523720e-01 -5.726594e-01 -2.583191e-02 2.651877e-01 1.712334e-01 2.653723e-02 -2.766142e-01 -7.003953e-01 -7.609847e-01 7.879298e-01 7.245850e-01 1.583190e-01 3.612932e-01 -1.114304e-01 -3.906585e-01 -2.879442e-01 3.399304e-01 3.739881e-01 -3.277892e-04
<VARIANCE> 39
 5.419523e+01 1.726063e+02 2.573460e+02 3.375972e+02 5.022153e+02 3.578268e+02 5.246300e+02 3.791920e+02 3.824532e+02 3.708121e+02 3.051541e+02 3.702017e+02 1.408710e+02 9.190786e-01 7.150864e+00 6.815177e+00 5.571479e+00 6.194656e+00 7.480849e+00 1.128764e+01 9.768230e+00 1.070107e+01 9.229383e+00 9.101101e+00 8.531067e+00 2.741548e+00 7.331582e-01 8.085778e-01 9.985275e-01 2.029628e+00 1.471559e+00 1.297005e+00 1.748087e+00 1.850716e+00 1.893220e+00 1.991233e+00 2.013097e+00 1.998402e+00 6.352873e-01
<GCONST> 1.732192e+02
<STATE> 4
<MEAN> 39
 3.763083e+01 -3.153307e+00 -8.291097e+00 -3.081772e+01 -6.687961e+00 -7.530171e+00 -1.678236e+00 1.315798e+01 -2.391132e+01 5.675702e+00 2.378628e+00 1.164759e+01 1.275456e+02 1.287357e-01 -3.726582e+00 -4.337684e+00 3.845376e+00 6.336250e+00 -1.335591e+00 -2.438980e+00 -7.503780e-01 2.812420e-01 5.819460e-01 2.171165e+00 1.697294e+00 7.906149e-01 -1.622169e-01 3.173812e-01 5.883400e-01 4.849726e-01 3.166730e-01 -4.060954e-01 -9.372078e-01 -1.234680e-01 1.278093e+00 4.012712e-01 -4.251527e-01 -6.488783e-01 -4.018060e-01
<VARIANCE> 39
 6.019898e+01 2.395063e+02 3.168667e+02 3.048821e+02 6.347916e+02 4.686658e+02 8.448144e+02 6.363872e+02 4.900847e+02 7.319210e+02 4.123943e+02 3.731587e+02 1.651031e+02 1.690507e+00 7.446715e+00 1.130027e+01 1.447633e+01 1.679328e+01 2.351361e+01 2.546912e+01 2.759789e+01 3.044717e+01 3.622498e+01 2.843633e+01 3.656040e+01 2.997685e+00 2.820730e-01 9.748520e-01 1.749465e+00 1.634132e+00 3.072602e+00 3.030824e+00 3.413960e+00 4.660789e+00 3.947684e+00 5.743761e+00 4.946294e+00 5.299718e+00 3.201812e-01
<GCONST> 1.935913e+02
<TRANSP> 5
 0.000000e+00 1.000000e+00 0.000000e+00 0.000000e+00 0.000000e+00
 0.000000e+00 6.163411e-01 3.836589e-01 0.000000e+00 0.000000e+00
 0.000000e+00 0.000000e+00 8.682727e-01 1.317273e-01 0.000000e+00
 0.000000e+00 0.000000e+00 0.000000e+00 8.393115e-01 1.606885e-01
 0.000000e+00 0.000000e+00 0.000000e+00 0.000000e+00 0.000000e+00
<ENDHMM>
~h "ay"
<BEGINHMM>
<NUMSTATES> 5
<STATE> 2
<MEAN> 39
 1.773734e+01 -3.210173e+01 -3.654629e-01 -2.354195e+01 9.887142e+00 5.837446e+00 -4.724625e+00 1.422250e+01 7.592691e+00 1.153574e+01 5.588539e-01 -9.153500e-01 1.458723e+02 -4.579839e-01 -1.952685e+00 -2.363682e+00 -1.643422e-01 2.229944e+00 2.361934e+00 -8.515396e-01 -4.808470e-02 1.058259e+00 -6.947398e-01 3.040956e-01 -1.381022e+00 1.018706e+00 -1.713094e-01 1.111574e+00 9.042883e-01 1.200150e+00 -3.018821e-01 -2.342274e-01 1.309098e-01 -6.900451e-01 -4.816256e-01 -1.028259e-01 -1.461148e-01 1.611297e-01 -1.336930e+00
<VARIANCE> 39
 8.014791e+01 1.587112e+02 2.890367e+02 3.685719e+02 4.286895e+02 3.724910e+02 4.358960e+02 4.436336e+02 4.026686e+02 4.305689e+02 4.558395e+02 3.675421e+02 1.173235e+02 2.602838e+00 5.490547e+00 8.779747e+00 1.030061e+01 1.123440e+01 1.177850e+01 1.699345e+01 1.268918e+01 1.437886e+01 1.371614e+01 1.550460e+01 1.371883e+01 2.832345e+00 1.162299e+00 1.132542e+00 1.213290e+00 2.524955e+00 2.094872e+00 2.498318e+00 3.551096e+00 3.663936e+00 2.945129e+00 2.523603e+00 2.667878e+00 1.987719e+00 1.248854e+00
<GCONST> 1.843350e+02
<STATE> 3
<MEAN> 39
 1.638399e+01 -3.573944e+01 -2.817894e+00 -2.169861e+01 1.377709e+01 1.020350e+01 -7.046534e+00 1.297928e+01 9.131289e+00 1.032497e+01 -7.456557e-01 -4.457774e+00 1.458140e+02 -2.029634e-01 -3.090609e-01 5.830975e-01 9.369807e-01 -2.227834e-01 -9.168989e-01 -9.602071e-02 6.799655e-01 3.515522e-01 -4.361933e-01 -4.441395e-01 3.101449e-02 -1.574916e-01 -1.506506e-02 1.378052e-01 3.549191e-01 1.090384e-01 -4.097911e-01 -4.513453e-01 2.019305e-01 1.825195e-01 -6.176602e-02 -5.082421e-02 -5.351468e-02 2.330929e-01 -6.595434e-02
<VARIANCE> 39
 7.322756e+01 1.639828e+02 2.254927e+02 3.781702e+02 4.765073e+02 3.495060e+02 3.663903e+02 4.292442e+02 3.657892e+02 3.580435e+02 4.119360e+02 3.909133e+02 1.472617e+02 7.834613e-01 1.545465e+00 2.595269e+00 3.344726e+00 4.361120e+00 5.860696e+00 5.211853e+00 4.516774e+00 4.524133e+00 4.698475e+00 4.979321e+00 4.899809e+00 6.977618e-01 1.263280e-01 2.370537e-01 3.377310e-01 4.320748e-01 5.594602e-01 6.246472e-01 7.961400e-01 6.738574e-01 7.222492e-01 7.474120e-01 7.537645e-01 7.418619e-01 9.419287e-02
<GCONST> 1.491533e+02
<STATE> 4
<MEAN> 39
 1.271558e+01 -3.285814e+01 1.552712e+01 -1.258878e+01 -9.376053e-01 -7.097068e+00 1.473364e+00 2.327215e+01 7.021331e+00 3.376671e+00 -2.392946e+00 3.854001e+00 1.421391e+02 -5.803455e-01 2.167160e+00 4.246085e+00 1.272162e-01 -3.711500e+00 -2.342581e+00 2.380645e+00 -1.128835e-01 -1.870592e+00 3.950274e-01 7.304336e-01 1.426581e+00 -1.224274e+00 1.969136e-01 6.851366e-01 1.497427e-01 -1.490706e-02 2.703941e-01 3.761186e-01 -1.207150e-01 -9.284543e-01 -3.606015e-01 5.015782e-01 9.376341e-02 -1.319163e-01 -5.475078e-01
<VARIANCE> 39
 7.547423e+01 1.919728e+02 3.756354e+02 2.583993e+02 4.324556e+02 2.699440e+02 5.303172e+02 3.254450e+02 3.793350e+02 3.606056e+02 3.326201e+02 3.401734e+02 1.912519e+02 1.662496e+00 4.711824e+00 6.177191e+00 1.009100e+01 1.146336e+01 1.462014e+01 1.795058e+01 1.668141e+01 1.472534e+01 1.420259e+01 1.233680e+01 1.278360e+01 1.836644e+00 2.867842e-01 5.509541e-01 1.055269e+00 1.529368e+00 1.951885e+00 1.548356e+00 2.384426e+00 2.054529e+00 2.180242e+00 2.006310e+00 2.060980e+00 1.969717e+00 3.368293e-01
<GCONST> 1.763273e+02
<TRANSP> 5
 0.000000e+00 1.000000e+00 0.000000e+00 0.000000e+00 0.000000e+00
 0.000000e+00 7.035592e-01 2.964408e-01 0.000000e+00 0.000000e+00
 0.000000e+00 0.000000e+00 8.987014e-01 1.012986e-01 0.000000e+00
 0.000000e+00 0.000000e+00 0.000000e+00 8.042682e-01 1.957318e-01
 0.000000e+00 0.000000e+00 0.000000e+00 0.000000e+00 0.000000e+00
<ENDHMM>
~h "eh"
<BEGINHMM>
<NUMSTATES> 5
<STATE> 2
<MEAN> 39
 -5.082333e+01 6.704051e+00 -1.291290e+01 -1.296368e+00 -7.338413e+00 -7.197103e+00 -3.518354e+00 1.936373e+00 -5.648605e+00 1.684800e+00 -4.835494e+00 7.390475e+00 1.113981e+02 9.056029e+00 -5.116321e-01 6.184803e+00 5.415215e-01 -2.340811e-01 -2.004776e+00 -6.526423e-01 -5.933498e-01 1.552409e+00 2.818421e-01 -7.338599e-01 1.157353e+00 2.263021e+00 4.404156e+00 -1.013910e+00 2.485697e+00 -1.593664e-01 1.823862e-01 -1.099531e+00 -9.112133e-01 -2.585030e-01 8.230453e-01 6.781387e-01 -1.196224e-01 3.209492e-01 1.782153e+00
<VARIANCE> 39
 1.305886e+02 1.070889e+02 1.309531e+02 2.075080e+02 2.604310e+02 2.751150e+02 1.402946e+02 1.413074e+02 1.544324e+02 1.272842e+02 1.718345e+02 1.248612e+02 1.171907e+02 3.295704e+01 1.259310e+01 1.791876e+01 1.295102e+01 1.104314e+01 1.543545e+01 1.406418e+01 1.284169e+01 1.420528e+01 1.891344e+01 1.498266e+01 1.558405e+01 9.972512e+00 1.653805e+00 2.063476e+00 2.156104e+00 2.632960e+00 2.766868e+00 4.547282e+00 5.058990e+00 2.834168e+00 4.531585e+00 4.291371e+00 3.252955e+00 3.908448e+00 1.345291e+00
<GCONST> 1.862536e+02
<STATE> 3
<MEAN> 39
 -1.577177e+01 8.290043e+00 1.054736e+01 5.742733e+00 -4.542098e+00 -1.201255e+01 -6.477108e+00 -6.476283e-01 -3.560642e-02 4.818694e+00 -8.017189e+00 9.205808e+00 1.162458e+02 1.766127e+01 -5.046574e+00 9.765599e+00 -1.760010e+00 -2.227962e-01 -4.561822e+00 -3.942761e+00 -1.114542e+00 3.073558e+00 2.690420e+00 -3.281443e-01 1.362440e+00 8.458222e+00 -9.180387e-01 -2.123420e+00 -1.251746e+00 -2.036710e+00 -5.409067e-01 -3.272027e-01 -1.492285e-01 8.798240e-01 5.193133e-01 6.648934e-01 6.706818e-01 -2.301131e-01 1.767351e+00
<VARIANCE> 39
 4.347546e+02 1.036118e+02 1.732174e+02 1.682409e+02 2.993936e+02 2.109107e+02 1.787261e+02 1.722702e+02 1.762928e+02 2.310931e+02 2.347524e+02 2.273162e+02 1.712653e+02 1.225716e+01 1.755161e+01 1.919597e+01 2.648093e+01 2.348739e+01 4.637828e+01 5.813300e+01 2.194642e+01 4.374370e+01 4.236259e+01 2.741324e+01 4.197311e+01 9.456788e+00 6.363129e+00 2.073944e+00 3.513839e+00 2.085098e+00 2.845707e+00 3.347553e+00 6.110983e+00 2.708666e+00 3.659986e+00 3.265406e+00 3.096985e+00 3.013793e+00 1.741271e+00
<GCONST> 1.981713e+02
<STATE> 4
<MEAN> 39
 1.244007e+01 -1.517064e+01 2.320754e+01 -1.096871e+01 -9.370440e+00 -2.516668e+01 -1.752249e+01 -4.605307e-02 7.345575e+00 1.267217e+01 -5.422756e+00 1.273399e+01 1.442972e+02 5.281112e+00 -7.240289e+00 1.406323e+00 -5.898042e+00 -1.794647e+00 -2.405551e+00 -2.577276e-03 3.022395e+00 3.668820e+00 2.630455e+00 1.611794e+00 2.265229e-02 7.217340e+00 -4.421849e+00 6.620511e-01 -2.864234e+00 5.588785e-03 9.099672e-02 1.583499e+00 1.806073e+00 1.015499e+00 -4.083994e-01 -4.386901e-01 2.121635e-01 -8.612432e-01 -1.943340e+00
<VARIANCE> 39
 5.323773e+01 1.414664e+02 1.778670e+02 2.347239e+02 3.063675e+02 2.505687e+02 6.976663e+02 2.774363e+02 3.495949e+02 4.778228e+02 4.018509e+02 5.299562e+02 1.209501e+02 3.511273e+01 1.095441e+01 2.224717e+01 1.729514e+01 1.940903e+01 2.574958e+01 6.131437e+01 1.719883e+01 2.443818e+01 2.167874e+01 1.976931e+01 2.025178e+01 1.242439e+01 1.709197e+00 2.474246e+00 2.297098e+00 3.244031e+00 2.712882e+00 4.793149e+00 5.141840e+00 2.833959e+00 4.986318e+00 3.996150e+00 3.626428e+00 4.862045e+00 1.139307e+00
<GCONST> 1.983070e+02
<TRANSP> 5
 0.000000e+00 1.000000e+00 0.000000e+00 0.000000e+00 0.000000e+00
 0.000000e+00 5.708883e-01 4.291118e-01 0.000000e+00 0.000000e+00
 0.000000e+00 0.000000e+00 4.160142e-01 5.839859e-01 0.000000e+00
 0.000000e+00 0.000000e+00 0.000000e+00 6.105083e-01 3.894917e-01
 0.000000e+00 0.000000e+00 0.000000e+00 0.000000e+00 0.000000e+00
<ENDHMM>
~h "ey"
<BEGINHMM>
<NUMSTATES> 5
<STATE> 2
<MEAN> 39
 -8.123734e+00 -7.361517e+00 1.854582e+01 -1.018212e+01 -1.619942e+01 -1.716099e+01 -4.781830e+00 -2.774754e+00 -2.190103e+00 8.966467e+00 -1.464372e+00 6.767930e+00 9.529381e+01 1.735252e+00 -2.481267e+00 4.097379e+00 -2.276147e+00 -2.391863e+00 -1.413531e+00 1.180658e+00 1.181233e+00 8.470168e-01 1.057654e+00 3.254966e-01 5.346317e-01 7.206378e+00 2.591254e-01 5.466808e-02 3.587942e-01 -1.208103e-01 1.740834e-01 4.023562e-01 1.845001e-01 7.461842e-02 -1.898928e-01 2.006605e-03 1.107364e-01 6.088841e-02 8.601171e-01
<VARIANCE> 39
 3.600208e+02 2.537357e+02 5.065128e+02 4.508793e+02 3.524590e+02 4.011051e+02 5.364459e+02 4.902634e+02 4.706873e+02 3.719096e+02 2.987595e+02 2.892445e+02 1.249364e+03 3.630163e+01 2.097537e+01 4.316390e+01 3.853633e+01 3.223454e+01 3.870825e+01 4.961219e+01 4.215921e+01 4.183431e+01 3.379201e+01 3.010158e+01 2.817657e+01 1.370452e+02 5.008079e+00 4.041744e+00 6.295963e+00 5.922139e+00 6.062434e+00 6.836360e+00 8.657651e+00 7.821466e+00 7.335648e+00 6.238216e+00 5.762355e+00 5.398131e+00 1.944414e+01
<GCONST> 2.228859e+02
<STATE> 3
<MEAN> 39
 2.324470e+00 -1.320378e+01 5.362256e+01 -2.266442e+01 -2.161277e+01 -1.439428e+01 -7.116648e-01 -2.689869e+00 -6.556897e+00 1.101908e+01 -1.192734e+00 9.258790e+00 1.410395e+02 -4.151767e-01 1.460459e+00 2.607431e+00 1.611991e-01 7.396017e-01 1.266227e+00 -7.183030e-01 -1.791004e+00 -1.138338e+00 -6.921214e-01 -7.427732e-01 -2.429727e-01 -1.402263e-01 -1.865034e-01 3.219679e-01 -1.637511e-01 4.108924e-01 3.747167e-01 1.721752e-01 -2.525914e-02 -1.753512e-01 -5.950915e-02 -1.819388e-01 -2.540013e-01 -1.273837e-01 -9.684195e-01
<VARIANCE> 39
 6.774751e+01 2.292198e+02 4.068317e+02 4.374402e+02 2.212509e+02 3.071544e+02 5.227128e+02 4.082442e+02 6.646939e+02 2.901511e+02 2.113365e+02 2.104655e+02 1.493718e+02 2.994292e+00 5.314727e+00 6.024517e+00 5.594686e+00 8.410904e+00 8.364803e+00 1.126082e+01 1.037010e+01 1.059254e+01 9.663602e+00 8.591425e+00 9.759699e+00 9.696761e+00 6.533927e-01 8.089565e-01 1.086310e+00 1.125908e+00 1.149914e+00 1.371005e+00 1.699308e+00 1.589737e+00 1.575172e+00 1.480705e+00 1.289695e+00 1.290370e+00 1.918683e+00
<GCONST> 1.743422e+02
<STATE> 4
<MEAN> 39
 -3.581785e+00 7.117670e+00 7.146352e+01 -8.913628e+00 -7.435267e+00 -1.868887e-01 -3.801198e+00 -2.031199e+01 -1.452784e+01 6.682600e-01 -1.357936e+01 5.300849e+00 1.175618e+02 -3.146979e-01 2.681184e+00 -3.563546e+00 5.680569e+00 1.667678e+00 1.233676e+00 1.290535e+00 9.508128e-01 2.469660e-01 -9.512991e-01 -1.765173e-01 -1.050421e+00 -8.496420e+00 -2.356027e-01 1.487967e-02 -2.691111e+00 6.306457e-01 6.049795e-02 -2.880081e-01 5.129948e-02 1.071912e+00 7.181200e-01 1.910014e-01 8.860115e-01 1.552980e-02 -1.562823e+00
<VARIANCE> 39
 7.197263e+01 2.421078e+02 2.142565e+02 5.444655e+02 2.745234e+02 3.231523e+02 3.160930e+02 5.793278e+02 6.651881e+02 3.869522e+02 3.353962e+02 4.443002e+02 3.495932e+02 6.847411e+00 1.309202e+01 4.778223e+01 2.512593e+01 1.992453e+01 1.836561e+01 2.275978e+01 2.959851e+01 3.269651e+01 2.198598e+01 2.254529e+01 2.280340e+01 2.945657e+01 1.542945e+00 2.330206e+00 4.256232e+00 4.943168e+00 3.450181e+00 3.270705e+00 3.894222e+00 4.928402e+00 4.959433e+00 3.925200e+00 3.776015e+00 4.080883e+00 3.178362e+00
<GCONST> 2.036165e+02
<TRANSP> 5
 0.000000e+00 1.000000e+00 0.000000e+00 0.000000e+00 0.000000e+00
 0.000000e+00 8.223971e-01 1.776029e-01 0.000000e+00 0.000000e+00
 0.000000e+00 0.000000e+00 9.137679e-01 8.623204e-02 0.000000e+00
 0.000000e+00 0.000000e+00 0.000000e+00 8.151708e-01 1.848291e-01
 0.000000e+00 0.000000e+00 0.000000e+00 0.000000e+00 0.000000e+00
<ENDHMM>
~h "hh"
<BEGINHMM>
<NUMSTATES> 5
<STATE> 2
<MEAN> 39
 -3.894225e+00 2.512831e+00 3.189977e+00 -2.442435e+00 1.446279e+00 4.547298e+00 1.163962e+00 6.258771e-01 -5.404834e+00 4.365974e+00 -2.330967e+00 2.651671e+00 8.089867e+01 3.121990e+00 2.700968e+00 1.251613e+00 1.239728e-01 -6.114038e-01 1.320247e+00 1.659090e+00 6.134049e-01 3.057303e-01 5.795128e-01 1.028472e-01 -3.412059e-01 -6.710401e-01 8.094144e-01 5.575604e-01 7.239759e-01 -1.356497e-01 -6.648652e-01 -4.896762e-01 -1.415935e-02 1.146622e-01 7.666527e-02 2.446093e-01 -6.707852e-02 -2.947690e-02 6.938993e-01
<VARIANCE> 39
 6.112024e+02 2.904362e+02 2.270409e+02 2.543863e+02 2.896105e+02 3.022401e+02 3.389247e+02 2.915400e+02 3.212296e+02 2.395215e+02 2.091427e+02 2.059084e+02 6.540342e+02 2.978257e+01 2.710043e+01 2.482747e+01 2.605791e+01 2.742763e+01 3.229815e+01 2.901682e+01 2.755053e+01 2.474790e+01 2.143576e+01 1.960014e+01 1.653266e+01 2.368962e+01 4.268673e+00 4.531211e+00 3.725981e+00 4.825497e+00 5.486789e+00 6.052321e+00 5.861154e+00 5.344815e+00 5.078827e+00 4.537905e+00 3.960543e+00 3.403993e+00 4.364655e+00
<GCONST> 2.078802e+02
<STATE> 3
<MEAN> 39
 2.048047e+01 2.330233e+01 1.734446e+01 7.788668e-01 -2.945246e+00 7.683812e+00 8.987226e+00 3.650588e+00 -3.399635e+00 7.706377e+00 -3.457707e+00 1.603708e+00 8.760115e+01 6.563819e+00 2.385124e+00 2.505042e+00 -3.059526e+00 -3.786249e+00 -1.895388e+00 -6.314190e-01 3.129610e-02 -1.400282e-01 1.607752e+00 -2.270574e-01 -4.818375e-01 5.295065e+00 -5.808036e-01 -1.605765e+00 -5.238823e-01 -1.607646e+00 -5.638849e-01 -9.255704e-01 -1.066697e+00 -2.852615e-01 -3.186082e-01 1.813486e-01 1.856056e-01 2.144915e-01 9.648519e-01
<VARIANCE> 39
 2.445931e+02 2.059140e+02 1.292296e+02 2.988531e+02 2.575604e+02 2.394001e+02 2.367310e+02 2.250062e+02 3.172209e+02 2.111836e+02 1.882184e+02 1.969971e+02 3.833031e+02 3.857623e+01 2.082307e+01 1.786906e+01 3.150503e+01 2.242756e+01 2.049332e+01 2.398481e+01 2.391753e+01 2.758374e+01 2.028847e+01 1.836807e+01 1.860969e+01 3.908361e+01 4.220031e+00 3.431118e+00 2.803359e+00 5.441118e+00 3.823247e+00 3.605135e+00 3.991995e+00 3.946893e+00 3.852698e+00 3.351769e+00 3.051245e+00 2.949530e+00 2.941742e+00
<GCONST> 2.005045e+02
<STATE> 4
<MEAN> 39
 3.261945e+01 2.062390e+01 2.240596e+01 -1.399863e+01 -1.709063e+01 -3.929418e-01 -3.207439e-01 1.616805e+00 -7.478788e+00 1.239755e+01 -2.658283e+00 7.238166e-01 1.057813e+02 1.075530e+00 -1.206752e+00 3.637519e-01 -4.378767e+00 -2.388047e+00 -1.838156e+00 -1.793744e+00 1.094232e+00 2.668720e-01 1.196301e+00 1.104936e+00 2.841777e-01 3.342882e+00 -8.400494e-01 -9.711677e-01 -8.881773e-01 -6.957819e-01 7.998664e-01 6.188345e-01 4.498495e-01 9.359280e-01 1.674731e-01 -3.653716e-01 2.144220e-01 4.022867e-02 1.551512e-01
<VARIANCE> 39
 5.018178e+01 2.134039e+02 1.917390e+02 2.437367e+02 2.878878e+02 2.911688e+02 3.792362e+02 3.100067e+02 4.047331e+02 3.202464e+02 2.787475e+02 2.976529e+02 1.460172e+02 6.227434e+00 1.304896e+01 1.066641e+01 2.657991e+01 1.561631e+01 1.539748e+01 2.051013e+01 1.959012e+01 1.811222e+01 1.707566e+01 1.574723e+01 1.447926e+01 1.365126e+01 2.112919e+00 2.305412e+00 2.016356e+00 2.898862e+00 3.220647e+00 3.226802e+00 3.509203e+00 3.943284e+00 3.617351e+00 3.201931e+00 3.006923e+00 3.027986e+00 1.938376e+00
<GCONST> 1.917402e+02
<TRANSP> 5
 0.000000e+00 1.000000e+00 0.000000e+00 0.000000e+00 0.000000e+00
 0.000000e+00 6.535657e-01 3.464343e-01 0.000000e+00 0.000000e+00
 0.000000e+00 0.000000e+00 5.406786e-01 4.593214e-01 0.000000e+00
 0.000000e+00 0.000000e+00 0.000000e+00 7.327693e-01 2.672307e-01
 0.000000e+00 0.000000e+00 0.000000e+00 0.000000e+00 0.000000e+00
<ENDHMM>
~h "ih"
<BEGINHMM>
<NUMSTATES> 5
<STATE> 2
<MEAN> 39
 -4.205122e+01 9.729616e+00 -2.722511e+00 2.815496e+00 -7.269908e+00 -8.006299e+00 -2.082325e+00 1.561003e+00 -5.125926e+00 1.714872e+00 -4.961828e+00 7.882634e+00 1.134244e+02 1.261069e+01 -1.075280e+00 1.052840e+01 1.848664e+00 2.655193e-01 -2.928106e+00 -1.818763e+00 -1.514328e+00 3.917399e-01 2.672708e-01 -9.711586e-01 8.436750e-01 4.293247e+00 2.661254e+00 -1.589856e+00 2.138349e+00 -3.183047e-01 -1.271024e-01 -1.249376e+00 -1.042055e+00 -4.383252e-01 -3.044797e-01 3.164597e-01 -5.699202e-02 1.603845e-01 1.709003e+00
<VARIANCE> 39
 2.845542e+02 1.119042e+02 2.630488e+02 2.234553e+02 2.937843e+02 2.832487e+02 1.531642e+02 1.444981e+02 1.664829e+02 1.517785e+02 2.111683e+02 1.582389e+02 1.190557e+02 3.056852e+01 1.977051e+01 2.466297e+01 1.819062e+01 1.518146e+01 2.710648e+01 2.988289e+01 1.682673e+01 1.942931e+01 2.003974e+01 1.727123e+01 2.598268e+01 1.411647e+01 5.805910e+00 2.378150e+00 4.855940e+00 3.712789e+00 3.200840e+00 4.464600e+00 5.692214e+00 3.637859e+00 4.857445e+00 3.520944e+00 3.204630e+00 4.068983e+00 1.132643e+00
<GCONST> 1.959028e+02
<STATE> 3
<MEAN> 39
 6.066999e+00 -9.770700e+00 3.684581e+01 -4.988213e+00 -1.420607e+01 -2.638155e+01 -9.284166e+00 -6.248573e+00 -3.153326e+00 6.253664e+00 -3.655791e+00 1.374288e+01 1.392744e+02 3.640462e+00 -3.705929e+00 4.138264e+00 -1.892861e+00 -1.738409e+00 -2.793689e+00 8.828554e-02 -4.123670e-01 -6.975917e-01 1.119302e+00 4.983004e-01 3.471956e-01 2.960075e+00 -2.249530e+00 5.387982e-01 -1.481592e+00 3.241400e-01 -1.179279e-01 5.707591e-01 9.678472e-01 2.984137e-01 -5.450056e-01 -6.020117e-02 1.929529e-01 -3.388164e-01 -1.454882e+00
<VARIANCE> 39
 7.400137e+01 1.954197e+02 1.890356e+02 2.860758e+02 3.366386e+02 2.408103e+02 6.548048e+02 2.802237e+02 2.795858e+02 2.400062e+02 3.366478e+02 4.348721e+02 1.550537e+02 3.966320e+01 1.629261e+01 2.962642e+01 2.023184e+01 1.315320e+01 2.503994e+01 4.032305e+01 2.244660e+01 2.538038e+01 1.666922e+01 1.654932e+01 2.000777e+01 1.867052e+01 5.241333e+00 2.215338e+00 3.300124e+00 3.151846e+00 2.004901e+00 3.607630e+00 3.967614e+00 2.691387e+00 2.568231e+00 2.871382e+00 2.984236e+00 3.860430e+00 1.584641e+00
<GCONST> 1.979220e+02
<STATE> 4
<MEAN> 39
 5.176406e+00 -1.545754e+01 4.554306e+01 3.635376e+00 -1.711042e+01 -3.296586e+01 -1.959922e+00 -2.951062e+00 -1.944579e+01 8.271032e+00 -3.237696e+00 8.461642e+00 1.334356e+02 -1.067894e+00 3.443676e+00 -1.668802e-01 5.834027e+00 1.484671e+00 1.027219e+00 3.389386e+00 3.300845e-01 -3.091119e+00 -1.136755e+00 6.871872e-01 -1.456424e+00 -9.174337e+00 -1.268599e+00 1.887382e+00 -2.250044e+00 8.605372e-01 1.348090e+00 1.723120e+00 -6.551418e-01 1.869945e-01 1.004189e+00 -7.733341e-01 8.079043e-03 -2.403389e-01 -3.721295e+00
<VARIANCE> 39
 7.434237e+01 1.794258e+02 2.415130e+02 3.980923e+02 3.475324e+02 3.678522e+02 9.747598e+02 9.608531e+02 6.754169e+02 3.579804e+02 2.593250e+02 2.869429e+02 2.772730e+02 7.650283e+00 2.091154e+01 1.869469e+01 2.183074e+01 2.104571e+01 2.902968e+01 3.699937e+01 4.067701e+01 3.340040e+01 2.479612e+01 2.369760e+01 2.304319e+01 5.047344e+01 2.183166e+00 3.299968e+00 3.932051e+00 6.424460e+00 3.617762e+00 5.432334e+00 1.060622e+01 1.088930e+01 9.306786e+00 5.320864e+00 4.204280e+00 3.734897e+00 3.752213e+00
<GCONST> 2.100675e+02
<TRANSP> 5
 0.000000e+00 1.000000e+00 0.000000e+00 0.000000e+00 0.000000e+00
 0.000000e+00 6.701708e-01 3.298292e-01 0.000000e+00 0.000000e+00
 0.000000e+00 0.000000e+00 8.160938e-01 1.839062e-01 0.000000e+00
 0.000000e+00 0.000000e+00 0.000000e+00 7.597722e-01 2.402278e-01
 0.000000e+00 0.000000e+00 0.000000e+00 0.000000e+00 0.000000e+00
<ENDHMM>
~h "iy"
<BEGINHMM>
<NUMSTATES> 5
<STATE> 2
<MEAN> 39
 3.070451e+00 -7.203109e+00 6.035270e+01 -3.979432e+00 -7.930534e+00 -2.116906e+01 3.812000e+00 -1.462351e+01 -1.488441e+01 8.653337e+00 -8.142302e+00 1.255672e+01 1.353189e+02 8.202872e-01 -1.872224e+00 4.978207e+00 -4.303665e+00 -7.128864e-01 1.472649e+00 -5.329561e-01 -1.562325e+00 7.648679e-02 1.143454e+00 -1.091450e+00 2.381344e-01 7.283362e-01 -3.728207e-01 6.440905e-01 -2.458292e+00 1.453980e+00 9.089867e-01 -1.700277e-01 -3.268822e-01 1.463020e+00 2.118844e-01 -4.383121e-01 5.665475e-01 -2.588008e-01 -8.900933e-01
<VARIANCE> 39
 7.580322e+01 1.935111e+02 2.220299e+02 3.115667e+02 2.165109e+02 2.993337e+02 6.205303e+02 5.016520e+02 3.477584e+02 3.572625e+02 2.372133e+02 3.395453e+02 1.043424e+02 2.274664e+01 4.057750e+01 1.841666e+01 2.645956e+01 2.023229e+01 4.501912e+01 2.661425e+01 3.204089e+01 2.710443e+01 2.111003e+01 1.760048e+01 1.381328e+01 5.182333e+00 2.693420e+00 1.825584e+00 2.625343e+00 3.670860e+00 3.654115e+00 3.397446e+00 4.202347e+00 3.344291e+00 3.520599e+00 3.135735e+00 2.343212e+00 2.725118e+00 4.639384e-01
<GCONST> 1.963922e+02
<STATE> 3
<MEAN> 39
 5.684581e+00 -1.428394e+01 6.694508e+01 3.835745e+00 -9.783501e+00 -1.576033e+01 -7.087936e+00 3.860149e+00 -2.784259e+01 2.597425e+00 -4.301043e+00 1.662860e+00 1.339388e+02 1.349928e+00 -8.590579e-03 -3.069812e+00 1.912740e+00 1.303883e+00 -1.476604e+00 1.133865e-01 1.267954e+00 5.786106e-01 -2.679019e-01 7.600726e-01 -2.184331e-01 -1.592438e+00 1.716944e-01 4.668801e-01 -2.141962e+00 4.755206e-01 1.163682e+00 -3.612946e-01 -5.132074e-01 -3.488411e-02 1.050063e+00 -2.276589e-01 -8.644060e-02 2.581482e-01 -5.080288e-01
<VARIANCE> 39
 1.087861e+02 2.026442e+02 3.153022e+02 3.578245e+02 2.257283e+02 5.421108e+02 7.078912e+02 5.815637e+02 3.783967e+02 4.841159e+02 2.535026e+02 3.100483e+02 1.606859e+02 1.109893e+01 1.508201e+01 2.512230e+01 1.595736e+01 1.536268e+01 2.809463e+01 2.291721e+01 2.206284e+01 1.742854e+01 1.489279e+01 1.274337e+01 1.141500e+01 3.894863e+00 1.158034e+00 1.598915e+00 2.396749e+00 2.880480e+00 2.878359e+00 3.377426e+00 3.417237e+00 3.381891e+00 2.887527e+00 2.514853e+00 2.126249e+00 1.875888e+00 4.697530e-01
<GCONST> 1.916104e+02
<STATE> 4
<MEAN> 39
 -1.539088e+00 6.211896e+00 4.963243e+01 -5.671683e+00 -1.979315e+00 -4.589442e-01 3.500157e+00 -1.004305e+01 -3.237457e+00 3.406362e+00 -9.067039e+00 9.384476e+00 1.081480e+02 -2.616363e-01 1.795535e-01 -5.123128e+00 1.050479e+00 1.434536e+00 8.786677e-01 -1.006867e+00 8.952240e-01 1.778339e+00 -5.279999e-01 3.223241e-01 -2.585063e-01 -3.052788e+00 -1.136469e-01 -1.910765e-01 -4.267512e-01 -1.971136e-01 -1.531529e-01 3.400106e-02 -1.131605e-01 -6.227611e-02 -2.611308e-01 2.674724e-01 1.377405e-01 -1.588443e-01 -2.152117e-02
<VARIANCE> 39
 2.172773e+02 3.856401e+02 4.819498e+02 5.402297e+02 2.860179e+02 8.307938e+02 4.996812e+02 5.450474e+02 4.045568e+02 3.577002e+02 2.670220e+02 2.841126e+02 5.601255e+02 1.387111e+01 1.703626e+01 2.950951e+01 2.124882e+01 2.442949e+01 3.096070e+01 2.625377e+01 2.588326e+01 2.523129e+01 1.998419e+01 1.583025e+01 1.639672e+01 7.314861e+00 1.294205e+00 2.512445e+00 2.957136e+00 4.333024e+00 2.916687e+00 5.196314e+00 3.609926e+00 4.293995e+00 3.748256e+00 3.294956e+00 2.784329e+00 2.576794e+00 9.696887e-01
<GCONST> 2.022942e+02
<TRANSP> 5
 0.000000e+00 1.000000e+00 0.000000e+00 0.000000e+00 0.000000e+00
 0.000000e+00 6.523762e-01 3.476238e-01 0.000000e+00 0.000000e+00
 0.000000e+00 0.000000e+00 7.245729e-01 2.754271e-01 0.000000e+00
 0.000000e+00 0.000000e+00 0.000000e+00 7.645391e-01 2.354609e-01
 0.000000e+00 0.000000e+00 0.000000e+00 0.000000e+00 0.000000e+00
<ENDHMM>
~h "ow"
<BEGINHMM>
<NUMSTATES> 5
<STATE> 2
<MEAN> 39
 9.377488e-01 -8.768855e+00 -1.690595e+00 -1.456320e+01 -4.042417e+00 -8.803418e+00 -7.392481e+00 -2.422153e+00 -5.337526e-01 1.172001e+01 4.083856e-01 2.868892e+00 9.606128e+01 2.326854e+00 -1.698640e+00 -5.385529e-01 -2.913594e+00 6.166254e-01 1.323994e+00 1.316166e+00 6.339769e-02 1.139229e+00 2.085783e+00 -1.495595e-01 -8.917844e-01 4.995185e+00 3.524992e-01 -1.408058e-02 3.716329e-01 -1.433708e-01 2.800424e-01 3.145658e-01 1.636154e-02 5.182629e-02 -7.618824e-02 2.592708e-02 -7.538200e-02 2.029848e-01 9.229864e-01
<VARIANCE> 39
 5.562841e+02 3.068297e+02 2.674221e+02 4.010486e+02 3.924609e+02 5.360898e+02 4.810819e+02 5.009756e+02 5.715413e+02 5.368969e+02 4.956464e+02 3.367179e+02 1.157611e+03 4.942902e+01 2.264700e+01 2.497211e+01 3.584980e+01 3.416300e+01 3.361137e+01 3.653320e+01 3.865155e+01 4.395575e+01 3.956586e+01 4.021572e+01 3.109924e+01 1.262635e+02 6.250680e+00 3.946666e+00 3.521385e+00 5.239871e+00 5.580886e+00 5.551250e+00 6.602773e+00 6.868342e+00 7.151338e+00 7.050063e+00 7.017343e+00 5.675100e+00 1.506022e+01
<GCONST> 2.229031e+02
<STATE> 3
<MEAN> 39
 2.089695e+01 -2.419298e+01 2.245292e+00 -2.960568e+01 6.933276e+00 -1.156437e+01 -1.352615e+00 -6.405196e-01 5.301421e+00 2.829601e+01 -1.119831e+00 1.081964e+00 1.405099e+02 4.922411e-01 1.194613e+00 4.128959e-01 -1.787937e+00 -2.010652e-01 2.420139e+00 -3.109742e-01 -1.678484e+00 -5.797557e-01 6.147549e-01 4.338260e-01 9.944977e-01 5.749879e-01 -2.353798e-01 6.280595e-01 1.270439e-02 6.250036e-01 -8.379298e-02 -3.137212e-02 -1.989171e-01 -1.990334e-02 -3.009457e-01 -7.772347e-01 -9.533282e-02 4.201522e-01 -1.119498e+00
<VARIANCE> 39
 9.052232e+01 1.553862e+02 2.172807e+02 2.822657e+02 2.945067e+02 5.303080e+02 5.287296e+02 3.880734e+02 7.731116e+02 4.353161e+02 5.136802e+02 2.448411e+02 1.803922e+02 4.170191e+00 6.782140e+00 5.572074e+00 8.492130e+00 7.943712e+00 1.173548e+01 1.186546e+01 1.225847e+01 1.559048e+01 1.395014e+01 1.365780e+01 1.243599e+01 1.157698e+01 1.147069e+00 7.893240e-01 8.987508e-01 1.500517e+00 1.388659e+00 1.514913e+00 1.947336e+00 1.985912e+00 2.089342e+00 2.167701e+00 2.288307e+00 1.761778e+00 2.505753e+00
<GCONST> 1.819063e+02
<STATE> 4
<MEAN> 39
 2.554123e+01 2.160745e-01 6.727098e+00 -3.074759e+01 -4.885693e+00 9.260423e+00 -1.455670e+00 -1.480627e+00 -1.011187e+01 1.059479e+01 -5.424820e-01 7.889003e+00 1.219285e+02 -7.189526e-01 1.456596e+00 4.446882e-01 1.562836e+00 2.181002e-01 5.084420e-01 5.241855e-01 2.085661e-01 -8.557775e-03 -1.152817e+00 -8.525329e-01 -1.759543e-01 -2.422078e+00 -3.725799e-01 -2.110897e-01 -8.180822e-02 4.295987e-01 1.336949e-01 -2.272652e-01 -8.660077e-02 7.270753e-02 2.256493e-01 7.213619e-02 3.938603e-02 -1.479218e-01 -1.756442e-01
<VARIANCE> 39
 1.163605e+02 3.177262e+02 2.640312e+02 5.388892e+02 5.777991e+02 4.340574e+02 4.754198e+02 4.168033e+02 7.677609e+02 4.230298e+02 4.249604e+02 3.531614e+02 4.866357e+02 7.133077e+00 1.031936e+01 8.246493e+00 1.735011e+01 1.255441e+01 1.382586e+01 1.469953e+01 1.619888e+01 1.872180e+01 1.672385e+01 1.661823e+01 1.437318e+01 5.252157e+00 1.031290e+00 1.424584e+00 1.225401e+00 2.339779e+00 1.874249e+00 2.230599e+00 2.321130e+00 2.627069e+00 2.856197e+00 2.442356e+00 2.506792e+00 2.288246e+00 5.756607e-01
<GCONST> 1.900732e+02
<TRANSP> 5
 0.000000e+00 1.000000e+00 0.000000e+00 0.000000e+00 0.000000e+00
 0.000000e+00 7.251862e-01 2.748138e-01 0.000000e+00 0.000000e+00
 0.000000e+00 0.000000e+00 7.986109e-01 2.013891e-01 0.000000e+00
 0.000000e+00 0.000000e+00 0.000000e+00 9.158583e-01 8.414175e-02
 0.000000e+00 0.000000e+00 0.000000e+00 0.000000e+00 0.000000e+00
<ENDHMM>
~h "sp"
<BEGINHMM>
<NUMSTATES> 3
<STATE> 2
~s "silst"
<TRANSP> 3
 0.000000e+00 2.848208e-02 9.715179e-01
 0.000000e+00 9.064280e-01 9.357196e-02
 0.000000e+00 0.000000e+00 0.000000e+00
<ENDHMM>
~h "th"
<BEGINHMM>
<NUMSTATES> 5
<STATE> 2
<MEAN> 39
 -2.613415e+01 1.707561e+00 1.680492e+00 8.044816e+00 -3.804850e+00 1.644120e+00 -3.356374e+00 8.661851e-01 -4.419436e+00 2.213363e+00 -2.346763e+00 4.307847e+00 8.067499e+01 -2.046092e+00 -1.076368e+00 -1.636410e+00 -1.421891e+00 -1.457349e+00 -3.452166e-01 -8.794950e-01 -1.283797e-01 3.561879e-03 -5.617858e-01 -5.651141e-02 3.028100e-01 2.044498e+00 1.046318e+00 -1.759829e-01 9.150560e-01 -3.594006e-01 -8.631974e-02 -3.734429e-01 1.807331e-01 -2.065811e-01 -2.992408e-02 1.970057e-01 -1.237820e-01 1.154103e-01 1.826919e+00
<VARIANCE> 39
 2.115680e+02 1.588876e+02 1.431406e+02 1.483871e+02 1.602100e+02 1.604824e+02 1.680929e+02 1.651828e+02 1.740586e+02 1.450217e+02 1.420933e+02 1.302094e+02 5.335448e+02 2.508014e+01 1.722950e+01 1.918853e+01 2.191995e+01 1.830752e+01 2.103764e+01 2.154964e+01 2.114840e+01 2.297749e+01 1.841763e+01 1.764594e+01 1.700224e+01 9.218768e+01 3.430459e+00 3.605433e+00 3.927628e+00 3.877329e+00 3.539512e+00 4.110869e+00 4.156991e+00 3.971743e+00 4.341134e+00 3.737605e+00 3.572475e+00 3.504161e+00 9.815289e+00
<GCONST> 1.974705e+02
<STATE> 3
<MEAN> 39
 -2.428605e+01 -5.868484e+00 1.064981e+01 -1.689981e+00 -1.212415e+01 -4.704885e+00 -2.498777e+00 -1.139279e+00 -2.648089e+00 3.275548e+00 -3.974758e+00 7.046587e+00 1.147519e+02 5.693132e+00 -1.996685e+00 5.999495e+00 2.766858e+00 1.717725e+00 -2.184958e+00 5.979670e-01 5.383301e-01 3.142419e-01 1.595957e+00 4.854189e-01 -3.804118e-01 4.153042e+00 2.341030e+00 -2.368792e-01 -3.181953e-01 1.809316e+00 2.071162e+00 -2.421428e-01 -9.386093e-01 1.917517e-01 -3.785487e-01 1.037174e-02 3.784448e-01 -3.858017e-01 -2.435250e+00
<VARIANCE> 39
 1.766483e+02 1.569075e+02 2.791213e+02 1.632265e+02 1.631086e+02 2.042576e+02 2.150800e+02 1.969703e+02 1.913597e+02 1.842358e+02 1.836911e+02 2.085736e+02 1.406939e+02 3.325006e+01 1.924153e+01 2.483328e+01 3.391486e+01 2.569670e+01 2.956541e+01 2.705600e+01 2.499728e+01 2.340876e+01 2.065590e+01 2.178133e+01 2.416032e+01 4.975752e+01 4.256822e+00 4.360082e+00 9.636474e+00 5.092236e+00 4.984635e+00 6.295317e+00 7.275373e+00 5.504110e+00 5.001918e+00 5.475028e+00 4.929255e+00 5.197255e+00 6.074342e+00
<GCONST> 2.046809e+02
<STATE> 4
<MEAN> 39
 1.761952e+01 -1.253045e+01 1.424303e+01 1.696730e+01 1.377543e+01 -9.139987e+00 -1.682720e+01 -3.068316e+00 -6.572078e+00 4.429115e+00 -6.384330e-01 3.380592e+00 1.153022e+02 1.046098e+01 -1.588372e+00 -3.912182e+00 1.033069e+00 7.455313e+00 -1.256583e+00 -6.565845e+00 -9.530508e-01 -1.339971e+00 -1.394818e+00 -3.604179e-02 -1.687745e-02 1.445341e+00 -1.720077e+00 -5.661090e-02 -8.123425e-01 -1.342938e+00 -7.536439e-01 -3.037272e-01 -7.015695e-02 4.351881e-01 -6.563564e-02 -3.864407e-01 -3.393096e-01 2.302727e-01 2.644155e-01
<VARIANCE> 39
 3.858931e+02 1.500003e+02 3.140750e+02 1.944372e+02 3.121490e+02 4.448033e+02 4.102922e+02 2.868907e+02 2.070706e+02 1.946469e+02 1.784999e+02 1.631408e+02 1.822191e+02 2.949563e+01 2.201947e+01 3.027988e+01 2.986494e+01 3.180711e+01 5.846921e+01 4.094494e+01 3.265051e+01 2.641774e+01 2.878041e+01 2.580915e+01 2.105554e+01 1.227417e+01 7.331019e+00 3.853180e+00 1.093968e+01 5.791740e+00 7.003967e+00 8.396859e+00 8.651155e+00 6.935466e+00 5.162805e+00 4.553352e+00 4.595239e+00 4.093267e+00 3.180426e+00
<GCONST> 2.096249e+02
<TRANSP> 5
 0.000000e+00 1.000000e+00 0.000000e+00 0.000000e+00 0.000000e+00
 0.000000e+00 8.352371e-01 1.647629e-01 0.000000e+00 0.000000e+00
 0.000000e+00 0.000000e+00 7.368773e-01 2.631227e-01 0.000000e+00
 0.000000e+00 0.000000e+00 0.000000e+00 7.378522e-01 2.621478e-01
 0.000000e+00 0.000000e+00 0.000000e+00 0.000000e+00 0.000000e+00
<ENDHMM>
~h "uw"
<BEGINHMM>
<NUMSTATES> 5
<STATE> 2
<MEAN> 39
 -6.438328e-01 -3.598163e+00 4.624134e+01 1.048609e+01 -5.437199e+00 -1.343584e+01 -8.592242e-01 3.101611e+00 -1.248350e+01 1.716559e+00 -7.453595e+00 7.076428e+00 1.259156e+02 9.242337e+00 -2.563560e+00 6.597954e+00 1.313941e+00 1.118740e+00 -1.510872e+00 -4.366396e+00 -4.024734e-01 -2.219190e+00 3.418729e-01 -5.989662e-01 -8.926505e-01 5.098379e+00 -2.389386e+00 -3.894670e-01 -1.685786e+00 -1.522663e+00 -2.682838e-01 -3.495000e-01 -4.700167e-01 -2.990919e-01 -5.355175e-01 6.823089e-02 3.646415e-01 3.584863e-02 3.570978e-01
<VARIANCE> 39
 2.134156e+02 1.964002e+02 2.196622e+02 2.682566e+02 1.562666e+02 2.452354e+02 6.056169e+02 4.560646e+02 2.998531e+02 2.279465e+02 2.183641e+02 2.884818e+02 2.255564e+02 2.658042e+01 1.362281e+01 2.369841e+01 2.502961e+01 2.004041e+01 4.050422e+01 3.669743e+01 2.467377e+01 3.147711e+01 3.028173e+01 2.631901e+01 3.241282e+01 7.755815e+00 3.743743e+00 1.915804e+00 3.321181e+00 2.414765e+00 2.285701e+00 4.067007e+00 4.900442e+00 3.003853e+00 4.051539e+00 3.649356e+00 2.829365e+00 3.018638e+00 3.676746e+00
<GCONST> 2.005426e+02
<STATE> 3
<MEAN> 39
 9.288514e+00 -1.140291e+01 5.304011e+01 7.364753e+00 -2.764508e+00 -2.085263e+01 -9.349430e+00 -5.729884e-01 -1.938795e+01 3.220956e+00 -7.820587e+00 5.781893e+00 1.337654e+02 6.838636e-01 1.678828e-01 -7.906225e-01 4.394825e-01 1.546913e+00 2.433531e-01 -5.541507e-01 -1.743665e-01 6.220987e-02 2.867448e-01 -4.442700e-01 -4.323012e-01 -1.069004e+00 -2.569643e-01 5.139440e-01 -6.372258e-01 8.607913e-02 1.903248e-01 4.465098e-01 2.788854e-01 -1.443299e-01 3.601616e-01 3.793658e-02 9.346289e-03 -1.999810e-02 -6.138138e-01
<VARIANCE> 39
 7.797698e+01 1.677496e+02 1.910174e+02 3.499200e+02 2.262381e+02 4.498646e+02 1.010784e+03 5.920016e+02 3.912762e+02 3.798132e+02 3.097266e+02 6.354142e+02 1.510306e+02 1.976006e+00 3.293159e+00 5.527036e+00 5.272410e+00 6.309889e+00 7.793417e+00 8.966572e+00 8.679157e+00 9.297112e+00 9.376951e+00 8.506166e+00 8.566882e+00 2.387316e+00 8.992187e-01 6.785568e-01 1.129113e+00 1.040111e+00 1.061498e+00 1.577338e+00 1.991946e+00 1.598337e+00 1.730965e+00 1.787011e+00 1.455291e+00 1.537651e+00 6.782451e-01
<GCONST> 1.722236e+02
<STATE> 4
<MEAN> 39
 1.653071e+01 3.484138e+00 2.323211e+01 6.940131e+00 1.258011e+01 3.410077e+00 -5.392302e+00 -6.466800e+00 -1.463995e+01 7.279950e+00 -7.567730e+00 1.636567e+00 1.059825e+02 -1.317578e+00 1.118861e+00 -3.147330e+00 -3.060031e-01 -2.123324e-01 2.163718e+00 1.764243e+00 -2.739328e-01 1.065816e+00 -1.759906e-01 6.060756e-01 1.560640e-01 -3.176904e+00 -6.454760e-01 -1.989630e-01 -1.653887e-02 -4.150089e-02 -5.578289e-01 -3.772721e-01 1.030325e-01 2.770674e-01 7.134184e-02 -1.656306e-01 8.522952e-02 1.083012e-01 -4.486844e-02
<VARIANCE> 39
 1.525166e+02 2.225234e+02 3.703943e+02 3.661590e+02 2.976597e+02 6.603812e+02 6.345140e+02 5.206651e+02 7.172365e+02 4.596966e+02 4.373915e+02 5.164718e+02 4.413063e+02 1.413189e+01 1.707959e+01 1.332221e+01 1.976322e+01 1.986860e+01 3.133930e+01 3.183453e+01 3.137645e+01 3.185078e+01 2.459431e+01 2.405324e+01 2.260275e+01 6.144699e+00 1.636188e+00 2.570333e+00 2.130775e+00 3.077080e+00 3.092010e+00 4.528494e+00 4.780576e+00 4.776704e+00 5.021071e+00 4.089851e+00 4.258252e+00 3.710032e+00 1.008162e+00
<GCONST> 2.039997e+02
<TRANSP> 5
 0.000000e+00 1.000000e+00 0.000000e+00 0.000000e+00 0.000000e+00
 0.000000e+00 7.040037e-01 2.959963e-01 0.000000e+00 0.000000e+00
 0.000000e+00 0.000000e+00 8.868105e-01 1.131896e-01 0.000000e+00
 0.000000e+00 0.000000e+00 0.000000e+00 8.752132e-01 1.247868e-01
 0.000000e+00 0.000000e+00 0.000000e+00 0.000000e+00 0.000000e+00
<ENDHMM>
~h "sil"
<BEGINHMM>
<NUMSTATES> 5
<STATE> 2
<MEAN> 39
 -1.194835e+01 -9.038213e-01 1.461227e+00 7.184891e+00 1.175962e+00 8.912746e-01 4.442439e+00 6.413100e+00 -6.318195e-01 3.247844e-01 -3.904278e+00 8.162736e-01 6.416389e+01 -5.116649e-01 8.009166e-01 -1.378844e-01 -1.460041e-02 -1.783751e-02 4.764540e-02 -3.273043e-01 -2.226849e-01 7.156169e-02 2.984765e-02 2.745095e-01 1.928687e-02 -1.163546e+00 -2.443422e-02 6.373755e-02 1.094082e-01 -1.511681e-02 3.619716e-04 4.945287e-04 -2.367560e-02 -7.687536e-02 -1.296954e-02 7.654536e-02 6.832457e-02 7.165150e-02 5.816084e-02
<VARIANCE> 39
 7.706326e+01 1.666735e+02 1.389836e+02 1.298403e+02 1.480456e+02 1.847258e+02 1.935560e+02 2.090710e+02 1.988873e+02 1.974540e+02 1.611449e+02 1.415556e+02 1.153739e+02 2.494993e+00 4.381157e+00 5.428334e+00 6.836589e+00 8.354427e+00 1.038219e+01 1.181730e+01 1.279046e+01 1.267303e+01 1.258205e+01 1.186707e+01 1.083593e+01 1.897584e+00 3.745669e-01 6.861292e-01 9.585856e-01 1.227539e+00 1.515090e+00 1.842238e+00 2.142720e+00 2.314171e+00 2.352859e+00 2.329576e+00 2.200340e+00 2.028581e+00 1.867813e-01
<GCONST> 1.661313e+02
<STATE> 3
~s "silst"
<STATE> 4
<MEAN> 39
 -2.311135e+01 -3.631570e-01 3.511037e-01 2.638289e+00 -2.454427e+00 -2.650390e+00 -2.715872e+00 1.931035e-01 -2.797858e+00 2.004745e+00 -1.212633e+00 2.135817e+00 5.937191e+01 1.718185e-01 -1.531131e-01 2.761399e-01 1.428738e-01 7.488962e-02 1.350329e-01 2.105108e-01 1.059849e-01 -1.880337e-02 2.167394e-01 -1.499721e-01 7.980705e-03 8.526608e-01 7.406925e-02 2.134268e-02 7.830347e-02 -1.148149e-02 9.732673e-03 2.303726e-02 3.442725e-02 2.879272e-02 1.052861e-02 -1.028598e-02 -3.204680e-02 2.968478e-02 4.638022e-01
<VARIANCE> 39
 1.078832e+02 1.348869e+02 1.118530e+02 1.187842e+02 1.447305e+02 1.603923e+02 1.769266e+02 1.716382e+02 1.579592e+02 1.428896e+02 1.351264e+02 1.166170e+02 2.121178e+02 1.169712e+01 1.408045e+01 1.234454e+01 1.280753e+01 1.475220e+01 1.639483e+01 1.726600e+01 1.672732e+01 1.583484e+01 1.477975e+01 1.414896e+01 1.203598e+01 2.080553e+01 2.412987e+00 2.718604e+00 2.427421e+00 2.507581e+00 2.837802e+00 3.072922e+00 3.273583e+00 3.168288e+00 3.021044e+00 2.797529e+00 2.657601e+00 2.290471e+00 4.344720e+00
<GCONST> 1.847285e+02
<TRANSP> 5
 0.000000e+00 1.000000e+00 0.000000e+00 0.000000e+00 0.000000e+00
 0.000000e+00 8.494808e-01 9.910990e-02 5.140928e-02 0.000000e+00
 0.000000e+00 0.000000e+00 9.035368e-01 9.646318e-02 0.000000e+00
 0.000000e+00 6.255905e-02 0.000000e+00 7.807891e-01 1.566519e-01
 0.000000e+00 0.000000e+00 0.000000e+00 0.000000e+00 0.000000e+00
<ENDHMM>
