~o
<STREAMINFO> 1 39
<VECSIZE> 39<NULLD><MFCC_D_A_0><DIAGC>
~v "varFloor1"
<VARIANCE> 39
 6.754285e+00 3.412382e+00 5.608406e+00 4.796288e+00 3.472278e+00 4.011306e+00 4.413544e+00 3.617784e+00 3.683816e+00 3.040248e+00 2.640156e+00 2.509632e+00 1.299030e+01 2.278168e-01 1.545930e-01 2.184475e-01 2.118017e-01 1.813441e-01 2.097645e-01 2.257998e-01 2.166213e-01 2.009591e-01 1.748390e-01 1.664857e-01 1.534652e-01 2.729186e-01 3.005252e-02 2.352007e-02 2.950203e-02 3.333135e-02 2.970526e-02 3.527972e-02 3.796952e-02 3.764049e-02 3.477431e-02 3.067440e-02 2.924915e-02 2.697382e-02 3.680100e-02
~s "silst"
<NUMMIXES> 2
<MIXTURE> 1 5.000000e-01
<MEAN> 39
 -2.401588e+01 5.866606e+00 2.238462e-01 4.187867e+00 -1.577506e+00 -1.098027e+00 -2.452305e+00 5.982240e-01 3.100907e-01 3.248534e+00 2.992918e+00 4.305396e+00 4.892291e+01 9.034887e-03 2.883480e-01 4.032620e-01 3.784116e-01 4.062612e-01 4.440208e-01 4.007162e-01 4.128095e-01 5.553007e-01 6.964975e-01 6.969259e-01 6.198373e-01 1.858674e-02 1.973398e-01 6.187944e-02 1.775837e-01 2.185569e-01 2.480946e-01 2.763363e-01 3.445792e-01 3.521652e-01 2.755069e-01 2.586988e-01 1.934327e-01 2.254843e-01 2.452712e-01
<VARIANCE> 39
 2.944582e+01 2.898810e+01 3.713860e+01 4.994416e+01 6.793251e+01 8.836574e+01 1.045646e+02 1.054156e+02 9.781473e+01 9.145190e+01 8.874209e+01 7.975590e+01 1.515562e+01 1.335113e+00 1.979310e+00 3.190096e+00 4.442043e+00 5.716872e+00 7.031100e+00 8.416074e+00 9.199746e+00 9.264077e+00 9.215682e+00 9.012882e+00 8.154982e+00 6.772116e-01 2.600670e-01 4.218320e-01 6.525860e-01 9.019740e-01 1.155977e+00 1.416634e+00 1.666819e+00 1.826836e+00 1.847766e+00 1.841311e+00 1.810177e+00 1.637072e+00 1.736836e-01
<GCONST> 1.440895e+02
<MIXTURE> 2 5.000000e-01
<MEAN> 39
 -2.618644e+01 3.712982e+00 -2.213812e+00 1.361019e+00 -4.874353e+00 -4.858149e+00 -6.542579e+00 -3.508660e+00 -3.645963e+00 -5.766857e-01 -7.752024e-01 7.331499e-01 4.736571e+01 -4.531535e-01 -2.744039e-01 -3.111716e-01 -4.646346e-01 -5.501381e-01 -6.166280e-01 -7.597026e-01 -8.004339e-01 -6.621773e-01 -5.177962e-01 -5.039326e-01 -5.224398e-01 -3.105847e-01 -6.647222e-03 -1.979149e-01 -1.455475e-01 -1.613323e-01 -1.819709e-01 -1.997535e-01 -1.718422e-01 -1.884768e-01 -2.682234e-01 -2.840809e-01 -3.447385e-01 -2.863081e-01 7.856977e-02
<VARIANCE> 39
 2.944582e+01 2.898810e+01 3.713860e+01 4.994416e+01 6.793251e+01 8.836574e+01 1.045646e+02 1.054156e+02 9.781473e+01 9.145190e+01 8.874209e+01 7.975590e+01 1.515562e+01 1.335113e+00 1.979310e+00 3.190096e+00 4.442043e+00 5.716872e+00 7.031100e+00 8.416074e+00 9.199746e+00 9.264077e+00 9.215682e+00 9.012882e+00 8.154982e+00 6.772116e-01 2.600670e-01 4.218320e-01 6.525860e-01 9.019740e-01 1.155977e+00 1.416634e+00 1.666819e+00 1.826836e+00 1.847766e+00 1.841311e+00 1.810177e+00 1.637072e+00 1.736836e-01
<GCONST> 1.440895e+02
~h "f"
<BEGINHMM>
<NUMSTATES> 5
<STATE> 2
<NUMMIXES> 2
<MIXTURE> 1 5.000000e-01
<MEAN> 39
 -2.923114e+01 -1.159279e+01 1.794247e+00 5.734116e+00 3.826910e-01 2.316590e+00 -3.869574e+00 3.261096e+00 -2.380051e+00 6.254159e+00 -1.272593e+00 4.823012e+00 9.459584e+01 -1.194600e+00 -8.994863e-01 -5.747615e-01 2.185289e-01 3.802216e-02 4.350978e-01 -1.412411e-01 2.833446e-01 4.288312e-01 5.393336e-01 5.974025e-01 5.182465e-01 1.466058e+00 1.780957e+00 7.257835e-01 5.649332e-01 1.118977e-01 4.452195e-01 3.697388e-01 6.223747e-01 3.013212e-01 2.781518e-01 4.185899e-01 2.965577e-01 3.476090e-01 9.477385e-01
<VARIANCE> 39
 1.622970e+02 1.221520e+02 9.640250e+01 9.981802e+01 1.139078e+02 1.261973e+02 1.379371e+02 1.349293e+02 1.341955e+02 1.238741e+02 1.181722e+02 1.071666e+02 3.192661e+02 2.350569e+01 1.154303e+01 1.114440e+01 1.488783e+01 1.277851e+01 1.330846e+01 1.450273e+01 1.410097e+01 1.414064e+01 1.314233e+01 1.250940e+01 1.163323e+01 2.024347e+01 3.549065e+00 2.198402e+00 2.159332e+00 2.995812e+00 2.494836e+00 2.815379e+00 3.037203e+00 3.049299e+00 3.102348e+00 2.805748e+00 2.651954e+00 2.385577e+00 3.064242e+00
<GCONST> 1.826892e+02
<MIXTURE> 2 5.000000e-01
<MEAN> 39
 -3.432698e+01 -1.601369e+01 -2.133144e+00 1.737756e+00 -3.886413e+00 -2.176913e+00 -8.567439e+00 -1.385267e+00 -7.013762e+00 1.802209e+00 -5.620874e+00 6.821599e-01 8.744864e+01 -3.133906e+00 -2.258488e+00 -1.910091e+00 -1.324861e+00 -1.391860e+00 -1.024133e+00 -1.664539e+00 -1.218706e+00 -1.075330e+00 -9.107605e-01 -8.173427e-01 -8.460543e-01 -3.336514e-01 1.027399e+00 1.327031e-01 -2.285340e-02 -5.804389e-01 -1.865825e-01 -3.014248e-01 -7.472828e-02 -3.971684e-01 -4.263876e-01 -2.514247e-01 -3.548352e-01 -2.702035e-01 2.475395e-01
<VARIANCE> 39
 1.622970e+02 1.221520e+02 9.640250e+01 9.981802e+01 1.139078e+02 1.261973e+02 1.379371e+02 1.349293e+02 1.341955e+02 1.238741e+02 1.181722e+02 1.071666e+02 3.192661e+02 2.350569e+01 1.154303e+01 1.114440e+01 1.488783e+01 1.277851e+01 1.330846e+01 1.450273e+01 1.410097e+01 1.414064e+01 1.314233e+01 1.250940e+01 1.163323e+01 2.024347e+01 3.549065e+00 2.198402e+00 2.159332e+00 2.995812e+00 2.494836e+00 2.815379e+00 3.037203e+00 3.049299e+00 3.102348e+00 2.805748e+00 2.651954e+00 2.385577e+00 3.064242e+00
<GCONST> 1.826892e+02
<STATE> 3
<NUMMIXES> 2
<MIXTURE> 1 5.000000e-01
<MEAN> 39
 -2.647740e+01 -1.562586e+01 -1.815545e+00 1.674425e+00 -1.023659e+00 1.198987e+00 -5.665095e+00 6.407540e-01 -4.161064e+00 5.525356e+00 -2.261566e+00 4.623581e+00 1.044423e+02 1.182667e+01 3.279615e+00 1.475840e+00 -2.521081e+00 1.068722e+00 1.751755e+00 2.562098e+00 1.155130e+00 1.405587e+00 2.136018e+00 1.235049e+00 5.802499e-01 6.827226e+00 4.053146e+00 1.547723e+00 1.004897e+00 -1.946807e+00 -1.341501e-01 6.872922e-01 1.023698e+00 8.327380e-01 4.473379e-01 1.087597e+00 6.413665e-01 1.290735e-01 1.489178e+00
<VARIANCE> 39
 1.320626e+02 7.052181e+01 6.354693e+01 7.150951e+01 8.547894e+01 9.597512e+01 1.021660e+02 1.040347e+02 1.122544e+02 1.063673e+02 9.856374e+01 8.878874e+01 2.045977e+02 3.755923e+01 1.932573e+01 1.133781e+01 2.147337e+01 1.480951e+01 1.325570e+01 1.467177e+01 1.526771e+01 1.934025e+01 1.749420e+01 1.954077e+01 1.290229e+01 3.423693e+01 3.076076e+00 4.415163e+00 2.867761e+00 3.887394e+00 4.114413e+00 3.272040e+00 3.668133e+00 3.588715e+00 4.370270e+00 3.758294e+00 4.468374e+00 3.177751e+00 4.636107e+00
<GCONST> 1.861515e+02
<MIXTURE> 2 5.000000e-01
<MEAN> 39
 -3.107414e+01 -1.898495e+01 -5.004199e+00 -1.708107e+00 -4.721851e+00 -2.719688e+00 -9.708183e+00 -3.439142e+00 -8.399072e+00 1.399976e+00 -6.232738e+00 8.544695e-01 9.872074e+01 9.375248e+00 1.521173e+00 1.289731e-01 -4.374656e+00 -4.706030e-01 2.954194e-01 1.029948e+00 -4.078266e-01 -3.535150e-01 4.629756e-01 -5.331489e-01 -8.565404e-01 4.486732e+00 3.351596e+00 7.072313e-01 3.275179e-01 -2.735466e+00 -9.455107e-01 -3.625900e-02 2.576033e-01 7.498181e-02 -3.888697e-01 3.121444e-01 -2.041746e-01 -5.839763e-01 6.279135e-01
<VARIANCE> 39
 1.320626e+02 7.052181e+01 6.354693e+01 7.150951e+01 8.547894e+01 9.597512e+01 1.021660e+02 1.040347e+02 1.122544e+02 1.063673e+02 9.856374e+01 8.878874e+01 2.045977e+02 3.755923e+01 1.932573e+01 1.133781e+01 2.147337e+01 1.480951e+01 1.325570e+01 1.467177e+01 1.526771e+01 1.934025e+01 1.749420e+01 1.954077e+01 1.290229e+01 3.423693e+01 3.076076e+00 4.415163e+00 2.867761e+00 3.887394e+00 4.114413e+00 3.272040e+00 3.668133e+00 3.588715e+00 4.370270e+00 3.758294e+00 4.468374e+00 3.177751e+00 4.636107e+00
<GCONST> 1.861515e+02
<STATE> 4
<NUMMIXES> 2
<MIXTURE> 1 5.000000e-01
<MEAN> 39
 1.994707e+01 -9.836417e+00 8.720094e-01 -1.703507e+01 1.704294e+00 8.196242e+00 3.367903e+00 3.012861e+00 2.015486e+00 1.790736e+01 6.316572e+00 1.952266e+00 1.303293e+02 1.207895e+01 2.170595e-01 9.275884e-01 -7.612820e+00 6.715918e-01 2.805056e+00 2.947788e+00 2.021563e+00 1.925798e+00 3.633623e+00 2.303118e+00 1.025827e-01 9.595154e+00 -2.809123e+00 -3.723052e-01 2.143326e-01 1.123192e+00 2.309201e-01 2.463468e-01 -1.035092e-01 6.598326e-01 4.065905e-01 -2.521628e-01 -2.161386e-01 4.075830e-01 -8.078552e-01
<VARIANCE> 39
 2.243792e+02 2.503740e+02 1.539544e+02 4.438198e+02 2.424800e+02 1.990270e+02 2.010274e+02 2.199062e+02 3.939239e+02 2.893362e+02 4.311094e+02 1.973860e+02 4.279206e+02 5.911877e+01 4.802792e+01 2.613602e+01 3.405196e+01 3.666474e+01 2.350410e+01 2.621480e+01 2.653392e+01 3.866074e+01 2.912676e+01 4.080343e+01 2.563072e+01 2.545354e+01 5.444313e+00 2.811939e+00 2.139399e+00 7.530549e+00 3.750739e+00 3.003233e+00 3.350008e+00 3.094089e+00 5.519548e+00 4.444214e+00 5.143633e+00 3.279108e+00 5.259607e+00
<GCONST> 2.074963e+02
<MIXTURE> 2 5.000000e-01
<MEAN> 39
 1.395535e+01 -1.616570e+01 -4.091125e+00 -2.546189e+01 -4.524414e+00 2.553165e+00 -2.303462e+00 -2.918833e+00 -5.923520e+00 1.110340e+01 -1.988698e+00 -3.667499e+00 1.220549e+02 9.003405e+00 -2.555027e+00 -1.117347e+00 -9.946981e+00 -1.750465e+00 8.658144e-01 8.997722e-01 -3.888083e-02 -5.613122e-01 1.474855e+00 -2.519842e-01 -1.922489e+00 7.577093e+00 -3.742445e+00 -1.043059e+00 -3.707348e-01 2.551836e-02 -5.437529e-01 -4.468468e-01 -8.356303e-01 -4.376838e-02 -5.331583e-01 -1.095415e+00 -1.123322e+00 -3.167494e-01 -1.725209e+00
<VARIANCE> 39
 2.243792e+02 2.503740e+02 1.539544e+02 4.438198e+02 2.424800e+02 1.990270e+02 2.010274e+02 2.199062e+02 3.939239e+02 2.893362e+02 4.311094e+02 1.973860e+02 4.279206e+02 5.911877e+01 4.802792e+01 2.613602e+01 3.405196e+01 3.666474e+01 2.350410e+01 2.621480e+01 2.653392e+01 3.866074e+01 2.912676e+01 4.080343e+01 2.563072e+01 2.545354e+01 5.444313e+00 2.811939e+00 2.139399e+00 7.530549e+00 3.750739e+00 3.003233e+00 3.350008e+00 3.094089e+00 5.519548e+00 4.444214e+00 5.143633e+00 3.279108e+00 5.259607e+00
<GCONST> 2.074963e+02
<TRANSP> 5
 0.000000e+00 1.000000e+00 0.000000e+00 0.000000e+00 0.000000e+00
 0.000000e+00 8.591188e-01 1.408812e-01 0.000000e+00 0.000000e+00
 0.000000e+00 0.000000e+00 6.399106e-01 3.600894e-01 0.000000e+00
 0.000000e+00 0.000000e+00 0.000000e+00 5.457535e-01 4.542464e-01
 0.000000e+00 0.000000e+00 0.000000e+00 0.000000e+00 0.000000e+00
<ENDHMM>
~h "k"
<BEGINHMM>
<NUMSTATES> 5
<STATE> 2
<NUMMIXES> 2
<MIXTURE> 1 5.000000e-01
<MEAN> 39
 -5.152330e+00 1.311960e+01 3.025569e+01 2.852213e+01 1.688218e+00 -1.039213e+01 5.214527e+00 1.808564e+00 -1.437090e+01 8.856556e-01 1.919539e+00 4.771447e+00 7.584043e+01 -5.048262e+00 3.517525e+00 -8.798209e+00 3.513658e-02 4.509199e+00 6.954648e+00 -2.229939e+00 1.836944e+00 5.186338e+00 -7.982472e-01 1.003130e+00 4.478669e-02 -1.094330e+01 1.430651e-01 -2.615135e+00 -5.403578e-01 -2.539991e+00 -5.772382e-01 -5.517379e-01 -3.021157e-01 6.417359e-01 1.500311e+00 1.516908e+00 2.100521e-01 1.033717e+00 5.481390e+00
<VARIANCE> 39
 1.306895e+02 2.061479e+02 2.691155e+02 1.981250e+02 3.049696e+02 3.707750e+02 3.867518e+02 4.779363e+02 3.226117e+02 2.673015e+02 2.009877e+02 1.583530e+02 3.446250e+02 1.082702e+01 4.588508e+01 2.449309e+01 4.211138e+01 3.026036e+01 3.898246e+01 5.603381e+01 7.207886e+01 5.292013e+01 3.535633e+01 2.362159e+01 2.275687e+01 6.414970e+01 3.429953e+00 5.885226e+00 5.479419e+00 4.839775e+00 5.374348e+00 8.098608e+00 9.035601e+00 8.794705e+00 7.791912e+00 5.613351e+00 4.681993e+00 4.270968e+00 1.242689e+01
<GCONST> 2.143323e+02
<MIXTURE> 2 5.000000e-01
<MEAN> 39
 -9.725111e+00 7.376459e+00 2.369379e+01 2.289185e+01 -5.297134e+00 -1.809433e+01 -2.651875e+00 -6.936138e+00 -2.155546e+01 -5.654088e+00 -3.751267e+00 -2.620888e-01 6.841480e+01 -6.364439e+00 8.079835e-01 -1.077783e+01 -2.560595e+00 2.308823e+00 4.457210e+00 -5.224169e+00 -1.559027e+00 2.276490e+00 -3.176695e+00 -9.409515e-01 -1.863380e+00 -1.414704e+01 -5.977403e-01 -3.585515e+00 -1.476684e+00 -3.419971e+00 -1.504544e+00 -1.690060e+00 -1.504487e+00 -5.444989e-01 3.837516e-01 5.692078e-01 -6.554645e-01 2.070646e-01 4.071318e+00
<VARIANCE> 39
 1.306895e+02 2.061479e+02 2.691155e+02 1.981250e+02 3.049696e+02 3.707750e+02 3.867518e+02 4.779363e+02 3.226117e+02 2.673015e+02 2.009877e+02 1.583530e+02 3.446250e+02 1.082702e+01 4.588508e+01 2.449309e+01 4.211138e+01 3.026036e+01 3.898246e+01 5.603381e+01 7.207886e+01 5.292013e+01 3.535633e+01 2.362159e+01 2.275687e+01 6.414970e+01 3.429953e+00 5.885226e+00 5.479419e+00 4.839775e+00 5.374348e+00 8.098608e+00 9.035601e+00 8.794705e+00 7.791912e+00 5.613351e+00 4.681993e+00 4.270968e+00 1.242689e+01
<GCONST> 2.143323e+02
<STATE> 3
<NUMMIXES> 2
<MIXTURE> 1 5.000000e-01
<MEAN> 39
 -1.630119e+01 -2.954379e+00 -3.237925e+00 9.591890e+00 2.337893e+00 -4.602487e+00 -7.658250e+00 5.977724e-01 -2.175959e+00 4.285232e+00 1.036929e+00 5.200065e+00 7.656542e+01 -6.418197e-01 -3.455160e+00 -4.101246e+00 5.180180e-03 9.138319e-01 -5.697734e-01 -1.123699e+00 2.109366e+00 2.609656e+00 2.122066e+00 1.063301e-01 1.204643e+00 1.106856e+01 -2.444009e-01 1.502266e+00 2.323367e+00 1.405262e+00 -2.253851e-01 -7.135280e-01 1.219950e+00 8.022857e-01 -1.302978e-01 2.082341e-01 1.329124e-01 5.153090e-01 3.268537e+00
<VARIANCE> 39
 1.443646e+02 3.074802e+02 2.374482e+02 1.303716e+02 1.547094e+02 1.654397e+02 1.762707e+02 1.576469e+02 1.350071e+02 1.278619e+02 1.139256e+02 8.773708e+01 7.725871e+02 3.168228e+01 2.791226e+01 2.553414e+01 2.504318e+01 2.209175e+01 2.656390e+01 2.168832e+01 2.110215e+01 2.013219e+01 1.797706e+01 1.533423e+01 1.164455e+01 7.529160e+01 8.752032e+00 8.793978e+00 5.503304e+00 3.511099e+00 4.374898e+00 5.219030e+00 5.116764e+00 4.690849e+00 4.213122e+00 3.875475e+00 2.748326e+00 2.429809e+00 1.931009e+01
<GCONST> 2.011241e+02
<MIXTURE> 2 5.000000e-01
<MEAN> 39
 -2.110727e+01 -9.968425e+00 -9.401667e+00 5.024675e+00 -2.637397e+00 -9.747421e+00 -1.296893e+01 -4.424528e+00 -6.823661e+00 -2.378099e-01 -3.232509e+00 1.453341e+00 6.544724e+01 -2.893300e+00 -5.568442e+00 -6.122499e+00 -1.996546e+00 -9.662426e-01 -2.631381e+00 -2.986527e+00 2.718834e-01 8.148998e-01 4.260917e-01 -1.460028e+00 -1.603217e-01 7.597733e+00 -1.427754e+00 3.160799e-01 1.385003e+00 6.557454e-01 -1.062035e+00 -1.627336e+00 3.151397e-01 -6.404907e-02 -9.513334e-01 -5.792149e-01 -5.302106e-01 -1.082048e-01 1.510807e+00
<VARIANCE> 39
 1.443646e+02 3.074802e+02 2.374482e+02 1.303716e+02 1.547094e+02 1.654397e+02 1.762707e+02 1.576469e+02 1.350071e+02 1.278619e+02 1.139256e+02 8.773708e+01 7.725871e+02 3.168228e+01 2.791226e+01 2.553414e+01 2.504318e+01 2.209175e+01 2.656390e+01 2.168832e+01 2.110215e+01 2.013219e+01 1.797706e+01 1.533423e+01 1.164455e+01 7.529160e+01 8.752032e+00 8.793978e+00 5.503304e+00 3.511099e+00 4.374898e+00 5.219030e+00 5.116764e+00 4.690849e+00 4.213122e+00 3.875475e+00 2.748326e+00 2.429809e+00 1.931009e+01
<GCONST> 2.011241e+02
<STATE> 4
<NUMMIXES> 2
<MIXTURE> 1 5.000000e-01
<MEAN> 39
 -3.821947e+01 -7.682297e+00 -5.090640e+00 1.450705e+01 4.571010e+00 -2.131687e+01 -1.206767e+01 9.142760e+00 3.735628e+00 5.478882e+00 -4.904907e+00 8.097879e+00 1.160278e+02 -9.258741e+00 5.122902e+00 2.773232e+00 5.224739e-01 -1.516938e+00 -1.182745e+00 3.196578e+00 3.526605e+00 1.608082e+00 -8.320817e-01 -1.153755e-01 1.907320e+00 4.128541e+00 1.059493e+00 1.980786e+00 1.070631e+00 -3.343539e-01 2.716826e-01 2.222179e+00 1.627627e+00 8.842856e-02 -5.014369e-01 3.814116e-02 8.354599e-01 2.235891e-01 -3.401108e+00
<VARIANCE> 39
 3.163310e+02 1.138287e+02 1.796495e+02 2.119087e+02 3.934709e+02 2.674359e+02 2.169778e+02 2.032092e+02 1.858323e+02 1.694968e+02 1.686880e+02 1.317147e+02 1.454460e+02 2.983121e+01 1.522562e+01 1.380201e+01 1.541118e+01 2.176017e+01 2.606313e+01 1.702711e+01 1.641061e+01 2.033516e+01 1.499929e+01 1.378006e+01 1.414790e+01 2.630294e+01 6.914239e+00 3.374849e+00 3.236978e+00 2.806094e+00 3.852327e+00 4.040258e+00 3.613597e+00 3.775485e+00 3.696801e+00 3.502770e+00 2.860189e+00 2.457364e+00 4.547530e+00
<GCONST> 1.947747e+02
<MIXTURE> 2 5.000000e-01
<MEAN> 39
 -4.533375e+01 -1.194992e+01 -1.045198e+01 8.684213e+00 -3.363430e+00 -2.785825e+01 -1.795973e+01 3.440701e+00 -1.717186e+00 2.712443e-01 -1.010011e+01 3.507198e+00 1.112038e+02 -1.144346e+01 3.562102e+00 1.287190e+00 -1.047809e+00 -3.382850e+00 -3.224827e+00 1.546022e+00 1.906205e+00 -1.956993e-01 -2.381238e+00 -1.600236e+00 4.027721e-01 2.077085e+00 7.695615e-03 1.245956e+00 3.509667e-01 -1.004410e+00 -5.134112e-01 1.418163e+00 8.672487e-01 -6.887957e-01 -1.270520e+00 -7.104864e-01 1.589762e-01 -4.034502e-01 -4.254106e+00
<VARIANCE> 39
 3.163310e+02 1.138287e+02 1.796495e+02 2.119087e+02 3.934709e+02 2.674359e+02 2.169778e+02 2.032092e+02 1.858323e+02 1.694968e+02 1.686880e+02 1.317147e+02 1.454460e+02 2.983121e+01 1.522562e+01 1.380201e+01 1.541118e+01 2.176017e+01 2.606313e+01 1.702711e+01 1.641061e+01 2.033516e+01 1.499929e+01 1.378006e+01 1.414790e+01 2.630294e+01 6.914239e+00 3.374849e+00 3.236978e+00 2.806094e+00 3.852327e+00 4.040258e+00 3.613597e+00 3.775485e+00 3.696801e+00 3.502770e+00 2.860189e+00 2.457364e+00 4.547530e+00
<GCONST> 1.947747e+02
<TRANSP> 5
 0.000000e+00 1.000000e+00 0.000000e+00 0.000000e+00 0.000000e+00
 0.000000e+00 6.802009e-01 3.197991e-01 0.000000e+00 0.000000e+00
 0.000000e+00 0.000000e+00 7.771807e-01 2.228193e-01 0.000000e+00
 0.000000e+00 0.000000e+00 0.000000e+00 5.361067e-01 4.638933e-01
 0.000000e+00 0.000000e+00 0.000000e+00 0.000000e+00 0.000000e+00
<ENDHMM>
~h "n"
<BEGINHMM>
<NUMSTATES> 5
<STATE> 2
<NUMMIXES> 2
<MIXTURE> 1 5.000000e-01
<MEAN> 39
 1.842892e+01 2.588826e+00 3.828550e+01 1.248432e+01 -1.847830e+00 8.195663e+00 2.042335e+01 1.180919e+00 -1.726961e+00 1.460697e+01 -2.261600e+00 1.277598e+01 1.156874e+02 1.932473e+00 4.057489e+00 9.822248e-01 5.019456e+00 1.341909e+00 2.437140e+00 3.460299e+00 -1.712471e+00 1.163728e+00 1.645458e+00 -5.960079e-01 1.259769e+00 -2.269706e+00 -2.470910e-01 -2.350381e-01 -3.675564e-01 2.079470e-01 8.253622e-01 1.565673e-01 -1.103138e-01 1.423488e+00 8.735836e-01 6.583750e-02 6.761156e-01 3.106820e-01 5.758393e-01
<VARIANCE> 39
 1.313798e+02 3.032212e+02 2.467305e+02 6.127899e+02 3.045613e+02 4.059866e+02 5.309821e+02 5.882327e+02 5.437249e+02 4.445581e+02 4.307537e+02 4.049153e+02 4.141662e+02 1.608208e+01 1.497984e+01 2.376873e+01 3.306762e+01 2.126085e+01 2.553060e+01 3.332026e+01 4.020153e+01 3.055746e+01 2.710805e+01 2.391108e+01 2.427511e+01 1.984746e+01 2.302917e+00 2.563768e+00 3.856768e+00 7.802299e+00 4.082385e+00 5.053738e+00 6.668576e+00 7.734143e+00 5.607935e+00 4.791765e+00 4.679827e+00 4.609019e+00 2.064643e+00
<GCONST> 2.100207e+02
<MIXTURE> 2 5.000000e-01
<MEAN> 39
 1.384408e+01 -4.376473e+00 3.200244e+01 2.582485e+00 -8.828505e+00 1.360202e-01 1.120613e+01 -8.520485e+00 -1.105412e+01 6.173151e+00 -1.056344e+01 4.726980e+00 1.075470e+02 3.283746e-01 2.509337e+00 -9.679025e-01 2.719278e+00 -5.024709e-01 4.160267e-01 1.151351e+00 -4.248659e+00 -1.047424e+00 -4.371576e-01 -2.551966e+00 -7.110224e-01 -4.051726e+00 -8.541056e-01 -8.755089e-01 -1.153103e+00 -9.093568e-01 1.716563e-02 -7.426535e-01 -1.143257e+00 3.110752e-01 -7.365957e-02 -8.097665e-01 -1.892008e-01 -5.480630e-01 1.084715e-03
<VARIANCE> 39
 1.313798e+02 3.032212e+02 2.467305e+02 6.127899e+02 3.045613e+02 4.059866e+02 5.309821e+02 5.882327e+02 5.437249e+02 4.445581e+02 4.307537e+02 4.049153e+02 4.141662e+02 1.608208e+01 1.497984e+01 2.376873e+01 3.306762e+01 2.126085e+01 2.553060e+01 3.332026e+01 4.020153e+01 3.055746e+01 2.710805e+01 2.391108e+01 2.427511e+01 1.984746e+01 2.302917e+00 2.563768e+00 3.856768e+00 7.802299e+00 4.082385e+00 5.053738e+00 6.668576e+00 7.734143e+00 5.607935e+00 4.791765e+00 4.679827e+00 4.609019e+00 2.064643e+00
<GCONST> 2.100207e+02
<STATE> 3
<NUMMIXES> 2
<MIXTURE> 1 5.000000e-01
<MEAN> 39
 1.975418e+01 1.016613e+01 3.691943e+01 2.215666e+01 1.264094e+00 1.135623e+01 2.196568e+01 -3.959311e+00 2.286768e+00 1.153490e+01 -5.487045e+00 1.568516e+01 1.067899e+02 -1.743425e+00 -1.558858e+00 -1.040338e+00 -1.419613e+00 3.615755e+00 -4.286906e-01 -1.380225e+00 6.442697e+00 1.953846e+00 5.371155e-01 1.800115e+00 5.583155e-02 3.027172e+00 -1.091091e+00 -1.139135e+00 -1.187947e+00 -1.292750e+00 6.519610e-01 -1.534605e-01 -7.830504e-01 1.952394e+00 7.062389e-01 2.971115e-01 9.876029e-01 1.016828e-02 9.468061e-01
<VARIANCE> 39
 8.069639e+01 2.514713e+02 1.424159e+02 2.966900e+02 2.856462e+02 4.394026e+02 4.716291e+02 4.543072e+02 4.633262e+02 4.493203e+02 4.578174e+02 4.617229e+02 2.776942e+02 2.309955e+01 2.474974e+01 2.191480e+01 3.445160e+01 2.640630e+01 3.874847e+01 4.309961e+01 4.401301e+01 3.678079e+01 2.842572e+01 2.911807e+01 3.194785e+01 3.897274e+01 3.097233e+00 2.663344e+00 2.874009e+00 4.013753e+00 4.788226e+00 5.946188e+00 5.997934e+00 7.201668e+00 5.491574e+00 4.141418e+00 4.629867e+00 4.680301e+00 2.363070e+00
<GCONST> 2.100308e+02
<MIXTURE> 2 5.000000e-01
<MEAN> 39
 1.616094e+01 3.822996e+00 3.214590e+01 1.526678e+01 -5.496334e+00 2.971460e+00 1.327888e+01 -1.248510e+01 -6.323237e+00 3.056026e+00 -1.404571e+01 7.090063e+00 1.001243e+02 -3.665905e+00 -3.548822e+00 -2.912868e+00 -3.767433e+00 1.560273e+00 -2.918622e+00 -4.006237e+00 3.789005e+00 -4.720405e-01 -1.595515e+00 -3.583313e-01 -2.205066e+00 5.300460e-01 -1.795049e+00 -1.791925e+00 -1.866063e+00 -2.094124e+00 -2.233196e-01 -1.128853e+00 -1.762678e+00 8.789575e-01 -2.311254e-01 -5.169075e-01 1.269179e-01 -8.551918e-01 3.319148e-01
<VARIANCE> 39
 8.069639e+01 2.514713e+02 1.424159e+02 2.966900e+02 2.856462e+02 4.394026e+02 4.716291e+02 4.543072e+02 4.633262e+02 4.493203e+02 4.578174e+02 4.617229e+02 2.776942e+02 2.309955e+01 2.474974e+01 2.191480e+01 3.445160e+01 2.640630e+01 3.874847e+01 4.309961e+01 4.401301e+01 3.678079e+01 2.842572e+01 2.911807e+01 3.194785e+01 3.897274e+01 3.097233e+00 2.663344e+00 2.874009e+00 4.013753e+00 4.788226e+00 5.946188e+00 5.997934e+00 7.201668e+00 5.491574e+00 4.141418e+00 4.629867e+00 4.680301e+00 2.363070e+00
<GCONST> 2.100308e+02
<STATE> 4
<NUMMIXES> 2
<MIXTURE> 1 5.000000e-01
<MEAN> 39
 2.976444e+00 -3.740699e-01 2.171475e+01 1.614377e+01 8.407360e+00 5.429710e+00 1.480319e+01 1.657441e+01 5.105182e+00 7.561751e+00 -3.818001e+00 7.811818e+00 9.870786e+01 -2.824540e+00 -1.735669e+00 -3.803987e+00 -2.409386e+00 7.552095e-01 -3.157270e-01 -1.935691e+00 3.293829e+00 1.726879e+00 1.394951e-01 1.894464e+00 -2.264309e-01 3.807130e-01 5.148659e-01 6.151242e-01 3.043175e-01 5.214205e-01 -2.330560e-01 5.962203e-01 4.840004e-01 -7.903017e-01 1.942389e-01 4.103792e-01 3.820135e-01 5.623435e-01 3.690589e-01
<VARIANCE> 39
 1.903183e+02 2.615171e+02 2.239523e+02 4.256059e+02 2.505355e+02 3.512181e+02 4.950459e+02 3.891996e+02 3.322832e+02 3.739748e+02 2.762457e+02 2.638000e+02 7.268151e+02 2.330221e+01 1.986570e+01 1.925475e+01 2.463271e+01 2.300140e+01 2.515795e+01 2.792071e+01 3.560284e+01 3.185963e+01 2.356218e+01 2.518049e+01 2.295287e+01 2.426351e+01 1.683465e+00 2.819205e+00 2.776008e+00 4.893603e+00 3.818174e+00 5.572637e+00 5.933757e+00 5.486143e+00 4.481264e+00 3.946894e+00 3.782716e+00 3.668766e+00 2.810842e+00
<GCONST> 2.060012e+02
<MIXTURE> 2 5.000000e-01
<MEAN> 39
 -2.541792e+00 -6.842666e+00 1.572873e+01 7.891686e+00 2.076035e+00 -2.066616e+00 5.903344e+00 8.683152e+00 -2.186273e+00 -1.736195e-01 -1.046626e+01 1.315050e+00 8.792406e+01 -4.755435e+00 -3.518507e+00 -5.559196e+00 -4.394640e+00 -1.163182e+00 -2.322035e+00 -4.049293e+00 9.071046e-01 -5.308943e-01 -1.802140e+00 -1.127421e-01 -2.142797e+00 -1.589607e+00 -4.127830e-03 -5.649537e-02 -3.621368e-01 -3.634390e-01 -1.014662e+00 -3.480371e-01 -4.903717e-01 -1.727202e+00 -6.525209e-01 -3.842925e-01 -3.959548e-01 -2.038175e-01 -3.015637e-01
<VARIANCE> 39
 1.903183e+02 2.615171e+02 2.239523e+02 4.256059e+02 2.505355e+02 3.512181e+02 4.950459e+02 3.891996e+02 3.322832e+02 3.739748e+02 2.762457e+02 2.638000e+02 7.268151e+02 2.330221e+01 1.986570e+01 1.925475e+01 2.463271e+01 2.300140e+01 2.515795e+01 2.792071e+01 3.560284e+01 3.185963e+01 2.356218e+01 2.518049e+01 2.295287e+01 2.426351e+01 1.683465e+00 2.819205e+00 2.776008e+00 4.893603e+00 3.818174e+00 5.572637e+00 5.933757e+00 5.486143e+00 4.481264e+00 3.946894e+00 3.782716e+00 3.668766e+00 2.810842e+00
<GCONST> 2.060012e+02
<TRANSP> 5
 0.000000e+00 1.000000e+00 0.000000e+00 0.000000e+00 0.000000e+00
 0.000000e+00 6.619231e-01 3.380769e-01 0.000000e+00 0.000000e+00
 0.000000e+00 0.000000e+00 5.907113e-01 4.092887e-01 0.000000e+00
 0.000000e+00 0.000000e+00 0.000000e+00 6.201746e-01 3.798254e-01
 0.000000e+00 0.000000e+00 0.000000e+00 0.000000e+00 0.000000e+00
<ENDHMM>
~h "r"
<BEGINHMM>
<NUMSTATES> 5
<STATE> 2
<NUMMIXES> 2
<MIXTURE> 1 5.000000e-01
<MEAN> 39
 3.823603e+01 -1.535788e+01 -9.676905e-01 6.649716e+00 2.976470e+01 -1.571793e+01 -2.537042e+01 6.663263e+00 -4.246953e+00 9.144382e+00 5.205103e+00 1.044372e+01 1.292511e+02 1.015369e+00 -1.945508e-01 -5.952400e-01 9.238611e-01 1.921987e+00 -1.061497e-01 -2.615975e-01 1.929701e+00 2.301349e+00 1.438558e+00 8.503883e-01 8.421010e-01 6.007181e-01 -8.695853e-01 1.733320e-01 2.005373e+00 2.851498e-01 -1.407596e+00 2.621226e-01 1.881632e+00 9.818062e-01 -8.742210e-02 1.452850e-01 3.583997e-01 3.464148e-01 3.119887e-01
<VARIANCE> 39
 6.585424e+01 1.845809e+02 4.759120e+02 3.192653e+02 3.868462e+02 8.975979e+02 1.004542e+03 4.270882e+02 3.246701e+02 3.920790e+02 2.649073e+02 2.135397e+02 1.731761e+02 6.269268e+00 8.283953e+00 2.615325e+01 1.851350e+01 1.964600e+01 2.913793e+01 2.230817e+01 2.396898e+01 1.920119e+01 1.642371e+01 1.468550e+01 1.359313e+01 6.670190e+00 1.272741e+00 1.260897e+00 1.832563e+00 2.050829e+00 2.642710e+00 4.325750e+00 3.763503e+00 3.410305e+00 2.919220e+00 2.862874e+00 2.531821e+00 2.332995e+00 7.379329e-01
<GCONST> 1.926855e+02
<MIXTURE> 2 5.000000e-01
<MEAN> 39
 3.499001e+01 -2.079230e+01 -9.693853e+00 -4.974823e-01 2.189734e+01 -2.770191e+01 -3.804822e+01 -1.603182e+00 -1.145440e+01 1.223989e+00 -1.305287e+00 4.598518e+00 1.239873e+02 1.382887e-02 -1.345825e+00 -2.640850e+00 -7.972316e-01 1.490349e-01 -2.265332e+00 -2.150858e+00 -2.862430e-02 5.485827e-01 -1.824895e-01 -6.824782e-01 -6.326536e-01 -4.323503e-01 -1.320849e+00 -2.758267e-01 1.463885e+00 -2.876788e-01 -2.057852e+00 -5.698149e-01 1.105642e+00 2.431257e-01 -7.708511e-01 -5.315162e-01 -2.780682e-01 -2.645510e-01 -3.162345e-02
<VARIANCE> 39
 6.585424e+01 1.845809e+02 4.759120e+02 3.192653e+02 3.868462e+02 8.975979e+02 1.004542e+03 4.270882e+02 3.246701e+02 3.920790e+02 2.649073e+02 2.135397e+02 1.731761e+02 6.269268e+00 8.283953e+00 2.615325e+01 1.851350e+01 1.964600e+01 2.913793e+01 2.230817e+01 2.396898e+01 1.920119e+01 1.642371e+01 1.468550e+01 1.359313e+01 6.670190e+00 1.272741e+00 1.260897e+00 1.832563e+00 2.050829e+00 2.642710e+00 4.325750e+00 3.763503e+00 3.410305e+00 2.919220e+00 2.862874e+00 2.531821e+00 2.332995e+00 7.379329e-01
<GCONST> 1.926855e+02
<STATE> 3
<NUMMIXES> 2
<MIXTURE> 1 5.000000e-01
<MEAN> 39
 3.271978e+01 -2.189612e+01 1.191018e+01 1.318795e+01 2.076041e+01 -2.805348e+01 -1.914725e+01 1.988562e+01 -3.611354e+00 6.338566e+00 3.668756e+00 1.188792e+01 1.325155e+02 -3.249732e+00 -8.350325e-02 7.948769e+00 2.254526e+00 -4.716232e+00 -5.291368e-01 7.117988e+00 3.968818e+00 -1.065480e+00 -4.269850e-02 1.891291e+00 7.166716e-01 1.017966e+00 -8.047760e-01 1.462657e+00 1.163066e+00 -8.269308e-01 -5.659311e-01 2.874383e+00 2.121332e+00 -1.313541e+00 -4.812652e-01 1.109965e+00 5.530726e-01 -8.869442e-02 -4.254026e-01
<VARIANCE> 39
 7.058279e+01 1.914040e+02 5.728309e+02 3.719768e+02 3.939648e+02 7.990948e+02 1.054523e+03 4.011986e+02 4.163391e+02 4.806999e+02 2.814086e+02 2.457812e+02 2.005239e+02 9.293461e+00 9.750277e+00 2.922933e+01 2.563476e+01 2.704997e+01 3.532901e+01 3.199967e+01 3.238946e+01 3.640265e+01 2.700909e+01 2.203702e+01 1.748423e+01 1.259303e+01 2.000344e+00 2.068283e+00 2.303267e+00 2.341607e+00 3.788143e+00 5.685892e+00 5.219314e+00 4.621499e+00 4.091315e+00 3.782079e+00 2.952673e+00 3.062499e+00 9.666203e-01
<GCONST> 2.022997e+02
<MIXTURE> 2 5.000000e-01
<MEAN> 39
 2.935924e+01 -2.743008e+01 2.336631e+00 5.473269e+00 1.282099e+01 -3.936078e+01 -3.213662e+01 1.187364e+01 -1.177311e+01 -2.431382e+00 -3.041339e+00 5.616957e+00 1.268513e+02 -4.469140e+00 -1.332521e+00 5.786203e+00 2.292943e-01 -6.796616e+00 -2.906665e+00 4.855258e+00 1.692348e+00 -3.478864e+00 -2.121510e+00 1.354659e-02 -9.558944e-01 -4.015004e-01 -1.370510e+00 8.873955e-01 5.560055e-01 -1.439023e+00 -1.344457e+00 1.920579e+00 1.207500e+00 -2.173448e+00 -1.290345e+00 3.320621e-01 -1.342612e-01 -7.886944e-01 -8.186700e-01
<VARIANCE> 39
 7.058279e+01 1.914040e+02 5.728309e+02 3.719768e+02 3.939648e+02 7.990948e+02 1.054523e+03 4.011986e+02 4.163391e+02 4.806999e+02 2.814086e+02 2.457812e+02 2.005239e+02 9.293461e+00 9.750277e+00 2.922933e+01 2.563476e+01 2.704997e+01 3.532901e+01 3.199967e+01 3.238946e+01 3.640265e+01 2.700909e+01 2.203702e+01 1.748423e+01 1.259303e+01 2.000344e+00 2.068283e+00 2.303267e+00 2.341607e+00 3.788143e+00 5.685892e+00 5.219314e+00 4.621499e+00 4.091315e+00 3.782079e+00 2.952673e+00 3.062499e+00 9.666203e-01
<GCONST> 2.022997e+02
<STATE> 4
<NUMMIXES> 2
<MIXTURE> 1 5.000000e-01
<MEAN> 39
 1.997032e+01 -1.829548e+01 1.982939e+01 1.250119e+01 8.781042e+00 -1.717938e+01 3.227837e+00 2.010536e+01 -5.578376e+00 9.321808e+00 6.778687e+00 7.504352e+00 1.226268e+02 -3.366950e+00 2.017485e+00 5.011180e+00 -9.479783e-01 -2.778974e+00 4.353518e+00 5.085500e+00 -1.439749e+00 -2.718823e-01 2.320124e+00 3.733955e-01 -6.583586e-01 -9.196318e-01 2.808242e-01 9.957560e-01 -3.635235e-01 -4.207475e-01 1.070003e+00 1.266729e+00 -5.984801e-01 -6.309419e-01 1.046956e+00 5.920131e-01 -2.115998e-01 3.442328e-01 -9.607400e-02
<VARIANCE> 39
 2.062816e+02 2.026645e+02 9.192108e+02 3.687062e+02 4.568727e+02 7.465933e+02 7.670541e+02 4.159179e+02 6.448765e+02 4.179055e+02 2.949646e+02 2.643924e+02 6.403900e+02 1.512952e+01 1.454144e+01 2.394114e+01 2.111029e+01 2.089707e+01 2.632836e+01 2.977730e+01 2.845835e+01 2.279111e+01 2.262063e+01 1.843023e+01 1.613775e+01 1.039015e+01 1.445860e+00 1.892551e+00 2.478509e+00 2.862874e+00 3.661989e+00 4.756073e+00 4.077228e+00 3.550456e+00 4.717534e+00 3.054570e+00 3.084706e+00 2.597115e+00 1.035410e+00
<GCONST> 2.029274e+02
<MIXTURE> 2 5.000000e-01
<MEAN> 39
 1.422532e+01 -2.398990e+01 7.701992e+00 4.820497e+00 2.312098e-01 -2.810892e+01 -7.850459e+00 1.194774e+01 -1.573614e+01 1.144714e+00 -9.112573e-02 1.000293e+00 1.125044e+02 -4.922817e+00 4.921552e-01 3.053992e+00 -2.785816e+00 -4.607506e+00 2.301072e+00 2.902756e+00 -3.573603e+00 -2.181484e+00 4.176780e-01 -1.343822e+00 -2.265231e+00 -2.208982e+00 -2.001515e-01 4.454759e-01 -9.932547e-01 -1.097549e+00 3.045504e-01 3.943916e-01 -1.406166e+00 -1.384648e+00 1.781604e-01 -1.070801e-01 -9.141330e-01 -3.003899e-01 -5.030944e-01
<VARIANCE> 39
 2.062816e+02 2.026645e+02 9.192108e+02 3.687062e+02 4.568727e+02 7.465933e+02 7.670541e+02 4.159179e+02 6.448765e+02 4.179055e+02 2.949646e+02 2.643924e+02 6.403900e+02 1.512952e+01 1.454144e+01 2.394114e+01 2.111029e+01 2.089707e+01 2.632836e+01 2.977730e+01 2.845835e+01 2.279111e+01 2.262063e+01 1.843023e+01 1.613775e+01 1.039015e+01 1.445860e+00 1.892551e+00 2.478509e+00 2.862874e+00 3.661989e+00 4.756073e+00 4.077228e+00 3.550456e+00 4.717534e+00 3.054570e+00 3.084706e+00 2.597115e+00 1.035410e+00
<GCONST> 2.029274e+02
<TRANSP> 5
 0.000000e+00 1.000000e+00 0.000000e+00 0.000000e+00 0.000000e+00
 0.000000e+00 7.662788e-01 2.337212e-01 0.000000e+00 0.000000e+00
 0.000000e+00 0.000000e+00 5.110236e-01 4.889764e-01 0.000000e+00
 0.000000e+00 0.000000e+00 0.000000e+00 5.942874e-01 4.057126e-01
 0.000000e+00 0.000000e+00 0.000000e+00 0.000000e+00 0.000000e+00
<ENDHMM>
~h "s"
<BEGINHMM>
<NUMSTATES> 5
<STATE> 2
<NUMMIXES> 2
<MIXTURE> 1 5.000000e-01
<MEAN> 39
 -2.410545e+01 8.045077e+00 1.247687e+01 1.017680e+01 6.740345e+00 -3.520211e+00 2.314691e+00 7.388268e+00 8.943057e-02 5.115718e+00 -1.975662e+00 8.514660e+00 1.079233e+02 -7.275669e+00 3.010416e+00 -2.591564e+00 5.845033e-01 2.185792e-01 1.164086e+00 2.078271e+00 2.319287e+00 1.168705e+00 4.875013e-01 1.641566e+00 1.269887e+00 1.828828e+00 9.765822e-01 4.032016e-03 -4.885606e-01 -2.478999e-01 1.320924e-01 5.554096e-01 3.956401e-02 9.006563e-02 4.432437e-02 7.065669e-01 5.236903e-01 3.111254e-01 2.032566e-02
<VARIANCE> 39
 6.030625e+02 2.431198e+02 4.114994e+02 3.320733e+02 4.043390e+02 3.813358e+02 3.360685e+02 3.050837e+02 2.877643e+02 2.352502e+02 2.184056e+02 2.200027e+02 4.635265e+02 5.274912e+01 2.420303e+01 4.544563e+01 4.024633e+01 2.982416e+01 3.707131e+01 3.059647e+01 2.938495e+01 3.250254e+01 2.545550e+01 2.386907e+01 2.292775e+01 3.067637e+01 9.097203e+00 4.707653e+00 5.261519e+00 5.597445e+00 5.475083e+00 5.946093e+00 5.357940e+00 5.633795e+00 5.079659e+00 4.703454e+00 4.339538e+00 4.009124e+00 3.265221e+00
<GCONST> 2.130866e+02
<MIXTURE> 2 5.000000e-01
<MEAN> 39
 -3.392839e+01 1.808157e+00 4.362691e+00 2.887647e+00 -1.302927e+00 -1.133134e+01 -5.018177e+00 4.016087e-01 -6.696016e+00 -1.019430e+00 -7.887083e+00 2.581664e+00 9.931147e+01 -1.018081e+01 1.042552e+00 -5.288098e+00 -1.953097e+00 -1.965881e+00 -1.271363e+00 -1.342922e-01 1.509712e-01 -1.111735e+00 -1.530636e+00 -3.126733e-01 -6.454298e-01 -3.866224e-01 -2.298806e-01 -8.638530e-01 -1.406081e+00 -1.194257e+00 -8.038634e-01 -4.199749e-01 -8.863250e-01 -8.593590e-01 -8.571995e-01 -1.609310e-01 -3.095721e-01 -4.897864e-01 -7.024713e-01
<VARIANCE> 39
 6.030625e+02 2.431198e+02 4.114994e+02 3.320733e+02 4.043390e+02 3.813358e+02 3.360685e+02 3.050837e+02 2.877643e+02 2.352502e+02 2.184056e+02 2.200027e+02 4.635265e+02 5.274912e+01 2.420303e+01 4.544563e+01 4.024633e+01 2.982416e+01 3.707131e+01 3.059647e+01 2.938495e+01 3.250254e+01 2.545550e+01 2.386907e+01 2.292775e+01 3.067637e+01 9.097203e+00 4.707653e+00 5.261519e+00 5.597445e+00 5.475083e+00 5.946093e+00 5.357940e+00 5.633795e+00 5.079659e+00 4.703454e+00 4.339538e+00 4.009124e+00 3.265221e+00
<GCONST> 2.130866e+02
<STATE> 3
<NUMMIXES> 2
<MIXTURE> 1 5.000000e-01
<MEAN> 39
 -5.080599e+01 1.089062e+01 -7.341369e+00 3.958275e+00 -3.693132e-01 -7.385220e+00 1.693884e+00 6.719450e+00 -3.037817e+00 3.598480e+00 -5.096385e-01 9.009783e+00 1.096215e+02 -2.525455e+00 1.642524e+00 -3.000466e+00 -6.438131e-01 -1.752953e-01 1.387321e+00 1.059598e-01 8.263612e-02 9.258509e-03 8.613179e-01 6.391305e-01 6.622618e-01 1.095610e+00 2.878782e+00 -2.368563e-01 1.479740e+00 9.978921e-01 8.621311e-01 7.498422e-01 1.770995e-01 8.315468e-02 5.290596e-01 5.625185e-01 5.655196e-02 1.710262e-01 -2.875110e-01
<VARIANCE> 39
 1.350304e+02 1.460210e+02 1.792681e+02 2.793039e+02 3.616744e+02 2.914173e+02 1.969996e+02 1.806044e+02 1.647761e+02 1.532930e+02 1.660087e+02 1.312633e+02 1.851234e+02 1.783953e+01 1.572997e+01 1.690806e+01 1.515965e+01 1.701677e+01 1.973915e+01 1.878028e+01 1.580347e+01 1.454141e+01 1.423414e+01 1.328961e+01 1.246209e+01 1.288989e+01 2.697153e+00 2.278337e+00 3.642821e+00 2.903223e+00 3.292063e+00 3.364662e+00 3.536318e+00 3.516050e+00 3.174318e+00 3.025237e+00 2.880502e+00 2.801148e+00 1.892786e+00
<GCONST> 1.895595e+02
<MIXTURE> 2 5.000000e-01
<MEAN> 39
 -5.545409e+01 6.057058e+00 -1.269701e+01 -2.726680e+00 -7.976409e+00 -1.421360e+01 -3.920378e+00 1.343884e+00 -8.172423e+00 -1.353982e+00 -5.663413e+00 4.426975e+00 1.041791e+02 -4.214930e+00 5.608267e-02 -4.645242e+00 -2.201229e+00 -1.825351e+00 -3.898298e-01 -1.627489e+00 -1.507507e+00 -1.516070e+00 -6.478085e-01 -8.190663e-01 -7.498056e-01 -3.404898e-01 2.221862e+00 -8.406227e-01 7.162925e-01 3.163383e-01 1.363693e-01 1.612160e-02 -5.751045e-01 -6.668907e-01 -1.836050e-01 -1.332099e-01 -6.223297e-01 -4.984390e-01 -8.378252e-01
<VARIANCE> 39
 1.350304e+02 1.460210e+02 1.792681e+02 2.793039e+02 3.616744e+02 2.914173e+02 1.969996e+02 1.806044e+02 1.647761e+02 1.532930e+02 1.660087e+02 1.312633e+02 1.851234e+02 1.783953e+01 1.572997e+01 1.690806e+01 1.515965e+01 1.701677e+01 1.973915e+01 1.878028e+01 1.580347e+01 1.454141e+01 1.423414e+01 1.328961e+01 1.246209e+01 1.288989e+01 2.697153e+00 2.278337e+00 3.642821e+00 2.903223e+00 3.292063e+00 3.364662e+00 3.536318e+00 3.516050e+00 3.174318e+00 3.025237e+00 2.880502e+00 2.801148e+00 1.892786e+00
<GCONST> 1.895595e+02
<STATE> 4
<NUMMIXES> 2
<MIXTURE> 1 5.000000e-01
<MEAN> 39
 -4.922389e+01 8.046312e+00 -1.217284e+01 5.820589e+00 -3.316432e+00 -2.465270e+00 -1.832787e+00 5.942128e+00 -4.050481e+00 4.966265e+00 -1.538091e+00 8.073412e+00 1.077101e+02 1.188281e+00 2.167265e-01 6.972579e-01 3.797880e-01 6.280072e-01 9.170394e-01 6.810622e-01 5.704538e-01 7.426731e-01 7.579068e-01 5.194679e-01 5.748843e-01 4.862869e-01 1.177349e+00 1.232855e-01 1.035903e+00 3.728268e-01 3.481774e-01 9.364200e-02 3.524189e-01 2.791390e-01 4.541794e-01 2.785835e-01 2.812356e-01 3.388971e-01 2.319949e-01
<VARIANCE> 39
 1.602467e+02 1.365551e+02 1.557361e+02 2.442243e+02 2.992806e+02 2.759201e+02 1.562577e+02 1.424935e+02 1.440125e+02 1.312632e+02 1.409947e+02 1.207039e+02 1.994581e+02 6.558965e+00 5.589088e+00 6.480993e+00 7.343117e+00 8.997660e+00 1.065329e+01 1.086977e+01 1.119190e+01 1.092985e+01 1.112685e+01 1.067729e+01 1.002250e+01 5.791950e+00 1.850242e+00 1.206831e+00 1.783692e+00 1.559053e+00 1.764735e+00 2.161654e+00 2.248054e+00 2.240087e+00 2.207929e+00 2.266077e+00 2.140952e+00 2.049922e+00 9.180951e-01
<GCONST> 1.742778e+02
<MIXTURE> 2 5.000000e-01
<MEAN> 39
 -5.428743e+01 3.372040e+00 -1.716462e+01 -4.304824e-01 -1.023632e+01 -9.109608e+00 -6.832911e+00 1.167302e+00 -8.850689e+00 3.834589e-01 -6.287739e+00 3.678799e+00 1.020609e+02 1.638622e-01 -7.289236e-01 -3.210539e-01 -7.041395e-01 -5.718368e-01 -3.885358e-01 -6.377112e-01 -7.677182e-01 -5.797399e-01 -5.763706e-01 -7.875771e-01 -6.914490e-01 -4.763719e-01 6.332543e-01 -3.161380e-01 5.016834e-01 -1.266214e-01 -1.831960e-01 -4.944606e-01 -2.473216e-01 -3.195378e-01 -1.401846e-01 -3.235563e-01 -3.040441e-01 -2.338048e-01 -1.512742e-01
<VARIANCE> 39
 1.602467e+02 1.365551e+02 1.557361e+02 2.442243e+02 2.992806e+02 2.759201e+02 1.562577e+02 1.424935e+02 1.440125e+02 1.312632e+02 1.409947e+02 1.207039e+02 1.994581e+02 6.558965e+00 5.589088e+00 6.480993e+00 7.343117e+00 8.997660e+00 1.065329e+01 1.086977e+01 1.119190e+01 1.092985e+01 1.112685e+01 1.067729e+01 1.002250e+01 5.791950e+00 1.850242e+00 1.206831e+00 1.783692e+00 1.559053e+00 1.764735e+00 2.161654e+00 2.248054e+00 2.240087e+00 2.207929e+00 2.266077e+00 2.140952e+00 2.049922e+00 9.180951e-01
<GCONST> 1.742778e+02
<TRANSP> 5
 0.000000e+00 1.000000e+00 0.000000e+00 0.000000e+00 0.000000e+00
 0.000000e+00 5.609609e-01 4.390391e-01 0.000000e+00 0.000000e+00
 0.000000e+00 0.000000e+00 5.229108e-01 4.770892e-01 0.000000e+00
 0.000000e+00 0.000000e+00 0.000000e+00 8.447417e-01 1.552583e-01
 0.000000e+00 0.000000e+00 0.000000e+00 0.000000e+00 0.000000e+00
<ENDHMM>
~h "t"
<BEGINHMM>
<NUMSTATES> 5
<STATE> 2
<NUMMIXES> 2
<MIXTURE> 1 5.000000e-01
<MEAN> 39
 -1.171425e+01 1.353029e+01 1.994590e+01 1.639781e+01 5.596112e+00 4.474961e+00 1.525930e+00 1.873239e+00 -1.104301e+00 4.007328e+00 9.460288e-01 4.262501e+00 6.663647e+01 -2.432283e+00 -2.012222e-01 -4.067068e+00 -6.299518e-01 1.103700e+00 5.202603e-01 5.304687e-01 1.788421e+00 2.175251e+00 9.730943e-01 2.132903e+00 9.719033e-01 3.886189e-01 7.969284e-02 -3.945316e-01 1.551465e+00 -1.111893e+00 -2.412965e-01 -1.854658e-01 3.606440e-01 -7.605061e-02 -2.056402e-01 5.279238e-01 3.784817e-02 6.131563e-01 4.532072e+00
<VARIANCE> 39
 2.485326e+02 1.904105e+02 3.600660e+02 2.306375e+02 1.833029e+02 1.912153e+02 2.318876e+02 2.217638e+02 2.031223e+02 1.727977e+02 1.583652e+02 1.346613e+02 4.081258e+02 2.213362e+01 3.398574e+01 5.293145e+01 4.151825e+01 2.661087e+01 2.745936e+01 2.794125e+01 3.135350e+01 3.458580e+01 2.296102e+01 2.173382e+01 1.965269e+01 1.315625e+02 3.510676e+00 5.867683e+00 6.950105e+00 6.313824e+00 4.844933e+00 4.789576e+00 5.248291e+00 5.235040e+00 5.846741e+00 4.298769e+00 3.958352e+00 3.614993e+00 1.267631e+01
<GCONST> 2.085174e+02
<MIXTURE> 2 5.000000e-01
<MEAN> 39
 -1.802021e+01 8.010714e+00 1.235574e+01 1.032311e+01 1.805360e-01 -1.056263e+00 -4.565212e+00 -4.083455e+00 -6.805140e+00 -1.250774e+00 -4.087701e+00 -3.792453e-01 5.855561e+01 -4.314138e+00 -2.533114e+00 -6.977228e+00 -3.207338e+00 -9.597287e-01 -1.575807e+00 -1.583911e+00 -4.513468e-01 -1.771364e-01 -9.436120e-01 2.681211e-01 -8.013510e-01 -4.199409e+00 -6.697791e-01 -1.363464e+00 4.969429e-01 -2.116987e+00 -1.121745e+00 -1.060870e+00 -5.557220e-01 -9.912590e-01 -1.172842e+00 -3.014151e-01 -7.579762e-01 -1.473691e-01 3.107920e+00
<VARIANCE> 39
 2.485326e+02 1.904105e+02 3.600660e+02 2.306375e+02 1.833029e+02 1.912153e+02 2.318876e+02 2.217638e+02 2.031223e+02 1.727977e+02 1.583652e+02 1.346613e+02 4.081258e+02 2.213362e+01 3.398574e+01 5.293145e+01 4.151825e+01 2.661087e+01 2.745936e+01 2.794125e+01 3.135350e+01 3.458580e+01 2.296102e+01 2.173382e+01 1.965269e+01 1.315625e+02 3.510676e+00 5.867683e+00 6.950105e+00 6.313824e+00 4.844933e+00 4.789576e+00 5.248291e+00 5.235040e+00 5.846741e+00 4.298769e+00 3.958352e+00 3.614993e+00 1.267631e+01
<GCONST> 2.085174e+02
<STATE> 3
<NUMMIXES> 2
<MIXTURE> 1 5.000000e-01
<MEAN> 39
 -3.056386e+01 2.243075e+00 8.281586e+00 -8.279459e+00 -6.881788e-01 -5.699174e+00 -8.391788e-01 -1.857002e+00 -8.040653e+00 4.169471e+00 1.182613e+00 5.418700e+00 1.116089e+02 -3.477968e+00 1.448768e+00 1.721634e+00 -1.165110e+00 -1.512500e+00 -1.881000e+00 2.393049e+00 9.237603e-01 -1.169689e+00 8.085965e-01 5.767959e-01 2.293245e+00 1.342812e+01 1.379276e+00 1.179734e+00 1.693053e+00 2.466190e+00 1.440425e-01 7.411295e-01 1.145273e+00 8.697846e-01 9.514123e-01 4.580023e-01 2.380341e-01 6.833243e-01 -2.210680e+00
<VARIANCE> 39
 2.097000e+02 2.226543e+02 2.070989e+02 1.847018e+02 1.687556e+02 1.775687e+02 1.821288e+02 1.908563e+02 1.672841e+02 1.486163e+02 1.297645e+02 1.214633e+02 9.300822e+02 1.810931e+01 2.087148e+01 2.219766e+01 2.251465e+01 1.841475e+01 2.293657e+01 2.489491e+01 2.326112e+01 1.997732e+01 1.893201e+01 1.926666e+01 1.539066e+01 9.827868e+01 4.756528e+00 4.982916e+00 4.119846e+00 4.163853e+00 3.885484e+00 3.849409e+00 3.906698e+00 3.764481e+00 3.995820e+00 3.403256e+00 3.215623e+00 3.072227e+00 1.882691e+01
<GCONST> 2.003748e+02
<MIXTURE> 2 5.000000e-01
<MEAN> 39
 -3.635627e+01 -3.725567e+00 2.525213e+00 -1.371566e+01 -5.884418e+00 -1.102937e+01 -6.237383e+00 -7.383032e+00 -1.321419e+01 -7.068607e-01 -3.373957e+00 1.010284e+00 9.941005e+01 -5.180170e+00 -3.786449e-01 -1.629419e-01 -3.063094e+00 -3.228996e+00 -3.796686e+00 3.972570e-01 -1.005431e+00 -2.957529e+00 -9.318408e-01 -1.178956e+00 7.240073e-01 9.462698e+00 5.068973e-01 2.868358e-01 8.811569e-01 1.649970e+00 -6.444228e-01 -4.366693e-02 3.546583e-01 9.369376e-02 1.518304e-01 -2.799143e-01 -4.792523e-01 -1.778650e-02 -3.946280e+00
<VARIANCE> 39
 2.097000e+02 2.226543e+02 2.070989e+02 1.847018e+02 1.687556e+02 1.775687e+02 1.821288e+02 1.908563e+02 1.672841e+02 1.486163e+02 1.297645e+02 1.214633e+02 9.300822e+02 1.810931e+01 2.087148e+01 2.219766e+01 2.251465e+01 1.841475e+01 2.293657e+01 2.489491e+01 2.326112e+01 1.997732e+01 1.893201e+01 1.926666e+01 1.539066e+01 9.827868e+01 4.756528e+00 4.982916e+00 4.119846e+00 4.163853e+00 3.885484e+00 3.849409e+00 3.906698e+00 3.764481e+00 3.995820e+00 3.403256e+00 3.215623e+00 3.072227e+00 1.882691e+01
<GCONST> 2.003748e+02
<STATE> 4
<NUMMIXES> 2
<MIXTURE> 1 5.000000e-01
<MEAN> 39
 -3.117509e+01 6.627635e-01 1.668972e+01 -1.150719e+00 -8.937267e+00 -9.689114e+00 9.792061e+00 4.113445e+00 -6.999225e+00 3.539725e+00 1.373745e+00 1.190596e+01 1.100182e+02 5.246687e+00 -5.381336e-01 4.103712e+00 3.671161e+00 4.678983e-01 1.056589e+00 1.739579e+00 2.256637e+00 1.788858e+00 6.350076e-01 -3.457963e-03 1.015142e+00 -1.170830e+00 2.571885e+00 3.747538e-01 9.983176e-01 7.830039e-01 1.208481e+00 8.707728e-01 -2.928603e-01 2.303858e-01 5.266793e-01 4.837189e-01 2.149559e-01 -1.807717e-01 1.558181e-01
<VARIANCE> 39
 2.834921e+02 1.346393e+02 1.993129e+02 1.698079e+02 1.824070e+02 2.504443e+02 2.609729e+02 3.057751e+02 2.102709e+02 1.939694e+02 2.289969e+02 1.727523e+02 5.647485e+02 3.139834e+01 1.214165e+01 2.749943e+01 2.011537e+01 1.714643e+01 1.705505e+01 1.838409e+01 1.823863e+01 1.711045e+01 1.587489e+01 1.620875e+01 1.511619e+01 1.608619e+01 5.662430e+00 2.992047e+00 3.472118e+00 2.976233e+00 3.232616e+00 4.535711e+00 3.997202e+00 3.769592e+00 3.990667e+00 3.694680e+00 3.761691e+00 3.110701e+00 6.909532e+00
<GCONST> 1.974939e+02
<MIXTURE> 2 5.000000e-01
<MEAN> 39
 -3.790997e+01 -3.978603e+00 1.104260e+01 -6.363133e+00 -1.433959e+01 -1.601929e+01 3.330199e+00 -2.881125e+00 -1.279951e+01 -2.031191e+00 -4.679313e+00 6.648545e+00 1.005124e+02 3.005318e+00 -1.931928e+00 2.006116e+00 1.877155e+00 -1.188432e+00 -5.953212e-01 2.451247e-02 5.483688e-01 1.342669e-01 -9.587246e-01 -1.613862e+00 -5.400400e-01 -2.775134e+00 1.620051e+00 -3.171476e-01 2.529728e-01 9.293345e-02 4.893021e-01 1.888442e-02 -1.092581e+00 -5.462317e-01 -2.723869e-01 -2.851431e-01 -5.608473e-01 -8.862588e-01 -8.956214e-01
<VARIANCE> 39
 2.834921e+02 1.346393e+02 1.993129e+02 1.698079e+02 1.824070e+02 2.504443e+02 2.609729e+02 3.057751e+02 2.102709e+02 1.939694e+02 2.289969e+02 1.727523e+02 5.647485e+02 3.139834e+01 1.214165e+01 2.749943e+01 2.011537e+01 1.714643e+01 1.705505e+01 1.838409e+01 1.823863e+01 1.711045e+01 1.587489e+01 1.620875e+01 1.511619e+01 1.608619e+01 5.662430e+00 2.992047e+00 3.472118e+00 2.976233e+00 3.232616e+00 4.535711e+00 3.997202e+00 3.769592e+00 3.990667e+00 3.694680e+00 3.761691e+00 3.110701e+00 6.909532e+00
<GCONST> 1.974939e+02
<TRANSP> 5
 0.000000e+00 1.000000e+00 0.000000e+00 0.000000e+00 0.000000e+00
 0.000000e+00 7.807872e-01 2.192128e-01 0.000000e+00 0.000000e+00
 0.000000e+00 0.000000e+00 6.164431e-01 3.835569e-01 0.000000e+00
 0.000000e+00 0.000000e+00 0.000000e+00 6.892220e-01 3.107780e-01
 0.000000e+00 0.000000e+00 0.000000e+00 0.000000e+00 0.000000e+00
<ENDHMM>
~h "v"
<BEGINHMM>
<NUMSTATES> 5
<STATE> 2
<NUMMIXES> 2
<MIXTURE> 1 5.000000e-01
<MEAN> 39
 1.439371e+01 -2.477308e+01 1.862106e+01 -1.647106e+01 -7.558743e+00 -1.726219e+01 3.657442e+00 1.591791e+01 1.762676e+01 1.922986e+01 1.535469e+00 1.006870e+01 1.499072e+02 1.304233e+00 8.605471e-01 6.596462e-01 1.567258e+00 1.542879e+00 8.395329e-01 9.663528e-02 -2.488651e-01 -2.564967e-03 1.388917e+00 1.221150e+00 -7.018512e-02 -1.041400e+00 1.551283e-01 1.341669e+00 3.004994e-01 1.706505e+00 1.334156e+00 1.208552e+00 -2.218342e-01 -7.868908e-01 -6.881143e-01 1.861900e-03 2.271250e-01 2.273305e-01 -1.408166e+00
<VARIANCE> 39
 7.302629e+01 1.478633e+02 2.332942e+02 2.175334e+02 2.588120e+02 2.637079e+02 8.588472e+02 2.862118e+02 3.065656e+02 4.731410e+02 3.384778e+02 4.063866e+02 1.653329e+02 2.128677e+00 8.644604e+00 7.367376e+00 1.018352e+01 9.165146e+00 1.148093e+01 1.556913e+01 1.515720e+01 1.524919e+01 1.098196e+01 1.539977e+01 1.199399e+01 6.985883e+00 7.385665e-01 8.770405e-01 1.230182e+00 1.640363e+00 1.986030e+00 2.631951e+00 3.086191e+00 1.858822e+00 2.370832e+00 2.204928e+00 2.058705e+00 2.052210e+00 1.003168e+00
<GCONST> 1.805670e+02
<MIXTURE> 2 5.000000e-01
<MEAN> 39
 1.097549e+01 -2.963704e+01 1.251147e+01 -2.237066e+01 -1.399380e+01 -2.375783e+01 -8.064997e+00 9.150791e+00 1.062316e+01 1.052914e+01 -5.823637e+00 2.005091e+00 1.447640e+02 7.206333e-01 -3.155212e-01 -4.260703e-01 2.907933e-01 3.319195e-01 -5.158080e-01 -1.481674e+00 -1.806155e+00 -1.564574e+00 6.335497e-02 -3.485512e-01 -1.455479e+00 -2.098632e+00 -1.886312e-01 9.670671e-01 -1.431549e-01 1.194199e+00 7.704498e-01 5.596205e-01 -9.245366e-01 -1.332245e+00 -1.304015e+00 -5.920981e-01 -3.468025e-01 -3.456909e-01 -1.808800e+00
<VARIANCE> 39
 7.302629e+01 1.478633e+02 2.332942e+02 2.175334e+02 2.588120e+02 2.637079e+02 8.588472e+02 2.862118e+02 3.065656e+02 4.731410e+02 3.384778e+02 4.063866e+02 1.653329e+02 2.128677e+00 8.644604e+00 7.367376e+00 1.018352e+01 9.165146e+00 1.148093e+01 1.556913e+01 1.515720e+01 1.524919e+01 1.098196e+01 1.539977e+01 1.199399e+01 6.985883e+00 7.385665e-01 8.770405e-01 1.230182e+00 1.640363e+00 1.986030e+00 2.631951e+00 3.086191e+00 1.858822e+00 2.370832e+00 2.204928e+00 2.058705e+00 2.052210e+00 1.003168e+00
<GCONST> 1.805670e+02
<STATE> 3
<NUMMIXES> 2
<MIXTURE> 1 5.000000e-01
<MEAN> 39
 2.070559e+01 -1.438798e+01 2.212692e+01 1.103896e+00 3.292157e+00 -1.160413e+01 -6.989789e+00 3.448692e+00 4.203619e+00 2.001850e+01 5.173702e+00 5.090832e+00 1.304878e+02 -5.074571e-01 6.647768e+00 1.705039e+00 8.183978e+00 6.336268e+00 6.729617e+00 1.371955e+00 -2.042642e+00 -2.815936e+00 -4.978931e-01 1.410024e+00 7.171020e-01 -8.412911e+00 -1.497126e+00 5.222136e-01 -2.403057e-01 3.536858e-01 4.946309e-01 1.664314e+00 1.734786e+00 1.588442e+00 1.101292e+00 -1.669703e-01 6.070197e-02 4.474408e-01 4.369715e-02
<VARIANCE> 39
 6.181246e+01 1.740278e+02 2.252940e+02 2.830077e+02 3.020499e+02 3.540166e+02 5.018209e+02 3.247091e+02 5.023415e+02 3.452813e+02 4.034776e+02 3.290560e+02 2.620321e+02 1.362831e+01 1.306254e+01 1.572536e+01 1.917700e+01 2.025528e+01 2.431243e+01 3.713858e+01 2.297636e+01 2.666104e+01 2.663684e+01 2.417606e+01 2.123974e+01 1.102432e+01 2.095102e+00 2.519486e+00 2.205810e+00 3.933707e+00 4.357654e+00 5.535838e+00 3.805809e+00 3.401128e+00 4.954261e+00 3.577145e+00 4.041430e+00 3.144936e+00 3.539486e+00
<GCONST> 2.003286e+02
<MIXTURE> 2 5.000000e-01
<MEAN> 39
 1.756075e+01 -1.966476e+01 1.612300e+01 -5.625237e+00 -3.659677e+00 -1.913027e+01 -1.595033e+01 -3.759183e+00 -4.761572e+00 1.258580e+01 -2.860998e+00 -2.165128e+00 1.240128e+02 -1.984119e+00 5.202082e+00 1.188307e-01 6.432316e+00 4.536034e+00 4.757311e+00 -1.065702e+00 -3.959988e+00 -4.881309e+00 -2.562329e+00 -5.567425e-01 -1.126362e+00 -9.741027e+00 -2.076104e+00 -1.127020e-01 -8.343845e-01 -4.396572e-01 -3.403689e-01 7.231798e-01 9.544464e-01 8.507560e-01 2.109655e-01 -9.235040e-01 -7.434304e-01 -2.619179e-01 -7.088437e-01
<VARIANCE> 39
 6.181246e+01 1.740278e+02 2.252940e+02 2.830077e+02 3.020499e+02 3.540166e+02 5.018209e+02 3.247091e+02 5.023415e+02 3.452813e+02 4.034776e+02 3.290560e+02 2.620321e+02 1.362831e+01 1.306254e+01 1.572536e+01 1.917700e+01 2.025528e+01 2.431243e+01 3.713858e+01 2.297636e+01 2.666104e+01 2.663684e+01 2.417606e+01 2.123974e+01 1.102432e+01 2.095102e+00 2.519486e+00 2.205810e+00 3.933707e+00 4.357654e+00 5.535838e+00 3.805809e+00 3.401128e+00 4.954261e+00 3.577145e+00 4.041430e+00 3.144936e+00 3.539486e+00
<GCONST> 2.003286e+02
<STATE> 4
<NUMMIXES> 2
<MIXTURE> 1 5.000000e-01
<MEAN> 39
 8.796561e-01 -9.312387e-01 1.733488e+01 1.528875e+01 1.080705e+01 5.406002e+00 3.091029e+00 6.643174e+00 2.410126e+00 1.055674e+01 1.201798e+00 6.476380e+00 1.012391e+02 -1.620708e+00 8.147976e-01 -4.061373e-01 3.879927e-01 2.505969e-01 1.490213e+00 1.428796e+00 1.770792e+00 9.920337e-01 -1.125479e-01 6.560903e-01 8.984277e-01 -4.376813e-01 1.198770e+00 -8.911459e-01 1.447605e-01 -1.376870e+00 -9.144748e-01 -1.253495e+00 1.933554e-02 7.663607e-01 1.034932e+00 6.289797e-01 3.231066e-01 4.481125e-01 2.470498e+00
<VARIANCE> 39
 3.952096e+02 1.731143e+02 1.821616e+02 1.969678e+02 2.099897e+02 2.404299e+02 2.415026e+02 2.607673e+02 2.822854e+02 2.166050e+02 2.301733e+02 1.968783e+02 3.067616e+02 3.992223e+01 2.187452e+01 1.603901e+01 2.723400e+01 2.352498e+01 3.489333e+01 2.616391e+01 2.070808e+01 2.187935e+01 1.794194e+01 1.827774e+01 1.535433e+01 2.999225e+01 4.695692e+00 4.618181e+00 3.455636e+00 6.152683e+00 5.363697e+00 6.123960e+00 5.627983e+00 4.752899e+00 4.849805e+00 4.165980e+00 3.851172e+00 3.470815e+00 5.194589e+00
<GCONST> 2.036729e+02
<MIXTURE> 2 5.000000e-01
<MEAN> 39
 -7.072296e+00 -6.194155e+00 1.193619e+01 9.674946e+00 5.010643e+00 -7.963195e-01 -3.125113e+00 1.838577e-01 -4.310414e+00 4.669733e+00 -4.866788e+00 8.638475e-01 9.423328e+01 -4.148070e+00 -1.056011e+00 -2.008087e+00 -1.699455e+00 -1.689505e+00 -8.726098e-01 -6.172310e-01 -4.945356e-02 -8.789810e-01 -1.806865e+00 -1.054009e+00 -6.689565e-01 -2.628289e+00 3.319878e-01 -1.750744e+00 -5.988131e-01 -2.369054e+00 -1.840861e+00 -2.243361e+00 -9.295993e-01 -1.056851e-01 1.540410e-01 -1.874496e-01 -4.618695e-01 -2.970924e-01 1.558832e+00
<VARIANCE> 39
 3.952096e+02 1.731143e+02 1.821616e+02 1.969678e+02 2.099897e+02 2.404299e+02 2.415026e+02 2.607673e+02 2.822854e+02 2.166050e+02 2.301733e+02 1.968783e+02 3.067616e+02 3.992223e+01 2.187452e+01 1.603901e+01 2.723400e+01 2.352498e+01 3.489333e+01 2.616391e+01 2.070808e+01 2.187935e+01 1.794194e+01 1.827774e+01 1.535433e+01 2.999225e+01 4.695692e+00 4.618181e+00 3.455636e+00 6.152683e+00 5.363697e+00 6.123960e+00 5.627983e+00 4.752899e+00 4.849805e+00 4.165980e+00 3.851172e+00 3.470815e+00 5.194589e+00
<GCONST> 2.036729e+02
<TRANSP> 5
 0.000000e+00 1.000000e+00 0.000000e+00 0.000000e+00 0.000000e+00
 0.000000e+00 7.614179e-01 2.385821e-01 0.000000e+00 0.000000e+00
 0.000000e+00 0.000000e+00 6.402922e-01 3.597078e-01 0.000000e+00
 0.000000e+00 0.000000e+00 0.000000e+00 7.597632e-01 2.402368e-01
 0.000000e+00 0.000000e+00 0.000000e+00 0.000000e+00 0.000000e+00
<ENDHMM>
~h "w"
<BEGINHMM>
<NUMSTATES> 5
<STATE> 2
<NUMMIXES> 2
<MIXTURE> 1 5.000000e-01
<MEAN> 39
 3.433633e+01 1.167702e+01 2.066946e+01 -3.452668e+01 -1.823640e+01 1.452612e+00 2.682127e+00 2.256208e+01 4.612970e-02 1.777194e+01 5.225090e+00 2.867032e+00 1.241643e+02 -2.203727e-01 -3.574521e+00 -3.303717e+00 -5.419089e+00 3.232128e+00 4.030569e+00 3.173625e+00 5.652575e+00 1.121327e+00 -1.372457e+00 1.453997e+00 1.020438e+00 4.623222e+00 -3.752122e-01 -4.094896e-01 -4.203414e-01 1.503120e+00 2.366369e+00 1.838852e+00 7.287110e-01 -5.102105e-01 -4.016856e-01 -5.383229e-01 7.544611e-01 7.451614e-01 -6.505068e-02
<VARIANCE> 39
 4.783710e+01 1.832403e+02 2.250371e+02 3.083962e+02 4.155732e+02 2.729995e+02 5.966899e+02 3.918414e+02 4.389110e+02 3.976324e+02 3.348578e+02 2.786005e+02 1.197186e+02 2.170167e+00 9.678162e+00 7.534671e+00 1.376952e+01 1.829993e+01 1.768225e+01 1.829288e+01 1.887673e+01 2.078645e+01 1.985086e+01 1.623686e+01 1.780736e+01 5.123713e+00 5.728986e-01 1.250529e+00 1.316009e+00 2.969754e+00 2.216621e+00 2.360372e+00 3.967957e+00 4.187222e+00 3.303139e+00 3.224476e+00 3.186875e+00 2.729408e+00 6.078207e-01
<GCONST> 1.863627e+02
<MIXTURE> 2 5.000000e-01
<MEAN> 39
 3.156975e+01 6.262368e+00 1.466896e+01 -4.155116e+01 -2.639064e+01 -5.156466e+00 -7.088768e+00 1.464408e+01 -8.333952e+00 9.795656e+00 -2.094558e+00 -3.809500e+00 1.197877e+02 -8.096322e-01 -4.818911e+00 -4.401691e+00 -6.903381e+00 1.520992e+00 2.348559e+00 1.462818e+00 3.914681e+00 -7.023591e-01 -3.154629e+00 -1.578025e-01 -6.675130e-01 3.717797e+00 -6.779724e-01 -8.567978e-01 -8.792112e-01 8.138015e-01 1.770837e+00 1.224312e+00 -6.807825e-02 -1.328719e+00 -1.128667e+00 -1.256596e+00 4.038829e-02 8.432460e-02 -3.769021e-01
<VARIANCE> 39
 4.783710e+01 1.832403e+02 2.250371e+02 3.083962e+02 4.155732e+02 2.729995e+02 5.966899e+02 3.918414e+02 4.389110e+02 3.976324e+02 3.348578e+02 2.786005e+02 1.197186e+02 2.170167e+00 9.678162e+00 7.534671e+00 1.376952e+01 1.829993e+01 1.768225e+01 1.829288e+01 1.887673e+01 2.078645e+01 1.985086e+01 1.623686e+01 1.780736e+01 5.123713e+00 5.728986e-01 1.250529e+00 1.316009e+00 2.969754e+00 2.216621e+00 2.360372e+00 3.967957e+00 4.187222e+00 3.303139e+00 3.224476e+00 3.186875e+00 2.729408e+00 6.078207e-01
<GCONST> 1.863627e+02
<STATE> 3
<NUMMIXES> 2
<MIXTURE> 1 5.000000e-01
<MEAN> 39
 2.996944e+01 -6.070573e+00 4.077568e+00 -4.470998e+01 5.936303e+00 2.236829e+01 8.822566e+00 2.452111e+01 -7.796431e+00 5.556570e+00 1.425771e+01 9.965504e+00 1.367020e+02 -1.200868e+00 -4.026128e+00 -2.011786e+00 2.282397e+00 7.321027e+00 3.955259e+00 -1.438990e+00 -2.144044e+00 6.474829e-02 1.569232e+00 4.536369e+00 1.147720e+00 2.867531e+00 -3.239381e-02 4.863039e-01 1.129865e+00 2.288316e+00 -5.311728e-02 -1.159472e+00 -1.249824e+00 -3.647082e-01 1.590850e+00 1.760592e+00 -4.573756e-02 -6.814433e-01 -4.137923e-01
<VARIANCE> 39
 5.447149e+01 1.725188e+02 2.133855e+02 2.917926e+02 5.598884e+02 3.152784e+02 5.728239e+02 4.198404e+02 3.977948e+02 4.199732e+02 3.424342e+02 2.911820e+02 1.410130e+02 1.934650e+00 6.908380e+00 5.889967e+00 1.261204e+01 1.163498e+01 1.414684e+01 2.056017e+01 1.628111e+01 2.052615e+01 2.240825e+01 1.400252e+01 1.924025e+01 3.475575e+00 2.792953e-01 6.972228e-01 9.187167e-01 2.067861e+00 2.473582e+00 2.443192e+00 2.480349e+00 3.827343e+00 3.251728e+00 3.041328e+00 4.071540e+00 2.778083e+00 2.969753e-01
<GCONST> 1.821701e+02
<MIXTURE> 2 5.000000e-01
<MEAN> 39
 2.701725e+01 -1.132443e+01 -1.765520e+00 -5.154275e+01 -3.528481e+00 1.526585e+01 -7.509298e-01 1.632511e+01 -1.577435e+01 -2.640729e+00 6.855715e+00 3.139881e+00 1.319520e+02 -1.757234e+00 -5.077480e+00 -2.982556e+00 8.618594e-01 5.956623e+00 2.450767e+00 -3.252723e+00 -3.758038e+00 -1.747483e+00 -3.242624e-01 3.039571e+00 -6.068282e-01 2.121815e+00 -2.437874e-01 1.523044e-01 7.464665e-01 1.713114e+00 -6.822223e-01 -1.784700e+00 -1.879788e+00 -1.147252e+00 8.695480e-01 1.063016e+00 -8.528599e-01 -1.348147e+00 -6.317741e-01
<VARIANCE> 39
 5.447149e+01 1.725188e+02 2.133855e+02 2.917926e+02 5.598884e+02 3.152784e+02 5.728239e+02 4.198404e+02 3.977948e+02 4.199732e+02 3.424342e+02 2.911820e+02 1.410130e+02 1.934650e+00 6.908380e+00 5.889967e+00 1.261204e+01 1.163498e+01 1.414684e+01 2.056017e+01 1.628111e+01 2.052615e+01 2.240825e+01 1.400252e+01 1.924025e+01 3.475575e+00 2.792953e-01 6.972228e-01 9.187167e-01 2.067861e+00 2.473582e+00 2.443192e+00 2.480349e+00 3.827343e+00 3.251728e+00 3.041328e+00 4.071540e+00 2.778083e+00 2.969753e-01
<GCONST> 1.821701e+02
<STATE> 4
<NUMMIXES> 2
<MIXTURE> 1 5.000000e-01
<MEAN> 39
 2.228352e+01 -2.238466e+01 1.574247e+00 -2.360653e+01 2.772253e+01 1.406162e+01 -7.891346e+00 1.867973e+01 7.377296e+00 1.588168e+01 1.476693e+01 -9.276593e-01 1.423338e+02 -1.213057e+00 -1.319401e+00 2.553732e+00 5.486563e+00 4.979432e-01 -3.398090e+00 -1.455465e+00 2.479881e+00 4.292500e+00 1.144067e+00 -2.454466e+00 1.886575e-01 8.050880e-01 2.302406e-01 1.119350e+00 1.117621e+00 2.544332e-01 -1.097035e+00 -4.425270e-01 1.634216e+00 1.034183e+00 -2.483217e-01 -3.969333e-01 -4.507214e-01 1.314267e+00 -5.351840e-01
<VARIANCE> 39
 6.700109e+01 1.461901e+02 2.003765e+02 2.891270e+02 4.333851e+02 3.716229e+02 4.382059e+02 4.485055e+02 4.317309e+02 3.429631e+02 3.953332e+02 2.999742e+02 1.513966e+02 1.690864e+00 5.254556e+00 5.609365e+00 8.675544e+00 1.634288e+01 1.115520e+01 1.953086e+01 1.639741e+01 1.736866e+01 2.464338e+01 1.504775e+01 2.186524e+01 1.989826e+00 2.356160e-01 7.266512e-01 9.454383e-01 1.329267e+00 2.208930e+00 2.361032e+00 2.571314e+00 2.950516e+00 3.588586e+00 2.611898e+00 4.512460e+00 3.000408e+00 3.737365e-01
<GCONST> 1.802091e+02
<MIXTURE> 2 5.000000e-01
<MEAN> 39
 1.900936e+01 -2.722102e+01 -4.087929e+00 -3.040803e+01 1.939537e+01 6.350615e+00 -1.626469e+01 1.020855e+01 -9.339583e-01 8.473977e+00 6.813732e+00 -7.855565e+00 1.374120e+02 -1.733189e+00 -2.236313e+00 1.606368e+00 4.308392e+00 -1.119110e+00 -4.734066e+00 -3.223215e+00 8.601327e-01 2.625472e+00 -8.416167e-01 -4.006124e+00 -1.681754e+00 2.408432e-01 3.607941e-02 7.783751e-01 7.286867e-01 -2.067422e-01 -1.691533e+00 -1.057153e+00 9.928036e-01 3.471005e-01 -1.006064e+00 -1.043388e+00 -1.300424e+00 6.213994e-01 -7.797199e-01
<VARIANCE> 39
 6.700109e+01 1.461901e+02 2.003765e+02 2.891270e+02 4.333851e+02 3.716229e+02 4.382059e+02 4.485055e+02 4.317309e+02 3.429631e+02 3.953332e+02 2.999742e+02 1.513966e+02 1.690864e+00 5.254556e+00 5.609365e+00 8.675544e+00 1.634288e+01 1.115520e+01 1.953086e+01 1.639741e+01 1.736866e+01 2.464338e+01 1.504775e+01 2.186524e+01 1.989826e+00 2.356160e-01 7.266512e-01 9.454383e-01 1.329267e+00 2.208930e+00 2.361032e+00 2.571314e+00 2.950516e+00 3.588586e+00 2.611898e+00 4.512460e+00 3.000408e+00 3.737365e-01
<GCONST> 1.802091e+02
<TRANSP> 5
 0.000000e+00 1.000000e+00 0.000000e+00 0.000000e+00 0.000000e+00
 0.000000e+00 6.965536e-01 3.034464e-01 0.000000e+00 0.000000e+00
 0.000000e+00 0.000000e+00 7.595915e-01 2.404085e-01 0.000000e+00
 0.000000e+00 0.000000e+00 0.000000e+00 7.919231e-01 2.080769e-01
 0.000000e+00 0.000000e+00 0.000000e+00 0.000000e+00 0.000000e+00
<ENDHMM>
~h "z"
<BEGINHMM>
<NUMSTATES> 5
<STATE> 2
<NUMMIXES> 2
<MIXTURE> 1 5.000000e-01
<MEAN> 39
 -5.654379e+00 1.894718e+01 2.378077e+01 2.090341e+01 1.315106e+01 -1.522385e+00 9.621325e-01 5.252038e+00 2.511887e+00 5.673835e+00 -5.364541e+00 9.948967e+00 9.961336e+01 -1.678237e+00 6.357574e+00 5.808971e-01 3.772027e+00 3.046854e+00 2.097171e+00 1.577052e+00 1.752485e+00 1.437270e+00 8.043748e-01 9.230387e-01 1.139183e+00 4.281587e+00 -4.462812e-01 3.317374e-01 -3.308564e-01 8.570704e-02 2.186997e-01 6.555818e-01 4.742542e-01 5.923866e-01 1.675336e-01 6.983491e-01 7.420331e-01 2.488894e-01 4.410422e-01
<VARIANCE> 39
 3.362067e+02 2.710429e+02 3.193876e+02 3.409947e+02 3.661599e+02 3.219507e+02 3.198039e+02 2.842794e+02 2.559651e+02 2.767998e+02 2.859539e+02 3.488850e+02 6.848071e+02 4.759130e+01 2.452508e+01 3.633289e+01 3.111395e+01 2.562023e+01 3.171428e+01 2.733025e+01 2.709794e+01 2.341306e+01 2.463311e+01 2.359090e+01 2.104902e+01 3.827015e+01 4.547816e+00 4.133136e+00 4.759840e+00 4.152104e+00 4.259658e+00 4.626530e+00 4.586894e+00 4.629038e+00 3.824600e+00 4.460316e+00 4.079093e+00 4.044900e+00 3.785312e+00
<GCONST> 2.095340e+02
<MIXTURE> 2 5.000000e-01
<MEAN> 39
 -1.298876e+01 1.236182e+01 1.663221e+01 1.351699e+01 5.496939e+00 -8.699579e+00 -6.191092e+00 -1.492198e+00 -3.887676e+00 -9.810853e-01 -1.212861e+01 2.477581e+00 8.914583e+01 -4.437695e+00 4.376662e+00 -1.830174e+00 1.540832e+00 1.022196e+00 -1.554465e-01 -5.140815e-01 -3.297419e-01 -4.982118e-01 -1.180895e+00 -1.019780e+00 -6.959853e-01 1.807071e+00 -1.299306e+00 -4.814672e-01 -1.203539e+00 -7.293614e-01 -6.068579e-01 -2.047930e-01 -3.824272e-01 -2.682214e-01 -6.147298e-01 -1.464293e-01 -6.583747e-02 -5.555880e-01 -3.371930e-01
<VARIANCE> 39
 3.362067e+02 2.710429e+02 3.193876e+02 3.409947e+02 3.661599e+02 3.219507e+02 3.198039e+02 2.842794e+02 2.559651e+02 2.767998e+02 2.859539e+02 3.488850e+02 6.848071e+02 4.759130e+01 2.452508e+01 3.633289e+01 3.111395e+01 2.562023e+01 3.171428e+01 2.733025e+01 2.709794e+01 2.341306e+01 2.463311e+01 2.359090e+01 2.104902e+01 3.827015e+01 4.547816e+00 4.133136e+00 4.759840e+00 4.152104e+00 4.259658e+00 4.626530e+00 4.586894e+00 4.629038e+00 3.824600e+00 4.460316e+00 4.079093e+00 4.044900e+00 3.785312e+00
<GCONST> 2.095340e+02
<STATE> 3
<NUMMIXES> 2
<MIXTURE> 1 5.000000e-01
<MEAN> 39
 -3.027056e+01 3.470839e+01 1.229305e+01 2.886105e+01 1.698830e+01 8.152236e+00 5.527118e+00 9.996523e+00 1.179330e+00 8.114195e+00 -9.380302e-01 9.145911e+00 1.115418e+02 -2.489269e+00 6.916955e-01 -5.739223e-01 1.278694e-01 5.295615e-01 1.407192e+00 1.330322e+00 1.087106e+00 3.276882e-01 1.062264e+00 1.138232e+00 7.031552e-01 1.657907e+00 2.052868e+00 -7.497580e-01 1.608435e+00 -1.488670e-01 -3.764353e-01 -3.574013e-01 7.598364e-02 -3.519553e-01 3.417063e-02 2.144325e-02 4.398626e-02 4.053065e-01 6.468648e-01
<VARIANCE> 39
 2.288742e+02 1.926755e+02 2.763369e+02 3.897946e+02 4.213320e+02 3.458504e+02 2.504375e+02 2.220517e+02 1.584831e+02 1.616165e+02 2.462867e+02 1.839582e+02 1.722487e+02 1.740834e+01 1.517926e+01 1.600895e+01 1.412111e+01 1.532444e+01 1.744282e+01 1.518902e+01 1.631277e+01 1.315438e+01 1.356717e+01 1.124435e+01 1.203241e+01 8.228498e+00 2.652161e+00 3.480704e+00 2.954868e+00 2.972239e+00 3.127084e+00 3.823427e+00 3.473917e+00 3.561490e+00 2.839109e+00 2.829273e+00 2.426033e+00 2.492044e+00 1.529457e+00
<GCONST> 1.907931e+02
<MIXTURE> 2 5.000000e-01
<MEAN> 39
 -3.632200e+01 2.915609e+01 5.643700e+00 2.096377e+01 8.777756e+00 7.134144e-01 -8.029697e-01 4.035963e+00 -3.856274e+00 3.029056e+00 -7.215440e+00 3.720663e+00 1.062920e+02 -4.158201e+00 -8.667273e-01 -2.174370e+00 -1.375253e+00 -1.036296e+00 -2.633920e-01 -2.286016e-01 -5.284573e-01 -1.123070e+00 -4.110815e-01 -2.030724e-01 -6.843553e-01 5.104928e-01 1.401450e+00 -1.496024e+00 9.208454e-01 -8.384743e-01 -1.083778e+00 -1.139545e+00 -6.695542e-01 -1.106832e+00 -6.398156e-01 -6.513745e-01 -5.790429e-01 -2.261419e-01 1.521799e-01
<VARIANCE> 39
 2.288742e+02 1.926755e+02 2.763369e+02 3.897946e+02 4.213320e+02 3.458504e+02 2.504375e+02 2.220517e+02 1.584831e+02 1.616165e+02 2.462867e+02 1.839582e+02 1.722487e+02 1.740834e+01 1.517926e+01 1.600895e+01 1.412111e+01 1.532444e+01 1.744282e+01 1.518902e+01 1.631277e+01 1.315438e+01 1.356717e+01 1.124435e+01 1.203241e+01 8.228498e+00 2.652161e+00 3.480704e+00 2.954868e+00 2.972239e+00 3.127084e+00 3.823427e+00 3.473917e+00 3.561490e+00 2.839109e+00 2.829273e+00 2.426033e+00 2.492044e+00 1.529457e+00
<GCONST> 1.907931e+02
<STATE> 4
<NUMMIXES> 2
<MIXTURE> 1 5.000000e-01
<MEAN> 39
 -2.328587e+01 2.580899e+01 2.362623e+01 2.072518e+01 1.064019e+01 -2.205947e+00 1.246221e+00 1.268749e+00 -4.262509e+00 3.991525e+00 -3.858426e+00 8.832050e+00 1.248458e+02 9.186158e+00 -3.925342e+00 9.514203e+00 -3.959280e-01 -2.230641e+00 -2.637833e+00 -1.518298e+00 -1.913677e+00 -8.532993e-01 -6.255869e-01 -3.385391e-01 1.476234e+00 5.224158e+00 1.787066e+00 -1.399445e+00 1.916549e+00 -4.005803e-01 2.398439e-01 2.075222e-01 2.161610e-02 6.493143e-01 2.365439e-01 6.286630e-01 4.103978e-01 5.447183e-01 2.842898e-01
<VARIANCE> 39
 3.143485e+02 1.724138e+02 3.418825e+02 3.030981e+02 4.799289e+02 3.066324e+02 2.818434e+02 1.991798e+02 1.494007e+02 1.701827e+02 2.945843e+02 2.420451e+02 1.710526e+02 2.194023e+01 3.080750e+01 3.290938e+01 3.161993e+01 2.140792e+01 2.852241e+01 2.487616e+01 3.178447e+01 2.002221e+01 1.719479e+01 1.690640e+01 2.022704e+01 6.078617e+00 5.724930e+00 2.920848e+00 5.684883e+00 4.710282e+00 4.207047e+00 4.406976e+00 4.312153e+00 4.536325e+00 3.518816e+00 3.676390e+00 3.423323e+00 3.118544e+00 1.100898e+00
<GCONST> 2.004749e+02
<MIXTURE> 2 5.000000e-01
<MEAN> 39
 -3.037782e+01 2.055673e+01 1.623021e+01 1.376130e+01 1.877278e+00 -9.210316e+00 -5.469057e+00 -4.376494e+00 -9.151692e+00 -1.226639e+00 -1.072381e+01 2.608931e+00 1.196144e+02 7.312542e+00 -6.145522e+00 7.219535e+00 -2.645192e+00 -4.081389e+00 -4.774087e+00 -3.513338e+00 -4.168785e+00 -2.643147e+00 -2.284251e+00 -1.983235e+00 -3.227456e-01 4.237964e+00 8.299925e-01 -2.083065e+00 9.628292e-01 -1.268708e+00 -5.805995e-01 -6.321898e-01 -8.090129e-01 -2.026317e-01 -5.137963e-01 -1.382936e-01 -3.296912e-01 -1.616577e-01 -1.354049e-01
<VARIANCE> 39
 3.143485e+02 1.724138e+02 3.418825e+02 3.030981e+02 4.799289e+02 3.066324e+02 2.818434e+02 1.991798e+02 1.494007e+02 1.701827e+02 2.945843e+02 2.420451e+02 1.710526e+02 2.194023e+01 3.080750e+01 3.290938e+01 3.161993e+01 2.140792e+01 2.852241e+01 2.487616e+01 3.178447e+01 2.002221e+01 1.719479e+01 1.690640e+01 2.022704e+01 6.078617e+00 5.724930e+00 2.920848e+00 5.684883e+00 4.710282e+00 4.207047e+00 4.406976e+00 4.312153e+00 4.536325e+00 3.518816e+00 3.676390e+00 3.423323e+00 3.118544e+00 1.100898e+00
<GCONST> 2.004749e+02
<TRANSP> 5
 0.000000e+00 1.000000e+00 0.000000e+00 0.000000e+00 0.000000e+00
 0.000000e+00 7.264500e-01 2.735500e-01 0.000000e+00 0.000000e+00
 0.000000e+00 0.000000e+00 8.100866e-01 1.899134e-01 0.000000e+00
 0.000000e+00 0.000000e+00 0.000000e+00 7.412693e-01 2.587307e-01
 0.000000e+00 0.000000e+00 0.000000e+00 0.000000e+00 0.000000e+00
<ENDHMM>
~h "ah"
<BEGINHMM>
<NUMSTATES> 5
<STATE> 2
<NUMMIXES> 2
<MIXTURE> 1 5.000000e-01
<MEAN> 39
 1.909606e+01 -1.730330e+01 2.038031e+01 -6.803254e+00 9.250452e+00 -5.662308e+00 -6.270334e+00 1.814416e+01 7.377675e+00 1.494613e+01 4.790173e+00 6.774195e+00 1.361607e+02 1.975214e-01 1.314546e+00 3.353833e+00 1.779227e+00 -7.106180e-01 -1.468174e+00 3.209671e+00 2.804827e+00 7.806479e-01 4.808391e-01 -9.086976e-01 2.415442e+00 8.257625e-01 2.626635e-01 1.536104e+00 7.688644e-01 1.699911e+00 4.743543e-01 1.682673e+00 1.888581e+00 -1.070968e+00 -4.196669e-01 4.004383e-01 1.265116e-01 6.535665e-01 -1.324938e+00
<VARIANCE> 39
 7.613467e+01 1.455378e+02 1.780909e+02 2.135685e+02 2.464239e+02 3.675600e+02 6.325917e+02 4.439385e+02 4.573771e+02 4.523430e+02 3.583279e+02 3.526898e+02 1.763389e+02 3.893273e+00 1.153431e+01 1.154406e+01 3.140867e+01 1.758020e+01 1.972766e+01 2.627873e+01 2.343077e+01 2.830284e+01 2.488811e+01 2.863290e+01 2.097096e+01 1.801842e+01 9.805232e-01 1.742068e+00 1.710359e+00 3.920497e+00 3.172823e+00 4.694540e+00 6.541288e+00 5.689412e+00 5.069966e+00 4.145068e+00 3.976810e+00 3.348974e+00 2.092734e+00
<GCONST> 1.976000e+02
<MIXTURE> 2 5.000000e-01
<MEAN> 39
 1.560586e+01 -2.212886e+01 1.504229e+01 -1.264885e+01 2.971294e+00 -1.333105e+01 -1.633088e+01 9.716221e+00 -1.176877e+00 6.438789e+00 -2.781648e+00 -7.378204e-01 1.308490e+02 -5.917338e-01 -4.394215e-02 1.994771e+00 -4.625105e-01 -2.387768e+00 -3.244808e+00 1.159159e+00 8.686131e-01 -1.347368e+00 -1.514680e+00 -3.049086e+00 5.836797e-01 -8.721619e-01 -1.334220e-01 1.008154e+00 2.457416e-01 9.079010e-01 -2.381425e-01 8.159973e-01 8.655431e-01 -2.025068e+00 -1.320330e+00 -4.139393e-01 -6.711661e-01 -7.844156e-02 -1.903590e+00
<VARIANCE> 39
 7.613467e+01 1.455378e+02 1.780909e+02 2.135685e+02 2.464239e+02 3.675600e+02 6.325917e+02 4.439385e+02 4.573771e+02 4.523430e+02 3.583279e+02 3.526898e+02 1.763389e+02 3.893273e+00 1.153431e+01 1.154406e+01 3.140867e+01 1.758020e+01 1.972766e+01 2.627873e+01 2.343077e+01 2.830284e+01 2.488811e+01 2.863290e+01 2.097096e+01 1.801842e+01 9.805232e-01 1.742068e+00 1.710359e+00 3.920497e+00 3.172823e+00 4.694540e+00 6.541288e+00 5.689412e+00 5.069966e+00 4.145068e+00 3.976810e+00 3.348974e+00 2.092734e+00
<GCONST> 1.976000e+02
<STATE> 3
<NUMMIXES> 2
<MIXTURE> 1 5.000000e-01
<MEAN> 39
 1.918331e+01 -7.513603e+00 3.108471e+01 6.918317e+00 7.894715e+00 -6.787333e+00 9.350045e+00 1.482285e+01 2.132128e+00 1.258566e+01 -4.508492e+00 1.449534e+01 1.259141e+02 1.256558e+00 5.811238e+00 5.332836e+00 8.145192e+00 -2.088161e+00 4.892503e+00 7.889377e+00 -6.516357e+00 -2.889875e-01 3.840950e-01 -9.746064e-01 3.551688e+00 -5.806529e+00 2.154713e-01 4.086794e-01 -2.257267e-01 2.104468e-01 6.541380e-02 2.026788e+00 3.158483e-01 -6.349889e-01 1.063700e+00 3.299792e-01 1.155320e+00 9.378648e-02 8.215450e-02
<VARIANCE> 39
 5.726997e+01 1.834043e+02 2.118963e+02 3.485169e+02 2.738363e+02 4.088800e+02 6.079600e+02 5.181771e+02 4.252082e+02 5.412326e+02 3.963622e+02 4.013922e+02 1.911029e+02 5.278053e+00 8.878464e+00 1.575346e+01 2.082462e+01 2.303646e+01 4.404281e+01 4.995770e+01 3.959245e+01 3.923096e+01 3.038484e+01 3.510981e+01 2.689270e+01 4.092805e+00 5.817140e-01 1.565219e+00 2.526169e+00 4.371989e+00 2.976186e+00 4.863053e+00 5.412103e+00 7.056092e+00 4.476211e+00 3.962000e+00 3.641617e+00 3.237804e+00 1.504198e+00
<GCONST> 1.998789e+02
<MIXTURE> 2 5.000000e-01
<MEAN> 39
 1.615623e+01 -1.293068e+01 2.526205e+01 -5.491264e-01 1.275515e+00 -1.487565e+01 -5.126934e-01 5.717449e+00 -6.116103e+00 3.279893e+00 -1.247203e+01 6.481425e+00 1.203845e+02 3.375978e-01 4.619368e+00 3.745210e+00 6.319832e+00 -4.008013e+00 2.237913e+00 5.062147e+00 -9.033258e+00 -2.794373e+00 -1.820803e+00 -3.344748e+00 1.477361e+00 -6.615756e+00 -8.960937e-02 -9.175543e-02 -8.614838e-01 -6.259252e-01 -6.246512e-01 1.144694e+00 -6.147089e-01 -1.697521e+00 2.174172e-01 -4.662117e-01 3.919990e-01 -6.259695e-01 -4.084285e-01
<VARIANCE> 39
 5.726997e+01 1.834043e+02 2.118963e+02 3.485169e+02 2.738363e+02 4.088800e+02 6.079600e+02 5.181771e+02 4.252082e+02 5.412326e+02 3.963622e+02 4.013922e+02 1.911029e+02 5.278053e+00 8.878464e+00 1.575346e+01 2.082462e+01 2.303646e+01 4.404281e+01 4.995770e+01 3.959245e+01 3.923096e+01 3.038484e+01 3.510981e+01 2.689270e+01 4.092805e+00 5.817140e-01 1.565219e+00 2.526169e+00 4.371989e+00 2.976186e+00 4.863053e+00 5.412103e+00 7.056092e+00 4.476211e+00 3.962000e+00 3.641617e+00 3.237804e+00 1.504198e+00
<GCONST> 1.998789e+02
<STATE> 4
<NUMMIXES> 2
<MIXTURE> 1 5.000000e-01
<MEAN> 39
 2.074040e+01 5.503322e+00 3.805225e+01 2.020187e+01 -1.955152e+00 1.177657e+01 2.069949e+01 -5.299823e+00 2.729263e+00 9.855366e+00 -2.483762e+00 1.840710e+01 1.107318e+02 1.609000e-01 2.765754e+00 1.174836e+00 2.451234e+00 2.286813e-01 3.116581e+00 2.526076e+00 -5.007422e-01 9.470016e-01 3.867078e-01 4.741900e-01 7.623061e-01 -2.295657e+00 -2.742483e-01 -2.381840e-01 -5.683973e-01 -4.095360e-01 1.148007e+00 -2.890768e-01 -4.641567e-01 2.004727e+00 5.152178e-01 4.281343e-01 5.388338e-01 -2.011161e-01 5.514691e-01
<VARIANCE> 39
 5.038754e+01 1.914482e+02 1.386806e+02 2.603688e+02 2.554516e+02 4.021759e+02 4.879415e+02 4.092273e+02 5.173109e+02 5.704747e+02 5.347722e+02 4.866362e+02 1.823283e+02 2.676978e+00 6.663460e+00 7.999387e+00 1.052656e+01 1.147098e+01 1.863257e+01 1.961437e+01 2.460650e+01 1.493068e+01 1.282688e+01 1.491475e+01 1.301194e+01 3.946983e+00 6.030548e-01 1.363529e+00 1.712624e+00 2.847267e+00 2.343557e+00 3.576246e+00 4.420283e+00 4.245334e+00 3.683293e+00 3.033447e+00 3.539818e+00 3.132905e+00 9.890966e-01
<GCONST> 1.873705e+02
<MIXTURE> 2 5.000000e-01
<MEAN> 39
 1.790104e+01 -3.127003e-02 3.334174e+01 1.374749e+01 -8.348293e+00 3.754839e+00 1.186373e+01 -1.339157e+01 -6.368525e+00 3.015218e-01 -1.173382e+01 9.583163e+00 1.053306e+02 -4.935590e-01 1.733207e+00 4.350817e-02 1.153448e+00 -1.126072e+00 1.389963e+00 7.545517e-01 -2.484940e+00 -5.986080e-01 -1.045878e+00 -1.070595e+00 -6.805766e-01 -3.090337e+00 -5.848747e-01 -7.052650e-01 -1.091866e+00 -1.084490e+00 5.356600e-01 -1.045515e+00 -1.305135e+00 1.180559e+00 -2.524585e-01 -2.685375e-01 -2.137424e-01 -9.091167e-01 1.536558e-01
<VARIANCE> 39
 5.038754e+01 1.914482e+02 1.386806e+02 2.603688e+02 2.554516e+02 4.021759e+02 4.879415e+02 4.092273e+02 5.173109e+02 5.704747e+02 5.347722e+02 4.866362e+02 1.823283e+02 2.676978e+00 6.663460e+00 7.999387e+00 1.052656e+01 1.147098e+01 1.863257e+01 1.961437e+01 2.460650e+01 1.493068e+01 1.282688e+01 1.491475e+01 1.301194e+01 3.946983e+00 6.030548e-01 1.363529e+00 1.712624e+00 2.847267e+00 2.343557e+00 3.576246e+00 4.420283e+00 4.245334e+00 3.683293e+00 3.033447e+00 3.539818e+00 3.132905e+00 9.890966e-01
<GCONST> 1.873705e+02
<TRANSP> 5
 0.000000e+00 1.000000e+00 0.000000e+00 0.000000e+00 0.000000e+00
 0.000000e+00 7.139478e-01 2.860522e-01 0.000000e+00 0.000000e+00
 0.000000e+00 0.000000e+00 5.602484e-01 4.397516e-01 0.000000e+00
 0.000000e+00 0.000000e+00 0.000000e+00 7.532592e-01 2.467408e-01
 0.000000e+00 0.000000e+00 0.000000e+00 0.000000e+00 0.000000e+00
<ENDHMM>
~h "ao"
<BEGINHMM>
<NUMSTATES> 5
<STATE> 2
<NUMMIXES> 2
<MIXTURE> 1 5.000000e-01
<MEAN> 39
 3.592354e+01 1.613290e+01 1.624265e+01 -3.535585e+01 -1.609564e+01 3.657437e+00 3.319008e+00 1.206217e+01 -1.059149e+01 9.036033e+00 -5.673040e+00 5.454481e+00 1.222681e+02 9.050261e+00 4.834000e+00 4.408290e+00 -8.069721e+00 -4.228393e+00 -4.242961e-01 2.877419e-01 3.364599e+00 -5.306425e-01 2.356635e+00 -3.639253e-01 1.647861e-01 4.533174e+00 -4.058302e+00 -1.843354e+00 -8.080368e-01 2.932553e+00 1.357662e+00 1.173339e-01 -4.070348e-01 -1.432583e-01 8.950889e-01 4.955533e-01 7.825786e-01 4.287984e-01 -7.310450e-01
<VARIANCE> 39
 5.624579e+01 1.452830e+02 1.957722e+02 3.609556e+02 4.436202e+02 3.085249e+02 3.707626e+02 3.671847e+02 3.420320e+02 2.894472e+02 2.559000e+02 3.546537e+02 1.479418e+02 3.784023e+01 2.225089e+01 2.018180e+01 3.671846e+01 3.354751e+01 2.331011e+01 3.301694e+01 2.887490e+01 2.993860e+01 2.829234e+01 2.378726e+01 3.048483e+01 1.093059e+01 1.503895e+00 2.211989e+00 2.263794e+00 4.769714e+00 4.070065e+00 2.929472e+00 3.709598e+00 3.732189e+00 3.806613e+00 3.010000e+00 3.119152e+00 3.816074e+00 1.939794e+00
<GCONST> 2.002663e+02
<MIXTURE> 2 5.000000e-01
<MEAN> 39
 3.292366e+01 1.131156e+01 1.064591e+01 -4.295539e+01 -2.452056e+01 -3.368514e+00 -4.383070e+00 4.397349e+00 -1.798913e+01 2.230773e+00 -1.207179e+01 -2.078419e+00 1.174029e+02 6.589684e+00 2.947166e+00 2.611324e+00 -1.049355e+01 -6.545201e+00 -2.355518e+00 -2.010673e+00 1.215185e+00 -2.719290e+00 2.290131e-01 -2.314813e+00 -2.043737e+00 3.210716e+00 -4.548836e+00 -2.438264e+00 -1.409873e+00 2.058965e+00 5.506856e-01 -5.672941e-01 -1.177447e+00 -9.160132e-01 1.146671e-01 -1.984208e-01 7.613376e-02 -3.525926e-01 -1.288151e+00
<VARIANCE> 39
 5.624579e+01 1.452830e+02 1.957722e+02 3.609556e+02 4.436202e+02 3.085249e+02 3.707626e+02 3.671847e+02 3.420320e+02 2.894472e+02 2.559000e+02 3.546537e+02 1.479418e+02 3.784023e+01 2.225089e+01 2.018180e+01 3.671846e+01 3.354751e+01 2.331011e+01 3.301694e+01 2.887490e+01 2.993860e+01 2.829234e+01 2.378726e+01 3.048483e+01 1.093059e+01 1.503895e+00 2.211989e+00 2.263794e+00 4.769714e+00 4.070065e+00 2.929472e+00 3.709598e+00 3.732189e+00 3.806613e+00 3.010000e+00 3.119152e+00 3.816074e+00 1.939794e+00
<GCONST> 2.002663e+02
<STATE> 3
<NUMMIXES> 2
<MIXTURE> 1 5.000000e-01
<MEAN> 39
 3.701528e+01 1.930884e+01 1.995335e+01 -4.252838e+01 -2.256549e+01 4.351373e-01 6.080778e-01 1.434617e+01 -7.993988e+00 1.392565e+01 -5.482944e+00 3.664188e+00 1.235787e+02 3.436841e-01 1.442551e-01 -2.333595e-01 9.178792e-01 1.545561e-01 7.940313e-02 1.304626e+00 1.077455e+00 8.159041e-02 5.817661e-01 8.685484e-01 7.553932e-01 3.576896e-01 -1.053649e-01 -5.205534e-01 -5.611320e-01 1.072860e+00 9.672006e-01 3.860913e-01 6.257237e-01 1.606517e-01 -1.154698e-01 -5.722076e-03 6.236977e-01 6.567178e-01 1.590820e-01
<VARIANCE> 39
 5.419523e+01 1.726063e+02 2.573460e+02 3.375972e+02 5.022153e+02 3.578268e+02 5.246300e+02 3.791920e+02 3.824532e+02 3.708121e+02 3.051541e+02 3.702017e+02 1.408710e+02 9.190786e-01 7.150864e+00 6.815177e+00 5.571479e+00 6.194656e+00 7.480849e+00 1.128764e+01 9.768230e+00 1.070107e+01 9.229383e+00 9.101101e+00 8.531067e+00 2.741548e+00 7.331582e-01 8.085778e-01 9.985275e-01 2.029628e+00 1.471559e+00 1.297005e+00 1.748087e+00 1.850716e+00 1.893220e+00 1.991233e+00 2.013097e+00 1.998402e+00 6.352873e-01
<GCONST> 1.732192e+02
<MIXTURE> 2 5.000000e-01
<MEAN> 39
 3.407058e+01 1.405366e+01 1.353655e+01 -4.987790e+01 -3.152955e+01 -7.131387e+00 -8.553843e+00 6.557030e+00 -1.581655e+01 6.223054e+00 -1.247041e+01 -4.032063e+00 1.188311e+02 -3.979027e-02 -9.253889e-01 -1.277595e+00 -2.628002e-02 -8.410065e-01 -1.014642e+00 -3.925776e-02 -1.727114e-01 -1.226909e+00 -6.334299e-01 -3.381729e-01 -4.129264e-01 -3.046152e-01 -4.478635e-01 -8.802372e-01 -9.608374e-01 5.029998e-01 4.819693e-01 -6.945327e-02 9.686270e-02 -3.835125e-01 -6.658472e-01 -5.701663e-01 5.616307e-02 9.125841e-02 -1.597376e-01
<VARIANCE> 39
 5.419523e+01 1.726063e+02 2.573460e+02 3.375972e+02 5.022153e+02 3.578268e+02 5.246300e+02 3.791920e+02 3.824532e+02 3.708121e+02 3.051541e+02 3.702017e+02 1.408710e+02 9.190786e-01 7.150864e+00 6.815177e+00 5.571479e+00 6.194656e+00 7.480849e+00 1.128764e+01 9.768230e+00 1.070107e+01 9.229383e+00 9.101101e+00 8.531067e+00 2.741548e+00 7.331582e-01 8.085778e-01 9.985275e-01 2.029628e+00 1.471559e+00 1.297005e+00 1.748087e+00 1.850716e+00 1.893220e+00 1.991233e+00 2.013097e+00 1.998402e+00 6.352873e-01
<GCONST> 1.732192e+02
<STATE> 4
<NUMMIXES> 2
<MIXTURE> 1 5.000000e-01
<MEAN> 39
 3.918259e+01 -5.810857e-02 -4.730947e+00 -2.732555e+01 -1.648947e+00 -3.200433e+00 4.134902e+00 1.820332e+01 -1.948375e+01 1.108651e+01 6.440126e+00 1.551105e+01 1.301154e+02 3.887747e-01 -3.180809e+00 -3.665367e+00 4.606331e+00 7.155842e+00 -3.657742e-01 -1.429641e+00 3.002959e-01 1.384821e+00 1.785690e+00 3.237679e+00 2.906598e+00 1.136891e+00 -5.599581e-02 5.148504e-01 8.528746e-01 7.406390e-01 6.672498e-01 -5.791014e-02 -5.676697e-01 3.083092e-01 1.675469e+00 8.805941e-01 1.965261e-02 -1.884559e-01 -2.886369e-01
<VARIANCE> 39
 6.019898e+01 2.395063e+02 3.168667e+02 3.048821e+02 6.347916e+02 4.686658e+02 8.448144e+02 6.363872e+02 4.900847e+02 7.319210e+02 4.123943e+02 3.731587e+02 1.651031e+02 1.690507e+00 7.446715e+00 1.130027e+01 1.447633e+01 1.679328e+01 2.351361e+01 2.546912e+01 2.759789e+01 3.044717e+01 3.622498e+01 2.843633e+01 3.656040e+01 2.997685e+00 2.820730e-01 9.748520e-01 1.749465e+00 1.634132e+00 3.072602e+00 3.030824e+00 3.413960e+00 4.660789e+00 3.947684e+00 5.743761e+00 4.946294e+00 5.299718e+00 3.201812e-01
<GCONST> 1.935913e+02
<MIXTURE> 2 5.000000e-01
<MEAN> 39
 3.607907e+01 -6.248506e+00 -1.185125e+01 -3.430989e+01 -1.172698e+01 -1.185991e+01 -7.491374e+00 8.112637e+00 -2.833889e+01 2.648940e-01 -1.682871e+00 7.784126e+00 1.249758e+02 -1.313033e-01 -4.272356e+00 -5.010002e+00 3.084421e+00 5.516658e+00 -2.305408e+00 -3.448319e+00 -1.801052e+00 -8.223372e-01 -6.217978e-01 1.104650e+00 4.879900e-01 4.443384e-01 -2.684380e-01 1.199120e-01 3.238053e-01 2.293063e-01 -3.390378e-02 -7.542806e-01 -1.306746e+00 -5.552452e-01 8.807174e-01 -7.805172e-02 -8.699580e-01 -1.109301e+00 -5.149751e-01
<VARIANCE> 39
 6.019898e+01 2.395063e+02 3.168667e+02 3.048821e+02 6.347916e+02 4.686658e+02 8.448144e+02 6.363872e+02 4.900847e+02 7.319210e+02 4.123943e+02 3.731587e+02 1.651031e+02 1.690507e+00 7.446715e+00 1.130027e+01 1.447633e+01 1.679328e+01 2.351361e+01 2.546912e+01 2.759789e+01 3.044717e+01 3.622498e+01 2.843633e+01 3.656040e+01 2.997685e+00 2.820730e-01 9.748520e-01 1.749465e+00 1.634132e+00 3.072602e+00 3.030824e+00 3.413960e+00 4.660789e+00 3.947684e+00 5.743761e+00 4.946294e+00 5.299718e+00 3.201812e-01
<GCONST> 1.935913e+02
<TRANSP> 5
 0.000000e+00 1.000000e+00 0.000000e+00 0.000000e+00 0.000000e+00
 0.000000e+00 6.163411e-01 3.836589e-01 0.000000e+00 0.000000e+00
 0.000000e+00 0.000000e+00 8.682727e-01 1.317273e-01 0.000000e+00
 0.000000e+00 0.000000e+00 0.000000e+00 8.393115e-01 1.606885e-01
 0.000000e+00 0.000000e+00 0.000000e+00 0.000000e+00 0.000000e+00
<ENDHMM>
~h "ay"
<BEGINHMM>
<NUMSTATES> 5
<STATE> 2
<NUMMIXES> 2
<MIXTURE> 1 5.000000e-01
<MEAN> 39
 1.952785e+01 -2.958212e+01 3.034753e+00 -1.970230e+01 1.402811e+01 9.697452e+00 -5.490007e-01 1.843502e+01 1.160601e+01 1.568577e+01 4.828934e+00 2.918928e+00 1.480386e+02 -1.353176e-01 -1.484047e+00 -1.771069e+00 4.775490e-01 2.900299e+00 3.048330e+00 -2.707732e-02 6.643528e-01 1.816648e+00 4.596633e-02 1.091613e+00 -6.402432e-01 1.355297e+00 4.431055e-02 1.324416e+00 1.124587e+00 1.517952e+00 -1.240864e-02 8.189397e-02 5.077969e-01 -3.072169e-01 -1.383980e-01 2.148911e-01 1.805580e-01 4.431027e-01 -1.113426e+00
<VARIANCE> 39
 8.014791e+01 1.587112e+02 2.890367e+02 3.685719e+02 4.286895e+02 3.724910e+02 4.358960e+02 4.436336e+02 4.026686e+02 4.305689e+02 4.558395e+02 3.675421e+02 1.173235e+02 2.602838e+00 5.490547e+00 8.779747e+00 1.030061e+01 1.123440e+01 1.177850e+01 1.699345e+01 1.268918e+01 1.437886e+01 1.371614e+01 1.550460e+01 1.371883e+01 2.832345e+00 1.162299e+00 1.132542e+00 1.213290e+00 2.524955e+00 2.094872e+00 2.498318e+00 3.551096e+00 3.663936e+00 2.945129e+00 2.523603e+00 2.667878e+00 1.987719e+00 1.248854e+00
<GCONST> 1.843350e+02
<MIXTURE> 2 5.000000e-01
<MEAN> 39
 1.594683e+01 -3.462134e+01 -3.765679e+00 -2.738160e+01 5.746179e+00 1.977441e+00 -8.900249e+00 1.000998e+01 3.579370e+00 7.385709e+00 -3.711226e+00 -4.749628e+00 1.437060e+02 -7.806502e-01 -2.421323e+00 -2.956295e+00 -8.062334e-01 1.559589e+00 1.675538e+00 -1.676002e+00 -7.605222e-01 2.998697e-01 -1.435446e+00 -4.834220e-01 -2.121801e+00 6.821145e-01 -3.869293e-01 8.987321e-01 6.839894e-01 8.823478e-01 -5.913556e-01 -5.503488e-01 -2.459773e-01 -1.072873e+00 -8.248532e-01 -4.205430e-01 -4.727876e-01 -1.208433e-01 -1.560434e+00
<VARIANCE> 39
 8.014791e+01 1.587112e+02 2.890367e+02 3.685719e+02 4.286895e+02 3.724910e+02 4.358960e+02 4.436336e+02 4.026686e+02 4.305689e+02 4.558395e+02 3.675421e+02 1.173235e+02 2.602838e+00 5.490547e+00 8.779747e+00 1.030061e+01 1.123440e+01 1.177850e+01 1.699345e+01 1.268918e+01 1.437886e+01 1.371614e+01 1.550460e+01 1.371883e+01 2.832345e+00 1.162299e+00 1.132542e+00 1.213290e+00 2.524955e+00 2.094872e+00 2.498318e+00 3.551096e+00 3.663936e+00 2.945129e+00 2.523603e+00 2.667878e+00 1.987719e+00 1.248854e+00
<GCONST> 1.843350e+02
<STATE> 3
<NUMMIXES> 2
<MIXTURE> 1 5.000000e-01
<MEAN> 39
 1.809545e+01 -3.317833e+01 1.853890e-01 -1.780929e+01 1.814290e+01 1.394252e+01 -3.218269e+00 1.712292e+01 1.295641e+01 1.410938e+01 3.313586e+00 -5.034685e-01 1.482410e+02 -2.593669e-02 -6.042743e-02 9.052943e-01 1.302753e+00 1.948825e-01 -4.327214e-01 3.605689e-01 1.105020e+00 7.769524e-01 -2.673954e-03 2.148330e-03 4.737248e-01 9.572685e-03 5.602024e-02 2.351815e-01 4.711484e-01 2.405032e-01 -2.601970e-01 -2.932760e-01 3.803838e-01 3.466972e-01 1.082045e-01 1.220818e-01 1.201245e-01 4.053557e-01 -4.572626e-03
<VARIANCE> 39
 7.322756e+01 1.639828e+02 2.254927e+02 3.781702e+02 4.765073e+02 3.495060e+02 3.663903e+02 4.292442e+02 3.657892e+02 3.580435e+02 4.119360e+02 3.909133e+02 1.472617e+02 7.834613e-01 1.545465e+00 2.595269e+00 3.344726e+00 4.361120e+00 5.860696e+00 5.211853e+00 4.516774e+00 4.524133e+00 4.698475e+00 4.979321e+00 4.899809e+00 6.977618e-01 1.263280e-01 2.370537e-01 3.377310e-01 4.320748e-01 5.594602e-01 6.246472e-01 7.961400e-01 6.738574e-01 7.222492e-01 7.474120e-01 7.537645e-01 7.418619e-01 9.419287e-02
<GCONST> 1.491533e+02
<MIXTURE> 2 5.000000e-01
<MEAN> 39
 1.467253e+01 -3.830056e+01 -5.821177e+00 -2.558793e+01 9.411281e+00 6.464484e+00 -1.087480e+01 8.835638e+00 5.306165e+00 6.540563e+00 -4.804897e+00 -8.412080e+00 1.433870e+02 -3.799901e-01 -5.576944e-01 2.609007e-01 5.712088e-01 -6.404493e-01 -1.401076e+00 -5.526104e-01 2.549114e-01 -7.384801e-02 -8.697126e-01 -8.904274e-01 -4.116957e-01 -3.245559e-01 -8.615036e-02 4.042887e-02 2.386898e-01 -2.242640e-02 -5.593852e-01 -6.094146e-01 2.347714e-02 1.834185e-02 -2.317365e-01 -2.237302e-01 -2.271539e-01 6.083009e-02 -1.273361e-01
<VARIANCE> 39
 7.322756e+01 1.639828e+02 2.254927e+02 3.781702e+02 4.765073e+02 3.495060e+02 3.663903e+02 4.292442e+02 3.657892e+02 3.580435e+02 4.119360e+02 3.909133e+02 1.472617e+02 7.834613e-01 1.545465e+00 2.595269e+00 3.344726e+00 4.361120e+00 5.860696e+00 5.211853e+00 4.516774e+00 4.524133e+00 4.698475e+00 4.979321e+00 4.899809e+00 6.977618e-01 1.263280e-01 2.370537e-01 3.377310e-01 4.320748e-01 5.594602e-01 6.246472e-01 7.961400e-01 6.738574e-01 7.222492e-01 7.474120e-01 7.537645e-01 7.418619e-01 9.419287e-02
<GCONST> 1.491533e+02
<STATE> 4
<NUMMIXES> 2
<MIXTURE> 1 5.000000e-01
<MEAN> 39
 1.445310e+01 -3.008705e+01 1.940338e+01 -9.373819e+00 3.221508e+00 -3.811073e+00 6.079087e+00 2.688017e+01 1.091664e+01 7.174595e+00 1.254629e+00 7.542759e+00 1.449050e+02 -3.224699e-01 2.601295e+00 4.743164e+00 7.625429e-01 -3.034348e+00 -1.577855e+00 3.228008e+00 7.039741e-01 -1.103120e+00 1.148754e+00 1.432909e+00 2.141664e+00 -9.532284e-01 3.040181e-01 8.335892e-01 3.551953e-01 2.324282e-01 5.498139e-01 6.249845e-01 1.881168e-01 -6.417817e-01 -6.528866e-02 7.848668e-01 3.808857e-01 1.487769e-01 -4.314338e-01
<VARIANCE> 39
 7.547423e+01 1.919728e+02 3.756354e+02 2.583993e+02 4.324556e+02 2.699440e+02 5.303172e+02 3.254450e+02 3.793350e+02 3.606056e+02 3.326201e+02 3.401734e+02 1.912519e+02 1.662496e+00 4.711824e+00 6.177191e+00 1.009100e+01 1.146336e+01 1.462014e+01 1.795058e+01 1.668141e+01 1.472534e+01 1.420259e+01 1.233680e+01 1.278360e+01 1.836644e+00 2.867842e-01 5.509541e-01 1.055269e+00 1.529368e+00 1.951885e+00 1.548356e+00 2.384426e+00 2.054529e+00 2.180242e+00 2.006310e+00 2.060980e+00 1.969717e+00 3.368293e-01
<GCONST> 1.763273e+02
<MIXTURE> 2 5.000000e-01
<MEAN> 39
 1.097806e+01 -3.562922e+01 1.165086e+01 -1.580374e+01 -5.096719e+00 -1.038306e+01 -3.132360e+00 1.966413e+01 3.126026e+00 -4.212525e-01 -6.040521e+00 1.652429e-01 1.393732e+02 -8.382211e-01 1.733025e+00 3.749006e+00 -5.081105e-01 -4.388652e+00 -3.107307e+00 1.533283e+00 -9.297411e-01 -2.638064e+00 -3.586991e-01 2.795798e-02 7.114978e-01 -1.495320e+00 8.980913e-02 5.366840e-01 -5.570988e-02 -2.622423e-01 -9.025663e-03 1.272527e-01 -4.295467e-01 -1.215127e+00 -6.559144e-01 2.182897e-01 -1.933589e-01 -4.126095e-01 -6.635818e-01
<VARIANCE> 39
 7.547423e+01 1.919728e+02 3.756354e+02 2.583993e+02 4.324556e+02 2.699440e+02 5.303172e+02 3.254450e+02 3.793350e+02 3.606056e+02 3.326201e+02 3.401734e+02 1.912519e+02 1.662496e+00 4.711824e+00 6.177191e+00 1.009100e+01 1.146336e+01 1.462014e+01 1.795058e+01 1.668141e+01 1.472534e+01 1.420259e+01 1.233680e+01 1.278360e+01 1.836644e+00 2.867842e-01 5.509541e-01 1.055269e+00 1.529368e+00 1.951885e+00 1.548356e+00 2.384426e+00 2.054529e+00 2.180242e+00 2.006310e+00 2.060980e+00 1.969717e+00 3.368293e-01
<GCONST> 1.763273e+02
<TRANSP> 5
 0.000000e+00 1.000000e+00 0.000000e+00 0.000000e+00 0.000000e+00
 0.000000e+00 7.035592e-01 2.964408e-01 0.000000e+00 0.000000e+00
 0.000000e+00 0.000000e+00 8.987014e-01 1.012986e-01 0.000000e+00
 0.000000e+00 0.000000e+00 0.000000e+00 8.042682e-01 1.957318e-01
 0.000000e+00 0.000000e+00 0.000000e+00 0.000000e+00 0.000000e+00
<ENDHMM>
~h "eh"
<BEGINHMM>
<NUMSTATES> 5
<STATE> 2
<NUMMIXES> 2
<MIXTURE> 1 5.000000e-01
<MEAN> 39
 -4.853782e+01 8.773726e+00 -1.062420e+01 1.584660e+00 -4.110838e+00 -3.879785e+00 -1.149433e+00 4.313829e+00 -3.163188e+00 3.941206e+00 -2.213781e+00 9.625301e+00 1.135632e+02 1.020419e+01 1.981031e-01 7.031414e+00 1.261272e+00 4.305434e-01 -1.219017e+00 9.740251e-02 1.233563e-01 2.306207e+00 1.151634e+00 4.028893e-02 1.946886e+00 2.894607e+00 4.661357e+00 -7.266140e-01 2.779371e+00 1.651616e-01 5.150643e-01 -6.730439e-01 -4.613693e-01 7.819676e-02 1.248796e+00 1.092451e+00 2.410966e-01 7.163451e-01 2.014126e+00
<VARIANCE> 39
 1.305886e+02 1.070889e+02 1.309531e+02 2.075080e+02 2.604310e+02 2.751150e+02 1.402946e+02 1.413074e+02 1.544324e+02 1.272842e+02 1.718345e+02 1.248612e+02 1.171907e+02 3.295704e+01 1.259310e+01 1.791876e+01 1.295102e+01 1.104314e+01 1.543545e+01 1.406418e+01 1.284169e+01 1.420528e+01 1.891344e+01 1.498266e+01 1.558405e+01 9.972512e+00 1.653805e+00 2.063476e+00 2.156104e+00 2.632960e+00 2.766868e+00 4.547282e+00 5.058990e+00 2.834168e+00 4.531585e+00 4.291371e+00 3.252955e+00 3.908448e+00 1.345291e+00
<GCONST> 1.862535e+02
<MIXTURE> 2 5.000000e-01
<MEAN> 39
 -5.310884e+01 4.634376e+00 -1.520160e+01 -4.177396e+00 -1.056599e+01 -1.051442e+01 -5.887275e+00 -4.410830e-01 -8.134022e+00 -5.716060e-01 -7.457207e+00 5.155649e+00 1.092330e+02 7.907865e+00 -1.221367e+00 5.338192e+00 -1.782290e-01 -8.987055e-01 -2.790535e+00 -1.402687e+00 -1.310056e+00 7.986112e-01 -5.879496e-01 -1.508009e+00 3.678203e-01 1.631435e+00 4.146955e+00 -1.301206e+00 2.192024e+00 -4.838944e-01 -1.502919e-01 -1.526018e+00 -1.361057e+00 -5.952027e-01 3.972949e-01 2.638262e-01 -4.803414e-01 -7.444671e-02 1.550180e+00
<VARIANCE> 39
 1.305886e+02 1.070889e+02 1.309531e+02 2.075080e+02 2.604310e+02 2.751150e+02 1.402946e+02 1.413074e+02 1.544324e+02 1.272842e+02 1.718345e+02 1.248612e+02 1.171907e+02 3.295704e+01 1.259310e+01 1.791876e+01 1.295102e+01 1.104314e+01 1.543545e+01 1.406418e+01 1.284169e+01 1.420528e+01 1.891344e+01 1.498266e+01 1.558405e+01 9.972512e+00 1.653805e+00 2.063476e+00 2.156104e+00 2.632960e+00 2.766868e+00 4.547282e+00 5.058990e+00 2.834168e+00 4.531585e+00 4.291371e+00 3.252955e+00 3.908448e+00 1.345291e+00
<GCONST> 1.862535e+02
<STATE> 3
<NUMMIXES> 2
<MIXTURE> 1 5.000000e-01
<MEAN> 39
 -1.160162e+01 1.032584e+01 1.317960e+01 8.336887e+00 -1.081499e+00 -9.107997e+00 -3.803338e+00 1.977407e+00 2.619900e+00 7.859043e+00 -4.952863e+00 1.222121e+01 1.188632e+02 1.836147e+01 -4.208681e+00 1.064186e+01 -7.308174e-01 7.464796e-01 -3.199790e+00 -2.417861e+00 -1.776019e-01 4.396338e+00 3.992151e+00 7.190088e-01 2.658173e+00 9.073260e+00 -4.135339e-01 -1.835396e+00 -8.768413e-01 -1.747913e+00 -2.035223e-01 3.872368e-02 3.451796e-01 1.208984e+00 9.019351e-01 1.026302e+00 1.022647e+00 1.170925e-01 2.031265e+00
<VARIANCE> 39
 4.347546e+02 1.036118e+02 1.732174e+02 1.682409e+02 2.993936e+02 2.109107e+02 1.787261e+02 1.722702e+02 1.762928e+02 2.310931e+02 2.347524e+02 2.273162e+02 1.712653e+02 1.225716e+01 1.755161e+01 1.919597e+01 2.648093e+01 2.348739e+01 4.637828e+01 5.813300e+01 2.194642e+01 4.374370e+01 4.236259e+01 2.741324e+01 4.197311e+01 9.456788e+00 6.363129e+00 2.073944e+00 3.513839e+00 2.085098e+00 2.845707e+00 3.347553e+00 6.110983e+00 2.708666e+00 3.659986e+00 3.265406e+00 3.096985e+00 3.013793e+00 1.741271e+00
<GCONST> 1.981713e+02
<MIXTURE> 2 5.000000e-01
<MEAN> 39
 -1.994192e+01 6.254245e+00 7.915119e+00 3.148579e+00 -8.002697e+00 -1.491710e+01 -9.150878e+00 -3.272663e+00 -2.691113e+00 1.778345e+00 -1.108152e+01 6.190406e+00 1.136284e+02 1.696107e+01 -5.884467e+00 8.889335e+00 -2.789203e+00 -1.192072e+00 -5.923854e+00 -5.467661e+00 -2.051482e+00 1.750778e+00 1.388689e+00 -1.375297e+00 6.670678e-02 7.843184e+00 -1.422544e+00 -2.411444e+00 -1.626651e+00 -2.325507e+00 -8.782912e-01 -6.931291e-01 -6.436365e-01 5.506635e-01 1.366915e-01 3.034847e-01 3.187167e-01 -5.773187e-01 1.503437e+00
<VARIANCE> 39
 4.347546e+02 1.036118e+02 1.732174e+02 1.682409e+02 2.993936e+02 2.109107e+02 1.787261e+02 1.722702e+02 1.762928e+02 2.310931e+02 2.347524e+02 2.273162e+02 1.712653e+02 1.225716e+01 1.755161e+01 1.919597e+01 2.648093e+01 2.348739e+01 4.637828e+01 5.813300e+01 2.194642e+01 4.374370e+01 4.236259e+01 2.741324e+01 4.197311e+01 9.456788e+00 6.363129e+00 2.073944e+00 3.513839e+00 2.085098e+00 2.845707e+00 3.347553e+00 6.110983e+00 2.708666e+00 3.659986e+00 3.265406e+00 3.096985e+00 3.013793e+00 1.741271e+00
<GCONST> 1.981713e+02
<STATE> 4
<NUMMIXES> 2
<MIXTURE> 1 5.000000e-01
<MEAN> 39
 1.389935e+01 -1.279185e+01 2.587488e+01 -7.904570e+00 -5.869768e+00 -2.200081e+01 -1.223981e+01 3.285231e+00 1.108507e+01 1.704400e+01 -1.413512e+00 1.733815e+01 1.464967e+02 6.466232e+00 -6.578341e+00 2.349661e+00 -5.066294e+00 -9.135333e-01 -1.390670e+00 1.563493e+00 3.851824e+00 4.657520e+00 3.561664e+00 2.501048e+00 9.226918e-01 7.922305e+00 -4.160376e+00 9.766458e-01 -2.561110e+00 3.658127e-01 4.204133e-01 2.021364e+00 2.259585e+00 1.352186e+00 3.820190e-02 -3.888264e-02 5.930271e-01 -4.202423e-01 -1.729863e+00
<VARIANCE> 39
 5.323773e+01 1.414664e+02 1.778670e+02 2.347239e+02 3.063675e+02 2.505687e+02 6.976663e+02 2.774363e+02 3.495949e+02 4.778228e+02 4.018509e+02 5.299562e+02 1.209501e+02 3.511273e+01 1.095441e+01 2.224717e+01 1.729514e+01 1.940903e+01 2.574958e+01 6.131437e+01 1.719883e+01 2.443818e+01 2.167874e+01 1.976931e+01 2.025178e+01 1.242439e+01 1.709197e+00 2.474246e+00 2.297098e+00 3.244031e+00 2.712882e+00 4.793149e+00 5.141840e+00 2.833959e+00 4.986318e+00 3.996150e+00 3.626428e+00 4.862045e+00 1.139307e+00
<GCONST> 1.983070e+02
<MIXTURE> 2 5.000000e-01
<MEAN> 39
 1.098079e+01 -1.754943e+01 2.054021e+01 -1.403285e+01 -1.287111e+01 -2.833255e+01 -2.280516e+01 -3.377337e+00 3.606083e+00 8.300338e+00 -9.432000e+00 8.129834e+00 1.420977e+02 4.095992e+00 -7.902238e+00 4.629849e-01 -6.729791e+00 -2.675761e+00 -3.420432e+00 -1.568647e+00 2.192966e+00 2.680120e+00 1.699246e+00 7.225401e-01 -8.773873e-01 6.512375e+00 -4.683321e+00 3.474564e-01 -3.167357e+00 -3.546351e-01 -2.384199e-01 1.145634e+00 1.352560e+00 6.788117e-01 -8.550007e-01 -8.384975e-01 -1.687001e-01 -1.302244e+00 -2.156816e+00
<VARIANCE> 39
 5.323773e+01 1.414664e+02 1.778670e+02 2.347239e+02 3.063675e+02 2.505687e+02 6.976663e+02 2.774363e+02 3.495949e+02 4.778228e+02 4.018509e+02 5.299562e+02 1.209501e+02 3.511273e+01 1.095441e+01 2.224717e+01 1.729514e+01 1.940903e+01 2.574958e+01 6.131437e+01 1.719883e+01 2.443818e+01 2.167874e+01 1.976931e+01 2.025178e+01 1.242439e+01 1.709197e+00 2.474246e+00 2.297098e+00 3.244031e+00 2.712882e+00 4.793149e+00 5.141840e+00 2.833959e+00 4.986318e+00 3.996150e+00 3.626428e+00 4.862045e+00 1.139307e+00
<GCONST> 1.983070e+02
<TRANSP> 5
 0.000000e+00 1.000000e+00 0.000000e+00 0.000000e+00 0.000000e+00
 0.000000e+00 5.708882e-01 4.291117e-01 0.000000e+00 0.000000e+00
 0.000000e+00 0.000000e+00 4.160141e-01 5.839859e-01 0.000000e+00
 0.000000e+00 0.000000e+00 0.000000e+00 6.105083e-01 3.894917e-01
 0.000000e+00 0.000000e+00 0.000000e+00 0.000000e+00 0.000000e+00
<ENDHMM>
~h "ey"
<BEGINHMM>
<NUMSTATES> 5
<STATE> 2
<NUMMIXES> 2
<MIXTURE> 1 5.000000e-01
<MEAN> 39
 -4.328892e+00 -4.175700e+00 2.304699e+01 -5.935337e+00 -1.244464e+01 -1.315547e+01 -1.495695e-01 1.653625e+00 2.148963e+00 1.282346e+01 1.992560e+00 1.016937e+01 1.023631e+02 2.940269e+00 -1.565289e+00 5.411364e+00 -1.034594e+00 -1.256354e+00 -1.692119e-01 2.589376e+00 2.479836e+00 2.140606e+00 2.220272e+00 1.422795e+00 1.596264e+00 9.547705e+00 7.067002e-01 4.567499e-01 8.606294e-01 3.658986e-01 6.665236e-01 9.252849e-01 7.729778e-01 6.339561e-01 3.517952e-01 5.015350e-01 5.908345e-01 5.255660e-01 1.742027e+00
<VARIANCE> 39
 3.600208e+02 2.537357e+02 5.065128e+02 4.508793e+02 3.524590e+02 4.011051e+02 5.364459e+02 4.902634e+02 4.706873e+02 3.719096e+02 2.987595e+02 2.892445e+02 1.249364e+03 3.630163e+01 2.097537e+01 4.316390e+01 3.853633e+01 3.223454e+01 3.870825e+01 4.961219e+01 4.215921e+01 4.183431e+01 3.379201e+01 3.010158e+01 2.817657e+01 1.370452e+02 5.008079e+00 4.041744e+00 6.295963e+00 5.922139e+00 6.062434e+00 6.836360e+00 8.657651e+00 7.821466e+00 7.335648e+00 6.238216e+00 5.762355e+00 5.398131e+00 1.944414e+01
<GCONST> 2.228859e+02
<MIXTURE> 2 5.000000e-01
<MEAN> 39
 -1.191858e+01 -1.054733e+01 1.404465e+01 -1.442890e+01 -1.995420e+01 -2.116651e+01 -9.414090e+00 -7.203133e+00 -6.529169e+00 5.109475e+00 -4.921304e+00 3.366492e+00 8.822454e+01 5.302354e-01 -3.397244e+00 2.783394e+00 -3.517700e+00 -3.527372e+00 -2.657850e+00 -2.280605e-01 -1.173694e-01 -4.465722e-01 -1.049639e-01 -7.718015e-01 -5.270004e-01 4.865052e+00 -1.884494e-01 -3.474137e-01 -1.430410e-01 -6.075192e-01 -3.183568e-01 -1.205724e-01 -4.039776e-01 -4.847192e-01 -7.315809e-01 -4.975218e-01 -3.693617e-01 -4.037892e-01 -2.179313e-02
<VARIANCE> 39
 3.600208e+02 2.537357e+02 5.065128e+02 4.508793e+02 3.524590e+02 4.011051e+02 5.364459e+02 4.902634e+02 4.706873e+02 3.719096e+02 2.987595e+02 2.892445e+02 1.249364e+03 3.630163e+01 2.097537e+01 4.316390e+01 3.853633e+01 3.223454e+01 3.870825e+01 4.961219e+01 4.215921e+01 4.183431e+01 3.379201e+01 3.010158e+01 2.817657e+01 1.370452e+02 5.008079e+00 4.041744e+00 6.295963e+00 5.922139e+00 6.062434e+00 6.836360e+00 8.657651e+00 7.821466e+00 7.335648e+00 6.238216e+00 5.762355e+00 5.398131e+00 1.944414e+01
<GCONST> 2.228859e+02
<STATE> 3
<NUMMIXES> 2
<MIXTURE> 1 5.000000e-01
<MEAN> 39
 3.970648e+00 -1.017578e+01 5.765657e+01 -1.848141e+01 -1.863787e+01 -1.088912e+01 3.860918e+00 1.351142e+00 -1.400566e+00 1.442584e+01 1.714750e+00 1.216028e+01 1.434839e+02 -6.909624e-02 1.921533e+00 3.098329e+00 6.342609e-01 1.319633e+00 1.844666e+00 -4.716009e-02 -1.146951e+00 -4.874143e-01 -7.039469e-02 -1.565505e-01 3.818376e-01 4.825662e-01 -2.483797e-02 5.018519e-01 4.470131e-02 6.231101e-01 5.891848e-01 4.063551e-01 2.354559e-01 7.681835e-02 1.915025e-01 6.142965e-02 -2.687180e-02 9.980522e-02 -6.913865e-01
<VARIANCE> 39
 6.774751e+01 2.292198e+02 4.068317e+02 4.374402e+02 2.212509e+02 3.071544e+02 5.227128e+02 4.082442e+02 6.646939e+02 2.901511e+02 2.113365e+02 2.104655e+02 1.493718e+02 2.994292e+00 5.314727e+00 6.024517e+00 5.594686e+00 8.410904e+00 8.364803e+00 1.126082e+01 1.037010e+01 1.059254e+01 9.663602e+00 8.591425e+00 9.759699e+00 9.696761e+00 6.533927e-01 8.089565e-01 1.086310e+00 1.125908e+00 1.149914e+00 1.371005e+00 1.699308e+00 1.589737e+00 1.575172e+00 1.480705e+00 1.289695e+00 1.290370e+00 1.918683e+00
<GCONST> 1.743422e+02
<MIXTURE> 2 5.000000e-01
<MEAN> 39
 6.782925e-01 -1.623178e+01 4.958855e+01 -2.684743e+01 -2.458767e+01 -1.789944e+01 -5.284247e+00 -6.730880e+00 -1.171323e+01 7.612316e+00 -4.100218e+00 6.357304e+00 1.385952e+02 -7.612572e-01 9.993851e-01 2.116533e+00 -3.118627e-01 1.595705e-01 6.877876e-01 -1.389446e+00 -2.435057e+00 -1.789262e+00 -1.313848e+00 -1.328996e+00 -8.677831e-01 -7.630188e-01 -3.481688e-01 1.420839e-01 -3.722035e-01 1.986748e-01 1.602486e-01 -6.200466e-02 -2.859742e-01 -4.275208e-01 -3.105209e-01 -4.253072e-01 -4.811308e-01 -3.545726e-01 -1.245453e+00
<VARIANCE> 39
 6.774751e+01 2.292198e+02 4.068317e+02 4.374402e+02 2.212509e+02 3.071544e+02 5.227128e+02 4.082442e+02 6.646939e+02 2.901511e+02 2.113365e+02 2.104655e+02 1.493718e+02 2.994292e+00 5.314727e+00 6.024517e+00 5.594686e+00 8.410904e+00 8.364803e+00 1.126082e+01 1.037010e+01 1.059254e+01 9.663602e+00 8.591425e+00 9.759699e+00 9.696761e+00 6.533927e-01 8.089565e-01 1.086310e+00 1.125908e+00 1.149914e+00 1.371005e+00 1.699308e+00 1.589737e+00 1.575172e+00 1.480705e+00 1.289695e+00 1.290370e+00 1.918683e+00
<GCONST> 1.743422e+02
<STATE> 4
<NUMMIXES> 2
<MIXTURE> 1 5.000000e-01
<MEAN> 39
