~o
<STREAMINFO> 1 39
<VECSIZE> 39<NULLD><MFCC_D_A_0><DIAGC>
~v "varFloor1"
<VARIANCE> 39
 6.754285e+00 3.412382e+00 5.608406e+00 4.796288e+00 3.472278e+00 4.011306e+00 4.413544e+00 3.617784e+00 3.683816e+00 3.040248e+00 2.640156e+00 2.509632e+00 1.299030e+01 2.278168e-01 1.545930e-01 2.184475e-01 2.118017e-01 1.813441e-01 2.097645e-01 2.257998e-01 2.166213e-01 2.009591e-01 1.748390e-01 1.664857e-01 1.534652e-01 2.729186e-01 3.005252e-02 2.352007e-02 2.950203e-02 3.333135e-02 2.970526e-02 3.527972e-02 3.796952e-02 3.764049e-02 3.477431e-02 3.067440e-02 2.924915e-02 2.697382e-02 3.680100e-02
~s "silst"
<NUMMIXES> 4
<MIXTURE> 1 2.335202e-01
<MEAN> 39
 -2.279203e+01 6.625183e+00 1.311150e+00 5.827171e+00 4.052355e-01 1.076985e+00 -1.222632e-01 2.605846e+00 1.592160e+00 3.894282e+00 3.058117e+00 4.354609e+00 4.973598e+01 2.180069e-01 5.491311e-01 7.609771e-01 8.300549e-01 9.074199e-01 9.872942e-01 9.639052e-01 9.276258e-01 1.036263e+00 1.175143e+00 1.119888e+00 9.141499e-01 1.225742e-01 2.483803e-01 7.243038e-02 1.935254e-01 2.224036e-01 2.406573e-01 2.838289e-01 3.664043e-01 3.601344e-01 2.760560e-01 2.660975e-01 1.905076e-01 2.351545e-01 2.989520e-01
<VARIANCE> 39
 3.528965e+01 3.497435e+01 4.307625e+01 5.630909e+01 7.347040e+01 9.442803e+01 1.105098e+02 1.126654e+02 1.063103e+02 9.985090e+01 9.808470e+01 8.698003e+01 1.711946e+01 1.503189e+00 2.045316e+00 3.271258e+00 4.519177e+00 5.711152e+00 7.045651e+00 8.503007e+00 9.278502e+00 9.482355e+00 9.474098e+00 9.339513e+00 8.562920e+00 7.697348e-01 3.272961e-01 4.749935e-01 7.216948e-01 9.835625e-01 1.239810e+00 1.532632e+00 1.797711e+00 1.960020e+00 1.964590e+00 1.964438e+00 1.934070e+00 1.746441e+00 2.286803e-01
<GCONST> 1.473124e+02
<MIXTURE> 2 2.664343e-01
<MEAN> 39
 -2.557143e+01 5.201052e+00 -7.541201e-01 2.581833e+00 -3.505919e+00 -3.233903e+00 -4.865559e+00 -1.463623e+00 -8.562552e-01 2.758182e+00 3.072884e+00 4.312395e+00 4.788293e+01 -1.298378e-01 4.196860e-02 9.279484e-02 1.026836e-02 -9.267241e-03 2.070487e-03 -4.246974e-02 6.378889e-03 1.539247e-01 2.834848e-01 3.211624e-01 3.648975e-01 -3.459030e-02 1.670908e-01 6.128093e-02 1.723603e-01 2.223987e-01 2.638979e-01 2.815787e-01 3.429913e-01 3.598199e-01 2.797312e-01 2.527990e-01 1.908118e-01 2.147630e-01 2.138418e-01
<VARIANCE> 39
 1.905316e+01 2.220350e+01 2.933814e+01 3.918688e+01 5.569786e+01 7.385767e+01 8.771918e+01 9.010445e+01 8.580416e+01 8.158495e+01 7.861261e+01 7.190963e+01 1.299030e+01 1.074356e+00 1.742177e+00 2.881994e+00 4.029164e+00 5.270178e+00 6.482864e+00 7.758625e+00 8.599214e+00 8.618214e+00 8.534724e+00 8.367665e+00 7.597313e+00 5.240355e-01 2.080998e-01 3.735447e-01 5.950624e-01 8.285408e-01 1.076667e+00 1.308171e+00 1.542967e+00 1.702189e+00 1.733539e+00 1.721887e+00 1.691111e+00 1.531339e+00 1.367399e-01
<GCONST> 1.388436e+02
<MIXTURE> 3 2.664343e-01
<MEAN> 39
 -2.731743e+01 3.316228e+00 -2.920708e+00 7.785642e-02 -6.491159e+00 -6.671523e+00 -8.611899e+00 -5.260557e+00 -4.561477e+00 -8.547941e-01 -4.736661e-01 9.204131e-01 4.644125e+01 -5.444424e-01 -4.859976e-01 -5.862626e-01 -7.926427e-01 -9.275420e-01 -1.016388e+00 -1.156642e+00 -1.166598e+00 -1.020347e+00 -8.850852e-01 -8.359144e-01 -7.376314e-01 -3.241515e-01 -1.538099e-02 -1.831923e-01 -1.362008e-01 -1.416982e-01 -1.511523e-01 -1.759226e-01 -1.538736e-01 -1.620519e-01 -2.469245e-01 -2.720838e-01 -3.293591e-01 -2.802262e-01 6.592838e-02
<VARIANCE> 39
 1.905316e+01 2.220350e+01 2.933814e+01 3.918688e+01 5.569786e+01 7.385767e+01 8.771918e+01 9.010445e+01 8.580416e+01 8.158495e+01 7.861261e+01 7.190963e+01 1.299030e+01 1.074356e+00 1.742177e+00 2.881994e+00 4.029164e+00 5.270178e+00 6.482864e+00 7.758625e+00 8.599214e+00 8.618214e+00 8.534724e+00 8.367665e+00 7.597313e+00 5.240355e-01 2.080998e-01 3.735447e-01 5.950624e-01 8.285408e-01 1.076667e+00 1.308171e+00 1.542967e+00 1.702189e+00 1.733539e+00 1.721887e+00 1.691111e+00 1.531339e+00 1.367399e-01
<GCONST> 1.388436e+02
<MIXTURE> 4 2.335202e-01
<MEAN> 39
 -2.516823e+01 4.259619e+00 -1.314150e+00 2.825595e+00 -3.023360e+00 -2.809979e+00 -4.327209e+00 -1.639912e+00 -2.532116e+00 -1.027344e-01 -9.033915e-01 6.240853e-01 4.808096e+01 -2.724116e-01 -2.292711e-02 3.751239e-02 -2.027932e-02 -4.850084e-02 -7.445160e-02 -2.024914e-01 -2.907996e-01 -1.954746e-01 -5.605799e-02 -1.025365e-01 -2.563489e-01 -2.283640e-01 1.954109e-02 -2.032487e-01 -1.462851e-01 -1.742953e-01 -2.047298e-01 -2.113691e-01 -1.699107e-01 -1.998684e-01 -2.845994e-01 -2.945361e-01 -3.657758e-01 -2.934574e-01 1.076699e-01
<VARIANCE> 39
 3.528965e+01 3.497435e+01 4.307625e+01 5.630909e+01 7.347040e+01 9.442803e+01 1.105098e+02 1.126654e+02 1.063103e+02 9.985090e+01 9.808470e+01 8.698003e+01 1.711946e+01 1.503189e+00 2.045316e+00 3.271258e+00 4.519177e+00 5.711152e+00 7.045651e+00 8.503007e+00 9.278502e+00 9.482355e+00 9.474098e+00 9.339513e+00 8.562920e+00 7.697348e-01 3.272961e-01 4.749935e-01 7.216948e-01 9.835625e-01 1.239810e+00 1.532632e+00 1.797711e+00 1.960020e+00 1.964590e+00 1.964438e+00 1.934070e+00 1.746441e+00 2.286803e-01
<GCONST> 1.473124e+02
~h "f"
<BEGINHMM>
<NUMSTATES> 5
<STATE> 2
<NUMMIXES> 4
<MIXTURE> 1 2.687705e-01
<MEAN> 39
 -3.100011e+01 -1.205805e+01 5.559108e-01 4.859890e+00 -6.508435e-01 1.603111e+00 -4.624989e+00 3.009013e+00 -2.626668e+00 5.985791e+00 -1.414302e+00 4.620165e+00 9.302274e+01 7.229769e-02 -1.194434e-01 1.493219e-01 5.027879e-01 9.041722e-01 1.393823e+00 1.058583e+00 1.065627e+00 1.078692e+00 1.307799e+00 1.163277e+00 9.636065e-01 1.808731e+00 1.776008e+00 7.098067e-01 5.392147e-01 1.655238e-01 5.205817e-01 4.644349e-01 6.904514e-01 3.964169e-01 4.253844e-01 4.680023e-01 3.460363e-01 3.158978e-01 1.053107e+00
<VARIANCE> 39
 1.277194e+02 1.099588e+02 8.007491e+01 8.005424e+01 9.519237e+01 1.094077e+02 1.232447e+02 1.229498e+02 1.262607e+02 1.177604e+02 1.126838e+02 1.025015e+02 3.380427e+02 1.242852e+01 7.801459e+00 7.181602e+00 8.601956e+00 9.063048e+00 1.036418e+01 1.109558e+01 1.153448e+01 1.152258e+01 1.129124e+01 1.097725e+01 1.000978e+01 2.059273e+01 3.414310e+00 1.830294e+00 1.670779e+00 2.137106e+00 2.076027e+00 2.262482e+00 2.568948e+00 2.502588e+00 2.632672e+00 2.535161e+00 2.428882e+00 2.081720e+00 3.350242e+00
<GCONST> 1.755802e+02
<MIXTURE> 2 2.312091e-01
<MEAN> 39
 -3.072030e+01 -1.309228e+01 1.666500e+00 5.908905e+00 3.866699e-01 1.956135e+00 -4.262444e+00 2.972399e+00 -2.345155e+00 6.386383e+00 -1.293757e+00 4.829107e+00 9.600244e+01 -1.666996e+00 -1.543604e+00 -1.297169e+00 -7.258508e-01 -9.622102e-01 -6.558229e-01 -1.377130e+00 -7.710654e-01 -5.171902e-01 -2.810805e-01 -1.225482e-01 5.074251e-02 1.555051e+00 2.058799e+00 9.297946e-01 6.435848e-01 1.019483e-01 4.301277e-01 3.912265e-01 6.750997e-01 2.664652e-01 1.954763e-01 3.659060e-01 2.645595e-01 3.723840e-01 7.964220e-01
<VARIANCE> 39
 1.137959e+02 1.010943e+02 9.517103e+01 1.024088e+02 1.151933e+02 1.270533e+02 1.364221e+02 1.351597e+02 1.359302e+02 1.240704e+02 1.182094e+02 1.078700e+02 2.869577e+02 2.421068e+01 1.197339e+01 1.139726e+01 1.316061e+01 1.254664e+01 1.273637e+01 1.348284e+01 1.281252e+01 1.309625e+01 1.238405e+01 1.197805e+01 1.135901e+01 1.910731e+01 3.444527e+00 1.998771e+00 2.334463e+00 3.476279e+00 2.649834e+00 2.879942e+00 3.125672e+00 3.244057e+00 3.252257e+00 2.929684e+00 2.769269e+00 2.553848e+00 2.657115e+00
<GCONST> 1.818887e+02
<MIXTURE> 3 2.687705e-01
<MEAN> 39
 -3.552063e+01 -1.625250e+01 -3.023473e+00 1.280968e+00 -4.553506e+00 -2.580815e+00 -9.065614e+00 -1.426296e+00 -7.121300e+00 1.645093e+00 -5.660408e+00 5.704434e-01 8.566837e+01 -1.337867e+00 -1.236687e+00 -9.226185e-01 -6.703758e-01 -3.000236e-01 1.060853e-01 -2.738179e-01 -2.928707e-01 -2.791048e-01 -3.629833e-02 -1.620005e-01 -3.019231e-01 -6.437838e-03 1.036894e+00 1.686533e-01 2.218026e-02 -4.192300e-01 -5.575529e-02 -1.372271e-01 4.933393e-02 -2.363659e-01 -2.236360e-01 -1.688853e-01 -2.773585e-01 -2.612289e-01 3.209603e-01
<VARIANCE> 39
 1.277194e+02 1.099588e+02 8.007491e+01 8.005424e+01 9.519237e+01 1.094077e+02 1.232447e+02 1.229498e+02 1.262607e+02 1.177604e+02 1.126838e+02 1.025015e+02 3.380427e+02 1.242852e+01 7.801459e+00 7.181602e+00 8.601956e+00 9.063048e+00 1.036418e+01 1.109558e+01 1.153448e+01 1.152258e+01 1.129124e+01 1.097725e+01 1.000978e+01 2.059273e+01 3.414310e+00 1.830294e+00 1.670779e+00 2.137106e+00 2.076027e+00 2.262482e+00 2.568948e+00 2.502588e+00 2.632672e+00 2.535161e+00 2.428882e+00 2.081720e+00 3.350242e+00
<GCONST> 1.755802e+02
<MIXTURE> 4 2.312091e-01
<MEAN> 39
 -3.498730e+01 -1.711410e+01 -2.235725e+00 1.861015e+00 -3.906456e+00 -2.552582e+00 -8.934440e+00 -1.677929e+00 -7.008719e+00 1.930907e+00 -5.642723e+00 6.746874e-01 8.922652e+01 -3.635170e+00 -2.927708e+00 -2.647563e+00 -2.176953e+00 -2.379060e+00 -2.083345e+00 -2.845890e+00 -2.202848e+00 -1.964740e+00 -1.688720e+00 -1.506921e+00 -1.297383e+00 -1.934251e-01 1.316421e+00 3.642830e-01 3.242683e-02 -6.438431e-01 -2.210047e-01 -2.875892e-01 -3.208312e-02 -4.539855e-01 -5.258843e-01 -3.187468e-01 -4.010853e-01 -2.668466e-01 1.443956e-01
<VARIANCE> 39
 1.137959e+02 1.010943e+02 9.517103e+01 1.024088e+02 1.151933e+02 1.270533e+02 1.364221e+02 1.351597e+02 1.359302e+02 1.240704e+02 1.182094e+02 1.078700e+02 2.869577e+02 2.421068e+01 1.197339e+01 1.139726e+01 1.316061e+01 1.254664e+01 1.273637e+01 1.348284e+01 1.281252e+01 1.309625e+01 1.238405e+01 1.197805e+01 1.135901e+01 1.910731e+01 3.444527e+00 1.998771e+00 2.334463e+00 3.476279e+00 2.649834e+00 2.879942e+00 3.125672e+00 3.244057e+00 3.252257e+00 2.929684e+00 2.769269e+00 2.553848e+00 2.657115e+00
<GCONST> 1.818887e+02
<STATE> 3
<NUMMIXES> 4
<MIXTURE> 1 2.560391e-01
<MEAN> 39
 -2.242949e+01 -1.389738e+01 -5.019712e-02 3.087310e+00 1.678210e+00 3.522149e+00 -3.114627e+00 2.721561e+00 -1.642264e+00 7.355657e+00 -1.055628e+00 5.409706e+00 1.055262e+02 1.481110e+01 4.603312e+00 2.065230e+00 -4.233784e+00 1.322701e+00 2.336334e+00 3.584880e+00 1.505413e+00 1.763295e+00 3.112579e+00 1.551436e+00 9.264818e-01 7.113406e+00 3.500881e+00 1.060181e+00 7.052815e-01 -2.701823e+00 -3.715822e-01 3.794765e-01 7.771829e-01 5.368226e-01 1.538446e-01 1.030479e+00 4.127866e-01 1.970567e-01 1.735320e+00
<VARIANCE> 39
 1.299013e+02 7.110767e+01 6.522774e+01 7.403950e+01 9.502104e+01 1.063461e+02 1.071448e+02 1.063045e+02 1.118701e+02 1.110462e+02 1.012559e+02 9.329462e+01 1.919442e+02 2.912177e+01 2.309905e+01 1.384447e+01 2.855964e+01 1.883335e+01 1.547067e+01 1.726965e+01 1.796992e+01 2.549144e+01 2.062766e+01 2.487865e+01 1.547488e+01 3.474948e+01 3.490420e+00 4.977416e+00 2.977955e+00 3.631112e+00 4.434822e+00 3.664980e+00 4.175953e+00 3.670702e+00 4.676752e+00 3.965889e+00 4.720969e+00 3.548832e+00 4.444087e+00
<GCONST> 1.893439e+02
<MIXTURE> 2 2.439526e-01
<MEAN> 39
 -2.772820e+01 -1.709985e+01 -3.605298e+00 8.005857e-02 -2.837413e+00 -1.546696e-01 -7.525235e+00 -1.402163e+00 -6.824857e+00 3.882802e+00 -3.146465e+00 4.222086e+00 1.045131e+02 1.063754e+01 3.206050e+00 1.604360e+00 -1.864195e+00 2.733436e-01 1.118741e+00 1.665986e+00 1.103884e+00 7.954045e-01 1.030024e+00 7.538872e-01 8.748823e-02 6.555412e+00 4.402843e+00 2.041757e+00 1.407784e+00 -1.543547e+00 -2.105996e-01 8.665947e-01 1.119179e+00 1.198206e+00 6.229435e-01 1.128223e+00 8.197172e-01 -2.973205e-02 1.221689e+00
<VARIANCE> 39
 1.363606e+02 6.475172e+01 5.956557e+01 6.991631e+01 7.715324e+01 9.077376e+01 9.640776e+01 9.901020e+01 1.029277e+02 9.920305e+01 9.586247e+01 8.559107e+01 2.004480e+02 3.153832e+01 1.863458e+01 1.197138e+01 1.477746e+01 1.528211e+01 1.223846e+01 1.248606e+01 1.512153e+01 1.518962e+01 1.411610e+01 1.574166e+01 1.152896e+01 3.341468e+01 2.610495e+00 3.576285e+00 2.816247e+00 3.396705e+00 4.335756e+00 3.182776e+00 3.661022e+00 3.618728e+00 4.310719e+00 3.814781e+00 4.397824e+00 3.117941e+00 4.733627e+00
<GCONST> 1.834351e+02
<MIXTURE> 3 2.560391e-01
<MEAN> 39
 -2.698847e+01 -1.727040e+01 -3.280745e+00 -3.545381e-01 -2.220939e+00 -6.028210e-01 -7.255057e+00 -1.402602e+00 -5.873011e+00 3.140519e+00 -5.080667e+00 1.546140e+00 9.998442e+01 1.265252e+01 2.680852e+00 5.769038e-01 -6.371432e+00 -4.131955e-01 7.630236e-01 1.922610e+00 -1.902248e-01 -2.562667e-01 1.295871e+00 -4.437038e-01 -6.470432e-01 4.755458e+00 2.753575e+00 1.677759e-01 1.501134e-02 -3.464042e+00 -1.213943e+00 -3.862890e-01 -4.022297e-02 -2.295405e-01 -7.111874e-01 2.338978e-01 -4.563251e-01 -5.564771e-01 8.920799e-01
<VARIANCE> 39
 1.299013e+02 7.110767e+01 6.522774e+01 7.403950e+01 9.502104e+01 1.063461e+02 1.071448e+02 1.063045e+02 1.118701e+02 1.110462e+02 1.012559e+02 9.329462e+01 1.919442e+02 2.912177e+01 2.309905e+01 1.384447e+01 2.855964e+01 1.883335e+01 1.547067e+01 1.726965e+01 1.796992e+01 2.549144e+01 2.062766e+01 2.487865e+01 1.547488e+01 3.474948e+01 3.490420e+00 4.977416e+00 2.977955e+00 3.631112e+00 4.434822e+00 3.664980e+00 4.175953e+00 3.670702e+00 4.676752e+00 3.965889e+00 4.720969e+00 3.548832e+00 4.444087e+00
<GCONST> 1.893439e+02
<MIXTURE> 4 2.439526e-01
<MEAN> 39
 -3.239914e+01 -2.031859e+01 -6.692448e+00 -3.264580e+00 -6.350889e+00 -3.965680e+00 -1.145273e+01 -5.382318e+00 -1.088299e+01 -1.012275e-01 -7.062840e+00 5.214682e-01 9.884991e+01 8.391184e+00 1.479338e+00 2.203730e-01 -3.401853e+00 -1.290350e+00 -2.805994e-01 2.525609e-01 -4.515721e-01 -7.635501e-01 -4.728319e-01 -8.331432e-01 -1.270685e+00 4.243196e+00 3.756562e+00 1.285315e+00 7.365174e-01 -2.280753e+00 -1.043499e+00 1.529813e-01 3.538277e-01 4.372876e-01 -2.075473e-01 3.469641e-01 -1.912239e-02 -7.360398e-01 3.514126e-01
<VARIANCE> 39
 1.363606e+02 6.475172e+01 5.956557e+01 6.991631e+01 7.715324e+01 9.077376e+01 9.640776e+01 9.901020e+01 1.029277e+02 9.920305e+01 9.586247e+01 8.559107e+01 2.004480e+02 3.153832e+01 1.863458e+01 1.197138e+01 1.477746e+01 1.528211e+01 1.223846e+01 1.248606e+01 1.512153e+01 1.518962e+01 1.411610e+01 1.574166e+01 1.152896e+01 3.341468e+01 2.610495e+00 3.576285e+00 2.816247e+00 3.396705e+00 4.335756e+00 3.182776e+00 3.661022e+00 3.618728e+00 4.310719e+00 3.814781e+00 4.397824e+00 3.117941e+00 4.733627e+00
<GCONST> 1.834351e+02
<STATE> 4
<NUMMIXES> 4
<MIXTURE> 1 2.647088e-01
<MEAN> 39
 1.794366e+01 -2.015801e+00 2.642617e+00 -1.162540e+01 3.382044e+00 5.421490e+00 4.561731e+00 2.105763e+00 4.106912e+00 1.329807e+01 -2.975101e+00 4.024359e+00 1.205806e+02 1.544065e+01 2.399870e+00 1.807805e+00 -9.641066e+00 1.152089e+00 2.122534e+00 4.117962e+00 1.934952e+00 2.336951e+00 4.506129e+00 9.847003e-01 1.308134e+00 1.028293e+01 -2.438237e+00 -1.027714e+00 6.383434e-02 3.338897e-02 -9.638566e-02 3.217033e-01 -2.625337e-01 7.041790e-01 -1.497822e-01 1.677781e-01 4.193619e-01 4.962901e-01 5.938232e-03
<VARIANCE> 39
 2.136619e+02 2.432362e+02 1.102769e+02 3.369991e+02 1.517402e+02 1.485635e+02 1.433586e+02 1.515767e+02 2.635400e+02 1.836642e+02 1.902195e+02 1.356795e+02 3.514767e+02 3.230984e+01 5.577147e+01 2.920883e+01 3.381742e+01 4.315765e+01 2.698056e+01 3.081426e+01 3.005732e+01 4.739582e+01 3.209523e+01 4.006096e+01 2.814266e+01 2.907609e+01 4.414865e+00 2.545496e+00 1.693079e+00 5.783728e+00 2.711498e+00 2.883075e+00 2.750773e+00 2.598421e+00 3.786688e+00 3.466078e+00 3.001989e+00 2.952094e+00 4.992162e+00
<GCONST> 2.009725e+02
<MIXTURE> 2 2.352810e-01
<MEAN> 39
 2.551008e+01 -1.313606e+01 8.719243e-01 -2.500590e+01 -2.734154e+00 9.884737e+00 1.931728e+00 4.340236e+00 -1.912295e+00 2.149616e+01 1.504227e+01 -5.122633e-01 1.386301e+02 9.102196e+00 -1.994636e+00 2.971944e-01 -6.791090e+00 -4.149109e-01 3.352762e+00 1.523293e+00 2.213776e+00 1.225770e+00 3.040585e+00 3.888762e+00 -1.463230e+00 9.553613e+00 -3.954975e+00 -2.823039e-01 8.652560e-02 2.235307e+00 6.920202e-01 1.917516e-01 1.724619e-02 5.341073e-01 1.087767e+00 -6.119035e-01 -9.396623e-01 2.738828e-01 -1.666803e+00
<VARIANCE> 39
 1.168358e+02 2.612098e+02 1.928224e+02 4.050038e+02 3.114006e+02 2.421748e+02 2.523905e+02 2.922809e+02 4.997181e+02 3.767780e+02 5.396516e+02 2.353574e+02 2.895862e+02 4.929712e+01 3.367687e+01 2.562307e+01 2.809559e+01 3.547114e+01 2.168714e+01 2.205764e+01 2.629056e+01 3.297684e+01 2.695835e+01 4.094472e+01 2.224046e+01 1.837737e+01 3.163605e+00 2.140104e+00 2.144640e+00 5.097376e+00 3.792788e+00 2.831867e+00 3.718244e+00 3.420708e+00 6.421967e+00 4.921153e+00 6.006926e+00 3.257339e+00 3.786312e+00
<GCONST> 2.057719e+02
<MIXTURE> 3 2.647088e-01
<MEAN> 39
 1.209678e+01 -8.254214e+00 -1.557895e+00 -1.896842e+01 -1.545271e+00 5.460243e-01 -2.275670e-01 -2.818897e+00 -2.386654e+00 7.877164e+00 -8.491904e+00 -6.349028e-01 1.130816e+02 1.316698e+01 -5.873418e-01 -3.540028e-01 -1.196717e+01 -1.475690e+00 4.482174e-02 1.897538e+00 -2.580299e-01 -4.168342e-01 2.240023e+00 -1.547049e+00 -8.138520e-01 8.126043e+00 -3.278701e+00 -1.665898e+00 -4.566391e-01 -9.285864e-01 -7.550507e-01 -3.574815e-01 -9.259519e-01 5.939433e-02 -9.281588e-01 -5.769181e-01 -2.736881e-01 -1.909763e-01 -8.877876e-01
<VARIANCE> 39
 2.136619e+02 2.432362e+02 1.102769e+02 3.369991e+02 1.517402e+02 1.485635e+02 1.433586e+02 1.515767e+02 2.635400e+02 1.836642e+02 1.902195e+02 1.356795e+02 3.514767e+02 3.230984e+01 5.577147e+01 2.920883e+01 3.381742e+01 4.315765e+01 2.698056e+01 3.081426e+01 3.005732e+01 4.739582e+01 3.209523e+01 4.006096e+01 2.814266e+01 2.907609e+01 4.414865e+00 2.545496e+00 1.693079e+00 5.783728e+00 2.711498e+00 2.883075e+00 2.750773e+00 2.598421e+00 3.786688e+00 3.466078e+00 3.001989e+00 2.952094e+00 4.992162e+00
<GCONST> 2.009725e+02
<MIXTURE> 4 2.352810e-01
<MEAN> 39
 2.118646e+01 -1.960086e+01 -4.682496e+00 -3.305578e+01 -9.792772e+00 3.659951e+00 -4.422994e+00 -2.498254e+00 -1.085405e+01 1.373186e+01 5.750109e+00 -6.648808e+00 1.318233e+02 6.293719e+00 -4.315907e+00 -1.727575e+00 -8.911301e+00 -2.797217e+00 1.489984e+00 -3.553290e-01 1.628026e-01 -1.071249e+00 9.637274e-01 1.329240e+00 -3.349622e+00 7.838859e+00 -4.666436e+00 -8.674676e-01 -4.992580e-01 1.332213e+00 -8.698303e-02 -4.813744e-01 -7.540638e-01 -2.056989e-01 7.410288e-02 -1.499251e+00 -1.920024e+00 -4.480412e-01 -2.445141e+00
<VARIANCE> 39
 1.168358e+02 2.612098e+02 1.928224e+02 4.050038e+02 3.114006e+02 2.421748e+02 2.523905e+02 2.922809e+02 4.997181e+02 3.767780e+02 5.396516e+02 2.353574e+02 2.895862e+02 4.929712e+01 3.367687e+01 2.562307e+01 2.809559e+01 3.547114e+01 2.168714e+01 2.205764e+01 2.629056e+01 3.297684e+01 2.695835e+01 4.094472e+01 2.224046e+01 1.837737e+01 3.163605e+00 2.140104e+00 2.144640e+00 5.097376e+00 3.792788e+00 2.831867e+00 3.718244e+00 3.420708e+00 6.421967e+00 4.921153e+00 6.006926e+00 3.257339e+00 3.786312e+00
<GCONST> 2.057719e+02
<TRANSP> 5
 0.000000e+00 1.000000e+00 0.000000e+00 0.000000e+00 0.000000e+00
 0.000000e+00 8.594876e-01 1.405124e-01 0.000000e+00 0.000000e+00
 0.000000e+00 0.000000e+00 6.207300e-01 3.792700e-01 0.000000e+00
 0.000000e+00 0.000000e+00 0.000000e+00 5.228605e-01 4.771395e-01
 0.000000e+00 0.000000e+00 0.000000e+00 0.000000e+00 0.000000e+00
<ENDHMM>
~h "k"
<BEGINHMM>
<NUMSTATES> 5
<STATE> 2
<NUMMIXES> 4
<MIXTURE> 1 2.426470e-01
<MEAN> 39
 -2.307453e-01 8.057053e+00 3.889184e+01 3.230943e+01 -1.398877e+00 -1.801345e+01 1.216637e+01 7.445597e+00 -1.726856e+01 5.844094e+00 4.774928e+00 6.710383e+00 8.892304e+01 -4.352525e+00 7.005819e+00 -7.117683e+00 3.435845e+00 5.815367e+00 8.861092e+00 -1.073694e-02 1.876125e+00 5.696019e+00 -1.155021e+00 1.627785e+00 -1.053058e-01 -1.532278e+01 -5.489290e-01 -1.851636e+00 -1.697736e+00 -3.263591e+00 -3.418499e-02 6.332935e-01 -1.720045e+00 2.103948e-01 2.066274e+00 8.338117e-01 -5.894250e-02 8.357857e-01 3.078362e+00
<VARIANCE> 39
 1.340078e+02 2.069361e+02 2.806031e+02 2.276106e+02 3.924758e+02 4.213232e+02 4.471752e+02 6.729341e+02 4.319385e+02 3.152056e+02 2.314131e+02 1.965429e+02 3.238483e+02 1.252285e+01 2.966294e+01 2.538008e+01 3.893313e+01 3.067847e+01 3.564826e+01 6.367091e+01 7.885973e+01 6.067500e+01 3.842365e+01 2.602162e+01 2.727796e+01 3.864009e+01 2.961984e+00 4.952379e+00 4.793208e+00 4.041236e+00 5.168288e+00 7.412945e+00 6.803970e+00 8.682388e+00 6.849587e+00 5.334134e+00 4.962476e+00 4.384022e+00 8.143783e+00
<GCONST> 2.143844e+02
<MIXTURE> 2 2.573430e-01
<MEAN> 39
 -8.541124e+00 1.717724e+01 2.391541e+01 2.605321e+01 3.838543e+00 -5.238071e+00 -5.024569e-01 -3.197450e+00 -1.298351e+01 -3.334224e+00 -6.758463e-01 2.998523e+00 6.528576e+01 -5.777031e+00 7.560834e-01 -1.038303e+01 -2.657906e+00 3.634289e+00 5.458878e+00 -4.279892e+00 1.855170e+00 4.701880e+00 -8.653922e-01 4.798163e-01 7.707763e-02 -8.585526e+00 5.467185e-01 -3.339841e+00 1.637371e-01 -2.196026e+00 -1.024459e+00 -1.497645e+00 7.114038e-01 9.945294e-01 1.184610e+00 2.061192e+00 4.487514e-01 1.234628e+00 7.119293e+00
<VARIANCE> 39
 9.131481e+01 1.737047e+02 1.601395e+02 1.503165e+02 2.264864e+02 2.537757e+02 2.879378e+02 3.005525e+02 2.327607e+02 2.086270e+02 1.705002e+02 1.279142e+02 1.503590e+02 8.364490e+00 3.827414e+01 1.949417e+01 3.067289e+01 2.795868e+01 3.639708e+01 4.441312e+01 6.958842e+01 4.762512e+01 3.185602e+01 2.147492e+01 1.944217e+01 5.597161e+01 3.077356e+00 5.783608e+00 4.234509e+00 4.347192e+00 5.112569e+00 6.735701e+00 8.364514e+00 8.667232e+00 8.306919e+00 5.317085e+00 4.383431e+00 4.178191e+00 9.276039e+00
<GCONST> 2.066039e+02
<MIXTURE> 3 2.573430e-01
<MEAN> 39
 -1.236348e+01 1.190536e+01 1.885357e+01 2.114907e+01 -2.181244e+00 -1.161021e+01 -7.289949e+00 -1.013203e+01 -1.908611e+01 -9.111794e+00 -5.898875e+00 -1.525444e+00 6.038092e+01 -6.933889e+00 -1.718561e+00 -1.214911e+01 -4.873230e+00 1.519251e+00 3.045678e+00 -6.945619e+00 -1.481617e+00 1.941442e+00 -3.123038e+00 -1.373825e+00 -1.686653e+00 -1.157809e+01 -1.549773e-01 -4.301806e+00 -6.593797e-01 -3.030022e+00 -1.928899e+00 -2.535775e+00 -4.454550e-01 -1.830771e-01 3.174067e-02 1.138840e+00 -3.887144e-01 4.170031e-01 5.901029e+00
<VARIANCE> 39
 9.131481e+01 1.737047e+02 1.601395e+02 1.503165e+02 2.264864e+02 2.537757e+02 2.879378e+02 3.005525e+02 2.327607e+02 2.086270e+02 1.705002e+02 1.279142e+02 1.503590e+02 8.364490e+00 3.827414e+01 1.949417e+01 3.067289e+01 2.795868e+01 3.639708e+01 4.441312e+01 6.958842e+01 4.762512e+01 3.185602e+01 2.147492e+01 1.944217e+01 5.597161e+01 3.077356e+00 5.783608e+00 4.234509e+00 4.347192e+00 5.112569e+00 6.735701e+00 8.364514e+00 8.667232e+00 8.306919e+00 5.317085e+00 4.383431e+00 4.178191e+00 9.276039e+00
<GCONST> 2.066039e+02
<MIXTURE> 4 2.426470e-01
<MEAN> 39
 -4.861215e+00 2.302943e+00 3.219136e+01 2.627472e+01 -9.323278e+00 -2.622391e+01 3.707767e+00 -2.930793e+00 -2.558182e+01 -1.257518e+00 -1.309980e+00 1.102633e+00 8.172472e+01 -5.768031e+00 4.827271e+00 -9.132830e+00 9.399886e-01 3.599841e+00 6.472845e+00 -3.202499e+00 -1.675995e+00 2.580253e+00 -3.634493e+00 -4.126709e-01 -2.194438e+00 -1.780922e+01 -1.237346e+00 -2.741794e+00 -2.573472e+00 -4.067704e+00 -9.435398e-01 -4.557755e-01 -2.763422e+00 -9.682410e-01 1.019406e+00 -9.001809e-02 -9.500071e-01 -1.736522e-03 1.936869e+00
<VARIANCE> 39
 1.340078e+02 2.069361e+02 2.806031e+02 2.276106e+02 3.924758e+02 4.213232e+02 4.471752e+02 6.729341e+02 4.319385e+02 3.152056e+02 2.314131e+02 1.965429e+02 3.238483e+02 1.252285e+01 2.966294e+01 2.538008e+01 3.893313e+01 3.067847e+01 3.564826e+01 6.367091e+01 7.885973e+01 6.067500e+01 3.842365e+01 2.602162e+01 2.727796e+01 3.864009e+01 2.961984e+00 4.952379e+00 4.793208e+00 4.041236e+00 5.168288e+00 7.412945e+00 6.803970e+00 8.682388e+00 6.849587e+00 5.334134e+00 4.962476e+00 4.384022e+00 8.143783e+00
<GCONST> 2.143844e+02
<STATE> 3
<NUMMIXES> 4
<MIXTURE> 1 2.520415e-01
<MEAN> 39
 -1.646408e+01 -7.374077e-01 -2.758266e+00 8.817539e+00 -9.295702e-03 -4.680806e+00 -7.772616e+00 -1.322176e+00 -3.152082e+00 2.931619e+00 1.150919e+00 4.835534e+00 7.148579e+01 2.704996e-01 -3.240344e+00 -3.920171e+00 7.153892e-01 1.456768e+00 8.253678e-01 2.433350e-01 3.232771e+00 3.678111e+00 3.255209e+00 1.175191e+00 1.560240e+00 1.041818e+01 2.424312e-02 1.096497e+00 2.132830e+00 1.543685e+00 -4.743409e-02 -6.389163e-01 1.090471e+00 8.078979e-01 -7.579300e-02 3.697369e-01 1.078665e-01 5.453414e-01 3.639495e+00
<VARIANCE> 39
 1.423514e+02 2.855960e+02 2.370212e+02 1.126989e+02 1.259139e+02 1.445360e+02 1.514271e+02 1.401242e+02 1.266891e+02 1.247882e+02 9.984054e+01 8.206002e+01 6.526962e+02 2.447786e+01 2.476510e+01 2.100585e+01 2.100779e+01 1.992917e+01 2.302564e+01 1.997108e+01 1.855462e+01 1.881971e+01 1.771724e+01 1.459412e+01 1.115588e+01 8.169527e+01 8.635937e+00 8.344234e+00 5.694600e+00 3.227995e+00 4.130345e+00 4.544333e+00 4.841695e+00 4.615472e+00 3.813988e+00 3.858833e+00 2.547671e+00 2.314210e+00 1.601240e+01
<GCONST> 1.977254e+02
<MIXTURE> 2 2.479465e-01
<MEAN> 39
 -1.751659e+01 -1.552330e+00 -2.575629e-01 1.018447e+01 4.204559e+00 -3.289524e+00 -5.774526e+00 2.070527e+00 -1.967987e+00 4.648252e+00 1.357329e+00 5.182090e+00 7.236593e+01 -7.080894e-01 -4.413598e+00 -5.352225e+00 -1.562484e+00 7.769555e-01 -1.167556e+00 -2.868342e+00 5.602764e-01 1.760762e+00 1.275038e+00 -8.314913e-01 6.398357e-01 1.041483e+01 7.761180e-02 1.089925e+00 2.226394e+00 1.332379e+00 -3.626499e-01 -1.177557e+00 1.084404e+00 7.857972e-01 -1.698761e-01 2.988844e-01 7.351947e-02 5.063559e-01 4.243843e+00
<VARIANCE> 39
 1.343943e+02 3.205776e+02 2.050789e+02 1.417156e+02 1.582372e+02 1.734649e+02 1.888706e+02 1.726824e+02 1.404980e+02 1.240442e+02 1.202918e+02 8.991999e+01 6.262192e+02 3.123824e+01 2.993203e+01 2.790955e+01 2.661244e+01 2.170324e+01 2.798800e+01 2.006705e+01 2.061127e+01 2.090482e+01 1.696043e+01 1.450226e+01 1.178254e+01 8.083156e+01 8.082191e+00 8.613918e+00 5.265446e+00 3.684066e+00 4.786516e+00 5.647406e+00 5.420521e+00 5.194833e+00 4.654938e+00 3.951896e+00 2.931371e+00 2.624200e+00 1.598247e+01
<GCONST> 2.015884e+02
<MIXTURE> 3 2.520415e-01
<MEAN> 39
 -2.123652e+01 -7.497242e+00 -8.916463e+00 4.571150e+00 -4.497750e+00 -9.489732e+00 -1.269485e+01 -6.057138e+00 -7.654332e+00 -1.536726e+00 -2.845891e+00 1.212054e+00 6.126663e+01 -1.708505e+00 -5.230926e+00 -5.753457e+00 -1.117981e+00 -3.289159e-01 -1.094034e+00 -1.544226e+00 1.509768e+00 1.942843e+00 1.571535e+00 -3.528992e-01 2.242231e-01 6.802766e+00 -1.151235e+00 -5.895901e-02 1.178296e+00 8.250206e-01 -8.603641e-01 -1.491614e+00 2.103170e-01 -5.144808e-02 -8.569704e-01 -4.160196e-01 -5.305905e-01 -6.315976e-02 2.038875e+00
<VARIANCE> 39
 1.423514e+02 2.855960e+02 2.370212e+02 1.126989e+02 1.259139e+02 1.445360e+02 1.514271e+02 1.401242e+02 1.266891e+02 1.247882e+02 9.984054e+01 8.206002e+01 6.526962e+02 2.447786e+01 2.476510e+01 2.100585e+01 2.100779e+01 1.992917e+01 2.302564e+01 1.997108e+01 1.855462e+01 1.881971e+01 1.771724e+01 1.459412e+01 1.115588e+01 8.169527e+01 8.635937e+00 8.344234e+00 5.694600e+00 3.227995e+00 4.130345e+00 4.544333e+00 4.841695e+00 4.615472e+00 3.813988e+00 3.858833e+00 2.547671e+00 2.314210e+00 1.601240e+01
<GCONST> 1.977254e+02
<MIXTURE> 4 2.479465e-01
<MEAN> 39
 -2.215373e+01 -8.714202e+00 -5.985793e+00 5.422695e+00 -8.271354e-01 -8.557768e+00 -1.127173e+01 -3.185820e+00 -6.709261e+00 1.932473e-01 -3.029776e+00 1.389044e+00 6.235618e+01 -2.943737e+00 -6.602005e+00 -7.465405e+00 -3.625974e+00 -1.086514e+00 -3.283704e+00 -4.660192e+00 -1.255709e+00 -6.810993e-02 -3.722838e-01 -2.354765e+00 -7.331926e-01 6.818574e+00 -1.059556e+00 -8.405405e-02 1.308532e+00 5.646223e-01 -1.237774e+00 -2.128128e+00 1.531234e-01 -1.258898e-01 -1.032888e+00 -4.962907e-01 -6.113304e-01 -1.416195e-01 2.644720e+00
<VARIANCE> 39
 1.343943e+02 3.205776e+02 2.050789e+02 1.417156e+02 1.582372e+02 1.734649e+02 1.888706e+02 1.726824e+02 1.404980e+02 1.240442e+02 1.202918e+02 8.991999e+01 6.262192e+02 3.123824e+01 2.993203e+01 2.790955e+01 2.661244e+01 2.170324e+01 2.798800e+01 2.006705e+01 2.061127e+01 2.090482e+01 1.696043e+01 1.450226e+01 1.178254e+01 8.083156e+01 8.082191e+00 8.613918e+00 5.265446e+00 3.684066e+00 4.786516e+00 5.647406e+00 5.420521e+00 5.194833e+00 4.654938e+00 3.951896e+00 2.931371e+00 2.624200e+00 1.598247e+01
<GCONST> 2.015884e+02
<STATE> 4
<NUMMIXES> 4
<MIXTURE> 1 2.542624e-01
<MEAN> 39
 -2.661563e+01 -1.062639e+01 -9.458389e+00 1.664668e+01 -1.356387e-02 -1.870395e+01 -1.184926e+01 8.069635e+00 1.440016e+00 3.713785e+00 -2.676101e+00 9.520239e+00 1.182830e+02 -1.002391e+01 5.198074e+00 2.122917e+00 1.725735e+00 -2.249229e+00 -1.383321e+00 3.307593e+00 4.211943e+00 1.624657e+00 -3.674040e-01 5.024366e-01 2.879581e+00 7.644874e+00 -3.749086e-01 3.210006e+00 2.138232e+00 -6.645048e-02 3.837660e-01 2.217463e+00 2.061291e+00 1.707740e-01 -4.153416e-01 5.419549e-02 8.436830e-01 1.670822e-01 -4.455413e+00
<VARIANCE> 39
 3.765040e+02 1.445528e+02 2.151826e+02 1.841850e+02 3.431414e+02 2.468269e+02 1.980373e+02 1.903270e+02 1.730752e+02 1.564202e+02 1.605627e+02 1.203342e+02 1.241657e+02 2.023075e+01 2.064414e+01 1.620012e+01 1.694780e+01 2.329815e+01 2.403447e+01 1.801644e+01 1.589075e+01 2.027917e+01 1.463778e+01 1.334428e+01 1.299287e+01 4.273615e+01 7.784668e+00 4.248509e+00 4.304956e+00 3.494010e+00 3.883857e+00 4.119975e+00 3.821316e+00 4.132760e+00 4.160393e+00 3.528240e+00 3.009129e+00 2.474337e+00 3.656423e+00
<GCONST> 1.959208e+02
<MIXTURE> 2 2.457329e-01
<MEAN> 39
 -3.394814e+01 -1.040153e+01 -5.690904e+00 1.413736e+01 9.379847e+00 -1.951726e+01 -1.623475e+01 6.147684e+00 5.083574e+00 9.141371e+00 -4.865292e+00 5.775257e+00 1.140551e+02 -1.079296e+01 4.027017e+00 3.015571e+00 5.830881e-01 -1.315681e+00 -3.183251e+00 2.068440e+00 3.380532e+00 2.247343e+00 -1.226165e+00 -1.196280e+00 1.177714e+00 5.572739e+00 4.799772e-01 2.192343e+00 1.162199e+00 -5.048110e-01 -4.277538e-01 1.866252e+00 1.944124e+00 4.838124e-01 -5.967400e-01 -5.852763e-01 6.993567e-01 4.820501e-01 -3.524514e+00
<VARIANCE> 39
 3.526065e+02 1.090869e+02 1.930943e+02 2.039209e+02 3.519643e+02 2.775022e+02 2.043364e+02 2.081346e+02 1.874018e+02 1.663111e+02 1.565725e+02 1.206118e+02 1.422194e+02 1.591315e+01 1.415908e+01 1.409759e+01 1.621658e+01 2.315113e+01 2.368288e+01 1.685050e+01 1.602124e+01 1.917870e+01 1.451741e+01 1.310652e+01 1.301457e+01 3.019499e+01 8.225963e+00 2.817156e+00 3.404511e+00 2.654548e+00 3.622748e+00 4.282348e+00 3.243049e+00 3.760964e+00 3.682841e+00 3.267745e+00 2.791415e+00 2.341795e+00 3.191903e+00
<GCONST> 1.931573e+02
<MIXTURE> 3 2.542624e-01
<MEAN> 39
 -3.437711e+01 -1.543559e+01 -1.532603e+01 1.121808e+01 -7.423194e+00 -2.498824e+01 -1.747828e+01 2.551274e+00 -3.822306e+00 -1.288937e+00 -7.744635e+00 5.132361e+00 1.138258e+02 -1.182305e+01 3.380641e+00 5.129425e-01 7.902676e-02 -4.179955e+00 -3.344319e+00 1.609761e+00 2.617415e+00 -1.766393e-01 -1.897778e+00 -9.587564e-01 1.437757e+00 5.029958e+00 -1.490949e+00 2.385530e+00 1.308296e+00 -8.141413e-01 -4.045342e-01 1.405554e+00 1.279363e+00 -6.423936e-01 -1.231223e+00 -6.971489e-01 1.498094e-01 -4.621188e-01 -5.220284e+00
<VARIANCE> 39
 3.765040e+02 1.445528e+02 2.151826e+02 1.841850e+02 3.431414e+02 2.468269e+02 1.980373e+02 1.903270e+02 1.730752e+02 1.564202e+02 1.605627e+02 1.203342e+02 1.241657e+02 2.023075e+01 2.064414e+01 1.620012e+01 1.694780e+01 2.329815e+01 2.403447e+01 1.801644e+01 1.589075e+01 2.027917e+01 1.463778e+01 1.334428e+01 1.299287e+01 4.273615e+01 7.784668e+00 4.248509e+00 4.304956e+00 3.494010e+00 3.883857e+00 4.119975e+00 3.821316e+00 4.132760e+00 4.160393e+00 3.528240e+00 3.009129e+00 2.474337e+00 3.656423e+00
<GCONST> 1.959208e+02
<MIXTURE> 4 2.457329e-01
<MEAN> 39
 -4.145927e+01 -1.457931e+01 -1.124924e+01 8.425322e+00 1.875562e+00 -2.618062e+01 -2.195259e+01 3.769360e-01 -3.922164e-01 3.982905e+00 -9.870449e+00 1.382321e+00 1.092849e+02 -1.238862e+01 2.521875e+00 1.513701e+00 -1.027704e+00 -3.240305e+00 -5.129853e+00 4.264657e-01 1.779470e+00 4.956031e-01 -2.750233e+00 -2.644397e+00 -2.653142e-01 3.374740e+00 -6.672603e-01 1.520967e+00 4.241458e-01 -1.156522e+00 -1.189095e+00 1.038498e+00 1.223786e+00 -2.919158e-01 -1.364369e+00 -1.308352e+00 3.105551e-02 -1.300669e-01 -4.239150e+00
<VARIANCE> 39
 3.526065e+02 1.090869e+02 1.930943e+02 2.039209e+02 3.519643e+02 2.775022e+02 2.043364e+02 2.081346e+02 1.874018e+02 1.663111e+02 1.565725e+02 1.206118e+02 1.422194e+02 1.591315e+01 1.415908e+01 1.409759e+01 1.621658e+01 2.315113e+01 2.368288e+01 1.685050e+01 1.602124e+01 1.917870e+01 1.451741e+01 1.310652e+01 1.301457e+01 3.019499e+01 8.225963e+00 2.817156e+00 3.404511e+00 2.654548e+00 3.622748e+00 4.282348e+00 3.243049e+00 3.760964e+00 3.682841e+00 3.267745e+00 2.791415e+00 2.341795e+00 3.191903e+00
<GCONST> 1.931573e+02
<TRANSP> 5
 0.000000e+00 1.000000e+00 0.000000e+00 0.000000e+00 0.000000e+00
 0.000000e+00 6.700928e-01 3.299073e-01 0.000000e+00 0.000000e+00
 0.000000e+00 0.000000e+00 7.673053e-01 2.326947e-01 0.000000e+00
 0.000000e+00 0.000000e+00 0.000000e+00 5.332903e-01 4.667097e-01
 0.000000e+00 0.000000e+00 0.000000e+00 0.000000e+00 0.000000e+00
<ENDHMM>
~h "n"
<BEGINHMM>
<NUMSTATES> 5
<STATE> 2
<NUMMIXES> 4
<MIXTURE> 1 2.340091e-01
<MEAN> 39
 1.631473e+01 2.591320e+00 3.817537e+01 8.484728e+00 -1.165195e-01 6.755399e+00 2.233351e+01 2.510482e+00 6.530457e-01 1.315558e+01 -5.562248e-01 1.469457e+01 1.153487e+02 3.196915e+00 4.754386e+00 1.492698e+00 6.219346e+00 9.317842e-01 2.981982e+00 3.842221e+00 -3.145465e+00 1.395674e+00 1.716391e+00 -4.991664e-01 2.204812e+00 -2.247309e+00 3.586751e-02 -1.808372e-01 -2.990287e-01 5.495416e-01 6.081243e-01 3.430825e-01 3.317180e-02 9.877027e-01 7.072382e-01 1.346620e-01 5.040969e-01 2.915408e-01 6.099320e-01
<VARIANCE> 39
 1.674394e+02 3.117355e+02 2.789200e+02 6.552884e+02 2.893492e+02 3.973208e+02 5.078542e+02 5.788847e+02 4.747844e+02 3.821056e+02 3.494905e+02 3.376052e+02 5.105107e+02 2.136496e+01 1.557544e+01 3.139199e+01 3.867059e+01 2.357923e+01 2.907892e+01 3.740156e+01 4.476167e+01 3.399357e+01 2.973573e+01 2.597709e+01 2.618213e+01 2.717033e+01 2.049294e+00 2.465863e+00 3.842173e+00 8.018379e+00 3.950288e+00 4.986681e+00 5.891021e+00 7.508175e+00 4.995875e+00 4.588134e+00 4.035577e+00 4.191998e+00 2.142576e+00
<GCONST> 2.110677e+02
<MIXTURE> 2 2.659785e-01
<MEAN> 39
 1.935810e+01 3.086591e-02 3.848265e+01 1.532875e+01 -2.734164e+00 7.568178e+00 1.796581e+01 2.492243e+00 -4.938291e+00 1.647754e+01 -4.373319e+00 9.948128e+00 1.175874e+02 5.242012e-01 3.731702e+00 2.420815e-01 4.051884e+00 1.708086e+00 1.944117e+00 3.228893e+00 -7.362188e-01 9.394416e-01 1.615044e+00 -9.007325e-01 3.264278e-01 -3.040942e+00 -3.894808e-01 -1.332362e-01 -4.169887e-01 3.499442e-02 9.602623e-01 1.408505e-01 -1.773261e-01 1.594313e+00 1.072584e+00 -3.697172e-02 8.301784e-01 3.793479e-01 4.466345e-01
<VARIANCE> 39
 9.306124e+01 2.646452e+02 2.307886e+02 5.769706e+02 3.202796e+02 4.079719e+02 5.490037e+02 5.721051e+02 5.711695e+02 4.953564e+02 4.937690e+02 4.376814e+02 3.188361e+02 7.029561e+00 1.264034e+01 1.615921e+01 2.639062e+01 1.795617e+01 2.207659e+01 2.964115e+01 3.220802e+01 2.757000e+01 2.449144e+01 2.127089e+01 2.033430e+01 8.645632e+00 2.143382e+00 2.406095e+00 3.853011e+00 7.705366e+00 4.071719e+00 5.115719e+00 7.262858e+00 7.462906e+00 5.896665e+00 4.902628e+00 5.146157e+00 4.766652e+00 1.870393e+00
<GCONST> 2.060058e+02
<MIXTURE> 3 2.659785e-01
<MEAN> 39
 1.549936e+01 -6.476302e+00 3.240596e+01 5.720667e+00 -9.892708e+00 -5.111477e-01 8.593474e+00 -7.075245e+00 -1.449795e+01 7.574900e+00 -1.326168e+01 1.579793e+00 1.104450e+02 -5.363317e-01 2.309572e+00 -1.365859e+00 1.997012e+00 1.309729e-02 6.468737e-02 1.051145e+00 -3.006303e+00 -1.160844e+00 -3.645089e-01 -2.745548e+00 -1.477315e+00 -4.217080e+00 -9.750925e-01 -7.537000e-01 -1.202152e+00 -1.075347e+00 1.531223e-01 -7.638677e-01 -1.255314e+00 5.015807e-01 1.012621e-01 -9.226469e-01 -7.722723e-02 -4.939587e-01 -1.004147e-01
<VARIANCE> 39
 9.306124e+01 2.646452e+02 2.307886e+02 5.769706e+02 3.202796e+02 4.079719e+02 5.490037e+02 5.721051e+02 5.711695e+02 4.953564e+02 4.937690e+02 4.376814e+02 3.188361e+02 7.029561e+00 1.264034e+01 1.615921e+01 2.639062e+01 1.795617e+01 2.207659e+01 2.964115e+01 3.220802e+01 2.757000e+01 2.449144e+01 2.127089e+01 2.033430e+01 8.645632e+00 2.143382e+00 2.406095e+00 3.853011e+00 7.705366e+00 4.071719e+00 5.115719e+00 7.262858e+00 7.462906e+00 5.896665e+00 4.902628e+00 5.146157e+00 4.766652e+00 1.870393e+00
<GCONST> 2.060058e+02
<MIXTURE> 4 2.340091e-01
<MEAN> 39
 1.113879e+01 -4.471093e+00 3.149501e+01 -1.754714e+00 -6.920627e+00 -1.217765e+00 1.331927e+01 -7.113527e+00 -8.062774e+00 5.336573e+00 -8.034091e+00 7.344953e+00 1.063109e+02 1.348025e+00 3.175757e+00 -7.484440e-01 3.731919e+00 -1.010554e+00 8.249865e-01 1.395949e+00 -5.821631e+00 -9.364858e-01 -4.648284e-01 -2.537876e+00 1.580725e-01 -4.332315e+00 -5.367467e-01 -8.089600e-01 -1.083087e+00 -5.831281e-01 -1.868890e-01 -5.501527e-01 -9.376853e-01 -1.083393e-01 -1.868200e-01 -7.221352e-01 -2.994529e-01 -5.274340e-01 2.443039e-02
<VARIANCE> 39
 1.674394e+02 3.117355e+02 2.789200e+02 6.552884e+02 2.893492e+02 3.973208e+02 5.078542e+02 5.788847e+02 4.747844e+02 3.821056e+02 3.494905e+02 3.376052e+02 5.105107e+02 2.136496e+01 1.557544e+01 3.139199e+01 3.867059e+01 2.357923e+01 2.907892e+01 3.740156e+01 4.476167e+01 3.399357e+01 2.973573e+01 2.597709e+01 2.618213e+01 2.717033e+01 2.049294e+00 2.465863e+00 3.842173e+00 8.018379e+00 3.950288e+00 4.986681e+00 5.891021e+00 7.508175e+00 4.995875e+00 4.588134e+00 4.035577e+00 4.191998e+00 2.142576e+00
<GCONST> 2.110677e+02
<STATE> 3
<NUMMIXES> 4
<MIXTURE> 1 2.728461e-01
<MEAN> 39
 2.247567e+01 1.085844e+01 3.722039e+01 2.174534e+01 -3.489199e+00 1.436091e+01 2.431963e+01 -9.476840e+00 4.403988e+00 1.096107e+01 -3.512577e+00 1.854472e+01 1.061835e+02 -4.634600e-01 -8.697602e-01 4.032751e-01 -4.234768e-01 2.756094e+00 -1.893907e-01 -3.246262e-01 4.798591e+00 1.625522e+00 3.543617e-01 1.527291e+00 9.456611e-01 2.736853e+00 -1.083718e+00 -1.095774e+00 -8.183914e-01 -1.246807e+00 1.270480e+00 -5.305670e-01 -8.449691e-01 2.654607e+00 5.415201e-01 4.143348e-01 8.248585e-01 -1.977935e-01 9.645824e-01
<VARIANCE> 39
 6.433760e+01 2.259306e+02 1.469755e+02 2.472007e+02 2.617945e+02 4.240728e+02 4.665593e+02 4.373619e+02 5.122775e+02 4.444150e+02 4.845191e+02 4.841030e+02 1.999366e+02 1.429736e+01 1.793386e+01 1.444981e+01 2.469132e+01 2.170467e+01 3.251533e+01 3.381410e+01 3.731391e+01 2.529266e+01 2.020360e+01 2.018555e+01 2.271839e+01 2.737086e+01 2.479089e+00 2.333605e+00 2.833591e+00 3.631147e+00 3.816398e+00 4.844550e+00 5.855913e+00 6.101468e+00 5.551204e+00 3.826657e+00 4.620281e+00 4.488130e+00 2.030072e+00
<GCONST> 2.037776e+02
<MIXTURE> 2 2.271439e-01
<MEAN> 39
 1.686075e+01 1.416691e+01 3.628942e+01 2.598543e+01 4.394839e+00 1.219986e+01 2.300535e+01 -2.943985e+00 9.646881e-01 1.134304e+01 -7.260651e+00 1.316850e+01 1.008528e+02 -2.977225e+00 -9.093719e-01 -1.973118e+00 -9.860319e-01 3.845766e+00 1.103848e-01 -1.476005e+00 6.278861e+00 1.696360e+00 6.833498e-01 1.954349e+00 -8.064498e-01 1.761427e+00 -1.429821e+00 -1.506635e+00 -1.505866e+00 -1.721409e+00 5.560452e-02 -4.380771e-01 -1.054307e+00 1.533056e+00 7.004634e-01 2.286550e-01 1.125211e+00 2.829142e-01 1.165323e+00
<VARIANCE> 39
 9.387785e+01 2.111467e+02 1.339902e+02 2.436753e+02 2.744104e+02 3.695392e+02 3.703472e+02 4.110204e+02 4.381072e+02 4.518328e+02 4.292396e+02 4.379326e+02 2.596963e+02 3.783178e+01 2.768844e+01 2.779453e+01 3.447176e+01 2.985880e+01 4.119379e+01 4.402036e+01 4.679350e+01 4.289509e+01 3.604601e+01 3.703504e+01 3.888915e+01 4.647684e+01 3.558988e+00 2.709604e+00 2.843603e+00 3.416172e+00 5.111396e+00 5.184128e+00 5.076243e+00 7.140045e+00 5.542807e+00 4.517408e+00 4.665631e+00 5.124192e+00 2.533030e+00
<GCONST> 2.110754e+02
<MIXTURE> 3 2.728461e-01
<MEAN> 39
 1.926725e+01 4.846047e+00 3.237105e+01 1.545630e+01 -9.961226e+00 6.123694e+00 1.567963e+01 -1.784212e+01 -4.649432e+00 2.528607e+00 -1.231730e+01 9.743782e+00 1.005275e+02 -1.975934e+00 -2.563696e+00 -1.117241e+00 -2.411091e+00 8.925636e-01 -2.470279e+00 -2.650622e+00 2.355186e+00 -3.861503e-01 -1.443575e+00 -2.698424e-01 -9.608915e-01 6.441667e-01 -1.713522e+00 -1.706820e+00 -1.491722e+00 -2.009029e+00 4.890561e-01 -1.410981e+00 -1.812929e+00 1.666561e+00 -4.009196e-01 -3.681390e-01 -3.493509e-02 -1.045202e+00 3.946601e-01
<VARIANCE> 39
 6.433760e+01 2.259306e+02 1.469755e+02 2.472007e+02 2.617945e+02 4.240728e+02 4.665593e+02 4.373619e+02 5.122775e+02 4.444150e+02 4.845191e+02 4.841030e+02 1.999366e+02 1.429736e+01 1.793386e+01 1.444981e+01 2.469132e+01 2.170467e+01 3.251533e+01 3.381410e+01 3.731391e+01 2.529266e+01 2.020360e+01 2.018555e+01 2.271839e+01 2.737086e+01 2.479089e+00 2.333605e+00 2.833591e+00 3.631147e+00 3.816398e+00 4.844550e+00 5.855913e+00 6.101468e+00 5.551204e+00 3.826657e+00 4.620281e+00 4.488130e+00 2.030072e+00
<GCONST> 2.037776e+02
<MIXTURE> 4 2.271439e-01
<MEAN> 39
 1.298513e+01 8.354552e+00 3.165926e+01 1.974139e+01 -2.231296e+00 4.510495e+00 1.530759e+01 -1.105344e+01 -7.407716e+00 2.840496e+00 -1.554789e+01 4.797762e+00 9.440677e+01 -5.437527e+00 -3.014164e+00 -4.081938e+00 -3.334538e+00 1.660038e+00 -2.456911e+00 -4.129919e+00 3.542630e+00 -9.234133e-01 -1.718183e+00 -4.799078e-01 -3.300896e+00 -9.655303e-01 -2.184433e+00 -2.165071e+00 -2.180386e+00 -2.460725e+00 -8.487313e-01 -1.348824e+00 -1.955527e+00 4.642220e-01 -2.412633e-01 -6.215128e-01 2.612084e-01 -6.225530e-01 5.287032e-01
<VARIANCE> 39
 9.387785e+01 2.111467e+02 1.339902e+02 2.436753e+02 2.744104e+02 3.695392e+02 3.703472e+02 4.110204e+02 4.381072e+02 4.518328e+02 4.292396e+02 4.379326e+02 2.596963e+02 3.783178e+01 2.768844e+01 2.779453e+01 3.447176e+01 2.985880e+01 4.119379e+01 4.402036e+01 4.679350e+01 4.289509e+01 3.604601e+01 3.703504e+01 3.888915e+01 4.647684e+01 3.558988e+00 2.709604e+00 2.843603e+00 3.416172e+00 5.111396e+00 5.184128e+00 5.076243e+00 7.140045e+00 5.542807e+00 4.517408e+00 4.665631e+00 5.124192e+00 2.533030e+00
<GCONST> 2.110754e+02
<STATE> 4
<NUMMIXES> 4
<MIXTURE> 1 2.426278e-01
<MEAN> 39
 1.090987e+01 -9.529769e+00 2.543337e+01 4.407825e+00 7.696529e+00 -2.965683e+00 6.934950e+00 2.041239e+01 5.245580e+00 9.492775e+00 -3.381507e+00 1.062125e+01 1.187305e+02 -9.261677e-01 -2.861582e+00 -3.506999e+00 -3.437221e+00 2.589366e+00 3.866225e-01 -1.934380e+00 6.225678e+00 3.175603e+00 5.086488e-01 2.269109e+00 -5.263352e-02 3.827603e+00 4.454448e-01 9.911707e-01 8.808619e-02 1.463654e+00 4.203686e-02 1.753385e+00 1.332358e+00 -9.680589e-01 4.556804e-01 4.133231e-01 5.029882e-01 1.580218e-01 -5.159860e-01
<VARIANCE> 39
 1.870152e+02 2.522889e+02 2.720390e+02 4.475008e+02 2.761121e+02 3.721089e+02 6.384946e+02 4.214379e+02 3.568362e+02 4.334323e+02 3.172053e+02 3.235768e+02 7.969575e+02 9.071941e+00 2.602454e+01 1.943882e+01 3.598670e+01 2.701124e+01 3.044029e+01 3.792815e+01 4.579934e+01 3.921960e+01 2.605505e+01 2.652380e+01 2.531169e+01 3.060167e+01 1.182643e+00 2.220429e+00 2.964366e+00 4.804221e+00 3.633068e+00 6.036586e+00 6.998455e+00 6.463621e+00 4.608317e+00 3.885037e+00 3.700388e+00 3.466666e+00 2.182857e+00
<GCONST> 2.081452e+02
<MIXTURE> 2 2.573523e-01
<MEAN> 39
 -4.233822e+00 4.903810e+00 1.937827e+01 2.172231e+01 8.997315e+00 1.026041e+01 1.855444e+01 1.361721e+01 4.488702e+00 6.463204e+00 -3.685042e+00 6.048795e+00 8.461329e+01 -4.843914e+00 -1.701802e+00 -4.531838e+00 -2.696027e+00 -5.790313e-01 -1.476340e+00 -2.648581e+00 1.699388e+00 6.926913e-01 -1.102721e-01 1.713701e+00 -3.389247e-01 -1.456067e+00 7.059222e-01 2.953856e-01 4.130330e-01 -2.012333e-01 -5.120523e-01 -1.699892e-01 -1.242272e-01 -7.545894e-01 3.081039e-02 3.711117e-01 2.894261e-01 8.471279e-01 1.083166e+00
<VARIANCE> 39
 1.192978e+02 1.636580e+02 1.860609e+02 2.429211e+02 2.233333e+02 2.653563e+02 3.193974e+02 3.228220e+02 2.921920e+02 3.152772e+02 2.352168e+02 2.135918e+02 3.023363e+02 2.806366e+01 1.666088e+01 1.850797e+01 1.864873e+01 1.976472e+01 2.306053e+01 2.550827e+01 2.966400e+01 2.818798e+01 2.328400e+01 2.608052e+01 2.310885e+01 1.613384e+01 2.004684e+00 3.053126e+00 2.801463e+00 3.624080e+00 4.020810e+00 4.291235e+00 4.521452e+00 4.569153e+00 4.461906e+00 4.150867e+00 4.017462e+00 3.908427e+00 2.729955e+00
<GCONST> 1.998697e+02
<MIXTURE> 3 2.573523e-01
<MEAN> 39
 -8.602764e+00 -2.133458e-01 1.392211e+01 1.548794e+01 3.019579e+00 3.744502e+00 1.140576e+01 6.430310e+00 -2.348748e+00 -6.392145e-01 -9.819754e+00 2.028830e-01 7.765816e+01 -6.962920e+00 -3.334512e+00 -6.252674e+00 -4.423394e+00 -2.357333e+00 -3.397196e+00 -4.668809e+00 -4.791989e-01 -1.431003e+00 -2.040412e+00 -3.290625e-01 -2.261791e+00 -3.062745e+00 1.395748e-01 -4.035423e-01 -2.564698e-01 -9.627140e-01 -1.314131e+00 -9.986010e-01 -9.747754e-01 -1.609613e+00 -8.141186e-01 -4.438354e-01 -5.123181e-01 5.633828e-02 4.222634e-01
<VARIANCE> 39
 1.192978e+02 1.636580e+02 1.860609e+02 2.429211e+02 2.233333e+02 2.653563e+02 3.193974e+02 3.228220e+02 2.921920e+02 3.152772e+02 2.352168e+02 2.135918e+02 3.023363e+02 2.806366e+01 1.666088e+01 1.850797e+01 1.864873e+01 1.976472e+01 2.306053e+01 2.550827e+01 2.966400e+01 2.818798e+01 2.328400e+01 2.608052e+01 2.310885e+01 1.613384e+01 2.004684e+00 3.053126e+00 2.801463e+00 3.624080e+00 4.020810e+00 4.291235e+00 4.521452e+00 4.569153e+00 4.461906e+00 4.150867e+00 4.017462e+00 3.908427e+00 2.729955e+00
<GCONST> 1.998697e+02
<MIXTURE> 4 2.426278e-01
<MEAN> 39
 5.439726e+00 -1.588321e+01 1.883593e+01 -4.053861e+00 1.049881e+00 -1.068173e+01 -3.172431e+00 1.220081e+01 -2.310464e+00 1.165161e+00 -1.050561e+01 3.425951e+00 1.074383e+02 -2.130954e+00 -4.902152e+00 -5.270578e+00 -5.836778e+00 5.104722e-01 -1.820287e+00 -4.397814e+00 3.518670e+00 6.705809e-01 -1.533117e+00 2.090588e-01 -2.065063e+00 1.614852e+00 1.044720e-02 3.951265e-01 -6.006072e-01 5.869123e-01 -7.203875e-01 7.706068e-01 2.741746e-01 -1.985005e+00 -4.029992e-01 -3.750968e-01 -2.664676e-01 -5.867376e-01 -1.106966e+00
<VARIANCE> 39
 1.870152e+02 2.522889e+02 2.720390e+02 4.475008e+02 2.761121e+02 3.721089e+02 6.384946e+02 4.214379e+02 3.568362e+02 4.334323e+02 3.172053e+02 3.235768e+02 7.969575e+02 9.071941e+00 2.602454e+01 1.943882e+01 3.598670e+01 2.701124e+01 3.044029e+01 3.792815e+01 4.579934e+01 3.921960e+01 2.605505e+01 2.652380e+01 2.531169e+01 3.060167e+01 1.182643e+00 2.220429e+00 2.964366e+00 4.804221e+00 3.633068e+00 6.036586e+00 6.998455e+00 6.463621e+00 4.608317e+00 3.885037e+00 3.700388e+00 3.466666e+00 2.182857e+00
<GCONST> 2.081452e+02
<TRANSP> 5
 0.000000e+00 1.000000e+00 0.000000e+00 0.000000e+00 0.000000e+00
 0.000000e+00 6.471398e-01 3.528601e-01 0.000000e+00 0.000000e+00
 0.000000e+00 0.000000e+00 6.030889e-01 3.969111e-01 0.000000e+00
 0.000000e+00 0.000000e+00 0.000000e+00 6.332610e-01 3.667390e-01
 0.000000e+00 0.000000e+00 0.000000e+00 0.000000e+00 0.000000e+00
<ENDHMM>
~h "r"
<BEGINHMM>
<NUMSTATES> 5
<STATE> 2
<NUMMIXES> 4
<MIXTURE> 1 2.630207e-01
<MEAN> 39
 3.867604e+01 -1.490574e+01 -2.883546e+00 6.314739e+00 2.965527e+01 -2.031372e+01 -2.243209e+01 7.722071e+00 -3.441320e+00 1.019792e+01 5.153873e+00 1.183450e+01 1.291370e+02 1.211862e+00 2.749370e-01 -1.726737e+00 1.604460e-01 2.023216e+00 6.864238e-01 7.041502e-02 1.221774e+00 2.093695e+00 1.624202e+00 1.147903e+00 1.047731e+00 2.005738e-01 -6.969846e-01 5.813566e-02 1.806291e+00 1.451384e-01 -1.226432e+00 3.089471e-01 1.590510e+00 8.005141e-01 -1.576062e-01 1.838421e-01 4.176264e-01 2.651898e-01 3.812792e-01
<VARIANCE> 39
 6.260902e+01 1.803173e+02 4.672873e+02 2.920199e+02 3.802123e+02 8.566978e+02 1.025532e+03 3.992944e+02 3.198386e+02 3.471044e+02 2.537843e+02 1.989741e+02 1.694419e+02 4.531199e+00 6.212391e+00 1.924646e+01 1.385391e+01 1.790339e+01 2.151354e+01 1.840064e+01 1.881952e+01 1.634994e+01 1.329042e+01 1.285049e+01 1.170649e+01 4.691632e+00 5.864487e-01 9.285188e-01 1.324353e+00 1.582854e+00 1.899968e+00 3.471717e+00 2.513161e+00 2.796143e+00 2.331943e+00 2.155593e+00 2.101364e+00 1.877701e+00 5.374144e-01
<GCONST> 1.850286e+02
<MIXTURE> 2 2.369614e-01
<MEAN> 39
 3.799143e+01 -1.484360e+01 1.021557e-01 6.207924e+00 2.928177e+01 -9.940777e+00 -2.769946e+01 5.456454e+00 -5.706365e+00 7.982026e+00 5.575168e+00 9.187700e+00 1.290164e+02 1.027149e+00 -6.209181e-01 -6.093347e-02 1.592500e+00 2.297487e+00 -8.628656e-01 -1.086069e+00 2.240638e+00 2.604447e+00 1.496799e+00 5.644104e-01 5.454869e-01 9.248786e-01 -1.021922e+00 2.496874e-01 2.167317e+00 4.551481e-01 -1.566028e+00 7.997492e-02 2.049448e+00 1.232757e+00 7.781726e-02 1.140411e-01 2.320904e-01 4.068178e-01 2.506230e-01
<VARIANCE> 39
 7.030152e+01 1.941248e+02 5.001086e+02 3.805569e+02 4.074610e+02 8.597014e+02 9.683595e+02 4.481266e+02 3.303419e+02 4.464627e+02 2.800520e+02 2.349834e+02 1.762037e+02 7.034942e+00 9.714281e+00 2.806528e+01 2.144013e+01 2.041903e+01 3.387592e+01 2.425978e+01 2.779153e+01 2.216684e+01 1.943047e+01 1.600530e+01 1.532802e+01 8.103765e+00 1.904475e+00 1.530667e+00 2.295223e+00 2.555354e+00 3.237639e+00 4.901812e+00 4.705047e+00 3.942615e+00 3.388080e+00 3.590050e+00 2.956985e+00 2.829816e+00 9.024405e-01
<GCONST> 1.976512e+02
<MIXTURE> 3 2.630207e-01
<MEAN> 39
 3.551101e+01 -2.027704e+01 -1.153028e+01 -5.206969e-01 2.185565e+01 -3.202148e+01 -3.524166e+01 -2.708704e-01 -1.059493e+01 2.745628e+00 -1.218371e+00 6.192176e+00 1.239302e+02 3.603975e-01 -7.220498e-01 -3.481569e+00 -1.328388e+00 3.307200e-01 -1.168884e+00 -1.645424e+00 -5.134847e-01 4.762928e-01 1.659613e-01 -2.859997e-01 -3.208586e-01 -6.658332e-01 -1.003304e+00 -3.273031e-01 1.345969e+00 -3.581078e-01 -1.777790e+00 -4.363547e-01 9.563919e-01 1.316473e-01 -7.684342e-01 -4.034355e-01 -1.622168e-01 -2.829272e-01 8.804500e-02
<VARIANCE> 39
 6.260902e+01 1.803173e+02 4.672873e+02 2.920199e+02 3.802123e+02 8.566978e+02 1.025532e+03 3.992944e+02 3.198386e+02 3.471044e+02 2.537843e+02 1.989741e+02 1.694419e+02 4.531199e+00 6.212391e+00 1.924646e+01 1.385391e+01 1.790339e+01 2.151354e+01 1.840064e+01 1.881952e+01 1.634994e+01 1.329042e+01 1.285049e+01 1.170649e+01 4.691632e+00 5.864487e-01 9.285188e-01 1.324353e+00 1.582854e+00 1.899968e+00 3.471717e+00 2.513161e+00 2.796143e+00 2.331943e+00 2.155593e+00 2.101364e+00 1.877701e+00 5.374144e-01
<GCONST> 1.850286e+02
<MIXTURE> 4 2.369614e-01
<MEAN> 39
 3.463759e+01 -2.041674e+01 -8.843088e+00 -1.595222e+00 2.120751e+01 -2.166904e+01 -4.014685e+01 -3.011147e+00 -1.297649e+01 -4.698400e-01 -1.118734e+00 3.056032e+00 1.237068e+02 -3.378910e-02 -1.867628e+00 -2.180000e+00 -2.596399e-01 4.899906e-01 -3.190987e+00 -3.056237e+00 1.319315e-01 7.211806e-01 -2.664016e-01 -1.035855e+00 -1.020554e+00 -2.138059e-01 -1.573932e+00 -2.451930e-01 1.561317e+00 -1.842709e-01 -2.285766e+00 -8.056265e-01 1.181804e+00 4.385167e-01 -6.584523e-01 -6.438559e-01 -4.557450e-01 -2.660645e-01 -1.293645e-01
<VARIANCE> 39
 7.030152e+01 1.941248e+02 5.001086e+02 3.805569e+02 4.074610e+02 8.597014e+02 9.683595e+02 4.481266e+02 3.303419e+02 4.464627e+02 2.800520e+02 2.349834e+02 1.762037e+02 7.034942e+00 9.714281e+00 2.806528e+01 2.144013e+01 2.041903e+01 3.387592e+01 2.425978e+01 2.779153e+01 2.216684e+01 1.943047e+01 1.600530e+01 1.532802e+01 8.103765e+00 1.904475e+00 1.530667e+00 2.295223e+00 2.555354e+00 3.237639e+00 4.901812e+00 4.705047e+00 3.942615e+00 3.388080e+00 3.590050e+00 2.956985e+00 2.829816e+00 9.024405e-01
<GCONST> 1.976512e+02
<STATE> 3
<NUMMIXES> 4
<MIXTURE> 1 2.787968e-01
<MEAN> 39
 3.454893e+01 -2.266376e+01 9.718054e+00 1.159973e+01 2.227106e+01 -3.090042e+01 -1.964222e+01 1.921113e+01 -3.418366e+00 7.777522e+00 3.832305e+00 1.285480e+01 1.329752e+02 -2.439697e+00 -6.452265e-01 7.002001e+00 1.426743e+00 -4.744240e+00 -1.566790e+00 6.494387e+00 4.450677e+00 -1.427039e+00 -2.450727e-01 2.121389e+00 1.295338e+00 1.623729e+00 -6.959782e-01 1.241774e+00 1.482307e+00 -6.490935e-01 -7.478734e-01 2.643327e+00 2.213303e+00 -1.276512e+00 -6.926597e-01 9.897408e-01 6.684941e-01 -1.348611e-01 -3.187330e-01
<VARIANCE> 39
 6.191490e+01 1.625367e+02 5.005578e+02 3.373932e+02 3.934009e+02 7.462950e+02 1.049494e+03 3.752140e+02 3.574946e+02 4.450516e+02 2.851673e+02 2.434624e+02 1.555347e+02 4.685072e+00 7.478487e+00 2.587562e+01 1.955449e+01 2.018664e+01 3.025261e+01 2.679927e+01 2.531556e+01 2.643851e+01 2.400722e+01 1.970442e+01 1.438344e+01 6.978510e+00 1.148199e+00 1.218640e+00 2.123254e+00 1.739507e+00 3.418145e+00 4.358377e+00 3.996593e+00 3.632875e+00 3.092766e+00 2.964358e+00 2.550328e+00 2.851949e+00 3.930073e-01
<GCONST> 1.936220e+02
<MIXTURE> 2 2.211975e-01
<MEAN> 39
 3.245767e+01 -2.101266e+01 1.173501e+01 1.431094e+01 2.253791e+01 -2.307431e+01 -2.386587e+01 1.736276e+01 -3.159851e+00 5.639076e+00 2.008183e+00 9.827009e+00 1.322962e+02 -3.905544e+00 -1.064341e-01 8.839474e+00 3.889209e+00 -4.163938e+00 -1.308065e+00 6.639101e+00 4.559465e+00 2.173588e-01 -2.557876e-01 1.130849e+00 1.524743e-01 6.975874e-01 -1.218757e+00 1.733011e+00 1.353996e+00 -8.147783e-01 -9.466779e-01 2.957711e+00 2.782638e+00 -8.212091e-01 -5.524583e-01 9.185535e-01 6.153126e-01 1.625491e-01 -6.233163e-01
<VARIANCE> 39
 7.385886e+01 2.138557e+02 6.144584e+02 4.095860e+02 4.326503e+02 8.424515e+02 1.056472e+03 4.635186e+02 4.355500e+02 5.342983e+02 2.719832e+02 2.487793e+02 2.038088e+02 1.103277e+01 1.211987e+01 3.156678e+01 3.005881e+01 3.506321e+01 4.169205e+01 4.246889e+01 4.036441e+01 5.003566e+01 3.046258e+01 2.560996e+01 2.129353e+01 1.790432e+01 2.984740e+00 2.783452e+00 2.936358e+00 3.154757e+00 4.926007e+00 7.259994e+00 6.524081e+00 6.589793e+00 5.149580e+00 5.432857e+00 3.537730e+00 3.588079e+00 1.610920e+00
<GCONST> 2.095167e+02
<MIXTURE> 3 2.787968e-01
<MEAN> 39
 3.140149e+01 -2.776336e+01 7.687941e-01 4.252419e+00 1.433732e+01 -4.182778e+01 -3.260058e+01 1.146295e+01 -1.098138e+01 -6.609762e-01 -2.922454e+00 6.613490e+00 1.279866e+02 -3.305499e+00 -1.739100e+00 4.967278e+00 -3.420751e-01 -6.541422e+00 -3.766884e+00 4.423666e+00 2.438095e+00 -3.483775e+00 -2.204959e+00 3.458027e-01 -2.216825e-01 5.670536e-01 -1.124594e+00 8.002059e-01 8.994512e-01 -1.176655e+00 -1.487403e+00 1.808258e+00 1.413643e+00 -2.038916e+00 -1.396110e+00 3.010484e-01 2.970424e-02 -8.103697e-01 -5.694942e-01
<VARIANCE> 39
 6.191490e+01 1.625367e+02 5.005578e+02 3.373932e+02 3.934009e+02 7.462950e+02 1.049494e+03 3.752140e+02 3.574946e+02 4.450516e+02 2.851673e+02 2.434624e+02 1.555347e+02 4.685072e+00 7.478487e+00 2.587562e+01 1.955449e+01 2.018664e+01 3.025261e+01 2.679927e+01 2.531556e+01 2.643851e+01 2.400722e+01 1.970442e+01 1.438344e+01 6.978510e+00 1.148199e+00 1.218640e+00 2.123254e+00 1.739507e+00 3.418145e+00 4.358377e+00 3.996593e+00 3.632875e+00 3.092766e+00 2.964358e+00 2.550328e+00 2.851949e+00 3.930073e-01
<GCONST> 1.936220e+02
<MIXTURE> 4 2.211975e-01
<MEAN> 39
 2.902003e+01 -2.686218e+01 1.819703e+00 6.215644e+00 1.421781e+01 -3.468431e+01 -3.686723e+01 8.750963e+00 -1.150778e+01 -3.606882e+00 -4.588582e+00 3.517913e+00 1.265858e+02 -5.234169e+00 -1.498978e+00 6.592101e+00 1.696173e+00 -6.532506e+00 -3.890841e+00 4.032374e+00 2.018145e+00 -2.612077e+00 -2.463504e+00 -8.934028e-01 -1.693322e+00 -9.949526e-01 -1.909813e+00 1.065663e+00 6.685638e-01 -1.525244e+00 -1.834462e+00 1.879936e+00 1.760946e+00 -1.848033e+00 -1.460166e+00 -1.378611e-02 -1.370416e-01 -5.951399e-01 -1.131004e+00
<VARIANCE> 39
 7.385886e+01 2.138557e+02 6.144584e+02 4.095860e+02 4.326503e+02 8.424515e+02 1.056472e+03 4.635186e+02 4.355500e+02 5.342983e+02 2.719832e+02 2.487793e+02 2.038088e+02 1.103277e+01 1.211987e+01 3.156678e+01 3.005881e+01 3.506321e+01 4.169205e+01 4.246889e+01 4.036441e+01 5.003566e+01 3.046258e+01 2.560996e+01 2.129353e+01 1.790432e+01 2.984740e+00 2.783452e+00 2.936358e+00 3.154757e+00 4.926007e+00 7.259994e+00 6.524081e+00 6.589793e+00 5.149580e+00 5.432857e+00 3.537730e+00 3.588079e+00 1.610920e+00
<GCONST> 2.095167e+02
<STATE> 4
<NUMMIXES> 4
<MIXTURE> 1 2.860618e-01
<MEAN> 39
 2.451059e+01 -2.180506e+01 3.021064e+01 9.950126e+00 2.565097e+00 -2.946436e+01 1.191532e+00 1.914030e+01 -1.534447e+01 9.602672e+00 9.616387e+00 9.278521e+00 1.339079e+02 -2.931874e+00 2.411372e+00 6.713356e+00 -2.353818e+00 -3.890552e+00 5.028015e+00 6.754965e+00 -2.325170e+00 -1.285883e+00 3.631175e+00 9.021913e-01 -7.788311e-01 4.178040e-01 1.656833e-01 1.210398e+00 -3.526682e-01 -3.978379e-01 1.608354e+00 2.160528e+00 -7.886003e-01 -1.086467e+00 1.690568e+00 7.572519e-01 -6.837460e-01 2.077222e-01 -4.181539e-01
<VARIANCE> 39
 1.448860e+02 1.850132e+02 8.904935e+02 3.508666e+02 3.432057e+02 6.601470e+02 9.004535e+02 4.045272e+02 5.463708e+02 4.872133e+02 2.808017e+02 2.563593e+02 2.980711e+02 5.502844e+00 8.004951e+00 2.297038e+01 1.533868e+01 1.850536e+01 1.890640e+01 2.206918e+01 2.910429e+01 2.082489e+01 1.953893e+01 1.722452e+01 1.451343e+01 4.893592e+00 6.449632e-01 1.208782e+00 1.951173e+00 1.731203e+00 2.415347e+00 3.477262e+00 3.848379e+00 3.061832e+00 3.677330e+00 2.619728e+00 2.380091e+00 2.169471e+00 4.125013e-01
<GCONST> 1.927106e+02
<MIXTURE> 2 2.139275e-01
<MEAN> 39
 1.267278e+01 -1.206534e+01 1.237223e+00 1.867190e+01 2.082298e+01 -2.525594e+00 5.401792e+00 2.226488e+01 8.315361e+00 8.232031e+00 1.730953e+00 6.868997e+00 1.011056e+02 -5.385130e+00 1.055037e+00 3.511509e+00 1.559361e+00 -1.823203e+00 3.382784e+00 3.419356e+00 1.518617e-01 1.018217e+00 2.717919e-01 1.044331e-01 -3.543521e-01 -3.179405e+00 3.120839e-01 6.692144e-01 -3.737655e-01 -8.869372e-01 8.729300e-02 2.902492e-01 -3.112182e-01 -3.065081e-01 -9.133258e-02 5.560440e-01 4.481497e-01 4.293057e-01 3.851229e-01
<VARIANCE> 39
 2.267704e+02 1.930979e+02 4.527204e+02 3.146724e+02 3.996749e+02 5.413079e+02 5.530736e+02 4.371144e+02 4.148521e+02 3.001228e+02 2.519974e+02 2.582977e+02 4.667581e+02 2.814665e+01 2.446228e+01 2.493322e+01 3.027850e+01 2.863823e+01 3.782219e+01 3.918046e+01 2.985588e+01 2.925468e+01 2.477227e+01 2.188499e+01 2.041625e+01 1.355351e+01 3.135971e+00 3.329217e+00 3.644220e+00 4.466413e+00 4.452783e+00 6.069743e+00 4.823360e+00 4.706648e+00 5.061886e+00 4.180097e+00 3.774048e+00 3.644680e+00 1.938026e+00
<GCONST> 2.082707e+02
<MIXTURE> 3 2.860618e-01
<MEAN> 39
 1.969585e+01 -2.724584e+01 1.827418e+01 2.457552e+00 -4.845227e+00 -3.974168e+01 -1.081149e+01 1.109516e+01 -2.469430e+01 7.735081e-01 2.913532e+00 2.874031e+00 1.270021e+02 -3.870200e+00 1.279652e+00 4.796259e+00 -3.920403e+00 -5.611266e+00 3.288755e+00 4.875851e+00 -4.483106e+00 -3.111255e+00 1.863061e+00 -7.579061e-01 -2.302691e+00 -4.670546e-01 -1.555551e-01 7.706197e-01 -9.114058e-01 -9.241387e-01 9.866983e-01 1.414632e+00 -1.573292e+00 -1.786391e+00 9.235138e-01 1.098289e-01 -1.300848e+00 -3.814428e-01 -6.750590e-01
<VARIANCE> 39
 1.448860e+02 1.850132e+02 8.904935e+02 3.508666e+02 3.432057e+02 6.601470e+02 9.004535e+02 4.045272e+02 5.463708e+02 4.872133e+02 2.808017e+02 2.563593e+02 2.980711e+02 5.502844e+00 8.004951e+00 2.297038e+01 1.533868e+01 1.850536e+01 1.890640e+01 2.206918e+01 2.910429e+01 2.082489e+01 1.953893e+01 1.722452e+01 1.451343e+01 4.893592e+00 6.449632e-01 1.208782e+00 1.951173e+00 1.731203e+00 2.415347e+00 3.477262e+00 3.848379e+00 3.061832e+00 3.677330e+00 2.619728e+00 2.380091e+00 2.169471e+00 4.125013e-01
<GCONST> 1.927106e+02
<MIXTURE> 4 2.139275e-01
<MEAN> 39
 6.649225e+00 -1.762372e+01 -7.273667e+00 1.157630e+01 1.282623e+01 -1.183200e+01 -4.005216e+00 1.390197e+01 1.681943e-01 1.302409e+00 -4.618817e+00 4.403396e-01 9.246374e+01 -7.507266e+00 -9.233375e-01 1.514182e+00 -6.416753e-01 -3.963791e+00 9.227941e-01 9.155840e-01 -2.033760e+00 -1.145287e+00 -1.719078e+00 -1.766823e+00 -2.161726e+00 -4.652009e+00 -3.962631e-01 -6.063136e-02 -1.137359e+00 -1.732293e+00 -7.567718e-01 -6.952248e-01 -1.189704e+00 -1.174301e+00 -9.912781e-01 -2.617674e-01 -3.289267e-01 -3.343362e-01 -1.717291e-01
<VARIANCE> 39
 2.267704e+02 1.930979e+02 4.527204e+02 3.146724e+02 3.996749e+02 5.413079e+02 5.530736e+02 4.371144e+02 4.148521e+02 3.001228e+02 2.519974e+02 2.582977e+02 4.667581e+02 2.814665e+01 2.446228e+01 2.493322e+01 3.027850e+01 2.863823e+01 3.782219e+01 3.918046e+01 2.985588e+01 2.925468e+01 2.477227e+01 2.188499e+01 2.041625e+01 1.355351e+01 3.135971e+00 3.329217e+00 3.644220e+00 4.466413e+00 4.452783e+00 6.069743e+00 4.823360e+00 4.706648e+00 5.061886e+00 4.180097e+00 3.774048e+00 3.644680e+00 1.938026e+00
<GCONST> 2.082707e+02
<TRANSP> 5
 0.000000e+00 1.000000e+00 0.000000e+00 0.000000e+00 0.000000e+00
 0.000000e+00 7.574432e-01 2.425568e-01 0.000000e+00 0.000000e+00
 0.000000e+00 0.000000e+00 5.057866e-01 4.942134e-01 0.000000e+00
 0.000000e+00 0.000000e+00 0.000000e+00 5.933323e-01 4.066677e-01
 0.000000e+00 0.000000e+00 0.000000e+00 0.000000e+00 0.000000e+00
<ENDHMM>
~h "s"
<BEGINHMM>
<NUMSTATES> 5
<STATE> 2
<NUMMIXES> 4
<MIXTURE> 1 2.138608e-01
<MEAN> 39
 -1.363343e+01 6.898341e+00 1.854877e+01 8.777811e+00 9.750767e+00 -6.045950e+00 -7.683411e-01 4.685134e+00 5.786505e-01 5.167871e+00 -4.292756e+00 9.176493e+00 1.109430e+02 -7.626223e+00 4.677253e+00 -1.379225e+00 2.729796e+00 1.616553e+00 1.902477e+00 3.457220e+00 3.288551e+00 2.572031e+00 2.700453e-01 1.890441e+00 1.842179e+00 1.015999e+00 -3.030923e-01 4.659113e-02 -1.122559e+00 -3.099932e-01 5.193889e-03 6.993437e-01 4.176172e-01 7.080428e-01 -1.282698e-02 8.533682e-01 9.455888e-01 2.503245e-01 1.511125e-01
<VARIANCE> 39
 7.358621e+02 2.119484e+02 4.590662e+02 3.455461e+02 3.863769e+02 3.901621e+02 3.503618e+02 3.463551e+02 3.715953e+02 2.849628e+02 2.379627e+02 2.878847e+02 5.069513e+02 5.929030e+01 2.565553e+01 4.006550e+01 4.969910e+01 3.216139e+01 4.805247e+01 3.188157e+01 3.339590e+01 3.964598e+01 3.175729e+01 2.878903e+01 2.545259e+01 2.953297e+01 9.303695e+00 4.310240e+00 5.739514e+00 5.913819e+00 5.368535e+00 5.894539e+00 5.481477e+00 5.836335e+00 5.463654e+00 5.330195e+00 4.411602e+00 4.466987e+00 2.925934e+00
<GCONST> 2.160919e+02
<MIXTURE> 2 2.861246e-01
<MEAN> 39
 -3.664066e+01 8.148584e+00 5.582493e+00 1.142273e+01 3.700551e+00 -4.379717e+00 3.768711e+00 1.030183e+01 -1.024239e-01 4.508214e+00 -6.745872e-01 8.045115e+00 1.068142e+02 -7.453682e+00 2.008555e+00 -3.275763e+00 -1.531063e+00 -1.037844e+00 5.051274e-01 1.115518e+00 1.606671e+00 1.839942e-02 4.364783e-01 1.291137e+00 1.009176e+00 2.430221e+00 2.162626e+00 2.994937e-02 4.693764e-02 -1.930950e-01 3.079125e-01 7.110020e-01 -2.018968e-01 -4.810956e-01 2.247223e-02 6.055571e-01 2.288993e-01 3.371243e-01 -3.101263e-01
<VARIANCE> 39
 2.787013e+02 2.583852e+02 2.867912e+02 3.015300e+02 4.060197e+02 3.674204e+02 3.017652e+02 2.308724e+02 2.074856e+02 1.894837e+02 1.941807e+02 1.608185e+02 3.782292e+02 4.405436e+01 1.951285e+01 4.617062e+01 2.381037e+01 2.353400e+01 2.629936e+01 2.594886e+01 2.336654e+01 2.309146e+01 1.919757e+01 1.830484e+01 1.939561e+01 2.734281e+01 5.678255e+00 4.678295e+00 4.253220e+00 5.072551e+00 5.314506e+00 5.927479e+00 4.955151e+00 4.675680e+00 4.561072e+00 4.059384e+00 4.008817e+00 3.508411e+00 3.351345e+00
<GCONST> 2.057426e+02
<MIXTURE> 3 2.861246e-01
<MEAN> 39
 -4.331840e+01 1.718839e+00 -1.191471e+00 4.476883e+00 -4.359422e+00 -1.204700e+01 -3.179845e+00 4.224040e+00 -5.864168e+00 -9.979086e-01 -6.248537e+00 2.972545e+00 9.903497e+01 -1.010862e+01 2.416210e-01 -5.993721e+00 -3.482897e+00 -2.978318e+00 -1.546189e+00 -9.220828e-01 -3.268867e-01 -1.903744e+00 -1.316123e+00 -4.202296e-01 -7.524418e-01 3.386068e-01 1.209462e+00 -8.352253e-01 -7.779958e-01 -1.093988e+00 -6.142160e-01 -2.628546e-01 -1.092304e+00 -1.346028e+00 -8.317944e-01 -2.003595e-01 -5.719819e-01 -4.121058e-01 -1.042393e+00
<VARIANCE> 39
 2.787013e+02 2.583852e+02 2.867912e+02 3.015300e+02 4.060197e+02 3.674204e+02 3.017652e+02 2.308724e+02 2.074856e+02 1.894837e+02 1.941807e+02 1.608185e+02 3.782292e+02 4.405436e+01 1.951285e+01 4.617062e+01 2.381037e+01 2.353400e+01 2.629936e+01 2.594886e+01 2.336654e+01 2.309146e+01 1.919757e+01 1.830484e+01 1.939561e+01 2.734281e+01 5.678255e+00 4.678295e+00 4.253220e+00 5.072551e+00 5.314506e+00 5.927479e+00 4.955151e+00 4.675680e+00 4.561072e+00 4.059384e+00 4.008817e+00 3.508411e+00 3.351345e+00
<GCONST> 2.057426e+02
<MIXTURE> 4 2.138608e-01
<MEAN> 39
 -2.448415e+01 1.074962e+00 9.978434e+00 1.342263e+00 1.888177e+00 -1.394696e+01 -8.255523e+00 -2.759113e+00 -7.132072e+00 -1.584465e+00 -1.046317e+01 2.389626e+00 1.019368e+02 -1.070623e+01 2.651201e+00 -3.911117e+00 -9.010780e-02 -6.518872e-01 -8.703187e-01 1.198670e+00 9.769832e-01 5.342889e-02 -1.984099e+00 -2.557756e-01 -1.758436e-01 -1.157771e+00 -1.523171e+00 -7.838535e-01 -2.080851e+00 -1.282727e+00 -9.216101e-01 -2.718031e-01 -5.188849e-01 -2.582976e-01 -9.478054e-01 -7.012039e-02 1.054362e-01 -5.950855e-01 -5.331019e-01
<VARIANCE> 39
 7.358621e+02 2.119484e+02 4.590662e+02 3.455461e+02 3.863769e+02 3.901621e+02 3.503618e+02 3.463551e+02 3.715953e+02 2.849628e+02 2.379627e+02 2.878847e+02 5.069513e+02 5.929030e+01 2.565553e+01 4.006550e+01 4.969910e+01 3.216139e+01 4.805247e+01 3.188157e+01 3.339590e+01 3.964598e+01 3.175729e+01 2.878903e+01 2.545259e+01 2.953297e+01 9.303695e+00 4.310240e+00 5.739514e+00 5.913819e+00 5.368535e+00 5.894539e+00 5.481477e+00 5.836335e+00 5.463654e+00 5.330195e+00 4.411602e+00 4.466987e+00 2.925934e+00
<GCONST> 2.160919e+02
<STATE> 3
<NUMMIXES> 4
<MIXTURE> 1 2.610255e-01
<MEAN> 39
 -5.225563e+01 9.958435e+00 -6.748072e+00 2.513792e+00 2.806211e-02 -1.013236e+01 4.888647e-01 7.713213e+00 -3.247045e+00 2.859255e+00 -1.706402e+00 9.604675e+00 1.107277e+02 -1.712679e+00 2.582052e+00 -2.023868e+00 1.554378e-01 7.978220e-01 2.485659e+00 1.278175e+00 6.622440e-01 6.178205e-01 1.399370e+00 1.094181e+00 9.378311e-01 8.665551e-01 2.690924e+00 -3.315478e-01 1.182754e+00 1.072404e+00 9.949465e-01 9.435138e-01 2.429420e-01 1.634696e-01 6.143675e-01 7.190295e-01 2.344719e-01 5.558378e-02 -4.012532e-01
<VARIANCE> 39
 1.363931e+02 1.447959e+02 1.823569e+02 2.850679e+02 3.812596e+02 2.868788e+02 1.975607e+02 1.914778e+02 1.644625e+02 1.567389e+02 1.723546e+02 1.368676e+02 1.903883e+02 1.483365e+01 1.208635e+01 1.238653e+01 1.392060e+01 1.448338e+01 1.788279e+01 1.659888e+01 1.530741e+01 1.430136e+01 1.342169e+01 1.286025e+01 1.188795e+01 1.177396e+01 2.441726e+00 2.150496e+00 3.240291e+00 2.757684e+00 3.256811e+00 3.123137e+00 3.449091e+00 3.474872e+00 2.991568e+00 2.931854e+00 2.709806e+00 2.622250e+00 1.832136e+00
<GCONST> 1.876208e+02
<MIXTURE> 2 2.389728e-01
<MEAN> 39
 -5.089999e+01 1.132434e+01 -6.942499e+00 4.306778e+00 7.407262e-01 -6.140574e+00 2.514186e+00 6.639805e+00 -2.450137e+00 4.253414e+00 -3.031762e-01 8.571697e+00 1.098653e+02 -3.324943e+00 7.699098e-01 -4.013419e+00 -1.536294e+00 -1.241559e+00 3.647727e-01 -9.287502e-01 -5.258937e-01 -6.575139e-01 2.251474e-01 1.989644e-01 3.917335e-01 1.076892e+00 3.130714e+00 -1.867321e-01 1.676429e+00 9.270849e-01 6.888213e-01 6.148037e-01 7.695392e-02 -5.565056e-02 3.880853e-01 4.515465e-01 -4.511124e-02 2.450722e-01 -1.758728e-01
<VARIANCE> 39
 1.226303e+02 1.434386e+02 1.781340e+02 2.768139e+02 3.475143e+02 2.921178e+02 2.042807e+02 1.799914e+02 1.682421e+02 1.515175e+02 1.679201e+02 1.310889e+02 1.749681e+02 1.623493e+01 1.736057e+01 1.833061e+01 1.477906e+01 1.668686e+01 1.926929e+01 1.880700e+01 1.537186e+01 1.387213e+01 1.419455e+01 1.325484e+01 1.286248e+01 1.203536e+01 2.714369e+00 2.193660e+00 3.873053e+00 2.969540e+00 3.165061e+00 3.391015e+00 3.452783e+00 3.466927e+00 3.305714e+00 3.030024e+00 3.028480e+00 2.991085e+00 1.728423e+00
<GCONST> 1.893384e+02
<MIXTURE> 3 2.610255e-01
<MEAN> 39
 -5.692713e+01 5.145188e+00 -1.214966e+01 -4.239789e+00 -7.782286e+00 -1.690736e+01 -5.133387e+00 2.178193e+00 -8.376762e+00 -2.148561e+00 -6.957758e+00 4.925058e+00 1.052085e+02 -3.253258e+00 1.191434e+00 -3.431648e+00 -1.336975e+00 -7.244595e-01 7.941370e-01 -3.514940e-01 -9.027434e-01 -8.948650e-01 -6.605458e-02 -3.402664e-01 -4.413251e-01 -5.059731e-01 2.065883e+00 -9.181306e-01 4.627219e-01 4.081530e-01 2.730810e-01 2.366178e-01 -4.999272e-01 -5.821708e-01 -7.747850e-02 3.412324e-02 -4.239876e-01 -5.921507e-01 -9.426789e-01
<VARIANCE> 39
 1.363931e+02 1.447959e+02 1.823569e+02 2.850679e+02 3.812596e+02 2.868788e+02 1.975607e+02 1.914778e+02 1.644625e+02 1.567389e+02 1.723546e+02 1.368676e+02 1.903883e+02 1.483365e+01 1.208635e+01 1.238653e+01 1.392060e+01 1.448338e+01 1.788279e+01 1.659888e+01 1.530741e+01 1.430136e+01 1.342169e+01 1.286025e+01 1.188795e+01 1.177396e+01 2.441726e+00 2.150496e+00 3.240291e+00 2.757684e+00 3.256811e+00 3.123137e+00 3.449091e+00 3.474872e+00 2.991568e+00 2.931854e+00 2.709806e+00 2.622250e+00 1.832136e+00
<GCONST> 1.876208e+02
<MIXTURE> 4 2.389728e-01
<MEAN> 39
 -5.532953e+01 6.533701e+00 -1.228117e+01 -2.348312e+00 -6.715968e+00 -1.297716e+01 -3.202886e+00 1.273370e+00 -7.638463e+00 -6.702840e-01 -5.486536e+00 3.991935e+00 1.045743e+02 -4.936647e+00 -8.967310e-01 -5.725989e+00 -3.074036e+00 -2.875541e+00 -1.391099e+00 -2.663432e+00 -2.094172e+00 -2.147326e+00 -1.281879e+00 -1.257324e+00 -1.042838e+00 -3.107889e-01 2.471700e+00 -7.791725e-01 8.892255e-01 2.377908e-01 -2.280349e-02 -1.217847e-01 -6.663127e-01 -8.004380e-01 -3.391796e-01 -2.447321e-01 -7.412124e-01 -4.467180e-01 -7.017508e-01
<VARIANCE> 39
 1.226303e+02 1.434386e+02 1.781340e+02 2.768139e+02 3.475143e+02 2.921178e+02 2.042807e+02 1.799914e+02 1.682421e+02 1.515175e+02 1.679201e+02 1.310889e+02 1.749681e+02 1.623493e+01 1.736057e+01 1.833061e+01 1.477906e+01 1.668686e+01 1.926929e+01 1.880700e+01 1.537186e+01 1.387213e+01 1.419455e+01 1.325484e+01 1.286248e+01 1.203536e+01 2.714369e+00 2.193660e+00 3.873053e+00 2.969540e+00 3.165061e+00 3.391015e+00 3.452783e+00 3.466927e+00 3.305714e+00 3.030024e+00 3.028480e+00 2.991085e+00 1.728423e+00
<GCONST> 1.893384e+02
<STATE> 4
<NUMMIXES> 4
<MIXTURE> 1 2.318251e-01
<MEAN> 39
 -5.015220e+01 8.131975e+00 -1.358705e+01 6.089450e+00 -5.085947e+00 -2.088749e+00 -1.811339e+00 5.579233e+00 -4.736490e+00 4.640522e+00 -1.078242e+00 8.306797e+00 1.094069e+02 1.591748e+00 4.688418e-01 1.332296e+00 6.316089e-01 8.586221e-01 1.193284e+00 1.247069e+00 1.051728e+00 1.243931e+00 1.154229e+00 9.113684e-01 9.490277e-01 7.253553e-01 1.822554e+00 2.701105e-01 1.613317e+00 6.126950e-01 5.787191e-01 1.085383e-01 4.288258e-01 2.812284e-01 5.903291e-01 3.511876e-01 2.589295e-01 4.100338e-01 3.589928e-01
<VARIANCE> 39
 1.271764e+02 1.323516e+02 1.432179e+02 2.316595e+02 2.882303e+02 2.763201e+02 1.474630e+02 1.358019e+02 1.376818e+02 1.267302e+02 1.383736e+02 1.174793e+02 1.699132e+02 7.335984e+00 6.118891e+00 7.305670e+00 7.852060e+00 9.528338e+00 1.097712e+01 1.090669e+01 1.113368e+01 1.094152e+01 1.130691e+01 1.084069e+01 1.013816e+01 5.431169e+00 2.590961e+00 1.412050e+00 2.241864e+00 1.706046e+00 1.895608e+00 2.401708e+00 2.396904e+00 2.333424e+00 2.260248e+00 2.388290e+00 2.204431e+00 2.151703e+00 1.140629e+00
<GCONST> 1.753694e+02
<MIXTURE> 2 2.681510e-01
<MEAN> 39
 -5.094907e+01 8.761740e+00 -1.242111e+01 6.093920e+00 -2.720378e+00 -2.232183e+00 -2.120466e+00 5.720448e+00 -3.850664e+00 5.103893e+00 -1.584730e+00 8.085935e+00 1.074633e+02 4.788101e-01 9.748331e-02 1.597840e-01 7.531813e-02 3.323905e-01 6.236355e-01 1.486121e-01 1.001366e-01 2.568416e-01 4.244381e-01 2.290177e-01 3.200881e-01 5.202904e-01 7.520621e-01 -3.325759e-02 6.725285e-01 1.559983e-01 1.699887e-01 -6.706744e-03 2.728493e-01 2.651081e-01 3.525617e-01 2.151641e-01 2.701064e-01 2.930426e-01 1.711541e-01
<VARIANCE> 39
 1.251184e+02 1.305535e+02 1.506800e+02 2.517073e+02 2.984522e+02 2.735241e+02 1.509493e+02 1.372325e+02 1.425000e+02 1.254151e+02 1.365832e+02 1.156921e+02 1.795454e+02 3.226542e+00 4.575450e+00 4.852230e+00 6.303012e+00 7.563997e+00 9.340116e+00 9.701800e+00 1.023604e+01 1.004977e+01 1.019485e+01 9.895575e+00 9.468632e+00 3.773184e+00 8.614950e-01 9.486293e-01 1.122275e+00 1.293516e+00 1.531286e+00 1.863934e+00 2.050887e+00 2.091398e+00 2.093092e+00 2.098521e+00 2.021965e+00 1.925019e+00 6.244532e-01
<GCONST> 1.683293e+02
<MIXTURE> 3 2.681510e-01
<MEAN> 39
 -5.542332e+01 4.191340e+00 -1.733119e+01 -2.521944e-01 -9.630686e+00 -8.847609e+00 -7.034924e+00 1.034596e+00 -8.625599e+00 6.243372e-01 -6.259482e+00 3.783524e+00 1.021035e+02 -2.396931e-01 -7.581288e-01 -7.213272e-01 -9.289140e-01 -7.677183e-01 -5.988286e-01 -1.097296e+00 -1.179616e+00 -1.011213e+00 -8.527369e-01 -1.029272e+00 -9.107575e-01 -2.566970e-01 3.807951e-01 -4.228480e-01 2.487786e-01 -2.989331e-01 -3.249919e-01 -5.528107e-01 -2.999875e-01 -3.133585e-01 -2.261392e-01 -3.642868e-01 -2.986769e-01 -2.619376e-01 -1.449353e-01
<VARIANCE> 39
 1.251184e+02 1.305535e+02 1.506800e+02 2.517073e+02 2.984522e+02 2.735241e+02 1.509493e+02 1.372325e+02 1.425000e+02 1.254151e+02 1.365832e+02 1.156921e+02 1.795454e+02 3.226542e+00 4.575450e+00 4.852230e+00 6.303012e+00 7.563997e+00 9.340116e+00 9.701800e+00 1.023604e+01 1.004977e+01 1.019485e+01 9.895575e+00 9.468632e+00 3.773184e+00 8.614950e-01 9.486293e-01 1.122275e+00 1.293516e+00 1.531286e+00 1.863934e+00 2.050887e+00 2.091398e+00 2.093092e+00 2.098521e+00 2.021965e+00 1.925019e+00 6.244532e-01
<GCONST> 1.683293e+02
<MIXTURE> 4 2.318251e-01
<MEAN> 39
 -5.466310e+01 3.530209e+00 -1.837399e+01 1.304150e-03 -1.187688e+01 -8.737901e+00 -6.668713e+00 9.178708e-01 -9.430006e+00 1.375418e-01 -5.783534e+00 3.971282e+00 1.041929e+02 5.083466e-01 -5.206139e-01 2.511359e-01 -4.892521e-01 -3.760983e-01 -1.319852e-01 -7.394212e-02 -2.829584e-01 -7.918805e-02 -1.908010e-01 -4.056398e-01 -3.245913e-01 -2.068395e-01 1.178696e+00 -2.052083e-01 1.014403e+00 9.023219e-02 2.799484e-02 -5.113595e-01 -1.904518e-01 -3.297936e-01 -1.103583e-02 -2.669761e-01 -3.349635e-01 -1.767136e-01 -6.820817e-02
<VARIANCE> 39
 1.271764e+02 1.323516e+02 1.432179e+02 2.316595e+02 2.882303e+02 2.763201e+02 1.474630e+02 1.358019e+02 1.376818e+02 1.267302e+02 1.383736e+02 1.174793e+02 1.699132e+02 7.335984e+00 6.118891e+00 7.305670e+00 7.852060e+00 9.528338e+00 1.097712e+01 1.090669e+01 1.113368e+01 1.094152e+01 1.130691e+01 1.084069e+01 1.013816e+01 5.431169e+00 2.590961e+00 1.412050e+00 2.241864e+00 1.706046e+00 1.895608e+00 2.401708e+00 2.396904e+00 2.333424e+00 2.260248e+00 2.388290e+00 2.204431e+00 2.151703e+00 1.140629e+00
<GCONST> 1.753694e+02
<TRANSP> 5
 0.000000e+00 1.000000e+00 0.000000e+00 0.000000e+00 0.000000e+00
 0.000000e+00 5.449215e-01 4.550785e-01 0.000000e+00 0.000000e+00
 0.000000e+00 0.000000e+00 5.241888e-01 4.758112e-01 0.000000e+00
 0.000000e+00 0.000000e+00 0.000000e+00 8.389067e-01 1.610933e-01
 0.000000e+00 0.000000e+00 0.000000e+00 0.000000e+00 0.000000e+00
<ENDHMM>
~h "t"
<BEGINHMM>
<NUMSTATES> 5
<STATE> 2
<NUMMIXES> 4
<MIXTURE> 1 2.166704e-01
<MEAN> 39
 -2.492040e+00 1.573983e+01 3.313519e+01 2.305093e+01 7.085547e+00 4.924233e+00 3.326145e+00 3.294178e+00 -2.943591e+00 4.507315e+00 -5.834043e-01 4.428658e+00 8.154618e+01 -2.170010e+00 3.376644e+00 -5.894550e+00 3.158389e+00 3.299801e+00 2.633407e+00 2.236797e+00 3.485556e+00 4.742223e+00 1.422613e+00 3.112818e+00 1.374095e+00 -7.321725e+00 -3.171306e-01 -8.006573e-01 6.181117e-01 -1.989676e+00 -2.645157e-01 1.689649e-02 3.703749e-02 -2.255249e-01 5.363581e-02 6.271918e-01 2.485627e-01 6.285752e-01 2.716705e+00
<VARIANCE> 39
 3.374435e+02 2.970733e+02 4.295556e+02 3.240731e+02 2.663801e+02 2.640078e+02 3.237713e+02 3.105159e+02 2.894783e+02 2.251922e+02 2.026124e+02 1.863083e+02 5.264865e+02 2.593182e+01 3.728801e+01 6.670367e+01 4.544288e+01 3.145251e+01 3.438990e+01 3.348347e+01 4.126245e+01 4.712350e+01 3.093430e+01 2.809586e+01 2.747552e+01 7.178292e+01 4.029066e+00 7.156926e+00 8.089838e+00 7.736766e+00 6.008549e+00 5.702677e+00 6.359384e+00 6.003850e+00 7.133079e+00 5.077491e+00 4.610699e+00 4.256411e+00 1.321079e+01
<GCONST> 2.167428e+02
<MIXTURE> 2 2.833161e-01
<MEAN> 39
 -1.813650e+01 1.273695e+01 1.125909e+01 1.290996e+01 5.043435e+00 4.554787e+00 9.737306e-01 1.347443e+00 -5.752540e-02 3.548595e+00 1.775507e+00 3.929276e+00 5.561158e+01 -2.661595e+00 -2.858852e+00 -3.443567e+00 -3.532261e+00 -4.304556e-01 -9.058540e-01 -7.837663e-01 6.028047e-01 5.813386e-01 6.698065e-01 1.598502e+00 7.880277e-01 3.677441e+00 3.862890e-01 -3.375365e-01 2.201402e+00 -7.473876e-01 -3.117175e-01 -3.701860e-01 4.507544e-01 -3.912953e-02 -4.087819e-01 4.761673e-01 -1.269892e-01 6.155254e-01 5.705893e+00
<VARIANCE> 39
 1.095670e+02 1.128565e+02 1.476154e+02 1.268501e+02 1.292283e+02 1.433642e+02 1.698864e+02 1.685995e+02 1.501226e+02 1.445822e+02 1.292717e+02 1.040258e+02 1.042835e+02 2.078638e+01 1.951431e+01 4.039679e+01 2.340656e+01 1.928832e+01 1.912912e+01 2.152671e+01 2.262206e+01 2.122910e+01 1.786026e+01 1.695989e+01 1.466734e+01 1.078295e+02 3.026467e+00 4.673759e+00 5.343581e+00 4.434759e+00 4.138563e+00 4.239190e+00 4.400518e+00 4.793840e+00 5.177742e+00 3.910935e+00 3.564352e+00 3.291583e+00 8.761877e+00
<GCONST> 1.956266e+02
<MIXTURE> 3 2.833161e-01
<MEAN> 39
 -2.232347e+01 8.487592e+00 6.399207e+00 8.404855e+00 4.962893e-01 -2.346048e-01 -4.239889e+00 -3.846391e+00 -4.958507e+00 -1.261099e+00 -2.772402e+00 -1.504457e-01 5.152681e+01 -4.485279e+00 -4.625852e+00 -5.985906e+00 -5.467474e+00 -2.187194e+00 -2.655328e+00 -2.639642e+00 -1.299702e+00 -1.261663e+00 -1.020650e+00 -4.879361e-02 -7.438908e-01 -4.761987e-01 -3.095808e-01 -1.202292e+00 1.276754e+00 -1.589742e+00 -1.125456e+00 -1.193758e+00 -3.883421e-01 -9.149231e-01 -1.318968e+00 -3.148761e-01 -8.821689e-01 -1.101835e-01 4.521873e+00
<VARIANCE> 39
 1.095670e+02 1.128565e+02 1.476154e+02 1.268501e+02 1.292283e+02 1.433642e+02 1.698864e+02 1.685995e+02 1.501226e+02 1.445822e+02 1.292717e+02 1.040258e+02 1.042835e+02 2.078638e+01 1.951431e+01 4.039679e+01 2.340656e+01 1.928832e+01 1.912912e+01 2.152671e+01 2.262206e+01 2.122910e+01 1.786026e+01 1.695989e+01 1.466734e+01 1.078295e+02 3.026467e+00 4.673759e+00 5.343581e+00 4.434759e+00 4.138563e+00 4.239190e+00 4.400518e+00 4.793840e+00 5.177742e+00 3.910935e+00 3.564352e+00 3.291583e+00 8.761877e+00
<GCONST> 1.956266e+02
<MIXTURE> 4 2.166704e-01
<MEAN> 39
 -9.839894e+00 8.845508e+00 2.484490e+01 1.585011e+01 5.570850e-01 -1.575094e+00 -3.871313e+00 -3.754406e+00 -9.749216e+00 -1.495247e+00 -6.277083e+00 -1.031134e+00 7.236806e+01 -4.206942e+00 9.340878e-01 -9.161443e+00 4.619353e-01 1.056499e+00 2.876909e-01 -7.779908e-02 9.161220e-01 1.996361e+00 -8.021320e-01 9.925964e-01 -7.225890e-01 -1.071072e+01 -1.120032e+00 -1.870755e+00 -5.195940e-01 -3.102278e+00 -1.245009e+00 -9.383147e-01 -9.716753e-01 -1.205635e+00 -1.014677e+00 -2.741398e-01 -6.103389e-01 -1.966676e-01 1.262839e+00
<VARIANCE> 39
 3.374435e+02 2.970733e+02 4.295556e+02 3.240731e+02 2.663801e+02 2.640078e+02 3.237713e+02 3.105159e+02 2.894783e+02 2.251922e+02 2.026124e+02 1.863083e+02 5.264865e+02 2.593182e+01 3.728801e+01 6.670367e+01 4.544288e+01 3.145251e+01 3.438990e+01 3.348347e+01 4.126245e+01 4.712350e+01 3.093430e+01 2.809586e+01 2.747552e+01 7.178292e+01 4.029066e+00 7.156926e+00 8.089838e+00 7.736766e+00 6.008549e+00 5.702677e+00 6.359384e+00 6.003850e+00 7.133079e+00 5.077491e+00 4.610699e+00 4.256411e+00 1.321079e+01
<GCONST> 2.167428e+02
<STATE> 3
<NUMMIXES> 4
<MIXTURE> 1 2.361103e-01
<MEAN> 39
 -3.193931e+01 6.373761e+00 6.988626e+00 -7.355032e+00 -1.635508e+00 -6.810535e+00 -4.321589e-01 -2.541532e+00 -8.701646e+00 4.769375e+00 2.029857e+00 6.005926e+00 1.122841e+02 -2.998563e+00 2.290915e+00 2.042255e+00 1.455925e-01 -1.143651e+00 -9.330601e-01 3.633342e+00 1.725483e+00 -7.073158e-02 1.566498e+00 1.281209e+00 2.815635e+00 1.067863e+01 1.800048e+00 5.698184e-01 1.909787e+00 2.404042e+00 2.524444e-01 9.876940e-01 1.195176e+00 9.094748e-01 1.135980e+00 4.101295e-01 1.550009e-01 6.115850e-01 -2.315567e+00
<VARIANCE> 39
 2.399211e+02 1.900683e+02 2.102057e+02 1.944516e+02 1.654517e+02 1.709013e+02 1.921363e+02 2.044096e+02 1.839203e+02 1.580630e+02 1.375181e+02 1.279348e+02 1.089604e+03 1.915419e+01 1.984673e+01 1.914174e+01 1.998886e+01 1.805817e+01 2.188340e+01 2.148666e+01 2.360272e+01 1.925763e+01 1.766259e+01 1.939126e+01 1.560191e+01 9.022314e+01 4.559124e+00 4.530181e+00 4.344064e+00 4.656862e+00 3.893598e+00 3.656281e+00 3.984459e+00 3.953406e+00 4.216558e+00 3.579858e+00 3.271475e+00 3.080602e+00 2.316473e+01
<GCONST> 2.006523e+02
<MIXTURE> 2 2.638819e-01
<MEAN> 39
 -2.708528e+01 -1.984375e+00 7.527239e+00 -6.250732e+00 2.610948e-01 -3.386150e+00 -2.902186e+00 -1.182109e+00 -5.449681e+00 3.323087e+00 9.193351e-01 4.185312e+00 9.792705e+01 -3.387982e+00 1.781529e-02 9.150603e-01 -3.246624e+00 -1.270943e+00 -2.507802e+00 7.757303e-01 -1.838881e-02 -2.138297e+00 1.078018e-01 -1.770285e-01 1.340505e+00 1.655444e+01 4.098385e-01 1.858964e+00 1.478822e+00 2.116563e+00 6.896809e-02 3.295245e-01 1.223037e+00 7.343603e-01 4.556776e-01 4.784299e-01 2.465442e-01 7.517478e-01 -6.786692e-02
<VARIANCE> 39
 1.157907e+02 1.868530e+02 1.728304e+02 1.769949e+02 1.447353e+02 1.510543e+02 1.439726e+02 1.492711e+02 1.317631e+02 1.173879e+02 1.050573e+02 9.719711e+01 1.147597e+03 1.739546e+01 2.010147e+01 2.268201e+01 1.693105e+01 1.886701e+01 2.114940e+01 2.251338e+01 2.018661e+01 1.774533e+01 1.810730e+01 1.646665e+01 1.334430e+01 8.740470e+01 3.375637e+00 3.632084e+00 3.561065e+00 3.928884e+00 3.615936e+00 3.592417e+00 3.489687e+00 3.450616e+00 3.371487e+00 2.894284e+00 2.915861e+00 2.772608e+00 2.156988e+01
<GCONST> 1.950668e+02
<MIXTURE> 3 2.638819e-01
<MEAN> 39
 -3.138952e+01 -7.452143e+00 2.268640e+00 -1.157231e+01 -4.551145e+00 -8.302317e+00 -7.701730e+00 -6.069171e+00 -1.004121e+01 -1.010741e+00 -3.180563e+00 2.417681e-01 8.437657e+01 -5.056296e+00 -1.775571e+00 -9.899650e-01 -4.892518e+00 -3.008389e+00 -4.347341e+00 -1.122200e+00 -1.815569e+00 -3.823305e+00 -1.594305e+00 -1.800193e+00 -1.206895e-01 1.281482e+01 -3.250777e-01 1.096643e+00 7.239903e-01 1.323707e+00 -6.916565e-01 -4.286223e-01 4.758083e-01 -8.673072e-03 -2.787867e-01 -2.020739e-01 -4.364915e-01 8.570179e-02 -1.925602e+00
<VARIANCE> 39
 1.157907e+02 1.868530e+02 1.728304e+02 1.769949e+02 1.447353e+02 1.510543e+02 1.439726e+02 1.492711e+02 1.317631e+02 1.173879e+02 1.050573e+02 9.719711e+01 1.147597e+03 1.739546e+01 2.010147e+01 2.268201e+01 1.693105e+01 1.886701e+01 2.114940e+01 2.251338e+01 2.018661e+01 1.774533e+01 1.810730e+01 1.646665e+01 1.334430e+01 8.740470e+01 3.375637e+00 3.632084e+00 3.561065e+00 3.928884e+00 3.615936e+00 3.592417e+00 3.489687e+00 3.450616e+00 3.371487e+00 2.894284e+00 2.915861e+00 2.772608e+00 2.156988e+01
<GCONST> 1.950668e+02
<MIXTURE> 4 2.361103e-01
<MEAN> 39
 -3.813507e+01 8.591509e-01 1.189238e+00 -1.293287e+01 -6.780630e+00 -1.203971e+01 -5.976689e+00 -8.260407e+00 -1.412633e+01 -2.595491e-01 -2.660868e+00 1.481596e+00 9.908047e+01 -4.749183e+00 5.089287e-01 2.922045e-01 -1.642764e+00 -2.843447e+00 -2.804248e+00 1.779194e+00 -2.178220e-01 -1.826072e+00 -1.145777e-01 -4.802118e-01 1.235665e+00 6.879197e+00 9.459639e-01 -2.815506e-01 1.076091e+00 1.540852e+00 -5.368437e-01 2.228379e-01 3.967316e-01 1.141479e-01 3.146098e-01 -3.466910e-01 -5.684879e-01 -9.048077e-02 -4.240757e+00
<VARIANCE> 39
 2.399211e+02 1.900683e+02 2.102057e+02 1.944516e+02 1.654517e+02 1.709013e+02 1.921363e+02 2.044096e+02 1.839203e+02 1.580630e+02 1.375181e+02 1.279348e+02 1.089604e+03 1.915419e+01 1.984673e+01 1.914174e+01 1.998886e+01 1.805817e+01 2.188340e+01 2.148666e+01 2.360272e+01 1.925763e+01 1.766259e+01 1.939126e+01 1.560191e+01 9.022314e+01 4.559124e+00 4.530181e+00 4.344064e+00 4.656862e+00 3.893598e+00 3.656281e+00 3.984459e+00 3.953406e+00 4.216558e+00 3.579858e+00 3.271475e+00 3.080602e+00 2.316473e+01
<GCONST> 2.006523e+02
<STATE> 4
<NUMMIXES> 4
<MIXTURE> 1 2.420761e-01
<MEAN> 39
 -3.511194e+01 1.656906e+00 2.010074e+01 -1.390946e+00 -9.637173e+00 -9.654432e+00 1.010951e+01 3.449486e+00 -8.204886e+00 4.684296e+00 8.128917e-01 1.222780e+01 1.175044e+02 8.010560e+00 -1.275784e-01 6.939178e+00 5.558389e+00 1.271013e+00 1.533363e+00 2.522105e+00 2.481647e+00 2.029192e+00 1.005597e+00 -7.929730e-02 1.195725e+00 -4.379010e-01 3.348900e+00 2.205427e-01 1.407589e+00 7.610419e-01 1.418809e+00 7.653067e-01 -6.764700e-01 1.468771e-01 3.678220e-01 4.939539e-01 2.046846e-01 -1.544002e-01 6.443177e-01
<VARIANCE> 39
 2.144772e+02 1.252458e+02 1.752355e+02 1.709131e+02 1.803995e+02 2.404217e+02 2.549249e+02 3.080542e+02 1.981877e+02 1.871043e+02 2.169341e+02 1.650225e+02 3.152394e+02 3.774235e+01 1.250027e+01 2.271604e+01 1.905703e+01 1.610609e+01 1.756705e+01 1.966250e+01 1.768316e+01 1.706616e+01 1.600893e+01 1.672886e+01 1.569036e+01 1.327276e+01 4.404130e+00 3.193108e+00 3.037115e+00 3.407216e+00 3.490507e+00 5.739883e+00 4.353501e+00 3.809757e+00 4.563089e+00 4.090747e+00 4.089200e+00 3.329208e+00 8.157940e+00
<GCONST> 1.968046e+02
<MIXTURE> 2 2.579128e-01
<MEAN> 39
 -2.857728e+01 2.528436e-01 1.409897e+01 -8.429511e-01 -7.561222e+00 -1.043960e+01 9.264706e+00 5.253889e+00 -6.191895e+00 2.539889e+00 1.339341e+00 1.157594e+01 1.047008e+02 2.746746e+00 -8.662487e-01 1.599654e+00 1.994693e+00 -4.060607e-01 4.948640e-01 8.072295e-01 2.003214e+00 1.259490e+00 2.834603e-01 1.144244e-01 8.705180e-01 -1.573472e+00 1.889121e+00 3.616073e-01 6.167054e-01 8.270215e-01 9.109151e-01 1.018131e+00 -6.612989e-02 3.071122e-01 6.418129e-01 4.359632e-01 2.757466e-01 -2.219609e-01 -4.208888e-01
<VARIANCE> 39
 3.234289e+02 1.469489e+02 2.087500e+02 1.762033e+02 1.819609e+02 2.528161e+02 2.696223e+02 3.061876e+02 2.234064e+02 2.005957e+02 2.416002e+02 1.799213e+02 6.304414e+02 2.031006e+01 1.169422e+01 1.856315e+01 1.586391e+01 1.791263e+01 1.754465e+01 1.762744e+01 1.895025e+01 1.760346e+01 1.607739e+01 1.651279e+01 1.576228e+01 1.694551e+01 5.412762e+00 2.921773e+00 3.457623e+00 2.918632e+00 2.942751e+00 3.450271e+00 3.681962e+00 3.738716e+00 3.827511e+00 3.494157e+00 3.489257e+00 2.939074e+00 6.956534e+00
<GCONST> 1.964809e+02
<MIXTURE> 3 2.579128e-01
<MEAN> 39
 -3.577094e+01 -4.596056e+00 8.319693e+00 -6.152615e+00 -1.295694e+01 -1.679968e+01 2.696634e+00 -1.745397e+00 -1.217061e+01 -3.125383e+00 -4.878057e+00 6.210554e+00 9.465731e+01 9.440783e-01 -2.234121e+00 -1.237449e-01 4.015115e-01 -2.098993e+00 -1.180589e+00 -8.721722e-01 2.619383e-01 -4.187693e-01 -1.320405e+00 -1.511013e+00 -7.175515e-01 -3.220068e+00 9.585072e-01 -3.221205e-01 -1.270820e-01 1.436613e-01 2.247373e-01 2.751353e-01 -8.336675e-01 -4.663182e-01 -1.407481e-01 -3.117434e-01 -4.714355e-01 -9.077100e-01 -1.475899e+00
<VARIANCE> 39
 3.234289e+02 1.469489e+02 2.087500e+02 1.762033e+02 1.819609e+02 2.528161e+02 2.696223e+02 3.061876e+02 2.234064e+02 2.005957e+02 2.416002e+02 1.799213e+02 6.304414e+02 2.031006e+01 1.169422e+01 1.856315e+01 1.586391e+01 1.791263e+01 1.754465e+01 1.762744e+01 1.895025e+01 1.760346e+01 1.607739e+01 1.651279e+01 1.576228e+01 1.694551e+01 5.412762e+00 2.921773e+00 3.457623e+00 2.918632e+00 2.942751e+00 3.450271e+00 3.681962e+00 3.738716e+00 3.827511e+00 3.494157e+00 3.489257e+00 2.939074e+00 6.956534e+00
<GCONST> 1.964809e+02
<MIXTURE> 4 2.420761e-01
<MEAN> 39
 -4.096996e+01 -2.819625e+00 1.480568e+01 -6.620296e+00 -1.500969e+01 -1.585665e+01 3.722963e+00 -3.571104e+00 -1.383605e+01 -7.871476e-01 -5.078582e+00 7.089358e+00 1.104024e+02 5.553168e+00 -1.541807e+00 5.032724e+00 3.812215e+00 -3.342831e-01 -1.431594e-01 7.484086e-01 7.995930e-01 3.767438e-01 -5.948495e-01 -1.715335e+00 -3.887177e-01 -1.895173e+00 2.509459e+00 -4.942281e-01 7.104967e-01 2.269608e-02 6.714931e-01 -1.930154e-01 -1.511072e+00 -6.338669e-01 -4.866336e-01 -3.150699e-01 -6.041862e-01 -8.842449e-01 -4.981666e-01
<VARIANCE> 39
 2.144772e+02 1.252458e+02 1.752355e+02 1.709131e+02 1.803995e+02 2.404217e+02 2.549249e+02 3.080542e+02 1.981877e+02 1.871043e+02 2.169341e+02 1.650225e+02 3.152394e+02 3.774235e+01 1.250027e+01 2.271604e+01 1.905703e+01 1.610609e+01 1.756705e+01 1.966250e+01 1.768316e+01 1.706616e+01 1.600893e+01 1.672886e+01 1.569036e+01 1.327276e+01 4.404130e+00 3.193108e+00 3.037115e+00 3.407216e+00 3.490507e+00 5.739883e+00 4.353501e+00 3.809757e+00 4.563089e+00 4.090747e+00 4.089200e+00 3.329208e+00 8.157940e+00
<GCONST> 1.968046e+02
<TRANSP> 5
 0.000000e+00 1.000000e+00 0.000000e+00 0.000000e+00 0.000000e+00
 0.000000e+00 7.648331e-01 2.351669e-01 0.000000e+00 0.000000e+00
 0.000000e+00 0.000000e+00 6.469925e-01 3.530075e-01 0.000000e+00
 0.000000e+00 0.000000e+00 0.000000e+00 7.080482e-01 2.919518e-01
 0.000000e+00 0.000000e+00 0.000000e+00 0.000000e+00 0.000000e+00
<ENDHMM>
~h "v"
<BEGINHMM>
<NUMSTATES> 5
<STATE> 2
<NUMMIXES> 4
<MIXTURE> 1 2.408278e-01
<MEAN> 39
 1.516978e+01 -2.429384e+01 1.629184e+01 -1.562208e+01 -8.375652e+00 -1.576346e+01 9.609177e+00 1.676745e+01 1.905718e+01 1.489964e+01 1.923070e+00 1.099860e+01 1.478128e+02 1.769340e+00 2.110767e+00 1.624706e+00 2.681153e+00 1.694356e+00 -9.143496e-02 -1.502341e+00 -1.522313e+00 -2.022870e-01 1.888207e+00 1.038980e+00 6.473904e-01 -2.283070e+00 1.327804e-01 1.374876e+00 4.074131e-01 1.962690e+00 1.723275e+00 1.474389e+00 -3.838686e-01 -7.514294e-01 -6.829447e-01 1.554930e-01 1.981517e-01 2.401532e-01 -1.625364e+00
<VARIANCE> 39
 7.014330e+01 1.562419e+02 2.313431e+02 2.053590e+02 2.454812e+02 2.677627e+02 7.524574e+02 2.725867e+02 2.827872e+02 4.113238e+02 3.386415e+02 3.967243e+02 1.692200e+02 1.884440e+00 7.775634e+00 8.014066e+00 9.078628e+00 1.185010e+01 1.332467e+01 1.456995e+01 1.375873e+01 1.609538e+01 1.282874e+01 1.729893e+01 1.297292e+01 5.891078e+00 6.407317e-01 1.005348e+00 1.375360e+00 1.901157e+00 2.328949e+00 2.986133e+00 3.221972e+00 2.086185e+00 2.397153e+00 2.460801e+00 2.359809e+00 2.247709e+00 1.109827e+00
<GCONST> 1.814409e+02
<MIXTURE> 2 2.591586e-01
<MEAN> 39
 1.339813e+01 -2.550258e+01 2.020296e+01 -1.749921e+01 -6.940128e+00 -1.830682e+01 -1.154653e+00 1.571056e+01 1.668416e+01 2.290189e+01 7.962980e-01 9.117123e+00 1.519866e+02 8.351789e-01 -4.413751e-01 -2.082030e-01 2.791955e-01 1.215472e+00 1.446571e+00 1.376203e+00 8.517552e-01 2.434556e-01 9.803466e-01 1.364349e+00 -7.090867e-01 6.300834e-02 2.695770e-01 1.265188e+00 2.513818e-01 1.427666e+00 9.320190e-01 8.317962e-01 -2.195859e-01 -9.136130e-01 -7.209334e-01 -1.111262e-01 2.802006e-01 2.441131e-01 -1.165740e+00
<VARIANCE> 39
 7.273164e+01 1.392237e+02 2.292827e+02 2.248650e+02 2.706818e+02 2.547219e+02 8.918146e+02 2.941493e+02 3.146688e+02 5.027676e+02 3.336420e+02 4.141106e+02 1.520826e+02 1.795732e+00 5.707987e+00 5.318439e+00 6.915786e+00 6.302131e+00 8.516244e+00 1.140927e+01 1.250402e+01 1.299780e+01 8.442044e+00 1.306071e+01 1.016364e+01 3.831210e+00 6.351967e-01 7.150666e-01 9.658666e-01 1.235492e+00 1.355121e+00 1.959890e+00 2.646915e+00 1.517220e+00 2.237426e+00 1.867275e+00 1.711553e+00 1.803476e+00 7.478910e-01
<GCONST> 1.740275e+02
<MIXTURE> 3 2.591586e-01
<MEAN> 39
 9.986813e+00 -3.022230e+01 1.414612e+01 -2.349741e+01 -1.352109e+01 -2.469082e+01 -1.309996e+01 8.850245e+00 9.588599e+00 1.393289e+01 -6.510050e+00 9.772396e-01 1.470538e+02 2.991592e-01 -1.397031e+00 -1.130673e+00 -7.727197e-01 2.113102e-01 2.792665e-01 2.509862e-02 -5.626858e-01 -1.198643e+00 -1.818613e-01 -8.123529e-02 -1.984305e+00 -7.199308e-01 -4.921995e-02 9.269418e-01 -1.417323e-01 9.830557e-01 4.663804e-01 2.718119e-01 -8.703595e-01 -1.406315e+00 -1.319255e+00 -6.577193e-01 -2.431048e-01 -2.930611e-01 -1.511662e+00
<VARIANCE> 39
 7.273164e+01 1.392237e+02 2.292827e+02 2.248650e+02 2.706818e+02 2.547219e+02 8.918146e+02 2.941493e+02 3.146688e+02 5.027676e+02 3.336420e+02 4.141106e+02 1.520826e+02 1.795732e+00 5.707987e+00 5.318439e+00 6.915786e+00 6.302131e+00 8.516244e+00 1.140927e+01 1.250402e+01 1.299780e+01 8.442044e+00 1.306071e+01 1.016364e+01 3.831210e+00 6.351967e-01 7.150666e-01 9.658666e-01 1.235492e+00 1.355121e+00 1.959890e+00 2.646915e+00 1.517220e+00 2.237426e+00 1.867275e+00 1.711553e+00 1.803476e+00 7.478910e-01
<GCONST> 1.740275e+02
<MIXTURE> 4 2.408278e-01
<MEAN> 39
 1.181972e+01 -2.929371e+01 1.020786e+01 -2.135422e+01 -1.464279e+01 -2.230884e+01 -1.363206e+00 1.016337e+01 1.233066e+01 6.787196e+00 -5.437816e+00 3.031429e+00 1.426094e+02 1.220240e+00 9.953746e-01 4.923406e-01 1.475923e+00 3.173975e-01 -1.551554e+00 -3.029165e+00 -3.006023e+00 -1.807049e+00 4.555174e-01 -6.246988e-01 -7.933273e-01 -3.253932e+00 -1.874025e-01 9.738079e-01 -6.168988e-02 1.411160e+00 1.112839e+00 7.831714e-01 -1.101863e+00 -1.329175e+00 -1.302254e+00 -4.719846e-01 -4.163151e-01 -3.595413e-01 -2.046758e+00
<VARIANCE> 39
 7.014330e+01 1.562419e+02 2.313431e+02 2.053590e+02 2.454812e+02 2.677627e+02 7.524574e+02 2.725867e+02 2.827872e+02 4.113238e+02 3.386415e+02 3.967243e+02 1.692200e+02 1.884440e+00 7.775634e+00 8.014066e+00 9.078628e+00 1.185010e+01 1.332467e+01 1.456995e+01 1.375873e+01 1.609538e+01 1.282874e+01 1.729893e+01 1.297292e+01 5.891078e+00 6.407317e-01 1.005348e+00 1.375360e+00 1.901157e+00 2.328949e+00 2.986133e+00 3.221972e+00 2.086185e+00 2.397153e+00 2.460801e+00 2.359809e+00 2.247709e+00 1.109827e+00
<GCONST> 1.814409e+02
<STATE> 3
<NUMMIXES> 4
<MIXTURE> 1 2.407303e-01
<MEAN> 39
 2.073428e+01 -1.465196e+01 2.031129e+01 3.404887e-01 3.290030e+00 -1.322765e+01 -2.064235e+00 2.923526e+00 1.168944e+01 1.805750e+01 2.834034e-01 8.834164e+00 1.306587e+02 -1.038499e-01 7.137088e+00 2.331305e+00 9.139153e+00 6.992834e+00 7.142280e+00 -3.485445e-01 -2.582908e+00 -3.130263e+00 9.848742e-01 1.429986e+00 1.098841e-01 -9.149571e+00 -1.459010e+00 7.209349e-01 3.700177e-02 6.395346e-01 6.708673e-01 1.987638e+00 1.804913e+00 1.666910e+00 4.595570e-01 -3.275836e-01 4.858156e-01 5.011859e-01 -9.600273e-02
<VARIANCE> 39
 5.749322e+01 1.519125e+02 2.010776e+02 2.570697e+02 2.857576e+02 3.431295e+02 4.707375e+02 3.067190e+02 4.436031e+02 3.186011e+02 3.523809e+02 3.180907e+02 2.349371e+02 8.850247e+00 1.347615e+01 1.517846e+01 2.000754e+01 1.999480e+01 2.581684e+01 3.840935e+01 2.297670e+01 2.332789e+01 2.669661e+01 2.337354e+01 2.145636e+01 1.132459e+01 1.623037e+00 2.201343e+00 1.862837e+00 4.087791e+00 4.569801e+00 5.765210e+00 3.836810e+00 3.476832e+00 4.698595e+00 3.471381e+00 3.994133e+00 3.123082e+00 3.724978e+00
<GCONST> 1.983254e+02
<MIXTURE> 2 2.592573e-01
<MEAN> 39
 2.068555e+01 -1.578210e+01 2.392696e+01 -3.725650e-01 1.524373e+00 -1.160084e+01 -1.177441e+01 5.179553e+00 -2.716689e+00 2.202849e+01 9.899050e+00 1.327164e+00 1.324840e+02 -4.640143e-01 5.782308e+00 1.112413e+00 6.920396e+00 5.390538e+00 5.632434e+00 2.499882e+00 -1.835546e+00 -2.618380e+00 -1.930906e+00 1.404427e+00 1.268147e+00 -7.280591e+00 -1.442591e+00 5.175698e-01 -4.967789e-01 3.735195e-01 5.996733e-01 1.574712e+00 1.592505e+00 1.320404e+00 1.530271e+00 -1.228777e-02 -3.880051e-01 3.191938e-01 -1.581354e-01
<VARIANCE> 39
 6.791323e+01 1.887383e+02 2.540853e+02 2.999805e+02 3.141030e+02 3.598212e+02 5.131187e+02 3.476874e+02 4.679949e+02 3.803007e+02 4.138792e+02 3.188382e+02 2.741470e+02 1.621539e+01 1.162181e+01 1.498579e+01 1.592288e+01 1.938700e+01 2.244857e+01 2.954040e+01 2.136089e+01 2.893872e+01 2.217165e+01 2.450542e+01 1.983343e+01 9.714969e+00 2.485382e+00 2.523907e+00 2.312631e+00 3.345613e+00 3.836965e+00 4.804410e+00 3.712807e+00 3.234896e+00 4.597488e+00 3.572878e+00 3.520519e+00 3.069534e+00 2.875082e+00
<GCONST> 1.992758e+02
<MIXTURE> 3 2.592573e-01
<MEAN> 39
 1.738917e+01 -2.127738e+01 1.755094e+01 -7.300543e+00 -5.564807e+00 -1.918842e+01 -2.083525e+01 -2.278999e+00 -1.136996e+01 1.422797e+01 1.761442e+00 -5.815252e+00 1.258610e+02 -2.074748e+00 4.418676e+00 -4.360462e-01 5.324256e+00 3.629312e+00 3.737237e+00 3.258384e-01 -3.684260e+00 -4.770168e+00 -3.814378e+00 -5.756909e-01 -5.132424e-01 -8.527345e+00 -2.073195e+00 -1.179026e-01 -1.105072e+00 -3.581212e-01 -1.838537e-01 6.979537e-01 8.217591e-01 6.009718e-01 6.726010e-01 -7.683700e-01 -1.138527e+00 -3.816097e-01 -8.363780e-01
<VARIANCE> 39
 6.791323e+01 1.887383e+02 2.540853e+02 2.999805e+02 3.141030e+02 3.598212e+02 5.131187e+02 3.476874e+02 4.679949e+02 3.803007e+02 4.138792e+02 3.188382e+02 2.741470e+02 1.621539e+01 1.162181e+01 1.498579e+01 1.592288e+01 1.938700e+01 2.244857e+01 2.954040e+01 2.136089e+01 2.893872e+01 2.217165e+01 2.450542e+01 1.983343e+01 9.714969e+00 2.485382e+00 2.523907e+00 2.312631e+00 3.345613e+00 3.836965e+00 4.804410e+00 3.712807e+00 3.234896e+00 4.597488e+00 3.572878e+00 3.520519e+00 3.069534e+00 2.875082e+00
<GCONST> 1.992758e+02
<MIXTURE> 4 2.407303e-01
<MEAN> 39
 1.770131e+01 -1.958208e+01 1.463921e+01 -6.072868e+00 -3.471716e+00 -2.063715e+01 -1.074283e+01 -4.081832e+00 3.264680e+00 1.091774e+01 -7.225321e+00 1.700125e+00 1.245277e+02 -1.293825e+00 5.668693e+00 7.729231e-01 7.349962e+00 5.204212e+00 5.109868e+00 -2.827556e+00 -4.500268e+00 -5.062221e+00 -1.081876e+00 -5.038611e-01 -1.742956e+00 -1.049565e+01 -1.968604e+00 1.274579e-01 -5.089414e-01 -1.691968e-01 -1.842164e-01 1.027204e+00 1.021401e+00 9.210597e-01 -4.074928e-01 -1.072849e+00 -3.135974e-01 -2.057039e-01 -8.680109e-01
<VARIANCE> 39
 5.749322e+01 1.519125e+02 2.010776e+02 2.570697e+02 2.857576e+02 3.431295e+02 4.707375e+02 3.067190e+02 4.436031e+02 3.186011e+02 3.523809e+02 3.180907e+02 2.349371e+02 8.850247e+00 1.347615e+01 1.517846e+01 2.000754e+01 1.999480e+01 2.581684e+01 3.840935e+01 2.297670e+01 2.332789e+01 2.669661e+01 2.337354e+01 2.145636e+01 1.132459e+01 1.623037e+00 2.201343e+00 1.862837e+00 4.087791e+00 4.569801e+00 5.765210e+00 3.836810e+00 3.476832e+00 4.698595e+00 3.471381e+00 3.994133e+00 3.123082e+00 3.724978e+00
<GCONST> 1.983254e+02
<STATE> 4
<NUMMIXES> 4
<MIXTURE> 1 2.723230e-01
<MEAN> 39
 1.253491e+01 1.740853e+00 2.122370e+01 1.753089e+01 1.604049e+01 7.511955e+00 -9.340763e-01 6.092973e-01 -2.364013e-01 1.449140e+01 4.035982e+00 5.441265e+00 1.076945e+02 -1.690208e+00 2.568771e+00 9.034458e-01 2.226176e+00 1.439857e+00 2.868790e+00 2.626901e+00 2.751688e+00 1.393304e+00 -1.031957e-01 6.967650e-01 1.188421e+00 -1.045982e+00 4.393938e-01 -1.822199e+00 -5.364719e-02 -2.429937e+00 -1.691923e+00 -1.973405e+00 1.884041e-01 1.496796e+00 1.662054e+00 6.113491e-01 1.406609e-01 6.565991e-01 3.361962e+00
<VARIANCE> 39
 1.623736e+02 1.605632e+02 1.361260e+02 2.009297e+02 1.691315e+02 2.508261e+02 2.495861e+02 2.525816e+02 3.576639e+02 2.199587e+02 2.773676e+02 2.253283e+02 2.433178e+02 3.125585e+01 2.115693e+01 1.095470e+01 2.946430e+01 2.405837e+01 4.105591e+01 2.581132e+01 1.858716e+01 2.233916e+01 1.801767e+01 1.861971e+01 1.510895e+01 3.592227e+01 3.551998e+00 3.109691e+00 3.199800e+00 4.637187e+00 4.402206e+00 5.287885e+00 6.360119e+00 4.407497e+00 4.600173e+00 4.841854e+00 4.248209e+00 3.911647e+00 3.781059e+00
<GCONST> 2.009619e+02
<MIXTURE> 2 2.276606e-01
<MEAN> 39
 -1.209462e+01 -3.694484e+00 1.363871e+01 1.301187e+01 5.260002e+00 3.455512e+00 6.617249e+00 1.195805e+01 4.320618e+00 6.860940e+00 -1.100188e+00 7.377181e+00 9.511519e+01 -2.111658e+00 -1.304978e+00 -2.058651e+00 -1.828645e+00 -1.260562e+00 -4.462528e-02 -1.216252e-01 6.601736e-01 5.606583e-01 -7.603538e-02 5.225915e-01 5.791534e-01 3.401773e-01 2.000249e+00 -4.473943e-02 3.632066e-01 -4.556825e-01 -2.226780e-01 -6.417130e-01 -2.048709e-01 -3.013173e-02 3.700590e-01 6.745976e-01 4.745769e-01 2.435894e-01 1.583720e+00
<VARIANCE> 39
 3.151216e+02 1.633541e+02 1.853532e+02 1.791786e+02 1.863404e+02 2.162525e+02 2.149813e+02 2.011183e+02 2.118297e+02 1.833237e+02 1.818988e+02 1.704032e+02 3.049831e+02 4.805134e+01 1.748989e+01 1.762900e+01 2.031330e+01 2.099529e+01 2.765144e+01 2.395514e+01 2.082873e+01 2.217871e+01 1.849460e+01 1.842270e+01 1.604413e+01 2.521935e+01 4.986558e+00 4.486940e+00 3.645905e+00 5.413064e+00 5.107172e+00 5.623160e+00 4.834758e+00 4.104092e+00 4.359240e+00 3.554734e+00 3.502716e+00 2.991589e+00 4.231732e+00
<GCONST> 1.999367e+02
<MIXTURE> 3 2.723230e-01
<MEAN> 39
 7.437873e+00 -3.327689e+00 1.655678e+01 1.186091e+01 1.083847e+01 1.176959e+00 -7.253394e+00 -5.747829e+00 -7.801203e+00 8.558999e+00 -2.625761e+00 -5.631111e-01 1.014551e+02 -3.926486e+00 7.289047e-01 -4.204696e-01 5.493450e-02 -5.221164e-01 3.057942e-01 5.947071e-01 1.027174e+00 -4.972688e-01 -1.801085e+00 -1.029258e+00 -3.663884e-01 -3.443390e+00 -3.144760e-01 -2.527571e+00 -7.691666e-01 -3.291303e+00 -2.531181e+00 -2.893221e+00 -8.203669e-01 6.570342e-01 8.041337e-01 -2.688195e-01 -6.837865e-01 -1.345163e-01 2.584164e+00
<VARIANCE> 39
 1.623736e+02 1.605632e+02 1.361260e+02 2.009297e+02 1.691315e+02 2.508261e+02 2.495861e+02 2.525816e+02 3.576639e+02 2.199587e+02 2.773676e+02 2.253283e+02 2.433178e+02 3.125585e+01 2.115693e+01 1.095470e+01 2.946430e+01 2.405837e+01 4.105591e+01 2.581132e+01 1.858716e+01 2.233916e+01 1.801767e+01 1.861971e+01 1.510895e+01 3.592227e+01 3.551998e+00 3.109691e+00 3.199800e+00 4.637187e+00 4.402206e+00 5.287885e+00 6.360119e+00 4.407497e+00 4.600173e+00 4.841854e+00 4.248209e+00 3.911647e+00 3.781059e+00
<GCONST> 2.009619e+02
<MIXTURE> 4 2.276606e-01
<MEAN> 39
