~o
<STREAMINFO> 1 39
<VECSIZE> 39<NULLD><MFCC_D_A_0><DIAGC>
~v "varFloor1"
<VARIANCE> 39
 6.754285e+00 3.412382e+00 5.608406e+00 4.796288e+00 3.472278e+00 4.011306e+00 4.413544e+00 3.617784e+00 3.683816e+00 3.040248e+00 2.640156e+00 2.509632e+00 1.299030e+01 2.278168e-01 1.545930e-01 2.184475e-01 2.118017e-01 1.813441e-01 2.097645e-01 2.257998e-01 2.166213e-01 2.009591e-01 1.748390e-01 1.664857e-01 1.534652e-01 2.729186e-01 3.005252e-02 2.352007e-02 2.950203e-02 3.333135e-02 2.970526e-02 3.527972e-02 3.796952e-02 3.764049e-02 3.477431e-02 3.067440e-02 2.924915e-02 2.697382e-02 3.680100e-02
~h "f"
<BEGINHMM>
<NUMSTATES> 5
<STATE> 2
<MEAN> 39
 -3.266634e+00 -8.821856e+00 4.210759e+00 -8.778819e+00 -2.531026e+00 -1.537168e+00 -3.382642e+00 2.499824e+00 -3.966022e+00 6.598197e+00 -2.549101e+00 2.286386e+00 1.014404e+02 3.620125e-01 -1.772124e-01 -1.381399e-01 -2.806227e-01 5.053078e-03 5.603778e-02 3.834217e-02 1.029662e-01 2.018747e-02 1.190309e-01 -4.440496e-02 -1.789136e-02 6.647441e-01 1.712382e-02 -9.981110e-03 4.419899e-03 3.363554e-04 4.945720e-03 -6.618789e-03 1.228244e-03 1.060407e-02 1.302416e-03 -9.627826e-04 -1.274378e-04 5.355033e-03 3.500953e-02
<VARIANCE> 39
 7.678037e+02 3.523073e+02 3.945847e+02 5.420571e+02 3.479370e+02 3.170304e+02 3.273002e+02 3.064697e+02 3.474299e+02 2.861940e+02 2.651681e+02 2.487410e+02 1.258838e+03 3.226245e+01 1.608878e+01 1.676406e+01 2.400654e+01 1.798102e+01 1.779285e+01 1.909375e+01 1.849537e+01 1.886773e+01 1.691245e+01 1.648204e+01 1.489974e+01 2.636686e+01 4.452400e+00 2.533249e+00 2.350213e+00 3.623345e+00 2.876331e+00 3.039976e+00 3.304336e+00 3.275004e+00 3.293146e+00 2.999218e+00 2.932865e+00 2.612868e+00 3.430369e+00
<GCONST> 2.024273e+02
<STATE> 3
<MEAN> 39
 -1.518657e+00 -9.588379e+00 3.719744e+00 -1.003034e+01 -2.511175e+00 -1.346654e+00 -3.202639e+00 3.005905e+00 -3.864768e+00 7.070073e+00 -2.713564e+00 2.249347e+00 1.045219e+02 4.405569e-01 -1.884704e-01 -1.178293e-01 -2.780055e-01 2.220736e-02 2.580562e-02 4.538491e-02 1.406035e-01 3.182745e-02 1.150542e-01 -3.741640e-02 4.766180e-04 7.554752e-01 1.421774e-02 -1.917221e-03 6.410121e-03 4.598568e-03 5.222861e-03 -7.161533e-03 2.031989e-03 8.604543e-03 3.225302e-03 -2.177029e-03 1.475974e-03 4.236632e-03 1.683781e-02
<VARIANCE> 39
 7.915151e+02 3.699566e+02 3.828186e+02 5.657512e+02 3.729839e+02 3.288490e+02 3.374613e+02 3.130948e+02 3.558221e+02 2.927640e+02 2.737804e+02 2.590468e+02 1.169538e+03 3.352227e+01 1.657040e+01 1.671369e+01 2.499683e+01 1.868355e+01 1.815763e+01 1.924781e+01 1.845483e+01 1.899484e+01 1.710598e+01 1.671006e+01 1.512979e+01 2.719720e+01 4.630431e+00 2.580520e+00 2.349428e+00 3.715803e+00 2.937074e+00 3.073663e+00 3.316934e+00 3.251302e+00 3.302096e+00 3.017142e+00 2.958195e+00 2.634910e+00 3.476456e+00
<GCONST> 2.031206e+02
<STATE> 4
<MEAN> 39
 1.627827e+00 -1.061335e+01 3.103089e+00 -1.221821e+01 -2.483057e+00 -1.072164e+00 -2.792644e+00 3.836396e+00 -3.489298e+00 7.725853e+00 -2.909271e+00 2.300609e+00 1.096853e+02 5.091871e-01 -1.332805e-01 -6.399707e-02 -2.162380e-01 3.740630e-02 -3.806326e-02 5.638278e-02 1.781181e-01 5.126561e-02 9.395416e-02 -1.194752e-02 1.895358e-02 6.903697e-01 -8.003158e-03 1.052292e-02 9.763270e-03 2.254055e-02 5.348503e-03 -9.952932e-03 5.957542e-04 2.875817e-03 2.775901e-03 -6.500489e-03 3.287831e-03 2.810983e-03 -3.015678e-02
<VARIANCE> 39
 7.980834e+02 4.037387e+02 3.799739e+02 6.043056e+02 4.195979e+02 3.579164e+02 3.628958e+02 3.249631e+02 3.732732e+02 3.077278e+02 2.896753e+02 2.795475e+02 1.049862e+03 3.392490e+01 1.673606e+01 1.666212e+01 2.600153e+01 1.960716e+01 1.868726e+01 1.943602e+01 1.828187e+01 1.899883e+01 1.730731e+01 1.687862e+01 1.539750e+01 2.715643e+01 4.667479e+00 2.545074e+00 2.320925e+00 3.771478e+00 2.990297e+00 3.102788e+00 3.305843e+00 3.181563e+00 3.276498e+00 3.020514e+00 2.956705e+00 2.646095e+00 3.388533e+00
<GCONST> 2.038536e+02
<TRANSP> 5
 0.000000e+00 1.000000e+00 0.000000e+00 0.000000e+00 0.000000e+00
 0.000000e+00 7.326905e-01 2.673096e-01 0.000000e+00 0.000000e+00
 0.000000e+00 0.000000e+00 7.326867e-01 2.673133e-01 0.000000e+00
 0.000000e+00 0.000000e+00 0.000000e+00 8.578374e-01 1.421627e-01
 0.000000e+00 0.000000e+00 0.000000e+00 0.000000e+00 0.000000e+00
<ENDHMM>
~h "k"
<BEGINHMM>
<NUMSTATES> 5
<STATE> 2
<MEAN> 39
 -2.356386e+01 -2.027795e+00 6.159256e+00 2.792591e+00 -5.237605e+00 -1.256714e+01 -4.739782e+00 1.165755e+00 -6.302285e+00 3.632468e+00 -3.566841e+00 5.951582e+00 1.038093e+02 1.154522e-01 -6.969713e-02 -9.192619e-02 -1.086329e-02 9.796500e-02 8.953963e-02 3.404249e-02 9.667013e-02 6.126837e-02 3.795874e-03 -1.983677e-02 -5.911267e-02 -1.394997e-01 3.450339e-02 -2.169560e-03 4.130563e-03 -8.316022e-03 5.820290e-03 1.587608e-02 4.935355e-03 1.835193e-03 4.919567e-03 1.702393e-03 2.190861e-03 -4.589994e-03 -2.816191e-02
<VARIANCE> 39
 7.872636e+02 2.624724e+02 6.491910e+02 3.572576e+02 3.545374e+02 3.843473e+02 3.750910e+02 3.280846e+02 3.101497e+02 2.325381e+02 2.160550e+02 2.117999e+02 9.009388e+02 4.230698e+01 2.326363e+01 3.530192e+01 2.309641e+01 1.931219e+01 2.667222e+01 2.812011e+01 2.468692e+01 2.440229e+01 1.921153e+01 1.679588e+01 1.656305e+01 6.006656e+01 5.860303e+00 4.432680e+00 4.728151e+00 4.109989e+00 3.491293e+00 4.805610e+00 5.074962e+00 4.537760e+00 4.408018e+00 3.645734e+00 3.131826e+00 3.064843e+00 9.483174e+00
<GCONST> 2.102592e+02
<STATE> 3
<MEAN> 39
 -2.318564e+01 -2.256587e+00 5.654160e+00 2.679912e+00 -4.810203e+00 -1.210493e+01 -4.595777e+00 1.562178e+00 -6.029821e+00 3.658819e+00 -3.650205e+00 5.696986e+00 1.030748e+02 2.294467e-01 -7.145512e-02 -8.082280e-02 -4.576224e-02 1.170515e-01 1.485289e-01 5.227862e-02 1.026576e-01 7.880271e-02 1.123171e-02 -1.374698e-02 -7.405833e-02 -2.209942e-01 3.008834e-02 9.721426e-04 5.135821e-03 -8.124044e-03 3.981632e-03 1.391161e-02 3.478431e-03 -2.025815e-04 3.623628e-03 2.183042e-03 3.087448e-03 -3.000370e-03 -2.215213e-02
<VARIANCE> 39
 7.886324e+02 2.616056e+02 6.306752e+02 3.635435e+02 3.561709e+02 3.834780e+02 3.710955e+02 3.290205e+02 3.126186e+02 2.353741e+02 2.172960e+02 2.115893e+02 9.009480e+02 4.129319e+01 2.295257e+01 3.399007e+01 2.284255e+01 1.932484e+01 2.630808e+01 2.767782e+01 2.456032e+01 2.425422e+01 1.914361e+01 1.677739e+01 1.644836e+01 5.908874e+01 5.715905e+00 4.387331e+00 4.596076e+00 4.063378e+00 3.483657e+00 4.753939e+00 5.013411e+00 4.518033e+00 4.383860e+00 3.635743e+00 3.130338e+00 3.049050e+00 9.428745e+00
<GCONST> 2.099865e+02
<STATE> 4
<MEAN> 39
 -2.240374e+01 -2.542240e+00 4.748538e+00 2.192492e+00 -4.360576e+00 -1.111339e+01 -4.379737e+00 2.064602e+00 -5.456723e+00 3.837577e+00 -3.686111e+00 5.362646e+00 1.016949e+02 3.412968e-01 -5.679647e-02 -6.510293e-02 -9.213529e-02 1.350923e-01 2.167297e-01 7.273306e-02 1.023130e-01 9.406962e-02 2.288024e-02 -5.646972e-03 -8.758588e-02 -3.012813e-01 2.770752e-02 3.569997e-03 1.223578e-02 -5.907014e-03 8.458516e-04 8.743755e-03 1.797938e-03 -3.999620e-03 7.393038e-04 2.413572e-03 4.829295e-03 -7.763057e-04 -1.314359e-02
<VARIANCE> 39
 7.893864e+02 2.594506e+02 5.983548e+02 3.737214e+02 3.585534e+02 3.824984e+02 3.639124e+02 3.252708e+02 3.128364e+02 2.410885e+02 2.201300e+02 2.113475e+02 9.199815e+02 3.849030e+01 2.163332e+01 3.089828e+01 2.193515e+01 1.909927e+01 2.521386e+01 2.636006e+01 2.374755e+01 2.338377e+01 1.879967e+01 1.656709e+01 1.606126e+01 5.565233e+01 5.353393e+00 4.105731e+00 4.248077e+00 3.886453e+00 3.413629e+00 4.554672e+00 4.783180e+00 4.366779e+00 4.225303e+00 3.561833e+00 3.086436e+00 2.978000e+00 8.874932e+00
<GCONST> 2.088766e+02
<TRANSP> 5
 0.000000e+00 1.000000e+00 0.000000e+00 0.000000e+00 0.000000e+00
 0.000000e+00 7.257017e-01 2.742983e-01 0.000000e+00 0.000000e+00
 0.000000e+00 0.000000e+00 7.257089e-01 2.742910e-01 0.000000e+00
 0.000000e+00 0.000000e+00 0.000000e+00 8.498130e-01 1.501869e-01
 0.000000e+00 0.000000e+00 0.000000e+00 0.000000e+00 0.000000e+00
<ENDHMM>
~h "n"
<BEGINHMM>
<NUMSTATES> 5
<STATE> 2
<MEAN> 39
 5.043794e+00 -7.663002e+00 1.716631e+01 -9.190478e-01 7.750430e-01 -4.876031e-01 1.582526e+00 5.606762e+00 -1.216291e+00 5.690622e+00 -3.238577e+00 4.933284e+00 1.093482e+02 -1.867067e-01 1.060677e-01 -3.853099e-02 1.108999e-01 -1.347446e-02 1.729999e-02 5.664017e-02 -1.583713e-02 -3.681794e-02 -5.224074e-02 -3.486951e-02 -2.724743e-02 -3.050228e-01 -5.157911e-04 -2.878768e-03 -1.417588e-02 -2.059479e-02 -3.889474e-04 -8.395683e-03 -1.831268e-02 3.778555e-04 -1.776752e-03 4.938331e-03 9.059995e-03 -3.422914e-03 6.554500e-03
<VARIANCE> 39
 4.788361e+02 4.134736e+02 4.731223e+02 5.694927e+02 3.803795e+02 3.936457e+02 5.408317e+02 4.770670e+02 4.253885e+02 3.662396e+02 3.299847e+02 3.136102e+02 1.069689e+03 1.918365e+01 1.667371e+01 2.143840e+01 2.560349e+01 1.913426e+01 2.240961e+01 2.714001e+01 2.827926e+01 2.206601e+01 1.874567e+01 1.871933e+01 1.734271e+01 2.309230e+01 2.542782e+00 2.326367e+00 2.887307e+00 3.930158e+00 3.088023e+00 3.830027e+00 4.447418e+00 4.820899e+00 3.751105e+00 3.201488e+00 3.189036e+00 2.955606e+00 2.881393e+00
<GCONST> 2.064900e+02
<STATE> 3
<MEAN> 39
 4.421109e+00 -7.351832e+00 1.695677e+01 -6.209194e-01 7.419069e-01 -4.669242e-01 1.709335e+00 5.585688e+00 -1.337568e+00 5.520449e+00 -3.338468e+00 4.821157e+00 1.083530e+02 -1.906743e-01 8.338125e-02 -9.898251e-02 2.848897e-02 -1.001627e-02 -1.687808e-02 -1.752716e-02 -8.378837e-03 -3.927397e-02 -3.650808e-02 8.971111e-04 -4.009204e-02 -2.803822e-01 2.770317e-03 -4.558850e-03 -9.669382e-03 -1.715496e-02 1.037800e-03 -7.505248e-03 -1.515073e-02 3.854936e-04 -3.669684e-04 5.639770e-03 9.048371e-03 -5.997941e-04 9.685036e-03
<VARIANCE> 39
 4.819731e+02 4.152338e+02 4.774337e+02 5.623814e+02 3.769181e+02 3.922373e+02 5.312265e+02 4.717096e+02 4.207901e+02 3.597815e+02 3.225563e+02 3.083990e+02 1.092199e+03 1.951320e+01 1.649625e+01 2.157167e+01 2.501005e+01 1.890836e+01 2.200881e+01 2.659668e+01 2.773138e+01 2.175408e+01 1.852238e+01 1.839866e+01 1.714614e+01 2.286433e+01 2.576364e+00 2.296648e+00 2.897835e+00 3.853353e+00 3.052441e+00 3.754805e+00 4.348242e+00 4.717680e+00 3.695133e+00 3.171013e+00 3.146974e+00 2.930493e+00 2.833888e+00
<GCONST> 2.061081e+02
<STATE> 4
<MEAN> 39
 3.869688e+00 -7.380168e+00 1.640055e+01 -9.538428e-01 8.051072e-01 -4.185521e-01 1.574066e+00 5.795370e+00 -1.365173e+00 5.334302e+00 -3.209340e+00 4.633445e+00 1.076940e+02 -2.043392e-01 6.437387e-02 -1.567300e-01 -4.002630e-02 -5.917604e-03 -5.263351e-02 -8.208536e-02 -3.941524e-03 -3.878267e-02 -2.052062e-02 3.759750e-02 -4.611824e-02 -2.920150e-01 -5.917595e-04 5.236589e-04 -3.402190e-03 -6.545992e-03 -9.438440e-05 -4.351609e-03 -6.486001e-03 -2.629650e-03 -3.236261e-04 4.648208e-03 6.290504e-03 1.782028e-03 -9.924901e-04
<VARIANCE> 39
 4.810142e+02 4.215634e+02 4.858677e+02 5.534783e+02 3.796599e+02 3.920133e+02 5.227172e+02 4.699790e+02 4.165062e+02 3.523971e+02 3.137792e+02 3.010753e+02 1.136349e+03 1.894899e+01 1.598545e+01 2.121953e+01 2.404813e+01 1.847172e+01 2.127481e+01 2.551718e+01 2.683663e+01 2.117503e+01 1.813667e+01 1.784426e+01 1.672384e+01 2.235010e+01 2.499671e+00 2.206986e+00 2.832187e+00 3.715159e+00 2.960986e+00 3.613615e+00 4.149163e+00 4.530133e+00 3.580367e+00 3.104636e+00 3.062136e+00 2.863245e+00 2.762065e+00
<GCONST> 2.052778e+02
<TRANSP> 5
 0.000000e+00 1.000000e+00 0.000000e+00 0.000000e+00 0.000000e+00
 0.000000e+00 7.228462e-01 2.771538e-01 0.000000e+00 0.000000e+00
 0.000000e+00 0.000000e+00 7.228483e-01 2.771517e-01 0.000000e+00
 0.000000e+00 0.000000e+00 0.000000e+00 8.463599e-01 1.536401e-01
 0.000000e+00 0.000000e+00 0.000000e+00 0.000000e+00 0.000000e+00
<ENDHMM>
~h "r"
<BEGINHMM>
<NUMSTATES> 5
<STATE> 2
<MEAN> 39
 6.197307e+00 -6.276056e+00 1.349744e+01 -2.728780e+00 1.485830e+00 -8.982809e+00 -5.893192e+00 2.951281e+00 -7.617970e+00 5.990771e+00 -2.060647e+00 5.236176e+00 1.116625e+02 1.516900e-02 -8.118646e-02 1.363412e-01 -3.881226e-04 3.596852e-02 1.068672e-01 1.125377e-01 -3.023253e-03 3.534259e-02 1.801767e-02 -5.328439e-03 -2.496506e-02 -3.584690e-02 -3.846504e-02 2.012193e-02 -3.787888e-03 9.207335e-04 -1.110681e-02 1.590376e-02 9.565142e-03 -4.969946e-03 5.158235e-03 -3.673321e-03 -3.273940e-03 -4.420939e-03 -5.041522e-02
<VARIANCE> 39
 7.557805e+02 3.957317e+02 7.961380e+02 5.712640e+02 4.845075e+02 5.788381e+02 6.556937e+02 4.322468e+02 4.217069e+02 3.618394e+02 2.870125e+02 2.635865e+02 8.062823e+02 2.899726e+01 1.867362e+01 3.100749e+01 2.500632e+01 2.552405e+01 2.733109e+01 2.816106e+01 2.493500e+01 2.275514e+01 2.002295e+01 1.802661e+01 1.688320e+01 2.290043e+01 3.367298e+00 2.618018e+00 4.014652e+00 3.763919e+00 3.815901e+00 4.220547e+00 4.440397e+00 4.142971e+00 3.806216e+00 3.413481e+00 3.128839e+00 2.960674e+00 2.958421e+00
<GCONST> 2.097529e+02
<STATE> 3
<MEAN> 39
 5.932588e+00 -6.439354e+00 1.400606e+01 -2.688143e+00 1.568813e+00 -8.431859e+00 -5.373772e+00 2.899172e+00 -7.414433e+00 6.040216e+00 -2.111319e+00 5.111457e+00 1.111339e+02 -1.423216e-01 1.224539e-02 1.184396e-01 -8.216847e-04 -1.305783e-02 1.752094e-01 1.524431e-01 -2.277797e-02 5.497021e-02 3.013170e-03 -1.970983e-02 -4.079676e-02 -2.282431e-01 -3.424777e-02 2.084906e-02 -1.019748e-02 1.203523e-03 -9.121060e-03 1.062303e-02 4.812812e-03 -3.520563e-03 5.069806e-03 -3.349549e-03 -1.183214e-03 -2.902223e-03 -4.322751e-02
<VARIANCE> 39
 7.299521e+02 3.899630e+02 8.139376e+02 5.539343e+02 4.712252e+02 5.857565e+02 6.547289e+02 4.348958e+02 4.315675e+02 3.649970e+02 2.884798e+02 2.640461e+02 8.332570e+02 2.806546e+01 1.834593e+01 3.067584e+01 2.459769e+01 2.495849e+01 2.736598e+01 2.806158e+01 2.489019e+01 2.286154e+01 2.000252e+01 1.798084e+01 1.676310e+01 2.231391e+01 3.255905e+00 2.569305e+00 3.938275e+00 3.723284e+00 3.757075e+00 4.219616e+00 4.429867e+00 4.135100e+00 3.820561e+00 3.402304e+00 3.114680e+00 2.936537e+00 2.865626e+00
<GCONST> 2.094723e+02
<STATE> 4
<MEAN> 39
 4.990746e+00 -6.118185e+00 1.442459e+01 -2.972733e+00 1.382784e+00 -7.267905e+00 -4.440164e+00 2.685588e+00 -6.893305e+00 6.092346e+00 -2.229727e+00 4.872958e+00 1.095995e+02 -3.253341e-01 1.323732e-01 6.457340e-02 9.219946e-03 -6.620355e-02 2.494607e-01 1.850523e-01 -3.788080e-02 8.585349e-02 -1.984274e-02 -2.878203e-02 -5.471349e-02 -4.605274e-01 -2.065096e-02 1.483923e-02 -1.689356e-02 2.680462e-03 -4.931647e-03 6.908105e-04 -2.625350e-03 8.546199e-05 3.711173e-03 -3.167097e-03 2.021822e-03 -7.260561e-04 -2.786073e-02
<VARIANCE> 39
 6.978539e+02 3.826394e+02 8.339822e+02 5.379807e+02 4.521090e+02 5.817980e+02 6.323755e+02 4.338711e+02 4.408974e+02 3.639286e+02 2.883389e+02 2.639024e+02 9.055547e+02 2.604628e+01 1.753411e+01 2.943029e+01 2.372359e+01 2.370715e+01 2.673206e+01 2.720646e+01 2.442635e+01 2.265523e+01 1.971051e+01 1.774785e+01 1.648368e+01 2.178639e+01 3.045561e+00 2.464077e+00 3.716749e+00 3.608288e+00 3.591773e+00 4.122922e+00 4.311132e+00 4.054536e+00 3.782922e+00 3.346654e+00 3.069962e+00 2.880169e+00 2.784842e+00
<GCONST> 2.086173e+02
<TRANSP> 5
 0.000000e+00 1.000000e+00 0.000000e+00 0.000000e+00 0.000000e+00
 0.000000e+00 7.269070e-01 2.730930e-01 0.000000e+00 0.000000e+00
 0.000000e+00 0.000000e+00 7.269068e-01 2.730932e-01 0.000000e+00
 0.000000e+00 0.000000e+00 0.000000e+00 8.507186e-01 1.492815e-01
 0.000000e+00 0.000000e+00 0.000000e+00 0.000000e+00 0.000000e+00
<ENDHMM>
~h "s"
<BEGINHMM>
<NUMSTATES> 5
<STATE> 2
<MEAN> 39
 -1.734934e+01 -2.314964e+00 6.668921e+00 1.267284e-01 -3.713664e+00 -8.715214e+00 -3.967223e+00 1.433281e+00 -5.111308e+00 4.237096e+00 -2.961069e+00 4.935163e+00 9.911121e+01 -3.936198e-02 2.686401e-02 -5.952187e-02 -2.412624e-02 6.112188e-03 4.534814e-03 5.909650e-03 6.112449e-03 3.993118e-02 3.977354e-02 -2.285225e-02 1.005182e-02 1.525884e-01 2.924842e-03 -4.242265e-03 -8.890145e-05 -2.554032e-03 9.383654e-04 -2.042312e-03 -3.313199e-03 8.091606e-05 1.218563e-03 3.824256e-03 1.185711e-03 1.833764e-03 2.638260e-02
<VARIANCE> 39
 7.927734e+02 2.745572e+02 5.639823e+02 3.708886e+02 3.206974e+02 3.699078e+02 3.719768e+02 3.136642e+02 3.229899e+02 2.602227e+02 2.301561e+02 2.230470e+02 1.185565e+03 3.616702e+01 1.833551e+01 2.800510e+01 2.096297e+01 1.795900e+01 2.290783e+01 2.407925e+01 2.169930e+01 2.145900e+01 1.801690e+01 1.648148e+01 1.568859e+01 3.834039e+01 4.776651e+00 3.186737e+00 3.814949e+00 3.569984e+00 3.163273e+00 4.039739e+00 4.251288e+00 3.948178e+00 3.818809e+00 3.302691e+00 3.008148e+00 2.861247e+00 5.797188e+00
<GCONST> 2.062896e+02
<STATE> 3
<MEAN> 39
 -1.742179e+01 -2.273702e+00 6.492324e+00 3.120748e-02 -3.692163e+00 -8.714806e+00 -3.939414e+00 1.493032e+00 -4.965021e+00 4.390235e+00 -3.049406e+00 4.985483e+00 9.994906e+01 -7.994965e-03 8.288133e-03 -4.217748e-02 -2.908692e-02 6.520665e-03 -6.370662e-03 -2.447332e-03 1.033487e-02 4.504109e-02 4.934721e-02 -1.600940e-02 1.685302e-02 2.466216e-01 8.321821e-03 -6.337488e-03 4.433731e-03 -1.623480e-03 8.419565e-04 -2.880484e-03 -2.038558e-03 2.175879e-03 1.580559e-03 2.846860e-03 1.326831e-03 1.772568e-03 2.885920e-02
<VARIANCE> 39
 8.076542e+02 2.763668e+02 5.597905e+02 3.729519e+02 3.231424e+02 3.715959e+02 3.738105e+02 3.118443e+02 3.240531e+02 2.612942e+02 2.315726e+02 2.250026e+02 1.151151e+03 3.679729e+01 1.847944e+01 2.796414e+01 2.107188e+01 1.802796e+01 2.305631e+01 2.420691e+01 2.167183e+01 2.149325e+01 1.807192e+01 1.654379e+01 1.574531e+01 3.857121e+01 4.872767e+00 3.213316e+00 3.825116e+00 3.592949e+00 3.174708e+00 4.071133e+00 4.273213e+00 3.950444e+00 3.823710e+00 3.309499e+00 3.012887e+00 2.868748e+00 5.802158e+00
<GCONST> 2.064408e+02
<STATE> 4
<MEAN> 39
 -1.731614e+01 -2.310620e+00 6.328951e+00 -1.498782e-01 -3.866700e+00 -8.662262e+00 -3.899230e+00 1.598729e+00 -4.665890e+00 4.613600e+00 -3.077850e+00 5.129964e+00 1.014425e+02 1.181311e-01 -2.749087e-02 3.903421e-02 -2.253573e-02 8.380266e-03 -1.921156e-02 -4.642513e-03 1.741350e-02 6.096192e-02 5.482154e-02 3.210955e-03 2.012208e-02 2.861449e-01 1.981885e-02 -7.447588e-03 1.172157e-02 4.695448e-04 1.755140e-03 -1.417217e-03 -6.610160e-04 1.950752e-03 3.206971e-03 2.019515e-03 2.689032e-03 2.727880e-04 8.851985e-03
<VARIANCE> 39
 8.250337e+02 2.804329e+02 5.593800e+02 3.776462e+02 3.284055e+02 3.760068e+02 3.804429e+02 3.103855e+02 3.251168e+02 2.637438e+02 2.341946e+02 2.288419e+02 1.111297e+03 3.669147e+01 1.840378e+01 2.770415e+01 2.100742e+01 1.792796e+01 2.312075e+01 2.437100e+01 2.152975e+01 2.139171e+01 1.804454e+01 1.651120e+01 1.578082e+01 3.870031e+01 4.892659e+00 3.187435e+00 3.798592e+00 3.582689e+00 3.148104e+00 4.083045e+00 4.294176e+00 3.926623e+00 3.805003e+00 3.297253e+00 2.997837e+00 2.869831e+00 5.748008e+00
<GCONST> 2.064671e+02
<TRANSP> 5
 0.000000e+00 1.000000e+00 0.000000e+00 0.000000e+00 0.000000e+00
 0.000000e+00 7.202557e-01 2.797443e-01 0.000000e+00 0.000000e+00
 0.000000e+00 0.000000e+00 7.202516e-01 2.797484e-01 0.000000e+00
 0.000000e+00 0.000000e+00 0.000000e+00 8.433260e-01 1.566740e-01
 0.000000e+00 0.000000e+00 0.000000e+00 0.000000e+00 0.000000e+00
<ENDHMM>
~h "t"
<BEGINHMM>
<NUMSTATES> 5
<STATE> 2
<MEAN> 39
 -8.551257e+00 -2.691019e+00 2.348412e+01 -2.885797e+00 -5.158575e+00 -7.110346e+00 -2.818215e+00 -2.208407e+00 -7.789871e+00 4.510507e+00 -3.342832e+00 4.928267e+00 1.002630e+02 8.100899e-02 4.462612e-02 8.703778e-03 1.422112e-01 1.253359e-01 8.248120e-02 4.081215e-02 1.114881e-02 -4.739116e-02 -1.721501e-02 -5.707556e-02 -2.473827e-02 1.603764e-01 5.076312e-03 -2.132153e-03 -2.299805e-02 5.331275e-03 8.067092e-03 7.074138e-03 1.207320e-03 9.835150e-03 6.070415e-03 -2.702158e-03 1.673431e-03 -2.210399e-03 -5.322400e-03
<VARIANCE> 39
 5.091951e+02 2.737390e+02 8.086160e+02 4.547405e+02 3.042080e+02 3.695693e+02 4.283314e+02 3.895059e+02 4.118517e+02 2.854645e+02 2.519466e+02 2.632489e+02 1.386575e+03 2.176368e+01 1.582424e+01 3.024216e+01 2.260621e+01 1.780460e+01 2.051134e+01 2.257888e+01 2.174694e+01 2.176689e+01 1.772260e+01 1.695620e+01 1.601035e+01 5.590354e+01 3.139077e+00 2.677563e+00 3.900692e+00 3.782263e+00 3.053972e+00 3.456194e+00 3.813352e+00 3.766301e+00 3.758274e+00 3.171001e+00 3.027458e+00 2.786303e+00 8.105086e+00
<GCONST> 2.065972e+02
<STATE> 3
<MEAN> 39
 -8.102070e+00 -2.571674e+00 2.330770e+01 -2.218120e+00 -4.579357e+00 -6.811178e+00 -2.660346e+00 -2.057535e+00 -7.960739e+00 4.415073e+00 -3.562374e+00 4.825887e+00 1.008460e+02 1.114483e-01 3.785286e-02 -8.880551e-02 1.639937e-01 1.542467e-01 1.095163e-01 4.515399e-02 5.163435e-02 -1.776275e-02 -2.032155e-02 -4.702991e-02 -3.336605e-02 1.030451e-01 4.533789e-03 -1.426607e-03 -2.026517e-02 3.000642e-03 5.559923e-03 4.051681e-03 -1.767451e-04 9.481172e-03 6.551227e-03 -1.569634e-03 3.124698e-03 -1.145171e-03 -1.051887e-02
<VARIANCE> 39
 5.201973e+02 2.733283e+02 7.961116e+02 4.548979e+02 3.063573e+02 3.792963e+02 4.359417e+02 3.962072e+02 4.144286e+02 2.883018e+02 2.549330e+02 2.705627e+02 1.330949e+03 2.241290e+01 1.582300e+01 3.013341e+01 2.257420e+01 1.779498e+01 2.069909e+01 2.278378e+01 2.182577e+01 2.191799e+01 1.780852e+01 1.710283e+01 1.614099e+01 5.435798e+01 3.223117e+00 2.675315e+00 3.871230e+00 3.778653e+00 3.050858e+00 3.469451e+00 3.826061e+00 3.769527e+00 3.777116e+00 3.181523e+00 3.047718e+00 2.797809e+00 7.894629e+00
<GCONST> 2.067467e+02
<STATE> 4
<MEAN> 39
 -7.145461e+00 -2.376898e+00 2.236835e+01 -1.475026e+00 -3.658151e+00 -6.280348e+00 -2.496853e+00 -1.700881e+00 -7.966638e+00 4.264557e+00 -3.765068e+00 4.687768e+00 1.013253e+02 1.687360e-01 3.071936e-02 -2.387871e-01 1.669368e-01 1.822653e-01 1.418020e-01 4.901265e-02 1.002663e-01 3.249957e-02 -6.722613e-03 -2.686306e-02 -4.558102e-02 -6.705113e-02 -3.057743e-04 9.415253e-04 -1.686171e-02 -4.294265e-03 8.562862e-04 3.539007e-03 -9.339503e-04 5.929134e-03 8.137192e-03 9.574416e-04 4.866644e-03 -3.588977e-04 -2.056775e-02
<VARIANCE> 39
 5.335296e+02 2.738424e+02 7.686022e+02 4.499150e+02 3.110626e+02 3.974302e+02 4.523642e+02 4.043163e+02 4.206807e+02 2.953930e+02 2.621164e+02 2.838670e+02 1.271754e+03 2.246948e+01 1.539442e+01 2.880477e+01 2.177082e+01 1.754292e+01 2.065103e+01 2.276842e+01 2.168523e+01 2.179535e+01 1.785712e+01 1.717675e+01 1.621110e+01 4.931527e+01 3.197641e+00 2.582296e+00 3.691736e+00 3.633216e+00 2.986112e+00 3.426455e+00 3.784630e+00 3.722438e+00 3.743634e+00 3.174589e+00 3.048654e+00 2.793468e+00 7.147601e+00
<GCONST> 2.063956e+02
<TRANSP> 5
 0.000000e+00 1.000000e+00 0.000000e+00 0.000000e+00 0.000000e+00
 0.000000e+00 7.409646e-01 2.590354e-01 0.000000e+00 0.000000e+00
 0.000000e+00 0.000000e+00 7.409638e-01 2.590362e-01 0.000000e+00
 0.000000e+00 0.000000e+00 0.000000e+00 8.684289e-01 1.315710e-01
 0.000000e+00 0.000000e+00 0.000000e+00 0.000000e+00 0.000000e+00
<ENDHMM>
~h "v"
<BEGINHMM>
<NUMSTATES> 5
<STATE> 2
<MEAN> 39
 -2.138583e+00 -1.179300e+01 8.675069e+00 -5.210427e+00 -1.385917e+00 -4.946887e+00 -2.164221e+00 4.256455e+00 9.700813e-01 8.693241e+00 -3.189548e+00 3.570824e+00 1.160221e+02 3.020605e-01 1.217249e-01 3.105401e-01 1.967063e-01 4.285752e-02 -1.748135e-02 4.583669e-02 2.232098e-02 -8.272494e-03 -2.078442e-02 -1.606202e-02 4.184837e-02 -2.168432e-01 -1.147849e-02 2.354044e-02 1.209719e-03 1.328121e-02 3.790815e-03 1.188116e-02 6.989484e-03 -6.609567e-03 -1.264335e-02 -1.063548e-02 3.022649e-05 -1.914577e-04 -5.436789e-02
<VARIANCE> 39
 7.082242e+02 3.841799e+02 4.249215e+02 4.585860e+02 3.269045e+02 3.906071e+02 4.306334e+02 3.264396e+02 3.740615e+02 3.406660e+02 3.152021e+02 3.148475e+02 9.294856e+02 3.228632e+01 1.760651e+01 1.923691e+01 2.425860e+01 1.890320e+01 2.384011e+01 2.396486e+01 2.073892e+01 2.109371e+01 1.791572e+01 1.779119e+01 1.587692e+01 2.967288e+01 4.470397e+00 2.665930e+00 2.835020e+00 3.964622e+00 3.255292e+00 4.162345e+00 4.133338e+00 3.749881e+00 3.709775e+00 3.090133e+00 3.038840e+00 2.750811e+00 4.002331e+00
<GCONST> 2.060477e+02
<STATE> 3
<MEAN> 39
 -1.295570e+00 -1.114368e+01 9.752670e+00 -4.399285e+00 -1.230206e+00 -4.984628e+00 -1.994242e+00 4.276043e+00 8.322349e-01 8.525981e+00 -3.251172e+00 3.730212e+00 1.147238e+02 2.458602e-01 2.048824e-01 2.934284e-01 2.310469e-01 5.796495e-02 3.141141e-02 7.070601e-02 -3.278177e-03 -5.257274e-02 -5.757700e-02 -1.587916e-02 3.928470e-02 -3.909877e-01 -2.129233e-02 2.262476e-02 -4.870014e-03 9.333367e-03 1.362202e-03 1.144027e-02 7.190483e-03 -6.719900e-03 -1.133669e-02 -1.039326e-02 2.563123e-04 3.880967e-04 -4.417802e-02
<VARIANCE> 39
 6.694720e+02 3.745909e+02 4.277230e+02 4.599425e+02 3.232892e+02 3.879135e+02 4.413097e+02 3.347291e+02 3.768486e+02 3.453865e+02 3.159503e+02 3.144583e+02 9.519901e+02 3.047100e+01 1.757757e+01 1.910525e+01 2.450277e+01 1.908543e+01 2.411621e+01 2.450090e+01 2.151686e+01 2.137518e+01 1.809400e+01 1.803698e+01 1.609434e+01 2.921987e+01 4.218954e+00 2.675107e+00 2.825622e+00 4.032466e+00 3.300353e+00 4.237926e+00 4.230649e+00 3.894342e+00 3.773637e+00 3.125348e+00 3.081805e+00 2.792939e+00 4.029674e+00
<GCONST> 2.062287e+02
<STATE> 4
<MEAN> 39
 -8.662189e-01 -9.998608e+00 1.066690e+01 -3.398524e+00 -1.078827e+00 -4.643449e+00 -1.493216e+00 4.278661e+00 5.704988e-01 7.902414e+00 -3.376198e+00 3.918390e+00 1.118351e+02 1.157848e-01 3.035483e-01 2.240389e-01 2.408846e-01 6.226998e-02 7.846418e-02 8.548196e-02 -3.584925e-02 -9.672572e-02 -1.012122e-01 -8.772047e-03 3.403031e-02 -5.848895e-01 -2.401682e-02 1.397373e-02 -9.976158e-03 1.097203e-03 -1.685436e-03 8.257528e-03 4.136356e-03 -5.406993e-03 -6.817985e-03 -7.159716e-03 1.709140e-03 3.120256e-04 -2.391838e-02
<VARIANCE> 39
 6.191476e+02 3.610895e+02 4.367802e+02 4.614424e+02 3.183560e+02 3.821661e+02 4.438441e+02 3.438764e+02 3.749090e+02 3.460249e+02 3.113990e+02 3.073026e+02 1.014558e+03 2.759917e+01 1.700092e+01 1.877114e+01 2.419805e+01 1.896277e+01 2.389908e+01 2.448038e+01 2.216900e+01 2.125275e+01 1.804366e+01 1.801753e+01 1.607688e+01 2.818825e+01 3.823961e+00 2.614872e+00 2.767195e+00 4.002530e+00 3.285691e+00 4.223440e+00 4.230179e+00 4.007080e+00 3.772132e+00 3.131465e+00 3.096166e+00 2.798634e+00 3.970363e+00
<GCONST> 2.058321e+02
<TRANSP> 5
 0.000000e+00 1.000000e+00 0.000000e+00 0.000000e+00 0.000000e+00
 0.000000e+00 7.215441e-01 2.784559e-01 0.000000e+00 0.000000e+00
 0.000000e+00 0.000000e+00 7.215481e-01 2.784519e-01 0.000000e+00
 0.000000e+00 0.000000e+00 0.000000e+00 8.452310e-01 1.547690e-01
 0.000000e+00 0.000000e+00 0.000000e+00 0.000000e+00 0.000000e+00
<ENDHMM>
~h "w"
<BEGINHMM>
<NUMSTATES> 5
<STATE> 2
<MEAN> 39
 1.338515e+01 -1.716845e+00 1.280925e+01 -1.319124e+01 -1.086256e+00 2.265646e+00 -5.812210e-01 6.649854e+00 -4.207731e+00 7.038670e+00 -2.790931e-01 3.420090e+00 1.102769e+02 2.961579e-01 -2.089578e-01 1.879235e-01 -1.596082e-02 1.565330e-01 9.853344e-02 7.527620e-02 1.687840e-01 1.022804e-01 3.174576e-02 -1.059096e-02 5.771358e-02 6.755782e-01 -5.617825e-02 -1.976651e-02 1.564218e-03 4.986326e-02 8.607560e-03 -1.629028e-02 9.473037e-04 -1.736772e-02 3.202178e-03 -7.397444e-03 -1.189310e-02 6.889185e-03 -3.565337e-02
<VARIANCE> 39
 5.283752e+02 4.222210e+02 4.340366e+02 6.814551e+02 4.973589e+02 4.071586e+02 5.068641e+02 4.682137e+02 4.394531e+02 3.761367e+02 3.529194e+02 3.152030e+02 9.521845e+02 1.790627e+01 1.984398e+01 2.095366e+01 3.095191e+01 2.552123e+01 2.574291e+01 2.756671e+01 2.821125e+01 2.385855e+01 2.132062e+01 2.155837e+01 1.919470e+01 2.425331e+01 2.316897e+00 2.615724e+00 2.845216e+00 4.084164e+00 3.941068e+00 4.423889e+00 4.731040e+00 4.945154e+00 4.227060e+00 3.721583e+00 3.714334e+00 3.305822e+00 2.765110e+00
<GCONST> 2.091630e+02
<STATE> 3
<MEAN> 39
 1.403650e+01 -2.604991e+00 1.342359e+01 -1.293592e+01 -4.618929e-01 2.513344e+00 -3.208411e-01 7.159588e+00 -3.847278e+00 7.073576e+00 -3.605376e-01 3.636183e+00 1.123787e+02 7.920884e-02 -2.401092e-01 2.018071e-01 1.942366e-01 1.721028e-01 3.989764e-02 9.329833e-02 8.914404e-02 1.072700e-01 3.968942e-03 -6.184900e-02 7.936728e-02 4.857780e-01 -6.218343e-02 -1.190506e-03 2.370464e-03 5.842431e-02 1.841111e-04 -1.631398e-02 6.648520e-03 -2.412616e-02 -3.402775e-04 -8.420112e-03 -1.490475e-02 4.619825e-03 -6.262077e-02
<VARIANCE> 39
 4.917096e+02 4.234790e+02 4.346141e+02 7.134891e+02 5.037617e+02 4.135052e+02 5.221451e+02 4.790355e+02 4.450448e+02 3.849167e+02 3.659500e+02 3.246354e+02 8.758662e+02 1.747039e+01 1.986506e+01 2.113746e+01 3.151845e+01 2.553735e+01 2.616788e+01 2.833249e+01 2.924501e+01 2.419281e+01 2.161298e+01 2.215055e+01 1.970767e+01 2.382796e+01 2.241656e+00 2.568634e+00 2.837325e+00 4.076663e+00 3.907752e+00 4.459928e+00 4.826890e+00 5.092144e+00 4.277752e+00 3.744633e+00 3.781393e+00 3.369776e+00 2.663312e+00
<GCONST> 2.093978e+02
<STATE> 4
<MEAN> 39
 1.379021e+01 -3.594028e+00 1.423043e+01 -1.174102e+01 2.908055e-01 2.561237e+00 1.080700e-01 7.416370e+00 -3.363273e+00 6.968051e+00 -6.598295e-01 3.980707e+00 1.141207e+02 -1.707111e-01 -1.752930e-01 2.219296e-01 4.470701e-01 1.325651e-01 -3.239339e-02 1.338316e-01 -2.992769e-02 9.235164e-02 -2.951241e-02 -1.245055e-01 9.306638e-02 1.541824e-01 -4.993390e-02 2.043412e-02 5.423608e-04 4.473932e-02 -1.221823e-02 -1.355457e-02 8.209988e-03 -2.407697e-02 -3.882376e-03 -7.086586e-03 -1.237358e-02 1.151233e-03 -7.273725e-02
<VARIANCE> 39
 4.635912e+02 4.201784e+02 4.451350e+02 7.462773e+02 4.988234e+02 4.203501e+02 5.412259e+02 4.902233e+02 4.473769e+02 3.937952e+02 3.775797e+02 3.349110e+02 8.168173e+02 1.696169e+01 1.939321e+01 2.121782e+01 3.101278e+01 2.477227e+01 2.617299e+01 2.888153e+01 2.998298e+01 2.421992e+01 2.154646e+01 2.245727e+01 1.999039e+01 2.325392e+01 2.168073e+00 2.472587e+00 2.791687e+00 3.978793e+00 3.754387e+00 4.402007e+00 4.860516e+00 5.164647e+00 4.253746e+00 3.692868e+00 3.784773e+00 3.384997e+00 2.612314e+00
<GCONST> 2.092583e+02
<TRANSP> 5
 0.000000e+00 1.000000e+00 0.000000e+00 0.000000e+00 0.000000e+00
 0.000000e+00 7.153279e-01 2.846721e-01 0.000000e+00 0.000000e+00
 0.000000e+00 0.000000e+00 7.153277e-01 2.846723e-01 0.000000e+00
 0.000000e+00 0.000000e+00 0.000000e+00 8.368369e-01 1.631631e-01
 0.000000e+00 0.000000e+00 0.000000e+00 0.000000e+00 0.000000e+00
<ENDHMM>
~h "z"
<BEGINHMM>
<NUMSTATES> 5
<STATE> 2
<MEAN> 39
 -5.955494e+00 5.284483e-01 1.624098e+01 5.381338e+00 2.533159e+00 -9.135898e+00 -5.348241e+00 1.528785e+00 -6.129763e+00 4.229275e+00 -2.980879e+00 5.175179e+00 1.023715e+02 2.612534e-01 6.586990e-02 1.276485e-01 1.728647e-01 2.465289e-01 -1.546135e-01 -1.088222e-01 3.352639e-02 -3.406042e-02 8.588230e-02 -1.624986e-02 5.649169e-02 6.246863e-01 2.639320e-02 -1.310884e-02 5.743490e-04 -8.757186e-03 7.164922e-03 -2.136083e-03 6.311054e-04 5.694858e-03 -1.851409e-03 6.590480e-03 4.046154e-03 2.674138e-03 5.283214e-02
<VARIANCE> 39
 6.874832e+02 4.741986e+02 6.557180e+02 4.177477e+02 3.745054e+02 4.852114e+02 5.396664e+02 3.482227e+02 3.204327e+02 2.994957e+02 2.604046e+02 2.566821e+02 1.289734e+03 2.480004e+01 2.110152e+01 3.067817e+01 2.170751e+01 2.013511e+01 2.274540e+01 2.213662e+01 2.244185e+01 1.889192e+01 1.725035e+01 1.621412e+01 1.498248e+01 1.860693e+01 3.076528e+00 2.751640e+00 3.946827e+00 3.298465e+00 3.241308e+00 3.612288e+00 3.582597e+00 3.765956e+00 3.209122e+00 3.005589e+00 2.817878e+00 2.649089e+00 2.381461e+00
<GCONST> 2.050990e+02
<STATE> 3
<MEAN> 39
 -4.805152e+00 6.542817e-01 1.685937e+01 5.962107e+00 3.456794e+00 -9.760771e+00 -5.723799e+00 1.688538e+00 -6.309046e+00 4.557591e+00 -3.032212e+00 5.416737e+00 1.053130e+02 3.692386e-01 -1.248892e-02 1.254056e-01 1.069114e-01 2.474577e-01 -1.699100e-01 -1.110843e-01 4.687076e-02 -4.698624e-02 1.005627e-01 8.658348e-03 6.584334e-02 8.086641e-01 2.614593e-02 -2.058421e-02 -1.534223e-03 -2.049011e-02 -2.618650e-03 1.951713e-04 2.888939e-03 3.066260e-03 -3.595561e-03 3.528257e-03 6.968799e-03 2.015586e-03 4.468754e-02
<VARIANCE> 39
 7.194761e+02 5.090185e+02 6.624317e+02 4.315945e+02 3.878906e+02 5.134895e+02 5.759012e+02 3.540864e+02 3.249999e+02 3.087850e+02 2.703953e+02 2.586640e+02 1.181241e+03 2.570692e+01 2.202965e+01 3.243612e+01 2.240783e+01 2.087833e+01 2.353482e+01 2.275728e+01 2.298195e+01 1.914287e+01 1.759591e+01 1.647458e+01 1.518405e+01 1.901388e+01 3.199284e+00 2.851175e+00 4.145717e+00 3.382097e+00 3.339549e+00 3.704216e+00 3.639944e+00 3.829287e+00 3.242549e+00 3.054195e+00 2.844134e+00 2.678182e+00 2.380614e+00
<GCONST> 2.060885e+02
<STATE> 4
<MEAN> 39
 -2.700007e+00 2.268419e-01 1.783036e+01 6.234571e+00 4.406169e+00 -1.070366e+01 -6.132117e+00 1.801332e+00 -6.601959e+00 4.978419e+00 -2.883552e+00 5.814929e+00 1.103054e+02 5.628760e-01 -2.303479e-01 8.644550e-02 -7.280914e-02 1.825763e-01 -2.192593e-01 -1.340036e-01 3.812696e-02 -7.065260e-02 1.094471e-01 6.513467e-02 6.280877e-02 9.232106e-01 2.638236e-02 -3.374357e-02 -1.467302e-02 -3.392743e-02 -1.411978e-02 2.055881e-03 1.615514e-03 -1.153070e-03 -2.203789e-03 1.915548e-03 1.030708e-02 -2.015009e-03 -1.950747e-04
<VARIANCE> 39
 7.551925e+02 5.571902e+02 6.864862e+02 4.545806e+02 4.056602e+02 5.588282e+02 6.301943e+02 3.669500e+02 3.364710e+02 3.275278e+02 2.851178e+02 2.603961e+02 1.005586e+03 2.608695e+01 2.265647e+01 3.481404e+01 2.311642e+01 2.172840e+01 2.459333e+01 2.345053e+01 2.362770e+01 1.938141e+01 1.789100e+01 1.660828e+01 1.531278e+01 1.875552e+01 3.223237e+00 2.892236e+00 4.352901e+00 3.456930e+00 3.427944e+00 3.795477e+00 3.689380e+00 3.879345e+00 3.254721e+00 3.069550e+00 2.832234e+00 2.683002e+00 2.280835e+00
<GCONST> 2.070134e+02
<TRANSP> 5
 0.000000e+00 1.000000e+00 0.000000e+00 0.000000e+00 0.000000e+00
 0.000000e+00 7.187812e-01 2.812188e-01 0.000000e+00 0.000000e+00
 0.000000e+00 0.000000e+00 7.187786e-01 2.812214e-01 0.000000e+00
 0.000000e+00 0.000000e+00 0.000000e+00 8.404863e-01 1.595137e-01
 0.000000e+00 0.000000e+00 0.000000e+00 0.000000e+00 0.000000e+00
<ENDHMM>
~h "ah"
<BEGINHMM>
<NUMSTATES> 5
<STATE> 2
<MEAN> 39
 8.352013e+00 -5.673174e+00 1.621291e+01 -4.681593e+00 8.354708e-02 -1.573979e+00 -1.372434e-01 4.787134e+00 -1.368922e+00 7.879961e+00 -2.593017e+00 5.233129e+00 1.152499e+02 -9.009147e-02 7.325380e-02 2.443873e-01 4.678820e-01 7.115412e-02 9.452306e-02 2.378091e-01 -7.133903e-02 -6.247496e-03 -9.825955e-02 -1.312125e-01 5.243168e-02 -3.721709e-01 -4.877969e-02 2.033525e-02 -2.496618e-02 1.909969e-03 -1.306835e-02 -5.756838e-03 -2.923955e-03 -5.791787e-03 -7.103395e-03 -1.199914e-02 -6.434924e-04 -5.473830e-03 -5.325128e-02
<VARIANCE> 39
 5.507458e+02 3.650393e+02 4.280323e+02 6.435984e+02 3.969344e+02 4.379599e+02 5.637853e+02 4.425859e+02 4.414916e+02 4.048259e+02 3.732373e+02 3.390421e+02 7.392596e+02 2.297528e+01 1.880577e+01 2.099837e+01 2.955198e+01 2.204258e+01 2.686386e+01 3.002863e+01 2.923498e+01 2.471312e+01 2.113172e+01 2.180216e+01 1.941333e+01 2.614474e+01 3.033385e+00 2.710091e+00 2.956822e+00 4.402790e+00 3.613212e+00 4.676888e+00 5.094243e+00 5.193872e+00 4.362704e+00 3.599716e+00 3.643672e+00 3.315215e+00 3.554022e+00
<GCONST> 2.098751e+02
<STATE> 3
<MEAN> 39
 7.809611e+00 -5.299934e+00 1.696791e+01 -3.024821e+00 2.539858e-01 -1.284317e+00 6.903555e-01 4.494690e+00 -1.426692e+00 7.483536e+00 -3.055981e+00 5.407835e+00 1.137005e+02 -2.390842e-01 1.337748e-01 1.503834e-01 4.456033e-01 2.420782e-02 7.216764e-02 2.150943e-01 -8.166628e-02 -2.766795e-02 -1.334171e-01 -1.254597e-01 2.998572e-02 -5.324538e-01 -3.662432e-02 1.097018e-02 -3.283562e-02 -1.959778e-02 -1.136727e-02 -9.125277e-03 -1.580529e-02 -1.233952e-05 -5.876330e-03 -6.859103e-03 6.479598e-03 -8.853598e-03 -3.456283e-02
<VARIANCE> 39
 5.305589e+02 3.571982e+02 4.350807e+02 6.484460e+02 3.855551e+02 4.350323e+02 5.627411e+02 4.422640e+02 4.373260e+02 4.037553e+02 3.707802e+02 3.375986e+02 7.579438e+02 2.268369e+01 1.830316e+01 2.126398e+01 2.898408e+01 2.153098e+01 2.648689e+01 2.976445e+01 2.925040e+01 2.433100e+01 2.084081e+01 2.160337e+01 1.926203e+01 2.540966e+01 2.979216e+00 2.659785e+00 2.966894e+00 4.334435e+00 3.553677e+00 4.591559e+00 5.029819e+00 5.187146e+00 4.291647e+00 3.555723e+00 3.616803e+00 3.285669e+00 3.481477e+00
<GCONST> 2.094721e+02
<STATE> 4
<MEAN> 39
 6.643482e+00 -4.651430e+00 1.734176e+01 -1.580196e+00 2.089186e-01 -9.612015e-01 1.494557e+00 4.227410e+00 -1.527192e+00 6.816115e+00 -3.440349e+00 5.532033e+00 1.114376e+02 -3.538261e-01 1.540598e-01 1.301284e-02 3.340376e-01 -1.740698e-02 3.040651e-02 1.351462e-01 -7.099885e-02 -4.621277e-02 -1.475803e-01 -8.935443e-02 -6.583150e-03 -6.407827e-01 -1.906460e-02 -1.201434e-03 -3.444772e-02 -3.530492e-02 -5.947932e-03 -1.164555e-02 -2.631473e-02 4.594297e-03 -4.152362e-03 8.576679e-04 1.237927e-02 -1.002673e-02 -1.256932e-02
<VARIANCE> 39
 5.226936e+02 3.503772e+02 4.526458e+02 6.472145e+02 3.756664e+02 4.305207e+02 5.541735e+02 4.395566e+02 4.292961e+02 3.981833e+02 3.609857e+02 3.307565e+02 8.081886e+02 2.236111e+01 1.749947e+01 2.147771e+01 2.770403e+01 2.069145e+01 2.552507e+01 2.875505e+01 2.858385e+01 2.348931e+01 2.024317e+01 2.093351e+01 1.876598e+01 2.469786e+01 2.918868e+00 2.565664e+00 2.954497e+00 4.159512e+00 3.428457e+00 4.392208e+00 4.826449e+00 5.038716e+00 4.126534e+00 3.459200e+00 3.520772e+00 3.199312e+00 3.397788e+00
<GCONST> 2.086262e+02
<TRANSP> 5
 0.000000e+00 1.000000e+00 0.000000e+00 0.000000e+00 0.000000e+00
 0.000000e+00 7.120147e-01 2.879854e-01 0.000000e+00 0.000000e+00
 0.000000e+00 0.000000e+00 7.120121e-01 2.879879e-01 0.000000e+00
 0.000000e+00 0.000000e+00 0.000000e+00 8.327262e-01 1.672738e-01
 0.000000e+00 0.000000e+00 0.000000e+00 0.000000e+00 0.000000e+00
<ENDHMM>
~h "ao"
<BEGINHMM>
<NUMSTATES> 5
<STATE> 2
<MEAN> 39
 8.138465e+00 -3.092176e+00 3.371014e+00 -1.459461e+01 -4.804383e+00 -4.470169e+00 -4.216625e+00 5.547152e+00 -8.361296e+00 6.561841e+00 -2.850201e+00 4.423085e+00 1.072758e+02 5.031617e-01 -4.430518e-02 -1.444486e-01 -3.719824e-02 1.705767e-01 -1.014472e-01 2.312391e-02 1.970734e-01 3.610802e-02 4.934938e-02 4.360491e-02 5.135954e-02 4.000570e-01 -3.770750e-02 -2.501329e-03 1.051378e-02 3.596609e-02 1.137796e-02 5.955528e-04 2.639633e-03 -4.796699e-03 1.127522e-02 -5.391077e-03 2.158974e-03 -5.160434e-03 -4.528520e-02
<VARIANCE> 39
 9.588734e+02 3.388764e+02 4.334997e+02 7.206481e+02 5.497017e+02 3.757849e+02 4.668439e+02 3.880084e+02 3.867845e+02 3.293496e+02 2.703935e+02 2.749670e+02 7.175704e+02 3.662814e+01 1.944877e+01 2.077184e+01 3.028662e+01 2.467943e+01 2.016744e+01 2.313550e+01 2.175309e+01 2.176216e+01 2.006336e+01 1.836860e+01 1.883256e+01 2.195896e+01 4.514317e+00 2.893185e+00 2.828693e+00 4.083837e+00 3.423279e+00 3.350908e+00 3.841373e+00 3.689197e+00 3.641847e+00 3.432920e+00 3.197205e+00 3.229412e+00 2.841359e+00
<GCONST> 2.073843e+02
<STATE> 3
<MEAN> 39
 9.918283e+00 -3.304370e+00 2.802573e+00 -1.446831e+01 -4.014066e+00 -4.893423e+00 -4.138764e+00 6.284283e+00 -8.148050e+00 6.733107e+00 -2.614418e+00 4.603285e+00 1.084884e+02 3.031111e-01 -7.197540e-02 -1.117370e-01 1.351563e-01 2.280817e-01 -9.045542e-02 2.871209e-02 1.678904e-01 8.458596e-02 2.363053e-02 4.941726e-02 3.003598e-02 1.908601e-01 -5.350544e-02 -5.954946e-04 1.447774e-02 3.553471e-02 5.306771e-03 4.143789e-03 1.247780e-03 -1.113207e-02 8.793451e-03 -7.051799e-03 1.368580e-04 -6.458624e-03 -5.439847e-02
<VARIANCE> 39
 9.230050e+02 3.460759e+02 4.525359e+02 7.320852e+02 5.833781e+02 3.975981e+02 4.947471e+02 4.018784e+02 4.041032e+02 3.437183e+02 2.802795e+02 2.833847e+02 6.858842e+02 3.591359e+01 1.948210e+01 2.143374e+01 3.021170e+01 2.547884e+01 2.099909e+01 2.386190e+01 2.221040e+01 2.237381e+01 2.068941e+01 1.886273e+01 1.930122e+01 2.157262e+01 4.336718e+00 2.871439e+00 2.912827e+00 4.029857e+00 3.483963e+00 3.463578e+00 3.944477e+00 3.735578e+00 3.723162e+00 3.521273e+00 3.270405e+00 3.300131e+00 2.748754e+00
<GCONST> 2.080858e+02
<STATE> 4
<MEAN> 39
 1.149226e+01 -3.707930e+00 2.015235e+00 -1.382733e+01 -2.773903e+00 -5.436659e+00 -4.018925e+00 7.028208e+00 -7.539359e+00 6.956878e+00 -2.221598e+00 4.756545e+00 1.094334e+02 -3.770820e-02 -1.219011e-01 -6.666945e-02 3.760179e-01 2.956144e-01 -5.450367e-02 3.213468e-02 1.009018e-01 1.490927e-01 -1.886244e-02 4.324515e-02 1.960970e-03 -1.207274e-01 -6.302662e-02 3.880231e-03 2.013415e-02 2.592066e-02 -5.137460e-03 9.389990e-03 6.308694e-04 -1.706937e-02 5.705234e-03 -7.860656e-03 -3.726705e-03 -6.416943e-03 -5.359368e-02
<VARIANCE> 39
 8.693532e+02 3.549128e+02 4.859613e+02 7.419850e+02 6.149652e+02 4.279642e+02 5.294200e+02 4.142333e+02 4.254443e+02 3.610990e+02 2.926566e+02 2.932196e+02 6.948344e+02 3.349560e+01 1.899285e+01 2.198612e+01 2.907442e+01 2.599586e+01 2.198256e+01 2.450489e+01 2.255400e+01 2.287767e+01 2.122933e+01 1.926992e+01 1.967132e+01 2.140273e+01 3.967149e+00 2.760239e+00 2.960972e+00 3.857124e+00 3.496785e+00 3.586097e+00 4.027639e+00 3.754793e+00 3.790248e+00 3.592420e+00 3.321665e+00 3.344057e+00 2.700822e+00
<GCONST> 2.085888e+02
<TRANSP> 5
 0.000000e+00 1.000000e+00 0.000000e+00 0.000000e+00 0.000000e+00
 0.000000e+00 7.318334e-01 2.681665e-01 0.000000e+00 0.000000e+00
 0.000000e+00 0.000000e+00 7.318339e-01 2.681661e-01 0.000000e+00
 0.000000e+00 0.000000e+00 0.000000e+00 8.564146e-01 1.435854e-01
 0.000000e+00 0.000000e+00 0.000000e+00 0.000000e+00 0.000000e+00
<ENDHMM>
~h "ay"
<BEGINHMM>
<NUMSTATES> 5
<STATE> 2
<MEAN> 39
 4.915594e+00 -1.702369e+01 1.038677e+01 -7.081958e+00 1.878124e+00 8.452421e-01 -3.944437e-01 7.050721e+00 1.329472e+00 7.569247e+00 -2.422374e+00 2.375818e+00 1.182521e+02 1.377545e-01 -9.376491e-02 1.267510e-01 7.822668e-03 -8.993577e-03 -3.595203e-02 1.202658e-01 1.285355e-01 3.496652e-02 2.838326e-02 -4.547793e-02 2.293419e-02 3.558554e-01 -3.035737e-02 2.925675e-02 -3.763152e-03 1.409218e-02 -8.654488e-03 -1.118956e-02 -2.331531e-03 -8.699039e-03 -1.119178e-02 -9.605946e-03 -1.339192e-04 2.039114e-03 -6.729056e-02
<VARIANCE> 39
 4.754932e+02 4.323170e+02 4.657694e+02 5.287851e+02 3.952242e+02 3.761525e+02 4.496567e+02 4.374533e+02 4.009037e+02 3.409761e+02 3.323100e+02 3.221089e+02 1.047819e+03 2.240940e+01 1.632104e+01 1.775178e+01 2.449765e+01 1.802923e+01 2.032680e+01 2.256951e+01 2.332275e+01 1.966770e+01 1.665088e+01 1.672137e+01 1.490472e+01 2.750875e+01 3.278705e+00 2.219881e+00 2.381895e+00 3.736274e+00 2.829264e+00 3.373368e+00 3.671870e+00 3.907718e+00 3.285294e+00 2.832543e+00 2.855808e+00 2.491296e+00 3.048043e+00
<GCONST> 2.039539e+02
<STATE> 3
<MEAN> 39
 5.174446e+00 -1.709272e+01 1.093461e+01 -6.871508e+00 1.712220e+00 5.629764e-01 9.325434e-02 7.459622e+00 1.356599e+00 7.601480e+00 -2.597802e+00 2.501312e+00 1.189558e+02 5.243657e-04 5.135776e-02 1.252990e-01 8.942416e-02 -5.190437e-02 -7.608469e-02 1.216802e-01 7.580625e-02 -1.762935e-02 -7.235546e-03 -5.105279e-02 3.526410e-02 4.315344e-02 -3.310178e-02 3.482104e-02 -4.806279e-03 1.647177e-02 -8.238989e-03 -8.972934e-03 -3.659187e-03 -1.249936e-02 -1.235721e-02 -9.522271e-03 2.173789e-04 1.328661e-03 -7.676174e-02
<VARIANCE> 39
 4.609466e+02 4.358109e+02 4.681292e+02 5.354429e+02 3.963949e+02 3.791129e+02 4.588907e+02 4.397333e+02 4.015293e+02 3.419217e+02 3.327400e+02 3.245562e+02 9.978380e+02 2.201451e+01 1.633061e+01 1.790125e+01 2.464289e+01 1.826676e+01 2.052679e+01 2.264359e+01 2.341726e+01 1.969672e+01 1.668490e+01 1.669050e+01 1.500228e+01 2.665792e+01 3.195509e+00 2.195370e+00 2.399898e+00 3.763873e+00 2.871071e+00 3.404634e+00 3.668826e+00 3.903182e+00 3.281804e+00 2.836205e+00 2.846298e+00 2.509374e+00 2.969494e+00
<GCONST> 2.039312e+02
<STATE> 4
<MEAN> 39
 4.874789e+00 -1.636535e+01 1.173878e+01 -6.312234e+00 1.210683e+00 8.595672e-02 9.222300e-01 7.631727e+00 1.153422e+00 7.419903e+00 -2.900142e+00 2.822514e+00 1.184998e+02 -1.879149e-01 2.744148e-01 1.249082e-01 2.180004e-01 -1.107935e-01 -1.174090e-01 1.227829e-01 -2.196314e-02 -9.111709e-02 -4.969189e-02 -6.227781e-02 5.456160e-02 -4.203093e-01 -2.692502e-02 3.063199e-02 -9.758935e-03 1.148792e-02 -3.300418e-03 -2.923848e-03 -7.538125e-03 -1.379598e-02 -9.693723e-03 -7.364394e-03 1.253034e-03 -3.544748e-04 -6.593936e-02
<VARIANCE> 39
 4.503524e+02 4.381029e+02 4.758018e+02 5.414661e+02 3.953070e+02 3.823842e+02 4.682100e+02 4.410082e+02 4.006737e+02 3.419370e+02 3.292811e+02 3.224859e+02 9.821505e+02 2.112823e+01 1.598358e+01 1.811207e+01 2.447658e+01 1.843545e+01 2.068474e+01 2.256647e+01 2.339678e+01 1.961014e+01 1.677440e+01 1.661635e+01 1.509150e+01 2.506946e+01 3.033453e+00 2.153745e+00 2.424700e+00 3.767280e+00 2.911383e+00 3.436011e+00 3.643632e+00 3.874483e+00 3.268923e+00 2.854717e+00 2.833483e+00 2.535806e+00 2.900907e+00
<GCONST> 2.037646e+02
<TRANSP> 5
 0.000000e+00 1.000000e+00 0.000000e+00 0.000000e+00 0.000000e+00
 0.000000e+00 7.332893e-01 2.667107e-01 0.000000e+00 0.000000e+00
 0.000000e+00 0.000000e+00 7.332854e-01 2.667145e-01 0.000000e+00
 0.000000e+00 0.000000e+00 0.000000e+00 8.586739e-01 1.413261e-01
 0.000000e+00 0.000000e+00 0.000000e+00 0.000000e+00 0.000000e+00
<ENDHMM>
~h "eh"
<BEGINHMM>
<NUMSTATES> 5
<STATE> 2
<MEAN> 39
 -1.306593e+01 -3.955701e+00 7.217999e+00 -2.969320e+00 -3.224425e+00 -8.170876e+00 -4.301088e+00 1.936412e+00 -2.172516e+00 6.747724e+00 -3.029890e+00 5.519778e+00 1.106864e+02 3.953176e-01 -2.026227e-01 1.466371e-01 -7.772666e-02 7.153062e-03 -8.303047e-02 -2.409358e-02 5.442240e-02 2.082202e-01 1.696790e-01 -1.579253e-02 5.182550e-02 8.680503e-01 6.906386e-02 -1.621851e-02 3.595435e-02 6.549694e-03 7.011527e-03 7.726218e-03 4.536135e-03 3.176263e-03 3.939369e-03 3.351628e-03 3.282423e-03 -3.151629e-03 -1.102501e-02
<VARIANCE> 39
 9.624601e+02 3.221469e+02 4.953842e+02 3.783769e+02 3.117102e+02 3.631454e+02 4.325192e+02 3.020862e+02 3.735156e+02 3.202989e+02 2.751644e+02 2.691472e+02 9.749594e+02 4.223827e+01 1.840809e+01 2.509933e+01 2.304687e+01 1.824612e+01 2.389089e+01 2.579677e+01 2.145197e+01 2.249295e+01 1.903523e+01 1.810594e+01 1.685352e+01 2.891752e+01 5.497663e+00 2.854908e+00 3.645573e+00 3.874640e+00 3.199595e+00 4.245869e+00 4.469956e+00 3.954759e+00 3.941592e+00 3.306732e+00 3.141123e+00 3.000180e+00 4.116527e+00
<GCONST> 2.073305e+02
<STATE> 3
<MEAN> 39
 -1.120227e+01 -4.793618e+00 7.992525e+00 -3.217331e+00 -3.166442e+00 -8.431702e+00 -4.367632e+00 2.155339e+00 -1.386693e+00 7.351119e+00 -3.056893e+00 5.683468e+00 1.135910e+02 6.368903e-01 -2.526053e-01 2.767619e-01 -5.199895e-02 3.647380e-02 -4.744756e-02 -5.125483e-03 5.713884e-02 2.144705e-01 1.808220e-01 -4.864908e-03 3.792238e-02 7.766746e-01 6.135594e-02 -8.884146e-03 3.604697e-02 1.164809e-02 8.770183e-03 1.307183e-02 8.510093e-03 4.988096e-04 -1.770651e-03 1.912170e-04 1.738308e-03 -3.616073e-03 -3.562111e-02
<VARIANCE> 39
 9.758970e+02 3.307647e+02 4.839670e+02 3.819807e+02 3.143329e+02 3.695052e+02 4.567407e+02 3.064196e+02 3.836205e+02 3.355224e+02 2.874956e+02 2.819169e+02 8.872545e+02 4.197032e+01 1.878475e+01 2.458862e+01 2.378142e+01 1.839046e+01 2.454634e+01 2.676606e+01 2.190747e+01 2.302564e+01 1.936603e+01 1.847657e+01 1.718266e+01 2.931405e+01 5.520908e+00 2.903646e+00 3.620039e+00 4.010170e+00 3.220715e+00 4.383811e+00 4.626676e+00 4.044619e+00 4.032765e+00 3.336261e+00 3.170216e+00 3.042619e+00 4.184514e+00
<GCONST> 2.079473e+02
<STATE> 4
<MEAN> 39
 -7.629944e+00 -6.081529e+00 9.643038e+00 -3.425303e+00 -3.032321e+00 -8.356383e+00 -4.224205e+00 2.539006e+00 -3.433948e-01 8.045930e+00 -3.024198e+00 5.868035e+00 1.168109e+02 8.323967e-01 -2.590644e-01 4.062893e-01 3.532290e-03 8.498157e-02 2.335834e-02 4.065896e-02 4.646841e-02 1.828098e-01 1.703594e-01 -4.635255e-03 1.924541e-02 5.448965e-01 2.530935e-02 7.948894e-03 2.196751e-02 1.766557e-02 9.606237e-03 1.853260e-02 1.393427e-02 -2.984722e-03 -1.177611e-02 -6.463089e-03 -1.537429e-03 -3.033601e-03 -5.792448e-02
<VARIANCE> 39
 9.415380e+02 3.385305e+02 4.673312e+02 3.943952e+02 3.169075e+02 3.805313e+02 4.939556e+02 3.185241e+02 3.978293e+02 3.572893e+02 3.055974e+02 2.997899e+02 8.097759e+02 3.970195e+01 1.911094e+01 2.352169e+01 2.501638e+01 1.872130e+01 2.551611e+01 2.793489e+01 2.287103e+01 2.370112e+01 1.978049e+01 1.900467e+01 1.757650e+01 3.008840e+01 5.315459e+00 2.953110e+00 3.521904e+00 4.232300e+00 3.268663e+00 4.594503e+00 4.814485e+00 4.216405e+00 4.148397e+00 3.371430e+00 3.215509e+00 3.094231e+00 4.333697e+00
<GCONST> 2.087073e+02
<TRANSP> 5
 0.000000e+00 1.000000e+00 0.000000e+00 0.000000e+00 0.000000e+00
 0.000000e+00 7.086100e-01 2.913900e-01 0.000000e+00 0.000000e+00
 0.000000e+00 0.000000e+00 7.086053e-01 2.913947e-01 0.000000e+00
 0.000000e+00 0.000000e+00 0.000000e+00 8.284209e-01 1.715791e-01
 0.000000e+00 0.000000e+00 0.000000e+00 0.000000e+00 0.000000e+00
<ENDHMM>
~h "ey"
<BEGINHMM>
<NUMSTATES> 5
<STATE> 2
<MEAN> 39
 -7.888514e+00 -4.481870e+00 2.478611e+01 -7.666512e+00 -9.410139e+00 -8.094575e+00 -2.705626e+00 -2.265360e+00 -5.948577e+00 5.716269e+00 -2.390223e+00 5.486074e+00 9.953253e+01 -3.000937e-02 2.546080e-02 4.070298e-01 -5.732561e-02 -9.323009e-02 -6.046405e-03 6.329359e-02 -8.688617e-02 -4.459406e-02 2.136880e-02 -4.850970e-02 3.075077e-02 3.436058e-01 1.595574e-02 -7.033874e-03 2.477854e-03 4.907278e-04 5.833473e-03 3.623359e-03 3.230893e-03 6.145284e-03 -9.442426e-04 -2.205226e-03 -2.019821e-03 -3.789022e-04 2.845782e-02
<VARIANCE> 39
 4.229095e+02 2.975690e+02 9.123058e+02 4.918378e+02 3.203706e+02 3.469281e+02 4.046704e+02 3.926976e+02 4.452101e+02 2.977470e+02 2.465237e+02 2.365767e+02 1.591086e+03 1.520617e+01 1.506598e+01 3.065152e+01 2.242145e+01 1.848702e+01 1.959893e+01 2.193206e+01 2.268840e+01 2.192341e+01 1.788296e+01 1.670321e+01 1.599682e+01 5.553824e+01 2.291594e+00 2.432719e+00 4.025523e+00 3.724844e+00 3.129426e+00 3.352169e+00 3.794915e+00 3.942666e+00 3.762441e+00 3.184577e+00 3.018190e+00 2.840715e+00 7.514479e+00
<GCONST> 2.059461e+02
<STATE> 3
<MEAN> 39
 -7.809339e+00 -4.400702e+00 2.667084e+01 -7.920404e+00 -9.722263e+00 -8.064954e+00 -2.439911e+00 -2.600652e+00 -6.173384e+00 5.742850e+00 -2.620471e+00 5.617770e+00 1.013589e+02 1.084680e-02 2.588972e-02 3.657546e-01 -2.506495e-02 -4.627355e-02 2.364071e-02 7.114622e-02 -6.340547e-02 -4.476998e-02 -1.994889e-04 -5.596145e-02 2.128484e-02 3.585523e-01 1.283028e-02 -5.158837e-04 -1.037587e-02 7.612795e-03 1.190646e-02 7.988825e-03 1.024400e-03 6.555724e-03 1.048422e-03 -4.319794e-03 -1.878701e-03 -2.735516e-03 5.309275e-03
<VARIANCE> 39
 4.088912e+02 3.022370e+02 9.331817e+02 5.066375e+02 3.242022e+02 3.479804e+02 4.034492e+02 3.987690e+02 4.556326e+02 2.997468e+02 2.498110e+02 2.402501e+02 1.536767e+03 1.585646e+01 1.569081e+01 3.312229e+01 2.324392e+01 1.882187e+01 1.975356e+01 2.211668e+01 2.298813e+01 2.240199e+01 1.809917e+01 1.694663e+01 1.627280e+01 6.007011e+01 2.396173e+00 2.530176e+00 4.298661e+00 3.857860e+00 3.181141e+00 3.367639e+00 3.818924e+00 3.980287e+00 3.817883e+00 3.211884e+00 3.049662e+00 2.880538e+00 8.017430e+00
<GCONST> 2.067518e+02
<STATE> 4
<MEAN> 39
 -7.839393e+00 -3.659557e+00 2.894314e+01 -8.244702e+00 -9.686028e+00 -7.368732e+00 -2.217907e+00 -3.251755e+00 -6.265462e+00 5.428403e+00 -2.955411e+00 5.691631e+00 1.033971e+02 -2.405643e-02 8.628523e-02 7.258154e-02 1.147628e-01 8.900130e-02 8.933433e-02 6.912608e-02 -1.769429e-02 -2.286119e-02 -6.194728e-02 -5.469714e-02 -1.454923e-02 4.504055e-02 -5.497465e-04 5.396280e-03 -4.734456e-02 1.849254e-02 1.820702e-02 9.945861e-03 -1.344627e-03 9.503604e-03 6.605444e-03 -5.466613e-03 1.218015e-03 -5.623607e-03 -4.391513e-02
<VARIANCE> 39
 3.901655e+02 3.091622e+02 9.690640e+02 5.249677e+02 3.293128e+02 3.469728e+02 3.947031e+02 4.073578e+02 4.663286e+02 3.042886e+02 2.562910e+02 2.450442e+02 1.456480e+03 1.626440e+01 1.612945e+01 3.589398e+01 2.399417e+01 1.895077e+01 1.959760e+01 2.203391e+01 2.322858e+01 2.285099e+01 1.837706e+01 1.730553e+01 1.654420e+01 6.337180e+01 2.470443e+00 2.601898e+00 4.610738e+00 3.989408e+00 3.203622e+00 3.329194e+00 3.800958e+00 4.004660e+00 3.882170e+00 3.247488e+00 3.088735e+00 2.915979e+00 8.392410e+00
<GCONST> 2.073971e+02
<TRANSP> 5
 0.000000e+00 1.000000e+00 0.000000e+00 0.000000e+00 0.000000e+00
 0.000000e+00 7.410942e-01 2.589059e-01 0.000000e+00 0.000000e+00
 0.000000e+00 0.000000e+00 7.410927e-01 2.589073e-01 0.000000e+00
 0.000000e+00 0.000000e+00 0.000000e+00 8.690500e-01 1.309500e-01
 0.000000e+00 0.000000e+00 0.000000e+00 0.000000e+00 0.000000e+00
<ENDHMM>
~h "hh"
<BEGINHMM>
<NUMSTATES> 5
<STATE> 2
<MEAN> 39
 5.856258e+00 -1.234197e+00 1.052096e+01 -9.868594e+00 -2.161380e+00 -1.685669e-01 -1.801154e+00 3.560883e+00 -4.971097e+00 6.200814e+00 -7.981417e-01 3.296510e+00 1.003642e+02 6.171318e-01 1.837120e-01 1.734977e-01 -2.869276e-01 -4.882857e-03 2.493338e-01 1.540112e-01 1.829257e-01 8.176918e-03 8.179110e-02 3.750899e-02 -2.049433e-02 5.153156e-01 1.798952e-02 -1.403440e-02 1.422356e-02 3.050794e-03 6.556943e-03 -4.428166e-03 -3.799991e-03 1.196692e-02 7.780812e-03 1.890830e-03 -2.464567e-03 3.304417e-03 4.930115e-02
<VARIANCE> 39
 6.847435e+02 3.704471e+02 4.673018e+02 5.582436e+02 4.076596e+02 3.830727e+02 4.458470e+02 4.124236e+02 4.084805e+02 3.386335e+02 2.988954e+02 2.786680e+02 1.304327e+03 1.728848e+01 1.737057e+01 1.983093e+01 2.508947e+01 2.215913e+01 2.295270e+01 2.414614e+01 2.390813e+01 2.171792e+01 1.924975e+01 1.884072e+01 1.679994e+01 2.371091e+01 2.347062e+00 2.512147e+00 2.767336e+00 3.710035e+00 3.574540e+00 4.015353e+00 4.230442e+00 4.254703e+00 3.867097e+00 3.450216e+00 3.345964e+00 2.971599e+00 3.080021e+00
<GCONST> 2.061481e+02
<STATE> 3
<MEAN> 39
 8.278427e+00 -7.639208e-01 1.120203e+01 -1.098720e+01 -2.111905e+00 6.683004e-01 -1.334907e+00 4.342179e+00 -4.891109e+00 6.509621e+00 -6.552637e-01 3.247407e+00 1.027402e+02 6.515992e-01 9.624648e-02 1.984046e-01 -2.874699e-01 2.959448e-02 2.257533e-01 1.270076e-01 2.202427e-01 3.962499e-02 8.516812e-02 3.626893e-02 -4.128510e-03 6.875374e-01 3.256985e-03 -2.735689e-02 8.210984e-03 5.512712e-03 1.061342e-02 -9.336694e-03 -7.919803e-03 6.988130e-03 8.996357e-03 7.606122e-04 -2.081353e-03 6.329773e-03 4.499098e-02
<VARIANCE> 39
 6.532751e+02 3.883491e+02 4.540673e+02 5.897880e+02 4.344759e+02 3.884575e+02 4.602389e+02 4.274820e+02 4.166046e+02 3.476266e+02 3.126017e+02 2.876233e+02 1.210620e+03 1.809742e+01 1.841321e+01 2.030067e+01 2.700098e+01 2.344769e+01 2.385470e+01 2.512487e+01 2.502634e+01 2.239787e+01 1.987749e+01 1.958140e+01 1.743800e+01 2.439793e+01 2.430362e+00 2.605052e+00 2.826296e+00 3.882265e+00 3.750029e+00 4.168794e+00 4.385603e+00 4.451884e+00 3.986135e+00 3.540807e+00 3.455689e+00 3.064714e+00 3.050316e+00
<GCONST> 2.073304e+02
<STATE> 4
<MEAN> 39
 1.132726e+01 -7.872726e-01 1.200310e+01 -1.268233e+01 -1.763875e+00 1.660301e+00 -9.584436e-01 5.559128e+00 -4.510900e+00 6.891757e+00 -4.178772e-01 3.324190e+00 1.069140e+02 5.308366e-01 -8.839892e-02 1.746578e-01 -2.235021e-01 1.016041e-01 1.662555e-01 8.090520e-02 2.331721e-01 7.322444e-02 5.895175e-02 3.530900e-02 2.065404e-02 7.756842e-01 -3.456184e-02 -3.243747e-02 -2.584403e-04 2.663390e-02 1.323377e-02 -1.344382e-02 -5.900166e-03 -4.915277e-03 6.716278e-03 -4.980269e-03 -4.928618e-03 6.881992e-03 2.839113e-03
<VARIANCE> 39
 5.901334e+02 4.159817e+02 4.440332e+02 6.407963e+02 4.757661e+02 3.989470e+02 4.877572e+02 4.491244e+02 4.291080e+02 3.638383e+02 3.320961e+02 3.017479e+02 1.076506e+03 1.822081e+01 1.945107e+01 2.067767e+01 2.930581e+01 2.482288e+01 2.484679e+01 2.632112e+01 2.662730e+01 2.317880e+01 2.061115e+01 2.053121e+01 1.830477e+01 2.486106e+01 2.407726e+00 2.647496e+00 2.845114e+00 4.027535e+00 3.893098e+00 4.311298e+00 4.555680e+00 4.707054e+00 4.109219e+00 3.629803e+00 3.580765e+00 3.185156e+00 2.957836e+00
<GCONST> 2.085161e+02
<TRANSP> 5
 0.000000e+00 1.000000e+00 0.000000e+00 0.000000e+00 0.000000e+00
 0.000000e+00 7.153316e-01 2.846684e-01 0.000000e+00 0.000000e+00
 0.000000e+00 0.000000e+00 7.153274e-01 2.846726e-01 0.000000e+00
 0.000000e+00 0.000000e+00 0.000000e+00 8.368458e-01 1.631542e-01
 0.000000e+00 0.000000e+00 0.000000e+00 0.000000e+00 0.000000e+00
<ENDHMM>
~h "ih"
<BEGINHMM>
<NUMSTATES> 5
<STATE> 2
<MEAN> 39
 -2.281806e+01 -1.204282e+00 7.133430e+00 2.003663e+00 -5.828910e+00 -1.196769e+01 -4.654505e+00 2.725167e-01 -6.630651e+00 3.681976e+00 -3.263065e+00 6.216323e+00 1.035990e+02 -2.067310e-01 -2.526278e-02 -5.584341e-02 8.844157e-02 -1.935721e-02 -1.362034e-01 -3.122107e-02 3.454685e-02 -1.492139e-02 -8.100776e-03 -3.759853e-02 2.521903e-02 2.953300e-01 3.165118e-02 -7.733839e-03 9.889038e-03 -3.369287e-03 6.079820e-03 8.895408e-03 3.680393e-03 4.387109e-03 4.621119e-03 5.058634e-04 2.651427e-03 -4.774848e-03 -1.902581e-02
<VARIANCE> 39
 7.929647e+02 2.621629e+02 6.573384e+02 3.455423e+02 3.384961e+02 3.882817e+02 3.760304e+02 3.121223e+02 2.988925e+02 2.304707e+02 2.150353e+02 2.150824e+02 9.737346e+02 4.217108e+01 2.148337e+01 3.545518e+01 2.243884e+01 1.858013e+01 2.564858e+01 2.701396e+01 2.324326e+01 2.286545e+01 1.858557e+01 1.644081e+01 1.632511e+01 5.181036e+01 5.748399e+00 3.950451e+00 4.658005e+00 3.925456e+00 3.345276e+00 4.545464e+00 4.786787e+00 4.251852e+00 4.106154e+00 3.480265e+00 3.040906e+00 2.990398e+00 7.766505e+00
<GCONST> 2.088475e+02
<STATE> 3
<MEAN> 39
 -2.324106e+01 -1.386551e+00 7.082328e+00 2.331591e+00 -5.868177e+00 -1.244802e+01 -4.748087e+00 4.086660e-01 -6.649014e+00 3.658437e+00 -3.359485e+00 6.277080e+00 1.043865e+02 -1.024644e-01 -4.813294e-02 -3.723888e-02 7.340877e-02 8.920019e-03 -9.301943e-02 -1.641290e-02 4.928926e-02 3.203417e-03 -6.753595e-03 -2.771587e-02 3.611643e-03 1.790722e-01 3.590561e-02 -7.170192e-03 8.591858e-03 -4.686601e-03 7.113442e-03 1.243027e-02 4.797364e-03 3.690558e-03 5.056807e-03 6.627582e-04 2.901827e-03 -5.838070e-03 -3.127068e-02
<VARIANCE> 39
 7.938502e+02 2.636169e+02 6.655048e+02 3.475229e+02 3.440943e+02 3.884984e+02 3.792750e+02 3.175240e+02 3.017120e+02 2.297702e+02 2.152195e+02 2.149871e+02 9.369606e+02 4.292245e+01 2.230145e+01 3.625217e+01 2.280043e+01 1.881863e+01 2.624483e+01 2.771297e+01 2.382711e+01 2.349727e+01 1.884069e+01 1.658367e+01 1.651294e+01 5.514312e+01 5.879207e+00 4.147401e+00 4.768170e+00 4.012062e+00 3.396894e+00 4.670928e+00 4.931771e+00 4.363601e+00 4.226954e+00 3.543532e+00 3.073694e+00 3.032173e+00 8.379999e+00
<GCONST> 2.095482e+02
<STATE> 4
<MEAN> 39
 -2.306426e+01 -1.803860e+00 7.114912e+00 2.562525e+00 -6.016952e+00 -1.279139e+01 -4.817463e+00 5.540774e-01 -6.463175e+00 3.726997e+00 -3.337936e+00 6.315237e+00 1.047419e+02 -1.935245e-02 -6.212742e-02 -7.959810e-02 4.234163e-02 5.914217e-02 -9.652088e-03 2.966131e-03 7.269517e-02 3.228178e-02 -2.831369e-03 -2.027122e-02 -3.091834e-02 -3.721377e-02 2.553006e-02 -3.043836e-03 -2.238147e-03 -7.645877e-03 8.164354e-03 1.694384e-02 4.989360e-03 4.158174e-03 5.482705e-03 1.017316e-03 1.205246e-03 -5.966197e-03 -3.156441e-02
<VARIANCE> 39
 7.864630e+02 2.650331e+02 6.693770e+02 3.536444e+02 3.520914e+02 3.903592e+02 3.842046e+02 3.248683e+02 3.064183e+02 2.314473e+02 2.165377e+02 2.145000e+02 9.330707e+02 4.252647e+01 2.298272e+01 3.613848e+01 2.314828e+01 1.914044e+01 2.665488e+01 2.826074e+01 2.430404e+01 2.404254e+01 1.909204e+01 1.667972e+01 1.657744e+01 5.953235e+01 5.899059e+00 4.312004e+00 4.780481e+00 4.096130e+00 3.450984e+00 4.757202e+00 5.048340e+00 4.453164e+00 4.328152e+00 3.599234e+00 3.098978e+00 3.050843e+00 9.120917e+00
<GCONST> 2.101623e+02
<TRANSP> 5
 0.000000e+00 1.000000e+00 0.000000e+00 0.000000e+00 0.000000e+00
 0.000000e+00 7.257103e-01 2.742897e-01 0.000000e+00 0.000000e+00
 0.000000e+00 0.000000e+00 7.257147e-01 2.742854e-01 0.000000e+00
 0.000000e+00 0.000000e+00 0.000000e+00 8.498287e-01 1.501714e-01
 0.000000e+00 0.000000e+00 0.000000e+00 0.000000e+00 0.000000e+00
<ENDHMM>
~h "iy"
<BEGINHMM>
<NUMSTATES> 5
<STATE> 2
<MEAN> 39
 -5.599833e-01 -2.985953e+00 2.330301e+01 2.719121e+00 1.661884e+00 -8.652391e+00 -4.979971e+00 5.664620e-01 -7.922232e+00 4.827089e+00 -3.468482e+00 5.356592e+00 1.110728e+02 2.148313e-01 -1.024816e-01 -1.788691e-01 -1.656142e-01 2.714212e-02 3.689985e-02 5.426201e-02 7.201858e-02 2.956715e-02 6.665881e-02 6.633818e-02 -9.316996e-03 1.638509e-01 2.509233e-03 -1.284209e-02 -3.667304e-02 -1.115698e-02 -6.035022e-03 -2.041802e-03 -3.347803e-03 2.408671e-03 3.830079e-03 -1.982076e-04 9.291255e-03 -2.179978e-03 -3.080574e-02
<VARIANCE> 39
 6.719529e+02 4.694961e+02 8.675862e+02 4.742839e+02 4.144568e+02 6.077563e+02 6.399880e+02 4.212216e+02 4.016259e+02 3.424546e+02 2.789401e+02 2.596926e+02 8.933240e+02 2.598385e+01 1.970228e+01 3.760348e+01 2.345971e+01 2.379170e+01 2.854124e+01 2.748713e+01 2.564683e+01 2.216846e+01 1.886515e+01 1.683619e+01 1.539183e+01 2.177481e+01 3.162754e+00 2.644740e+00 4.538492e+00 3.721358e+00 3.795507e+00 4.391827e+00 4.338023e+00 4.246511e+00 3.712400e+00 3.241192e+00 2.930772e+00 2.713546e+00 2.703253e+00
<GCONST> 2.090319e+02
<STATE> 3
<MEAN> 39
 2.699248e-01 -3.503346e+00 2.231144e+01 1.991476e+00 1.705755e+00 -8.508578e+00 -4.798018e+00 8.549537e-01 -7.745676e+00 5.082416e+00 -3.163899e+00 5.284210e+00 1.113262e+02 2.261762e-01 -1.474777e-01 -3.249848e-01 -1.952604e-01 1.416215e-02 2.590522e-02 3.795075e-02 8.357658e-02 4.656870e-02 6.828713e-02 9.975585e-02 -1.810296e-02 3.393453e-02 -8.096098e-04 -7.422283e-03 -2.627299e-02 -7.299901e-03 -4.646034e-03 2.068889e-04 -2.598961e-03 6.764591e-04 3.910188e-03 2.162738e-04 6.010324e-03 -1.394547e-03 -3.291939e-02
<VARIANCE> 39
 6.756709e+02 4.661447e+02 8.541029e+02 4.785206e+02 4.118578e+02 6.120290e+02 6.475845e+02 4.182675e+02 4.072016e+02 3.486176e+02 2.857611e+02 2.607655e+02 9.041271e+02 2.501522e+01 1.920112e+01 3.662836e+01 2.319085e+01 2.305390e+01 2.776624e+01 2.691460e+01 2.519265e+01 2.197935e+01 1.871671e+01 1.682996e+01 1.537441e+01 2.079716e+01 3.022489e+00 2.566713e+00 4.394337e+00 3.651821e+00 3.673219e+00 4.253078e+00 4.227482e+00 4.167565e+00 3.669721e+00 3.195662e+00 2.905672e+00 2.692051e+00 2.571419e+00
<GCONST> 2.085094e+02
<STATE> 4
<MEAN> 39
 1.423080e+00 -4.276121e+00 2.041507e+01 5.676711e-01 1.578592e+00 -8.096285e+00 -4.533661e+00 1.138775e+00 -7.271867e+00 5.474975e+00 -2.633110e+00 5.113249e+00 1.107964e+02 1.991699e-01 -1.533576e-01 -4.835830e-01 -2.029432e-01 9.978066e-03 3.866135e-02 3.628614e-02 9.351455e-02 7.756267e-02 7.560639e-02 1.233194e-01 -2.950585e-02 -1.688607e-01 -1.122278e-02 5.706023e-03 -9.321944e-03 3.350159e-04 -2.050775e-03 6.288880e-03 1.647310e-03 -2.142643e-03 3.665639e-03 -1.103302e-04 2.057189e-04 -1.459272e-04 -2.960027e-02
<VARIANCE> 39
 6.705621e+02 4.510585e+02 8.307551e+02 4.817034e+02 4.061566e+02 6.151610e+02 6.474158e+02 4.130682e+02 4.166695e+02 3.563994e+02 2.917719e+02 2.594904e+02 9.687693e+02 2.300864e+01 1.798872e+01 3.404468e+01 2.245483e+01 2.184793e+01 2.640529e+01 2.585517e+01 2.429281e+01 2.155846e+01 1.844273e+01 1.676230e+01 1.525708e+01 1.969281e+01 2.754325e+00 2.407445e+00 4.057354e+00 3.496007e+00 3.457361e+00 4.022142e+00 4.046257e+00 4.015117e+00 3.590595e+00 3.122819e+00 2.866195e+00 2.649547e+00 2.446366e+00
<GCONST> 2.074190e+02
<TRANSP> 5
 0.000000e+00 1.000000e+00 0.000000e+00 0.000000e+00 0.000000e+00
 0.000000e+00 7.243979e-01 2.756021e-01 0.000000e+00 0.000000e+00
 0.000000e+00 0.000000e+00 7.243969e-01 2.756031e-01 0.000000e+00
 0.000000e+00 0.000000e+00 0.000000e+00 8.477186e-01 1.522814e-01
 0.000000e+00 0.000000e+00 0.000000e+00 0.000000e+00 0.000000e+00
<ENDHMM>
~h "ow"
<BEGINHMM>
<NUMSTATES> 5
<STATE> 2
<MEAN> 39
 6.463421e+00 -5.647261e+00 7.429392e+00 -1.133638e+01 3.297385e-01 -2.656829e+00 -3.705490e+00 5.696384e-01 -4.909492e+00 8.904467e+00 -1.314239e+00 4.963609e+00 1.078787e+02 -8.671945e-02 1.198036e-01 -6.461979e-02 -8.617914e-02 -3.934144e-02 2.232585e-01 1.437493e-01 -2.259579e-03 2.477659e-02 -1.126110e-02 -5.290012e-02 -4.104951e-02 -1.768894e-01 -1.027239e-02 5.168691e-03 1.039633e-02 1.240627e-02 4.366402e-04 -1.089958e-02 -7.790977e-03 1.764588e-03 2.714650e-04 -5.254526e-03 4.256464e-04 5.277331e-04 2.523267e-03
<VARIANCE> 39
 6.410891e+02 3.616945e+02 4.743183e+02 6.229647e+02 4.253262e+02 5.493145e+02 5.420140e+02 3.792268e+02 5.202290e+02 4.051013e+02 3.355482e+02 2.761999e+02 1.185383e+03 2.057501e+01 1.552612e+01 1.843042e+01 2.194709e+01 1.769538e+01 2.030146e+01 2.130560e+01 2.111309e+01 2.172638e+01 1.975495e+01 1.840616e+01 1.616222e+01 2.917348e+01 2.476944e+00 2.216378e+00 2.540120e+00 3.216372e+00 2.804981e+00 3.166819e+00 3.446395e+00 3.565200e+00 3.534636e+00 3.264834e+00 3.081227e+00 2.776871e+00 3.652478e+00
<GCONST> 2.052722e+02
<STATE> 3
<MEAN> 39
 6.219334e+00 -5.072599e+00 7.317456e+00 -1.160124e+01 1.885656e-01 -1.763617e+00 -3.104308e+00 6.008148e-01 -4.857017e+00 8.782801e+00 -1.557257e+00 4.842537e+00 1.073312e+02 -1.417507e-01 1.419922e-01 -1.959792e-02 -1.180711e-02 -3.542818e-02 1.691071e-01 1.088646e-01 6.515990e-03 2.204813e-02 -4.290535e-02 -4.924740e-02 -3.784399e-02 -2.144409e-01 -6.410851e-03 4.763896e-03 1.144043e-02 1.298024e-02 1.833065e-04 -1.206736e-02 -8.237605e-03 2.062459e-03 -4.214520e-04 -4.094081e-03 2.679703e-03 2.506880e-03 2.414743e-04
<VARIANCE> 39
 6.296064e+02 3.599823e+02 4.604638e+02 6.333190e+02 4.268477e+02 5.351928e+02 5.235857e+02 3.771062e+02 5.203690e+02 4.000256e+02 3.301582e+02 2.764353e+02 1.175009e+03 2.093222e+01 1.529411e+01 1.783895e+01 2.197522e+01 1.745233e+01 1.990520e+01 2.095645e+01 2.084587e+01 2.168586e+01 1.965333e+01 1.826549e+01 1.607538e+01 2.915498e+01 2.517113e+00 2.189527e+00 2.480520e+00 3.214823e+00 2.764881e+00 3.123645e+00 3.420325e+00 3.524434e+00 3.530362e+00 3.255600e+00 3.070611e+00 2.763385e+00 3.633821e+00
<GCONST> 2.049393e+02
<STATE> 4
<MEAN> 39
 6.306388e+00 -3.661189e+00 6.943835e+00 -1.304178e+01 -4.256557e-01 8.978374e-02 -2.117016e+00 5.123772e-01 -4.620459e+00 8.567756e+00 -2.017676e+00 4.839317e+00 1.063127e+02 -2.480541e-01 1.732598e-01 3.483031e-02 1.789507e-01 -8.688118e-03 8.537424e-02 7.856299e-02 3.680715e-02 1.975591e-02 -1.045644e-01 -3.534476e-02 -3.515518e-02 -3.965316e-01 -1.104644e-02 5.112238e-05 6.942484e-03 1.748861e-02 1.215918e-03 -1.330906e-02 -8.454922e-03 2.305416e-03 1.626302e-03 -2.433949e-03 4.938672e-03 1.984096e-03 -1.207460e-02
<VARIANCE> 39
 6.057379e+02 3.571962e+02 4.353054e+02 6.668109e+02 4.328541e+02 4.999361e+02 4.866150e+02 3.746036e+02 5.219213e+02 3.927612e+02 3.265696e+02 2.798533e+02 1.180271e+03 2.001591e+01 1.451059e+01 1.648829e+01 2.147028e+01 1.673512e+01 1.884906e+01 2.006674e+01 2.031082e+01 2.133602e+01 1.919858e+01 1.797834e+01 1.585548e+01 2.795967e+01 2.415333e+00 2.077567e+00 2.325079e+00 3.130631e+00 2.656941e+00 3.000296e+00 3.319258e+00 3.429529e+00 3.480336e+00 3.192356e+00 3.041609e+00 2.714151e+00 3.466537e+00
<GCONST> 2.038374e+02
<TRANSP> 5
 0.000000e+00 1.000000e+00 0.000000e+00 0.000000e+00 0.000000e+00
 0.000000e+00 7.428855e-01 2.571144e-01 0.000000e+00 0.000000e+00
 0.000000e+00 0.000000e+00 7.428873e-01 2.571127e-01 0.000000e+00
 0.000000e+00 0.000000e+00 0.000000e+00 8.737737e-01 1.262263e-01
 0.000000e+00 0.000000e+00 0.000000e+00 0.000000e+00 0.000000e+00
<ENDHMM>
~h "th"
<BEGINHMM>
<NUMSTATES> 5
<STATE> 2
<MEAN> 39
 -5.476872e+00 -5.053646e+00 1.508219e+01 2.540703e+00 -1.040637e+00 -7.597015e+00 -6.181381e+00 -4.648627e-01 -7.027058e+00 3.744492e+00 -2.367987e+00 4.570099e+00 9.784680e+01 2.420111e-01 -9.454215e-02 4.519750e-01 7.810198e-02 7.190423e-02 -1.216842e-01 -7.335451e-02 -7.330234e-02 -1.277544e-01 8.215877e-03 -6.327011e-02 4.019089e-02 6.244754e-01 1.521092e-02 -7.623922e-03 2.342355e-02 -6.877594e-03 1.068670e-03 3.002803e-03 5.153493e-03 5.940349e-03 -4.616755e-03 -6.531742e-04 -4.698815e-03 8.145355e-04 4.077856e-02
<VARIANCE> 39
 6.711740e+02 2.782922e+02 7.039455e+02 3.693687e+02 3.482916e+02 4.711255e+02 4.959189e+02 3.595991e+02 3.446225e+02 2.695117e+02 2.165134e+02 2.159271e+02 1.210932e+03 2.941937e+01 1.601674e+01 3.068459e+01 2.181725e+01 2.555440e+01 2.794394e+01 2.937262e+01 2.464384e+01 2.199653e+01 1.855292e+01 1.692929e+01 1.543082e+01 3.341125e+01 3.664357e+00 2.593615e+00 4.532763e+00 3.850860e+00 4.218474e+00 4.601792e+00 4.918016e+00 4.335686e+00 3.909007e+00 3.421507e+00 3.216052e+00 2.932391e+00 4.983155e+00
<GCONST> 2.081574e+02
<STATE> 3
<MEAN> 39
 -4.231510e+00 -5.578908e+00 1.699765e+01 2.809111e+00 -6.845606e-01 -8.168345e+00 -6.514331e+00 -6.713679e-01 -7.569183e+00 3.755197e+00 -2.622331e+00 4.747173e+00 1.007442e+02 3.026480e-01 -1.109909e-01 5.509747e-01 4.747185e-02 7.187365e-02 -1.102547e-01 -5.096250e-02 -5.217621e-02 -1.409752e-01 4.109453e-03 -7.730462e-02 4.244646e-02 7.372512e-01 1.133845e-02 -2.584052e-03 1.800475e-02 -7.948978e-03 4.156118e-05 6.651429e-03 8.529426e-03 6.982759e-03 -1.027483e-03 -8.241805e-04 -3.533423e-03 -2.949349e-05 2.091806e-02
<VARIANCE> 39
 6.827539e+02 2.883184e+02 7.630301e+02 3.757177e+02 3.683317e+02 5.056247e+02 5.283230e+02 3.769687e+02 3.546544e+02 2.774937e+02 2.177988e+02 2.181416e+02 1.122576e+03 3.079750e+01 1.647090e+01 3.304916e+01 2.253033e+01 2.706536e+01 2.969932e+01 3.088046e+01 2.568233e+01 2.263167e+01 1.897943e+01 1.706946e+01 1.545505e+01 3.395030e+01 3.804432e+00 2.645520e+00 4.821231e+00 3.990922e+00 4.420747e+00 4.831365e+00 5.126307e+00 4.486725e+00 4.010862e+00 3.490150e+00 3.244003e+00 2.938064e+00 5.036433e+00
<GCONST> 2.094025e+02
<STATE> 4
<MEAN> 39
 -1.932498e+00 -6.312285e+00 2.023266e+01 2.695771e+00 -7.824478e-02 -8.936490e+00 -6.980468e+00 -9.693860e-01 -8.392074e+00 3.820168e+00 -2.963198e+00 5.037081e+00 1.054535e+02 3.154749e-01 -7.422428e-02 6.761374e-01 -2.031319e-02 3.329449e-02 -6.476512e-02 1.226782e-02 -4.038412e-02 -1.394750e-01 3.859830e-03 -8.792182e-02 3.410061e-02 6.986955e-01 -1.196755e-02 1.135051e-02 4.276840e-03 -1.150658e-02 -8.325597e-03 1.731229e-02 1.715834e-02 4.279270e-03 4.982156e-03 6.364965e-04 -1.498932e-03 -2.970970e-03 -2.626372e-02
<VARIANCE> 39
 6.851541e+02 3.076819e+02 8.598795e+02 3.950841e+02 4.016157e+02 5.622272e+02 5.796205e+02 4.082636e+02 3.766558e+02 2.956405e+02 2.241662e+02 2.245901e+02 9.964716e+02 3.161042e+01 1.675471e+01 3.612698e+01 2.323240e+01 2.888767e+01 3.210963e+01 3.251627e+01 2.701400e+01 2.345391e+01 1.944530e+01 1.711479e+01 1.536238e+01 3.267635e+01 3.826401e+00 2.629608e+00 5.064700e+00 4.083894e+00 4.610580e+00 5.121901e+00 5.310931e+00 4.648143e+00 4.124230e+00 3.544846e+00 3.231657e+00 2.903032e+00 4.747108e+00
<GCONST> 2.107063e+02
<TRANSP> 5
 0.000000e+00 1.000000e+00 0.000000e+00 0.000000e+00 0.000000e+00
 0.000000e+00 7.298430e-01 2.701570e-01 0.000000e+00 0.000000e+00
 0.000000e+00 0.000000e+00 7.298540e-01 2.701460e-01 0.000000e+00
 0.000000e+00 0.000000e+00 0.000000e+00 8.544027e-01 1.455974e-01
 0.000000e+00 0.000000e+00 0.000000e+00 0.000000e+00 0.000000e+00
<ENDHMM>
~h "uw"
<BEGINHMM>
<NUMSTATES> 5
<STATE> 2
<MEAN> 39
 -3.624988e+00 -2.277474e+00 2.228600e+01 2.105014e+00 1.745322e-01 -5.709397e+00 -3.094884e+00 -1.240350e+00 -1.021498e+01 4.671737e+00 -4.565793e+00 4.192140e+00 1.054853e+02 1.651084e-01 3.078773e-02 -1.197462e-01 4.778637e-02 9.975705e-02 1.834182e-01 1.141746e-01 1.080694e-01 7.372143e-02 3.087841e-03 -2.071712e-02 -3.843535e-02 -1.981656e-02 -1.175094e-02 2.627361e-03 -1.961217e-02 -6.579218e-03 -4.780950e-03 -5.310777e-03 -6.323870e-03 6.021556e-03 1.279123e-02 -1.939155e-03 6.703102e-03 2.368050e-04 -4.035576e-02
<VARIANCE> 39
 6.019313e+02 2.621420e+02 6.505461e+02 4.068964e+02 3.046199e+02 4.771350e+02 5.491822e+02 4.215244e+02 4.302476e+02 3.190248e+02 2.822245e+02 3.408305e+02 1.057609e+03 2.679204e+01 1.534281e+01 2.505419e+01 2.062532e+01 1.722438e+01 2.286347e+01 2.487928e+01 2.136941e+01 2.178388e+01 1.838643e+01 1.765124e+01 1.690677e+01 4.169606e+01 3.622351e+00 2.585856e+00 3.029316e+00 3.420402e+00 2.874852e+00 3.649175e+00 3.935401e+00 3.600493e+00 3.688729e+00 3.226255e+00 3.103854e+00 2.803510e+00 6.290748e+00
<GCONST> 2.066352e+02
<STATE> 3
<MEAN> 39
 -3.032117e+00 -2.079675e+00 2.141950e+01 2.245161e+00 5.955113e-01 -4.846470e+00 -2.597273e+00 -8.178948e-01 -9.756390e+00 4.703132e+00 -4.602429e+00 4.015800e+00 1.047407e+02 7.856499e-02 4.462958e-02 -2.229837e-01 1.180136e-02 7.271989e-02 1.646654e-01 9.134520e-02 1.290734e-01 1.319234e-01 -7.042264e-03 1.157920e-02 -3.654092e-02 -2.067385e-01 -1.348860e-02 2.736427e-03 -1.738253e-02 -8.489800e-03 -5.540052e-03 -8.649519e-03 -1.028865e-02 1.813688e-03 1.003698e-02 -1.871152e-04 7.978384e-03 1.694390e-03 -3.547847e-02
<VARIANCE> 39
 5.873921e+02 2.692545e+02 6.561313e+02 4.160116e+02 3.112970e+02 4.789910e+02 5.428597e+02 4.229471e+02 4.356750e+02 3.231189e+02 2.841952e+02 3.427219e+02 1.051385e+03 2.615163e+01 1.511954e+01 2.455739e+01 2.027444e+01 1.721842e+01 2.264729e+01 2.458753e+01 2.142993e+01 2.167612e+01 1.841864e+01 1.769844e+01 1.700568e+01 3.704255e+01 3.478073e+00 2.510726e+00 2.975254e+00 3.344757e+00 2.851247e+00 3.609908e+00 3.900772e+00 3.611072e+00 3.661260e+00 3.228354e+00 3.112767e+00 2.821835e+00 5.533963e+00
<GCONST> 2.062485e+02
<STATE> 4
<MEAN> 39
 -2.189448e+00 -1.657993e+00 1.938755e+01 1.894671e+00 1.114570e+00 -3.571410e+00 -1.995835e+00 -4.896979e-01 -8.767009e+00 4.870987e+00 -4.511180e+00 3.863809e+00 1.026946e+02 -7.411218e-02 5.899642e-02 -3.725742e-01 -4.347194e-02 2.548101e-02 1.428487e-01 6.922498e-02 1.431955e-01 2.056606e-01 -1.718804e-02 6.477745e-02 -2.911420e-02 -4.675860e-01 -1.397487e-02 -1.465468e-04 -5.095044e-03 -8.090222e-03 -7.240940e-03 -1.353038e-02 -1.168533e-02 -1.205613e-03 3.141990e-03 7.311237e-04 8.026209e-03 3.378207e-03 -1.410197e-02
<VARIANCE> 39
 5.628480e+02 2.795639e+02 6.493950e+02 4.301638e+02 3.202056e+02 4.759846e+02 5.245240e+02 4.168702e+02 4.417596e+02 3.252142e+02 2.859245e+02 3.365275e+02 1.088690e+03 2.376367e+01 1.445446e+01 2.279831e+01 1.919274e+01 1.696409e+01 2.191101e+01 2.373094e+01 2.120937e+01 2.121269e+01 1.814739e+01 1.746773e+01 1.682275e+01 3.047018e+01 3.089309e+00 2.342904e+00 2.794387e+00 3.143273e+00 2.778106e+00 3.486111e+00 3.781716e+00 3.573060e+00 3.568043e+00 3.174792e+00 3.072748e+00 2.808077e+00 4.443529e+00
<GCONST> 2.049685e+02
<TRANSP> 5
 0.000000e+00 1.000000e+00 0.000000e+00 0.000000e+00 0.000000e+00
 0.000000e+00 7.408248e-01 2.591752e-01 0.000000e+00 0.000000e+00
 0.000000e+00 0.000000e+00 7.408206e-01 2.591794e-01 0.000000e+00
 0.000000e+00 0.000000e+00 0.000000e+00 8.678011e-01 1.321988e-01
 0.000000e+00 0.000000e+00 0.000000e+00 0.000000e+00 0.000000e+00
<ENDHMM>
~h "sil"
<BEGINHMM>
<NUMSTATES> 5
<STATE> 2
<MEAN> 39
 -1.741214e+01 1.426580e+00 1.019767e+00 3.996070e+00 -1.341448e+00 -1.364267e+00 -4.284145e-01 2.123889e+00 -1.680023e+00 8.500964e-01 -1.264064e+00 2.108456e+00 5.878350e+01 -3.607953e-01 2.431235e-01 -1.349109e-01 4.014285e-02 -7.566477e-04 3.330725e-02 -1.199523e-01 -9.547915e-02 4.179800e-02 2.799284e-02 1.139671e-01 4.653370e-03 -6.531466e-01 9.646218e-03 3.160922e-03 1.467732e-02 -1.504706e-02 -9.433916e-03 1.571704e-03 1.987861e-03 -8.956597e-03 2.433488e-03 1.481310e-02 -1.752824e-03 1.303568e-03 3.980566e-02
<VARIANCE> 39
 1.705948e+02 1.247953e+02 1.462281e+02 1.430437e+02 1.389454e+02 1.701111e+02 1.957419e+02 1.929850e+02 1.710715e+02 1.604586e+02 1.441993e+02 1.251083e+02 2.923246e+02 3.623453e+00 5.260075e+00 6.435360e+00 7.775317e+00 8.678665e+00 1.054245e+01 1.187695e+01 1.263703e+01 1.249894e+01 1.209816e+01 1.165349e+01 1.052481e+01 4.412833e+00 5.110842e-01 8.120873e-01 1.007327e+00 1.296417e+00 1.475700e+00 1.788269e+00 2.017085e+00 2.154371e+00 2.156448e+00 2.083269e+00 2.010061e+00 1.828327e+00 5.279166e-01
<GCONST> 1.695924e+02
<STATE> 3
<MEAN> 39
 -1.879515e+01 2.335462e+00 6.298698e-01 4.104969e+00 -1.379879e+00 -1.237180e+00 -8.763483e-01 1.695898e+00 -1.515882e+00 1.074372e+00 -8.460606e-01 2.097987e+00 5.661166e+01 -2.881794e-01 2.188784e-01 -3.864519e-02 -1.440353e-02 -2.142685e-02 2.841191e-02 -1.116524e-01 -1.256384e-01 2.854442e-02 8.289460e-02 1.050352e-01 1.807200e-02 -3.812321e-01 2.051370e-02 -1.198398e-02 2.104751e-02 -9.794502e-03 -3.163181e-03 -4.471505e-06 7.361646e-03 -3.288114e-03 -2.319170e-03 1.088638e-02 -6.692960e-03 1.597843e-03 6.886856e-02
<VARIANCE> 39
 1.415492e+02 1.118102e+02 1.177150e+02 1.238480e+02 1.257740e+02 1.521401e+02 1.756971e+02 1.744107e+02 1.558244e+02 1.467221e+02 1.334684e+02 1.153874e+02 2.274144e+02 3.719333e+00 5.082262e+00 5.943645e+00 7.187076e+00 8.175392e+00 9.841181e+00 1.113374e+01 1.187618e+01 1.173593e+01 1.137921e+01 1.092980e+01 9.856300e+00 5.425605e+00 5.839906e-01 8.684529e-01 1.052933e+00 1.344572e+00 1.573133e+00 1.879414e+00 2.133088e+00 2.273843e+00 2.277361e+00 2.217813e+00 2.141628e+00 1.938822e+00 7.133954e-01
<GCONST> 1.684982e+02
<STATE> 4
<MEAN> 39
 -1.860901e+01 2.519900e+00 1.520402e+00 3.023851e+00 -1.443869e+00 -9.857413e-01 -1.238023e+00 1.159834e+00 -1.543869e+00 2.068686e+00 -7.313353e-01 2.287976e+00 6.003427e+01 -4.187010e-02 7.352163e-02 1.411141e-01 -9.713773e-02 -8.818853e-03 1.543462e-02 -7.690678e-02 -8.215373e-02 -5.291204e-03 1.235344e-01 5.405934e-02 5.055137e-02 3.380516e-01 3.878866e-02 -2.234202e-02 2.289756e-02 -9.067477e-03 4.672056e-03 -1.079200e-03 7.429429e-03 8.966416e-03 -3.599135e-03 3.915684e-03 -1.145737e-02 3.261823e-03 1.018815e-01
<VARIANCE> 39
 1.929250e+02 1.348584e+02 1.499399e+02 1.730999e+02 1.442315e+02 1.648817e+02 1.840707e+02 1.763128e+02 1.685611e+02 1.563401e+02 1.402101e+02 1.213960e+02 4.859984e+02 6.929930e+00 6.740861e+00 7.666691e+00 9.043798e+00 9.517865e+00 1.111311e+01 1.236872e+01 1.285610e+01 1.269057e+01 1.224386e+01 1.172129e+01 1.041327e+01 1.347928e+01 1.057613e+00 1.144143e+00 1.286619e+00 1.588177e+00 1.737155e+00 2.028867e+00 2.252864e+00 2.358536e+00 2.324641e+00 2.257049e+00 2.169161e+00 1.937271e+00 1.751877e+00
<GCONST> 1.763338e+02
<TRANSP> 5
 0.000000e+00 1.000000e+00 0.000000e+00 0.000000e+00 0.000000e+00
 0.000000e+00 7.465886e-01 2.534114e-01 0.000000e+00 0.000000e+00
 0.000000e+00 0.000000e+00 7.465837e-01 2.534163e-01 0.000000e+00
 0.000000e+00 0.000000e+00 0.000000e+00 8.755344e-01 1.244656e-01
 0.000000e+00 0.000000e+00 0.000000e+00 0.000000e+00 0.000000e+00
<ENDHMM>
