~o
<STREAMINFO> 1 39
<VECSIZE> 39<NULLD><MFCC_D_A_0><DIAGC>
~v "varFloor1"
<VARIANCE> 39
 6.754285e+00 3.412382e+00 5.608406e+00 4.796288e+00 3.472278e+00 4.011306e+00 4.413544e+00 3.617784e+00 3.683816e+00 3.040248e+00 2.640156e+00 2.509632e+00 1.299030e+01 2.278168e-01 1.545930e-01 2.184475e-01 2.118017e-01 1.813441e-01 2.097645e-01 2.257998e-01 2.166213e-01 2.009591e-01 1.748390e-01 1.664857e-01 1.534652e-01 2.729186e-01 3.005252e-02 2.352007e-02 2.950203e-02 3.333135e-02 2.970526e-02 3.527972e-02 3.796952e-02 3.764049e-02 3.477431e-02 3.067440e-02 2.924915e-02 2.697382e-02 3.680100e-02
~s "silst"
<MEAN> 39
 -2.466606e+01 4.850283e+00 -8.717423e-01 2.991369e+00 -3.013299e+00 -2.728910e+00 -4.150382e+00 -1.180730e+00 -1.597443e+00 1.318908e+00 9.809710e-01 2.452996e+00 4.849677e+01 -2.404718e-01 2.775273e-02 5.572282e-02 -4.360306e-02 -6.925706e-02 -8.255252e-02 -1.854410e-01 -1.998002e-01 -4.874703e-02 9.689985e-02 1.084425e-01 5.575149e-02 -1.680604e-01 9.009480e-02 -7.419408e-02 1.395512e-02 2.416595e-02 2.744904e-02 3.257139e-02 8.015460e-02 7.503094e-02 3.816065e-04 -1.223766e-02 -7.305961e-02 -2.799323e-02 1.613757e-01
<VARIANCE> 39
 3.293587e+01 3.085754e+01 3.907817e+01 5.225624e+01 7.018777e+01 9.086887e+01 1.075873e+02 1.083828e+02 1.000987e+02 9.340530e+01 9.063173e+01 8.121400e+01 1.740900e+01 1.410942e+00 2.068879e+00 3.262310e+00 4.516271e+00 5.824739e+00 7.149787e+00 8.550419e+00 9.330359e+00 9.391088e+00 9.317837e+00 9.129318e+00 8.239320e+00 7.518851e-01 2.667168e-01 4.337544e-01 6.611577e-01 9.124908e-01 1.172474e+00 1.435180e+00 1.687134e+00 1.846553e+00 1.867068e+00 1.856429e+00 1.826620e+00 1.651572e+00 1.797021e-01
<GCONST> 1.452535e+02
~h "f"
<BEGINHMM>
<NUMSTATES> 5
<STATE> 2
<MEAN> 39
 -3.122228e+01 -1.336180e+01 1.352274e-01 3.896547e+00 -1.493788e+00 2.439594e-01 -5.953423e+00 9.321491e-01 -4.629784e+00 4.066250e+00 -3.364086e+00 2.799764e+00 9.040049e+01 -2.333945e+00 -1.638089e+00 -1.293179e+00 -5.316649e-01 -7.044503e-01 -3.251968e-01 -9.400024e-01 -4.411738e-01 -2.997581e-01 -1.956240e-01 -9.946887e-02 -1.536459e-01 5.144568e-01 1.338244e+00 3.824246e-01 2.585765e-01 -2.467033e-01 9.922477e-02 6.107397e-03 2.409429e-01 -6.365447e-02 -9.242395e-02 7.218317e-02 -3.856769e-02 3.560724e-02 6.130244e-01
<VARIANCE> 39
 1.728225e+02 1.293189e+02 1.010199e+02 1.057820e+02 1.193927e+02 1.299293e+02 1.415076e+02 1.389814e+02 1.370159e+02 1.248792e+02 1.190757e+02 1.082412e+02 3.341723e+02 2.443211e+01 1.239998e+01 1.183417e+01 1.590502e+01 1.354322e+01 1.384993e+01 1.517556e+01 1.470469e+01 1.482953e+01 1.339103e+01 1.281138e+01 1.202986e+01 2.054170e+01 3.690263e+00 2.391186e+00 2.267590e+00 3.130167e+00 2.643701e+00 2.950608e+00 3.186358e+00 3.175073e+00 3.208906e+00 2.844595e+00 2.700390e+00 2.456214e+00 3.219563e+00
<GCONST> 1.842507e+02
<STATE> 3
<MEAN> 39
 -2.914636e+01 -1.714956e+01 -3.252582e+00 3.788831e-02 -3.096266e+00 -1.006658e+00 -7.852859e+00 -1.375380e+00 -6.113225e+00 3.496417e+00 -4.395897e+00 2.565553e+00 1.011857e+02 1.011020e+01 1.927114e+00 5.455938e-01 -3.319182e+00 4.566245e-01 1.028633e+00 1.698522e+00 2.297699e-01 5.572194e-01 1.379167e+00 4.319546e-01 -1.426419e-01 5.865302e+00 3.641012e+00 1.036767e+00 5.960873e-01 -2.219179e+00 -4.096490e-01 3.808503e-01 6.899113e-01 4.286400e-01 6.735578e-02 7.012040e-01 2.572643e-01 -1.878809e-01 1.068154e+00
<VARIANCE> 39
 1.373411e+02 7.440532e+01 6.430894e+01 7.122546e+01 8.302352e+01 9.315439e+01 1.003175e+02 1.031524e+02 1.130422e+02 1.069599e+02 9.834795e+01 8.798619e+01 2.073651e+02 3.912254e+01 1.807254e+01 1.052802e+01 2.123344e+01 1.386622e+01 1.308791e+01 1.457744e+01 1.486203e+01 1.986551e+01 1.789249e+01 1.999399e+01 1.276217e+01 3.488746e+01 3.376784e+00 4.507232e+00 2.798908e+00 3.923346e+00 3.870757e+00 3.124420e+00 3.460834e+00 3.473509e+00 4.254210e+00 3.659003e+00 4.353052e+00 3.049557e+00 4.612605e+00
<GCONST> 1.858125e+02
<STATE> 4
<MEAN> 39
 1.638580e+01 -1.468846e+01 -2.457174e+00 -2.190757e+01 -1.059910e+00 5.736352e+00 5.076687e-01 -2.279407e-01 -2.030822e+00 1.490739e+01 2.608020e+00 -9.354079e-01 1.272638e+02 1.002566e+01 -1.258040e+00 -1.986312e-01 -8.395905e+00 -3.611931e-01 1.901311e+00 1.975544e+00 9.930916e-01 7.578773e-01 2.385285e+00 9.472057e-01 -8.201556e-01 8.298719e+00 -3.167837e+00 -4.945668e-01 2.515404e-02 6.424801e-01 -1.981840e-01 -1.266949e-01 -4.616534e-01 3.413188e-01 -6.233524e-02 -7.297298e-01 -7.330784e-01 4.829399e-02 -1.384883e+00
<VARIANCE> 39
 2.552018e+02 2.293846e+02 1.554648e+02 4.512058e+02 2.519333e+02 2.036015e+02 2.084773e+02 2.252869e+02 4.092371e+02 2.954718e+02 4.453495e+02 2.061604e+02 4.234052e+02 6.178128e+01 4.726889e+01 2.467628e+01 3.420567e+01 3.398422e+01 2.248803e+01 2.485901e+01 2.530561e+01 3.680713e+01 2.806911e+01 3.925867e+01 2.460599e+01 2.598627e+01 6.385712e+00 3.068327e+00 2.305659e+00 7.929357e+00 4.027617e+00 3.090014e+00 3.445871e+00 3.181536e+00 5.697726e+00 4.515075e+00 5.243066e+00 3.396838e+00 5.111927e+00
<GCONST> 2.080220e+02
<TRANSP> 5
 0.000000e+00 1.000000e+00 0.000000e+00 0.000000e+00 0.000000e+00
 0.000000e+00 8.599632e-01 1.400368e-01 0.000000e+00 0.000000e+00
 0.000000e+00 0.000000e+00 6.525610e-01 3.474390e-01 0.000000e+00
 0.000000e+00 0.000000e+00 0.000000e+00 5.455994e-01 4.544006e-01
 0.000000e+00 0.000000e+00 0.000000e+00 0.000000e+00 0.000000e+00
<ENDHMM>
~h "k"
<BEGINHMM>
<NUMSTATES> 5
<STATE> 2
<MEAN> 39
 -7.850590e+00 1.025675e+01 2.612132e+01 2.555561e+01 -1.089049e+00 -1.386457e+01 4.892678e-01 -1.926730e+00 -1.798058e+01 -2.841940e+00 -8.358957e-01 2.050332e+00 7.126522e+01 -5.661525e+00 1.830987e+00 -9.845806e+00 -1.563166e+00 3.280480e+00 5.548962e+00 -3.626181e+00 8.546939e-03 3.903303e+00 -1.808172e+00 -1.728657e-02 -7.540029e-01 -1.199157e+01 -1.795695e-01 -3.106179e+00 -8.986019e-01 -2.893468e+00 -1.111693e+00 -1.180745e+00 -8.183738e-01 -1.311930e-02 9.002953e-01 1.103510e+00 -2.459201e-01 6.210157e-01 4.933013e+00
<VARIANCE> 39
 1.322881e+02 2.076012e+02 2.697744e+02 1.996798e+02 2.853860e+02 3.640291e+02 3.755277e+02 4.628263e+02 3.167225e+02 2.593690e+02 1.973000e+02 1.532282e+02 3.449134e+02 1.100928e+01 4.874920e+01 2.464425e+01 4.051101e+01 3.017065e+01 3.941061e+01 5.577782e+01 7.115931e+01 5.137918e+01 3.565566e+01 2.372079e+01 2.242562e+01 7.122253e+01 3.473631e+00 5.937872e+00 5.512331e+00 5.179938e+00 5.260746e+00 8.199079e+00 9.075323e+00 8.866892e+00 7.889131e+00 5.520374e+00 4.647248e+00 4.266440e+00 1.238877e+01
<GCONST> 2.143076e+02
<STATE> 3
<MEAN> 39
 -1.875679e+01 -7.290894e+00 -7.043722e+00 7.372881e+00 1.140918e-02 -7.734961e+00 -1.083819e+01 -1.782599e+00 -4.255224e+00 2.285493e+00 -1.250893e+00 3.410655e+00 7.299663e+01 -2.085828e+00 -4.206902e+00 -4.798758e+00 -8.500435e-01 -1.676013e-01 -1.792558e+00 -1.937930e+00 1.272599e+00 1.655383e+00 1.165800e+00 -7.195293e-01 5.593104e-01 9.476583e+00 -9.218920e-01 1.097281e+00 1.909332e+00 9.998803e-01 -6.547383e-01 -1.047912e+00 8.414194e-01 3.747662e-01 -5.551515e-01 -2.535252e-01 -1.750310e-01 1.958578e-01 2.022149e+00
<VARIANCE> 39
 1.473306e+02 3.027976e+02 2.389700e+02 1.334518e+02 1.632743e+02 1.725516e+02 1.808006e+02 1.581034e+02 1.358353e+02 1.297637e+02 1.164050e+02 8.908818e+01 8.255552e+02 3.467278e+01 2.900511e+01 2.588725e+01 2.461291e+01 2.269056e+01 2.692141e+01 2.161906e+01 2.093348e+01 1.983695e+01 1.793176e+01 1.529005e+01 1.173144e+01 7.348019e+01 8.753196e+00 8.714188e+00 5.430122e+00 3.570769e+00 4.335401e+00 5.326246e+00 5.106569e+00 4.605721e+00 4.216490e+00 3.873570e+00 2.769778e+00 2.410002e+00 2.036292e+01
<GCONST> 2.015622e+02
<STATE> 4
<MEAN> 39
 -4.384354e+01 -7.769275e+00 -7.365038e+00 1.064959e+01 -5.816336e-01 -2.366561e+01 -1.315872e+01 6.890528e+00 4.678919e-01 2.282900e+00 -7.514626e+00 6.355789e+00 1.115598e+02 -8.653992e+00 3.988261e+00 1.895571e+00 -3.471738e-01 -1.996063e+00 -1.416568e+00 2.245522e+00 2.237110e+00 5.191617e-01 -1.251839e+00 -5.890920e-01 9.121072e-01 2.025108e+00 7.994232e-01 1.222279e+00 5.682488e-01 -5.422370e-01 4.608106e-02 1.634724e+00 9.564314e-01 -3.805781e-01 -7.428095e-01 -1.867916e-01 4.328418e-01 -1.739138e-01 -3.324772e+00
<VARIANCE> 39
 2.919584e+02 1.220177e+02 1.688984e+02 2.167338e+02 4.090249e+02 2.903927e+02 2.218503e+02 1.968531e+02 1.868459e+02 1.696033e+02 1.707670e+02 1.360118e+02 2.091116e+02 4.785271e+01 1.706005e+01 1.393355e+01 1.432156e+01 2.157288e+01 2.715371e+01 1.777849e+01 1.765659e+01 1.987816e+01 1.592483e+01 1.396944e+01 1.420417e+01 2.601280e+01 6.385155e+00 3.332772e+00 2.803996e+00 2.786436e+00 3.806144e+00 4.536793e+00 3.852196e+00 3.679331e+00 3.663885e+00 3.477232e+00 2.878520e+00 2.514400e+00 5.802001e+00
<GCONST> 1.961207e+02
<TRANSP> 5
 0.000000e+00 1.000000e+00 0.000000e+00 0.000000e+00 0.000000e+00
 0.000000e+00 6.839710e-01 3.160290e-01 0.000000e+00 0.000000e+00
 0.000000e+00 0.000000e+00 7.792364e-01 2.207636e-01 0.000000e+00
 0.000000e+00 0.000000e+00 0.000000e+00 5.440071e-01 4.559929e-01
 0.000000e+00 0.000000e+00 0.000000e+00 0.000000e+00 0.000000e+00
<ENDHMM>
~h "n"
<BEGINHMM>
<NUMSTATES> 5
<STATE> 2
<MEAN> 39
 1.609156e+01 -7.051749e-01 3.557002e+01 7.096594e+00 -5.572935e+00 4.275004e+00 1.586992e+01 -3.948890e+00 -6.397408e+00 1.005241e+01 -6.110880e+00 9.029461e+00 1.116398e+02 1.254845e+00 3.253298e+00 1.300432e-01 3.833965e+00 3.334059e-01 1.421409e+00 2.329893e+00 -3.072115e+00 8.061710e-04 6.675514e-01 -1.550233e+00 3.133994e-01 -2.961633e+00 -5.784928e-01 -5.983576e-01 -8.342059e-01 -3.536880e-01 4.425124e-01 -3.353836e-01 -6.664872e-01 8.793150e-01 4.086697e-01 -3.490902e-01 2.159907e-01 -1.397896e-01 2.939606e-01
<VARIANCE> 39
 1.305914e+02 3.120686e+02 2.426446e+02 6.163877e+02 3.023335e+02 4.029786e+02 5.312935e+02 5.957604e+02 5.431244e+02 4.434526e+02 4.324518e+02 4.096029e+02 4.259696e+02 1.702702e+01 1.548000e+01 2.477191e+01 3.416474e+01 2.211932e+01 2.606135e+01 3.418007e+01 4.115765e+01 3.144994e+01 2.787578e+01 2.481363e+01 2.562547e+01 2.276261e+01 2.484519e+00 2.692327e+00 3.875441e+00 7.974352e+00 4.187409e+00 5.096364e+00 6.823339e+00 8.004833e+00 5.723439e+00 4.868342e+00 4.773909e+00 4.762826e+00 2.159436e+00
<GCONST> 2.110055e+02
<STATE> 3
<MEAN> 39
 1.765498e+01 5.658602e+00 3.412924e+01 1.750519e+01 -1.587813e+00 6.205457e+00 1.661870e+01 -6.673759e+00 -2.082834e+00 7.723369e+00 -9.584806e+00 1.093947e+01 1.047042e+02 -2.752545e+00 -2.768343e+00 -2.240194e+00 -2.844189e+00 2.627324e+00 -1.722025e+00 -2.888992e+00 5.395232e+00 9.004211e-01 -5.301091e-01 7.034300e-01 -1.153763e+00 1.826853e+00 -1.285678e+00 -1.326367e+00 -1.439357e+00 -1.529971e+00 1.377991e-01 -4.650488e-01 -1.123488e+00 1.200708e+00 2.526369e-01 -1.440064e-01 5.473567e-01 -3.734266e-01 5.459478e-01
<VARIANCE> 39
 8.418690e+01 2.698256e+02 1.461355e+02 3.321107e+02 2.909060e+02 4.572195e+02 5.026476e+02 4.750825e+02 4.544912e+02 4.455233e+02 4.476330e+02 4.487893e+02 3.062744e+02 2.010784e+01 2.554335e+01 2.119222e+01 3.620961e+01 2.611327e+01 3.873603e+01 4.363510e+01 4.363071e+01 3.757153e+01 2.814151e+01 2.898333e+01 3.109514e+01 3.917998e+01 3.009582e+00 2.773471e+00 2.958220e+00 4.501245e+00 4.788048e+00 6.398638e+00 6.356259e+00 7.544491e+00 5.397919e+00 4.099774e+00 4.544612e+00 4.517999e+00 2.467931e+00
<GCONST> 2.106494e+02
<STATE> 4
<MEAN> 39
 8.065056e-01 -3.127423e+00 1.878432e+01 1.317352e+01 5.073759e+00 2.363909e+00 1.097787e+01 1.227165e+01 1.669442e+00 3.669258e+00 -7.286980e+00 4.510686e+00 9.247705e+01 -3.615913e+00 -2.301830e+00 -4.468186e+00 -2.984118e+00 -1.909945e-01 -1.111550e+00 -2.683086e+00 1.776224e+00 5.708444e-01 -8.106781e-01 8.250353e-01 -1.145610e+00 -9.269516e-01 1.991939e-01 2.709304e-01 1.081531e-02 3.322751e-02 -5.666522e-01 5.194293e-02 -2.852208e-02 -1.186653e+00 -2.466105e-01 2.435525e-02 1.329200e-03 1.776429e-01 4.325540e-02
<VARIANCE> 39
 1.919241e+02 2.670407e+02 2.205893e+02 4.285605e+02 2.520453e+02 3.438912e+02 4.835439e+02 3.940855e+02 3.424149e+02 3.775017e+02 2.774621e+02 2.624320e+02 6.973632e+02 2.193233e+01 1.851076e+01 1.914060e+01 2.321121e+01 2.176915e+01 2.414137e+01 2.612731e+01 3.161755e+01 2.954199e+01 2.253690e+01 2.404279e+01 2.174369e+01 2.116716e+01 1.741563e+00 2.796412e+00 2.704532e+00 4.770019e+00 3.655088e+00 5.186566e+00 5.659928e+00 5.410366e+00 4.371316e+00 3.836916e+00 3.656759e+00 3.532855e+00 2.631420e+00
<GCONST> 2.047654e+02
<TRANSP> 5
 0.000000e+00 1.000000e+00 0.000000e+00 0.000000e+00 0.000000e+00
 0.000000e+00 6.562024e-01 3.437976e-01 0.000000e+00 0.000000e+00
 0.000000e+00 0.000000e+00 6.041372e-01 3.958627e-01 0.000000e+00
 0.000000e+00 0.000000e+00 0.000000e+00 6.230806e-01 3.769195e-01
 0.000000e+00 0.000000e+00 0.000000e+00 0.000000e+00 0.000000e+00
<ENDHMM>
~h "r"
<BEGINHMM>
<NUMSTATES> 5
<STATE> 2
<MEAN> 39
 3.659613e+01 -1.815009e+01 -5.100661e+00 3.619340e+00 2.659196e+01 -2.161545e+01 -3.257238e+01 2.242782e+00 -7.915159e+00 5.042811e+00 1.681469e+00 7.271130e+00 1.266945e+02 4.330322e-01 -8.535212e-01 -1.394248e+00 1.265360e-01 9.276890e-01 -1.330600e+00 -1.171343e+00 1.076825e+00 1.407584e+00 5.388076e-01 3.680664e-02 1.357041e-01 1.434307e-01 -1.161988e+00 -1.912857e-02 1.792390e+00 -1.553416e-02 -1.823213e+00 -1.367854e-01 1.584516e+00 6.159099e-01 -4.568302e-01 -2.072643e-01 4.391443e-02 5.654108e-02 1.325236e-01
<VARIANCE> 39
 6.547813e+01 1.789081e+02 4.584739e+02 3.104665e+02 3.725888e+02 9.070256e+02 9.981153e+02 4.260294e+02 3.239871e+02 3.953712e+02 2.644099e+02 2.125784e+02 1.692921e+02 7.151945e+00 8.588135e+00 2.921445e+01 1.971474e+01 2.111609e+01 3.098006e+01 2.354528e+01 2.543798e+01 1.996786e+01 1.729402e+01 1.524872e+01 1.405225e+01 6.899635e+00 1.318713e+00 1.388326e+00 1.845829e+00 2.122905e+00 2.688235e+00 4.661041e+00 4.045793e+00 3.558278e+00 3.115354e+00 3.009796e+00 2.693464e+00 2.445628e+00 8.037714e-01
<GCONST> 1.939978e+02
<STATE> 3
<MEAN> 39
 3.054392e+01 -2.448085e+01 6.895281e+00 9.344853e+00 1.628419e+01 -3.412635e+01 -2.369337e+01 1.652394e+01 -7.386861e+00 2.245448e+00 6.836021e-01 8.962635e+00 1.290640e+02 -3.918894e+00 -5.239117e-01 6.619826e+00 1.007477e+00 -5.717753e+00 -1.087975e+00 6.152131e+00 2.475573e+00 -2.322411e+00 -8.909435e-01 1.035203e+00 -1.879478e-01 9.080205e-02 -9.995961e-01 1.111135e+00 6.970555e-01 -1.173477e+00 -7.878050e-01 2.357268e+00 1.407846e+00 -1.788517e+00 -8.136647e-01 7.681214e-01 1.728965e-01 -4.639477e-01 -5.800089e-01
<VARIANCE> 39
 7.312885e+01 1.948966e+02 5.814197e+02 3.679695e+02 3.778814e+02 8.044586e+02 1.050469e+03 3.931093e+02 4.304670e+02 4.714071e+02 2.766521e+02 2.389511e+02 2.240824e+02 1.051192e+01 9.938490e+00 3.006315e+01 2.492908e+01 2.744453e+01 3.359480e+01 3.093731e+01 3.140794e+01 3.532990e+01 2.647199e+01 2.162351e+01 1.747142e+01 1.312004e+01 1.863612e+00 2.169184e+00 2.126097e+00 2.348502e+00 3.376229e+00 5.781157e+00 4.919953e+00 4.465994e+00 3.991755e+00 3.561380e+00 2.870798e+00 2.904449e+00 9.910059e-01
<GCONST> 2.019582e+02
<STATE> 4
<MEAN> 39
 1.701493e+01 -2.170756e+01 1.456529e+01 7.800601e+00 3.851133e+00 -2.313308e+01 -2.278500e+00 1.563960e+01 -1.053901e+01 5.669137e+00 2.892945e+00 3.867296e+00 1.186754e+02 -3.924659e+00 1.329335e+00 3.793343e+00 -1.986484e+00 -3.553518e+00 3.320626e+00 3.752259e+00 -2.536670e+00 -1.182435e+00 1.351468e+00 -4.746097e-01 -1.391063e+00 -1.478424e+00 7.876065e-02 7.104762e-01 -6.713766e-01 -6.674291e-01 7.099729e-01 7.751597e-01 -9.715929e-01 -9.418715e-01 5.883023e-01 2.170696e-01 -5.081298e-01 5.037558e-02 -3.023272e-01
<VARIANCE> 39
 2.064287e+02 2.052697e+02 9.274890e+02 3.750705e+02 4.402348e+02 7.193600e+02 7.754863e+02 4.176894e+02 6.340660e+02 4.333023e+02 2.917560e+02 2.649217e+02 6.400875e+02 1.498046e+01 1.394699e+01 2.274059e+01 1.902145e+01 1.964382e+01 2.531068e+01 2.862986e+01 2.679013e+01 2.178141e+01 2.135029e+01 1.773252e+01 1.554275e+01 9.908523e+00 1.306812e+00 1.752099e+00 2.435539e+00 2.777016e+00 3.398153e+00 4.390414e+00 3.915565e+00 3.430247e+00 4.410366e+00 2.954776e+00 2.960377e+00 2.555066e+00 9.439341e-01
<GCONST> 2.015766e+02
<TRANSP> 5
 0.000000e+00 1.000000e+00 0.000000e+00 0.000000e+00 0.000000e+00
 0.000000e+00 7.601874e-01 2.398126e-01 0.000000e+00 0.000000e+00
 0.000000e+00 0.000000e+00 5.154359e-01 4.845641e-01 0.000000e+00
 0.000000e+00 0.000000e+00 0.000000e+00 6.095858e-01 3.904143e-01
 0.000000e+00 0.000000e+00 0.000000e+00 0.000000e+00 0.000000e+00
<ENDHMM>
~h "s"
<BEGINHMM>
<NUMSTATES> 5
<STATE> 2
<MEAN> 39
 -2.862385e+01 4.984560e+00 8.239602e+00 6.841169e+00 2.618453e+00 -6.977782e+00 -1.225622e+00 3.713989e+00 -3.249127e+00 2.121559e+00 -4.565415e+00 5.356172e+00 1.023063e+02 -8.657027e+00 1.869047e+00 -3.976562e+00 -7.779448e-01 -8.826466e-01 -2.286824e-01 8.509740e-01 1.180520e+00 -2.577204e-02 -5.045010e-01 6.315130e-01 2.813455e-01 9.129897e-01 3.098918e-01 -4.174542e-01 -9.047910e-01 -7.324126e-01 -3.821087e-01 1.623928e-02 -4.286833e-01 -3.794297e-01 -3.964045e-01 2.483671e-01 7.641806e-02 -6.559089e-02 -2.797242e-01
<VARIANCE> 39
 5.773959e+02 2.457512e+02 3.972194e+02 3.251373e+02 3.950688e+02 3.756067e+02 3.335916e+02 2.998448e+02 2.778236e+02 2.310539e+02 2.176673e+02 2.174716e+02 4.977012e+02 5.426358e+01 2.483065e+01 4.575420e+01 4.025372e+01 3.062907e+01 3.736086e+01 3.126247e+01 2.976575e+01 3.232113e+01 2.580359e+01 2.414510e+01 2.306744e+01 3.283613e+01 9.254829e+00 4.873478e+00 5.376647e+00 5.646350e+00 5.557738e+00 5.991842e+00 5.419361e+00 5.630033e+00 5.060400e+00 4.723219e+00 4.392889e+00 4.017799e+00 3.669751e+00
<GCONST> 2.134078e+02
<STATE> 3
<MEAN> 39
 -5.237232e+01 8.232247e+00 -1.038417e+01 1.460106e+00 -4.784425e+00 -1.019968e+01 -1.379003e+00 3.964392e+00 -5.635725e+00 1.260964e+00 -2.991835e+00 6.533957e+00 1.061511e+02 -3.296918e+00 8.108230e-01 -3.598034e+00 -1.383230e+00 -9.408004e-01 4.610339e-01 -7.300439e-01 -6.451107e-01 -7.146861e-01 1.059945e-01 -1.321701e-01 -1.355849e-02 4.248084e-01 2.492555e+00 -5.221284e-01 1.078410e+00 5.998845e-01 4.892980e-01 3.607607e-01 -1.655243e-01 -2.965934e-01 1.663349e-01 1.933747e-01 -2.594243e-01 -1.259702e-01 -5.592830e-01
<VARIANCE> 39
 1.420477e+02 1.492852e+02 1.794516e+02 2.761979e+02 3.594377e+02 2.949503e+02 1.940631e+02 1.781112e+02 1.651845e+02 1.530463e+02 1.633316e+02 1.288620e+02 1.940542e+02 1.994769e+01 1.560149e+01 1.724967e+01 1.520647e+01 1.710394e+01 1.953095e+01 1.875664e+01 1.598567e+01 1.460015e+01 1.437102e+01 1.328094e+01 1.239433e+01 1.355934e+01 2.856464e+00 2.328242e+00 3.659793e+00 2.939167e+00 3.319906e+00 3.499705e+00 3.551206e+00 3.517370e+00 3.222523e+00 3.051608e+00 2.891111e+00 2.767864e+00 1.992643e+00
<GCONST> 1.900170e+02
<STATE> 4
<MEAN> 39
 -5.060903e+01 5.200540e+00 -1.391157e+01 2.390199e+00 -6.243357e+00 -6.066556e+00 -4.255524e+00 3.755800e+00 -6.174638e+00 2.718753e+00 -4.072032e+00 5.667420e+00 1.038878e+02 8.133357e-01 -2.626172e-01 1.917339e-01 -1.252371e-01 3.064431e-02 3.103425e-01 5.065802e-02 -9.744855e-02 8.911512e-02 7.180322e-02 -1.318732e-01 -8.058131e-02 -1.590488e-01 8.411533e-01 -6.997762e-02 7.088929e-01 1.310942e-01 6.515794e-02 -1.706973e-01 5.390738e-02 -3.085181e-02 1.424766e-01 -2.323452e-02 -7.551571e-04 5.093242e-02 3.271327e-02
<VARIANCE> 39
 1.957778e+02 1.396828e+02 1.645674e+02 2.432453e+02 3.033439e+02 2.772809e+02 1.641615e+02 1.484202e+02 1.486499e+02 1.365873e+02 1.443000e+02 1.257093e+02 2.304833e+02 8.000465e+00 5.959575e+00 7.113588e+00 7.813973e+00 9.600763e+00 1.124377e+01 1.138826e+01 1.163673e+01 1.126739e+01 1.141185e+01 1.095802e+01 1.024851e+01 7.000543e+00 1.973679e+00 1.245834e+00 1.860495e+00 1.598979e+00 1.842970e+00 2.254953e+00 2.323528e+00 2.304157e+00 2.259744e+00 2.307890e+00 2.181527e+00 2.092557e+00 1.020464e+00
<GCONST> 1.763534e+02
<TRANSP> 5
 0.000000e+00 1.000000e+00 0.000000e+00 0.000000e+00 0.000000e+00
 0.000000e+00 5.757959e-01 4.242041e-01 0.000000e+00 0.000000e+00
 0.000000e+00 0.000000e+00 5.297118e-01 4.702882e-01 0.000000e+00
 0.000000e+00 0.000000e+00 0.000000e+00 8.516261e-01 1.483739e-01
 0.000000e+00 0.000000e+00 0.000000e+00 0.000000e+00 0.000000e+00
<ENDHMM>
~h "t"
<BEGINHMM>
<NUMSTATES> 5
<STATE> 2
<MEAN> 39
 -1.531991e+01 1.029279e+01 1.553212e+01 1.270793e+01 2.786466e+00 1.603253e+00 -1.718063e+00 -1.111786e+00 -3.837329e+00 1.466025e+00 -1.358954e+00 2.014707e+00 6.239201e+01 -3.387409e+00 -1.427881e+00 -5.266182e+00 -2.044368e+00 -1.906240e-02 -5.898495e-01 -5.306904e-01 5.780243e-01 8.869980e-01 1.779022e-02 1.143628e+00 9.645792e-02 -1.423098e+00 -2.735862e-01 -8.009478e-01 1.030780e+00 -1.523436e+00 -6.736760e-01 -6.166627e-01 -5.387764e-02 -5.215788e-01 -6.848062e-01 1.091734e-01 -3.636229e-01 2.306202e-01 3.791086e+00
<VARIANCE> 39
 2.429409e+02 1.944877e+02 3.558291e+02 2.324547e+02 1.817287e+02 1.905999e+02 2.281709e+02 2.144311e+02 1.966235e+02 1.673862e+02 1.518067e+02 1.314633e+02 4.176982e+02 2.154689e+01 3.354576e+01 5.189128e+01 4.032478e+01 2.636584e+01 2.735281e+01 2.779732e+01 3.080915e+01 3.400120e+01 2.267714e+01 2.147766e+01 1.934047e+01 1.347584e+02 3.474993e+00 6.045964e+00 6.968803e+00 6.382917e+00 4.852647e+00 4.813507e+00 5.237950e+00 5.215199e+00 5.782906e+00 4.229560e+00 3.889555e+00 3.574398e+00 1.306628e+01
<GCONST> 2.081930e+02
<STATE> 3
<MEAN> 39
 -3.423632e+01 -3.201734e-01 5.733077e+00 -1.115049e+01 -3.704635e+00 -8.778067e+00 -3.108925e+00 -4.790871e+00 -1.096090e+01 1.853893e+00 -1.020669e+00 3.525374e+00 1.071126e+02 -4.133358e+00 5.437624e-01 9.850876e-01 -1.841385e+00 -2.428590e+00 -2.758858e+00 1.524169e+00 7.185122e-02 -1.920211e+00 -4.596193e-02 -2.808775e-01 1.609339e+00 1.075753e+01 1.109162e+00 6.063053e-01 1.286447e+00 2.058290e+00 -2.008169e-01 3.965866e-01 6.901906e-01 5.036777e-01 5.955160e-01 7.193123e-02 -1.517095e-01 2.862087e-01 -3.247465e+00
<VARIANCE> 39
 2.204954e+02 2.243966e+02 2.102497e+02 1.875578e+02 1.766171e+02 1.833430e+02 1.910710e+02 1.981049e+02 1.718680e+02 1.550119e+02 1.364879e+02 1.262739e+02 8.701677e+02 1.957486e+01 2.083119e+01 2.267199e+01 2.319711e+01 1.883672e+01 2.346357e+01 2.505039e+01 2.348959e+01 2.064647e+01 1.904592e+01 1.961839e+01 1.558813e+01 1.026537e+02 5.044066e+00 5.166517e+00 4.195791e+00 4.240275e+00 4.027703e+00 3.962399e+00 4.030236e+00 3.822289e+00 4.096694e+00 3.532896e+00 3.342693e+00 3.153789e+00 1.810585e+01
<GCONST> 2.013503e+02
<STATE> 4
<MEAN> 39
 -3.375133e+01 -1.830257e+00 1.372114e+01 -3.603891e+00 -1.176322e+01 -1.239268e+01 6.766009e+00 4.292671e-01 -9.652400e+00 6.683924e-01 -1.576526e+00 9.281394e+00 1.040595e+02 4.022256e+00 -1.214764e+00 2.872399e+00 2.621449e+00 -2.954580e-01 2.541773e-01 9.091136e-01 1.393298e+00 1.041776e+00 -1.703776e-01 -8.470233e-01 2.229134e-01 -1.932181e+00 1.968814e+00 8.953229e-02 5.742598e-01 4.116570e-01 8.614184e-01 3.832352e-01 -6.400155e-01 -1.688240e-01 1.427991e-01 1.247997e-01 -1.719962e-01 -5.148294e-01 -3.258404e-01
<VARIANCE> 39
 2.941239e+02 1.335304e+02 1.966319e+02 1.729224e+02 1.851754e+02 2.555776e+02 2.613608e+02 3.047677e+02 2.126205e+02 1.942410e+02 2.291044e+02 1.745732e+02 5.854171e+02 2.981936e+01 1.232535e+01 2.810082e+01 1.979226e+01 1.682427e+01 1.707463e+01 1.806198e+01 1.838583e+01 1.717379e+01 1.594272e+01 1.607950e+01 1.478126e+01 1.825910e+01 5.853728e+00 2.921300e+00 3.500702e+00 2.918186e+00 3.226927e+00 4.487698e+00 3.837874e+00 3.759130e+00 3.850956e+00 3.614352e+00 3.700924e+00 3.088446e+00 6.377578e+00
<GCONST> 1.974464e+02
<TRANSP> 5
 0.000000e+00 1.000000e+00 0.000000e+00 0.000000e+00 0.000000e+00
 0.000000e+00 7.853544e-01 2.146455e-01 0.000000e+00 0.000000e+00
 0.000000e+00 0.000000e+00 6.203856e-01 3.796143e-01 0.000000e+00
 0.000000e+00 0.000000e+00 0.000000e+00 6.747884e-01 3.252116e-01
 0.000000e+00 0.000000e+00 0.000000e+00 0.000000e+00 0.000000e+00
<ENDHMM>
~h "v"
<BEGINHMM>
<NUMSTATES> 5
<STATE> 2
<MEAN> 39
 1.280580e+01 -2.705812e+01 1.593430e+01 -1.929935e+01 -1.081403e+01 -2.065738e+01 -2.248563e+00 1.227727e+01 1.400596e+01 1.462528e+01 -2.008281e+00 6.335455e+00 1.471450e+02 9.956131e-01 3.218854e-01 1.039825e-01 1.025918e+00 1.016532e+00 2.573401e-01 -6.837431e-01 -1.052856e+00 -7.978405e-01 7.121419e-01 4.051691e-01 -7.942944e-01 -1.673287e+00 -8.780836e-02 1.171164e+00 4.661480e-02 1.468181e+00 1.069661e+00 9.397942e-01 -5.239627e-01 -1.013998e+00 -9.758275e-01 -2.994554e-01 -8.366259e-02 -7.515626e-02 -1.634411e+00
<VARIANCE> 39
 7.360252e+01 1.476829e+02 2.295494e+02 2.164947e+02 2.587716e+02 2.637378e+02 8.612781e+02 2.857311e+02 3.050528e+02 4.665123e+02 3.377722e+02 4.010038e+02 1.668588e+02 2.196503e+00 9.343366e+00 7.531103e+00 1.138534e+01 9.607535e+00 1.141008e+01 1.611457e+01 1.571870e+01 1.560024e+01 1.114242e+01 1.553202e+01 1.206743e+01 7.976092e+00 8.630514e-01 8.977672e-01 1.288376e+00 1.657663e+00 2.039866e+00 2.770370e+00 3.230714e+00 1.939599e+00 2.427359e+00 2.219236e+00 2.092434e+00 2.084354e+00 1.020732e+00
<GCONST> 1.815487e+02
<STATE> 3
<MEAN> 39
 1.898968e+01 -1.655892e+01 1.924015e+01 -1.545995e+00 -3.137804e-01 -1.584855e+01 -1.132873e+01 -5.860601e-02 4.093228e-01 1.626130e+01 4.666072e-01 1.709247e+00 1.267649e+02 -1.470788e+00 6.072843e+00 9.002720e-01 7.488640e+00 5.637455e+00 6.050729e+00 1.198106e-01 -3.018198e+00 -3.891458e+00 -1.493938e+00 4.443147e-01 -2.649621e-01 -9.302001e+00 -1.867251e+00 1.676610e-01 -5.738927e-01 -1.019959e-01 6.352770e-02 1.264103e+00 1.441268e+00 1.227321e+00 5.986500e-01 -6.113680e-01 -2.644476e-01 1.098403e-01 -3.494351e-01
<VARIANCE> 39
 6.282371e+01 1.794228e+02 2.303114e+02 2.871268e+02 2.989990e+02 3.404160e+02 5.008557e+02 3.216320e+02 4.763863e+02 3.458030e+02 3.999696e+02 3.282975e+02 2.711671e+02 1.482919e+01 1.360301e+01 1.635986e+01 1.948958e+01 2.046325e+01 2.415110e+01 3.733275e+01 2.355578e+01 2.726958e+01 2.669044e+01 2.477745e+01 2.173138e+01 1.120076e+01 2.164370e+00 2.651536e+00 2.285187e+00 3.991524e+00 4.284239e+00 5.228335e+00 3.721327e+00 3.430224e+00 4.894868e+00 3.503531e+00 4.083465e+00 3.159517e+00 3.357419e+00
<GCONST> 2.005998e+02
<STATE> 4
<MEAN> 39
 -4.109918e+00 -4.464418e+00 1.361843e+01 1.157670e+01 6.854527e+00 1.225530e+00 3.544297e-03 3.976182e+00 -1.162871e-01 7.129705e+00 -2.479430e+00 3.801770e+00 9.709717e+01 -2.535297e+00 -9.893916e-03 -1.196997e+00 -5.566713e-01 -5.458257e-01 4.422067e-01 5.059463e-01 7.175193e-01 -1.107107e-01 -1.034696e+00 -9.187975e-02 1.353615e-01 -1.723295e+00 7.167479e-01 -1.146363e+00 -1.748634e-01 -1.657550e+00 -1.226797e+00 -1.551910e+00 -3.307412e-01 3.173604e-01 5.322655e-01 1.690093e-01 -3.668908e-02 8.484190e-02 1.781624e+00
<VARIANCE> 39
 3.988739e+02 1.770443e+02 1.901672e+02 2.062605e+02 2.167136e+02 2.437130e+02 2.408965e+02 2.599251e+02 2.682289e+02 2.226414e+02 2.240113e+02 1.961943e+02 3.200376e+02 3.941859e+01 2.183314e+01 1.561829e+01 2.715354e+01 2.371257e+01 3.468971e+01 2.607906e+01 2.101312e+01 2.219044e+01 1.817400e+01 1.842808e+01 1.541618e+01 2.957808e+01 4.732065e+00 4.761664e+00 3.369482e+00 6.366150e+00 5.482971e+00 6.346343e+00 5.412260e+00 4.679128e+00 4.793185e+00 3.960262e+00 3.761345e+00 3.378661e+00 5.491413e+00
<GCONST> 2.038086e+02
<TRANSP> 5
 0.000000e+00 1.000000e+00 0.000000e+00 0.000000e+00 0.000000e+00
 0.000000e+00 7.670498e-01 2.329501e-01 0.000000e+00 0.000000e+00
 0.000000e+00 0.000000e+00 6.086720e-01 3.913280e-01 0.000000e+00
 0.000000e+00 0.000000e+00 0.000000e+00 7.657139e-01 2.342861e-01
 0.000000e+00 0.000000e+00 0.000000e+00 0.000000e+00 0.000000e+00
<ENDHMM>
~h "w"
<BEGINHMM>
<NUMSTATES> 5
<STATE> 2
<MEAN> 39
 3.310471e+01 9.832907e+00 1.867666e+01 -3.633072e+01 -2.264249e+01 -2.389540e+00 -2.838362e+00 1.690192e+01 -4.723245e+00 1.423801e+01 1.611102e+00 -2.818251e-01 1.209897e+02 -4.297767e-01 -4.063119e+00 -3.621396e+00 -6.293470e+00 1.890126e+00 2.738932e+00 2.014044e+00 4.849725e+00 4.681743e-01 -1.874077e+00 7.150561e-01 1.065840e-01 4.196926e+00 -5.446241e-01 -6.679514e-01 -7.504327e-01 9.894123e-01 2.041802e+00 1.569877e+00 4.761655e-01 -6.657032e-01 -6.497433e-01 -9.579203e-01 3.036964e-01 3.405941e-01 -1.840637e-01
<VARIANCE> 39
 4.745466e+01 1.803452e+02 2.298677e+02 3.093355e+02 4.036570e+02 2.703247e+02 5.911207e+02 3.902111e+02 4.449101e+02 3.940256e+02 3.365843e+02 2.826074e+02 1.152127e+02 2.175575e+00 1.015948e+01 8.232799e+00 1.386044e+01 1.847857e+01 1.839464e+01 1.969082e+01 1.892200e+01 2.031142e+01 1.999273e+01 1.621763e+01 1.761125e+01 5.276764e+00 6.072904e-01 1.262969e+00 1.333477e+00 3.091411e+00 2.331312e+00 2.397693e+00 3.867934e+00 4.299933e+00 3.469720e+00 3.218786e+00 3.220375e+00 2.804708e+00 6.490998e-01
<GCONST> 1.869083e+02
<STATE> 3
<MEAN> 39
 2.879803e+01 -7.770201e+00 1.718795e+00 -4.843723e+01 -1.450173e-01 1.775133e+01 4.539770e+00 2.131521e+01 -1.127434e+01 1.710823e+00 9.608827e+00 5.969131e+00 1.338573e+02 -1.489628e+00 -4.621262e+00 -2.681205e+00 1.165743e+00 6.715779e+00 3.504576e+00 -1.986520e+00 -2.639062e+00 -1.049112e+00 1.504046e-01 3.728610e+00 4.672216e-01 2.616210e+00 -1.522968e-01 2.917695e-01 9.067181e-01 2.055404e+00 -2.366623e-01 -1.357030e+00 -1.591788e+00 -9.296471e-01 1.102843e+00 1.379731e+00 -3.000878e-01 -8.983026e-01 -5.249199e-01
<VARIANCE> 39
 5.331052e+01 1.706563e+02 2.194255e+02 2.880798e+02 5.774265e+02 3.168491e+02 5.668358e+02 4.230691e+02 4.015543e+02 4.225241e+02 3.411666e+02 2.925977e+02 1.372288e+02 1.931590e+00 6.890854e+00 5.920826e+00 1.346740e+01 1.146624e+01 1.393868e+01 2.181359e+01 1.772061e+01 2.044788e+01 2.310592e+01 1.462809e+01 1.917309e+01 3.410516e+00 2.763924e-01 7.035179e-01 9.382794e-01 2.040987e+00 2.632740e+00 2.589211e+00 2.485361e+00 3.858620e+00 3.551077e+00 3.125095e+00 4.079412e+00 2.966127e+00 2.953975e-01
<GCONST> 1.827189e+02
<STATE> 4
<MEAN> 39
 2.022509e+01 -2.479627e+01 -9.417432e-02 -2.621054e+01 2.213930e+01 9.056999e+00 -1.140752e+01 1.583156e+01 3.011150e+00 1.078300e+01 1.021130e+01 -3.053001e+00 1.397963e+02 -1.393302e+00 -1.520012e+00 2.182166e+00 4.629794e+00 -4.615818e-01 -3.894181e+00 -1.900106e+00 1.445115e+00 2.917122e+00 2.222188e-01 -2.856037e+00 -4.870536e-01 3.623961e-01 1.574433e-01 9.597151e-01 8.802258e-01 5.258404e-02 -1.242118e+00 -6.387861e-01 1.232863e+00 4.756997e-01 -6.050187e-01 -5.479819e-01 -7.952607e-01 7.980782e-01 -6.966860e-01
<VARIANCE> 39
 7.106378e+01 1.449928e+02 2.052934e+02 3.039474e+02 4.293250e+02 4.018392e+02 4.579742e+02 4.606749e+02 4.377294e+02 3.616288e+02 3.948688e+02 3.146576e+02 1.519356e+02 1.715813e+00 5.871373e+00 6.176590e+00 9.546292e+00 1.724178e+01 1.164175e+01 2.124414e+01 1.705164e+01 1.899492e+01 2.427141e+01 1.674494e+01 2.231457e+01 2.203429e+00 2.506999e-01 7.451766e-01 9.634077e-01 1.390850e+00 2.323226e+00 2.540854e+00 2.814232e+00 3.361375e+00 3.704472e+00 2.820188e+00 4.460292e+00 3.202821e+00 4.033430e-01
<GCONST> 1.821653e+02
<TRANSP> 5
 0.000000e+00 1.000000e+00 0.000000e+00 0.000000e+00 0.000000e+00
 0.000000e+00 6.966906e-01 3.033094e-01 0.000000e+00 0.000000e+00
 0.000000e+00 0.000000e+00 7.611691e-01 2.388309e-01 0.000000e+00
 0.000000e+00 0.000000e+00 0.000000e+00 8.195086e-01 1.804914e-01
 0.000000e+00 0.000000e+00 0.000000e+00 0.000000e+00 0.000000e+00
<ENDHMM>
~h "z"
<BEGINHMM>
<NUMSTATES> 5
<STATE> 2
<MEAN> 39
 -9.594073e+00 1.333902e+01 1.907420e+01 1.638161e+01 7.705639e+00 -4.669086e+00 -2.386890e+00 2.142838e+00 -8.507982e-01 2.226695e+00 -8.191857e+00 5.996077e+00 9.116489e+01 -2.560134e+00 5.039567e+00 -2.781764e-01 2.628609e+00 2.051595e+00 8.648403e-01 5.397357e-01 7.611415e-01 4.724416e-01 -1.410499e-01 -8.350015e-02 2.804191e-01 3.074920e+00 -8.486413e-01 1.612095e-01 -6.867995e-01 -2.593625e-01 -1.035641e-01 1.930216e-01 5.084693e-02 1.170641e-01 -1.950250e-01 2.504613e-01 3.132713e-01 -1.429901e-01 2.160061e-01
<VARIANCE> 39
 3.378863e+02 2.437061e+02 3.381646e+02 3.206355e+02 3.498083e+02 3.114126e+02 3.080674e+02 2.753050e+02 2.534557e+02 2.744555e+02 2.779077e+02 3.385620e+02 7.117805e+02 4.692224e+01 2.536626e+01 3.615168e+01 3.141527e+01 2.599703e+01 3.127168e+01 2.699370e+01 2.653911e+01 2.346232e+01 2.452915e+01 2.339772e+01 2.063441e+01 3.752998e+01 4.691988e+00 3.697089e+00 4.851150e+00 4.046411e+00 4.177874e+00 4.566690e+00 4.535096e+00 4.603967e+00 3.865170e+00 4.506513e+00 4.066510e+00 4.025673e+00 3.903779e+00
<GCONST> 2.090907e+02
<STATE> 3
<MEAN> 39
 -3.194197e+01 3.281192e+01 9.859985e+00 2.568888e+01 1.343405e+01 4.210244e+00 2.639380e+00 7.104274e+00 -9.632530e-01 5.447268e+00 -4.123448e+00 6.648138e+00 1.085928e+02 -3.766558e+00 3.949964e-01 -1.631897e+00 -3.827161e-01 -3.998407e-03 7.873064e-01 6.716473e-01 4.294479e-01 -3.214172e-01 3.768897e-01 5.204562e-01 -3.032172e-02 1.101892e+00 1.578574e+00 -1.256124e+00 1.113226e+00 -5.798362e-01 -7.824697e-01 -7.170559e-01 -2.886143e-01 -7.036814e-01 -3.255340e-01 -2.846797e-01 -2.580304e-01 9.841197e-02 3.116767e-01
<VARIANCE> 39
 2.395958e+02 1.800059e+02 2.634371e+02 3.855439e+02 4.103546e+02 3.503964e+02 2.499822e+02 2.278797e+02 1.609171e+02 1.654745e+02 2.503260e+02 1.912871e+02 1.682119e+02 1.909905e+01 1.762447e+01 1.705100e+01 1.524280e+01 1.583890e+01 1.816565e+01 1.587396e+01 1.696171e+01 1.363919e+01 1.426027e+01 1.197051e+01 1.271984e+01 1.022683e+01 2.872517e+00 3.452351e+00 3.049766e+00 3.039004e+00 3.227056e+00 3.991695e+00 3.565717e+00 3.684711e+00 2.897348e+00 2.940375e+00 2.520673e+00 2.542620e+00 1.745586e+00
<GCONST> 1.922627e+02
<STATE> 4
<MEAN> 39
 -2.836562e+01 2.379295e+01 1.852855e+01 1.703583e+01 7.331699e+00 -5.160125e+00 -2.170599e+00 -9.768776e-01 -6.508169e+00 1.823662e+00 -7.461102e+00 5.282932e+00 1.216045e+02 7.601141e+00 -4.764148e+00 7.673268e+00 -1.474982e+00 -3.157784e+00 -3.536980e+00 -2.467345e+00 -2.902663e+00 -1.752496e+00 -1.433671e+00 -1.111518e+00 5.103580e-01 4.528460e+00 1.482623e+00 -1.671498e+00 1.574957e+00 -7.331402e-01 -2.125146e-01 -2.480133e-01 -4.092149e-01 1.472717e-01 -1.354197e-01 1.841089e-01 2.042419e-02 1.887915e-01 1.445171e-01
<VARIANCE> 39
 3.055188e+02 1.732665e+02 3.503866e+02 3.124308e+02 4.887115e+02 3.102088e+02 2.815071e+02 1.960811e+02 1.474953e+02 1.690410e+02 2.916129e+02 2.314987e+02 1.707363e+02 2.534214e+01 2.906771e+01 3.549593e+01 2.878852e+01 2.016504e+01 2.654072e+01 2.352120e+01 3.024755e+01 1.892347e+01 1.627461e+01 1.616146e+01 1.905959e+01 6.103687e+00 5.310204e+00 3.135644e+00 5.303210e+00 4.691045e+00 4.083784e+00 4.309445e+00 4.240450e+00 4.437690e+00 3.436614e+00 3.531968e+00 3.321640e+00 3.038656e+00 1.061446e+00
<GCONST> 1.997367e+02
<TRANSP> 5
 0.000000e+00 1.000000e+00 0.000000e+00 0.000000e+00 0.000000e+00
 0.000000e+00 7.219496e-01 2.780504e-01 0.000000e+00 0.000000e+00
 0.000000e+00 0.000000e+00 8.068652e-01 1.931348e-01 0.000000e+00
 0.000000e+00 0.000000e+00 0.000000e+00 7.552143e-01 2.447858e-01
 0.000000e+00 0.000000e+00 0.000000e+00 0.000000e+00 0.000000e+00
<ENDHMM>
~h "ah"
<BEGINHMM>
<NUMSTATES> 5
<STATE> 2
<MEAN> 39
 1.776742e+01 -1.899449e+01 1.847456e+01 -8.858143e+00 6.606515e+00 -8.307543e+00 -1.298868e+01 1.136135e+01 7.357895e-01 1.247023e+01 1.779010e+00 1.732783e+00 1.326326e+02 -1.305369e-01 7.081187e-01 2.608699e+00 8.804954e-01 -1.382889e+00 -2.136525e+00 2.148532e+00 1.606888e+00 -1.453197e-01 -4.464803e-01 -2.147780e+00 1.282837e+00 -1.647188e-01 4.745822e-02 1.100853e+00 4.793171e-01 1.177499e+00 -6.918460e-02 1.100796e+00 1.295871e+00 -1.399750e+00 -6.332463e-01 -1.147789e-02 -3.802195e-01 3.188910e-01 -1.350566e+00
<VARIANCE> 39
 7.233420e+01 1.455164e+02 1.742633e+02 2.285882e+02 2.436604e+02 3.860773e+02 6.021549e+02 4.471253e+02 5.079286e+02 4.453739e+02 3.747344e+02 3.500562e+02 1.820982e+02 3.907484e+00 1.266687e+01 1.201265e+01 3.479288e+01 1.786274e+01 2.133150e+01 2.884575e+01 2.597528e+01 3.048566e+01 2.587339e+01 2.845528e+01 2.094195e+01 2.038392e+01 9.524071e-01 2.232463e+00 1.782392e+00 4.702865e+00 3.516902e+00 5.660959e+00 7.117760e+00 6.406590e+00 5.814467e+00 4.542146e+00 4.137740e+00 3.428727e+00 3.321064e+00
<GCONST> 2.001971e+02
<STATE> 3
<MEAN> 39
 1.754727e+01 -1.021494e+01 2.829983e+01 3.474208e+00 4.189046e+00 -1.122740e+01 5.221368e+00 1.066007e+01 -2.084006e+00 7.815725e+00 -8.916173e+00 1.068417e+01 1.230131e+02 7.812364e-01 5.102503e+00 4.401592e+00 6.841635e+00 -3.047523e+00 3.460391e+00 6.439320e+00 -7.513257e+00 -1.562935e+00 -7.309091e-01 -2.101173e+00 2.571736e+00 -5.987688e+00 7.505398e-02 1.808738e-01 -5.623222e-01 -2.124484e-01 -2.089511e-01 1.578121e+00 -2.483509e-01 -1.184358e+00 6.530816e-01 -4.589985e-02 7.890544e-01 -2.671729e-01 -1.893112e-01
<VARIANCE> 39
 5.639507e+01 1.657505e+02 2.091005e+02 3.388697e+02 2.642501e+02 4.144348e+02 5.685234e+02 5.130175e+02 4.270577e+02 5.326368e+02 3.937287e+02 3.978141e+02 1.719986e+02 5.141406e+00 9.007391e+00 1.588501e+01 2.198443e+01 2.241117e+01 4.286508e+01 4.943423e+01 4.186386e+01 3.770543e+01 2.979376e+01 3.454566e+01 2.670398e+01 4.975354e+00 5.861136e-01 1.512333e+00 2.520672e+00 4.392349e+00 2.887012e+00 4.832199e+00 5.123471e+00 6.879119e+00 4.419299e+00 3.903782e+00 3.613641e+00 3.254025e+00 1.537229e+00
<GCONST> 1.994931e+02
<STATE> 4
<MEAN> 39
 1.953506e+01 2.828619e+00 3.577803e+01 1.647262e+01 -5.458719e+00 7.379213e+00 1.676226e+01 -1.001641e+01 -1.600301e+00 4.696065e+00 -7.401325e+00 1.468425e+01 1.084080e+02 -1.187584e-01 2.406063e+00 6.565104e-01 1.888594e+00 -5.339565e-01 2.415131e+00 1.683331e+00 -1.712272e+00 1.552554e-01 -3.854063e-01 -2.635465e-01 7.191391e-02 -2.810978e+00 -4.645225e-01 -4.933525e-01 -8.516641e-01 -7.626395e-01 8.793448e-01 -6.633859e-01 -9.220985e-01 1.675631e+00 1.208122e-01 1.023131e-01 1.994136e-01 -6.124071e-01 3.648507e-01
<VARIANCE> 39
 4.885978e+01 1.844376e+02 1.371745e+02 2.553314e+02 2.522527e+02 4.087444e+02 4.878889e+02 4.084972e+02 5.243585e+02 5.818871e+02 5.475950e+02 4.938900e+02 1.666509e+02 2.778292e+00 6.808601e+00 8.397209e+00 1.092824e+01 1.183574e+01 1.968361e+01 2.058332e+01 2.596710e+01 1.553619e+01 1.353532e+01 1.558463e+01 1.385657e+01 4.189943e+00 6.528299e-01 1.396602e+00 1.751828e+00 2.887898e+00 2.396337e+00 3.702737e+00 4.548524e+00 4.344582e+00 3.826293e+00 3.197519e+00 3.711360e+00 3.302148e+00 1.027790e+00
<GCONST> 1.883265e+02
<TRANSP> 5
 0.000000e+00 1.000000e+00 0.000000e+00 0.000000e+00 0.000000e+00
 0.000000e+00 7.096525e-01 2.903475e-01 0.000000e+00 0.000000e+00
 0.000000e+00 0.000000e+00 5.389498e-01 4.610502e-01 0.000000e+00
 0.000000e+00 0.000000e+00 0.000000e+00 7.535879e-01 2.464121e-01
 0.000000e+00 0.000000e+00 0.000000e+00 0.000000e+00 0.000000e+00
<ENDHMM>
~h "ao"
<BEGINHMM>
<NUMSTATES> 5
<STATE> 2
<MEAN> 39
 3.268904e+01 1.332763e+01 1.252525e+01 -3.639808e+01 -1.818349e+01 4.902692e-01 3.705309e-01 7.335828e+00 -1.311451e+01 5.077483e+00 -8.596731e+00 2.586554e+00 1.184892e+02 9.456406e+00 4.818093e+00 4.025548e+00 -1.024024e+01 -5.939651e+00 -1.392779e+00 -6.339025e-01 2.578603e+00 -1.805647e+00 1.175398e+00 -1.585813e+00 -1.065583e+00 4.170654e+00 -4.193548e+00 -2.109153e+00 -9.715678e-01 2.057236e+00 6.188490e-01 -2.992585e-01 -9.653520e-01 -4.365326e-01 3.401330e-01 2.278963e-01 3.699997e-01 -1.084151e-01 -8.497853e-01
<VARIANCE> 39
 8.597483e+01 1.393529e+02 1.814348e+02 4.223185e+02 4.199990e+02 2.800489e+02 3.292736e+02 3.308145e+02 3.051218e+02 2.549781e+02 2.320536e+02 3.224309e+02 1.626263e+02 3.727058e+01 2.364858e+01 2.207960e+01 3.450835e+01 3.560802e+01 2.568677e+01 3.632343e+01 3.120446e+01 3.144825e+01 3.033764e+01 2.535469e+01 3.345869e+01 1.123207e+01 2.053226e+00 2.214773e+00 2.263081e+00 5.792959e+00 4.149672e+00 2.763254e+00 3.357651e+00 3.547983e+00 3.570901e+00 2.830070e+00 2.925293e+00 3.557500e+00 2.231822e+00
<GCONST> 2.009199e+02
<STATE> 3
<MEAN> 39
 3.552054e+01 1.675312e+01 1.699413e+01 -4.634328e+01 -2.721041e+01 -3.112722e+00 -3.810977e+00 1.024762e+01 -1.205085e+01 1.033917e+01 -9.316833e+00 -3.016816e-01 1.212324e+02 1.718110e-01 -3.859055e-01 -6.502073e-01 3.385668e-01 -4.576680e-01 -5.081418e-01 5.941476e-01 4.617537e-01 -6.320845e-01 6.270913e-02 3.183134e-01 1.155978e-01 8.805829e-02 -4.116358e-01 -7.533870e-01 -7.983052e-01 9.096342e-01 7.911627e-01 1.434722e-01 3.601657e-01 -1.437028e-01 -3.461965e-01 -2.939550e-01 3.798227e-01 3.989869e-01 -5.094001e-02
<VARIANCE> 39
 5.352378e+01 1.685073e+02 2.516310e+02 3.301144e+02 4.963570e+02 3.541980e+02 5.126903e+02 3.642392e+02 3.818458e+02 3.647505e+02 3.028476e+02 3.739627e+02 1.393351e+02 1.013049e+00 7.335549e+00 7.037768e+00 6.189919e+00 6.397273e+00 7.559047e+00 1.183212e+01 1.004499e+01 1.123714e+01 9.553452e+00 9.101324e+00 8.618094e+00 2.891128e+00 1.164065e+00 9.045213e-01 1.071584e+00 2.343837e+00 1.648890e+00 1.401886e+00 1.880899e+00 1.977170e+00 2.099192e+00 2.095010e+00 2.113214e+00 2.130049e+00 7.265293e-01
<GCONST> 1.750712e+02
<STATE> 4
<MEAN> 39
 3.768022e+01 -3.400669e+00 -8.964514e+00 -3.007342e+01 -5.575073e+00 -7.875806e+00 -2.932434e+00 1.341827e+01 -2.306910e+01 5.635502e+00 2.800603e+00 1.132123e+01 1.272843e+02 1.065321e-01 -3.461566e+00 -4.118807e+00 3.720012e+00 6.077947e+00 -1.293534e+00 -2.401450e+00 -6.897399e-01 4.755187e-01 5.721499e-01 1.926658e+00 1.548541e+00 6.454062e-01 -1.691564e-01 3.083561e-01 5.837475e-01 4.578535e-01 2.508334e-01 -3.499997e-01 -8.237968e-01 -9.975549e-02 1.187837e+00 3.490033e-01 -4.286815e-01 -6.044161e-01 -3.984297e-01
<VARIANCE> 39
 5.992446e+01 2.446560e+02 3.274757e+02 3.123156e+02 6.653153e+02 4.768625e+02 8.702508e+02 6.407866e+02 5.012364e+02 7.195535e+02 4.045632e+02 3.750496e+02 1.691217e+02 1.677646e+00 7.943373e+00 1.162023e+01 1.422623e+01 1.718518e+01 2.261183e+01 2.393028e+01 2.679789e+01 2.908697e+01 3.497293e+01 2.805728e+01 3.526366e+01 3.229963e+00 2.893377e-01 9.511001e-01 1.685768e+00 1.597912e+00 3.013188e+00 2.966022e+00 3.469105e+00 4.493083e+00 3.942735e+00 5.505778e+00 4.663914e+00 5.087810e+00 3.271082e-01
<GCONST> 1.934429e+02
<TRANSP> 5
 0.000000e+00 1.000000e+00 0.000000e+00 0.000000e+00 0.000000e+00
 0.000000e+00 5.981526e-01 4.018474e-01 0.000000e+00 0.000000e+00
 0.000000e+00 0.000000e+00 8.715995e-01 1.284005e-01 0.000000e+00
 0.000000e+00 0.000000e+00 0.000000e+00 8.500817e-01 1.499182e-01
 0.000000e+00 0.000000e+00 0.000000e+00 0.000000e+00 0.000000e+00
<ENDHMM>
~h "ay"
<BEGINHMM>
<NUMSTATES> 5
<STATE> 2
<MEAN> 39
 1.771186e+01 -3.223326e+01 -4.911714e-01 -2.366434e+01 9.976593e+00 6.071520e+00 -4.789168e+00 1.413943e+01 7.692683e+00 1.149297e+01 6.620557e-01 -1.068560e+00 1.459837e+02 -4.479142e-01 -1.895498e+00 -2.313534e+00 -1.151657e-01 2.251313e+00 2.386819e+00 -8.629116e-01 -1.206524e-01 1.018966e+00 -7.026865e-01 3.175596e-01 -1.411268e+00 9.601085e-01 -1.417978e-01 1.108383e+00 9.219341e-01 1.171520e+00 -3.087345e-01 -2.649526e-01 1.101924e-01 -6.587048e-01 -4.960408e-01 -8.706017e-02 -1.427085e-01 1.669146e-01 -1.313117e+00
<VARIANCE> 39
 7.989359e+01 1.573167e+02 2.850685e+02 3.687628e+02 4.277354e+02 3.712274e+02 4.340350e+02 4.418689e+02 4.023255e+02 4.285708e+02 4.561207e+02 3.659632e+02 1.162308e+02 2.560958e+00 5.174352e+00 8.428273e+00 9.978727e+00 1.094719e+01 1.157652e+01 1.686471e+01 1.236673e+01 1.410423e+01 1.367594e+01 1.539533e+01 1.361235e+01 2.569937e+00 1.042215e+00 1.101987e+00 1.181286e+00 2.422594e+00 2.051141e+00 2.383938e+00 3.417101e+00 3.529622e+00 2.858158e+00 2.456033e+00 2.600324e+00 1.946258e+00 1.186354e+00
<GCONST> 1.834148e+02
<STATE> 3
<MEAN> 39
 1.639117e+01 -3.582149e+01 -2.747544e+00 -2.169275e+01 1.382000e+01 1.013274e+01 -7.111443e+00 1.309101e+01 9.134241e+00 1.028784e+01 -7.749724e-01 -4.449560e+00 1.458540e+02 -2.083526e-01 -3.113178e-01 6.036084e-01 9.459230e-01 -2.407859e-01 -9.427130e-01 -8.939353e-02 6.979096e-01 3.486005e-01 -4.448162e-01 -4.502513e-01 4.516673e-02 -1.536073e-01 -1.425268e-02 1.456225e-01 3.610741e-01 1.053054e-01 -4.162217e-01 -4.534319e-01 2.084852e-01 1.792430e-01 -6.958539e-02 -4.984189e-02 -4.670557e-02 2.380094e-01 -7.031291e-02
<VARIANCE> 39
 7.321648e+01 1.632501e+02 2.252155e+02 3.754738e+02 4.755182e+02 3.489884e+02 3.660990e+02 4.294307e+02 3.643014e+02 3.593097e+02 4.116825e+02 3.924276e+02 1.465541e+02 7.923893e-01 1.558351e+00 2.706870e+00 3.392868e+00 4.502748e+00 6.051572e+00 5.380630e+00 4.618547e+00 4.584945e+00 4.772385e+00 5.070419e+00 4.988675e+00 6.948643e-01 1.278398e-01 2.425988e-01 3.434815e-01 4.379885e-01 5.694476e-01 6.325769e-01 8.119856e-01 6.860352e-01 7.395447e-01 7.565802e-01 7.665047e-01 7.587564e-01 9.662481e-02
<GCONST> 1.496234e+02
<STATE> 4
<MEAN> 39
 1.268933e+01 -3.250272e+01 1.557220e+01 -1.235078e+01 -1.383185e+00 -7.521742e+00 1.616018e+00 2.317817e+01 7.046480e+00 3.623022e+00 -2.395475e+00 3.869376e+00 1.419025e+02 -5.449488e-01 2.211073e+00 4.206799e+00 1.459273e-01 -3.655569e+00 -2.317847e+00 2.317528e+00 -1.724722e-01 -1.906865e+00 4.128540e-01 7.734652e-01 1.430080e+00 -1.276585e+00 2.019981e-01 6.814747e-01 1.345441e-01 6.788551e-03 2.999749e-01 3.994351e-01 -1.356908e-01 -9.433530e-01 -3.641275e-01 4.949374e-01 8.961898e-02 -1.462417e-01 -5.602387e-01
<VARIANCE> 39
 7.506308e+01 1.933917e+02 3.795033e+02 2.580944e+02 4.261985e+02 2.680805e+02 5.286656e+02 3.262431e+02 3.833836e+02 3.649688e+02 3.310849e+02 3.383336e+02 1.930930e+02 1.712933e+00 4.555787e+00 6.305244e+00 1.000718e+01 1.168427e+01 1.442712e+01 1.811153e+01 1.639200e+01 1.461423e+01 1.404443e+01 1.223782e+01 1.273875e+01 1.873085e+00 2.888821e-01 5.565912e-01 1.050454e+00 1.561434e+00 1.926424e+00 1.531630e+00 2.356598e+00 2.028500e+00 2.175925e+00 2.015849e+00 2.055209e+00 1.945153e+00 3.520290e-01
<GCONST> 1.763499e+02
<TRANSP> 5
 0.000000e+00 1.000000e+00 0.000000e+00 0.000000e+00 0.000000e+00
 0.000000e+00 6.857424e-01 3.142576e-01 0.000000e+00 0.000000e+00
 0.000000e+00 0.000000e+00 9.003512e-01 9.964880e-02 0.000000e+00
 0.000000e+00 0.000000e+00 0.000000e+00 8.035785e-01 1.964214e-01
 0.000000e+00 0.000000e+00 0.000000e+00 0.000000e+00 0.000000e+00
<ENDHMM>
~h "eh"
<BEGINHMM>
<NUMSTATES> 5
<STATE> 2
<MEAN> 39
 -5.087013e+01 7.028642e+00 -1.298771e+01 -1.244781e+00 -7.272741e+00 -7.134780e+00 -3.395807e+00 1.983807e+00 -5.774219e+00 1.556999e+00 -4.700195e+00 7.442194e+00 1.115132e+02 8.884637e+00 -4.762392e-01 6.102050e+00 4.908745e-01 -2.683803e-01 -2.102274e+00 -5.636611e-01 -5.825549e-01 1.620589e+00 1.690683e-01 -7.300208e-01 1.252937e+00 2.267505e+00 4.346005e+00 -1.028360e+00 2.459498e+00 -1.604382e-01 1.896270e-01 -1.111876e+00 -8.589204e-01 -2.568963e-01 8.625640e-01 6.792291e-01 -1.404687e-01 3.339736e-01 1.730778e+00
<VARIANCE> 39
 1.354517e+02 1.075248e+02 1.283964e+02 2.080906e+02 2.628340e+02 2.711793e+02 1.384729e+02 1.393640e+02 1.521040e+02 1.257169e+02 1.705945e+02 1.235349e+02 1.146054e+02 3.305211e+01 1.224364e+01 1.845784e+01 1.266910e+01 1.091519e+01 1.566322e+01 1.356691e+01 1.272797e+01 1.416108e+01 1.852393e+01 1.495683e+01 1.558882e+01 1.004368e+01 1.766572e+00 1.995794e+00 2.175135e+00 2.617409e+00 2.716154e+00 4.477129e+00 4.959590e+00 2.788835e+00 4.468216e+00 4.211020e+00 3.208154e+00 3.857049e+00 1.395281e+00
<GCONST> 1.860414e+02
<STATE> 3
<MEAN> 39
 -1.622403e+01 8.471190e+00 1.055091e+01 5.605451e+00 -4.367329e+00 -1.243141e+01 -6.209967e+00 -6.533285e-01 2.777454e-01 4.581903e+00 -8.229159e+00 9.400412e+00 1.161555e+02 1.767995e+01 -5.103246e+00 9.759969e+00 -1.722984e+00 -1.790682e-01 -4.495956e+00 -3.945313e+00 -1.130114e+00 3.066046e+00 2.768204e+00 -3.784112e-01 1.302255e+00 8.407781e+00 -8.580883e-01 -2.145231e+00 -1.231226e+00 -2.026733e+00 -5.383082e-01 -2.708299e-01 -2.258328e-01 8.758260e-01 4.546045e-01 7.113349e-01 6.741664e-01 -2.845667e-01 1.787984e+00
<VARIANCE> 39
 4.490559e+02 1.016134e+02 1.709896e+02 1.721902e+02 2.972154e+02 2.116842e+02 1.757484e+02 1.716107e+02 1.745842e+02 2.294310e+02 2.334698e+02 2.278884e+02 1.689878e+02 1.237373e+01 1.683812e+01 1.894828e+01 2.710521e+01 2.339849e+01 4.669654e+01 5.775831e+01 2.192002e+01 4.384224e+01 4.194768e+01 2.738041e+01 4.194410e+01 9.786393e+00 6.592527e+00 2.053928e+00 3.620315e+00 2.120086e+00 2.873257e+00 3.371482e+00 6.287761e+00 2.732169e+00 3.645056e+00 3.272437e+00 3.116378e+00 3.001468e+00 1.756866e+00
<GCONST> 1.982706e+02
<STATE> 4
<MEAN> 39
 1.239474e+01 -1.492188e+01 2.335176e+01 -1.070701e+01 -9.023163e+00 -2.518301e+01 -1.792897e+01 -4.085055e-01 6.961675e+00 1.288855e+01 -5.737753e+00 1.262747e+01 1.441686e+02 5.562912e+00 -7.361866e+00 1.560154e+00 -5.942332e+00 -1.845829e+00 -2.503557e+00 -2.311245e-01 2.965160e+00 3.652103e+00 2.725291e+00 1.630075e+00 3.922960e-02 7.399687e+00 -4.490696e+00 6.243874e-01 -2.919737e+00 -6.050368e-02 4.882814e-02 1.567691e+00 1.838217e+00 1.068597e+00 -3.609322e-01 -4.470190e-01 2.511468e-01 -8.582770e-01 -1.914847e+00
<VARIANCE> 39
 5.268383e+01 1.393401e+02 1.768874e+02 2.344967e+02 3.094624e+02 2.511870e+02 6.842758e+02 2.766893e+02 3.508995e+02 4.782514e+02 4.031705e+02 5.346520e+02 1.210119e+02 3.580336e+01 1.087558e+01 2.246893e+01 1.765325e+01 1.970551e+01 2.560907e+01 6.324825e+01 1.768485e+01 2.514749e+01 2.218035e+01 1.994972e+01 2.042402e+01 1.194434e+01 1.613233e+00 2.453988e+00 2.218446e+00 3.214697e+00 2.716736e+00 4.864499e+00 5.035604e+00 2.803147e+00 5.021145e+00 4.033700e+00 3.637157e+00 4.942822e+00 1.172420e+00
<GCONST> 1.983623e+02
<TRANSP> 5
 0.000000e+00 1.000000e+00 0.000000e+00 0.000000e+00 0.000000e+00
 0.000000e+00 5.787907e-01 4.212093e-01 0.000000e+00 0.000000e+00
 0.000000e+00 0.000000e+00 4.121155e-01 5.878845e-01 0.000000e+00
 0.000000e+00 0.000000e+00 0.000000e+00 5.978831e-01 4.021170e-01
 0.000000e+00 0.000000e+00 0.000000e+00 0.000000e+00 0.000000e+00
<ENDHMM>
~h "ey"
<BEGINHMM>
<NUMSTATES> 5
<STATE> 2
<MEAN> 39
 -9.480755e+00 -6.610621e+00 1.557624e+01 -7.003087e+00 -1.538949e+01 -1.698183e+01 -5.995345e+00 -1.828431e+00 -1.751326e+00 7.772529e+00 -1.141726e+00 6.881691e+00 9.019156e+01 1.274289e+00 -2.389539e+00 3.758204e+00 -2.039005e+00 -2.473110e+00 -1.275390e+00 1.575572e+00 1.352729e+00 8.459216e-01 8.665408e-01 3.486469e-01 5.206679e-01 6.243269e+00 5.522860e-01 -1.417162e-01 8.291423e-01 -4.494867e-01 8.722192e-02 3.370068e-01 3.926789e-01 5.238968e-02 -2.403598e-01 1.258473e-01 4.085159e-02 4.091319e-02 1.733635e+00
<VARIANCE> 39
 3.739348e+02 2.477757e+02 4.262091e+02 3.684716e+02 3.580330e+02 4.080980e+02 5.186963e+02 4.811154e+02 4.230822e+02 3.464612e+02 2.813123e+02 2.771086e+02 1.244463e+03 3.355809e+01 2.093443e+01 4.029136e+01 3.586016e+01 3.278591e+01 3.947983e+01 4.724018e+01 4.057917e+01 3.740107e+01 3.135486e+01 2.881868e+01 2.646356e+01 1.214092e+02 4.569107e+00 3.857646e+00 5.393241e+00 5.331252e+00 6.239253e+00 6.950109e+00 8.245505e+00 7.489690e+00 6.797421e+00 5.806289e+00 5.514253e+00 5.110811e+00 1.566031e+01
<GCONST> 2.206273e+02
<STATE> 3
<MEAN> 39
 2.211219e+00 -1.435385e+01 5.249752e+01 -2.319830e+01 -2.254622e+01 -1.530519e+01 3.314632e-01 -1.825011e+00 -6.265007e+00 1.202504e+01 -7.532698e-01 9.444299e+00 1.407440e+02 3.707028e-03 1.124625e+00 3.006541e+00 -2.733729e-01 4.753386e-01 1.059295e+00 -7.077907e-01 -1.743907e+00 -1.135426e+00 -4.369644e-01 -6.628816e-01 -1.552490e-01 1.129828e+00 -2.920780e-01 4.257161e-01 -2.935455e-01 4.950944e-01 4.447962e-01 2.356697e-01 -1.430652e-01 -2.054512e-01 -7.584099e-02 -2.590050e-01 -2.458356e-01 -1.428177e-01 -1.220958e+00
<VARIANCE> 39
 6.869827e+01 2.063755e+02 3.767304e+02 4.364796e+02 2.093017e+02 2.942660e+02 5.260223e+02 3.821810e+02 6.483148e+02 2.710217e+02 1.964222e+02 1.956660e+02 1.668244e+02 5.898209e+00 7.314312e+00 9.150932e+00 8.771148e+00 9.076290e+00 9.442634e+00 1.269542e+01 1.102453e+01 1.212614e+01 1.070668e+01 8.888265e+00 1.014988e+01 3.087382e+01 8.757502e-01 9.697872e-01 1.470190e+00 1.412031e+00 1.238230e+00 1.487628e+00 1.972566e+00 1.653752e+00 1.662207e+00 1.546470e+00 1.355928e+00 1.357039e+00 3.140967e+00
<GCONST> 1.796357e+02
<STATE> 4
<MEAN> 39
 -3.443080e+00 6.793543e+00 7.074925e+01 -1.018358e+01 -7.837759e+00 -4.958602e-01 -4.367385e+00 -2.005828e+01 -1.389895e+01 5.387777e-01 -1.298027e+01 5.305988e+00 1.189136e+02 -3.979695e-01 2.652867e+00 -3.074769e+00 5.150276e+00 1.843387e+00 1.334957e+00 1.070086e+00 7.542992e-01 2.138603e-01 -1.035635e+00 -2.776545e-01 -9.799213e-01 -7.860321e+00 -2.182025e-01 -2.907447e-02 -2.376797e+00 5.506174e-01 3.409107e-02 -2.746512e-01 9.115518e-02 9.661653e-01 6.518795e-01 2.264396e-01 7.993264e-01 4.765926e-02 -1.388308e+00
<VARIANCE> 39
 7.029927e+01 2.402429e+02 2.343241e+02 5.714402e+02 2.704955e+02 3.176031e+02 3.148123e+02 5.580167e+02 6.693555e+02 3.805824e+02 3.364428e+02 4.354602e+02 3.820174e+02 6.453115e+00 1.218449e+01 4.789140e+01 2.485965e+01 1.863220e+01 1.742809e+01 2.194619e+01 2.848241e+01 3.072590e+01 2.092727e+01 2.143606e+01 2.149906e+01 3.061875e+01 1.450744e+00 2.151072e+00 4.429296e+00 4.728930e+00 3.182472e+00 3.055119e+00 3.684706e+00 4.650569e+00 4.615740e+00 3.656806e+00 3.597456e+00 3.801313e+00 3.199537e+00
<GCONST> 2.025311e+02
<TRANSP> 5
 0.000000e+00 1.000000e+00 0.000000e+00 0.000000e+00 0.000000e+00
 0.000000e+00 7.852160e-01 2.147840e-01 0.000000e+00 0.000000e+00
 0.000000e+00 0.000000e+00 9.113613e-01 8.863870e-02 0.000000e+00
 0.000000e+00 0.000000e+00 0.000000e+00 8.413481e-01 1.586519e-01
 0.000000e+00 0.000000e+00 0.000000e+00 0.000000e+00 0.000000e+00
<ENDHMM>
~h "hh"
<BEGINHMM>
<NUMSTATES> 5
<STATE> 2
<MEAN> 39
 -3.952624e+00 3.133138e+00 3.002916e+00 -2.484979e+00 1.414272e+00 5.094639e+00 1.392660e+00 1.147098e-01 -5.388855e+00 4.339482e+00 -2.013428e+00 2.708987e+00 7.901963e+01 2.855551e+00 2.766429e+00 1.277725e+00 2.512965e-01 -5.793566e-01 1.345615e+00 1.734769e+00 6.845487e-01 3.181700e-01 5.303714e-01 8.744682e-02 -2.633302e-01 -6.186945e-01 8.368033e-01 5.418276e-01 7.240614e-01 -1.499392e-01 -6.829243e-01 -5.475348e-01 -4.529940e-02 1.317866e-01 1.036184e-01 2.369328e-01 -9.469394e-02 -4.226055e-02 7.720144e-01
<VARIANCE> 39
 5.880927e+02 2.829699e+02 2.245955e+02 2.465067e+02 2.883737e+02 2.867168e+02 3.244608e+02 2.842414e+02 3.133417e+02 2.348472e+02 2.069666e+02 2.017699e+02 6.422888e+02 2.894028e+01 2.582882e+01 2.424557e+01 2.544213e+01 2.636149e+01 3.149350e+01 2.871974e+01 2.641794e+01 2.439990e+01 2.115803e+01 1.956185e+01 1.615071e+01 2.318471e+01 4.173729e+00 4.471439e+00 3.720023e+00 4.724904e+00 5.437347e+00 5.895235e+00 5.723832e+00 5.256315e+00 5.034693e+00 4.401875e+00 3.963561e+00 3.346557e+00 4.241970e+00
<GCONST> 2.070202e+02
<STATE> 3
<MEAN> 39
 1.999784e+01 2.300250e+01 1.715144e+01 1.161422e+00 -2.112302e+00 8.137656e+00 9.004119e+00 3.449700e+00 -3.495623e+00 7.531297e+00 -3.362524e+00 2.034666e+00 8.762129e+01 6.444033e+00 2.561794e+00 2.462700e+00 -2.877088e+00 -3.782687e+00 -1.822483e+00 -4.923789e-01 1.401235e-01 -5.853118e-02 1.518837e+00 -2.873229e-01 -4.896878e-01 4.989138e+00 -4.520979e-01 -1.540416e+00 -4.657145e-01 -1.625981e+00 -6.657079e-01 -1.026903e+00 -1.085781e+00 -2.532975e-01 -2.940227e-01 2.120768e-01 1.599354e-01 1.509771e-01 1.043312e+00
<VARIANCE> 39
 2.496668e+02 2.083949e+02 1.283190e+02 2.954365e+02 2.580535e+02 2.388526e+02 2.353256e+02 2.258101e+02 3.239664e+02 2.130287e+02 1.877352e+02 1.998446e+02 3.882635e+02 3.977132e+01 2.093525e+01 1.793659e+01 2.983747e+01 2.220925e+01 2.083398e+01 2.453841e+01 2.453394e+01 2.754811e+01 2.027609e+01 1.823853e+01 1.826544e+01 3.904838e+01 4.120654e+00 3.495218e+00 2.873621e+00 5.617210e+00 3.749408e+00 3.696578e+00 4.065449e+00 4.020226e+00 4.008484e+00 3.446228e+00 3.116923e+00 3.011484e+00 2.898893e+00
<GCONST> 2.007700e+02
<STATE> 4
<MEAN> 39
 3.258396e+01 2.139188e+01 2.223246e+01 -1.356197e+01 -1.675800e+01 -3.419671e-01 2.276626e-01 1.453656e+00 -7.270895e+00 1.219087e+01 -3.162163e+00 6.590937e-01 1.049434e+02 1.332218e+00 -1.186777e+00 4.587448e-01 -4.467607e+00 -2.553372e+00 -1.966372e+00 -1.814022e+00 9.762895e-01 1.816975e-01 1.236730e+00 1.018997e+00 2.335241e-01 3.546180e+00 -9.367699e-01 -1.054378e+00 -8.875267e-01 -6.974703e-01 8.190472e-01 6.050530e-01 3.871672e-01 9.093515e-01 1.466594e-01 -3.382172e-01 2.693691e-01 7.000934e-02 1.329040e-01
<VARIANCE> 39
 5.062548e+01 2.061786e+02 1.856438e+02 2.390993e+02 2.806861e+02 2.882946e+02 3.699130e+02 3.061320e+02 3.995548e+02 3.131154e+02 2.730628e+02 2.952124e+02 1.401586e+02 7.727823e+00 1.332905e+01 1.118657e+01 2.799172e+01 1.645055e+01 1.574272e+01 2.094645e+01 1.994732e+01 1.894851e+01 1.746390e+01 1.620642e+01 1.494844e+01 1.536004e+01 2.318682e+00 2.453322e+00 2.074984e+00 3.010550e+00 3.257599e+00 3.257537e+00 3.616854e+00 4.062296e+00 3.670335e+00 3.223281e+00 3.004241e+00 3.031816e+00 2.057375e+00
<GCONST> 1.925647e+02
<TRANSP> 5
 0.000000e+00 1.000000e+00 0.000000e+00 0.000000e+00 0.000000e+00
 0.000000e+00 6.608942e-01 3.391058e-01 0.000000e+00 0.000000e+00
 0.000000e+00 0.000000e+00 5.378898e-01 4.621102e-01 0.000000e+00
 0.000000e+00 0.000000e+00 0.000000e+00 7.165350e-01 2.834650e-01
 0.000000e+00 0.000000e+00 0.000000e+00 0.000000e+00 0.000000e+00
<ENDHMM>
~h "ih"
<BEGINHMM>
<NUMSTATES> 5
<STATE> 2
<MEAN> 39
 -4.314509e+01 9.519833e+00 -3.794776e+00 2.452479e+00 -8.105568e+00 -7.629520e+00 -1.789436e+00 1.698724e+00 -5.389608e+00 1.305229e+00 -4.360783e+00 8.232121e+00 1.132042e+02 1.223769e+01 -8.167533e-01 1.037428e+01 1.743620e+00 2.885426e-01 -3.023520e+00 -1.434907e+00 -1.558321e+00 6.048151e-01 1.631114e-01 -9.484852e-01 1.044190e+00 4.110099e+00 2.818285e+00 -1.550238e+00 2.260387e+00 -2.606956e-01 -4.543414e-02 -1.263850e+00 -1.028861e+00 -5.056518e-01 -2.381487e-01 3.698352e-01 -1.225956e-01 1.405507e-01 1.700593e+00
<VARIANCE> 39
 2.713293e+02 1.109464e+02 2.505078e+02 2.238206e+02 2.847034e+02 2.848051e+02 1.505117e+02 1.439930e+02 1.648854e+02 1.472826e+02 2.089862e+02 1.565491e+02 1.143406e+02 3.046430e+01 1.816217e+01 2.470425e+01 1.756872e+01 1.439908e+01 2.587145e+01 2.612760e+01 1.592465e+01 1.774057e+01 1.929122e+01 1.676142e+01 2.487245e+01 1.385362e+01 5.334280e+00 2.371146e+00 4.683137e+00 3.726900e+00 3.110779e+00 4.508679e+00 5.702186e+00 3.528933e+00 4.756489e+00 3.436663e+00 3.164604e+00 4.119422e+00 1.175553e+00
<GCONST> 1.948437e+02
<STATE> 3
<MEAN> 39
 5.405946e+00 -8.453070e+00 3.607055e+01 -4.574942e+00 -1.344096e+01 -2.613086e+01 -8.524939e+00 -6.752290e+00 -2.589458e+00 6.206641e+00 -4.075719e+00 1.394883e+01 1.385675e+02 4.193182e+00 -3.915428e+00 4.479942e+00 -1.904533e+00 -1.695546e+00 -2.827724e+00 -2.347667e-01 -5.391818e-01 -6.631200e-01 1.235108e+00 3.767752e-01 2.783290e-01 3.274664e+00 -2.281873e+00 4.111613e-01 -1.490447e+00 2.220220e-01 -2.131217e-01 5.732504e-01 8.752409e-01 3.487418e-01 -5.754660e-01 -5.205469e-02 2.419051e-01 -3.439785e-01 -1.356120e+00
<VARIANCE> 39
 8.689725e+01 1.994472e+02 1.915362e+02 2.856899e+02 3.507461e+02 2.323522e+02 6.088635e+02 2.577048e+02 2.635830e+02 2.360878e+02 3.375718e+02 4.317630e+02 1.597911e+02 4.559639e+01 1.669995e+01 3.196064e+01 2.148644e+01 1.374151e+01 2.638196e+01 4.377077e+01 2.212435e+01 2.592232e+01 1.694383e+01 1.699558e+01 2.106767e+01 1.882361e+01 5.217432e+00 2.351789e+00 3.310740e+00 3.168721e+00 2.011334e+00 3.599400e+00 3.925272e+00 2.695419e+00 2.601581e+00 2.913653e+00 2.994322e+00 3.852337e+00 1.729068e+00
<GCONST> 1.986727e+02
<STATE> 4
<MEAN> 39
 5.311267e+00 -1.559723e+01 4.540273e+01 3.038065e+00 -1.734601e+01 -3.244230e+01 -2.902435e+00 -3.044351e+00 -1.863980e+01 8.441028e+00 -3.197170e+00 8.324908e+00 1.337260e+02 -1.001196e+00 3.078342e+00 -1.242747e-01 5.482988e+00 1.289879e+00 9.237393e-01 3.089979e+00 5.370466e-01 -3.085449e+00 -1.115273e+00 7.820938e-01 -1.421730e+00 -8.636386e+00 -1.278451e+00 1.817076e+00 -2.179568e+00 8.594376e-01 1.330727e+00 1.580840e+00 -5.222136e-01 2.178099e-01 8.929912e-01 -7.667724e-01 1.465792e-03 -2.120502e-01 -3.551952e+00
<VARIANCE> 39
 7.328738e+01 1.868077e+02 2.329359e+02 3.971778e+02 3.394704e+02 3.710959e+02 1.006986e+03 9.304641e+02 6.616932e+02 3.494215e+02 2.621165e+02 2.928799e+02 2.940587e+02 7.842542e+00 2.187994e+01 1.879387e+01 2.317661e+01 2.141008e+01 2.857184e+01 3.756382e+01 4.005037e+01 3.247948e+01 2.441376e+01 2.288515e+01 2.240116e+01 5.335740e+01 2.286080e+00 3.338569e+00 3.931981e+00 6.229691e+00 3.465598e+00 5.509079e+00 1.065059e+01 1.026001e+01 8.967024e+00 5.079143e+00 4.110883e+00 3.728298e+00 3.925645e+00
<GCONST> 2.100509e+02
<TRANSP> 5
 0.000000e+00 1.000000e+00 0.000000e+00 0.000000e+00 0.000000e+00
 0.000000e+00 6.601635e-01 3.398365e-01 0.000000e+00 0.000000e+00
 0.000000e+00 0.000000e+00 8.087741e-01 1.912259e-01 0.000000e+00
 0.000000e+00 0.000000e+00 0.000000e+00 7.797829e-01 2.202171e-01
 0.000000e+00 0.000000e+00 0.000000e+00 0.000000e+00 0.000000e+00
<ENDHMM>
~h "iy"
<BEGINHMM>
<NUMSTATES> 5
<STATE> 2
<MEAN> 39
 2.970270e+00 -7.198189e+00 6.043831e+01 -2.385141e+00 -7.945109e+00 -1.994056e+01 1.906623e+00 -1.296176e+01 -1.592829e+01 7.293638e+00 -8.176592e+00 1.158153e+01 1.353135e+02 1.015365e+00 -2.017489e+00 4.972931e+00 -4.174961e+00 -8.401465e-01 1.344915e+00 -4.570266e-01 -1.494028e+00 -1.516743e-02 1.102947e+00 -9.460053e-01 2.649536e-01 7.419035e-01 -4.280814e-01 6.666746e-01 -2.523654e+00 1.379554e+00 9.762060e-01 -1.954892e-01 -2.846612e-01 1.395796e+00 2.923146e-01 -3.880161e-01 5.420571e-01 -2.375507e-01 -9.106916e-01
<VARIANCE> 39
 7.671423e+01 2.016084e+02 2.321431e+02 3.124650e+02 2.201393e+02 3.020599e+02 6.304019e+02 5.244560e+02 3.662967e+02 3.614929e+02 2.436913e+02 3.568078e+02 1.064661e+02 2.375736e+01 4.110520e+01 2.009889e+01 2.814515e+01 2.076140e+01 4.612465e+01 2.765896e+01 3.299629e+01 2.725514e+01 2.215595e+01 1.855034e+01 1.443111e+01 5.860668e+00 2.744165e+00 1.933635e+00 2.661516e+00 3.791405e+00 3.799412e+00 3.498677e+00 4.288743e+00 3.525415e+00 3.678237e+00 3.271924e+00 2.463108e+00 2.838742e+00 4.741309e-01
<GCONST> 1.977981e+02
<STATE> 3
<MEAN> 39
 4.990853e+00 -1.206543e+01 6.681339e+01 2.687941e+00 -9.487991e+00 -1.576424e+01 -3.556412e+00 6.614720e-01 -2.637992e+01 4.350072e+00 -5.107962e+00 3.004759e+00 1.325753e+02 1.172771e+00 6.662056e-02 -3.625555e+00 2.250665e+00 1.368730e+00 -1.359454e+00 6.469385e-02 1.397797e+00 8.161888e-01 -3.823224e-01 7.709517e-01 -2.363495e-01 -1.862850e+00 1.319401e-01 3.164597e-01 -2.250118e+00 5.178885e-01 1.101105e+00 -3.653416e-01 -6.121433e-01 1.183939e-01 9.921542e-01 -2.625672e-01 8.654235e-04 2.052344e-01 -5.123909e-01
<VARIANCE> 39
 1.072854e+02 2.318721e+02 2.948224e+02 3.928718e+02 2.260270e+02 5.236601e+02 7.086251e+02 6.650505e+02 4.285358e+02 4.758446e+02 2.563626e+02 3.310467e+02 1.775850e+02 1.311527e+01 1.608433e+01 2.714612e+01 1.871181e+01 1.647137e+01 3.136026e+01 2.451433e+01 2.527371e+01 2.051849e+01 1.647754e+01 1.373948e+01 1.264663e+01 5.229610e+00 1.409491e+00 1.939500e+00 2.304481e+00 3.579979e+00 3.180742e+00 3.701023e+00 3.698810e+00 3.882740e+00 3.353764e+00 2.757447e+00 2.345860e+00 2.055725e+00 5.377825e-01
<GCONST> 1.952742e+02
<STATE> 4
<MEAN> 39
 -4.509854e-02 3.353631e+00 4.962525e+01 -4.989459e+00 -2.425405e+00 -2.585080e+00 1.420376e+00 -7.944301e+00 -4.621004e+00 2.887088e+00 -8.121616e+00 8.609471e+00 1.105943e+02 -1.985276e-02 1.465211e-01 -4.850319e+00 8.021596e-01 1.594608e+00 6.144831e-01 -1.064387e+00 7.973639e-01 1.718584e+00 -4.269758e-01 2.816871e-01 -2.446053e-01 -2.735591e+00 -7.502478e-02 -8.146066e-02 -3.179116e-01 -2.390949e-01 -1.126340e-01 7.941012e-02 -6.552803e-02 -1.632471e-01 -2.104917e-01 2.768488e-01 7.210818e-02 -1.103645e-01 -3.799376e-03
<VARIANCE> 39
 2.372051e+02 4.400491e+02 5.045333e+02 5.243828e+02 2.888703e+02 9.135969e+02 5.614378e+02 5.342660e+02 4.102540e+02 3.707096e+02 2.675989e+02 2.761689e+02 5.982072e+02 1.256976e+01 1.537957e+01 2.816110e+01 1.814647e+01 2.235373e+01 2.875576e+01 2.392046e+01 2.308714e+01 2.237409e+01 1.808942e+01 1.457090e+01 1.503585e+01 6.513035e+00 1.053930e+00 2.209452e+00 2.557842e+00 3.650444e+00 2.676616e+00 4.773227e+00 3.257376e+00 3.796735e+00 3.409199e+00 2.989929e+00 2.551508e+00 2.356466e+00 8.008481e-01
<GCONST> 1.999328e+02
<TRANSP> 5
 0.000000e+00 1.000000e+00 0.000000e+00 0.000000e+00 0.000000e+00
 0.000000e+00 6.652924e-01 3.347076e-01 0.000000e+00 0.000000e+00
 0.000000e+00 0.000000e+00 7.071037e-01 2.928963e-01 0.000000e+00
 0.000000e+00 0.000000e+00 0.000000e+00 7.737104e-01 2.262896e-01
 0.000000e+00 0.000000e+00 0.000000e+00 0.000000e+00 0.000000e+00
<ENDHMM>
~h "ow"
<BEGINHMM>
<NUMSTATES> 5
<STATE> 2
<MEAN> 39
 8.218912e-01 -8.602415e+00 -2.015222e+00 -1.458127e+01 -3.790447e+00 -9.091834e+00 -7.405678e+00 -3.009162e+00 -4.820127e-01 1.212838e+01 2.870553e-01 2.857136e+00 9.555663e+01 2.114727e+00 -1.619372e+00 -5.291802e-01 -2.721125e+00 5.519714e-01 1.294144e+00 1.340452e+00 5.941136e-02 1.123075e+00 1.966504e+00 -1.521220e-01 -9.078002e-01 4.611062e+00 4.277981e-01 -5.676369e-02 4.039030e-01 -1.852275e-01 2.758397e-01 2.994252e-01 4.543405e-02 9.453668e-02 -6.934594e-02 2.688282e-02 -7.811628e-02 2.075436e-01 1.070203e+00
<VARIANCE> 39
 5.525345e+02 3.070578e+02 2.610420e+02 3.923552e+02 3.820353e+02 5.099521e+02 4.896694e+02 5.191157e+02 6.114197e+02 5.526579e+02 5.044952e+02 3.485346e+02 1.163286e+03 4.852423e+01 2.302918e+01 2.457523e+01 3.661690e+01 3.407199e+01 3.398983e+01 3.800589e+01 4.117973e+01 4.606368e+01 4.188266e+01 4.137450e+01 3.209849e+01 1.272161e+02 5.957569e+00 3.951291e+00 3.459123e+00 5.198062e+00 5.525735e+00 5.547212e+00 6.859131e+00 7.281600e+00 7.646935e+00 7.433424e+00 7.249849e+00 5.900207e+00 1.461414e+01
<GCONST> 2.234416e+02
<STATE> 3
<MEAN> 39
 2.126358e+01 -2.304078e+01 2.325245e+00 -2.937971e+01 4.996097e+00 -9.642225e+00 -1.850674e+00 -4.780489e-01 6.300982e-01 2.777029e+01 1.936823e+00 9.372887e-02 1.386157e+02 6.750899e-01 9.325129e-01 6.449974e-01 -2.237276e+00 -3.962710e-01 2.782378e+00 -7.309725e-02 -1.343813e+00 -4.720249e-01 7.224193e-01 3.468002e-01 9.934026e-01 1.586854e+00 -4.982751e-01 7.744392e-01 -5.002468e-02 8.938988e-01 -1.414489e-01 -6.446064e-02 -3.144298e-01 3.164710e-03 -2.085719e-01 -9.116600e-01 -1.450582e-01 4.733877e-01 -1.574321e+00
<VARIANCE> 39
 9.687103e+01 1.833492e+02 2.296249e+02 3.010976e+02 3.440783e+02 5.859373e+02 5.585752e+02 3.755652e+02 8.001927e+02 4.828603e+02 5.421409e+02 2.451754e+02 2.147775e+02 7.038044e+00 9.338109e+00 7.206722e+00 1.103245e+01 1.018217e+01 1.379798e+01 1.472018e+01 1.483617e+01 1.837753e+01 1.722342e+01 1.656350e+01 1.455254e+01 1.980277e+01 1.794848e+00 1.069247e+00 1.188155e+00 1.934352e+00 1.847235e+00 1.926387e+00 2.464030e+00 2.453088e+00 2.748620e+00 2.634614e+00 2.907226e+00 2.183930e+00 3.675429e+00
<GCONST> 1.899087e+02
<STATE> 4
<MEAN> 39
 2.473887e+01 -2.670314e+00 6.276235e+00 -3.064763e+01 -3.220265e+00 6.910914e+00 -1.419882e+00 -1.495908e+00 -7.182184e+00 1.259437e+01 -1.306226e+00 7.396393e+00 1.241436e+02 -5.931835e-01 1.444711e+00 4.052363e-01 1.278509e+00 2.107586e-01 5.636390e-01 3.446267e-01 -5.733526e-02 -1.027211e-01 -9.747794e-01 -6.570367e-01 -1.892645e-02 -2.218946e+00 -3.097638e-01 -1.383366e-01 -5.992496e-02 3.920449e-01 1.092528e-01 -2.052079e-01 -7.336904e-02 6.258119e-02 1.399803e-01 1.402498e-03 3.659628e-02 -9.953365e-02 -2.010417e-01
<VARIANCE> 39
 1.187710e+02 3.581230e+02 2.592710e+02 5.085116e+02 5.598115e+02 4.677599e+02 4.730115e+02 4.149745e+02 8.085161e+02 4.490798e+02 4.295551e+02 3.408431e+02 4.995375e+02 6.597675e+00 9.573206e+00 7.719314e+00 1.630758e+01 1.165474e+01 1.317052e+01 1.406896e+01 1.570881e+01 1.802289e+01 1.600534e+01 1.596758e+01 1.387822e+01 5.168839e+00 9.438610e-01 1.315340e+00 1.145762e+00 2.147571e+00 1.754289e+00 2.097989e+00 2.183281e+00 2.475953e+00 2.706358e+00 2.355183e+00 2.376813e+00 2.157571e+00 5.392589e-01
<GCONST> 1.887955e+02
<TRANSP> 5
 0.000000e+00 1.000000e+00 0.000000e+00 0.000000e+00 0.000000e+00
 0.000000e+00 7.280336e-01 2.719664e-01 0.000000e+00 0.000000e+00
 0.000000e+00 0.000000e+00 7.055859e-01 2.944142e-01 0.000000e+00
 0.000000e+00 0.000000e+00 0.000000e+00 9.260989e-01 7.390105e-02
 0.000000e+00 0.000000e+00 0.000000e+00 0.000000e+00 0.000000e+00
<ENDHMM>
~h "sp"
<BEGINHMM>
<NUMSTATES> 3
<STATE> 2
~s "silst"
<TRANSP> 3
 0.000000e+00 3.672801e-02 9.632719e-01
 0.000000e+00 8.887537e-01 1.112463e-01
 0.000000e+00 0.000000e+00 0.000000e+00
<ENDHMM>
~h "th"
<BEGINHMM>
<NUMSTATES> 5
<STATE> 2
<MEAN> 39
 -2.579094e+01 2.017107e+00 2.166322e+00 8.238346e+00 -3.602376e+00 1.727825e+00 -3.127985e+00 7.879714e-01 -4.457438e+00 2.305209e+00 -2.216738e+00 4.289518e+00 8.030979e+01 -2.190353e+00 -1.087776e+00 -1.744615e+00 -1.412608e+00 -1.461479e+00 -3.203256e-01 -8.672972e-01 -6.246983e-02 4.162774e-03 -5.507300e-01 -2.183120e-02 3.031512e-01 1.941773e+00 1.013314e+00 -2.111557e-01 8.675671e-01 -3.910863e-01 -1.169419e-01 -3.819809e-01 1.479270e-01 -2.056809e-01 -3.594761e-02 1.862990e-01 -1.265188e-01 1.199645e-01 1.846867e+00
<VARIANCE> 39
 2.114492e+02 1.581240e+02 1.509777e+02 1.528982e+02 1.640295e+02 1.627788e+02 1.718552e+02 1.675601e+02 1.745752e+02 1.457840e+02 1.415723e+02 1.308423e+02 5.381163e+02 2.552074e+01 1.755704e+01 1.989722e+01 2.221651e+01 1.872265e+01 2.147442e+01 2.218006e+01 2.159173e+01 2.333273e+01 1.861300e+01 1.781740e+01 1.727786e+01 9.176776e+01 3.430450e+00 3.651146e+00 3.945012e+00 3.929554e+00 3.643792e+00 4.194376e+00 4.247912e+00 4.035113e+00 4.374471e+00 3.777479e+00 3.597711e+00 3.536271e+00 9.918432e+00
<GCONST> 1.980278e+02
<STATE> 3
<MEAN> 39
 -2.408960e+01 -6.107718e+00 1.042792e+01 -1.174027e+00 -1.164795e+01 -4.532990e+00 -2.706408e+00 -9.654522e-01 -2.531059e+00 3.346221e+00 -3.892463e+00 6.770702e+00 1.142343e+02 5.716256e+00 -1.888196e+00 5.700266e+00 2.680953e+00 1.736697e+00 -2.070158e+00 4.437093e-01 3.925996e-01 2.861832e-01 1.527898e+00 4.809325e-01 -3.621504e-01 4.122303e+00 2.337929e+00 -1.965996e-01 -2.833757e-01 1.709268e+00 2.004563e+00 -2.496888e-01 -9.114099e-01 1.580179e-01 -3.945796e-01 3.158534e-03 3.485241e-01 -3.486610e-01 -2.294895e+00
<VARIANCE> 39
 1.817406e+02 1.601875e+02 2.735021e+02 1.704977e+02 1.671091e+02 1.974644e+02 2.108690e+02 1.946121e+02 1.902574e+02 1.836375e+02 1.827883e+02 2.067297e+02 1.503558e+02 3.349847e+01 1.937078e+01 2.651560e+01 3.359972e+01 2.585584e+01 2.870260e+01 2.725656e+01 2.484431e+01 2.319682e+01 2.066070e+01 2.179809e+01 2.412095e+01 5.022690e+01 4.214891e+00 4.406805e+00 9.546593e+00 5.336432e+00 4.950060e+00 6.197852e+00 7.167697e+00 5.421363e+00 5.007681e+00 5.475497e+00 4.933541e+00 5.169786e+00 6.507456e+00
<GCONST> 2.048545e+02
<STATE> 4
<MEAN> 39
 1.828948e+01 -1.244337e+01 1.430832e+01 1.693915e+01 1.415712e+01 -9.597261e+00 -1.722953e+01 -3.176607e+00 -6.721810e+00 4.242818e+00 -9.041420e-01 3.441216e+00 1.155990e+02 1.048331e+01 -1.751977e+00 -3.744833e+00 1.088426e+00 7.439455e+00 -1.605930e+00 -6.598897e+00 -7.643595e-01 -1.400787e+00 -1.448760e+00 -9.382175e-02 4.265625e-03 1.642614e+00 -1.857111e+00 -1.071431e-01 -7.523731e-01 -1.307971e+00 -8.312413e-01 -2.934892e-01 2.357365e-02 4.897988e-01 -7.795446e-02 -3.772365e-01 -2.912350e-01 2.160407e-01 2.162536e-01
<VARIANCE> 39
 3.802149e+02 1.471489e+02 3.257624e+02 1.980799e+02 3.322799e+02 4.582139e+02 4.275358e+02 2.916008e+02 2.069683e+02 1.955411e+02 1.768672e+02 1.668228e+02 1.741485e+02 3.055736e+01 2.228554e+01 3.210921e+01 3.071286e+01 3.290222e+01 6.274714e+01 4.239550e+01 3.464293e+01 2.693234e+01 2.931999e+01 2.583391e+01 2.109478e+01 1.233986e+01 7.324789e+00 3.786991e+00 1.180348e+01 5.998113e+00 7.656337e+00 8.549619e+00 9.351990e+00 7.074495e+00 5.190211e+00 4.555089e+00 4.584185e+00 4.111114e+00 3.112142e+00
<GCONST> 2.104297e+02
<TRANSP> 5
 0.000000e+00 1.000000e+00 0.000000e+00 0.000000e+00 0.000000e+00
 0.000000e+00 8.360603e-01 1.639396e-01 0.000000e+00 0.000000e+00
 0.000000e+00 0.000000e+00 7.465639e-01 2.534361e-01 0.000000e+00
 0.000000e+00 0.000000e+00 0.000000e+00 7.285522e-01 2.714478e-01
 0.000000e+00 0.000000e+00 0.000000e+00 0.000000e+00 0.000000e+00
<ENDHMM>
~h "uw"
<BEGINHMM>
<NUMSTATES> 5
<STATE> 2
<MEAN> 39
 -3.385502e+00 -2.751144e+00 4.446403e+01 1.021013e+01 -5.336055e+00 -1.364109e+01 8.717741e-01 3.352256e+00 -1.156086e+01 1.801341e+00 -7.720729e+00 7.656301e+00 1.241578e+02 1.024597e+01 -2.375285e+00 7.060303e+00 1.891135e+00 1.291946e+00 -1.324925e+00 -4.266620e+00 -3.322885e-01 -2.061923e+00 4.211447e-01 -7.239970e-01 -9.546317e-01 4.953723e+00 -2.040188e+00 -5.205304e-01 -1.486081e+00 -1.587197e+00 -2.833636e-01 -3.063401e-01 -8.204196e-01 -3.427685e-01 -7.515170e-01 3.170969e-02 4.155581e-01 -6.535041e-02 7.131259e-01
<VARIANCE> 39
 2.589774e+02 1.822043e+02 2.235773e+02 2.469245e+02 1.509418e+02 2.364261e+02 5.337493e+02 4.324412e+02 2.759797e+02 2.047218e+02 2.098251e+02 2.564314e+02 2.135950e+02 2.137921e+01 1.395647e+01 2.285333e+01 2.725665e+01 2.068277e+01 4.194761e+01 3.727167e+01 2.539367e+01 3.234623e+01 3.028318e+01 2.717710e+01 3.239965e+01 9.271649e+00 5.189138e+00 1.811409e+00 3.648665e+00 2.341989e+00 2.330925e+00 4.375097e+00 4.765537e+00 3.053104e+00 3.925227e+00 3.751817e+00 2.906559e+00 3.085099e+00 3.360532e+00
<GCONST> 2.005159e+02
<STATE> 3
<MEAN> 39
 8.729411e+00 -1.260234e+01 5.449645e+01 7.311739e+00 -3.717335e+00 -2.121707e+01 -9.516319e+00 4.251893e-01 -2.008252e+01 2.933636e+00 -7.998714e+00 5.830842e+00 1.350681e+02 7.045078e-01 -7.519697e-02 -6.123473e-01 4.308971e-01 1.485539e+00 6.030595e-02 -7.547914e-01 -1.150452e-01 -4.773715e-02 2.509755e-01 -4.694631e-01 -4.976299e-01 -8.022417e-01 -4.048110e-01 5.848122e-01 -7.906885e-01 6.847426e-02 2.185121e-01 4.662004e-01 3.541721e-01 -1.769891e-01 4.370885e-01 5.343094e-02 5.668966e-03 -7.448053e-03 -7.298476e-01
<VARIANCE> 39
 7.517424e+01 1.552570e+02 1.766008e+02 3.595951e+02 2.105785e+02 4.178985e+02 1.025594e+03 6.176492e+02 3.726859e+02 3.758117e+02 2.935463e+02 6.241175e+02 1.348647e+02 2.462471e+00 4.140554e+00 6.346726e+00 5.593486e+00 6.899264e+00 8.582541e+00 1.035849e+01 8.917240e+00 1.005164e+01 1.031447e+01 8.813668e+00 9.405122e+00 3.500373e+00 1.303266e+00 7.558710e-01 1.321376e+00 1.178280e+00 1.152939e+00 1.772057e+00 2.280679e+00 1.736964e+00 1.883711e+00 1.933885e+00 1.575212e+00 1.698779e+00 7.847916e-01
<GCONST> 1.750812e+02
<STATE> 4
<MEAN> 39
 1.658592e+01 2.962661e+00 2.464827e+01 7.206600e+00 1.183531e+01 1.813854e+00 -5.997445e+00 -6.630107e+00 -1.454045e+01 7.221542e+00 -7.433625e+00 1.692447e+00 1.075654e+02 -1.013670e+00 1.122214e+00 -2.942684e+00 -2.696797e-01 1.868838e-02 2.117665e+00 1.605570e+00 -3.701476e-01 9.634519e-01 -9.830322e-02 5.326750e-01 1.431077e-01 -3.011257e+00 -5.767691e-01 -1.733360e-01 4.880490e-03 -3.242331e-02 -5.061713e-01 -3.140823e-01 1.103940e-01 2.766832e-01 3.797112e-02 -1.750430e-01 9.245571e-02 1.033930e-01 -3.828167e-02
<VARIANCE> 39
 1.368625e+02 2.177898e+02 3.647005e+02 3.528750e+02 3.063921e+02 7.001498e+02 6.581161e+02 4.978315e+02 6.999398e+02 4.602515e+02 4.432213e+02 5.370579e+02 4.336774e+02 1.214147e+01 1.518699e+01 1.231391e+01 1.811963e+01 1.808197e+01 2.868779e+01 2.935748e+01 2.879381e+01 2.937353e+01 2.262808e+01 2.221073e+01 2.079803e+01 5.638683e+00 1.480295e+00 2.260806e+00 1.877677e+00 2.727811e+00 2.820847e+00 4.102778e+00 4.296919e+00 4.322491e+00 4.567205e+00 3.761269e+00 3.903460e+00 3.408961e+00 8.474289e-01
<GCONST> 2.013145e+02
<TRANSP> 5
 0.000000e+00 1.000000e+00 0.000000e+00 0.000000e+00 0.000000e+00
 0.000000e+00 6.874279e-01 3.125721e-01 0.000000e+00 0.000000e+00
 0.000000e+00 0.000000e+00 8.810752e-01 1.189248e-01 0.000000e+00
 0.000000e+00 0.000000e+00 0.000000e+00 8.839216e-01 1.160784e-01
 0.000000e+00 0.000000e+00 0.000000e+00 0.000000e+00 0.000000e+00
<ENDHMM>
~h "sil"
<BEGINHMM>
<NUMSTATES> 5
<STATE> 2
<MEAN> 39
 -1.155105e+01 -1.163823e+00 1.417879e+00 7.319592e+00 1.253825e+00 9.679057e-01 4.651860e+00 6.585835e+00 -5.880473e-01 2.840412e-01 -4.102127e+00 7.380868e-01 6.437125e+01 -5.188174e-01 8.571956e-01 -1.522530e-01 -1.019052e-03 -1.890782e-02 5.365646e-02 -3.287015e-01 -2.273119e-01 6.936743e-02 2.387858e-02 2.762655e-01 1.028524e-02 -1.199432e+00 -3.196734e-02 7.526481e-02 1.204409e-01 -1.717047e-02 1.524898e-03 4.900225e-04 -2.774062e-02 -8.205166e-02 -1.311009e-02 8.285813e-02 7.859397e-02 7.892478e-02 6.043020e-02
<VARIANCE> 39
 7.496781e+01 1.674957e+02 1.425677e+02 1.307527e+02 1.500449e+02 1.867864e+02 1.962262e+02 2.122302e+02 2.014595e+02 2.011162e+02 1.630138e+02 1.434668e+02 1.061604e+02 2.436435e+00 4.440183e+00 5.533643e+00 6.949371e+00 8.456517e+00 1.051066e+01 1.195628e+01 1.292781e+01 1.278209e+01 1.270959e+01 1.197100e+01 1.094372e+01 1.891805e+00 3.734788e-01 6.919146e-01 9.730346e-01 1.237806e+00 1.524089e+00 1.855163e+00 2.155115e+00 2.330297e+00 2.367280e+00 2.345946e+00 2.211173e+00 2.043339e+00 1.878339e-01
<GCONST> 1.663588e+02
<STATE> 3
~s "silst"
<STATE> 4
<MEAN> 39
 -2.319840e+01 -4.571403e-01 4.391330e-01 2.559606e+00 -2.612809e+00 -2.752559e+00 -2.895165e+00 3.801395e-02 -2.979605e+00 1.876814e+00 -1.057070e+00 2.177096e+00 5.936515e+01 9.389895e-02 -1.737902e-01 2.534098e-01 1.202271e-01 6.461164e-02 1.201734e-01 1.967655e-01 1.156325e-01 -2.389389e-02 2.144639e-01 -1.431040e-01 1.951268e-02 8.862294e-01 9.658776e-02 9.269710e-03 8.113156e-02 -1.273477e-03 2.096254e-02 3.137096e-02 4.692725e-02 4.215321e-02 1.893152e-02 -8.737280e-03 -4.139104e-02 2.390807e-02 4.459971e-01
<VARIANCE> 39
 1.051400e+02 1.365545e+02 1.096544e+02 1.157115e+02 1.381737e+02 1.560161e+02 1.720526e+02 1.679827e+02 1.559804e+02 1.402909e+02 1.320152e+02 1.137977e+02 2.156250e+02 1.073422e+01 1.354129e+01 1.178552e+01 1.218775e+01 1.401744e+01 1.566501e+01 1.667452e+01 1.628587e+01 1.539878e+01 1.447709e+01 1.384498e+01 1.177329e+01 1.934257e+01 2.273206e+00 2.631353e+00 2.340625e+00 2.416675e+00 2.716411e+00 2.951397e+00 3.162803e+00 3.081596e+00 2.932276e+00 2.735750e+00 2.595650e+00 2.236988e+00 4.190855e+00
<GCONST> 1.834915e+02
<TRANSP> 5
 0.000000e+00 1.000000e+00 0.000000e+00 0.000000e+00 0.000000e+00
 0.000000e+00 8.322893e-01 1.082976e-01 5.941307e-02 0.000000e+00
 0.000000e+00 0.000000e+00 9.079068e-01 9.209316e-02 0.000000e+00
 0.000000e+00 7.537299e-02 0.000000e+00 7.572902e-01 1.673368e-01
 0.000000e+00 0.000000e+00 0.000000e+00 0.000000e+00 0.000000e+00
<ENDHMM>
